{"class_name": "SequentialNetwork", "layers": [{"class_name": "LinearLayer", "lay_in": 27, "lay_out": 27, "weights": [[-0.16850839464087122, 0.7428278921921632, -0.3979173949364836, -0.2599698802483793, 0.2551254500254037, 0.3610818281227653, 0.8922894267712617, -0.23686079190998538, 0.47913593996821874, -0.24537823945450568, -0.1079230731059259, -0.4701472485579456, -0.014607664047620587, 0.02091836533338914, 0.1304379906161777, -0.35232328809552366, -0.0585297319998387, 0.01680768187765084, -0.0453870638638249, 0.3328370631486204, -0.4097562501348601, -0.05595318873790109, -0.33702854729066617, 0.062389216334061, -0.17050400203857438, -0.8772267876947436, 0.4498742193222993], [0.27329135047597536, -0.17668313550224973, 0.28013270490656195, -0.24230044566722028, 0.08748632522929842, -0.18604297128281155, -0.44524680366532676, -0.6319458936195607, 0.15232265317021215, 0.16486405981833235, 0.29582729025128296, -0.1305558033122996, 0.02527787119023468, 0.5241968521653853, 0.38712821742585807, -0.08807915388852672, -0.09764271852288398, -0.3944009697861799, -0.05067603751965934, 0.25916961118687004, 0.8926228330332604, -0.41702673308422433, -0.06365824674212398, -0.1032587436002177, -0.41385606744017767, 0.13917869710726102, 0.25615544309029775], [0.7070227926470478, 0.8095675064723644, -0.500149415983259, -0.07675253926611293, -0.37382908499468676, -0.10985991439615743, 0.8426337664542716, -1.1700482552149922, -0.14912571928576876, -0.030233174069532666, -0.3014996337551349, 0.07555195521053394, 0.07148956610752753, -0.07156039988557349, 0.5064781909051157, 0.10989022809806677, -0.2445013506136048, 0.13257641413311153, 0.1010523730207169, 0.5231705948372868, -0.2623511063652271, -0.21073016285359225, 0.43121648916108024, 0.07368254928509164, 0.6061596016065873, -0.5866377970799322, 0.28575499460634557], [-0.47347835371137165, 0.048468662646348394, 0.09324286042424362, -0.3922435456740448, -0.04780435593475582, -0.4437210651075456, 0.45352673626828277, -0.9816357062742993, 0.5444105128014147, -0.1021419800559834, 0.08141835315996415, 0.3010579642826985, 0.14975792508378635, -0.06798892164899946, -0.10171164175098146, -0.1296666548769294, -0.22980629350738316, 0.062442204223959116, -0.6104356526264202, -0.3716230834591779, 0.11646023254303701, -0.17771492092248384, -0.20203449399840043, -0.07423378729168997, 0.536718683910445, -0.6936060840544316, 0.4071679403683818], [0.0431303585475628, -0.8721627081708495, 0.31052177600663383, -0.28012579896299944, -0.42482567000401483, -0.40988010967797306, -0.1284627546078096, 0.37370943741186163, 0.0328508896153876, 0.2581390815768308, 0.18941843912912074, -0.1042393662563297, 0.20776204370224563, 0.02928585750451838, 0.3447731898033012, -0.12656540065008562, -0.30918792725329247, -0.1984887268138758, 0.2982934423392443, -0.9114545816878892, -0.08188479962305123, 0.4036753312472061, 0.1800525905743454, 0.04229951687890641, -0.01591393418597903, 1.114520879997703, -0.13081609000590502], [0.8749022102946865, -0.16707997848465153, 0.41575393069011857, 0.0326260855012129, 0.8961870056376916, -0.1367278631481292, 0.04418075311846019, -0.2836130508826252, -0.7790439981243126, -0.0247861339207828, -0.2297089390834341, 0.2802804135898255, 0.17976997830622157, 0.006629974678911311, 0.13063814602984228, 0.12994664849836196, 0.3301173588278901, 0.617369487500568, 0.3748474249123448, -0.3362657184102722, -0.2187132704435719, 0.05093896220212561, 0.6493230640692949, -0.24310615761344728, -0.11977899043174352, -0.384275742987617, -1.2919812950409058], [-0.07127606815790727, -0.11502948881050937, -0.3822562434006039, -0.4029901882450173, 0.8832228019741309, -0.33057434771402183, -0.04828746658886671, -0.5020853920893932, 0.6596371675710749, -0.2748378962313334, -0.0037978779431257527, -0.06329038594886197, -0.2631073342104173, 0.2916582740417473, 0.11713413823479621, 0.09683913146927725, -0.14628002345918245, -0.05904168056695741, -0.6415531825303894, -0.16846162275439594, 0.10355989464177222, 0.2862647806113939, -0.09338258527447922, -0.4071551370972321, 0.07697367502386243, -0.005934914237249289, 0.5869990827976137], [-0.22300462546376681, 0.5180552921174032, -0.09614008272740482, -0.4040319540994089, 0.07875164836922016, 0.3515349218290366, -0.8612023149140238, 0.008283176033278461, -0.456249981489221, -0.05944992064250626, -0.057473642640198795, -0.31872781265069333, 0.057052876642759036, -0.1529519709675624, -0.11895794708612277, -0.12576115148115521, -0.01016841910997501, -0.058378472013147525, -0.1215996492627379, -0.08101775340883838, -0.11320605701946755, -0.7739913733125419, 0.10268738792737152, 0.5322842238439891, 0.05922822144256301, 0.585545176323148, 0.27793990141318103], [0.7292952265855157, -0.14457769451619754, -0.5684007445010087, 0.0736267891294618, 0.6458771586288511, -0.354013243250019, -0.5524858710314201, 0.12547572337421023, -0.44310979841709625, 0.010299646553217108, -0.20197336694386633, 0.18401197315811343, 0.019960926163322054, 0.011546594820610451, 0.25786619304651337, 0.11289895209775436, 0.14418127212547127, -0.39698424755838524, -0.4657237088230019, -0.23104014046887397, -0.4603902134722596, -0.2682776453133605, 0.008228840940248342, -0.4833850163362628, 0.9438729677677552, -0.43118405939653753, 1.4944227756436048], [0.21318721854296838, 0.28900626345704455, 0.17259591459846557, -0.7262235432888028, 0.49818302566921013, 0.20466634707408207, -1.32243095404145, -0.6396814557687823, 0.0804521739328383, -0.5359672358738695, -0.10026919993315835, 0.023984697323056813, 0.051200624655888954, 0.09488145255562058, 0.26386825813807807, 0.4427197481952094, 0.40387764134804266, -0.030942125181287344, 0.6099765323357189, 0.0719533920813686, -0.1649448770529249, 0.41303368641569527, -0.2842592528294798, 0.11173566476369619, -0.577879462171014, 0.606625203795366, -0.6888744117199206], [-0.3119935558359756, 0.1568890173212991, -0.619167206902657, 0.41528652919606424, 0.16883312371098214, -0.08259446622028327, -0.29823242919898474, -0.48941590432269033, 0.432560433269592, 0.16487434722773997, -0.3349743245806718, 0.18252450291783462, -0.07359219939198343, 0.18662505611787525, 0.19691308877678634, -0.08500976030856124, 0.06517616887970651, -0.13538878632452292, -1.351250555978145, 0.6499216382182789, -0.19335337252913257, 0.38254871218394537, 0.4996147990140644, -0.52562703413767, -0.3839098594064939, -0.014615170941280018, -0.23925972185192304], [0.5832324675556494, 0.22183845367806573, 0.02587915691882581, -0.09875663018197973, 0.2561009756296131, 0.31654688226230915, -0.3890580154823229, -0.7396914887193629, 0.25038980407699785, -0.2285459564482349, -0.2610442460472642, -0.4660987595358152, -0.5256093355144977, -0.05812848221577219, -0.14478879134604902, -0.132753073869264, -0.688250257965299, -0.1873598608239945, -0.2566199278883902, -0.08274828762547731, -0.7091932766616083, 0.15004444614798362, 0.6561688286168067, 0.5135644843215112, -0.07372749957554507, -0.1865531774178161, 0.17184050627338235], [-0.5922034076853945, 0.05865746223420334, 0.05856500567830324, 0.3660511479985271, -1.0212136849532998, -0.01991028204192826, 0.03963451148691389, -1.203600610107507, -0.08651574945657732, 0.34956778951348877, -0.007330939116020361, -0.037703804319470735, -0.36327458896188247, 0.3351894104700105, 0.07711091139149784, -0.08741222615699006, 0.08279272932299148, 0.16909595991317913, 0.11385847448307704, 1.0239220698378078, -0.3797087077272731, 0.6242823618893213, -0.4176270955919783, -0.7713694506974388, 0.28170973435524005, -0.02377018414422061, 1.0783128275748937], [0.10426027929943542, 0.07805636666898041, 0.04489106078453202, 0.07988437994377666, -0.73578534312216, 0.46903106805765865, 0.33390851834525187, -0.0032456690273701626, -0.7051065250432274, -0.9477659105544461, 0.2515839549706097, 0.22675643371579213, 0.11404666027456291, -0.09293372641151937, -0.02831451508693291, 0.15521493373687964, -0.16729944750877554, 0.29352134595770246, 0.013084393816753538, 0.5658732892179021, -0.2924776360452599, -0.44674393981026034, -0.32282150150538647, -0.016052275073549917, 0.48767302435455107, -0.3706791759377357, -0.06247958027365566], [-0.2161257074501248, 0.10285877579353445, 0.19741977193662177, -0.17524306153646532, 0.5263514111220726, 0.2735427061503334, -0.05527029579332148, -0.31606826817126654, -0.9995113683738726, -0.004711887556339614, -0.21538937007423892, -0.3261385654168319, 0.028348989497336878, 0.5528363290543483, -0.11654381407013913, -0.10152153165624904, -0.15042236605540157, 0.37889352690988953, -0.05690519871190331, 0.2881099086005843, 0.2519302685912257, -0.016876619808136355, 0.2627290260769565, 0.1550608308665572, -1.0281430319934486, 0.3686201984895803, -0.040575837046891446], [0.6348825014416074, -0.05573224107390697, 0.41513601153201113, 0.2273164759808514, 0.029909010940737526, -1.6500218040452843, -0.4721312270298485, 0.09787123981899663, -0.21657625117013327, -0.07919303684545703, -0.181300275973662, -0.030028855611613683, -0.03248251155490199, 0.27824270305845633, 0.22295260713045084, -0.1781486461297323, 0.0031869569379335697, 0.22529643022988968, 0.649751230276321, -0.5540850161929541, 0.04988118840394045, 0.6063411836369664, -0.3654505880169636, -0.8489981233476926, -0.32875816613919134, -0.2893480662064495, -0.2539075811282394], [-0.15245887871781788, 0.3430272455908517, -0.3430643707127838, 0.08848853318499046, -0.5323403266985474, -0.6960171414148946, -0.4443478401771038, -0.7088861378938064, 0.04261657433088306, -0.049193548452058436, -0.05844010242303318, -0.6108181078890121, 0.1308039422450253, 0.10423026155644792, 0.24178936765364561, 0.2893143162279191, 0.3776849861362045, -0.44212781009805713, -0.23264989848934214, -0.24228771817400951, 0.41873873108878745, -0.1927056549740455, 0.0018394230194130128, -0.23098249811011204, -0.10785431190488298, -0.721514392181879, 0.5061380835567025], [0.4563939162769745, -0.06361712185946616, 0.5002885523417029, 0.1788740959681879, -0.5614905154788831, 1.0160958396312472, -0.164476160596232, 0.682435640529074, -0.378662309762942, -0.036878057690352586, -0.030797606083804312, -0.00904618123324544, 0.10387506521820675, -0.33321324155493265, -0.24243439003473155, -0.0772119475447206, 0.3356559286955397, 0.41259592406865364, -0.26364447091376797, -0.6071457268159727, 0.5745938372105297, -0.10290211235787251, -0.6387927335801828, 0.6646451620266681, -0.1640696459704673, 0.7027061808392645, 0.337293686770936], [-0.5214372383961242, 0.007215027107725253, 0.7488926040799732, 0.24676688818491344, 0.6059174133503733, -0.08650982474477034, -0.28311384738476403, -0.5466798227248281, 0.6467067132739978, -0.06754905878507309, 0.07670873935213979, 0.0900407733251267, 0.18400826055876005, -0.355222390307486, -0.11908411044869494, -0.14924249606688123, -0.20812675944791806, 0.09220141557514938, -1.0013852316605862, -0.24708794867171055, 0.5717520599411643, 0.07584267134928771, 0.009466092202781528, -0.7421785621429465, -0.664434799987766, -0.07815300199781149, 0.021961042182890553], [0.00561985424739156, -0.44530561178507944, 0.21788770527764925, -0.3654103390549018, -0.5346941565082998, 0.26298612662796583, -0.2933525367871677, 0.5711118766019874, -0.03075493315996178, 0.20082922668970074, -0.017786990204380394, -0.18736548510549902, -0.2927946360757236, 0.06753867168071205, 1.0915479889879796, -0.13970886113799544, -0.5213040752779148, 0.12388565478204397, 0.7660797898447705, -0.10167277907399273, 0.5036039749878009, -0.7313922063203502, 0.5092975687496215, 0.16163041549375798, 0.15925680062568962, -0.3826378590536244, 0.14406476793604497], [-0.28820534760384575, -0.4018131872375775, 0.1265619534148752, -0.3834556403332471, 0.5262673496644937, 0.4502786941852589, -0.3342773309558311, -0.6453076001965778, -0.13770708158992193, -0.36631621246253465, 0.00868423211995491, 0.001606045869262894, -0.12531167188793713, -0.47810603144602837, 0.010901502441875788, 0.20892318493891748, -0.09220195488495352, 0.3232030702303709, 0.16921110162908393, 0.20177178935484716, 0.7030797274773803, 0.5396650187816121, 0.7086810179227004, 0.02550278921277436, -1.1661440169033166, 0.5150866603900921, -0.2437724044864154], [0.2806416969452544, -0.17121037197036618, 0.6838817006260169, -0.5151511481931172, -0.04213825787944565, -0.3466214801782318, -0.40282550057399663, 0.2767545894457011, 0.6294353952233211, -0.2402556553575856, -0.16597017338636272, -0.0013983660012036436, -0.11798475204144175, 0.14513977364515715, 0.013526098363864423, -0.022024886627125227, 0.15453050106883445, 0.10819837613534748, 0.09633197433326982, -0.7634391856971742, -0.17751628882668666, -0.31042628527876154, -0.7735027388585594, -0.5630884956644806, -0.19765196327414378, -0.03041596190208457, 0.08840630867541976], [0.675836800706509, -0.11500232492201694, -0.8200301696326909, -0.5490643657338937, -0.2685872735058772, 0.526617555138039, 0.32756038515000774, 0.11067048064239203, -0.27846532878361135, -0.31059853182550573, -0.08817057786078791, 0.008519517007345047, -0.04733509884292572, 0.02021637981993081, -0.408213541399796, 0.10518276675763848, -0.06372469342310921, 0.2624196338270517, 0.8741558150242326, -0.16878439809509355, 0.1556099816110008, 0.4489546059148546, -0.5443090311289681, 1.0074574085488406, 0.5466848626923336, -0.09223060315613843, -0.8296107202178374], [0.8580467340213436, -0.004937213875917744, -0.4441318928853636, -0.10457392719522766, -0.3274483305619844, -0.05009557850161493, 0.14994528271732588, -0.03975185782753919, 0.05174542501728591, 0.174424873798197, 0.49701911581094144, 0.4879007212282084, 0.08523334432086978, -0.30496415662279575, 0.07857154791653782, 0.031886805272926186, -0.10612405227568805, -0.5383618401127783, -0.5152987767745812, -0.3356258163713126, 0.7236687149650763, -0.4527447806821981, 0.37779097115210525, -0.06652742032823777, -0.056707548948445936, 0.4866938860108509, 0.832396114968645], [-0.09135356202479454, -0.2454145062537457, -0.05784452826989733, 0.34447607434304267, -0.476205043357673, 0.039977789221293476, 0.10055251534244926, 0.9864286083263574, -0.14403687204857396, 0.010772891481493093, 0.15753050606984118, 0.46761116401819003, -0.07428611263665556, 0.5410775195305456, 0.1456202849113874, -0.00018694528599591916, 0.1539572506605634, 0.2400637389280174, 0.133522237781236, -0.7533640892111358, 0.1963211032927349, 0.12176787963269929, -0.8954186571137728, 0.19897896679433472, -0.34395218849776293, 0.7061817988557866, -0.1583330616022897], [-0.36583974490632853, 0.671085265846546, -0.3705712704705647, 0.13062576718666838, 0.5665178732161189, 0.18394089802843688, -0.33999436846478565, -0.13820606876133862, -0.27879342037571464, 0.08520693220155291, 0.154770314986121, 0.10939047324867555, -0.1931033597270802, -0.14974602185637878, 0.11738981008393543, -0.11037579960112016, -0.17855170954467572, 0.06805205612063975, -0.07357032088614224, 0.5389384505800331, -0.520806804660064, 0.25607397906230217, 0.202152185169363, 0.7670337715245752, -0.38248416404403734, -0.15240028424113133, -0.4005881252819364], [0.4431394650082435, 0.6460054582359512, 0.0061215709704799245, 0.39472577173206147, -0.35686056581514464, -0.05916260697728103, 0.24163211361046044, 0.7124937735843578, -0.6679893169041413, -0.18850606089718022, -0.06648412792917492, -0.3588191189577833, -0.4219028906177579, -0.26728705216158477, 0.15503501945623552, 0.16510981743117578, -0.3396678861889448, -0.31120003240080163, -0.04898777804668785, -0.11464966984963708, 1.1876627758199099, 1.3195224350030013, 0.26885407786318355, -0.3562346459497902, -0.22288261079312532, 0.4405923041556682, 0.7516098355034203]], "bias": [0.1260699172859362, 0.257167263209423, -0.2199171336304833, -0.14539991874406957, 0.013143829472833199, -0.20670767709865998, -0.15442433342614642, -0.11433908061998735, 0.3151184242402642, 0.20572647815144127, -0.11324509179107567, -0.043214519967343865, -0.14085326979719542, -0.022197745566323035, -0.04350418498512459, -0.08817790248218371, -0.1361498919528537, 0.24908060357461778, 0.10909701563550149, 0.19793554799010346, -0.15212421391514647, 0.15430990928531907, 0.0607655810884829, -0.15855524878711813, 0.25495313857476, -0.04107732545615727, 0.2281436929618489]}, {"class_name": "NonLinearLayer", "non_linearity": "Tanh"}, {"class_name": "LinearLayer", "lay_in": 27, "lay_out": 27, "weights": [[-0.30145139726758446, 0.12570098058756235, 0.16073555861873723, 0.18053094184109447, -0.5148140656077352, -0.45596215111657706, 0.2041843668301219, -0.027607578997681466, -0.5068581547345709, 0.027426854653481988, 0.10489960040762542, -0.5611534269809043, 0.04450812086539126, -0.18975992908994763, -0.20800203903438025, 0.12509078989104877, 0.0024867055840501807, 0.10287890014808716, 0.33713003077917975, 0.29823819816753566, -0.7851783916439755, -0.15023966074404357, -0.5798620254642162, -0.20583986184996872, 0.25154591439188595, 0.4002862022231999, 0.014220292278284847], [-0.3352662749176953, -0.06104969617822197, -0.09604602372340477, 0.19254802862669948, 0.47613652424107406, -0.15262244271316586, -0.006624032732065088, 0.7001992220292086, -0.5424305119126684, -0.4911779022483963, -0.17091700754283884, -0.4014482858767556, 0.16751804795018907, -0.10011037372502707, -0.4295131777547224, -0.906132307856925, 0.03858865079210046, 0.2562701601739769, 0.16428012286924562, 0.42600941076416443, 0.12183744194337734, 0.1539068658628927, 0.14334891421192644, 0.17903313531283, 0.27184201421001764, -0.13685642723439986, -0.023388107932437403], [0.22676303041469226, -0.004069530492286552, 0.6432884529013935, 0.2558989513909444, -0.46126578236754195, -0.4922730883710788, 0.19424068039336606, 0.03308820918586072, 0.26417529222532377, 0.2529481590275939, 0.1156488726308277, 0.0621427067005261, 0.1970882059911914, -0.634819815296541, -0.1867620414736271, 0.3866407822165573, 0.8886574938048266, 0.14758561146829818, 0.11474801531853883, 0.2790259892836732, -0.10478243677925606, -0.5012632570626364, -0.059265252811276044, 0.4317103966593226, 0.038760933203158134, 0.22200770921583318, 0.5968731525841604], [0.26119038470477646, 0.7169429097988079, 0.6373835332460834, 0.41592309362808016, -0.6014653220100269, -0.18917606957366606, 0.5825814128335447, -0.40631716299743614, 0.9371619079980603, 0.12136930528703112, 0.6766676139340425, 0.3566879486772592, 0.21944421001606054, 0.21302728635272972, -0.44852915801691345, -0.8390631394077788, -0.13697774506568025, -0.31210694250227383, 0.19850121781507127, -0.27413091876090245, -0.26172849142898125, -0.07211036658539395, -0.11697743820593973, 0.23258668114593165, -0.1737365776883289, 0.01243722753402488, -0.7012955562229297], [-0.019160706250440026, -0.0513600493666927, 0.463871557913389, 0.08133605283038473, -0.2741733011777082, 0.582579341115246, -0.2643586150857183, 0.13912374177925443, 0.1349985184073957, 0.1261393986451681, -0.07964772701538025, -0.07875432030129426, -0.31076587918255644, -0.2608123238652699, -0.40092120941328846, -0.1659364774928818, -0.29663848861110415, 0.024267125989187666, -0.875210743557471, -0.45229621112640106, -0.3514225599835181, 0.2365906325158787, 0.7536583310325263, -0.30464966921262493, 0.09737554856772537, 0.7260665706191874, -0.40689440042452324], [0.11766746730546143, 0.05634917771438029, 0.008238682107554612, 0.3021165949032778, -0.5302231342743674, 0.2638284216353824, 0.14367901305469793, -0.2760422712051342, 0.3494130418775363, 0.08412665543593295, -0.13170527313863778, 0.2606764364331837, -0.6614409257616573, -0.37682109452998225, 0.7957351512018698, 0.08165464379794377, -0.022210146081114383, -0.37655627622232407, 0.2710585252662042, 0.10016947501042298, 0.588935055393311, -0.004598804408500945, -0.7412998792498964, -0.7857049256451893, -0.3940859712578427, -0.04708607932558251, -0.2215952441367415], [-0.1432874832243335, -0.1961365576646701, -0.4014079079890881, 0.4936633983260671, 0.5915307195496835, -0.5237732456044604, 0.352897432235162, 0.3763618241885128, 0.11970400884019136, 0.09700829135782277, 0.5596072168306317, 0.3033834420157813, -0.12172758839447684, -0.3308464215793807, 0.19470464422652434, -0.4964903979473525, -0.2730993425191177, 0.11836095346483219, 0.3499245289451307, 0.2590818090297286, 0.113226052959542, -0.13025135999596302, 0.43606838488366717, -0.03540027879835432, -0.2924860716034416, 0.0356677431586698, -0.9546116432744095], [0.3145044558868518, 0.568609496509046, -0.19670282319846707, -0.45949694016356885, -0.19511614178303438, -0.1912413268943692, 0.007854227631272375, 0.26677229519589424, -0.4111279370972669, 0.40882851445955987, -0.009680565731409577, 0.4321698106313609, 0.16026594972402275, 0.09985592861320783, -0.903488287954934, 0.7696691085858968, -0.3084603651219296, -0.15168093053999204, 0.11972934823425119, 0.06603734237332178, 0.035681048530654895, 0.5589834866763672, -0.06402393883286858, -0.5154047593514461, -0.15092285003402642, 0.9472129124668014, -0.9745763389939215], [0.46934605277878916, 0.2035944194169405, -0.20947911066295127, -0.26263241002333637, 0.27710191459349554, 0.23288671767761668, -0.06332179345639126, 0.07624576941159292, -0.4241365943791985, 0.4625627358422526, -0.36255719390891566, -0.42084875596266846, -0.24341997120163802, 0.020203491122320696, 0.7152422299687726, -0.01652895551959309, 0.12677988165109796, 0.3832554420434375, 0.47352487114530906, -0.27676932172607904, 0.32852771637659617, 0.15159536162179, -0.014342847309023084, -0.43823584518192055, -0.2045882150967031, 0.12570878453996143, -0.2927222256852641], [-0.05690883882811288, -0.26785134423510903, -0.6784530114615349, 0.5776578376909856, 0.5467339364832415, -0.11510716105123583, 0.14028557986294804, -0.31166833959864765, 0.2541386710091834, 0.45987068929994546, -0.3569536268494959, -0.15299419059871908, -0.05829628271198403, -0.47821929471595576, -0.6424117016831838, 0.2858983661628681, 0.08510614052110592, -0.5703433074346514, 0.6633305057390072, -0.10943967194546884, -0.7694046425822477, 0.7870680176656345, 0.15775177862835024, -0.6009801963965888, 0.498809002391455, 0.18308076358019187, -0.47046215340267583], [0.0952060537214623, -0.16564762808602898, -0.027957085987268836, 0.057786058105405685, -0.2328432513589171, 0.21146475285777167, -0.4712875459249386, 0.8480341489678618, -0.0703115679725552, 0.2670994689175864, -0.0693356085638106, 0.6017467731244566, 0.10756465683271693, 0.2301823210090564, 0.46394000063337854, 0.2822603003060756, 0.5019615980561328, 0.14161460154402702, 0.13336936874578337, -0.27278066300217807, -0.3065383308907273, -0.21770986437126316, 0.15512945800255798, 0.15928234307289446, -0.15102707795136872, 0.327434606362504, -0.05370386697936777], [0.04652492627080297, -0.07272939996379837, 0.1507454120257867, -0.1671792869375908, -0.5483917914109611, 0.9443601924381997, 0.27063648191000517, -0.16599036537336867, -0.09847422250009429, 0.17297385255586142, 0.23605377736873293, 0.10609643314903364, -0.04577799045555496, 0.18516333729493745, 0.04667177820092947, 0.8882597569597857, 0.3299316230370955, -0.4216932879419781, 0.43183922833773647, -0.21613643225526907, 0.23094058392995873, 0.0009032311338930336, -0.0586680828187893, -0.13835634729862858, -0.5280329171309632, 0.19989792037191131, 0.20704596306465453], [0.41015986337666327, -0.008312872678033543, -0.04107226078375501, 0.12975714958577583, -0.9397125280907425, -0.3863985561465464, -0.46392133713719863, -0.4342813295235384, 0.15951330102632874, -0.6847807467114125, -0.485917041574359, -0.15998387408650547, -0.6254656560992271, 0.5383560381837672, -0.41977503031173874, 0.07232504795008385, -0.08381746859112035, -0.548128394909783, -0.39184559759433074, 0.5813326917791054, -0.6798153291204622, 0.0012570188007718145, -0.07602691956997172, 0.14951678263648266, 0.06405591991027439, -0.4452336333742303, -0.23082309588006203], [0.08191514652319458, -0.15580499727003966, -0.07051409295971535, -0.5862449803365463, -0.1952879504817082, -0.7009415894859712, 0.12164763615602243, 0.4366606652978423, -0.08804913008210337, -0.5532855307984306, -0.07456594361171445, 0.292086015889337, 0.5153319940402039, 0.23229998760857548, 0.35804578850175217, -0.44173277821974094, -0.19843503593342213, 0.47015526563578874, 0.37843587628427466, -0.08543009747844849, -0.8507053380200046, 0.08124938731922386, -0.7310155093038018, 0.07893167928166978, 0.517983680950114, -0.08606429095525461, 0.954720216189674], [-0.10635297618161985, 0.4924913599179843, 0.3580318939595653, -0.21775187861671594, 0.4178468988061738, -0.7922260041032916, 0.1033990402233309, -0.0466227489662808, 0.43274970921244865, 0.5330751858757042, 0.31362781850485305, -0.3117481926316337, 0.40964381307325914, 0.31485013812822255, -0.5062065864267571, 0.3627905438085961, 0.019369837118931414, -0.0775325393662863, 0.28271702169452395, 0.8222397435112895, -0.16104036650539047, 1.0442816304424027, -1.0400259930551914, 0.1653260826310491, 0.20499627272129523, -0.14290839233573657, 0.17259125688664992], [0.9359259320851133, -0.269430838488631, 0.6105039394840192, 0.22735193040921892, -0.493183862892525, 0.05595039160268203, -0.23477368661552203, 0.4084097228396681, 0.8395638174048914, -0.025090115498825977, -0.22304479036773583, 0.2815170412798673, -0.2594415957440174, -0.10767776016059845, -0.2574779898822554, 0.5461985065861237, -0.4634503355309221, -0.05515549445174726, -0.1948561836078442, 0.5859996304649854, 0.4407517717494414, -0.4945948739291717, -0.22000417248498055, -0.3110315293794621, -0.08183595608536118, 0.5144773634711303, 0.05874719278945973], [-0.37317113205732017, 0.19194628912612466, -0.18184234700627544, -0.07751839323972648, 0.29081648542282035, -0.09856396950164145, 0.18922890549186602, 0.4535515185069423, 0.37456098610976424, -0.1726857419329207, 0.2977135725167518, 0.1457762220896185, -0.3751251973452733, 0.07428497831291181, 0.17264994166155664, 0.5095708490979249, 0.44852418214497936, -0.29058560990848886, 0.347420211430765, 0.0954709213668513, 0.3199261029429151, 0.28289352996246386, -0.434239969829831, 0.5290086349174784, 0.09038221744308605, -0.15357711217886633, 0.3340295578646681], [-0.6410137312694967, -0.31533805282743116, -0.9011075592323815, -0.5265643105834708, 0.5476819621130983, 0.6907444840393299, -0.2550867479585281, -0.5545699968680997, -0.30732914849547466, -0.05003572654976169, -0.45386050188362775, -0.12545225662721657, -0.6292246329134636, -0.6380075915797048, 0.3633946900861949, 0.7577156462041689, -0.19668076035236354, 0.38007658183336956, 0.14224693682985778, 0.13092059823059088, 0.3168922601417857, -0.05030751921617425, -0.32629720852719635, 0.07054433659088973, 0.48887364439129327, -0.8639484119115273, 0.4246003199870184], [0.0038199537418640837, 0.09749192892528558, 0.4834855600461515, -0.5494513321224962, -0.2024978959289044, 0.2168554980033432, -0.7048027917724228, -0.4493907098985505, -0.506324860959239, -0.15222666389881429, 0.1895232942043504, 0.14263592968440544, 0.4724616585061416, 0.709469838233499, -0.04488440683635427, 0.014355393244749723, -0.24282618202265932, -0.4751517269897285, -0.11271394268178572, 0.2726202512631574, -0.5727711844474265, -0.06208893239108624, 0.42852188962923843, -0.5619772443632634, -0.19311343034021597, 0.03329560346453343, -0.13058050000358065], [0.17372504346197834, 0.18141598521372404, -0.37326292684740375, -0.6971765250455405, -0.2227285867906541, -0.3481150738289329, -0.0303623923696659, -0.4313114540930848, -0.11875017741720924, 0.35432276724233197, 0.1438876404047929, 0.15637402796125152, -0.35163675593159227, 0.4020989083481305, -0.14106937353661259, -0.11645605186989248, -0.2909634796998415, 0.10940452123194436, 0.06946980629664756, -0.10417284422097615, -0.38906932773846303, 0.12895511997504555, -0.16409159035195073, -0.11142622880392494, 0.2407796829826686, 0.03206481622213517, 0.23773487261182819], [-0.07888848886387516, 0.46845800563957535, -0.1493372943238768, -0.056439566147173936, -0.24527512763251164, -0.17824090192013128, -0.3406980817369211, -0.5057907411948197, -0.09884831065006114, -0.11757218864054113, 0.09193886130626482, -0.7350342918068526, -0.12351435982917917, -0.6572924817259416, -0.6403123958856405, 0.5005104774550188, -0.315698235295016, -0.010137104352052576, 0.3723540040293773, 0.01733086035810821, -0.17822524404775492, -0.2588322484850824, -0.4387984656803555, -0.6093022794234698, 0.35151243321172476, -0.3216774433621551, 0.8428487934575425], [0.287522974669076, -0.25815386812029356, -0.057962420543254636, 0.7413549967999369, -0.3228145098874832, -0.1284785980279308, -0.044633986967469966, -0.1462937457491069, -0.3357651044859509, -0.27833739007661257, 0.741434872890178, -0.1671986370463599, 0.36575337695947674, 0.012888232352935694, 0.13384514627221528, 0.42035014565332646, 0.526136291220069, -0.31557607300355905, 0.3965516489354426, -0.3411857460744971, 0.039255508983528226, -0.36576918887870413, -0.7169829015443289, -0.44859656959678856, -0.1603870799186525, -0.09550728069978985, -0.3630275783536882], [-0.17430155882643356, -0.3031827785583793, -0.1858986884411004, -0.5860664988747293, -0.48202928851239163, -0.16157642071271078, -0.22240784818255852, 0.11272598015820656, 0.12711246058526157, 0.01659305440213962, 0.5056012515460718, 0.01750024709303613, -0.39588263438015386, -0.06907468861240819, 0.1872102592010969, -0.47519844333341854, -0.350719226632352, -0.15348597183029083, -0.09947657367073597, -0.04587159741468726, 0.06393782735641651, -0.5028875450641994, 0.1083550544129243, -0.19499176190423403, -0.02268783260697927, 1.0844876882268986, 0.05875955972667431], [-0.32266321230493783, 0.5668767421763029, -0.29826814904912385, 0.24185786152694558, -0.37825874240351814, 0.36063760503113257, -0.20624556073184042, 0.511349297941497, -0.42587300939700656, 0.6743360069861609, 0.32068423044114847, 0.4159801350651986, -0.4640210648822813, -0.44744637347354543, 0.4113648256182288, 0.017748691840691222, -0.038856138538889404, 0.3077860093625094, 0.6278163149172347, -0.0636517921627517, 0.5322670077762797, 0.24787854760170128, -0.6330989161657523, -0.14280787077883575, -0.2942358807214658, 0.4508372717183687, 0.2869473344254132], [-0.539981255299252, 0.634691068396547, 0.5616571292819762, -0.5036907316374276, -0.03815689971282292, 0.40426209863533774, -0.3075660631005772, 0.1424679089690828, -0.23702135147576925, 0.5613345943926414, 0.2716044976043622, -0.41185940489206124, 0.11963933134300539, 0.15647359052132942, 0.2766243654203087, 0.5531583077307839, 0.22006289935079787, 0.6679044368497036, -0.5358080260830416, 0.6037048933510368, -0.49796280616508154, 0.34095003442903593, 0.7155391745391372, -0.5045642537108622, 0.18434403839436184, 0.08144113516942084, 0.2797011855559], [0.49463148365168297, 0.7353233674803706, 0.06550063394181128, 0.11319679816572759, -0.9152796558081129, -0.20538285580023954, 0.22822690431085618, -0.09809344494167845, -0.5158320616294104, 0.6247130865240994, -0.3833083858011363, 0.132752525546997, -0.07916736422971213, -0.20931890048523438, -0.06325965652037295, 0.10478768377711654, 0.14039269474201654, 0.5780440529845757, 0.24108255834757716, 0.03508948719615957, 0.14508646443106862, 0.9173721110681046, 0.03620819681801056, -0.3537394935634805, 0.1453217649011472, -0.07617186108105703, -0.10846353460775049], [-0.2725400287552, -0.16174038951692613, -0.07948758215525449, -0.14767686547631928, -0.7058639081339524, 0.39241612886590693, 0.3524016965406443, 0.17479688565396212, -0.813824949963192, 0.2193006775749266, -0.2815750944548815, -0.1841384903471788, 0.24539719422824738, 0.2040368655488976, -0.008310312229869828, 0.055999830826210815, 0.027835309613683027, 0.004320043555080412, 0.39260297521731197, 0.1333684171199746, 0.08784120545109746, -0.22290109419831028, 0.30129753569943185, 0.3834644332158926, -0.20174869983198512, -0.48193922597732625, 0.10830675997443397]], "bias": [0.32717922127351345, 0.06172223478544614, -0.11558503590708995, 0.1284070929982114, 0.3022445005610838, 0.15458559731292335, 0.005076275939316445, -0.12384116693434216, 0.21691725159979014, -0.07927041850547119, 0.1669828821458172, 0.025497377579003215, 0.17727936394486793, 0.49113204680174655, 0.3910765923756894, 0.19114425732389476, -0.30470075203234065, 0.14298066013978752, -0.12586586700521027, 0.4033630231152328, 0.35504386876680083, -0.3029809653886165, -0.1392537663478573, 0.11579293691547664, -0.07636185536586312, -0.10908040637124893, -0.03700544750870795]}, {"class_name": "NonLinearLayer", "non_linearity": "Tanh"}, {"class_name": "LinearLayer", "lay_in": 27, "lay_out": 1, "weights": [[0.050522472225573864, -0.06563956290420227, -0.19241101233632743, 0.29749753339646906, 0.27403098078635785, 0.1218707700499066, 0.1360393265484346, -0.10410309818544265, 0.13433136035021695, -0.24096096156489855, 0.16165114760987756, 0.35608134548433246, 0.3820929713411179, 0.2734171323695421, 0.17109356128791212, 0.08111846020275566, -0.3690045119264671, 0.3736350568315022, -0.23047596136843707, 0.5993806807019327, 0.26150575742672294, -0.4846130392344379, -0.3685832009234122, 0.3464310188615215, -0.2560841510782734, -0.11764237129905704, -0.01347900022888049]], "bias": [0.20056164698009363]}, {"class_name": "NonLinearLayer", "non_linearity": "Tanh"}]}