{"class_name": "SequentialNetwork", "layers": [{"class_name": "LinearLayer", "lay_in": 27, "lay_out": 27, "weights": [[-0.19342389729459297, 0.5128385427956248, -0.7033704006786673, -0.16016824191700096, 0.2171640369721324, 0.36239579763182916, 0.45063704294950796, 0.11445397275395425, 0.24313444168058482, -0.022968436484120162, -0.24108123353929295, -0.637303287075594, 0.21320687400758312, 0.1585041303060381, 0.3139838341294871, -0.5000897884773428, -0.26989548380248657, -0.2781118952340969, 0.27598454923865756, 0.03692398045379169, -0.04213337706385507, -0.1839591557519842, -0.14224051401740148, -0.023797505006149192, -0.350603685205045, -0.4081772197340119, 0.2935614388988516], [0.09667318995811315, -0.36264391337006, 0.054796503765515515, -0.257606047746982, 0.06873332352621542, 0.015417050127332398, -0.3222882784995599, -0.15933137568844935, -0.19232314385534455, 0.37646363614803924, 0.18342891881660356, -0.03179766885936405, 0.12597243415829634, 0.3423450435678707, 0.4529858727097407, 0.234312912527202, 0.0026321855810380055, -0.40825167952640873, 0.1711375709205478, 0.08269997212446314, 0.5024231794976121, -0.10054904277828926, 0.12084296822891415, -0.10362761587123942, -0.43792128669163677, 0.3656540773889663, 0.28378691020568003], [0.3550058570699047, 0.21235236005498584, -0.43068751748257106, 0.6154086053992108, -0.20563298673941666, -0.41328708584163293, 0.6230315021109932, -0.49052960140771523, -0.14402190270375195, -0.03523555825017439, -0.7388701710581378, -0.06424680639436113, -0.13221513714483202, 0.10444086176707935, 0.29603286216431024, 0.052010527280991696, -0.13937665918064548, -0.19452963469273, 0.024503093260149163, 0.11643654477405171, 0.12462453266471636, -0.08523656487946353, 0.3709844974882865, -0.08368471322100905, 0.4269934662247844, 0.06130954883722045, 0.0018289791832197388], [-0.14779709501945243, 0.0070047582343090616, -0.050739699749701744, 0.050462718723794237, -0.10055073612217724, -0.3498865754908863, -0.12355846768029752, -0.4198084061934002, 0.11174788281581108, -0.5003252916985291, -0.5764091093830211, 0.48763878870761374, 0.12130961894877174, -0.14546113045458325, -0.27816231189438273, 0.012634549352488256, -0.5835426379822634, -0.4909634206558336, 0.005600504024649768, -0.3908364460086781, -0.18751033759544486, -0.009179477504900465, -0.22274293318606678, -0.09472765279508116, 0.2898997509042427, -0.5001823254606838, 0.10399094978864543], [-0.15035638677306176, -0.5375075336213949, 0.07153517846519225, -0.1744565286120395, -0.1756458210796959, -0.2746767336090493, 0.09087974830390012, 0.20987784321648792, 0.21060129748777984, 0.325368955765692, -0.1149491288953181, -0.4734213300021917, 0.3619650540313719, -0.15541396548086509, 0.403094662973942, -0.4532577523409518, -0.3981661593020895, -0.5184022605079368, 0.0419675901034214, -0.5397673275225704, -0.14897108463608624, 0.18299369092290635, 0.17896053891175187, 0.1783208528037855, -0.011194967258504336, 0.4040524605922582, -0.04422167830821536], [0.23888142833528547, -0.3678814432055269, 0.18421929024341846, 0.15763773096949554, 0.03782008194010519, 0.13380762590077674, 0.2925490012333195, -0.04330788387186933, -0.3798964857125141, -0.36964072854886554, -0.5433565114490658, 0.40973047483637376, 0.09953324107045361, 0.015694493929911832, 0.11921345219478807, 0.026306646021788824, 0.11088842117070596, 0.26555684517679795, -0.05804417832991895, 0.06197193014407434, -0.1902214202718318, -0.0856760947684319, 0.46263206642558025, -0.5285939135841629, 0.03323813480665302, 0.1942490806481309, -0.5465115553804054], [-0.1841508634152915, -0.02848900993644789, -0.13738288361410883, -0.09993278479211133, 0.5302320938418199, -0.1800462131819385, -0.10116168122040022, -0.3811940037687159, 0.566989773747269, -0.37685512855511166, 0.016482512873894205, 0.0322955150905944, -0.44150117180738585, 0.47664176815128384, 0.1820007151559351, 0.5532935253521599, -0.03001510369672807, 0.004450003873999926, -0.1421594420829109, 0.31699150317996194, 0.20889389581952014, 0.3017908112041328, -0.3789515156923547, -0.06848304719101965, 0.02158722983320129, -0.0015979596326237662, 0.017907216697167293], [-0.31570761529855246, 0.34059208131747126, -0.2776033387949408, -0.4062967104401605, -0.027878784613085947, 0.09748614365794776, -0.5524335744969808, -0.002182760336657724, -0.46140056051427464, -0.24532940634714256, -0.2457533346591984, -0.6799559725751144, -0.006730435555573336, -0.4734804541359465, -0.6048247268588298, -0.4778694496753597, -0.21981052088252676, -0.2015852168171287, -0.09292240017423778, 0.07252925033725742, -0.3368531262811898, -0.4563224140612735, -0.37134802568542047, 0.18769292293087853, 0.23426765881415967, 0.22022483304816995, 0.15304101618205837], [0.28296195133061225, -0.12916531484638233, -0.267154412469898, 0.21403130272618398, 0.24857008674625058, -0.1276366256773851, -0.5642030267735733, -0.10222344537715768, -0.5368711785783535, 0.24069423421281333, -0.40558716860708227, 0.11779557583167403, -0.03168212314422858, -0.1036506092586328, 0.18503360930859317, 0.3085238620243637, 0.16680142559721386, -0.40468729009473897, -0.3129073828215123, 0.18794849318844842, -0.2818105786953691, -0.27530498066980424, 0.25676655619248456, -0.3472243648152906, 0.2472685466499046, -0.1832452316424345, 0.2282223779965781], [0.287683875465, -0.16872518427050393, -0.12100262145540053, -0.44513720109281796, 0.3997223231288322, 0.038770156555790046, -0.761938854020319, -0.42978516931304006, -0.054870741813574236, -0.6029050295312026, 0.2046314983609071, 0.2287217858503876, -0.08501266623157436, -0.21806714685103726, 0.03367505133102864, 0.35383209906614754, 0.2963517733992127, 0.10862552806945425, 0.38036127544933424, 0.3074126968726404, -0.4719887499936146, -0.002620157853552301, -0.2589042375042032, 0.2759071066817551, -0.6452016084871935, 0.15483384105881268, -0.18730908740756955], [0.0221520476151816, -0.3825605938725225, -0.1927913914397947, 0.3276343245143635, -0.1054258377574127, -0.25831183008604164, 0.04342341447438685, -0.005725633422864321, 0.19651291904000784, -0.043123625247754295, -0.46311938611973963, -0.00928526701949077, -0.12470677084122025, 0.19150789956600733, -0.024021096527906075, -0.1289318839644318, 0.023669375974040334, 0.041460222721041745, -0.514857131082181, 0.4355892597193106, -0.1632697359629722, 0.12897952298019166, 0.01697419250115183, -0.3641983304459694, -0.3039865845124984, -0.13517433867964498, -0.34074476504190954], [0.4829098635737985, 0.1410758945490905, -0.07074154871229782, 0.04983430586048701, 0.3307146828839822, -0.04356930256260603, -0.4262782356387303, -0.15959227662751915, 0.30747313653225855, -0.19809706715904588, -0.15830763188125055, -0.04838112979122056, -0.5477544237416642, -0.0783340062776504, 0.04043792016138292, 0.06756164547589906, -0.957274813007424, 0.1920143644173198, 0.11603180829030804, 0.34193445503390363, -0.5343683347487689, 0.47898879789986876, 0.5439349474114064, 0.25172181987344827, 0.10360740424589351, -0.21162437974471918, 0.03329301362518329], [-0.2061066857707617, -0.3321711057562512, -0.1553542840418124, 0.12389029265140836, -0.3720307348071441, -0.09381687873211737, 0.08799125773734186, -0.6530546971905044, -0.22262977670687817, -0.05075007020295157, -0.3289609182797742, -0.17680522791363917, -0.6458655790607398, 0.24006136113856208, -0.058173262066636554, 0.20426251329050052, 0.27807080837394704, 0.050223957632799916, -0.022632467315914173, 0.8753424254353479, -0.2603470873825704, 0.530308301350267, -0.27113039054705523, -0.7593656721769999, 0.037961483667610804, 0.059934064704630245, 0.9535547760885339], [-0.1402826143706291, -0.19033105106732173, 0.12367615102932702, -0.0226736523117254, -0.19739130531447982, 0.5324089578200122, 0.19123820641186054, 0.2083161885090046, -0.7788261461926731, -0.5238661447544879, 0.2032805189119309, -0.02854030841160646, 0.20334487779100208, 0.13570437109721264, -0.49004677491593285, 0.3843254051137361, 0.03326789793641698, 0.17071269451685192, -0.41905006480515733, 0.2447153010927298, 0.11447420213550782, -0.3299577028375519, -0.0568218477282838, -0.1768964093330391, 0.40720849718898794, -0.48481361495675634, -0.053033989710789424], [-0.24002397913095436, 0.1165473940312118, -0.0600228240690202, -0.20690943431180334, 0.057921412837520975, -0.05481066794901773, 0.028601159010921327, -0.11689904442121128, -0.5201555339883382, -0.19359006241416593, -0.21371451933226276, -0.19676476211243993, -0.09091816439651236, 0.4942499410956129, -0.5943647693885648, -0.2217167598929646, -0.5871081763451085, 0.14347204349338444, 0.036540145628450336, 0.35445663264443195, 0.015064834698131847, -0.01959454437085141, -0.17778592961209042, -0.07152781329475186, -0.6615467450099607, 0.10780598016479319, 0.29699829525460913], [0.8632093735022623, -0.18556522928666672, -0.1442789650394527, -0.3404959244880256, 0.1396331766822692, -0.6911537270842106, -0.387593458281731, 0.13776047472560926, -0.14870145134719398, -0.23214958474306213, -0.4289360866029531, -0.15595084016875854, 0.04932742453146991, 0.24346746309178077, 0.24831915340335176, -0.4082367653891066, -0.1837332192605095, 0.013447527425891642, 0.10917832557907589, -0.3188786450774224, -0.39366136178656685, 0.1502309378537071, -0.26326756810307317, -0.24043858027749876, 0.024717672830386832, -0.22635746644862254, -0.04002131139475193], [-0.2116372976521804, -0.22127965331662947, -0.346806403108505, 0.14301671455096568, -0.42889748527219407, -0.25526750778167273, -0.2413684129984049, -0.37821456585262325, 0.08638498780098043, -0.24052899752114923, -0.18671496226770978, -0.49542571377177264, 0.42018899256360204, -0.030802742552046236, -0.018437118262175898, 0.5095751895088494, 0.22512779181234313, -0.2615832753431032, -0.15440127950592025, -0.11164402160961608, 0.2859357135451305, -0.3035242295059521, -0.09052133665396518, 0.05799655293799824, -0.09773058225976763, -0.6451754176963554, 0.41599306161207295], [0.41831025795436705, 0.017377843860543307, 0.2928122763081934, 0.1315793977161157, -0.7564485031832897, 0.4965617571053221, -0.2436019761913879, 0.5715205567189447, -0.20464544007539806, -0.07817494611621605, 0.20654753138208579, 0.27462555411663, 0.21601354016148797, -0.36593403726651225, 0.10831678332745669, -0.1152839441442802, 0.5679566766617768, 0.5662239471250335, 0.14061701272053356, -0.354949589840671, 0.015133505166377698, 0.026055871797391827, -0.4831689770534007, 0.22911411198670598, -0.04789798728327506, 0.29638652253287756, 0.7184776264237935], [-0.32549753676972504, -0.21268702131639902, 0.6039877284509092, 0.07023782897253857, 0.10147927234713329, 0.06851884234022053, -0.012803546208071495, -0.2975884019409017, 0.2739689187622137, -0.3997314632209856, -0.0030720999869048634, 0.015397732200367446, 0.35462009698307667, -0.4465520686088389, 0.18563102588988467, -0.17529963389622763, -0.1891764047161095, -0.028328092782395654, -0.8031065391354287, -0.33339766150092043, -0.027274067465243444, -0.12685206287314418, 0.41944038637318515, -0.12258890318501621, -0.296683278444675, 0.08120206919993728, -0.030978022594210838], [-0.1023457264030795, -0.36959094736265985, 0.20394469704957804, -0.1782883477785345, -0.15841429523907719, 0.164341908915344, -0.4132175159648249, 0.2644111394756391, 0.0005972596684518497, 0.8395890092057918, 0.1573861548875126, -0.25972709419130435, -0.5661327960518019, 0.17590552713603225, 0.7344665218205486, -0.07761846720077394, -0.6279759070602907, 0.0826330284105677, 0.4995980309270195, -0.09809279194359101, -0.12033783042830799, -0.44139392445214704, 0.21540879617096825, 0.19006469487472852, 0.06443049256319228, -0.5556827660451583, 0.29203810085375326], [-0.11058986034179093, 0.07483547142371776, 0.05567095538429455, -0.4160961365358058, -0.028835803437213918, 0.3359319230742092, -0.30585706753521213, -0.41703781668174095, 0.10513377926107016, -0.7954668243861918, -0.24838020717654682, -0.03663260286974636, -0.1423168963339601, -0.8150124470237728, -0.03180972056375757, 0.2404279890814947, -0.1775577462769848, 0.23463066154007886, -0.1832359988428805, 0.10479746354253293, 0.35036607039346646, 0.29071550144086733, -0.04128793070983252, -0.14222659286609413, -0.1588499844526801, 0.2258872272360714, -0.07860267182826974], [0.3171207593027982, -0.15235200199308144, 0.39126709704575285, -0.036796395484216975, -0.05337975892605162, -0.3374570869238127, 0.15293939599415177, 0.4546922833349825, 0.43448647719729755, -0.15323196268720912, -0.19617097989847207, 0.14981308619809613, -0.011302376602447812, 0.20103763233721983, 0.09523546211005862, 0.13731471397924996, 0.28931416548716604, 0.2325628146681835, 0.27398407473217146, -0.4770350801086671, -0.538177338603354, -0.05037279903534204, -0.14260196847680226, -0.29261424100340083, -0.03362880032197826, -0.2690302622663429, 0.26256989160684957], [0.35862668262964936, 0.02735643597887752, -0.5614520815772075, -0.4610259906538687, 0.1682687552056106, 0.1273328860825541, 0.09764966272152598, 0.03336157850713501, 0.05402208383642962, -0.5879515314101046, -0.12464338446215954, 0.19081868457497497, -0.347299915708626, 0.005050329704195725, -0.5426561267231559, 0.25643909278985355, 0.049596379726094576, 0.38509171057684355, 0.20878424224148018, -0.2474566420304184, 0.5527752188005852, 0.2984774174088648, -0.6801310712884775, 0.7208041412184651, 0.34714572067266847, -0.4295599918476729, -0.5418873080795613], [0.5849469409124819, 0.03327538377663974, -0.059007167849129925, -0.0065272427522187456, -0.3564959682005166, 0.03177215865527944, 0.2760122901305159, -0.1941325679037973, 0.014287171873585582, -0.16405947769357007, 0.4983929082281461, 0.39827603494506253, 0.10742447858119933, -0.5014964939134514, -0.09537393741484669, -0.12630649743982042, -0.1363408197909831, -0.5378631809958725, -0.6415540033489252, -0.28213935040988486, 0.5917054173994221, 0.08446396524047119, 0.30610426888325576, -0.13241500732282702, 0.1709803286771126, -0.0788526976242111, 0.2628067332207755], [0.05519282921310243, 0.1473635340271954, 0.08327131663025258, -0.07034351013562623, -0.2736807544048288, 0.326500881158362, 0.2655551215180501, 0.022751327166441543, -0.4210010396595905, 0.3266407764110179, 0.18652901660301913, 0.3284460462465199, 0.2163079275746325, 0.6596552507148141, 0.5328567810009339, 0.12340505154627888, 0.36099224936009366, 0.33614848062821745, -0.07151689609698839, -0.20155994372082475, 0.035349065076959, -0.347291806050092, -0.11053651088175934, 0.31872445780184144, -0.4232321697595869, 0.006947806152796128, -0.12508414595615738], [-0.3455604553234289, 0.5066799445920398, -0.007033445476374332, 0.2008464193355949, 0.05021202863226392, 0.13206292795447053, 0.2829641721425902, -0.3736631526484781, -0.12263159179053984, 0.28632877442022986, 0.19717347842711502, -0.15287040463970852, -0.2112404854052091, -0.04441920705025763, 0.08447412031815424, -0.7862616207245445, -0.07634079826819049, 0.5194092328031202, -0.20609661359649442, 0.5053611399404261, -0.022676170935101842, -0.09097120295214096, -0.13206956664548283, 0.25924721631092845, -0.17776687624918203, -0.01285392693820789, -0.2495001677547192], [0.18752021724352824, 0.30607836611941774, -0.05058653546313886, 0.225614463778543, -0.4659848810455552, -0.08395999632344563, 0.50228052283536, 0.32600400760254233, -0.39928036022598473, -0.1002162478180407, 0.3013543298693179, -0.4176692497440699, -0.18909373927549877, -0.34551777596599204, 0.2618125630607924, 0.5767285058400091, -0.47867543096548504, -0.1148655150312265, 0.13725457749245917, 0.39040675778091255, 0.6525680742959706, 0.815570613939445, 0.2013709427838491, -0.1590092318467077, 0.12434803981874552, 0.0229386452641429, 0.7614480560318313]], "bias": [0.036258093060483054, 0.06013607080342369, -0.045925204214433406, -0.00217379978831649, -0.051744601205320484, -0.05151006004153953, 0.03767059058298453, -0.06610169905272278, 0.03954028440125465, 0.0521894397807821, -0.049365891951288036, -0.04565988487714247, -0.05167716565040443, -0.03912088828494899, -0.07292146182511251, -0.04004481906431625, -0.01558684132100689, 0.06777909161991341, 0.04380002372560489, 0.049569825874942075, -0.046638145793183, 0.051316661404767684, 0.05045662524187085, -0.032769836381906, 0.011525806837896476, 0.0055037432285575, 0.030626585850990984]}, {"class_name": "NonLinearLayer", "non_linearity": "Tanh"}, {"class_name": "LinearLayer", "lay_in": 27, "lay_out": 27, "weights": [[-0.19135203405268186, 0.35230880819522853, 0.015094215375931126, 0.03628376879083757, -0.4762728455750503, -0.5326742457396241, 0.4001953378757202, -0.09192381335639786, -0.38278944858277497, 0.06950583114659835, 0.04694724674158293, -0.5126017860932005, 0.12961853134702342, -0.05020973728730404, 0.17159137903738636, 0.06865741621937954, 0.12084071443201624, 0.08729688359389498, -0.043869389488828264, 0.22977375350368268, -0.6483723909550223, -0.3208329591053337, -0.1611270123363815, -0.20396726420299097, 0.3293589314043867, 0.3120050772611424, 0.052380829908181936], [-0.16864374038446245, -0.33636079597413643, -0.053173609327171203, 0.18857951922863872, 0.4457131816628297, 0.17499449506310885, -0.18662953602832, 0.6597142318911232, -0.47154939100911825, -0.38131602683658294, -0.11342807329149102, -0.43657376826576605, 0.3205293768655876, -0.10238645910111016, -0.2097224519092075, -0.7959901646977869, -0.06308854508444135, 0.0248355692617659, 0.13977809786531148, 0.34764469610313736, 0.16388544571437924, 0.0027191103181786534, -0.03781223266718873, 0.1234989730429196, 0.14353715304245532, 0.16073062481692915, -0.137439114284299], [-0.04637547448182102, -0.19986870105830562, 0.14303860052947673, -0.0005506461111561631, -0.3085609846084765, -0.28327395940351613, -0.12738110447440015, -0.02939229599195614, 0.02703210043158253, 0.21080685636345756, -0.1545669537383651, -0.12234863426239954, -0.015297575700555078, -0.424253726971134, -0.11175600583761189, 0.131190917187556, 0.5522137270277669, 0.15771656916889193, 0.35452896946075835, 0.4351833036438623, 0.014777007037953866, -0.4098995046429349, -0.26041762517936073, 0.17261658309910272, 0.17808858670442676, 0.35996675631375036, 0.3315860126280479], [-0.07967683169119555, 0.6652060803498484, 0.2615347549837202, 0.22336262065272736, -0.28912889710713485, -0.16360205054210894, 0.2247278359125211, -0.2555367305444041, 0.6665556689999498, 0.26542924216410896, 0.3726793956233386, 0.13711339876700102, 0.0007422588276628686, 0.003163736231874344, -0.4269472447634221, -0.7763029307116727, -0.24330221095333449, 0.007525689940987598, 0.0308044824369193, -0.12130919143691192, -0.19888561216232506, 0.13198682380036184, 0.010396833894246539, -0.12788500838657346, 0.014138606670732095, 0.04336432820780952, -0.49426317042013096], [-0.21802445596889605, 0.16724225642171922, 0.1735567651607776, 0.2503331717211276, -0.014676119505034765, 0.5498500876804026, -0.4443636104741012, 0.1179296078277509, 0.046110806826301864, 0.04282590695045333, 0.11640324131831611, -0.40051670514820154, -0.01168147535935193, -0.24744657654568483, -0.21875903664084112, -0.5226837543233146, -0.14943286928543523, 0.08465630187007551, -0.3043084921571693, -0.5115154714803939, 0.019397463697957144, 0.16653883224713617, 0.3253477343872435, -0.4324715046784776, 0.04486605179674686, 0.5589788913325969, -0.2657749652626184], [0.12847188295625528, 0.07944167630802298, -0.042062816201445107, 0.23466368663887271, -0.3325121186352699, 0.04784768515653187, -0.027604871489651805, -0.41762595839139993, 0.20296423248407214, -0.17332689261709697, -0.0681869251870903, 0.13154666516807811, -0.8187470291604583, -0.4238694315451034, 0.438043814445967, -0.07779846520038156, -0.012396583110743787, -0.013248793006612532, 0.041535358182870796, 0.23818027448031495, 0.4286724523592678, 0.14085705358971612, -0.4821031861088503, -0.637874345920515, -0.16522624078175674, -0.15854994552584697, -0.29318859039413064], [-0.22584106581034313, -0.06029437301795976, 0.0023481589746263258, 0.27950422717916856, 0.33481885352445706, -0.3351816820634133, 0.1638899107378859, 0.1329004123323011, -0.04305718801324254, 0.1535891093662973, 0.4952885547860339, 0.45956159454414147, 0.0629830298354998, -0.09340794275570798, 0.10877374141394403, -0.15700921620873756, -0.2415399265013024, 0.3029545565713135, 0.2866330115657729, 0.2377210715170273, 0.01677026044790174, 0.1673374387374557, 0.554278869147048, -0.0286780945896562, -0.07232480437547115, 0.16518298258508207, -0.5183821931460523], [0.44117062346196967, 0.4818918515195282, -0.08153583114115316, -0.4411263848791174, -0.12676822029515625, -0.1735909419514896, 0.13750619487482196, 0.36261064929460235, -0.2821989196048398, 0.11886191419186451, 0.05456710181191428, 0.17741206116861813, -0.0662775409465027, 0.20821239814317616, -0.7407224497204677, 0.8215675384530574, -0.31851951111747795, -0.30132881547700513, 0.023140031237754564, -0.1705904298758491, 0.018175532068492276, 0.16129034087136832, 0.010136846229936276, -0.3718054107732374, -0.09819532760018951, 0.9300162682480987, -0.7163906752873078], [0.568372288789365, 0.18426622602804582, 0.007134954468961886, -0.04009758933635249, 0.3093035158111048, 0.10489243018007031, -0.037270230230035915, 0.11247998054371787, -0.39179306457929475, 0.37399440685181345, -0.29479639715960065, -0.40235370062381226, -0.04224592356545783, -0.08043649885069282, 0.3381209528524556, -0.020242195691838823, 0.20469698218267077, 0.49808131976656567, 0.4387254700597391, -0.21382400698157847, 0.267496093952729, 0.2889993674632008, 0.07787112973928846, -0.33084666889305064, -0.2408650588881654, 0.015027483727221206, -0.319810560749554], [0.14203758287247023, -0.32240041843928, -0.41639459116492405, 0.35940237000029396, 0.532941534953875, -0.12353620660631603, -0.39669703969861286, -0.14028832115789042, 0.13280302775589223, 0.33559779317507954, -0.32579350466337353, -0.24328001427096949, -0.019444152585360266, -0.08511132501629282, -0.17746129080408693, 0.3996970850042862, 0.08104165085606459, -0.3935056854232291, 0.4514592387202873, -0.09205431291235176, -0.944994670459616, 0.5248984637625435, 0.1416425711705516, -0.48015986129240396, 0.5949951497177166, 0.2892767116600139, -0.2430196766863415], [0.03756614234669764, 0.03148707480685367, -0.31871670116059586, 0.004859680815127274, -0.021041394427945625, 0.1065338663328968, -0.2685756169830721, 0.6015700997248821, 0.026297212326104512, 0.18408278594632727, -0.18262059625797997, 0.35707911937635123, -0.02380438571972127, 0.20800139880071986, 0.37958355694088897, 0.05798334348265357, 0.48238133298356234, 0.20244839929173172, 0.1619784513846318, -0.018219955931339554, -0.19579929046069644, 0.154210200088349, 0.1841899594015803, 0.21906849294370923, -0.09245701054947125, -0.07775632763432276, -0.07165579934361334], [0.07997798843452948, 0.10862105815214627, 0.11766852940384818, -0.24659349320020632, -0.29019519968624985, 0.3738349116725094, 0.08131629949084318, -0.17461109545314574, -0.28925246897192164, 0.10485217036838693, 0.39111133165422646, 0.0926530677779867, 0.1968336699603569, 0.11115571584048714, -0.03364042302402004, 0.30703815097092085, 0.26492957604638034, 0.0695789128911621, 0.3315360644267211, -0.07712004817580376, 0.06837291594116536, 0.16729699814421187, -0.032107495059580195, -0.08965493709687307, -0.27918393761561694, 0.07802793297951317, 0.04923294599034925], [0.2933192856127193, 0.14864164798570126, -0.15288375584438527, 0.07082662187415774, -0.9048533281446562, -0.23312202637262472, -0.3793424977352779, -0.38049284238925896, 0.13984889632273462, -0.29700339805799764, -0.4181185896828812, 0.106369878524742, -0.39974482189344185, 0.3781476392732792, -0.0974434953821423, -0.024551338307577344, -0.2466224258910447, -0.45155350252354814, -0.24791078531931812, 0.3742684892680028, -0.38961483445299455, -0.1646458520676788, -0.07974653514548265, -0.0020919730900181765, 0.09898143234468482, -0.30060464687416494, 0.011917872762786616], [-0.10776847989824632, -0.2738330590194328, -0.19522830504350755, -0.346887000065172, 0.14015792231689375, -0.47869814662346133, 0.2254101460232212, 0.5855461671843732, 0.19899688960294032, -0.36200134678078366, -0.004479042348881007, 0.5606302623325842, 0.47127842538025944, 0.1479461334147924, 0.2176585607168015, -0.12331759865237572, -0.2179520939265983, -0.13423561750694393, 0.2000836036945679, 0.009474047108867572, -0.5264192988936592, 0.15249890379762887, -0.37611048830528565, 0.028054108233015535, 0.09936996470607223, -0.32162124814666304, 0.4781128443605882], [-0.05518037586003466, 0.4126804600311727, 0.2553048399225477, -0.1099180383584737, 0.26640376552047856, -0.37140579072325725, 0.1805563233090522, -0.20192888208134618, 0.5356357445709842, 0.6118447295058081, 0.07682916661503916, -0.18288708814202675, 0.24392199464138903, 0.579709313752258, -0.2505223627866263, 0.07578493642130554, 0.14739662222995245, -0.08354216388917028, 0.35559701723501225, 0.5514465969689121, 0.07083491568268344, 0.8157020939811787, -0.6244302750607768, -0.044180663936301545, 0.05792038431879837, 0.1018919207723335, 0.03264025694235548], [0.6052770115845946, -0.09994187472218369, 0.4279542652112605, 0.19531419923390003, -0.18195810484429442, -0.19286811977298365, -0.11724030819476303, 0.4069659387865165, 0.5069361282776518, 0.02287700049376394, 0.13257527189869486, 0.15919704453584696, -0.16300134583027684, -0.47456999484992873, -0.355304586280759, 0.4582164684285861, -0.45654328978638986, 0.06389063972191981, -0.1857684522384035, 0.37114949689457083, 0.5207276857020475, -0.42936077270871725, -0.28316640083170164, -0.34448185887461674, 0.024694787096038173, 0.3193515210338156, -0.09052201842498935], [-0.27276322969412303, -0.35155625406031904, 0.06369413740922814, -0.2060361787922236, 0.1353509287471532, -0.001414935207191954, -0.04320585930703266, 0.470517061768825, 0.27126221570458336, -0.3412905581124946, 0.3847682673585407, 0.1154706242955401, -0.3316531349217336, 0.2093484026644779, 0.13947440761778407, 0.2889895210062543, 0.1902251723206262, -0.23817202152314537, 0.10504792685149951, -0.056310201080892755, 0.11871893717790208, 0.07077366319272142, -0.25447736539644655, 0.39454074622134677, 0.11048685072510867, -0.03927597336640651, 0.3181040104243728], [-0.08090336268428336, -0.3932771312434824, -0.4676829661120398, -0.11958259494017254, 0.0883544751148266, 0.2136707706994872, -0.10411363522202159, -0.3508113142339596, -0.40535939475067967, -0.2335311074312161, -0.3381325714639952, -0.058926511462033516, -0.4388902344295939, -0.8743011179227712, 0.10020253076438679, 0.508495595729076, -0.02621005792584596, 0.13964926989991908, 0.027880612185682815, -0.1770066430256956, 0.26818618822198115, -0.36161504040326087, -0.1887355609463656, 0.19357401109551545, 0.4203481316277917, -0.49520536106798546, 0.40275828089494253], [-0.14386674120392087, -0.08954329464310845, 0.19653420194148818, -0.5453992321151838, -0.012049770628576345, 0.12787850957396563, -0.5709638054976675, -0.2820294966283021, -0.2348136223200422, -0.14249101334454628, 0.2251421271544571, 0.01741209916311082, 0.28642868784678827, 0.5823943781831986, 0.2644291511154285, -0.12065676514258088, -0.22480331110056465, -0.620478172221442, 0.059772903520129435, 0.13171298874994997, -0.5389836329544913, -0.302108582709425, 0.3865477605309825, -0.5166205998200134, -0.2109862029950407, -0.03206528978432016, -0.1976450555549888], [0.22175266585510553, 0.29842785784146236, -0.39009172376789814, -0.4937713532301894, -0.34911163325007794, -0.31859187207876166, 0.0758782621925786, -0.6724930298011023, -0.023045255138565503, 0.41697928281603946, 0.1900399241909523, 0.2553408312502637, -0.3227086638872837, 0.33851812917072516, -0.20376380467099212, 0.002061493702995793, -0.005587140675725865, -0.050701749032628224, 0.04248873854110112, 0.03996911700262059, -0.2844617061735882, 0.20396630999396198, -0.08808814307153544, -0.20921740867522579, 0.1582433048678238, 0.13354768951834808, -0.0005867028583961549], [0.048105401854186304, 0.4442338619921311, -0.025589920128350215, 0.020297033612347554, -0.32271941116934905, -0.13187679371778965, -0.2965698111054833, -0.334854621087759, -0.12168791713517076, -0.049578442564406626, 0.048530664477805574, -0.6482576021169194, -0.23616538456141725, -0.5148275217995627, -0.7060725726201948, 0.3010714229635169, -0.21025468123945082, -0.013178820432889406, 0.17889288914239773, -0.22734167526979554, -0.13192215936756393, -0.20866659024141507, -0.1766876175670392, -0.48150642321950493, 0.28363576956122977, -0.3036778451981691, 0.6144629295649747], [0.1445563838247488, -0.15291288631095276, -0.17060911552553704, 0.6231108827987989, -0.01964304259195557, -0.12557087665938552, -0.05440745411854979, -0.09013579737594202, -0.2856824729840946, -0.012513087304931668, 0.39988478437952796, -0.22233290731669864, 0.23562735760877193, 0.0986224133890252, 0.3491610835097412, 0.5847519145105572, 0.3605963676353063, -0.31644386659151014, 0.24877459744881933, -0.18580454351060002, -0.020373757221593503, -0.19866327423729535, -0.5852430883891278, -0.5466854226522946, -0.09076761596834697, -0.49724692819706096, -0.4200164629231908], [-0.20511068561820936, -0.1338287684120332, -0.09475616776489851, -0.43713485397132806, -0.30621177264996646, -0.23380507681957036, -0.34770674142906244, 0.14213885063287732, -0.2833918108162907, -0.03679422066749474, 0.25387237520560973, -0.20802846804386602, -0.20365461619274558, -0.02613580260614309, 0.25377081591460293, -0.1791640094782249, -0.25138787034139104, -0.18245802993599353, 0.017390297262424345, 0.054472186673328295, -0.04866755045429063, -0.23473811761277263, 0.01471792081027736, 0.009573611470227743, -0.03203777095583215, 0.5775903641222767, -0.025747325088951292], [-0.1268705930321399, 0.24165367886123945, -0.1192328155399167, 0.4617844243611536, -0.3005327676293696, 0.08367403720929893, -0.3170299089740799, 0.34606839629084685, -0.3599566585116729, 0.3846213234725071, 0.32599204928965664, 0.4087159859927575, -0.25639677875988304, -0.3694495572124469, 0.10477890484293902, 0.04927871458578898, -0.13807483807107346, 0.4383833541463827, 0.22236510968898676, 0.06361295772438505, 0.2947362941060701, 0.31756392686078566, -0.36626212157032045, -0.31282619435278985, -0.2223468538404038, 0.4916124177551208, 0.4313298319226392], [-0.40881360031491104, 0.4100143091912211, 0.3430472553243685, -0.2536582897383629, 0.030187372759791, 0.3290598658100275, -0.011604365741228646, 0.23361851719720114, 0.030018294783673065, 0.5211549653745187, 0.2572793839530966, -0.5672260964723707, -0.0069833052063700786, 0.13694058124051922, 0.22626211821063008, 0.40573615589274986, 0.13141947317606487, 0.1344407987089772, -0.2844469754298943, 0.41192197906482597, -0.341200526399126, 0.2152087667529507, 0.6545262383426937, -0.2533454565399064, -0.059585288739445894, -0.16661575949839494, 0.19099860933128182], [0.3903297962677364, 0.196999988270849, -0.07989859115978798, 0.05380673407352396, -0.5701168202486965, -0.32371395535129494, 0.07570588057784552, 0.10314689502461881, -0.6176481715235215, 0.37642291181254667, -0.46018449972961906, -0.057185690575193154, -0.1963106919199369, 0.04170617983649611, 0.24178868565412096, -0.1768874560335067, 0.028300163697209616, 0.5461218275833151, 0.17980090023525697, -0.007521395241038645, 0.14619167809355046, 0.4979455004782107, 0.01704852633756835, -0.4731446084279654, 0.130477779160622, -0.012201606521763851, 0.05739060035887046], [-0.2021534099570812, -0.3040483578900109, 0.042296075587702764, -0.2656887743375361, -0.6725539625809462, 0.4995017169316842, 0.14108570709197066, -0.11607572615327728, -1.0123823302491235, 0.0736338992966414, -0.05860189098646092, -0.3725807803057813, 0.37058983420004904, 0.20634213416451702, -0.07448358244933499, -0.04764876438268641, -0.16179607847587912, 0.08734874195385528, 0.44269007041439734, 0.17840794978562274, -0.048825148788673486, -0.3146631952016, 0.16864687611559578, 0.22991421235643583, -0.1323992761611309, -0.40354852310415157, -0.13068518459113881]], "bias": [0.045193917334752726, 0.020600473295309306, -0.014648835256438461, 0.04556669973532148, 0.04837339076623893, 0.028888790387888694, 0.035913532799616635, -0.0350365584459098, 0.04466479862117403, -0.026180396536918386, 0.04477396168962968, 0.0452655158954232, 0.045512742937593186, 0.03579802422776866, 0.048130836147792115, 0.031110904849838753, -0.047298703151034904, 0.04111704749825414, -0.0463565726047808, 0.05595848775851122, 0.04454618585947869, -0.06359822049715123, -0.03217969442154466, 0.04528753093883468, -0.056942368292452646, -0.03641482028330996, 0.04787764049233134]}, {"class_name": "NonLinearLayer", "non_linearity": "Tanh"}, {"class_name": "LinearLayer", "lay_in": 27, "lay_out": 1, "weights": [[0.07633126215383658, 0.035346574552159525, 0.010787547870373341, 0.21562064492100613, 0.1721432779812901, 0.10733422800098663, 0.1430510645645519, -0.16116078786066793, 0.21677155352009406, -0.19854076467651718, 0.33575468917474055, 0.3616942373188019, 0.369823234106621, 0.1962843499271199, 0.13994123856450247, 0.05633440297269825, -0.4596778091868295, 0.09921408828659899, -0.35782861657292564, 0.67023845267441, 0.3233415986296401, -0.5200993808800298, -0.36507296298337055, 0.2661927841871103, 0.010856485642262229, -0.061557757146651175, 0.017492937137307044]], "bias": [0.044266903139274644]}, {"class_name": "NonLinearLayer", "non_linearity": "Tanh"}]}