{"class_name": "SequentialNetwork", "layers": [{"class_name": "LinearLayer", "lay_in": 27, "lay_out": 27, "weights": [[-0.12577939251628217, 0.8385564556693652, -0.37849158083511025, -0.2623510770428227, 0.13899737013908192, 0.22635736492883976, 0.8698675614449908, -0.2542001109109011, 0.5030451860646091, -0.29678414202181735, -0.04615778735348424, -0.4212836937560605, -0.06459409195611415, -0.02064949957019282, 0.10608796835429937, -0.44428715905549426, 0.042629382530001834, -0.01110559657253551, -0.05403220724301457, 0.35626709768155806, -0.5365374354553804, -0.07721179041116777, -0.2682803991527531, 0.059303025560489206, -0.06077082681045814, -1.0210327105532007, 0.399832197479094], [0.24708430007014098, -0.004497890333946615, 0.3339830720733253, -0.2428450172234512, -0.09607833100286779, -0.2531569261074592, -0.49388383981431666, -0.7454921896670132, 0.14568283974602617, 0.24044960892233663, 0.2563348756152958, -0.2141545787135997, 0.08425760174590761, 0.5884381053396945, 0.14854166783742176, -0.09346715146551174, -0.04466504872692602, -0.2647701259918481, 0.0530636239276166, 0.17013476235211408, 1.024902063201947, -0.40681566778721956, -0.09290341243547388, -0.0847012042241253, -0.4107237796147723, 0.10448898006196028, 0.16672860730381894], [0.6672513802669741, 0.8932594834210128, -0.5920799954133928, -0.057439878948212925, -0.3254531114737499, -0.16144368606067241, 0.9649572943241149, -1.1428696340683266, -0.18155641543170645, 0.05283151101175282, -0.2416901242005413, 0.08070379789817579, 0.10549068571826122, -0.09347062082979778, 0.4564281854414295, 0.07702606417833813, -0.16820337122441864, 0.06227335823095376, -0.032123150397471684, 0.5321590766094538, -0.20190097855369715, -0.11259970213293344, 0.5921951704494467, 0.1601772836899755, 0.6483891047787134, -0.7371891184254286, 0.18228033762214732], [-0.4246321934086416, 0.06877693770101938, -0.01363180285629412, -0.4355054453497669, -0.01872919826004778, -0.36031842549034476, 0.3587974485010069, -0.883001979087475, 0.5324029988670848, -0.13405977319355644, 0.10394837467041211, 0.2460463572467303, 0.11391393482186121, -0.10214609729640922, -0.1038358904484906, -0.06537041865302679, -0.19642800720646936, 0.19199106260288362, -0.6219460651017977, -0.3329643419977348, 0.1268080124722622, -0.22182871934174905, -0.07133660270780835, -0.05718182120055726, 0.5559991736559644, -0.7231695683594288, 0.48853768615812515], [-0.04215165108503354, -0.998099210191171, 0.29769175577936186, -0.39361053729148027, -0.35781203519290067, -0.5551306746154147, -0.21038825017554222, 0.42597999728088837, 0.033994784812154906, 0.24481131157739022, 0.10861185539691247, -0.10167076162775712, 0.19706556253296864, 0.03336770797337881, 0.3135166996905652, -0.19420957570475106, -0.20082863302687615, -0.21192852666025144, 0.23019190168358186, -0.9208721660858725, -0.04072696343969015, 0.4152110483153858, 0.2671210454638979, 0.05771830708636567, -0.021983011290042976, 1.3318485812090637, -0.144767435774453], [0.9938930690888291, -0.1525741485020456, 0.3198625482573212, 0.03444432006769086, 0.8774052463232821, -0.08928848521568226, 0.07156563851775462, -0.31520043331089187, -0.8031592757156814, 0.13067636909215305, -0.0130741233023017, 0.16134311652936806, 0.08751693276741461, -0.031083817438557114, 0.25554458204532104, 0.09528397330188874, 0.38040460692806727, 0.44724253288027194, 0.3341677733643006, -0.3432147447318221, -0.24572587159423717, -0.05856806272645692, 0.5172132373908017, -0.25939690435192564, -0.0454867308842108, -0.26288700821694333, -1.437276504736284], [0.020172531079807193, -0.137060780572507, -0.4245455564829661, -0.3529757336797095, 0.8295277894351658, -0.4278518860270319, -0.11177769264406529, -0.3965696476976313, 0.6772965396037085, -0.22749727944838236, 0.036372795234306796, -0.061562072563523515, -0.2320419295077927, 0.2333679609691979, 0.08785385225962655, -0.011911201497963443, -0.1186104929790915, 0.06555603083205537, -0.6818381719847424, -0.1532722114147215, 0.06555359591235117, 0.1957514426187935, -0.010936739204721478, -0.3157308377932107, 0.05051157275499272, -0.06500888194364522, 0.6492115170745975], [-0.17425551622050603, 0.4524081786807215, -0.1388866097028215, -0.5475092869819365, 0.11205865542385654, 0.3394197599813637, -0.8660573622196981, 0.06278711987932777, -0.5105679213537173, -0.09800851857285703, -0.09750704626632839, -0.30486232452367223, 0.1862076668992892, -0.14874810031817265, -0.1783504969873314, -0.11802443900601368, 0.00580080116736453, -0.04370679027715474, -0.15557849759426634, -0.05744511297092918, -0.040546065318502626, -0.6002959740678274, 0.1751996832449246, 0.6042863848433044, -0.035619527255169335, 0.6480388081865158, 0.37405885212533047], [0.8671487006191467, -0.09022773294945192, -0.6279045849547972, 0.0856402239478047, 0.7781974461520512, -0.35829497662428045, -0.5050700532898079, 0.14304814668982052, -0.44017127546003965, 0.02869078935342498, -0.24377157193969964, 0.21970327743828227, -0.02835998141049123, 0.04508907902674379, 0.23370003870936276, 0.029879885452366854, 0.3246039597196494, -0.3363848846443848, -0.3332557131019747, -0.40099384512678327, -0.5155729188380284, -0.1854407111972272, -0.07972529776142936, -0.48083227461067846, 0.9273364308138247, -0.39793457813196775, 1.572162026956037], [0.13530349196751162, 0.2925701850618933, 0.03719907735526216, -0.8806691598725827, 0.4235834673346223, 0.044797919785157944, -1.1423518302303197, -0.6768102816610647, -0.004856496677721342, -0.5400383444822378, 0.010270766913838781, -0.21559449673345446, 0.06966449063294054, 0.025802787164949405, 0.24793643063912202, 0.379655087295499, 0.23196195291716643, -0.15661152283509588, 0.593683395207806, 0.03552966528956502, -0.1528245738400257, 0.4063701977028235, -0.22002460108101757, 0.07731446507372129, -0.6665280823329264, 0.5996526920477347, -0.7662579060633543], [-0.47621778810943016, 0.1928185573041652, -0.5862586256431058, 0.3968738832814913, 0.14401934461546317, -0.09530274281174175, -0.2943485519348538, -0.5787437658158326, 0.3879957770278995, 0.10241762423466323, -0.23459645674203955, 0.2504921859679169, -0.14191682632592892, 0.1281781686661747, 0.16648653532370408, 0.07160069128629559, 0.037783141797547395, -0.2282058730788652, -1.3661126278812568, 0.6250970253125409, -0.11230016013199953, 0.45120655784010294, 0.6559268935012631, -0.5986445621347602, -0.38664685882535743, -0.11423958643038283, -0.2111332652710705], [0.6958368877806449, 0.22872046666819518, 0.03586758175739437, -0.151957920396851, 0.1346942840150422, 0.31279772646871423, -0.5249923808964884, -0.6909958041078931, 0.2521474644880445, -0.17545162327488184, -0.3773909458196339, -0.4566232339714092, -0.40473125012683664, -0.08594338383099909, -0.12756737643140414, -0.18918092657989544, -0.7334916918626836, -0.183907810922052, -0.21232209272127328, -0.024882071435009485, -0.8673748856651089, 0.16145518416865912, 0.5556720881061353, 0.4801412045915658, -0.15522354912399627, -0.15500554167497818, 0.12640691864760195], [-0.800206985512514, 0.014477172129459818, 0.1008615618642677, 0.43577826397482167, -0.9822167404765777, 0.02002313264947899, 0.06655752277426866, -1.273249343544641, -0.13708203000634786, 0.320670781388148, 0.05994732897032598, 0.034375458347094816, -0.3496207140525359, 0.288978229730537, 0.06846850869588798, -0.1060494515109588, 0.0945214141792315, 0.18333061501911674, 0.011239484579437273, 1.0613732116791155, -0.34180045789292796, 0.6754159355847398, -0.28789753825988074, -0.7045173512595112, 0.2957212762064233, -0.15274236882050163, 1.0991135281253885], [0.19419810392990025, -0.047524493028607256, 0.08505841341192619, 0.15050865262141885, -0.7101271964664826, 0.4665461875556717, 0.594274672048671, -0.009484662287792113, -0.7777586299504197, -0.8499624032617875, 0.16891611306500826, 0.1196421719007456, 0.062111378376199795, 0.015126221343172127, -0.15377215348810638, 0.19291027526759874, -0.1431596275057158, 0.3014328077472512, -0.0462291541132279, 0.699949089774752, -0.13759472224109665, -0.4008406923241105, -0.42309919395225487, -0.07548779716203538, 0.6238555772419869, -0.5711900927480844, -0.13498844463078222], [-0.23942669386449705, 0.0769075158869751, 0.14254294867365136, -0.24331721230750786, 0.5781379049564207, 0.3096343043998953, -0.18140375310590515, -0.3148305335979066, -0.9967799152607317, -0.025386451906241767, -0.20845012351642767, -0.2779244821013902, 0.029955521312628814, 0.5096203057915459, -0.08046872744254731, -0.046562287828704585, -0.22771940621992603, 0.29554966222881834, -0.09926470115854298, 0.3783324779985658, 0.2677209466110698, 0.030655481383054795, 0.28898735994356806, 0.11499425103044282, -1.1093815465111225, 0.48667019354569985, 0.01839547853979301], [0.5441621386394508, -0.1130655767338603, 0.4620889722011597, 0.2998851098257767, 0.17340853521532884, -1.9638217652631684, -0.6182723083972635, 0.09724655047365538, -0.22773412208675922, -0.14016983567802116, -0.041242766787636255, -0.00920547742653306, -0.18688233888813688, 0.2703907757437812, 0.2613749123223014, -0.08100967045833386, 0.1272080325799245, 0.1414904391163152, 0.6559168431677358, -0.516320845271244, 0.14951146889735867, 0.6902533919282312, -0.3870072323745548, -0.9219302392493995, -0.3289316311650869, -0.3049409178753121, -0.2759805460335674], [-0.1151802450337055, 0.3160778111264422, -0.3226941497022728, 0.12075563907305577, -0.5001653807676903, -0.7769172696103749, -0.7966574764406016, -0.665937617637524, 0.018965761334036234, -0.1326605722235777, -0.008165128667979832, -0.5639590568845602, 0.17863074282144875, 0.09277174495999031, 0.20233675448964325, 0.32777836601844423, 0.4125262974812815, -0.33918515101823565, -0.3936617468465641, -0.1920234697875368, 0.4779910745512126, -0.22262404718340204, 0.06173352391210117, -0.22538565909541045, -0.08909578281097766, -0.7996512213524561, 0.5902267121050679], [0.3792119810022487, -0.08616699476485568, 0.43884205466072623, 0.06019210922585128, -0.7533141388525997, 1.0028658694138586, -0.37733695302332204, 0.8138336360397057, -0.2721375386588486, -0.10666516010875357, -0.03760194396206601, -0.0636934631950843, 0.16873282911905715, -0.2819911607441538, -0.3081115206752752, -0.13785486545027187, 0.23311014472861083, 0.3569671606145566, -0.2798407740901387, -0.569930743162382, 0.8031133000200393, -0.08991957902760915, -0.6874136430359767, 0.6071617241320306, -0.2681718816155889, 0.698767059842173, 0.396443701240445], [-0.6021481708967829, 0.023516391817711965, 0.8849403780303576, 0.4354979133226399, 0.6098668149075916, -0.12422760591091621, -0.2875854287113999, -0.44666821752250596, 0.6039526254225025, -0.044495143525891886, 0.08359027408163912, 0.1049070214423347, 0.1515353994376062, -0.3901649804976681, -0.13112347784104872, -0.09486307996115038, -0.19981757724610427, 0.2614910046813792, -0.8490116616993763, -0.1978745549550341, 0.5294573880577798, 0.08347484691087875, -0.008941037936384238, -0.8277232749494493, -0.7202596096100095, -0.10450772385944049, 0.16581336088698534], [0.07831009806543258, -0.3709077134071913, 0.19355339501178562, -0.47701620368459396, -0.5961353118735393, 0.21250115459988414, -0.30255112599199296, 0.65433502730408, 0.04833236210266433, 0.242628898806934, 0.0012625789905162078, -0.11473870178674016, -0.2890101866828906, 0.1240598054959341, 1.0315497531400468, -0.09272691108613001, -0.5055897350939866, 0.1841399532742267, 0.8181943536632598, -0.15066472007689297, 0.5863972825610255, -0.6236808007347312, 0.6030288939769671, 0.17743781734650482, 0.19653321306481916, -0.40212873648139724, 0.13495484770770685], [-0.4107346565161954, -0.3776692225505417, 0.10574370820727623, -0.3656845228381493, 0.5808998032737753, 0.5649470251610555, -0.6290536049038306, -0.6463019150317996, -0.10644255099636472, -0.33354777273074243, 0.08213650907922321, -0.00968385371401602, -0.1618763645767423, -0.4698161768486581, -0.048603798521756766, 0.13597189268546922, -0.10508464103650432, 0.23785274674302542, 0.09455082220978914, 0.21897452280142507, 0.7173181415084345, 0.627750128917677, 0.855993786054467, 0.02358243346304754, -1.3152214103761493, 0.6065622335646115, -0.25819950375646955], [0.24135279511809235, -0.1384019341281844, 0.6926344171310901, -0.5146233194124306, -0.06215407054659255, -0.4993734313037014, -0.47821174947638634, 0.32647651918843895, 0.6205878671381592, -0.13336265258195304, -0.12608251366189854, -0.11795264804630344, 0.054229945902067096, 0.16338519987684785, -0.08257736632609719, 0.009766205349991303, 0.04188840713004231, -0.024099099919662782, 0.08989026468827438, -0.6535178083477945, -0.1466531340203989, -0.3966524368419884, -0.8267353774933645, -0.47410271039155616, -0.249765062102959, 0.007384011058716105, 0.01351235632999326], [0.7234093242284952, -0.17395766926412695, -0.7902616402660602, -0.5754791670351926, -0.2777140499808278, 0.5989800250621371, 0.3285025131997305, 0.19956201729049214, -0.28292015016317706, -0.19270535286291826, -0.20261251315970238, -0.049679280379602536, -0.0037479379272886107, 0.1434537581724517, -0.32440759005197556, -0.020504337401919773, -0.0831553336043258, 0.26050857078530487, 0.8375163519016401, -0.11381872703992373, 0.08994073646023232, 0.42488507323946906, -0.46655864369295585, 1.1107420634194676, 0.6453528609473927, 0.027193257283248985, -0.9629205105647041], [1.043947865052791, -0.03318873797926272, -0.5398592167306421, -0.033746967352706214, -0.4934275042615394, -0.08339233586946383, 0.1298799346467885, 0.12511293466042572, 0.08528297172759174, 0.15656446484525005, 0.3836526109533908, 0.5571586191186592, 0.03529481391756755, -0.27403624960557144, 0.09140901489640738, -0.1516178654771748, -0.051102697047916784, -0.28403386292629124, -0.3597325900458402, -0.344003536385589, 0.6834965717774838, -0.4728179009966311, 0.5149972358112431, -0.06168626657112787, -0.05642911502121843, 0.5218811529933232, 0.7857915280889953], [-0.1071820590299728, -0.30027086689076476, -0.029926393927216098, 0.2792680272431196, -0.48322197679312723, -0.009229506424376047, 0.15981653435823784, 1.0546867538635019, -0.10372799054638487, 0.055960070626204214, 0.1484386797504834, 0.43254936114268544, 0.06688935755004852, 0.6244111997886702, 0.19639272350920542, 0.03301180531734576, 0.04860209152583273, 0.2614934042822703, 0.05738273069904099, -0.802166542088502, 0.16442973724765722, 0.014096732330089594, -1.1243910803442971, 0.2030962229592903, -0.39954444633531494, 0.7841016646210909, 0.008672307026250195], [-0.3387636044176856, 0.6401514700274192, -0.2772032772313633, 0.10156109223422663, 0.5268486424157685, 0.14319855753786384, -0.320204035008297, -0.16405942758029612, -0.33196473693385997, -0.015187080004383771, 0.2116588775133184, 0.006612636446645177, -0.132875739117582, -0.14044885392719775, 0.05735933074646602, 0.06829188854226768, -0.26726735404639257, -0.016768124406712392, -0.07375360904455572, 0.5179896250634592, -0.5054690186425106, 0.3525738660731933, 0.32652850435809333, 0.839819462788947, -0.4206495280980722, -0.28919188804226365, -0.3958265240039734], [0.4046211549762206, 0.5699575320249203, 0.09054344954849011, 0.4081955582328581, -0.3294520578183414, -0.1955505907659848, 0.31681829605475015, 0.7326139316723236, -0.6670619512681889, -0.19937427990767534, -0.12999042852738013, -0.3100366342924018, -0.3444464715843407, -0.28538314184227864, 0.16023483997309584, 0.040606389669338966, -0.2821174568909956, -0.38965328926319376, 0.005571607006856987, -0.1687367872889873, 1.257199093420889, 1.4069758406635455, 0.13506852991155496, -0.37709814844776746, -0.25309109224607546, 0.4253512687352209, 0.7381591231775947]], "bias": [0.11660170378267325, 0.34964357137138513, -0.23636122853864625, -0.18904654066427104, 0.04729724818616061, -0.21984690014395966, -0.2098048286330222, -0.1163196883585596, 0.3828237935867032, 0.09878275602508461, -0.18361593368751017, -0.048191445763240276, -0.197354161997144, 0.06708189746242336, -0.038486899258359714, -0.06032920598128337, -0.18524950372430973, 0.26692590968153374, 0.10023547056623983, 0.21762687282982324, -0.16352874224301092, 0.14228911974519223, 0.09512811513952289, -0.13403982431469946, 0.2620207563979483, -0.10741706591166715, 0.28795271862328997]}, {"class_name": "NonLinearLayer", "non_linearity": "Tanh"}, {"class_name": "LinearLayer", "lay_in": 27, "lay_out": 27, "weights": [[-0.29715100229034686, 0.06417929928681756, 0.30538111239048166, 0.23922626685279375, -0.5032859409445549, -0.40208997978736705, 0.15816936130042386, 0.02460856813400003, -0.5587723634542971, 0.04337665125572686, 0.07573286055614976, -0.5078989015537527, 0.004063483560792833, -0.3343076465470404, -0.3117596166501838, 0.14321604307856883, 0.13143870195570218, 0.054706454808580794, 0.3669764114821716, 0.301221750753866, -0.7731198264521381, -0.18684877783069942, -0.5965290748330124, -0.18025060500924872, 0.18605934400692142, 0.4297959138965175, -0.00318466986639249], [-0.30447422208111863, -0.15866216184781098, -0.03367785141387589, 0.2471159018009086, 0.41858747160039833, -0.1932020994883936, 0.02267100357067812, 0.6779119481048307, -0.5579524589017466, -0.5158420290499663, -0.07000434712993853, -0.399722735303724, 0.23513251920325579, -0.13919399247186962, -0.45168334931667653, -0.9163308751810431, 0.059584159859816466, 0.31349241080007406, 0.21644471835356444, 0.3425182794200319, 0.10948841743115585, 0.12836227395767572, 0.11603434106881415, 0.22254768024838004, 0.24383095480079747, -0.09596878471021209, -0.05376411495251039], [0.2233028448085648, -0.0363582590243776, 0.6288893984954975, 0.2546155018335129, -0.5387348072369951, -0.4630967018286688, 0.12168072637651035, 0.06494248255577145, 0.3003508442679395, 0.2849454532380739, 0.0898035775575909, 0.09517936368432742, 0.19542265442160883, -0.6008423011078771, -0.1967002462195769, 0.4572397914944539, 0.8622951669547755, 0.18102349174808666, 0.13745075913031635, 0.28054431144311076, -0.08059008934136135, -0.5080738713108861, -0.017541622580355652, 0.3909625806749798, -0.0073901036602080665, 0.25942512228057774, 0.5675012956989816], [0.350183632700502, 0.6382212982598018, 0.7684391084812952, 0.3814090654919583, -0.68647433864094, -0.16656492252335908, 0.5244569991796549, -0.42582126464838943, 0.9463049570019761, 0.1048046114132494, 0.7325088484804454, 0.3492703840015299, 0.32139752037296687, 0.2244999079435457, -0.525363003200648, -0.917283071967894, -0.13160036460458907, -0.2661200558800535, 0.15373401415453977, -0.3397606699615175, -0.3575859903341915, -0.12706586649124543, -0.10881849977492017, 0.22027451358254363, -0.1375185833267173, 0.01663453148152029, -0.7161443440715834], [0.04733185290277263, -0.04286374299167611, 0.4941510021600176, 0.04876756147566775, -0.24099220982934685, 0.5712924005066545, -0.20196428292220395, 0.14569485290598672, 0.1717962370000628, 0.1484313124971931, -0.005879706140230363, -0.08283320226529958, -0.35634273391753624, -0.3445279470392413, -0.3932061230171157, -0.23362768927839822, -0.3389536835664774, -0.007085626440607257, -0.9002819939294066, -0.4480329785663341, -0.4167540685298179, 0.276070009812169, 0.7285153034849147, -0.2731404799381523, 0.13033057233218226, 0.7710903788785403, -0.4017942950931899], [0.14883173913451908, 0.053483055119233784, 0.12335539091124856, 0.28180878196740095, -0.5764755592715234, 0.20499122240742257, 0.1453702798393402, -0.09195957494288444, 0.3288316092646373, 0.14141809903637606, -0.11247857904222583, 0.36117185171739274, -0.647315986251634, -0.393768531968447, 0.851473246081928, 0.043556715510700464, 0.12544214677734908, -0.3969840113906361, 0.3189997781124358, 0.04276383877705361, 0.6303537366900848, -0.04673640223844344, -0.8038541625767268, -0.7482992987707251, -0.4308116819061937, 0.05395362034560319, -0.2197666454761487], [-0.20124358066023357, -0.24475326591743887, -0.3811573861268499, 0.5002106555131008, 0.6226729064861332, -0.45924945874978845, 0.3723619868313413, 0.4546117092807311, 0.09046766763902905, 0.18931049185366228, 0.5375838186271384, 0.369185737297767, -0.1058619294621111, -0.3415702245715315, 0.23999912886039898, -0.5290158290338767, -0.2600291549852836, 0.06113393354940799, 0.3703602025929796, 0.25685576974455476, 0.16484789567318958, -0.07368566730913884, 0.4076020831771438, -0.05844943739833006, -0.3343500749231457, 0.05601355608183685, -1.015968803711484], [0.2655297812988611, 0.5403682448014979, -0.17137954102658823, -0.4074765928017574, -0.2532755180507011, -0.1283360646502274, -0.05030845255736878, 0.23961434864947143, -0.3622229802774614, 0.3465231294214871, 0.03116059952431127, 0.46312507079469206, 0.18306896478615223, 0.12776034674930298, -0.900909127668483, 0.8191807013685282, -0.26819113985751447, -0.08353177805587234, 0.1461062868404562, 0.04440475206516961, 0.02732970263581448, 0.5657764008277556, -0.12452671676978519, -0.4634701205961425, -0.18802812925246692, 0.9404655570200048, -1.0298493620119584], [0.5057310331012885, 0.15352930748775157, -0.1618288739240395, -0.26454702331892604, 0.3061932115184765, 0.25498288497193883, 0.016794150241397573, 0.10913159406018454, -0.4688717865633225, 0.4931387938238205, -0.3239099947087977, -0.33437402123870613, -0.25180890192791966, 0.0012397985548280445, 0.7099810061838692, -0.019099738115154606, 0.18509137074925647, 0.27491960817864736, 0.4809751054337565, -0.33031563793969915, 0.3862040137898621, 0.054783424615501036, -0.05360869833391678, -0.39086040194724264, -0.2441522338137866, 0.1932380177701027, -0.2850659344365274], [-0.0724184152868879, -0.3245054659240154, -0.6797994704917459, 0.5823794206833144, 0.5961712024091831, -0.10525319587980371, 0.153167306957712, -0.29181094001214397, 0.2743245379597654, 0.3879232703129497, -0.3863275929582519, -0.20452763461490397, -0.0897736670395163, -0.5017361042175208, -0.6354866654925481, 0.26518997916500947, 0.04170708466255022, -0.5947408993221907, 0.6153543017436786, -0.12847096219779547, -0.7745698026653302, 0.7954689924473414, 0.14483740828013225, -0.5953842574684881, 0.5307426715375176, 0.17587356609269633, -0.5458390874211344], [0.07409028323615717, -0.24229203594204826, -0.042706915245628335, 0.00355921478651611, -0.1697905990112963, 0.2560579524637937, -0.44848165107786825, 0.9616471005649182, -0.1584759527085173, 0.3278003609854309, -0.08643206540468075, 0.6303306640934994, 0.10200284530887725, 0.19900543052077974, 0.5680097402613937, 0.25476351569997563, 0.5191483635031094, 0.12480182858038333, 0.13128381465868588, -0.3354789139132123, -0.2408369356638358, -0.246712397134355, 0.16423531375003025, 0.10927838798746578, -0.14685660747413462, 0.3760027951026355, -0.03579906475038941], [0.07052741180291154, -0.1472727540719496, 0.2304329293832217, -0.2204074810889036, -0.5185810414481054, 1.032418650854464, 0.24023837744120657, -0.18119551473859202, -0.12890904278831766, 0.077198548040314, 0.2405885737364398, 0.12071079781677817, -0.10083197072453726, 0.1529297578857421, 0.006843862667425488, 0.8805207460606486, 0.3474013127183136, -0.5741779264974062, 0.4118583805102991, -0.29256208993746186, 0.2728912107571205, -0.15702313933119164, -0.0844345303607889, -0.14520342218053325, -0.5416554387487783, 0.22815531148641188, 0.18090336200396737], [0.4287891366156568, 0.007448521859195894, 0.021508782644219755, 0.09828446080162309, -0.9622197833155707, -0.3786404663821708, -0.4810491036687789, -0.47945181417211785, 0.1409527062882009, -0.7559641606215467, -0.40981707551822044, -0.1336945572087934, -0.5784616061275673, 0.5164350077796748, -0.39377744267416437, 0.06684101688065534, -0.015859489338210138, -0.5825434623801733, -0.4327304022824081, 0.5695242352455413, -0.7732325739032321, -0.05581202671202108, -0.10235530430821235, 0.18154453827748737, 0.0722396610750377, -0.41052805426512834, -0.2550588604443092], [0.14053857500518063, -0.1364720673891737, -0.1527760662720609, -0.583507192177088, -0.18226129454752188, -0.7440018935408882, 0.07091961964882888, 0.2588509380158628, -0.14773378296523035, -0.7487357434633816, -0.12089676140015182, 0.13357042814093917, 0.5071659313345493, 0.20985050630593938, 0.3478539812482385, -0.5339004058300629, -0.20363052973268525, 0.5708659228379234, 0.3893223984837089, -0.04829041134696345, -0.8827248891422801, 0.08555968268062762, -0.7569001850964218, -0.05876520789323187, 0.6184917210224258, -0.2292532855239171, 0.9613156614202498], [-0.11624014833583532, 0.39152683904814484, 0.3739769987018725, -0.20543458272680803, 0.4879172277674522, -0.8502667570659931, 0.15191791723056244, -0.010650420884250857, 0.361073303074417, 0.5723580672144268, 0.3480532916651611, -0.2805655524087138, 0.3971489360706447, 0.16353614648520146, -0.5408242719964731, 0.4558008885273721, 0.15387539148375515, -0.16832043167960054, 0.30548267317983335, 0.7793857876107131, -0.15876029080216306, 1.178229848109888, -1.040392280294012, 0.11790202995038329, 0.20782153798168643, -0.06956170347040841, 0.2723479580077064], [0.9852291826051656, -0.30672526992739735, 0.6175806222795234, 0.2373747989169043, -0.4521976672218004, 0.13536853836028545, -0.20008494708257818, 0.31223034898054475, 0.8285959331511322, -0.020623233971601002, -0.19954332400219368, 0.2523349157088497, -0.33247317126667375, -0.11959754948811507, -0.2634195096905914, 0.501685676576417, -0.5238226313891732, -0.12870100450371005, -0.16131408635859798, 0.6014710405772751, 0.5009274515092346, -0.491165409230611, -0.1963972054518917, -0.31176828030437326, -0.09049833940646669, 0.5245938498202755, 0.061292135507178415], [-0.4055918928521566, 0.1908685278364492, -0.22035069686142203, -0.08835968762770838, 0.30820021532899144, -0.08362143346697962, 0.2181737602200256, 0.5083281074827343, 0.34254411188349626, -0.0672240697415783, 0.23685036941607254, 0.14053066477694523, -0.4366809325465263, 0.10207312758450414, 0.26872903632075407, 0.5327455942468877, 0.4405594602437327, -0.2601897260430311, 0.3626533637901578, 0.08032165419617618, 0.38346499476981233, 0.3329598341305016, -0.40241843588231235, 0.5438291094882699, 0.08047503261114232, -0.17305822573510504, 0.36869886033933763], [-0.6105320311411981, -0.30447631129933556, -0.9353775137698218, -0.6460731981476208, 0.5699019337704359, 0.6479690914852869, -0.27035698998473, -0.5233825907563328, -0.28970018912866613, -0.05025942750548895, -0.39000818775015345, -0.1781953274305448, -0.6653546330337732, -0.6677764623558679, 0.31394501360036786, 0.5791108009044587, -0.2828557391238416, 0.4101371522722803, 0.13195673700331312, 0.17165746487697114, 0.3042151343202567, -0.051270132529031634, -0.3357889208069214, 0.0893374386121922, 0.5658036565126942, -0.8667971575985335, 0.3307985331861797], [-0.01094813436724326, 0.10281943082442976, 0.4954018733211733, -0.5401808982564856, -0.20024291140565637, 0.2706671977500837, -0.7630840064493029, -0.4546338587661523, -0.5597137069343985, -0.16834916676438433, 0.17826031294076514, 0.09551713454311755, 0.44085798258048325, 0.7829288857681831, -0.049239647656864435, -0.019803825788069385, -0.33380791815501554, -0.4312916343902905, -0.0997664379608879, 0.23442166962009356, -0.5523416026033998, -0.1273953712966823, 0.4598626263038703, -0.5969824354908517, -0.21638838437722988, 0.04776788025780167, -0.12038342583770215], [0.1931363330531554, 0.24623488554744255, -0.35594416188499484, -0.6927575122631857, -0.20566939357887679, -0.32813823235835543, -0.012012992870535429, -0.44854402590856746, -0.09663244416554477, 0.2564110315106226, 0.08764459842270368, 0.14454879102796564, -0.38576493136846535, 0.3954091856407136, -0.12569942965155598, -0.15830303778955165, -0.329950947875427, -0.004556605112412509, 0.035907599256866374, -0.028377565764889805, -0.38455803786270903, 0.1456955246486654, -0.1451329328292909, -0.188720902768908, 0.2260336438418018, -0.033036962124103564, 0.2528430566866086], [-0.07781974189381374, 0.4026967736786338, -0.1520461012901318, -0.02530333966842228, -0.1882256164910296, -0.2169665074528956, -0.3187168047172297, -0.4901816212739743, -0.15791626854965457, -0.0657919045828045, 0.040366038278500986, -0.7675348185279505, -0.14547807962222675, -0.6624375619403877, -0.65094412212783, 0.46179169244591933, -0.26037142823148157, -0.0467802502905424, 0.38958578608214395, 0.0737663516173174, -0.17031163899534957, -0.1989969969406646, -0.41795797190682793, -0.6885398490352543, 0.35963789073767516, -0.3324425898045442, 0.9784078729007948], [0.27179141184831995, -0.34785593446816543, -0.03443177940999256, 0.7649525130514426, -0.3662881268681512, -0.10055867512295895, -0.07586430334419342, -0.10937650337010564, -0.2883019435751354, -0.26505513286118176, 0.7409476701922365, -0.24750410042299748, 0.38086707135342907, 0.07860327412042191, 0.1450964715537391, 0.42202041194881695, 0.4666701542550549, -0.2520882940342057, 0.39505277871781724, -0.3493317939356481, 0.0530617809008077, -0.3642424346469535, -0.7111539899508897, -0.43996126640823896, -0.2050734772469968, -0.09900847964945662, -0.3662298343987075], [-0.1738521894151924, -0.3631979794024472, -0.14001252213771304, -0.5981575763749456, -0.5008745354421552, -0.12687017043596652, -0.2691039973837352, 0.13136326603357307, 0.14495136608418566, 0.0310662713922719, 0.44694304760685816, 0.04184766360923453, -0.3894355214268762, 0.007087186464346735, 0.2094650961043791, -0.4823062389406074, -0.3344840112419372, -0.1623591606433374, -0.17605356336797892, -0.034010141353473605, 0.06983919097141848, -0.494112469583578, 0.13339900825971499, -0.19606221009400637, -0.059586688300295926, 1.1284417815984844, 0.032648727392536735], [-0.3553064102848388, 0.5862728934955469, -0.2939050997221468, 0.21928872560420037, -0.4096634116522357, 0.379319675791878, -0.21502173426578172, 0.527803806085982, -0.4723922326186183, 0.7343923854620599, 0.33080962842254386, 0.43956020079128044, -0.4316005517788056, -0.46369995918559187, 0.4353612595533984, 0.04619529207028665, 0.05367916109588221, 0.27323815177167265, 0.7151742407688466, -0.03526642189207698, 0.5367416698838792, 0.23238283422586978, -0.7328090351622703, -0.12635895283679055, -0.2900096833252062, 0.4369531078524713, 0.2922868583513854], [-0.535672094656543, 0.6031653309995071, 0.5403548483578382, -0.4986797959145936, 0.0029841467884059196, 0.32631622173939007, -0.2955947267219756, 0.13482193375552506, -0.3045702162297353, 0.5724347623692188, 0.30850997902327415, -0.4492985600324742, 0.10708780691735773, 0.16706010118862005, 0.30546228763359906, 0.5820232071810713, 0.27163625993917306, 0.7060908797231947, -0.5498333556068834, 0.5450324699083636, -0.5221294668151852, 0.346695008556835, 0.7274715795416878, -0.4683132250503723, 0.23332620632605264, 0.09572834426785912, 0.31043185093255077], [0.4636586316134852, 0.759410925303583, 0.07446013641162104, 0.06393189511266506, -0.9947837428042609, -0.1691920675157312, 0.06862705480597213, -0.03393516466055218, -0.47981175380965985, 0.5816183124538093, -0.42406718082947836, 0.11307535547760303, -0.11819232929164027, -0.1316587312371017, 0.011305677394890312, 0.10982868502092553, 0.09535449420332288, 0.7122507619655223, 0.16958370472654424, 0.1116412695268565, 0.07623802406339199, 0.920427763437787, 0.05267417137810509, -0.3038376230654969, 0.1559198951006145, -0.025132196673963967, -0.16430949776341683], [-0.23016972973413546, -0.12105315502093267, -0.20120305420625553, -0.21071921660857057, -0.724231415228663, 0.27522843354631904, 0.32158369502538814, 0.0537982406825433, -0.7619730333573296, 0.14486664356884948, -0.23771728736832892, -0.20271703703311914, 0.22883313558873908, 0.2911482534790679, -0.05630325103347128, -0.005238489844730857, -0.10500371240807221, 0.07096117580797405, 0.4069149016363131, 0.2582529305196082, -0.02799165609452781, -0.2035134610700902, 0.3151391642422879, 0.22021312442122457, -0.10225978724155659, -0.524035474653871, 0.20760242752058497]], "bias": [0.3616801640113406, -0.009817432939934449, -0.1354884407760316, 0.14645758871645095, 0.3618681091231993, 0.119548043190961, -0.008516121741974848, -0.2246443559630806, 0.2012124969281558, -0.1475807704925687, 0.17675621063033894, 0.025478559226893786, 0.2057941365357332, 0.60490733241669, 0.4042194586955469, 0.24080378578484887, -0.35317363127920304, 0.18627804185700556, -0.1424689208975582, 0.5117059743646265, 0.45249348399529443, -0.34416593646278565, -0.24077737950275707, 0.13839776080306262, -0.10403824467626607, -0.15711291354691737, 0.1374131614881157]}, {"class_name": "NonLinearLayer", "non_linearity": "Tanh"}, {"class_name": "LinearLayer", "lay_in": 27, "lay_out": 1, "weights": [[0.011948902660058094, -0.04415985160499395, -0.16884142809373512, 0.31975367894176127, 0.27163039904494, 0.1224608530835938, 0.1568279541938156, -0.08018184520879858, 0.06815816519235822, -0.2290578663175238, 0.17290412627984122, 0.374499699259969, 0.35942955788348935, 0.2932914788128, 0.20230680966274267, 0.0834390496338181, -0.34461356201454996, 0.371560209343786, -0.18488736954347437, 0.6001382309471671, 0.25224477822743085, -0.53649249110954, -0.3532300730774019, 0.36687910281735014, -0.22243860647967859, -0.1689230572449236, -0.0038640604572287287]], "bias": [0.23529098849856425]}, {"class_name": "NonLinearLayer", "non_linearity": "Tanh"}]}