{"class_name": "SequentialNetwork", "layers": [{"class_name": "LinearLayer", "lay_in": 27, "lay_out": 27, "weights": [[-0.03764998769154514, 0.8487354033753177, -0.3685209456391753, -0.23219971637490303, 0.11248370300383785, 0.1983191393234298, 0.9198091279514508, -0.232267569485026, 0.5094296129063653, -0.28039228907191527, -0.04000847618615814, -0.6142239853230197, -0.13426701901530827, -0.0708445648924616, 0.009263279275771754, -0.36771774843814803, 0.12046455372128106, -0.10063498853531422, -0.02764659210264736, 0.3348048584633817, -0.5874350036718273, -0.0935353557135265, -0.3407440042722098, 0.09565534260058987, -0.05658984787627645, -1.0863293633675637, 0.3985001758328251], [0.28923646295750616, 0.03853104224095961, 0.5150483644436191, -0.29693215184868726, -0.07078150341221916, -0.2938637688141016, -0.5035058753158498, -0.7749485888881412, 0.12883113905242197, 0.28130256546178534, 0.14205053713764781, -0.24385908801164763, 0.012397259134863222, 0.5478318458864777, 0.07073379575289096, -0.144657670570554, -0.06895177984963383, -0.21464533748945613, 0.024877132100746862, 0.19929121326295804, 0.9460706591253861, -0.44318512328040677, -0.11557348069603934, -0.09438915172491658, -0.3713807958004183, 0.01816343269333657, 0.1653836041482124], [0.6256006931600705, 0.9632813783986588, -0.47392031096584564, -0.07666896188171284, -0.3190848408186317, -0.2551508425580921, 0.9921813254645253, -1.1370686487073876, -0.1987522134377242, 0.15987588834236238, -0.3066314831098627, 0.01046902442716016, 0.09135765095113407, -0.08608770072904594, 0.3994670514222882, 0.05561645647069286, -0.2450184344944144, 0.08699211837218039, 0.03648537916681699, 0.5535771154193011, -0.32639907288900105, -0.1361663100455392, 0.6325411199208602, 0.07984755737255178, 0.5673606751765831, -0.620698835748518, 0.2941732255219864], [-0.400716322847308, 0.00960840962252731, -0.08476063818249224, -0.39181224284223914, -0.04899727958652429, -0.34751230310024916, 0.3800647590984974, -0.9336884409070625, 0.5224737774958282, -0.16189135054390752, 0.1026514091800697, 0.05649624900425708, 0.08549067471628904, -0.09487316398041382, -0.0643330167314831, -0.14927840677922513, -0.14656072302561607, 0.19308348988193566, -0.5415231840506898, -0.34983325277623684, 0.3200683640145564, -0.22873543607676425, -0.06672203913253462, -0.03100697677645561, 0.6053169382927489, -0.7812843474701546, 0.5329908805443571], [-0.0536508995570923, -1.0738491670743275, 0.20525373182182852, -0.35426945525289355, -0.4726495792067446, -0.6333283895222022, -0.28017224151262904, 0.3233747025852493, -0.0031721292824522396, 0.170756143952385, 0.12124507273132636, -0.1469362711853518, 0.10964946077043813, 0.04389669184119374, 0.336634539416516, -0.2256972562085692, -0.19367776431458122, -0.15570156330138285, 0.24030716317629058, -0.8976639197146021, -0.0071669307215101105, 0.44314078435908855, 0.369537246065657, 0.017028000053352026, -0.031099189420381947, 1.29682682735625, -0.23494915541146988], [1.267487915315216, -0.18259906605473844, 0.3896223897497686, 0.02961866511657762, 1.0127416372203755, 0.013037517287341167, 0.09508651349290287, -0.29824955163888744, -0.6714613685966119, 0.03063210285175927, -0.11148643190025487, 0.05892646589290082, 0.12124843950610016, 0.01828128236349877, 0.17367296744874675, 0.021347450027968673, 0.323594164840761, 0.4287094952321405, 0.422519075908259, -0.3592089623195292, -0.3780637330895395, -0.15168143761931935, 0.6020706962828006, -0.22942416024173745, -0.1459784177740058, -0.4061103190517411, -1.511492397751599], [0.21777663338981051, -0.09911396949697156, -0.2911192167571913, -0.28615987597387726, 0.9646351549211752, -0.4668000701819083, -0.04475172065230346, -0.42369594910558844, 0.8600287141561657, -0.06320346204605252, -0.009415349158549432, -0.11155543356956542, -0.20486549021508485, 0.35618012306074776, 0.15202878054341, 0.15395506244552515, -0.13384776056563616, 0.01852313364267986, -0.6971591444798325, -0.0681254253711189, 0.03999009002252665, 0.16886502554020522, 0.10720300851138513, -0.20728722086931342, 0.0143809213034135, 0.004078747324235617, 0.8256750824624532], [-0.24375024009778143, 0.5538092478879845, -0.1685958405650193, -0.6097900128351154, 0.19714034039911557, 0.2447654368855393, -0.9246674917305411, -0.025957424880028973, -0.5067068017482579, -0.022008498453142383, -0.15416539954737613, -0.006450992301075491, 0.10680221863764718, -0.05980184084815433, -0.18017993483618563, -0.21718510815395173, 0.08058877104049489, 0.002281364934751744, -0.03017505288646809, 0.01957547657923156, 0.044825252904000856, -0.4659599156024885, 0.13739515610054184, 0.6310045945802257, -0.05367140233200328, 0.6323209039523295, 0.41267545525559657], [0.9475637013170153, -0.13970157060875057, -0.7919681682864332, 0.08532007691150155, 0.8714059960275474, -0.4477881744011659, -0.4128411917421247, 0.1324282034100952, -0.4656247659314528, -0.11977948849749188, -0.2954116096906326, 0.11971282765098137, 0.004063909476455845, 0.1396728595655873, 0.11600971966631983, -0.02215526140141546, 0.28543455630792497, -0.34629333591258904, -0.35173566584985616, -0.4043295657056445, -0.5700146045718539, -0.15357465273849602, 0.012170535915793344, -0.5437996502556788, 0.8451833552172335, -0.33052609795559224, 1.6973715235178317], [0.3229048451712409, 0.27297339878624466, 0.0713209264050999, -0.8797701152592505, 0.52439633909825, 0.0934279689482402, -1.075377611226269, -0.7260876629079872, 0.08792850775924878, -0.5333598856777144, -0.13368329283122862, -0.2102394041231832, 0.11814486974806442, 0.08600956637459546, 0.13487552004807177, 0.24529331177783856, 0.15010917306890634, -0.028421830754749345, 0.7474870709987017, 0.1136397559868715, -0.22657175550990763, 0.19952051144092572, -0.07117204792661422, 0.06279692328308793, -0.60344401184619, 0.4191982015362624, -0.8004799813118262], [-0.3952998621004051, 0.21495423897929497, -0.6384730522870041, 0.3926620949669241, 0.2647335532577328, -0.08221131103763273, -0.21421035816033035, -0.5137977466754681, 0.5024862586571971, 0.15226087800523905, -0.12308749223610263, 0.37544951018881567, -0.1063311763694287, 0.18033627956391032, 0.17540301383542217, 0.022079082470358398, 0.044038004771725155, -0.19542900426170978, -1.4030754854596224, 0.6192828166323792, 0.051169777691875966, 0.46876879662251714, 0.680807149215013, -0.6453590910741226, -0.3796819357941693, 0.015087689234992986, -0.20679918580297751], [0.9120733795220303, 0.22275392876110425, 0.13155401623435745, -0.09922800658024652, 0.17594397739996967, 0.3944296531976087, -0.3807362938508395, -0.7244026653427829, 0.3863917144554957, -0.09859296087715567, -0.404045688044314, -0.4119792516138968, -0.37077115697692664, 0.002461603438808451, -0.07832687005914443, -0.11660851871029873, -0.6693868868868915, -0.2880278309416401, -0.1717935643121463, -0.009020574473351903, -0.9422143161277257, 0.12761898960480697, 0.6705647500326157, 0.5685170256891607, -0.1731591274318531, -0.1707989874978943, 0.15374596220647305], [-0.7831766972396135, 0.056819271547083654, 0.07899414668250024, 0.44121454177874797, -1.013970659349261, -0.11379020849073289, -0.04426863609317875, -1.2376326690524975, -0.21837990715475022, 0.36263966174643847, 0.07644583809753813, 0.13276374952839332, -0.25120227110429916, 0.21735622240615798, 0.0659862902532116, -0.01439529473855184, 0.09126662682133423, 0.17283732071595986, -0.15020865747682471, 1.0928778768335454, -0.20929321461378206, 0.7475875184220169, -0.32901396271393746, -0.7334864421197638, 0.27568700816329766, -0.11035616116059181, 1.2769135144533448], [-0.00332652854182069, 0.06536658225422691, 0.09430723953714622, 0.06532292702848178, -0.7823765238458291, 0.36590986447287394, 0.685050868427825, 0.15973427903846668, -0.802149966306426, -0.7693059350407677, 0.23724882442469797, 0.32896950162293104, 0.03971340233304405, -0.009797533570717271, -0.23830615661674195, 0.1424462394913742, -0.09887306979560022, 0.09111603367031006, -0.058338935342205536, 0.6829732114449882, -0.11204444956606212, -0.2079328940445636, -0.5772944330306395, -0.11255675408689851, 0.53988458678272, -0.5498399456981812, -0.05596411254020935], [-0.20422432645447208, 0.11393878849851231, 0.10695107294490742, -0.17095220010941858, 0.6672927910909048, 0.30818994964035606, -0.23773592203392496, -0.34365496403155926, -0.8787494056588676, -0.0978430827144806, -0.21813784629814698, -0.1254206244630667, 0.03741591066976215, 0.5327570776928733, -0.027743670484219676, -0.016969026258607297, -0.10823180887735387, 0.29202710094982764, -0.08536487581907089, 0.3004303615620512, 0.29225049803902964, -0.07113476385258613, 0.3472356495384742, 0.09379302750257902, -1.0913638588873145, 0.5161791642665771, 0.09591367320329937], [0.4942036323934587, -0.14299879567492374, 0.4736854298794362, 0.28948184817513856, 0.10657290519222418, -2.114338270969378, -0.6629805207530846, 0.050698779833832336, -0.2690207332599062, -0.016590048517849648, -0.049794044499494546, -0.0013960288992412202, -0.09131105428788827, 0.18847691549194817, 0.04019207184889587, -0.15714366089572873, 0.13764275094663275, 0.12204804001831007, 0.7387933348753672, -0.5801237989694288, 0.2568229705110383, 0.708219269800313, -0.369500336861885, -0.9862509330829136, -0.3655606692865213, -0.43145685512915266, -0.22005396228093224], [-0.08105604624710847, 0.27707962570015376, -0.35276388379890544, 0.0804421442459022, -0.4564740976413319, -0.9247880609765845, -0.7626508630161497, -0.6822367940866568, 0.045723793424681324, 0.020214561385170002, 0.04381728257089029, -0.37005540022194156, 0.1595322234398881, 0.033350274898200576, 0.13802340419941117, 0.3580704608234567, 0.3454974893056602, -0.2645463276717418, -0.367106846378125, -0.24118717839176376, 0.6016555842993245, -0.21946311783070113, 0.08301051222013167, -0.21249224093103306, -0.011354338218389177, -0.7787438650167724, 0.620572168989767], [0.42108280539226023, -0.1192361701708271, 0.5674431892942781, 0.1178799222693959, -0.8039390708204878, 1.0604065985791271, -0.4984177396556208, 0.7835444254183364, -0.28763530633497725, -0.074406621263717, -0.04894514564275607, -0.2275327567562197, 0.04624495208062255, -0.2972194813801863, -0.16263321067015354, -0.19683854100194448, 0.21637335359678228, 0.37238631460625343, -0.2923645445867226, -0.5642566024358505, 0.8278405656917553, -0.07758341429549497, -0.6798012318761635, 0.6303468246533772, -0.19847906920455316, 0.5491159324714985, 0.43247545696290735], [-0.49578671997839213, 0.006238521977556983, 0.8605019710229107, 0.48425811861975, 0.6468010925206715, -0.21340583754912726, -0.19717852250543985, -0.5084658053362873, 0.5810748161216855, -0.06481491903722642, 0.015173816260784507, -0.009885039792442847, 0.1935631186791778, -0.3740828809292021, -0.22043358829022228, -0.05646188400046632, -0.17000560844277662, 0.20839066676634632, -0.9535520411320655, -0.2577914404987807, 0.8434319623302536, -0.006883442415705817, -0.032472135438832594, -0.8183610262837966, -0.7135849476693586, 0.003906685086929887, -0.020369708440548064], [0.11731124368704002, -0.28131840477825093, 0.15721955932544654, -0.527193883355803, -0.7060635911958488, 0.19626123786947228, -0.33827807202391147, 0.6521834914059238, 0.004916230183342638, 0.25488784286832217, 0.0008246551499687552, -0.01452647149751749, -0.3578293949853612, 0.07097192711517973, 0.9837379040236863, -0.09331358842185747, -0.4321766863581661, 0.2624476887031723, 0.723120781730156, -0.17733505834478913, 0.6542554308911758, -0.6027811143047623, 0.5875070555888537, 0.003481632270087784, 0.22250189529523967, -0.2842875521558061, 0.09261944746754662], [-0.42963166970888245, -0.38585221321376156, 0.08992082909703358, -0.16840696223227797, 0.6518016612744755, 0.6082450791254854, -0.7916929910293219, -0.5985449650755299, -0.09838732336157625, -0.3393054110002021, 0.07056609519253568, -0.022562639851825255, -0.22133597927682813, -0.36002900967490087, -0.012905861317564852, -0.0019276908400563107, -0.04434675031183592, 0.18103714170866045, 0.13565988475966373, 0.310398108398335, 0.6342993652172509, 0.5201196450046092, 0.9542540427270407, 0.0019902118569859084, -1.2019944067291204, 0.6016649889203896, -0.11680426184488155], [0.3462612693655805, -0.02344566531645343, 0.8557960664469589, -0.6441793446621316, -0.1065972359097433, -0.5068633207868324, -0.37086509550730334, 0.23557175579886844, 0.6368030606419435, -0.021929121441429413, -0.16057861968870693, -0.006947046197310146, 0.10940067373119225, 0.1626377068328036, -0.21480803935098622, 0.05374020301558928, 0.07691251052870424, 0.07165137791303743, 0.17921510151970121, -0.5346551473725273, 0.004965734066718472, -0.4283626964009947, -0.8170495290772525, -0.42876200996610314, -0.18893684172558217, -0.02901867730737192, -0.13278351823494924], [0.6464570089187178, -0.18565353547288493, -0.7436654390686629, -0.5115848297678818, -0.2836910108207667, 0.6964852515111533, 0.35223633795687376, 0.1794220944417916, -0.3509165354879718, -0.23309780579074588, -0.09884398057665532, 0.11714084107538113, -0.06436987811689796, 0.178274442839593, -0.2839004428795228, -0.11419518324357628, -0.19892906605903704, 0.24262168833114572, 0.8688273158340136, -0.21470780922229235, 0.07192335042177775, 0.5403188985977321, -0.3392540715139164, 1.1115292445413316, 0.5668315261253707, 0.08895147731449732, -0.8662281796287958], [0.8869590394745323, -0.04796989820277042, -0.5177415440160338, 0.034091464272504014, -0.5572880588318552, -0.1693135466064971, 0.14735691803849743, 0.118879443356951, 0.1756326492371761, 0.25099100622725706, 0.3550051717420957, 0.5236742955391707, 0.07495717863690196, -0.24415864750875918, 0.13007495055822038, -0.23559700146623094, -0.03295714142663642, -0.33528797691227624, -0.4476164388196356, -0.34159674004782736, 0.5246500125176515, -0.5249680521087027, 0.7259677043661352, -0.048860646236674674, -0.07352736361628733, 0.5987102331719019, 0.8336222508821621], [-0.009127916515992594, -0.25873935864512226, -0.044779639822314525, 0.2401162063345184, -0.5579270547542992, 0.08734009252367839, 0.04236678586506053, 0.8730214578592077, -0.0661866882109828, 0.012339879864006038, 0.3089338007078071, 0.44409113446377146, 0.15142050620172762, 0.554179611686151, 0.27859934198575004, 0.14529576773703973, 0.01131789992012155, 0.30844939710190905, -0.03774041313213845, -0.9328673848630056, 0.21827597575513125, 0.03000080534059045, -1.1653600181235904, 0.23238786946801407, -0.36401839352478743, 0.8892945276439755, 0.00479155612650753], [-0.37866694631265846, 0.6591387772266365, -0.40610451430777, 0.07503392193224526, 0.5816750326461916, 0.12368732483505208, -0.33461800160646404, -0.1431717097486146, -0.3431300116646052, 0.09710499764020224, 0.13315671033734736, 0.12082980318683768, -0.058631476433428344, -0.044616555425415046, 0.049054003704207615, -0.04067764553560154, -0.315737877689734, 0.0963407235766322, -0.06242319775370391, 0.5909998354913076, -0.41531487117132926, 0.3902392965152282, 0.37783910112606833, 0.8120067098216384, -0.44029408264329495, -0.18437712667455564, -0.5085068366647035], [0.3213113571548213, 0.5844983858252557, 0.14168918746378578, 0.40270920837278074, -0.30208751538319273, -0.24176018701299606, 0.27547155156488157, 0.7781931011829364, -0.7228601066350094, -0.12097270330893518, -0.2303892050545579, -0.25324872127347675, -0.3003063885371855, -0.31435409035568157, 0.1918539754219285, 0.15786955705563258, -0.25157178949114123, -0.4479606965345591, -0.127161650073461, -0.10652127412063435, 1.0684289400669473, 1.4352521811848795, 0.044399740957001714, -0.3855712247185146, -0.31363770221507153, 0.44347499848381045, 0.6557141555939568]], "bias": [0.17121707724537188, 0.3502622944530835, -0.24876464942607845, -0.18398939800092914, 0.038372119637560834, -0.20195719461733924, -0.13508875384244032, -0.15071335980416484, 0.42732945951318707, 0.08571344254376947, -0.21756096637724096, -0.03723580397886534, -0.21053232212692422, 0.05199842142862088, -0.06683638254303817, -0.0617399842304625, -0.18502273863374893, 0.2004141202611936, 0.026981182520904014, 0.24488957206564826, -0.1317815561286584, 0.21905370954933556, 0.13762231957124427, -0.14634349467596353, 0.23074487816645628, -0.12896919011606078, 0.2652396697191519]}, {"class_name": "NonLinearLayer", "non_linearity": "Tanh"}, {"class_name": "LinearLayer", "lay_in": 27, "lay_out": 27, "weights": [[-0.27228814887394076, 0.016876881009417147, 0.42161625774686334, 0.23113247062282896, -0.689553862099648, -0.2877486025728688, 0.2647650939976051, 0.26716050475045416, -0.4749462029920766, 0.15687365593894742, 0.05513852190237097, -0.39729262805502685, -0.08911736614816976, -0.39437213462553855, -0.21752021162733262, 0.10502092743619858, 0.25814688435553385, 0.13702935478570608, 0.3578529457329588, 0.28393599747051573, -0.8264677990946858, -0.17163155309805098, -0.5543429274976133, -0.0831525919186815, 0.21878285783194915, 0.6169740362615516, -0.02158675978748899], [-0.29426728730594653, -0.07163695072752037, -0.04036586976364115, 0.2565408293579309, 0.4324436100503902, -0.23785903418629328, -0.02220645262781734, 0.6457239987954175, -0.5880565051640395, -0.47973763705930766, -0.042654980131915606, -0.4147402550567687, 0.32059877584446855, -0.1887619756403852, -0.5077273963151818, -0.8935392161856408, 0.08789977315695736, 0.348379636911115, 0.267798968937387, 0.33308505168154995, 0.13272103981111238, 0.17527284501271911, 0.04074399888837415, 0.24651916285968564, 0.22382824192678058, -0.21402478331138122, -0.01473923728187194], [0.1657929163493756, 0.0008886150715561236, 0.6973590655627443, 0.2550142959417922, -0.5883255789683449, -0.42406898005192234, 0.040523959731944344, 0.09770694522030546, 0.31994468265480513, 0.29346512650239126, 0.09105220890736339, 0.16649029021898476, 0.22209812059373038, -0.644286732780675, -0.2166297390275162, 0.45149104877683865, 0.9045748824896942, 0.22420457370731953, 0.12137701665693934, 0.31317605368600554, -0.060284653525934644, -0.521070211502778, 0.022398386506419267, 0.42600581190321163, -0.06285956407052362, 0.2485367675808324, 0.5473767561788347], [0.3803273716821056, 0.6036780130526658, 0.8268405897734111, 0.30484565457083496, -0.7004577471082292, -0.06795506333069634, 0.6245642166544052, -0.520183873045722, 0.9523001190184165, 0.1089348962787322, 0.6992030470380365, 0.42832893257451665, 0.21511114136248402, 0.24947639190523507, -0.5277469348403983, -0.9130416551249788, -0.10080283448030956, -0.25748449701128273, 0.16123323929102323, -0.2815828195363625, -0.342597635541573, -0.14812222890675977, -0.11040046378168121, 0.27108084720990544, -0.1449801962752503, 0.044268498211244366, -0.7127152580064903], [0.10602715772619994, -0.045784741982506344, 0.5712095236447935, 0.012758297972051774, -0.27209137692930246, 0.6121529982553453, -0.156637081824669, 0.11739340826091034, 0.1252782318937833, 0.2295793953324276, -0.00769393570625898, 0.037296331408267235, -0.3890825076382072, -0.36922175026637716, -0.33099730264542854, -0.21923498192445617, -0.3614143153417351, -0.036762803263526087, -0.8779740928796085, -0.5021521490970865, -0.3959670387362696, 0.3208748372298729, 0.8185756953673872, -0.28572160473825425, 0.17541460736027778, 0.7863030277807733, -0.3967001626471944], [0.21343605357301168, 0.11683887138279561, 0.2039508514595731, 0.24269786877290223, -0.7206680463481573, 0.2398701229489046, 0.10703862954981878, -0.11900163247289723, 0.307636051557625, 0.11772777862603619, -0.1684234948740007, 0.30452732194796994, -0.704296817289838, -0.2469900594295102, 0.8883572323777291, -0.03156325063907458, 0.10353671390355874, -0.35814714940953823, 0.3189890045678582, 0.17133265872714357, 0.6209612387627362, -0.03990406512673081, -0.7211185521536487, -0.7515173518280375, -0.4560412626058147, 0.011710529888574838, -0.2275776651645077], [-0.18597908451006814, -0.21300235285848063, -0.37931658444178695, 0.45670032431365326, 0.5808195713073829, -0.48153439770336853, 0.5413262141902261, 0.4090625760424204, 0.07948443795021089, 0.208434992777903, 0.5830199308826729, 0.32839519715373033, -0.11746553366154878, -0.31878489727239134, 0.29874231910684673, -0.5183285034826173, -0.25886153967822423, 0.04151101499114066, 0.4247634748424284, 0.14247825490280178, 0.1507804302271865, -0.03171648159270865, 0.43328955071507524, -0.1174538982561276, -0.21052250476790008, 0.0902305562405935, -1.0016710589781832], [0.3404423804812405, 0.5079190825150736, -0.19466078825685415, -0.4031822017822322, -0.3122904816467363, -0.13155664391421162, -0.08196968958646315, 0.2073194963511011, -0.294726338259096, 0.3690499336269565, -0.026484837543326346, 0.5276008698506686, 0.26633654951982905, 0.13381847747802364, -0.9488026477029642, 0.856273460856348, -0.26215025909471656, -0.01990352954443881, 0.07560779263151077, -0.012414101429487331, -0.02783405742878286, 0.5853730078641608, -0.07212774976100851, -0.5247027646099889, -0.2047451184477615, 0.8987592370815201, -1.0510803630633085], [0.5366202992091622, 0.15542822506025222, -0.15720379628529824, -0.21413069381175834, 0.32731008747134877, 0.26345955724328124, 0.14287358470830258, 0.05596461826181229, -0.4354939331686645, 0.47658596016018046, -0.3025807774813438, -0.24613774172337613, -0.2898817703004456, 0.001287118769759609, 0.6986690882454697, -0.007278011371019313, 0.23075177951346618, 0.25648297458713903, 0.4956522385901317, -0.3151784827993057, 0.4155947391100354, 0.08918030366940859, -0.04145620747280197, -0.3678865499560016, -0.2415943643394026, 0.15594218055266207, -0.30050489091933785], [-0.05554202191369102, -0.2854443578772292, -0.6612511245931049, 0.5397236577954033, 0.6241748585313354, -0.03460714099295607, 0.059090712847678924, -0.36998714626897006, 0.1631959963543587, 0.4301816038508255, -0.40388152481026884, -0.1980167280459895, -0.12528562619163167, -0.4768398909439494, -0.6210532771175425, 0.20035920868456114, 0.006228883538706554, -0.6661847718923418, 0.5250677017624806, -0.14082781996256302, -0.7418125311877184, 0.7730267799612878, 0.3187475709376941, -0.6504758827587125, 0.5365150672109558, 0.13605592020147064, -0.6593612809523496], [0.13633992684724588, -0.27141197614254686, -0.033610148359839165, -0.009191086309688403, -0.3132890038825123, 0.3364029842648572, -0.4591744948404478, 0.9449526207544359, -0.2274749702031079, 0.36628411998874527, -0.14432635707335467, 0.5747647081566116, 0.06260905833418923, 0.3373167774690657, 0.5925469775713638, 0.21559671584981646, 0.4917289083702026, 0.0851659714113812, 0.09048178924532943, -0.3040022496463581, -0.2383716766669792, -0.2811093325968109, 0.28066711264056043, -0.002192493386594033, -0.17468968045919223, 0.460414781271789, -0.1403640159398489], [0.11109107391396894, -0.14233594494646534, 0.2527852132002872, -0.2613441186301086, -0.6096217980279207, 1.0460527621400975, 0.25579981537526747, -0.1529681247939438, -0.18488858624803686, 0.05979626151492823, 0.2517245198328611, 0.09327756514333577, -0.14608481672235174, 0.1672356782204839, 0.07264834025805643, 0.8202436126554397, 0.278486798451607, -0.6270963076904699, 0.4096024160495918, -0.29934612295376867, 0.23175131340055474, -0.17439553175483807, -0.05861971182351106, -0.13992285107739924, -0.5108294301925108, 0.27703997851864864, 0.14421303795052612], [0.45362298982601523, -0.04588077905075856, 0.0695684917420032, 0.14673019608630156, -0.9381188346677904, -0.41133807344097306, -0.46263583120478086, -0.4773478968016326, 0.0804842705904178, -0.7778401469330132, -0.4459654887458126, -0.1491688263348833, -0.6104186522316586, 0.5835837472463518, -0.4596425885177942, 0.049450745621876055, 0.047632278697145494, -0.5616943421418905, -0.4253870074525542, 0.6045489065445544, -0.7692739841490503, -0.05261271116278234, -0.055657962279987865, 0.23104952744871834, 0.06368231584487716, -0.48237850907242164, -0.23129122356084802], [0.12551226016914405, -0.14631684864212713, -0.101940223816932, -0.5465616768246447, -0.23883732269005611, -0.7820489245945146, 0.10419512570522535, 0.32202127093063787, -0.14090049585474967, -0.6641097200572619, -0.13924942819916641, 0.15445455899706423, 0.4832369300471541, 0.205758587835392, 0.3258370553090938, -0.5324447665731117, -0.12693987959105463, 0.592648802086275, 0.3918367691406666, -0.15097575547919004, -0.9121613247267717, 0.13877909875339778, -0.7536192838877234, -0.07001713251169192, 0.7146005081842184, -0.14692992571778976, 1.024998003637793], [-0.06924735441313479, 0.42309403428731535, 0.4198758012098694, -0.20914360940072332, 0.3934644041153944, -0.8722307685581989, 0.1590669437536782, 0.025447913013062474, 0.3542542714793079, 0.607668598210736, 0.4217768752115434, -0.376619890435935, 0.3989447198808935, 0.19827384749671725, -0.5063603099711005, 0.374681254893128, 0.152584627529372, -0.2336502496892587, 0.35453551360165586, 0.8128050471282853, -0.12722126984018806, 1.17901096897388, -1.0406866387165579, 0.116253001514185, 0.12906809948427073, -0.03054631321161127, 0.2646253362817328], [1.0671399037580478, -0.29174300946759785, 0.6365278867493444, 0.17030069728351366, -0.4546022756891465, 0.14413813539755238, -0.11126524324675079, 0.27618308012439596, 0.952837518097154, -0.047401105033537866, -0.2688959602387511, 0.28929584448349627, -0.381706964254874, -0.117718786883783, -0.18931936783473194, 0.5195704786473033, -0.6032976996504521, -0.10093119324545961, -0.14665637433864967, 0.5629344552195182, 0.46716384510163045, -0.5039274668023827, -0.17078585948437117, -0.2310894710098628, -0.01338543712845289, 0.5609370927689958, 0.14475971556028266], [-0.4483343660013263, 0.2358367349112905, -0.21326812295264388, -0.09826684632245702, 0.3154351081576324, -0.11809522766661727, 0.22449025672195952, 0.5302228802829565, 0.3600000324064835, -0.08278256845141954, 0.28241666500701296, 0.13529836081432323, -0.4071555851657823, 0.06656174617243162, 0.2847956420840453, 0.5474578468201036, 0.42094240630676893, -0.2763023638259068, 0.2747536611546277, 0.033512412410100126, 0.3290481909363832, 0.3356688217118105, -0.4092325197752072, 0.5653259553775241, 0.10387985598995153, -0.16118726327758096, 0.38826469342844544], [-0.6421373174368088, -0.3647494083608073, -0.8829657000688113, -0.5980927069422427, 0.6056298595244842, 0.7668885537632947, -0.209180015227096, -0.561409054422306, -0.2085547151136725, -0.022888767401632967, -0.4050175085567294, -0.008040314577760093, -0.7790637268661852, -0.6243455738808619, 0.2550050984979182, 0.5806020326107476, -0.1947996393288597, 0.41428147945668026, 0.15517976575817546, 0.2162547741627488, 0.38295681853917873, -0.0986790257072098, -0.3454213330087404, 0.18002655133377882, 0.5210440051188568, -0.855404110238179, 0.3012737487074343], [-0.09783905718232211, 0.10762323051510714, 0.5205357357783068, -0.49102158651332195, -0.13216122523010687, 0.26904572906646634, -0.8683298790742391, -0.4632100780177132, -0.6922070595253198, -0.2074667903631475, 0.20870639349979137, 0.08633509256479692, 0.5169835989130912, 0.7487224623425965, -0.0055798014564446006, 0.0012733614313382969, -0.3788368610939209, -0.4563201913560769, -0.08630240476882924, 0.1714444270466447, -0.517908212177646, -0.1772342557330518, 0.3873986880322081, -0.5760467039788157, -0.23983481435925588, 0.04226630052866702, -0.1276820726758314], [0.20617574601346034, 0.268204150820759, -0.27976460352270316, -0.6242331105594245, -0.2381636725139019, -0.3564022715147312, -0.05591494745598744, -0.41020284945698643, -0.15456861655375106, 0.2385835119724334, 0.055988986433849086, 0.12713826163502756, -0.368610120886603, 0.47987373359666297, -0.11385173217653038, -0.18705706139227196, -0.2938072154471021, 0.026772761321486375, 0.03659657817802459, -0.05605057750420331, -0.4391170631299762, 0.1465512564378546, -0.1325129297690678, -0.1696394104241776, 0.2826229467934063, -0.014602597759520131, 0.2892343637351565], [-0.13440985210302173, 0.4449407695846313, -0.18288480780047928, -0.04733604560479461, -0.2514587310306473, -0.19581374370410976, -0.36703439708073715, -0.5122592265414124, -0.18002857283649423, -0.07651935542579978, -0.010477244118791267, -0.9359536661196467, -0.18728050966037096, -0.5377088485503804, -0.545324919481724, 0.3807351374536009, -0.3047206133935952, -0.012187627637030133, 0.4210449038283962, 0.12257553696041998, -0.13827732264520334, -0.2557729094099631, -0.32588702005642156, -0.7793174568665341, 0.40254398179952217, -0.24842946463938206, 0.9139455396001953], [0.27124084983482066, -0.3667743221492143, -0.061575098858965706, 0.7779175864398364, -0.3877515678476394, -0.10374900354176336, -0.001919087081039818, -0.09007390841642364, -0.18672965083256288, -0.2750065334159736, 0.6870515904915071, -0.19995503136545217, 0.38110090465866614, 0.03263466214120686, 0.09633956368505173, 0.46431815937799586, 0.5501993301597022, -0.25942493641653414, 0.3261887127648477, -0.3530405237405789, 0.047413843050339806, -0.3394646439703556, -0.6769510768415896, -0.38327591363176206, -0.1960107820341802, -0.12832728033466054, -0.346235771304001], [-0.1566327508782921, -0.3606211375333192, -0.10730049968869537, -0.6436298363239089, -0.4964504917189597, -0.11358328350800309, -0.25210379965158897, 0.1505406167444344, 0.1651803192650772, 0.06152015872963743, 0.48973051804690476, 0.0579243926727283, -0.3770683691549869, -0.022680382580159118, 0.2225063106029693, -0.505344611301226, -0.34076016060143877, -0.21140366756773524, -0.28503019457026496, -0.034470448802624024, 0.035153347100038285, -0.5133531012949569, 0.16094772824557768, -0.21119809511608853, -0.04967804515624918, 1.1478210848290784, -0.0217892432674626], [-0.34310629093184386, 0.6072421759394242, -0.2914741438739116, 0.21681435373852984, -0.4186444512056683, 0.41830047020110417, -0.2109661818233711, 0.5464126659979983, -0.5153004563742566, 0.7807556278631586, 0.31148652443052244, 0.4712670897041408, -0.4752217678281204, -0.4276349666462909, 0.4193778007614905, -0.044414217720624906, 0.08306601921070979, 0.3218089655268456, 0.8023332312503171, 0.0077540376353585645, 0.5695752949551293, 0.2296656892614229, -0.6987701339854906, -0.08391152484965207, -0.31390159639803533, 0.3971265910098243, 0.25193814680773213], [-0.4946927270215702, 0.62361518348024, 0.5548748451017527, -0.4462847294068281, -0.003972842210997759, 0.3624985710673847, -0.28935159629226465, 0.14376463522101338, -0.3012535776320959, 0.6681890969299766, 0.27344477545804, -0.35710006570426805, 0.11501824303201727, 0.1273397665870028, 0.2526707615752088, 0.654505028123958, 0.24742854922004068, 0.6941292326879293, -0.5178077269160138, 0.5150390754652789, -0.5244622364600865, 0.4381577106616095, 0.745826352991065, -0.4322830562108548, 0.18250248917795228, 0.052294982863232774, 0.30661343515922274], [0.4356726607655276, 0.8356996552824296, 0.10127551123684372, 0.09259418071838889, -1.0115013032053504, -0.08828185648525932, -0.049870830141330806, -0.03306023791360343, -0.5031846851782453, 0.6074369503902163, -0.4526987254875788, 0.14697210519014253, -0.05079587168436165, -0.13636547167822646, 0.016370154612207206, 0.19009238513150653, 0.09956964033906608, 0.7761527295830034, 0.1981129945690613, 0.1542651204556659, 0.05776379597418413, 0.97515150515632, 0.0565435114325437, -0.2662931956128066, 0.1093325406794647, -0.08909488962162362, -0.1804899721881315], [-0.25077896717925113, -0.07542240427756897, -0.28909980823966513, -0.25411464597988087, -0.684214402449383, 0.279511364505129, 0.47044801771065425, 0.11928633476964529, -0.6901807968311233, 0.18584902243764553, -0.17363891532517697, -0.1249828355148896, 0.3611007272548583, 0.1418042735727092, -0.03033070247444744, 0.10842514788276711, -0.06860190355402297, 0.15885181695086112, 0.5516689772411988, 0.22917006002872628, -0.05938207308441528, -0.11195331879645401, 0.17867829396646603, 0.1849385846169339, -0.08231811243376662, -0.4827132081871361, 0.24241091029000114]], "bias": [0.28479940162006023, 0.014100502993532351, -0.15097755333197785, 0.15547260380063782, 0.37504513543042195, 0.19984805115414328, -0.018225795698416862, -0.23069957198326482, 0.16561488489921072, -0.15257590527273016, 0.17631112866848728, 0.05790178286847862, 0.19079237184969577, 0.573896637233108, 0.4380390833951469, 0.3267425049366231, -0.3471031611208022, 0.16727104333607484, -0.20374500082454322, 0.5423620509771486, 0.521036836901065, -0.39998911600400433, -0.2514763875584191, 0.1292117027802933, -0.09312700709061368, -0.17771336177531177, 0.11553293042263373]}, {"class_name": "NonLinearLayer", "non_linearity": "Tanh"}, {"class_name": "LinearLayer", "lay_in": 27, "lay_out": 1, "weights": [[0.05894546978039276, -0.05754717343014635, -0.14187934472844577, 0.3048319661325736, 0.25548223988484287, 0.11703355467838181, 0.1108965615623051, -0.0951352684979429, 0.015954597877015603, -0.19745474161997534, 0.19224745709232713, 0.38627857389298675, 0.3398167829823257, 0.31210754273628144, 0.19801376050549005, 0.11852001532212177, -0.2701917399233158, 0.3941492821333689, -0.2160397635125662, 0.6080610413202449, 0.2477024586422554, -0.4687530237645212, -0.3578794321175956, 0.34407537486798967, -0.18960586240819594, -0.16241045814314647, -0.0008178406648486457]], "bias": [0.2711040980363077]}, {"class_name": "NonLinearLayer", "non_linearity": "Tanh"}]}