{"class_name": "SequentialNetwork", "layers": [{"class_name": "LinearLayer", "lay_in": 27, "lay_out": 27, "weights": [[-0.27932207351540683, 0.6063008644702609, -0.4574002294255898, -0.1648193461332492, 0.33578527807474023, 0.566446045599653, 0.7299009057570942, -0.11049047063469314, 0.42445389956207763, -0.13559381015809946, -0.21623494658426487, -0.5005745891493061, 0.1830931604636063, 0.12805785437306474, 0.21166800618051806, -0.4556839080809234, -0.20121757880418734, -0.12088649689639266, 0.040860746635632876, 0.07765232096685655, -0.3665627387384248, -0.18421231373732402, -0.3479998987557401, 0.09969081055161876, -0.17291729967794017, -0.6782169625406214, 0.39666530308372183], [0.3156899626449522, -0.2011067544992336, 0.10595605648451223, -0.28660840501421564, 0.2466625411699034, -0.13335469526135593, -0.2774672287282513, -0.42685791545173807, -0.03727998219732643, 0.20280228952364435, 0.1947278451837014, -0.2059750276288624, -0.0014594422605291055, 0.37725534752662787, 0.43880570086088316, 0.01138533085363577, -0.02023095144433733, -0.4054654445040827, 0.11634518807622128, 0.2523201514039913, 0.6264223940676631, -0.2849983266294128, 0.043310944781168294, -0.19395828125801645, -0.4394210295777437, 0.20690470976699288, 0.3223587708415876], [0.6861653516699212, 0.5509248378849477, -0.5460553734291335, 0.08904850329882431, -0.3288872641249999, -0.29636140776969544, 0.6002873834277187, -0.8927268134098771, -0.15674104469874797, 0.030135847539739895, -0.6164241699140812, -0.10344703493129882, 0.09242818009009011, 0.09796966823705693, 0.598655264627882, -0.010159768739618652, -0.3180644307174751, 0.19672211153874744, 0.1392775698313045, 0.3788201976787045, -0.06884709374015731, -0.4341309978889308, 0.711583287145101, 0.05447068152452678, 0.5312166652183693, -0.4252530176311322, 0.3375652140699248], [-0.5595425962411185, -0.04193030792357787, 0.017205414941035425, -0.23535379335879691, 0.0740719801297981, -0.5550776469375653, 0.3384346400803787, -0.8102324553350067, 0.46987856094363023, -0.15501958113508427, 0.07765705811748809, 0.3502875714221986, 0.031750529292164896, -0.08508499158916984, -0.028852675432693105, -0.0796976816066605, -0.35931487576879906, -0.24517820776351187, -0.533383444320274, -0.5334523927620831, 0.012194357144241299, -0.1978471950059241, -0.17564615903656827, -0.09424587186685342, 0.4402276751263908, -0.6089036760816958, 0.45441427119164807], [-0.051330067886475574, -0.6903631144531185, 0.2924712898392977, -0.06125216460130194, -0.27331755829237203, -0.4117870552429039, -0.16109811331140245, 0.5442949037831899, 0.044249567917427964, 0.3135070184512449, 0.25445513479374304, -0.24525727257066102, 0.26966891310794194, -0.033828339856182596, 0.40459532215765237, -0.11118239672765944, -0.36126246857809063, -0.2906431773923433, 0.2541353019333331, -0.7617606032640597, -0.022172366791445526, 0.34094919579790284, 0.10837026595917756, 0.15098483171919264, 0.09991430703329496, 0.8388844795420818, -0.08746612549032662], [0.6162943523342131, -0.08437872753609589, 0.27934442575000357, -0.04083656716627233, 0.5319690304988222, -0.05235924656938861, 0.07201455174474702, -0.4683675400545588, -0.7004284045774238, -0.12517540575596095, -0.42126188417150184, 0.34439565486976276, 0.028373153695157312, -0.012581980801863464, 0.054382521736359844, 0.2083775416121754, 0.06054425192243526, 0.5552713791698319, 0.41585063609642536, -0.18658931315883465, -0.2463727950974607, 0.06271522406892113, 0.5731005892968304, -0.41279542035789235, -0.22483583794947906, -0.1714587657886633, -0.8665151837675974], [-0.29719642624056775, -0.09585392545971556, -0.2513571569706022, -0.3809682472554027, 0.7469285020685897, -0.15208470899012796, -0.16374994619153502, -0.4348465772267822, 0.49576953049226313, -0.21365308617049591, -0.17255112808314285, -0.09750431822335724, -0.375037085385831, 0.46495668887483715, -0.007070861560646879, 0.2820878233678295, -0.14926553195436434, -0.16113011697343385, -0.5543003839456215, -0.0417985823857559, 0.2723609235243839, 0.25669988940434235, -0.2729539130548855, -0.3458991817924263, 0.13197582729064825, -0.07394048454378684, 0.32763806025033876], [-0.2415368371171769, 0.3554410942565366, -0.16854909497148243, -0.36195205023672694, 0.12312475233594716, 0.29571885823708627, -0.8135318288214445, 0.10380765156152832, -0.39959367868781664, -0.13940841650131275, 0.07186055998723412, -0.4714336395072828, 0.13524386849059292, -0.28445201717185586, -0.16036486138105863, -0.21653115263078385, -0.045330340515092306, 0.040754064697653185, -0.027466302504364118, -0.13606099223625556, -0.06206939675836754, -0.669022711460917, -0.011088752392445517, 0.4960833346677636, 0.057911171815878376, 0.3955676704195962, 0.19919543353434493], [0.5509370948359443, -0.1955641343272034, -0.49397266133913414, 0.06999987209740378, 0.5352607143895063, -0.1108610418618953, -0.40971789487703913, 0.1234663902033776, -0.424833480401118, 0.13066023823674544, -0.23470760967512605, 0.23777543338109544, -0.10627945719239376, 0.04653814436296922, 0.1143554962688268, 0.1870339753261669, 0.1238615797021461, -0.42341044329101535, -0.3622823038438937, -0.13207640069840204, -0.27232879376201485, -0.3219368245646956, 0.13546962311324226, -0.5136121856503643, 0.703632979047837, -0.31404715148890877, 0.9960454216236094], [0.17639547947383052, 0.24909181331370187, 0.14400326850670261, -0.4926286175883953, 0.44587917774124713, 0.09804735382100219, -0.9218141960234527, -0.7948875220438958, 0.11097235607025487, -0.5795972373651442, 0.03102160465551829, -0.05335690563622232, -0.048302109246890525, -0.07453097872768179, 0.2742137463907323, 0.41955906288875483, 0.3959974917944074, 0.06003310219215628, 0.41080736005766955, 0.32763714997685495, -0.21607536621380502, 0.32606409839803674, -0.22520516004412466, -0.03761093676480676, -0.6003283062503026, 0.606952290324447, -0.4238407705424284], [-0.07960356164618264, -0.007279437698955177, -0.5651584569544098, 0.2975116450446493, 1.6949212475157833e-05, -0.1862922979691645, 0.039740487722712, -0.520846612046491, 0.48271343206033246, 0.13510833607451336, -0.4455900672692246, 0.01674564021323727, -0.08026462567455102, 0.07623777960250268, 0.25181111871239115, 0.028004055559934075, 0.241121640901337, -0.14739201674243274, -1.0847553834012307, 0.5378663977806687, -0.05633039529066068, 0.42242910333551553, 0.3721335064003555, -0.450378945528914, -0.42300762704501, 0.11636696195045679, -0.2263817565922915], [0.6388339358992602, 0.21355219204549136, -0.02935984348270842, 0.007751944718030731, 0.35280175079333764, 0.3115125911643449, -0.2246227769377092, -0.6486422194107413, 0.17414907425724194, -0.1669142634861017, -0.29595326435079067, -0.4227958152405722, -0.48612468330704783, -0.0438314478794275, -0.16835026624487082, -0.08918619279896745, -0.7182171232526406, 0.027226072999696642, 0.0030697478311607672, 0.018248285340443114, -0.49332916498041396, 0.28477937162946837, 0.49919318976945815, 0.3317354062312114, -0.10118748364801702, -0.1737765777104498, 0.10774370435500188], [-0.4623884606005675, -0.116033813079524, 0.041740699763073784, 0.2583261773439158, -0.90768786813666, -0.13190973788229884, -0.06298181420431757, -0.8485429271958392, -0.09794379573434892, 0.2283643151204484, -0.07030917955502879, -0.12242042348216656, -0.33074463452312564, 0.3747058287691429, 0.08016369886811942, -0.06495343518258787, 0.18528885817067922, 0.018170620212549025, 0.051331674175046214, 0.8798885432269935, -0.37098473364357853, 0.5181289470851894, -0.38981959260420107, -0.7711548753136064, 0.2617042195426747, 0.02853062731281515, 0.9550235288193543], [0.14795692966151583, -0.07528656185055389, 0.02349794851867377, 0.007327876722351267, -0.7050913865990122, 0.38457133038013375, 0.2507246319651275, 0.032611200151061184, -0.7170599356473202, -1.050426653872409, 0.19877862665423116, 0.01743984155951587, 0.36902235417674834, 0.051681925979217995, -0.31686983010663533, 0.058101284630964034, -0.09818539870363185, 0.17979860037770587, -0.12434507972871187, 0.4070299231479558, -0.10094894770134585, -0.6213782644213177, -0.03586191158756445, -0.08870832319679522, 0.34254083840457117, -0.504946005089101, -0.0873566860580901], [-0.16639804391543533, -0.03673542956132011, 0.0656771319802735, -0.14666871500458437, 0.31203811042380536, 0.22495285212743132, 0.015177094010258413, -0.3677377145100252, -0.82506211346885, 0.03504068462064762, -0.2622637380043603, -0.17802320138250394, 0.08334050828943106, 0.44057438245851493, -0.22475207864257696, -0.22797144687306217, -0.30532398074518885, 0.44470579315197484, 0.20018900831556038, 0.37697017626948054, 0.07156995018563997, -0.012958632871962783, 0.09953129616807997, -0.0021132050154161475, -1.0417771466816397, 0.20401514095695575, 0.1598142841388331], [0.540760353593559, 0.014336043613876054, 0.17766625320202636, -0.0024023063332961883, 0.08295541964624556, -1.1762712881372859, -0.6162647445934104, 0.08197755312432482, -0.15708945294529478, -0.07478896812815154, -0.18305567308070067, -0.057879988088909075, -0.24572669045942183, 0.21061588990232574, 0.21720391854604734, -0.1799257677309341, -0.0007620668943253727, 0.031358680107406264, 0.6566192303341277, -0.5487964725357922, -0.050575340800965804, 0.37130523624679357, -0.4447239876054822, -0.5523880250237809, -0.07573450324992594, -0.1774441528700302, -0.05350091693671672], [-0.2969103988522943, 0.2293039230208393, -0.5394472926602707, 0.05375075354870737, -0.4151853767106968, -0.7004611469280454, -0.28583446165809084, -0.6071948814252146, 0.0217119642912589, -0.09808606135815498, -0.18449562181088855, -0.5594607427219374, 0.2668680080464648, 0.017059175539864257, 0.19954156761124586, 0.33236659556880077, 0.3985312250289875, -0.5025844040529771, -0.21258313619069663, -0.22296566154947953, 0.5119116188125095, -0.3088865497999112, 0.0053575273403033115, -0.18486196602502702, -0.10202629718618937, -0.7829245557216638, 0.5273844322736294], [0.4283415410239177, -0.03606289796061298, 0.43501346299668603, 0.20294299253404863, -0.4373498306676923, 0.9690760560762004, -0.18542493975606775, 0.8685901663445915, -0.3138523695832669, 0.02477352190281934, 0.198563492252498, 0.16705527848989882, 0.2925493132968289, -0.3831585790588878, -0.13241519866509024, -0.10327027523003672, 0.34709895290101384, 0.6330641196310528, 0.044881466153570464, -0.36653816516250526, 0.2761495327078193, -0.15687393426409782, -0.5333938308586369, 0.3323749378989094, -0.15486787081521045, 0.7109993729406536, 0.3749877046334801], [-0.4277382346343741, 0.10173060766286066, 0.7096635926287436, 0.021322735283922065, 0.41851904785467586, 0.016841641898540184, -0.08037004794055488, -0.4251493633991659, 0.4531134930472586, -0.28463054888968176, 0.06389585258546349, 0.19009405860258302, 0.18279529385893653, -0.4615788179511319, 0.0952924464247587, 0.06074682680647967, -0.18356951466416024, -0.082178399555943, -0.8864663918566689, -0.3282293321885379, 0.20386202231074968, -0.0008271101481632307, 0.09049616769453116, -0.48158434145544526, -0.49580965006559374, -0.0032131275628852532, 0.06834097871959315], [-0.019339067943532035, -0.47131506007336377, 0.3447418575812003, -0.24798086087906127, -0.42960000860814485, 0.13723000009200712, -0.3842248845121151, 0.527311163320466, 0.0554219456607308, 0.3512409968132891, 0.009578065463633717, -0.36781960428346044, -0.48974811567404103, 0.1988766817112176, 1.0831324354673455, -0.27407675753913385, -0.6205029057422253, 0.16647561780539905, 1.018606847766806, -0.2118224645049219, 0.08651735250341734, -0.7100667705144903, 0.6538717377320001, 0.08405802645693018, 0.1491847400370562, -0.3931485482900807, 0.06964616809899293], [-0.41970328073449503, -0.18982264258298068, 0.013393058704887781, -0.5592153357409814, 0.34309197942795583, 0.5103597497981276, -0.27044477220990387, -0.5633133232929919, -0.03727567364452419, -0.23209339404549345, -0.18538648176593514, 0.1148159258712751, -0.18946895466563507, -0.6984482873747402, 0.1822808029060083, 0.4367127552806677, -0.1402349056726798, 0.22707789149616056, 0.07050461876740884, 0.11178530891422188, 0.6592136231620135, 0.5577760790643116, 0.435191291854871, 0.04107730882249882, -1.0713917331179437, 0.3750490773761632, -0.23048189377967906], [0.38087391469901444, -0.08881689746992291, 0.5654273323365149, -0.33350910713341303, -0.10366163037147696, -0.4461563325536313, -0.12208048820271725, 0.37395159717181464, 0.5246182668981528, -0.20608088757321502, -0.2535043318575966, -0.14438008878159742, -0.15993897199865817, 0.18828456242131417, -0.03698408066041414, 0.05125283437190487, -0.01610105811667817, 0.18691335409098356, 0.21858288845446505, -0.5094049154740201, -0.2482387350946527, -0.29432277666963924, -0.5160373755854285, -0.7243151476671854, -0.1627958209318262, -0.17054627381005727, 0.017585579385579593], [0.591914713091268, -0.14662951545941255, -0.8060226135195308, -0.4006467250947387, -0.19364644145599155, 0.41272301201870104, 0.13581202365591463, 0.0669533930427185, -0.1328500098749797, -0.44383176700728166, -0.11018876731976514, -0.016697152889544882, -0.11355718983959373, 0.12414802961541292, -0.3822905143539294, -0.06690424852848746, -0.04984074664996561, 0.31928089704074925, 0.5945461356912081, -0.1526463225116781, 0.2838512678827079, 0.4774415422691323, -0.6418744140130628, 0.9023877437906185, 0.4815853922624586, -0.25865476597060827, -0.861656472178396], [0.7911039912725719, -0.05839203286168599, -0.39064021858819314, -0.1707409968300723, -0.28061915364239737, -0.04788328582338733, 0.0791822301155469, -0.04867357877861954, -0.10769781055380029, 0.06139227858507141, 0.6087279035225625, 0.5431457021631781, 0.14007087325800122, -0.45583996163047547, -0.04646392306224759, -0.0740641752040452, -0.05058438350342149, -0.6161795025966442, -0.5347927888822027, -0.2941774105715623, 0.6841074138426219, -0.14916634555089123, 0.3313281707266945, -0.043275514203045554, 0.0732808044860521, 0.21684727890584582, 0.5482168620851521], [-0.01930417887935309, -0.18275548896694663, 0.056505130457580675, 0.31305831378769544, -0.32400076140189116, -0.026435397803065534, -0.0022332745131028063, 0.7899445530197798, -0.13208507074948572, -0.012901646693225632, 0.3516449353590626, 0.6938588671065148, -0.047943081691333156, 0.6848579235473734, 0.1693834774209983, 0.09993134516015646, 0.3299338701963983, 0.1104017541014537, 0.2284777494630399, -0.5488125781641782, 0.25321609253078387, -0.10687790209785855, -0.609351832592141, 0.22724468402598158, -0.3293811134443412, 0.5044572911949747, -0.48031454136105983], [-0.346453979114456, 0.5602450244847429, -0.2818354733175875, 0.20832122795792135, 0.5055752068204622, 0.11109204586602757, -0.0850920039048793, -0.3464804728148433, -0.24352242692509984, 0.13509660274126464, 0.2022753367547932, 0.06441899800947282, -0.06935285501107578, -0.2574882173039171, 0.11496941902915327, -0.2622598036733401, -0.04764481752063195, 0.43955898804138205, -0.15882112167977436, 0.5628401926597884, -0.33861923643974967, 0.07158311950717762, -0.04611887562951969, 0.6313963481425763, -0.3605636729946305, -0.1025958039398548, -0.5966017791556146], [0.4020557942036226, 0.40956448496570363, 0.003743374385287784, 0.23474385576351578, -0.4349605102148127, 0.16963046178051852, 0.4208233026169907, 0.7041886135016081, -0.454591520767403, -0.17505470657326969, 0.022174498620923785, -0.46078217427973045, -0.2869309710590475, -0.31660950586770853, 0.0654497879040353, 0.36920236013559243, -0.4401501277872346, -0.09617897509696523, 0.10196528230609563, 0.24109660347690706, 0.9743825130540348, 1.0834654543917843, 0.25018707719117084, -0.35838149864233, -0.11737098632204278, 0.22084689834772153, 0.7197561826599533]], "bias": [0.08704138618537331, 0.1557148099963671, -0.082910951976271, -0.12500754520338583, 0.010659157542791592, -0.1346590914872986, -0.05606704808819017, -0.10492309766091217, 0.21000384510533057, 0.13550639583070306, 0.0234471460049477, -0.01657902414640177, -0.09543729615517241, -0.00851466918943999, -0.09777829510237221, -0.02338950089437955, -0.08305792277362328, 0.17312623071573527, 0.13866327213025342, 0.14888286930488545, -0.09313034479271226, 0.04548660855035344, 0.050144219798811215, -0.11484982137578227, 0.15897169927865804, -0.012308239775947919, 0.13284948369535085]}, {"class_name": "NonLinearLayer", "non_linearity": "Tanh"}, {"class_name": "LinearLayer", "lay_in": 27, "lay_out": 27, "weights": [[-0.24967176711010255, 0.04049174857086517, 0.06351404301617694, 0.08923086170221634, -0.4904961326299285, -0.49883361772332635, 0.3569529408327818, -0.12314138727302328, -0.44614582470412023, 0.08240404178311089, 0.06928076534787893, -0.49327366483882207, 0.025932320264556878, -0.17870001790190423, -0.1569517975095235, -0.06264069801493459, -0.0661896927125868, 0.08266537533526926, 0.20023482857797073, 0.15058001215233444, -0.7325051053586509, -0.19770440607994919, -0.35244964598271733, -0.3597767066041168, 0.27974070765932924, 0.4618533542143677, -0.12556277586435727], [-0.353523880762352, -0.1145904528835326, -0.2179311605666975, 0.27477032226139003, 0.4673160851806995, 0.02468156056906251, 0.023519313782495388, 0.7708887154939061, -0.4482978429183198, -0.43179739554625807, -0.24968746071213557, -0.3534360103863568, 0.0797472777839591, -0.052099845895465215, -0.2758529507951435, -0.7098298952527154, 0.049263502743029264, 0.0421980127983228, 0.17754330283941672, 0.4190533892820865, 0.22160433124091888, 0.07036573732943456, 0.07267925106016121, 0.22565476670473592, 0.13486536455220072, -0.024688381228519605, -0.08104452588893647], [-0.028482812837206106, 0.020099798093804973, 0.45251475808724556, 0.286238625113222, -0.3362697713668833, -0.34399447136296846, 0.20980447018020057, 0.034315904167335584, 0.2774662225466466, 0.3305197047083541, 0.014744781777221074, -0.0007180327656173399, 0.06371538167648365, -0.5796684444981969, -0.20235457942559062, 0.3983773871377799, 0.8052504342765907, 0.06383461874772356, 0.23752609782747872, 0.23879622672656312, -0.049414926122610454, -0.36192364231130825, -0.1666856213875324, 0.5695978798984104, 0.06322443263728146, 0.10095171691642167, 0.46219468172644773], [0.11421741970089762, 0.6958601118760981, 0.6195927921585987, 0.27497206038850097, -0.49659040475079075, -0.19000018762117374, 0.48716055893310056, -0.36598330445614574, 0.8755983116456403, 0.10480733974129143, 0.5815432617363185, 0.2217960653962254, 0.07786491376834324, 0.07096925055832137, -0.38942955036474364, -0.7948394492230034, -0.18571981703793775, -0.1973158444059664, 0.12554607560360193, -0.34143253289475695, -0.26716191198750633, 0.003866216644337093, -0.02151754262860672, 0.12712006893956687, -0.03577263932417594, 0.06553256532867997, -0.5079324807095734], [-0.0786407818204843, 0.0031499006599552707, 0.4327039948946735, 0.14156825249750218, -0.2428972440629848, 0.524893122743859, -0.26609783357680933, 0.045056486155285506, 0.21158305323735532, 0.001878630885134985, 0.09939557566454046, -0.17477258667522647, -0.21866836717539503, -0.3674577229406019, -0.434982463638261, -0.21880229530289752, -0.20365741307475363, -0.05377461329545367, -0.6620827526952223, -0.514248661589848, -0.2725388594787903, 0.16695009437422176, 0.617416553263914, -0.3303623634439191, 0.15655004044015206, 0.6580515184256648, -0.48773199678625734], [0.0614355447033071, 0.05924012911172812, 0.04514826792477842, 0.2733441506400005, -0.39834398230524537, 0.1731277007088455, 0.06931877344395905, -0.37196106797259637, 0.29605997007548507, -0.1342480301302967, -0.06740733659264801, 0.09628823545435203, -0.7128525252800446, -0.4405169882612546, 0.6816340334927229, 0.04950650180881533, 0.038109367666086906, -0.2517933199989738, 0.2098135095586391, 0.1999504164880971, 0.5331188698574049, 0.023122000022414303, -0.6501542892287145, -0.7585125006954897, -0.2638250271307115, -0.15661500315614596, -0.2815832249027226], [-0.1737336818499314, -0.13784189390262014, -0.18736392243605646, 0.35796372107815433, 0.5665663365842208, -0.5001951875870277, 0.31009550578444417, 0.23679263741231107, 0.17717930219785225, 0.043751343185922296, 0.5269534851031594, 0.4070275139200254, -6.188517734931815e-05, -0.21516970805465843, 0.09488477817816804, -0.34035888274302956, -0.3097928969932359, 0.24474560118257999, 0.35516669329129674, 0.24809589393575432, -0.00700225459713308, 0.01939760792437299, 0.45251083872141296, -0.10121040773141665, -0.11321120648819259, 0.03855782139705418, -0.7124972693076308], [0.2995120531970597, 0.4760875883159472, -0.3432559766356723, -0.357835190336133, -0.16106325631678634, -0.25143375076057695, 0.04057765444259212, 0.35806241774812386, -0.3826901511004837, 0.33411487632887216, -0.07553411470989911, 0.2837121509521805, 0.03539178694808218, 0.2206163561744578, -0.9247360963238085, 0.7208026158494019, -0.2891490816473845, -0.22300417085044277, 0.10929556912148103, -0.03252494448956303, 0.06970948302271636, 0.36290392808347444, -0.008547791298157756, -0.4409658401765431, -0.16287552700619068, 0.9344784096200268, -0.9232917406584559], [0.48833816215742243, 0.22036803538457495, -0.10688257649274717, -0.280525964664455, 0.31465773197626534, 0.20935795499235088, -0.03752285006546725, 0.06323049208689094, -0.29728930000013154, 0.42326644792680185, -0.3502772062821792, -0.3641209743264409, -0.14065962347949396, -0.047839304965804366, 0.6013577684822525, -0.013265067568431576, 0.052400008344214044, 0.5071720660256877, 0.4306641330953119, -0.24198668862964412, 0.2751317417824787, 0.2528220467687036, -0.033889262625339193, -0.4992255053594114, -0.1986446509117792, 0.1403565635934049, -0.2567907739042718], [-0.06228721252626364, -0.2686455738390225, -0.6346138179358976, 0.5963988926378224, 0.5371672023388376, -0.08927862929232172, -0.08219589353857733, -0.18802803039151678, 0.15331111783748025, 0.4924914404450559, -0.3428233791833933, -0.17450617631220136, -0.06571273737687681, -0.3626365987877937, -0.5414145488852998, 0.37223318278505046, 0.1352463244765911, -0.5212686771052526, 0.6668912615575159, -0.18187379967083103, -0.7579154443223722, 0.7373021184932435, 0.13232955354615542, -0.4936865348992446, 0.4788107256720251, 0.20780988778444484, -0.42790897588404164], [-0.014675616915418402, -0.09294874692493998, -0.12165212424256673, -0.014151420411768024, -0.12065505440380739, 0.19122348004062126, -0.3359783342184129, 0.7020208974225238, 0.027810633270270682, 0.24312288718026917, -0.08471694623800542, 0.4761193817287069, 0.07495538454019889, 0.14299309941939942, 0.38029068484265044, 0.2533573009140397, 0.4859682827107648, 0.21699663419225845, 0.186397361638447, -0.18520703030678365, -0.3054402675292804, -0.02319154997667709, 0.10800465298509979, 0.22466616021859356, -0.11879700268705085, 0.15209173113710156, -0.16121347102823624], [0.08594476814595234, -0.00024569666894833303, 0.19943620413554214, -0.1903278101188635, -0.44574266117760797, 0.6013011058663893, 0.19237259759812564, -0.11735972020309043, -0.21072684855241663, 0.22234010249418673, 0.3019284965026337, 0.09160987762300661, 0.06104718124208807, 0.07894966253158323, 0.04217000773385716, 0.5738411458027737, 0.2993023754441182, -0.15987291956591274, 0.4380930011492109, -0.10885800681485774, 0.21814947912362437, 0.05483934381983478, -0.029183958763675768, -0.16217315516051775, -0.4709327551120728, 0.1614931867869441, 0.09697530018563816], [0.4631940037193758, -0.03304887740937207, 0.016647024630421007, 0.08596596467702323, -1.0002062586359775, -0.2913439175970946, -0.379250858633114, -0.4871004601273058, 0.15952184686218843, -0.5423442016627065, -0.39066047205037074, -0.0354640517542773, -0.46712568204370897, 0.42374788223998966, -0.30898080973631614, 0.0416787243547741, -0.24716622632934165, -0.526779347510938, -0.33729654012282184, 0.45789040006312776, -0.6641667615671639, -0.04497352583223781, -0.0521441855805683, -0.06442651875315719, 0.09828527811130662, -0.3020467001579139, -0.11132346650931832], [-0.1426866776174566, -0.3203335298033946, -0.19655845546284553, -0.5988554049024831, -0.006771694563585922, -0.4664094992669116, 0.10166185516513654, 0.44717084119969297, 0.12834105304144913, -0.6486352010794378, -0.1858659424370024, 0.3321851786913695, 0.3790834004587781, 0.24798490608572063, 0.36030171908912667, -0.24016238090754627, -0.3078680690548812, 0.2997408947829747, 0.35558957344430203, -0.055939395601913654, -0.736098815504902, 0.13131059661140368, -0.5999424419717336, 0.06887514092595479, 0.3580375803153115, -0.12119630452678053, 0.6587786255157373], [-0.1195113574573379, 0.40338806722881093, 0.37141193407311895, -0.10746828622943391, 0.380052652131492, -0.546975322261805, 0.19690435026020667, -0.19549887218156145, 0.5794445212822238, 0.44414327590318514, 0.20026167091838828, -0.21016588412691792, 0.2687689438925015, 0.43494691515234224, -0.5108825976503839, 0.2780974949894646, 0.1550121069002791, -0.1723544776317854, 0.32047147132840514, 0.7732310200902311, -0.06265161479942, 0.9823486841837662, -0.9444603654139961, -0.05972394443179837, 0.012306523107533152, -0.18148875544758114, 0.07728780287260839], [0.6671744838325387, -0.26894694441164313, 0.45822674959971677, 0.15312192952405151, -0.22613152423431165, -0.08083874403940708, -0.1347199053458942, 0.3850193037639408, 0.708468192212704, -0.12822600958347277, -0.10287335392664605, 0.15847955298290473, -0.27185247393363265, -0.3426611737021325, -0.3394119796121158, 0.5249110963570471, -0.49014063096534305, 0.013931431433040322, -0.1957812769851632, 0.6022683080227841, 0.44944377643247335, -0.49077584549060393, -0.2419650088764889, -0.38500252161232273, 0.008312865311336565, 0.3495933237063879, -0.008130398843958659], [-0.2967780558890332, 0.08825161312016279, -0.12540844805739912, -0.08902420332201076, 0.22520235888098997, -0.09120025310466472, 0.10991735602436052, 0.41932863363923323, 0.3395776530991998, -0.1578437768761895, 0.36486822498606614, 0.1484834833124762, -0.3083471096049183, 0.09414115668598198, 0.12096606755589308, 0.3656758529052247, 0.3896851425511685, -0.2975556537564861, 0.213860798248119, 0.028509926060659288, 0.35408031775166415, 0.12305194553219939, -0.2521904669699264, 0.5908283488890254, 0.03513366363845667, -0.21879748355849143, 0.4356986388558425], [-0.4142794951029227, -0.34381878160673884, -0.6539754117537141, -0.4368454837178041, 0.3243820037830863, 0.5036432544868501, -0.1836305623805275, -0.5160430781097045, -0.38768664561958144, -0.14000215520088777, -0.4240294764650086, -0.15107525551117282, -0.5349137469143751, -0.8695619842610022, 0.2707773152994242, 0.7190277926722088, -0.15504998334197018, 0.3110188924031468, 0.08437389271530395, 0.0706709738624347, 0.2746958709584184, -0.08989629773364592, -0.3232215708316662, -0.004225727016836869, 0.4586239128572161, -0.7202223662255476, 0.5040281327604137], [-0.11534436118633677, 0.013402696991347142, 0.3676094252846097, -0.5644361828540312, -0.08274445216085342, 0.23535258984798427, -0.8079286612321436, -0.3718779064017914, -0.39118543814455004, -0.018412204571652577, 0.14280830568022582, 0.15114839694763332, 0.3598810442659425, 0.6932312606382154, 0.09275244182324052, 0.018278674037690908, -0.20677680296678763, -0.45680102251983035, -0.13446349078435246, 0.20105098744320768, -0.5742804728679428, -0.132448076122525, 0.46519781094434803, -0.47826154063043486, -0.232307063935299, -0.07068261809649692, -0.1018700725430833], [0.2037731849291408, 0.11171220120080716, -0.2761147966728431, -0.7224310816099643, -0.26411030817682607, -0.3233890340815994, -0.00993430425105415, -0.5732140759708285, -0.1354194981827153, 0.30795093010942054, 0.2715568989421894, 0.18046720823367657, -0.35799663334587517, 0.37846414580455684, -0.19877614740243854, -0.016071689717966072, -0.14321487942583908, 0.02977257048340813, 0.10841974810839466, -0.12722480078489737, -0.37164156966139494, 0.18246841303792163, -0.10390685484980439, -0.23561549252015115, 0.22405518465251398, 0.15250974125571032, 0.11168330335926142], [-0.024210226093251314, 0.35815325817173416, -0.09981599908681138, -0.03385100585390311, -0.29610155680366096, -0.15141363508903113, -0.2968353549698126, -0.3914770079005013, -0.017587286919750898, -0.08320757208963102, 0.05038258077230476, -0.586223214758282, -0.15161320421242047, -0.5315159013377154, -0.636671690981975, 0.46565342059550385, -0.22478939108737747, 0.03318701284651544, 0.28713456809414295, -0.09248468334511092, -0.18056194355514937, -0.2538352763793276, -0.38095297166072883, -0.5949995918078204, 0.25036556609094024, -0.27871117872158047, 0.8029106867678344], [0.35482954613145085, -0.18387638393549385, -0.097698027557572, 0.798663695186586, -0.33059347740649025, -0.17119406861082037, 0.0005579132779935347, -0.13952542730131803, -0.28109971860092775, -0.16254551840183196, 0.6156197951688095, -0.17224134603200106, 0.3858640134455654, 0.09073981635805055, 0.1913695382656725, 0.3456007879144138, 0.49808749427889354, -0.35838643514676655, 0.4208977045664483, -0.37309306025725536, 0.06548051608941152, -0.39532468724416253, -0.7399404826123586, -0.3971851039806858, -0.17631222081643827, -0.19194490230320785, -0.3258468276194421], [-0.23989720814679696, -0.23131881763088646, -0.2576900454230313, -0.5095206311939431, -0.44418506315871886, -0.13548606390993645, -0.3086993772349391, 0.06685112344890735, -0.07621978760968114, 0.08709582725575557, 0.40771331985951137, -0.028983303336743604, -0.3244298750005442, -0.0846813957265106, 0.1933556268573068, -0.39078602650375194, -0.37150044538674787, -0.0759632571119437, -0.038487125429671594, -0.04906005108535502, 0.10808464762143676, -0.3873695087577048, 0.13912220853648422, -0.03543297843912513, -0.022009624369090975, 0.8603461690825455, 0.036751680632713835], [-0.1858646802869999, 0.44182763878612996, -0.1557201785103873, 0.2762852079953595, -0.3079482828919971, 0.27986919398970184, -0.22887016253848827, 0.4128428385731751, -0.33558874645319636, 0.5688727138852568, 0.4067315288415055, 0.39197964286284714, -0.2842190224952793, -0.5569696373851744, 0.297606160985776, 0.0770085014120414, -0.12005871560789012, 0.2925614928965092, 0.5168998212925932, -0.07240312293752803, 0.46351289801165063, 0.2522048497895105, -0.6758256174925713, -0.3120494898906713, -0.28847697859366933, 0.6032496092574071, 0.39737774830170663], [-0.5958998418393705, 0.6204240354387254, 0.5696871750891607, -0.37109651178469655, 0.07411066305253225, 0.4467385375038034, -0.16796653550450896, 0.15996329246260035, -0.242471614609028, 0.674300529749923, 0.29659232988322315, -0.4121851713619712, 0.15509870993340208, 0.18013650609101386, 0.2766568252428314, 0.5137728404406027, 0.08815655066368595, 0.4463239532685054, -0.4388233018102734, 0.5912421444695183, -0.4442759840229496, 0.41475250265484476, 0.6262342076298772, -0.3391295448194184, 0.030690783853837604, -0.015231378044773406, 0.21673517593088826], [0.46304572318336945, 0.538281361192123, -0.052452733334345546, 0.16620613530910808, -0.8802881839100698, -0.2901424846105803, 0.33115605432013007, -0.0891317405471775, -0.4927686034726506, 0.5617900570897602, -0.3152708059819162, 0.0800422902045664, -0.05334750906014927, -0.12231072829765574, 0.0663657215422287, -0.08878620985934656, 0.08705718632213053, 0.5121278694189422, 0.17415429241964622, -0.14146235456799414, 0.2174153810256808, 0.6163252039346679, 0.13359918092922346, -0.30222775746782143, 0.08828229169229913, -0.12782105951285727, -0.032386112467885066], [-0.2759572039301672, -0.14175671583076832, 0.016687041345836654, -0.1725618804170859, -0.5685171746317325, 0.3301541773753857, 0.19225033287314688, -0.019874473971085747, -1.0217550752317084, 0.04441507367803657, -0.2163764874796766, -0.3966730810650682, 0.33656937207818644, 0.2722131193955553, 0.02247817507393579, -0.08324578103874042, -0.13896187551002537, 0.11416904440936623, 0.4609398709676046, 0.2594642960780512, -0.0015371191436379175, -0.2262606974600972, 0.25777891846631135, 0.37853204709997773, -0.19307822810110856, -0.5090144006896467, 0.09963740801090071]], "bias": [0.23411434764479075, -0.006050417177401898, -0.10711948009421718, 0.12743213506465348, 0.22549905803993658, 0.06295428698519502, 0.057212606843183036, -0.08850218041722599, 0.1839037678116928, -0.10204990542739126, 0.0830983022128555, 0.07202961105281855, 0.16291405251684507, 0.29930625621259954, 0.16920012485160782, 0.09810366288699877, -0.20516773591839113, 0.1240884988973037, -0.05950203776458991, 0.24957958734330082, 0.1601142831690934, -0.1829838125714656, -0.04401488727573435, 0.08403745035217872, -0.08608438453361512, -0.07673775441838888, -0.012957165889009177]}, {"class_name": "NonLinearLayer", "non_linearity": "Tanh"}, {"class_name": "LinearLayer", "lay_in": 27, "lay_out": 1, "weights": [[0.035104058713574166, -0.03772851545788723, -0.10165465984889727, 0.26012544163743817, 0.23687725296238774, 0.2053611942652669, 0.10333737252116079, -0.15053636596306602, 0.1875248182434267, -0.24846872999568054, 0.19768037880585287, 0.2741718797214901, 0.39555068555289935, 0.232007579072311, 0.16479616442118092, 0.09083471775427533, -0.3951056798912095, 0.30045193342719856, -0.30155756181392396, 0.6172517566298856, 0.27385354613764695, -0.4977574563279109, -0.3481507781815874, 0.38086985653795996, -0.2212273967565032, -0.08673032612641172, -0.019683386127989037]], "bias": [0.12045173147446192]}, {"class_name": "NonLinearLayer", "non_linearity": "Tanh"}]}