{"class_name": "SequentialNetwork", "layers": [{"class_name": "LinearLayer", "lay_in": 27, "lay_out": 27, "weights": [[0.0022703542413993467, 0.8616872519486286, -0.3576616875678192, -0.2277618926583442, 0.04092043807785285, 0.20867656526419961, 0.8918767167892271, -0.26151474602995767, 0.5128666885781308, -0.32978402188475814, -0.004684307898967734, -0.6347667045494897, -0.196776554235989, -0.04956649953983443, -0.023810770534267143, -0.3610218525172589, 0.09230460383646458, -0.03409300054114619, -0.03676311076995499, 0.3080704745772357, -0.5833022246833662, -0.00594084808145876, -0.4520042448113499, 0.11824206333357158, 0.048355595665488686, -1.1129206933664133, 0.37446006285080685], [0.3076344180804578, 0.05289120645249402, 0.44372664333673983, -0.3269203330564442, -0.18836659274739906, -0.28368450907309023, -0.5425386543978284, -0.7419154231885982, 0.06872036490473642, 0.2633492043439201, 0.06487669461910549, -0.17726567923878234, 0.02654675039110205, 0.5046283170286372, 0.02941515751979014, -0.18086192171913607, -0.10554504996652593, -0.27061001308053056, 0.04861107457286995, 0.22602354187923485, 1.055028128485, -0.48326146719790747, -0.04405140000402687, -0.06257994626699988, -0.43024028779595297, -0.021810984949698856, 0.19487844113132102], [0.6258161838156233, 1.060611325718681, -0.532777506342451, -0.008709953489074499, -0.28950718792240504, -0.18330538631121926, 0.9736293850344827, -1.1949971365953518, -0.14030605733784463, 0.19674846765042675, -0.27188543813961696, 0.055521188764311585, 0.09432309351409982, 0.0015928918927654951, 0.3783780049406486, 0.001010453029834616, -0.1928483529801787, 0.10829988594614191, 0.037849847346874535, 0.5321132722307009, -0.3188034052950109, -0.12778680791019711, 0.6994890020466498, 0.07094494082379399, 0.6420071001992513, -0.5451424321809528, 0.2682772661745167], [-0.42961285625494317, 0.007437349640766681, 0.03962124402857186, -0.4422097432664446, -0.05545934282815161, -0.35230663974425525, 0.3756689539058926, -0.9181925058477871, 0.5998337715352018, -0.10564841931048397, 0.09059215014830134, 0.05686531606330568, 0.12878974541813995, -0.06632697711233852, -0.0533114061516143, -0.13608181370497574, -0.16603217035331122, 0.11889633712780534, -0.5538356788386226, -0.3102900025499621, 0.37033173354452065, -0.20885667041939654, -0.018326542677307316, 0.03254247206938689, 0.603448976821724, -0.7385408887697354, 0.5149511886573664], [-0.054892547632985386, -1.1260790668016023, 0.12148736571617871, -0.3047486000352395, -0.48547382746018763, -0.7072017012638145, -0.19604748295354177, 0.3381268068613838, 0.03786161481533148, 0.11091385937751723, 0.12050480450150794, -0.14178650515757796, 0.18435833985522082, 0.011135427791463592, 0.3633978582093623, -0.15989683977984687, -0.1943199888832702, -0.19673893153672123, 0.2310734662887052, -0.9311384202052145, -0.06575521899929487, 0.4384111156820942, 0.4580108913002148, 0.08266287381088153, -0.08928533398511303, 1.2915391071754052, -0.23488745349480064], [1.305888800377093, -0.17671205155168773, 0.4499494644305914, -0.06593753490811681, 0.9556423802457432, -0.012217886156911691, 0.08604887717267219, -0.22866003160002069, -0.6730112497963036, -0.03959326699025773, -0.09487916086225497, 0.03150181050317602, 0.1253104173641697, -0.004298780236458455, 0.027667845096490118, -0.01977245801839171, 0.2977392852854434, 0.3913890867496637, 0.5167778886222266, -0.38403827533720136, -0.31256596666518177, -0.1384763029425315, 0.630994957522037, -0.23046496945532574, -0.1214128139885551, -0.4047446278110669, -1.569802023678799], [0.12739606862297076, -0.14545478728505726, -0.3204596845615078, -0.33410654293781594, 0.9623758456197913, -0.5050205015114386, -0.09491591011079516, -0.426571303825902, 0.9082495489107318, -0.14646090409324433, 0.029352821473570996, -0.13513482639194588, -0.20058901178498328, 0.3153685116570871, -0.003128036141643728, 0.13769701147522173, -0.27955469814200407, 0.10431933296974635, -0.5819413272828993, -0.12343288175296699, 0.023758083795462213, 0.19065312848696697, 0.1496113703965488, -0.15521929643535773, -0.01868418426986176, -0.06807648163646694, 0.776957306218416], [-0.2156697239430251, 0.5115225742964796, -0.20775417605373162, -0.5889288217378944, 0.2642943340529644, 0.24044199989068926, -0.9771138803893575, 0.01560307193059748, -0.5221324077856004, 0.029201470173267394, -0.08330818275575852, 0.060457602789795034, 0.14980798921191268, -0.08497584806050971, -0.17739294817184587, -0.21170784105220686, 0.10266101994197985, -0.03431369839680342, 0.008913137804081367, 0.03004744777428092, -0.008522261376030543, -0.4031208190941741, 0.23275024254081667, 0.7133789393114369, -0.15252919591101954, 0.6525522149900372, 0.36518653449019983], [0.9544721161371057, -0.11321618625182624, -0.8595982253970004, 0.02844391005378804, 0.9034998700957332, -0.4013082965182213, -0.409064889409226, 0.0968921008248607, -0.4330499462871169, -0.25711187753132736, -0.31995815151099943, 0.11700331573399263, -0.0773132644503967, 0.10081821255745717, 0.021471404690100507, -0.03582033328111524, 0.24606727681394214, -0.28379493986267607, -0.4155635930108903, -0.47624917586506105, -0.5742310996262614, -0.11438536070170924, -0.05466205788083183, -0.5454313913778587, 0.9634546784697647, -0.36320927322133484, 1.7147900257566095], [0.3800950865109914, 0.29757771139971306, 0.16181164763042247, -0.901650962350223, 0.4509781659726057, 0.16735555265172153, -1.100401459846386, -0.6795054939630545, 0.1440452650994523, -0.5848124931940196, -0.21619888092763248, -0.16620650172860835, 0.08954562464375052, 0.06449863772940681, 0.027281857972277737, 0.25289457347216626, 0.19454995391455762, -0.05980111595554317, 0.8325206944806034, 0.11997459892624548, -0.17340507240816563, 0.16032527948505976, 0.04598431587189642, 0.0947324620343021, -0.6410455260915263, 0.42259670619939954, -0.7786028781586924], [-0.40279650290170044, 0.26718659380880966, -0.6243276983067594, 0.35841245406188355, 0.28684020124829596, -0.003134687055919673, -0.18906949720829, -0.4654084338043562, 0.4677362931923346, 0.1758305668939182, -0.10597144178174141, 0.40387264791233146, -0.1349944259898449, 0.200221525407299, 0.17271084202343467, 0.06685959379355427, 0.054737984983875464, -0.2001972689298222, -1.3668441350019842, 0.613396875424563, 0.012387630304794874, 0.4842060704348069, 0.7546308277464067, -0.7380396524440775, -0.2873380544810884, -0.037315332663169984, -0.18451868399681728], [0.9363309500907996, 0.18144775354782602, 0.08848896403026688, -0.1528576343559888, 0.12119534133700603, 0.4829798056369243, -0.46284023317085193, -0.6984363111539783, 0.2878792840057697, -0.20592511639334052, -0.4492961061728372, -0.429497234884145, -0.39643444765410574, -0.016019176047860215, -0.21987573584671405, -0.1403288402915347, -0.5817713642461094, -0.3400717035817166, -0.13881731476658432, -0.055800677256372576, -0.8795797041082314, 0.11923158172289519, 0.6796091359079501, 0.633440830856577, -0.1913392493714059, -0.21859354072262638, 0.20503008349420007], [-0.8420262201857991, 0.08222064569664608, 0.0598200191617803, 0.5598382834632311, -0.9828772424223438, -0.22162018212110526, -0.061180211344573854, -1.3680106122082478, -0.2242782177947841, 0.40929899132990155, 0.06755007251168642, 0.20222737352009829, -0.16666585592509714, 0.22156729238474365, 0.1500013243652035, -0.002451693079835415, 0.15167484183125102, 0.14213269758413552, -0.21726090616176577, 1.1236312132763349, -0.2736022111260784, 0.7294913176842577, -0.249311823896551, -0.6690871585970419, 0.19691296534580463, -0.08009848197922897, 1.2507420049891698], [0.04685593479207002, 0.13074905869979409, 0.07095596753777036, 0.1604759828866479, -0.8224653696859306, 0.30483415724121093, 0.573209820778114, 0.12849013047059296, -0.8695877299868056, -0.7394477482401511, 0.2439286816812761, 0.3599854290281876, -0.011679011060209459, 0.025961284387550285, -0.14657833206840376, 0.11256595927512786, -0.05677150163584333, 0.24525265813913952, -0.02751647428714527, 0.7075787567277341, -0.19860809525928177, -0.13812482578062352, -0.636138199921558, -0.1862610756614437, 0.5712336485889967, -0.5684463262632751, -0.06591520008478115], [-0.07528772716120066, 0.07811101968475125, 0.15218108596823984, -0.2721493285840813, 0.6317239829888796, 0.39609426583055923, -0.24448690759053532, -0.279728359155404, -1.0012746123590714, -0.10004658182251039, -0.19125700394593692, -0.15842317278033327, 0.07809542354769136, 0.43110963797283963, -0.11751892396650365, 0.04342148999034437, 0.002085050417225444, 0.29188525228631534, -0.035672945228913386, 0.3423582294155642, 0.43370460138411454, -0.014119036191206316, 0.41273556238846404, 0.04640539519943108, -1.146287793045524, 0.3717071315170469, 0.08820438732626441], [0.5955512891117228, -0.12685845330937198, 0.5161449397023722, 0.3653527517478867, 0.03604477351890177, -2.2250448679948933, -0.6839389844987055, 0.047052973664543446, -0.18739323425253565, 0.0660874476464603, -0.034674407979439756, 0.022265537009964025, -0.06952873430077273, 0.22064953530000253, 0.03714096820511408, -0.22049759691900192, 0.11086747004949463, 0.12687650143896287, 0.8038378156208683, -0.5816901761632157, 0.21560424450770665, 0.7212936007702342, -0.2894325551448247, -0.9221462863865872, -0.4892455718977689, -0.41838696948967063, -0.1993714695644447], [-0.024434415333819057, 0.29254769681891657, -0.2704420221288069, 0.16507465731107765, -0.48484278036982426, -0.9560161565799429, -0.8062288756538161, -0.651540949395698, 0.057277517450393244, 0.10369170900770179, -0.00401210599659957, -0.3584764627487356, 0.2537523979399623, 0.12665359130243733, 0.1735251827938578, 0.40999585432348884, 0.3195115423030099, -0.3143939648914597, -0.3016420045708711, -0.21075174997330828, 0.5696602264222597, -0.2394684048941091, 0.11859923425485662, -0.10007845277152698, -0.08394583442909237, -0.718246878000453, 0.5834839032862946], [0.43001936197959134, -0.20632419477945974, 0.6317097903563277, 0.0938960157603221, -0.7796401262625581, 1.1389940853975806, -0.45470383766625044, 0.7893826327522897, -0.34843746597910386, -0.012695402731876821, 0.015626368600843026, -0.31199486120472086, 0.10641020814356426, -0.23656900396173866, -0.11697355610330805, -0.19440888901927997, 0.19080239837072596, 0.26177083321090977, -0.2976957067278261, -0.5724152505768072, 0.8888641203997749, -0.1290871919071034, -0.641849092761695, 0.7020063180802949, -0.33526229684468944, 0.4891009521790257, 0.4565516493423581], [-0.4728483837230105, -0.013725893977129304, 0.8900653215579981, 0.4015916534077746, 0.6138597224257593, -0.23082064619710138, -0.2640675529505818, -0.44046426128829835, 0.5449901395726879, -0.03813085054499202, -0.034055327436078656, -0.020662166190882625, 0.16379763940351802, -0.4009677834012849, -0.2351306067924404, -0.12496009207968907, -0.2619487574881569, 0.23793759343878992, -0.9872958889851116, -0.19135159910560542, 1.0036147278584822, 0.009943796822498687, -0.1203538006140235, -0.8315664428773866, -0.7369727162705842, -0.06857139372963354, -0.05649932919701861], [0.12735650601992293, -0.32448168611809175, 0.08542429009731502, -0.5024433477699202, -0.7056730799238128, 0.2238075155074436, -0.3221036342875185, 0.57288753038725, -0.021574370652367798, 0.2435130871054443, -0.04647187976984302, 0.036119432359845306, -0.25878834809283086, 0.04859254293903711, 0.8922810492103428, -0.09710764689041276, -0.40086634301457125, 0.1892151576805837, 0.6061516807064241, -0.17262325199919504, 0.7498247950719354, -0.6194984990152432, 0.46710023721342653, 0.011051110754869534, 0.1637602109547602, -0.24646410755534, 0.12422490911448174], [-0.5016439015920265, -0.4058922500662675, 0.15014031057719174, -0.18258857114301805, 0.6525783338827659, 0.6321539884462337, -0.8500508950449223, -0.6009376298175724, -0.12725504889020325, -0.3823697231392466, 0.007571996984927823, -0.1043363879208082, -0.24272405243733372, -0.47055347853617996, -0.10800588846895677, -0.01206547137242943, 0.023437222888640988, 0.17054958407987617, 0.2259936552985141, 0.287388419584265, 0.6544881448506407, 0.5634959030341727, 1.0152041907467824, -0.005581736789069202, -1.1485861961378376, 0.5486739662624, -0.15308874243608359], [0.39858290857490547, -0.032375072233008756, 0.7974330491489409, -0.5502631427001492, -0.16026204572799208, -0.5167481132968419, -0.4682383506904069, 0.2419683120032664, 0.7376396064919813, -0.017835553089909854, -0.17324701393247346, 0.06380508722571952, 0.1264866044688661, 0.14841553979022856, -0.0815255125650331, 0.037724138854826096, 0.07054707549149301, 0.0059690775554591124, 0.14430242337292598, -0.5022787939071441, 0.0076583888411539, -0.5216849434552682, -0.753357481924834, -0.3548435152775001, -0.2446055985822518, 0.0032621288092214147, -0.10876377784242117], [0.6618991800021143, -0.19882864980408582, -0.8346078495495362, -0.5314788399483119, -0.2797865934092491, 0.7039077821119047, 0.4327127239127116, 0.10335521367798231, -0.3344709041275483, -0.2760272615778109, -0.12806060525163948, 0.1447163595939918, 0.001846575756372362, 0.1701689214781948, -0.3571833770482673, -0.13423954535300014, -0.12119706501998065, 0.16825720762545382, 0.8547257698466615, -0.24061482588868108, 0.013136394193799026, 0.5148577494222998, -0.23288082693341336, 1.1423365997180686, 0.5469680821124255, 0.09127838454989497, -0.8000715175050958], [0.8035987404732288, -0.1275799297287155, -0.6287880723582512, 0.01477421477380841, -0.5183661462612007, -0.20551520637371765, 0.14881684262178863, 0.13328785101058002, 0.14661401004622884, 0.2302817704217574, 0.40310185024362843, 0.4706048948329234, 0.17118736985336835, -0.2676678862903605, -0.030369076701106782, -0.180039856580824, -0.08453312616859349, -0.2247542444366978, -0.5171566458868866, -0.41027104921824853, 0.5697370808239892, -0.4974807437550626, 0.7438832331314564, -0.08090699934353536, -0.059413726333460114, 0.5924987682140159, 0.8052712099381265], [-0.018681385747555637, -0.28978207036973797, -0.04957104131087149, 0.2651635973871169, -0.5623752589245673, 0.10547231738523934, 0.10885341906022308, 0.8683394195818875, -0.07108089425063599, 0.01143693814036836, 0.33540126615824434, 0.5001056429747204, 0.19750066616287354, 0.5758965848094759, 0.35818598353458414, 0.20757139180952147, -0.0298474163034286, 0.25439899158727725, -0.11651377114000945, -0.9533741382265069, 0.16891673161466425, -0.03837040383290481, -1.2144352792676876, 0.22102043670163823, -0.39707501647037746, 0.8821083169508144, 0.03710195631938312], [-0.37524724400242826, 0.6824026276418542, -0.45645195565182306, 0.06487312784966222, 0.6306956198025812, 0.16297244947626893, -0.3045055735776479, -0.05811851737057839, -0.3415973690107375, 0.14970844771420924, 0.13829906681201898, 0.15586216038949574, -0.11724839595250372, -0.03286405216806163, 0.043744397626501, -0.06777048546748199, -0.23344205939234813, 0.08998952983273843, -0.08628878019380434, 0.5979528287765048, -0.467890291990875, 0.4115619939557231, 0.5520587540330558, 0.7018257666398721, -0.3874839979483807, -0.18794079551610518, -0.5091413895355209], [0.2942535383094006, 0.5988521892355368, 0.07972016142835, 0.4114336783473128, -0.3805665530226133, -0.27560716830264226, 0.19027465341213184, 0.7400564742940173, -0.7605980770304744, -0.020063235821402785, -0.19770056625573856, -0.2542040649449141, -0.2837059271359821, -0.2804897988698301, 0.2334067636067515, 0.025042310468395126, -0.32289198968474886, -0.3584889499448291, -0.1542110320174031, -0.09403993354889097, 1.0902008761933317, 1.4205972998144742, -0.011795939626912973, -0.4764246780319459, -0.31971630556054104, 0.4411440929561598, 0.6268348941887856]], "bias": [0.1491705187057124, 0.3715441402817149, -0.24027881414330712, -0.18802616990563592, 0.035275986436128476, -0.19732354705527666, -0.21276148263754155, -0.18275484318791596, 0.39667912139770745, 0.11504423679899181, -0.20837884673352203, -0.1011511403151985, -0.22457378314936896, 0.06297931040786421, -0.07308074439779232, -0.038740243470745346, -0.19880795859838843, 0.16106205771426158, 0.030573812858384265, 0.23695693414164082, -0.12846510884051338, 0.22479458062667743, 0.10812874205813505, -0.22480586625078136, 0.20648999514357122, -0.1369866012384268, 0.2723039472477717]}, {"class_name": "NonLinearLayer", "non_linearity": "Tanh"}, {"class_name": "LinearLayer", "lay_in": 27, "lay_out": 27, "weights": [[-0.2996658364802632, 0.026083637351015827, 0.37007981125676365, 0.21564563805360196, -0.6763076342995167, -0.38093246023967503, 0.17363413538478847, 0.21478155352764366, -0.5383819806431012, 0.14288810300478097, 0.07516301144651276, -0.44961674335621654, -0.048278805011327065, -0.3707478930530232, -0.21882992782039848, 0.11304234840497107, 0.27464915904653836, 0.17591477566953598, 0.4136190814007441, 0.3421586891590625, -0.8070299771671416, -0.12097353876856512, -0.5961059829447531, -0.12942916239563765, 0.21503715609521212, 0.595220674595715, -0.01462898855310986], [-0.26134688509548126, -0.019552252084730274, 0.022073999507734563, 0.2637983216204166, 0.41053332823482447, -0.2572888994592384, 0.07254676791927038, 0.6242161314405442, -0.5673117782446816, -0.5117568860837529, -0.0051935942063829005, -0.3345001373997546, 0.33878576060061066, -0.20679070504749913, -0.4630016621893479, -0.8961369609692882, 0.1437568097296609, 0.36064862231752676, 0.2992245554613593, 0.2708642330811851, 0.10186426408292884, 0.16324804930399894, 0.04825552266095608, 0.2636176900676439, 0.22721908061865898, -0.29255178153665606, -0.02263614857068206], [0.1591661058257148, 0.018059020352976914, 0.7056877370968786, 0.24386091972257867, -0.5786569614414466, -0.5069473306890889, 0.10438990037677352, 0.11872307098821558, 0.32614647188340024, 0.19868370482974157, 0.06828900112253966, 0.12458245941493296, 0.2558907621463469, -0.6391841192825248, -0.1947722372956278, 0.4321008467301342, 0.8717895081519141, 0.315263999572876, 0.1450457788754435, 0.36627261806961653, -0.13757111873636524, -0.5716782803816556, 0.005730912643575089, 0.4331529219237671, 0.011135363559512515, 0.19695218522774838, 0.6434447140727925], [0.4901005532841621, 0.5756243176370903, 0.85041287385284, 0.36101664945686585, -0.7960098838034324, -0.09537109148947152, 0.645473754765787, -0.4430877110495106, 0.9909847870722328, 0.19603740353173582, 0.6947247228975351, 0.48444165785215587, 0.22743360288202666, 0.2911371860039832, -0.4500670614152461, -0.9814809004443396, -0.04826239637769514, -0.31311446140982435, 0.12127529157694557, -0.30813937508408684, -0.29508265302914155, -0.12104528023119179, -0.09695833547309769, 0.23070073333556682, -0.20059483241310455, 0.09337025530007027, -0.7700581675851313], [0.161320003807833, -0.035327986036526746, 0.5883017147391619, 0.016155890167646507, -0.2944327044957274, 0.5957740176929822, -0.15108227462486384, 0.12949403697446035, 0.11317664619819497, 0.25774354041865627, 0.036053565266129274, 0.032609658950651675, -0.42633499321562357, -0.35556576471851464, -0.32789436552029494, -0.2679128504575682, -0.35079821366334546, 0.018178435351233736, -0.9099683265235636, -0.4506878857635962, -0.4105855198839765, 0.32741705400561766, 0.822843204646495, -0.23043386717996542, 0.17938222979977084, 0.7490767555750583, -0.35463126794972843], [0.27096479768876575, 0.16284466371519912, 0.2388215095978173, 0.2859196718497452, -0.7871956978963216, 0.19934083186086174, 0.10281300272908155, -0.025787077178234582, 0.29890764545392956, 0.18100641889581678, -0.14482286473488207, 0.3245544345727797, -0.6692762233279087, -0.2116349127389248, 0.9347018690968308, -0.09607567297172158, 0.1743112821365907, -0.27551170112701373, 0.31328711538999054, 0.20452480143780208, 0.6234727011782688, -0.016319567481689955, -0.7220555475906502, -0.6868052099283442, -0.48013194918654767, 0.027589156520283282, -0.22329205134908364], [-0.156139940700929, -0.26913049364687336, -0.4092028243025802, 0.503493134438825, 0.5422684571596766, -0.44921772343037036, 0.48772099052933865, 0.42727498739004083, 0.11179236276113759, 0.22984424255400046, 0.6024230406440279, 0.35326880542444455, -0.12540094007819835, -0.2820816852492758, 0.30225820358313293, -0.5196741357173467, -0.19733484927015318, 0.008544283159269457, 0.45800653477728825, 0.17198151792643224, 0.24368834847663087, -0.05778926650177034, 0.3975630152896192, -0.12922620611253216, -0.27594074232438875, 0.09778236224838019, -1.0422327402465659], [0.3015115453705142, 0.5311215039572954, -0.21266925228862718, -0.4293412128665023, -0.3091015668096102, -0.14508507360503742, 0.01062148940879519, 0.14932460988328022, -0.265690545397396, 0.29576631394339176, -0.0019342217385473646, 0.5499098722214874, 0.2833497630657506, 0.012355517262593055, -0.9834856143150625, 0.9362073900242985, -0.21181308252917502, -0.02476668373993433, 0.13593859215265675, -0.013570216982210436, -0.06448147313990032, 0.6034677428828034, -0.13220769833317392, -0.6145122302494851, -0.18639972338630062, 0.8956911101722734, -1.0314104158956954], [0.5858749680955645, 0.16831868425278793, -0.18325367647262872, -0.19840447818952098, 0.2998137998946795, 0.28745704767571345, 0.1018908369210441, 0.06553317140224206, -0.4135906310639598, 0.5411501540844047, -0.34300356543094607, -0.21346127637590495, -0.27349385372418455, 0.052538860899333385, 0.7041295192145811, -0.001369843806343399, 0.28598767324174673, 0.2887077069220471, 0.4597991309823574, -0.2914960057889911, 0.4435215594549118, 0.12311766667137092, 0.0098392714744651, -0.3237995510339059, -0.2870553004136111, 0.10362647843687253, -0.33983336578021417], [-0.06151177016857235, -0.2453517125811796, -0.6331310045359793, 0.5339627860199502, 0.6492329699656335, -0.09985403956216175, 0.1259238971253649, -0.3647557660377689, 0.12316248282855664, 0.4443698670631724, -0.4027332374134607, -0.17207494330607206, -0.12280653356138596, -0.5359953828102646, -0.6380212454954901, 0.17669266724219354, 0.02650061673982134, -0.6523864277752216, 0.527073519400033, -0.12834235116114112, -0.7735362390852598, 0.8146888708829061, 0.29689819546775825, -0.6824128052977744, 0.5674333472548876, 0.13610469480760384, -0.6663920961567673], [0.13538321389900038, -0.2804195008614356, -0.03416677474554223, -0.02141341856805937, -0.3376784844078489, 0.35887756368522045, -0.4819693373889448, 0.9955054599416444, -0.2406506475127765, 0.43380815717241156, -0.11211985939217013, 0.6086367210767963, 0.059515162916763384, 0.36259335117894625, 0.5919214993394403, 0.1794861656837915, 0.522188443938803, 0.08234076639580143, 0.04817028048187404, -0.2607630848878462, -0.1973985184648859, -0.21597511748840062, 0.254330465819476, -0.019786958557542273, -0.2044351672809265, 0.5472383837348154, -0.14933110848305267], [0.11315282624447288, -0.17809235072323698, 0.24790301430614886, -0.253764164267156, -0.6021057658019316, 1.097671813689274, 0.22768007393629314, -0.18119299049284918, -0.20472864176634842, 0.09363616229019481, 0.29476477694321324, 0.0861911105397115, -0.15200937009547966, 0.23586890432100607, 0.009264671889739996, 0.8575056226622424, 0.2542995631662126, -0.6712501876439368, 0.3351029734967927, -0.3036982275987724, 0.20894205693268447, -0.19329600077547085, 0.0031449739562205564, -0.10375032579780095, -0.5306209571739843, 0.32449071416788544, 0.12786668472497653], [0.5010206826149435, -0.03419684597353593, 0.07501141643720625, 0.204743970425457, -0.9686635820139424, -0.4009347610572006, -0.4816905625671971, -0.4706519945632347, 0.10645346420253847, -0.772189084916059, -0.4379379876881136, -0.17836416136968292, -0.5957908982475816, 0.6712817773657874, -0.42984699017223477, 0.014949658026369026, 0.09158464234126516, -0.5458561932453033, -0.4625263598197127, 0.6081045302702752, -0.7315268717373083, -0.05574210991788754, -0.01043440678578773, 0.2623354841134283, 0.03959038208027577, -0.5042946715274058, -0.25969831734332705], [0.11586485952319378, -0.12161534441042718, -0.10718377734089739, -0.5235377612806187, -0.25420039273292533, -0.8296636839376612, 0.14043308535827012, 0.2769062290677534, -0.18488274844906544, -0.70641479070833, -0.12613717611482292, 0.10990935547705043, 0.5505449465239668, 0.2315798925698862, 0.30688859410457053, -0.5133470985264246, -0.11058318069041809, 0.6905356195805803, 0.35831226498080515, -0.13832470080488563, -0.9757157199720092, 0.13204113918475444, -0.7280360811679156, -0.06505686600172808, 0.8206219674711174, -0.1126916935483263, 0.9579236960004043], [-0.11206285888677725, 0.3878553441436572, 0.39409569486817975, -0.27433798078618854, 0.363982784891867, -0.878588647083057, 0.12045620176207573, -0.043210807089852775, 0.37630959744450976, 0.6098940723844278, 0.5599865651825053, -0.4149917958482974, 0.4405318890265645, 0.152989272298453, -0.554317367203834, 0.39504351721092035, 0.1567774718048677, -0.250739940372299, 0.36205126311941543, 0.8023078700920082, -0.11462564304874523, 1.200416514365499, -1.0498279982488268, 0.12191314401442754, 0.1291496714405844, 0.005170706249334, 0.2676461959496372], [1.1222308219229742, -0.25686734818689805, 0.6388487424016921, 0.13936401206294877, -0.5469906758172063, 0.10076898112288371, -0.1441499924193573, 0.27969486094380935, 0.9296294014388294, -0.02089858525149251, -0.22807162552884305, 0.2835722365971933, -0.38106525690109827, -0.16721706509636838, -0.22179163890921477, 0.44981450545021423, -0.6852503549898006, -0.05425011417671088, -0.184912950974651, 0.5891936789850452, 0.445946712836333, -0.4950089021764535, -0.11525562930795491, -0.24270421566944814, 0.013031156275977375, 0.6672191889837321, 0.17789012485179512], [-0.46289862748688404, 0.26294543180644586, -0.1683487798978304, -0.1205852670881773, 0.3143825198953992, -0.17868274405503407, 0.2786714113005568, 0.5273922529301596, 0.33875985496987143, -0.09924340532185799, 0.2935978860115162, 0.14124215259208045, -0.3801884064759438, -0.02069931500036357, 0.2418095563455791, 0.5821550922342387, 0.42632914049153103, -0.2277215091226382, 0.29822254521226066, 0.04468463836564904, 0.2662054718467295, 0.39337167153518726, -0.4246679626204781, 0.5574261268391031, 0.13988594332365323, -0.18907989237784434, 0.43771489086186116], [-0.6448930673624071, -0.3264686030382461, -0.8966418994891348, -0.631475604927532, 0.6349457769859579, 0.7948231068483605, -0.24204402761096475, -0.5484742866494273, -0.21751881462080927, 0.011783006360877039, -0.42005984749675823, -0.02744502823567977, -0.8023923778461534, -0.5971872779553544, 0.23104598365550688, 0.5086838281205708, -0.22519532515006727, 0.4282956149854877, 0.11245389873745668, 0.23846198635504023, 0.3929249856606776, -0.0658041952772329, -0.32766031387741607, 0.17218801880243487, 0.5042893938453487, -0.8610474386623792, 0.2819756673090079], [-0.07654748806729769, 0.14704626302301174, 0.6384383776598417, -0.5049432777168766, -0.18432340401605202, 0.22376517968350826, -0.832890760699962, -0.45058193608224095, -0.6968194002350351, -0.25834808898190736, 0.22267046269318885, 0.0984608035307344, 0.5569758919244086, 0.7364134006562245, -0.04058966755632709, 0.0005280105234953305, -0.3695722115192748, -0.42633977526302647, -0.06023642337584506, 0.12912101058514253, -0.5891692406169997, -0.18181494535509637, 0.3866063485489149, -0.5540191111919321, -0.21841880547226225, -0.0025375121730836572, -0.06860438664978089], [0.218528008142575, 0.30628872909184734, -0.2655288880256051, -0.5711659886927011, -0.2879568302352468, -0.34817936843238106, -0.0647578067974372, -0.3793698394308295, -0.12911417883194387, 0.22695738735018864, 0.06869618899643658, 0.12764951242771544, -0.36695641223420683, 0.5032278862999363, -0.09968578897471177, -0.20479817679151413, -0.23352999362560348, 0.07183939578252971, 0.0329521907708584, -0.033977132623453116, -0.42211488111364726, 0.16509520835896102, -0.1586435952722404, -0.12938762609298107, 0.27297894777322534, -0.0048368649402327005, 0.29698100250622844], [-0.11462529896369009, 0.4689913794107442, -0.15640774396165355, -0.026694326333350227, -0.26922004958623297, -0.19463647895212746, -0.36504480399584, -0.5425274492998048, -0.20976487090910945, -0.07976888504076865, 0.06801999547200682, -0.9537027835123798, -0.14287188439344028, -0.533285355118887, -0.5749004289047388, 0.3956438593729049, -0.28460429835315754, -0.024210224143893188, 0.4466091334829806, 0.26820396865779483, -0.1319365595274699, -0.19306505487306022, -0.3593197597497641, -0.7726030848133417, 0.3709359621882707, -0.21943942924682278, 0.9079780241090698], [0.22104088767503408, -0.37277118689462574, -0.045977073700961935, 0.7064498240695128, -0.34065628832550304, -0.12782078462519778, 0.008727920562818927, -0.17827787863342767, -0.2332050533117523, -0.3232778201997713, 0.6713475428157315, -0.20880788297807354, 0.41054549679513563, -0.03482460306347387, 0.02747677814732272, 0.5286999073392585, 0.4834878730307065, -0.24928814931650142, 0.38504931721664176, -0.31634914350154336, -0.0009409506409763421, -0.3095939432255722, -0.6803522000031667, -0.425147639083041, -0.14700566292227904, -0.1795282614648204, -0.2992784130562893], [-0.14649314574601002, -0.4130327975234203, -0.0845914115205244, -0.6664000500141081, -0.521888852914387, -0.12507995366578226, -0.17996861929866534, 0.17476999672573473, 0.20949942307215838, 0.05158983343722736, 0.47752337698111125, 0.09851258720275478, -0.40351145603513394, -0.05360189415446758, 0.2488927168014222, -0.5290225657683456, -0.38494940523308985, -0.229556890970212, -0.2952115612715206, -0.10537002531073672, -0.0015915018954552175, -0.5472337909608749, 0.17447060121802596, -0.20726523920115628, -0.031579364103326166, 1.163705426166011, 0.02800839745817313], [-0.3257909175919389, 0.584328967162037, -0.33636079800509155, 0.2331250208572838, -0.40888953905151837, 0.43464757413834015, -0.3024824038271856, 0.56850595520723, -0.5131536267353038, 0.8202425107363637, 0.27100570784785755, 0.46876351249292275, -0.4785633215800368, -0.33039627136246735, 0.43792045741558466, -0.12075501493885744, 0.04502227125318462, 0.35050386763287406, 0.7471259703434001, 0.004916337166967314, 0.6370868965290687, 0.17529341253676148, -0.6617207339078767, -0.02506848963073613, -0.36822823319484443, 0.3754879719441449, 0.2224173385686239], [-0.4513102301500939, 0.6886154687806798, 0.6141873639261272, -0.4879774912022398, -0.027812510553066067, 0.3049545165039775, -0.2546492085054539, 0.10908238511441318, -0.3164345606447414, 0.6399295705716077, 0.18549841759252939, -0.24911261530099998, 0.15243204568198776, 0.13809913246073335, 0.22842948231295104, 0.6642765918951556, 0.2666007438509746, 0.7355689074352627, -0.5593007196392732, 0.5187182398347281, -0.6160531626783399, 0.4730856943879879, 0.7730027080976701, -0.4031646789172143, 0.23460095448878307, -0.03389923192185176, 0.30611421931678745], [0.434975112562799, 0.8832971503764057, 0.13146304518896754, 0.04397377771511961, -1.00994765806221, -0.13405695424386785, -0.04480749781905905, 0.023394390651920803, -0.5099258435060317, 0.6085167513140537, -0.47487794076616274, 0.23823308431647253, -0.016807683867842874, -0.1909698123354983, 0.03573541958401053, 0.2134366751008871, 0.09442475354377955, 0.8470576397788827, 0.1435779390716085, 0.1737692643682319, -0.006006194370696331, 0.9624631154719417, 0.052061053618726316, -0.23376771721929399, 0.14578463615815868, -0.11518100735258015, -0.15880670526570473], [-0.278004884746129, -0.15465598041886827, -0.1898372497054013, -0.1775628356885393, -0.6861215554951198, 0.38889518374103627, 0.446718705785051, 0.07791564456155904, -0.6535795374716717, 0.19938689923532732, -0.014635542965836438, -0.13991716043985655, 0.4090348747858873, 0.09299520526521964, -0.09005016012989203, 0.20299344636691274, 0.058950691345228685, -0.037638858962719283, 0.5497584322530177, 0.1576265502303414, -0.01559520965481292, -0.19343391290754555, 0.12111066399466856, 0.1411322953908215, -0.2869271419664162, -0.41794940084931037, 0.15392247138205226]], "bias": [0.2930595883140592, -0.011062724932310398, -0.13591241668379264, 0.11449066363883698, 0.4209808067416152, 0.21728003334119905, -0.053810142558962944, -0.23250408056406266, 0.1557061130994302, -0.15126245239010386, 0.18311190751758652, 0.05232817039569768, 0.1703926148170919, 0.5812147598271252, 0.4747019662423089, 0.42282511737642675, -0.34026872495152083, 0.18982050096622405, -0.18406863467880785, 0.5810448468181845, 0.5569331562846538, -0.3987749637381507, -0.27167294722185187, 0.13120089237801116, -0.10324117112244285, -0.18917835215349466, 0.002310594494555974]}, {"class_name": "NonLinearLayer", "non_linearity": "Tanh"}, {"class_name": "LinearLayer", "lay_in": 27, "lay_out": 1, "weights": [[0.03708914811566186, -0.0546165931535586, -0.18223624996327306, 0.3126794777114795, 0.2597237571312956, 0.15931509202003521, 0.1303524040459589, -0.1146247316243305, 0.05976268313077698, -0.21315951000947753, 0.218549061290856, 0.4049999652875384, 0.3532864813721887, 0.2794596775496141, 0.20820796952383955, 0.13655841953348055, -0.263467917724406, 0.37530195776755687, -0.2085023253877597, 0.5972614718395649, 0.2538161758968613, -0.4424870609117154, -0.32792012267650655, 0.2924503274226897, -0.21296691824160527, -0.2056302712640971, -0.021741096536810837]], "bias": [0.2777517101059824]}, {"class_name": "NonLinearLayer", "non_linearity": "Tanh"}]}