{"class_name": "SequentialNetwork", "layers": [{"class_name": "LinearLayer", "lay_in": 27, "lay_out": 27, "weights": [[-0.16125268748425825, 0.754390598665104, -0.38716507258739147, -0.2617381945560199, 0.22110390670083233, 0.350497415404867, 0.8859880703399151, -0.23125422049773126, 0.47662700099555044, -0.26271454219466267, -0.1105556188885483, -0.48597471103704004, -0.008641457117472988, 0.023693002098929716, 0.129820417623807, -0.3628018467906036, -0.0641812963767141, 0.05183128811076807, -0.053093799132144924, 0.3518780660417991, -0.43214548991711427, -0.046847409682098475, -0.3370285512928449, 0.04907740917824601, -0.15843028756299563, -0.8862581817862706, 0.45579676259854923], [0.2723292422356494, -0.1678214839291097, 0.30626463026856793, -0.2420446768038875, 0.05527169382736725, -0.18648754367897344, -0.4545554914050981, -0.6306121174923854, 0.1518248898913302, 0.155755489745632, 0.2952387550374966, -0.14804683771737992, 0.04390138234874135, 0.5249991239664654, 0.3784382015378336, -0.0950387690857352, -0.09754666153181808, -0.3714797826736187, -0.028355443683214205, 0.2616268595659986, 0.8997741472909908, -0.42030316370513915, -0.06365825465939809, -0.09677265008730725, -0.42267954988505846, 0.12419984715669172, 0.2468413922060782], [0.7365788541399882, 0.8013337468471246, -0.5333782548181405, -0.08260813962935351, -0.3693094819372849, -0.110912883395876, 0.8417209139715981, -1.1432434493603376, -0.14930225023861063, -0.029855522360753617, -0.3045520616551097, 0.08133404520804366, 0.06718431567533331, -0.07670633638388419, 0.5035567129842892, 0.11154190412006194, -0.2445211390511084, 0.17568866837411798, 0.08771563572131247, 0.5121299887133829, -0.2709700615607793, -0.19939930423794106, 0.43121649165925263, 0.07794764752475306, 0.6169523975817172, -0.5920312671121297, 0.27116610825939674], [-0.4914095740452886, 0.041799789369049274, 0.06813406002243129, -0.40427268028124697, -0.03216775451735466, -0.44741883423778234, 0.4533260508568194, -0.9763015251005481, 0.5449169083521601, -0.10438932182621453, 0.08270482957684028, 0.30046833432849107, 0.14958833774354202, -0.07602465350385579, -0.11204547841139634, -0.1170547382035038, -0.2290918048999485, 0.06291848958539013, -0.6315323804344326, -0.3886292561682998, 0.11831971136888528, -0.17886005208658334, -0.20203449409139027, -0.06736973684613891, 0.5303909319896714, -0.697038144696962, 0.41344477712819827], [0.03387773654160348, -0.8903740630870757, 0.2815661056876553, -0.28292898403208816, -0.4075639637462632, -0.41867636821831944, -0.12412696228455875, 0.3677261765107493, 0.03386004037115548, 0.26127383303094004, 0.18989949334371625, -0.07528502438124404, 0.20755645791729432, 0.014368175355750256, 0.33874209675643574, -0.12330544256287049, -0.3090572725735498, -0.22992619845360102, 0.28947728192873207, -0.9166987734612172, -0.0810222802031999, 0.3944391098856865, 0.18005259389760186, 0.056214510874713, -0.03299002979582502, 1.1307020845415365, -0.13776633769793076], [0.8674807375529668, -0.14184542285551377, 0.4426180691795002, 0.03167234005584467, 0.8863333000443548, -0.13067812547913454, 0.04222809734573252, -0.2876968106129802, -0.7781985512173323, -0.006352573804283099, -0.2295870455378713, 0.2740993397085159, 0.15515364623264574, -0.004930779981926127, 0.11834309511274901, 0.12194428728974357, 0.33027448453312147, 0.6575250060392333, 0.3753087526578031, -0.3665555589417468, -0.2056359349582189, 0.06369643964334136, 0.6493230657177274, -0.23525283837496982, -0.08909810988985362, -0.39148360034087687, -1.3171833913109943], [-0.061868689049412576, -0.11820258761700678, -0.39770941943706545, -0.40550386968063906, 0.8868761978590334, -0.3339489504534655, -0.04625075259622326, -0.48800812959746287, 0.6598714466640512, -0.2734455780124029, -0.0048473057437221625, -0.07095775308441603, -0.31425825735897184, 0.2915239775320631, 0.11423120232095303, 0.09774966950166364, -0.14641743918897976, -0.055167207300378586, -0.6552004310634083, -0.16606163078385214, 0.09706014470170399, 0.2907096941589021, -0.09338258538655272, -0.40298829169030537, 0.07538834452188399, -0.0025210300876093864, 0.5752665947995361], [-0.2109472605524759, 0.49304471602665373, -0.11910288341681691, -0.4104042088655511, 0.11292533172946048, 0.34397635381226566, -0.8518160593362976, 0.013367037894810302, -0.45364866510177665, -0.05296302852169837, -0.05736472441179463, -0.3132246969032112, 0.06560384122340138, -0.1600395009572101, -0.11896995466747387, -0.11195929994705994, -0.007935873810132669, -0.07408905620403243, -0.14478933204375724, -0.06364662765989727, -0.114132521844438, -0.7781378523472522, 0.10268739165899542, 0.5422389044197928, 0.03905597989632417, 0.5960480034695174, 0.2793051570591292], [0.7217572846492569, -0.14128362641436734, -0.5660014911545864, 0.06799951860818357, 0.676844053138357, -0.350141494308116, -0.5539105347268096, 0.11982631047526503, -0.4447816070226891, 0.01674236793166332, -0.20905434810495396, 0.1645599249927207, 0.03806705621820565, 0.005584845837091943, 0.25691231248031865, 0.09142550809652075, 0.14282161823075873, -0.41021868995839955, -0.4994961221167093, -0.2370746536709975, -0.4707492818945241, -0.26319359467599185, 0.008228839333334716, -0.48610137107877815, 0.9545427790245, -0.42740424690374706, 1.5071248793539977], [0.20757084031700795, 0.29314955083033106, 0.180256150055996, -0.726213925808839, 0.4820085403485473, 0.20483404882576522, -1.325840353042639, -0.6437284294519497, 0.08054904827044207, -0.5360438872447142, -0.10066544458320222, 0.007980104506187382, 0.05176260529088763, 0.09540365021285738, 0.2693803894412382, 0.4412615036103523, 0.40405377125155695, -0.049018961386197574, 0.6155852694623272, 0.04701461523470985, -0.14495539810258823, 0.4103833265124863, -0.28425925643737826, 0.12706314353315484, -0.583195717388887, 0.5861801347278479, -0.68508433278251], [-0.2885731473230451, 0.15311294949392737, -0.6328593886411232, 0.4163597454472849, 0.2022946753954636, -0.08384496695056813, -0.2986290300473228, -0.4893300609830605, 0.43388063135390414, 0.16382121685510911, -0.33417142020399027, 0.17049007007057868, -0.10830139425292352, 0.18578732284725946, 0.19607950257120726, -0.061351268357945535, 0.06629322671823124, -0.11747888796183384, -1.3363192213968862, 0.6515340429588934, -0.19547465073258907, 0.38365007432083104, 0.4996148006382746, -0.5270984236608957, -0.3823587573716553, -0.010245929701498104, -0.23051050930826067], [0.6131081367143328, 0.2285345185586178, 0.04756385210382283, -0.10136834727626436, 0.23659530234956838, 0.31679228150983757, -0.3908598134743674, -0.7386380435775703, 0.249861929302597, -0.22963004758547173, -0.26275866794974523, -0.48603184258138904, -0.5373794135849596, -0.05262347421759594, -0.13565934893052572, -0.1392878929409309, -0.6883920058395362, -0.17519896886751418, -0.24924207905214157, -0.08708716238561844, -0.7204216101310829, 0.15262292210512798, 0.6561688280348438, 0.5017516764383397, -0.07200579261347637, -0.19190610749803727, 0.18039234105237284], [-0.579367358878886, 0.05212535935689766, 0.03156190162198235, 0.3660213496117711, -1.007804062826715, -0.023657981335866413, 0.04153723869741872, -1.1973782366312544, -0.08628653859872111, 0.3463253885275622, -0.0075456005513626035, -0.025681459173975674, -0.39332793263825233, 0.3368618824919806, 0.08114976177644209, -0.07883041783189734, 0.08248459231782275, 0.16371325308753398, 0.0955718864771837, 1.0293485376836413, -0.4093367950636227, 0.623142650855013, -0.41762709459062025, -0.7760916117763532, 0.28221311847767305, -0.015860903139377384, 1.0932454143758294], [0.1544517157323297, 0.09184270775838052, 0.06015617626011825, 0.07438575421029447, -0.7603330106439958, 0.4714221082925405, 0.34014046094574374, 0.008352629305125647, -0.705714970111831, -0.9466555866659562, 0.24702966480086982, 0.2018892685628245, 0.11503020508447573, -0.0748038228356612, -0.0028005526808207778, 0.14929669706517334, -0.1674123981491685, 0.3403705783006626, 0.00410507875005445, 0.5832334357869058, -0.30240547703819204, -0.4317122070398521, -0.3228215044318883, -0.01646822011476801, 0.5106425402762029, -0.3660968466302682, -0.06502495475989278], [-0.19014968123493034, 0.10526393461654679, 0.21545805405089244, -0.17968143430828235, 0.5237077988277256, 0.2731776196243019, -0.05197157071180647, -0.31748165795726746, -0.9984840005699991, -0.0049642567747266554, -0.20527000512921342, -0.3149916710851934, 0.012799264906988052, 0.5544063221821052, -0.11484077496100739, -0.09339239643583132, -0.14962396511066778, 0.4179721140683089, -0.053267033324326515, 0.26603087054889357, 0.25683153666453107, -0.0137291316923074, 0.2627290302651391, 0.1529405795769641, -1.03479727270376, 0.37173783328486953, -0.03615483167941548], [0.6208777324180074, -0.0582965644530036, 0.4103992734039431, 0.22982974367974807, 0.01798975357965886, -1.6633502912737212, -0.4603505655883058, 0.09967833240211073, -0.2145474120100901, -0.08079283260856857, -0.17631163408222902, -0.016183624556292697, -0.07157104150422534, 0.27263104910665664, 0.2213039709765876, -0.16377997620877321, 0.011582755948664007, 0.2558177188436496, 0.6710393368692373, -0.5719012707974602, 0.07080112910220146, 0.6087108558405753, -0.36545058738323327, -0.8432256607603141, -0.3207984069506092, -0.2875831119057372, -0.27583787783818126], [-0.15615293268905575, 0.33716941218448887, -0.36094287610234094, 0.08462423201332762, -0.5155374009529019, -0.6974651052397204, -0.44424965870863753, -0.7069535666494845, 0.04365702902945634, -0.05031168670030743, -0.05669408481218678, -0.6027388928268944, 0.1053422666138915, 0.10023469327407573, 0.23926268695222916, 0.30982424322946106, 0.3788119122931989, -0.43281032611599274, -0.24138562616719758, -0.24632240361727709, 0.430754040358988, -0.19263563755278856, 0.0018394253027401897, -0.2315501900772339, -0.12876445106966936, -0.7206618741733989, 0.502747561428163], [0.4612852175064574, -0.056425570513125946, 0.5064494948618851, 0.18387434641108996, -0.6065235948719307, 1.0171216026916208, -0.17365166927681794, 0.6750844385856335, -0.3789014289533497, -0.04471751145031419, -0.032377300861365976, 0.00046032631941518804, 0.12942112318618784, -0.3289623616568157, -0.24075826395706615, -0.09341258922139208, 0.3341712083659676, 0.3991926675263798, -0.24265221730438458, -0.6147327308851039, 0.5799625008712009, -0.10492340061432796, -0.6387927344808467, 0.6619256303622736, -0.1557004412621736, 0.6852874924149561, 0.31662572600521716], [-0.5207242829962322, 0.006560118829167485, 0.7510254407435625, 0.2471002728656636, 0.6010005791765908, -0.08787200056368215, -0.2818171914569914, -0.5429751596679155, 0.6467525759645376, -0.0684245215192512, 0.08437608925213251, 0.07565402823752995, 0.15700082696438206, -0.35675224657949356, -0.1228753435424947, -0.14522617349239997, -0.208113809207007, 0.11884713248954544, -0.9992486135102654, -0.2549442880257682, 0.5775914882004795, 0.07632881408142013, 0.009466089814684785, -0.7524176960863657, -0.6762769390733949, -0.0764811753879911, 0.03211695895889621], [0.008732441021286919, -0.4418242239512579, 0.21734017793072044, -0.37234827062816717, -0.5596649103212122, 0.2630327354799024, -0.29200894746581113, 0.5704002156115728, -0.0316470637649349, 0.20300572124224833, -0.016825637283799055, -0.18746364585087968, -0.27680722725450324, 0.07247816486862808, 1.1008260912765455, -0.157831293436941, -0.5225975351119198, 0.1053064342537686, 0.781223263819133, -0.08835649277433957, 0.5308719808169995, -0.7415941772851016, 0.5092975723892734, 0.18121983428443322, 0.15429236748243316, -0.3736862981624069, 0.12713664888603157], [-0.28523941607652126, -0.40170617165669814, 0.146253697664035, -0.3813684213760888, 0.5283476704321174, 0.4379210700476564, -0.3276779446047215, -0.644326217473033, -0.1380588344263534, -0.37228726369254217, 0.011285529088143422, 0.011758487231629302, -0.1583595888994617, -0.47219406739982167, 0.0013766270332929787, 0.21624553480191983, -0.0902247365073121, 0.3304430545238788, 0.17084930824104022, 0.1831875283936939, 0.704239272596402, 0.5366798147760383, 0.708681020608697, 0.04727976916267567, -1.1692084319494371, 0.5214467888837, -0.23665231489143662], [0.26790057997422223, -0.17018754106549414, 0.6506447411638708, -0.5251491594069086, -0.06649951971436643, -0.34916696364082084, -0.4042172004281492, 0.27779723348672897, 0.6289385458855425, -0.24028241736583938, -0.16615368111578657, -0.0025929214319965577, -0.10543755136834457, 0.1428448967040185, 0.00983639772870686, -0.04831497223342334, 0.15346407517701544, 0.06711319758209522, 0.11216178885868691, -0.7566439747868333, -0.17218790759333114, -0.3147424022901491, -0.7735027471619514, -0.5531395717108197, -0.21039633451945292, -0.03385919398599796, 0.0799009760793016], [0.6883179811693974, -0.12971079604728464, -0.8444169569128291, -0.5487677522588315, -0.27304552754386496, 0.5249195892784317, 0.32984366937141885, 0.11089948786556118, -0.2844882577347163, -0.2938584826851118, -0.09792840948482417, 0.03285500864851279, -0.04293253874015997, 0.02888101499738735, -0.3958576578521802, 0.09105347374671424, -0.07195637361721209, 0.24444376767479462, 0.8641154301682912, -0.16544427260053576, 0.14162979717340965, 0.43861296195513927, -0.5443090226819268, 1.0152149374455584, 0.5503879702555541, -0.08739100625692017, -0.8364996992793559], [0.8614877009117964, -0.003198234708285222, -0.4299067717509675, -0.12167875983244357, -0.3312063152863214, -0.04985975484796001, 0.15120122699450667, -0.03313478687794559, 0.051185213158067566, 0.17538299158039414, 0.49685998598735004, 0.47619921450629354, 0.0770320555708241, -0.30268555558493343, 0.0720471818473442, 0.014550421849817084, -0.1064834279022622, -0.5233074404703392, -0.5221982521822905, -0.32710423748515316, 0.7252741441300347, -0.4519542354246183, 0.3777909736905518, -0.07758650296176567, -0.07290428738710995, 0.4966822061412486, 0.8184462674796232], [-0.10270444165316239, -0.262109575480298, -0.08812048382257845, 0.3386633893201642, -0.4696703499037946, 0.042642892669967875, 0.10779028981585381, 0.9858961974517498, -0.14319466590697486, 0.01444373426522128, 0.15699541771107023, 0.48242843061177976, -0.059775122325264954, 0.5274592421490597, 0.14856806136718823, -0.011366003603769605, 0.15254333439352802, 0.2072756499692255, 0.11451700695027528, -0.7393272185329, 0.2204469004967929, 0.11467157424629505, -0.8954186606098513, 0.1864040896520171, -0.3458319683112332, 0.7060349655608513, -0.1672380911267271], [-0.35255287851974154, 0.6679818840334811, -0.3810325909845778, 0.12723538964682962, 0.5902892571994579, 0.18222486593337828, -0.34137697580681603, -0.13921909984508954, -0.2784184086652243, 0.08282338676041154, 0.1519433692643295, 0.1029777051225601, -0.19270315977023006, -0.14808296028190543, 0.12422273848972956, -0.08564637040279362, -0.1782366819317815, 0.05217601930210318, -0.08478060037056327, 0.5508034671693326, -0.5408115841474198, 0.2556072256493703, 0.20215219379713362, 0.7696000788092396, -0.38892315191685156, -0.151686503176301, -0.37434912612129306], [0.44678678282557693, 0.6576394778274357, 0.01766439991536316, 0.3973705044766937, -0.35568359289810453, -0.0489309170485098, 0.24777645641155008, 0.708023481936576, -0.6679654299654975, -0.181934801824024, -0.0623834617304352, -0.3543403430603283, -0.41739240580205433, -0.2655348049033909, 0.15602969308942893, 0.1601588304605483, -0.33909725893515086, -0.3009063602929183, -0.03920107080672203, -0.11294854685230392, 1.2451798404754926, 1.3245148770990205, 0.26885407733064076, -0.363479835571826, -0.22334724851188076, 0.45013792254487767, 0.7365037030964084]], "bias": [0.12347701888402318, 0.24816880981919862, -0.21822570964525764, -0.14798236522597524, 0.005895861412049595, -0.21044092792496918, -0.15395526487216574, -0.10952681953819951, 0.31594625729701853, 0.20250144604386341, -0.11003401619444461, -0.0404596461269668, -0.13802632243318014, -0.005711022704794099, -0.041175709826067663, -0.0929231939262957, -0.13765232301395303, 0.2372798445617226, 0.10800865610156907, 0.1939860374008268, -0.15069698808847518, 0.14882845313734083, 0.05880101804413798, -0.15708367848387733, 0.24375827509811068, -0.03907946928741324, 0.23556560132271895]}, {"class_name": "NonLinearLayer", "non_linearity": "Tanh"}, {"class_name": "LinearLayer", "lay_in": 27, "lay_out": 27, "weights": [[-0.30106147490634677, 0.10355652856215439, 0.16374496286566714, 0.178137959368279, -0.5164588994822472, -0.44984512795012643, 0.18969631142659657, -0.02822160648553594, -0.5096173758131759, 0.023788105243707197, 0.10681285624657799, -0.5585097296103343, 0.04923800422055742, -0.17873782588636206, -0.218120588994374, 0.12898421520050823, 0.002100865423952428, 0.105008554709991, 0.3357176176055766, 0.2988564495457656, -0.7857994093768237, -0.1513451129391273, -0.5736437779629453, -0.2249762019962337, 0.24794576179042713, 0.40295363867692546, 0.012622019854084907], [-0.33658900469036973, -0.05771828128870792, -0.10022552091531231, 0.19278865009524498, 0.477464455135004, -0.15242117703060423, -0.003041049655789635, 0.6979976229388657, -0.5430844327986453, -0.4915220754468646, -0.16816258046739596, -0.4075151266089294, 0.16460387903681484, -0.10167499354934943, -0.4307169243547994, -0.9080894579928951, 0.03776813824865205, 0.24922808613459296, 0.16149806953842485, 0.42559133018309364, 0.124067644344193, 0.1508414854989345, 0.14451466392713344, 0.1814929000829265, 0.2717392061716762, -0.13969040325653528, -0.026215549545055603], [0.2244945005828998, 0.0020800813507697866, 0.6408096902010526, 0.2597242385540574, -0.4612035916524441, -0.4937000990592871, 0.19524907216299392, 0.03253646173447452, 0.2619586160876432, 0.2508650203394029, 0.11584211262854331, 0.0499809568252446, 0.19526622912097832, -0.6348034496909319, -0.1859102070477039, 0.38737312525581263, 0.8918750173588056, 0.1444331097090528, 0.11427782950848075, 0.28151550011761856, -0.10372283948527855, -0.499307130861159, -0.05949984730948283, 0.4389907346665002, 0.03986122224725924, 0.2090027160773115, 0.5945696899218486], [0.2685564572589348, 0.7113888409591219, 0.6403070965488709, 0.4175910770947018, -0.6104028667216216, -0.18782863410327177, 0.5847042746067521, -0.4054647896708969, 0.9428677310758674, 0.13191601334857062, 0.6790973332345974, 0.37922971803525446, 0.22566577988781486, 0.21158474058561563, -0.4483596945565808, -0.8402325831205424, -0.13123480739789262, -0.30343402690736787, 0.2087544576568864, -0.2797837174526072, -0.2594789692572587, -0.07010482908055288, -0.11715485324311699, 0.21667739764078559, -0.18013420182719778, 0.02224288950058764, -0.6931348303895097], [-0.017160732973461306, -0.06315704433841121, 0.4671332674276168, 0.08317857334325875, -0.2787080116663816, 0.5895677624471596, -0.2640510577791571, 0.1461382793757174, 0.13781899476670206, 0.1398998667142285, -0.07239755927915867, -0.06754029032722762, -0.3119088963434437, -0.260678117482536, -0.4034115531886203, -0.16521745487416617, -0.29519340623167656, 0.023648438094998826, -0.8660132929441386, -0.45612942375051113, -0.34432967667804876, 0.2356817586561608, 0.7547298489453681, -0.31739761917125736, 0.08828859714455546, 0.7393482269162216, -0.40937729233376313], [0.12899470723524234, 0.05829866729933109, 0.01943324393565281, 0.31663382727282813, -0.5417497480186437, 0.2568771542587434, 0.13836928380508182, -0.26314776371064214, 0.34978163783662586, 0.09124686742400415, -0.14998397382863454, 0.268204180497431, -0.6583073339238054, -0.37401078275979543, 0.7947066027206187, 0.0897363163886877, -0.0037193630512975103, -0.3622827607357977, 0.2847087189325711, 0.10709159859005125, 0.5861564022395523, 0.017503868570244097, -0.7496305040486199, -0.7849117579461118, -0.3985767853375086, -0.0522496189693798, -0.21386715155186178], [-0.1431980347937554, -0.2034449420602923, -0.3964707132965979, 0.4926637834032659, 0.5907166570601159, -0.523131594036247, 0.342509564986549, 0.37914262412561583, 0.1184942547210254, 0.09913734003792797, 0.5600544953849173, 0.3108994351425527, -0.118028686939007, -0.32673748469896186, 0.19380506267526537, -0.4957336359452999, -0.2717561936512935, 0.11977802319460117, 0.3467700635168326, 0.26072355439161904, 0.11002604761482036, -0.13032826805985653, 0.4372558433584046, -0.042776882297677975, -0.29475971837852055, 0.04382603175626209, -0.957500927526242], [0.3124397867990992, 0.5746486573810387, -0.199050544405724, -0.46000513301838203, -0.1944643212686931, -0.1911014715213324, 0.00782469844879504, 0.26247232508370394, -0.4132785260776776, 0.40972526402708764, -0.008175299659248278, 0.42123558986369075, 0.15723771850167317, 0.1012355186509919, -0.9056815184732144, 0.7732529305182935, -0.30821494915074915, -0.16482972493891593, 0.10696356275073615, 0.06907464343696922, 0.03224559982191685, 0.5619096346563435, -0.059577940769003745, -0.5133919121038535, -0.1485821671035163, 0.9350331210898963, -0.9793286019375692], [0.4722542630716948, 0.19875632272929014, -0.2066141243240095, -0.25797146962058726, 0.27503971250641, 0.23133099826248166, -0.06626803533218728, 0.0775709783245273, -0.4247799158955858, 0.458396718181196, -0.36685856543035084, -0.4182597192781167, -0.23993231421817005, 0.021246206163101137, 0.7154157054064442, -0.015062508841038054, 0.13032888125054293, 0.3938118129061562, 0.4802072450341566, -0.2759144465263459, 0.3276663267493526, 0.15705144379423958, -0.016570538204756163, -0.44008045065880436, -0.20478751646326102, 0.11949169892898225, -0.2897879413884242], [-0.05949921203741172, -0.2684761316992686, -0.684540781048151, 0.5876689574805272, 0.5489855321354284, -0.1190556367010771, 0.149936236790688, -0.31091782163199216, 0.2534502890142643, 0.4508282000785685, -0.3514851150849264, -0.1579890266059972, -0.06208344975273007, -0.48194584054648826, -0.646311815344853, 0.28072303657060593, 0.08609526064017446, -0.5833834598136878, 0.6658873711431352, -0.11117486428714228, -0.7629472832356694, 0.777713835268001, 0.15287012220553986, -0.5883586898028833, 0.4926711322460512, 0.18719934170928457, -0.47839384573750315], [0.10001993119322695, -0.1787933593050399, -0.02977456537634338, 0.04573480073621865, -0.23600626789319715, 0.22225420569674567, -0.4738952742000097, 0.8490614093336917, -0.0677953218661532, 0.27664488877294685, -0.06247042121701781, 0.6110860016898183, 0.10779159969771024, 0.22826786035790372, 0.46656430348558076, 0.27435096417062266, 0.49222584402938896, 0.15590314035426647, 0.14836219717995383, -0.28073664800549564, -0.2945875753997214, -0.228812281887458, 0.15755250356462006, 0.13968153691252136, -0.15578356653064562, 0.3449388668627867, -0.04744782147377821], [0.049162537424608306, -0.08467807396311437, 0.15702836041758397, -0.18231421436387732, -0.5481956983846225, 0.9511790814608558, 0.25894297831384494, -0.1692410458384368, -0.10050913829260917, 0.17765517589393776, 0.23073750607399662, 0.10844110981669354, -0.0435223541334341, 0.18954940733196293, 0.047878400422243304, 0.8956271563998521, 0.32683406540002047, -0.4019409432973514, 0.42833505887703355, -0.2173498294063238, 0.2232338775976929, 0.005169288873583932, -0.0483584735294634, -0.1570096247719426, -0.5169381769376864, 0.19925850002302792, 0.2190259225623794], [0.4119062248002031, -0.007533002510679109, -0.0369144807253973, 0.12998666107510484, -0.9420799017936474, -0.3880748308504122, -0.47213946623315656, -0.43274400205532204, 0.15780197471366614, -0.6841308491296983, -0.4880277437604022, -0.15924288344707288, -0.6212906959724029, 0.5416717407092904, -0.41740559714803616, 0.07376718925813143, -0.08175541935131198, -0.5431623496974801, -0.39133185022177486, 0.5839741516486727, -0.6832090054666909, 0.004095182804916916, -0.07708755045775467, 0.14504149559943721, 0.06479305061658674, -0.44473422113126393, -0.22984685593366241], [0.0958719542637965, -0.16135058642031347, -0.06572192641766161, -0.605775891799918, -0.1977179948780844, -0.6922957174834249, 0.12608448464911512, 0.4286116996471915, -0.07926819845161588, -0.5395631710071815, -0.06410579667629354, 0.3120928949868781, 0.517786039391121, 0.23340969459708547, 0.36034107917825836, -0.44141548541770614, -0.21488748928157242, 0.47451792818876765, 0.3779439832135551, -0.09478064489698337, -0.84411862211131, 0.0760973589772433, -0.7167571124015542, 0.05882069627685621, 0.517072979214048, -0.07227133055865148, 0.9696742379248288], [-0.10415651642369073, 0.4956438339427001, 0.36211558757268225, -0.2234019813356147, 0.4159527264228609, -0.79310400093155, 0.10380930708432867, -0.0412419411938778, 0.43630992569453014, 0.5374262212450592, 0.3123941064738755, -0.3056834543278244, 0.4083716988571717, 0.3136257174224286, -0.5050896775266357, 0.36188917440364904, 0.01715342635764139, -0.07328640510831194, 0.28256626224861975, 0.8216055529757664, -0.16268577784568608, 1.0433318527133832, -1.0421694305238212, 0.16547724709410822, 0.20303739442365573, -0.13238254635013857, 0.17407436222777192], [0.9369093984542048, -0.27853338177667136, 0.6116753232117607, 0.2299394750950632, -0.49363068708848157, 0.05773720533067106, -0.2352086313010223, 0.4089145153519627, 0.8403583131622873, -0.024469086308970375, -0.22385761306212076, 0.285204088371484, -0.2600070237434661, -0.10702106809451871, -0.2599677923798845, 0.5467918529812626, -0.4638376735605875, -0.05115972232577564, -0.19050584880828153, 0.5842787567559173, 0.4404460117649535, -0.49090665585358356, -0.219596812152035, -0.31494601591144006, -0.08314730140287054, 0.5155655965402399, 0.05994179316167199], [-0.38889216646105285, 0.19075184092780456, -0.1904446658956765, -0.08151521908379412, 0.30361101735410106, -0.09111342511855311, 0.19534739777745325, 0.44723237808695954, 0.3652902110663701, -0.17155702264277517, 0.30129356275237373, 0.130545576864283, -0.39398946102176263, 0.06563261758547421, 0.17514473521905558, 0.505539206448976, 0.4408703787815607, -0.2974618392370554, 0.3455839206839349, 0.08930244080303566, 0.33096926774512675, 0.27662720878632435, -0.42873986495927413, 0.5436330711572119, 0.09378220461727264, -0.15279392558013985, 0.3299039063838625], [-0.6393591582102345, -0.30863526474620484, -0.8916671038708176, -0.5259222197679033, 0.5425267561267069, 0.6959860823813153, -0.2679688525091919, -0.552540306999648, -0.31247114201757065, -0.042054239058304285, -0.4610908518181594, -0.12493568127962874, -0.6274392995366804, -0.6360043629606055, 0.3605766037935319, 0.7598234314050184, -0.19346274384719256, 0.3919126632719906, 0.15412449073167941, 0.13360341855752123, 0.31576991462677856, -0.04792839850473373, -0.32509716740885236, 0.06293280821306792, 0.4914376561136494, -0.8620269627428153, 0.4310178992185156], [-0.00034502883753622103, 0.09651774947632963, 0.4861952741784134, -0.5488470046035249, -0.19689236420096726, 0.21714715491524783, -0.7061151769245597, -0.4491482446794834, -0.5092120418968623, -0.15394184743749334, 0.18844408366495355, 0.14367305923469256, 0.4734351929154393, 0.7095154372889578, -0.0485399290993205, 0.017054213937295417, -0.2427268666664027, -0.47485544227837906, -0.12054662027856042, 0.2740335018196929, -0.5746526687759468, -0.05946593368082882, 0.43106289205542836, -0.5547701940724589, -0.19031929184720084, 0.027890040537527697, -0.133026201972309], [0.17720891899608432, 0.1803377732391018, -0.35772107578576245, -0.701502105510861, -0.22982490922568827, -0.35163420241094917, -0.04688807531833698, -0.4298211544144264, -0.12021240280372435, 0.35719052642209226, 0.1424502176785229, 0.1615606675827998, -0.334807241632199, 0.4153971266540236, -0.1428920963713839, -0.1080977961855652, -0.2834542279805258, 0.1210149173811344, 0.06598044254787881, -0.09485312219346324, -0.39948129280901096, 0.1375776853126608, -0.16298184633213686, -0.12478027753224594, 0.24431220759602673, 0.026663704810459696, 0.2446646427108608], [-0.0723315443767705, 0.458856184995111, -0.16691791182294635, -0.06072589886298844, -0.25622568276618674, -0.17539526176888565, -0.3475966912369278, -0.5035901793304564, -0.10474604544294745, -0.1118783726561617, 0.09338335337922196, -0.7391655781802953, -0.1205264200374412, -0.6568784816580953, -0.636292829578983, 0.48625906958473114, -0.326387107463038, -0.0037666753341582915, 0.39690379970277223, 0.003997609028537573, -0.15642964589266173, -0.2712729414825531, -0.44586509079320724, -0.6394569267556731, 0.3430886055742308, -0.3025752311926791, 0.8473084219373144], [0.28598493314707674, -0.2595372610431708, -0.06231977172037426, 0.741893065918829, -0.3212775847221193, -0.12688359521434991, -0.03963681572317984, -0.14822420168782713, -0.3357876847196937, -0.27829231874765514, 0.7422128345449525, -0.17081902336907973, 0.36234527701726676, 0.01120149639997593, 0.13057255186501007, 0.4201599296175055, 0.5247215686609363, -0.32073651005879533, 0.396019178383318, -0.3425610782270748, 0.042836314783087734, -0.3652297971471938, -0.7161687275889369, -0.44584260358847555, -0.16124599419036506, -0.10344522646626522, -0.36428836182873464], [-0.1736276371117973, -0.28718566066763834, -0.18995701605425885, -0.5857629955562127, -0.4827011216739858, -0.1626880067209644, -0.20722458051287088, 0.1125008824668523, 0.1332809471990085, 0.022438447633293664, 0.5095768989546191, 0.022477325600390664, -0.3960178950264723, -0.0744065582038704, 0.1944729841425157, -0.4778994539820366, -0.3531115153834765, -0.15900848457604022, -0.09390393255366465, -0.04869480123103299, 0.06660519989919593, -0.5021271156582161, 0.10150580021695273, -0.18903749657576369, -0.024653812477541403, 1.086722081155558, 0.059333016465288914], [-0.31590586788550756, 0.5718435446111155, -0.2930043995297749, 0.25464136934135195, -0.3903413172168625, 0.35307060079161723, -0.2140271770251381, 0.5170421484391206, -0.4263000902710405, 0.6770248920291076, 0.30616208341622886, 0.42070398790759167, -0.4498495067473561, -0.4389966545972938, 0.4112691230256964, 0.02999124264366571, -0.016129355796343066, 0.31335225977136405, 0.6353223031074261, -0.052540045420775054, 0.5281383758950391, 0.26893299716302727, -0.6434339364255713, -0.14776179311820895, -0.2990335798469002, 0.43674655172829663, 0.2900367603144379], [-0.5430686421005649, 0.6324631611866298, 0.5599425777969883, -0.5046529301931598, -0.03627940292303118, 0.40754723864639575, -0.31007888224891045, 0.14115443927580726, -0.24081547610316908, 0.5581074641030548, 0.2725020247688712, -0.419592922362546, 0.11521168909262873, 0.15596305032946883, 0.27176386766689015, 0.5523029305542659, 0.21866873491875513, 0.6641852209632236, -0.5415694694487815, 0.6051671221265209, -0.4946490898025392, 0.3334998819858607, 0.7208259262244857, -0.5004182911228199, 0.18376151346103672, 0.0794328970977854, 0.27427461068087244], [0.4920979591273555, 0.7503896301631428, 0.07082517620451736, 0.11746527324991826, -0.9151806371202759, -0.2121604336440565, 0.21661303028333231, -0.09669217693281004, -0.5184221901801443, 0.62137431020994, -0.3905143742491668, 0.12482882464235999, -0.0757208015944979, -0.20358202617855284, -0.06276970612762135, 0.11202696463370358, 0.14838113204697523, 0.5694618148149002, 0.22546352212179624, 0.045199601499065906, 0.131168094740458, 0.9280141168093174, 0.036230657875943276, -0.3475330445006938, 0.15147609656443, -0.08814875484519426, -0.11305259748659606], [-0.2778945143615733, -0.1572020626536959, -0.08234810615774453, -0.14194946011538673, -0.702356436308445, 0.3899336061092188, 0.35604165017918776, 0.173494377508078, -0.8155854623935366, 0.215644532117183, -0.27921194390552295, -0.191739671924123, 0.24416226476796102, 0.20291601668813813, -0.010088115366041678, 0.05574588666240849, 0.030362353589399187, -0.006043520531934212, 0.390664788083619, 0.13326681100601945, 0.08928494846151126, -0.22272228206489633, 0.29826956238572855, 0.3965663003560024, -0.20179904907098098, -0.4894952023834163, 0.10246649108315269]], "bias": [0.32155356203142466, 0.06132224406286793, -0.11775913015750529, 0.13115673186051444, 0.29936121548660494, 0.154790727267749, 0.0014888671959987518, -0.12417033727905584, 0.2161801250088587, -0.08459174884824597, 0.17097045061117097, 0.03213166010463505, 0.17708113009171844, 0.5014114989929844, 0.3947386465066022, 0.19143404833304914, -0.30727876891888806, 0.14635696973233936, -0.12844552730589032, 0.4020345548036746, 0.3566741892135447, -0.30297164681913175, -0.1352068546664739, 0.11204153310138906, -0.07901052966333143, -0.11108900300106504, -0.04032966356033554]}, {"class_name": "NonLinearLayer", "non_linearity": "Tanh"}, {"class_name": "LinearLayer", "lay_in": 27, "lay_out": 1, "weights": [[0.049404481709124225, -0.07418782914427202, -0.19106422611790108, 0.2991127582476126, 0.2768636003804826, 0.12317571936754058, 0.13335283857541486, -0.104317310499584, 0.1392646110890596, -0.24329555075721115, 0.1659960029783241, 0.35974329522435716, 0.38667559482918273, 0.27539494302522344, 0.1710750524245305, 0.09635620972493623, -0.37270469610135765, 0.37151956092323085, -0.22901746053546906, 0.601730558860916, 0.2636306801714953, -0.4839469106299757, -0.3707566227674962, 0.34901818198395235, -0.2542728454219021, -0.11684926353086454, -0.0141658788574287]], "bias": [0.2023716651571036]}, {"class_name": "NonLinearLayer", "non_linearity": "Tanh"}]}