{"class_name": "SequentialNetwork", "layers": [{"class_name": "LinearLayer", "lay_in": 27, "lay_out": 27, "weights": [[-0.2907368883552568, 0.7115199922801253, -0.3782602082680461, -0.18915436366304192, 0.2676145402998374, 0.3689903363497424, 0.7201251360179594, -0.2131111820849639, 0.5064364034029917, -0.21157256646226086, -0.07695056978839991, -0.46089590931543944, 0.1607123711327039, 0.06069216054870617, 0.11422182667860689, -0.39987154805566894, -0.18614141488090954, 0.0020113952805093094, -0.03133838215316938, 0.1960212170609964, -0.43083750302258195, -0.19260634898317913, -0.32331578632272473, 0.15283702392535894, -0.1433921558510648, -0.8701200985229522, 0.4642218696014264], [0.3113035804206262, -0.14196390697428157, 0.20202430302737434, -0.25667521460133985, 0.11285796390287066, -0.19833442960716582, -0.3988743028150365, -0.6147547168430544, 0.028605426192731674, 0.2341061717059774, 0.26078186503391704, -0.130380429787855, 0.009975371447708103, 0.42726566196621435, 0.38876720006379534, -0.07434027075782906, -0.07532031295468371, -0.3587819555740294, 0.1272762138087122, 0.1785445024853167, 0.698858599184816, -0.40396433689865596, 0.015674875209962174, -0.13017822852008576, -0.4462589695162801, 0.1381483544661272, 0.33764063001123773], [0.6206204922983733, 0.6985916237888307, -0.4704134692576097, -0.00739354155378712, -0.3292882836405717, -0.10216126629095282, 0.7506029582575886, -1.073636475575521, -0.08427532564544642, 0.10611066528743479, -0.4615301006147541, -0.041734820368388624, 0.0090065453237134, 0.010018364620468618, 0.5559945087872273, 0.05953553793768607, -0.2009363284348547, 0.23252563241879554, 0.074610636004062, 0.45957903725822574, -0.11877350423261084, -0.45871092046974216, 0.5634717480814231, 0.07328110707080213, 0.6258300015102392, -0.5260844562490122, 0.3351203422087856], [-0.4685905104840157, 0.02665826989683349, 0.12328165327660062, -0.34602382711443913, 0.015002258581659956, -0.49896788368473854, 0.3710890742776557, -0.8407399859895236, 0.5382208545963741, -0.11867816601587879, 0.09631058595788358, 0.30068018761811394, 0.1189352927490971, -0.12950046285761593, -0.12876686509073673, -0.03056084089696552, -0.3181115413233802, -0.028386941758768373, -0.503246919229697, -0.3801843599669416, 0.10154517546623361, -0.14006287311341326, -0.17410057898339065, -0.04804039038261639, 0.4949385431499855, -0.6665105379409113, 0.42107428587171186], [0.009060415522093407, -0.8511884702882261, 0.28081386333711816, -0.30186626521659077, -0.4026026950261322, -0.4156833470051094, -0.05379623167338003, 0.6121679164060193, -0.04050694942775064, 0.20619209312597916, 0.17929894837078558, -0.21590366902600425, 0.16139917422052372, -0.00799622125267872, 0.38609397982477783, -0.05827407155246846, -0.25001868763725593, -0.3117279063167965, 0.22700362585051745, -0.8384322184068204, -0.034203043283513285, 0.3928974414557605, 0.17379428952657433, 0.06122844006024024, 0.007122832478655687, 1.0461101445065868, -0.1147749768248497], [0.749598789154637, -0.04407707824541937, 0.4015344450989651, 0.021934755286122598, 0.8088344812920456, 0.06147478861700519, -0.0232304799615867, -0.5674250693897026, -0.6697860350299208, 0.09092500091509184, -0.33520033618634565, 0.38821429539099106, 0.19414893732680247, 0.027669817533793117, 0.13680644559645527, 0.11887928734780372, 0.2686270016469265, 0.5260674660965062, 0.4156759085582592, -0.34344834558719217, -0.13381012401449663, 0.06191500926536313, 0.6360619300931897, -0.2857369642762566, -0.07807134195001411, -0.2911263049714784, -1.1509858788649978], [-0.20649679027117568, -0.10529033513171233, -0.3744233248840793, -0.4293251275426426, 0.8690918487272129, -0.2958613544087379, -0.07245215784404735, -0.5189595767161578, 0.6549483628936132, -0.19060508823011113, -0.0206103824491793, -0.11323692453833872, -0.28614292063854496, 0.3742506649321979, 0.10355682175586929, 0.08785539107285599, 0.029043575443675994, -0.0841116590433971, -0.70770439476713, -0.09187449492729025, 0.05377644573028562, 0.3190481464023089, -0.07578144552266779, -0.35460207936423294, 0.09609316968834825, -0.05300357901530537, 0.41545214966725075], [-0.17616709644151113, 0.4131687001136314, -0.1090469122916441, -0.39534541637978654, 0.07899716348704511, 0.3614405462810504, -0.745212454585252, 0.24362673663760326, -0.4775664197172941, -0.09216975048612161, -0.015749975051851585, -0.48908875526068335, 0.04041257263537039, -0.17313932370199459, -0.11486825022594474, -0.19714934056369718, 0.07094426931121066, -0.04663903638647847, -0.05391227482662484, -0.008783512947593115, 0.010202624399680657, -0.8729506601310645, 0.12161656199723574, 0.4634946609996596, 0.06286042265281996, 0.5999857397631061, 0.20964586211016067], [0.5412713435510103, -0.13225975995363726, -0.5351698082300319, -0.028584745019572158, 0.653353124271628, -0.28868595315714507, -0.40912817997155815, 0.03888371453342736, -0.4292459377598153, 0.09415190366590452, -0.24566375460951273, 0.0656758455593988, -0.07284791331066866, 0.05135491429918666, 0.1994340682674371, 0.1145756515912733, 0.2348931778448017, -0.4196022754413123, -0.5246387375172558, -0.14585115757055092, -0.4673416197399922, -0.2952865603799203, 0.08329897761519259, -0.45055694275655556, 0.7272038814424224, -0.3630589589648912, 1.273782974191718], [0.17989096886737913, 0.2562488722000129, 0.17872110992661497, -0.6229347861333283, 0.3753151889038907, 0.12690740848033302, -1.236937632509647, -0.7493635367893123, -0.00789498947472408, -0.6238632143202948, -0.0592569491398536, -0.060193538579364686, 0.07043677036801897, -0.022626082801253854, 0.26937147769451064, 0.43348585681386975, 0.415824031579626, 0.005911884521118968, 0.5648645125085502, 0.18218201071940526, -0.25019676513223466, 0.39968065771769035, -0.3001278149877949, 0.151138913736894, -0.64476545178007, 0.6389870028659123, -0.6245420678383943], [-0.18095638357786634, 0.09498971327455084, -0.6108799824292714, 0.34983779567776796, 0.10587751058939687, -0.0975116177995766, -0.24242510908131576, -0.4206788706049058, 0.3882909856742536, 0.03572833784332415, -0.3715973731262739, 0.02716226651576524, -0.07139888116687994, 0.11437970346264095, 0.18798073650437197, -0.11362783957650567, 0.10919877339225549, -0.158877944456285, -1.175055481934749, 0.6238098226187404, -0.09467335656478479, 0.42964596135530403, 0.4746930812102691, -0.48621775957369934, -0.338075567943136, 0.028728496146651947, -0.2514208749976337], [0.6778957697225043, 0.22514075817329424, 0.0077575460359251445, -0.054071743046679464, 0.25311159474313094, 0.26695928855710166, -0.311499720032721, -0.7170548438225341, 0.24396156059852975, -0.20657046512342198, -0.2004441115208652, -0.4616580045682343, -0.4857593766480832, -0.023225309766542027, -0.15130757801714326, -0.28301989620264384, -0.6479346707348755, -0.057382142331732146, -0.0806109857770857, -0.09175424442672243, -0.6577193331011795, 0.19738993653307052, 0.5659559011365575, 0.3805308962116228, -0.11733624786378433, -0.1812338093285041, 0.11790303179312231], [-0.515618795015622, -0.020498359402563397, 0.058526810602557794, 0.35781468722851434, -0.9104671388756294, -0.031155070430437706, 0.017982325813614558, -0.9277115579663385, -0.10506686929229539, 0.2802497768302273, -0.07638644884796852, -0.07074014542278724, -0.30785815153548596, 0.4040458139248696, 0.11572950100921772, -0.020808454282384044, 0.11547065809405146, 0.11488778344039871, 0.06166991306437595, 1.03865509902429, -0.2995759548041734, 0.6008193364322667, -0.38547828271810997, -0.788933569295845, 0.37224473543988845, 0.007717319802254314, 0.9825660938231014], [-0.006494989551026648, 0.024518991859365964, 0.059377670860325686, 0.1178047208079895, -0.6352964733129381, 0.4470741756749239, 0.33790702381294363, 0.04714230985684237, -0.7160486955820727, -0.939032203549794, 0.2858552516487244, 0.19345085322184769, 0.17596471413786988, 0.06759427731877359, -0.21999620812507786, 0.06551337617077994, -0.1745189745342893, 0.3519571642209417, -0.09063610384663014, 0.5184324949542807, -0.12269658085055273, -0.4960690389879055, -0.16413095919513251, -0.03518077468544567, 0.4463261272465108, -0.4637708692343904, -0.02878360777379313], [-0.21887911607118923, -0.04511320275849472, 0.16434863216141413, -0.12347889030322472, 0.40333748542564335, 0.27676806990009784, -0.11099285158366469, -0.4126139115162501, -1.0404578637323185, 0.04126889691686913, -0.3074553263211285, -0.2771034368716941, 0.014591497301898593, 0.4085977053841921, -0.09493754596022619, -0.3089968627154364, -0.26220944784738803, 0.3373288698686905, 0.08529458605587038, 0.3225888075269054, 0.2838781875771539, -0.25889070403526804, 0.1831068600765653, 0.029992542103714902, -1.0745446707148596, 0.40143649760521133, -0.026100829096226606], [0.6483475369549397, -0.010820713380587594, 0.3581947414735076, 0.1357967838212129, 0.02949221943277284, -1.4704870171889783, -0.638770957411978, 0.13575880460809409, -0.19566051880695276, -0.12944258382173576, -0.1396456773289475, 0.010453822284996127, -0.04650982826263245, 0.21624736129766295, 0.219823506197798, -0.07039354668412624, -0.06468506905205072, 0.12254439156921061, 0.7840603189799393, -0.548260240196898, 0.06647949838663346, 0.5482813207397886, -0.45921247849538377, -0.7826848783954237, -0.0755530462249735, -0.29532955567341035, -0.11330443277691417], [-0.2733596445814582, 0.272326042193532, -0.369811985250288, 0.029642901400661944, -0.5013727853022646, -0.6167938508192139, -0.4331770370207781, -0.5332301644254714, 0.03940449623883741, -0.10903645556807003, -0.1424179491479329, -0.5903498085182289, 0.14218477049677855, 0.030194386550710522, 0.21475417774557337, 0.4166059082347473, 0.37703975644432114, -0.5087643327205251, -0.09818897514123262, -0.20103041569741906, 0.4933166440417954, -0.20402623198376754, 0.021955044854987626, -0.21921371621726624, -0.06564532368127857, -0.8068621160844096, 0.48169713526652996], [0.4920587860551961, -0.07039641488795421, 0.4667771767440001, 0.2549219422703985, -0.5260154191461742, 0.9837752616404967, -0.1863799542002087, 0.6505031651939458, -0.34359868533837756, 0.05478892277902453, 0.09640293639033949, 0.04775848379927847, 0.28053537928650396, -0.32482659503042377, -0.20264681582591673, -0.1342640566388792, 0.41144177790996783, 0.4258816106203389, -0.1645656974331656, -0.6054445679474548, 0.3989571794380972, -0.19394862500548513, -0.5377525525591168, 0.4691053523497582, -0.20358948594265558, 0.7943022634950968, 0.297839636158305], [-0.37913670542167577, 0.03520503887594733, 0.7452614050747934, 0.1634270385360661, 0.5420549006222466, -0.09132623197236238, -0.3161814473125814, -0.4761574088905194, 0.5471703240612432, -0.26032151953812105, 0.09626277306624952, 0.11647589977339412, 0.33173556889136924, -0.4334148344221891, -0.09003914490323345, -0.06092854326726009, -0.17779921408881866, 0.033949487012488795, -0.9834420325957709, -0.22856100570623158, 0.45319549637783463, 0.07659098200739711, -0.04426554457888082, -0.6697931060501957, -0.5634559581988928, -0.12682524913739526, -0.028049977685848576], [-0.02559924522148201, -0.4423224431797277, 0.3152354026645941, -0.29583791896677697, -0.5128829292364888, 0.26305161249907477, -0.17949571686534702, 0.6018978630535577, 0.0725377123051278, 0.365794582058026, -0.08061232199464881, -0.26560522573501033, -0.4960183346461439, 0.14943533951733345, 1.1743872634247912, -0.06629848861251136, -0.579298973502116, 0.1204392394387493, 0.913511466461624, -0.1820884524741832, 0.4020338552471796, -0.8027774240658735, 0.6117218460681859, 0.10212200838864399, 0.15028136727806082, -0.3669050398359285, 0.1048047072625296], [-0.2770892705839206, -0.39414227434760624, 0.06905894946451539, -0.4677560983347736, 0.46963383230138583, 0.475018762977057, -0.20827266285855633, -0.6193439224415359, -0.07437397063358327, -0.23538558686871972, -0.06260775066157773, 0.0687425428740498, -0.0912670421639185, -0.6361697342265417, 0.22317123799353328, 0.27374651144796197, -0.055897558620969706, 0.14530287703851322, 0.08403125311903051, 0.1943479492163805, 0.6313034969686814, 0.5490521832000941, 0.6350125373555143, 0.085236960218179, -1.0940968452405175, 0.5307612667222011, -0.24340728160137537], [0.39576598478041636, -0.008522186482652955, 0.7930161536990953, -0.3958663093518135, -0.11640483545444263, -0.37230178481402154, -0.19598312398082482, 0.29655773956624515, 0.6310871546773067, -0.20603808544495128, -0.19550661900171057, -0.05251016230438866, -0.066104230907696, 0.2648910447032498, -0.0005661838343629502, 0.11064159573712787, 0.2394714400388622, 0.290895581078749, 0.22922415432557208, -0.7217781191510155, -0.21625428766274774, -0.2615243856565026, -0.6563684808262988, -0.6036739958099953, -0.23513587940359915, -0.12639350453177, 0.08653812645923327], [0.5863851786927008, -0.12569459389263038, -0.9296568108862465, -0.44559930746020765, -0.2738522109143782, 0.5461508052697897, 0.3004333174393794, 0.1917796761850941, -0.22419564018281557, -0.3444718899292536, -0.15750155356928783, 0.013138679889835967, -0.13656005286862827, 0.12517410708957435, -0.268783169143451, 0.07355467037325729, -0.09732940917179952, 0.15230434378137306, 0.6912589871079082, -0.3134332662181491, 0.19233462607728255, 0.41539368310124075, -0.5852930192847576, 0.9893422891631968, 0.561413838162954, -0.12561285771643457, -0.8413951877220822], [0.86057388677585, -0.10507186608477169, -0.4957989816216069, -0.17427610529277, -0.18453548942141196, -0.04748814552783, 0.2807045527749099, 0.11656089135327266, 0.04730651117049074, 0.19098890280642444, 0.5980380237792884, 0.5672118132744036, 0.08690656657559709, -0.3743694726116663, 0.031199482803837816, -0.008221779050863881, 0.04270493933535176, -0.6280135580923207, -0.42965250130383453, -0.3103358417659497, 0.70599558467626, -0.3271749740376961, 0.35460955595628263, -0.03575702440382137, -0.006428356571722862, 0.4542217061279333, 0.7018423243491091], [-0.08443126044303426, -0.22101912931357637, -0.048353838785694936, 0.36953553840283215, -0.38244574003213255, -0.006943731821166261, -0.0037302268305982357, 0.845523295224615, -0.18597145008773422, -0.017240955771145185, 0.21472540485024463, 0.5441416002250175, -0.03783392555331169, 0.559797985436114, 0.1268338464902934, 0.05417516135833617, 0.1798586243787139, 0.14297170428077038, 0.12236985819106572, -0.789175404669311, 0.1607710633267319, 0.1143818490031355, -0.7512551517759014, 0.13793938555975233, -0.43152907939585733, 0.6917899056012533, -0.24356968898955217], [-0.3281953487485305, 0.6181438157157235, -0.3029207594960255, 0.2028020107373101, 0.49362842282792496, 0.1444173510498023, -0.2748027311691193, -0.09785901848782569, -0.2847318051379534, -0.0029044124027354456, 0.11117019005125124, 0.006606632676105444, -0.15268951257307012, -0.15730302005419636, 0.21697288067036638, -0.17975386473375884, -0.1233869897822434, 0.15760864027666208, -0.11842168278502743, 0.5845380091575055, -0.4190371157881423, 0.15166490782329925, 0.17396389552619054, 0.7285913126926846, -0.3713094175972099, -0.1704182024593159, -0.5328852531703275], [0.43726965951230756, 0.5024843462016464, -0.053839422513702294, 0.3013914290574675, -0.3536973816803499, 0.009130088563443755, 0.3566747912669559, 0.6546502175998699, -0.6214166340741664, -0.18858237313520299, -0.0873304550800624, -0.42541035092251356, -0.383504537214393, -0.34439982370038413, 0.14767938097523306, 0.23174754295717712, -0.38146945426052664, -0.2098183487052283, 0.10477092584445048, 0.07037866144702265, 1.3766551255172466, 1.285824913782743, 0.26204927965348257, -0.35955235228761245, -0.20410892513346282, 0.43019445849205534, 0.7349243230342847]], "bias": [0.11799034795736124, 0.20381683942401524, -0.21460064260988432, -0.14376011713623205, -0.007830950073526067, -0.15179349386710073, -0.1116294942287798, -0.09387250199346557, 0.29005523364201746, 0.13290253553097747, -0.09368162652375049, -0.04105892312265624, -0.06770355271715142, 0.0009233224294358885, -0.13060258124578986, -0.0680977846073267, -0.16087934243153879, 0.21490117581188647, 0.16769300939038984, 0.1738761142648111, -0.09401465787788678, 0.14478887083299502, 0.03590024438382097, -0.11373364550727082, 0.20384750437205437, -0.01883422880698457, 0.16786850844306198]}, {"class_name": "NonLinearLayer", "non_linearity": "Tanh"}, {"class_name": "LinearLayer", "lay_in": 27, "lay_out": 27, "weights": [[-0.2723363687732498, 0.08575407509957651, 0.11988571102463288, 0.13598775448308778, -0.590141030074936, -0.4215484837067489, 0.2981631022875124, -0.06710546268353744, -0.44925111014490976, 0.04677029514061646, 0.12773264933870823, -0.4546130468919666, 0.010241881439012526, -0.14451983623809883, -0.1972094790647216, 0.03737804225109287, 0.046801046665152515, 0.04903115792007327, 0.32205124349059483, 0.22809458631479224, -0.6602598676983653, -0.24264823401164773, -0.46870972408621264, -0.2529423436905951, 0.17490057311022356, 0.49653245854578454, -0.07603886741043621], [-0.3853800268350289, -0.10498977719796065, -0.18107752502649757, 0.21631819102877303, 0.47272712390970567, 0.01157864378564197, -0.04581044444390015, 0.7627366531745203, -0.5469960131368149, -0.42987560650070555, -0.2252799370049702, -0.3634068859580061, 0.0919798641552363, -0.00536646485116043, -0.30156999173775456, -0.8302026687435731, 0.04322005753525586, 0.12971723141317268, 0.15581636822500816, 0.4113553237347357, 0.21186137532574328, 0.10556872178637626, 0.15159148798353508, 0.1659458306618251, 0.20305682876715828, -0.055506565043830974, -0.03476682668806093], [0.11373075161086069, -0.07021991736750548, 0.5276679461643384, 0.31439407441047296, -0.41557161784254915, -0.3789801759209996, 0.2266257417089583, 0.04238109980608905, 0.3023830557129248, 0.31268343448388886, 0.08312898645851678, 0.025591570584111708, 0.07307731241199711, -0.5908272128007145, -0.18867316201384315, 0.34812996084246467, 0.8660110480478207, 0.043344064448313076, 0.17779611334313072, 0.2463699264256859, 0.02473695180593049, -0.4958708832917931, -0.09060426992145648, 0.5511669435582099, -0.029073463750909512, 0.20969472405132353, 0.48383350917237067], [0.1408997808828919, 0.6990069992416489, 0.6469618344729983, 0.28395607439900616, -0.5975803698576801, -0.14729321984639138, 0.5325309130020454, -0.39335361744085257, 0.9341347585213274, 0.09701980209856566, 0.6704738431716147, 0.38886625259262647, 0.19980196525913296, 0.17150438606926596, -0.39618048100086256, -0.7487452627345379, -0.1563973186357406, -0.30212209012412844, 0.13017011500464679, -0.3305352060687454, -0.3196413879778146, -0.02406915648738799, -0.08237166551861189, 0.20248272907540527, -0.12423051099345787, 0.0499262992624023, -0.584480532768161], [0.0026956793450442045, -0.019954272565125736, 0.5235331647615331, 0.13924933722678126, -0.3335231953454027, 0.5494459228954567, -0.23609947670848808, 0.14400625784453977, 0.1737876642332882, 0.10654389693660321, 0.0549986974015326, -0.04414860832292785, -0.21757688925337615, -0.2889366486929383, -0.41003873344295916, -0.1881842516268238, -0.20656692927399004, -0.07698784491537887, -0.787841545176171, -0.46663684424980967, -0.28674789374931353, 0.18433816477547077, 0.6895127686036484, -0.34843365384819064, 0.08273884617043102, 0.7033993909238854, -0.4743440108441793], [0.12901587119451238, 0.06879931742072357, 0.10488081368043442, 0.2695095511154166, -0.49345463418617264, 0.19665263838997551, 0.0586103849654232, -0.385077048391301, 0.31031000991681, -0.04505710337661525, -0.09557336425174047, 0.1436033653751198, -0.604372485250706, -0.4184430785163821, 0.6871354464727056, 0.04985461582150331, -0.03146648944528961, -0.3058326544445013, 0.22316190420212711, 0.20430004291515086, 0.5087051460478527, 0.031657958503997295, -0.7525297595208491, -0.8229513096732873, -0.3319052579848871, -0.11394360967010288, -0.2561300841795922], [-0.21298052254242872, -0.1865766372764009, -0.34572084889650134, 0.40082995222456513, 0.6427911288142751, -0.5380335769455263, 0.3549557267530781, 0.415067634951812, 0.09379045378358655, 0.09188661244320043, 0.5734959404669839, 0.379445721041169, -0.06396491819085211, -0.33270065422593864, 0.16976285823172726, -0.43267570024489627, -0.27292281395343454, 0.19847673958643058, 0.3637292312382633, 0.21419051426571065, 0.07218652845872531, -0.09636342628179363, 0.41923017822083386, -0.061807695972327235, -0.22562985087316723, 0.08995558046684812, -0.874158992107975], [0.29811165592946737, 0.4918558753820751, -0.2787139651317185, -0.38218204607023337, -0.1791594151316165, -0.21656534099006583, -0.020210995325711936, 0.3022004809672519, -0.3778122158792629, 0.3795536287193127, -0.10655086826138603, 0.3331395156252929, 0.09397490325224027, 0.25337253169834373, -0.895296661368194, 0.8171005296292593, -0.2943148683221854, -0.2207814130402892, 0.07424568197022408, 0.055351861241342754, 0.05061169399004373, 0.540356906932337, -0.05254329414121137, -0.4840156971802152, -0.16151114716265333, 0.8778724395342477, -0.9207057669940053], [0.45636304082340723, 0.18706654081898366, -0.12826999846533713, -0.289684833469324, 0.24820107970175934, 0.21362156370803018, -0.12327526039944182, 0.09163189807470845, -0.4213697655741868, 0.3775895379827263, -0.32715514970980797, -0.44665971694282874, -0.18782708714753646, 0.004252433726504466, 0.6492235328889369, -0.05403295918011403, 0.12056669591892244, 0.44280710894111625, 0.4540042818660581, -0.26808299754261905, 0.2201378160472606, 0.1488054293147202, -0.025027798452176037, -0.46512854726246755, -0.2038979945054657, 0.14178674430484217, -0.3046114110337655], [-0.01243686959549106, -0.28373879932752716, -0.6799527960541512, 0.5996020409448571, 0.49345555547769393, -0.09716586436337599, 0.03164564239565239, -0.2813456067957369, 0.19488212837523033, 0.5465858842759689, -0.38206240150905885, -0.1466518479805112, -0.055489340145541764, -0.3704765101430316, -0.5866909146020809, 0.3578149940184863, 0.11232581193554478, -0.5758655054460128, 0.7015320878877647, -0.13149346830526748, -0.7411838475590937, 0.8363990725746757, 0.12590216723911685, -0.6277064813623895, 0.4671825826274195, 0.17852731522933726, -0.4232549194434676], [0.015620670618104, -0.11367168576463157, -0.11180897402404899, -0.027747887793659512, -0.1359749985770716, 0.1825439801992354, -0.38489260439415246, 0.7721763062333692, -0.021224676673710488, 0.2288466140633872, -0.037035795029496776, 0.5047135699804869, 0.08306423582418726, 0.14473051618081484, 0.3959131674548702, 0.2945688074505142, 0.4723694572331341, 0.19197897175989334, 0.14720906822194793, -0.24793746524986904, -0.31276945669963163, -0.1345706307239065, 0.14894713375301397, 0.22495495679375352, -0.08333355021399864, 0.22290325307728792, -0.0991846863983343], [0.133720509299212, -0.020468124723178938, 0.2417660688450068, -0.17069120881558916, -0.5501398620231635, 0.7860267964638686, 0.23824038074626533, -0.2094728248575063, -0.1381078934323241, 0.16481238688831867, 0.26602730452150886, 0.10568258776620722, 0.05203633781081873, 0.1396307129831615, -0.03140329258263819, 0.7411462699002666, 0.31599118692349054, -0.30838915416620555, 0.41869965051680297, -0.13623118312267027, 0.16005376015929268, 0.019616120714134523, -0.023662370533459466, -0.19228388016316425, -0.5095085551863688, 0.16574132383551352, 0.1367522248550632], [0.4099686983507594, -0.013617001748542535, 0.0010893773544739134, 0.13115842707489891, -0.9993738075735361, -0.38298563126737367, -0.39899460164498507, -0.45596030340577426, 0.11751500970769788, -0.6583854073740215, -0.42586850239254886, -0.13116647548218724, -0.5514325773215083, 0.48386420026499116, -0.4300703736671787, 0.1052091555830115, -0.13203921160859092, -0.49027030453770504, -0.3707148719285377, 0.5402357029787399, -0.7446013605859545, -0.015201414320224118, -0.04811663103579216, 0.07196814376318947, 0.10837107906750257, -0.4208003403239349, -0.1634006759778663], [-0.00677370828972227, -0.17649415603618335, -0.09057776958036727, -0.7048506742224178, -0.23373697341786337, -0.5244354003722113, 0.0893475527802156, 0.46761414791453637, 0.043031766369482624, -0.5648770722264554, -0.055538337487268365, 0.3408787248135352, 0.4758289980919402, 0.30212225405509924, 0.4472691144364324, -0.4061012977545759, -0.22899243798180902, 0.46403981345097656, 0.39140834768053867, -0.08035284146551507, -0.8034331850132048, 0.0767109818896389, -0.7103237879605252, 0.06993954366709411, 0.43852118094711645, -0.06737525554432489, 0.8803213715900939], [-0.07192707954475754, 0.4393903454902895, 0.387867754999082, -0.12494017612226563, 0.35695807257704193, -0.6017295979143513, 0.25688980843863324, -0.02911155133014487, 0.5376546318751876, 0.5734547196098048, 0.3050105214811273, -0.18919139426858825, 0.37611114201304274, 0.3807691614592946, -0.4417978709777889, 0.30077512056759204, 0.11404779095986918, -0.18543965934805942, 0.32089645021941815, 0.6872035198746853, 0.003915457704913881, 0.9385753004464022, -0.9840998115193033, 0.04223614813368846, 0.02582345298060377, -0.09063452888845099, 0.1355453601082812], [0.8007141273032095, -0.21160217954601376, 0.5994162454308181, 0.15293116228623332, -0.40690950759658245, -0.038152125224914644, -0.13860236890204206, 0.39782737081873454, 0.7934442509879259, -0.07551648970486316, -0.1571982422996079, 0.2754511386347133, -0.21301360591379775, -0.20931893746966324, -0.2960419638674274, 0.5225510868840486, -0.47751133143285823, -0.03786184760107242, -0.18620772379441694, 0.5989141003787158, 0.4110930091591495, -0.4603465919244007, -0.23589818010920963, -0.31928038764541117, -0.031138559993994785, 0.38628028827674776, 0.05200691229608017], [-0.3082814444091639, 0.11799615254060046, -0.1793440711270566, -0.03339208838976022, 0.25415439015673436, -0.09217477762446843, 0.19097877892534434, 0.4512080107072147, 0.3522330360939632, -0.15290920726261117, 0.332922288234252, 0.11253470116679085, -0.38728646904071795, 0.07373910556520726, 0.15283554661143692, 0.4275680242575216, 0.4210546019956541, -0.31470223966170036, 0.28866503067446025, 0.0363950483683196, 0.3704948472346563, 0.23045419691307992, -0.3715700379503683, 0.5727205624210006, 0.0598426771796724, -0.19813779703962886, 0.3950260269254728], [-0.5577988596127123, -0.3371974091307997, -0.7591279625655843, -0.5254606686384875, 0.43509374978590254, 0.6915596615350815, -0.2171124015650103, -0.5434694248786831, -0.28143693566703243, -0.07640678919847442, -0.3916978169645482, -0.1144476859875394, -0.5818505114475574, -0.7641788106355409, 0.290926420473809, 0.7561645198269046, -0.14787513014545348, 0.3762377694169922, 0.12158739436101387, 0.08038065062801714, 0.29435222228811136, -0.08450537141976978, -0.31247673203083853, 0.055838311621979726, 0.48810776637997877, -0.855669808995827, 0.48734270363005666], [0.00732318974476196, 0.014361375127952427, 0.4315035387139615, -0.5054006006031224, -0.20568914170527255, 0.2512753512978197, -0.7160854632034775, -0.36569753136128885, -0.4487966035350225, -0.07159081137152869, 0.11464355710840425, 0.15494278722131583, 0.40411799680287874, 0.7848822978005433, 0.04535052834331333, 0.03313632285027233, -0.21419262806590988, -0.4832087370951655, -0.12708959057511002, 0.2265288559944157, -0.5238045025076215, -0.09135919319357182, 0.4495377734504259, -0.4984473589773702, -0.2523479171295849, -0.011970239059105992, -0.12700672567206403], [0.24592149203579944, 0.14250478884990445, -0.31492915740424327, -0.7114955105779719, -0.24741336696386912, -0.3769018389137399, -0.07373119663364389, -0.5368300436325583, -0.14089927775958588, 0.34062574279350805, 0.21208001653476413, 0.17438755808089898, -0.30868912841808643, 0.42687482576268015, -0.18941333762452456, -0.04041622183234651, -0.19365479944106034, 0.08326871726911986, 0.07955169836745388, -0.11503022863540754, -0.43386982888829384, 0.18608246348246285, -0.1305199108934918, -0.21490752932230586, 0.2953660879218488, 0.10944099931658555, 0.18738796225299154], [0.0012948459821726839, 0.39317508783050426, -0.1320772865133276, -0.038296126487666206, -0.2910526137674022, -0.17645139024778916, -0.27955099660560156, -0.42502508495698915, -0.020794299123649763, -0.07436993701150219, 0.10872828865383663, -0.6143877986634112, -0.1532589615325058, -0.6201570911801211, -0.643528940770395, 0.4960260722654762, -0.2364046353803836, -0.0348228209258205, 0.3574379087824751, -0.10645100773248148, -0.14210716544156732, -0.32584470380813074, -0.4357852556219874, -0.5659439199920314, 0.2554938708945506, -0.22961901308498792, 0.8467654059250312], [0.3196365549925818, -0.24863247896692833, -0.10033459268684813, 0.8022451773412602, -0.3886878962975097, -0.11139394243652365, -0.02410636265012966, -0.0726043339385588, -0.3432941210577491, -0.15342262135060267, 0.6537257206925552, -0.0946423332556943, 0.3206975924444595, 0.11324672999430593, 0.16018676986937266, 0.40410548558184506, 0.5756211475416633, -0.37317861738658165, 0.46580820310385074, -0.3833984133029692, 0.13207654018877296, -0.37603682939199873, -0.7115538022005992, -0.38374286731556595, -0.2205731585424581, -0.08482696736641594, -0.3690264379302067], [-0.19689179656709857, -0.2753567150777642, -0.2673973338247401, -0.5332270648695626, -0.4183318591750167, -0.1690352182631814, -0.27566662630199595, 0.10674325656827009, 0.08433666476664758, 0.0762040000228412, 0.4458158907178331, 0.01460905501186556, -0.42290232414529405, -0.04121133156879055, 0.2051130537812289, -0.42651790363010367, -0.36538485529654885, -0.13174395837706115, -0.04882180961602564, -0.01686194032965293, 0.10999123566823077, -0.40256180777184064, 0.11051351123900506, -0.13486641149761525, -0.01724969951671265, 0.9628639312413254, 0.0700837782372902], [-0.33798566867980695, 0.5513629299999159, -0.18216611040930983, 0.1943762814550257, -0.3362131565289784, 0.3792035700623972, -0.2874496419483105, 0.47735903126673795, -0.40205536628022204, 0.6675271195873591, 0.34034524152808854, 0.40667077565392135, -0.3962763954889991, -0.477590450228549, 0.37396977496244416, 0.08546768022068482, -0.048151914796543474, 0.37763578348598587, 0.5749332416778238, -0.025806944220118377, 0.47067215791162526, 0.27874676881400445, -0.6484123834447921, -0.1797201014485773, -0.280659514997961, 0.4410570687194875, 0.36964753428075814], [-0.6316916408716147, 0.6855079307757546, 0.479468634444153, -0.4810317325698516, 0.0024294986885119224, 0.4385073691608188, -0.2734980850421274, 0.18749576383438515, -0.22243687405745946, 0.6407888477754781, 0.26691767652572174, -0.4480595162897296, 0.12661644264652144, 0.12483715644288518, 0.33391481847969706, 0.5394643320206367, 0.15804740327289674, 0.6809835395244994, -0.4542421143045032, 0.6150042883423581, -0.4150579694278868, 0.36551553856203794, 0.637626125304682, -0.3829439798347976, 0.14682544023710592, 0.02589817425088991, 0.2632887668836978], [0.4247787646875833, 0.6164363388159816, -0.0016711515716616484, 0.17864387637323245, -0.8649482355854914, -0.19540897068713672, 0.22400971598622668, -0.07868066309413851, -0.5517145498492148, 0.650688856511678, -0.40399364218646727, 0.09136024825564558, -0.16042296081905175, -0.12761391172207284, -0.01709454341757263, 0.07421155171608293, 0.1495308309817426, 0.5454967218133874, 0.21057676742342402, -0.026763161339943938, 0.22814382324885202, 0.8193053197996296, 0.11362983886341892, -0.27346321067018936, 0.1292197601685948, -0.11281030341688515, -0.07523043014219108], [-0.19553834377925342, -0.17129816446821813, 0.07156491948855467, -0.12264166000171568, -0.6891778735888143, 0.32039917444113536, 0.38570527787075365, 0.013109841057348845, -0.9423163342122701, 0.07076640878588575, -0.137270223323527, -0.29797034352344576, 0.35227147488259186, 0.10112007920808999, -0.12570663126676532, -0.013138933237841809, -0.06646159674631752, 0.09502011994449269, 0.45995899271256996, 0.12759059568438266, -0.02950156013477225, -0.2591957543475072, 0.2458094166615004, 0.30604072505609664, -0.19035019860978883, -0.43140766076705217, 0.11228495519580212]], "bias": [0.256521551911152, -0.0015719741365046432, -0.19173779267020255, 0.12508260887007805, 0.2298638507383074, 0.1642704297619758, 0.006780726817786842, -0.13853430916706133, 0.21869022835945987, -0.08240921163666125, 0.16167315621756906, 0.08375946958226022, 0.18180316656358964, 0.44241106481452497, 0.2688930225789949, 0.1919713015209402, -0.29346883975778926, 0.1391757074147022, -0.15179411713830163, 0.34878683462306215, 0.25646308191995393, -0.2980211110334225, -0.10087000239101818, 0.11711785020441629, -0.08883085170968413, -0.15497422378882084, 0.002127526169567222]}, {"class_name": "NonLinearLayer", "non_linearity": "Tanh"}, {"class_name": "LinearLayer", "lay_in": 27, "lay_out": 1, "weights": [[0.04629618237242066, -0.058585325740939526, -0.11262430462960471, 0.3183355626592214, 0.26045366183378077, 0.13468283639706605, 0.13007413776442803, -0.10649326748768247, 0.1440060017441856, -0.27298895939289747, 0.15531900883160862, 0.30069253576395566, 0.4147034918255207, 0.29424556355869336, 0.12208556420927141, 0.08273549453639527, -0.4092356753095313, 0.348647777658667, -0.24896418413951696, 0.644515221798654, 0.23893034134132224, -0.5156850046934075, -0.3751228397776695, 0.34362940829142763, -0.24417940948977057, -0.06945671134203245, 0.0061567511566080636]], "bias": [0.20453331521636894]}, {"class_name": "NonLinearLayer", "non_linearity": "Tanh"}]}