{"class_name": "SequentialNetwork", "layers": [{"class_name": "LinearLayer", "lay_in": 27, "lay_out": 27, "weights": [[-0.19870477062731892, 0.7457943876122072, -0.39875652179172527, -0.2333744516279665, 0.23997415150212137, 0.3348098794798523, 0.9125684004209959, -0.25148984342241865, 0.47250917043101426, -0.23362026895483368, -0.10188744408534851, -0.4719199496992863, -0.07116714988410112, -0.00035456559577782436, 0.13490423864879997, -0.46873628367784625, 0.04657367795033293, 0.03624534639557564, -0.013069701894758272, 0.4338778209051639, -0.4722174693294868, -0.03562417447944508, -0.33063625326057927, 0.07519500499996869, -0.20628975783314066, -0.9160008563901604, 0.4463562179834713], [0.266799202397692, -0.14138830056167864, 0.30169759654669237, -0.257741907558833, 0.06910383962854547, -0.20486585390595285, -0.4352534968454755, -0.6500435889502946, 0.16089165926946633, 0.16548005023698686, 0.2837905094576947, -0.17111887624116875, 0.001934976690470415, 0.5381798165312088, 0.38951992626026033, -0.10245375598022234, -0.07645371057179134, -0.3692757128191447, 0.0024239620747549427, 0.26102459247681686, 0.9200249530504504, -0.45435036452493754, -0.08138215196291869, -0.012167299203859852, -0.415585662038509, 0.1347616458598749, 0.2451542744457901], [0.6944594060014116, 0.7694478956226389, -0.5473460047794818, -0.087180666060184, -0.3359475031605048, -0.12926836831449537, 0.898690548661795, -1.0820850695551387, -0.20596077561847426, 0.029391657577838504, -0.32893307186939946, 0.026865144087504105, 0.10309409175346858, -0.10394085048510161, 0.43703031451558577, 0.03733779579221101, -0.19679048426940282, 0.19405823827082389, 0.03876004490177241, 0.5640909217585145, -0.23720339911414165, -0.17237389178042953, 0.43826358336156906, 0.11745730675071735, 0.6125986445312899, -0.6169225755392733, 0.2682849351989703], [-0.5231644725624675, 0.028865008628747087, 0.1272365066089674, -0.38580643648055996, -0.0347230056958192, -0.4367573818645745, 0.4384926126858832, -1.0163696114522942, 0.5593899492867662, -0.10741722493954874, 0.08653989433850104, 0.268031746028811, 0.15484115401836882, -0.05586434902532402, -0.0853275349989282, -0.1263371949811296, -0.23384960469331836, 0.12993937153135562, -0.5904696864123241, -0.35883141448357697, 0.15312663259830508, -0.15879884409296155, -0.19863770190181199, -0.055203631399899075, 0.5085895057037773, -0.727875395431228, 0.4278535200904997], [0.01792926561588728, -0.9109099267937202, 0.31473428533922615, -0.26155761171350206, -0.40567459572247927, -0.43567784080503447, -0.14273562852967273, 0.3842334709334426, 0.06372004419133084, 0.24848989418553433, 0.17054504487540006, -0.07073816813015811, 0.267246850018541, 0.044501544577943114, 0.3642554368050916, -0.10585105240970619, -0.30096514006043396, -0.21739953767737347, 0.25333106670861727, -0.9353569152419378, -0.06132947336683101, 0.40671047682727124, 0.19295963365061458, 0.04819357042811059, -0.019579668875676824, 1.2015461340213685, -0.13508117782213822], [0.9091439710653286, -0.14860354519801705, 0.4035186603740142, 0.028006105669552837, 0.9422985718071303, -0.08481264337056252, 0.060102852547874425, -0.2629119410700298, -0.8003826969700482, 0.07294590754245671, -0.2056375616671471, 0.26711301220828965, 0.19193155643578375, -0.012351962965429661, 0.09998561145285288, 0.1107541026600977, 0.35482842787936536, 0.6475861108149674, 0.36919091197008236, -0.35718938353553803, -0.23248001737200372, 0.04815479603637008, 0.6167368583873759, -0.2623747038707818, -0.02219494122564573, -0.3574769342863607, -1.2950404538280313], [-0.08668215772994664, -0.09202092287943386, -0.41723490338014185, -0.3732959732505706, 0.8648043793451005, -0.34604751963296015, -0.03640780722046085, -0.5024074783749551, 0.6682860265920983, -0.22914733420819716, -0.047179977783157835, -0.04742779684856852, -0.22946380271491268, 0.29697256020249363, 0.12873611944520275, 0.05501971211102113, -0.16146421737987102, -0.006280642800826353, -0.6458359249742852, -0.15872910050664982, 0.09561238148563543, 0.279099037979002, -0.10273773929947273, -0.3761550666415038, 0.05146674312469652, 0.003547933844775944, 0.5707231658208061], [-0.19196647995102734, 0.4787049588931451, -0.1168227475008208, -0.4220449430702651, 0.11571138550171976, 0.34724003011550886, -0.8625773599570951, -0.024839182581089345, -0.43110657257058677, -0.08301409162655894, -0.14503117000131294, -0.29474851584971345, 0.12509425317353215, -0.15927466993092176, -0.12046981712638136, -0.1289035957430441, -0.019826539394233872, -0.03809503450343982, -0.21340563615884364, -0.11317610781084717, -0.0584693421879365, -0.7558471254278694, 0.08818113513401134, 0.5204068076004212, 0.05551452861585898, 0.6435540283136775, 0.28246627263750473], [0.7396611927575096, -0.1308252373202317, -0.6086764371078208, 0.07635007727534074, 0.7185528173449811, -0.34228270448775266, -0.5516732029515313, 0.12828513561885913, -0.4333532107846553, 0.052603156970658475, -0.17987849479631624, 0.1774930838458111, -0.01090889204931222, 0.012159694469909648, 0.26804906848166965, 0.07844779298554545, 0.16632162418782628, -0.4205971384350853, -0.4252977404828436, -0.278973574495224, -0.4964494830789368, -0.2604494158842746, -0.008493954850643866, -0.4669826894393506, 0.9326057288084855, -0.41091722941560027, 1.4737763673777067], [0.23085075844211492, 0.29680607728910674, 0.07183081443577735, -0.7360286774165529, 0.4649224380440501, 0.18766463027836605, -1.3134758755716054, -0.7166059622056273, 0.08407352911884763, -0.5499595184289985, -0.1332751710038156, -0.10909367687396275, 0.06425767927799868, 0.07002681255180009, 0.2857274786799092, 0.41573392958550837, 0.3852920679192754, -0.09453003995577568, 0.5767184315850202, 0.02973896344627833, -0.18949374523196452, 0.3884796057614768, -0.30463274890010794, 0.1069968867633336, -0.6150650476166598, 0.6080784180039759, -0.7170804161557557], [-0.335505133858129, 0.15239862805030763, -0.6335665331007444, 0.4045674507972504, 0.20066598211475875, -0.08053775509491094, -0.30452085547896274, -0.5027447215827592, 0.42947635070542917, 0.14776664756097851, -0.29050483220295736, 0.18212667992106388, -0.0458831276933725, 0.19716383643598664, 0.17993416855007183, -0.03625154589213294, 0.04536596213984404, -0.13890944591151835, -1.345142034374901, 0.6625892523326826, -0.1462122067187923, 0.3948667799046178, 0.5089148210510512, -0.5946956410376263, -0.3937807549153793, -0.01912477549983264, -0.23416829239901576], [0.6197956615938628, 0.2557969042287246, 0.005904788004247211, -0.10353349623214109, 0.25953335298415126, 0.31681502272628415, -0.39497742495721255, -0.7359582580236655, 0.26023083506951855, -0.2075899468666501, -0.26469427198667583, -0.42810673998402343, -0.45083061596080914, -0.05736203317277136, -0.12162719087772014, -0.17629255570677727, -0.7034440853368334, -0.19815758222311436, -0.2209605336024659, -0.05615948632047267, -0.7889342242509905, 0.13173808765405803, 0.587277683206347, 0.4628179787479137, -0.07216001666277445, -0.1666795424957318, 0.1726825966435428], [-0.6492943385253037, 0.017925541713024597, 0.08142424566852602, 0.3753876746171262, -1.015632917435881, -0.010494421753009709, 0.04237311062112442, -1.2290216607345372, -0.10621602414199958, 0.33095320603981465, 0.0006555500299649791, -0.012484168800388204, -0.29783849997061496, 0.324381181546602, 0.059375567306605356, -0.13055750337661462, 0.06083150893202403, 0.23368495045046872, 0.0815187367319245, 1.0522939902153299, -0.3867370156802246, 0.6386662734092932, -0.3959322762574091, -0.7952209443236826, 0.27257863613962474, -0.030645952643328544, 1.0893550428079526], [0.1408109168833425, 0.09362067613341811, 0.055195818867809915, 0.07289677930985851, -0.697734334104013, 0.4320735534577373, 0.4335149919033704, 0.08765301269915099, -0.7058235818652544, -0.8982376323213431, 0.21387425041568792, 0.12943597805958051, 0.10804931037881065, -0.03650074182444321, -0.028434125071165873, 0.18202409734736205, -0.10188653721556881, 0.3607872250738091, 0.03027967243237699, 0.6374515109968427, -0.23349622242114523, -0.4002491720821102, -0.34910838858138926, 0.015650858584722774, 0.5862579631379667, -0.41064465229927427, -0.056652703817133554], [-0.1873743837638402, 0.10904555127941738, 0.12627091039697316, -0.15530821223578753, 0.49753131488749974, 0.304297293901961, -0.06530803671410217, -0.33782985657242404, -0.9876737414368012, -0.0330380371308488, -0.27390339394902874, -0.2251938886732524, 0.07792549661119669, 0.5479052535886552, -0.11508337742846825, -0.07801170451164191, -0.19400428108840692, 0.3904327179643006, -0.1138301108191719, 0.26128433280797325, 0.26720631372512454, -0.030665433008467184, 0.2631955133009852, 0.07995082882913693, -1.0366024033830714, 0.4605809614765494, -0.03693707053679258], [0.6279092916395722, -0.08379995698113257, 0.4586696182541362, 0.21180718990818087, 0.06583321508973648, -1.7253833275298354, -0.4984941798420892, 0.07772926110203628, -0.2213004929010782, -0.13028062666552334, -0.17274535790812115, 0.0071639399528906, -0.06686073998052677, 0.26235479371000897, 0.19832056700773393, -0.10589879857663886, 0.015288111163146682, 0.30571398305446923, 0.6411879588020252, -0.5657210744938613, 0.07664844964666369, 0.6591151260854137, -0.34670264162886966, -0.8552188006148983, -0.32004749860850207, -0.30317764714326506, -0.2519076727245859], [-0.15171293481718234, 0.3108615623960088, -0.3235827688550958, 0.08192000081079445, -0.5364482795888407, -0.7093056809706993, -0.47910138114284734, -0.7271362449678446, 0.027099311051576463, -0.08195595561217622, -0.047087451214903105, -0.6099073103477515, 0.19308195013028734, 0.08823334332041273, 0.2252445385703633, 0.31965484603002503, 0.3461367994072004, -0.3321448210229347, -0.2527750688389114, -0.24305613963173334, 0.4483097642772574, -0.1711187439503347, 0.012312955470861541, -0.2615051991666475, -0.13799409705734747, -0.7342042963824497, 0.5086070649860774], [0.4923072180796336, -0.040744370592276494, 0.47713686516003356, 0.19998195197109236, -0.6322580494800947, 1.0300704482948033, -0.1674460251291281, 0.6522071374133658, -0.3498258564185077, -0.028751425899352662, -0.05211128217125514, 0.044208927848862524, 0.127620674116165, -0.33112634570256816, -0.23823497292394633, -0.12332288544279449, 0.35510718604360175, 0.3286102308216592, -0.2517130737821146, -0.6450710466434838, 0.5921948565297595, -0.14577081283123386, -0.6541974572625229, 0.6331436906658031, -0.15695483491824125, 0.726687172223241, 0.3300927768000723], [-0.5079014535876906, 0.013560703723627764, 0.7433256658194652, 0.27411648069152644, 0.5932978596947796, -0.08750028257286491, -0.27512589184579556, -0.6086433515165601, 0.6410572195534412, -0.0987693480367203, 0.06267304019201628, 0.14957957037121689, 0.16180937901718215, -0.3650709655111373, -0.09790627352714851, -0.16392678312783107, -0.22640245568728362, 0.16092504997898446, -0.9288146921224049, -0.22993140750358226, 0.5844633229404957, 0.06414019986225779, 0.011254611302208485, -0.7807214974059563, -0.73012032390382, -0.06912298035895809, 0.032109683544073786], [-0.0027006882103160876, -0.466684352193322, 0.24564179912334352, -0.41247802850713927, -0.5844934504625164, 0.2406120763216059, -0.3314326809955522, 0.5638696364281771, -0.022551658103815018, 0.17233069817851432, -0.07761404972781817, -0.2359972911653544, -0.29935503638565236, 0.023036275229426247, 1.0805112560741588, -0.10237770478183184, -0.5368877669794689, 0.1265661628237985, 0.7439256655964921, -0.10665908821924158, 0.4899966081607624, -0.7441607344191667, 0.4875354872304159, 0.2398348575326962, 0.18254798966488345, -0.3891687185103906, 0.12625116565708722], [-0.3120247925153036, -0.3480991960434034, 0.12219778897928121, -0.36355975660933565, 0.49623801326751493, 0.4651033498314554, -0.378711403628923, -0.6428364567049879, -0.11346101827635183, -0.3667605017350003, -0.0010262589309325055, 0.07646168580092004, -0.10818202674332625, -0.4377890564863276, 0.03013878359580697, 0.23402001102400175, -0.16238519399924473, 0.3726042213699569, 0.13568503597338563, 0.18068288879355754, 0.720168692283045, 0.5317584817653327, 0.7036761617147089, 0.00011395018845207299, -1.1466112141684572, 0.5618362527092944, -0.24678421587158192], [0.2620548796071484, -0.16675565253882862, 0.671939408285067, -0.5073109998568447, -0.04365545805386025, -0.37545880942428134, -0.4108660506555465, 0.2709256385075713, 0.6483696611237165, -0.23475117959720046, -0.21129184020594627, -0.08126353327801289, -0.11933710834097434, 0.13015102630062333, 0.03542463966090892, -0.09090255058904709, 0.1895645554397057, -0.002696986981449051, 0.10649765318975188, -0.7535211790358411, -0.20207810921006827, -0.3285219283967241, -0.7801301288319282, -0.4502816920225788, -0.24694019325401567, -0.012478289574538564, 0.06728404326917047], [0.7035889867891086, -0.1744697402178653, -0.84716427571853, -0.5758199051631852, -0.2819382251687221, 0.5263932219734118, 0.31783312140713943, 0.1676101449178733, -0.2596508694619793, -0.24634268739711807, -0.16365774018637783, -0.0327892689882151, 0.04563043831475493, 0.052231836227330804, -0.3831579151935347, 0.07041168899197423, -0.07485201299256768, 0.30215424241190014, 0.8365194180537415, -0.1475041124432836, 0.12680932833790468, 0.4564971463553064, -0.5541695701837773, 1.0003034313333254, 0.5952620474481831, -0.0396805645131514, -0.8872397137351485], [0.8817926051435104, 0.026359011370294304, -0.44651962387601013, -0.10203375808056572, -0.3238631587136721, -0.05476148931096351, 0.14552938356422337, 0.035793552158919745, 0.06340240365007564, 0.19714495728991427, 0.4834310962877237, 0.5801392476767506, 0.0451300230022729, -0.286064288413348, 0.10814105898581043, 0.006915785198180711, -0.11389611050268811, -0.45815906931797434, -0.4689129589704194, -0.3335696869462003, 0.7199875450770539, -0.45516847687172185, 0.3516652097036788, -0.12460219969701161, -0.022195457509671123, 0.5304808880562742, 0.8217453768628844], [-0.06169520319354868, -0.32189652423989784, -0.07677445559682641, 0.3217355469705428, -0.5291985789126625, 0.009234408543483202, 0.11744752595723228, 1.0060753565315046, -0.11456611660836524, -0.006064295507528367, 0.1683605390216453, 0.42667263312309106, -0.025824049091855556, 0.5187240819742316, 0.12936115413074598, 0.005596203145588543, 0.1693982707103763, 0.21231113976099608, 0.05480524730281489, -0.7602232276983366, 0.1937293713609626, 0.1255669210203646, -0.8656430262085538, 0.2424778076402647, -0.37898005906619414, 0.6897901905956931, -0.1569325444716466], [-0.3185635572602541, 0.6436497297840565, -0.4382944563495499, 0.10323717163361032, 0.5508673632572402, 0.17025307968230144, -0.34505057345725243, -0.1505938025573723, -0.30258975220490303, 0.04715905731860448, 0.13300677640168027, 0.021121044176838917, -0.1495580973397198, -0.18415878914396736, 0.10891199724810466, -0.06353126483150344, -0.1851577129564735, 0.01767396353097454, -0.13160084354659113, 0.5299989298089145, -0.5114719005859493, 0.2520251811432089, 0.1682810793252673, 0.752286230438958, -0.40709535194949403, -0.1842507478849077, -0.4227169308029118], [0.43653005975189696, 0.6676269531251011, 0.01832655328732102, 0.3748080999482235, -0.3562703131768597, -0.09603848288455202, 0.2678432117154308, 0.6711320233365462, -0.6857733734025727, -0.22268227280259, -0.0749927441230661, -0.2704605641418734, -0.45008556239205627, -0.2855287433142406, 0.12981933589950637, 0.18036267660711627, -0.3530764349901117, -0.38096276715078314, -0.06893388089257042, -0.16700309795029425, 1.2333873590927715, 1.3181381707630258, 0.29601566902177956, -0.396512531801532, -0.21807378638403752, 0.45461839015584515, 0.7523860599200721]], "bias": [0.10957373757523091, 0.2777052335863002, -0.21265914462355293, -0.133809638455386, 0.028575583111959558, -0.2043745670261597, -0.1581878156354391, -0.09885512826100876, 0.3294776743248089, 0.1629919881959749, -0.09788200545042755, -0.044892271005439355, -0.14363602463015404, 0.06273872070570194, -0.05005173796939546, -0.0923027173757636, -0.14842637410149037, 0.23141490560280076, 0.10020398995357986, 0.1584298396385373, -0.14418707787130514, 0.15556794815257152, 0.06503489724471363, -0.1387543926550439, 0.2181768275855167, -0.0925423818954257, 0.22337284765792695]}, {"class_name": "NonLinearLayer", "non_linearity": "Tanh"}, {"class_name": "LinearLayer", "lay_in": 27, "lay_out": 27, "weights": [[-0.2549919916922531, 0.09183720783373629, 0.23295244393206496, 0.21348421185448113, -0.5555981132240896, -0.4242290260765965, 0.19182173179150747, -0.024810050350957676, -0.5387229945745797, 0.012533709541892772, 0.10341333479885771, -0.5310561666348296, 0.07754864194012866, -0.20651686961626073, -0.19795481881482968, 0.14151069371765476, 0.07601992109284046, 0.0701354017354121, 0.3364282378517685, 0.2692932275696691, -0.7548329077366199, -0.1870156257952484, -0.5814649405365258, -0.21336880664976957, 0.20568074604151224, 0.430352046722775, 0.013040867978482563], [-0.35013630533455675, -0.06000937234989082, -0.11452709109550727, 0.2154441244342125, 0.48141195362299877, -0.14150538067358, -0.015470948399926035, 0.694861787365448, -0.5307094263379774, -0.5057877348289618, -0.19603382851325307, -0.40270885108437693, 0.16063489297819492, -0.08768232326941361, -0.42360441095834933, -0.885601329249258, 0.04513955525921223, 0.26454782151243367, 0.1805497912697738, 0.43656128395916827, 0.13239131040638658, 0.17065019900589862, 0.14453604293356037, 0.19139809949036973, 0.26241519086617016, -0.16664726662707108, -0.029117193147494357], [0.21075395664215643, -0.016331430601027434, 0.6516111846904327, 0.2851671326386169, -0.47360562428382436, -0.4631462852805451, 0.1773966513393787, 0.05377581899545051, 0.2693446499690701, 0.2550717848419158, 0.10718681053500025, 0.09565162508002852, 0.1748381793812284, -0.6113838056771589, -0.14949536638999036, 0.41168012697535533, 0.904409117506175, 0.12108014930513235, 0.12967196948401158, 0.25964342232430687, -0.0626687056446577, -0.5221753187920682, -0.03519093850016163, 0.4365565700002149, 0.007564174894714915, 0.2331795944884233, 0.5661078767460253], [0.2970534007013996, 0.7100692180367151, 0.6439227928871801, 0.38451582406778434, -0.6220369670263021, -0.19677194919432087, 0.5565214597327065, -0.4137919904976197, 0.9212842626816258, 0.1220790441342947, 0.6865613069557506, 0.35842447961827834, 0.2311845343237993, 0.20923685635079567, -0.45937433712521875, -0.8891922600124037, -0.1659343899443001, -0.31092718434577915, 0.17419806752555927, -0.274712187355535, -0.2763184697253072, -0.10255385998449786, -0.12327264003697136, 0.2162984746564204, -0.17160092446033434, 0.042368377680034014, -0.6933249752248152], [0.013673819666212216, -0.06086663563600461, 0.46360113585078994, 0.06489794002217232, -0.291124609322645, 0.596953848926135, -0.24202747402326655, 0.14856099543647835, 0.13439762469181127, 0.15706095910576245, -0.055249198671900965, -0.06425243584580694, -0.31157112501083994, -0.3322869728662152, -0.3759319240336249, -0.1721335204347138, -0.2917737128190099, 0.017020228118993033, -0.86438494148323, -0.4806845350454149, -0.3356175642439087, 0.22965886290526005, 0.7244113777883329, -0.3085363319356908, 0.07869398364825554, 0.7655416735251941, -0.4041449102020486], [0.14001127253324905, 0.030553297890025814, 0.0668423263209173, 0.3171405785109514, -0.5746279373534939, 0.23725380086507494, 0.11218105947378608, -0.1924805965173237, 0.31707359069640656, 0.08921424033868594, -0.1237372797900957, 0.2705214017493353, -0.6533758005366173, -0.3571582084384013, 0.7840635406013027, 0.03411267771444717, 0.03395688180383631, -0.37354219615118717, 0.26834314909149026, 0.07880591635255868, 0.5981006176548241, -0.03126721938911839, -0.7568058858908365, -0.7734579065991114, -0.4241250302969842, -0.00021992134976969285, -0.24265162043987423], [-0.14007827901716774, -0.18779300921043943, -0.36942966755372886, 0.48707308792431, 0.5931874771077054, -0.5232195989083479, 0.3628319222933401, 0.37375835627637344, 0.08403601503918252, 0.1728321504001577, 0.5959053531496646, 0.3335258010676166, -0.07178918481560098, -0.3391491556376749, 0.20192324058713323, -0.48505765861626626, -0.2619813637226759, 0.09600656593782265, 0.37813690233514446, 0.2684553739830606, 0.1308161169448908, -0.11643107561492363, 0.40037034862651866, -0.05467541770089039, -0.30194682403943973, 0.05481040103302104, -0.9665579950803028], [0.3064689997532298, 0.5704328451692275, -0.21005178747457767, -0.4414148454229487, -0.1936711257943125, -0.16099879826315128, -0.011939005272343439, 0.24856692543764922, -0.39575013861984676, 0.3756708631349794, -0.0550301389455018, 0.43146721082468875, 0.1157999935096309, 0.12052999332739006, -0.9136443810218591, 0.798730832143784, -0.31448425488677983, -0.13964533964760154, 0.09618061329193585, 0.1002833695826704, 0.02872748504670433, 0.5938736014201199, -0.02863238103801309, -0.503783188200485, -0.15300801576763326, 0.890755886608326, -1.0089283164304785], [0.4806134807694677, 0.1962207373694631, -0.17707907752307925, -0.2798163905595834, 0.26757501827012775, 0.2240652634188899, -0.052380720436857944, 0.0701768712310438, -0.43891030249525836, 0.4757049055127018, -0.32995841940559956, -0.4193698691746574, -0.21997670892055277, 0.014513371357749856, 0.7117229904995647, -0.020505698572080854, 0.14398292362220785, 0.3811818456849184, 0.47391971430567803, -0.2821611367733206, 0.32977721904137747, 0.1250244283006308, -0.03268039174997215, -0.42190224917209657, -0.20780008112015316, 0.13172293634755589, -0.2859506273089731], [-0.08269787125718993, -0.2803761754097061, -0.6941663976007381, 0.5928647658359568, 0.5583716893828241, -0.08032644738575657, 0.1365798508271579, -0.32673796046425474, 0.23809043751080808, 0.45747823212176003, -0.33932183370326024, -0.1501710827539897, -0.07852555965351093, -0.47996059019818266, -0.6317011614800051, 0.30530682337287673, 0.09082459278546592, -0.59331900525912, 0.6844151914188873, -0.111931708108703, -0.7298340219555022, 0.7707307253056651, 0.1554230159936779, -0.5954660615969757, 0.4751027051342923, 0.19129040472865178, -0.5180804351766691], [0.10359473774158409, -0.18194307159853043, -0.021188580624313506, 0.026180620549786086, -0.2417630484891928, 0.23545550168324006, -0.437488860956818, 0.8712796317915609, -0.07510487390326329, 0.30727264820538064, -0.052887328555365494, 0.6334300563677703, 0.1213240649664791, 0.19741946731957022, 0.4581290995509345, 0.24094086668519218, 0.4643296719406664, 0.15093877625691, 0.13784293321330393, -0.3466279387851582, -0.26482774820127275, -0.23010458445334223, 0.16486791985167754, 0.13730759787693445, -0.16551672628214079, 0.3434389537133869, -0.0561388867576175], [0.06375217578699556, -0.10743501256802465, 0.188126139492843, -0.19174292799640613, -0.5621841381621207, 0.9530320132682208, 0.2534536918371187, -0.1677711716365794, -0.10252722488845051, 0.14246721844404994, 0.22560235925718242, 0.09657410407705595, -0.0361688495867655, 0.1968548783885216, 0.04363719764193994, 0.8868994988223841, 0.3276018573525041, -0.4250649769873375, 0.41288920915900834, -0.23356733274893626, 0.21850105115394017, -0.023299122807961026, -0.04505931712764474, -0.17697218192540534, -0.522763640507573, 0.2069707554828974, 0.22461970711051146], [0.4136877416486379, -0.012706490696612225, -0.025650830518364733, 0.11414264165414406, -0.945169073534469, -0.37751746838403766, -0.46995083340274857, -0.43845237019544836, 0.14924521150848838, -0.6753497761202607, -0.4945729359254883, -0.14860621709911614, -0.633966700227645, 0.5350444260596683, -0.45378411458122675, 0.07971811507632254, -0.08623813240355196, -0.5598256619102481, -0.40702153520000006, 0.5905615092298705, -0.6894576127748203, 0.017169203518857246, -0.07794565703769499, 0.12355586085320847, 0.05665840800469042, -0.43265902215362834, -0.2456639026387725], [0.09507654317337319, -0.17996594987979012, -0.01675138554126108, -0.5825293757107978, -0.2170188200382984, -0.6884506166193615, 0.1096924140348155, 0.43173400646799803, -0.09980902071607398, -0.5854372184684429, -0.06292586544151067, 0.31828563329512954, 0.5310259489453518, 0.24199588979514935, 0.3748711026851741, -0.4861686131437489, -0.1828253396251505, 0.5020004401136748, 0.3855955814821816, -0.12079118518925622, -0.8141390128151642, 0.0299709828539898, -0.7340947934397966, 0.09550889826690968, 0.4965870908870753, -0.04610202248971718, 0.9685116561811654], [-0.0897332456902609, 0.5177841615141934, 0.38767125474591535, -0.2035084427964617, 0.4217125011558933, -0.8254609085852209, 0.12491170113253047, -0.017526620206498533, 0.417582529152168, 0.5806254353614727, 0.30287236378245, -0.25612858007792105, 0.4202663149709836, 0.26740049929805304, -0.5224073764857253, 0.3749433248439662, 0.0572979869817024, -0.09096554631293943, 0.27682628712798074, 0.8114878490083931, -0.1526982013289093, 1.0783018198849121, -1.0446043564787428, 0.14933361169130613, 0.19859229284850244, -0.10596505532025087, 0.19094909752243255], [0.9768400192824488, -0.29363111706723055, 0.6329973682842575, 0.24265166900609708, -0.5262916888004389, 0.07352258926267374, -0.20868789859321724, 0.3907258447801749, 0.8121974494919655, -0.026588602186581413, -0.1935796634857069, 0.29554006132891586, -0.25430793934919754, -0.13969642505629132, -0.24173005401093972, 0.5236571677149011, -0.4515775236842398, -0.06797330023777351, -0.1693890775466725, 0.5526977936957927, 0.4838874520730429, -0.5354090559911836, -0.23871178809768054, -0.2937054592835102, -0.11350868286940116, 0.5369125381493051, 0.04558998632710784], [-0.4011705440993409, 0.1790469563593428, -0.20381824637640053, -0.07090254847567155, 0.30784911037925927, -0.08052435903846925, 0.18291680346428987, 0.451300112739015, 0.37212906264579415, -0.16463243006343603, 0.2748328578975926, 0.13430402415873582, -0.4362156816311173, 0.09354912139444373, 0.17863194136996693, 0.5219867185246161, 0.43274063104128985, -0.2832159128120802, 0.34768217718602906, 0.07991008688684705, 0.32626185479408515, 0.29039944413947555, -0.3990692211722429, 0.5227438742602286, 0.10039134645089623, -0.15258993852059552, 0.34731599598064455], [-0.6587751793566592, -0.33413128696005573, -0.8702102291391003, -0.5704592512963916, 0.5323595722587009, 0.691694143533608, -0.2935565731312201, -0.5393273173472813, -0.31344988975094984, -0.06354955422450041, -0.45590581347289333, -0.1372516783797347, -0.640397365936226, -0.6052521938811457, 0.3287048998836019, 0.7164996166354016, -0.21128130325194286, 0.4072078842844099, 0.1275484685133363, 0.14907973205865396, 0.3086509319907184, -0.0525554928786, -0.339493074463819, 0.10300071109206024, 0.49028593106939433, -0.8609600986273584, 0.4286702536185952], [0.009602869425351839, 0.0745587581387641, 0.47749553203257095, -0.545374909506781, -0.20168342993866986, 0.24651640544780004, -0.7223994530546155, -0.43959373930274326, -0.4737351818419885, -0.19244646585894537, 0.15325452050405455, 0.14002655252798146, 0.4273374847962274, 0.7422523857149013, -0.03429282018221986, 0.0023480892327401143, -0.28076103521328094, -0.4875318614999107, -0.14525350882519597, 0.2588848329380848, -0.5826563119101688, -0.0959074618647958, 0.4639226952468923, -0.5817208761201806, -0.2031868500260715, 0.03773820403940568, -0.1374086605578412], [0.21511574551760637, 0.17832080461522498, -0.3016761696590063, -0.7208243539996761, -0.26455799098759825, -0.3399430563575302, -0.04717018790282002, -0.41525005151593847, -0.11201796452873751, 0.340774500300807, 0.13388005467377737, 0.1549447045368521, -0.3370856423894979, 0.4136812404542619, -0.14334771316871156, -0.13560091711061376, -0.28839061203600724, 0.07908812710018104, 0.029902125631310787, -0.11940410877449545, -0.392799915536308, 0.099863088900638, -0.15592564948899731, -0.1251304855457079, 0.23028475659326697, 0.04727033219766983, 0.2520854776560873], [-0.055891291210924045, 0.45793667825600387, -0.1486931195632071, -0.02778190075170545, -0.26797454842839546, -0.1972460646621092, -0.3308836129470647, -0.5068103667944859, -0.12397818273709284, -0.09693543489745134, 0.06498948265404879, -0.7083411957985527, -0.1007593036475674, -0.6552752817226757, -0.6579930637394112, 0.47830467398001125, -0.2920556649943188, -0.026472507620448893, 0.3944924504411738, 0.0030901113071280396, -0.15168286095688066, -0.2524624069202339, -0.4459262961406406, -0.6802058978899665, 0.3474034196828513, -0.28770272024099874, 0.8928688359671482], [0.2890806588714157, -0.24510873620723786, -0.08278060179590707, 0.7596058170839783, -0.3258189952957703, -0.12239588730548652, -0.027305950348393775, -0.1690134057294856, -0.3306469893268461, -0.26996822542438953, 0.7339695562846771, -0.1692857466555188, 0.3624673567625802, 0.016505533032822785, 0.1677677132164005, 0.4360197450025802, 0.5270310588951964, -0.31677759291227375, 0.4353863546254956, -0.33814212127400306, 0.06264626990809148, -0.3574016947706323, -0.7184766106078677, -0.4572908077486499, -0.16822956068076492, -0.1105719461316633, -0.3563923746333553], [-0.19115811026573556, -0.3334449586361371, -0.16858770550463045, -0.5746629126737961, -0.4837209955970215, -0.13756263271535027, -0.2265006110827964, 0.11733223626290924, 0.14015564857548482, 0.004762913099257812, 0.4971825874408738, 0.031336577360070055, -0.42942731975231857, -0.03383972341955076, 0.1754292236822095, -0.4667416925884205, -0.3402435604322717, -0.17197037848980662, -0.12646061989513221, -0.042965459746287134, 0.06939308077933173, -0.5099678837680665, 0.13808968980029368, -0.16713623828743743, -0.03638797071901308, 1.080200357765571, 0.046988737888511545], [-0.3333558277808446, 0.5741630864698377, -0.2687824582286305, 0.250278476312007, -0.3881991472021936, 0.3508369510926998, -0.18358577555912345, 0.5168519725374882, -0.43359409982673036, 0.7150358114954751, 0.3384707818101747, 0.4145689744502099, -0.4379160905416047, -0.4364345478770899, 0.3812380328899953, 0.009884191103840617, 0.0029295426311275845, 0.2901849979175163, 0.646073030302476, -0.05138648965782549, 0.5469602295360264, 0.26390232920362744, -0.6585657552010339, -0.10583789865233141, -0.31014233774248284, 0.4349782704230345, 0.26241533244194404], [-0.5651124358001945, 0.6140129965846727, 0.5416973307132267, -0.4762435153296544, -0.03178239804798196, 0.4136512445734577, -0.30606068582747953, 0.14171878600734797, -0.25053280516064014, 0.5521828670904401, 0.26189864890205666, -0.4008725619512881, 0.10091630411930735, 0.1679098493347866, 0.2817969006393389, 0.5606213853876773, 0.23624429484522144, 0.6811956731347542, -0.5230788458057932, 0.5865959297205356, -0.47776230889058197, 0.33525665374765123, 0.7486921888109084, -0.49819228037202623, 0.17669581003142878, 0.06464631127715878, 0.26636235298012423], [0.4981677007634902, 0.7414307554646448, 0.07913206459300241, 0.1328159176346928, -0.9354455631778696, -0.18236875020776294, 0.16499231840099352, -0.07569783694960754, -0.5124216614594864, 0.6071614770571803, -0.4178713353666241, 0.14595585158689045, -0.10969347200442704, -0.17793802583413412, -0.04366774636792506, 0.10548780698591878, 0.14417312444358268, 0.5848159838776066, 0.21820096737887149, 0.04531449022570777, 0.13609345138789083, 0.9213861354407022, 0.05567624741536237, -0.36134265189632503, 0.12700104659000203, -0.06703591688853852, -0.15464580040576356], [-0.30564948058269126, -0.14558256296487465, -0.11384765495598612, -0.15071214456072193, -0.6812355976782325, 0.3725153659063083, 0.3455447146157596, 0.16939750507772508, -0.7766987660310324, 0.18602631082708584, -0.2939940755504555, -0.21133552234272143, 0.2202349682452022, 0.2299626158341552, -0.008752274975761492, 0.07258163902645562, -0.0064436998452949805, 0.028947277475191442, 0.38314163495875947, 0.16539744682322585, 0.060239345826311005, -0.18908916287129068, 0.3106921573586914, 0.4067247788595257, -0.17878581436053387, -0.539513911060752, 0.12180452581750088]], "bias": [0.28008956386153766, 0.05332344901652146, -0.1481934904825339, 0.14132517070958914, 0.30098284122658914, 0.11639472198868131, -0.005626735100552823, -0.129510600029845, 0.20959607467920324, -0.11856285343903859, 0.18781813359288915, 0.03454751501654522, 0.1758334664939281, 0.47684342005668945, 0.3957473165381868, 0.17372523199088308, -0.2968079373646533, 0.13202539983380163, -0.12350184360392914, 0.40984527595156817, 0.3723063693396115, -0.29360546714295244, -0.1725626599612855, 0.09842880753129916, -0.08892709452665756, -0.12911402629822527, -0.024407468239746898]}, {"class_name": "NonLinearLayer", "non_linearity": "Tanh"}, {"class_name": "LinearLayer", "lay_in": 27, "lay_out": 1, "weights": [[0.055183840189178615, -0.07848811477272795, -0.15171673590922474, 0.3119085070608502, 0.2647120356396492, 0.11488983651790394, 0.13937637836433306, -0.08797153038358102, 0.10964302165594739, -0.25237203308211154, 0.16199258597657445, 0.36034337872095945, 0.37973806501593743, 0.28212937964575824, 0.17971865964617276, 0.09770836085826061, -0.3679107190161031, 0.35819283678960373, -0.23338168216013933, 0.5994549663992419, 0.2637113429464269, -0.48755033334283915, -0.3601529373667072, 0.3511675036218436, -0.24861779697386163, -0.11627447929436041, -0.015328948240053123]], "bias": [0.20417127833271806]}, {"class_name": "NonLinearLayer", "non_linearity": "Tanh"}]}