{"class_name": "SequentialNetwork", "layers": [{"class_name": "LinearLayer", "lay_in": 27, "lay_out": 27, "weights": [[-0.03659488500880936, 0.8294684766315407, -0.4190825493708733, -0.25260336092430224, 0.08251679549796785, 0.20274312996800076, 0.9170211382602191, -0.24560546957796317, 0.5108802189490173, -0.291296441086559, -0.06574006988361641, -0.5420827270927406, -0.12080780937274711, -0.08685182133355712, 0.0018192497916892474, -0.41440570653592923, 0.12109359802825387, -0.05781227474863128, -0.0394663501926615, 0.33105037090625405, -0.5641970827061785, -0.04818948509521618, -0.3484769913016752, 0.0662638784332073, -0.10529171220609725, -1.104692025691409, 0.36160677983640066], [0.2788635502550648, 0.03574311458519293, 0.5334655484443523, -0.2940052254079524, -0.06927608158817324, -0.2385465273023796, -0.5045985423701247, -0.725736035680889, 0.1377451431915428, 0.3412099709702245, 0.13789909047285054, -0.22687911791393514, 0.04479624861165841, 0.5875236213460099, 0.15636069165938263, -0.13026558614935138, -0.0463800202365644, -0.19439752977229377, 0.05963973535013457, 0.22156188001703947, 0.9862936807525111, -0.4404133233825077, -0.10837297801553956, -0.09540440510451127, -0.4195129058445443, 0.008474680302688577, 0.19708813283883855], [0.6042167491771968, 0.9501194054697591, -0.4825491901343318, -0.04535121238213629, -0.288223292622194, -0.2625540423468278, 1.002638860860055, -1.1209004346639249, -0.19308943060344758, 0.1588736395006864, -0.273918905174543, -0.021555949049084276, 0.1241133889154851, -0.13085673804136194, 0.4252285221361213, 0.046948588524644154, -0.22158165200096383, 0.13107715141418244, 0.04919710900379743, 0.5421867029693279, -0.2915865108219522, -0.14774836520633797, 0.6309331902993749, 0.09778277584532878, 0.6049595484650936, -0.6472199277461417, 0.2801034437020969], [-0.41487792585399663, -0.006140745038623765, -0.053553406582804886, -0.41190947630484404, -0.04712098382550836, -0.33279349018314575, 0.3816816662748543, -0.9506444408454904, 0.5306423717205302, -0.20417844274950164, 0.10454576004631078, 0.06721089839416262, 0.11765563778677182, -0.11931882001720566, -0.08108711712161117, -0.12371187110428557, -0.15555277372809131, 0.2131078449008596, -0.5435096423418774, -0.35353277709705555, 0.328550237690857, -0.216537334459406, -0.06815343216772612, -0.022021864475859448, 0.5956289781486156, -0.7792346868629126, 0.48836211344459457], [-0.05471904760061422, -1.0754101526950886, 0.2726960626937839, -0.35079159250885406, -0.44065776497951026, -0.6432212322922661, -0.29568960659842247, 0.32418175085907025, 0.026344174967453903, 0.18871433148139904, 0.14156030429733182, -0.16218062025746294, 0.10572129821308911, 0.022419983331158917, 0.3306396038190878, -0.19887213857432817, -0.1816835227812479, -0.17731049787391986, 0.22931387337526093, -0.9111565344888394, -0.010981340443085309, 0.40991759080179674, 0.39262582840611515, 0.04350707821070432, -0.0010135356001931652, 1.3141188187642256, -0.22801560134446056], [1.2628722822939855, -0.17429813838209526, 0.2811580595505145, 0.010465278380629061, 0.9725939085819539, 0.017464295420141177, 0.11436882941560836, -0.278461236398816, -0.7509397321056905, 0.01937161587905778, -0.11149266393644039, 0.1343845000328576, 0.12057968455612277, 0.025948142139238906, 0.21235099303938754, -0.010800676305185636, 0.34612934180132315, 0.43057104268013696, 0.42549093259229664, -0.3596071420065702, -0.3593332023847067, -0.1408077383247972, 0.5999443107243854, -0.2784035962530037, -0.1249322673543973, -0.4232966685348779, -1.5087315492253295], [0.18630569959353332, -0.1466359470811791, -0.3485808541618792, -0.26867578818210786, 0.9348054186988088, -0.4932827414779906, -0.06504820466744902, -0.4583347392236949, 0.8050943920236542, -0.11186825842195508, -0.017705458562309328, -0.05684362532952501, -0.23179602324025758, 0.32541096974802036, 0.15266249449449243, 0.11742836576648169, -0.14918757377887876, 0.002422202596575779, -0.7239406836117577, -0.08785394586267067, 0.07820548355452946, 0.20865745485381618, 0.06974032360307643, -0.26221730521811804, 0.0012758060210476038, -0.031495555959041376, 0.7757364626569124], [-0.2646849559272613, 0.5428298886939, -0.05308836784900704, -0.5815076217814146, 0.20621230987606798, 0.24914775457940866, -0.9394186837707819, -0.03298146282188872, -0.5287180450896155, -0.007549744529500421, -0.13827164404180434, -0.09261197964620255, 0.09785084502432066, -0.07870545136169954, -0.15476275457468855, -0.13889884974743427, 0.060167658253250496, -0.009935286369309852, -0.07065562352263986, 0.02535427637550653, 0.03830930805137672, -0.47618875672869454, 0.1675505035376701, 0.6551509900622039, -0.049500493634675555, 0.6206650807449857, 0.39829579968295237], [0.9074025173775153, -0.1489633346100599, -0.7571568627312313, 0.10669765947666264, 0.8613784548977658, -0.4408226078425464, -0.4237406257867934, 0.12352471133503866, -0.43654914615490104, -0.07284345184750458, -0.2942387698751458, 0.12839526169197887, 0.022754359650787554, 0.11265390925533192, 0.11718334961745532, -0.04193594964624431, 0.29466478489205333, -0.3428949013109958, -0.367930307112479, -0.4166514654684587, -0.5467660624626043, -0.12497531017221933, -0.011908104561848782, -0.5559305126341737, 0.8361922048080097, -0.3535253222128041, 1.6327375850664285], [0.3140322550986441, 0.28586770711944265, 0.059112751351325044, -0.8767220074751042, 0.49086309409080925, 0.1072102705002546, -1.1255372697002914, -0.6979259849025665, 0.08946658269681783, -0.4937282212351157, -0.15501374120686084, -0.17548414261923756, 0.09190778423398496, 0.08631364129319136, 0.20161061649625533, 0.24506669122449745, 0.18826941270419423, -0.0796082865289449, 0.7237296352752524, 0.11882169815253767, -0.17759197617771613, 0.21045809367494556, -0.0686995452973053, 0.07112334161313551, -0.6361259863693693, 0.4001620540029826, -0.7900751361208375], [-0.439231269135067, 0.2151979305345637, -0.5810192897484608, 0.4127093241828227, 0.275219952583382, -0.07834863302943505, -0.22505292291064619, -0.5542650871107411, 0.4866965059916653, 0.11273089886116613, -0.09873726057262956, 0.33982922794775294, -0.12061076654152615, 0.1697029757266555, 0.20260778156932102, 0.05898906437991465, 0.01777290435542681, -0.1817017854300195, -1.352814905807632, 0.6085631382110815, 0.025862015464890042, 0.4650503804642095, 0.673617821899611, -0.602255810998838, -0.37752458205950723, 0.010263479446073498, -0.2025498702820466], [0.8921438578273192, 0.21219909457065647, 0.0934530883233103, -0.13885526756477337, 0.16045702870470513, 0.36385352380961017, -0.4010029507309633, -0.7346747255920373, 0.32126111888750264, -0.0688235171145597, -0.3999915796680879, -0.3902841060106733, -0.40695911625593084, -0.043513534753185125, -0.09864715101177654, -0.1447621971265531, -0.6916522880637906, -0.2509921535352104, -0.15668989174575695, -0.010399119595308029, -0.9230090721699579, 0.15507529628317174, 0.6715332674213317, 0.522657067215978, -0.18606420725999376, -0.18585916447676046, 0.13603773079947007], [-0.8183850076955945, 0.05138824529297033, 0.1538866093679063, 0.46537916163050125, -1.005967205256608, -0.11435909127401905, -0.04649733614267516, -1.2216591331244924, -0.2059442889568029, 0.35455516244617935, 0.0713311155253028, 0.05306561961687568, -0.2573495840586342, 0.22261905801906856, 0.11555769246933982, -0.013452644078193153, 0.06973251376266695, 0.17941598226782177, -0.1339537103901025, 1.0770181244755284, -0.21206509746568855, 0.7116519588239172, -0.32096889723381794, -0.7130987278027054, 0.3086825329567486, -0.10750272986907239, 1.2710942379800778], [-0.021622580855175478, 0.05688011313385863, 0.11533082484036342, 0.06813060445223604, -0.7420811053720727, 0.32932964490026656, 0.6867472560530324, 0.15139931491671124, -0.8167858182838273, -0.823563280243986, 0.2519774708258133, 0.29473563994141266, 0.06934216526125916, -0.028311044934704977, -0.17417404059278288, 0.14309310739779307, -0.09923348638728, 0.1349176871583132, -0.0227581188079721, 0.6721328845068194, -0.0996268875481164, -0.22221244042441474, -0.5456738926552577, -0.09787299207797533, 0.556948648340457, -0.555113530100428, -0.06125684383541058], [-0.21410217572829043, 0.09189623404504761, 0.14998500558404024, -0.22917196527248732, 0.6368979484055443, 0.31419675053088636, -0.2181604237772089, -0.31995866938665884, -0.9642001193089959, -0.12784799944210043, -0.20298916403378767, -0.14866353611119118, 0.011352565866829464, 0.5289799535006514, -0.014654374545394633, 0.025264469435750066, -0.13484711403742228, 0.3020904788947312, -0.07097365956285041, 0.3197781366173631, 0.2545340256868186, -0.039492090755257184, 0.36437524432873736, 0.10505019693355658, -1.110052306248292, 0.5098618570829699, 0.03873524494276703], [0.511723153270269, -0.14545771165461374, 0.4775393643943068, 0.2768114771501905, 0.09754335098542577, -2.1123968200208996, -0.6200697406875011, 0.08085781545808778, -0.2721625666652716, -0.06815796294712927, -0.05378780333548834, 0.020076597126592193, -0.11889473022380725, 0.25851743009253586, 0.11321000723271933, -0.15523719835224825, 0.1610645764001761, 0.09015371748078371, 0.6965085501097843, -0.586137123730165, 0.2852202571231261, 0.7013903578934432, -0.366193526070686, -0.9844137153519341, -0.3572393042623347, -0.41854680817997486, -0.23859062451081242], [-0.07916865605391764, 0.284594755343253, -0.29086705535493773, 0.0851611482241567, -0.45594338338212126, -0.9357074550726805, -0.755883434825337, -0.6787708131813718, 0.03990029057023454, -0.021181358441885765, 0.05904365090838625, -0.41503055830166163, 0.15838079427964546, 0.052750469952567686, 0.20543529146343145, 0.37428700096827483, 0.3485157079500753, -0.28121443540108537, -0.41462965553811204, -0.24743508677476245, 0.6220976569573257, -0.22031154485950025, 0.08795258600834806, -0.1982451852516081, -0.007190438936536338, -0.758825338738925, 0.5849126081877953], [0.4239336703049374, -0.12350212926596883, 0.5473183488303635, 0.1128534626064932, -0.8178149258522677, 1.0602040344762633, -0.5381514077282752, 0.7894790113492497, -0.3032210648791944, -0.07903841623885889, -0.06818176053314906, -0.24378030762656952, 0.06560764988156725, -0.3302487218317195, -0.20511092626143881, -0.16318657799784272, 0.2152544345198465, 0.40219056460522423, -0.27923979745019833, -0.5480215858440076, 0.8077202506256695, -0.10870276604796364, -0.6706053222929537, 0.6438040240472876, -0.17879116257040326, 0.528345172175118, 0.43249594140648684], [-0.49979439674273174, -0.005838970894954146, 0.862858818391583, 0.47283029547466215, 0.6242991045027223, -0.1674277716641981, -0.1651345876251394, -0.5011710156309496, 0.5516623628545183, -0.046315648142544526, 0.010131790842725405, 0.08368068688218014, 0.17834886314170478, -0.3411815893658046, -0.17283943995039264, -0.08028047552897107, -0.16993780406520193, 0.21198958917187072, -0.9376234740171642, -0.2323702929254798, 0.8235843433428744, 0.04245400754621366, -0.05193878827931648, -0.8474308720148118, -0.783625382186956, 0.017854091359736868, -0.005328861712022476], [0.09335277354291319, -0.32736869194994545, 0.19000502816022605, -0.5298058794396078, -0.6935875279227487, 0.2169782118719046, -0.3468749728185387, 0.6837689934265319, -0.02460819954485345, 0.2451983770097416, 0.021787801038098433, -0.07170221229844012, -0.3217731721210663, 0.04996115743109916, 0.97323372595558, -0.09664715650258907, -0.3930246662996604, 0.23853012792793685, 0.7549040617146846, -0.15665083919301495, 0.6480878691351422, -0.612322381684586, 0.6302153791225608, 0.04496433811377638, 0.23398343783222003, -0.3372012363702684, 0.09408717871453781], [-0.41882759259761604, -0.4081236292790836, 0.09929551796972842, -0.2424505770042852, 0.6199682172051727, 0.6078558302054258, -0.7527542621488948, -0.5951418815631543, -0.10676936169084975, -0.3476881712055363, 0.09008924387049633, 0.029338724423599263, -0.18607818731900946, -0.3672057774104772, -0.0012587195073824817, 0.009152121275339185, -0.05132493344111306, 0.19924426117228847, 0.1650165488273714, 0.28613957548962293, 0.6095873925411484, 0.5543842093433227, 0.9536233093605903, 0.0005459175935969531, -1.2328909151857272, 0.5925084813444425, -0.2054253957229952], [0.29893489511175514, -0.03641296118177582, 0.8665254623677664, -0.6093809749825728, -0.09826773205646654, -0.5180882854998986, -0.4033931034717271, 0.24740404290206452, 0.6461299510078842, 0.024917596387554822, -0.18957543637513208, -0.06250581439931455, 0.08777245876515875, 0.15840524552076007, -0.20996537617796862, 0.09563452252360702, 0.0989276507909073, 0.023088661538644098, 0.1617064562146636, -0.5148828422424421, 0.03976283435286606, -0.44877543160617106, -0.8309935259912935, -0.4236860994098462, -0.2241973033229239, -0.040517188741650924, -0.10635379839945372], [0.6382316662043529, -0.15939540315842654, -0.7365442202792875, -0.5006688948406729, -0.2771730423428227, 0.6571938207909208, 0.3491815051534915, 0.19192553198188322, -0.33589244997668655, -0.21979321588449094, -0.11162072319905525, 0.03967556854109855, -0.044236550341918264, 0.13337465088495556, -0.2967184400474438, -0.1288048092010908, -0.18975186512595926, 0.27012951566454335, 0.8646407419570002, -0.23935123568415484, 0.11545649800247518, 0.5005077126777243, -0.32297675676827975, 1.1229367510878592, 0.6443169100775782, 0.0708116227907419, -0.8946359678304863], [0.8964648738884963, -0.03750905702674127, -0.5078471681606181, 0.023966282432284366, -0.5491405006652496, -0.18810751978085516, 0.1499002668002183, 0.08419518115274195, 0.16882111851581447, 0.23597812632216794, 0.37034993104926445, 0.5291052770826292, 0.08308456656293409, -0.2755485664066762, 0.11318939947506504, -0.1952963155618645, -0.04252389566956415, -0.32278396199120585, -0.4225586682518711, -0.36290649697975885, 0.5166752998446994, -0.5026030948851085, 0.72205420484129, -0.023023290992512657, -0.07771574063140872, 0.6061742512015701, 0.7950840968807719], [0.0005581237335340699, -0.256021916710567, -0.05451629770808024, 0.2756263249924481, -0.5598652922664151, 0.06834537530282576, 0.033273334141005285, 0.8810491812483903, -0.059098347082635186, 0.01781380688921737, 0.2921472120009211, 0.44469932177995725, 0.10936427093673085, 0.5523665132977075, 0.23759800086945698, 0.151026346422806, 0.013947106909300844, 0.24989767646264066, -0.07179899321616724, -0.9139843403893249, 0.18518708894688896, 0.017913961275300202, -1.1624913548826512, 0.24389180586211226, -0.3539828951104694, 0.8867242647550732, 0.042992553314692435], [-0.3808744724962935, 0.6842606181647404, -0.3170576373334434, 0.11118003030724742, 0.5972955620239004, 0.10446757082596773, -0.35722915835908736, -0.18028269917733475, -0.34178494621766486, 0.11922918339012563, 0.13506486198463963, 0.026235359394395707, -0.10042501433377304, -0.06344048454161202, 0.08537186778069288, 0.001327868487983313, -0.33301276855337864, 0.07267953832020148, -0.08574895273137435, 0.5711324048053502, -0.42338689299284976, 0.3743544422157336, 0.36171443924001023, 0.8281609786283066, -0.41916177052375864, -0.1693091658999413, -0.4895912434678906], [0.33369703124396344, 0.5736400478769338, 0.14328371703291296, 0.3953434373928568, -0.29852290091396755, -0.22189193434285562, 0.2838675875787589, 0.8111005147060308, -0.7638948257947098, -0.13501439637340726, -0.21131697580310826, -0.2613713976446746, -0.3483172070670798, -0.2723949436637436, 0.18453241104085144, 0.1708115676014387, -0.26628038106288815, -0.45202042649702373, -0.093973924295249, -0.08312363413143796, 1.0641564331695736, 1.4707219716190618, 0.06558600296345742, -0.3900035116696048, -0.3257962725632346, 0.4337599679758395, 0.6933817088380609]], "bias": [0.13806053726442613, 0.3554532724581231, -0.24305371001155532, -0.1975909095716675, 0.05215740969574643, -0.2045563135857336, -0.19696059949193817, -0.1450946720046674, 0.41021793086041386, 0.08977731567219391, -0.20461616764909368, -0.04280331265983925, -0.20899578778245934, 0.06784744691321869, -0.07105628305242366, -0.07385496454553617, -0.1746272713678299, 0.19347729727443502, 0.018784515173681585, 0.22713414000673005, -0.14852971162166798, 0.20679891796038563, 0.14659263402681777, -0.13954027634674465, 0.23262867567661658, -0.1075614110461487, 0.2828605025557575]}, {"class_name": "NonLinearLayer", "non_linearity": "Tanh"}, {"class_name": "LinearLayer", "lay_in": 27, "lay_out": 27, "weights": [[-0.26851088555252517, -0.0026034973200009933, 0.4252081407672197, 0.23998550724855747, -0.713791646313155, -0.27396125379023534, 0.25302478716673743, 0.2517201777868509, -0.47980374978220763, 0.14645097105017582, 0.0857279420787383, -0.3759348647598129, -0.05799435190197123, -0.3682043899279504, -0.22907286199845575, 0.08379118977637706, 0.2551797644523007, 0.1179380901231116, 0.3334852515628247, 0.27337360447416176, -0.7973581881859034, -0.22949226028596353, -0.5082590795832463, -0.0618844719305973, 0.23010541216088368, 0.6118436268403459, -0.03872039714337509], [-0.278812350261761, -0.04968287835318124, -0.01825176607130547, 0.2591866957398253, 0.40496800390754706, -0.2520404379940007, -0.001932227965497677, 0.6844252832172476, -0.5459158875876242, -0.47515509296150416, -0.09095345272631339, -0.3890738324222292, 0.32032224478005367, -0.1832262102625278, -0.5023779825696376, -0.9033527393333346, 0.10571913067635104, 0.37807985601753274, 0.27549772697673136, 0.3188672472609526, 0.08823376192214466, 0.2026067579241405, 0.018399102882547334, 0.2374054010589728, 0.22909415471937575, -0.19400102315034556, -0.004350360810371162], [0.1493467539700719, 0.025963337332419113, 0.6952698831743915, 0.2614617339812926, -0.5506311921304015, -0.41092261250437223, 0.06893005074055163, 0.09606386445820234, 0.304020816099636, 0.3128517784151368, 0.06673539598265228, 0.1927205015804342, 0.1912166231581747, -0.6844237786629134, -0.21669897874488497, 0.47020081084278936, 0.9177884676873929, 0.24906408023852983, 0.1574257000536373, 0.3093454085447223, -0.06729218238563009, -0.4700487813632305, -0.018654785768260625, 0.4194723770320776, -0.074912097650226, 0.24721908970383874, 0.5423818943234396], [0.39821934462080444, 0.6081431348240739, 0.8241745319203893, 0.29716144192427296, -0.7384463456656678, -0.08118864353181225, 0.5768960379515984, -0.5169479406520182, 0.9461806622779274, 0.10552302358489737, 0.7080776025289139, 0.3635267238514807, 0.24783892246867367, 0.2806309889509246, -0.5244079486888027, -0.9085218876189459, -0.11359650649991272, -0.27535650088976976, 0.16850101238886067, -0.2598131607566263, -0.3309167102487203, -0.1666638220417942, -0.09614453920007643, 0.2577213863578161, -0.12599431295298574, 0.05834337830971522, -0.6999737323061118], [0.10930518179364218, -0.04700962587056861, 0.5674895675924954, 0.03527659491469479, -0.27914030560365327, 0.5876193226950883, -0.12889502847110682, 0.1362895213832871, 0.14725859349276843, 0.2122231700378057, 0.018638124317554617, 0.04249976370912128, -0.37274466376450244, -0.3838867597467475, -0.3622533335702575, -0.24050739087082731, -0.34892823618887897, -0.0333633294586061, -0.8849613294320299, -0.516875483526504, -0.40269879892067206, 0.3078284791567355, 0.8216722573721571, -0.24341740321537506, 0.17158309330888105, 0.7728243446315693, -0.403445129058715], [0.1968256807278461, 0.12281638755248041, 0.17553360215659597, 0.22948106822608455, -0.7019251737804393, 0.2678812996328301, 0.08340672594065415, -0.13991799781600042, 0.29151704933490413, 0.11256329148598877, -0.17567953896964333, 0.28531777857924384, -0.7065774035004652, -0.23744794792318233, 0.8991329824635899, -0.047299774538405275, 0.07353358699256515, -0.3526865278931462, 0.29096372282432964, 0.20034498201736306, 0.6589025870195705, -0.05194126204514049, -0.7055192183411961, -0.741322734186275, -0.4362391550802215, -0.012062423665672017, -0.23954075476967895], [-0.17923704488605838, -0.24578950036389494, -0.4048879456601298, 0.4680696187686955, 0.5722173340374506, -0.4703443674810555, 0.5067593326032188, 0.40913144947310554, 0.08255776024789359, 0.20027838992976374, 0.5744579777058384, 0.3231307214483591, -0.09534249580973893, -0.2771924675696153, 0.30610917614259514, -0.5318955821864483, -0.2716727398437045, 0.05613432185676036, 0.4108045016079451, 0.14706098690526886, 0.22415215396718136, -0.0659993002097797, 0.4594192086326665, -0.11019593324834596, -0.22764452713998143, 0.07989370740537124, -1.0043705188974537], [0.3056587506113415, 0.5066402957470516, -0.1800843142691849, -0.3983047881466246, -0.30203716710346845, -0.1322376267284703, -0.0672707857605341, 0.24552332574336133, -0.2737728535786816, 0.36572730478566823, -0.029013612692671647, 0.5268555404779776, 0.25942984330412383, 0.11192791190777854, -0.942418050714379, 0.8566792876269619, -0.24462865056989747, -0.01267627038416263, 0.10589012400626122, -0.010365370913223792, -0.047183945167259884, 0.5992233606593108, -0.11252978462165562, -0.503784616439109, -0.20713147243062052, 0.9112803781131708, -1.047056252092627], [0.5124286268604004, 0.14088355649332432, -0.1747506384163567, -0.22324303945126692, 0.33949593221802676, 0.2600278605512902, 0.09344028227118556, 0.06985060882395715, -0.4739814797497631, 0.4774425440679804, -0.28189499413034225, -0.28985295563644786, -0.27607620608111944, 0.011090781931847152, 0.7201667788064947, -0.013669028491513156, 0.21511689458021369, 0.2357832601249827, 0.4921884303016432, -0.3060249638209197, 0.44312476773193926, 0.07158936080743063, -0.03405788278572058, -0.3754184097812429, -0.23926804247446687, 0.16786149555401883, -0.30098205124376204], [-0.062120239524016886, -0.2684274486871949, -0.6538726859336745, 0.5576993161472545, 0.6199629931484331, -0.0846488012750912, 0.08775550161621246, -0.3784467906106348, 0.18366471179662675, 0.3944508991401168, -0.37950901547509636, -0.19419185639115463, -0.06860920691476471, -0.4902184432041701, -0.6471653206426401, 0.21114419614042093, 0.03562520000339254, -0.6217687769636252, 0.5680545202636093, -0.14957210422507888, -0.7782740725387967, 0.7776412462616559, 0.2516553380257654, -0.633382293082484, 0.5214254578977922, 0.11452007080329574, -0.6154742229365422], [0.12460141027208872, -0.25726302527185935, -0.04464442335191067, -0.016516733741870283, -0.2975430553922075, 0.33345449253513737, -0.4720575342834312, 0.9345942733965501, -0.21789771781934208, 0.34384226085776964, -0.12419383077318814, 0.5305408745184313, 0.06422777591011479, 0.3416296493327694, 0.5954584891216392, 0.19342099255751347, 0.4773035084001728, 0.09751972814579385, 0.07519448828287793, -0.2744299794178826, -0.21114467688176852, -0.3086165173115045, 0.2926719661678301, 0.05498151810603787, -0.15951827619529904, 0.4238596185782126, -0.11713077164086622], [0.11679157416827939, -0.14230358878692326, 0.270252869905184, -0.2624257277481951, -0.5958543349407577, 1.036251607655838, 0.24964930589704967, -0.1692446994553436, -0.18534397549413034, 0.062351610796548926, 0.2791612906689776, 0.06710469591726156, -0.12363335130396666, 0.19004995714397233, 0.08671595858401558, 0.8274808304771945, 0.27283933128874066, -0.6477029472451572, 0.3828170023812045, -0.29351058588046863, 0.24194199085367613, -0.19507441654768187, -0.03292186517062161, -0.12617458304407914, -0.4867609901977829, 0.2527651932216744, 0.16729692133009336], [0.4717548744831027, -0.05106581338164802, 0.06492254484212309, 0.1676187814395226, -0.9414402829704702, -0.4153447139241658, -0.46132929584800025, -0.4596665090760273, 0.08216448478315695, -0.7593331409801631, -0.4477903396421931, -0.14009743493511798, -0.6293957039840109, 0.5803096641564657, -0.4612258155351996, 0.029510766348534195, 0.027910274015254057, -0.5740046937505189, -0.4417931585563321, 0.5928919509763565, -0.7386589450999097, -0.05654812893587933, -0.02190932513991583, 0.22529235095063738, 0.04951840724136322, -0.4716765753457839, -0.23838687414675366], [0.11287745799047132, -0.15552946995357136, -0.1079079317405227, -0.5913423975463392, -0.22791419941698207, -0.7458662006306505, 0.09882780513234615, 0.3151617870104275, -0.10431944112612448, -0.650903687677637, -0.13779534676700583, 0.1260931031150654, 0.509983356892369, 0.23044812705357995, 0.38463846198710727, -0.5111690643245214, -0.14883611511149822, 0.5676296600916794, 0.39122069708873436, -0.17993716813948035, -0.8932718598977126, 0.11665976040138887, -0.744988329944379, -0.07793442028091323, 0.7445914941035733, -0.15525633625603255, 1.0602806731894976], [-0.09016199832372489, 0.44291151392486583, 0.383094211960517, -0.2277694384027517, 0.3912620842541732, -0.8561706464416334, 0.14906486048065143, 0.002417920688940983, 0.3508525705371224, 0.5979283278962695, 0.41865758846929085, -0.39027730865582627, 0.4090932829776183, 0.2231351116818852, -0.4874148166083844, 0.3799359579548426, 0.13400040029834354, -0.23237264545289543, 0.3512048801216818, 0.8352475735149463, -0.10213138219593973, 1.1642505615811207, -1.0394687126483269, 0.1136449342101632, 0.1514961904918038, -0.046089653805796146, 0.2577340681914914], [1.0641505703640177, -0.33879025348033537, 0.6338142109412839, 0.19899275415745815, -0.45284560704640453, 0.15792457924646647, -0.1573680797343746, 0.2486643463882776, 0.9078874257044907, -0.07626749885994978, -0.22372990435954163, 0.253004684015867, -0.3661577897156639, -0.0710583998012332, -0.21668567201556146, 0.5101090307568281, -0.587108188954967, -0.12495810805306325, -0.16400444151210497, 0.578698004279142, 0.5009225976131279, -0.5579578472201027, -0.13745322958100942, -0.24196913431577446, -0.04266828287228241, 0.5437643907834161, 0.1317670866867479], [-0.4634158751729476, 0.23439461321251243, -0.22927624433321153, -0.11283633709934245, 0.33102357130852494, -0.1124435010214476, 0.22416226098643363, 0.5140370428907292, 0.3556147744264077, -0.09245641393867557, 0.2686365086411018, 0.1261745573272349, -0.40295050205285543, 0.06737552195969457, 0.3070656034285008, 0.5623358120262111, 0.4212937801304077, -0.26890246741840623, 0.3320045302367782, 0.022545141385600723, 0.33177042321658046, 0.33408035301549815, -0.454950237530442, 0.5244660662586648, 0.1076208807359529, -0.14205946999233637, 0.3812656401669355], [-0.6267754374469516, -0.3837927542697595, -0.8791778558671011, -0.5928995400853623, 0.6066083730409726, 0.766517236641562, -0.22997974823065107, -0.5374993847107625, -0.2043934089903816, -0.020444200627634742, -0.4109457324591312, -0.042474723455741964, -0.7830109479965097, -0.5768922676848924, 0.24920185252959995, 0.5696912324220896, -0.20775005651954012, 0.4145212680422688, 0.09665179419898716, 0.21860555361278577, 0.3543995921837638, -0.10241323568296021, -0.29578226773709454, 0.19145143225374958, 0.5342571202541309, -0.884618888381484, 0.297154084507676], [-0.07417397330841524, 0.12861915949652605, 0.5432667103399994, -0.5108763693830913, -0.14617993306990448, 0.25898092505179804, -0.849318918170108, -0.44351348779592265, -0.6605068753229839, -0.20471625628483645, 0.17324035579910171, 0.08878324454176617, 0.5031209053567245, 0.7380934509350232, 0.005878899484266057, -0.025651779643270117, -0.37897520069305196, -0.4471302988744078, -0.07590035713710441, 0.19675236297287313, -0.5542710273911939, -0.17075973519833174, 0.35069395844203194, -0.5902678146936209, -0.2305387294694499, 0.058445939534875084, -0.13200099349720945], [0.20766661176855286, 0.2938207578204944, -0.2801601630954823, -0.6250913325453675, -0.2321796296346767, -0.37944109518567964, -0.04211348653485184, -0.39944352636082064, -0.13986532869780904, 0.22656573706147407, 0.05382523110435052, 0.13524043928137974, -0.3388410018655345, 0.4483966257605225, -0.10425183640380464, -0.1794734492651665, -0.2856987428048251, 0.03490153894666217, 0.0470739615551733, -0.04948402074442974, -0.4300566897570718, 0.1552977014027114, -0.15581337016672794, -0.12966082290117595, 0.2910204424815697, -0.037208580723230106, 0.3042276948191606], [-0.11933405814147385, 0.4754503819045032, -0.1902024931190164, -0.06562912840978012, -0.26275940635626777, -0.21493090454890765, -0.3515516396898074, -0.5256649974022976, -0.16851458083232737, -0.09522948337508595, 0.0008645185551010501, -0.9228306228777283, -0.13463459838373704, -0.543543406700565, -0.5256167323896827, 0.3826817299361624, -0.32280814543924075, -0.014279979188224943, 0.3924150195609529, 0.13618431234025638, -0.13420956123190364, -0.27406192388007156, -0.33387139399231813, -0.7437063768332427, 0.43021298137147906, -0.2858001179320331, 0.9362539722436164], [0.25718708643605626, -0.3942529874605921, -0.0702241719772447, 0.7665584962255925, -0.37975415658460526, -0.08587816235452872, -0.006438534394882935, -0.08963052738536685, -0.20534622263249552, -0.24900705043970606, 0.6778721299389779, -0.20322614256854582, 0.35442027427148165, 0.06610995734280996, 0.11555168858192753, 0.45807807983499216, 0.5329714071472593, -0.2569910339073131, 0.3388362712448003, -0.36555958000772804, 0.04118337874509538, -0.3238420460259991, -0.6664820552174402, -0.4153998994857683, -0.18262454900093006, -0.13124284218114984, -0.36245706885396756], [-0.1673883478692419, -0.3529745108311874, -0.10991599883504372, -0.6479911579010746, -0.49397599487307825, -0.129060699335411, -0.2457926435841001, 0.15997364421194196, 0.17601669293387925, 0.059132654353737144, 0.46636542179361873, 0.07745609426766259, -0.37384539391094895, -0.032031979448737806, 0.21314189171772938, -0.5139258216136927, -0.3408470257089775, -0.18732385643901125, -0.2544472839388553, -0.05986767702722945, 0.010732073439979109, -0.5045721942334318, 0.13099927615472268, -0.22435983624077518, -0.05559914336927386, 1.1690412367706684, -0.013360790654690577], [-0.32766477419893847, 0.616384841520005, -0.2751251452962541, 0.19689427629124218, -0.43886656133769353, 0.4261409901454521, -0.2522329535751465, 0.5881228381860863, -0.521075150848453, 0.8061914221803457, 0.2861370080701415, 0.4767085324994553, -0.46524269659616413, -0.4132306245461539, 0.46884707410321746, -0.038030758136726, 0.06394944946067395, 0.3173116641799855, 0.7520498451423173, 0.04009446576684765, 0.5692702144552635, 0.2506393086166958, -0.6671519120741902, -0.10986257273918458, -0.3093341419937307, 0.4173943068649329, 0.2719470680342905], [-0.4866423174463387, 0.6147956250789642, 0.5548193781195015, -0.43815703533763506, -0.018154060005713138, 0.34429028352810753, -0.3059537219521381, 0.15020214323680986, -0.2851977285649703, 0.6239134716734065, 0.23689155466139158, -0.39046002574685995, 0.09102870157430573, 0.15003558295817956, 0.2450977005945069, 0.6330248546258376, 0.267587171862073, 0.7296946066202419, -0.5141783047746634, 0.5838212219820096, -0.5524528373361646, 0.42951962137901106, 0.7184888421632568, -0.4550493720134464, 0.17415798138677413, 0.06227348227084397, 0.3033322976444202], [0.43905719539221916, 0.8240084841704645, 0.1088392610115723, 0.08333445744531476, -1.0042429562396626, -0.10935555086304995, -0.044883956695531274, -0.03209632019665845, -0.49005347549401973, 0.6053634021346899, -0.456246914848655, 0.12261070427386364, -0.06145362908970834, -0.1267169550146625, -0.0006589108208391724, 0.19132396258477655, 0.12072995277293451, 0.7888572923316141, 0.22010629278501584, 0.15460056662734584, 0.028207123587359578, 0.9902333670304849, 0.03238361315228499, -0.2794021219559554, 0.10960693449235104, -0.07837909043074379, -0.1711571099527971], [-0.2742828702686372, -0.09796833000524031, -0.2870966465085755, -0.2669805907183998, -0.6690972393693976, 0.3163049665604697, 0.43393136379640707, 0.11937826851440794, -0.7094306353342117, 0.19906459623578626, -0.14240209106705182, -0.14904199688049385, 0.35695547256589544, 0.16136350267236976, -0.006661624587469757, 0.09866224814982456, -0.09780938090819565, 0.13173063827184903, 0.5293983957342522, 0.22945070825251412, -0.022286451715254427, -0.15317039272136979, 0.2246725941590012, 0.20016118968883984, -0.07640545415797106, -0.4774028506801079, 0.23315333828258444]], "bias": [0.27423862538156635, 0.051642037223892295, -0.1513430330840135, 0.16582029832695241, 0.36865960729670283, 0.18789590175860704, -0.02846520803311897, -0.23685752392327697, 0.15285548840752264, -0.1533394184377784, 0.18765635939637942, 0.049903797555891444, 0.19163127797746693, 0.5716184999494432, 0.4397411562241723, 0.2892318984034848, -0.3452442895033468, 0.15850343694805957, -0.1661208845832332, 0.5428909369267589, 0.5265460431910729, -0.4029448263484717, -0.23782970383673152, 0.13577891055967134, -0.08115069696585885, -0.17384708102912594, 0.09812020577663144]}, {"class_name": "NonLinearLayer", "non_linearity": "Tanh"}, {"class_name": "LinearLayer", "lay_in": 27, "lay_out": 1, "weights": [[0.02185752315168734, -0.050205354310424534, -0.16092792957032903, 0.30152350065666844, 0.26839257562931557, 0.10407425445101896, 0.13281061124064356, -0.10139436750560785, 0.02395060132661663, -0.2112155836850139, 0.1835166230668247, 0.39207823773874845, 0.34308669170408873, 0.3125320620735977, 0.16763344238719316, 0.11036635422810803, -0.2988111667768634, 0.3776076147049918, -0.19357362422582655, 0.5944362633059705, 0.2502951514590198, -0.47288928419624116, -0.34461041117675745, 0.35130727138660844, -0.19269452219574346, -0.1716656934646883, 0.020352292752728658]], "bias": [0.25812330943673323]}, {"class_name": "NonLinearLayer", "non_linearity": "Tanh"}]}