{"class_name": "SequentialNetwork", "layers": [{"class_name": "LinearLayer", "lay_in": 27, "lay_out": 27, "weights": [[0.010080778753675631, 0.8844271479826225, -0.3131187497460153, -0.21496653906831512, -0.010709181176600505, 0.2101861663738452, 0.8958012613547054, -0.2811073155593644, 0.5450298229472796, -0.32099829103932825, -0.04016048195253983, -0.6146441300522941, -0.1725540685886481, 0.0005938895214374408, -0.04519130298155164, -0.3505831298097974, 0.08488838246107307, -0.05168875522525194, -0.04633609526148346, 0.30783188052316224, -0.606329803630976, -0.001956882265487642, -0.4511155009963849, 0.07950066096012548, 0.03702662370329918, -1.1060746953370633, 0.3598081161912729], [0.3480649213623351, 0.039639583691042556, 0.4647237953143319, -0.3490364008532363, -0.17724887653025792, -0.2702166000158558, -0.5549083682304076, -0.6689276511956255, 0.04105989538171065, 0.26034867015275076, 0.12095825585701576, -0.17332737339266874, 0.05391629888053577, 0.5151198488880656, 0.02058019553074403, -0.17543657704456145, -0.08845496893840486, -0.24575266486128475, 0.031297844120809305, 0.197170488987505, 1.0388838934056945, -0.4498216428856693, 0.010792224147037349, -0.047360489367338866, -0.4032087645220084, -0.07726644901511352, 0.1788837024565398], [0.6642706954858392, 1.063877209794187, -0.5319196166790928, -0.02350353585771789, -0.3219042447489406, -0.15030038512479468, 0.946278582654963, -1.1399363930759283, -0.11620999096321429, 0.19459702666698536, -0.27138514437191014, 0.10864220836095384, 0.14691379639262755, 0.014520745135550399, 0.37939723096797834, -0.00624888742254606, -0.19660525389645278, 0.14710378374326688, -0.018256346418158858, 0.541827241300639, -0.31560697569489815, -0.0677778667784409, 0.6395318724326914, 0.0688727456936002, 0.6542223622633957, -0.538747121399699, 0.23966600204054017], [-0.4489216041390463, -0.001198335826163708, 0.036977942348479946, -0.4622076316013465, -0.06398496402269081, -0.3341789840437495, 0.36612156468590346, -0.8943912018269997, 0.5939025928062499, -0.11142901403969886, 0.08587009391169323, 0.05496716448393786, 0.08527459689898251, -0.053850357626510116, -0.03772999367325447, -0.1404665478508584, -0.18303173698040612, 0.11732961127507147, -0.5512915325324922, -0.2842388549789379, 0.3888864092539434, -0.22838405789615093, -0.04522521434762902, 0.004251752061026292, 0.6181702507941906, -0.761863495716078, 0.5136949234892204], [-0.05268141688211318, -1.1230789851169556, 0.09903828521919893, -0.2898438919172046, -0.45635419955901063, -0.6810704926435425, -0.19079229066487077, 0.28384359524017905, 0.054980255919078014, 0.1383250745797734, 0.14378029370720322, -0.13124462934264808, 0.1499076738324275, -0.009120208207832247, 0.3671003221323358, -0.18635444826998018, -0.17287725401024184, -0.28774426647748097, 0.27044524257911645, -0.9227033575722753, -0.06473284297013818, 0.4616154497797922, 0.44995317680732205, 0.06302585309823655, -0.1471604641371646, 1.3141162748575475, -0.22027677220737718], [1.3036391593944854, -0.17219737412985578, 0.47246698460265174, -0.06231799099551851, 0.9739735798142053, -0.050575876118725833, 0.10042508564040276, -0.17734575393639262, -0.6825263728143424, -0.03681540328378733, -0.09149353429046149, 0.02191736509057205, 0.08501494187501506, 0.011291520822667418, 0.044855196842421875, -0.009423336798442025, 0.27247328694768147, 0.3987668202175121, 0.5173245649796752, -0.40781315429215126, -0.32298912145144776, -0.11744824167793884, 0.6175359905090172, -0.20938147023728798, -0.1414191146437863, -0.38107909640478677, -1.580599810840685], [0.1726354223470494, -0.14310001124244714, -0.33254708775408076, -0.33683572065588135, 0.954803117333535, -0.45269862079800705, -0.04835848578999707, -0.3995927058557836, 0.9348827646839398, -0.11964783655469471, 0.056466775585593675, -0.06521302570158512, -0.14015645267788837, 0.35339056222805554, -0.00348482137032326, 0.05638541702525072, -0.2982730508975371, 0.1907448630504598, -0.616546521053488, -0.1178934385986639, 0.014887340256079122, 0.23276918925853435, 0.12450056261050584, -0.1851215240716402, -0.06195663193821772, -0.05087358936688917, 0.7909906497352143], [-0.1915010709822316, 0.5252310414829303, -0.18089495341931686, -0.613068859414297, 0.24786942512552892, 0.23541618175256127, -0.9948529139629501, 0.017537499188247044, -0.553128015284129, 0.018550834021335828, -0.10079061950150041, 0.0631985593429414, 0.12576435828154164, -0.06938196446521298, -0.14431533104724897, -0.2475735895525885, 0.06363483620604375, -0.01732626823204965, -0.01587565219250196, 0.032525533693040086, 0.013403575981270293, -0.443876279871421, 0.22282056261350022, 0.714527207072143, -0.20768724748220213, 0.6722190961924803, 0.35626820095194245], [0.9753847742201851, -0.0791671138938212, -0.839246978440496, 0.028475905523882628, 0.8747760581636596, -0.41165951749404334, -0.39319020200694954, 0.09409687067934368, -0.4032994096276798, -0.22960197473243885, -0.37096187101967937, 0.15422321252928356, -0.04897824536601288, 0.14985355964207897, -0.015480178337938745, 0.03030059005553003, 0.23077728347735738, -0.29471634628267773, -0.4269021769918372, -0.48421966176792286, -0.5940272363372379, -0.11121919651988572, -0.05389464480334291, -0.5759564619550288, 0.903319297904086, -0.2994346099153857, 1.760111951434555], [0.3858514835950769, 0.3141419084792783, 0.17458910126286223, -0.8991160549683367, 0.5005999441236008, 0.15000627173422443, -1.1014752861299362, -0.6313407875313345, 0.1489946280711186, -0.5658452649494198, -0.18695928999250339, -0.16786492602511752, 0.06729942382140584, 0.08619132015190871, 0.031526082073840736, 0.2721652240505533, 0.20632334920795842, -0.0446934240472794, 0.8558489773791568, 0.08918864961041137, -0.18225831353625607, 0.16747244464540484, 0.037350517623278526, 0.13158011927436536, -0.6252587287862189, 0.4313273414309199, -0.7761873400338869], [-0.3747198157618973, 0.2603993704506252, -0.6534649721262916, 0.34570752877296956, 0.281135908289253, -0.017657402319988434, -0.20099727707519133, -0.482038665279056, 0.479819998190795, 0.17819274293707046, -0.08083368086179145, 0.44186543104982223, -0.1202439361341759, 0.1912584435913013, 0.17507648357360572, 0.031044822222774982, 0.042458121248904315, -0.1546610188486191, -1.3587321599014939, 0.6334018845036389, 0.028309185014418873, 0.47256092196214655, 0.702894558035162, -0.7610299068599514, -0.2665629938355685, -0.011091028831325695, -0.19459292022918662], [0.9152972912517545, 0.19305830228670814, 0.10566446953173401, -0.1475360631563813, 0.10392752584372968, 0.4403128949077463, -0.4483155607902992, -0.647540750672556, 0.2983897428828821, -0.21046947595111212, -0.5003558038954731, -0.4371927399223688, -0.4626306951986762, -0.010598213472407846, -0.21581040002319768, -0.10749985123478391, -0.6145225809900746, -0.33605534205191173, -0.17349569654546518, -0.06433483228112293, -0.8850884784463138, 0.10203614676200062, 0.6639813736443841, 0.6631429995403924, -0.175583405419141, -0.1873667097661022, 0.20952171907770412], [-0.8141584618831138, 0.07016163427894566, 0.04199432852906056, 0.5568058605553288, -0.9555647660411173, -0.1941177849052057, -0.09866494549138674, -1.4034447520700966, -0.21926037946626123, 0.39720153743165937, 0.08909001902069243, 0.24467614986250874, -0.17968056783663147, 0.1963406734289941, 0.15899752344493495, 0.009539753488854783, 0.16982235494939063, 0.15342767670987334, -0.2490623145984373, 1.153358649401744, -0.2667484021752383, 0.7495100742167059, -0.2655490628696142, -0.6678871140774488, 0.24425768931629774, -0.09359955303985915, 1.2670429920775361], [0.059549933843407184, 0.13827988351902523, 0.05384850893773727, 0.13528040073121897, -0.8675951983362477, 0.28966452738884896, 0.577153345175496, 0.04701561866242823, -0.7957788646168831, -0.7275830140517815, 0.2198857969267079, 0.35864404967325764, 0.04319103241334991, 0.012968690253117152, -0.16150723881323567, 0.08192568007911849, -0.03013786825765286, 0.22415700931371177, -0.058989755948010036, 0.6956019869070078, -0.22026976712979335, -0.12375085074394353, -0.6432445569893253, -0.17140294324141134, 0.5850243347389856, -0.5712893312926433, -0.1000456206523031], [-0.07042442381255437, 0.08419978152029477, 0.16343711432533764, -0.2694391561221926, 0.5860429537602835, 0.33883380227523696, -0.20668771980476755, -0.28697490374428675, -1.0210351159109212, -0.09984263215043496, -0.20703585748094966, -0.19374191694044335, 0.0011160238134301963, 0.425961950531818, -0.10969715309747163, 0.019280213277451917, -0.03508642599493155, 0.30995317068519596, -0.04914363234282135, 0.3057764809905621, 0.4502669683342237, -0.03996786006852499, 0.40980787728840207, 0.05315236504316837, -1.1785084808676418, 0.3804124135532928, 0.08978115605663761], [0.607398037008239, -0.1431140617965715, 0.5036072021807599, 0.361740451269637, 0.08069969748865367, -2.251947244750963, -0.6813113815252673, 0.11285453549801011, -0.19171543056324786, 0.07043190172434713, 0.03659963900968373, 0.012720780591454877, -0.0893916876374086, 0.2076839171002345, 0.040130016177503884, -0.23479100029645478, 0.10614494365370791, 0.1244019198873411, 0.8377091227851885, -0.5731874149098264, 0.250506381377099, 0.7307252157524634, -0.3055617544806656, -0.9179829538432925, -0.44908065716425455, -0.43912488638232167, -0.18436418435608226], [-0.001919271452739873, 0.2724610604890076, -0.287385231999885, 0.15574930625221456, -0.4852522243918823, -0.9644645511621517, -0.8264628606354678, -0.5665163619657374, 0.06347990942899015, 0.11101038609052921, 0.04811815923668638, -0.36792872064934545, 0.23619991242967475, 0.11907725985936404, 0.17546166298257568, 0.3801857151631735, 0.2958112232015327, -0.3062323637012192, -0.31852896994695906, -0.1828620587624001, 0.6026299803404602, -0.2711881968321792, 0.10286257661344658, -0.08967215430986242, -0.04373307695870921, -0.7373861537932237, 0.5976092061587119], [0.45077680319600855, -0.21111961036274013, 0.6647476534668209, 0.08618940779468606, -0.8099724501673992, 1.1029961947349207, -0.47365888924038435, 0.7849900067713977, -0.4026856841123076, -0.016904903394831937, 0.00022293754166771061, -0.3262726448287152, 0.03554020508563547, -0.22421804595702216, -0.10629202860414275, -0.21808488416221525, 0.1597465841199446, 0.25619572283021047, -0.31969702917687604, -0.5616195545047356, 0.8636473500433411, -0.12269654758378971, -0.6141292824604491, 0.6980490703469502, -0.33915885604624074, 0.4549042854046327, 0.4785246206090901], [-0.4356063755108761, -0.044010827774756206, 0.8590419884394184, 0.38601094636310185, 0.6533392278225432, -0.2784734071936351, -0.23689102574213186, -0.3827085962360585, 0.5002625341703044, -0.012298364695648982, 0.0430789041775642, -0.006043307352740107, 0.17283625831510915, -0.3903154538051181, -0.20791442261734133, -0.24203631412376045, -0.30722156310276416, 0.23666046438141314, -0.9981597259700989, -0.2282428942802601, 1.010312268253698, -0.010083645960054578, -0.10420969367634159, -0.8625344949325336, -0.7090452577532348, -0.0630401953030479, -0.03134857221186411], [0.12333167133730331, -0.3039617682386901, 0.07090983275971366, -0.4880524535194935, -0.6832079467534765, 0.2079706621131226, -0.34117537942798926, 0.49424929025974007, -0.0653381718499843, 0.2564324833468356, -0.06637050799431408, -0.0019486880523220075, -0.23517552807587744, 0.011267306263757318, 0.8561651159667345, -0.05408486036872033, -0.3590678430377758, 0.15121816084123946, 0.6651406902269988, -0.17935455430113345, 0.794967472008564, -0.6390211807778093, 0.488336426814361, -0.008342595162141612, 0.18019188716613246, -0.2946883523662569, 0.14787531859309835], [-0.4881165917024861, -0.3890043482477449, 0.171878262736864, -0.16549650939015714, 0.6597750947349421, 0.6004863457563635, -0.8565401910974383, -0.6230565264850412, -0.1565260607569941, -0.3906445572300321, -0.03585316733796257, -0.07514612470378933, -0.29565011543473346, -0.46459750020785084, -0.09591878390393666, -0.015842907520183646, -0.0011712667627550943, 0.19462353604479316, 0.210851845220006, 0.28496017471206614, 0.6766468850085294, 0.5788595164336227, 0.989603120569718, -0.025458218331212867, -1.1500304127744965, 0.530951231370805, -0.11801489314947052], [0.44183340358501755, -0.019020619717227884, 0.8001815895508405, -0.5736094699021703, -0.13497799070847533, -0.5216789252537614, -0.4598823586603972, 0.27652951702948814, 0.7142668962363157, -0.03247897101243644, -0.14946506568982326, 0.13168719262758485, 0.18324151696684346, 0.17125786334456994, -0.09958328100212933, 0.020819113701968525, 0.10451260245138386, -0.053081724327682864, 0.14098792190472165, -0.534461330600366, -0.007237999080299995, -0.4456686484450072, -0.7777270781124557, -0.3522083638585265, -0.2277018421038975, -0.07205692610313598, -0.10505969756649176], [0.6695220537702268, -0.20900259907774368, -0.8197782744965975, -0.5099307987218107, -0.26183277919305287, 0.7286200524024485, 0.41922117642007223, 0.13718568997927508, -0.3292104949533987, -0.3258369842687086, -0.1225256855914702, 0.17287432169232067, -0.03206569646321389, 0.11078368782969251, -0.32460547141850576, -0.10118911267254019, -0.12195798474829189, 0.19133687618049666, 0.8571776583567458, -0.2135590191083024, 0.027604689855480154, 0.5536492641800904, -0.23240228451490513, 1.1692263857563945, 0.556514013540592, 0.06482739824281532, -0.8270571906670244], [0.7974188322494662, -0.12287326455803953, -0.6187448360713336, 0.017209870161286913, -0.5284190494857662, -0.21827478089972144, 0.17401276547133565, 0.09981453509582176, 0.16190097513572793, 0.23126745745308955, 0.3787743032686542, 0.4563191474407899, 0.19755709738410507, -0.25401588621941656, -0.033913594775405086, -0.14676658660663455, -0.11222296975498162, -0.2218936011569947, -0.5484495157308438, -0.3917048987887675, 0.5480212258620719, -0.5227771258266947, 0.7168680453777523, -0.08776611824676342, -0.0760713762872399, 0.5940526989545676, 0.8335556603660498], [-0.0009848048239724165, -0.3122287279311303, -0.008245172782121142, 0.277501749522903, -0.5606537092399877, 0.12445583997016348, 0.10062593554936423, 0.9083296833444656, -0.12847388986668526, -0.025410968219664352, 0.3461467576142251, 0.4742633703273545, 0.19575324000117358, 0.5671160357930096, 0.32728036905208874, 0.21995317569297723, -0.025527716868929205, 0.24498823937128864, -0.08706516088681894, -0.9487771201048966, 0.12161487918503412, -0.038768263717065245, -1.1670234342603718, 0.20674771875150255, -0.41799514691546474, 0.8584518865901335, 0.05973588918802269], [-0.38151092259372155, 0.6979814186093833, -0.47167881549718293, 0.07506523135608012, 0.6272209507099036, 0.15042463029302144, -0.34165748325187817, -0.04237688815346562, -0.32670437972664035, 0.14216182777113437, 0.08791676154336292, 0.15005713232119483, -0.13363978700988513, -0.0365389690458694, 0.05524576289532432, -0.07043714690996657, -0.2217087561798109, 0.10247348712259383, -0.09558863408322711, 0.5953958941969881, -0.43933468182125973, 0.38647299359135406, 0.5060519486128481, 0.7367108144893106, -0.40645791718342866, -0.169050022668525, -0.5401204863280111], [0.2907896015411725, 0.5980754963137374, 0.0834361032699813, 0.41534094988040055, -0.3772483689650232, -0.2848689558543796, 0.16166146016278998, 0.6958196792343576, -0.774975718283243, 0.014513337837259459, -0.182688490614211, -0.26921689335769033, -0.28195397611520756, -0.2517417767222265, 0.2370972926599305, 0.019398328644970646, -0.3131483790988384, -0.3686616147183902, -0.14858131670893207, -0.12635279744276207, 1.099272122123479, 1.4301544411773903, 0.019821332278355256, -0.4675771001893247, -0.34287007216599696, 0.43089485937317457, 0.633045247391469]], "bias": [0.14025019585780726, 0.3694502959105532, -0.25070555716739445, -0.21218775954803978, 0.06020994152129994, -0.19035347275449532, -0.2055121474404476, -0.19421712468605154, 0.4008452873240209, 0.1365520805075911, -0.21574110470106447, -0.09686832732681444, -0.22134068475983393, 0.03882645629549357, -0.06963881447306872, -0.04417241790056435, -0.20580217601758516, 0.15033128541032728, 0.031490426652891146, 0.24858159787408762, -0.11604495209076666, 0.2292998423491573, 0.11576160555418238, -0.22713413482174058, 0.19570761616325066, -0.1392811311164805, 0.27057766006732764]}, {"class_name": "NonLinearLayer", "non_linearity": "Tanh"}, {"class_name": "LinearLayer", "lay_in": 27, "lay_out": 27, "weights": [[-0.30048128183760464, 0.07732411278820758, 0.37920678706619304, 0.20763714517274023, -0.6934704912516257, -0.41313777333312596, 0.18299078359202936, 0.23378512872265278, -0.5683543615806028, 0.16659647071086026, 0.07663721910329889, -0.4351232522066836, -0.003730363712579109, -0.3895128308221112, -0.15764198204566038, 0.09367997202644089, 0.2500123099074728, 0.17519551388329002, 0.42479407317230417, 0.2990031706764497, -0.7902698607926821, -0.10938290494854251, -0.6321844357041609, -0.1674988752906161, 0.23050275671165701, 0.5942625717002926, -0.034928483043356356], [-0.26769773070483827, -0.058254005788061364, 0.013099006969884263, 0.2862753963762559, 0.40584340920295403, -0.24130290658588274, 0.028613450798337235, 0.6437009043035334, -0.5731434948915518, -0.505437458633132, -0.007029610634021834, -0.3417292387559759, 0.32291766668735633, -0.1700897022980047, -0.4756383860211118, -0.9086720190325119, 0.16401880427782614, 0.3562437521070307, 0.2991033561347927, 0.28252289568911515, 0.1309174024175148, 0.13638301030716757, 0.06440101942957412, 0.2562450091939961, 0.17843955889760266, -0.2602479304170322, -0.027971442717774585], [0.15321898551774568, 0.020158113575945096, 0.6519045254885056, 0.24874185275045407, -0.585595440112336, -0.5235981450156584, 0.0880553191399028, 0.1376239077513554, 0.32424004403989615, 0.18373320794930278, 0.0626331867091971, 0.11598979354331118, 0.2367976559720349, -0.6468010718891198, -0.20276677031437115, 0.41867068250291606, 0.8949601150282626, 0.3353021310207476, 0.15349962177915616, 0.4092934073246055, -0.13844685058031558, -0.5725506473339347, -0.00020780917944536706, 0.4449054352856481, 0.002343871024879796, 0.18093320981266445, 0.622088663395439], [0.4814144874977941, 0.5733338026243439, 0.8568720401213425, 0.34779273106266223, -0.7670850348529239, -0.11039783305410998, 0.6906328357443069, -0.45942827263610486, 1.022312025378237, 0.17929270340862874, 0.6930934032548106, 0.4858997114015222, 0.25266067786063656, 0.299418215896461, -0.47278050164956853, -0.9930344600847839, -0.09543698523572935, -0.3074703221442277, 0.1071512257895533, -0.341838086846833, -0.31823309821419493, -0.10185384775736948, -0.10485470673362111, 0.2770502477427885, -0.15601607574059503, 0.05252002587727228, -0.7498925951853611], [0.15264743785875343, -0.014783776711253091, 0.574678500677244, -0.006144712665401899, -0.28156768497302403, 0.5979256341526752, -0.17657357995194528, 0.09035090444231597, 0.0558651065879121, 0.2822320574601943, 0.03519507652269981, 0.03946992324731341, -0.40900693571463687, -0.34241658592541896, -0.3207058519787329, -0.24071351963897358, -0.40643662905376354, 0.04726927466310133, -0.9051874477455623, -0.4562836663522322, -0.42091536328829043, 0.36793290168050224, 0.824321178811477, -0.27041921074096364, 0.21812248241596482, 0.70372755552601, -0.3606442466980725], [0.26304696840039504, 0.19471016582160194, 0.23976596889110569, 0.2832334560603629, -0.7872901014108747, 0.1677654410394727, 0.09312439258415015, -0.0180415639255978, 0.26849202810882716, 0.16056023498798122, -0.15442001324949123, 0.32118760727342127, -0.6527723684363231, -0.21746369666057705, 0.9758788657153701, -0.10187026291224725, 0.18781159408075956, -0.25582716140601663, 0.32692610762529073, 0.2220409104746898, 0.6098899139777074, -0.011527604534215892, -0.7400373749728454, -0.7066361593093866, -0.4533723041313873, 0.020315363033672873, -0.21897634533739554], [-0.1633562891998803, -0.24375673591316646, -0.38440945712747454, 0.5049636959038616, 0.5582015749621285, -0.4588220804645541, 0.4964129857965219, 0.4188989709747466, 0.08803856778674501, 0.23296522445184997, 0.6211190771248005, 0.32353816345534137, -0.12851776241847285, -0.30299447952026226, 0.2790318789931161, -0.5302277107320273, -0.21780340127274017, -0.010169716607628308, 0.45449943304162754, 0.18004571426424282, 0.22825889802589494, -0.03133332084529019, 0.38959887308392005, -0.0848383601661198, -0.2566249957529343, 0.07024017794477033, -1.0456315035256176], [0.3253937445520327, 0.5161226361853558, -0.19262614689438506, -0.4271176276355185, -0.3383321786417594, -0.14182105581732316, 0.013662772627941314, 0.16668358936557265, -0.24208472510445267, 0.2991738774225011, 0.004887345736071284, 0.5814938246214066, 0.2701870720822115, 0.018538550825898024, -0.9838613722528509, 0.9194253812952614, -0.20058628254234157, -0.035695405767343084, 0.11281303161824513, -0.023398056968557655, -0.07673903584767372, 0.5902632791346871, -0.11194499913107869, -0.6167413513613365, -0.2045309770617128, 0.9308344085607478, -1.0557234939905984], [0.5937943417926762, 0.2043188666288376, -0.16884308279189886, -0.19790206530412469, 0.3077038158279024, 0.2779265340307837, 0.1311292325869704, 0.05670226735547319, -0.41550797253983524, 0.5457281095067518, -0.3530943897329492, -0.21689563071408752, -0.2822531002954285, 0.03732172535156386, 0.6988374146912419, 0.0029797584247178706, 0.2775764956275784, 0.29931784716500975, 0.45677969075253555, -0.27067090819037337, 0.426068927198406, 0.1519909593157284, 0.009426641269783024, -0.3179266248794534, -0.2643012106094347, 0.08171623296078634, -0.32391805070072427], [-0.058522863223682116, -0.289171347063627, -0.6558353216814087, 0.5335607235369086, 0.6456802715067771, -0.10121427483801788, 0.11723314214359386, -0.35223076166900863, 0.16390816200156857, 0.4161573609223666, -0.4048690209471618, -0.18730335516464025, -0.14000950879787868, -0.5283321720091595, -0.6649237759508511, 0.17127596750513094, 0.038634874296784985, -0.6651951129953834, 0.5120058543606295, -0.11867849968651094, -0.7758714134152285, 0.7802909494217879, 0.30615121316523763, -0.6640737749192811, 0.5518688616395427, 0.1486596370746488, -0.6933423377157409], [0.10451718895470488, -0.26112705572419204, -0.04515663611672617, -0.034644214631548445, -0.3056438416611976, 0.3496582464578513, -0.475686088667597, 1.020761825344809, -0.2515288512946904, 0.43529189440415766, -0.15004137427672318, 0.6460127297594097, 0.07783458076280071, 0.3583472570822492, 0.6164712043230162, 0.18629309379258308, 0.5360247301414136, 0.09924665559202932, 0.048939746182300056, -0.26247644870083564, -0.20135893270655916, -0.18650149105420058, 0.22598825404569706, -0.04501661817047281, -0.18225861478744274, 0.536721534049758, -0.15268496629299114], [0.1060684277042109, -0.1783689514117269, 0.2254792179610088, -0.2770429237025692, -0.5880602075024981, 1.1137031922894938, 0.27899059982682345, -0.22430279651574905, -0.20337364644458206, 0.08544089369305874, 0.3220773580196403, 0.06811700541231885, -0.1731063466433733, 0.20362638706039157, -0.013366122851909476, 0.8867420763252564, 0.23046422247716597, -0.6632397716929478, 0.33408287728233815, -0.31231994694075893, 0.19425838032724638, -0.17329517188945653, 0.01440561833338102, -0.0905195966913103, -0.48236513727027547, 0.3068573925771699, 0.12528364194211328], [0.49265380005217707, -0.026328673921104495, 0.057294859794281235, 0.22873829267511375, -0.9584823361433702, -0.40250916948481935, -0.4780174120141999, -0.4802745485321522, 0.09741106366287992, -0.7696048837906528, -0.43479336291765397, -0.1591386638001413, -0.5757774903481548, 0.6688477378866703, -0.46067341633087333, 0.016273518963247843, 0.13334402492054112, -0.56116224032672, -0.45466281442805007, 0.6133112431671316, -0.7158936334460267, -0.035484789315387795, -0.03802703518488612, 0.2319064184091028, 0.01464828800378964, -0.5190722175667353, -0.28782966651122144], [0.08766673430113361, -0.11167404559834183, -0.11472266229378661, -0.5428911927099945, -0.20465681175738976, -0.8258044526238734, 0.11933963959427409, 0.2897703025954354, -0.22972778384754627, -0.7038141382566195, -0.1291634460786626, 0.13699414103456997, 0.5736050564033882, 0.24578699164795376, 0.3139824715444251, -0.49649705147205764, -0.12511700246896792, 0.6981577320070362, 0.3258635718160592, -0.1397159398949026, -0.9690767539878987, 0.14296894324070236, -0.7401471851739679, -0.045852752201618364, 0.8427382173160565, -0.12251081834696911, 0.9349523671808803], [-0.0880275794222667, 0.4193884828951043, 0.42658609037215595, -0.29333388528670307, 0.3490609522843307, -0.8556717412404268, 0.17196312417761528, -0.03401770416393534, 0.41579176677636065, 0.6295526815935895, 0.5910384221335553, -0.39901598636813346, 0.44171379572850816, 0.1169155257654117, -0.545302751804314, 0.42090817810154807, 0.15491962833039968, -0.27379152007269186, 0.335727663777418, 0.7584488297472446, -0.14117989301539643, 1.237661849435989, -1.0285948671736644, 0.1271371237993893, 0.14616343691124595, 0.007362176588317892, 0.26555380993239375], [1.1607504247560032, -0.2069114479663981, 0.705285880127881, 0.10363807420437555, -0.5839018434104833, 0.07324084509333645, -0.14060431092690312, 0.23943874348617925, 0.9294822383477804, -0.0306253929024526, -0.20982396869567715, 0.2869076224524345, -0.34188549387091605, -0.18013900357587317, -0.21706741124177092, 0.46024073710701985, -0.6974124789823006, -0.06432835228559239, -0.19302253939866812, 0.5470266574348088, 0.4060558831317591, -0.46962390902726636, -0.14873642346386493, -0.261012594293828, 0.04879496197095159, 0.645854806172626, 0.24679974280626027], [-0.45293050554137776, 0.24827266967854666, -0.16422832181380326, -0.1104763175626791, 0.3012937771906218, -0.17016404985627967, 0.28792020752719055, 0.5482493977999404, 0.3484383956080047, -0.10022150265880224, 0.30499754739246043, 0.14845334054146106, -0.3899933856910231, -0.028218063477597928, 0.23111464348159586, 0.5902824958355761, 0.4465707414950059, -0.23472111576260077, 0.2886018183165127, 0.05495112660617323, 0.26090519784709965, 0.39105704153742493, -0.4132068598538879, 0.5835393299890086, 0.12471965034462229, -0.17236197673621861, 0.4180765484557548], [-0.6422026603400197, -0.32376217211849745, -0.8842143693862576, -0.647797986224876, 0.6353322752003134, 0.778148301523468, -0.23097988908450706, -0.5784550621470756, -0.18849542463792812, -0.012329374005093012, -0.456049603734917, -0.04379838844109573, -0.7724432474412606, -0.586425542479844, 0.21889342027322115, 0.5202704678986051, -0.21656610666086287, 0.4262385005467937, 0.11982266170938347, 0.21438844613777244, 0.3799751427387794, -0.07815380413769889, -0.3647058485865867, 0.17884688017697484, 0.5183340694262484, -0.8805800213040309, 0.3216411633492024], [-0.07385449123045312, 0.13199770107944717, 0.6373729401146612, -0.505908953578919, -0.19530582970276522, 0.23664616531942928, -0.8552766805755132, -0.4510809697397708, -0.6963135178056348, -0.23802262145804048, 0.23144323383079246, 0.09058881147105124, 0.5390308068191103, 0.7371376749867622, -0.070447268785859, 0.0038765484642993716, -0.3661524737778731, -0.4281846479295214, -0.05776636013284231, 0.1267951311011993, -0.5775879005818194, -0.18190298408719602, 0.40053208362350945, -0.5480269905903072, -0.23136011553256208, 0.011723573236194582, -0.07273091514049194], [0.22249378639663092, 0.32329204975818, -0.25791281140876243, -0.5891903127937815, -0.29307484737094075, -0.34144456844073745, -0.058798755424044655, -0.3692356013011573, -0.13062103623997634, 0.23371503096889218, 0.08358166931347238, 0.15774402449320304, -0.3745586439560219, 0.4757823579740108, -0.1273492287902366, -0.22547232406878898, -0.2448641972371767, 0.06585365937246514, 0.015951916104433417, -0.06746441785201697, -0.4255783717352205, 0.16297343327916744, -0.1542891496494546, -0.12316990281226431, 0.27660940474609563, 0.010288327032535807, 0.27762626146956687], [-0.13460184909161246, 0.4922184667361576, -0.1625310509345549, -0.05972050417777444, -0.24641790677045777, -0.15843296848933316, -0.3637391859947576, -0.5528945289961525, -0.22308334058211957, -0.08645767625484908, 0.05473753621918771, -0.9605940850060596, -0.16104526570860134, -0.5498354811096542, -0.5521375058758264, 0.4042093299874634, -0.31514162923192085, -0.014930983648192895, 0.43118612758977143, 0.2765662787791084, -0.12114295254763663, -0.20696405163558937, -0.34046184172700134, -0.7703950830346588, 0.4004382651187693, -0.21366244985683736, 0.8944704058010142], [0.21142642573585557, -0.38799530550686856, -0.052678130018963674, 0.7139347768605349, -0.32372362743247013, -0.1167525376871356, -0.006184449372164308, -0.16911217585894514, -0.21151641563777712, -0.33123300822431384, 0.6565978129095132, -0.2190635013804071, 0.408992589765222, -0.020106288962592506, 0.024186113632163476, 0.5388161438631451, 0.4850284371678885, -0.2611514819280744, 0.3691187504757229, -0.30559498248719724, -0.001585260737819035, -0.3201269229567212, -0.6669463672282399, -0.4078363310288452, -0.1604531126045483, -0.17984844449742451, -0.3037091154255955], [-0.15694719152783923, -0.44279599717028806, -0.09862973869918586, -0.6604925786325444, -0.5526363197612758, -0.13088242472881137, -0.1891064574848227, 0.22340239605914894, 0.23703259034670143, 0.08464966773030638, 0.495614049772044, 0.10753263596005679, -0.42971967300562325, -0.07772006644505419, 0.22992561570072698, -0.537199166861052, -0.3361545850490292, -0.23502734271658876, -0.2808931126197522, -0.08930075219144079, 0.032555379175254265, -0.5629506137675477, 0.1685243371962591, -0.18967566692953033, -0.07516605198270594, 1.2026514471895882, 0.023232822008918505], [-0.34275273216442276, 0.6091704328486895, -0.3399554402506337, 0.22592009831961152, -0.3856052386596186, 0.4291995325584926, -0.2975109567669288, 0.5801861006518788, -0.5192659556105976, 0.8206418925061794, 0.24790494475141744, 0.4640784534365758, -0.48405410384126546, -0.34501156417812945, 0.45309259164151233, -0.11659725459396814, 0.03305290817399871, 0.35748434931485074, 0.7434019696780799, 0.020563868722675342, 0.6242359550293343, 0.19602320943218027, -0.662370155947999, -0.03632709597923932, -0.3436993652837668, 0.362667247659565, 0.21825652382573713], [-0.46726559081227936, 0.6301595006335605, 0.5737546660657719, -0.5157786221132027, -0.001919474737548928, 0.3392227274780313, -0.2923119514900755, 0.1465245067848041, -0.2856276610154783, 0.6543011695233347, 0.13644658341130478, -0.2311962654382388, 0.10146195469825876, 0.16945376432631307, 0.2276254916249833, 0.668837771575777, 0.26671890056594794, 0.756248685644682, -0.5881307964550039, 0.5324957666482978, -0.5956184651735148, 0.4306256405314407, 0.8180336057502947, -0.4146423216335562, 0.20547879841221323, 0.00410755812263282, 0.31021298037207173], [0.44713725107978375, 0.8313222508245892, 0.12096016494280233, 0.09966492395088236, -1.045868698238247, -0.1154018408886747, -0.06335195443524679, 0.03717237711574018, -0.4901321834018593, 0.6039299991054153, -0.5002737580553699, 0.24155581453189898, -0.022095625770258094, -0.14246353770817038, 0.02200551035096587, 0.23627247997205583, 0.1432555008401612, 0.825102903187753, 0.1391126840242071, 0.24005238045368618, -0.006118354624933034, 0.9699323653215575, 0.0519243841767014, -0.2699997588354038, 0.09072657699385546, -0.11072653442273706, -0.17312681533924767], [-0.27206392412589, -0.16775852978870257, -0.20061212546569002, -0.16666466814648567, -0.690307987463361, 0.3934490335846816, 0.4356612188074776, 0.08605700719591249, -0.6522695329001662, 0.2070224947515136, -0.011440637853680236, -0.12855045096445103, 0.3975356478417165, 0.09644876795008746, -0.09596166181451259, 0.19410154391272647, 0.07308735887912815, -0.04823420917733273, 0.5457848244835899, 0.16220339556025126, -0.006440136192138685, -0.20244306502943357, 0.13292124197669844, 0.1425912068950622, -0.3077598502988282, -0.38832313995334045, 0.14616159347583021]], "bias": [0.28960198517809355, -0.03574032295375225, -0.14215686156477877, 0.1339787329518666, 0.4173026496285965, 0.22432454805482158, -0.040638012102331554, -0.2397643390654955, 0.18388527860368456, -0.16760039401176363, 0.17384674175609424, 0.06130373030271489, 0.15605288247824067, 0.5577513804974029, 0.5019336920661209, 0.4590114752635759, -0.3616289223021752, 0.21323241825221745, -0.1895656865426307, 0.6039396019302764, 0.5656668344104061, -0.4145155135079623, -0.2818089152903196, 0.14346441522596254, -0.11128145440455983, -0.2225542018139519, -0.010787407123991188]}, {"class_name": "NonLinearLayer", "non_linearity": "Tanh"}, {"class_name": "LinearLayer", "lay_in": 27, "lay_out": 1, "weights": [[0.04069673841811463, -0.05386492146729698, -0.18406182884285752, 0.3295725297850022, 0.2601250547954034, 0.15259405432083678, 0.12176352025354767, -0.11755145107991799, 0.05589340520042835, -0.20347247999050674, 0.21110772143729145, 0.3967292035098672, 0.3430164095434802, 0.2906281080169409, 0.221771013725304, 0.13991911727674547, -0.2653593280024326, 0.3701481115137603, -0.19809623483623776, 0.6099652584116585, 0.26536272576267717, -0.43557422433382553, -0.35080834145498485, 0.29714718741028395, -0.20204669107090567, -0.2004570426296801, -0.023414654961445208]], "bias": [0.2939298789417444]}, {"class_name": "NonLinearLayer", "non_linearity": "Tanh"}]}