{"class_name": "SequentialNetwork", "layers": [{"class_name": "LinearLayer", "lay_in": 27, "lay_out": 27, "weights": [[-0.24513443504410265, 0.6255260763572799, -0.4662264454185942, -0.1440745869397888, 0.3655182828075997, 0.552633635302641, 0.7586883643793062, -0.07801866675953428, 0.471090222915092, -0.16705957341867453, -0.15768298377465134, -0.5197173451108257, 0.2132092327519258, 0.13159409845086187, 0.2205018148298198, -0.4347885661124997, -0.22645500504039318, -0.08297203560298165, 0.057271938478528225, 0.05201700364718882, -0.3492660420569619, -0.2024700446691384, -0.3096421403437033, 0.11129987088214537, -0.17934122590039417, -0.7108993130568249, 0.4142775387318516], [0.3131454692836021, -0.1750933848057759, 0.1427457241304353, -0.2509112248750869, 0.24634250129101684, -0.1446958787467624, -0.2696335677792186, -0.43704279512060057, -0.02062483236638756, 0.1912236356052562, 0.24154942485034142, -0.21956506292089756, 0.03606973935558096, 0.38582290264826274, 0.43047697335460744, 0.013801916349680211, -0.079863382404231, -0.3487369574600838, 0.07977134454053796, 0.21608160490757514, 0.6567641824434851, -0.2899429731256313, 0.015396798961467204, -0.17300117616179456, -0.43170093317373925, 0.2029534729061324, 0.32996097477000774], [0.6872707792045197, 0.5795397875735898, -0.47463687559015877, 0.07568286159865928, -0.31105744892424075, -0.25941435147811304, 0.6080595629339414, -0.8940603293519989, -0.13833173700350732, 0.04367745319485419, -0.5834594184172577, -0.09596477217978608, 0.07649959002636084, 0.11695177012739408, 0.6239725216316379, -0.00320834076197415, -0.32969344486033586, 0.23656117219888578, 0.14069798119926566, 0.36515144215568973, -0.09164886070765871, -0.41744966160177405, 0.6596572449778744, 0.05718967219203321, 0.5748353006043608, -0.4252969484495661, 0.311531207928553], [-0.5511092013806255, -0.06194724252202154, 0.04471148320706744, -0.2662565233438181, 0.08456409517822275, -0.5241660033368964, 0.31252150012151203, -0.8034901541734614, 0.513426345996263, -0.1566777197494914, 0.08485432586974616, 0.3531779138044291, 0.05165160588108143, -0.09639149427460153, -0.045911330714400476, -0.12327012382680172, -0.31452780792815743, -0.1986586663025816, -0.4794115919948607, -0.545926646550601, 0.03835960349267457, -0.23946965124905129, -0.13847022939149528, -0.10059761295216044, 0.4319153679518433, -0.6322091790747882, 0.4566039793417186], [-0.053138832849149775, -0.6773605323597748, 0.26717612810646657, -0.1297035207866458, -0.3178929101914221, -0.4117688380006068, -0.19685078256128702, 0.5457910328043792, 0.004129241704017958, 0.30967055399595106, 0.1891393985082615, -0.2329054756670802, 0.22714563582166633, -0.03562836343283138, 0.42737452203002757, -0.12064031429332454, -0.3231818420672544, -0.33855140422960184, 0.24688707993636028, -0.7542987137600621, -0.02239897606433651, 0.3383657463929875, 0.09622677272027634, 0.13289136110747232, 0.10892952559125574, 0.8498247045782562, -0.0907496248822916], [0.6461143513683617, -0.09112569348708952, 0.305211278360087, -0.010358031152767124, 0.5759423751868121, -0.03276286874701262, 0.02636157432841574, -0.43687618745572865, -0.6455161373298293, -0.07507893621579889, -0.3979737378834381, 0.33298677585813613, 0.015099166638904949, 0.010874596238435943, 0.0877782136883451, 0.24984454778168808, 0.06409876029068373, 0.6097824352930415, 0.4014557767669783, -0.20555020862016404, -0.19354230754621057, 0.11240200497177825, 0.5907225840315199, -0.43489240574386806, -0.17990258369141546, -0.17497816866771307, -0.8811835368864911], [-0.24926703467579528, -0.07666799042728585, -0.3189837009548396, -0.45953000346920864, 0.7862279987055972, -0.13943697033819133, -0.13506018339328957, -0.46674956707189896, 0.6358812791230857, -0.2154156612844999, -0.09211364078663101, -0.10232743331757058, -0.34343482710536405, 0.4282484622849732, -0.04568304472537742, 0.21405336069020933, -0.08933849772735081, -0.14319664009843375, -0.5618115719573576, -0.06864910293770793, 0.2689651885501486, 0.28296154085642977, -0.19565115260556176, -0.341975205436699, 0.1449621805469089, -0.0942275761152866, 0.30727747711925524], [-0.2596433979183633, 0.37685132433088964, -0.13558543188951117, -0.40319664763900825, 0.11004855924487833, 0.3073453252775085, -0.8437798263943275, 0.08981693629707553, -0.4638228099401286, -0.1124499249274451, -0.015063569242475504, -0.46520704476048763, 0.08687953980927783, -0.26857250065459576, -0.1469889334649223, -0.22981162375521755, -0.005936019896848662, 0.015927312792597667, -0.020397782863419384, -0.13853737582264047, -0.07651376346973081, -0.6897949359547244, 0.0008385806989706135, 0.4877344863960802, 0.06638489439086138, 0.40506490222362274, 0.19184454071059526], [0.5500289929333976, -0.2044106191158593, -0.4942631186171669, 0.004059168322932633, 0.5857395578425701, -0.10170212246589695, -0.39559844824614643, 0.1263530013316107, -0.3792239563757549, 0.11045203888858511, -0.1866808583071294, 0.24006535857733227, -0.07480747463309155, 0.0441785436033849, 0.038709612203154324, 0.14510867753323584, 0.11785431673827165, -0.4529435071253323, -0.3413363887326934, -0.1408493950786036, -0.28579495293913704, -0.30523127627344554, 0.14016781784073215, -0.49208076266564854, 0.7313046761237565, -0.33376418147268755, 1.0055286501363436], [0.169700544024716, 0.22683251984270825, 0.14751866533370925, -0.4771328247832535, 0.4225776543403631, 0.07978434230606678, -0.9310516999286638, -0.7866489203921505, 0.08653738619403017, -0.6265730949166033, 0.0032162040393803716, -0.059546064212085595, -0.008608536477014189, -0.09342840894267405, 0.2702397273230084, 0.43720989292808393, 0.38417951215639873, 0.09777482617815549, 0.4390341885126336, 0.3101027786728834, -0.2243143918380306, 0.303698846102409, -0.2812743255581379, -0.04778190578277056, -0.6070100191934815, 0.6083514163302775, -0.4244260783095877], [-0.09236113383200702, -0.03355689898506799, -0.574189533031579, 0.3449473295395955, 0.026656066173179106, -0.1481786252114227, 0.03544683335571953, -0.556994748328212, 0.44590351062456224, 0.11421438297700656, -0.42063448209697935, 0.03405397240452744, -0.08736304987331321, 0.09194380763145314, 0.20255059836706432, -0.04100276945662212, 0.2562160154296591, -0.12561601093656624, -1.123538304863757, 0.5269741822734997, -0.09555504085572857, 0.41450728702663175, 0.3822605385375918, -0.4233523124718668, -0.41984239776935217, 0.10890959559754594, -0.22694480151294072], [0.6102744364949416, 0.2228655546335063, -0.004367590188351562, 0.01571480866862056, 0.37596635057841815, 0.31321459620999775, -0.18978512262379185, -0.6794963738444001, 0.19043417839735646, -0.16342089379171512, -0.27214082918904914, -0.42739128964711687, -0.4397879064093348, -0.04803295759759243, -0.1590005948207716, -0.10618095244350483, -0.7461961373394489, 0.019867787901552966, -0.019580756320224792, 0.03220611745114409, -0.5275856708346639, 0.29950587413621815, 0.516157718953297, 0.33803342716065243, -0.07556104044585137, -0.18161290870856198, 0.10248118461915727], [-0.4506640352122934, -0.07586228017688279, 0.04077949621423334, 0.2514088267319154, -0.9066587076042183, -0.09022134627937638, -0.08162784134348572, -0.8112326477836301, -0.12117206044548941, 0.2643000026113113, -0.06196309893478689, -0.11053158387893999, -0.34959259266279336, 0.4042855421085562, 0.12894139117052908, -0.054816002884711466, 0.20776942095195344, 0.011990643095887233, 0.06582859322026466, 0.8838309512985631, -0.3480039443712638, 0.5125920977407662, -0.37675354109662207, -0.7723615203268731, 0.28376116158763387, 0.05281444659200415, 0.9512940740062924], [0.1378704298837579, -0.023318724559189225, 0.05715577821965827, 0.03162917268341472, -0.7159740618895084, 0.4221944674551367, 0.2436018791358571, 0.03655188564041942, -0.8000991119780853, -1.0168296484087365, 0.1650349915690735, 0.019694569557204184, 0.3126210699823932, 0.08365950033802966, -0.258105723155643, 0.0788463490726287, -0.13298060566519782, 0.19154262829445934, -0.15651923612368784, 0.4195970116815725, -0.07063672877713283, -0.5871210226545863, -0.07996340947923106, -0.10151275111711365, 0.3924686661723831, -0.4835820564424235, -0.0914207386492044], [-0.1769541402796441, -0.05320782060050992, 0.08195669521044177, -0.08443607203053942, 0.30269773755547663, 0.2250414068480324, -0.010781425840400899, -0.35230013391202314, -0.88778857740403, 0.060996700975279705, -0.2703405586010201, -0.16299498812976684, 0.0325092844725203, 0.45019054825696014, -0.19848913568703155, -0.24648223619565168, -0.2647261094262788, 0.48269000008788027, 0.1489871159363211, 0.3796854086871035, 0.05576678156319079, -0.01674383006479532, 0.12618217127522174, 0.011313487607819363, -1.0202456391927188, 0.22889930556502802, 0.11527428398351165], [0.4985723347762426, -0.0005299310339988723, 0.21861917399682684, 0.06855165321585976, 0.07614955522875769, -1.273840494983125, -0.669884666033401, 0.08557117820727586, -0.1945752074603862, -0.07110611429414847, -0.23598419782230262, -0.06691396225930142, -0.2406816334743574, 0.1853502416345314, 0.23103617190107856, -0.1629330085474662, 0.01162788297642608, 0.09397051447175798, 0.5968265493814845, -0.5555220034811529, -0.005416353039131837, 0.35219988228889215, -0.4884051001137277, -0.6154523095028505, -0.08725172101492974, -0.18272016427545498, -0.023196471129419357], [-0.32188734378374817, 0.22635055565580262, -0.5010117626959838, 0.016062703807457085, -0.41001543343109303, -0.6817729305688593, -0.3265990053221652, -0.619653600702136, -0.01860051211904646, -0.09212570969032682, -0.22757944033195768, -0.5413478719668473, 0.2197622618776278, -0.002366567568477385, 0.18191888003217643, 0.3145849588026228, 0.4330368921260584, -0.4789753050974896, -0.20341389550048689, -0.22493751897505745, 0.505184236888476, -0.3256227737757556, 0.023876980325675354, -0.19385707669838215, -0.10185721031882165, -0.7807872622743627, 0.5211291833574718], [0.43037623569469435, -0.02372212528354356, 0.4209243359275488, 0.24114749441867647, -0.44324899097255077, 0.9834975681520112, -0.1796748337984366, 0.8441086204388843, -0.25946701660027144, 0.0557491887262909, 0.22520413669129272, 0.15846007424531933, 0.3167608033030727, -0.39235662278763206, -0.15516436374194112, -0.07776247514692382, 0.34880472592722267, 0.5800767706228884, -0.0031147528276846666, -0.3812920607159863, 0.25894578387857425, -0.14562774701277595, -0.5306644925407834, 0.3422483899573996, -0.15373286852053197, 0.7345900825146848, 0.3667545098286779], [-0.4264249108853182, 0.04304842126107621, 0.7024468092526226, 0.11283780635904658, 0.45236467912656775, -0.015405773886595867, -0.06900084249282881, -0.40193341548839034, 0.5197167381228222, -0.2982851805990016, 0.11353467634047318, 0.18258621635824662, 0.23863814476852308, -0.46576488838107466, 0.07314733991166038, 0.06279437171914222, -0.18129981932683736, -0.014469455835196559, -0.9115099512982878, -0.354455940532929, 0.23893765552180748, -0.05697396868063958, 0.11097253776872755, -0.4775222791819443, -0.5194276956699143, -0.04630914683925776, 0.10790869414247269], [-0.04528932138076672, -0.38891174655127253, 0.39502182245428363, -0.3098659482545077, -0.46173317807256437, 0.14792655267487312, -0.4259262621138682, 0.5295535670793098, 0.034037736889419114, 0.3656704368193843, -0.013222888066255578, -0.37077832705760777, -0.5384708392326584, 0.184352135737588, 1.0829224151826549, -0.2424469793894, -0.626346291066355, 0.1854202417938009, 0.9199960433109036, -0.21773030231462623, 0.1211164708845837, -0.6894368036786099, 0.6420330089717001, 0.06422741224332476, 0.19357628043265782, -0.37787605137873315, 0.05743201830714217], [-0.39248869682244825, -0.20504163194320635, -0.01600185797040577, -0.5471381018808265, 0.3462682461863744, 0.5182688881959558, -0.3130685974627636, -0.6282853321817291, -0.021274056793988746, -0.21186973512751556, -0.17674424201253566, 0.12325258687505211, -0.20873712234136987, -0.7054875659399864, 0.20410316386327593, 0.4152070024064817, -0.11163254053333194, 0.22757835594792566, 0.054242592222564306, 0.09646538526849308, 0.6301863383176203, 0.5810064265272284, 0.48971044695190097, 0.037223673537791116, -1.0679511506631048, 0.3750156724879152, -0.21800672077417274], [0.3525148047688745, -0.06752401044000367, 0.6113264698987894, -0.34810864881317194, -0.08169100090888282, -0.44759006748380925, -0.1424828664707327, 0.37153159426724747, 0.5513271266951564, -0.22158443452407045, -0.268186539858059, -0.15578739289590693, -0.11911936637268224, 0.16369068760167269, -0.01996978333918937, 0.06389899698597065, -0.011783373354879997, 0.21991674295008518, 0.18694268227048141, -0.5585776244317383, -0.21425965953399592, -0.2773383217726528, -0.5534751244271571, -0.7327915870443642, -0.17638275246481014, -0.1791250111386878, 0.02827422459534197], [0.5702693290238695, -0.10578462599774589, -0.830009223122116, -0.46787697595496214, -0.21249916759680285, 0.4201321380235657, 0.1436355245209974, 0.06579680171797452, -0.1911771873862718, -0.4097760835765074, -0.16266747447257077, -0.00572439778053244, -0.14924404660508472, 0.10498923695741585, -0.37344004734715, -0.07932362486310726, -0.05617429677642188, 0.2680489582978206, 0.6321471561177087, -0.11202291241410696, 0.2576830745980495, 0.47919577253128365, -0.6703752196820559, 0.8978524361635561, 0.49602617504187896, -0.22701052884603926, -0.9022125009995381], [0.7759065627256636, -0.028676193199513, -0.3541352468519182, -0.21734658358171585, -0.2994448596869594, -0.05421931777144037, 0.05777979123856536, -0.08909227309259396, -0.12517558953846594, 0.12606611434668333, 0.5449338460984309, 0.5508247179829382, 0.09734952899471483, -0.47656822773633606, -0.05898869049637253, -0.08732745032185622, -0.021736235371787663, -0.6609919277701859, -0.5003065130753593, -0.2610508233608924, 0.652686585080933, -0.12215187943797667, 0.33370815493049116, -0.049667904995091605, 0.08599679661015378, 0.23821222422000957, 0.539713713787301], [-0.008802869837510831, -0.17008998356595204, 0.00819746571428491, 0.29317615513668505, -0.3423688806023052, -0.05422332996487822, 0.017972529716248915, 0.8049074573311595, -0.12802500879791512, -0.0167381918778262, 0.31680737806305104, 0.6895973282447247, -0.011881637367429532, 0.650250248888375, 0.16084173306642108, 0.09641175496340072, 0.33045634297734816, 0.0706087004064525, 0.2393711983164052, -0.5539456946230875, 0.2899188921542728, -0.06111695074165899, -0.6382142362225381, 0.22770933963202622, -0.37497403171152427, 0.567905418337983, -0.46626310186659736], [-0.32225400163231505, 0.5560643977763616, -0.2738412632977157, 0.24144478422117002, 0.5271520648556758, 0.17784982619027387, -0.08809216939551738, -0.3584030384805065, -0.2537799461160099, 0.09871982280445747, 0.2210668890939974, 0.07203671146555665, -0.011908997834586254, -0.2327361376477669, 0.1347262363118602, -0.2336123569160995, -0.047515414289830915, 0.3885127625118389, -0.09215249590713952, 0.5748782164109015, -0.39698539314652126, 0.10733185673420918, -0.03419660830579368, 0.630686410009741, -0.3845214460286407, -0.12216108571093034, -0.5866911388219535], [0.36923065323940363, 0.44741308616889275, 0.01946998505810572, 0.2787552770796937, -0.4419607231063372, 0.13353815682702339, 0.43218682741714104, 0.7024550645694609, -0.5105265916428207, -0.14092894557442467, -0.03593242836938589, -0.4567797206716389, -0.3257538804139003, -0.3114682831319937, 0.06233433430904299, 0.41490449036291766, -0.4296320784004635, -0.07949212022170259, 0.047313297950244804, 0.24023256242870888, 0.9990303373738834, 1.1312351390394229, 0.22282257014627335, -0.35296727065325373, -0.11401470036454123, 0.24611620108124374, 0.7132310299551938]], "bias": [0.09969497296255105, 0.16125072310181685, -0.0733514366078299, -0.1339164087406839, 0.005150763602484255, -0.11825638031876891, -0.0605073736794484, -0.11005322786511004, 0.2255723389648854, 0.08208519207106554, -0.0020790018093171233, -0.012564357337956173, -0.06642971041684141, 0.01945580084960533, -0.11561779195778699, -0.04797061504229704, -0.10311016876005874, 0.17180066020484297, 0.12842604390835846, 0.17458383922709858, -0.09698674514117615, 0.038718188102964284, 0.054475186290979076, -0.11449484799547809, 0.17136750992046948, -0.014545038866442393, 0.14398533824936538]}, {"class_name": "NonLinearLayer", "non_linearity": "Tanh"}, {"class_name": "LinearLayer", "lay_in": 27, "lay_out": 27, "weights": [[-0.2778354638638502, 0.07256892802500262, 0.06917803117148469, 0.06489992133017719, -0.46954069393022857, -0.5083896375255473, 0.3374418299382188, -0.15757726380155684, -0.434430657885423, 0.026377933168224958, 0.05796708858626255, -0.5064243281307953, -0.006711508898276542, -0.1472805175771796, -0.18590522466288478, -0.061977074487603125, -0.07035755437297418, 0.11406870551958352, 0.18358877361026515, 0.1776773872837608, -0.7611429776467676, -0.19020629085673568, -0.33854077633918017, -0.2987106581976751, 0.3001635079140914, 0.4278532301638907, -0.10944406033614688], [-0.37847346939603993, -0.13319153007750506, -0.21441314300985323, 0.28589509493275134, 0.43670683756240447, 0.023718146382174805, 0.019284224614066765, 0.8068440922516132, -0.4570529760359326, -0.42898135655680075, -0.23863591793795633, -0.35824982265470723, 0.1251286484096816, -0.06026359654795449, -0.2539799805584478, -0.7373700706729162, 0.08288633437349034, 0.03691065790142371, 0.2009644417183383, 0.40227742830055696, 0.24768075141828433, 0.04596909078232028, 0.04270676535058163, 0.20503839982947228, 0.12782287612701915, -0.016800922144860533, -0.07868783495808296], [-0.025875105360303415, -0.006059172316667641, 0.44706990501624866, 0.2950546376725951, -0.3602974288824294, -0.33637197075107067, 0.19067531018612455, 0.05150055240116922, 0.2777025308035237, 0.36554581928989427, 0.001805674663621357, 0.029350130108446833, 0.09011760988898723, -0.6015012904632951, -0.19424880772800254, 0.39545934958510026, 0.8115461759444995, 0.05688653021187951, 0.2331594971056326, 0.23254000097976488, -0.026341658339314247, -0.36744689347688186, -0.1664241620272001, 0.5350201483937607, 0.035108188262337116, 0.11236300213451891, 0.47026121148075983], [0.14358239553373875, 0.6995694448158633, 0.6067618260599319, 0.2956216620559573, -0.495662271407183, -0.18716728697223972, 0.52127148006859, -0.39160122854002155, 0.8385712427255646, 0.10461738338586524, 0.5820960869664739, 0.24575844845359468, 0.056871394253161324, 0.08856436501541796, -0.3989584659141014, -0.7909887097375015, -0.180031802756556, -0.22575021419022753, 0.14118464147503237, -0.37923064960039937, -0.25482615160704264, -0.010476678856396145, 0.005101552372770402, 0.16551077104125575, -0.052033293538044575, 0.07888820266581763, -0.5487831136666451], [-0.045303163365826654, 0.030564902823497175, 0.42122794317585127, 0.11856572306295911, -0.23550725510375786, 0.542548807706086, -0.2627139800123717, 0.015673920268020343, 0.18755409522953415, 0.01989731436653313, 0.08429040423654438, -0.15348410918017236, -0.2497937685364156, -0.36521851205624584, -0.43454062583019853, -0.1955538689032597, -0.22164721590834857, -0.0439056186965348, -0.6644044091366642, -0.5096599933582883, -0.2831990007853957, 0.1952210422014088, 0.6381937575424719, -0.3133069232238238, 0.16059614713051446, 0.6519740852190976, -0.4887231854606951], [0.08468950078880624, 0.06425703373188388, 0.0521677015410999, 0.2840146217616244, -0.4006208660709535, 0.17856216366248737, 0.08303455194355712, -0.39702890228829785, 0.293626716907143, -0.1528148181683404, -0.05978055302152574, 0.101376662261837, -0.738132133913292, -0.4199248936350674, 0.6701890320094066, 0.028972347117728624, 0.029530542336709122, -0.24851942748388534, 0.23955269150658176, 0.18942285724943753, 0.5350005278280479, 0.007419953941271576, -0.6584038453389768, -0.7348805754235809, -0.28153576774096867, -0.15502822668156596, -0.28309993383402615], [-0.13871793368017446, -0.12278369511625431, -0.19643748635689723, 0.36850267863856273, 0.57109863329418, -0.516474895514063, 0.31461379431433595, 0.24239269991046647, 0.16230292515225767, 0.04061018369436517, 0.5317647397404629, 0.429967692428022, -0.009431042388736393, -0.21154847073252514, 0.10215797698658866, -0.36927574175470995, -0.30688413231816675, 0.22444390700956166, 0.3608122587091001, 0.23616367650247036, -0.009119187912498423, -0.0009923818827154587, 0.446937581902992, -0.0768894599430575, -0.1295102846350901, 0.055604336813625185, -0.7446923344360806], [0.31170462690650613, 0.4930972896578497, -0.3060104061699377, -0.34296129398023395, -0.17162061787225075, -0.2342466879818794, 0.05159090542072136, 0.38198943311438416, -0.3811727347878968, 0.3647140253160528, -0.07761080001132055, 0.28466134327095577, 0.054542964574086215, 0.2023341750117816, -0.8971651381353186, 0.7452317802553364, -0.27926579318945105, -0.22240592054522268, 0.12926093513097753, -0.02112230542301887, 0.07944847421817501, 0.38536628840893017, -0.03337506434789554, -0.45464822851253905, -0.16194365884859918, 0.9267556125970269, -0.9182007818685561], [0.48645651006530444, 0.21738572178638885, -0.10777832158135182, -0.29309270823774014, 0.32189585755317107, 0.209859244655341, -0.06640930634496549, 0.05064900569803305, -0.32256041814753583, 0.3907295519655054, -0.3521865346028259, -0.3824958457184356, -0.1795535631381848, -0.018276214127087177, 0.5987050378018465, -0.0025665375070576062, 0.06084196802471915, 0.5174771462881587, 0.42309298338172596, -0.24313746989138124, 0.26542957087322566, 0.2576663849258688, -0.009598261989525016, -0.47586434747167927, -0.18746194697756463, 0.1336389815499457, -0.2524981762298076], [-0.047855390196935715, -0.2797666311547795, -0.6579658236944582, 0.6048224292494313, 0.5307743442499774, -0.08786101649816129, -0.06990809021235153, -0.15840150825451882, 0.15401896538290719, 0.5259806327425007, -0.36918274053044364, -0.20262785738874933, -0.07591482163614754, -0.3823794181263586, -0.5201949153078825, 0.4045057834739558, 0.15591770395191812, -0.5130264549867289, 0.685678444778349, -0.1738273828445941, -0.7306030884176586, 0.7758635690378355, 0.13285348837680283, -0.5220013253279298, 0.4749876329711468, 0.18414722528157507, -0.4235564004547761], [-0.02121450244046121, -0.10034340503770274, -0.12823470587221114, -0.014339088222649477, -0.10812726813542108, 0.17613538340042456, -0.35203904354918425, 0.7002307858056295, 0.019966721621432072, 0.20504109439739307, -0.08074709128313035, 0.4560634523824808, 0.07469305972501104, 0.17061010564850834, 0.3585927296170623, 0.23409128866271076, 0.4866748446668744, 0.2133396382133438, 0.18338859401704974, -0.1871852745932132, -0.32197804634207133, -0.0439772311003023, 0.10769043153273275, 0.2356521691784105, -0.11944809683888298, 0.15953650624701574, -0.17556180324312767], [0.1091952649695557, 0.0020856590327806204, 0.20761279000310723, -0.19261270909107311, -0.4564229783059267, 0.6140318585439185, 0.1916906271552421, -0.14655604873309658, -0.19873311953934442, 0.19390170924035877, 0.3039119348422714, 0.08432560515038197, 0.051449796208297496, 0.10804077919834998, 0.0103450140150289, 0.5718535843318491, 0.2763467798621326, -0.16274223841849758, 0.43976244262432085, -0.10420742403126158, 0.19955222233274886, 0.05369803982435868, -0.02740579980488379, -0.16279812839307792, -0.48197456382580506, 0.16304951782687513, 0.09475445079324452], [0.4523544421162682, -0.035205825790986335, -0.002447390143307242, 0.09287365958890492, -0.9928896967167088, -0.3117780723118304, -0.38870431852917625, -0.4903540976576125, 0.13486204039464908, -0.5449001768666578, -0.403392086568893, -0.049312023250712884, -0.47320750601843425, 0.4500889678800173, -0.3222424306121729, 0.047210663437090045, -0.2333253740359506, -0.534299700450211, -0.32097934869304423, 0.44593447124123364, -0.6566626819179003, -0.02941455034231632, -0.04646792286259832, -0.05150158843042332, 0.09043653017121145, -0.3197800706011482, -0.12547948155087954], [-0.11722298174814151, -0.30827768507668135, -0.19905914249379153, -0.6154672503172292, -0.017035197360932446, -0.49146130946732214, 0.10559560336021155, 0.41632754647081793, 0.11003411987493239, -0.6600473800062764, -0.16016380650764464, 0.3136187284503322, 0.3728976302893955, 0.2517025399968221, 0.3536601838977371, -0.2788384305064501, -0.3140397004529441, 0.31874282407899746, 0.3642068355549961, -0.08504584567987285, -0.7467071666144006, 0.09643797519365055, -0.6040318644057132, 0.08255073374668324, 0.38009391982027974, -0.10381280897981494, 0.668000133744167], [-0.110343833710712, 0.3935475324509633, 0.37396534760738925, -0.1013876703546826, 0.39578803673207796, -0.542598120775167, 0.20180399425844953, -0.1824743343472526, 0.5851007483996639, 0.4128957749894302, 0.18974150149331073, -0.23369302993312532, 0.25916352558791333, 0.4637731321129611, -0.5331634474808752, 0.2885925994405981, 0.15593445386214652, -0.1631328859941576, 0.318221402236898, 0.7807913769469007, -0.07727956161170949, 0.9872203241318991, -0.9375160286520585, -0.046423633241952894, 0.009017380435032005, -0.19241807216245754, 0.07595925463689505], [0.7039611800054147, -0.2424548792315992, 0.46543057358192597, 0.12245384944321393, -0.2324201577805027, -0.0691921821607812, -0.1606072043622375, 0.3561448950926026, 0.7045066084262529, -0.15330805708918255, -0.14169042495450948, 0.15446176616796556, -0.30604054478843595, -0.3218910526416425, -0.34126022009387685, 0.550184484472325, -0.4960223279251597, 0.03626338354297697, -0.21853825905434124, 0.6388836401811719, 0.4304740737255728, -0.46312296360245997, -0.21336519331940135, -0.35610966531598326, 0.025542408317495182, 0.33490074433174666, 0.01967574256074327], [-0.29691282680157544, 0.06823105612324931, -0.13665708100297164, -0.0448802956347959, 0.21309912305487808, -0.09116066285319088, 0.13790489655169022, 0.44569270744698536, 0.3341715149323336, -0.13579904732698223, 0.3803150745199586, 0.15299704036061015, -0.26201067664349814, 0.07923831508315174, 0.14806833974725575, 0.3740680658986053, 0.4096893327713074, -0.33238430773374533, 0.25289691762689653, 0.005214125983509983, 0.38644544376645723, 0.12310264866558437, -0.28878845397186753, 0.5336443300303622, 0.00909353954022873, -0.20620507440183003, 0.4240504094843381], [-0.4449556017616212, -0.3511759316930641, -0.6743414238880806, -0.42239773161592825, 0.3672574028249713, 0.5142576945658692, -0.17306453078460518, -0.5532520224538744, -0.38787559613512446, -0.14688227581248892, -0.35794288864532453, -0.1481820018992811, -0.5286327756881893, -0.852899267250062, 0.2518397677560186, 0.723855336764494, -0.14468952925492004, 0.28785267266961145, 0.11692668434403863, 0.03008046009560319, 0.30403230427208705, -0.09806255103992727, -0.33803339301827134, 0.025954626433142607, 0.4458243719574243, -0.7217212107976799, 0.4920058530353305], [-0.11709406642802912, 0.0011151241621787042, 0.3701936285286753, -0.5586664044855102, -0.08567990335086514, 0.23397611035382676, -0.8016258675861042, -0.3623801654512988, -0.39179520976780835, -0.0190999155428987, 0.12412779071966984, 0.12086138522620489, 0.38931440822418506, 0.7082680994026497, 0.10545048183390296, 0.021495687125194077, -0.21523867364546045, -0.4520150897972933, -0.13706697281438038, 0.22161103824590656, -0.5723295575640742, -0.12831204279597774, 0.4556262724995635, -0.5281542768532858, -0.21368220630559795, -0.07789586759273562, -0.09049307223329438], [0.22071128689784233, 0.11210085176339782, -0.2660251189853958, -0.7165796247880065, -0.25994468130812165, -0.3278653838828134, -0.024683274725377895, -0.5901312369604913, -0.14121531987868685, 0.28962193705205125, 0.2781185364821071, 0.1731310715405172, -0.3470105684833031, 0.4111440862446268, -0.2137320630580655, -0.020458147458203697, -0.1343387727725109, 0.035019268003384736, 0.10734075521070285, -0.15300925356755138, -0.3854309079768384, 0.1698156118605997, -0.09517744957877264, -0.20360563898380907, 0.22779425325042785, 0.15241541083853802, 0.12137781646187162], [-0.01704514102287767, 0.3738937942466809, -0.10931461839055974, -0.04257338183153179, -0.28997411027271325, -0.19345218439528636, -0.2851854855730887, -0.39625313530082185, -0.014044645295656757, -0.10968604797867289, 0.047668760539528454, -0.5960866458127332, -0.14322121234690668, -0.5074206232403172, -0.6319983701538172, 0.4496023719574575, -0.22932324357234188, 0.05191929573217259, 0.28841999719610456, -0.11107184818800435, -0.192515208640462, -0.26546076282280856, -0.38200240377439354, -0.5776560259687243, 0.27210168043579197, -0.27963644806303617, 0.8097910235465116], [0.2972173143824641, -0.18467547057663827, -0.10254241001441505, 0.8036665673572373, -0.33614547941425726, -0.1368862738958324, -0.012709439791768688, -0.1255584228370667, -0.2903303558290318, -0.18503416216527951, 0.6047082731250552, -0.21306815550873753, 0.36663357707565175, 0.1071692716718609, 0.22733851887940873, 0.3488085420052153, 0.5329964007248932, -0.34124285315777064, 0.4432061593527331, -0.3480524532622924, 0.06861427490166339, -0.37036705160613026, -0.7634613741047064, -0.38933782366041997, -0.15736765560690125, -0.221318901100546, -0.347485480777506], [-0.242264265404725, -0.2402512037658244, -0.26143643878030953, -0.514708711913778, -0.4455447297069437, -0.12037002701386713, -0.3118611214459282, 0.08578479456219482, -0.05291548673872464, 0.12381174587363364, 0.416983901925921, 0.002763183939664961, -0.30303199093709743, -0.08284726652054673, 0.22629714163665463, -0.3875413303867679, -0.3769209018017857, -0.09262790344924335, -0.042866981521171924, -0.06808536845909481, 0.12976209850521267, -0.4066542377175907, 0.13736269270702148, -0.05775555295859944, -0.029593197846003956, 0.8771755246220981, 0.03507799942553222], [-0.2163529679502464, 0.4400287210720457, -0.1593150627446816, 0.28500932043170013, -0.2866506144240137, 0.2899846484949175, -0.22008720077666274, 0.41337709534804984, -0.3336152172884147, 0.5558848329923799, 0.41357432091668733, 0.39786243675801986, -0.308252976512253, -0.5401467975715849, 0.2996994664185631, 0.06873516533149493, -0.10810427949266631, 0.29523953476777737, 0.5444038965520498, -0.08648568903880997, 0.45608982315747854, 0.2578196234618996, -0.6950835698060732, -0.2855552864743624, -0.29286259402899245, 0.5761620275167276, 0.35952178684080754], [-0.6719925720679459, 0.5979653457749118, 0.5269999497308759, -0.3975027292589766, 0.07942081108819116, 0.45253685002721844, -0.19763809024261977, 0.1856391087245964, -0.25958183970892346, 0.687189071968853, 0.29902325526779133, -0.45083599834361454, 0.17276887948212108, 0.15824990899783314, 0.30357253959597, 0.520307808577916, 0.0766277958088437, 0.5019683063272601, -0.4308044393912177, 0.5651313724682181, -0.42237667696811965, 0.4200042279674101, 0.6257705808517005, -0.37889880276005355, 0.07496414111186295, -0.014787612070006997, 0.23768573116254094], [0.4496736671269851, 0.5356150656385952, -0.050295484508597756, 0.19016107464057241, -0.8898991432146558, -0.2773029911566946, 0.34505541174040183, -0.053024955038148316, -0.5008658780270244, 0.614132089310227, -0.314554055834091, 0.10272056291722315, -0.02302269535320061, -0.14624040972174931, 0.07704585658416732, -0.0893905554769969, 0.09857168729615425, 0.4906035832755575, 0.19333019034183588, -0.15826556516775478, 0.24282136915959074, 0.6137919115100459, 0.10522329632978512, -0.30927171188102326, 0.07729668245470783, -0.10711945066968852, -0.04901990264770117], [-0.2986246531080807, -0.14122732026575116, 0.014790725469031282, -0.1898743973619673, -0.5575500316076346, 0.3385382151588866, 0.20448801669923547, -0.024263388614353062, -0.9779320047280957, 0.05111248014210127, -0.2492319908800546, -0.3927530247755719, 0.3407404129793077, 0.24029747156462838, 0.009835959504181991, -0.059315162216178344, -0.15731138699140298, 0.1414473362891685, 0.4413928480604773, 0.2702399306555359, -0.0024948456082837323, -0.22075099220633423, 0.2668592589621349, 0.3601248203666844, -0.17765787976064062, -0.5338981919194989, 0.12941879490232108]], "bias": [0.2617519430095533, -0.026952502347889772, -0.11765236146083548, 0.11993521556329965, 0.24253943994281624, 0.08101282304189336, 0.05847787128010815, -0.10322559783752987, 0.1961594875958198, -0.11496434897642503, 0.08886901722759616, 0.08910583173657563, 0.17107046543778298, 0.3214040179418021, 0.1732472463454646, 0.12479903774145201, -0.23928312680667296, 0.11134572594340915, -0.06741320535684435, 0.2565496729387858, 0.17597626719609377, -0.21788056417889068, -0.06368328913685935, 0.08153611768014901, -0.0958815545135941, -0.10756725048702923, 0.010531709459897258]}, {"class_name": "NonLinearLayer", "non_linearity": "Tanh"}, {"class_name": "LinearLayer", "lay_in": 27, "lay_out": 1, "weights": [[0.032636448783127624, -0.04657995361467552, -0.10621224642146108, 0.2654717584402659, 0.2422496523195954, 0.19255990172406415, 0.10390434141843921, -0.14553383140844056, 0.17571756803344152, -0.26105778849126404, 0.16310771051994938, 0.25722378154730713, 0.4050014198080015, 0.24599955763633075, 0.16533549118945653, 0.0827815199836586, -0.39763740467925385, 0.3005424555578829, -0.2906125873128994, 0.6293393890552444, 0.27603217264283997, -0.5031900674599726, -0.3590441821956034, 0.3504278477148938, -0.24661506466176322, -0.10367363939517338, 5.081513444220328e-05]], "bias": [0.13849918978411804]}, {"class_name": "NonLinearLayer", "non_linearity": "Tanh"}]}