{"class_name": "SequentialNetwork", "layers": [{"class_name": "LinearLayer", "lay_in": 27, "lay_out": 27, "weights": [[-0.14916607147966704, 0.79574921041569, -0.4006744665337769, -0.2677878919480404, 0.15250219595521905, 0.26745931286021135, 0.8691295360858773, -0.23749396212867063, 0.4981088367875053, -0.31199214617126936, -0.0919738756759486, -0.4389774748934665, -0.05946052667290647, 0.0030243181952428057, 0.1059320804316479, -0.4167646447732441, 0.03363934356489938, -0.08147622353303975, -0.026035005098104285, 0.3445593290448554, -0.5098725284729846, -0.07553734441493223, -0.3038041948086834, 0.05555223599902097, -0.06550322911460586, -1.0213751074490542, 0.3985884263707204], [0.26047573386365286, -0.009724064487747432, 0.33043659425604505, -0.3265412718943501, -0.049046458041273645, -0.20483586205256563, -0.4754718321985679, -0.7856395640452924, 0.20480952336400982, 0.22036296037664158, 0.272356792642082, -0.18466055127689157, 0.11592028224656747, 0.553756868057044, 0.16822054330893013, -0.08545363602744473, -0.03997920789618425, -0.25745796530023773, 0.03807908531179567, 0.2014541671793957, 1.0341411340196787, -0.39197179664539206, -0.07807470296835202, -0.10068854605609615, -0.395712329472793, 0.1550923954042956, 0.17333711881091074], [0.6583045774511468, 0.8980024787243134, -0.5644528445896908, -0.09879937240961963, -0.3075427987443051, -0.1469490100758855, 0.9292752628056158, -1.185427550894168, -0.18965521148738754, 0.060673676350236266, -0.3045277752504474, 0.1101657178749393, 0.08638389685533097, -0.06637056219786112, 0.4478978061044654, 0.10770047833320698, -0.2181155589667329, 0.014540538667740613, -0.03155126442905358, 0.4954825658425825, -0.21439279385930068, -0.10942522828520237, 0.5435914265741606, 0.12658652807489376, 0.6560248399821195, -0.6776590311424412, 0.2166499762350509], [-0.4344524370945452, 0.053891403512661085, -0.029319765269377192, -0.383435146383785, -0.02176757788060699, -0.3758214924268902, 0.33982138007102064, -0.8907214563269814, 0.5289792502660781, -0.11146954947556725, 0.08324304511439004, 0.26028758548582326, 0.1250935827823916, -0.09020864534402666, -0.08268171001111953, -0.07613314821323637, -0.20530844828391231, 0.13967792320657066, -0.5617939945875344, -0.33472163029945773, 0.11118638865113653, -0.25558423281015513, -0.09429242931561281, -0.039461076426486996, 0.5528746917541801, -0.7072093998353562, 0.4719679172345786], [-0.01441037170909256, -0.9832992145336543, 0.3008023798974518, -0.39546170477059256, -0.3648597226612846, -0.5563562088411049, -0.20016700400666282, 0.43466728741105576, 0.03573132960949209, 0.28086561795353665, 0.1910378639641732, -0.10298970606320111, 0.21085054013946586, 0.025708723420212312, 0.3321203850847723, -0.1716430690560473, -0.25801612690372633, -0.14925142708913833, 0.21286416789565768, -0.9144923228983033, -0.07079166158503025, 0.4315526987316349, 0.26887614946230187, 0.09418944282362278, -0.04564474532870959, 1.288423678229909, -0.10242536571009975], [0.9839079060683946, -0.13928019770950473, 0.35064092143078834, 0.0077684502007577755, 0.8932698911674933, -0.052658655552383186, 0.07038418893903237, -0.3329804781459245, -0.783429702918123, 0.11366621578578333, -0.06570447873665235, 0.13812330700991604, 0.09989198902200465, -0.007422803068406621, 0.21189749292613524, 0.09309392922872003, 0.39316043298744763, 0.4518731245938654, 0.31480198797906067, -0.3497346025154021, -0.22710206240992767, -0.04249972645423401, 0.5082531150218745, -0.2801201483026158, 0.00982041823408133, -0.27132386063158337, -1.4113466085461548], [-0.007781379369001831, -0.1402878524540233, -0.40896711366673155, -0.37961114507039867, 0.8599607349147961, -0.43426504486410755, -0.08144775114329843, -0.3956712797860043, 0.6217410931047956, -0.26409744329556517, 0.03534560589027778, -0.09475818995753123, -0.2682080881510745, 0.23594722021830822, 0.09210395255041919, 0.03050632278378704, -0.14420690268481448, 0.06540719157689258, -0.6904892002520507, -0.1345204551511381, 0.06821689879334504, 0.24689822964597533, -0.07862142979016806, -0.3117490334337141, 0.0508154199288114, -0.0344587164837767, 0.6317738566029852], [-0.14753756405330454, 0.4682054633616603, -0.15769371057397658, -0.49282678670559665, 0.11678071476839455, 0.29450620554987916, -0.8731967253184312, 0.07298212919192572, -0.5451079669612946, -0.09452562500631329, -0.10287242833230278, -0.2895637066297052, 0.1866234271758154, -0.1407588401668187, -0.21096321525300443, -0.11874642466980652, -0.030075273743608643, -0.05188390040566961, -0.15801410488913312, -0.028100246245887014, -0.04151531498152847, -0.619194502462847, 0.15118171730740698, 0.5957730957604487, -0.048259620175559535, 0.6512047151794115, 0.37763694270463954], [0.8268496530502674, -0.1096137886716299, -0.6236733723323853, 0.040334391502785706, 0.8051959505006473, -0.32434322378481906, -0.46636803598110516, 0.14148395873112177, -0.46216281437607853, 0.014327280810117152, -0.23738896988831104, 0.17738104679055608, -0.03933739168047624, 0.02307484000595184, 0.23873945814598968, 0.06527164005925613, 0.27521859904570245, -0.38210553581652823, -0.361794189549605, -0.406646866647501, -0.4913186033067872, -0.167918634310914, -0.13503551105836406, -0.4673545646573308, 0.9277330429109263, -0.41115145723384156, 1.5434304741870644], [0.22590668455611404, 0.29827450947301426, 0.062001848548761666, -0.819240376976429, 0.4435356694105515, 0.08063753115302331, -1.11785870881459, -0.6914095780030476, 0.032204893599033585, -0.5673297748838464, 0.0248317083238831, -0.193841063051008, 0.1231360968705562, 0.03577574513257066, 0.2845001959661004, 0.3728318753671503, 0.3064205918045067, -0.11584720908545314, 0.6155566631686512, 0.057769091564621906, -0.14293846146372607, 0.42662448275991116, -0.16302143983008843, 0.05532537002760544, -0.613937649435957, 0.6401958782046062, -0.7595816616008357], [-0.43864177777486707, 0.19174983455216166, -0.5758779276536856, 0.40575669405750714, 0.1332390601596302, -0.10396157026140246, -0.35985390046914506, -0.5694646371732749, 0.39444743624382056, 0.13802623889122323, -0.23471827256064917, 0.26293173579731477, -0.1612824288099882, 0.15180907566256685, 0.1645989702016242, 0.025535659126484665, 0.033859209023536375, -0.20953125265136896, -1.3667607773911392, 0.6105183707956853, -0.13532344056071202, 0.4369672251687197, 0.6124754879479763, -0.6457128147264607, -0.35959487383140254, -0.10404356230120267, -0.18582936523070268], [0.695133908685941, 0.22660612874776787, 0.025011471361734733, -0.14119605737849095, 0.163989906895061, 0.3323601153649832, -0.47946875164899955, -0.666227910726708, 0.22757593226075692, -0.21580069778279384, -0.39948771080529916, -0.4909900175216773, -0.3959065708385356, -0.09318183703991234, -0.12473370655896612, -0.15046460103785148, -0.7190333650505256, -0.17337012172440622, -0.21087021046048968, 0.0008163649256048771, -0.8325170949505066, 0.17546030722981804, 0.5339801492178488, 0.4664446239167368, -0.10717573737278163, -0.14100469126847082, 0.1319390649434254], [-0.7292542926756327, 0.0124482800030329, 0.07954719827109119, 0.4330169334781959, -0.9918861554531349, -0.022116502713901337, 0.022684083733436156, -1.2709393782695582, -0.12214817359279477, 0.3598118162825877, 0.05227798160569453, 0.06536415914404015, -0.3743462472794852, 0.3080771882960571, 0.04022488049166061, -0.09482681054369599, 0.05850825325291068, 0.18130760940133564, 0.02593486075164815, 1.0443145636133924, -0.3765855621749714, 0.6574994573572535, -0.30386097638427695, -0.7288283449485375, 0.2721311212822082, -0.12163668110054428, 1.1189051429023937], [0.20083954966996242, -0.006987189547155691, 0.08104552361678316, 0.10795668839025724, -0.6922581639368413, 0.4578735013824012, 0.5344269902149186, 0.0005565276162790068, -0.7456120476362423, -0.8554574000942357, 0.16878342281621522, 0.19016665426354767, 0.02327779824949064, 0.03988375625212179, -0.16797101220760455, 0.22464898376795453, -0.22716968997447864, 0.3106852045039609, -0.05990318462152527, 0.681236588894167, -0.15703830708680372, -0.3513375565440579, -0.459076591462177, -0.09569286204264044, 0.6260316200394794, -0.4993201440938039, -0.09847776434705757], [-0.20925523150083733, 0.1253642174458614, 0.17396464149324778, -0.2071847324426422, 0.5694015312907376, 0.2810989767762318, -0.21184435263694967, -0.30175308203277, -1.037393650482971, -0.013699230643200406, -0.18449496913638286, -0.2961366204797539, 0.03451584790718099, 0.5314037268604175, -0.10525771139111252, -0.0548814866187, -0.2360840918642017, 0.3217347752628664, -0.09789716833874577, 0.3819724932692333, 0.2580073527634545, -0.003423428160001103, 0.27311439478647737, 0.10454052559158093, -1.0839030916771761, 0.4874379673261127, 0.03346765868241887], [0.6017403224476693, -0.06911422073226117, 0.47546345935105616, 0.26476670426237, 0.15915021638666196, -1.9087576869624985, -0.627826464272422, 0.086987622143109, -0.19492462681763595, -0.11296765708568832, -0.020019040550019514, 0.028451211331476253, -0.14644605464361324, 0.27866935247179614, 0.2518066860566839, -0.1293146545328876, 0.11743480538141747, 0.18359697665029903, 0.6408639195621507, -0.5283706920610026, 0.12601946003270537, 0.6777067470581151, -0.34872137097081096, -0.8899572244211928, -0.3767911358554169, -0.30097069423250533, -0.2511228868044413], [-0.10302407547656207, 0.3339260913423316, -0.3245058227300082, 0.09939794014271569, -0.5113281740195278, -0.7799864061168653, -0.8210682652250937, -0.6879166548417105, 0.04011732697145182, -0.05175277786183551, -0.011006173784165981, -0.4987168135009511, 0.18602860133409665, 0.11475345550580393, 0.22201303883829357, 0.29924003911888825, 0.3804538930773336, -0.3790881653329647, -0.36440838446678053, -0.20952717073027705, 0.4381577358176565, -0.23137107332007148, 0.061164188265630574, -0.25101918883932295, -0.11966163796004567, -0.7520965397467531, 0.581583701751609], [0.43791608150998007, -0.08109126543672208, 0.4358020127722888, 0.13197799550529116, -0.7362578161276785, 1.0055541031870334, -0.33045165286846556, 0.816507063218281, -0.27479959462122117, -0.05144958319555989, -0.01719816268903711, -0.08233606734565183, 0.19571974358325323, -0.298995994231076, -0.2921116270527168, -0.11339326101531838, 0.26164831645606107, 0.38190381106975135, -0.25563420880416454, -0.6000282186053554, 0.7661128446296581, -0.09169762999649574, -0.6514563128738777, 0.6351518008830914, -0.2704369464873588, 0.7406245526827713, 0.43430760822543196], [-0.5327321489404484, 0.01759809519456231, 0.8760535089867753, 0.37848409424341173, 0.6028964693378074, -0.11902757082764415, -0.3001630643700981, -0.4223531505723478, 0.6100852910905056, -0.059197035261717185, 0.14019974653446837, 0.08815135996672907, 0.17682052135619805, -0.405290428556142, -0.11317783914906343, -0.13073800993737836, -0.15652866541692317, 0.28199955330754756, -0.8606038065098344, -0.14884396984098552, 0.5663699573252632, 0.06736197027634935, 0.04114071904884845, -0.8029462802515897, -0.7087925560602628, -0.06250901137774025, 0.1368465455273018], [0.06793820415441591, -0.3947310537792451, 0.16649360211036424, -0.4290171305932422, -0.5641883240142569, 0.254781661907472, -0.2786473136218276, 0.6184877130546381, 0.04730809383126765, 0.20211950181100127, -0.027751178303078678, -0.10683553121076997, -0.28932462961604405, 0.08773204942796534, 1.0365839679788198, -0.11453211651828808, -0.45993369823613517, 0.19239954352507432, 0.8402176846145877, -0.15987137295751808, 0.5864690976062631, -0.6459094355780379, 0.612835940220433, 0.1931694800725138, 0.15037977554741036, -0.406845851469367, 0.1677135195535546], [-0.3680314848077181, -0.35163492399726154, 0.1322187472668262, -0.40419341459550456, 0.5861681942058482, 0.5143053050244216, -0.6192283732165516, -0.6116575567226066, -0.12084664146204391, -0.3321856787897182, 0.11751301616116724, -0.010564189878145417, -0.16961746942349004, -0.46865397050455565, -0.062486826451517756, 0.20662458969427847, -0.09082840737422974, 0.3069095289077461, 0.08653752234210785, 0.2308584958805366, 0.7213090054124496, 0.620049201477119, 0.8242742699688125, 0.031818998762441875, -1.2366317188369982, 0.6245325357979037, -0.23530109244962147], [0.32016021244332904, -0.16149688956194783, 0.6755579410203016, -0.5055081837169977, -0.014724177048244217, -0.48355171262994867, -0.41723465468453586, 0.3106177035989478, 0.6546196088554295, -0.1515150676090753, -0.07018685104832388, -0.09573907955039244, 0.07569346503765335, 0.12650704127280052, -0.03892204976647297, -0.01871209705712566, 0.07631298684738584, 0.08016758648910485, 0.0800911341150736, -0.6224221804683686, -0.12570492071024542, -0.37480023625040465, -0.7724295973521067, -0.4548251252714708, -0.29511565241783416, 0.012731655323652133, 0.04348598200988865], [0.7089736843779729, -0.14663115379983696, -0.7914086060898221, -0.5725127906852707, -0.2613090845393461, 0.5618155431348741, 0.31995678177709136, 0.18697590371374617, -0.26293435687525923, -0.18919655422039053, -0.20865725189787976, -0.006603509575433374, -0.012981115887318597, 0.16536514331438384, -0.3162667064223671, 0.001629558992896577, -0.10807898290120435, 0.2614829586550095, 0.8492497288804354, -0.13374893355677303, 0.09176075357917379, 0.43962118752089974, -0.5033547288712334, 1.0952859502105965, 0.6324355264368835, 0.02469172813140253, -0.9212821700885975], [0.9812865924755659, -0.004326368546516079, -0.5432500740345058, -0.10158906328190596, -0.46480487085630096, -0.07009758984075525, 0.1329103733728756, 0.13283393827746978, 0.06604165337665355, 0.1589302056042303, 0.3848955881581158, 0.5382441491544812, 0.02321978842529807, -0.28701830293327624, 0.05819801498037108, -0.08581431206557563, -0.10855478732551337, -0.309874816537296, -0.42201222562416485, -0.3653679726949525, 0.6791667203234077, -0.4384159106655158, 0.42494888704184247, -0.06808631268257845, -0.05057451134088548, 0.5858100758893326, 0.8079935555033593], [-0.09902534737614518, -0.31075479511370235, -0.03490430605053955, 0.35263680809669634, -0.4878799443936536, 0.008549463667891886, 0.20308766040262732, 1.0143935431028577, -0.06996377023069106, 0.07732070368741806, 0.18889896307621662, 0.4436493550228847, 0.055286311639536456, 0.6073341853431735, 0.1870331022716029, 0.013596077941824089, 0.08561511339813019, 0.32630935073681727, 0.07530337645785377, -0.80712800375909, 0.17487473669872497, 0.06484542619477073, -1.1038052954457758, 0.26052463024473543, -0.4065925889417932, 0.7697549206047095, -0.03427572790910618], [-0.33278679782176135, 0.6580978579782948, -0.26542743504989585, 0.14998388502220988, 0.5117569796894303, 0.12136093897272415, -0.3456064774688718, -0.16376975906357302, -0.3863773076778525, 0.011840167034544736, 0.16558776309164555, 0.031070568260878312, -0.1459358239653264, -0.1341295430410054, 0.07040841840686304, 0.05031536749060094, -0.24556075535723948, -0.0014943609169344194, -0.07288547537360908, 0.5170418499453798, -0.505230441953358, 0.3271485340050786, 0.3459410693665329, 0.8085109422498143, -0.42199152914229104, -0.2848280446728791, -0.3826039534844313], [0.4489007204617559, 0.63373680601205, 0.09937821106242903, 0.39800373430019304, -0.339136340205237, -0.1748118128871346, 0.28487776443973506, 0.7241195025409708, -0.6598231378172712, -0.19858892989647792, -0.07876043735585446, -0.3085658797481095, -0.3475038049843317, -0.2994769882072411, 0.11911055987653094, 0.023820712461235474, -0.29634363385471035, -0.3555437406599328, -0.006693142334593799, -0.15803783787361908, 1.2766562265989378, 1.4122284780108276, 0.1541305019814801, -0.3825144230566482, -0.2464720696784845, 0.41724207402080815, 0.7288710101660373]], "bias": [0.127221908802398, 0.34934800064884863, -0.2288000001228815, -0.18943429638047432, 0.03105665603223881, -0.1885054813345871, -0.21648545453162407, -0.1113839129910192, 0.36805231540046796, 0.14105172276514752, -0.16694585142192, -0.049517001994142815, -0.20503091259910014, 0.06522762176553445, -0.02515713323619652, -0.04047166542455393, -0.1658928174093878, 0.2577309349173252, 0.1094711359877914, 0.19853989457526716, -0.13197086654859813, 0.13815922283692206, 0.09452845479935246, -0.13959930639791296, 0.26477065207111106, -0.11162871266331868, 0.274343331113341]}, {"class_name": "NonLinearLayer", "non_linearity": "Tanh"}, {"class_name": "LinearLayer", "lay_in": 27, "lay_out": 27, "weights": [[-0.28261329559044723, 0.07931602277841332, 0.28458092078374214, 0.2279043843755194, -0.5087984419880519, -0.42078420871575356, 0.14977885661606513, 0.04461278207157474, -0.5507148952063042, 0.039978603966204916, 0.06537933901424725, -0.5100570962056882, 0.013343822559695372, -0.30661111891521103, -0.28949702399141913, 0.0998104357462701, 0.12267214328474865, 0.08031192093326593, 0.3584798974500504, 0.31124200533251095, -0.7791323955026684, -0.19967075111058474, -0.586233539019647, -0.1900145750022332, 0.19425740989608214, 0.42869655038174465, 0.0067885394329286475], [-0.3191772294281856, -0.14402954466682977, -0.03776521880339369, 0.23187645386585223, 0.4292150739012608, -0.20377188190210066, 0.003738462797399488, 0.6589293119397751, -0.5492954163019802, -0.5392426220495055, -0.0762343639882357, -0.41552453202288825, 0.2267287606512876, -0.14666333907384946, -0.461176870622915, -0.9199332955230736, 0.04169231821749276, 0.3063740862589405, 0.19875269976344134, 0.3683140430219658, 0.09542721705936642, 0.1407863107455158, 0.12725515779123328, 0.21674515656282212, 0.26032744317976547, -0.10819603754864807, -0.05563162124789495], [0.21141359893122638, -0.02677130490304092, 0.6599651616352642, 0.2631788369365091, -0.5003488449655248, -0.4696802227159521, 0.12701549781356533, 0.06475053083095471, 0.31647167727401304, 0.2811135773986203, 0.106281687744709, 0.09907706043853544, 0.20798237214238308, -0.6501636637653593, -0.20909477309362928, 0.43967980163940584, 0.8540756530477303, 0.15619814918001693, 0.12185000896100981, 0.2911029039692427, -0.09223960096141616, -0.49900000489226504, -0.0194381181707205, 0.38436724549430007, -0.0009562351926664545, 0.23698813254873072, 0.5369405463434838], [0.33004228230833305, 0.6527278206552632, 0.7348807284318285, 0.39199673323141204, -0.6588175543864992, -0.18569678660987574, 0.5465048225976643, -0.4277258218077936, 0.954086594811372, 0.10595472287538307, 0.7192238420628786, 0.34188777070016463, 0.31220338969650213, 0.23265416566515823, -0.549235842031289, -0.9411698698137562, -0.14464082716004295, -0.23033350929528823, 0.16137832295355953, -0.3353833258246805, -0.3581389974923515, -0.09618067070278788, -0.0862202142573889, 0.2114589777986504, -0.12697530645691338, -0.014900456533323739, -0.718251322647087], [0.054862921156458876, -0.03160054380825284, 0.4886929195806852, 0.05718874245806498, -0.24975932859247474, 0.5847859995034334, -0.196778168852438, 0.1336164217302476, 0.15341490879197175, 0.1581806917940651, 0.001103206322137361, -0.06912022360085708, -0.3319428162631537, -0.34205458919826315, -0.39001996233787817, -0.23936035408384465, -0.3337120626855427, -0.005930021172686753, -0.8734125129267846, -0.46208740760916167, -0.39203753581328643, 0.2577985316683388, 0.7168065894725676, -0.2797553048825021, 0.11693616263942849, 0.767136391917471, -0.41087433457739064], [0.13982625213287095, 0.05241307690011293, 0.09470043420706246, 0.27208426627671134, -0.5871237103822309, 0.25346235209789797, 0.10835719773672094, -0.10701857002179202, 0.3330359653458852, 0.1298475450981117, -0.14844512208216357, 0.34616194728017674, -0.6665314021772838, -0.3402630170256194, 0.831529305861152, 0.0402702939097481, 0.09093906793837424, -0.3752852818621235, 0.31514407415184514, 0.07565396376991758, 0.6340017574563883, -0.04824703394342519, -0.7950745279341928, -0.7547920229648941, -0.4486936345687658, 0.03905183769275493, -0.229884186416798], [-0.17743992984035792, -0.2627645806070034, -0.39947522219542975, 0.4919801372410555, 0.5940030426604541, -0.443902499563352, 0.37729385965903217, 0.4613973606898398, 0.09750953135713948, 0.17820616051413896, 0.5260052077247986, 0.3539148079052245, -0.10799083160935588, -0.3036497925995218, 0.24919580805795685, -0.5539468126628899, -0.2687680423153845, 0.06709333754945551, 0.366185159862349, 0.2570646837578117, 0.1690178335846895, -0.1104088815832419, 0.4114769981558631, -0.06392491443830696, -0.3361364635608893, 0.0566967571752501, -1.0223663977788104], [0.2655503308482583, 0.53942297410938, -0.16279719581727076, -0.4150887540267908, -0.23332764367669706, -0.15004647431467766, -0.05451639586552992, 0.2198008008895201, -0.36858494328881436, 0.315308814035923, 0.03217242999694931, 0.4390588710233249, 0.16592431169919603, 0.11415468700195669, -0.905846264366125, 0.8284660104902517, -0.2720482804549842, -0.09514407932406574, 0.1268361455442778, 0.06452967520535181, 0.011509902386293503, 0.573408682371453, -0.1142432804107927, -0.4701154378647259, -0.1697505191141067, 0.938643019269074, -1.0064866030606012], [0.4962714692437553, 0.1697895970059123, -0.18579499231480395, -0.26840944372394093, 0.3157994246109822, 0.24606043424459156, 0.0007342882063326279, 0.09615337017721468, -0.45116146729101053, 0.49455011964900514, -0.351317561251332, -0.35101822903535257, -0.27049313169910677, 0.027709918706804018, 0.6848141835256916, -0.05461206065579617, 0.1596681689576912, 0.30139205421121973, 0.479516818247625, -0.30811008722777966, 0.3854176432903179, 0.057208798940022385, -0.030336368840017027, -0.39119513483189666, -0.23570674056091645, 0.1707456559182294, -0.28098534464867275], [-0.0777386752384454, -0.3257737489453251, -0.6581238387231267, 0.5765443973974709, 0.5704518627184366, -0.07841840686118406, 0.14114409070826006, -0.3211355814707355, 0.25462572156936125, 0.3972422869029664, -0.3680233175350697, -0.20651443494395813, -0.09091631893648855, -0.5038839662261767, -0.6269283846834645, 0.29447234594107324, 0.05178189849343049, -0.6141980863888178, 0.6171177820608855, -0.13269589318025055, -0.7606614668553324, 0.7640999365574608, 0.14491034604704475, -0.6005768358219399, 0.5180316467637726, 0.193034722892456, -0.5515683732512706], [0.08235867746110574, -0.22812514032337183, -0.05631905329480856, 0.0038180695088073408, -0.17938928138733798, 0.24832502213081079, -0.4593130592305968, 0.9410151731543945, -0.12890039365715136, 0.3221627431218661, -0.11445258485424849, 0.6216520434749951, 0.09992940308710462, 0.22877802370253134, 0.5408485297401523, 0.24017497882630157, 0.4964238940199344, 0.142599616523343, 0.11900456107605405, -0.31828249662938585, -0.2577506716701993, -0.23203301224531045, 0.1892869546169792, 0.1122418966402164, -0.1344845447045868, 0.3424042656590006, -0.040025250272985924], [0.07320898830595457, -0.1119455075456657, 0.19353691649947388, -0.18704376318899477, -0.5193540119958442, 0.9840915306651634, 0.26474794007984315, -0.16560153298866911, -0.09196863908013056, 0.11442011372092241, 0.24128368093374983, 0.12747750714596118, -0.10240590171425079, 0.16069432034904782, 0.020046760330328692, 0.8653754107260623, 0.3514343960960585, -0.536145384128719, 0.43640824963648617, -0.29695316487009504, 0.2860736976109429, -0.10194135473790873, -0.08496237318838135, -0.1589675198275411, -0.5609582949963821, 0.22034981450585647, 0.1887676036521026], [0.45177233226400026, -0.0001468253385923635, 0.006609467315965013, 0.10694873955679203, -0.972204405663493, -0.3826276051232619, -0.4784690319798187, -0.48604776174584985, 0.1386786689645704, -0.7549188209262632, -0.39926882865655033, -0.1400341984126527, -0.5877827348216511, 0.5151410222733624, -0.4144395043510494, 0.016707012103178733, -0.04388942091125615, -0.5907743478354589, -0.4211697084662807, 0.5754524813279092, -0.7186859772608246, -0.09202047420708473, -0.08634602126345259, 0.1872939460320525, 0.05915466002643094, -0.42997821766877864, -0.2773413554429271], [0.14349961597986136, -0.16200700588218903, -0.15453824071550543, -0.5859325242942802, -0.2071454216557382, -0.7487900705009642, 0.06686063582634279, 0.28953834381388616, -0.15496430312161397, -0.7328044628912432, -0.09610523244678323, 0.1654843080489204, 0.5041572847140197, 0.2268439309518941, 0.34916972488272763, -0.5432323201168391, -0.19047333403222758, 0.5705262799889481, 0.39018829312645376, -0.08389017312347684, -0.87422520222928, 0.04947830976744882, -0.7630203394321495, -0.030854665541899362, 0.5967221760948688, -0.18828485851531995, 0.9475589174965202], [-0.09252741395647109, 0.3987799236456937, 0.3757624308150701, -0.19520959432545534, 0.4659289512069148, -0.8366537989297534, 0.1676085024410986, -0.01728088819366333, 0.38111468161256185, 0.5911118814075855, 0.3528609407862411, -0.26000947105753736, 0.40001485262144926, 0.16217315826679268, -0.537896380591324, 0.4121703833600897, 0.1492937160340512, -0.15694249285117584, 0.31702410916955215, 0.7700024754293813, -0.14392957885504348, 1.1378835705349386, -1.0362806564987574, 0.1425757166499598, 0.19454739334309734, -0.06954994132329666, 0.2519709025418861], [0.9901962675584651, -0.3080009363122378, 0.5985233647073593, 0.22774165862386456, -0.46420747284290886, 0.13747419134378205, -0.2048098230345259, 0.33432861982151746, 0.832013867684784, -0.012765079379104309, -0.22012654790812541, 0.2517815024133499, -0.3306574561442699, -0.11067306832680633, -0.2450674690665551, 0.5044774205527323, -0.5148523792195588, -0.09869399366439842, -0.1641002280529242, 0.5970549729843195, 0.49807774065873084, -0.49795759475400075, -0.19337808606668716, -0.3043958309858952, -0.0850223155596822, 0.5304104967702972, 0.07341890601073142], [-0.43181235395555373, 0.1834675469135615, -0.20882613740855985, -0.09204419243820419, 0.31917886660353795, -0.07589356948670252, 0.19119405148729027, 0.5067122150144411, 0.3337092345223689, -0.06597449121197971, 0.2332270914620942, 0.1409706364995659, -0.44889620731288515, 0.09873397447983409, 0.2605571081562256, 0.5349788811825443, 0.4297291796206991, -0.25517443109213034, 0.3625534302093746, 0.07894288750276186, 0.3828292402300863, 0.3362194952121937, -0.390286863366494, 0.5232744855936686, 0.08414678749195051, -0.16215863615263668, 0.37498590442923235], [-0.5957775547265027, -0.3180673714299016, -0.9441273367123085, -0.6324442245111197, 0.5826750968975914, 0.6631670474170158, -0.2813928978166871, -0.5468981800766862, -0.3070004093556748, -0.044354856595451325, -0.3908156106712643, -0.16456232114287614, -0.6669584634467687, -0.6546238277061229, 0.2829440190056672, 0.5593504886599712, -0.30141514849771905, 0.44504984749414944, 0.15502072551637736, 0.15900581501421557, 0.3056577823900251, -0.06520745728961691, -0.3203097665721194, 0.060449271861034895, 0.5439136352645515, -0.8734235322965584, 0.33274941965202326], [-0.016178930028669238, 0.11457148688424365, 0.5061744306484699, -0.5223565422659134, -0.18442599842118743, 0.26380356726159887, -0.7425418441641457, -0.48815540618041375, -0.5489269662515703, -0.17670286125726786, 0.18188460465137096, 0.0978597688913773, 0.45356564619133427, 0.7553316250168055, -0.0649942438144198, 0.0006042992202168453, -0.3271519725114602, -0.44669206354034585, -0.09326755105148818, 0.23930396484245162, -0.5612849105681713, -0.09241291551751656, 0.44696817600998445, -0.6029138875525277, -0.21746009418500986, 0.02866452014985213, -0.13224651304101362], [0.1895173513175509, 0.20651881146976034, -0.3643939295382708, -0.6934557372653793, -0.20567791934657426, -0.31841995539770346, -0.030216152432854047, -0.45207603167596166, -0.11516396227500082, 0.25672803731723864, 0.08650945156130926, 0.14879059787146645, -0.380278608959606, 0.43873193315284365, -0.13946359304690387, -0.15248227308649087, -0.3280612361408708, 0.015369061458626977, 0.04323656697810853, -0.054645482552965176, -0.3753091426339151, 0.1198237796465231, -0.143196893387574, -0.17470395054192625, 0.21881805596363393, -0.026420693627482915, 0.2578773021227287], [-0.07966672494653955, 0.39901540682132586, -0.18924404514217494, -0.04722141806483893, -0.1934315348989022, -0.1959490324840034, -0.359155697241452, -0.49331396128991567, -0.18383278575547535, -0.05559115708818002, 0.026939542970223992, -0.7611880339793232, -0.1603657345703879, -0.6298600991823382, -0.649880719987655, 0.4434476546195106, -0.2740593547599838, -0.018275059563800683, 0.3897271212808241, 0.09324223698836522, -0.14915768213997707, -0.22648145335524206, -0.4111251077035033, -0.683718431637716, 0.34460732410332146, -0.3212137049878428, 0.9517228432077848], [0.2682041815425848, -0.3167110377574284, -0.024685077647967416, 0.7550104319637094, -0.35769674211980096, -0.09902292615970834, -0.07408954823467548, -0.117663060791067, -0.2727691125918301, -0.27519705548112117, 0.7407554449986956, -0.2464909587047434, 0.3888891659003091, 0.04183386237023135, 0.1476290997946392, 0.4234873763953081, 0.49693656462191005, -0.28466683614478516, 0.36984677424719037, -0.31411347444532794, 0.030878847672374796, -0.36146014605496546, -0.7024716375432877, -0.44174091465466897, -0.19846061553940275, -0.11118903001681707, -0.38519322768135295], [-0.19495719035624276, -0.37841035240601206, -0.13140179072092442, -0.604376428904128, -0.4983022956416623, -0.11595044346348832, -0.2932364506700805, 0.12881676384210056, 0.1458184309669757, 0.017091142202294615, 0.44571953602576075, 0.034106372758087374, -0.3945032712106527, 0.0061155437578885126, 0.20043113357551975, -0.44943209836863857, -0.33286819950251156, -0.16361711335379783, -0.17467739620336276, -0.028316590154571213, 0.06736252689944272, -0.4993074571793537, 0.1267047553845017, -0.2072578556135623, -0.062525488751404, 1.1299532459467576, 0.046259480796202776], [-0.34972817748880375, 0.5979996655328275, -0.3109788935210742, 0.20831343530016028, -0.41744347904034124, 0.36057771263132193, -0.2297461376374969, 0.5423533266416282, -0.4495209464651522, 0.7379675104593475, 0.31950371086965507, 0.428519934952131, -0.44531055561463406, -0.44046059461158094, 0.4113312608975568, -0.00019204708470377886, 0.031984398643326126, 0.29627770950306914, 0.6999401297232659, -0.018441540483130802, 0.5494278689395707, 0.22581536957107512, -0.716966417340892, -0.11541088864748554, -0.2883552950153728, 0.40993914443811624, 0.2774152189710316], [-0.5450033480255829, 0.6543520569946055, 0.5684087621046229, -0.4643955882870652, -0.017590388521689766, 0.34266655187024153, -0.27444230106927864, 0.13408455299530406, -0.28217104445321295, 0.5779035880981627, 0.3242825772467363, -0.42096510723669284, 0.12528383834565082, 0.12110293536892393, 0.30675847812686213, 0.6011632098667504, 0.28322779094500655, 0.6843173605415396, -0.5160236628751117, 0.5645609953698759, -0.512434319656063, 0.37486697856981643, 0.6983908752787512, -0.463086566998872, 0.21650608276218317, 0.07941849306279636, 0.2815199314909753], [0.47242583720600373, 0.7496554108441708, 0.0903487786345128, 0.06794274266444464, -0.9902089022201122, -0.15907038631361914, 0.05974192684657434, -0.0852842560117382, -0.48637911578387566, 0.5732419807525696, -0.4210795113192893, 0.10373618645946821, -0.12289429879166232, -0.15020882521629308, -0.015317424220525207, 0.12178933362847226, 0.07690535147123641, 0.6942841986962326, 0.17109351243479604, 0.10639166688850561, 0.07251518961739889, 0.9239522547171238, 0.0651258956018527, -0.3405846330460892, 0.16157044457592243, -0.03585164350545824, -0.16488197864767812], [-0.23416026622882496, -0.10551307935034743, -0.16314524251646334, -0.18291938270856908, -0.7611262432758665, 0.3141381895494838, 0.33990674052696457, 0.07679783239680722, -0.7821295662581121, 0.18739809124110476, -0.19404910431924285, -0.17611573592956198, 0.2593346357394191, 0.2771511475525202, -0.02005545262676558, 0.001513946494627625, -0.07411474316338851, 0.028748552126549275, 0.43473753001240023, 0.21819722144861636, 0.010301113536065248, -0.24499753967324056, 0.30014278383744947, 0.22142972124788912, -0.1394753872805009, -0.4986142261120293, 0.1740153921405861]], "bias": [0.3686578523228121, 0.014112155794236414, -0.1319902080001322, 0.16496550293948323, 0.35737903899085066, 0.12372671797176073, -0.02005522375572999, -0.2010912077622981, 0.22739556127943014, -0.1577347758865199, 0.19010199089651492, 0.03634912127354623, 0.20813451995087084, 0.5740655447765514, 0.40616342534781347, 0.2346831030899029, -0.344107772489298, 0.2014645554829843, -0.13616068478392063, 0.48314754650505143, 0.4454120687432729, -0.3297207203816552, -0.23812102299578355, 0.15639707674575257, -0.09946447558299781, -0.13932773795503192, 0.10796126637798502]}, {"class_name": "NonLinearLayer", "non_linearity": "Tanh"}, {"class_name": "LinearLayer", "lay_in": 27, "lay_out": 1, "weights": [[0.010307995702576721, -0.051156772909259095, -0.17548869399215059, 0.32263638066090555, 0.2580829665838562, 0.12512380210328622, 0.16251044783823296, -0.0772958095108208, 0.08298260272355797, -0.23688272764460738, 0.17845156027155154, 0.3740256378715725, 0.3631827207494197, 0.294636827231514, 0.17997847651670976, 0.08804038609797502, -0.34119478001708503, 0.37662728774843307, -0.1998211390591876, 0.6022781768124407, 0.24399814956533986, -0.5351255837963665, -0.36101857470246157, 0.366261449168066, -0.2290891152112165, -0.1653727231419052, 0.015864156438322508]], "bias": [0.2301246844330759]}, {"class_name": "NonLinearLayer", "non_linearity": "Tanh"}]}