{"class_name": "SequentialNetwork", "layers": [{"class_name": "LinearLayer", "lay_in": 27, "lay_out": 27, "weights": [[-0.1802428380397566, 0.7708329826438572, -0.3907506654734186, -0.24608580108633632, 0.29228945939251544, 0.3985494055655876, 0.8748937025894491, -0.22817786812187255, 0.48193367314394353, -0.22138502177470518, -0.1358447865089647, -0.3944076068080461, -0.006997490759735442, 0.036310041009187256, 0.12888002429982087, -0.35366799228945556, -0.09107078301689607, 0.03467733160056572, 0.009753125301000646, 0.30447542768511354, -0.43349033908198314, -0.10211015781187358, -0.30533732048971135, 0.09246290463933443, -0.17132221292210503, -0.8681708453024668, 0.4467000603525827], [0.2403431128751298, -0.11958550173303654, 0.27937648771556534, -0.2585770059336965, 0.11630166804675474, -0.22559869123566406, -0.39102784503155463, -0.7245000133391356, 0.16491221747016216, 0.18724254138500637, 0.2811401873359965, -0.11022054031671709, -0.03805509369522154, 0.5113960168557415, 0.39379255706946253, 0.0008061736718367076, -0.09719056062291, -0.4248640409785158, 0.008876403212788335, 0.1916894616732846, 0.7576604667614013, -0.430901976164211, -0.06937755275640003, -0.11730645393123845, -0.43695385985522645, 0.14623510137745788, 0.23925291260343168], [0.7015405892555068, 0.801187635187169, -0.46601776572135695, -0.01857113075970518, -0.28438663366334216, -0.15397086450009845, 0.7828416392447922, -1.154419664047922, -0.16979245709988816, -0.01571451887373858, -0.35833212189657415, 0.055408130434818834, 0.040453718794095886, -0.047461500543204534, 0.541058710727973, 0.11993160745592113, -0.23957445292537766, 0.13039722470079093, 0.10552695068286083, 0.47442520637199975, -0.2165350642932746, -0.31547964452019545, 0.42769509513692494, 0.031625692979845965, 0.641042266589118, -0.5289227309742612, 0.3124018828506884], [-0.5464267517230622, 0.019836790080231793, 0.1492274826637154, -0.3316157037799406, -0.03286807639935671, -0.41589669406847696, 0.39297564003249813, -0.9444279662211683, 0.5209105235822872, -0.06402919049005552, 0.08431826430548074, 0.26883426600830634, 0.15874071000675932, -0.10008141570279258, -0.14273589580897603, -0.08514127129539903, -0.24378878201412546, 0.04697982484531417, -0.5574857867210782, -0.3742846117655606, 0.1380781849722787, -0.15679515041848682, -0.20056741507779421, -0.08171677755583065, 0.5750573789861464, -0.7919437117431593, 0.42968635077734557], [-0.007086105008615706, -0.9024333016484115, 0.30429645960190405, -0.26841416180972283, -0.4214395142463936, -0.426479310105572, -0.13395265635854664, 0.42805739547919924, 0.020257120356035278, 0.2498227702068693, 0.20879068362992856, -0.19064427146045596, 0.2177953420500317, -0.01326441093341902, 0.32198884051008364, -0.08312812006438355, -0.3255684566657829, -0.21954338227696202, 0.2391910831468903, -0.8655078025361849, -0.05493606661276328, 0.40690421178216846, 0.1633783721516497, 0.04838574009490525, 0.05937758651482453, 1.0594497307824, -0.15489174950023052], [0.9098807102079908, -0.14697188960518934, 0.3946874833942248, -0.002509302595249035, 0.868166297585569, -0.07079506189592157, 0.03858045682523018, -0.37191342334123134, -0.7460203697363071, 0.002012184851795679, -0.2428480209783307, 0.3456889310585788, 0.24016152031306565, 0.02281111092855742, 0.15809453478643146, 0.1262015696825701, 0.2521018792710179, 0.5743322835228067, 0.3630243015809605, -0.385502934527259, -0.15395747716854724, 0.046419583220127, 0.6103926792332882, -0.33291272015322415, -0.16737430985068807, -0.33806549398720476, -1.2147955173768215], [-0.16244797107752001, -0.06534481648578475, -0.3653425219831859, -0.39052061808507355, 0.8681184149623135, -0.2971739078832913, 0.030034581113102383, -0.49939647325651304, 0.6951065173265724, -0.2272215675154068, -0.010568505836005134, -0.10243523661155841, -0.2177753438375602, 0.3423062999326358, 0.10856188848569917, 0.12330909727995544, -0.10254765082460826, -0.06692714290254985, -0.6899232374833293, -0.13806328743064636, 0.06483300317191806, 0.29079863694856395, -0.07976350539364035, -0.38626657135417536, 0.0953343082777279, 0.006059864379140018, 0.586508537115967], [-0.17567935402273452, 0.48406962721392854, -0.08781711751352306, -0.40768543543348573, 0.09361914951327234, 0.38209981349495525, -0.8523711072191863, 0.0572538360398695, -0.46665466372440007, -0.07246489405400723, -0.02804040316950007, -0.39359533799081553, 0.026317724746478928, -0.1688517937893516, -0.12835873950868598, -0.1392717771287479, 0.046045600037580584, -0.030716843346372962, -0.08879820631406045, -0.0069915239748608565, -0.021910730273566496, -0.801003122745859, 0.09817202574603194, 0.5131063282064694, 0.08709585085860523, 0.5782288470603083, 0.25841505276130033], [0.5325616837890785, -0.09998350174617432, -0.5621711361727475, 0.06313457083005321, 0.6597802813353133, -0.27602290215443415, -0.5190545521827167, 0.08542748563941811, -0.41392842598263185, 0.04806705541325631, -0.19385770292447857, 0.12458565211156052, 0.06029752017834188, 0.0262499243278793, 0.25583034082167905, 0.07898359860873161, 0.18461026412156212, -0.4561732412151835, -0.4445861040350139, -0.22934119664043479, -0.49978721313187674, -0.27791805679435316, 0.03642957783414619, -0.5006695838731469, 0.913063500971124, -0.4064647005996433, 1.4753041547994499], [0.19529069569237922, 0.23473862202674897, 0.1233574022885232, -0.7510478952754587, 0.4593027410372711, 0.17008742759642587, -1.30801665347128, -0.6743831723353411, 0.02073989953276673, -0.6128393667916626, -0.10444441171246174, 0.004228749063393375, 0.11909953440185386, -0.004881966704768924, 0.21941424004735555, 0.5276820612391785, 0.35546447804981385, 0.001849719080516705, 0.6411352434804977, 0.022853245541602313, -0.24846943701145044, 0.3750184128014223, -0.22615825677940626, 0.10454684093977684, -0.6478116491388924, 0.5737200058448858, -0.701411863329295], [-0.38096022677058816, 0.09762374199958457, -0.6046936271695034, 0.4073552534814064, 0.16367833348150052, -0.08479446909167153, -0.29260890891313096, -0.43844600945387346, 0.39937222102735576, 0.12199706497533176, -0.35556502860616, 0.10724633243773361, -0.05818497662090973, 0.1517329214460353, 0.1772936859707146, -0.06503257778715302, 0.07237600275776117, -0.15632125703312125, -1.3456113187092522, 0.6707413256725474, -0.13588573466161052, 0.37610048876516866, 0.4934480372180542, -0.5547082749006075, -0.3262040505898223, 0.01158338208219328, -0.24962930276757286], [0.627144104359718, 0.25442559968202527, 0.0032978307806769435, -0.15069011028178494, 0.2528531899041845, 0.35150559236964174, -0.30996030465205804, -0.7292976880991264, 0.2613128680904507, -0.21337620049334927, -0.2756791365559537, -0.4507845464358194, -0.5265150274776583, -0.01065482709612089, -0.1699533768979886, -0.17328162665110383, -0.662896183200902, -0.17620084018320675, -0.1918738532631497, -0.06929533219061346, -0.6495938690498799, 0.15405639368619423, 0.5857822957130111, 0.5040584821229007, -0.15837997247824892, -0.14656500633286704, 0.19615844677906483], [-0.6057660194997848, 0.01434862884332373, 0.05910973657398254, 0.3816803234312547, -0.973241806295812, -0.0584216119295977, -0.009107640953969983, -1.1172260260547813, -0.11335446213580581, 0.32900452207829745, -0.02172907713313976, -0.0544613336947243, -0.37109944207375134, 0.33075304185862, 0.060000747354607274, -0.0649514006847845, 0.0713773704672043, 0.15102023884263244, 0.06320974044551181, 1.0101797559080454, -0.3582903400523061, 0.6050322231951476, -0.4229489422349831, -0.7617422176729853, 0.3668898987541875, -0.0024239056301382906, 1.0529081281977388], [0.10290299859563738, 0.11925318016180317, 0.03074124598025184, 0.11745834578951828, -0.6755532206410383, 0.38817720369539765, 0.2462391421665756, 0.015289301043060647, -0.7036843547114386, -1.0100002325708126, 0.2496138405081682, 0.2840801982738353, 0.018789501007087726, -0.015440496980050518, -0.04788284473693036, 0.13229994244779847, -0.1367147638981467, 0.33662392224353355, 0.03726212821295175, 0.6035907374817947, -0.23820670607731306, -0.5367586065840881, -0.2866054090649599, 0.027453309658434986, 0.4338253233106255, -0.32589570218352537, -0.09990139501563162], [-0.233728757904555, 0.047166927586053904, 0.26084579932541463, -0.1350155303432114, 0.51123476482903, 0.24404079750997518, -0.06289287004863046, -0.3159004662221965, -1.0021051656749491, -0.014073144152399037, -0.23882417961619049, -0.2984610911458752, -0.038917508242537376, 0.5542472425215735, -0.07739732578734877, -0.10852616244771919, -0.17345249746471528, 0.3798314546431343, -0.043820940450602516, 0.29905430935317423, 0.29598235241468474, -0.11068957241490757, 0.2285373580595475, 0.09317851044765026, -1.0511013918721717, 0.4137619655734635, -0.05195364537383564], [0.6403004092053981, -0.07650680498799245, 0.3974877048833247, 0.204443493824251, 0.042983802831177496, -1.569948264936593, -0.5247773766394823, 0.1157856204466295, -0.22130159226457227, -0.09646881252666162, -0.1676834313919086, -0.0045808398246591974, -0.03303167387086817, 0.23912273828447952, 0.2148766244423146, -0.1587926999652194, -0.06485648613589307, 0.21714298028787757, 0.6294788970707622, -0.6104654774185396, 0.13654710753715185, 0.6186114915841152, -0.37146271882484955, -0.8497897180098989, -0.23396657487245123, -0.2935670854108322, -0.16675141260510495], [-0.18128474997392388, 0.29446922884872606, -0.35036193173442887, 0.08706223284906674, -0.5100242581615142, -0.6987538559335734, -0.5184010630171704, -0.660956753277529, 0.01623174343607349, -0.09235112667258565, -0.048501666488795656, -0.6688038255606973, 0.13143085686005695, 0.053574808457599425, 0.23023108045562612, 0.31831205571696947, 0.37495652099033655, -0.48035718632303354, -0.2217607370733588, -0.20778285085440856, 0.5184350638122626, -0.20056565253302705, -0.00459835350915362, -0.19354914010336408, -0.04029768444840287, -0.7365369292550785, 0.4786400364390805], [0.4956434605858844, -0.050247572220144976, 0.5108846058834839, 0.193065887907328, -0.5726580616911607, 0.9850029432426384, -0.17363676722591553, 0.7227153452977654, -0.3727447814870571, -0.03143666409006513, -0.030449956797649287, 0.023847212726354216, 0.06749501354249715, -0.31160894954744967, -0.21901933750723945, -0.08643090003401994, 0.28185936361678765, 0.4508736633180958, -0.255619246270441, -0.6272058751035011, 0.42045099681528575, -0.13877377100833227, -0.6508263627689944, 0.5806033036326991, -0.21418337698317258, 0.7254943607673063, 0.32114402946780274], [-0.5163684922288896, -0.03368370641342438, 0.7535104848853666, 0.2080641448183647, 0.5657553206300897, -0.0799520839875984, -0.27026277353326644, -0.5121550234476278, 0.5982520341766646, -0.12351723388859479, 0.05193598657654939, 0.08680740596908937, 0.22760756196237786, -0.39735582905940353, -0.1622835446819561, -0.12615843665551238, -0.230840435656073, 0.08332441839464223, -0.9852069502797501, -0.24911853250152816, 0.4868717755821238, 0.07086020305375945, 0.013834905174176387, -0.7270326174299102, -0.6452181709855038, -0.06946008112272506, 0.04437995078131753], [-0.048203618953015226, -0.357549915882301, 0.2812507992814498, -0.2927524824660075, -0.5382097308525059, 0.23132763320337257, -0.31532437323944507, 0.5951347680942026, 0.06686211708332843, 0.26741781153131583, -0.03199482286490409, -0.22482409397017883, -0.35091249316721695, 0.14209441267713896, 1.1773411093747197, -0.10610244368992781, -0.5342328986479277, 0.07726104269737531, 0.8423188738300214, -0.1748546813466759, 0.4509381410882373, -0.7081847694982433, 0.5289987195925244, 0.09516834883854708, 0.19260549021855675, -0.3543189519673696, 0.07633229999804998], [-0.26243911542365617, -0.4143947771191996, 0.09746972968240362, -0.3712208403918316, 0.48576895366016287, 0.520311183925366, -0.21405147763942317, -0.6502198327569512, -0.12255737327327985, -0.3218020125092491, 0.017308452179557083, 0.018607948577972457, -0.10083382272689631, -0.4876279436158125, -0.045672295881302755, 0.22509688147746318, -0.031098321243435364, 0.2897761708014874, 0.09889865799283792, 0.20121675700838287, 0.7291599622484131, 0.5756736862480359, 0.6949388808804396, 0.026538625266145602, -1.1248292594613116, 0.5280370133694741, -0.23793004546124374], [0.26065201035154006, -0.10175808109394269, 0.6639959068070599, -0.5445965750153247, -0.05981902753514633, -0.3576843141771632, -0.4404389796884136, 0.28337823363446957, 0.6610491529431671, -0.2426326638160518, -0.18574252700592211, -0.016489300024138905, -0.09847590934992718, 0.1483771451268639, -0.021922480226058486, 0.05239355088039746, 0.1840741749316265, 0.16872820605502806, 0.13978524473823734, -0.8258672553226786, -0.19162057168733057, -0.30494939566271434, -0.7284070587909043, -0.5830679708183978, -0.26658867347983317, -0.08908608656894486, 0.06840489274778558], [0.6938767605215042, -0.1323509178172537, -0.8744051556408124, -0.46395638783087784, -0.2874662860133341, 0.515793164149419, 0.3097813842640205, 0.11816038234801746, -0.2876673851936736, -0.31205687923041653, -0.10871782994845827, -0.028094219232401837, -0.03985873401457298, 0.11649721768483567, -0.40094030288109905, 0.10564617007328975, -0.05217846884011888, 0.2532753276585943, 0.7924709853228217, -0.16451899475421444, 0.14934470192087906, 0.43755175456296935, -0.5963949808134607, 1.0249027885202142, 0.549849099550451, -0.1634260436205328, -0.8667330597842536], [0.8832248132635173, 0.019597132363912, -0.4867867839378373, -0.14462576363654545, -0.3190148984209954, -0.05969282070550737, 0.222430326394343, -0.06660088492345898, 0.09780798102587947, 0.1617503583482871, 0.5515536305764143, 0.5046032232595106, 0.03693756840188576, -0.30348034306788546, 0.0733227472876999, -0.020330887782511204, -0.030697499576553204, -0.6432025873164404, -0.5260744287477626, -0.3069392507923835, 0.7681718480308553, -0.4091636900820495, 0.35287032445223687, -0.09026393298821576, -0.024521289512561318, 0.5106677099319057, 0.8494216174693588], [-0.08050725490652874, -0.26477670227330813, -0.07139622498282507, 0.3077965382966336, -0.47865666036185905, -0.01551543568082441, 0.05780515071324693, 0.9865899750198903, -0.158043828284415, -0.048750195572522484, 0.2076666361935965, 0.4602076540929965, -0.09540299454193057, 0.49653956530889026, 0.15036281877526714, -0.04517750965431801, 0.1062814634820391, 0.23091923372701476, 0.055387164448301184, -0.7892010157011535, 0.1475102482352305, 0.13713131920898228, -0.8937019430786194, 0.22097977890910053, -0.3688620724609555, 0.6539783719920702, -0.1872535183154114], [-0.3401628920555181, 0.605526119758261, -0.37449281113357696, 0.11878981383696884, 0.5190805720414499, 0.2009455722878509, -0.3445315629654582, -0.0622754527146565, -0.3280191473368291, 0.036517620717645624, 0.13266904428347898, 0.06904328480199945, -0.1478303600982185, -0.1908096473538662, 0.0992112647374639, -0.11694154810967687, -0.15381303806915037, 0.0942302453459586, -0.046415585766694537, 0.6310960105056181, -0.47007430528483735, 0.12457032889352553, 0.22468409462411643, 0.7836219635292427, -0.39063367623934114, -0.1546194321646571, -0.4293377473805894], [0.4126506060986332, 0.6290704341997337, -0.017262877060586223, 0.340785461676481, -0.31641025258168376, -0.04708133710647105, 0.33587692395366103, 0.7007581369038539, -0.6646033134444543, -0.22491844854027435, -0.0505221036376603, -0.33594386423462325, -0.46526140255194587, -0.29997834504197485, 0.14683444155930164, 0.12901933060583387, -0.3650090783447196, -0.2969012712129567, -0.032848641143864446, -0.09482614037220105, 1.2358162883887094, 1.3132581950551383, 0.2582022514657283, -0.3841076678825125, -0.24534886387118895, 0.48174990650293786, 0.7347252688677814]], "bias": [0.12686341172543042, 0.24501022759423005, -0.21966873562071754, -0.14721307379401216, 0.006922798682239774, -0.2125005737497779, -0.10955180780400695, -0.08889399816805282, 0.31528074423824337, 0.13104139328440764, -0.11394993352375443, -0.03170499189663056, -0.1292433271270068, -0.021383129906881425, -0.0627720172809128, -0.10204197675532384, -0.15119801037077812, 0.2351949451263476, 0.09024498371710893, 0.23920240599464304, -0.09789668954541833, 0.1464390220009765, 0.03715913233959816, -0.09978821637114577, 0.2182786885981957, -0.059174032558358784, 0.21633156603098327]}, {"class_name": "NonLinearLayer", "non_linearity": "Tanh"}, {"class_name": "LinearLayer", "lay_in": 27, "lay_out": 27, "weights": [[-0.25162937544185143, 0.10628895839466304, 0.18127315232391647, 0.20000813983681437, -0.5821318623111076, -0.43686800615169813, 0.24069568928128712, -0.029650177167491024, -0.4610373928704185, 0.05492965874030107, 0.1186438045031909, -0.5218463284107421, 0.035600384167934436, -0.15900270468221087, -0.2448250200989679, 0.08894706056091362, -0.01144174446212011, 0.06955207720840952, 0.34909622441413873, 0.28018849873729906, -0.7339962463045672, -0.16943768269188916, -0.5680002251024344, -0.2518011950587657, 0.203763623992408, 0.4831287738103795, -0.029121454867418475], [-0.3230522603555171, -0.05223822782056023, -0.10532878210139092, 0.22848409784844145, 0.4869721551232148, -0.11836559010465662, -0.053797918388412164, 0.7209853446419079, -0.5162866603500246, -0.4768859740735247, -0.21244522844870836, -0.3736783057778631, 0.14720682273207003, -0.06068492071829032, -0.41673015336041846, -0.8811633937216228, 0.040796355758116, 0.20252293032909105, 0.17880954323341186, 0.4345717438164882, 0.15488344126839118, 0.1494752465552123, 0.12598114624114706, 0.19886708329885822, 0.24125125212386692, -0.12260348350031111, -0.03308790381088694], [0.21848211069549434, -0.009755385875457148, 0.620201964692284, 0.3061176496793531, -0.4437390783003785, -0.44730756505344305, 0.168070064895344, 0.06601862023759475, 0.29741655843543496, 0.2891261251966813, 0.07680207819845188, 0.08537259575722657, 0.1518677753584312, -0.5955451899131131, -0.15941707636709512, 0.39151137819338, 0.9267667363092702, 0.10075845538744302, 0.13292035552267947, 0.2682869318210087, -0.0498322361650413, -0.519754531755613, -0.05066674994478915, 0.49505420862555777, -0.0034114277403451336, 0.22626800533871264, 0.5632008438670695], [0.23153362445870798, 0.7213852164990778, 0.6371698625254568, 0.3732637026282972, -0.5930699432942114, -0.21788485760022624, 0.5695565243827688, -0.40227238536476, 0.9495731686162006, 0.07303946048993053, 0.6852716060954673, 0.34744057583701266, 0.23601105415221518, 0.18661026763353342, -0.45794210494932935, -0.8204841389405199, -0.14170934315894293, -0.27835668451250317, 0.17274028260098856, -0.24985235721093874, -0.31881981450973956, -0.0426973875194978, -0.1331729671481911, 0.18431383944471913, -0.14887923202946454, 0.024534685504803574, -0.6865807100152047], [-0.004301173898944414, -0.054523144533109864, 0.4956712010734833, 0.09361756944676809, -0.3372727086828434, 0.6005117837265936, -0.21835551643310053, 0.17042519085150604, 0.1918752663009228, 0.15437492883784196, -0.042156579998341374, -0.02135141460981222, -0.3046471396570654, -0.2455941097636137, -0.42284411096537805, -0.1982052415054694, -0.2639821372258319, 0.0187587141084322, -0.8587287196474517, -0.4676740413379104, -0.29333673203259764, 0.2112148758496414, 0.7657262231746566, -0.28612352709459626, 0.06310956911805005, 0.7791974525134747, -0.4472683422370859], [0.11914559542383073, 0.058199389976561315, 0.022194957981766846, 0.2802146582751136, -0.5383880325060135, 0.24746577366302125, 0.12737526961250123, -0.29876105603351805, 0.318826702472349, 0.02459617607808539, -0.1309974359776462, 0.21249534754669294, -0.6370118558121589, -0.39878785552164503, 0.7774428526355361, 0.06804686381620433, -0.04007383122248789, -0.3199156716639097, 0.26871455398134536, 0.1255299642961717, 0.5666899117273976, 0.009217497761509883, -0.7534501524567537, -0.815105371641368, -0.3694750308631797, -0.07337746784733438, -0.19756038573016177], [-0.12794744106470785, -0.1883793989619063, -0.3851927667504604, 0.4565293255229589, 0.5824117304885338, -0.5613681609142913, 0.3896622876817343, 0.339813789452851, 0.08956428577581466, 0.05704913897546181, 0.5991818585150162, 0.2748067179604029, -0.08590605005756359, -0.3818904888686595, 0.16772366014222506, -0.4970427215568371, -0.30359100950393186, 0.15048761206814182, 0.34426025084656203, 0.26034252473020036, 0.06904756624204132, -0.1182210075895349, 0.43651889261277166, -0.09211591690430448, -0.25581696006335536, 0.038258510987178806, -0.9167326249554534], [0.31409906329371046, 0.5655551507566403, -0.20860547202495366, -0.44416242610023865, -0.1884185919028888, -0.173580055188416, -0.0478830445153635, 0.3095661673141857, -0.3811169514868108, 0.4473750764320046, -0.05566271399513994, 0.4759103449645215, 0.12186921711173188, 0.1348854806198755, -0.9005973235792303, 0.7610605587808377, -0.2892417779943065, -0.1707988754939858, 0.10535039297927476, 0.08011118200699802, 0.05220408563192503, 0.5530792905283242, -0.057072668873056974, -0.46540317633101413, -0.17408127737201248, 0.9682136456475064, -0.9923407711498349], [0.4633240702531065, 0.20004093762155806, -0.18149369930575096, -0.28690335051689664, 0.2578892976436986, 0.2089552947918958, -0.054565693203761305, 0.04308101019450101, -0.455614352565817, 0.4157375334879877, -0.32263290760341756, -0.4507532345424702, -0.19814260810921402, -0.012610615599052891, 0.6912294593836489, -0.015349662948579883, 0.10901743277416757, 0.4235337001924985, 0.4720261262249455, -0.2747214157900009, 0.28908637394821346, 0.16017630174198186, -0.02199665016862903, -0.48130113040305667, -0.18093657978916214, 0.11606680435237852, -0.26912301418660656], [-0.060836084663606085, -0.286270413231599, -0.6806629565648358, 0.6293416073961486, 0.538975515387321, -0.0709181622981549, 0.06241042148454665, -0.24783384161659697, 0.28205251584175534, 0.4804218773794844, -0.40674668768648276, -0.11318549050462408, -0.10218578329455347, -0.4312546838815092, -0.6322923184540418, 0.28171198834914535, 0.12525355060228377, -0.6026910410731317, 0.668158535360616, -0.09593704237306856, -0.7333098369256306, 0.777514917061935, 0.1558930330399017, -0.5705349578002787, 0.45103389391870363, 0.177858911070579, -0.5142711872058123], [0.0969113544150017, -0.1335529588359692, -0.04362534217376722, 0.024414971049249508, -0.21011865398612417, 0.19176349826963257, -0.413943815041933, 0.8016533541473232, -0.08218015375429709, 0.2526678334204265, -0.061276061935543566, 0.5450056458669086, 0.10340078742617259, 0.19577509452561054, 0.44620541102801814, 0.3041479026510108, 0.47868864734223787, 0.1589298477794029, 0.13463871816834103, -0.26579448418722734, -0.3141357938520321, -0.1802095968503012, 0.1669736760496712, 0.15027090422690728, -0.09722339547389613, 0.29753931799849864, -0.017955594974360636], [0.07200473495099464, -0.05052327602799589, 0.16621809366435733, -0.22007639840020568, -0.5675929576928748, 0.9004468409622597, 0.30629343720382163, -0.17112422684841064, -0.12126481589733648, 0.19395897721918576, 0.265895999582959, 0.10611712801643623, -0.028946987746391654, 0.15449416025022836, 0.036967054505507066, 0.8419925939961367, 0.30866322153227715, -0.3713566867881273, 0.41847533104554363, -0.2029124743134805, 0.20323016977851005, 0.016537297078333086, -0.040974579420498154, -0.1562424772293398, -0.5023177766387363, 0.18936084522680047, 0.2256276022166446], [0.43042978263267806, -0.013011533616923936, -0.002747832600341388, 0.10037770382817161, -0.9516506966919781, -0.42846078023848383, -0.4198405650432118, -0.4587681290853726, 0.12985438007062935, -0.7012744873556689, -0.4357071110860685, -0.1826970243434252, -0.584570732848147, 0.490385212829629, -0.44236579432875617, 0.08620051292932142, -0.10295534290888415, -0.5252636243869212, -0.41233668505886256, 0.5753743197406199, -0.7350364480781465, 0.0056995524192983635, -0.0587229281031057, 0.10576297344402162, 0.10684365244616424, -0.42577079470669094, -0.1913336333070768], [0.05172441678335785, -0.1726746700076091, -0.05272348583283208, -0.6221447321796397, -0.21682889727207416, -0.6962182424584037, 0.13064180393887376, 0.470557971250128, -0.02505455722268849, -0.5337554823944738, -0.0903596165417734, 0.34672510579372334, 0.497860101270779, 0.2897821302212513, 0.3986357767455168, -0.42665997980974707, -0.21354163266504556, 0.4668398793568437, 0.32755845392323224, -0.08192186733051866, -0.8175450449397201, 0.08602354244264268, -0.7318423253980316, 0.0652843936653608, 0.49509547656832625, -0.05225729661498027, 0.9134664853548322], [-0.07900165537640465, 0.4117683542887425, 0.3643578697165709, -0.1753946946098828, 0.37763522331685123, -0.7666655598433152, 0.22398956187822952, -0.06319187711418621, 0.495045657403974, 0.6040007154512851, 0.3922408519839554, -0.2642645514513775, 0.3946679507624348, 0.28820999860749213, -0.5697605654058985, 0.3157756179669241, 0.019576907455267197, -0.11499543063201052, 0.3608059874848122, 0.6842358979985844, -0.05476511286876543, 0.998131593042066, -1.0159102622515588, 0.1276080986894481, 0.16626386856092518, -0.057745183915363686, 0.19074610126150654], [0.9536963870116922, -0.2703984203415859, 0.6531129054234043, 0.1963173059281083, -0.49131914321920217, 0.01993182270177825, -0.14800216693197682, 0.36878597060224116, 0.8173928720312553, -0.03213966436850831, -0.18252805049022283, 0.2871961337309937, -0.23980588152048476, -0.15564153731483457, -0.3007359298656668, 0.5321992862948315, -0.4870696704786694, -0.010858915394159688, -0.20532827985735658, 0.5638804121977509, 0.43183390018223755, -0.489963681876325, -0.1790947460128251, -0.33093361298833385, -0.0474376297688311, 0.4750229682104491, 0.07939967770672511], [-0.33324035849573036, 0.17147970217815167, -0.17095108907791, -0.038794114128303574, 0.27595995874954543, -0.09387529432494139, 0.19131261681854406, 0.44442343946832863, 0.3600450561721607, -0.15791789581239335, 0.30589018010575564, 0.15695742253128228, -0.37330940724296285, 0.07025974470603535, 0.1601434351227968, 0.4561182959889344, 0.4423669473094952, -0.3019353507569509, 0.3600109800491931, 0.040160127339372576, 0.3560261789434927, 0.24304409611756425, -0.4058489629076016, 0.5735800506166788, 0.07668364058309597, -0.15465762978829614, 0.3363450176539319], [-0.6012549213798272, -0.3521462092077661, -0.8524875041932691, -0.5084529815025698, 0.5216920888681239, 0.6785336186616022, -0.1999088154284024, -0.5791030457228683, -0.30099568295314433, -0.06654051549024277, -0.4342077932710029, -0.08541102284456824, -0.6020526119134594, -0.6696826147650278, 0.3102541973596497, 0.7551524413586923, -0.18484610021925602, 0.3956927646361907, 0.12310852654123049, 0.12102948747315892, 0.297889915767428, -0.05042562648420205, -0.2846659087854085, 0.058899390702523736, 0.49170012946074243, -0.863104942892516, 0.43533729349481004], [-0.031722359328878465, 0.08050510849109889, 0.4507341976347006, -0.5298549494930607, -0.1766933129543073, 0.253833562998152, -0.7391312139104669, -0.40955785316025656, -0.46327767702240463, -0.10820829469934123, 0.14399786812088083, 0.1625439209660253, 0.4188617267182904, 0.7420455932122728, -0.007094123129643776, 0.035706218192710554, -0.21623666870742408, -0.4933418880473004, -0.12280944748434588, 0.2629060732239602, -0.5480596520962726, -0.07028859010545402, 0.4404305057969234, -0.5262087701699683, -0.2105901818007781, 0.041925581792318214, -0.16124342043908188], [0.18037934444433912, 0.14739826756066352, -0.3615522466703751, -0.7361998594852766, -0.2174545318783077, -0.36815127023389865, -0.02177296400350733, -0.4442953667651962, -0.14722388901814162, 0.38203232478973076, 0.1756205152001637, 0.1856156899709206, -0.3500491168341143, 0.4249249488428551, -0.14695248092938193, -0.10489771094862499, -0.2741892280212621, 0.10683329981695419, 0.03431942974399903, -0.12817316922497293, -0.4064648610582064, 0.1627352605322849, -0.1409811946214236, -0.1327415383048066, 0.27422019220966765, 0.06004402560723768, 0.2351959563715979], [-0.03950358142999954, 0.4256368277647159, -0.15637598942748554, -0.014507307230034596, -0.23926438502665798, -0.1868016470873691, -0.2838989064021906, -0.5105140495543253, -0.05676557587922433, -0.12830764015877688, 0.06945043616386831, -0.7167921548608872, -0.15428062492397407, -0.6512790789778915, -0.6812761186411531, 0.4959824996142745, -0.30589681298004057, -0.04533891401133944, 0.373755236073029, -0.03761520399317961, -0.13307230106629617, -0.2836596913733116, -0.46080663631786356, -0.5893202988455812, 0.3361813607698946, -0.29671903982660447, 0.853816865409581], [0.29242210137786656, -0.2392573177065457, -0.0736279304416395, 0.790427059562788, -0.31691674460480174, -0.08864316026268847, -0.05512523291168012, -0.1186765920922086, -0.3080137320010801, -0.2285216946524946, 0.6940328728897578, -0.13641390272083476, 0.3402982145108883, 0.056405913684297045, 0.13497996682044386, 0.4238524989342476, 0.5486478464813629, -0.35178222172322654, 0.4284872517087679, -0.33441716026869467, 0.09659373962208309, -0.3558021083980543, -0.7363951407796938, -0.40988727779977796, -0.20247736531933283, -0.12065394077519379, -0.3973550669964129], [-0.18907971508183397, -0.2750247463656159, -0.22415942073012135, -0.5622902819285923, -0.4499534793275198, -0.13465076615780353, -0.27433313621432714, 0.1316644434413039, 0.1343076497638202, 0.04265859594558609, 0.46233920510417165, 0.012435824926312442, -0.42247858340645944, -0.03248518532253033, 0.185286544335971, -0.4707602415801297, -0.3524369846424981, -0.1765580327104916, -0.08451880470103555, -0.025054230543449317, 0.10926882933670905, -0.49137929077217635, 0.09768690815729641, -0.1461802918573449, -0.044344916558908584, 1.0090386311994453, 0.03485142027028571], [-0.3345710245860363, 0.558933807865753, -0.2952516690597505, 0.19873929048123998, -0.37689785800693687, 0.3521543392899033, -0.23850654320761766, 0.48463378757792297, -0.45344426804748716, 0.6593103707116098, 0.34088207898320205, 0.3966243903612155, -0.41865924532359056, -0.4555160362760749, 0.4208995612245422, 0.015604432714734004, -0.04980344414779727, 0.3358179925463706, 0.6198500285884374, -0.02197919987629479, 0.5104132741056531, 0.2740339568067594, -0.6503515582421062, -0.19363364200690425, -0.28672371495756677, 0.4293613931852142, 0.30000755226885006], [-0.5917489678743565, 0.6599739094232121, 0.5271155861563152, -0.44839412703879566, -0.012059790268020754, 0.4340056766648126, -0.34165480140829035, 0.15795991015815747, -0.20225120400030094, 0.5683182563306627, 0.24038241867759932, -0.43669134886069105, 0.11637678758456303, 0.17702854125221948, 0.2779381803132949, 0.5880383740547616, 0.23303706402364005, 0.5937881225170594, -0.4934871858497041, 0.6352742252815448, -0.4913703159262511, 0.3766635857849253, 0.66576655144122, -0.5140066259052768, 0.15384837615299082, 0.056170372851313426, 0.2323253088662736], [0.46282086800976985, 0.7214563176575365, 0.03623293858132697, 0.14422488570386346, -0.8890490272928299, -0.17896259514480875, 0.20601896296004246, -0.07245802818370976, -0.5101034003282026, 0.6639385216220977, -0.4043334494997132, 0.146396869025067, -0.1114439054332611, -0.18328145433096776, -0.04266468418713956, 0.11324392140221465, 0.1648640380499165, 0.5451901337492187, 0.24315246152951442, 0.022646662266367273, 0.17809759277658405, 0.8954058257897303, 0.05607735832625697, -0.31557823802432755, 0.12460852223383544, -0.08145074778073366, -0.13656921596752844], [-0.249517440424344, -0.17661029051754748, -0.06589490365928727, -0.17862740040720174, -0.7156827141512576, 0.36239992305237073, 0.3830500100720955, 0.12076711834166173, -0.8511622443795294, 0.15293180772240553, -0.2347039098658044, -0.23434388087161084, 0.29911467945877307, 0.16667906934139864, -0.024925322724160228, 0.0317487100556614, -0.015626206879845693, 0.05187237432726595, 0.38181188550971973, 0.1161873142121738, 0.03277163657325862, -0.24860315567081684, 0.31515510642568567, 0.31109560962839855, -0.16168381199394405, -0.4954651631366504, 0.12257570066474152]], "bias": [0.3102657864545909, 0.060977101991175994, -0.14543613404922612, 0.12694667685215671, 0.25057121113157094, 0.16472710069231813, 0.033863246441543586, -0.1315682998075522, 0.23077643374773074, -0.11333456963269169, 0.18461124671573126, 0.04587699633747469, 0.19884484759579893, 0.4459875329487241, 0.3847870437432868, 0.2012863409929537, -0.2996411736847335, 0.13191851131347987, -0.14957918145652638, 0.37301729163377695, 0.3401488418601421, -0.3207789064566106, -0.1400241844947203, 0.10820868153657066, -0.09713465566054696, -0.13293968848971288, -0.02052468878761952]}, {"class_name": "NonLinearLayer", "non_linearity": "Tanh"}, {"class_name": "LinearLayer", "lay_in": 27, "lay_out": 1, "weights": [[0.06308987350419983, -0.06057935553273857, -0.15474104676386938, 0.3160717145682523, 0.2972095455586189, 0.10021580169785027, 0.13770211038807947, -0.11648707079429171, 0.12758616980680057, -0.2432648525227133, 0.13549164294340976, 0.3374664609842987, 0.40019495138027306, 0.27953361880586874, 0.15309354370817774, 0.08291982746109455, -0.3756833312727966, 0.344634790172515, -0.20954850020352608, 0.6232141486019614, 0.27804471387189617, -0.5116260695667743, -0.35851865295859964, 0.34011825040816174, -0.2639250698329768, -0.08237526339526104, 0.0060970969291402315]], "bias": [0.214009417378047]}, {"class_name": "NonLinearLayer", "non_linearity": "Tanh"}]}