{"class_name": "SequentialNetwork", "layers": [{"class_name": "LinearLayer", "lay_in": 27, "lay_out": 27, "weights": [[-0.1992806856819697, 0.5370445064898477, -0.38065504950383167, -0.14552443597917514, 0.28207803217709726, 0.5288279326533846, 0.6221689285229913, 0.04648607857449601, 0.36800299573012807, -0.045032795617857994, -0.17210379904799716, -0.6239154178983609, 0.23372416197347584, 0.21940603720377388, 0.22779610194303196, -0.5582465209698753, -0.13185658435012182, -0.26088189359049185, 0.19712010288242476, 0.16135516243201745, -0.21523086870837513, -0.17812764053396066, -0.2148514094885073, 0.020401031030416357, -0.14376150869765753, -0.35624448220177846, 0.47106397332438715], [0.12293652781526333, -0.3157373655272408, 0.05891395171050678, -0.3045269919747607, 0.2441399522495684, -0.06442374419425004, -0.30658693960157835, -0.14953323401410634, -0.09818736870131631, 0.30499587557696695, 0.0646556227121292, -0.062326273248108716, 0.1272893166237391, 0.3423765694969967, 0.3592582140356664, 0.12824221889004095, 0.0016285553829665847, -0.4346454035554079, 0.07176301855376417, 0.13520640238890672, 0.5338946016480891, -0.10007752132494495, 0.15981958455147702, -0.20054522022481497, -0.24886541754289643, 0.34558785350186955, 0.32665072434400927], [0.40630557837684933, 0.2506302862028423, -0.4977648587981672, 0.49342427019691004, -0.35701087912630497, -0.3464314724582791, 0.5294115760977928, -0.5193016877152752, -0.12809409134891167, -0.028761360719933893, -0.6320341351223008, -0.10343347020311514, 0.015037051062467182, 0.1885108527848481, 0.3492481410599954, -0.14719760430861237, -0.1871753977499336, -0.18035560993172522, 0.15175611412473802, 0.15262115612477015, 0.07315600552272992, -0.15954336756922446, 0.5826203719718991, -0.01443080339006913, 0.5289945375274056, -0.22241166463147033, -0.011361767555025722], [-0.3065128287091071, -0.18300912112444845, 0.07728148810595839, -0.07790933610856553, 0.014408153126614257, -0.2936333304063862, 0.07591671612359868, -0.5524656458866541, 0.353147241803514, -0.3901458971021319, -0.4301385868957772, 0.36676471708078484, 0.07181823520791783, -0.0982080547267008, -0.17830288102895592, -0.15451735841829273, -0.5421132895194076, -0.537633865593224, -0.22949368781977084, -0.36909562059033646, -0.018938554868916976, -0.1464319555874844, -0.23452682585534762, -0.15769251604962056, 0.38129153509633357, -0.5383649432471991, 0.226567934204776], [-0.2346774666487524, -0.6164475661277365, 0.24205518690244746, -0.0478432529893037, -0.18680998204603944, -0.23755189818798414, -0.06638711256401787, 0.4859417362420099, 0.12264285470423653, 0.4935724233339867, 0.17661905697310293, -0.39557692512299836, 0.23242084883536804, -0.12947769483708763, 0.5037677295845502, -0.10670816901213026, -0.4221578897973924, -0.3992873656374207, 0.25505737055542443, -0.6312993538967612, -0.07530039342862185, 0.24152338595441164, 0.07743910543143265, 0.15851982879172924, -0.013572288820143765, 0.5677879954944954, -0.07783122205016671], [0.3337087418325152, -0.33523545642519315, 0.1740706328779642, 0.04866677123283741, -0.0063445020691560204, 0.1292944815697315, 0.17474380868181658, -0.3493315603469543, -0.4999297866319618, -0.28310881011128275, -0.6576095379298568, 0.26944828104216767, 0.11067682888930362, -0.004970438301281642, -0.08341352673858768, 0.08916260710054787, 0.14593201878700043, 0.4770123882948408, 0.17952102031385636, -0.10408072946525529, -0.360121243672004, -0.08296284250772683, 0.39877571218575664, -0.3377474467659851, -0.18698792350001692, -0.08781447630668551, -0.5629509546221922], [-0.23420014935629782, -0.09700204955141446, -0.24655432651761944, -0.22750069920689658, 0.7298091413222405, -0.23005611278475768, -0.16533237843584833, -0.25171206048163997, 0.5486499871741595, -0.23834622626393104, -0.03418734167598598, -0.07975129386384792, -0.509822439247093, 0.47802141652553226, 0.039457219945103185, 0.44262248308546104, -0.12818339409292984, -0.06392699246334087, -0.25415863802627586, 0.2682388774714444, 0.27107849421694974, 0.32688288171277435, -0.5750951159927752, -0.23030086279229484, 0.15355915193458897, -0.06013816585898323, 0.13743412729062995], [-0.24946076224060726, 0.3285996202450481, -0.13447604489083484, -0.34215969866756035, 0.10110164793738653, 0.2014884412257431, -0.6829907112897486, -0.016977749152533337, -0.34993323920944375, -0.14114661715831606, -0.07211244538407552, -0.5017288719819224, 0.06462993418448433, -0.2898630938115944, -0.37803899408032415, -0.3027203787239651, -0.15010570207257218, -0.1656837558969339, -0.05508485089471144, -0.012205930759093556, -0.10430789525904634, -0.5340469705565714, -0.19825707459349687, 0.3900754889190727, 0.1144650373398068, 0.26136346898615564, 0.13770466635969417], [0.32718408756617773, -0.15261828679073808, -0.30047199339294206, 0.27882826491380697, 0.41762003480233495, -0.09553386192291717, -0.5032600775771064, 0.08701278995162483, -0.3712710165080134, 0.31590276304284826, -0.32484227408308747, 0.16663896380701568, -0.00740943928018104, 0.030307147855168467, 0.11193557254595561, 0.29217778594456534, 0.09931797947759477, -0.38925205568878557, -0.2574791730457878, 0.21418280553042168, -0.3154017590550079, -0.2002077783337833, 0.282849263510572, -0.5032331031247136, 0.48141515060124346, -0.21112282735872678, 0.39851128192220825], [0.23662648653184726, -0.07487374442337763, -0.04710050484806127, -0.3384585786459637, 0.33876443950978113, -0.0018543205436490657, -0.7055026977801238, -0.6865784268077786, 0.05813567528375699, -0.6934531469906985, 0.08701643101134246, 0.13644665590732144, -0.046523723027677634, -0.19386882311479275, 0.23520899252101807, 0.20561689101884012, 0.367608787401106, 0.07120188300462361, 0.3712957314702922, 0.358467202540921, -0.5758521788848571, 0.16474929936192306, -0.15530821472387504, -0.13635179686779697, -0.6657183988488682, 0.45376080417617237, -0.22871502991386983], [-0.045873824711154323, -0.18658470029497806, -0.3566050683311374, 0.3279223706367555, -0.10289512051951083, -0.17341494001675042, 0.1831542696266734, -0.18693058270492824, 0.30524216011164146, -0.05228796662684121, -0.4660371341511348, -0.02968560654985731, -0.10337131541196692, 0.08570262752401987, 0.2117079204972348, -0.003189539272518165, 0.10898333713778174, 0.024260976888668732, -0.6647023204308458, 0.4486615855491593, -0.12878422455230748, 0.3882230719738277, 0.3011474484235104, -0.5480012505616275, -0.34110515841380945, 0.154464340773432, -0.35633526674197746], [0.5582072397007494, 0.13553836433023622, -0.020273339451852623, 0.002535633353897969, 0.27582074120604316, 0.009876373027579936, -0.278379390216725, -0.3684876107090333, 0.2825528099125336, -0.11121546237067195, -0.2728166884480105, -0.2871882246810393, -0.4713568226186352, -0.02022060076154434, -0.1660730690093329, -0.07897924594719527, -0.7917749446052862, 0.13384625496360428, 0.049848749468575454, 0.2142918220456594, -0.6701438468348818, 0.4458468963887897, 0.47382167125737423, 0.28163571581434904, -0.03373296574099007, -0.19252189515538307, 0.10583023783972172], [-0.3094405870048632, -0.22393871271325483, -0.03614597984510113, 0.11213541907402148, -0.5792206104676021, -0.10887585756444314, 0.04816626332997106, -0.7542651140969455, -0.18931076797933447, 0.025344023423079894, -0.29097988320888535, -0.12596719116329314, -0.529960709152441, 0.3866136270198965, 0.19418236776021994, 0.08791605991062922, 0.2631186688535411, -0.05310813630016257, 0.00606087789230369, 0.8959212274759345, -0.3053145566338001, 0.5288706984795248, -0.3740234108471974, -0.7840218333579902, 0.15270682585331735, -0.021049489243349713, 0.932612705493641], [-0.06066725266274767, -0.12340976955869751, 0.133418262077854, 0.0014459278518258337, -0.4402857970501064, 0.537553231703346, 0.2797326021740566, 0.11215944977413247, -0.8139134257838455, -0.7984769223480493, 0.24561173358445137, 0.054589941964491955, 0.28411606272937184, 0.16115489900072844, -0.3564846663518152, 0.300110832456605, 0.07572864537058199, 0.10471826575376117, -0.30622004034188577, 0.1746747301884123, -0.08435892771855455, -0.4831156399828395, -0.03615901825930242, -0.002145222166783849, 0.3649468264988638, -0.4892552616540707, -0.1301830959142111], [-0.21819831817830213, 0.08350934264455602, -0.08627039946667361, -0.16051213910053608, 0.04685661427182157, 0.06522383963102721, 0.029230708388790057, -0.18119997880696778, -0.6185011760004241, -0.11656357912319848, -0.287244682915285, -0.20785997779726773, -0.006194705297420494, 0.5044641413801948, -0.43903131156637815, -0.3021674453769963, -0.4873029470866135, 0.20865612816995546, 0.2353644953467588, 0.2896049264395473, -0.013838264549394448, -0.016157012569115906, -0.17112137716405046, -0.10415881279177547, -0.9037289341554309, 0.09751798100872505, 0.2556882293347943], [0.6964587123786635, -0.23957194520458266, -0.03359604259068632, -0.33887342479982824, 0.16502617792619387, -0.6981889751635347, -0.45612164981016634, 0.10708144313099197, -0.27019773133841146, -0.19130778310783308, -0.3320879142487442, -0.20712961936817792, -0.1287060774441245, 0.16693196643028427, 0.3828333921074123, -0.2711292782693387, -0.18550752088410827, 0.05355434030487244, 0.31781862467842203, -0.4468926678444487, -0.29700776789690686, 0.14639141327865368, -0.2995125963249142, -0.2417289350005555, -0.15659201841655204, -0.1346072160185559, -0.05495238733941734], [-0.4209919645973258, -0.13174532538123063, -0.5096991359313843, -0.017372483832607852, -0.2609491253900443, -0.440022122695465, -0.27810765253347225, -0.38569796942638057, 0.10054358980615187, -0.18954216084267966, -0.30377778801292576, -0.7379898443606333, 0.3032840994842731, 0.02280708809208192, 0.17430930274137288, 0.459226260182009, 0.2399214505123002, -0.40681668841918894, -0.15461819211431171, -0.12469856132253794, 0.4119187556721808, -0.46742782964707824, -0.04179359021678046, -0.2494619078361351, -0.11716608797442059, -0.6379541620154279, 0.47301039667928096], [0.38030212728723567, -0.07478094011531838, 0.3860290127533692, 0.08743588915470359, -0.5978575446226712, 0.5458695696213479, -0.13945500949567585, 0.6817558450060465, -0.1732792623833497, -0.037081518795457645, 0.20473132016633963, 0.21423756245893907, 0.18212989469992671, -0.4206668766050192, -0.10068837530651949, -0.0772790911785502, 0.41860531183589506, 0.769400355432975, 0.17176732539292067, -0.3956188347257591, 0.18083805422914465, 0.005223401362667356, -0.558580374567853, 0.2188500339836971, -0.07589013346413134, 0.5514189753269174, 0.5840205748370675], [-0.35129559662220156, -0.15383837596356498, 0.6831956029444342, -0.008943784631128058, 0.262913780893228, 0.1295320744000214, 0.007822266137046239, -0.16670814788071908, 0.44190272190019364, -0.3269521773504794, -0.04444203057126114, 0.05711195959567746, 0.32526775680646913, -0.4342804049025308, 0.1908692434330167, -0.0910955187124623, -0.15370191575562592, 0.01954454893502074, -0.8430818782709395, -0.19811442023092785, 0.07190263413218234, -0.010036241808336713, 0.404228669799152, -0.3457147924524652, -0.3234498296173676, 0.17429350202248647, -0.05174192547864175], [-0.20345805875654516, -0.44126832791064574, 0.22580677590212309, -0.2258923171386448, -0.14369960672931395, 0.15846664078280098, -0.4152836501751136, 0.43525150235508864, -0.02122108218690843, 0.5578897108798077, 0.2600947884555169, -0.33349987492727845, -0.5087724883069322, 0.2030460443379704, 0.841158670138093, -0.16727625712432714, -0.6804215191291608, -0.06779179623390946, 0.7740697492699372, -0.3001119626317722, -0.17014128422839117, -0.7129130261566201, 0.32514519982352874, 0.18110908700600226, -0.03299758995175951, -0.4456449914451239, 0.08378496736051165], [-0.23130058927231603, 0.05294763497846023, -0.15279358001177812, -0.39885033223488064, 0.17394720721572093, 0.3033085597705416, -0.46498566676651887, -0.41268151357335664, 0.1895157776713412, -0.44819181136919317, -0.28649548150398796, 0.05684505500155413, -0.2897323150337013, -0.7960214181343653, -0.014116177896450347, 0.37900501001381287, -0.2259329123442553, 0.26048403389543967, 0.026534791878500247, 0.1696118191863134, 0.5235370740966436, 0.3604151209188095, 0.05966232116319318, -0.21631030993803202, -0.6226811275560592, 0.5307935105363697, -0.036621584671221584], [0.2488887927078159, -0.23893820912153735, 0.45081156207359196, -0.13441731764879133, -0.039535005044993764, -0.25784016700981854, 0.11030595344840684, 0.4653914555980764, 0.45091864751066546, -0.1490754387324741, -0.28111820799205295, -0.034537606351679226, -0.08119594061620442, 0.24296026719129413, 0.01362968448329047, 0.06915638791881862, 0.14768861056514868, 0.2623438868383436, 0.21079712078909488, -0.48235371541127875, -0.43092565469997884, 0.030179768993289568, -0.26501498118312394, -0.5412911067597348, -0.072770383326216, -0.17434395073299452, 0.20473821807949463], [0.4526170728421477, 0.023798419603596143, -0.7823576534408655, -0.38912939416979025, -0.04496289025202269, 0.08173795483142854, 0.054698318253207576, -0.08944836675739631, -0.05462585263134793, -0.5423978909292843, -0.08216593038676737, 0.23283828373875495, -0.2690849928078436, 0.01792552098192946, -0.5758087454108111, 0.16280398890623787, -0.04242890494924646, 0.3217304443750211, 0.3782138868519768, -0.3559901388797802, 0.3959788477951009, 0.23385051672589055, -0.738449080810746, 0.8561764478102296, 0.24524540895162947, -0.540331187340629, -0.6004752225869632], [0.6780346843840346, -0.0007179878340011768, -0.28815917896896937, -0.0633774580518736, -0.4007380549702369, -0.08706507384046756, 0.16134376048591395, -0.12430642028270672, -0.07265994002253628, 0.05226498239050118, 0.551271219634959, 0.4844082011137906, 0.06117447148823596, -0.40819805584524377, -0.03498261245086379, 0.05469876016924016, -0.21313845853626262, -0.5235980042519753, -0.5504904168911282, -0.3261568217233987, 0.6438414044568666, -0.0005143990446321097, 0.2067499272239814, 0.0009249920113125094, 0.01621425256323242, -0.06754053615961307, 0.31433442962416536], [0.06578313925734133, 0.013934125300516416, -0.024915385441799304, 0.14320186319041725, -0.09520700042420323, 0.07284861600922711, 0.2578438971660197, 0.2622268644339035, -0.2658110983853086, 0.2384718675414501, 0.37012977705854616, 0.5686435917106184, 0.12531265352027482, 0.6153486920915948, 0.3524341890644676, 0.3156601796438098, 0.3079831220455188, 0.22068469281583006, 0.02608285299967313, -0.3638290838219587, 0.3433177422877223, -0.30202012999797606, -0.3259407874821602, 0.428317097094816, -0.34371365681319144, 0.10064506189306628, -0.3487918347774014], [-0.1503294910880989, 0.49348645775440847, -0.11254287988913153, 0.2203895524576354, 0.07769473504281613, 0.0772541315477147, 0.18601313202458641, -0.43855528719816583, -0.11857730072965447, 0.2741448491892605, 0.2085378750173396, 0.1131188656516573, -0.1525407105437744, -0.1628414675776377, -0.0940159163625611, -0.8949466100155538, -0.03431737177473226, 0.5705500892843396, -0.05357487002665415, 0.5093256821717584, -0.2791006993610969, 0.08086325163656811, -0.09284085975827798, 0.41789618777063275, -0.24023763422520208, -0.05335773687593483, -0.3260020016895667], [0.22459146258801618, 0.26444778014791015, -0.045670629257495016, 0.16847974215990022, -0.41828987061928313, -0.12561365718372128, 0.4432622293835534, 0.45184246752297563, -0.40045760119970775, -0.15041929198272128, 0.11497185620174223, -0.5109192955929781, -0.1298878213511892, -0.3428034331668959, 0.20859902753592666, 0.6236628101096788, -0.5770886146032448, -0.1233501737055556, 0.07494337465458602, 0.36739466747547433, 0.7395441820066854, 0.7916912445102693, 0.15920145043982065, -0.25641338780466627, 0.049621277468745846, 0.09779076358810092, 0.5680167353855875]], "bias": [0.14652568030025315, 0.11521037622893911, -0.08673785320861793, -0.0822326554782533, -0.06221360522852148, -0.14389488666681013, -0.004945093134106936, -0.07666892032432109, 0.17535069078875307, 0.04100172918200506, -0.01175156372974029, -0.030629297487330343, -0.11869557289857235, -0.044688700095838745, -0.09219255882362715, -0.11412788314706318, -0.11797334062899141, 0.17411839442673804, 0.14912546547794336, 0.02910718889458125, -0.0025941708429817398, 0.05861829032694911, -0.06684070001552098, -0.09524066688510731, 0.15218747562410262, 0.0789019586513534, 0.08298878073116427]}, {"class_name": "NonLinearLayer", "non_linearity": "Tanh"}, {"class_name": "LinearLayer", "lay_in": 27, "lay_out": 27, "weights": [[-0.18773717478343804, 0.08413914421814388, 0.11129093767554316, 0.08817755758551722, -0.5631836843459478, -0.4498875473408231, 0.43874547717554735, -0.1264763398584605, -0.38039279759314804, -0.06382748950129437, -0.03477272656244494, -0.5459134082604009, 0.06896081880461977, -0.03633245911595223, 0.05280159388460046, -0.006970961243233352, 0.02626823020998593, 0.03466794109027257, 0.006578185921121019, 0.1459701118012113, -0.733030646842678, -0.24608296446828726, -0.20364514394884076, -0.31260555536762097, 0.3330088235982584, 0.4267987365110781, 0.012254650158313765], [-0.25735986218356316, -0.3119622878520012, -0.1430033967768984, 0.24052678641859754, 0.4242692037214733, 0.14235334990862067, 0.002169313230864577, 0.7050687547292578, -0.32034307090319875, -0.4303243120791276, -0.17640246886124827, -0.4227246550473077, 0.11149750265520493, -0.14393366417375836, -0.20088398018760278, -0.7461479146520579, -0.08539674235141775, -0.013229816845882631, 0.17583350771360304, 0.3402729719541084, 0.24277852613702589, -0.020929980728350076, -0.007354273988848789, 0.07289871941110347, 0.11178364486803496, 0.11784709125671085, -0.17509707949503125], [-0.09126822882521125, -0.04127661104825691, 0.3370083838500156, 0.1461722781354201, -0.24233214718503868, -0.2979476881699522, 0.07774876081664246, -0.01829297891245325, 0.18948239713757717, 0.34120306534823863, -0.008053506437665281, -0.09714985111685015, 0.06838431910054199, -0.5734061062079343, -0.13660962016491265, 0.33349316179205607, 0.6419636086986749, 0.05374906574354666, 0.24671000239046084, 0.3928770654311961, -0.055663952630825575, -0.33055827953969175, -0.2736875311878681, 0.304003044772942, 0.14795504996056288, 0.12177612888015203, 0.3954271605974404], [-0.09170838737033836, 0.559102861551718, 0.4734292497079352, 0.22211454325119703, -0.3760508760095621, -0.14278629346676433, 0.3174298629096913, -0.33233636164437375, 0.7467484985511434, 0.06117951970831829, 0.5025331490623025, 0.15416653403807784, -0.01093335818937828, 0.046971132358089404, -0.5485306791450815, -0.8053481188392809, -0.25566678957075806, -0.049623803810794065, 0.13025731847399746, -0.35888313611544925, -0.25187227334716666, 0.05809396787026507, -0.019458049331344904, 0.04712116283192943, 0.018787939938851025, 0.14512250653709718, -0.43755112121390016], [-0.205875365272764, 0.030476793450926944, 0.27356889453616673, 0.2877237054324825, -0.14329984124514566, 0.5449475398404237, -0.3233305303219322, 0.04645666467511384, 0.07175617078852686, -0.06940018253046983, 0.1142168694565272, -0.3407882897565784, -0.09164156899832362, -0.21544336078485155, -0.2972724776463555, -0.49802037489559825, -0.14626477071120836, -0.0013347577433888386, -0.35711168347621636, -0.5871570770610202, -0.11402388637779819, 0.14047171091885177, 0.47488120131200845, -0.36423443353540325, 0.08816472902016341, 0.5983093718167135, -0.5058581312001054], [0.11382043319049687, 0.15178839699881438, -0.0343387764367772, 0.19851736526535896, -0.3524726259219231, 0.10316808206121293, 0.012686266753378155, -0.4222544471040104, 0.25567003285571643, -0.22418509494830982, -0.04467550311188569, 0.19481350012525678, -0.7869843043969936, -0.5103890182428586, 0.551164823994674, -0.018103234230283916, 0.003944195695249962, -0.10898340641487102, 0.11379384046373449, 0.18033186306122212, 0.48016872489898016, 0.08647845568618664, -0.5880476258258116, -0.6569052470347918, -0.19533071575762195, -0.13695618081847485, -0.23178526213172754], [-0.21276518949125825, -0.05561271035074423, -0.07505269619146676, 0.34409239152045734, 0.42995489382689195, -0.37099824121646846, 0.22845954213111033, 0.19867278368244112, 0.046590226456726606, 0.08425529353292999, 0.5338391826330625, 0.38770550935550757, 0.0691026944345118, -0.12201960350551373, 0.13809771462059428, -0.18153612558610338, -0.19511502744612155, 0.20057335553075642, 0.3066873064639454, 0.2775231092776462, 0.024032791030077227, 0.08446655054843877, 0.45395470643933084, -0.1004853891777871, -0.12847053996037702, 0.10606931253536032, -0.6192639628692928], [0.327294994741923, 0.48553117209610425, -0.23966412694250674, -0.3622754492540586, -0.13544599325377527, -0.21482487034353778, 0.13526385995874843, 0.37765802710149493, -0.271387799791243, 0.27600318004691154, -0.04019418498850864, 0.21938268691231816, -0.014246668897833867, 0.17013105004737167, -0.8232928137374457, 0.7544451005731111, -0.3612714554550088, -0.21874123796794176, 0.12949408116161884, -0.11570760583867436, 0.05469216858052763, 0.2675081165105451, -0.04132956918512955, -0.41787335257336916, -0.14534453625834567, 0.8933451862782932, -0.7898601991355557], [0.496239572250432, 0.1737100986979499, -0.10198689282680037, -0.1320160530161469, 0.23043102065515236, 0.13581800757945717, -0.01628337441547858, 0.061648508835536436, -0.37086005631522867, 0.3537533841595091, -0.34525235561322654, -0.3580682701423078, -0.07844819323317927, -0.06204154221553673, 0.40948443679883345, -0.025180349156134766, 0.1466383290575769, 0.5006435158589102, 0.5144368902720464, -0.2481127023279626, 0.2725593473669385, 0.27885355338473117, -0.04017137141623411, -0.44243714429675157, -0.2276106716385572, 0.15777075875108854, -0.2979828573984025], [0.03328495331417458, -0.22773987990465377, -0.5077942457306801, 0.4846692856148688, 0.5821789547774041, -0.14793159629448147, -0.24258514947938997, -0.1992626606980571, 0.1547523701696723, 0.47680244669711225, -0.234193912399792, -0.21553349690487705, 0.04644513384724639, -0.31073749471517054, -0.36489130867218345, 0.3179322283860469, 0.06845985926193195, -0.4948324686501827, 0.5969156386094413, -0.07623108345886069, -0.8473291051425529, 0.6558552752710252, 0.043392793121565465, -0.46048230864262807, 0.5024574415088925, 0.1699531667140247, -0.37040872644949696], [0.07202213573040887, 0.005450809806532273, -0.1798757021541171, 0.025065613827159106, -0.08206635902914147, 0.13278380644427942, -0.2262169803173507, 0.6215104402267654, 0.1307203742181788, 0.07354072360800552, -0.10582975925741146, 0.36912159108215575, 0.08844570962579762, 0.23765746280720706, 0.39944515921307727, 0.17085371564821433, 0.5173002980514723, 0.14162952265978407, 0.1474286515335411, -0.12703440614444073, -0.2779947859115525, 0.10844976538932374, 0.10202737869637109, 0.2508192781950111, -0.12346225149563742, -0.015260052312066941, -0.09068365887457737], [0.08140573820467445, 0.06274201722639279, 0.14508381757835778, -0.2694785913728494, -0.3393504377700743, 0.48456647824905863, 0.08207639253599061, -0.13846055916008784, -0.2645656660596852, 0.04709285898605102, 0.29763174905255513, 0.09860158000600905, 0.13969981513782215, 0.19096866624043726, 0.07041305102341443, 0.3810898794613397, 0.28212468283627457, 0.047762524632340334, 0.38295010383116324, -0.11834549792947884, 0.08977518956606213, 0.11504456001441411, -0.04010025421226753, -0.1305203919307367, -0.30714152636306413, 0.15169815020025118, 0.12275906216231328], [0.3526915164910541, 0.041804950547329064, -0.03923524604911336, 0.09938501521791637, -0.9359332913194752, -0.196206152993707, -0.3594130722701822, -0.43029405448186414, 0.09798024591600754, -0.3909948927172492, -0.49185200738729873, 0.08347252960072761, -0.4859963585996729, 0.45741849459462186, -0.1461766681420003, -0.020040101877213102, -0.2538022168398047, -0.5528223168618425, -0.2870940424682249, 0.38768301275841993, -0.5740884648224084, -0.1311231313669717, -0.03262125888675606, -0.03095080473357606, 0.1448136855514903, -0.225252413431543, -0.12895907558025985], [-0.16110347314633322, -0.27826200397745054, -0.25161514338050317, -0.5160976274483307, 0.11953789386102054, -0.4307227070711079, 0.17595155090734968, 0.4934353979286138, 0.12909560803445286, -0.6012631100004662, -0.138910352258824, 0.3889872820421636, 0.3407636290228456, 0.2963069568245195, 0.22419279545710355, -0.1967534748100329, -0.33042137408993094, 0.011682739538406994, 0.322008384490597, -0.048552639861613026, -0.6353603275960097, 0.1804311640261152, -0.45609984241956697, -0.014646160104843436, 0.238759970775654, -0.22284324516705686, 0.5631425320249833], [-0.10567954365913118, 0.35409005704081326, 0.21626162893444373, -0.04483940796892622, 0.3543475289161225, -0.3496481989920332, 0.22709904469707062, -0.20952431477831202, 0.5931318901252304, 0.47309787460134073, 0.0747133262868502, -0.21308811592515628, 0.17746884243500075, 0.555008326779829, -0.30039739610355176, 0.08980198317052143, 0.14687310356278943, -0.16656620050413254, 0.4290677098876785, 0.6242825979246905, 0.050505031237527254, 0.8526041781206188, -0.7961645349116084, -0.106158360588961, 0.0038838782157845733, -0.07186614673318868, 0.0049167960540002715], [0.6016447678473138, -0.17248546969457304, 0.33355534175740575, 0.1661602658790736, -0.16408428412576617, -0.13621402134910673, -0.1267276451239481, 0.37697816791715977, 0.6013142661803207, -0.10055363023349975, 0.039952398971853466, 0.16555669293910832, -0.2130859792499201, -0.40918960741294497, -0.3659620533865812, 0.46586506519023335, -0.46925351957779965, 0.018196049079204975, -0.140866352891321, 0.5226723445648569, 0.4345859264322025, -0.3888050421027609, -0.3794281951542456, -0.4693728365079503, 0.0018278415906823305, 0.33135533687905716, -0.09074313450102685], [-0.2654481330520647, -0.0686797011383069, -0.14028703757010022, -0.14900532537394098, 0.24689885522173516, -0.11148086865342736, 0.0358467266462083, 0.4681620119757418, 0.2669766765596698, -0.1366286724562312, 0.40747262324274863, 0.14288930466515345, -0.3427993638509253, 0.047876744768080653, 0.10871095337689578, 0.2600956044702189, 0.26458433090930106, -0.28680987317899137, 0.1536368446221407, 0.043457790218802375, 0.2874064216716419, 0.04547313446272297, -0.24393940519513332, 0.40263821412517004, 0.05364846114955431, -0.19706092264895944, 0.2921711513548202], [-0.3244466050759309, -0.41570681326907005, -0.6495518423194531, -0.2547320128368524, 0.17403480335397595, 0.33782851445693046, -0.2184292861111185, -0.37255726818282964, -0.4510509365764955, -0.20884440645337124, -0.4308080965267192, -0.10418460661558139, -0.5778248217785951, -0.8882175630437906, 0.1506105634070499, 0.6004024117410166, -0.05854342838022868, 0.28045449875190576, 0.1034948378899018, -0.07899158369952083, 0.3399644221121528, -0.31633031514766574, -0.2463849360715006, 0.09672143648754072, 0.40724631078772633, -0.5139476318780789, 0.47354883843191015], [-0.15678020150936336, -0.09873695313128353, 0.21006080519960907, -0.5450040664756297, -0.024920855289148676, 0.17167756355000502, -0.7240193912672286, -0.25867164413658406, -0.25569385172859527, -0.012456393854423934, 0.19539321609393095, 0.06075578233270538, 0.3303150555725483, 0.6785671326723317, 0.2311234835103062, -0.09853649193499167, -0.2200874147894437, -0.5180584803797328, 0.03357294827010906, 0.19914862015380028, -0.5087457314477435, -0.2629683637628094, 0.40120490142445236, -0.4905419595650963, -0.21823010609036375, -0.045166489246785305, -0.17200497576613655], [0.23463841475087704, 0.12763206201991903, -0.3093428961309389, -0.6347209882017049, -0.2832369455848414, -0.2660557100654747, 0.007089337720164105, -0.6186513676712639, -0.062177417758716595, 0.3463040120224421, 0.19146820556339125, 0.2744335569623469, -0.3452300771200352, 0.37555839423910836, -0.21837134961699037, 0.0036036140742448292, -0.11351191148901413, 0.005105877464281232, 0.07172677288514626, -0.10141329866520121, -0.3341545492992306, 0.17114183711730688, -0.0739948927040482, -0.21567185406699435, 0.2041512702111382, 0.21546188981974151, 0.045814908043363974], [-0.045678841932753685, 0.42768680720891344, -0.10470905853122374, 0.011707612268930216, -0.29279034575151563, -0.14556717297528324, -0.24016969368768476, -0.3195911101609635, -0.02147614762822494, -0.10891107668850057, 0.055351908358969755, -0.5941721036085577, -0.2501472343458553, -0.4813470826154267, -0.698696232450876, 0.35299184869280675, -0.2263724830646859, -0.05005327857611873, 0.2668498988981582, -0.18018547136678645, -0.11085036069670542, -0.2569386455856487, -0.2944676248815709, -0.5593218482366551, 0.2525114358906759, -0.2883714094452111, 0.6840333442094679], [0.24182322201938397, -0.1711766826158312, -0.137817950342033, 0.6130862529035374, -0.12419611949591008, -0.04859123793201187, -0.12041599926087346, -0.06104776770053526, -0.2847485460778914, -0.09185473652699297, 0.5360665089951473, -0.26410956865203256, 0.3861848811680338, 0.17523777494842735, 0.29432191183653045, 0.39079983263164014, 0.4017461866297903, -0.28018047295930415, 0.3671171823454529, -0.247888934174477, 0.08211886616273426, -0.2834954370197409, -0.7318296905335178, -0.4800158285934048, -0.14570530942512155, -0.4043772495859839, -0.30994994867642073], [-0.2678512055927556, -0.15292788476070507, -0.0013949679118130586, -0.4961261038101012, -0.41317125526191895, -0.1760428911542885, -0.44880274402494713, 0.0863694202743293, -0.21226173135909976, 0.10049719269984908, 0.33125916177857606, -0.1008065887297203, -0.2250347769699454, -0.020067830017814734, 0.21798954349005273, -0.12321381124715891, -0.28848140943177997, -0.04260393114523406, -0.13578883789620633, 0.009382500394011258, 0.006647035012905068, -0.21174246755572088, 0.15852172131081538, 0.14717401331324784, 0.019953819403390798, 0.5650619377863715, 0.10712033226729188], [-0.16761225340692262, 0.2877234904110035, -0.16964845233177414, 0.36241037127836095, -0.32849998589664364, 0.22283509790249123, -0.31628931502429447, 0.2664889873587393, -0.44868597880961275, 0.4153699511749834, 0.3427811209802236, 0.3484167115171751, -0.3015388270763107, -0.4615141582920661, 0.20121657004258714, 0.008402289202245382, -0.1651959408224385, 0.3893143831366556, 0.4075771268410425, -0.09332567269993594, 0.352498332017629, 0.2900317816475069, -0.4943095214286903, -0.3554647509512582, -0.1830022061744314, 0.640524428473257, 0.3672735820860138], [-0.2986939020427246, 0.5145219641964316, 0.4463130589288919, -0.18090546577732014, 0.1823784363057502, 0.23110130710833113, -0.07567158130756897, 0.24394641706579137, -0.20311284214085826, 0.48321647246631305, 0.18632869500159444, -0.6832536969972979, 0.07038213653914406, 0.16542142689407216, 0.3182124283138916, 0.3399228823348463, 0.13924867097892862, 0.2444172524403809, -0.38766826220687944, 0.6444429779887331, -0.46798792386701155, 0.34545866445762896, 0.6174446265598812, -0.3794138899319476, -0.013296700991762063, -0.1686263319747542, 0.1279783758149564], [0.39890642728561915, 0.38481191239964535, -0.056043453634753854, 0.14056299387653873, -0.7114283168712997, -0.3245617117021399, 0.24471045220603418, 0.06326621151248678, -0.5091254677197127, 0.5608553951454396, -0.3129363704432377, -0.0783958118288215, -0.12481700520708676, -0.04228455303314396, 0.13059525096916882, -0.23341354651824892, 0.06911305596665004, 0.4825715085248346, 0.18083571115633454, -0.15659437620183567, 0.22597301651641868, 0.4475019769550672, 0.12215401490419481, -0.3179252737324699, 0.14786209374665193, -0.12282962795897533, -0.07951707150644036], [-0.17571245106700206, -0.3012181913476301, 0.13760150000980584, -0.17242737662171015, -0.5953174323362599, 0.36302889132237043, 0.086646087450878, -0.024715685897721315, -1.1019449779274841, 0.07384847751492207, -0.057167159819158625, -0.4208499001943924, 0.4366941047196324, 0.2612713354698144, -0.03263719246526908, -0.05507237269334567, -0.055046105970385506, 0.1271912252285847, 0.3924331561667285, 0.2999859540970798, 0.02023843972590865, -0.3363923476147422, 0.268231300996338, 0.3263651987437601, -0.20704725001408972, -0.42811741235490813, 0.029137070455560278]], "bias": [0.13760918250794912, 0.0530846004943564, -0.09796485418534678, 0.11987447640360062, 0.11332055060766061, 0.09352638699020306, -0.011350846403012331, -0.02733141855548334, 0.11657993532162214, -0.06746805486928299, 0.06328428749792166, 0.06818303184943886, 0.08382022492986764, 0.19931733297525958, 0.05696419478035437, 0.06451729759866058, -0.13592799793138258, 0.07123183212217683, -0.07195423089124646, 0.15123400542615584, 0.09432338947964151, -0.13589606368792082, -0.004704200220601938, 0.1010131339336675, -0.11094860340645284, -0.0866280880445474, -0.05455995498155062]}, {"class_name": "NonLinearLayer", "non_linearity": "Tanh"}, {"class_name": "LinearLayer", "lay_in": 27, "lay_out": 1, "weights": [[0.07062362852751161, -0.006883944791822787, -0.048187010482697426, 0.2857969601428705, 0.21278815603387283, 0.17602720933197527, 0.07672823204336683, -0.13418603745029234, 0.19111165523761492, -0.23216361697711696, 0.25261992439532405, 0.2789511852751874, 0.4199598088740836, 0.24350702287371215, 0.14100658977474997, 0.07357209943714768, -0.40427956405186544, 0.21458674965615576, -0.35139081924495463, 0.6365831945220997, 0.3054301887795122, -0.507433136848864, -0.3513725867774049, 0.297875961358861, -0.11849687663253734, -0.06526809676609382, -0.017232148356335405]], "bias": [0.08226156068056684]}, {"class_name": "NonLinearLayer", "non_linearity": "Tanh"}]}