{"class_name": "SequentialNetwork", "layers": [{"class_name": "LinearLayer", "lay_in": 27, "lay_out": 27, "weights": [[-0.24905848670293904, 0.5234813615527845, -0.47284029188965415, -0.17030586041379725, 0.16103970536288614, 0.4489130262170699, 0.5534396582438197, 0.05410808867762764, 0.29786185143841265, 0.017153942243338417, -0.13039418543405612, -0.6888350079726103, 0.2281049012643918, 0.24194409651549353, 0.2887111725649238, -0.5642822495732803, -0.1855699914879554, -0.32741778075705225, 0.26057196651339903, 0.09537551019064355, -0.13260531083074098, -0.2045406116914169, -0.16655794344855834, -0.03630466807134409, -0.25207218711150925, -0.3448094684260517, 0.39301786117119], [0.10770564064174136, -0.3614191391124671, 0.057244799324748, -0.30265903077056794, 0.18815080562448433, -0.031887344302431245, -0.2710642778137159, -0.16900789208734301, -0.12877072990410007, 0.2882511987893963, 0.08766188484971918, -0.0750564502162515, 0.10929701081751259, 0.3414414032958463, 0.42187939762785376, 0.1640434949226531, 0.03698806867407281, -0.441033590383125, 0.08289503190555284, 0.10169415727120089, 0.5549748465927429, -0.10808974131735531, 0.162334411587555, -0.14557207623973462, -0.3365368900806163, 0.34885139668580595, 0.34271425379966663], [0.3905892415316232, 0.25719470085879953, -0.5453467088898649, 0.5315796518808881, -0.2385150737973551, -0.37361306478351586, 0.6048447441211442, -0.5187009695260418, -0.1727312376141187, 0.0018650516026398987, -0.7299841236516832, -0.05234026103396899, -0.08774121151818702, 0.12458416762877277, 0.3696320058407457, -0.14753509204944715, -0.1365387878343611, -0.21958084546657747, 0.1537012174577891, 0.05503152523274327, 0.09299549237584655, -0.1399978145393625, 0.41057057538926744, -0.049953092881123665, 0.4565475133637561, -0.11193338917089268, -0.009436726823885192], [-0.24579399712023953, -0.045575175348575206, 0.07470125225768999, -0.0261962926813251, -0.01630883915719252, -0.34592916849322053, -0.13562137476147107, -0.42747419861164826, 0.2267729551699543, -0.5737283772979308, -0.5509882627421239, 0.45775772605296355, 0.0990125835506604, -0.09991046888622716, -0.03514027061953398, 0.017062979377177906, -0.5782461881509585, -0.5981588713823988, -0.0393727004919668, -0.44324204632829045, -0.13057875372692374, -0.05414755547634627, -0.13197982866111665, -0.12820101934772507, 0.3417148251779886, -0.4831642209445688, 0.05799411394543986], [-0.2210521642376481, -0.5895549106380322, 0.21812110956504224, -0.03389748178727817, -0.16406518158931577, -0.24648245633537225, -0.06291211529247935, 0.40166288075715395, 0.20372702440854068, 0.43028022046741976, 0.1265768640055395, -0.33915774096158285, 0.2747930362771323, -0.1689151376024049, 0.4823395199486382, -0.20090958353335034, -0.4566607394923842, -0.42964943180108855, 0.23546368389146238, -0.5947219076374922, -0.09692148927238321, 0.2149398538884244, 0.09142191342119932, 0.14995671238681116, -0.010594077364887832, 0.5015283279586361, -0.11866161246051421], [0.26326090716886463, -0.3126031690609211, 0.10834142763332612, 0.12794435046305144, -0.026157784797936703, 0.05687253796343865, 0.18042689185079022, -0.2892840771480305, -0.45559842330751066, -0.30872062186227983, -0.6820410734437955, 0.3784876534809997, 0.09923057494539858, -0.010192257395051016, 0.08312105414118941, -0.019499928694371817, 0.0689161741905579, 0.2867939225564425, -0.026300206739709207, -0.12304303316057803, -0.08898906403802914, -0.1430476265775059, 0.3637992291001931, -0.3924454671374782, -0.06106168219149364, 0.06298106323459607, -0.5586458975890801], [-0.22130197754940015, -0.07175384085605825, -0.23916244858871358, -0.18143985541348398, 0.7099170083804126, -0.21429272835659027, -0.11187255563983235, -0.24714982885527614, 0.5724220968341289, -0.39244151355843704, -0.010301706633645087, -0.037597929234789385, -0.4978177807814559, 0.4768325819627214, 0.13035479561473032, 0.5036949675885877, -0.055441041069369146, -0.03289245478543899, -0.21465522286951574, 0.23831664644969083, 0.3261185208492568, 0.2977967881531818, -0.5188581440501251, -0.14427328564892172, 0.10195291653007936, -0.021447303631632587, 0.06597612274061534], [-0.21052130667608615, 0.3429487159175361, -0.12867133815554657, -0.30799681349102687, 0.09212918899638871, 0.13289326020352712, -0.6498313976346348, -0.02350699334497364, -0.34115861032422706, -0.11889211190158441, -0.15182552068748045, -0.5186316152418826, 0.07184355676658524, -0.3423586813142357, -0.350943784456065, -0.33166665837271125, -0.09709879007152604, -0.1846798065789004, -0.17754247633847917, 0.00861871893967377, -0.15366534788289601, -0.4452089564224073, -0.25533350740347394, 0.33835918909703083, 0.18473238513930973, 0.2572602776443644, 0.08848249613691825], [0.28950840943076805, -0.1451123250321525, -0.28852373358549177, 0.3325563118403455, 0.4457404618400995, -0.12339896951010346, -0.5224637531111754, 0.041996274934878924, -0.4215912036045719, 0.2687106952750141, -0.3645437461084395, 0.18217903898741042, -0.025523414849581837, -0.02737464824230545, 0.20133664976832022, 0.26360658251348473, 0.17698070286217168, -0.3753534264020369, -0.24610013353984164, 0.18900190419812565, -0.33932179445534244, -0.23783850688788577, 0.3114598771269863, -0.36517121322301144, 0.36161958654175835, -0.1849008480211644, 0.31227773932455066], [0.3201039884521837, -0.19032303421076874, -0.06560853314161291, -0.4038994468235947, 0.2855887734647057, 0.008042018872880965, -0.6633359352734193, -0.5819348621881046, 0.05487930376030278, -0.703023973698083, 0.172356246605827, 0.19795016839716348, -0.0517430179451296, -0.14582448162255174, 0.1410890063115979, 0.3028882105471817, 0.3731089607687376, 0.018165233497757744, 0.35966982682291243, 0.38609198754043556, -0.6020026798356553, -0.04143202897147208, -0.20388897701581132, 0.10243742116768345, -0.5930206887887002, 0.28069571357026013, -0.10985971912012577], [-0.038689700810136306, -0.2607915672116817, -0.3618918011872395, 0.22952624740387664, -0.11110588554576174, -0.1601345879457454, 0.09381013303353722, -0.0644767276235186, 0.2808613699497947, -0.08378866652370061, -0.5112993531126173, 0.0163635191620551, -0.07991307377018914, 0.08511951529099934, 0.1494845554344846, 0.08375704324874735, 0.05942023596183569, -0.01281979010397118, -0.5458862614038366, 0.3581223912494591, -0.19319955419605683, 0.3204608462752557, 0.256379897265886, -0.5115337460951553, -0.30211121464563856, -0.0036378767728485854, -0.363428748976883], [0.5277768940499289, 0.13660690762366406, -0.019798519085328287, -0.003529350282931576, 0.21771907686836356, -0.04579453202854997, -0.28387854302086885, -0.2620277584424147, 0.3385911476094443, -0.15001496114667726, -0.21944388662906855, -0.20383685776314348, -0.4878362590941222, -0.00604224958701225, -0.13725205136713567, -0.044012027207894044, -0.8591556884829369, 0.1791337042632859, 0.013107505106585024, 0.273738958321973, -0.6933518589850362, 0.46945126769723683, 0.5423386222937505, 0.3608491486551692, -0.01718162866588137, -0.2227436430525107, 0.09421637711499235], [-0.22430091631991617, -0.25126457271542146, -0.06885215203890266, 0.09945518918194146, -0.6097759501964723, -0.08653974297925084, 0.05614491469223957, -0.6423332511780395, -0.22956182024110744, 0.015922814708746368, -0.25521788972367726, -0.1455636568261526, -0.5381122633118451, 0.36616790534172355, 0.09622252434081276, 0.22657565353636305, 0.24116942204403566, -0.0024642835783879173, 0.04417662933777181, 0.8193604715547818, -0.35518224869362686, 0.505542493701588, -0.3199566785105631, -0.8310919795851399, 0.09563880864100162, -0.04115761156127659, 0.9160938893960053], [-0.07037908205530877, -0.1660592048423746, 0.09230354084328665, -0.021600065535875377, -0.35691651982446787, 0.5450057095041174, 0.2687963625605781, 0.1328236834168811, -0.8285880182445368, -0.6337661529252678, 0.2747363552933684, 0.04915279169789954, 0.2732593566031617, 0.12568365686583702, -0.5305814226643846, 0.3962778942180659, 0.09672963035722724, 0.17021690607783121, -0.23275919218346253, 0.20775094999206334, -0.09271065115600702, -0.4258001073946775, -0.07583863331156525, -0.11159840218770922, 0.31865602174922236, -0.5348809818823376, -0.04716380598846012], [-0.20014106089319067, 0.09366871269660207, -0.08828930686673948, -0.11501503025248551, -0.0043324388048658884, -0.028951300721535175, -0.02781748880163649, -0.09454670962386831, -0.5824454059060775, -0.013625564056888972, -0.1545258286399396, -0.1367990500745782, -0.020263595554156733, 0.486946817052141, -0.5599370449639253, -0.24125852298453396, -0.5500075502712269, 0.18388431572168062, 0.1704188246414699, 0.2860938833870066, -0.0027635762153441178, -0.007856350192883395, -0.1872114737279625, -0.14538042046420532, -0.7906528396380337, 0.08067553927042509, 0.2328234359963685], [0.7499418213209882, -0.26193494198483314, -0.09236346027781836, -0.3489442278330218, 0.14587346903315326, -0.7085156523887464, -0.46050417925186243, 0.09586611131030943, -0.2607942943427953, -0.19494291782118467, -0.3255480730396887, -0.18414558572516998, -0.07345052078834279, 0.14759012351735312, 0.33826410589939737, -0.2979313598484339, -0.21284831564354964, 0.014435213839806081, 0.31277258815041775, -0.39152640789094406, -0.39108314797099397, 0.16352288584734737, -0.31601869463579246, -0.29854335681980965, -0.14325958726534158, -0.12482493078179055, -0.08126856966638975], [-0.2694060185112077, -0.2319823092607497, -0.4800022622403859, 0.07107483891518579, -0.3117615219026511, -0.32479961252030337, -0.31401798971125866, -0.37432288264569397, 0.05031830094513832, -0.30217623485727435, -0.3316346983311244, -0.6172051951388269, 0.3638674616684465, -0.04706302108519771, 0.1762773118063758, 0.5051438812249053, 0.21651517473353707, -0.3034733792166797, -0.19041005680363673, -0.24656300738478212, 0.38868917232670247, -0.3550600220018103, -0.03711463949426446, -0.13633763670057186, -0.16870012669300008, -0.6676993864325255, 0.39197687643723833], [0.4298207175875192, -0.03776079469030716, 0.4267604804797833, 0.1299372984375443, -0.605567727996953, 0.45162195542613925, -0.17200817613601047, 0.7056319035590255, -0.1267707851336794, -0.14120592756645708, 0.19396612236368682, 0.24210816348855393, 0.18721477883733595, -0.34227799044482377, 0.03953189623587885, -0.10115567372797157, 0.522155645531496, 0.6422407413021024, 0.14358924809447896, -0.37416004594706653, 0.19232602681371072, -0.025694916883959362, -0.5209062326720273, 0.23744542415348738, -0.019642576145153405, 0.45485096203733877, 0.746468457615024], [-0.33769475640362506, -0.1632411746368125, 0.7092360378737468, 0.048495196391871415, 0.16950180771775497, 0.07049488036151184, 0.014751474733831184, -0.2041358377681866, 0.4354879268675682, -0.35821039888399225, -0.07768893557581619, 0.0028889566062417146, 0.31698195723894945, -0.3752471074582684, 0.23422763963562304, -0.13606461378047538, -0.17381271117507896, 0.04425068709920042, -0.8726172357976062, -0.28467655804800585, 0.09926014401984322, -0.02098220629751043, 0.45886231141521433, -0.21487356088139756, -0.29757948226277636, 0.18376636057492526, -0.08059480178537856], [-0.11329625617902322, -0.4795408116544707, 0.1807763376589195, -0.16224167004956352, -0.08534944670470548, 0.09686826404347476, -0.353914366736949, 0.46099483425412424, -0.08225343939925264, 0.7152611201718475, 0.2914881153681007, -0.29507541919951785, -0.5391958012143911, 0.1398942888973163, 0.7498638988816473, -0.046387751905062634, -0.5790417633944579, 0.04221031465039901, 0.5424368041958714, -0.09692590712538376, -0.2596346368479819, -0.5630313824929053, 0.20027550587506052, 0.1542540346705958, -0.03848159577191165, -0.5107097331905451, 0.24391859571259364], [-0.1684172639206746, 0.05096566263281288, -0.0074180595048364065, -0.390508977610165, 0.17726258747090326, 0.20774482444040468, -0.3593920198881529, -0.3962955169617239, 0.1772128016429622, -0.7900729252939968, -0.3250344130887541, 0.11001247899976588, -0.2999285850164104, -0.8693081724276639, 0.08587253437303044, 0.3736638880437088, -0.19737893250998517, 0.23961536749063683, -0.09800622136407447, 0.01002531296875366, 0.5387813725548616, 0.33856012583674927, 0.0009627262507153578, -0.1505268024550719, -0.310405780994101, 0.4514943606261196, -0.1058542612632108], [0.30442553961497704, -0.20367576245562105, 0.47246005739065966, -0.0739240536046471, -0.04933416254135365, -0.3693469867885802, 0.1705304172273788, 0.5370821392053078, 0.46987237593934816, -0.17290243769113964, -0.2699724753245139, 0.047832083154464, -0.07208893409375378, 0.26818807037764886, 0.058962356704777556, 0.08013258826278905, 0.22093991044584418, 0.28905623852719253, 0.27066751379854914, -0.48334083997771, -0.4237438017814908, -0.01594995045030674, -0.19926411767132649, -0.3861707235688041, -0.11842074812471678, -0.1919684390578556, 0.26581379030469077], [0.38298328996750874, 0.041640605954456206, -0.7538104528309256, -0.45389244937321716, 0.03187855212499749, 0.11516116117885092, 0.06910118088839333, -0.06061533284424365, -0.07194902833403033, -0.5757834986574816, -0.04782913131459809, 0.2003851984425354, -0.3146377144527503, -0.03859635630136958, -0.7653871182288792, 0.20511641879014286, -0.018203089256804476, 0.3213235610583206, 0.30401965870502595, -0.2620919758826732, 0.3873771497080595, 0.19748327334356247, -0.7860543015659169, 0.7153308782285493, 0.2949686276628854, -0.5469893605855602, -0.5236453455557372], [0.6463442481895914, 0.0020390216623190627, -0.2721682295472672, -0.020497467037939233, -0.3310215103416919, -0.018453873502589015, 0.19387447228817023, -0.17803959168956543, -0.0918144417578809, -0.10091454133290233, 0.5494204021577721, 0.4348143460763741, 0.06330173472281958, -0.4979929041366048, -0.11154400409280953, -0.04226485791711976, -0.14899958574301378, -0.56809375619435, -0.5039438329232474, -0.3365622458210798, 0.5822197808950621, 0.021852172603271897, 0.20736118140301626, -0.019418573670346044, 0.010556951476212051, -0.1610952904695661, 0.24348270083595663], [0.1128899637175727, 0.08044703493772284, -0.012577791441925067, 0.057519341253535736, -0.07436085669137116, 0.3045612976332785, 0.28315091016115296, 0.17784276399634374, -0.2645221058858004, 0.23758331887556258, 0.22959536171122275, 0.4437464842388864, 0.1870409960271472, 0.6936065975553858, 0.3851995724243596, 0.2891762211758993, 0.4154147362171291, 0.3374083788079316, 0.033279827006329483, -0.10204840406683431, 0.1319987480208101, -0.28255927206378606, -0.24231552926446404, 0.4228311230223388, -0.34538666132846013, 0.0981146009507202, -0.11752804861065193], [-0.2547176097345884, 0.5692148118933099, 0.0035366840892443446, 0.1500365666890922, 0.010826838674415048, 0.11989985327699404, 0.2935183849153847, -0.3976897789634951, -0.10787091355583774, 0.3114216076299367, 0.2112643084360565, -0.047855063622581996, -0.1955562384536598, -0.052216044450421016, -0.05787363330781264, -0.8092464414386803, -0.057707093264784556, 0.5808207623444286, -0.1540123970419265, 0.5651449023479059, -0.1285702102931836, -0.1048568930956469, -0.13200724109272333, 0.3330831766824279, -0.12354419080376823, -0.03901329601165241, -0.29801779953249413], [0.20087466988252978, 0.2722401401815507, -0.04374077566500019, 0.17910943601601648, -0.36701297186509596, -0.1203416565204382, 0.47270709814636874, 0.4041425856931292, -0.36240000868026034, -0.17278696701044688, 0.19882476103990843, -0.476991715431893, -0.1502764396575226, -0.35568405142557313, 0.18608672130218523, 0.5632984586957582, -0.5184950656055449, -0.1090968799444956, 0.001815895746652862, 0.42335121683368887, 0.7266341502231761, 0.8232275877286552, 0.1768507752298009, -0.19521675491476184, 0.08726260978602683, 0.018995128773204712, 0.7206064426952442]], "bias": [0.04635987928740646, 0.08398489914490909, -0.08835100794850351, 0.00031616794380115996, -0.04545997880601205, -0.1507810639241433, 0.016072074922900376, -0.05617086424770272, 0.13506859879766397, 0.05671871558435656, -0.04678414710278085, -0.0531866549097971, -0.1319076683040362, -0.04935994006224179, -0.10419393988130791, -0.09769947390124499, -0.1053131780962846, 0.1901944201524227, 0.14848436517688793, 0.021059390488570015, 0.034299202397057, 0.09594056947128363, -0.07349788480057501, -0.07834141544539261, 0.20123805031275344, 0.09037103650177246, 0.052765732837119265]}, {"class_name": "NonLinearLayer", "non_linearity": "Tanh"}, {"class_name": "LinearLayer", "lay_in": 27, "lay_out": 27, "weights": [[-0.14739217305509478, 0.17808547581358666, 0.0939583402852232, 0.040141856278669015, -0.5226158856199036, -0.45741610435069624, 0.4420232100950378, -0.1007112224384068, -0.36682746362831353, -0.011703971778461367, 0.026822644955817068, -0.5371053430458452, 0.1421501106624478, 0.0179616292220089, 0.1537401899886324, 0.007952526335916131, 0.0636373004723426, 0.02126168840556663, -0.059643207649813894, 0.19195862004055125, -0.7366885682014302, -0.28276652443341205, -0.20464340529073788, -0.2787026785854384, 0.3309641347327004, 0.36333987851646365, 0.0709082392715211], [-0.29297742041384756, -0.35816237477881246, -0.12352193232081991, 0.2161474273630161, 0.45610252043322985, 0.16292006943085682, -0.08028674992717857, 0.6944594374365749, -0.3916688554435215, -0.43033159200531845, -0.11208315976635955, -0.4336562842008241, 0.24124974830056636, -0.09992614120336026, -0.21883184666278777, -0.751847410263396, -0.05793106913193293, 0.014258287691192443, 0.2017001138000667, 0.3090597316487289, 0.22353063882170576, -0.015774055717086295, -0.0011315142292162856, 0.11519181338780343, 0.11818129001939774, 0.08989929007650627, -0.09543184985976928], [-0.11136376167580397, -0.15110579274347954, 0.2762393875443119, 0.11272577606420432, -0.2596958632096055, -0.2855944409617691, 0.02965786235466739, 0.025433540888306634, 0.1785239535858082, 0.31843982335764853, -0.06973792965512454, -0.0859215634730432, 0.03923487083517942, -0.5248870607956827, -0.10435190879132034, 0.31015051949206973, 0.6024552446478062, 0.04430607789434663, 0.22791256148492206, 0.39888825902205727, -0.022982691630384255, -0.3947165132497397, -0.2380799960684212, 0.25154573302471117, 0.14154725993811554, 0.22131782534436567, 0.3462781674123204], [-0.05300868752994114, 0.5768900728156324, 0.3885159655064238, 0.2505508246466231, -0.31107970103447774, -0.19366282541119154, 0.3406436247930345, -0.2740713469901267, 0.7059199973936974, 0.11274249620718065, 0.42670528585090234, 0.14496672565368554, -0.04301707253421989, 0.060036475673688874, -0.5306926743299267, -0.8173957620658208, -0.25544860772694195, -0.05361061989252234, 0.12517945586678053, -0.27657822376557684, -0.2506557081911187, 0.08772805326972549, 0.0258208150907202, -0.04968824574557855, 0.006191169840551682, 0.09289155546108248, -0.49655840957764863], [-0.17684324326886527, 0.09628884693137399, 0.2614590360644582, 0.3173723286352548, -0.10227408771298217, 0.5226136205004763, -0.2882838226168737, 0.08345216795819543, 0.08469116257690368, -0.06502421659589117, 0.08320485891448459, -0.3886787970798053, -0.10745348285904681, -0.23493536836227913, -0.29132073178865614, -0.5349260310652391, -0.15461586055290788, 0.025988917250008226, -0.2922487833947669, -0.5747381648923812, -0.09302708698995528, 0.15571206936033974, 0.4338217290876423, -0.38269444331193336, 0.0909538582040502, 0.5608268965966825, -0.4599928343491672], [0.058237337092086595, 0.10378951262054076, -0.05176647263461566, 0.2319856127942672, -0.3401765078320311, 0.09548713429843879, 0.04032606027450258, -0.41828829301424153, 0.21802178847653778, -0.2381526773975127, -0.04465108518392605, 0.14758352931470567, -0.8318732244074197, -0.4628221330722231, 0.4496733577348966, -0.10057877358252193, -0.017270360579612815, -0.07391042277058234, 0.17449300026724962, 0.16171910554432192, 0.45775046366512767, 0.12607088673970118, -0.5542101690663072, -0.6757323285715967, -0.17479251936407325, -0.16512776604719576, -0.25266111169304806], [-0.1998474086093098, -0.050513504804595856, -0.05594859087684194, 0.34413541804202286, 0.38983031554903336, -0.36902736390263696, 0.2587335687024018, 0.19343052490131202, 0.039798549116432456, 0.10494097650313663, 0.5180387179659007, 0.42186669100466717, 0.0759728405801832, -0.09197097595774396, 0.11827473643269287, -0.199459470893259, -0.19614063209449836, 0.20175887702196557, 0.3450599651395099, 0.25516183080611965, 0.010065170098151272, 0.11562903271586084, 0.4903176517671861, -0.1129294666134567, -0.1164175558547582, 0.08330442927367764, -0.551613946341721], [0.3958654422106118, 0.4747005595844491, -0.16788830605041294, -0.45444840231460876, -0.11438467077373018, -0.17980342395959706, 0.08925179431416026, 0.32966193657819903, -0.34321067287152646, 0.2202154956157324, -0.007786843313343005, 0.2085291066136143, -0.040500040457515867, 0.1476862384784401, -0.7316039502522615, 0.7821331867923805, -0.36621740835226646, -0.23458118002866685, 0.013764364367498646, -0.0795839601575542, 0.049398201220437435, 0.23158212220755492, -0.005859614641068746, -0.41443139498367504, -0.12452708016559061, 0.9602265586822932, -0.7366056941138237], [0.5249900580913025, 0.19721487227820317, -0.05485517885225143, -0.0728142245829093, 0.29920387646626917, 0.08776703273168732, -0.0005798739491950776, 0.09986051449765776, -0.4144285015750539, 0.2895771976549779, -0.3352460163230943, -0.4520077791870537, -0.06642298753059267, -0.04988243201733106, 0.3528211149334544, -0.08057669680241276, 0.19075791567640074, 0.47884207613931296, 0.5446562488223677, -0.2590675253275832, 0.22376117396533263, 0.28181205943795584, -0.008244263592037376, -0.40704960037402693, -0.23383266397931113, 0.061997219869339246, -0.2961949722616788], [0.0030338473646632433, -0.30110162828946674, -0.48570155063194587, 0.39073751380796595, 0.5803670832887111, -0.12698107760207528, -0.355602633895646, -0.1433941081044125, 0.18542424096982696, 0.45769983035908257, -0.26385838507134785, -0.1539969868537322, 0.038972775439826565, -0.23712657641326315, -0.3083941055083635, 0.3816736103885638, 0.054237753299639126, -0.4031064500591501, 0.4909858660115126, -0.013890983438232913, -0.8793651842279973, 0.5993948106137468, 0.052504852922728294, -0.48991172181708065, 0.5324766947041514, 0.24353859981067094, -0.3527552156608182], [0.10008589232086652, 0.026055775439501164, -0.21786700633969017, 0.0610012665918184, -0.054670516155202874, 0.10706583936698148, -0.18475077827707553, 0.6441930683674499, 0.07312127651305214, 0.07641614084366134, -0.1256033649579675, 0.36276319140532143, 0.02924706411359689, 0.25277159009451894, 0.4206370432976981, 0.07539471221789275, 0.5209488764335776, 0.11979005487271925, 0.20404397125523638, -0.08134508900692838, -0.24663688830628763, 0.09478757110772668, 0.1522919370628563, 0.2330967189444694, -0.1300173763457709, -0.036404328241144104, -0.09358830832157737], [0.1265061646438433, 0.1016627010172399, 0.18795077955978678, -0.21799242941194222, -0.2914169949669627, 0.3863776997323341, 0.10800288674947374, -0.1384064575744295, -0.27961183546017, 0.013843162147627904, 0.3681764733789258, 0.07136288468730118, 0.16905256187742873, 0.14071210037146395, 0.025921939047917664, 0.30372067248105317, 0.3016564188836488, 0.00224738715252514, 0.4009382013933708, -0.1482503747797026, 0.050008067884799494, 0.11226328722671713, -0.03536481972092232, -0.0852872148182608, -0.29233918212857274, 0.10480593611851195, 0.09657150879606853], [0.3912486269195925, 0.06906819899976045, -0.10353369692932579, 0.05691840552303657, -0.9091661104253909, -0.22774295799806224, -0.36256595511954604, -0.39519292965786895, 0.08824353505951966, -0.37314432899102284, -0.4388005157947214, 0.08910326499082698, -0.39841729934254266, 0.44110566900963216, -0.08824597016946187, -0.07125863147278813, -0.26127424357174905, -0.5616388812057012, -0.24326094062626885, 0.3612637813293708, -0.5470119624535704, -0.1498182681183021, -0.09023153896958569, -0.06298165411310952, 0.13803347615951228, -0.22472065410396289, -0.04552371906580628], [-0.14657033833871436, -0.2697454755028865, -0.2666138839068334, -0.4425632394520215, 0.13168372594054148, -0.483873635796667, 0.2097256177828341, 0.49403701823188995, 0.14190330962118108, -0.5265334741319666, -0.06524497324315875, 0.48452251271115143, 0.3598101633697598, 0.21587743710521187, 0.21426364690955418, -0.2020744967117198, -0.29878405653999845, -0.08549739711479602, 0.3093677750551606, -0.025276685370735096, -0.6467068214768537, 0.2162187815661242, -0.45708033756575317, -0.03777576335156259, 0.21387832477450694, -0.24999282892235472, 0.49824317487614117], [-0.0772882721338456, 0.43139852063553125, 0.22819197940247304, -0.11176716498828182, 0.28523604339840297, -0.3482370976253375, 0.2387747703620248, -0.26208257182694833, 0.519898287208108, 0.5146489656165042, 0.05147125440472901, -0.20463334937676644, 0.19073523768839157, 0.537444821941729, -0.26563397259993643, 0.052943898383141744, 0.11623062927252432, -0.11923424257713101, 0.39037616116554763, 0.5777823481356824, -0.023170433158567455, 0.9076283903957286, -0.713632991822203, -0.1022992730019549, 0.0976887152676373, -0.009240961887021629, 0.026065383774241568], [0.5762303151874923, -0.1461033238947864, 0.36527030881139616, 0.2390898219985415, -0.11538728868716908, -0.2144591044882877, -0.07539032146087978, 0.41440989297150405, 0.5928450174213963, -0.0903162386297258, 0.1120423234213966, 0.17154552617944213, -0.21095466683618413, -0.4562565240677141, -0.4522598210652901, 0.38948974305305806, -0.46129364827057945, -0.017805296401492778, -0.06355418270937462, 0.448879414080246, 0.4257751976277516, -0.4057155895975894, -0.3904200333398168, -0.4413855552193091, 0.014798095034759592, 0.2841388763487002, -0.1564574761753712], [-0.2874017801897887, -0.18388188003198103, -0.10670476018258036, -0.18717499613033248, 0.20765751184877224, -0.08238339927716662, -0.011573639784195554, 0.5106289893182532, 0.27303877888956546, -0.19170388255232607, 0.3964510488272553, 0.13692131697322388, -0.3225351491294119, 0.08183817189546908, 0.1307422762566211, 0.2784699020614299, 0.2577873869945033, -0.25886717383260516, 0.13454275456620987, 0.002521380612282709, 0.2848533015503778, 0.012606661880330734, -0.23487367062962156, 0.38166752264209847, 0.040790716884609196, -0.1201459330870904, 0.30165826572617294], [-0.18621244560183534, -0.33792536081712815, -0.5731225826523249, -0.13153231181613922, 0.11878851186424016, 0.2350485956763232, -0.06293634341299788, -0.33255841984258877, -0.42377945167225745, -0.26904260534130464, -0.37803192850398903, -0.08753665862840052, -0.4825750587768172, -0.8825083672356115, 0.14258070702300651, 0.4907216578659693, -0.03322915371440103, 0.1311089717615052, 0.12609780685020813, -0.14131894766560932, 0.2849555445537411, -0.3431361265963482, -0.25109575784563376, 0.052070137046712844, 0.4040907994836496, -0.5195557616807822, 0.46856344479225037], [-0.17423626329287345, -0.11885394921480144, 0.18952818748477607, -0.5712537588126665, -0.04080606102415887, 0.18319864389158483, -0.730152317036657, -0.271255681524731, -0.2461922653237596, -0.05299373142172237, 0.22606740074732135, 0.04964806527571824, 0.34745883694346363, 0.6605774885709828, 0.299609751487374, -0.08347685869205593, -0.21392188384039645, -0.5289488086406356, 0.014039741037696847, 0.17472910693398103, -0.4936275752261495, -0.2983324328728899, 0.3756536247231567, -0.45746902599946115, -0.22978146889818615, 0.012473607864201795, -0.17351603264907658], [0.2911283254617242, 0.18508415423172336, -0.27840358337436877, -0.5407320150679612, -0.33168588049996195, -0.27820546465697105, 0.015169230141507508, -0.6386868408699107, -0.04614797451147191, 0.3268701221970868, 0.21451554348738833, 0.22937613129226667, -0.3075407931235151, 0.417560650155333, -0.1884291389397239, -0.01009942942544321, -0.04482740313644445, -0.045300825920681555, 0.0387860894860833, -0.04425767040967243, -0.37098739658395463, 0.20140185718540018, -0.09946705015968228, -0.19060774599314873, 0.19987738633673932, 0.14557915816087202, 0.05829333236283703], [0.01522227433924722, 0.45195845785078453, -0.10071987587725552, 0.05487967468884091, -0.29918635598491544, -0.14809956008701025, -0.20621549688057553, -0.28263580647864706, -0.06978606475075524, -0.07421967465302111, 0.07630022767560114, -0.5601819113696757, -0.234697221586865, -0.47814230507850913, -0.6624367515526873, 0.30605952336563547, -0.18792478309476002, -0.08999123892645565, 0.3063097260838952, -0.21035958189918694, -0.09185844437161488, -0.27161950993281925, -0.25716777390144796, -0.5657930220221196, 0.2308056545909949, -0.31142715231900325, 0.663645713273118], [0.20291139803102973, -0.15171749378057828, -0.17769455600390271, 0.602928687857124, -0.03342313881301312, -0.04430064339339438, -0.14605119118770232, -0.07833147408501645, -0.2789918519930214, -0.039789261179586415, 0.46906830563972485, -0.22990811021570026, 0.3394798177726527, 0.1570182589619049, 0.3108081766840159, 0.5448294005530634, 0.3934236538356322, -0.2771627090031642, 0.28864009016072384, -0.17744080232895573, 0.09456143595408698, -0.27376566381176065, -0.7020606225006187, -0.49139531840179906, -0.14516248975043344, -0.5255831857376162, -0.3352379034682331], [-0.26411783993643817, -0.17818282574737468, -0.04993089127182257, -0.48130331961067385, -0.3958985778606761, -0.1615057090300725, -0.4464648363184853, 0.10174999380695897, -0.22485951146592525, 0.036722113716147066, 0.28466894647833446, -0.133596652682338, -0.14951080392892763, 0.026329056180284124, 0.25975521920932804, -0.1016448140755126, -0.30327058005123236, -0.07305381634244978, -0.11170926525538304, 0.04012405595510843, -0.015490279563429939, -0.21717151877103918, 0.07014727788927344, 0.08334326633787799, -0.016132360204069256, 0.5919897604811124, 0.05280029952766216], [-0.1845036893936095, 0.2524958417504078, -0.1733316771457234, 0.4331832037997225, -0.31432602379360425, 0.1354392849731801, -0.25649796167440014, 0.29306856400553805, -0.40307781013483057, 0.3396017391919728, 0.31758312014958673, 0.36463024516090187, -0.30787831595196813, -0.4215378531966749, 0.09777457373453213, -0.047846982359320576, -0.18827604638426382, 0.40099863364732385, 0.42180833219411024, -0.05096514934094171, 0.26428489540184963, 0.34587100730711307, -0.4639563222741933, -0.3764821802284827, -0.16784261852379156, 0.5646241912242804, 0.36994861337524176], [-0.286688359197387, 0.44924554075369155, 0.4056675353613294, -0.19383689106285745, 0.13499845884501213, 0.2022390180081675, -0.06625446525479745, 0.2653030778467888, -0.038459829488294274, 0.4816921274547515, 0.21900396905503328, -0.6604689194459292, 0.04345560420199798, 0.15509610066230417, 0.2739508799204472, 0.3465216603041487, 0.1784184300306644, 0.18802087236422688, -0.38746666215124653, 0.5971914105134449, -0.38898683476262347, 0.2661912584209027, 0.6239126244128909, -0.29447327293535414, -0.060356511593830216, -0.15197692213656225, 0.18723452438619315], [0.40200502895312895, 0.32186523907988773, -0.08956475195557975, 0.04439761525376773, -0.6824482932719151, -0.308992232863671, 0.15642050615133155, 0.09002814463083683, -0.532793199605504, 0.5527300505144294, -0.3738268502855985, -0.020570507290874816, -0.1301898275406515, -0.0177939027516279, 0.21291605334194258, -0.16375954426748301, 0.04206870718280176, 0.5408764055435861, 0.1348627970560524, -0.11156328883350637, 0.23195134429180078, 0.4425419836073128, 0.11194993513283971, -0.3617416408227839, 0.1246199890386598, -0.048843950968684345, -0.04002046319032242], [-0.15869808937137433, -0.27114423710564634, 0.13976194325220156, -0.2230850284060904, -0.6380326786738224, 0.4260344745382421, 0.05836580537666164, -0.05460467351806725, -1.092753615806576, 0.08230749845728594, -0.061779950404962876, -0.41356372495409055, 0.4556040334241353, 0.2734237596535935, 0.02053416425009998, 0.0023234066435149324, -0.07105896935062748, 0.14087727317420484, 0.31434307535186323, 0.2905404154772783, 0.02459554881066702, -0.33455269061467413, 0.2359781750294642, 0.3257750026143433, -0.19422221884453664, -0.4089808735004438, 0.027074245828376902]], "bias": [0.07291855762136257, 0.008330009476737081, -0.08004923529539469, 0.08945712328398132, 0.10128437021362445, 0.058171636715640684, -0.013857546741420953, 0.003302113056695589, 0.0714203802804492, -0.035969702609543824, 0.030359252553346195, 0.03289682371904476, 0.062013651777777706, 0.1327306287370177, 0.09369415615324278, 0.02627142614603673, -0.0992060529188289, 0.0681217690068603, -0.07180614422678774, 0.0856127704420012, 0.043269762175132134, -0.10657833019354501, 0.002189955718526019, 0.10862275488883306, -0.12250335799659466, -0.038185072859923, -0.01870821423968598]}, {"class_name": "NonLinearLayer", "non_linearity": "Tanh"}, {"class_name": "LinearLayer", "lay_in": 27, "lay_out": 1, "weights": [[0.08381758356568121, 0.024838793894733917, -0.04293644297185249, 0.2619211798165482, 0.19209479499925033, 0.12108597868796535, 0.12969701096708564, -0.17722699242534795, 0.19825264987757366, -0.2136770219990033, 0.29966563704917926, 0.3163414115210216, 0.3959062185420894, 0.2612237647592999, 0.149471143455651, 0.050359397013455494, -0.40158566700709575, 0.10756804576433142, -0.37995517905789444, 0.632808168769439, 0.2875285856279706, -0.5053607840050836, -0.39073132239245373, 0.26101200177027617, -0.07321696574325089, -0.0875997641211761, -0.00617537561206694]], "bias": [0.04329794048281934]}, {"class_name": "NonLinearLayer", "non_linearity": "Tanh"}]}