{"class_name": "SequentialNetwork", "layers": [{"class_name": "LinearLayer", "lay_in": 27, "lay_out": 27, "weights": [[-0.2865808759878127, 0.71935521025169, -0.3956230314352715, -0.19960550530891916, 0.29676763883179547, 0.35122000473261433, 0.692832672356469, -0.19877090394026098, 0.5060059134660333, -0.23283080731850112, -0.0795699372990184, -0.426562895347443, 0.1524623733611399, 0.07627138205150949, 0.1114253650601808, -0.40395716611560256, -0.22105029459975217, -0.026689683902483656, -0.037455978663269066, 0.18099844765473325, -0.41125177095247195, -0.14248248058731364, -0.30729731400990146, 0.1393328631708426, -0.1376070836198821, -0.8737435694209873, 0.4746257628411779], [0.2777656033761347, -0.15038276022020886, 0.2159778345602742, -0.27670689556405714, 0.11581580476451882, -0.18454775363767925, -0.4231558959849663, -0.5949581644339039, 0.017042696481868493, 0.22326345957793095, 0.26813236572908017, -0.11923190500936781, 0.005676523576428208, 0.41159364764587913, 0.3882018198683902, -0.07650183219356235, -0.10695628451280047, -0.3756562644748862, 0.13063453797297755, 0.18361440530794104, 0.7010708774898756, -0.39660154149856286, 0.057812946651213976, -0.14201482459366319, -0.46695392957804377, 0.1383699030103422, 0.3334916913716079], [0.6425292398621288, 0.7096318531432116, -0.45336759647811126, -0.04066151873642507, -0.3050430726815962, -0.12786709840531033, 0.7276379130135548, -1.0689586774941344, -0.05631383010987092, 0.09987274008714757, -0.4821674943406993, -0.01177838930322978, 0.028267006058978764, 0.0013140568172690498, 0.5507138652690894, 0.040081247933811834, -0.2304071652194489, 0.2545498457130167, 0.07993882834606783, 0.4588216541143494, -0.14443835998916926, -0.4240407633289153, 0.5668476004922205, 0.05289482197612397, 0.6350146791559663, -0.5010433490807139, 0.3311486437899985], [-0.4595691932558218, 0.03826989470724908, 0.1349919138355094, -0.3641833285505058, 0.03906945797209393, -0.4727767433424761, 0.3924664817888843, -0.8372795681230457, 0.5533725451717082, -0.09601732662733112, 0.06376954211509982, 0.31780731081886454, 0.1267537146946691, -0.11471152350560634, -0.12956798019163215, -0.03978487404210527, -0.3120975034032882, -0.02620385953544695, -0.5316444145876147, -0.3962863968703571, 0.10905049665311094, -0.11020208278134803, -0.22345454281120503, -0.020058000024112496, 0.49245155565621207, -0.6449177515497294, 0.40755139352229175], [0.02078535711197901, -0.8240523950462428, 0.29401719855620617, -0.2739797173080889, -0.4143424358763764, -0.4206247892621388, -0.041057163386046765, 0.6096757538001729, -0.040916128520561916, 0.24031663429965447, 0.14989243540933117, -0.23397367576501832, 0.17576082748469038, -0.002714108435602961, 0.3911791868926649, -0.05534024276640473, -0.21427589193244023, -0.2960023363066542, 0.2439970465579195, -0.8252353350137724, -0.06812199403728739, 0.3480806395422298, 0.14059587279971436, 0.0692913363937076, 0.00046690715638968665, 1.0571587323639269, -0.09825836655175536], [0.7182087775653712, -0.07089134372767458, 0.3943138499530859, 0.0020553052278856417, 0.7948310300291146, 0.10671791848509775, -0.02619800072903631, -0.5677216895259232, -0.687062019101188, 0.07882556318184586, -0.3220171045372649, 0.36477641213693396, 0.19166785326325841, -0.01079230314266879, 0.15530274497003133, 0.15014159482250472, 0.3035554974455198, 0.5391513994128722, 0.4084891025624498, -0.3426493169444222, -0.15027319838464806, 0.09743366782283247, 0.677036884231864, -0.3433987552418472, -0.08045345334833508, -0.30272711752641407, -1.1562665107183305], [-0.21151253008655, -0.11537013303979976, -0.36068631800410594, -0.44437216065832236, 0.893558766765896, -0.26080058185040783, -0.08866051322266814, -0.5056287528475715, 0.6430228401343739, -0.19047364871879416, 0.008396486141965776, -0.1122551737944081, -0.2865778195594803, 0.36646049143537957, 0.11245490694073051, 0.09881800871089526, -0.005788250106764302, -0.11871095890719598, -0.6961864297346256, -0.08479748138114906, 0.04493318940391883, 0.3128668430799318, -0.10257682761966071, -0.34917952562515203, 0.0940564327308941, -0.03177194915317836, 0.4124132510484116], [-0.1465242725029148, 0.4187788862854677, -0.11151772490268196, -0.39280679044822153, 0.08663216862609172, 0.3810238973328166, -0.7179242151703124, 0.23963719194696897, -0.4489470603725527, -0.0625643893034341, -0.0059737093314302814, -0.4737941663719882, 0.06265004692110508, -0.16555928927397529, -0.10241907033840322, -0.20627254082908705, 0.08165807518759913, -0.029037066897017648, -0.06588974009409806, -0.015575947880790619, -0.026493519201178532, -0.8789167246193299, 0.07661268690935953, 0.4891762913057169, 0.06023371619335002, 0.616525715883568, 0.20553861685328007], [0.556568093596724, -0.13465643333915614, -0.5111851125634282, -0.046780745655634844, 0.6713929083513642, -0.252145078267405, -0.4231351843836607, 0.01683229968046568, -0.42669610150803167, 0.10045425291901357, -0.22515456600960237, 0.07135689805724406, -0.05997578774515703, 0.059992443120407295, 0.17689310992172272, 0.1295761270340605, 0.20555474722075207, -0.4466407156561799, -0.5470852312171299, -0.1394590834899226, -0.46975749847383297, -0.29865543740958256, 0.07664128120089993, -0.400150782645897, 0.7263291393750051, -0.36380130740679906, 1.257891347623027], [0.18266141731119756, 0.27580583889794297, 0.17646858248775446, -0.6536697647244688, 0.3423429261407748, 0.1103196413999101, -1.2195344221342794, -0.74369596342287, -0.04900457714577701, -0.6391128086657009, -0.010591271806833098, -0.10576795750667549, 0.05929512565177628, -0.05558177127708131, 0.27545783475133434, 0.43580583785810817, 0.42281340804795975, 0.015573595261134436, 0.5216518975360354, 0.1724236352427575, -0.2363874984068115, 0.38580328841059264, -0.281152108844073, 0.11468748130754414, -0.6655377392401534, 0.639867570482431, -0.63866324205732], [-0.15898610338082317, 0.09456625490328788, -0.6204828842591071, 0.3463530118799346, 0.13883451181084513, -0.09078365348350374, -0.2133709083003872, -0.4294925184143437, 0.3917856966899144, 0.04761203129951516, -0.3466143079753696, 0.03802645745851082, -0.058854506470298426, 0.11052569051710706, 0.1930951496118256, -0.11252404289860618, 0.08795562061239288, -0.16400947791477774, -1.1941125533070838, 0.6175528884192094, -0.09650741481233514, 0.4500798267924741, 0.42451581667299276, -0.46855544576361724, -0.3258257939644704, 0.06350582623042818, -0.27915362285945095], [0.7093352103757643, 0.24267912089433885, -0.00784465299848732, -0.05341332324725774, 0.2553446576938318, 0.2953323264520525, -0.33397959290437745, -0.7149171286857117, 0.22951004203992834, -0.22976625399539272, -0.16756692736800058, -0.4749275743917898, -0.47485151375497986, -0.034126697063045976, -0.15099225919804368, -0.27215318397721955, -0.6764200158797915, -0.05592975879282603, -0.10658156476770145, -0.09219365712417465, -0.6544246904268735, 0.19569862468863913, 0.591168324285565, 0.37028982509026104, -0.11231862707266388, -0.1536703930081397, 0.13883080368862846], [-0.4934458734224355, -0.012654511747402156, 0.04552779612838365, 0.3683877647278809, -0.904432583737909, -0.05721292875960696, 0.039132058059464014, -0.9207960411377175, -0.09751715481312222, 0.2777679994295537, -0.059662764187921276, -0.086835822821862, -0.2995034049393254, 0.3972861668263676, 0.1189652413753849, -0.044324432014813536, 0.12182506649050602, 0.13554480720964718, 0.07908409772095634, 1.0199789967419874, -0.3284881995939575, 0.6019058863876295, -0.42079541954711236, -0.8185787922774933, 0.37137223152039467, 0.04237707689814525, 0.9926257402072513], [0.020332388663839667, 0.04201975171010112, 0.055798532698169735, 0.10780696427109343, -0.6314910302844504, 0.4453855164984296, 0.347571498513094, 0.049566885068321034, -0.6748387482052925, -0.9346999645702105, 0.2706965163366087, 0.19466863646389193, 0.1989879258242959, 0.07193105606608151, -0.24189868317516686, 0.03263479539021542, -0.2117974081532547, 0.35430031557028613, -0.07037788515136284, 0.5275724043390778, -0.14206264182311862, -0.5089047861282847, -0.20290243737853417, -0.07260309527560223, 0.4478720995942518, -0.433138421171211, -0.024837997169992927], [-0.21510202574716766, -0.05693554022649607, 0.1291605889804329, -0.10075130840046068, 0.38689126280617553, 0.29684538722064513, -0.08463261233922101, -0.4013831375044393, -1.0516604238263254, 0.04250534288120926, -0.2838341896033712, -0.30845463684736507, 0.028499026278110406, 0.38958844666174475, -0.0766462162621665, -0.2851887486071786, -0.23811867872565842, 0.3594250654203346, 0.09363653629007035, 0.3123979322449595, 0.2788348730948114, -0.26490704469985504, 0.14620348001710323, 0.01468391118183914, -1.0699072924476327, 0.4066970800348811, -0.00992670431267893], [0.5941696240201291, -0.00505536711146963, 0.3604884553035343, 0.1370961837636582, 0.015975894692243843, -1.4779173513145198, -0.6255316181739843, 0.11811442277776044, -0.218230625273485, -0.12897837268889326, -0.18887585013081212, -0.01959259148545064, -0.07466314675916888, 0.20070474562278204, 0.22445625116990905, -0.0718974349398192, -0.04401603461046551, 0.12294054975654602, 0.794949058433622, -0.5569415324681023, 0.061024982042504394, 0.5616302337202382, -0.49190350234957503, -0.7750684536263505, -0.0786832276756656, -0.31199454104039975, -0.14093933544377474], [-0.2667254171018466, 0.2818719050529618, -0.36801569037535664, 0.02671621722075718, -0.48570105029439137, -0.6269253442049033, -0.41764409736568464, -0.5536164686483315, 0.031225606088572708, -0.09806435856059637, -0.20415337091839592, -0.5833075657287956, 0.16693028864839662, 0.03863442613582405, 0.21355643149787173, 0.4051843014149652, 0.39357586331738686, -0.5099906903192398, -0.07252241676935253, -0.20106976931049164, 0.48372889123318513, -0.1876907942742949, -0.03289699944579153, -0.21624948776981065, -0.07222181463003464, -0.7957638563071514, 0.4686045411878339], [0.48422302455601945, -0.10489306940496529, 0.45743882541186515, 0.25336754370473785, -0.5406970154385075, 1.024929819566107, -0.20335830326029358, 0.6703590923562022, -0.3526161736810186, 0.039574891353552646, 0.14440548584591623, 0.04255434158417283, 0.26662078782514503, -0.335478189079405, -0.1899197854836097, -0.12255815027342265, 0.4026560967047837, 0.4204232494566025, -0.1399406155097957, -0.6061683915242263, 0.3976408099885078, -0.2101148722768804, -0.49343377149566253, 0.47069015530759656, -0.19907824063709692, 0.7727416862516044, 0.305496983421755], [-0.38464684381367054, 0.03160948330547708, 0.7231403551915742, 0.135420244856981, 0.5386391797801462, -0.06471877210883199, -0.31083263920025306, -0.47535314740486134, 0.48991939873156315, -0.29373438051280104, 0.12305710179134362, 0.09922829356541901, 0.31259958475099225, -0.44442698922162466, -0.0757573405676243, -0.03867423525397524, -0.18974773370401848, 0.010435417609106412, -1.0063760321803588, -0.24231843510405518, 0.45841298938756503, 0.10442527829670165, -0.06043341737066538, -0.6332934748001292, -0.5643007899123885, -0.1406788486853012, -0.07251960358355954], [-0.035043080827872525, -0.40931616639028207, 0.3406204935822125, -0.30467042866774513, -0.5533434668693155, 0.3018995768494014, -0.1692717377247533, 0.587302727785606, 0.07712020168277821, 0.3890767794970694, -0.11490383381620795, -0.2858878214979476, -0.46902650147231006, 0.1897595941446922, 1.1589930966625566, -0.08166711380879743, -0.5526513859863911, 0.14754808777565398, 0.9081684314528217, -0.16004990477574876, 0.4382824960963068, -0.8574446937908626, 0.6400082040234408, 0.09805492719808473, 0.12946481653188388, -0.3625803413594483, 0.11910576058779734], [-0.2769212143199995, -0.4077162682828383, 0.06543121784586936, -0.4840265242628063, 0.4744748688525021, 0.4884226696982785, -0.1742197870221615, -0.6095432658179802, -0.08234305931791999, -0.18693769189564435, -0.07745739062920136, 0.05702197594686161, -0.08829806422494782, -0.6543543753445277, 0.23781949073582545, 0.29153240768301, -0.020076829683281592, 0.134870699888766, 0.08145528397638842, 0.18391107539610027, 0.5949303235295977, 0.5454336764131759, 0.5751733952887284, 0.1426679249883326, -1.0760748424193713, 0.5445467453983069, -0.24406494961611994], [0.36884994066663085, -0.020706590647752224, 0.8146520646674249, -0.42542464592263507, -0.15566816098623615, -0.34047342518445806, -0.2220639215959387, 0.2688335968627418, 0.5963838066668129, -0.2553747428808245, -0.21322726422516503, -0.060574265864238475, -0.06055085044747669, 0.22815534905412108, -0.003434730770000454, 0.08064508183599085, 0.20823463055733596, 0.29584737337596906, 0.21348064631058408, -0.6678608653661854, -0.23342482598073735, -0.2951451972033578, -0.6112680790478769, -0.6642371853129404, -0.25817367936870966, -0.10797450490203177, 0.0505987904620426], [0.6059044209754806, -0.10839921706351476, -0.9143839649159669, -0.44047994816158625, -0.2835302599992456, 0.5426968342110703, 0.32253753621645653, 0.1660714377191087, -0.15966347671567613, -0.30939022963571733, -0.16150719365821256, 0.01773673931213309, -0.11715152731130714, 0.1222481908976165, -0.28171753666672034, 0.0621852368633326, -0.06580723443565573, 0.18996889200110148, 0.694499986740338, -0.27418894338050753, 0.16448729917120422, 0.4011979405060091, -0.5994511193012141, 0.9662744572354259, 0.567988173467102, -0.10075255160797772, -0.8193292481123408], [0.884149073904727, -0.0783740715629839, -0.4701109445701531, -0.12583276242697897, -0.20269117969254036, -0.02171344702205858, 0.28022199061809927, 0.11040682103398224, 0.08642422885089102, 0.2521260442424609, 0.6123156175800839, 0.5711285677450982, 0.11756621984486498, -0.35494866635141287, 0.037701219079130065, -0.0032090680791721496, 0.03627849976182833, -0.6236363612855896, -0.4071694714147584, -0.2994299903740155, 0.6613152909750502, -0.34379233302858553, 0.31660253048002346, 0.024405602231136317, -0.01122652513053856, 0.47567643482601907, 0.7413426739104194], [-0.09322765199271842, -0.2304737213154114, -0.04360233926521585, 0.4115940856141605, -0.41047805918970015, -0.021018497607093393, -0.0027380387060424527, 0.8371794319875914, -0.20877810842480996, -0.040970280126599576, 0.19144028434144236, 0.5292369587631612, -0.04136753998230964, 0.6027880865530885, 0.11733387038197045, 0.0736248273615932, 0.17181352622282056, 0.142324246810483, 0.14593213402967975, -0.7726807334941237, 0.1913579292900705, 0.07261607847134459, -0.6850536253667441, 0.12715293883588688, -0.43558303620573696, 0.6512256482891462, -0.26511191307524246], [-0.2704750707912382, 0.6411487537593185, -0.3086763307041956, 0.1941205695549087, 0.5107853892481232, 0.10695464502519227, -0.26641468568273713, -0.12347899324424641, -0.27938305887397263, 0.008124409500474394, 0.15791719400369558, 0.00897612914917656, -0.13530533066796208, -0.17278774696565252, 0.21986498718322225, -0.19073856051756588, -0.1101413862142412, 0.19108293558870246, -0.1493127263814556, 0.5881610262666785, -0.44793940192027404, 0.13979447227311986, 0.128801544690302, 0.7251781093509029, -0.36227426354353875, -0.16103455271307773, -0.548407008195038], [0.3950698195772168, 0.4597630809421374, -0.06429075974506356, 0.3266594312704056, -0.37840836369344905, 0.012187115571968775, 0.3654447302999591, 0.6408551896093585, -0.6192187078339231, -0.19669048498433994, -0.0864588049148382, -0.44928205657487946, -0.3835785735173433, -0.358625404177718, 0.1541660149056172, 0.2675161681826907, -0.3920677854047129, -0.22091008398897471, 0.10547811240986915, 0.06670698837297971, 1.3691509388048548, 1.2880964517025137, 0.2916608574064058, -0.34541572490821953, -0.20481130527188549, 0.41194127697028887, 0.7127833411933207]], "bias": [0.13301154365671072, 0.20048756724532427, -0.20437185460761018, -0.13324818449782114, -0.015751775223975483, -0.1657055019396033, -0.10927557858803236, -0.10328129180914095, 0.29412480519435363, 0.10635520769770872, -0.08612584836860958, -0.02023143670684896, -0.07529805786668625, 0.004691016924928144, -0.13294524822867906, -0.08833728606209264, -0.16674734138506167, 0.20963629510866105, 0.15684952835043198, 0.18651131565584092, -0.10052525891941685, 0.0995676203861555, 0.03721018493441282, -0.08778293264402405, 0.19014537413235277, -0.04277943263223781, 0.1578221233374096]}, {"class_name": "NonLinearLayer", "non_linearity": "Tanh"}, {"class_name": "LinearLayer", "lay_in": 27, "lay_out": 27, "weights": [[-0.2921994597661065, 0.08742895016961648, 0.06958564659819676, 0.13013068294293795, -0.5702427509932589, -0.44360682208278024, 0.31654636651002505, -0.08394552365208996, -0.444113759889895, 0.02106940794742757, 0.1294944436800374, -0.50355157560862, -0.023380177031895953, -0.15640915917711876, -0.2089563144341107, 0.024202981055405814, 0.05697256116664175, 0.05703627498705426, 0.34343012958379476, 0.24420117884679463, -0.6426508282752459, -0.26337185770411253, -0.4633266010291561, -0.24628241908436502, 0.18666937551191615, 0.4808048971244711, -0.06309301748625136], [-0.3620913950620589, -0.08126007505164305, -0.1588192340973143, 0.2184677561380522, 0.44777326463806133, 0.016990260911565733, -0.03968276028705027, 0.7554453200812635, -0.5517505046649367, -0.43718329719306376, -0.23430849971492865, -0.3748656380300514, 0.10858788901949076, -0.000602759470146189, -0.27893607175180324, -0.7934880288334698, 0.060292408924474745, 0.11577195538868194, 0.1430804872118048, 0.4201266558906087, 0.17612821267169046, 0.12735853643660563, 0.14395744057268636, 0.16970241205996367, 0.22346838432008762, -0.06483724895486696, -0.028969479974612654], [0.12661963754004404, -0.0543275447487172, 0.5589122166688232, 0.3195004963396455, -0.43969211693115623, -0.3762772008859083, 0.22762224131216718, 0.0597327558329338, 0.3001903135003493, 0.31822107499588675, 0.08001098750514157, 0.03070296873336152, 0.073240783350864, -0.5948499660048557, -0.17221183593438544, 0.3640267197011312, 0.8790290746751899, 0.04482089430883298, 0.1806604244373074, 0.23541872978453246, -0.011973659685231243, -0.4784969855388306, -0.09663118017593836, 0.5529166910632224, -0.017581627698402408, 0.22348069264123877, 0.47420085876436524], [0.13421542677477546, 0.6994776536811154, 0.5963885157632807, 0.28131291942337755, -0.5867802587231051, -0.15718193556631765, 0.55228865812778, -0.370354843452514, 0.9399022836529364, 0.11047078130517048, 0.6566288694742737, 0.3756426612581337, 0.1748029850968317, 0.16900919469730302, -0.39692702100329785, -0.7962384684264846, -0.16658959867072673, -0.28260969349501974, 0.15500903265550847, -0.3342785939753203, -0.2838565075782024, -0.04103177128613929, -0.07504394855335884, 0.21065583388236278, -0.1278802496010233, 0.0440225422451968, -0.5757017000222927], [-0.0163311981830371, -0.010133698449666457, 0.5032497308754462, 0.13616547155551392, -0.3367581698701016, 0.5742403436364564, -0.20539230649133094, 0.11575601230984094, 0.19847631822293452, 0.1054906969552231, 0.08150594907486158, -0.04654634007638737, -0.2444487381264901, -0.31372963517951147, -0.42205815630930404, -0.17971263282739422, -0.20057125636658, -0.07841794669076117, -0.7390729058171763, -0.482545999199175, -0.2759570693915437, 0.18118957968024224, 0.6808055543258017, -0.3498501797536141, 0.0834200140651421, 0.7090495976621592, -0.46537100298049056], [0.13223091157858038, 0.06920852813823933, 0.08446764904400808, 0.27850267081493124, -0.49464744923401976, 0.1808311037642641, 0.08197722417401848, -0.36853492482932687, 0.3178466369329364, -0.05248763961212184, -0.09945097418642686, 0.12441540766609596, -0.6314078850019929, -0.4130937761144685, 0.6918002845043828, 0.019172197365756666, -0.011430622425530407, -0.29318545794850365, 0.24052442930256596, 0.20326659876374187, 0.5331136747597477, 0.015735229866649277, -0.7374882914746824, -0.8240210651755805, -0.33446308460375285, -0.1203799540643076, -0.24753487867376836], [-0.2267771636065549, -0.16525827097513782, -0.38226365056624384, 0.37241470498011686, 0.6446162861271858, -0.5568476661148958, 0.3281266572777067, 0.41380653654866284, 0.0939747873386565, 0.07461418098400317, 0.5477224668519248, 0.35913309855262354, -0.0868167488934416, -0.3012562823671225, 0.1699827504238403, -0.4701118030381015, -0.2945924429040455, 0.24911460244825964, 0.3538665503081874, 0.24150211245929926, 0.06688683657988664, -0.10549207077974566, 0.4554149776872725, -0.03869031409563714, -0.19570638900698364, 0.07019318515348505, -0.8399271917524058], [0.33004530979919033, 0.4886536259299889, -0.23098518473460453, -0.37573144066609626, -0.20014219723415308, -0.22093583672719094, -0.031036951776265465, 0.33960779835072075, -0.3640248624559513, 0.38159899816179144, -0.105849071421422, 0.3369586091518322, 0.1187078677684409, 0.2769240813147465, -0.8714336984647556, 0.8385175188245976, -0.27769155421310154, -0.2352916623317479, 0.053497503029726196, 0.054153889420558, 0.028629601830461135, 0.5460029724921909, -0.058443500231877325, -0.48800605829765403, -0.17168287351355824, 0.8945348508032769, -0.9185955939710567], [0.43133744278338776, 0.177416477423391, -0.16409096422244676, -0.28990794039644613, 0.2812140153361037, 0.2050238704722432, -0.1162745953258684, 0.08948433998768857, -0.4072058001095333, 0.3684619978585124, -0.33096307781924894, -0.46820205647963603, -0.20712296449334716, 0.006003721771599696, 0.6312133946161558, -0.05885956885602396, 0.11993373812578391, 0.4436106387988079, 0.44677932106161267, -0.25837204258916635, 0.24522717202198957, 0.14819634584765198, -0.012545462454176983, -0.4512047507060212, -0.2126874335723007, 0.11736093858350402, -0.3008769181097441], [0.002950043815533295, -0.2995551281610661, -0.6502607133205961, 0.6185485063669087, 0.4641866637487002, -0.08661846927132122, 0.032903922992114656, -0.2733327136588211, 0.17541136192859183, 0.5543829308849018, -0.3555805345807357, -0.13705778786509032, -0.03289294259651951, -0.3535541629905035, -0.5741976569859275, 0.3653329467601127, 0.1359871549771185, -0.5901470756465256, 0.7185496765449988, -0.1590516180780615, -0.7439690459236575, 0.8280716905354522, 0.11952267485279588, -0.6381224282655958, 0.4540270760473288, 0.1940006979771197, -0.4312706609303704], [0.022882346040055103, -0.10391013988447104, -0.13695222437750462, -0.03879629420144735, -0.1309548545004022, 0.17854828791881344, -0.3800682270843561, 0.7713674496707295, -0.0070248171475616765, 0.22175885059333086, -0.0714550833305563, 0.49149435928962293, 0.05637853874320569, 0.14687276557904524, 0.38883800746488206, 0.28755972221610077, 0.46887733281867144, 0.21006882351622957, 0.14239168054991688, -0.230823523920933, -0.30974956193585673, -0.12925947132653753, 0.16758508213723788, 0.2233112700236805, -0.07329681961678358, 0.21231004263400358, -0.08628981797882848], [0.12752577178846328, -0.04262184160711371, 0.22195061521283072, -0.1686837944788458, -0.5304904209187552, 0.7715774772056778, 0.2544925896905987, -0.19741436414596572, -0.13293683050146385, 0.17583491368743667, 0.288745881244472, 0.11591216043335575, 0.048347011448342185, 0.12444454282622115, -0.03741838797802714, 0.7029149714466632, 0.32175430691116974, -0.3014102082287068, 0.44052873904800255, -0.1499014746146552, 0.21866123990997763, -0.013426334487794718, -0.02539210462154184, -0.1940724497346848, -0.5389063315449568, 0.1728795123904163, 0.14135170449027398], [0.4168279677812845, 0.009808515512289256, -0.04295227453906431, 0.12225860506774011, -1.018963830815997, -0.3949243113623648, -0.39017935861691005, -0.4619068933236671, 0.10853191601832696, -0.6523652639687663, -0.42251647346749355, -0.1503945579543582, -0.5643501484646279, 0.4816484309184212, -0.4182774122157039, 0.06086372201741725, -0.14173454340819472, -0.4708983302912778, -0.3472361894100182, 0.5525675953571467, -0.715816503495699, -0.03049455528757123, -0.028498902727358565, 0.06533428791023702, 0.11716658448255297, -0.4271653483235281, -0.15270680392330033], [-0.03838827152479261, -0.18864358033231607, -0.10917477377859296, -0.7062028993149305, -0.20573250562950132, -0.5254033794479356, 0.1012290294433575, 0.45759524015864594, 0.05630473487768989, -0.5794143749115483, -0.054146758689138465, 0.34847133580491263, 0.46519821244343695, 0.3143554534993747, 0.4480272075160817, -0.4116268919880979, -0.22436347154015573, 0.4512927426910811, 0.38600499208051836, -0.07537500551656257, -0.7823123221308421, 0.06008426223461745, -0.6861269408125422, 0.07040305984272575, 0.44128227380088636, -0.08559451111240529, 0.8783568641370366], [-0.07987633318284966, 0.46700699150499153, 0.3685570701996327, -0.13284088415251835, 0.3732843667203088, -0.592322609857756, 0.2572405381129454, -0.03797171903268173, 0.5374765742063194, 0.5635037231082353, 0.27817731235762855, -0.20883025574427092, 0.35452541155838135, 0.3897716348433339, -0.42920920054537287, 0.30674875911692856, 0.1166152768613518, -0.18370275453311047, 0.3173589485849865, 0.7300797529769403, 0.008326368447702365, 0.9535888749292388, -0.9824554378626078, 0.020382126063353767, 0.02841927698836041, -0.10915645990166417, 0.1363156102245934], [0.8029960283734047, -0.20948938792561028, 0.5784409410158822, 0.14976780469879256, -0.41796050825086284, -0.04527367816563869, -0.12807801407627847, 0.3842302704315076, 0.8091908504292729, -0.08979186462826896, -0.15836342737705697, 0.26737686387144577, -0.21667215000288112, -0.19611622874620463, -0.2999208930283113, 0.5244678446907799, -0.4630349757579862, -0.029340499403064223, -0.17442154491146358, 0.6008965916098028, 0.40978233809792375, -0.47322462520253183, -0.22720999460572847, -0.33374079443277394, -0.028329865927441085, 0.3815422109166616, 0.07209052854747698], [-0.31049072239997305, 0.11204555023368733, -0.170754651624479, -0.04417386026098543, 0.25150003088131917, -0.08516690218951908, 0.1671157810811868, 0.46375492009370595, 0.32333803108179004, -0.13481539318844105, 0.34374019818737245, 0.12952875708588668, -0.35996802945678846, 0.08278593613235373, 0.17976355834945565, 0.41747398452981727, 0.4059495929292456, -0.30776697489372645, 0.281876677169839, 0.021389310840283657, 0.3725901413752391, 0.21785272075475498, -0.3633131268850374, 0.5550078059361973, 0.0659385163655908, -0.17511833278054312, 0.3934767081139863], [-0.5429599005359206, -0.330233769797085, -0.7677244817301707, -0.535614313240507, 0.40152652483113394, 0.6768056756108125, -0.26669058957665637, -0.5585029037744831, -0.28825440663485485, -0.1272857228297739, -0.41379430188606614, -0.15087959392780176, -0.5751651454511018, -0.7309909571872378, 0.29593489031549025, 0.714021917201671, -0.11480740030185131, 0.39576008377455174, 0.11620209684727302, 0.13269442615605093, 0.3056066083103993, -0.13143274795907914, -0.30898006594435445, 0.04743004488937619, 0.4807245547147999, -0.872189760914753, 0.5192159156009302], [0.01114773861550422, 0.001459783087978752, 0.4639082136076952, -0.49529560197988415, -0.2060695212885381, 0.251605277933647, -0.7086495767510619, -0.3654496728662544, -0.44484856053670235, -0.062332970556739316, 0.1395326614150288, 0.17276477582092428, 0.4427672869307219, 0.7734379703157135, 0.040477081264481914, 0.057281479771746295, -0.19854792185962367, -0.49898130885849873, -0.11980144222235761, 0.1954633101614041, -0.5344641684587456, -0.08153706004008374, 0.42771372394366813, -0.4966057921059974, -0.2615976822386825, -0.008289538285642904, -0.12144278963379658], [0.2262685790865978, 0.15576494297389204, -0.3172815280273663, -0.7204204985439098, -0.245900154045562, -0.37115113840295855, -0.07030638834841303, -0.5420171046520587, -0.12643643116638376, 0.3314721991789162, 0.22222553320140123, 0.16263683198562356, -0.3203194781562289, 0.42848656855656564, -0.19961303998543525, -0.026833789026019215, -0.16920347978877787, 0.0764552450340099, 0.08791145399681842, -0.09947722855472908, -0.4265676875428894, 0.17773247314281945, -0.14619194738317481, -0.20474681357604124, 0.28873388980724357, 0.09970033082409721, 0.2009040721998234], [-0.007633059468886568, 0.3845598839085431, -0.15488916708715703, -0.02674086717282822, -0.2883399917325575, -0.1677922969884187, -0.26498710987908775, -0.44822961518195575, -0.025408175327703453, -0.09501655306769072, 0.11396089527874005, -0.6620067466404329, -0.1685820964175223, -0.6261846223991226, -0.6541556516176595, 0.5041521634839237, -0.2124364338951254, -0.05062892811864462, 0.3720188895152668, -0.09754761420193418, -0.1312510499720157, -0.3445322924914028, -0.43257320219527307, -0.5986028231717605, 0.24544453503958544, -0.23694794820800258, 0.8399309572108635], [0.3098226103289685, -0.2498014699957493, -0.11556522858310495, 0.803642644404035, -0.38400591187369476, -0.10381339828716747, -0.002166147803646667, -0.0891547411676409, -0.334338571481605, -0.157100055062702, 0.6568977289496948, -0.10950309572892855, 0.31925694300456436, 0.10029217226677813, 0.1663881481595041, 0.44003155990816745, 0.5671823504722491, -0.38677328711094344, 0.470087149936687, -0.39473655534834245, 0.1146500675560186, -0.3823230385191144, -0.686702890097204, -0.39066492833122773, -0.2001496889672412, -0.08567468332186878, -0.35860382606722313], [-0.18040145837059424, -0.2757249262971578, -0.23278543312501673, -0.52410281271051, -0.4471618780054296, -0.1630402595774908, -0.2809353891123279, 0.10624705847950018, 0.08151546123259823, 0.07588750676143402, 0.45632890995622427, 0.02881964209568696, -0.40105844901277454, -0.031859406557687785, 0.2096589675604932, -0.4217273474369004, -0.3522222189245931, -0.1357903600593556, -0.04615433477559222, -0.03174316889535928, 0.0932225205691419, -0.4118317830485861, 0.10521513732909563, -0.1310314427405165, -0.025455127961276264, 0.9806824089141529, 0.06733441132707814], [-0.3536904202249643, 0.5371560114169662, -0.21168954442290047, 0.19967473670376396, -0.3196761285162307, 0.3656723612971776, -0.27295629348545014, 0.4905949436975258, -0.40858717871687217, 0.6641404787657168, 0.3498679516441213, 0.3963622618839231, -0.42043299990006006, -0.4786382240335566, 0.3671534097427038, 0.049672296176770464, -0.05008027548777877, 0.38935383963820136, 0.5769389676964674, -0.026334918561274602, 0.5160201081480487, 0.25325282150452527, -0.619099024449146, -0.16318348561680832, -0.28926078480060086, 0.43640856086666985, 0.3755674982355259], [-0.6332614132424299, 0.6749627881100039, 0.4944562124620066, -0.4606071518374687, 0.0026745023338334327, 0.44246701166708813, -0.2833537251357681, 0.19395414721493853, -0.2518262130737304, 0.6502627288552628, 0.26421524683923464, -0.44472526566791504, 0.13844636654446038, 0.12791200707662043, 0.3491662899829239, 0.5424622238723051, 0.15910848474031294, 0.6623264525578682, -0.4509057676940675, 0.6201105683573348, -0.4076822130018211, 0.38292839790417954, 0.6440164824801532, -0.39171977491781823, 0.1351906776320377, 0.016830598415053535, 0.24956369413813573], [0.42607759068080486, 0.6139105012718877, 0.007490511348665305, 0.176072943483933, -0.8734104502677958, -0.20041461988291123, 0.210258069986422, -0.06550407470210964, -0.583474803918446, 0.6597149010634579, -0.3892592372449886, 0.09552957061442226, -0.13788834612259876, -0.1148433894341004, 0.008741540530900106, 0.06445534118681819, 0.1457121384320764, 0.5518913175674529, 0.2212767674481507, -0.036209708046194174, 0.22789095384672214, 0.8068486495111122, 0.11633936832305143, -0.27997379594864563, 0.13443092531564063, -0.10461838044994472, -0.06529562964487753], [-0.23027391397539887, -0.16002332587796178, 0.02810280943488093, -0.13506945864343003, -0.6586078302761028, 0.30567806445692375, 0.40202208932946004, -0.0033777597506368705, -0.9195155227778982, 0.037856971890126774, -0.13900869139123212, -0.3295221472387585, 0.31129481090069616, 0.08916304124485784, -0.13536591348878188, -0.018395205842163576, -0.0612531945056385, 0.11854762441679151, 0.4778681638655968, 0.13979318298499882, -0.011925871463591343, -0.26589874803177665, 0.24318857834479252, 0.3280314693566158, -0.1784389958541944, -0.4515302956465536, 0.138359261322429]], "bias": [0.2578382554106174, 8.846549991054951e-05, -0.18993244164435452, 0.1329079706541385, 0.237167914989734, 0.16038395798754598, 0.034741166337583014, -0.15177438289167255, 0.21040192435973468, -0.10653114406500137, 0.1708946541289864, 0.07379186008534905, 0.20089738623417727, 0.4317865626680158, 0.2700438628533542, 0.19783810515891892, -0.2944652630128885, 0.14929997702522987, -0.15789268076907964, 0.3476016516910584, 0.24002059106536563, -0.2885917201105607, -0.1059194565022174, 0.10827813498820986, -0.10280582976200019, -0.1497633693981101, 0.0053487625655809]}, {"class_name": "NonLinearLayer", "non_linearity": "Tanh"}, {"class_name": "LinearLayer", "lay_in": 27, "lay_out": 1, "weights": [[0.060569299673893434, -0.04081243491546725, -0.12497387478223941, 0.3094040444764141, 0.2519421540548106, 0.146307137364598, 0.1370525426445271, -0.12400211464677834, 0.1409406199963151, -0.2674724439469179, 0.1338574026936226, 0.2988543439478111, 0.42018035991668046, 0.2896541699141097, 0.1420485212753741, 0.07873395845713607, -0.381865893029604, 0.36349151282962955, -0.276677221676994, 0.6463152260782257, 0.27349016047444913, -0.5190223778881339, -0.38484899150256596, 0.3445530638831873, -0.2559234672483314, -0.08474224457277482, 0.012248097605142057]], "bias": [0.2041148859291288]}, {"class_name": "NonLinearLayer", "non_linearity": "Tanh"}]}