{"class_name": "SequentialNetwork", "layers": [{"class_name": "LinearLayer", "lay_in": 27, "lay_out": 27, "weights": [[-0.18765343210665794, 0.7269612184469794, -0.38326075278745275, -0.2141571618608787, 0.30717725118925027, 0.416305892912291, 0.8618968268581015, -0.22483440099719781, 0.4697227880389225, -0.22165305693180057, -0.11011175477411728, -0.45721216109108853, 0.026897553357835252, 0.042694327822212545, 0.1675817012264289, -0.3613347610153688, -0.0950627880696162, 0.06527313452697776, 0.034377978925290376, 0.287946627288319, -0.4300887382775741, -0.10458312428447337, -0.2848166991021024, 0.11567530928671124, -0.17912417912382705, -0.8895654236605898, 0.46607169127907994], [0.25584827513286107, -0.11788099663857854, 0.27221793923199067, -0.2147810201394591, 0.10998657090581249, -0.18792102431508148, -0.4153464318210595, -0.6897818323744448, 0.148719053174594, 0.20886115130837096, 0.2823550926440677, -0.0987883319255151, -0.04321568257248699, 0.504514660758579, 0.4339374484550875, -0.011272862822726017, -0.12347997766491868, -0.37735684278736914, 0.04988763431816584, 0.18651565735225267, 0.7466728642522147, -0.44944138712148174, -0.03221783716588033, -0.10884101073077335, -0.4140581196842952, 0.13408611163747475, 0.2608247705860177], [0.7035297221143777, 0.7761035217806547, -0.4884879744104227, -0.003988662564299233, -0.29638928177853546, -0.13617058974525817, 0.7674997664146561, -1.1254201263385457, -0.1701615516694043, 0.03709370871540995, -0.3498020509785242, 0.03343577511744119, 0.08314403347337188, -0.004535300529821077, 0.5472342071537213, 0.06442933969724651, -0.28172565491590623, 0.11032966779503005, 0.10822103205343334, 0.4578479820759454, -0.19822848934651127, -0.33411081420431465, 0.5085505167580878, 0.028284515719294308, 0.6424680784983667, -0.5916295157083776, 0.30530398725993235], [-0.5141140616218806, 0.019578380686859582, 0.15515114069740824, -0.36999934503614096, -0.024057251366760405, -0.43694543610945336, 0.4034315013230624, -0.945765861577979, 0.5405777152544657, -0.10825620740066394, 0.13384186189262473, 0.26902396227617437, 0.16902665635336211, -0.09935790106671048, -0.1389667009294681, -0.06290703664071204, -0.2400736440749563, -0.037985094472490266, -0.537311187400434, -0.37080433148690223, 0.12406725890257368, -0.17901640314199746, -0.19106658934444018, -0.05944583539224482, 0.5521257608707604, -0.7710167410754335, 0.43205309665141584], [0.012820481171271327, -0.8586981253582547, 0.28929050011536034, -0.26964488219737237, -0.4089688773534086, -0.42794892719070265, -0.1231860773598688, 0.4114007097431109, 0.012227375703814648, 0.24398599345199615, 0.21934045179201944, -0.15470551354052026, 0.2080142794146869, -0.005570726450324715, 0.3144326750058246, -0.08415497930321018, -0.3255662902518762, -0.26538124889496767, 0.24144784448512918, -0.857760923128962, -0.05741554664432742, 0.38834043071628677, 0.16193428237209825, 0.034734045253837595, 0.06915497705843879, 1.086713371772436, -0.15861027450947285], [0.8351551895910438, -0.13834791281406134, 0.38516958126135886, 0.01707792559465028, 0.8310575693438552, -0.08636528763071892, 0.04378497528230457, -0.3978645424655029, -0.7471851096365327, -0.007883176223155982, -0.2547585142212143, 0.3524347858619309, 0.26175868862452883, 0.006338682735823719, 0.13415821766361277, 0.10756315790234346, 0.2708929258346254, 0.5910944412784034, 0.382375189010277, -0.39122985495974577, -0.14332036413492563, 0.04209557591553015, 0.6020931909425966, -0.3490861289702977, -0.1483641904200166, -0.34138449312767005, -1.2640691330430476], [-0.16609751515513949, -0.09707067006358099, -0.3943539520075638, -0.38216647681271604, 0.8514588148890323, -0.33233238708711776, 0.006602292784987332, -0.5083146988880923, 0.6616030158441474, -0.2579254299098921, -0.023641403886698036, -0.10629993243724783, -0.22051187127077473, 0.32376904916147103, 0.09628579613401336, 0.1268603953475752, -0.10308106385682107, -0.05995454923931584, -0.6922342613325183, -0.1395041030070963, 0.055976407074712055, 0.278247595346127, -0.059011891481078875, -0.39346625279320024, 0.09604931593032419, -0.057159043861249585, 0.5695868492024407], [-0.1521906005849898, 0.45175497413263793, -0.10255031184228444, -0.3925756446722721, 0.10147454306038936, 0.37405176389851474, -0.8121960156663789, 0.06584578449572429, -0.4379203209947126, -0.0933009137012541, 0.015082459529333505, -0.39356752387063537, 0.056165376695362076, -0.14830874798435356, -0.13726552672635184, -0.19240216067964036, 0.03500810814244911, -0.0712458304218624, -0.09490825108685415, -0.015911239223430376, -0.026713110058997215, -0.8023337760998503, 0.10696353839076823, 0.5148352203775957, 0.08468971185047797, 0.5822613763222109, 0.2529301367532809], [0.585533074142889, -0.12351678704121968, -0.5533466725400069, 0.037952175313514504, 0.652812903522358, -0.2599968962319148, -0.5352985212739308, 0.09830610071020687, -0.42763127248299376, 0.06659098704388758, -0.2213421739472589, 0.08299190234791161, 0.011331723493833344, 0.03341793620655272, 0.21581454884258885, 0.1127959895816041, 0.20767018842361562, -0.4084178824873616, -0.4635620197403317, -0.21944910836991538, -0.4983600300366131, -0.28797398634429505, 0.045602575166106434, -0.4850678521689461, 0.8937371541681195, -0.45979310189932115, 1.4707526586071775], [0.13647330199546906, 0.22797393774503616, 0.12454431454220737, -0.7169196146947672, 0.4514526181591145, 0.16437960461303988, -1.3102709909904364, -0.6996178577895437, -0.00859194720781134, -0.6458069504436746, -0.11927335154992746, -0.0002791500804858779, 0.09399634915607341, -0.0388634190121879, 0.2311177484299706, 0.5124132520155162, 0.35360509267449913, -0.003909461883915958, 0.6745207108100715, 0.05878761834558887, -0.26696679308461635, 0.3618424513068495, -0.24116458216251893, 0.0887383175293209, -0.6298098130679346, 0.5748943889071142, -0.682086426729697], [-0.34719529126534043, 0.08834155959353039, -0.5858819913887793, 0.3664011145390383, 0.12008508344039752, -0.08561121993529423, -0.3270054239023068, -0.41929303201915546, 0.41529471339729285, 0.09827232328123486, -0.39701045502682825, 0.07258361795339828, -0.05675680509929561, 0.15969545995111634, 0.18055968536580558, -0.05075022285461031, 0.06176315419415881, -0.245923323558893, -1.3734911118673003, 0.6830739762593558, -0.14508567393067293, 0.39160519991143944, 0.4932614912273506, -0.5438147923107183, -0.338932840651646, -0.031156932081805457, -0.25985028137229954], [0.6281560232340351, 0.21142280630230442, -0.015426606293433917, -0.08983833019431793, 0.25352473524557906, 0.31057256848901155, -0.3175986026865269, -0.6880361196650494, 0.24526768674570046, -0.24886496923292978, -0.2604048530705186, -0.4410348295480014, -0.5186691977243731, -0.04314306264910044, -0.1598871177071502, -0.2316921094313906, -0.6567789481951397, -0.1036013298439769, -0.16866746940246008, -0.07681738378427574, -0.6585257086898721, 0.1581510187602537, 0.6035353644935345, 0.48753975270426864, -0.14822017525173276, -0.1891667558401827, 0.18537396579746143], [-0.5863439059869049, 0.015569222102232405, 0.04063529216060831, 0.3862608664072319, -0.9791018326861811, -0.052496229663065795, -0.03820014461040924, -1.1122886301381354, -0.08827005189122246, 0.3284627790410463, -0.005296774884863057, -0.05089221543753697, -0.33281336865744837, 0.34862893444094617, 0.042729673394809486, -0.09839597499228205, 0.03386739134747492, 0.06158937989715178, 0.06886468688003537, 1.0039265314679724, -0.3507548306522362, 0.6060893267907876, -0.4248569591215857, -0.7789310405175449, 0.3613641522935448, -0.018242594201541736, 1.0492822032643472], [0.11086530873538589, 0.10537210802108674, 0.0425442981389921, 0.15867236736553006, -0.6912228689223961, 0.41632525101224055, 0.25717531809794697, 0.030853272827076922, -0.7452411470036305, -0.9033144002444213, 0.26411497320108007, 0.23833390467272272, 0.03778751648809736, 0.019960974454608423, -0.027734082787442393, 0.08341526634365623, -0.18222210137307596, 0.36922923253181067, 0.01250907325015822, 0.5842840760412907, -0.2023753432837483, -0.5092469262890007, -0.23672688827634064, 0.02339040221918667, 0.4522915061546021, -0.3772110642051824, -0.09220438511390264], [-0.237728032026238, 0.047928135964455, 0.23266299382660566, -0.12226944686806529, 0.5078134278710391, 0.20162603821277247, -0.07328115410848773, -0.31037150701462524, -0.9946106080790432, -0.029959599608535777, -0.2788613217294178, -0.25902801780457674, -0.0008543254807991695, 0.5550722482817051, -0.05847672085711652, -0.14764450936447482, -0.16352584679987525, 0.35446482998873774, -0.05491169926098215, 0.31230635881590174, 0.2926904845154601, -0.10061843136213254, 0.22015133440216367, 0.08236986473105223, -1.0543906879501692, 0.41662233627080825, -0.06175264201426456], [0.6374420817775561, -0.035344840524371805, 0.39404392860920207, 0.17891535786226526, 0.014852595256187342, -1.5775260521504273, -0.5063803801481763, 0.10585576340183721, -0.21801511376648292, -0.10668714153128589, -0.12352425597564899, 0.008983576622402518, -0.04176060949821576, 0.22695884990956974, 0.18892350369897346, -0.10350352925371767, -0.12837335034984504, 0.15735412669963314, 0.6932356146353703, -0.6235983223582278, 0.15426505074528968, 0.6228762805751114, -0.4030267152030039, -0.8464140869926693, -0.20734884447136878, -0.25382835004314896, -0.18964330238680815], [-0.17997896764660878, 0.31673166524164936, -0.32451594974132714, 0.06561585239901213, -0.513906275863547, -0.6966548629127176, -0.49643714276569484, -0.6585598603607558, 0.04404153045107876, -0.06268296923895952, -0.018269691933977258, -0.6823558451706738, 0.15867298311308947, 0.06854549361753598, 0.2192039134851495, 0.34367574890612973, 0.3505061876609226, -0.5722428443591248, -0.19143958936391706, -0.20310340666686347, 0.5305044021663958, -0.19791084550026716, -0.005364682858608869, -0.20455659137014812, -0.05404389891838257, -0.7479714579950344, 0.47987989396286707], [0.47577312282480194, -0.056291499051189596, 0.47431512539456117, 0.2525684978563654, -0.5626602570089422, 0.9557471077990328, -0.18384617634705122, 0.7430518598561187, -0.35931369511908434, -0.04649147785484221, -0.05250465404103891, 0.053787996154103276, 0.08968210780799198, -0.29822921839647976, -0.2006105113694468, -0.12418892132578191, 0.3080844585085297, 0.5027365522747756, -0.2353160640165575, -0.6317912727639124, 0.3949422950852241, -0.1347687055615126, -0.6142957465419018, 0.5667203112435828, -0.21198348264024133, 0.7608488135769995, 0.3104929590384091], [-0.516476544694524, -0.04073976904728334, 0.7600941492195227, 0.18078089132702316, 0.553379804497248, -0.11482754212012908, -0.27299589939361596, -0.5021503536234638, 0.5900666759209715, -0.20177543036960743, 0.03751229568570783, 0.09884038983359834, 0.23715634463050803, -0.46016123328401076, -0.1345597170858511, -0.09762387274988514, -0.2090980090048097, 0.07304606779708296, -0.9814285653259052, -0.22571671850332797, 0.4509234929641289, 0.06013399734823725, -0.022371064650916046, -0.6887618881512574, -0.6492205546577337, -0.07376969255228315, 0.060243861892850796], [-0.03978127260501465, -0.37033188804806494, 0.2872241678318847, -0.32487345771958354, -0.5323714153541995, 0.25817702937139664, -0.27773858134343854, 0.6078802096790551, 0.07749547455900663, 0.31581115097032536, -0.03792649717237785, -0.22196574624008883, -0.39761827471907246, 0.15208169249014675, 1.111974731173945, -0.07130635810719427, -0.5865835779530257, 0.04587925592254284, 0.8459821209467824, -0.19457725585993615, 0.46319838637221816, -0.7398835897068327, 0.5679122307717756, 0.10060355982568256, 0.19140160397870284, -0.3501693555214315, 0.07943277569171611], [-0.2604951378885764, -0.39606398462105613, 0.08718669623995857, -0.359144661385925, 0.4768938983314397, 0.4738390742599905, -0.2007067091086873, -0.6656636939317102, -0.06757514614007867, -0.35601451097126713, 0.043816547981868646, 0.04314431762959008, -0.07275329341558012, -0.5179400821236586, -0.040552224375470396, 0.2407221498601503, -0.02452572253300823, 0.23580884022327597, 0.0973907857931096, 0.20277657860206574, 0.7197877526866419, 0.5201196938924952, 0.6827855468156661, 0.06522185152401552, -1.1296586456352127, 0.5590257735513107, -0.2508675965942548], [0.27615213999540605, -0.11198918272068788, 0.6719539887232296, -0.461264602630498, -0.05587131669517393, -0.3402037613676493, -0.3982751749582327, 0.26800938494972065, 0.6350407213321251, -0.2689880317592081, -0.17057816102265025, 0.0006412882870445679, -0.11971317393825019, 0.148054149049876, -0.052386388295041865, 0.056093545075623336, 0.1495369457022319, 0.1923004859925999, 0.2148349721473596, -0.8251327820982319, -0.20231769677574146, -0.344783674009449, -0.7311517414406197, -0.5884285930993183, -0.2353477630755004, -0.06709977247542155, 0.07253351328523151], [0.7048351554639845, -0.12425944570992131, -0.8757427339283945, -0.47087338192540645, -0.2899308247389244, 0.5276250061587984, 0.3127339781221881, 0.1134265465905641, -0.25752847994113504, -0.2930186700964394, -0.10110230458964088, -0.03009104220654503, -0.0490969694720137, 0.14848849130305947, -0.4326187701586428, 0.09410276886334913, -0.0702350986830419, 0.21269142635294497, 0.779897673568644, -0.17879482266273075, 0.17577380488535133, 0.4437275946789049, -0.5696103089386301, 1.001489513607577, 0.549610069453984, -0.1644467478003338, -0.8765443606518345], [0.8752604182508248, 0.014041441639437187, -0.4945239459248909, -0.11631654744007727, -0.2920355043107343, -0.062132479638061865, 0.2527169478203069, -0.052501765415650575, 0.09670470304134617, 0.18730953368804262, 0.5923969062425481, 0.546240245896207, 0.03919273423616467, -0.29962609299853915, 0.05455325731650972, -0.03670640026910671, -0.02739083701762249, -0.6554925902801836, -0.5205882936184035, -0.315547117970546, 0.7688473251906988, -0.44525255422106325, 0.35356787704308335, -0.08848524980970927, 0.002262843918803218, 0.5148505557999495, 0.8140606105072385], [-0.08308904443002925, -0.24227606462533663, -0.07482510160010297, 0.2975981988936686, -0.45692715632868947, -0.014424958626881196, 0.03951908089469095, 0.9451502555112568, -0.17504368365313824, -0.014900818473054548, 0.14607238402184924, 0.4757921945809144, -0.17027160409958425, 0.5310757449162224, 0.10873804909657553, -0.062385401634902186, 0.1174913054805021, 0.2726098610485009, 0.059702226579035886, -0.7767514197221024, 0.14981367000165732, 0.1473635305365687, -0.8931626112555651, 0.18873120359162598, -0.3743503085251007, 0.7054942015292922, -0.19894522545048074], [-0.34253480556704113, 0.5635766883576266, -0.33961288855736027, 0.1119200381933426, 0.5078989449188448, 0.19761206543743787, -0.35140618721024014, -0.06414830288104224, -0.33166932258498555, 0.0068099176549459624, 0.14916959071518077, 0.026699800805284606, -0.11851265401399412, -0.17406900146224616, 0.1014987058492992, -0.11681454893619003, -0.13233863166358237, 0.11177189719619979, -0.0638270348515208, 0.637419123505783, -0.48000860931049977, 0.13969525522081272, 0.23762868787298347, 0.7811213484838954, -0.4046662103040291, -0.1880287891136387, -0.4460781498833954], [0.4140690962980215, 0.6395504973469593, -0.017784910957453187, 0.3218930226678973, -0.330215180364231, -0.06945421342510473, 0.3218344175589951, 0.6985974000819477, -0.6676360211030951, -0.20716329812633455, -0.09374757236149094, -0.3304575164253965, -0.4342280719805668, -0.31997028074594147, 0.16412486069065632, 0.12840094975647762, -0.3814833452671848, -0.26034629846402446, -0.04960549975792415, -0.10182131312081989, 1.2790643506174197, 1.3588250263703283, 0.2226435331432314, -0.37884425512832204, -0.22877519513674224, 0.5167199161379682, 0.7264410285383862]], "bias": [0.1323750287481214, 0.26845767422386535, -0.2322817560659922, -0.13631606137420654, 0.010591512005649232, -0.22840961718174346, -0.13900072082447046, -0.08627507365573453, 0.2964039618240568, 0.14134992988216188, -0.10750243510007253, -0.05719468336918438, -0.12752626968890132, -0.015941971593678637, -0.07211569136146859, -0.08070973994651183, -0.1309367026297803, 0.23326651053524916, 0.09591434590142618, 0.23598757682355948, -0.09999623622462524, 0.15685845773816784, 0.03221337647807519, -0.11893347393014961, 0.21920408651647083, -0.061836307271898844, 0.21038774703373084]}, {"class_name": "NonLinearLayer", "non_linearity": "Tanh"}, {"class_name": "LinearLayer", "lay_in": 27, "lay_out": 27, "weights": [[-0.2514904403928645, 0.08262415223421053, 0.1676684501801655, 0.20771107494123237, -0.5749152817532761, -0.4300068660933062, 0.24381738564698516, -0.02329365039892777, -0.45388563882418875, 0.05008591239349719, 0.11738256981224127, -0.5276881485544872, 0.04115727896082124, -0.1623841302934309, -0.2302479448390266, 0.08979389448001879, -0.010526649011926886, 0.056758834317907514, 0.3566865996517842, 0.28767483977034075, -0.7225875228008063, -0.17677428366595815, -0.5766207394697349, -0.2755278134405022, 0.1928221506036134, 0.4859102000454214, -0.0332778001516452], [-0.33593229544676073, -0.05007128017782515, -0.10999423544988667, 0.21957006398182488, 0.4872276143769004, -0.09220769429054965, -0.020372810472257624, 0.7024151728521708, -0.5177709687781067, -0.48643068971967857, -0.17433573996834859, -0.36403035890002927, 0.1320159789702909, -0.08477558205945873, -0.4089787545490089, -0.8689153150353721, 0.04882712905586353, 0.16232850170135804, 0.1728627967370025, 0.4185179863083317, 0.1612339711705806, 0.14258027213555438, 0.12578734739755545, 0.213271051870037, 0.24565884489461923, -0.11130732873175307, -0.06318631128227888], [0.19392640331492525, 0.00536974262932347, 0.6123324431164404, 0.3104842871454774, -0.431947738685393, -0.43175375442239156, 0.17099181115988574, 0.06550411900873664, 0.27967783725737777, 0.29771319681852315, 0.07402476969084283, 0.06786392162969851, 0.10486519029438697, -0.6156800218700451, -0.15461706970104117, 0.39444134271977777, 0.9321482966769569, 0.0815764182555582, 0.15439983060679086, 0.2745085008791414, -0.024698116681930928, -0.4959107897779478, -0.0741874251890899, 0.5047693483038276, -0.027021797629967623, 0.22442669986030606, 0.5396219360558938], [0.2211775668483297, 0.6951005334842422, 0.6466383017174566, 0.35020749947310903, -0.6002235654991236, -0.1828220273047162, 0.5510389571033673, -0.37677327758997414, 0.9823934706701831, 0.07025744601021353, 0.6927744505302379, 0.35516799780571257, 0.2272075510192713, 0.19066411755334542, -0.4434265188035303, -0.8003783805149745, -0.12937866917231913, -0.27136837485884463, 0.1562910220056657, -0.23912495327658972, -0.32055131512132473, -0.04480745929799223, -0.1290653334676718, 0.17711339732708944, -0.15882256642782247, 0.03281000754154853, -0.6523769068568135], [-0.016746442538494055, -0.05710164226464304, 0.48013773651244207, 0.10442716190924443, -0.3142272579930521, 0.6123464424463219, -0.2167575917445012, 0.17325666109123236, 0.191841347453423, 0.14511717746668523, -0.03293061049042297, -0.028509312749684965, -0.2907030978768683, -0.23544760216038127, -0.39615783423715484, -0.20175862242736117, -0.26937573175636653, 0.006716267383933543, -0.8537924727462658, -0.46260588095331234, -0.2781067381231681, 0.20079554277778755, 0.7564380644675112, -0.29804249301945973, 0.0633447944003932, 0.7669870342896479, -0.4617087265971144], [0.10279311176317023, 0.05475398399342088, 0.004927986424719006, 0.27606130702900095, -0.5082108059165334, 0.2485508943825473, 0.10345252085659608, -0.2904400526491908, 0.33250886620871944, 0.022129091772236632, -0.15490149177909976, 0.1877641317409908, -0.6545352299150643, -0.35898083044424683, 0.7784405071352839, 0.055619723092739486, -0.05702120440146863, -0.29894498157746385, 0.2581289361615883, 0.14229807002129047, 0.5636628932033861, 0.0008923988189664788, -0.7478931002776792, -0.8096027923419736, -0.35062246022951327, -0.07398384191201852, -0.18868160008841267], [-0.1462388260187757, -0.21264596505791583, -0.391757890513575, 0.45662712927929777, 0.5969757878734252, -0.5543822192917115, 0.3814907110577713, 0.35457173514252405, 0.10121814543069613, 0.05897088064904535, 0.5929089195323326, 0.28197573704544004, -0.09307991444304299, -0.369085509741713, 0.1570936714625292, -0.48505665976428614, -0.2935161211160391, 0.15764604957325717, 0.339542364726677, 0.2627396472493318, 0.07759667543045683, -0.12028500229867507, 0.4422989938654289, -0.09219454047771661, -0.26171857290559997, 0.031023357034064617, -0.9047634710615178], [0.2900736758612118, 0.5714136862180588, -0.22960100971606145, -0.4400548941949757, -0.17200964730469098, -0.18522925003790477, -0.0500608165318303, 0.3109386741554192, -0.4046210621393036, 0.4334037627087437, -0.0636760023629623, 0.4743636803840674, 0.12877486704862356, 0.14892178002297893, -0.9098919508866737, 0.7423478314113413, -0.29366757921288716, -0.16546748052066712, 0.11408475765761535, 0.07017431092840874, 0.07608780718759427, 0.5373789291167914, -0.05716555469225722, -0.44958340900706883, -0.16793269863557572, 0.967114486750035, -1.006872823680175], [0.45359998918458283, 0.18676845767701275, -0.1753894798461825, -0.2950192539498071, 0.2520453333399331, 0.23772056673007416, -0.062111083561810526, 0.06407252198749935, -0.40428896721443397, 0.42322561658676067, -0.3174774859884859, -0.45028603439281145, -0.20189978372761022, 0.005250166185873785, 0.7069669755379557, -0.011470699730503003, 0.09880398108240396, 0.41952430362729043, 0.46697578480104535, -0.27043894307947225, 0.2949670479806374, 0.14204316536851794, -0.034481390789559314, -0.47414664672286744, -0.19360885532096828, 0.1275453810014877, -0.25367549270129264], [-0.06028194842802861, -0.2703957455768211, -0.6835530205436225, 0.6183007662633155, 0.517868460575334, -0.06682962213696216, 0.06563175994993171, -0.26772757421420273, 0.26062102174349655, 0.5004460570092104, -0.4126294408501162, -0.09810321684165972, -0.09109426754259622, -0.4260661649715594, -0.6179817199892704, 0.30996456215882173, 0.12260031720204405, -0.5982496888630787, 0.6791954324208586, -0.11172590934992473, -0.7175296063021384, 0.8075568035461261, 0.15398106274165654, -0.5862873085503648, 0.43335747961815485, 0.16579283627745395, -0.5127464893142621], [0.07934167570429798, -0.14306252741422518, -0.05538413599253103, 0.02934817970272309, -0.1859595113614945, 0.20445293983619572, -0.39513025328854534, 0.807070847545441, -0.04844126569135365, 0.24820825739582708, -0.05729637139856648, 0.5343472392049893, 0.10378604128791925, 0.1853878639451254, 0.45305554355820005, 0.31807734390621667, 0.47282118970279935, 0.16421693458188036, 0.14154369643068687, -0.2615721635578413, -0.3117560314503354, -0.17138847950817535, 0.1616310393469166, 0.1551500725752607, -0.09200769684331776, 0.2760434329989088, -0.01137568400839741], [0.0673186174449759, -0.07730649119189925, 0.1836647785978628, -0.18489755349046164, -0.5503466356132443, 0.8938573942144636, 0.2604437913910339, -0.1640101660723683, -0.1283009862533882, 0.19072218680483355, 0.22758309328770354, 0.07780189618527016, -0.01186051292899536, 0.1818489062649835, 0.02409147077764097, 0.8327854803953763, 0.32126242590868714, -0.3305395420380792, 0.4190909827575235, -0.1928412463415542, 0.20336727383154127, 0.012751116590782579, -0.026539642386075063, -0.17188616469800616, -0.5080604111932906, 0.17353161140458914, 0.252141849813531], [0.4272016033799666, -0.006356468646642402, -0.01419185990762911, 0.09384698628142162, -0.940697529264756, -0.41198653947371355, -0.4252566701969055, -0.44232679135092556, 0.13632862646838156, -0.6972463715054649, -0.4570371456960142, -0.17497345884971763, -0.5979443836597356, 0.4767744514329521, -0.4190143141035221, 0.07409620165199583, -0.12429935846534208, -0.49878658473564713, -0.40621632017774295, 0.5954200755510773, -0.7181031419604565, 0.002379865257045262, -0.0604900240537063, 0.10714333837750878, 0.1106771326599532, -0.42492667783465216, -0.18077092659669805], [0.025216096612132477, -0.20598321502437617, -0.07407796184269684, -0.6370291169328108, -0.1925856874912626, -0.6561121404607027, 0.13558290669683176, 0.45661601023764253, -0.0030704390491274225, -0.5296279647600238, -0.07006913234328564, 0.33498028393913826, 0.48593851918824954, 0.28560879372091946, 0.4302283504109189, -0.401707261256174, -0.23039215850342096, 0.46561580171370476, 0.32791751359668797, -0.08682536804657248, -0.8089032325702943, 0.08982595852017912, -0.7279213404637314, 0.05617729736124911, 0.5101505217469312, -0.05844568467008208, 0.9292216612947173], [-0.07382596404826984, 0.43700542243829077, 0.3672532586408803, -0.17080775110737037, 0.3702078202924185, -0.7599577054051205, 0.21072748881754258, -0.05580080852726497, 0.5056031382886828, 0.6010758515653927, 0.35817253614544026, -0.25803759025854855, 0.40632245314073007, 0.31886712190286, -0.5480206466469273, 0.30669270596133946, 0.00988028311871488, -0.11361010596907911, 0.3395810814621749, 0.7158063292842929, -0.0721019527483237, 1.0061559305851575, -1.011592946427594, 0.09563275636604275, 0.16531926714699635, -0.065546862159952, 0.1748141536740026], [0.9159421645264593, -0.28375180513146125, 0.6224521204160308, 0.1947078003693976, -0.45222365582241214, 0.024858103665023397, -0.1371884464537067, 0.3739518352822032, 0.8186247850813791, -0.03507079040025091, -0.1713555430739375, 0.278886683785061, -0.25983135464007784, -0.17571130760811773, -0.3002327867969312, 0.5316037114812346, -0.4953751333892848, -0.021720659667318967, -0.2039585056121255, 0.570387281872476, 0.4371298561606264, -0.48554257990187055, -0.1853467017506892, -0.33427609766289507, -0.03602876266679989, 0.4774189155485767, 0.07270125044508813], [-0.35087035751955503, 0.1642819161770459, -0.14836034639384746, -0.036953283554746384, 0.2768470559627928, -0.0941286701277915, 0.1731133766049618, 0.4291852394580163, 0.34858053359220426, -0.16260954086030083, 0.3037008719110856, 0.15245080835026661, -0.3824107638227677, 0.07801108634347516, 0.13603482036452935, 0.46076293664216555, 0.4407441505137638, -0.29880808476624215, 0.3494926895019041, 0.021946699083196033, 0.34618739349901584, 0.2435540905293995, -0.3856586062027449, 0.5862879130876975, 0.08007686565114931, -0.1669512896895316, 0.3403789057011945], [-0.6068105077551166, -0.38283093917273986, -0.8340579834206019, -0.49990410763911725, 0.5023418993043715, 0.6961493168688198, -0.1885286883387486, -0.5605630813270085, -0.2976275206840586, -0.05702870811404645, -0.4154093006632668, -0.10540957132418838, -0.6011763254332081, -0.6801216640960485, 0.3234171364706589, 0.7693015113276144, -0.17610765064378592, 0.3910867984935393, 0.13232685708219222, 0.09336285513117243, 0.304357428610035, -0.0552142640341703, -0.2937606008618583, 0.0482181647905446, 0.4883300436907967, -0.8493091713239936, 0.4514686391066096], [-0.028846117405361863, 0.0662662255511284, 0.45380573654698814, -0.5457869225499661, -0.18223849405207, 0.23644080157462588, -0.7473592067228795, -0.419049090164285, -0.455185672543301, -0.13029976594939502, 0.14859528136952874, 0.1558551369714114, 0.41325798961295546, 0.7390834540753247, -0.02652582111334848, 0.04011390357340221, -0.21511375479136563, -0.48178751822590843, -0.12925915034250396, 0.27355458615891143, -0.5607043816281593, -0.07105597359643788, 0.4432751727066859, -0.5058531463507585, -0.20883183664606636, 0.0399446603368516, -0.1514234834290141], [0.18055381159826825, 0.13140722355751946, -0.35739954639339583, -0.7364938924831157, -0.22213332386776824, -0.3640613870000974, -0.03521537636734958, -0.4368263250328197, -0.13851998292781217, 0.3821424292852062, 0.17038591070101558, 0.18568794054379084, -0.3336806869176482, 0.44608486216483945, -0.1386734563169263, -0.0998127726858203, -0.2747235742126763, 0.11598646233834398, 0.04128714579936031, -0.11303743996264347, -0.39710606768778944, 0.15100124615780292, -0.143826065913763, -0.15225844018185394, 0.258430424197576, 0.06469282262406076, 0.25063097592667755], [-0.034331723639156646, 0.4176057605266481, -0.1447061975302366, -0.0032517307189847662, -0.24027646420291224, -0.20229145696709586, -0.2748320008456916, -0.46195588709633767, -0.03527065037210527, -0.10482670779687707, 0.06917370531565943, -0.6809544327169944, -0.15008556021214614, -0.6634601742793923, -0.6862705552326632, 0.4910789809564331, -0.2934658290614457, -0.02823946104847409, 0.3802454435118909, -0.0458534892362386, -0.133118766253602, -0.27600909834639425, -0.4652741370911005, -0.5866348574157587, 0.32022231808481355, -0.29901238130873387, 0.8701805855188586], [0.3053980704407607, -0.21769014387696448, -0.08250506794652789, 0.7803971395457316, -0.3268085910399713, -0.11980030616615425, -0.052284772084049816, -0.13450873787106382, -0.32879185398326033, -0.191753176793116, 0.7076302389122494, -0.12507385691840853, 0.35545390919406944, 0.048471169090605754, 0.12915383989867776, 0.42804326077379956, 0.5647788635779118, -0.37368119217298, 0.4326942244799035, -0.34879958654731064, 0.09758769778220315, -0.3420344379208145, -0.7442238441550394, -0.4221009443836739, -0.19898413449258007, -0.11148685950214068, -0.4101178472836549], [-0.19726042803480442, -0.2639894906747238, -0.22900247701106724, -0.5609537049172653, -0.456226839396574, -0.14297956489229452, -0.27266423905498155, 0.10570241108953807, 0.09967066975094657, 0.05194906277424965, 0.47896260001440016, 0.018683290025446875, -0.4071793481450318, -0.0443315483929486, 0.19903361904785613, -0.4588022787674161, -0.3426680673722633, -0.16812713737518614, -0.06725503106585613, -0.04066080974699811, 0.10634966216096631, -0.4483873192943539, 0.09064847117267022, -0.16984355787819702, -0.04573975549794693, 0.9929352383373625, 0.02230736161133132], [-0.3485984828679939, 0.5334243409341315, -0.30853544389028714, 0.1939253286714642, -0.3412846550144955, 0.3659200265411095, -0.2509782883329619, 0.49770993770208904, -0.42370898747360786, 0.6657541860068251, 0.3149771533765418, 0.3779588690795033, -0.4408898157096181, -0.44770929518789004, 0.4108427376178939, 0.014636119992801467, -0.0648647280284538, 0.3491490952712708, 0.6105569642862269, -0.012749000832991025, 0.5186152047080017, 0.2788177786648434, -0.6503345877783497, -0.18078373830166347, -0.27717268971372083, 0.4269404653326164, 0.3079110102649794], [-0.5926473160024956, 0.6742542330209805, 0.5320775960773242, -0.46246770690243844, -0.016459007481398186, 0.4163964295749847, -0.3354711546535466, 0.13877861300378666, -0.2202872383041622, 0.5714362542154762, 0.26206719255996264, -0.42857770229027, 0.136096740656178, 0.14979153116548077, 0.280484699255074, 0.5911918416329073, 0.2177070254509145, 0.5939769002502527, -0.48991470838372725, 0.6295623019792439, -0.49659972573749095, 0.3872604334947864, 0.6608516469416567, -0.5088135697560364, 0.16575811076898683, 0.0468510936516245, 0.24234143025532245], [0.46549772771417736, 0.7307841759202358, 0.021167208463594867, 0.1525292896770699, -0.8700167234804311, -0.2066585760616924, 0.1973140177258011, -0.09105870091751384, -0.5522422150599161, 0.6523574096311934, -0.40489540963385634, 0.12597158010337864, -0.12923109558363338, -0.17661556331066847, -0.0717936192812087, 0.07650219133528445, 0.1568329786081695, 0.5513440812286468, 0.24728272685841754, 0.007010661403061188, 0.1827072859233213, 0.8777187790084541, 0.0697653889187338, -0.3026448736216842, 0.14305622228940207, -0.07659348411335408, -0.15005669390826049], [-0.26910359060104333, -0.17878988183794087, -0.04959799316291368, -0.17895429360490023, -0.7116078461233907, 0.3732792846170166, 0.3513227904641825, 0.11146828682695908, -0.8852621336619146, 0.15389637343086157, -0.23350875154606715, -0.26430290581709664, 0.3160108881381117, 0.20200484126394555, -0.008130428116857429, 0.018365621596900146, -0.033618130736302605, 0.041986306474914074, 0.37800962281489064, 0.12688365421082307, 0.027024102902338448, -0.2610755255725908, 0.3027426027375181, 0.29712946376554095, -0.15396665539209523, -0.4863910466839117, 0.10057373109664189]], "bias": [0.30046680882337257, 0.04023237150852327, -0.15225719586275918, 0.10699709655185183, 0.23734992376868763, 0.1662817495383176, 0.023733928722980815, -0.13340137019598075, 0.22565033853035799, -0.10148148535412249, 0.17443524294379065, 0.04033525407040357, 0.20568307911922798, 0.43131600307484025, 0.3882941968854424, 0.19346616285784338, -0.29332421805558645, 0.11182343860237048, -0.14300187967177416, 0.3716176572160819, 0.33740501828070657, -0.3057012843068572, -0.14149608481543036, 0.1066384010202694, -0.08066254801343743, -0.12071885247899038, -0.020647970203264494]}, {"class_name": "NonLinearLayer", "non_linearity": "Tanh"}, {"class_name": "LinearLayer", "lay_in": 27, "lay_out": 1, "weights": [[0.05386964702345012, -0.05598802537785473, -0.14723229651138636, 0.30596589508305383, 0.28665269353230205, 0.09798800012264586, 0.14064130259817736, -0.1289105050376763, 0.1212268615530098, -0.24610185939196147, 0.13771699460908118, 0.33356153175737957, 0.3882339975738735, 0.27041466784799817, 0.14606979631482855, 0.08105683728763645, -0.3664801689960191, 0.34506969417042366, -0.22715147267577573, 0.6142197481681467, 0.2657737766262801, -0.5249113980545335, -0.33979102199277106, 0.3441878648208928, -0.27322501414183187, -0.0976609702892476, -0.009987205518182595]], "bias": [0.20516285500288198]}, {"class_name": "NonLinearLayer", "non_linearity": "Tanh"}]}