{"class_name": "SequentialNetwork", "layers": [{"class_name": "LinearLayer", "lay_in": 27, "lay_out": 27, "weights": [[-0.1278613384935839, 0.7136826331302606, -0.40767350856975304, -0.22818808121396844, 0.20702167208485012, 0.3055523727153975, 1.0269800157211146, -0.18815394311812303, 0.4821063740372992, -0.26605220941767327, -0.03986475424817126, -0.5226712394241293, -0.036508000741035024, 0.007531704547186056, 0.031519090149361065, -0.44764227765534303, -0.014595891115625587, 0.061701596396205746, 0.012529664466845903, 0.40488608417281874, -0.5225983346416786, -0.050428075784444956, -0.26452750594007457, 0.04483513716530143, -0.09112686152825483, -0.9614448462548124, 0.46256803952243675], [0.20793673425715942, -0.023582544830087954, 0.3530994447516085, -0.35049745542999594, -0.05841992577433523, -0.22070050628747231, -0.3942426330885686, -0.7640770728087846, 0.17945379286808455, 0.22813613041535105, 0.26051345126530584, -0.17534691065011562, 0.12610466849625454, 0.517172019247939, 0.17034307128876652, -0.08591841309539695, -0.07228598537721671, -0.3084047042487881, -0.04766664672460013, 0.23070109483202342, 1.0056396868183506, -0.39939158038825956, 0.004468971390169414, -0.0726558086810593, -0.38954885536770956, 0.15789058849612636, 0.19007154649148872], [0.6528721072277894, 0.8482952592884787, -0.5495159524075099, -0.04495150379943712, -0.284522420070451, -0.12466871621750662, 0.9247536075668694, -1.2480137576648491, -0.20501545207958888, 0.0784682315112424, -0.24583223210312677, 0.059609652916166905, 0.044109915363088184, -0.08643553863788668, 0.49681168595846004, 0.07890324412640286, -0.2635236870400063, 0.12435610579554075, 0.05580812814626066, 0.5069952931355953, -0.1910251755004608, -0.10441878094313954, 0.4886566543262038, 0.11658572758887491, 0.6612465918311364, -0.6279513289794453, 0.16032558410032297], [-0.4942770200539568, 0.04524880130515526, 0.07824295392056504, -0.3521103033623062, -0.0020873432319761433, -0.4051378272197031, 0.37068685045704264, -0.8529386921642342, 0.5326882919489593, -0.09409672809599724, 0.09999841501254102, 0.25271197798717143, 0.11982454649053305, -0.07302918803151609, -0.053643510503918204, -0.09641473473768801, -0.24056594770184178, 0.10605339618745627, -0.6168111410194586, -0.3293944832256251, 0.17573305067238026, -0.2295483132738142, -0.1384938815960738, -0.01141752543973301, 0.5662868688357139, -0.6700794159046742, 0.427097228098945], [-0.02366691744053035, -0.8973611543772606, 0.26757120125722533, -0.3689287196459782, -0.39053995524323054, -0.4721432265370468, -0.23692471577675067, 0.41080392961984563, 0.08427484041768092, 0.28221392605891116, 0.10624332301353717, -0.08539812970524087, 0.22598395677105726, 0.049880141409201204, 0.4367375932176239, -0.13855103302062893, -0.24263739370816373, -0.27146702114404747, 0.2028425257107427, -0.9959727331471068, -0.039416124994621556, 0.4135463739803462, 0.2212467558969111, 0.10619407740686809, -0.061365187410688284, 1.2507092044093406, -0.11938139883093293], [0.9318231611733042, -0.16843827782964835, 0.39099659667474773, 0.06807614533313767, 0.913001783960891, -0.03430050753068717, 0.10294177390084229, -0.3228364367349217, -0.7712984981209459, 0.1069340619615284, -0.14643796546098256, 0.1904908203322129, 0.14792610584328023, 0.012353593443141485, 0.12739257022298345, 0.1268690482905875, 0.43308577846564816, 0.5294608468960899, 0.4392932210869662, -0.2651604873788814, -0.2489356523757678, -0.05373064315883834, 0.5535381909232897, -0.3129347258946794, 0.0039860504750406775, -0.3218836163736575, -1.3516266823435226], [-0.025357174698842598, -0.10744051747695052, -0.46934772338745134, -0.4512968059812626, 0.8600691353054669, -0.4302644265629873, -0.04116293135380598, -0.4071649948397871, 0.6366935795730422, -0.28138178234277833, -0.047492769592394395, -0.05606618619832928, -0.16769856555914117, 0.2144346156571573, 0.0946144096937392, -0.018339154685733144, -0.17910158891911376, 0.0868038016567413, -0.672547207780143, -0.17177927662050665, 0.04283354533809051, 0.29250734190304617, -0.05131979964452949, -0.36709241125307135, 0.058795057508379905, -0.042478613762477455, 0.6060375994326935], [-0.15931959210362187, 0.5072574657089666, -0.12538736246313628, -0.4858241073994773, 0.14012325637009437, 0.26671246060023257, -0.9385726185432605, 0.08773124326790008, -0.514359963106936, -0.06553737768002038, -0.14372762580810575, -0.2615783502600167, 0.06499314353404902, -0.14723036879621038, -0.10562723301354937, -0.14742864543034026, -0.06935202579443615, -0.015617057998377502, -0.1848907768251086, -0.10253370740763883, -0.023470179646810023, -0.6386920512813756, 0.11819696242199539, 0.5878004223378783, 0.026888467004296094, 0.568553273900109, 0.3367631164567433], [0.888649701110793, -0.13182397457597178, -0.657495285804754, 0.03739190471895582, 0.8080824261131667, -0.3493386594636507, -0.46807986921412315, 0.10646960043776973, -0.46962145671898886, 0.01874109953791364, -0.3148041037052435, 0.19750550104650474, 0.08002257928860948, -0.028035775959062682, 0.24367039949799058, 0.07360768664952952, 0.10975585588002282, -0.33866712379735786, -0.36866112244684274, -0.35544767209817846, -0.5471260668709692, -0.188930333505146, -0.09186088596352716, -0.45410533332956166, 0.928379861007744, -0.4082310935844652, 1.512221581629257], [0.23559372165045547, 0.3135402684234143, 0.0685387612861521, -0.7856931330443573, 0.4221263291071912, 0.08983869031206551, -1.4041143372612839, -0.6771631862311205, 0.02471460985742659, -0.5722980817119401, -0.14486759275468028, -0.1818026261234171, 0.0797532920165613, 0.03401046884330114, 0.25007190131433754, 0.41744710681701985, 0.319391216540864, -0.08889813860791466, 0.5253898456739692, 0.11676823212699596, -0.13749097577541353, 0.36269527440978583, -0.1027152200719889, 0.08025453259417069, -0.60017533018086, 0.580870442228433, -0.7332574763294769], [-0.3767141910312422, 0.21979121557270906, -0.602073990196073, 0.44418726614911663, 0.17380312280110907, -0.10987522306008299, -0.35509342758968054, -0.6037936562794166, 0.4254564262445589, 0.170344352477513, -0.23923219666500745, 0.23966260064805958, -0.11164785657760358, 0.2231881708448835, 0.18695044021227128, -0.04395887246251401, 0.03816964762141059, -0.1510455722102293, -1.3048424095113835, 0.5679136885377154, -0.07098205293615314, 0.417548344494778, 0.5564986237474395, -0.5925930712471872, -0.3784740741337921, -0.07159667162057547, -0.19243897437960938], [0.7267281321267112, 0.23181474510914618, 0.007524006592735835, -0.14629635262211807, 0.14819740316069765, 0.2912541303577383, -0.3486908370783679, -0.6427078182226279, 0.23334204565204344, -0.23481975555514864, -0.3447146127348854, -0.4786593558677266, -0.3534811724596167, -0.0849360915054223, -0.17834975871156095, -0.17450328661541478, -0.7114171306285291, -0.12073911751778461, -0.1575437692951726, 0.05699346233410471, -0.854474748703296, 0.10448317848285406, 0.658477315978444, 0.4499535890992742, -0.12534923582608964, -0.163733340557798, 0.17701245264740886], [-0.6838073002477818, 0.02655568286196713, 0.06791637289507745, 0.42357276853380244, -0.9779135258726778, -0.0034093562483426764, 0.00839454765677376, -1.3047018444201637, -0.11547643121012, 0.36280982592585986, 0.08065258856671466, 0.04576679424968888, -0.3740542917322399, 0.3536812200767237, 0.11132716178127516, -0.1504605583929018, 0.04263397245774359, 0.1805052251286909, 0.052929755483784535, 1.0223864894152421, -0.34933320488320607, 0.6638600036103041, -0.3685495711012546, -0.7651838533254314, 0.27292773108111906, -0.06003515328354244, 1.0821192545343017], [0.2304821888578941, 0.019691456697280035, 0.08487354625099253, 0.09764687637035627, -0.7124765704752882, 0.49114625017578206, 0.6002093025354732, -0.029732392238837172, -0.7466391943455173, -0.8486453161874394, 0.23513323449813572, 0.18207988756530108, 0.06205580616116873, 0.013395749441461277, -0.1254291167235086, 0.17596779377919256, -0.22513235031915738, 0.4004699746158485, 0.042227493632605966, 0.656729647052672, -0.2393744771060437, -0.3213810581973925, -0.4415072479459, -0.08736903398650908, 0.5609966853867115, -0.4903526968239676, -0.06668091398223293], [-0.22655809752939055, 0.10520905880471607, 0.17563200216748326, -0.17606820852694213, 0.5115142739306062, 0.23118054897615456, -0.16348122212851937, -0.285138509573476, -1.0064644968493444, -0.03455401064097874, -0.23361194691353512, -0.25215727207971694, -0.01085781601886918, 0.5674715104829869, -0.06241679580727677, -0.0771207124520944, -0.27796540726375796, 0.35953585997951254, -0.07863663938091028, 0.36865190447145807, 0.26112878472996, -0.019560700254493895, 0.23083334529774563, 0.14089613194247858, -1.1092350518093717, 0.45011193824462153, 0.07428016010782883], [0.5709368499848515, -0.08838506225236542, 0.49073017231737515, 0.2799569622120946, 0.08381639804039122, -1.8267182037714826, -0.5430988641571439, 0.028393231541781618, -0.18971286955348715, -0.10539127725617925, -0.07800611781460924, 0.014890366276016071, -0.21729492111880488, 0.25065283808221867, 0.25886632837989826, -0.16016781670369323, 0.06948742170953795, 0.17103703993581187, 0.6886845599714364, -0.5412451259232925, 0.054856366450874924, 0.6570591250993396, -0.4103210082394793, -0.9066851030681718, -0.38950284765434456, -0.28737595251805487, -0.30261513865172485], [-0.13740324545448504, 0.3457830279119932, -0.28609962982075166, 0.1237592692765278, -0.5040806351730184, -0.7464120023638721, -0.6579564414673731, -0.7510885332663843, 0.04658667918475845, -0.03727793067823522, -0.03772687593762605, -0.5245359048967275, 0.10509144854551604, 0.10953297392436759, 0.271364498399737, 0.3125650907588876, 0.37843006229662884, -0.37720686171536655, -0.2609555876680321, -0.29361346982534003, 0.483543958648878, -0.15746211738932628, 0.008753879661739116, -0.24160388438723876, -0.10783409800504805, -0.7458538630408708, 0.5172325258295255], [0.5130728840733524, -0.05108224182644512, 0.4331360999630204, 0.1263360253707929, -0.6784783382572753, 0.9967917854052085, -0.31332282392537475, 0.8006718167107151, -0.2847644904443456, -0.041795848152050834, -0.033064912964943856, -0.0492778402813694, 0.16728450356951066, -0.3196210274667012, -0.26896891710216914, -0.10619805752056347, 0.3333340228526118, 0.3485088923878332, -0.34962226521031464, -0.5675196749253851, 0.7886662087156253, -0.131615301278717, -0.6108557181882439, 0.7167048187108735, -0.21585888972889697, 0.7384631020435534, 0.3667667194592847], [-0.5032340948331001, 0.05933624729855808, 0.7714413778623498, 0.37080635410377966, 0.5620020306939535, -0.13860787003103892, -0.2839226489778169, -0.4367816564462133, 0.627500075105116, -0.0680348831564991, 0.05704833012673066, 0.11723110839233006, 0.22497375447681314, -0.36689486311389075, -0.15759012965542757, -0.22760508143371203, -0.17950582154911476, 0.24942890246683805, -0.8988528711854283, -0.20101523243293345, 0.6993451634821523, 0.03452763395678143, 0.06618999575750684, -0.8322383641400285, -0.697682428745265, -0.07495681562557693, 0.15324387082585322], [-0.008356432436714677, -0.46603594703934736, 0.2806325868027468, -0.4758319848576237, -0.5989235326442807, 0.22853904499668531, -0.34453877872771466, 0.601072798120584, -0.008040213775112194, 0.1898257844639342, -0.11940881407572852, -0.15914751785164802, -0.34768549952483957, 0.01516664545383447, 1.0581214691835819, -0.16044902383443221, -0.4705795638776179, 0.13035311606929514, 0.744303631712783, -0.13940236792722874, 0.4696873867425892, -0.660128816540348, 0.6287213537656924, 0.21495530463074822, 0.1684370841886075, -0.4280580329662357, 0.13680698176773784], [-0.4028539397569458, -0.35535857339757526, 0.10200940331873866, -0.3972832534270639, 0.54542016397333, 0.43624992645388244, -0.5178105534178089, -0.5728003347806304, -0.1598298663081572, -0.38444347534113904, 0.05638673843791835, 0.011203031311032566, -0.1712614255363033, -0.462803339758648, 0.014178997417749339, 0.15821114485888513, -0.12439271614054287, 0.35264937149756576, 0.14173538162189828, 0.24863065768154155, 0.7312016566424289, 0.5627008109600464, 0.7848590736022661, 0.03479522306267237, -1.206893626155589, 0.521455553055375, -0.23729826215655772], [0.25210457981613293, -0.12282253855937965, 0.6516302481693301, -0.5512283871808283, -0.048113303926951956, -0.44414718355568045, -0.40153382845482133, 0.2899384815535938, 0.6463063033226142, -0.17566962999520422, -0.2257084383803754, -0.0874329917875619, -0.007800910296557829, 0.11329499839264243, -0.010322313194503694, -0.0682291872741922, 0.11484680707268481, 0.01741900061082647, 0.011509650240968184, -0.6530951034529379, -0.1261114433387678, -0.3470143125538021, -0.7097096122873575, -0.49128740384294206, -0.26993897356756413, -0.03780030889110591, 0.02476959825053369], [0.6914201526327386, -0.17090835197393528, -0.8122729386865261, -0.6030584612925349, -0.2127543746879554, 0.5793304578893193, 0.33892945248200657, 0.11250587758771587, -0.25813654978450845, -0.1785607823396714, -0.1656181114809991, -7.822904660197452e-05, -0.07907226489025654, 0.10104012306540269, -0.23785815526138415, 0.010631622503319749, -0.06239802082130314, 0.22625297095580935, 0.8509117940451397, -0.1298755341596239, 0.06332598522162249, 0.40939362391556766, -0.5559145444025508, 1.0670975488237224, 0.6243900713128379, -0.011006164094290834, -0.9434339726110592], [0.9814613848207093, -0.008695350766573968, -0.4649555454150295, -0.1511239873345464, -0.43356142021125305, -0.10425257868894976, 0.16939414503401015, 0.1546533828727, 0.04723063988853508, 0.1574407220653533, 0.3440865485460811, 0.555578394155971, 0.09369062079612467, -0.3197094304970901, 0.03964768062013074, -0.11954543130727843, -0.05675007838439347, -0.3042045786775485, -0.4951520319166747, -0.37250762406222715, 0.6678569228875455, -0.3885750040378705, 0.4355077648632974, -0.04755017592943648, -0.03675613435943698, 0.5186253930221985, 0.8398024308586438], [-0.026678617568078256, -0.30119675790751627, -0.08712163262799597, 0.3437059342263826, -0.4695311490976844, -0.0016712996594628734, 0.07298169628491351, 0.9842095263905942, -0.04012377533009572, 0.05295741035734071, 0.20943733702872683, 0.4359946107106952, -0.0059907085107911056, 0.5714318395071103, 0.22988378826701908, 0.06931925836890995, 0.16279682598582498, 0.20335623491020458, -0.028331260209668706, -0.8365135805063741, 0.24002996256734838, 0.09215241973436339, -1.0912530692617748, 0.3240562402432691, -0.4096262135948774, 0.7524001224397736, -0.0764183481226948], [-0.3191103386025185, 0.6991020294076611, -0.3982640990362047, 0.16132665973937943, 0.6001488402156506, 0.22727121829335972, -0.3995295548642516, -0.20548977975382438, -0.3473528630683674, 0.08735749144209058, 0.1380536883205788, 0.07926316517488974, -0.2536382563111453, -0.11173483925210773, 0.0836341081172699, -0.038474511580387324, -0.19620155959521768, 0.045248563899210004, -0.09615726182241176, 0.49098646620616454, -0.47937934415067346, 0.34366745176182634, 0.3233543763036541, 0.7638077844212243, -0.3597535952756357, -0.312855484156457, -0.37583437170375045], [0.4844192437799463, 0.6722627278079983, 0.07804565819987246, 0.3992751901229796, -0.39038611999486433, -0.182563320740773, 0.28059187672646363, 0.6758537695157916, -0.6605934789421599, -0.2334736724445162, -0.09543040906638309, -0.28557415988056517, -0.3648973254756533, -0.27641234704517126, 0.1494020514728698, 0.10522830405931001, -0.3420132791228851, -0.3358751713761293, -0.03139254782769644, -0.18879247376532396, 1.2755877157673385, 1.4272116893673537, 0.1631955097264779, -0.35703632086418735, -0.26761168320379836, 0.41129648369029465, 0.7254270118521458]], "bias": [0.15791680957521317, 0.308237282602588, -0.2181013592883853, -0.1648447182156869, 0.01640254044209698, -0.16077329213627717, -0.21066233674323354, -0.10552494438468966, 0.3379218195515602, 0.13834045574926906, -0.11024119069666338, -0.04630671552478335, -0.18491551098889542, 0.041359344563441064, -0.032962062299585634, -0.0899285812171769, -0.16584978581587112, 0.2431165215847934, 0.12563225545291073, 0.13477232676528034, -0.1255234593798211, 0.1322546146426115, 0.04865426989166551, -0.1437214976610926, 0.2332811267134277, -0.05954847243985843, 0.2342372656388821]}, {"class_name": "NonLinearLayer", "non_linearity": "Tanh"}, {"class_name": "LinearLayer", "lay_in": 27, "lay_out": 27, "weights": [[-0.3005285988055314, 0.12696510868685684, 0.2532483667128379, 0.21504616300653345, -0.4750344815665237, -0.5112581916454103, 0.16949141816580812, 0.015777273587769626, -0.540292696002587, 0.051461544567837116, 0.10080665303799245, -0.530713840796754, 0.014236283423354633, -0.3167554446336004, -0.2649633741748424, 0.1587876361015216, 0.15162799979712271, 0.09798426255488418, 0.3769065681092317, 0.3241460518633854, -0.7945460006845073, -0.1182269035137719, -0.6149351339638048, -0.1431673324608882, 0.22507854081077236, 0.4228505307653411, 0.06695673286066642], [-0.33381348335414657, -0.10189869897876215, -0.07369975657659283, 0.1918570155797381, 0.4091111944179539, -0.1741449913698091, -0.04747357023735526, 0.66476323107392, -0.5593732322262528, -0.5474987065264794, -0.10492912871958568, -0.4309823440411614, 0.23798054320479736, -0.12260326287423418, -0.4299446236456017, -0.9280550209185182, 0.043619227254604105, 0.31591990251897645, 0.1897293464444861, 0.3974920207165024, 0.10358490072185046, 0.12068218042541795, 0.12653088764914017, 0.1594989840620027, 0.2928813705620011, -0.14996587838098793, -0.037918356679422005], [0.20290399759684877, -0.03206385962441122, 0.64286281059898, 0.24453772120651388, -0.5003221260813695, -0.45055835980813314, 0.11105390953257491, 0.030895713766648483, 0.28810252123111246, 0.29273515949795165, 0.10895406588551738, 0.10871702665623188, 0.19833571273972733, -0.6496180385337066, -0.2022878679086623, 0.4470503910251971, 0.8643091472762507, 0.17630910652109405, 0.12415735532817192, 0.2829695082915624, -0.09009337808054167, -0.4964676881555686, -0.03148539194644952, 0.36333150233619765, 0.030332092327242537, 0.22419830632176738, 0.574670976478377], [0.31815782516017765, 0.6719235317706506, 0.7315693122468961, 0.4011801444011176, -0.6076548689898729, -0.19966496987375246, 0.6068281633245268, -0.3673157462396354, 0.9932066072002657, 0.12230776247677297, 0.6609417736950183, 0.3847370660048195, 0.2510332102838435, 0.20958157287069468, -0.49147499695826263, -0.8955934699342418, -0.13444065926997126, -0.30337856295056276, 0.13394499214044617, -0.3131237371179466, -0.33000977395648373, -0.0780229746864068, -0.07699427669772482, 0.22684222226809636, -0.16575954151475464, -0.0020023364840142132, -0.7435567997235328], [-0.0061161345523665644, -0.013759298501630386, 0.4523425853352502, -0.016370615222123738, -0.23340718989984108, 0.5500573425703043, -0.25869542742816687, 0.10677449466713401, 0.12631025519809935, 0.1668145283037155, -0.042107774978344684, -0.10822092954320249, -0.37340602746583795, -0.32509561075254556, -0.346557241795658, -0.19839502412968807, -0.36810236033777277, -0.012272184907717637, -0.9001714693240774, -0.42416450338716544, -0.39606594629568337, 0.23950868288736268, 0.7282755634304351, -0.30828530907137885, 0.14083796004957858, 0.743954314957693, -0.4138095295070366], [0.129851878749018, 0.021462373937835205, 0.11825289939134709, 0.28413153946097425, -0.5620424863060595, 0.23281411904359325, 0.10410228546413071, -0.11872123815564703, 0.3722500880674891, 0.1101839553377249, -0.15652537755270193, 0.32177192166708807, -0.6812462092134532, -0.3287966930757425, 0.8147739168912609, 0.04741053821753329, 0.07902530491001637, -0.4108661426133742, 0.2900952755482454, 0.08145079858132016, 0.6077983630025316, -0.04179936742127417, -0.7763909280336799, -0.7505142198606115, -0.4768339981480303, 0.0647689464707659, -0.24248039400392318], [-0.17071612517690338, -0.24763338775445173, -0.3889696727334166, 0.512993508463799, 0.618587796654966, -0.4876497003068337, 0.38453446071955705, 0.48442613766369225, 0.10654887463249539, 0.18780769260816255, 0.5348286654293397, 0.38680947097530805, -0.13063644764064997, -0.3221165572227467, 0.23790314511882146, -0.49910213858428276, -0.23944063451530354, 0.06994142461662088, 0.3723527625003613, 0.27383934158657725, 0.1555171149601041, -0.08075314560528199, 0.4046406873197067, 0.0018119913070506588, -0.3370566938846024, 0.06730153950917356, -0.9951386707490449], [0.2965035682205514, 0.5665075435816879, -0.1827020270236851, -0.4532914083286299, -0.23545829157458384, -0.12066088780077996, -0.0557181960298587, 0.22994936420244982, -0.37964057882083946, 0.31160994840394246, -0.022768458563580556, 0.41820227057935966, 0.16256557590010468, 0.10418147773443666, -0.9077160882012437, 0.8081270588695472, -0.3061418060199485, -0.0797321591934213, 0.08713437244349653, 0.10792456851549377, -0.0010025215955809113, 0.5826471842467259, -0.06909203283093406, -0.5076452097641221, -0.14287882384855302, 0.8861296615660048, -1.0213050484811794], [0.5220456376835118, 0.17815253274571027, -0.18696004040318023, -0.28583939685528864, 0.32016015610699683, 0.21088537249458114, -0.019766153732494032, 0.062134719328692245, -0.44889880964459605, 0.4830354662507056, -0.3669539933434107, -0.3731565459011236, -0.2680115006322221, 0.04006325912906515, 0.7011131677600068, -0.035778460622098926, 0.12948195424159872, 0.31529953341325, 0.45890072342071686, -0.28715511548705697, 0.35639533543148494, 0.0712073549462244, 0.001460595100448338, -0.4045158419106701, -0.225375233794081, 0.18689403256935758, -0.2707113055494933], [-0.060854790305945546, -0.32597211097894463, -0.6559339069754441, 0.5875133188993699, 0.5115614443823168, -0.09369401143922143, 0.13400581724182717, -0.34085624688182176, 0.24451478319137296, 0.40738049961263867, -0.30722482784663907, -0.1923085966321213, -0.03689770754841175, -0.5022966131685942, -0.6507107835249393, 0.2665550653186663, 0.07698991089507916, -0.5879413884462052, 0.6523959617782042, -0.14095402641460864, -0.763892236506889, 0.7382715620345508, 0.12123150287170077, -0.6244084093177631, 0.5107527787430455, 0.1761552580982556, -0.5417244094995626], [0.06373259512059312, -0.21163794558054566, -0.017549775221886003, 0.03646652082624086, -0.18523683938803243, 0.2371790020888007, -0.44911946997822744, 0.9377007884645346, -0.09118631206858394, 0.285168561894337, -0.09045515004425579, 0.6340577395625412, 0.1066210662396375, 0.23908583562652566, 0.5326246260005284, 0.2471400920534139, 0.5050230949347523, 0.1157819620096416, 0.13504255849402336, -0.34296871531671214, -0.259789801114773, -0.22054750935448889, 0.15194660759112397, 0.1814901365093619, -0.164596365260703, 0.35434427959249887, -0.05801930660730185], [0.08194730333783934, -0.14915911317860356, 0.22636589919565162, -0.1954540444877338, -0.531500413769207, 0.970507664450985, 0.23406934086457878, -0.20377254872166575, -0.09074968428323878, 0.1087554325258846, 0.23203493778364423, 0.09807278328735838, -0.07394300611532276, 0.22241045727506606, 0.030536804706496327, 0.8632295733440573, 0.3135764109149835, -0.5359683081563692, 0.4048490611496667, -0.2794588420534405, 0.2626491068143848, -0.11105967769676654, -0.05863008006163375, -0.1452291483388442, -0.5802462736581624, 0.24184565537842168, 0.17857070987324478], [0.42571006800628725, -0.05604206186111691, 0.007154685778920712, 0.11485748430606549, -0.9166845201518882, -0.3759222805671679, -0.494068368582675, -0.4752688396263214, 0.16651552315354906, -0.776101313920488, -0.4598007778383574, -0.1297596196211737, -0.6327316851835948, 0.5676371503523201, -0.42174244921893794, 0.029113336642001223, -0.10358981576292606, -0.5868745789161571, -0.4333938768742719, 0.5756589177352492, -0.7310299953107682, -0.06259656774520972, -0.08292610939175814, 0.14398767359481845, 0.025381337153735237, -0.4121528700538563, -0.28118872100842124], [0.16434703663194766, -0.13772367880827407, -0.10746976604092762, -0.5505498452349352, -0.198369782475209, -0.8001185081701828, 0.1220554495777863, 0.3371759593242437, -0.14429347966185863, -0.6548998970515897, -0.06593027794706142, 0.21078457416729207, 0.4944273816951682, 0.18393576771620537, 0.3333269396848854, -0.49958340321468586, -0.1623524595515246, 0.5214413718273755, 0.40468884465830673, -0.08067894342801744, -0.8712433396161834, 0.08262186215463796, -0.7404746927308863, 0.07030290079245288, 0.5804021014820582, -0.13916464024794817, 0.973677050198561], [-0.10855101017338456, 0.4433519139009862, 0.40798526088668285, -0.20473468827895425, 0.4420092537991288, -0.8515111059007694, 0.13047625606770896, -0.03236151343175041, 0.3662430675343816, 0.5853031588768774, 0.34787042902083065, -0.26238233314710874, 0.4221498394814984, 0.21118912978974883, -0.4873123008688368, 0.4608458045655097, 0.15260104877380623, -0.13545250263073552, 0.3300940916846069, 0.7739454496798421, -0.15228704368786283, 1.0843278618522567, -1.0593369039930283, 0.15262826595989698, 0.17813566730928482, -0.05685269120749115, 0.2941873410940567], [0.9493414295811099, -0.27202996390710893, 0.5733506825313053, 0.19819565083172552, -0.425307033978229, 0.092623401009805, -0.19961705542395902, 0.3261212679465778, 0.864288649627084, -0.06719353604157523, -0.24209913515783513, 0.2534457897993845, -0.3191994609475553, -0.1277944910996447, -0.24260137822593428, 0.5606640235912327, -0.5112375395849047, -0.10837711599777515, -0.18166409168804454, 0.6348031776720986, 0.4732473831329701, -0.513987846129212, -0.21146561752269358, -0.2746335099223895, -0.08021292534387447, 0.49468181192348826, 0.05235161069952903], [-0.3802200581994833, 0.22173606331701345, -0.2031593637443167, -0.07332226117576142, 0.2636393486142719, -0.08322989668838013, 0.19126217989681965, 0.4539941732148261, 0.34524078842795664, -0.1139937983905349, 0.27544262821498355, 0.1038001428512554, -0.3958527891953744, 0.0687269944359321, 0.23144372257853055, 0.5596435105564643, 0.4508480850244858, -0.2548700341655692, 0.3948830418874583, 0.0641741084526727, 0.33468749931709607, 0.3352922533440127, -0.41795144463359046, 0.5087121060937279, 0.11515302450949338, -0.168193765237962, 0.412338378800835], [-0.6321714661181936, -0.30765369810956456, -0.9133468561412538, -0.6215119144138039, 0.6315568477690505, 0.6366259280703561, -0.27074386012614926, -0.5337829124759963, -0.31299791159993784, -0.06486762037898307, -0.4238025618666972, -0.1476573317983628, -0.6413698430027014, -0.6224455786884484, 0.3154766733300437, 0.6475950321637703, -0.2533151670518733, 0.368190518841738, 0.11716198517566281, 0.16223412518898975, 0.3103229180572492, -0.04972967774014274, -0.3461821509488879, 0.10473286522932085, 0.5262424705844533, -0.885091787275651, 0.3404367158148828], [-0.0030147363233631558, 0.1671085423968787, 0.48518903422577486, -0.548188605013221, -0.21778908463800517, 0.24458928473291422, -0.7519510815000752, -0.49256191597554516, -0.5498407456747242, -0.18151187494427068, 0.1877374505683362, 0.10347666358903776, 0.5057640390188851, 0.7362540912344503, -0.03790137193881123, 0.015399137453596484, -0.2854579904486629, -0.4682114415193375, -0.09594487836995, 0.24973574122601602, -0.5755157172966506, -0.09363341629099978, 0.4139599702316462, -0.6399485104033611, -0.18511639241382555, -0.0014899522307106818, -0.11006308119840041], [0.19523045276398732, 0.17871204466079552, -0.3562276677059551, -0.693490719981931, -0.2092060787252159, -0.3343615638984115, -0.03943065442934021, -0.4110616859818018, -0.11786453800503874, 0.3206321336871134, 0.11469365080070372, 0.1587910237476382, -0.37327358422759227, 0.44393621157348034, -0.12894144506995703, -0.15149349659490213, -0.31318247951020295, 0.07738567547763851, 0.06091835723097754, -0.07500762631386407, -0.36320164558540663, 0.11029760912412144, -0.14210183741849436, -0.10529095497418203, 0.2113552808745531, 0.0029394899580159053, 0.27587948195872664], [-0.1201933646354492, 0.4056589967387149, -0.20138900923583364, -0.034597246374564385, -0.16894967995627488, -0.2176365498563935, -0.35903111707705665, -0.49053757146307575, -0.16881996177960923, -0.09477771069741484, 0.07188824435714937, -0.7586046601957381, -0.18563167227281474, -0.6624229323750053, -0.6750912339556251, 0.46720790243998994, -0.27197347023530644, -0.015419384652666688, 0.43713822456766077, 0.0670135563399215, -0.14002758409692143, -0.22356930189479302, -0.43720079844332144, -0.6150173623724903, 0.34035132484073244, -0.28647114778364496, 0.9508305627267127], [0.2551885522558478, -0.25903295685784705, -0.0692626492453665, 0.7136986571695006, -0.3458889374564902, -0.12925080247386872, -0.09553852919335154, -0.1815771876218913, -0.3166650197050961, -0.30558494744087783, 0.7553270313709951, -0.26489632818656944, 0.39512590468507236, -0.0012831217150132297, 0.15754573486862417, 0.4426926916393678, 0.5082801834327145, -0.2661452546698594, 0.4005217147017533, -0.32663193711707245, 0.011711970044701822, -0.35860596341645945, -0.7221675989835106, -0.4684666462548743, -0.11927699779301953, -0.14303706535569305, -0.34914170642672476], [-0.14783601338592847, -0.35000378776939983, -0.12081823621302372, -0.5810633873745201, -0.5706718810796623, -0.11094528546163185, -0.26256498718315724, 0.1155193900246274, 0.17364333440750077, -0.009873479471947208, 0.5005526791925003, 0.04045566282202936, -0.36695637968867656, -0.039369906130925086, 0.19819654225582123, -0.481294436657197, -0.31557031286921755, -0.1527843341159588, -0.14403152223201288, -0.06744751576553962, 0.06150852409510827, -0.5501916564855086, 0.13117446503536764, -0.1978809615256632, -0.045959713961361996, 1.119285109348435, 0.049858180763058445], [-0.3454741528741809, 0.5748595765247069, -0.27155801387421497, 0.23160887841230837, -0.3968477240578344, 0.3277587548525656, -0.249091858480412, 0.5408146826608151, -0.43258178422749943, 0.6896841139422387, 0.31221029759201563, 0.42185748373400617, -0.4524182701095519, -0.41078591687803134, 0.41355057347088925, 0.04099060912135494, 0.03252757689451327, 0.2855728750752876, 0.6849852736577832, -0.03455645433080267, 0.48330433520354865, 0.2582678740623958, -0.7135567666783, -0.11833229868644629, -0.30930554519829007, 0.4451349950477893, 0.2868011367664752], [-0.5590217523605294, 0.6367028427681185, 0.568132482544628, -0.438303770051898, -0.041055674702101495, 0.37743297615473187, -0.2936024046211339, 0.10731587933183219, -0.28411299748183955, 0.5674562000628122, 0.3388594132348718, -0.40762601385800984, 0.13570070404065807, 0.09771231182747336, 0.23221205576615037, 0.5848830666962398, 0.2763816121436646, 0.6746045117076109, -0.5031312858253534, 0.5507479831274023, -0.517735615573696, 0.3458920808278831, 0.7075960176968766, -0.5247420226078937, 0.20393066496708417, 0.09684084843466689, 0.2544179938796379], [0.4785254868551184, 0.7366157586911195, 0.09200953733439557, 0.08817127386942107, -0.9924321245975014, -0.13291050179042074, 0.0888162131169853, -0.08611548043142848, -0.4757782971275979, 0.5409046368061089, -0.42548173298259956, 0.11539224179452541, -0.08795472857837379, -0.1566596423645365, -0.043549285451288576, 0.11296347555330007, 0.10654253764648584, 0.6573884446685829, 0.1812670445477023, 0.0938560006211689, 0.09532546167988845, 0.9081543332035966, 0.042511453629642926, -0.35927926423937934, 0.1502608858801193, -0.08079343925338853, -0.17528701642663505], [-0.2624568154641006, -0.08485513197488495, -0.16122393797205942, -0.15101630006659986, -0.6932204779573321, 0.2774395501170755, 0.37334649778991585, 0.10815020853092465, -0.8215160983111823, 0.22964785992523157, -0.22631974313047307, -0.17011104262058074, 0.20769858605053285, 0.2551600477493904, -0.016936707851147804, 0.05686138957504152, -0.032649106695189126, 0.018540572580344326, 0.438187453300672, 0.24954170394357683, 0.04227908983795832, -0.1464128043341332, 0.3090655462977223, 0.3147884469905605, -0.1483103108607501, -0.5305006057285083, 0.16471017010688385]], "bias": [0.37127678411586795, 0.034756560668643584, -0.13809766020593206, 0.1589724362785483, 0.3934167196189495, 0.12412381134328827, -0.03650723205104486, -0.1588547137185724, 0.24656382056346524, -0.1533152239193001, 0.17312617657487006, 0.04380428906398997, 0.1962405345014229, 0.563401594289952, 0.41266855727557833, 0.24898257031906457, -0.31116665415380623, 0.1717922936868782, -0.12230039990936709, 0.4633342973845634, 0.4303515012545711, -0.3007711888903035, -0.20758122892939912, 0.15594768651936117, -0.1027750551629793, -0.15412843713090485, 0.06441049261428314]}, {"class_name": "NonLinearLayer", "non_linearity": "Tanh"}, {"class_name": "LinearLayer", "lay_in": 27, "lay_out": 1, "weights": [[0.04768324309048906, -0.08665497636705874, -0.1710192807510354, 0.3200709299022937, 0.2744974596149623, 0.13066620924649075, 0.19482905605882703, -0.0718905949961338, 0.07953534273123228, -0.22273482807877196, 0.18738360665780798, 0.37262883053536927, 0.3863504881399318, 0.2693379615408593, 0.19775058521841496, 0.09611080040731858, -0.35265964121073146, 0.35353005394305753, -0.25360538052208065, 0.5918318715220086, 0.2591117921613787, -0.5431359606548234, -0.3688367267476426, 0.34234186858703985, -0.24079435177959937, -0.17679601203168552, -0.012247943247716846]], "bias": [0.21242830602227186]}, {"class_name": "NonLinearLayer", "non_linearity": "Tanh"}]}