{"class_name": "SequentialNetwork", "layers": [{"class_name": "LinearLayer", "lay_in": 27, "lay_out": 27, "weights": [[-0.040759207228068785, 0.842833134528127, -0.3448503093422067, -0.22380857085868971, 0.1244992028875829, 0.21836752005743973, 0.8924955371443661, -0.23172462705258184, 0.48915617710977, -0.29365694456304775, -0.047710588578932484, -0.47291697768793056, -0.07271045309071801, -0.018881654837207818, 0.04308475573676242, -0.43110412449648294, -0.000727591924284898, -0.013602963767370392, -0.06325652782654735, 0.32361123063371855, -0.5568800634785044, -0.044003227993173785, -0.3009884550181485, 0.11634558959626877, -0.029099698100182477, -1.0705984925518297, 0.4327083842611076], [0.26931105751541773, -0.01161674145158452, 0.36693675795405684, -0.2690100285975883, -0.07305201721077256, -0.29901686835716856, -0.5000300118259358, -0.7644324919203078, 0.11691164476066415, 0.27814214551478766, 0.20839959558585783, -0.2578224127158475, 0.08611449105562144, 0.5501035088448548, 0.04850038331197719, -0.11109630608363111, -0.07067935162836707, -0.23719938414398103, 0.022062985792856295, 0.15165847591486042, 1.018214813915985, -0.4504288925134515, -0.1326398100445957, -0.03170715115654967, -0.4238147782857717, 0.11289370854060955, 0.21688254307470262], [0.6222511524511275, 0.8370001624754854, -0.5011847303057959, -0.005485515674861815, -0.33052005162761733, -0.2599653587266092, 0.9154338782773571, -1.1933116829226036, -0.22672355958903279, 0.08988918746285451, -0.2794783036991645, -0.007888104093846823, 0.044305921884637854, -0.11184152816245475, 0.4141047602215296, 0.09127285620859661, -0.23636945482884694, 0.06924980497353932, -0.030633633466861272, 0.544464204948079, -0.3016884233329595, -0.14255308255883514, 0.5765386287267747, 0.18469909010668642, 0.6523215374074615, -0.7461664748603122, 0.18895571856193505], [-0.4795366925477841, 0.06777294643700377, -0.00560111377450482, -0.4337569445756236, -0.061672175093224944, -0.40461036580839044, 0.34561282811152644, -0.8641609045746272, 0.5056093504321589, -0.09048666000933143, 0.06069107578773953, 0.14862217987879142, 0.1099183783182449, -0.12215943227433429, -0.04888728583019798, -0.11720441794441074, -0.23997562578255316, 0.2026279304045723, -0.6802748853362979, -0.3640760819507918, 0.13099852839238055, -0.18124952857274526, -0.05054312253095824, -0.03601417246368479, 0.5469399970738761, -0.7600183603519721, 0.49520312470042505], [-0.09841494827994259, -1.0710565484610974, 0.24578350617586467, -0.34639414272125146, -0.3914910149056792, -0.55831703512077, -0.26501837770241954, 0.43219269963510354, -0.0038054959606630342, 0.23108210641065538, 0.1004362079994376, -0.16860509276245048, 0.14791998892644637, 0.03799138982429511, 0.3604334290458022, -0.19119322810607306, -0.21270798354512183, -0.22963112125407867, 0.19600620177272665, -0.9132509262422189, -0.055410365857738536, 0.39747142075190617, 0.31656964846923463, 0.0015323242921238599, -0.010484009708515336, 1.3048208976009128, -0.20001620346917365], [0.9977497471301694, -0.2426600101500836, 0.26385574305153475, -0.02272347669175022, 0.9318022434136236, -0.16821918267238153, 0.0765195829040099, -0.3434394556805636, -0.8130750769033979, 0.05679783945017439, -0.0024581890311601144, 0.13807950270757827, 0.1197828427741717, -0.01700043663740201, 0.22657332753541864, 0.014037882101864237, 0.3101715248145283, 0.4323788538394389, 0.37632876576159047, -0.3155401003552065, -0.23862164101208186, -0.15205526208613396, 0.5404316569627332, -0.33607832773672347, -0.05390558571232943, -0.30808974220078605, -1.4472382639892645], [0.14268313254998766, -0.1438688022291463, -0.3688914869744601, -0.30183407117232003, 0.8671080219578614, -0.4740573201047593, -0.10988922462493983, -0.3926040092887247, 0.6500458138059367, -0.21325260679854152, -0.0027928989983187916, -0.0379033169927115, -0.21523059162467417, 0.24960351812289955, 0.10475064693967118, 0.060520848093028316, -0.16728755422641917, 0.06015854693748221, -0.7487213256661762, -0.13756508330831754, 0.029662752703217967, 0.2507932985882179, -0.002689357919422095, -0.3114638302772038, 0.06580130788921476, -0.024547512177027817, 0.6118092399860321], [-0.15371735107401582, 0.45669721656400886, -0.13267278119681986, -0.505926369189761, 0.1346582368075112, 0.33585718902148, -0.8357040720095564, 0.03794914708312266, -0.5257852164442894, -0.015854515086034082, -0.10692605595975707, -0.18006782928497214, 0.1823440440532373, -0.12143781639487182, -0.09290904170326035, -0.160218655087481, 0.014701295279411221, -0.012631230781728349, -0.10368233482461008, -0.06381774210949345, -0.06137488545012107, -0.5583510360772866, 0.19335486200645585, 0.5901461238578882, -0.013579278750655486, 0.641909368400069, 0.3470815915381567], [0.8987183114932186, -0.11192540078238854, -0.6669498829052388, 0.05244974083513054, 0.8343522483045451, -0.4190105706243605, -0.4809904929111769, 0.1694047213643599, -0.427891665374604, -0.004056662646449772, -0.21403992461315788, 0.1638906949472748, -0.026516744491398, 0.08814393042869756, 0.18457071951480075, 0.06171741876386008, 0.27713298326404806, -0.420900948198052, -0.3823071051938559, -0.3825896012982445, -0.5240508738118401, -0.22285171059656456, -0.03606859120641642, -0.49759513772362673, 0.9300665746121897, -0.393203184857186, 1.5471982802373694], [0.11238959862003318, 0.29231959243370254, 0.015302132898609965, -0.9167112649133755, 0.4709661453016667, 0.06753051555485139, -1.1375639569325122, -0.7219191020146327, 0.023297257759967153, -0.500024687481722, -0.07074547524782115, -0.20763289361337925, 0.10159700645225984, 0.04583458813474108, 0.21115422313043902, 0.25645388199543395, 0.2741372906692285, -0.18251414787264292, 0.6558197526798034, 0.06135788091232569, -0.10743386654301883, 0.3139921543968495, -0.22051900484087492, 0.05115414621166897, -0.6861817908780873, 0.5347314002709487, -0.7277640451764801], [-0.46284994932831763, 0.21985914671066525, -0.5577929396297558, 0.38033663282496594, 0.16281454041759078, -0.13438672179280248, -0.2681167652212772, -0.5836425249717172, 0.39475693475847545, 0.12486684936451108, -0.25530874164953976, 0.3041269257622572, -0.11579495664679308, 0.12767725264770152, 0.23992479311498877, 0.06126618414666921, 0.053222312213557894, -0.27942187400960616, -1.3442055161586626, 0.592449591189337, -0.1825681511439325, 0.4921441466649931, 0.6516165967814675, -0.5637711069518312, -0.3920586429939704, -0.03161944445191683, -0.22894499391401832], [0.8017454556169756, 0.17859070538154584, 0.0013118115797890286, -0.1977292408152615, 0.18055897047226926, 0.2732081441072906, -0.47571592237704213, -0.7003786177951928, 0.22562699061091207, -0.20485715094558515, -0.3653671610981016, -0.3974847301960362, -0.37503262073449695, -0.043864904086432836, -0.17662121999450295, -0.27048951548021244, -0.7501780616994974, -0.19325550727566176, -0.19420548390056133, 0.00356658152429185, -0.847057479866194, 0.09806354752225559, 0.5625240555656407, 0.46308356530163136, -0.14637100982577145, -0.18866393330775505, 0.12810087778812176], [-0.7662043807484835, 0.013612344721941338, 0.14855639903573553, 0.47240713259175865, -1.0094716448049217, -0.01962549868441373, 0.01371979145340592, -1.2743803307659172, -0.17381614560637884, 0.3543153106199235, 0.068271623365353, 0.018008619993933484, -0.3370856693275652, 0.24366365427930012, 0.11897206973305524, -0.07881128919620566, 0.0737545962975644, 0.12804496764637766, -0.0603421519074198, 1.0337497146054373, -0.3606493470981714, 0.7269416602086033, -0.29038664054141944, -0.6535017960166294, 0.29203948460590784, -0.09121726922435594, 1.1262949094982866], [0.24536511821709608, -0.010285703634815952, 0.13224494657020106, 0.181641723650482, -0.7133721250929227, 0.4108535893983547, 0.5830571784147581, 0.03808055320741576, -0.8044120994713184, -0.8790245793740827, 0.1990151297191845, 0.1853587938141486, 0.020850211894818952, 0.0034853220275884366, -0.17094340247623613, 0.27947987808588026, -0.16985987979299189, 0.22591462435938423, -0.013682912717710036, 0.683700639951106, -0.18965190296647197, -0.2614352587843347, -0.5070976612644283, -0.01379340006561445, 0.641013498282203, -0.5573164958256976, -0.07786626125202618], [-0.19548736466418906, 0.03659206463537696, 0.09690651776081721, -0.28566366658055037, 0.6251653182122798, 0.2606595095856429, -0.172789020544313, -0.33392436150470994, -1.0117257424974178, -0.070435259435241, -0.17559655578495525, -0.17896425858553208, 0.07141968318216319, 0.5000374956120668, -0.035185946774080594, -0.14096402389102944, -0.21062164353876986, 0.39050761198430584, -0.08467698752688695, 0.3463039073453551, 0.28583153981255277, -0.004752219882469654, 0.2971862370499708, 0.05597068967427656, -1.096644873891809, 0.4817882902676961, 0.040083599986688874], [0.46985098524987123, -0.11344503506645096, 0.4354327658842573, 0.2787874012828191, 0.1051038999977957, -2.066998086359489, -0.6342959612797109, 0.06842709856614644, -0.2549469143053237, -0.13155819203889477, -0.10698282561637647, 0.06121234052590326, -0.1409904770888246, 0.2709889226898793, 0.1541704923289549, -0.13668160988932887, 0.10048022460715336, 0.14618205174725618, 0.7008880416401893, -0.4962114707947455, 0.23409554440013022, 0.6255783698037828, -0.408591686850163, -0.9938269103214528, -0.3326083232572124, -0.31342681297650626, -0.2815495232179038], [-0.06569229723911943, 0.323982214537882, -0.3035528222964021, 0.127534587676881, -0.5008328500863317, -0.8318359390620619, -0.7796400477840824, -0.6983474589444258, -0.00252525390466316, -0.09210962986808646, -0.012339025818295877, -0.4537869996778474, 0.19790425116489585, 0.07448829828163894, 0.25646794436910747, 0.29792635365322057, 0.3934893952308038, -0.2913929927824522, -0.37369911955897583, -0.22702419314303238, 0.5009619135621863, -0.18160945011582258, 0.062470489632485283, -0.22392604052501866, -0.11149094228759791, -0.7385650010440279, 0.5747162259867858], [0.35296116300858454, -0.13125222687368504, 0.4181584472596657, 0.10185009948246534, -0.7634880864524601, 1.0290534827429063, -0.43585655610959956, 0.7941824923621106, -0.32670926861798943, -0.1058736834750948, -0.04549066698575619, -0.16924505027049644, 0.14146121656530544, -0.3555884866462143, -0.33243468114613234, -0.18844575739783181, 0.2251993855082004, 0.4641977321042008, -0.2988415052470673, -0.5855004891375961, 0.9058943279278325, -0.1408390367000766, -0.6974464471232409, 0.5831405771387316, -0.22850286713504492, 0.6048322411895737, 0.3989917194342876], [-0.5228107338613528, 0.05487951571517273, 0.9038419029338329, 0.36170394879899737, 0.6357303739979953, -0.13795408806591436, -0.16374923541606795, -0.47952388676397156, 0.5957016634124762, -0.028891935308599917, 0.0345975680091677, 0.17791415963183999, 0.25440854708756955, -0.3463435559747919, -0.14951049665435043, -0.11304752034144806, -0.2006047391193029, 0.2994284383644298, -0.9127155575567182, -0.2127580580372701, 0.5118897960249199, 0.11819027162388429, -0.02079574299398733, -0.799183679122529, -0.7475533221848948, -0.023183898930663492, 0.15697681440379777], [0.0380827604514843, -0.3829981041711705, 0.1739987078771531, -0.47711230411578176, -0.6650917861249264, 0.22000311772417458, -0.3756235871232932, 0.664521965937775, 0.04626924334771207, 0.23715694466886805, -0.008229508583720055, -0.15325890830289393, -0.31236798007505306, 0.11958804492413178, 0.9514415959231756, -0.049036244665737055, -0.49497708545497116, 0.22415522847706734, 0.7335850970495377, -0.1026883482761787, 0.6949279155759034, -0.6681334978152857, 0.5837647266162285, 0.1334750992944319, 0.21540369886982424, -0.37031575884299567, 0.15282265863891062], [-0.41230392333088023, -0.41404346202751885, 0.09361377844182993, -0.35628585237491467, 0.5640663530282671, 0.5227418088507595, -0.602439775570014, -0.5800197270742307, -0.11541811657309346, -0.29323868132973113, 0.15738605139062922, 0.05472102771290846, -0.12378506940216218, -0.3788126061673442, -0.01494826610016196, 0.05153074235535305, -0.1436150246698579, 0.28523594408737485, 0.12241712697962, 0.2573912271590099, 0.7077224977932056, 0.5849364370650714, 0.9017992817464263, -0.04269434525875042, -1.2376990440225253, 0.6331880884665385, -0.24719571068957796], [0.2349411115021673, -0.10069741582991266, 0.6853659885758011, -0.5858715186871197, -0.11554620027856966, -0.5006039217075414, -0.4546358940876694, 0.3150829793668776, 0.6622812856771706, -0.12080158506246425, -0.24282831133603472, -0.14358858248233075, 0.0299463701336033, 0.1665832249730153, -0.20122790785044448, 0.005347519910989041, 0.06556162406077264, -0.030046586581182515, 0.13303547204553898, -0.6421139865331833, -0.12301240284310189, -0.4667102115216073, -0.8192234853149959, -0.46829820228676455, -0.2540706550049023, -0.02600396931340284, 0.0007281454776339086], [0.7196431006189317, -0.1693022318264872, -0.7925626349585586, -0.49308181882349145, -0.24133849810591862, 0.6053456615341406, 0.3873442500251171, 0.20327765772779158, -0.2801703314624779, -0.1669526212657988, -0.1315762668300239, -0.017053953290613145, -0.07978403353821689, 0.12011535838996902, -0.27301696269119574, -0.0039059292169254176, -0.09377046158668152, 0.24220500423475894, 0.8700372504097672, -0.09086317794548046, 0.1419900761846401, 0.41010138566151244, -0.3952478927147456, 1.1326901092661128, 0.6530072960095703, 0.04798395103936971, -1.0079187005955552], [1.0540962068643642, -0.048799188636695884, -0.5558179130700338, -0.03813442062599409, -0.5494283759144947, -0.1516325605044565, 0.11007095510639985, 0.1477268073725547, 0.04530858978830065, 0.09089486150290729, 0.3576172790545564, 0.5305771462558678, 0.02101341451606921, -0.26798150133838633, 0.016396392744408735, -0.12247396929319307, -0.08209693327071274, -0.24821155305629433, -0.4333880117070022, -0.3169942608092466, 0.6829210585126785, -0.5540382379880526, 0.5547113855937644, -0.08000042229620091, -0.04350616874783688, 0.5714900925155572, 0.7093989807627766], [-0.1038828602234772, -0.2868204423011075, -0.09311519735828072, 0.31398722736475987, -0.49513835387255334, 0.07215093876176362, 0.1313402015844833, 1.0491101428114626, -0.04808107540389693, -0.0027931440291170066, 0.16648641979954243, 0.4188266068436462, 0.060969566115011954, 0.5870212109536622, 0.18915120037384495, 0.10679202225352302, 0.08265986118061523, 0.24468422605989487, 0.024300285542245646, -0.834935011475845, 0.20645914086903852, 0.0036239006302005825, -1.13826073751409, 0.21528786923648377, -0.39731639706021515, 0.7893126916281616, -0.015760667486563892], [-0.40831999532827545, 0.647207554397607, -0.29245047331959384, 0.15756103735305965, 0.536388715555193, 0.14952503124240135, -0.33926482570583266, -0.17151631916458465, -0.2958424489448592, 0.006038532213156972, 0.20063568944526008, 0.0339690870004404, -0.10981700623875039, -0.10786221053431273, 0.19428659755011354, 0.043526112065087365, -0.26949154463093516, -0.04595484258146392, -0.01730866723504069, 0.5015261800705912, -0.5498727430509155, 0.37435002707201004, 0.34901549497389717, 0.8511707905021906, -0.4155651519689752, -0.2509426856335932, -0.4396032560817098], [0.39480157381929326, 0.557127016391898, 0.09576289543116576, 0.3748978711153172, -0.32090556478442767, -0.21049187580833253, 0.3218220544708781, 0.721009831855172, -0.6838533035198983, -0.23405188533872787, -0.1326086796327697, -0.28177831443116147, -0.3111360706312388, -0.27145066998640627, 0.131632759374037, 0.07369066387507069, -0.2976228239493344, -0.3752357206372673, -0.03383019081574751, -0.14004499343247076, 1.2242513102588681, 1.4643945546878678, 0.08651649525212571, -0.3712446962757137, -0.2652080143441134, 0.4518478908433008, 0.7486739617159291]], "bias": [0.16384743564644572, 0.32652545816014744, -0.2579384998785813, -0.19422656301502195, 0.015203085245535094, -0.2495384415930427, -0.18481104192040365, -0.1324370440997669, 0.42986306431423116, 0.08111293540677561, -0.18335813208330218, -0.025955641861698932, -0.2121077431199155, 0.09938559340730167, -0.06989922529146424, -0.0707527465701884, -0.18810493810725915, 0.18268544416013338, 0.14063260719288112, 0.19990313840824606, -0.15471545135643908, 0.13434973876778736, 0.11382973269158206, -0.16244269098607675, 0.226117599021164, -0.10311383389582805, 0.2848313029132335]}, {"class_name": "NonLinearLayer", "non_linearity": "Tanh"}, {"class_name": "LinearLayer", "lay_in": 27, "lay_out": 27, "weights": [[-0.33766900679255973, 0.04665136747899089, 0.27274909277174975, 0.2851565423107094, -0.5112092088824428, -0.35121168738030045, 0.23255447502336732, 0.09602158821618306, -0.5454124972239215, 0.058301582640585575, 0.09858475034892887, -0.4680983594526116, 0.049971558749830364, -0.3508732571430402, -0.2519713491639496, 0.20168645606229113, 0.21040259249095147, 0.04199220778347625, 0.41981953468379274, 0.2740144083893643, -0.7330445860296105, -0.14526947285767447, -0.658469819676856, -0.20061209589370382, 0.14529756841943825, 0.4515482098381984, -0.022330588807332033], [-0.30545001780825193, -0.13732609039996663, -0.02067313913386488, 0.24080682098716957, 0.4136051394195049, -0.19235486637319682, -0.006520046781524057, 0.6787507639659028, -0.5383967173660424, -0.4716551233856169, -0.1111968764082786, -0.3968412035124705, 0.2593341804830964, -0.1653060728426788, -0.48377225405407775, -0.9455109607228851, 0.05861719711315868, 0.3460500080049134, 0.21389897569399946, 0.3214790987893758, 0.1137720966099366, 0.1638242762980808, 0.10662315809162587, 0.26431585287540554, 0.24944375785176695, -0.17889781205979546, -0.04556846470826542], [0.19843137138371686, 0.019921409976625715, 0.6422476158889244, 0.24171546655790346, -0.5466124089198587, -0.46646245816356285, 0.07672637039872476, 0.08161664642400372, 0.2683251002761367, 0.34139179173647777, 0.08375529476285463, 0.11548691265916658, 0.2226852222283928, -0.6461549419539948, -0.17675119264635641, 0.4302539896118812, 0.8653079616986665, 0.22281573120836368, 0.18606730474256736, 0.2457638757199875, -0.06352649659808096, -0.4775803440084151, -0.05087672771046009, 0.4237707694692346, 0.009282753222819889, 0.24283729326932788, 0.580527373330782], [0.3450148239572073, 0.6128784629420682, 0.7812577872096728, 0.4314431303030047, -0.6663176150870451, -0.11834068455456294, 0.5602319078428664, -0.3952676492321605, 0.9849536758787841, 0.0953194470666788, 0.7151383926280226, 0.3836359693075833, 0.22264561548859518, 0.25870760378028185, -0.5022307534393704, -0.9002788473378563, -0.09878041971029719, -0.33394429059726527, 0.15300873119282424, -0.28492238497324385, -0.31393762316833695, -0.13495361876889944, -0.12083026581166754, 0.24456903954164666, -0.2004121648834831, 0.054693725920770514, -0.713002539899252], [0.048186451874901046, -0.0717272573817527, 0.4875334552988563, 0.06212393775887946, -0.2715289630900939, 0.5887943142698602, -0.16138788950521327, 0.15848790965121187, 0.18573578507136806, 0.10709523862098634, 0.0199452789984814, -0.07293978784406184, -0.37717485977858745, -0.3279926417792438, -0.4078599393596059, -0.22682889057386635, -0.30459367015068534, -0.04293961839223781, -0.9133069595360718, -0.41814000253965705, -0.3970809746009015, 0.2444688978236488, 0.7496108251193015, -0.2892679583758758, 0.09014915594440047, 0.7718707337170732, -0.43954353582409794], [0.20555668148019363, 0.06630671086016036, 0.15187233995103688, 0.322823158887048, -0.6240173361241376, 0.20165327309209918, 0.1479730708453304, -0.07073788391702937, 0.3230802954742499, 0.06657499204359163, -0.15454627006437738, 0.339881022008427, -0.6808708169356259, -0.3119953445639853, 0.8812988754343597, -0.0032446715294276508, 0.1109565163402931, -0.40519123992873074, 0.2821900783527634, 0.12148901654548785, 0.6162845352688174, -0.09021610177214494, -0.7587330753533027, -0.7331259280133101, -0.4498390760578384, -0.001576499552206576, -0.26589070637935575], [-0.16054099673431754, -0.2694875421211608, -0.36385987513743734, 0.519357658250994, 0.5491885572149524, -0.4798008048166483, 0.4146604307339045, 0.42395478971523026, 0.10673220461510322, 0.12472234753603813, 0.5447990160009362, 0.34744749993144075, -0.09941045245032706, -0.2633549773480205, 0.24846160726751865, -0.5302477319435477, -0.2513171317915942, 0.0594397577593999, 0.3568044291096332, 0.243041361498873, 0.13020387286360113, -0.11469111738896963, 0.44951702276731004, -0.11152025192598508, -0.3186743839619187, 0.0842491577757625, -1.0452333825754765], [0.298960816920642, 0.5466448987135898, -0.1559137045329944, -0.43470724183197995, -0.3081453901831752, -0.1496835792464941, -0.10133675991053437, 0.2128312837806263, -0.32825109603382085, 0.35282993088115067, -0.013654481943535246, 0.4624541303654777, 0.2322791455301653, 0.11719184510585105, -0.9738546974151453, 0.7886482066762881, -0.28065038549480426, -0.016877114581923095, 0.10854738282786994, 0.037171846577468144, -0.017305643319635144, 0.5757570112362598, -0.08469207209153075, -0.4644744615699955, -0.1660610599183679, 0.9183548704699739, -1.0518166818810324], [0.5261049387756609, 0.13479614737704745, -0.17719513082854657, -0.24242187365300127, 0.32051402928597, 0.24534246159989354, 0.07559630828526054, 0.09973721825656257, -0.46778261478260447, 0.45078602562918896, -0.2772194501398127, -0.343279829669485, -0.26928167453076435, 0.007236038524625247, 0.7498098614749535, -0.0036353759630124347, 0.1876543313542707, 0.24935829767990528, 0.4753873865148425, -0.33483260791020264, 0.38560055037438634, 0.035568772068242806, -0.04454083986588141, -0.39306646839327164, -0.2464009361790069, 0.22567033280922402, -0.2767773244392388], [-0.008359777643113053, -0.2827279150427854, -0.620910590827355, 0.5775784191540745, 0.541468664571067, -0.14178696602669003, 0.1342228678702586, -0.34193783694473945, 0.2515678382760494, 0.42933719509434526, -0.35368490146226295, -0.1905514028436342, -0.0460860564017463, -0.5360349392727832, -0.6842869822922737, 0.19500655136685935, 0.03901983774022179, -0.5958504278650142, 0.5843761439676936, -0.14807425665543544, -0.7822968160333807, 0.7711910513207978, 0.19875447060948118, -0.6208732758624045, 0.5142598498897514, 0.1772856572556933, -0.5772518686116836], [0.10916962556804269, -0.28581358146100516, -0.03326596202111287, 0.06712014343016248, -0.19428122963799999, 0.2590872930740088, -0.40074926098926267, 0.9647867147920499, -0.16552157673311857, 0.25458382910931676, -0.09226756488723407, 0.5811544695751304, 0.07119449317714208, 0.2804303348973821, 0.5950987105549133, 0.23834387033939128, 0.5209050752837222, 0.06777754784210807, 0.08788364773748884, -0.28755676113865586, -0.22730499777288501, -0.3038906881106176, 0.20777675692042638, 0.13557262436987094, -0.17498054719901562, 0.34360482588264746, -0.09319688280563979], [0.080181700103583, -0.13120612385843425, 0.21595045907629795, -0.2477642858311991, -0.5364998900941241, 1.014688143602396, 0.24403362731814665, -0.20645044396212509, -0.148976467716489, 0.06134826225502435, 0.24541837891470186, 0.051616420789942594, -0.07680763931304448, 0.20026307231118748, 0.027345852845649676, 0.91169143801672, 0.30342357623893285, -0.6304459313301894, 0.3781581778738854, -0.285504788897143, 0.24493984464125715, -0.1696882339878404, -0.041995619458621986, -0.16354238134120117, -0.4719340789696744, 0.18171709115437146, 0.158552095796385], [0.42907773436818536, -0.008389415774303355, 0.01312645992992319, 0.10549476470548157, -0.9905675861650759, -0.3824546608790828, -0.46792665334185046, -0.4602312362278647, 0.11781798639725921, -0.770864235549896, -0.4391876615344216, -0.16788870564421518, -0.6410245751157063, 0.5381215522287334, -0.4184976823081042, 0.04086080499257089, -0.0263133407044441, -0.5624499566316924, -0.43731049856070675, 0.6143019026462431, -0.7388546436026444, -0.058129160324814015, -0.066938365933955, 0.18538992941559004, 0.051590314178427674, -0.41354336505560046, -0.25672835843429576], [0.13145078166952887, -0.158102080662372, -0.15890274296025142, -0.5781337006397042, -0.20632355198312433, -0.7175453740578861, 0.09116167425433144, 0.2567706652159958, -0.1363360150381419, -0.7411513920651696, -0.1379287218351517, 0.1294380141768183, 0.5104401525047945, 0.24702713923395844, 0.3460028084212465, -0.49685189940166746, -0.20052277777719857, 0.5351005378984481, 0.40333482568609674, -0.10997894599311578, -0.8806838287293376, 0.07625452992056174, -0.7422197819810186, -0.10304670718632622, 0.6453736603365217, -0.18833446883660443, 0.9832865061518958], [-0.14022260585215024, 0.37485494634202654, 0.3505221131783305, -0.17043056795092054, 0.49893001658684955, -0.8553665092392483, 0.2147021589883076, -0.005933725799969528, 0.3761119605667438, 0.5649596116139952, 0.38020761161803013, -0.2741182105532022, 0.41194013607036695, 0.19447635171713626, -0.5228018092732438, 0.4876648462160255, 0.18756994506480779, -0.21910398630627664, 0.29311569396421966, 0.802888746098391, -0.14491437761810827, 1.1780057823750454, -1.0372739641942665, 0.08423723457228002, 0.1744660305087112, -0.07796351269334734, 0.22749139930152495], [1.0129573677890409, -0.31395115572264126, 0.6034602326550941, 0.25569898181977896, -0.4371509191494736, 0.1318323865617913, -0.1373261835456121, 0.3093765154705192, 0.8640688251873684, -0.08065618509234856, -0.16984716514109707, 0.2500762398686493, -0.3359166725999031, -0.09991181358905307, -0.237797009860469, 0.5284907265089911, -0.5146315855584486, -0.16353168214342237, -0.18768182395142888, 0.6365662074554553, 0.4911175676109994, -0.5186303247400098, -0.18365208520111367, -0.3080877238674211, -0.09973530277191421, 0.5500878600830953, 0.07120575230500288], [-0.41738227065533967, 0.22359090062546075, -0.19717762335185263, -0.10141697801005785, 0.34014367218008373, -0.08731943421891976, 0.1997252673194775, 0.5008536974412521, 0.33480582975583695, -0.021728593763697263, 0.25890895682965726, 0.1701781757101603, -0.4294853287434074, 0.07172753662004096, 0.3019007938657149, 0.5433258946016747, 0.425229227439929, -0.2806367815420953, 0.3327629121270575, 0.05175725942095157, 0.34995062426273454, 0.35739466602177, -0.4095961419397391, 0.5420953401860763, 0.10393851145354908, -0.15768948330170715, 0.368349242253165], [-0.6399036365861507, -0.357868780740733, -0.9527738114249373, -0.5717527404595346, 0.5877485353232815, 0.7194259289682184, -0.21564075000984306, -0.4757391895410346, -0.24362229840253827, -0.05258829764450234, -0.35303571461351785, -0.16245020225598708, -0.7501226263439486, -0.6136277021958688, 0.3121849907780362, 0.6120485543095874, -0.2188084659026441, 0.3551015538680794, 0.1346321839938934, 0.2176675868875112, 0.3948455041137966, -0.06978843094710445, -0.3438557148881929, 0.13858669321472117, 0.4778001701336515, -0.8854510059729315, 0.28779857606038367], [-0.0074274877878359215, 0.16142386174876774, 0.5304281455494709, -0.5226532039471184, -0.18160056561633242, 0.26386342751759095, -0.7764256773900934, -0.4640906899598285, -0.5769995304552319, -0.15125157044297655, 0.17228116469661944, 0.1239539452937133, 0.48436631728058177, 0.7717937554096688, -0.022754386641236767, -0.010284034255442746, -0.327790302001005, -0.4541792178085863, -0.10130207075034135, 0.19978785326860485, -0.5689644244808303, -0.10859864677465696, 0.4074666078196074, -0.5757700964253877, -0.21286460040783317, 0.028617182501444318, -0.10948761259436554], [0.2104047051439499, 0.24046930857049348, -0.32878447217658613, -0.6835370137981102, -0.2682987476163979, -0.34111366573410484, -0.016280790083197196, -0.4317819468000221, -0.09128041734904302, 0.23398147481801734, 0.06489625781579397, 0.12149937600649129, -0.3618005280490569, 0.44610422836119923, -0.10543447518349838, -0.15306183120157754, -0.31740180162869036, 0.013160534489244426, 0.03934431291701109, -0.06452835152717776, -0.4022206007907961, 0.1156919073187631, -0.13574442056374236, -0.2089114185911235, 0.25093347766868407, -0.013521598658390185, 0.2605559896662265], [-0.04021675282218633, 0.431076796220022, -0.14785227329267359, -0.004529066996186311, -0.24414493994571954, -0.2859550010014516, -0.3235583407500714, -0.486481469372531, -0.1868114396430703, -0.08936233160393825, 0.024073427807185896, -0.8027157069492941, -0.12374429555337246, -0.6151815282237185, -0.5967776385864052, 0.40377475091313836, -0.2796433958928895, -0.03396485976052361, 0.3924138047770058, 0.05573219608769111, -0.1742633062719501, -0.23202289750204552, -0.3909406805103741, -0.7475995286592741, 0.39371316466067846, -0.288687276559055, 0.9682673953336679], [0.29945657904704814, -0.36735015636073637, -0.025491156924458205, 0.761951857935818, -0.35345523533953566, -0.0927532140486129, -0.0814779698114272, -0.12051585505239563, -0.2733906855416862, -0.22912393217639163, 0.6951963988841721, -0.224401415720764, 0.38329476124250866, 0.04416686796241899, 0.12067560189323619, 0.44580044679270375, 0.46579325121921944, -0.2496486177795892, 0.4147117927966399, -0.3755443720927316, 0.055780302783384576, -0.32973804245344945, -0.7207860908335025, -0.4388219044708186, -0.19609863203750058, -0.07255337117989258, -0.3393002637770391], [-0.16956682864423742, -0.3642737266458052, -0.12285171979459478, -0.6201488247469534, -0.5112878131912733, -0.1392991498345618, -0.28157700279771514, 0.12071680997795113, 0.15636943699959158, 0.0950268069206614, 0.4368148085370944, 0.04037748089299673, -0.3874517506584935, -0.002576665691935507, 0.1729784192051316, -0.504270460460446, -0.3496805833775244, -0.15957316207196906, -0.20672336664490612, -0.06098056670592579, 0.05720609674043449, -0.4690774914273726, 0.15902749729627827, -0.21062016568940398, -0.043748345596146286, 1.1079512630599342, 0.012373318378798442], [-0.29605203416985837, 0.6042450637091185, -0.29382599406394116, 0.23111882039088585, -0.4433500480685385, 0.37393934218371216, -0.19542416852190111, 0.5701420525982331, -0.47799018277925037, 0.7148969338127527, 0.30312605006089427, 0.4249025175533396, -0.4220695652093674, -0.4654415435025553, 0.46251869284322494, 0.005696562694849514, 0.053219488444710965, 0.28529305854817893, 0.7525128723245934, -0.003599211912509146, 0.5374745178263969, 0.21963092075851068, -0.7282653407624707, -0.11520695869025818, -0.29457928157464924, 0.42808243801894424, 0.2809084735777822], [-0.533324090976309, 0.6039513848459409, 0.5444274234689817, -0.4965830460196439, -0.018841345720047874, 0.3139787338841201, -0.32056930955870006, 0.13867300115712713, -0.31120910609578506, 0.6247814477104205, 0.2929316953857382, -0.43932037560295234, 0.13715768624805064, 0.1414702305241573, 0.2587824613106156, 0.5823416567281547, 0.2830028683575016, 0.7203502386498929, -0.5361318323950425, 0.5202313444130273, -0.5160996487562074, 0.3702556302092119, 0.7274418033214995, -0.4703254103341507, 0.22631688004328843, 0.07659759058897939, 0.2820826413484715], [0.43676777015599666, 0.7732915140470384, 0.0934546282827525, 0.07698160431858672, -0.9777226837239279, -0.1307472819598252, 0.030702940835890567, -0.008253635592635488, -0.46658686746168937, 0.6250143655253119, -0.45164267066379304, 0.1474614705742852, -0.13206947742012434, -0.15041402570182072, -0.007698747964940601, 0.1297149790163878, 0.11423625364995776, 0.7639013640952069, 0.1826113293338784, 0.10643360921558959, 0.09275169494921845, 0.9462250768188146, 0.05511156958459613, -0.23748468690111524, 0.1483330038755597, -0.06581704633660952, -0.14114476119446642], [-0.31953708262879116, -0.1031020382852088, -0.2608591730314226, -0.19686858468452603, -0.644553945357336, 0.3160876075167808, 0.40292588964213244, 0.10856875844459177, -0.7344306236070351, 0.1905377582832689, -0.17914694259080088, -0.16012331263532784, 0.2832109821085985, 0.2337654075748508, -0.023684544915118604, 0.1067969870895564, -0.04407750601920626, 0.10764291492916857, 0.49686421763481925, 0.24185856643768402, 0.007485684124263355, -0.1323240568314717, 0.23416100701530707, 0.2231236689419752, -0.1262432301518951, -0.5041778668765474, 0.24314338943211364]], "bias": [0.28668954392266716, -0.01249551390068848, -0.1420216412243572, 0.14177495407158308, 0.3378537770628468, 0.12956848886600922, -0.018022266370590012, -0.2065682269563091, 0.18882429372072068, -0.13146429984328992, 0.1455389551129124, 0.05069320291051307, 0.22143926744267176, 0.6062066601194719, 0.37672162752144267, 0.23426795711201184, -0.35170052873090724, 0.13317995797520976, -0.15350971431148977, 0.5294747010483297, 0.4824558175023378, -0.3497045220385639, -0.22778049694348743, 0.15489531505831153, -0.11102709235405579, -0.16689299827215126, 0.08653279255713889]}, {"class_name": "NonLinearLayer", "non_linearity": "Tanh"}, {"class_name": "LinearLayer", "lay_in": 27, "lay_out": 1, "weights": [[-0.001170515082515954, -0.06738115699734916, -0.17434894632407574, 0.3059766917105713, 0.23902708941635756, 0.13639807050603028, 0.15112019695192155, -0.11320011145140685, 0.05306797788964224, -0.21805439031040136, 0.17163381099574176, 0.3825583884350041, 0.3721911216366381, 0.28658885439061094, 0.1984211177832777, 0.10331465889180949, -0.3233336168254058, 0.3701573033858768, -0.20220593778471052, 0.5939488755568865, 0.235946454392668, -0.5092973525579828, -0.3573432154537347, 0.3529973517114555, -0.2214956186202822, -0.1852447476527237, -0.020915176694656257]], "bias": [0.23243585991410792]}, {"class_name": "NonLinearLayer", "non_linearity": "Tanh"}]}