{"class_name": "SequentialNetwork", "layers": [{"class_name": "LinearLayer", "lay_in": 27, "lay_out": 27, "weights": [[-0.1326592232457533, 0.8068291173641359, -0.40886342397060405, -0.27642150891668404, 0.0658233911968431, 0.21099465553076271, 0.8218053034517666, -0.2679461128674042, 0.4981222247450921, -0.3363489535203111, -0.08966299253073114, -0.5250957909781243, -0.10536658206594782, -0.08877094107622945, -0.027070323603721327, -0.4487089156410342, 0.04955735730765079, -0.08208455878373656, -0.0931278649013658, 0.31425814537073343, -0.5920141865192213, -0.0378075069400543, -0.30262886847286796, 0.10989341437371096, -0.0945204958334836, -1.0770890597343035, 0.33566203253590043], [0.31403965119761634, 0.041574118259484774, 0.436613510766487, -0.2343408260546962, -0.06401522489396795, -0.29929957890832953, -0.5143676852663998, -0.7505752818713896, 0.15735415444652762, 0.2907676714443656, 0.13256106458977235, -0.2363166449398397, 0.04899761574172368, 0.6101562273270231, 0.08685515554949201, -0.05264648615370381, -0.06415255459065203, -0.2095675868309813, 0.044541262297965255, 0.22065208879024312, 0.9444732311426833, -0.5091757753459759, -0.09687782086561572, -0.022516678155697318, -0.42452084854162275, 0.08921230220262089, 0.22885369060473706], [0.6152155657724302, 0.8345129418775203, -0.4779540591879814, 0.008006971382217034, -0.33958537034968866, -0.27297138404733773, 0.9233639504517984, -1.2278516130947068, -0.21425833988970142, 0.09918945306312273, -0.24690272672712799, -0.04678486870981587, 0.10478949490529, -0.1486768113883767, 0.43294090153190895, 0.13921286869143756, -0.2526634590854915, 0.1228552361070197, -0.058614869229765845, 0.5467496704118862, -0.2887694524246867, -0.1867166800996692, 0.5595017491349467, 0.17646185098970527, 0.6235063540228007, -0.7688983526226989, 0.2520714261092132], [-0.45563152090829684, 0.044307536064010174, 0.009667334813626263, -0.4454847534920538, -0.06090783172016063, -0.4101950328759256, 0.37440266956113644, -0.9295236966259424, 0.5287330004279585, -0.0717972873348569, 0.07826388779600663, 0.09133919480926915, 0.15633880655380564, -0.14884094422609176, -0.03636505668232963, -0.059545622989416194, -0.25179654895618236, 0.25136640094008883, -0.6531505599340236, -0.3472126303909555, 0.20297021423856565, -0.17120561201181214, -0.09618678026264749, -0.04063578962803202, 0.5176925106519523, -0.7527422817939337, 0.5121436161723052], [-0.06311337519495469, -1.0340161106741192, 0.3216147469204817, -0.34437670704816786, -0.4088712071687688, -0.6261360675455265, -0.1828248157221384, 0.41918650936965396, -0.024265195637510173, 0.2698628435262576, 0.16207187062089484, -0.21242561330879672, 0.12901788856309912, 0.01451091539016093, 0.3686993834855708, -0.2341166301208125, -0.1347243401987301, -0.17549675092757824, 0.24495430816929287, -0.9296999502975927, -0.04346046010153393, 0.4181070957957714, 0.3426006622535092, 0.01323302544183032, -0.040594336620484756, 1.2922815687862008, -0.18264679937533507], [1.0697565893235457, -0.21851338007374668, 0.2837700470235792, -0.032343196883310464, 0.8905686874375555, -0.09876654780769567, 0.1180339894399214, -0.3564385759707567, -0.8050714868779667, 0.003708559386814722, -0.026479551609455507, 0.16189107203426115, 0.07452679651792181, -0.011524449250451662, 0.1812182664748657, 0.031859602140584135, 0.37333478322241836, 0.4446597679659629, 0.42614423662784157, -0.3524321225994958, -0.35690554936026425, -0.12189996040060572, 0.5826376906457514, -0.3379069397574625, -0.042720548650890526, -0.41228218128468713, -1.4884488690369695], [0.08697347631329456, -0.14968515031397348, -0.311054257829972, -0.2553299809979081, 0.8802894316526462, -0.47039243734554675, -0.1015108102876045, -0.40513957255077687, 0.6725368177787837, -0.1424263478953092, -0.00736912761531169, -0.06115137742511825, -0.2593931225223035, 0.29477485252228464, 0.1653585447326087, 0.09306790248359079, -0.12903233563050695, 0.00669310667875887, -0.7280339618934717, -0.13731028215547664, 0.06888265920921664, 0.2358398682766691, 0.0027514320689501514, -0.29775287780188797, 0.039149852673860834, 0.02094670686020872, 0.7615990959479183], [-0.20209632999877347, 0.5269494615709915, -0.06328704855765516, -0.4995941834627285, 0.11493615601864933, 0.27537686719681087, -0.8673039218605825, 0.03525391068044531, -0.5240378177566309, 0.0006074746681012428, -0.07982333578370311, -0.22420669490647444, 0.1286809093872633, -0.053180030864501474, -0.06813017735529518, -0.12039664779548681, -0.005978797090465703, -0.024165863276456513, -0.11152028004479178, -0.008562243527811078, 0.04556484898627343, -0.5141415142898722, 0.16703044959793142, 0.6042481581961694, -0.0914945393484165, 0.6241714717614895, 0.4349216401544578], [0.8473932576296707, -0.13674273014322158, -0.6682231596523678, 0.05106393895123132, 0.8443702035633199, -0.3560829949802998, -0.4683536859918384, 0.1656629349336211, -0.4497946263676978, 0.014561872330207087, -0.2601530451822536, 0.14996269279597155, 0.052179646002806085, 0.07580036302053215, 0.1739937471762129, 0.00683888450654163, 0.3350765034385323, -0.4285469014921685, -0.4269603909993232, -0.442198845665604, -0.4981145675607428, -0.1725493359039552, -0.05183069625764992, -0.4919721416860445, 0.8946804753616849, -0.3436408062561282, 1.5818857501769268], [0.2084363144439887, 0.31884763404838323, 0.06655704410637162, -0.8795214488531794, 0.4873890634229857, 0.061819720969454074, -1.1297595096444712, -0.6489168896862064, 0.05504835697813795, -0.456861855283223, -0.07443087592275666, -0.2061474996843256, 0.09604662140050384, 0.08548966307372932, 0.22428410148272868, 0.3053666818228083, 0.2913050172594262, -0.14136401444003965, 0.6645279943103999, 0.10535461466398978, -0.1667473876136014, 0.2461824205828947, -0.13207651799040848, 0.07061505385555249, -0.6840693348683593, 0.4220146455492467, -0.7090575111360917], [-0.5515322256821293, 0.19992595369885055, -0.5838318702401855, 0.36747675566115057, 0.1867082136046329, -0.10536487494520387, -0.2583500633317472, -0.5979248815788796, 0.4002424405617662, 0.14507102803166969, -0.2335755844320929, 0.2848752739447845, -0.12503874665107736, 0.13506763249094297, 0.2441303040148781, 0.06742633610549485, -0.02197175495972556, -0.27233980095162613, -1.355984812083267, 0.6156308996380975, -0.02453502520197192, 0.48048808071499965, 0.6177045638659886, -0.5709182524236401, -0.40625766850892975, -0.08087708199238598, -0.20592040858662286], [0.766418932101019, 0.18168478105566613, 0.06723778161489898, -0.1640432690720599, 0.13417672344752957, 0.305367083910251, -0.4973763475941638, -0.7021374586615122, 0.24445676047882411, -0.1502748082389236, -0.3642994303017004, -0.45113215151814146, -0.41391704477420027, -0.01106389661925614, -0.13610187327235518, -0.2358618673224766, -0.6793016515800947, -0.26383650549978876, -0.1308044873741999, 0.002033439440668524, -0.8989747323419351, 0.12243403947713796, 0.570503737941282, 0.4837875897767709, -0.15707023288676558, -0.19054149547946833, 0.1393858265832283], [-0.8152698591173988, 0.007816242261001484, 0.1783006623034127, 0.4940406095040133, -0.9928802959905377, -0.04923212635998975, -0.01305030129880326, -1.2858142166552973, -0.17227762326230867, 0.3746846245357457, 0.07509850795339541, -0.005991099478340939, -0.29837831917419344, 0.2265666038820229, 0.1692651831246469, -0.054570679258532706, 0.020441034878210196, 0.17221146549712987, -0.10463740244628598, 1.0536603243231717, -0.2681753560014274, 0.7201678258720352, -0.32353092987397175, -0.6309785348291397, 0.26682156771310617, -0.10412834788716092, 1.2354127931818977], [0.12260933811409337, 0.007142794171502441, 0.057875549753994525, 0.1309919492028986, -0.7999309098561196, 0.34730127567868657, 0.5780126930548223, 0.043501135458495585, -0.807483975130112, -0.9076471945899658, 0.18641775957922388, 0.1503252908044422, 0.023216533195502233, 0.0027582500607108425, -0.21964471134484986, 0.21406657900214274, -0.21558997300570745, 0.18049603879813367, -0.014547255748043574, 0.6467939658335773, -0.10473533069110658, -0.2624992420363962, -0.5455328670753854, -0.0031630387110416205, 0.5944728439361778, -0.5863928498364201, -0.14310613235823422], [-0.2597195138736157, 0.04062654900749585, 0.15676902196078726, -0.30565202626180393, 0.5817585954629679, 0.2547639092882022, -0.20732207700535654, -0.33689141455607696, -0.9914661915347026, -0.05653144210756486, -0.17901058065427508, -0.19260168933317964, 0.0105718169129086, 0.5613355000666447, -0.058189262668901225, -0.09164202577136653, -0.17884728013712667, 0.35668940180047415, -0.04664796022249775, 0.344189699933328, 0.19492736785967987, 0.01428141590098275, 0.2995595468128713, 0.05056462104214431, -1.1114662763476233, 0.4922160868653244, 0.06146698337085043], [0.517294210081539, -0.12801469866761234, 0.4364252930205054, 0.27733954429803626, 0.111269356470179, -2.077039663752896, -0.6098114075884099, 0.0862160811413038, -0.24918297121104777, -0.12307361250511054, -0.06940333947310719, 0.09012061456615647, -0.12482265469489247, 0.24710125565258945, 0.1648492715427151, -0.1045374916771626, 0.10341910821053277, 0.172983344398004, 0.7586036009832566, -0.5302649599157786, 0.15153079217797905, 0.7366327554150767, -0.39205802592688477, -1.0544634699802733, -0.33291373301342375, -0.35179395418564685, -0.2352897364878598], [-0.1225503641185492, 0.28742602931858585, -0.2967278647916022, 0.1272436060312837, -0.47127862280340305, -0.8468942447257409, -0.8290632138402486, -0.6321883802532963, -0.00044786123013917765, -0.0725071912076364, -0.011391747003894984, -0.43851439522614716, 0.17018214365505818, 0.05591618145503807, 0.2691738185385871, 0.32706652635998257, 0.3226072716536012, -0.2758938057799675, -0.43284621659485034, -0.21002528558006425, 0.5148749049572456, -0.18634377975812594, 0.039001614888509124, -0.24607689169717262, -0.1015021579054378, -0.7384142029545534, 0.6090826281849802], [0.4189561360829745, -0.06311748371916519, 0.5061226668047831, 0.14631883669772447, -0.7247428248315907, 1.0263034538151004, -0.4525877182035, 0.8764947463237999, -0.3043709952582929, -0.10329764141911289, -0.03962689599315996, -0.1387543009851041, 0.10538471345933706, -0.313989932059544, -0.24123277787386166, -0.12138523992030045, 0.26535317559151583, 0.49039392382482705, -0.25944003156645457, -0.4899865636030244, 0.8385044984883456, -0.11647661479907376, -0.6219038218554628, 0.5739538544204791, -0.24993755938673345, 0.6370305302487725, 0.4559157251080806], [-0.5832697746514478, 0.013227449407062818, 0.8980323796739964, 0.3645139134032482, 0.6029408787449373, -0.15719817050452659, -0.19119985887795712, -0.48179895142771884, 0.6090727769685648, 0.01710362982866165, -0.007640272915824293, 0.11712670551798736, 0.1836681401291131, -0.2980820952820388, -0.140025367633625, -0.056003592526532066, -0.2276429261358833, 0.23768331257203112, -0.8843263312833157, -0.24570313338608482, 0.5784427440292209, 0.11839653415098829, -0.03382271213354349, -0.7996201919046867, -0.779522409288625, -0.008714188813968486, 0.1275484992544646], [0.10845653985757259, -0.33394182351696666, 0.1382968787246617, -0.4714723037263233, -0.6895696455718984, 0.2077363390946552, -0.36721147579727426, 0.6553956858366652, 0.022860657580972117, 0.18723577376021275, 0.011867917209265727, -0.11436507077236398, -0.29123934302148896, 0.10694112704184883, 0.9447448985050173, -0.06909292960884891, -0.4367578935607592, 0.2430373210941172, 0.7452766340745615, -0.12668530644235482, 0.6649930019809748, -0.6634409471599605, 0.6073828855839196, 0.12551707000801895, 0.21948989606130956, -0.361678992275833, 0.09076522774597241], [-0.4098957326485781, -0.3971546759162148, 0.15835620164735445, -0.32065627572473737, 0.6085115860763679, 0.5575308986972912, -0.5902729344092654, -0.6171329319143456, -0.0920646422457102, -0.2580474917144038, 0.17374285541468373, 0.06442509749137076, -0.1688731811146711, -0.358677321956249, 0.03541161532384511, 0.09552522358887551, -0.09800430961949562, 0.2604841371004941, 0.15727200622871168, 0.25671706228998825, 0.6251471491957901, 0.6325936246428804, 0.8939233493556203, -0.013528753559959859, -1.2227673646291695, 0.6419602953479958, -0.20045180551374028], [0.29627757186450143, -0.03905009002047538, 0.7435405467007904, -0.5641629337557689, -0.10311721433200666, -0.519023396602509, -0.456010252228047, 0.3146812837983051, 0.7027126894012206, -0.11437207204059695, -0.22553833492249284, -0.13679511919420162, 0.05310914387678824, 0.17344869535594987, -0.20098598626886593, 0.05968356707672527, 0.1044906320169557, 0.0318314662283781, 0.17699048814236265, -0.552634653510847, 0.017672790726501485, -0.4890482685943888, -0.7436335540255086, -0.4666239707269136, -0.27369591447149566, -0.04587713236854118, -0.024705328561649708], [0.7216843150053339, -0.19984049667606468, -0.7761074597383683, -0.42053887241516197, -0.23277068427246098, 0.5911628104890397, 0.38786753280383607, 0.22946830901771353, -0.3284894508457641, -0.21456533452181684, -0.0821849610355023, -0.04627257990987392, -0.04918598327156193, 0.07677172357264637, -0.2395902254760679, -0.08785097810270207, -0.09638414134339918, 0.2973796225819512, 0.8376076561716042, -0.1703135212583039, 0.19361441214360658, 0.4183452939076389, -0.41904917319197954, 1.1159820369958435, 0.658198959521644, 0.03946393587683973, -0.9061452869288918], [1.003116420176362, -0.005147737213876284, -0.4753245492391273, 0.012580566203059161, -0.5030079647904755, -0.15190684975360194, 0.12360330558200207, 0.1564089344902707, 0.06960269197422403, 0.19283212794270593, 0.3794554851120834, 0.555202728281725, 0.05550260858631488, -0.24290304779536634, 0.09627503184633447, -0.12889796932626169, -0.07014545112012881, -0.23298174613150893, -0.42745052345187146, -0.37667364077728427, 0.6091578228723729, -0.512793540147228, 0.5516679638112331, -0.04823968188271168, -0.03491164471676034, 0.6381711387352867, 0.7725268355389894], [-0.016824479256625807, -0.23401802047857698, -0.10633879394514369, 0.28345647752184383, -0.496991209195821, 0.08444288256184788, 0.12481866318398388, 1.025535244915199, -0.06815718647377987, -0.024364682104340264, 0.1959982241667683, 0.466540787414277, 0.0819430613812357, 0.558196567971761, 0.181928144737566, 0.05646100095177094, 0.0993365301401329, 0.259737261717222, -0.018280219686106724, -0.8515264245135121, 0.24084014095422715, 0.0169034517578522, -1.1169198226940413, 0.200596193184059, -0.3496609773833868, 0.8739697537355753, -0.02552951940908052], [-0.3927699486818326, 0.6354594115649145, -0.2840313730394737, 0.17235665815126258, 0.5762561375429872, 0.11696432305892086, -0.3582614691260551, -0.17771751794005897, -0.2997143744715477, 0.04528831656556862, 0.18973543909422783, 0.0022708178487836116, -0.06445669310219462, -0.12332487512438685, 0.2158454784854269, 0.04844115052793595, -0.30772670824558607, 0.016839851173108763, -0.06903799978245524, 0.5404522854019744, -0.4146800748311825, 0.3531202600136225, 0.3317827907411151, 0.8796143631416514, -0.41828926775250735, -0.28416728590277246, -0.40955857109082877], [0.3265043991989724, 0.5655789866672771, 0.07762058104846956, 0.3868508744325079, -0.27036790327051835, -0.2196845917587586, 0.28358159705439495, 0.7992336919624443, -0.6564753779631699, -0.18646223256983163, -0.22758380756121296, -0.2510058284628664, -0.367093758626441, -0.2312933820564973, 0.12908483621670686, 0.07232065937916819, -0.2870576115635914, -0.4462092207209902, -0.026070911692082328, -0.07616534255653001, 1.106567971212336, 1.4702082773010345, 0.09795926481960032, -0.4040397442318862, -0.26783819402835013, 0.5026603953794873, 0.7241202921750949]], "bias": [0.11765486257751662, 0.3790594748407206, -0.2707870611652686, -0.219269174104316, 0.02055900626140672, -0.20536098658288554, -0.1778005926843088, -0.15488466855568803, 0.4204835414862319, 0.10779172909490155, -0.20705812247379923, -0.021840265189453718, -0.2134949361119503, 0.06078795377121732, -0.07612455827035063, -0.06726299241182447, -0.19445422237889048, 0.22849243672578648, 0.07227426370663854, 0.21143992642582324, -0.10983100858338987, 0.16058249314992204, 0.10949894868760249, -0.1201647087595057, 0.2427639504042745, -0.1322940813782187, 0.3183864677254931]}, {"class_name": "NonLinearLayer", "non_linearity": "Tanh"}, {"class_name": "LinearLayer", "lay_in": 27, "lay_out": 27, "weights": [[-0.3035704716645941, -0.07147923629158756, 0.37815443143412514, 0.29558025343040956, -0.6213901164751287, -0.28785255155919065, 0.22301240558291868, 0.15335294129599358, -0.5220098551712845, 0.07362191569251313, 0.10401044602253635, -0.45949645501440345, 0.016194651581462813, -0.29840913680904024, -0.2477309112775332, 0.15938646526664982, 0.2372185551532728, 0.03470011153246071, 0.3268265583478959, 0.24365974081929206, -0.7578377250398577, -0.27464189816066586, -0.5748154965724395, -0.14474026645736587, 0.15069244218552497, 0.5381798793790328, -0.06751794193319638], [-0.27378558233351885, -0.11764838599482352, -0.01978240532097251, 0.21604087555953327, 0.3949743431443285, -0.17355952760368876, -8.578358603056872e-05, 0.6962910933864477, -0.5281206149282862, -0.45793334224060006, -0.11402444711466096, -0.4171445584686537, 0.278943907603745, -0.18578513318052875, -0.4680812509712543, -0.9202123994632564, 0.060643256324402726, 0.33432533941156045, 0.23112909169416287, 0.31006755738786956, 0.08769893330955929, 0.1832554347356734, 0.09435736120566585, 0.2324110476279932, 0.2500885907675719, -0.14035935514355422, -0.03989225463993446], [0.17716109545026965, -0.013780603213921973, 0.6045433338775988, 0.22569859184018753, -0.5566491961660215, -0.4521527896222574, 0.11042169948416997, 0.09149381967963291, 0.304106642049148, 0.28567721445953925, 0.09047131975337461, 0.09287501180325848, 0.2444624475877583, -0.6659793376558277, -0.1983128879751757, 0.4187809256272963, 0.8501357960613277, 0.22475708583177834, 0.19436069976768866, 0.25480188298430373, -0.06994267491576758, -0.5124278866403834, -0.06840896705837407, 0.3982913151880468, -0.010910273157225907, 0.2813061667818352, 0.5436503597484321], [0.34114538572389336, 0.6353611134751338, 0.784483596104054, 0.34356433178767565, -0.7163288995663467, -0.11492835873347537, 0.5108080075554864, -0.4392541856068584, 0.9623450629567927, 0.08702283636023804, 0.7130538289568891, 0.3331733929108754, 0.24290054387188928, 0.27577025327246285, -0.5101940431112375, -0.9324445451645172, -0.12186095786527619, -0.2635244272316222, 0.15713062780919995, -0.26468147487293403, -0.32764217429132975, -0.16024590778846132, -0.10479531420588886, 0.21927521558982885, -0.16613000590480004, 0.04551350259296875, -0.6936472430666625], [0.07107362959876978, -0.09091478075902895, 0.5508568987835959, 0.08796160160992793, -0.2732100861981027, 0.6220248828440782, -0.1779414441384543, 0.16495150075850737, 0.18635597179439964, 0.17139705803810354, 0.00840122693694125, -0.01852676546798282, -0.4024627443913622, -0.3029268399405075, -0.39006052356786897, -0.24966482997386752, -0.289100625993995, -0.032519455280430834, -0.9141270492490748, -0.4827796428441786, -0.3741400788475747, 0.23279714398797452, 0.7734080049057784, -0.24457381891947397, 0.07912363865340596, 0.7413861643437365, -0.4284911943310035], [0.1846252570035919, 0.10347437178877002, 0.12418437271888089, 0.3018008430190644, -0.6385799936766506, 0.18177058690449724, 0.12464203192926392, -0.13678564123153722, 0.281517089683833, 0.07295769660525933, -0.137902276997574, 0.27750130687976965, -0.6565958058739398, -0.3125844226792163, 0.8533853788397026, -0.013358250137538007, 0.10094922919874669, -0.3941087560630074, 0.28953066977527137, 0.1334468525030006, 0.6469675718604221, -0.06830290300213332, -0.7851373995298011, -0.7767512056488606, -0.4582155759843337, -0.026284883566442232, -0.2570038596457572], [-0.1760670875268118, -0.25412246628802726, -0.3960147175713797, 0.48946397991179974, 0.5933997379158522, -0.4906345540362078, 0.3774571662745554, 0.4271380105332335, 0.05181909876886169, 0.16401483186593122, 0.5397092623018106, 0.34433210453501645, -0.11469833989862613, -0.24868120433149982, 0.27757677996239205, -0.5353909017220838, -0.2308940157540046, 0.09181750732529954, 0.3337737208635266, 0.2648847915437785, 0.16744459125055167, -0.08116269615922643, 0.46635768430930613, -0.0982837684237394, -0.28292833780292687, 0.04011915856269313, -1.0102822418770363], [0.34369884677835427, 0.4960780636317498, -0.13276352517146928, -0.4222305902620728, -0.32547107678142906, -0.10580018658571198, -0.1148242126250914, 0.2405772217453436, -0.31462573216274803, 0.3732103071045104, -0.041456656708295424, 0.4667305028693299, 0.2295994926846503, 0.1396947269674139, -0.9485017432276159, 0.814565357355197, -0.2626169088581334, -0.03437268444755946, 0.08951065418295226, 0.005586512755210102, -0.0460320772166272, 0.5558197764638431, -0.05356496032326717, -0.4629178417484179, -0.1591278204062415, 0.9436879185930874, -1.0407446629452495], [0.4989268311119856, 0.127250472414228, -0.18906934518536164, -0.2121824662649793, 0.36077152296149995, 0.20949118502425076, 0.06017865279324456, 0.08967144600523196, -0.5085413830839545, 0.4500182099446848, -0.2611665777578287, -0.32127745013280945, -0.27879589967044616, 0.011162875172211562, 0.7510744343777968, -0.005465241891096686, 0.2143934813700885, 0.2464098669237976, 0.4670507149000302, -0.3148266834356146, 0.41887359844000205, 0.06474501374216904, -0.04665912859912293, -0.3734771379967192, -0.23502302157229282, 0.1827563287847895, -0.27329616910915466], [-0.01580613819864677, -0.2820253119876708, -0.6453873200637064, 0.572691427032752, 0.5919677865179954, -0.13682312816300965, 0.13618458240677864, -0.3316076450516853, 0.21507669330002468, 0.4010381156534427, -0.35348218442409823, -0.19609047455484055, -0.026033165106442886, -0.5444509021731652, -0.6598382923298362, 0.22202909384987912, 0.05827972773659567, -0.6113904096357402, 0.5924732577453565, -0.12988405195222286, -0.777120680071312, 0.7915342981125778, 0.18866945678377472, -0.620524022921888, 0.5188442499094476, 0.14744385739223786, -0.5837102171150039], [0.11708688792162102, -0.28047015712234025, -0.047262819222982255, -0.01397138365362706, -0.2759137083296644, 0.32461273195204515, -0.4192138258338472, 0.9161707289776205, -0.16124556323827588, 0.31994059930796176, -0.08169241150107921, 0.520761389884307, 0.06979526790063414, 0.3015616641076867, 0.5643790504162783, 0.20094150879781228, 0.4768810216220683, 0.06607498420130785, 0.052497365199894466, -0.32132352712423246, -0.22030568316186522, -0.3265131581306792, 0.23920072370816264, 0.06419726588065604, -0.19850266481284462, 0.39827045764107233, -0.11240215274153113], [0.06710180935430403, -0.12614647002500146, 0.19617673510093997, -0.24830638416781511, -0.529363415007781, 0.9688829061708314, 0.23866448376488286, -0.21803715474773713, -0.1610096201124274, 0.04760654929846073, 0.26258758626457457, 0.06693754097645, -0.08257185638316375, 0.20612624537339064, 0.02584877800423318, 0.8593559096531124, 0.277350889695236, -0.6213329030680574, 0.37184941332945765, -0.28334022438050643, 0.29031752437021874, -0.19648984441292572, -0.04548709274306584, -0.15826892364951622, -0.4854614615397905, 0.16184848527669649, 0.14771193768384042], [0.4475551090593158, -0.02946692043194354, 0.051517368917374046, 0.14697570112496292, -0.9559957104223674, -0.42695376632094545, -0.4744078701854403, -0.45329813398361984, 0.09625815146914647, -0.7385177835569073, -0.44085614752980523, -0.12411142852008054, -0.6771763266038803, 0.5513431040841322, -0.4128693234231335, 0.02205043464907067, -0.001367338777021291, -0.5727405577074267, -0.45417978994768143, 0.5706701982558514, -0.7255162177169802, -0.05845226931700698, -0.035874674035128305, 0.2279500503794659, 0.05209748409048444, -0.4512906187743283, -0.2539153451400592], [0.12239143810856486, -0.14290417706910186, -0.15687562344145406, -0.5923225405807039, -0.1781287827478734, -0.7712511025417249, 0.08052114720607542, 0.2634937929549104, -0.1317487915608224, -0.6722670488602426, -0.13824671943850467, 0.15507804612696688, 0.49539694813082136, 0.24997325738383264, 0.3787250063501853, -0.5091978356466264, -0.17123347755361273, 0.539129445400585, 0.37354757201077404, -0.1067737441405174, -0.8519605312284115, 0.09656146760237586, -0.73336355891206, -0.08222866177914162, 0.6851845260763464, -0.22475754620270325, 1.022805776474791], [-0.08536494672807873, 0.45274388335512206, 0.4159496821039148, -0.22814252046884045, 0.4014797723769526, -0.8420379704231337, 0.16565951157651782, -0.02945274666853765, 0.36360771643960105, 0.6127075730647381, 0.3979779338539826, -0.3019770589749317, 0.39488787838973605, 0.2535329509932449, -0.5140664047139902, 0.4362737823308339, 0.15937689599836521, -0.2268300446776938, 0.2844771994225507, 0.8172037386292262, -0.13691444594950203, 1.1720448966801005, -1.00877535031555, 0.07164762725420586, 0.13773378195613728, -0.05372193818040986, 0.25080139332124857], [1.0210119898554155, -0.3612449098952838, 0.655631454244738, 0.2930185963351854, -0.4624657746230781, 0.1628059691712284, -0.1492024769775179, 0.3191994533718595, 0.8795373286017627, -0.025320722995630224, -0.16903285767048193, 0.28669831332746676, -0.3626129045374027, -0.06885718704001777, -0.24243626081934738, 0.4937194786622722, -0.4983022574674313, -0.14978720449200258, -0.19856972305281012, 0.564673709746204, 0.5247630668569508, -0.5640486942565973, -0.15113456730347272, -0.27022797406883275, -0.11562238564265215, 0.5299372667655146, 0.07113204379518329], [-0.43379985583442493, 0.21702067426715813, -0.23485463348477018, -0.10821872801143931, 0.3449112480674388, -0.1069494290002782, 0.2226289300060468, 0.5116591160581926, 0.3464783862248412, -0.07036918989788052, 0.25728915070242225, 0.13349984848420707, -0.40294477130446976, 0.05935732535718627, 0.30168697408373063, 0.5574965673192106, 0.42483495496850215, -0.2703967731489477, 0.3337966499233037, 0.09305698047684596, 0.33541614193734304, 0.3456696458749177, -0.4269019054010653, 0.5150535627917214, 0.12010012065736281, -0.13699719868891397, 0.3723939621297159], [-0.6437722650439596, -0.3874294168917556, -0.9151805301332886, -0.589258448576036, 0.5777337956439753, 0.7722754868871405, -0.2509075990175801, -0.5012663494924464, -0.20394518412528817, -0.03419201322192396, -0.3873115607180145, -0.1393256782450314, -0.787018159841637, -0.581143372207579, 0.3001190206564966, 0.5770598617015197, -0.2602418552590373, 0.38757358399231295, 0.11260677448298467, 0.20178297720878974, 0.3908010937106591, -0.11871719914852155, -0.3029809645770742, 0.17157232717571727, 0.4980586264965123, -0.9003986246424678, 0.30389793482798166], [-0.022026873571887453, 0.13855657662115592, 0.5616654493830355, -0.49644152119078383, -0.18611000786760765, 0.30304927742805976, -0.795800627958609, -0.44159127606432763, -0.5833063453799295, -0.19635825505785143, 0.16139661722028792, 0.1345468566106241, 0.49226776283393264, 0.7789062434245253, -0.036750007311807026, -0.008810874108026726, -0.31768093060732755, -0.4588418566972342, -0.11912676772974969, 0.2377683565280172, -0.6158167088131812, -0.13651096044884548, 0.4180366374351268, -0.5756722837561122, -0.23439443094372378, 0.054593985397110134, -0.1650351094758435], [0.20121853700564565, 0.25771361702081513, -0.3199998579036385, -0.6555217316846733, -0.2219806575883571, -0.3671535210930678, -0.0267503344327989, -0.4328800476174687, -0.09170875222748734, 0.24687418919633883, 0.06604745774728168, 0.1492337219544333, -0.3937465221510909, 0.4462959926497944, -0.09519168015364658, -0.16273165824480437, -0.3097932227705544, 0.018002567220396063, 0.03308025568840029, -0.06905070656657367, -0.383052872548668, 0.1221153389452618, -0.1351908088529403, -0.17126515002592899, 0.26140275528952356, -0.04176238549000363, 0.2810519074710296], [-0.0773076442697119, 0.44608560252348056, -0.12752384328276195, -0.028456769323767374, -0.29800860711855176, -0.23947374799749427, -0.3034730963908426, -0.5243338584981098, -0.12684669329773046, -0.06229313000048452, 0.0343482648740767, -0.8074880610298683, -0.17139143444532373, -0.614476736978206, -0.6274187646642334, 0.3573516344672648, -0.3379281920821008, -0.07953986373474285, 0.3855074657758987, 0.06664007878008218, -0.16420900899065874, -0.2913924248441479, -0.36757638602157405, -0.7507649405072535, 0.36630113298832695, -0.24600145214621855, 0.8981484647110148], [0.2806796788810009, -0.4129530215492107, -0.03780594196022396, 0.7666870872959494, -0.348340466978973, -0.06917546889477191, -0.05274509859688394, -0.09158678668707397, -0.28383558871215747, -0.22817602566743458, 0.7040301117601704, -0.1962675828697471, 0.36745937894796943, 0.04048165321634865, 0.13139430857586384, 0.4543063675570221, 0.4865362443947696, -0.2882145187356541, 0.36862940887697015, -0.36554828686849633, 0.043749049101099516, -0.33576483022099324, -0.6799033496357252, -0.43742373901458337, -0.1871310550640709, -0.0738551127335081, -0.36467386637714966], [-0.18240488395676613, -0.36453544532231397, -0.16497246336676727, -0.6331765807274403, -0.4879252080090449, -0.1321746331345504, -0.2616343489067558, 0.12768520459930216, 0.16595139838341036, 0.04434510628293984, 0.43637211927320213, 0.021873410469621726, -0.3855136346099813, -0.019500904578006427, 0.18140571808449382, -0.4937854950409495, -0.3575550884116303, -0.1750093149529483, -0.202257034698561, -0.01650199411725026, 0.030910701427856246, -0.49811178416007346, 0.15456979932438786, -0.23030506543647014, -0.03565965982213033, 1.1442276503296498, -0.0007260992935822443], [-0.33081617360377374, 0.6428034859545223, -0.30143466991171464, 0.24519977931245268, -0.39388109049128106, 0.3298611176820748, -0.22073027046417934, 0.5447146406544273, -0.5337881594638022, 0.7394268352762107, 0.3175468013146735, 0.44205088317170077, -0.4305135931492648, -0.45333072336188707, 0.4566777193464772, 0.003215223165057028, 0.0918471527825946, 0.27944988603855303, 0.761897399495739, 0.025890620560302592, 0.5490464009073197, 0.2720757509172585, -0.7401675185576319, -0.09962635327759785, -0.2888912360001703, 0.3815131515155429, 0.29174642748540014], [-0.506253751536347, 0.596427149862668, 0.5735299462120612, -0.46456766788048237, -0.025615521417948886, 0.314904309760304, -0.32555133843436274, 0.16142492803934158, -0.28624461862765554, 0.6127299175965338, 0.2861838807196906, -0.4145481262336, 0.13889136643393127, 0.1472595898544777, 0.2583966843049856, 0.5890450351428452, 0.2755123312365048, 0.7003306245880564, -0.5391735987326499, 0.5262423440852844, -0.5514688955195486, 0.3674275748003562, 0.7200579845318634, -0.46032247606934235, 0.1973456107394124, 0.09452369278279416, 0.2707007757769202], [0.4526332252443292, 0.7799771254742127, 0.08018501489316802, 0.05486347767712283, -1.0080571808308647, -0.1218139516768209, 0.006319019815313244, -0.0011459173575056345, -0.45916505951307307, 0.6304659097001901, -0.45409135464803574, 0.11238876501754592, -0.11290851538999296, -0.16176644324953307, -0.008951008675876703, 0.14647004078616455, 0.09825122910584919, 0.761053866318496, 0.19832353796652977, 0.11207978033185141, 0.076743401785519, 0.9558363492523413, 0.04195813673928258, -0.2760029285566736, 0.12899849712381267, -0.03040515581840591, -0.15648752373734687], [-0.3049801987225518, -0.10742071941608639, -0.25496259195055243, -0.23176420052016158, -0.6931687882449317, 0.3359810978143884, 0.4023003351086658, 0.12215720723634915, -0.6980254272771768, 0.15400726874974308, -0.18583231420990415, -0.18018287181255874, 0.3070954247195208, 0.24669200715264666, -0.019592780032862727, 0.10578066551414994, -0.05085376851550274, 0.12402028896557378, 0.49538518926802205, 0.2560126581824458, -0.02313553775125468, -0.16618983144251648, 0.23443627346031087, 0.21599069487699057, -0.12183712865406711, -0.4839329063412817, 0.2259170373681804]], "bias": [0.2352453766436917, -0.006520327671698152, -0.14566829798616232, 0.1673706616086043, 0.3254790296709266, 0.1572672042406708, -0.04255736799319542, -0.22927370626196963, 0.15269818905588461, -0.16701062554965168, 0.1849294377441098, 0.06789341735264645, 0.2010342616332055, 0.5849008260195206, 0.43242142257245164, 0.21545074275382592, -0.35268326113049003, 0.16654932519309837, -0.1762489743720079, 0.5259218529192278, 0.5246095282635459, -0.4011542998557043, -0.23302197624514145, 0.14511250931801498, -0.10140461672987623, -0.15783016466882036, 0.08956155604278446]}, {"class_name": "NonLinearLayer", "non_linearity": "Tanh"}, {"class_name": "LinearLayer", "lay_in": 27, "lay_out": 1, "weights": [[0.006482695033571534, -0.024243834693252034, -0.14929265078444637, 0.29708860673454696, 0.24597938075379505, 0.11312807342917197, 0.14327066952585532, -0.09023717217140313, 0.033343717230307754, -0.22856065978274806, 0.17211906812683378, 0.3623617475258539, 0.35368073992770194, 0.2618996573108085, 0.19270123596481323, 0.10259294126983656, -0.3184716199366327, 0.39421735875493763, -0.20333211946875657, 0.5846289099225764, 0.2470474183468154, -0.49663776546231037, -0.3637037512202314, 0.35780698707872677, -0.19988789200668058, -0.1820915517594902, 0.013704992174476927]], "bias": [0.24098733857978022]}, {"class_name": "NonLinearLayer", "non_linearity": "Tanh"}]}