{"class_name": "SequentialNetwork", "layers": [{"class_name": "LinearLayer", "lay_in": 27, "lay_out": 27, "weights": [[-0.20883872974630857, 0.7382547677268357, -0.40855231856489566, -0.23542630102798778, 0.15382397105817924, 0.3363472723470043, 0.9786242553629495, -0.19400104987296604, 0.48498554242274783, -0.24016040166694588, -0.09212274335038396, -0.5497221881284142, -0.09007933839780288, 0.03494147984786222, 0.08988249548730626, -0.3917963028446059, -0.08704392804222363, 0.03129799367638524, -0.060982903302806236, 0.36624365551950355, -0.4623364488655741, -0.025390305337553876, -0.26535605994535694, 0.054527707976178404, -0.13881199875252556, -0.9386703030970998, 0.4661954820925419], [0.2671534246035827, -0.05662062289127594, 0.36984440661417495, -0.3292181581416691, 0.050280245461902344, -0.18913380756457018, -0.3948590573705519, -0.7560717776554141, 0.17102054741036102, 0.18655155109540567, 0.3210219279718789, -0.1656834540902738, 0.09809384581392531, 0.5165090208354132, 0.30951101569151046, -0.027976402549917127, -0.09667327276722527, -0.3067361493748594, -0.027836859476737683, 0.2387058544492583, 0.9593580845394726, -0.39470677736447984, -0.023038626729546072, -0.03577621835416898, -0.392345760821747, 0.14585001679029952, 0.18744407341441743], [0.6352400444777532, 0.820372642603037, -0.5359386540180844, -0.04516069834869197, -0.38380581314493784, -0.10970691916777342, 0.8762714937998853, -1.2006656499742947, -0.20856419298551077, 0.061833469662107614, -0.24300551739601617, 0.023924791254021856, 0.0158164650126756, -0.08855187299309, 0.45190965666896876, 0.11802043318421114, -0.29886426497491625, 0.10950089291734298, 0.10083035764389485, 0.4950850982317784, -0.2559728048695443, -0.135690806730065, 0.48395808416085134, 0.03326583969242986, 0.620677177472315, -0.5995615838289762, 0.14495627482989482], [-0.4706426103008053, 0.03935957174231662, 0.08033268909591705, -0.3575990723527111, -0.05033077928880556, -0.39467666159151515, 0.37241816725355986, -0.889197445441004, 0.547632941310711, -0.09335752873443882, 0.12968332270530253, 0.24089548871006722, 0.1612115297556772, -0.057899885268852196, -0.08202421747800748, -0.12707650653203148, -0.23653808936448617, 0.10013537721374144, -0.6537588051861806, -0.38964543626122466, 0.178367648725529, -0.20796661462515634, -0.11439637033404362, -0.05219762008379586, 0.5757686489106306, -0.740065789183074, 0.4269874078622588], [0.002238617211594754, -0.9414837537179369, 0.31842182030402333, -0.3411526764731199, -0.35339358699903833, -0.4964337483384181, -0.21863003440122866, 0.42137217191918613, 0.06973872753351533, 0.23843082187870795, 0.16336661955845524, -0.06793936602960765, 0.23783832655829149, 0.04585160369693354, 0.3936799066169076, -0.15920703174845938, -0.2076898588764169, -0.23999233673761833, 0.27656848961624353, -0.9456453516459266, -0.07645499161691575, 0.4019605222103049, 0.2232562055910428, 0.07168454540371309, -0.06265302190113632, 1.18675694606681, -0.17030371595985966], [0.9501220919490946, -0.13607133775357438, 0.3918420820146408, 0.05659110995648843, 0.9805910105364544, -0.020151507698099067, 0.08756194893949733, -0.30741869659665233, -0.766423521896814, 0.11409436178502338, -0.14011091275856496, 0.236722469791072, 0.16247422838097253, 0.007058012451362073, 0.1356631867403752, 0.1692441682050732, 0.4329332167715655, 0.5498355843611283, 0.44373779222323373, -0.3233321365195394, -0.19706422092720888, 0.014613523605132954, 0.5531937188569993, -0.25233939144767453, -0.011737256141601227, -0.34396357248262965, -1.2997666290968213], [-0.09563923921806941, -0.1236447770577027, -0.4353610888979385, -0.42730269517278613, 0.8665634239194381, -0.42112630399585077, 0.013549889157884012, -0.37618768923332435, 0.6686794606038446, -0.2767063757258988, -0.007579968794361168, -0.041927482025452614, -0.20884262967741804, 0.25099140254167396, 0.1340985269834308, 0.018669453568951506, -0.18770692063767516, -0.0022305242222955663, -0.6829939650203414, -0.15645720186610879, 0.14346029507308766, 0.2980549573079549, -0.0016986534222760226, -0.34276247274093186, 0.047356759026671476, -0.02367685264408754, 0.5671553361094841], [-0.1724500015862798, 0.49760184034493615, -0.10549335049905612, -0.48359511292985435, 0.15285715867381508, 0.2810184851144684, -0.8872947931891962, 0.019656400905642853, -0.5061752184175532, -0.06849148099297486, -0.09892420619136252, -0.26269378202073324, 0.1339692321561623, -0.1745033373112326, -0.1052315044871311, -0.13828863571981728, -0.057663819871984046, -0.08232383137250987, -0.1022897707595783, -0.14019882896059216, -0.09212541070773608, -0.7459604971625899, 0.11260886773016585, 0.5370833507565911, 0.047042064432664676, 0.6169686812557827, 0.29017867032294575], [0.664727966090079, -0.13945705549732285, -0.6264419981519266, 0.05072933465559683, 0.7628490612183718, -0.345737150456164, -0.5054509617564218, 0.17915532704192244, -0.4412733408947438, 0.029221560569105503, -0.24520511299678086, 0.17728354332779456, 0.024444418440329803, -0.0210657234404382, 0.25484344420808064, 0.11358454935691238, 0.09880167008741275, -0.46133176644622065, -0.4076556347638547, -0.276828353252032, -0.4681572213516927, -0.23113100379017162, -0.0643595059951551, -0.46041412526546277, 0.9252822400115367, -0.43024971506965903, 1.477416101184302], [0.2961533575597316, 0.2905551050649551, 0.05299704943847554, -0.7874621641898263, 0.5433942389854223, 0.14430940061002484, -1.350973019825598, -0.6595516996356832, 0.047514331878847745, -0.5823553442057423, -0.0825949248857971, -0.09768883131920052, 0.08799137884069838, 0.015371785905575034, 0.2802606997661458, 0.45122942239985525, 0.3356425335345545, -0.11501176246861382, 0.5674060419583358, 0.09792489867852032, -0.1532803258342979, 0.3642069405402728, -0.10208370410775353, 0.10717882948220885, -0.590597327546356, 0.592044633514579, -0.6912772884509758], [-0.4046123062329218, 0.18956372957868267, -0.6310819244837008, 0.4424038003889876, 0.15847718895710922, -0.10639331019390144, -0.34187960270949513, -0.5723092523444699, 0.4308647807508459, 0.1654844570988035, -0.27339405780898457, 0.267284480362564, -0.08176505983983653, 0.20205012591577512, 0.1887877381416002, -0.09046801920779862, 0.05253085008514861, -0.17552839953939325, -1.3081543117966845, 0.5850930826931185, -0.18737850611209164, 0.3795389526156048, 0.5773121812372062, -0.5892984350451322, -0.3613232520883417, -0.017945701964874775, -0.21413844686427375], [0.6190507188537084, 0.22602473974751933, 0.014030025838971345, -0.14391202174976708, 0.20307698201136828, 0.30290606834271394, -0.3279380844756538, -0.6292239046853804, 0.25466533209058284, -0.23508295067477217, -0.30621888375189776, -0.4451014828723747, -0.40335858537922553, -0.09580375042110728, -0.13527102829728446, -0.12427290257669484, -0.7155740921584697, -0.16514729289167743, -0.1798102155519568, 0.03287016811530364, -0.7470869792102769, 0.11270159263647586, 0.6809277524650273, 0.5092056073711996, -0.12735442719471438, -0.19501053303212976, 0.1825605822726325], [-0.7394127421520105, 0.02264631300918802, 0.0842516743520389, 0.41234457739190267, -1.025316525191161, -0.02077530391093152, 0.00873498177434092, -1.3107317812819677, -0.12064722587673124, 0.3551226629622566, 0.047149462274256176, 0.015526016603606797, -0.34216932340443734, 0.33297936753654767, 0.07169356605403786, -0.16997013139697473, 0.04205740298522182, 0.19509916986210207, 0.07988180433846549, 0.9812546154318953, -0.4544996231580908, 0.6480415147508867, -0.3502418524646421, -0.8063062219643565, 0.2848452034783233, -0.01248512739923292, 1.044754343858039], [0.11709131558878826, 0.02362395282145458, 0.06681414434711234, 0.0865914239600384, -0.7479366618375219, 0.46361841853428676, 0.5434755946004048, 0.006649221278704863, -0.7693043750562998, -0.865741211060371, 0.18870572945142017, 0.15913040756799302, 0.040496705550587285, -0.041979343842446885, -0.10017432141863988, 0.21219248444913522, -0.24161788533493184, 0.3775771811260557, 0.04594743300444586, 0.6139514410899849, -0.2901359044897949, -0.3360759284230796, -0.4488583880973187, -0.03588179261238525, 0.5152045196415224, -0.4240813400557806, -0.09431905138076], [-0.20889198838780682, 0.12547213357589726, 0.1357070030059018, -0.19520101197053755, 0.5421679072595893, 0.23504977971804206, -0.0515668216649949, -0.26326395690373117, -0.9590135125123684, -0.019967776145109754, -0.2289751523293021, -0.21273405647854707, 0.042863330986390155, 0.5660356696855, -0.07654335714066707, -0.09224594456422981, -0.19247347033317133, 0.33775228643965954, -0.04389159329616848, 0.34062327887619187, 0.22733853183883643, -0.041211667211407274, 0.23171090611361117, 0.13162728943765653, -1.0806426066491448, 0.4757594336546115, 0.03601280031651085], [0.5651046372490774, -0.07814007743034102, 0.4785471078138415, 0.24507012846484633, 0.07686918666131719, -1.8086314061701492, -0.5196044177440753, -0.011637090506722896, -0.22156038267241346, -0.10993339236482184, -0.09523161469296458, 0.01886600811122063, -0.1693796799093577, 0.23930151545794506, 0.21174039664309094, -0.15377893778644142, 0.11939557000798279, 0.1804449334602738, 0.6371499700331632, -0.6319774953011464, 0.044852592700509765, 0.6559623380520999, -0.41878002719454654, -0.8671760061401715, -0.4109464758287539, -0.28638003000695855, -0.2611942508400018], [-0.14683599246583787, 0.3448410897347008, -0.3109604964375437, 0.11665735803978548, -0.5334266499981786, -0.7446251319789549, -0.5553986474924718, -0.7689327778643632, 0.05290484164126875, -0.04612731324337013, -0.0141437327141851, -0.5432104533636533, 0.14648299854062927, 0.11722773788373894, 0.2444645227381418, 0.2702050062546927, 0.38764453093193985, -0.4193657980089919, -0.29920838914977677, -0.2975627719052933, 0.41091385479726517, -0.16658673946302263, 0.03434003538805217, -0.27420630845025507, -0.10337719040837495, -0.7235221199225422, 0.5056146693278474], [0.5310373541668147, -0.04377089539865509, 0.47326751810211853, 0.1599451508040931, -0.5960225293952065, 0.9703268930010279, -0.24079371145939496, 0.7352165927560201, -0.3232610731217274, -0.0541739223425916, -0.029853573302013024, -0.015753396426295713, 0.18111885339207548, -0.31944798580960976, -0.252015767416527, -0.07980317568949509, 0.367427886566316, 0.3713855273349549, -0.24897722630434407, -0.5728185503955444, 0.6837428521216798, -0.12417917902882403, -0.6746237842460835, 0.6478457843006277, -0.16255585691169191, 0.7319396286309716, 0.2882197976459836], [-0.4937654337365218, 0.06401205110802521, 0.759320845842928, 0.3311430207936692, 0.6055178073636209, -0.12091136322798189, -0.2551939976325088, -0.4553303343226584, 0.6836412972830381, -0.061471044037743526, 0.05313269285245527, 0.13318421536948863, 0.22467022911428802, -0.35373597071215884, -0.08642921608897629, -0.23294140365498542, -0.18428188431879228, 0.240135153344147, -0.9385066728117973, -0.21360909080280266, 0.6752850826629643, 0.030648266546107725, 0.12469452060020096, -0.7592643166729343, -0.6907768221557967, -0.043913311577476265, 0.18378255323471607], [-0.02378852397262251, -0.4637468632778667, 0.2740195216442344, -0.44454675765486, -0.5917630632846658, 0.24537020846444035, -0.35725913141209803, 0.5633120310269912, -0.02875630688769543, 0.2038317928510192, -0.1234451308048221, -0.20374070117251267, -0.3040336767681103, 0.014350751467337873, 1.0840920439072597, -0.12653675337807482, -0.44769400392426245, 0.1669632387187581, 0.6483018791304814, -0.10136549055123131, 0.5171213741068206, -0.7231018487563475, 0.5620379622803777, 0.1989916277934264, 0.17542542455744586, -0.3845860782168828, 0.09706499041061624], [-0.2258289637364316, -0.34205974822489477, 0.09300514456542933, -0.40771264189810674, 0.5635701538310505, 0.4159083309331299, -0.3984358305082812, -0.5474499193161032, -0.11410807931399286, -0.3647289575522978, 0.09209968707410308, 0.05651104759047692, -0.08945713203294288, -0.46570160885358314, 0.0400466650403271, 0.16950850278630483, -0.05051792777481668, 0.32530140579806793, 0.18193725404308564, 0.2042888767671306, 0.7429747716016368, 0.5366148500148928, 0.8022663056588044, 0.06408780754132413, -1.1836372337318555, 0.5329850384176079, -0.21193781742642362], [0.21470432779780332, -0.1404204241971983, 0.6823843930821196, -0.553842902407602, 0.015560671814597566, -0.4015465689875812, -0.4013011620158336, 0.27129240963443724, 0.6279776371251228, -0.20045217889777162, -0.2117371478681759, -0.05232335544804886, -0.023551212283726107, 0.103410000968028, 0.048985413939808785, -0.03152750542844102, 0.10757127110414214, 0.04426019433063447, 0.058342741108879916, -0.7226050873731737, -0.12173459263198388, -0.3316479349637875, -0.7252743817287229, -0.4836532987562394, -0.2904578575041741, -0.045704708838347645, 0.035495075752078435], [0.697366835521964, -0.1543749710567487, -0.8247008300638698, -0.5794272652475163, -0.2528100498486514, 0.5633684616951288, 0.30948252275405763, 0.09859930665435357, -0.291473790724847, -0.21276799220762105, -0.13026632091643947, 0.010063463789275987, -0.012558055028524612, 0.10311780291541003, -0.3303051401087824, -0.010180666719349467, -0.062358600549259825, 0.24806643539199796, 0.8610467295524665, -0.13948170738151738, 0.08191659370443347, 0.4708493245689672, -0.5810189504259158, 1.0066136601782838, 0.6359257912941545, -0.040766606912237824, -1.00016039853785], [0.9224789223181927, -0.007633827496582726, -0.4362139825035514, -0.1341744411166682, -0.37597646556758463, -0.11094349350929326, 0.21749251512295395, 0.14068529598500007, 0.05865355592065487, 0.16611237743741014, 0.4010464551184697, 0.5481369286926715, 0.09005611864613494, -0.32640395922902976, 0.09446504418849816, -0.030285515972950715, -0.05746317320862999, -0.3899952240073099, -0.5065013631984151, -0.30651343839185674, 0.7640584834367626, -0.40898043445909954, 0.4639050568947418, -0.04379943142309543, -0.044164247233541995, 0.5006979631873518, 0.8086619985967859], [-0.07015755380613979, -0.31469902052291027, -0.05114247459024205, 0.3594330728184868, -0.46063612530214093, -0.014827659634336328, 0.08497641337226536, 0.9751231783921881, -0.09118572142596036, 0.024303934542727185, 0.184644954814108, 0.4238895154183905, -0.01878448922666807, 0.5728645510375159, 0.17419953374730002, 0.013530802400035213, 0.16902408098822524, 0.2576169977385187, 0.038031001298719024, -0.795499154127549, 0.15508432673641345, 0.12335555463667178, -1.099441286719072, 0.2569765321786518, -0.398233585438132, 0.7387037238213808, -0.14623444719585696], [-0.28702623553258094, 0.7122859900783675, -0.44745360460040323, 0.1558473566068208, 0.5815455599661802, 0.24459397532709767, -0.3984269242056494, -0.1850829869838945, -0.33290041937886544, 0.09106845489537109, 0.12856096107577827, 0.08225861187632859, -0.1714565177805733, -0.12676176038204967, 0.12133043665081579, -0.09638481104898614, -0.19171822255500431, -0.002210271121083602, -0.07717397385079759, 0.49399378581792436, -0.5722473803683105, 0.26406701028212937, 0.2996486144940249, 0.7221511738130919, -0.33815884798644946, -0.23377483105010227, -0.3654109466685815], [0.39610208130106345, 0.6527018938794311, 0.0619344637783752, 0.3715224758591623, -0.3052175710594765, -0.17799233045701413, 0.2982863951971198, 0.6125912087962829, -0.673843616111127, -0.2302324794915048, -0.08273079523336334, -0.2971778113266328, -0.4291713988055948, -0.29674317616152346, 0.1470474447558631, 0.149845513170771, -0.34731948846406435, -0.3628215532467214, -0.0454898899146733, -0.17520459439455482, 1.2129133385983784, 1.3718273982802727, 0.15272174721680803, -0.3642145579859093, -0.28356767118368875, 0.47253101642734935, 0.7610053032896129]], "bias": [0.13151806998256144, 0.3078351682294521, -0.24347421459803245, -0.14329757616074978, 0.027411948836929347, -0.17785396956542612, -0.1806176751432887, -0.12024660534923597, 0.3529415652707509, 0.14663311371848894, -0.10534588017062864, -0.05277895990855288, -0.19105059806654837, -0.014744808676224578, -0.0286804894852227, -0.11518784012409218, -0.13828570763558962, 0.24611145292133968, 0.15979946224320232, 0.1242860638048398, -0.09561650020268436, 0.1280053020203732, 0.05424696692381361, -0.1477696885840673, 0.23119986410292762, -0.0493304203939035, 0.20857866052450538]}, {"class_name": "NonLinearLayer", "non_linearity": "Tanh"}, {"class_name": "LinearLayer", "lay_in": 27, "lay_out": 27, "weights": [[-0.279112142406883, 0.09958851656198817, 0.21986880379508827, 0.21509711045720414, -0.5050056625650244, -0.4704449453379611, 0.21153006388876364, -0.01881561978539174, -0.5526871255350677, 0.05601491914453391, 0.09410624094039663, -0.5078473693165879, 0.03747066317752137, -0.27483997435992785, -0.23817161346525492, 0.14920462647333269, 0.07249886425863888, 0.06459391883550618, 0.35562696197204013, 0.28809873474676745, -0.7599557809519556, -0.1428965030370025, -0.5950430883355982, -0.19080439141931574, 0.21580792739544782, 0.4285492843010564, 0.03802260291203184], [-0.3410532784273084, -0.08003665589853784, -0.06537261213576111, 0.21038301202386508, 0.4323014695364357, -0.16387041328450994, -0.04467732916305347, 0.6875241109023829, -0.538286367603241, -0.5400585784829164, -0.13073087700297473, -0.4005205098765591, 0.22625483069734992, -0.11575857254080452, -0.4325838298818454, -0.9356747313462409, 0.04955348970068404, 0.3069195405431188, 0.19242906082931202, 0.39385044204863495, 0.11690592604542112, 0.12440686348448866, 0.10100614771002071, 0.17257919458983625, 0.26345008050759594, -0.14868648205014642, -0.06224473137925742], [0.22742576641543402, -0.004826473180163233, 0.6630932600202684, 0.2517021701132641, -0.49942654077880183, -0.49421018961024316, 0.11431938270406143, 0.02897927292312541, 0.2932081028208387, 0.25807169774179883, 0.12872465278914208, 0.09967231291870728, 0.20386630550429946, -0.6398637107795847, -0.18845527834464823, 0.4064317792025621, 0.8762691300266291, 0.16076119714656584, 0.1286256852626855, 0.26265231625577906, -0.10145434124330763, -0.5221333555413465, -0.0654842678487502, 0.3926029707223713, 0.028828474484714442, 0.22621403573810883, 0.5633161852560542], [0.3246444148276962, 0.6870992084782811, 0.6744988052503472, 0.40435609957997637, -0.6370647767834348, -0.22152623718975492, 0.5687420843751301, -0.43170410470384163, 0.9177466977793676, 0.09602886867094983, 0.6769020142056765, 0.34116909340983537, 0.20582219090124676, 0.22101948410214417, -0.5100224147478298, -0.9191431106698359, -0.17752309912765474, -0.30367347271164585, 0.15509037063983896, -0.26071511644809336, -0.29512212428575635, -0.10329665391222562, -0.07803300646342415, 0.18759236303745094, -0.1524587249398237, 0.017037076049020612, -0.717785497717396], [0.001480917718874068, -0.037619107000181416, 0.42988265648170965, 0.02144822092369375, -0.2501865873503688, 0.5714011564974623, -0.23903516458826204, 0.09703608879568347, 0.13540805477522502, 0.1715723709915052, -0.06286977212694463, -0.06783444792201455, -0.36608958549580944, -0.3190116647702167, -0.37653531244394206, -0.16483000341789208, -0.33135240962898993, -0.0152461610096733, -0.9044466805276963, -0.4007676967115876, -0.36963943137581484, 0.25916159569550146, 0.7569094635424378, -0.32179767715148394, 0.11556898822332207, 0.7345176058141796, -0.4089314449825657], [0.12866874502532358, 0.029603963283588264, 0.07177718707841897, 0.29467750131272247, -0.5709526667777411, 0.22648674782303446, 0.12964342813948174, -0.13674340368784468, 0.3148707468583265, 0.12221550408014352, -0.1334155360635412, 0.30738154014363256, -0.6917119822629452, -0.36783715560181857, 0.8066326824498304, 0.02998580930718927, 0.0644107845529848, -0.3726294551687445, 0.2792334850303426, 0.11701733497402429, 0.6248271256806707, -0.02162321114447916, -0.7397201212009724, -0.7280653332841562, -0.46136544798287316, 0.03600827397302756, -0.23843904465698726], [-0.15168284631538195, -0.21324083157883936, -0.38204110191919716, 0.5222018967352745, 0.5948740722755403, -0.49088932811791897, 0.39693721208102767, 0.4143838950389235, 0.07864985748850085, 0.17659823085414084, 0.574796460271464, 0.37111885942620476, -0.11954613267581436, -0.3332908023048529, 0.21591585733055751, -0.48578328293012896, -0.2527874564404399, 0.056219305320378464, 0.393272112238115, 0.2952975188228504, 0.1574712421775127, -0.09603280285984729, 0.42314496833266085, -0.005838622934058456, -0.3393299626608143, 0.050823848021791684, -0.977100416228234], [0.3083238063003187, 0.5807878054536575, -0.1687709280856758, -0.46833801197373637, -0.231677890122421, -0.14790453218073357, -0.06524176435976699, 0.23616963047422196, -0.37325732090154573, 0.3136841085938424, -0.012151620192535665, 0.431677226152022, 0.17248701655020313, 0.11701778562486537, -0.9048693153207562, 0.7851302303575635, -0.31171170438484086, -0.09474794761059772, 0.08512643286451511, 0.08493576667739702, -0.004305647014918263, 0.5568891121484366, -0.08945904642124723, -0.5124430204939564, -0.14538250419395687, 0.9235019955831522, -1.0323958494182441], [0.5174014757688898, 0.16525364007574106, -0.19429581968016124, -0.2827731457077652, 0.30528523188318385, 0.22526279866238433, -0.005681597922495865, 0.06581755394379955, -0.4591725616267971, 0.4902864834837432, -0.37357856999384764, -0.4022022784810043, -0.27160103446271355, 0.02195198008439563, 0.6946947994893653, -0.015282223612949796, 0.12432206083565944, 0.3435789666258092, 0.44517389312306244, -0.2741052151198018, 0.3385639197989937, 0.10580972122641064, 0.01781899633462749, -0.3966491922420151, -0.20341521364098908, 0.15177399917900208, -0.24142098356356761], [-0.058490497775618176, -0.29758257733826066, -0.6668484593138361, 0.5832493525127006, 0.5337589491629232, -0.11142625682881405, 0.11724519920553285, -0.321216353910649, 0.2580424494955189, 0.4229082054870036, -0.3103193086668212, -0.1539779984385336, -0.03759511826700194, -0.4973894888454859, -0.6510740223581349, 0.2491538977529386, 0.06596265098423298, -0.588446238345338, 0.6568675118064353, -0.14168628035880815, -0.7515806504901346, 0.7090497209410386, 0.1297769623442252, -0.6294715274286851, 0.48143037943749223, 0.22730915299486731, -0.5636119286703778], [0.061687313442032564, -0.23239261207637354, -0.02768523941685512, 0.07802029969119764, -0.20111695616990896, 0.26483658816018235, -0.41882492307869906, 0.9110566550666696, -0.1300637185890224, 0.30892211165374694, -0.07614897772467383, 0.6429650076095293, 0.09694889448871953, 0.21990243497305567, 0.502760868143865, 0.2668471098434702, 0.5231093400319926, 0.09812171367996035, 0.170780625285466, -0.3294016965161772, -0.22596489658338167, -0.21293509345639264, 0.16825572733949384, 0.17234952302028084, -0.20670742178840212, 0.3398363907309525, -0.06601359837695403], [0.0721952251632293, -0.1473675692687276, 0.21479062325176335, -0.17152001901428698, -0.5302112213680956, 0.953324511191254, 0.27508530526094244, -0.1727134172756487, -0.1273579994823592, 0.14692589333523098, 0.23103235877180534, 0.09608874802006408, -0.0650458214164252, 0.18258670779699374, 0.04238822246788046, 0.8870678358497207, 0.3504687097078972, -0.4864818642346122, 0.4376606234521605, -0.27621089736185633, 0.2556415314192783, -0.057078335234458086, -0.050633947651859544, -0.12884260056870186, -0.5517303439832203, 0.22385304024110145, 0.2204636945196203], [0.4264746931254194, -0.04890593648587372, 0.05204171944221749, 0.13419794865542947, -0.9721907106407058, -0.4004334238248779, -0.5029840934148783, -0.42312850191683926, 0.13135554983577463, -0.7601731501426987, -0.4587022043997453, -0.1392011527295945, -0.6229042866069887, 0.5619116046273085, -0.41751543925532986, 0.007013573432204364, -0.06499695887132927, -0.5404486072085332, -0.41521041295780386, 0.5986007999938365, -0.7321419582541666, -0.049626789561224814, -0.07360147764841063, 0.15502371313273042, 0.03645315691561656, -0.41140352426163096, -0.2346307580213734], [0.16932460654631007, -0.17883229294515304, -0.10999970977711891, -0.5627573627020649, -0.18600171526159545, -0.792579181105462, 0.12634105565617149, 0.3638457901113933, -0.1760608511715132, -0.6074545958223635, -0.058446625476579306, 0.21620902793044613, 0.5382037491784463, 0.19801932049527074, 0.38219102575141883, -0.4891343399975867, -0.1952689690001761, 0.47586644661654276, 0.388210452257789, -0.09732858056184109, -0.861786003873977, 0.12098952505178177, -0.7439194213814833, -0.012197548612386202, 0.5835628338444789, -0.09869333715910225, 0.937754820187507], [-0.11848723214397032, 0.43697716115200613, 0.3761876869886894, -0.1870970006098207, 0.45005790400275253, -0.8228443972718184, 0.1421243943905436, -0.024454933276781637, 0.353356314307942, 0.5969564910158925, 0.3364369857742419, -0.2489190815252521, 0.4091816362462166, 0.21867552866669226, -0.4967989181197045, 0.4500684448929364, 0.12306937098436477, -0.15023740615968134, 0.3377983470852054, 0.8147094391057859, -0.11886581666533884, 1.0930991749060694, -1.0609918706973696, 0.1644977631201519, 0.1522957377022575, -0.08464588715312488, 0.24612560627908955], [0.9672269841031774, -0.2810081034091705, 0.5645906825669375, 0.21625293515975907, -0.4569652978721577, 0.09239460266278512, -0.18832037099055454, 0.33145664788038687, 0.8183803025094126, -0.04769615366816598, -0.24031678463688635, 0.24022298477276058, -0.3031468598680698, -0.1316007334498504, -0.25162795370170066, 0.5716717353291436, -0.5021081109277815, -0.09227043681967842, -0.18696596660986756, 0.6300367548251454, 0.4662102162982118, -0.4829611881684544, -0.19911133969477127, -0.2756299661294419, -0.0668595442273707, 0.4629807616550198, 0.08968543939731699], [-0.3794945187892809, 0.2154338561892452, -0.21374511165880955, -0.07694542998705152, 0.2979735417167871, -0.07731196226165948, 0.16600372660125753, 0.45367041286773985, 0.350366108015069, -0.12036469144760242, 0.27556879693889, 0.1282470816416991, -0.4131832013070682, 0.07927312671179994, 0.2028279020405418, 0.5393773039577232, 0.4220193084300401, -0.28503683452104356, 0.3871268203251848, 0.05386201277436202, 0.3534527379960258, 0.2896860311204043, -0.41991765370801487, 0.5059397424597722, 0.09586695869333227, -0.12892625770446808, 0.3577157715918201], [-0.6101808690861078, -0.31794540723968634, -0.9112905325689638, -0.5921626972836757, 0.5396748312798614, 0.6518852690236212, -0.27288270047957014, -0.5635645614897851, -0.3187854982724802, -0.07267814186152748, -0.45867016819470235, -0.18959510158264706, -0.6848642487601754, -0.6088904677961896, 0.30626217223627694, 0.6703601934298621, -0.23842907925065307, 0.41277543693666796, 0.12596986674028077, 0.17428861676627316, 0.29682299465205497, -0.021174269725207622, -0.30491317081983604, 0.08072555830297858, 0.5408168153994979, -0.8842264637480726, 0.3913072460557122], [-0.003484161484244962, 0.14681216254670953, 0.4833595388540656, -0.56590347034812, -0.2068547323251156, 0.23301021962213592, -0.760507450243693, -0.45340510914138255, -0.514206015005733, -0.17463358877836432, 0.16828569169535548, 0.12927590461656965, 0.48918676373124653, 0.7319268251561378, -0.034454389868724046, -0.007816197764898742, -0.2803881626915676, -0.4626677313966598, -0.11317059477724156, 0.23601087647479602, -0.5682375746333592, -0.10355242786764972, 0.4237411312415038, -0.6109899431336266, -0.20024170123407092, 0.033984544798007665, -0.13779540664644835], [0.18742673945001728, 0.16188704966441478, -0.3334351276947275, -0.7005262877844302, -0.23464266859300173, -0.31540828912573826, -0.024744255942804886, -0.4079580878424618, -0.1322235935575807, 0.3436234042842661, 0.1134003748311816, 0.14481124503874415, -0.37176769517671293, 0.4377789908343186, -0.10574088397243774, -0.13109539598386685, -0.3083112032195872, 0.0825341099207684, 0.06134432105746625, -0.08609452734185304, -0.37098803081895304, 0.1316074768448836, -0.1351032356089598, -0.10105183817931446, 0.23014451173210007, -0.012449121020604225, 0.28124230365643094], [-0.10475680776812757, 0.42447553672268257, -0.172872181464068, -0.01879625036338246, -0.20886035662158395, -0.19172599820786249, -0.3025005492969303, -0.4783866158618154, -0.14309904975830556, -0.07434129292964159, 0.06996190216635154, -0.68949402796695, -0.15127044705810874, -0.6628527359424203, -0.6304622665076487, 0.5030187091564684, -0.2698931359790572, -0.016576576995664824, 0.43146657592001325, 0.03006224988509963, -0.1368676427296277, -0.19882476548036218, -0.4443733019100431, -0.6148989916025699, 0.3317550970206978, -0.2998533695830628, 0.9504149851690941], [0.2723826070686214, -0.2573216097472919, -0.06133166284650753, 0.7431816988671974, -0.32945320736112105, -0.15435807085574782, -0.07710367614504808, -0.1733139168701972, -0.30019787428897426, -0.3215818575407027, 0.759659076000079, -0.2205889607831023, 0.39884995283091906, -0.0015537578496476225, 0.14183435333133015, 0.418479430585127, 0.526810882042223, -0.28577282826594097, 0.39831246527983477, -0.33204330187150755, 0.011195422767063942, -0.36909705086097316, -0.7422566809084551, -0.452526236005277, -0.1384348192872914, -0.11648773343067172, -0.37336165556885537], [-0.15143680398786968, -0.33195143503836505, -0.12390914063467781, -0.6029027693371858, -0.5380624843171273, -0.1412331782850689, -0.27815911868288234, 0.13875720243339779, 0.18707846072781315, -0.01012542055103577, 0.5154600912615102, 0.040245898931802644, -0.3772967535150864, -0.04491479989440912, 0.1769305892031035, -0.5145543752669105, -0.34448450611072534, -0.15073160855425863, -0.1514134380564713, -0.06513845220719489, 0.055296733365634336, -0.577075027625385, 0.11033084279766725, -0.1754148170432508, -0.04630941699057273, 1.145000506237924, 0.03599483652644739], [-0.3147407048425965, 0.563673046273792, -0.23796196227008792, 0.26450228083969884, -0.4121643750532892, 0.3488649235941705, -0.18747284959208596, 0.5529240994381444, -0.4136422216899532, 0.7242793799329275, 0.32230193339179625, 0.47022168610569604, -0.4738429885928009, -0.43559060056658216, 0.3853359048756796, -0.007244548988862211, 0.015722471457374702, 0.2883316590558355, 0.6390573887210549, -0.029542746055923625, 0.5054555144905727, 0.25215614660145463, -0.6577036370883906, -0.08992968580897313, -0.34123752796149115, 0.45360849916447094, 0.2706490368534803], [-0.5707029891184339, 0.6202299757251897, 0.5719625690551802, -0.45867815277982255, -0.03730761815178816, 0.3879058195700156, -0.3199433338091514, 0.1478595159185885, -0.2342583225170984, 0.5725169137580278, 0.31162558776208354, -0.4000390446626395, 0.15747114151921718, 0.1401549473934221, 0.24942190012115237, 0.5703460000724319, 0.26595088783127707, 0.6727496468821865, -0.5294437833490035, 0.5169192433783283, -0.5173457758529245, 0.3267340499780758, 0.7085749959408308, -0.5518784195340323, 0.19131547557368653, 0.131741390323335, 0.22765373690144627], [0.49746026077455063, 0.763110762635304, 0.12103278023249685, 0.0834192249144917, -0.9846944506542278, -0.1749957914302804, 0.08244384364173366, -0.09007277808091445, -0.48246666969085533, 0.5339017473728764, -0.4096561752975048, 0.11522347341014699, -0.09143310704810538, -0.16020403521515783, -0.04686815010446855, 0.08902609896304382, 0.11688387950619324, 0.6569557514465546, 0.1832751389293283, 0.07315024021041759, 0.08593423019525401, 0.887122733580212, 0.03757204339536629, -0.3454483862380345, 0.1549516103795586, -0.04407868417991835, -0.15635987359475606], [-0.298695505350667, -0.10350828547700527, -0.20607785623081737, -0.15706409689265843, -0.6735455375128905, 0.28930250689896275, 0.39051780433530153, 0.13331094849311037, -0.8355991377383064, 0.23056175947685184, -0.2522378596489202, -0.18855089951915247, 0.19818480808805072, 0.24723317933368652, 0.012432462019190947, 0.07841378264720882, -0.05051912714151764, 0.07112401857543406, 0.41428120802713964, 0.2395539892579255, 0.03379165879755537, -0.10957764603473845, 0.338278430437706, 0.3189741316996777, -0.11326515120461615, -0.5665231714864895, 0.204061600727149]], "bias": [0.33759900272191207, 0.043592917260036924, -0.11095717520593609, 0.17264059499134943, 0.36072657389068224, 0.11093425723252, -0.02627073761074278, -0.1366152756466649, 0.22909473865113994, -0.13071613264591084, 0.14116739295699915, 0.024930986825725657, 0.1822330032364788, 0.52492991256251, 0.3761702202739066, 0.22572398782544506, -0.3013972572624071, 0.17602021667387746, -0.11718478113303302, 0.43288887815086846, 0.39830002847815676, -0.2866258682188095, -0.17062061025611694, 0.14061061397419466, -0.10089651552070214, -0.11577731455600472, 0.037925533062709106]}, {"class_name": "NonLinearLayer", "non_linearity": "Tanh"}, {"class_name": "LinearLayer", "lay_in": 27, "lay_out": 1, "weights": [[0.03322666714200058, -0.08890520963181038, -0.2005875404531661, 0.3038688819951382, 0.26060083638922743, 0.13034741878499514, 0.1811830494590487, -0.10193034564194192, 0.10423076948116491, -0.20731404859791355, 0.17387224406197305, 0.3750149519038447, 0.37685845339436075, 0.275936784147291, 0.17043263092075528, 0.07005044311594938, -0.34856599414012646, 0.37439457002895354, -0.25185903022482764, 0.5857691907142453, 0.24357364009581417, -0.5438873090706735, -0.3985118513026086, 0.36330644759449743, -0.24884290137019455, -0.1403256345069306, 0.037395968872103724]], "bias": [0.196538463970017]}, {"class_name": "NonLinearLayer", "non_linearity": "Tanh"}]}