{"class_name": "SequentialNetwork", "layers": [{"class_name": "LinearLayer", "lay_in": 27, "lay_out": 27, "weights": [[-0.3022136125880011, 0.6403368564751402, -0.4349494236443978, -0.16771862272900406, 0.32545204289074897, 0.4669394923378706, 0.6757830124888735, -0.11736297476726752, 0.46271603525301847, -0.20136716392161585, -0.1808257886207681, -0.4865799821392728, 0.1838515013273422, 0.11054716953101433, 0.20701155598580892, -0.4730322061413356, -0.21132722518996333, -0.05481394523933731, -0.0194843861054912, 0.07229483964091261, -0.35301509805117504, -0.17744058638291624, -0.28478958117709413, 0.09690088924013188, -0.1921445534890218, -0.7462765855612628, 0.4156446851848632], [0.28895070510537874, -0.11562837887750316, 0.23801476262270937, -0.23438987240462955, 0.17427693934588936, -0.17526945602015337, -0.3327018111017023, -0.4703714730653508, -0.024144404929906785, 0.23320171841305823, 0.23510734989158652, -0.15855933384961576, 0.022241135025879624, 0.4120519895225191, 0.4632089631123317, -0.013459115523406659, -0.05774055192454637, -0.3278584982873333, 0.08631730334907867, 0.1368899193364975, 0.6554411270466917, -0.3152414615552567, 0.0344594466469394, -0.1310202287877403, -0.4428689383417034, 0.20521033636304822, 0.3518122168676324], [0.6786407651085317, 0.6313490644727716, -0.46872331459231864, 0.07100488620610412, -0.2785969421775665, -0.1602185447108296, 0.5231279384462247, -0.9632140982336432, -0.15744770290086008, 0.07805710901213003, -0.6187134094464002, -0.1045272002598511, 0.07770791596760308, 0.059830911012722046, 0.631769182224462, 0.06251851791278473, -0.32297539706339234, 0.330678731439052, 0.017855167423409632, 0.3171710543085469, -0.06420556402345003, -0.37291751550762076, 0.566536655568546, 0.061969519489401166, 0.5571166840767944, -0.46315596892217764, 0.3205627650978187], [-0.49606709122647574, -0.02635531920267955, 0.0631011759286915, -0.24303985448309826, 0.07728491439529457, -0.4582152400618895, 0.34555757126639985, -0.8035217859640721, 0.5126755668473695, -0.09971338119378365, 0.08058977493016917, 0.27185537277887883, 0.08356351204169951, -0.09155369640659602, -0.06515319125125585, -0.07957385209929455, -0.32082526927152577, -0.07452254960102223, -0.47235325110017806, -0.4642440981184464, 0.03273681008298502, -0.21539980936866546, -0.18357693772401446, -0.05073621890636749, 0.4136664287612162, -0.6886394421837236, 0.4510372508224766], [-0.03208928465299318, -0.7108013697921907, 0.22595934050447553, -0.15066270571806387, -0.33858466497701745, -0.39352121419804925, -0.092268234652829, 0.5720821610899505, 0.0007843693044833678, 0.30962009890192926, 0.1869493305409469, -0.2485536195268344, 0.25917338277541263, -0.03948779991457359, 0.3849168387478281, -0.038531426075683155, -0.3158807745284938, -0.34311796003537726, 0.27042538505691577, -0.6853794690030892, -0.08001087663895495, 0.32646191461028384, 0.1043846529386568, 0.1146488845924635, 0.10802996024142204, 0.8862411679184563, -0.09595999992429909], [0.6920190775844465, -0.06581248344315536, 0.3228111732122026, -0.03877329708936044, 0.6899636848589565, 0.013871134624878136, -0.04140811225087344, -0.4685314243831945, -0.7176099775007492, -0.10769314793958008, -0.34598620935990926, 0.3276373752049859, 0.033010443039190165, -0.029221157646136593, 0.07387640580647233, 0.11250297645443456, 0.13775102113731466, 0.6588953843007835, 0.37452365421435047, -0.2849117503548604, -0.22859254095803866, 0.12873176817434004, 0.6399503524078115, -0.37867110588492997, -0.18594902381732129, -0.16629758048041615, -0.9382402911162725], [-0.21280079283991618, -0.10493433208411619, -0.34121498409830575, -0.5177900245452763, 0.8476026493438045, -0.23042036106676062, -0.16751222549847428, -0.5082207404357226, 0.6328425963198571, -0.25237673587008913, -0.13629334921224287, -0.11377768750012643, -0.2996124226423739, 0.41428361345234055, -0.01643513381573637, 0.11185675366734678, -0.06264857399921733, -0.1683658712440736, -0.5706617492475893, -0.07547245839385099, 0.22364798090385507, 0.2910249847202208, -0.08232474809297514, -0.3415428063171669, 0.11624215884808384, -0.038372690338139566, 0.28202708460466974], [-0.2028780654403562, 0.3739766814554007, -0.1512499327794582, -0.3818727636033386, 0.11858955061265666, 0.34348824938447614, -0.7672134537699152, 0.15777196252536, -0.47241589456674454, -0.08387432812485358, 0.016055442628521363, -0.5084070264149784, 0.11431446011669462, -0.25298868094719684, -0.15768825146204477, -0.1691680389206264, 0.016518463189826613, 0.013387224604152962, -0.01020284128404731, -0.05458717929507953, -0.09789069273720591, -0.7792826285546209, -0.005682574076997214, 0.4978340370913574, 0.06392205236439524, 0.4389627464402, 0.19371829422252596], [0.5219170626720216, -0.20979724874175168, -0.48663450714380824, -0.04617039139455441, 0.5932868402608417, -0.17324831083203468, -0.46502285175578056, 0.09447972609201988, -0.3585587716130423, 0.0660077609740535, -0.27088604994637294, 0.20430827944046634, -0.08971386026202655, 0.04348165474228248, 0.057822061896425005, 0.10777816059332486, 0.15998141070705835, -0.4252988023950943, -0.4142813146595124, -0.16753708162734401, -0.314691468687118, -0.28078296270466907, 0.12380586728068131, -0.5022773133555049, 0.7628151500210588, -0.36717704365112164, 1.0929042803813047], [0.18768642488862058, 0.2819810576302833, 0.15681829422462748, -0.5709860948740519, 0.4007036887253943, 0.009786758452253462, -0.9704128650048763, -0.7639171201580631, 0.05084830496134815, -0.6178258969092523, -0.00801585885412692, -0.0750877365183655, 0.05329583285900396, -0.08089688548753189, 0.27349075036164566, 0.4590114961084034, 0.35846036115128216, 0.08216652850471745, 0.5331197437447769, 0.31095400775381465, -0.2468607456905519, 0.2974906012632187, -0.3134955091470249, 0.028799333469750804, -0.6026838956270824, 0.6914710920224553, -0.45877537612366637], [-0.13022268882774155, -0.018986559748866313, -0.5798841244988487, 0.3972712683368778, 0.07326451359553167, -0.09489675185547891, 0.008766947692334296, -0.5561824910019211, 0.38322930239152103, 0.11986437619930985, -0.4415781444936901, -0.005709997161257219, -0.07744902896968159, 0.08456948534017365, 0.1844537089951679, 0.011226316749487422, 0.21291604035545994, -0.18279580133417997, -1.2122907100627975, 0.6014542890047537, -0.08687483491020752, 0.39627266280690493, 0.35490113620706104, -0.3703567916219456, -0.4744068527757217, 0.07780897728927272, -0.23099868143701366], [0.686165618191427, 0.20118512319342338, 0.0182818290755786, -0.06569451975834861, 0.3761137515952613, 0.2570832913356749, -0.2279397829104143, -0.6664556221571054, 0.18873143195867706, -0.21430876623490133, -0.2910068038613556, -0.4206348857684397, -0.4615259771489826, -0.039185088157616406, -0.16507239900670337, -0.24079595522592362, -0.7026984541755088, -0.0053169698822264945, -0.0315983608767954, 0.001618711958395334, -0.4784835918067113, 0.27063911974660976, 0.5830579142121365, 0.34320845079769563, -0.06262653348372219, -0.15639226557147545, 0.11800992148297383], [-0.4492201251398582, -0.06955473981523844, 0.004037981003072198, 0.3147220689572402, -0.9160860970255122, -0.05812004691472338, -0.049655731622121814, -0.8111972581389894, -0.135069351181574, 0.29519474722384015, -0.06088679626148549, -0.12972303228371287, -0.3289036434731693, 0.3932876736671061, 0.13040202197438677, 0.05813821992052875, 0.14668602232403086, 0.026073985546650788, 0.10064225660769548, 0.9277787052820885, -0.3499175118747076, 0.528868386616054, -0.4247574111727737, -0.7892103546453177, 0.2587900995181925, 0.011426798641910051, 0.9499950270017253], [0.07685551497864863, -0.0025442309143729985, 0.08295813563435621, 0.09624196195399216, -0.6793492017171671, 0.45670917161726826, 0.2698679126367597, 0.028265382448053593, -0.8155445797569237, -0.953492785735202, 0.1711983649970303, 0.07277610025207654, 0.3239350253676243, 0.10303282930608686, -0.2605634972811369, 0.1449927288950274, -0.19211640583449713, 0.2023892764580644, -0.21985565444064525, 0.47334371985773827, -0.11206677524491758, -0.5456876321919706, -0.12641134253708888, -0.1356902363470054, 0.39945094241898943, -0.45278546180812645, -0.041140751454090435], [-0.11205857902690167, -0.018903940624877574, 0.08626273974203719, -0.1327224856013196, 0.3474142606840649, 0.23311267562686366, 0.033712949161995076, -0.3363295966497146, -0.9253075991829876, 0.05659647392113084, -0.18172673973268658, -0.22109213766239175, 0.032310511891449754, 0.44431360633278955, -0.2137036900436389, -0.29713949907797227, -0.21846309411702478, 0.4694388147127027, 0.10442049951570542, 0.39203870157542825, 0.11589954228587224, -0.1267151181966287, 0.11158020394887969, 0.039703216895284464, -1.0132977879602911, 0.3140672264638933, 0.10876103841017931], [0.47832258545728107, 0.01400664248627322, 0.23902783935933414, 0.12909415118111323, 0.04286008435589741, -1.3607004330675911, -0.6345291688114211, 0.13478746101338795, -0.2424349419745302, -0.06337127202668859, -0.1574651513443129, -0.07978254631848578, -0.21939763310503801, 0.17549598920158277, 0.21130280003683344, -0.16077874904374775, -0.008266354290802011, 0.13796833504142694, 0.6037233303472078, -0.5685273290051939, -0.057773899575726845, 0.4199933845513002, -0.5449956722727296, -0.619234855693607, -0.10567431667978608, -0.2505348727976716, -0.05106503189790353], [-0.26613606961148384, 0.24086666667491138, -0.48558610364003846, 0.060331787641134615, -0.4230428451381307, -0.6280224454799123, -0.29573723766322263, -0.5793522490976537, -0.028108204122863346, -0.048082148731583584, -0.20671001037579823, -0.6014276520635159, 0.2473611125479874, 0.002578060500845109, 0.17682179947505577, 0.3862320417534974, 0.42353706202347885, -0.5024808062367377, -0.20412088990254215, -0.20161272618694573, 0.5014795385212988, -0.29488523943684486, -0.017972738845767017, -0.20628873014253402, -0.13223606447528252, -0.8267682988593626, 0.5188001508339183], [0.44308099074302226, -0.035662816004756466, 0.4101242336999364, 0.19976062469810993, -0.44228150140915745, 0.9308149433675088, -0.233765920071674, 0.7860977069666985, -0.2782229155646769, 0.02198491746870195, 0.23585880046397095, 0.16798290311252043, 0.2897384814570967, -0.40641324137832036, -0.15505270014206518, -0.13366793151409775, 0.40336981268616473, 0.544223668164537, -0.030105662818850448, -0.48885954417411803, 0.32298997672003044, -0.15505311107797642, -0.4883582453593093, 0.3984978145931268, -0.15444902845478212, 0.800451331852092, 0.3434055226822754], [-0.3995822194663941, 0.0005828876144068928, 0.7205375567577191, 0.07591611065951712, 0.5033775073347558, -0.05182976307513119, -0.05882523153077939, -0.3778137781548636, 0.4773401370723871, -0.3145753211935488, 0.13786975853724528, 0.14284051444981175, 0.2363426270155549, -0.46413402041176594, 0.0344454469137094, -0.005148582403930654, -0.15143544810673606, -0.03281921132127713, -0.8654648021208682, -0.2391365301725766, 0.3389471432190114, -0.04426329949476449, 0.061520578046431025, -0.4475871229286778, -0.5715229494240328, -0.12495632351592897, 0.05428636150636214], [0.01508178100072454, -0.4154181700873641, 0.39338271552024523, -0.2808837259203494, -0.5000803709262547, 0.2571757152237453, -0.2694942890385127, 0.5838210965155077, -0.0032913797006083527, 0.39214630859924154, 0.05516872109003936, -0.3590645232893614, -0.5258541111130218, 0.17259351731266748, 1.0503984634584083, -0.15679601349826658, -0.5321768596812673, 0.21316053862283083, 0.8709355215344534, -0.23998413503618157, 0.17398077796691427, -0.7254365165540776, 0.654079648569907, 0.04750346546565455, 0.1691148519849805, -0.3619541275831432, 0.1173514997310224], [-0.3853721166240828, -0.26440600653411533, 0.0018481155865736787, -0.5794304426867508, 0.38939461370407435, 0.49308312000495386, -0.2764176402564047, -0.5793683895097701, -0.08522339018399577, -0.23538259274371398, -0.1282592870281795, 0.07719602300364657, -0.1735457930610935, -0.7269289299851032, 0.07937853033730603, 0.39224742684949876, -0.10391668463817798, 0.1954707931032204, 0.06518724348078758, 0.11012759647633258, 0.605797640161522, 0.5062920674059063, 0.5045359756394856, 0.09558580548108675, -1.1362461708227514, 0.4190431663326881, -0.2603620971357887], [0.36045002191632214, -0.06158818707788949, 0.6569300425669091, -0.4090054783761051, -0.10151616907756311, -0.4599564567404948, -0.18681577087192539, 0.3569569945177638, 0.5607220514023381, -0.2507665422595241, -0.25603742457469164, -0.08741581898884153, -0.11416113995434256, 0.1724433220218125, -0.011719113509511742, 0.026960049358598637, 0.07967744701799338, 0.2357420531621499, 0.2179822294115603, -0.5879373891358091, -0.23512874077280882, -0.24343207416080773, -0.5653388307026036, -0.6917328183254826, -0.1664239780724165, -0.15632260598731526, 0.025116011838574814], [0.5593845293207869, -0.09382792488489317, -0.8571843368361663, -0.46517029316330216, -0.22837076710123935, 0.48398146486794635, 0.18177864749932512, 0.07329227670515896, -0.22374773266238374, -0.3951086363371384, -0.19188241199261782, -0.035628691507845076, -0.13196365923407266, 0.11686988098841838, -0.4055446004601013, 0.0036827137290788704, -0.10306005144263733, 0.2460517283681591, 0.6665553169538542, -0.18833689257477845, 0.21216983954455898, 0.4740878443283017, -0.6423373632352117, 0.886279429282154, 0.5375133446164851, -0.21201294459839462, -0.8577721825705306], [0.8273376171455011, -0.05874054187820241, -0.3763337342896065, -0.21397119628341885, -0.233968798161345, -0.0180696821389839, 0.11952045127798029, -0.04206728327299509, -0.07369570889275652, 0.1735224890625607, 0.588615056873716, 0.5839931759048602, 0.13071240619087396, -0.44394410436026854, -0.07078914838938923, -0.029351256427090813, 0.008902345833181127, -0.6772973316052016, -0.493814747893186, -0.2546386242909821, 0.6728072225888048, -0.1908941128665256, 0.30528521900992933, -0.08276227623231058, 0.09197619504151333, 0.30679804046300324, 0.5749995782001787], [-0.05711132380783847, -0.20163806926680392, -0.02648869085506818, 0.26323263330274504, -0.3731997712902674, -0.042511682297379574, 0.020249481094020968, 0.7839232765958408, -0.12106169607769, -0.054595224480028764, 0.30938770787531905, 0.6520271040995993, -0.004702940334366566, 0.6264576681083153, 0.16020787308784293, 0.08229857216229651, 0.32588985134322096, 0.05661960909135618, 0.2903703590995925, -0.5558027899283677, 0.28662540559665156, 0.015830204492081487, -0.6262388608010555, 0.1864957209697382, -0.3625314043071606, 0.5428083480700727, -0.464457361896558], [-0.33673942652447286, 0.569374574969673, -0.2970416597005695, 0.2155778013925313, 0.529205871419745, 0.1552323686334515, -0.13586461466334313, -0.3013352692674243, -0.22235333387413617, 0.060091234222504224, 0.17626133138469716, 0.035904023950983174, -0.016441491539216698, -0.2130742029355585, 0.1257159803583771, -0.18505275556800516, -0.10145482657755256, 0.27538164254559483, -0.05611004218104716, 0.6529312962245191, -0.41998100736380223, 0.07078537145700102, 0.02625962149467864, 0.6368081852477456, -0.3289943857230257, -0.15907486042993133, -0.6161914283827272], [0.3759153114808465, 0.45422432010470926, 0.010015104928434737, 0.29793763472825735, -0.44117254173360665, 0.07002641253825916, 0.45933902203122606, 0.7134946246648551, -0.4693226323753305, -0.140215723962872, 0.010093287549915706, -0.41289184089632575, -0.34600541578375227, -0.3077656732643212, 0.09221063110868594, 0.41491577917109296, -0.3759165662036788, -0.14009879876001186, 0.0033589201524324673, 0.14776215295144654, 1.1553236799633764, 1.2330318687680082, 0.2570738922795615, -0.32565056658292163, -0.07415302777209397, 0.32247390589519603, 0.7324387839612078]], "bias": [0.0958483086963726, 0.18772185303228597, -0.12930831393005798, -0.15003836851336438, -0.029458543061739943, -0.14124265350903126, -0.08844340028983229, -0.13082943003424238, 0.2380195989502655, 0.09661289046745103, -0.047993792430134116, 0.008652842701769976, -0.10276852872148434, 0.01840023850518083, -0.09025094868220875, -0.07902646947749643, -0.1294748108699234, 0.1798095374654026, 0.12929714977144752, 0.16033151599052406, -0.13947322478794616, 0.06565709907167827, 0.06582339676883307, -0.12903760777448656, 0.17659432035409997, -0.013984311470654303, 0.20391227776878265]}, {"class_name": "NonLinearLayer", "non_linearity": "Tanh"}, {"class_name": "LinearLayer", "lay_in": 27, "lay_out": 27, "weights": [[-0.2804507793453354, 0.041162836651984475, 0.07739600757379177, 0.0780584337536658, -0.47017455008644027, -0.4527877429605237, 0.3226255883151554, -0.17844239321190905, -0.4271722723867555, 0.020526152902863137, 0.12812282090908356, -0.46338794369053316, 0.008430090111375774, -0.1811866042909376, -0.22209761327618352, -0.08504787976722532, -0.0751372403957095, 0.08996035675791018, 0.2266669853786325, 0.21958901185737048, -0.693965068264808, -0.2530270723904336, -0.372663520596411, -0.3148673936787423, 0.24814355348618614, 0.47273758266354315, -0.08548120511226925], [-0.38225985085646547, -0.10267593731557977, -0.22598933493207846, 0.23450855724986847, 0.47809057477015376, 0.030478465412468788, -0.00744282728024824, 0.7927511284585455, -0.47442228514615997, -0.453841596579876, -0.22057107659026176, -0.41952632969915216, 0.09592938530018606, -0.08097705569771463, -0.25562035046916437, -0.7153891592318564, 0.056046803865772384, 0.07371949636123167, 0.21935324832230077, 0.39831560728894655, 0.2377827487118307, 0.04122864666185436, 0.038305752653635526, 0.2092686176835107, 0.1756151374968044, 0.0011555083984348756, -0.07814100462408362], [-0.011125593275774776, 0.02614263971979402, 0.44279466070731, 0.26964088837944195, -0.3508201925025657, -0.33586001032112556, 0.1982407868552909, 0.04029872286124734, 0.27756321867487765, 0.3473114614627712, 0.019980135277653712, 0.003762450075388258, 0.045877259965552544, -0.6336708533716517, -0.189030616335759, 0.4085562031076252, 0.8182297871461469, 0.0881363454886636, 0.25843620432478254, 0.22899556614918207, -0.02361282932136348, -0.3826235606492279, -0.18001182297962, 0.5709957360519763, 0.04825843476560888, 0.13784823855675343, 0.4752959030404774], [0.13134286222840422, 0.7146060642269275, 0.6242196777974562, 0.3091100520751935, -0.5563971373170408, -0.15637291020808847, 0.5326969797177795, -0.33937319631086393, 0.8753852447932117, 0.1480802372641915, 0.5515220786340085, 0.3137742855061755, 0.057762399617610066, 0.12553841734002544, -0.39241975965427756, -0.7622058994615599, -0.15328429218166376, -0.21295762876041305, 0.12790080330581427, -0.36092153462601007, -0.23931264355626408, -0.0003074352670654902, -0.0081189989400468, 0.18629897027192896, -0.06919096154993254, 0.0630747682278764, -0.5313100842981371], [-0.042076341115295464, -0.019088571343250416, 0.43306908500086994, 0.14844931618497506, -0.2919565149494971, 0.562226759102418, -0.2173188089403137, 0.04350455075299039, 0.19939518750858845, 0.06027361233310726, 0.06390839362797303, -0.07589786701135792, -0.2249810621090385, -0.3312556876156745, -0.4433031434884598, -0.20753927434169228, -0.19161533664115518, -0.07225019905255264, -0.6782331846886779, -0.5161510691666035, -0.26861285672074026, 0.18922008172925378, 0.6579133512309813, -0.3231317401496525, 0.10380490565853077, 0.654788685166334, -0.4665805932276182], [0.10014884673864055, 0.05616839373736535, 0.06816955785008345, 0.3152593311753957, -0.44394079220346944, 0.15886490896690164, 0.11776168749114403, -0.3873377407024283, 0.31195649231653866, -0.13377457224953018, -0.09240747497365799, 0.1582380388544385, -0.7160305898816886, -0.3848346910438742, 0.6507028533009437, -0.0060379299921525, 0.015065516002466237, -0.26285519237515853, 0.2124286751255852, 0.2011575962917573, 0.529455240694921, 0.022967837183586373, -0.6349856889570057, -0.7549384601020109, -0.3047492322361351, -0.184715836145342, -0.27915993270371425], [-0.16761024594623153, -0.14269070054295682, -0.232266410837515, 0.36841933506582314, 0.544412553812341, -0.4891893341840702, 0.32165602804365134, 0.2807696274365379, 0.14279111330096494, 0.0741176008262903, 0.5068235247587438, 0.46663304715601384, -0.011419653607257095, -0.18049548307556643, 0.15269539249295472, -0.4254625792856429, -0.288687379152802, 0.247299138259413, 0.34144375015487, 0.21332132846794755, 0.032163535456917, -0.0364213608900533, 0.46855989079783084, -0.06205723133100123, -0.16710220874364107, 0.06705583826456754, -0.7420774302686115], [0.30426164316983884, 0.4831937803801853, -0.31562211046898214, -0.3668377884941418, -0.13496656165277826, -0.23518826075471885, 0.028918519857397313, 0.3826988192563043, -0.3974477323175173, 0.3405828266024726, -0.07615289396277988, 0.2380469631619747, 0.038156072816042094, 0.1849090173904618, -0.9016968215073445, 0.8021451252587795, -0.26960033258754984, -0.226442672405117, 0.142197713995905, -0.002927361827954207, 0.06093581817308476, 0.40126731527049925, -0.06626391238511585, -0.44664082024545715, -0.13870488848809553, 0.9472848398652851, -0.9628335228169856], [0.4710303659800243, 0.20529933417487503, -0.10712531000996903, -0.2724454603020628, 0.2916190609098245, 0.21843806903982727, -0.046080615621737646, 0.0875468238651846, -0.32265792956980577, 0.4297459865902375, -0.36356791694551227, -0.3673659033992833, -0.16656159266263454, 0.0070637099793878525, 0.619386242779153, -0.013257467312969362, 0.07870570762384735, 0.5074511491294622, 0.4264344976905633, -0.26702003869599517, 0.27647194510375267, 0.24440554907350154, -0.020790906303155065, -0.4681347781085773, -0.21502536204564104, 0.12626489293605803, -0.2484804320257309], [-0.016106154742503494, -0.2803878675944837, -0.6592214438252365, 0.5725611791341084, 0.5189243011338036, -0.09627744287158838, -0.02775852829232244, -0.2527345238972376, 0.15109985089027345, 0.5057734516802116, -0.3696311860111135, -0.1743535344344543, -0.039251185287756785, -0.3741630626451025, -0.5392909469573364, 0.3984648397243106, 0.1256073047432333, -0.5725751418292087, 0.6581947321195107, -0.1488684409252209, -0.770401543097031, 0.8066063273354727, 0.1853210362855656, -0.5791925798985733, 0.48119810028640203, 0.17978627181891663, -0.45059743492601756], [0.013944778988380126, -0.09327182720935216, -0.09896757030818491, -0.006675751319442275, -0.14166303932112648, 0.1777190214382336, -0.37332539679308424, 0.7274571971746487, 0.0059469265440044985, 0.22304250472426476, -0.09704260903201806, 0.4740985198945886, 0.08465248637556506, 0.1743817730057112, 0.35561558470547194, 0.2535673469378045, 0.46917148800921593, 0.20621011027455258, 0.16373552816618542, -0.18644688098385095, -0.3179577820126471, -0.0496046715784346, 0.1132078024115967, 0.23560830349927628, -0.10143338369336001, 0.16240671261427492, -0.11537990029932438], [0.11824535643895148, -0.01883318756919814, 0.21340530864824467, -0.19362926902314379, -0.4879866749476371, 0.6419286450586992, 0.2380850113674129, -0.14417914288571873, -0.18087680072024745, 0.20713185470726625, 0.29383930403196346, 0.15977798844228322, 0.0688651569825259, 0.1443771442269702, 0.013495759951554193, 0.5673344611214339, 0.2601623519065657, -0.18693299429559124, 0.40332582315060783, -0.12071731315191803, 0.2029497263106204, 0.04059721843164455, 0.00884921143155894, -0.18513967412270674, -0.5017905082071382, 0.14865583887441497, 0.14331863622786642], [0.43243950430382044, -0.022836596871567524, -0.021808281498542966, 0.10463720787483884, -0.9849529951936695, -0.32578351348568346, -0.3896160143783731, -0.4607467147504004, 0.14324160105960376, -0.5516894989437567, -0.43612663836145216, -0.06405072624696337, -0.4974913245607517, 0.4818873767979596, -0.3318423649515631, 0.028004334696223234, -0.21589627137408943, -0.49711972490970174, -0.32359835424637745, 0.4824281522978931, -0.6551996748918847, -0.030553213286053475, -0.050711910272426296, -0.006314663031174172, 0.10133840924899078, -0.36698189906023804, -0.11778672924143115], [-0.06101648477024449, -0.2529494530649268, -0.16180100973052264, -0.6139092869555492, -0.03212036784896259, -0.5280667697695677, 0.15605092552833333, 0.3985876674396272, 0.1656823643813964, -0.6420887088808633, -0.15478674618351412, 0.36570163513316684, 0.3794783539180265, 0.23201226501994932, 0.33514658770882283, -0.33545772282768155, -0.31556574169967877, 0.340389892656249, 0.3384024272534148, -0.04142611094348579, -0.7613791644351725, 0.09869726138148403, -0.567023349284631, 0.0670776976306691, 0.38975880006690033, -0.13410873117493463, 0.718903948619168], [-0.15342313678483155, 0.3792519878222206, 0.3711060484104811, -0.11842495773784822, 0.41179588441622106, -0.5542916291131871, 0.14617980524110252, -0.14281675839507585, 0.5396505865874444, 0.4670762524971841, 0.26328468657649085, -0.23521466995598247, 0.3451763697952716, 0.4154242183780656, -0.5048401794004691, 0.285792903433097, 0.14358212893982022, -0.15820499042968572, 0.33849070099386247, 0.7474846721758865, -0.03669414163777111, 0.9446040949318364, -1.0305472400898463, -0.04168687603116172, 0.001911210102106012, -0.12369495179342471, 0.11157463703593938], [0.7268558805340785, -0.26976645439986796, 0.5123952771101726, 0.16723096038345336, -0.283856609044544, -0.08865071941498795, -0.12925245627543913, 0.37568326348931536, 0.7387845377360688, -0.14378257696488703, -0.10623554382641712, 0.20806520332968043, -0.25936353380561444, -0.2994301531469457, -0.36540520304621116, 0.5321606250776919, -0.4929428234293261, 0.005888694045633133, -0.18698503763942173, 0.6262251027164852, 0.4257949052651362, -0.4672628630946357, -0.22142540806904057, -0.3864690536182296, -0.00553140013087098, 0.3433303003036505, 0.012990608366186816], [-0.28177557063558345, 0.10032649566105846, -0.16234906985640507, -0.07204759298481615, 0.22900160786591478, -0.10792652058535447, 0.1601263639088643, 0.43893567138393214, 0.33975875049933324, -0.1595777039232976, 0.37695404528308474, 0.1210452020875961, -0.3090329289978874, 0.058722499602662015, 0.14790368515639515, 0.37477044963330036, 0.3833089465740549, -0.303314638198058, 0.2548156936980619, -0.0001278223905072184, 0.36978729704614705, 0.13985508969005905, -0.2960772388500326, 0.5572212978488291, 0.058178961245099706, -0.20006474391841214, 0.4017371574331339], [-0.48087585211871037, -0.3825751778288607, -0.7083272462936406, -0.45304290251007145, 0.38081988016068835, 0.5736701124218171, -0.19180282024718803, -0.5054767892603194, -0.3824454841410153, -0.116898368094541, -0.42466897567958783, -0.10950601605484692, -0.5603643204323608, -0.8044895391614488, 0.2613647419519855, 0.7086195098379009, -0.13746410361183053, 0.3457322274825185, 0.08566391858852641, 0.03719011781131222, 0.3462194461007175, -0.12087849824623544, -0.3070914865356277, 0.04101584031105159, 0.4207031490596833, -0.7532129566479799, 0.5036201434887957], [-0.07873048921448655, 0.020619969926441287, 0.3979495659706102, -0.5850256449304434, -0.12845923889358074, 0.23067658919314515, -0.8172044601296535, -0.3806906511904082, -0.3934141486305932, -0.04897477946871189, 0.14003584901530206, 0.12231648403466926, 0.40783542047912097, 0.7013273627499208, 0.10142215472667353, 0.044714475974575146, -0.2404112934077957, -0.43059611316562674, -0.1275393023868261, 0.21580268218730866, -0.5820195868354731, -0.1343502007931993, 0.43479133000571835, -0.5172070418879573, -0.19547089607703358, -0.050912688992409263, -0.057745764204758646], [0.22443011155629866, 0.11435932457392203, -0.25564420217499334, -0.6709933406783063, -0.269306192460997, -0.34238801715917977, -0.003956970558154703, -0.5872361310028917, -0.11845623931015645, 0.307183448653411, 0.2601283389858454, 0.18072995936296357, -0.3278830857430361, 0.43121270130779915, -0.23018884490888367, -0.03882820575850862, -0.13523378280307535, 0.010672141181974647, 0.0888843462478239, -0.13970673935042088, -0.3847831984842892, 0.18832788509930856, -0.07893516761940339, -0.20847411902723478, 0.2086363427163089, 0.11287836281879574, 0.15347491139298763], [0.02893778515042322, 0.3766947132615362, -0.07943786498214406, -0.01354481831828843, -0.2763299279510463, -0.21818318883218793, -0.29953627875235284, -0.4199101111389041, -0.05907473075508163, -0.10744942934791214, 0.07901019342494704, -0.6136062618733696, -0.1269305999654452, -0.5642002348650003, -0.6620744222057908, 0.44890165154910117, -0.24670114381466865, 0.019218267788974328, 0.29906801592372456, -0.06779367443067781, -0.1940613441824273, -0.2674571203006786, -0.3912498375728741, -0.6409157129908364, 0.312563581778232, -0.2521121175510191, 0.8387115553999172], [0.2870969250255013, -0.20028756459441918, -0.10634799363832478, 0.7470469927203685, -0.3546882454284912, -0.09540902319418364, -0.056183837137765105, -0.13008143157538488, -0.33789252552710736, -0.1679582218313188, 0.6463468078830094, -0.2010446214462007, 0.35443314228112893, 0.08877148944965423, 0.26335387232637414, 0.37226885335220944, 0.542272002250527, -0.33555131538825633, 0.4837611112975539, -0.38321355539825275, 0.08711885943617992, -0.4107144593834733, -0.7839851253414939, -0.3781286797970766, -0.1493408466594148, -0.13960474839925097, -0.3467457545683732], [-0.23493468990419025, -0.2330378012094218, -0.26681735044833366, -0.51808339137315, -0.44126594425000387, -0.1633457407575294, -0.2800163768565127, 0.05392666805114174, -0.009879081781411357, 0.08581455450290874, 0.4384909725570495, -0.028564559266287103, -0.31263128777215543, -0.08549850649230896, 0.19825886952851038, -0.3773151633371687, -0.36821764239818866, -0.13197906458486194, -0.024781006085052945, -0.056847316834364045, 0.08406852476976025, -0.3993752676580983, 0.1252968565405363, -0.09150234796626394, -0.007613747731455716, 0.8859998225305183, 0.004098767299129665], [-0.23472476584577348, 0.4633224029497547, -0.17947049589175826, 0.2386020227747447, -0.33473953012895186, 0.3284375753690406, -0.23837788300239635, 0.47220587979477624, -0.3628919938521429, 0.5999994772337516, 0.3280945448631101, 0.44063692772211643, -0.36195555941183455, -0.4814362805103484, 0.3648712527052937, 0.018755557469112342, -0.10089493795413439, 0.3649830850506536, 0.5046611215366238, -0.06428758034949215, 0.4918528464121074, 0.22769940439039077, -0.6631660634275801, -0.2594948978066968, -0.2955302179773238, 0.5526742308686777, 0.4018136253263182], [-0.6702036103970809, 0.5967777581586786, 0.521086273860632, -0.43252548262802976, 0.08617935403547777, 0.45935585587940775, -0.240546344681133, 0.20757128892867088, -0.26279729167415017, 0.689628265531224, 0.3039983088014909, -0.44975079509596705, 0.1402658478443443, 0.11638771457405975, 0.31297021646681994, 0.5437762684910167, 0.09361681332146939, 0.5493657095312887, -0.39574250173965675, 0.5621468656189467, -0.41210193592175953, 0.3992362524374432, 0.5964445140323595, -0.36439417616966746, 0.09465503926362406, 0.04236533911974955, 0.24186483731883043], [0.453764915403929, 0.5795907326145703, -0.03570024631009442, 0.15448527070662593, -0.8626525015372999, -0.27720846302613744, 0.3038277755850995, -0.07336198453163127, -0.5158644971174726, 0.590055724299043, -0.3232292145703342, 0.06024390913329772, -0.05125791044752628, -0.16783520789651893, 0.07488569424090406, -0.03615231941597154, 0.08918333699034657, 0.5183320022347269, 0.20026076258552997, -0.1314566975063739, 0.22572633763643096, 0.6312865519508666, 0.09041781241844174, -0.2929254063731809, 0.12933251359742953, -0.09830197409343192, -0.03860341724906652], [-0.3023893364620241, -0.09861487331275212, 0.01181266856726614, -0.1929207904090054, -0.565333969193335, 0.29193299178106175, 0.21808061501220868, 0.01860707038503763, -0.9737397409315737, 0.08213575012663361, -0.3085219631631525, -0.40465951637375003, 0.3218304275795415, 0.2305659251713017, -0.012292710593909848, -0.05322514879327341, -0.16589894399910993, 0.16087544640991955, 0.41770638247583136, 0.29425481573035506, -0.026202157189883016, -0.19998681894743547, 0.2619812642761658, 0.364369596800232, -0.141982499299891, -0.5669907564533958, 0.16571011214906856]], "bias": [0.2736954895556256, -0.027201654937180554, -0.12457153166384514, 0.1206640719214298, 0.23590807976491643, 0.10354349500609829, 0.03938627863623483, -0.13242161878798211, 0.19804326377827774, -0.1006753581527354, 0.12308607426441313, 0.09787015386139546, 0.18060784906942284, 0.3728989113668568, 0.19142869485327643, 0.14957979161562782, -0.24777926385195165, 0.098507694714867, -0.064392252010707, 0.2773307822360123, 0.21912697475301754, -0.24247873705498776, -0.07457585823894881, 0.09336939068994207, -0.10510792178064406, -0.10237674531254803, 0.04641605926382196]}, {"class_name": "NonLinearLayer", "non_linearity": "Tanh"}, {"class_name": "LinearLayer", "lay_in": 27, "lay_out": 1, "weights": [[0.012106759248281085, -0.03809406433804248, -0.12965003908248493, 0.27623897707016354, 0.259810749960875, 0.16077127082628564, 0.10801839526820148, -0.16186253212542365, 0.1802665558288594, -0.2816576241309677, 0.1680581048271046, 0.27100140407441503, 0.3953709559082363, 0.2287604710932037, 0.15467017303543829, 0.0852746758773531, -0.4013370928197291, 0.2915601485864673, -0.2823995485394566, 0.6147365333370961, 0.27719488854262436, -0.5205134260372137, -0.34928631900593676, 0.3629660304098033, -0.22950934863633482, -0.05285481787369898, 0.0077233141055197945]], "bias": [0.15153600406783863]}, {"class_name": "NonLinearLayer", "non_linearity": "Tanh"}]}