{"class_name": "SequentialNetwork", "layers": [{"class_name": "LinearLayer", "lay_in": 27, "lay_out": 27, "weights": [[-0.0016032121194186437, 0.8878452581814608, -0.32405246461340104, -0.19614478060143806, 0.011589530575554263, 0.2141484419867675, 0.8834092918255857, -0.28536282677143965, 0.5387031700278314, -0.3189050437892971, -0.08295841321805199, -0.6083418429547476, -0.16581788483439341, 0.020940173859427102, -0.022890595463202917, -0.36800242858504184, 0.1011407738656364, -0.05061141364404742, -0.0585388242225403, 0.30783188052316224, -0.6091661840998868, -0.028821401620440803, -0.4667324841593651, 0.0931240537497249, 0.00878892982296444, -1.1141538723784525, 0.36015099687750024], [0.35578534208812385, 0.04791110929817067, 0.46548202684462336, -0.31309387589096377, -0.16513226754736324, -0.24714592896250961, -0.5908133491477605, -0.6797922561941177, 0.06897405650101934, 0.2631498736730891, 0.12119426388743686, -0.1488740252049251, 0.051192159395050826, 0.4972149872866372, 0.03766303489938079, -0.14424973972825356, -0.06550143017770499, -0.23454835915686284, 0.04370351510323081, 0.197170488987505, 1.0230541664302504, -0.4236807210133172, -0.0066941519120253465, -0.06408368021466714, -0.4104366019216079, -0.08112413277776315, 0.19282515471580544], [0.6762607144501925, 1.0440976762964205, -0.539864373345791, -0.014669623581421206, -0.3329319407493059, -0.15707231865248422, 0.9507102866208927, -1.0923020579841702, -0.1349715231373562, 0.19941811301709078, -0.2596052195212931, 0.13443092666779974, 0.14779527366180445, 0.025396034343257337, 0.3846765524525003, -0.040835194450201964, -0.23646405629870962, 0.1507762891657121, -0.06942893774781926, 0.541827241300639, -0.3024488857663698, -0.08804428540199727, 0.6232996032859123, 0.07425615197097611, 0.6510594079197842, -0.5341295587038745, 0.2523971681756], [-0.44197508820924475, 0.016078162211681447, 0.021179530479841398, -0.45988267849792974, -0.05640928100534108, -0.33061024315313275, 0.38316854320572996, -0.9280884757068838, 0.5969968914911441, -0.11024717806747361, 0.08407273008115167, 0.053032648388092664, 0.09592274443892157, -0.052939490052516955, -0.028871336422720283, -0.13217405539235894, -0.19194464069454106, 0.11753055049205606, -0.5488585514517845, -0.2842388549789379, 0.4032341256649766, -0.2242868803718801, -0.03763289139167525, 0.008967762964204571, 0.611956976739366, -0.7734348910890007, 0.5230609910620692], [-0.05296200848212262, -1.126949221030176, 0.11759070856764826, -0.31819598001412835, -0.4699401112840182, -0.6889938325662947, -0.19109873785868545, 0.3033252416922031, 0.04251958295871974, 0.1267140972091299, 0.13717477425659622, -0.1530549655926262, 0.14135531074952282, 0.0024782145392056544, 0.35573460028908166, -0.18973525193792673, -0.16682480923738638, -0.30068900790814657, 0.2883765468888651, -0.9227033575722753, -0.07635232057688675, 0.45920219456142264, 0.4730326751841053, 0.07312608402082527, -0.1594043544522993, 1.306991994549491, -0.22762383375469591], [1.3164740875024779, -0.15942824462676522, 0.4753440392942018, -0.03305004944519307, 0.9708905878201994, -0.04072367951743117, 0.10448407385543947, -0.15616388337608553, -0.6615745530903354, -0.03803069848253364, -0.07970377919232986, 0.054087377597776806, 0.09827299152325734, 0.010453423099995956, 0.06687469126283019, 0.001291792622675638, 0.2881759202322364, 0.4088722695637045, 0.5213941858157031, -0.40781315429215126, -0.3291593590973422, -0.11588303797053007, 0.6330115407346323, -0.19797422600274683, -0.13472776496446218, -0.36858999546029475, -1.5836896213038634], [0.16866102983094408, -0.14488411974601514, -0.33500560280844427, -0.3169507618256207, 0.925068867877215, -0.45796842241716706, -0.06032489189429398, -0.3829041431722136, 0.9398906282577872, -0.12233768585902818, 0.04218571775643777, -0.04793784299820825, -0.1399906004607954, 0.36888069402486584, 0.005211108061626019, 0.03517445257190579, -0.2923213711382766, 0.17884558929830663, -0.6347820399446947, -0.1178934385986639, -0.0018341304955945834, 0.2237732054647173, 0.14196625659511825, -0.17514374107399625, -0.08709591531974828, -0.05226666397634737, 0.8017329552363784], [-0.2097759077744153, 0.5293961741338177, -0.1843775871906354, -0.6245700570008786, 0.23819711451755265, 0.2187539895410986, -0.991304547057753, 0.03544941773796206, -0.554762730958903, 0.018663523373817072, -0.08837100365139262, 0.0411089176476783, 0.12749468401732061, -0.06702174176224009, -0.16672478811023347, -0.24372341236055384, 0.027097162461671986, -0.019335001284539324, -0.023011029524834272, 0.032525533693040086, 0.027175113867702272, -0.40277639121279535, 0.21970685038102886, 0.7232059128427292, -0.1956217844426092, 0.6572237707505192, 0.34111737206438747], [0.9770185368923332, -0.07038263972656318, -0.8406210130568852, 0.05948000976934653, 0.8529380899073523, -0.41350586853551957, -0.3884833255097778, 0.12339370054791256, -0.39531956264750534, -0.22770924483552152, -0.3841345572864419, 0.1629237429920422, -0.049560509662844456, 0.18536468097753983, -0.004680759657017255, -0.00022054182845190868, 0.2555858749347357, -0.2928243324987007, -0.41543204821148844, -0.48421966176792286, -0.6068841520715287, -0.13367768648104322, -0.04030410827486395, -0.5599752145921141, 0.888943305174915, -0.2872337950073746, 1.7690275731574074], [0.38496414140654095, 0.3116200882201678, 0.17970020906125225, -0.8901646703822523, 0.4901784837178634, 0.15974433276907585, -1.106392011020579, -0.621257321996332, 0.16005813889512824, -0.5649729694953377, -0.15976455627170574, -0.15692856528839857, 0.07281699611891725, 0.08525223891049503, 0.029355974101484918, 0.2796932219481575, 0.19188507364784957, -0.04234778831989859, 0.8755416884378249, 0.08918864961041137, -0.18965322866874218, 0.20795460674611504, 0.03750234373753804, 0.1314812276718997, -0.6250475876874108, 0.4304983953472368, -0.779655406121968], [-0.40988064302192034, 0.2415731398809091, -0.6628384326028308, 0.33862022797018343, 0.26113814379036765, -0.019407658478204602, -0.185997034547429, -0.4254174835002492, 0.47827405249971777, 0.17916801789740217, -0.05665511214530829, 0.4407501270095763, -0.1208072682021997, 0.1950041800352846, 0.18258837598485267, 0.022750316058775803, -0.008092705259605919, -0.16251146284765008, -1.40346711678185, 0.6334018845036389, 0.03205739060376277, 0.4750802882249947, 0.6951790134294586, -0.7608769667298585, -0.2667748251870302, -0.004836712171915073, -0.1933865471146268], [0.9150239381659938, 0.21306517004204384, 0.11345625055081417, -0.13474720178781197, 0.08981822384487408, 0.434230834394526, -0.4411921323292076, -0.6057030494367323, 0.33705456869123696, -0.2045732426661248, -0.4846771589537296, -0.41075023139992073, -0.4552366721762915, -0.0079993661440445, -0.2015495180895706, -0.09595513995300829, -0.5979783082805425, -0.33613598373094056, -0.16144157373868154, -0.06433483228112293, -0.8957002683252715, 0.13540231655394064, 0.6794701128453706, 0.6902186452474938, -0.16632987885628361, -0.16662784424837282, 0.20033492908075387], [-0.8362561861558544, 0.05409524813373066, 0.03686231997860516, 0.528167844955243, -0.9630966841669187, -0.19960428568298597, -0.08644111164762504, -1.4807245359453844, -0.24088424736647737, 0.3973175186037996, 0.08832690009238764, 0.22866355216679302, -0.1796774830252714, 0.1885509109443782, 0.1469961889721727, -0.009494356177164095, 0.14431128150769615, 0.14768056142528804, -0.2767602177095972, 1.153358649401744, -0.2530841380886865, 0.7361927897217792, -0.26218049819162337, -0.6632865694558832, 0.24508039151545438, -0.10248862443776438, 1.2514643738197813], [0.06089132396791133, 0.14023023845355362, 0.050244290527734055, 0.15543378157337376, -0.8572111323154299, 0.28910111948329803, 0.5660465690407331, 0.029502692542629154, -0.8003164784726123, -0.7247540081447947, 0.20896529223354493, 0.3855212948608889, 0.041413563952915254, 0.004629917662171694, -0.1529199372870398, 0.08016127348925987, -0.018268525614163658, 0.2266630580221577, -0.08450894419968329, 0.6956019869070078, -0.2234293586616687, -0.13998541117591712, -0.6641182411021055, -0.16786398732096358, 0.5857175529555771, -0.5521429305378982, -0.09985628166298145], [-0.08939612598258548, 0.09246213482501914, 0.16399936257435097, -0.2776778170244267, 0.5733323634337957, 0.33646030306706004, -0.1852960364439029, -0.2741468655517492, -1.0092823324098048, -0.10031230365930119, -0.19416825094525306, -0.2006028385408843, 0.003120804490053946, 0.42645298008672333, -0.10290857073387828, 0.03915497269858142, -0.05324470225551289, 0.321412698480572, -0.06498393371255082, 0.3057764809905621, 0.4610236978473695, -0.019832154657913107, 0.4150034496982034, 0.06952440386772898, -1.1755425732766576, 0.3838406752056661, 0.06903305716212], [0.6276918795544019, -0.1555182645985377, 0.4957520011954999, 0.3625173087041937, 0.08871083662086009, -2.249068519978369, -0.6874541582241135, 0.09168200066364515, -0.21400224211420957, 0.06955604110684942, 0.054422808323791615, 0.03796961099139959, -0.09007409730662348, 0.1919827890650598, 0.027958958845799093, -0.23786983707064627, 0.0682416206964917, 0.11910719895801089, 0.8105790277955615, -0.5731874149098264, 0.2658965094297854, 0.7263192800815021, -0.306056558222173, -0.9332133281813635, -0.45769508012506405, -0.44579327503531346, -0.18435866695941203], [0.010235979101896941, 0.27451198985314873, -0.2947497544655201, 0.1536432076939331, -0.4853723585912472, -0.9655073771837471, -0.8218049232068533, -0.5800637170362185, 0.05316594112460318, 0.11149613548292417, 0.06923796732857948, -0.3647668805270225, 0.23341009105502952, 0.10228969372803402, 0.1653593600329749, 0.38525940004049974, 0.27662625722563233, -0.31113507620587705, -0.3388942372029752, -0.1828620587624001, 0.6232928135027308, -0.25570321187384515, 0.10553342509377422, -0.09094436233623018, -0.04166362485331332, -0.7459293458542875, 0.6026581207932313], [0.4515344403860684, -0.20744084347014696, 0.6767383650936059, 0.08448292297899937, -0.8160306154526035, 1.097523380839246, -0.46578218247172076, 0.8209226736747992, -0.3909720334651304, -0.01938690540522348, 0.022370750811900226, -0.3275110264362178, 0.03178306390013954, -0.22279518892636463, -0.11681706694864565, -0.19713447548286897, 0.1761679352997047, 0.27273330551340974, -0.3186494569229813, -0.5616195545047356, 0.8690542506635028, -0.10871765661681584, -0.5988913671146268, 0.6989863712031583, -0.34135136521921355, 0.4270004365920166, 0.4711631041859], [-0.4569163434379245, -0.039177488512488846, 0.8487656564297108, 0.39057873885149197, 0.6626900959381137, -0.26886077305611866, -0.2738986879382233, -0.42820527114168905, 0.5237001702595814, -0.013841633122059037, 0.0345326435614313, -0.020701233767423964, 0.17299465036688125, -0.4061205923034785, -0.19217890677914162, -0.2078049868908183, -0.30054224954337333, 0.2269032946368979, -1.000049054722132, -0.2282428942802601, 0.9806026575186421, 0.01960891682800279, -0.14297127797185005, -0.8640881793006732, -0.7159697890806812, -0.06689986934860748, -0.023873370917254586], [0.1402701919858559, -0.30552252355022963, 0.049394364607799064, -0.5029884141641, -0.6601275973747907, 0.21307605627309, -0.37113802905982435, 0.395869072866978, -0.07523432490275436, 0.25483874671951945, -0.0787060144532522, 0.002445668324844806, -0.24204551100463653, -0.03258050230708791, 0.8308645872998109, -0.045078134245496435, -0.3375443283909244, 0.1469001359519708, 0.6737675714239703, -0.17935455430113345, 0.8088695470065903, -0.6264886440102405, 0.4756578464121567, -0.031873737168923715, 0.17463501758610683, -0.30283696973660934, 0.1331559536979574], [-0.4821476048711421, -0.383737740154407, 0.16323578540677353, -0.16504483811067752, 0.6545171218530921, 0.5955656267482703, -0.860692849704554, -0.5957311394068588, -0.1411139635156281, -0.39292635528147263, -0.03157779677137943, -0.06122503136179039, -0.2895821436097954, -0.4621498105399999, -0.09379251332297664, -0.00529824149805674, -0.018857767095465792, 0.20299520299777954, 0.20440177038362722, 0.28496017471206614, 0.6737049576538451, 0.6178826610827024, 1.000071463907197, -0.02134858424212261, -1.1563880374630955, 0.5263466143991368, -0.14093585232092465], [0.4616594518252193, -0.024219396249138707, 0.8089372904866997, -0.5492307396192687, -0.13439428276049104, -0.5134481511632092, -0.49954299224532, 0.24871463467420485, 0.7252009079022698, -0.03385612455805065, -0.1669505142066445, 0.1592927305778023, 0.17569594366828528, 0.14875740915573904, -0.10414304515260686, 0.020332527451369195, 0.13827820801006646, -0.06042363761650922, 0.13631198199617356, -0.534461330600366, -0.022534859673596717, -0.4237195265313599, -0.7880831002354112, -0.3849193328969943, -0.24872734849091058, -0.079159162724661, -0.07457826629232397], [0.6652245363380467, -0.21375651049830866, -0.8052568562766498, -0.541414249411172, -0.2818316745077525, 0.721317935006384, 0.4447056573700409, 0.13238480838572156, -0.35421812470142844, -0.3246709259673534, -0.1085900480917953, 0.1565813693288122, -0.03312582459153795, 0.11008930020277931, -0.36124411024251474, -0.12269909061518672, -0.1381877031581322, 0.1884234799071127, 0.8617360853339218, -0.2135590191083024, 0.03864447021766048, 0.5363238258187847, -0.20531711591182125, 1.173438300315765, 0.5824134708705214, 0.0605342201734038, -0.8537305764865655], [0.804433678379291, -0.10438094759133253, -0.6146251814524649, 0.017753487302804308, -0.5304692546372312, -0.23155831975940483, 0.19290187338839243, 0.1196623004038684, 0.1736205970487362, 0.2302214165190839, 0.38061520844647007, 0.45794552122048443, 0.1974441764804616, -0.23240469727252586, -0.026628401365707974, -0.14011394338241404, -0.08334640767043186, -0.21908505692708422, -0.5671294874608648, -0.3917048987887675, 0.5389140842202744, -0.5202706751390607, 0.7535434550303339, -0.057649676876847494, -0.09951405093138452, 0.5962670791092163, 0.8313879895493748], [0.006810925995219464, -0.3174290569800547, -0.005038664663748719, 0.27811577342011273, -0.5584364249001407, 0.1434892570855816, 0.07787400399206572, 0.9122225399886853, -0.12535141519121687, -0.03632391756704296, 0.3355986560966049, 0.47167659063954887, 0.17620362864362862, 0.5649602089032653, 0.3273006124168343, 0.22340166267914052, 0.006176216117940549, 0.2609139994906782, -0.06677086613320964, -0.9487771201048966, 0.11019817112513121, -0.05754023151663439, -1.1722910169353051, 0.19426491118996234, -0.42135579181808636, 0.856417391566161, 0.08120823454894117], [-0.3894008767842698, 0.6826303479191054, -0.4709061846565972, 0.056159537751336745, 0.59352912709101, 0.14716252748021982, -0.3427799350881795, -0.03576688315734244, -0.3326914801474384, 0.14601329725698442, 0.10012625734385294, 0.14510336418746606, -0.1315542498488522, -0.038230988082191754, 0.037487093619351354, -0.09298119489882556, -0.2574729970649948, 0.10230174788902704, -0.1006968669249637, 0.5953958941969881, -0.4287901828990344, 0.3937910756955041, 0.501064313375307, 0.729896476136085, -0.38935372685485314, -0.16644793998006194, -0.5783212732044001], [0.2912160580011224, 0.5934917100558219, 0.0836539494393133, 0.4172001838335988, -0.3674603292968122, -0.2687240269601709, 0.15500967224831175, 0.7177745469916138, -0.782084402398077, 0.011947357781648299, -0.18281601021169994, -0.2621369747255663, -0.28286228473128294, -0.24639901416569188, 0.2223915088110413, 0.059431696967773485, -0.2911332266607924, -0.3699261183254376, -0.16865519133193665, -0.12635279744276207, 1.108173312552093, 1.434909147347065, 0.008640149095283167, -0.4620643470994099, -0.3502939042494618, 0.4213564866058008, 0.6235910545043051]], "bias": [0.11238475482008768, 0.3767360219484019, -0.25950032144698393, -0.19227175772428615, 0.057600824117859176, -0.1733937655928136, -0.2175630311087904, -0.18966171133879214, 0.4061582201626512, 0.1468137455205939, -0.2212124933020721, -0.06903829362543397, -0.23872824403733792, 0.02828892362603496, -0.060327506153268866, -0.05241627858458389, -0.1953711276262291, 0.1579416962402774, 0.03181219182405863, 0.22931129829863664, -0.10852349129841159, 0.21191679747798076, 0.11679299688962977, -0.21424529380118745, 0.1839802511618164, -0.14350718589957898, 0.25420052280275324]}, {"class_name": "NonLinearLayer", "non_linearity": "Tanh"}, {"class_name": "LinearLayer", "lay_in": 27, "lay_out": 27, "weights": [[-0.27822076633500065, 0.07736572404646104, 0.3624497748261541, 0.19926721189459282, -0.7016869576839788, -0.4386069095025295, 0.2074548961152352, 0.22228745454654503, -0.5629582677182052, 0.15159270107609657, 0.06162586039717733, -0.44475475945671433, -0.012755685288328515, -0.37487498360052857, -0.1545451877760727, 0.06697727583530007, 0.2327319073201028, 0.20895407013484535, 0.40544427231136576, 0.3009259253879875, -0.8102791519027961, -0.10751202579345792, -0.6271463201850878, -0.15757956705114784, 0.2542439701353506, 0.5903224792912861, -0.03956653024357367], [-0.27250824014677955, -0.060537351717860614, 0.02233604464483299, 0.3021655375772574, 0.40139923392299065, -0.24090333232427602, 0.030872938789978835, 0.6669600173195652, -0.5808303617778169, -0.4843611846375412, 0.006149044573247412, -0.327051341591335, 0.3233413998652456, -0.1949191742439857, -0.47851468647832873, -0.8966612989392929, 0.19230238541377592, 0.3382145068657848, 0.313182462914914, 0.28632015689251344, 0.14663346068440458, 0.15076557080892045, 0.05615719482038065, 0.2315494887705233, 0.15613943348536924, -0.2508210039472655, -0.033674536715144025], [0.1499400814782433, 0.02940017264972825, 0.6709807004087632, 0.2554485598259815, -0.5826563780397837, -0.5118348041522925, 0.06320390345688574, 0.14444378729646223, 0.3116744241132391, 0.18330147078325354, 0.058467900853522776, 0.1287099445092729, 0.2264705569584571, -0.6411562624242808, -0.1977772446297947, 0.42931018167951185, 0.9017542489274871, 0.3377701115334381, 0.15934704766248695, 0.4144894865490198, -0.13921771559422813, -0.5786864143896647, 0.021554114789776525, 0.4432185172133047, -0.004609343052048549, 0.19433372523664766, 0.6307933723127456], [0.491704418793434, 0.552612669444824, 0.8427511099253276, 0.32913501652815574, -0.7660305224121082, -0.13755852608191452, 0.6997872794216307, -0.47036608048361883, 1.0222751233013756, 0.1809534650670678, 0.7039400623697186, 0.47640114900760744, 0.26518932592245337, 0.28308251945807267, -0.5021741606661566, -1.004623523618378, -0.1049638498284181, -0.3157445525698247, 0.08879704747719681, -0.3412616931195725, -0.3268393855859602, -0.08520643374381501, -0.13470128027904027, 0.2763574099095024, -0.14665513607880953, 0.0463408332061898, -0.7619235563895114], [0.1655830061641599, -0.00047439626339822194, 0.5703101564529478, -0.014883051942245094, -0.2883658866459233, 0.5911083769430703, -0.1588696795886205, 0.07422580534374192, 0.07713632480735369, 0.2799133350383078, 0.03251083016742808, 0.04329134125372523, -0.40436982603698673, -0.3376882675226181, -0.3235233038797775, -0.2438878773861745, -0.4235084138757578, 0.06713192746114188, -0.9112049797437052, -0.44451383763464075, -0.4373328200357747, 0.383369670678948, 0.8112170549804851, -0.2524852503496935, 0.23418656273413552, 0.6796609596715637, -0.35076242237142785], [0.273378127983687, 0.17980565937192186, 0.24418664646685678, 0.27503094009532425, -0.8006467855141028, 0.14809595448713614, 0.11176107022641149, -0.032128662879867945, 0.26335628621381096, 0.17783466737919768, -0.12163679224604457, 0.3228772375295936, -0.6327317789489851, -0.23860910821933867, 0.9564882680915382, -0.09245815732302647, 0.19989707449071228, -0.2742397107121559, 0.33356263819312765, 0.20143897136133995, 0.6097757173589956, 0.0047727257989925755, -0.7499048875705454, -0.725935652286993, -0.4497848472400233, 0.028824177504993824, -0.21219548664056828], [-0.14891574606615418, -0.2505518959418589, -0.3770503179056606, 0.5086518803142952, 0.543268441180003, -0.4682581618877223, 0.5112603404595439, 0.41075370219787277, 0.09126050215044354, 0.24066830040237702, 0.6267832034818326, 0.33644019136663716, -0.10259670751708348, -0.30766701901372495, 0.26710998227325905, -0.5257771734831436, -0.21049345340167322, -0.025301224932395505, 0.4556356378101906, 0.1650795485017428, 0.22488555581906322, -0.018614645082509367, 0.38422261736537366, -0.09978555160649089, -0.25787111076982927, 0.07391323162223588, -1.052412257977355], [0.330060589120377, 0.5101545989030571, -0.20305173849860428, -0.4298665348352075, -0.3264588322156995, -0.13970645170720283, 0.013071247140760578, 0.14465141231072617, -0.23929597049986603, 0.28532241260426744, -0.006541063027246037, 0.5677288989551129, 0.25595264632683035, 0.024002858141901194, -1.0001629975135602, 0.9371719653174624, -0.21185974930168025, -0.037037835392275585, 0.10119164135568129, -0.02531184712859249, -0.08660438940003667, 0.5844171169149749, -0.08845869734817555, -0.6227563295116145, -0.19756561576992435, 0.9332315628780133, -1.045101615994916], [0.6093519190368081, 0.19846944825968807, -0.17849425301355284, -0.20837856830689744, 0.2965645330809312, 0.2518670791578696, 0.14516007153903826, 0.04709574817561067, -0.4244350721188802, 0.5510111357943205, -0.3484559937519017, -0.2170806361378639, -0.27903513659671936, 0.027336775628087687, 0.684281739008228, -0.012401660721398011, 0.27657057130963675, 0.3056543846654392, 0.45385491692227875, -0.27800664323842655, 0.4125778038230185, 0.16883796112592797, 0.00562546267798624, -0.3301107391298605, -0.25052222009677205, 0.09321915316957546, -0.3242074607712571], [-0.07005182656481498, -0.27543232916098853, -0.6361799738045184, 0.5449923907369449, 0.6426569687264245, -0.08572385874392015, 0.10738457569323769, -0.3278049031555502, 0.16629301513501193, 0.4382473981477003, -0.40377100582099434, -0.16421264572532784, -0.1195575367116484, -0.5386705208985667, -0.6546361796452836, 0.19085886337377128, 0.0586128967478209, -0.6865086608826626, 0.5253342481887086, -0.1157078645318261, -0.7510216902317126, 0.7866115121748203, 0.29315318797596557, -0.6779962875725437, 0.5279352433135894, 0.1367663794262874, -0.7017763215467473], [0.12271592434756477, -0.27373826047591293, -0.048727934373120035, -0.04513283160850273, -0.31713202094999704, 0.3253941968295412, -0.46544545905769025, 1.0042967898579382, -0.264516701735365, 0.44167639337762277, -0.14925389308482093, 0.6409235271479186, 0.08022404720028348, 0.34463525870489614, 0.5950275457796391, 0.1831982606576809, 0.5359218982194524, 0.09319834171670917, 0.04256689391325812, -0.28181943126713715, -0.2146688358876753, -0.16815625503141696, 0.2259985882957978, -0.06265274786517658, -0.16809689351268706, 0.5482992680166141, -0.15181484384074082], [0.08600344321807805, -0.1829015626483935, 0.22603748318304762, -0.2814695043932839, -0.5926270275129462, 1.116578057080539, 0.28404828934261206, -0.2201633776967759, -0.19038140122953812, 0.09242065329649406, 0.3576238853194724, 0.0786144173536173, -0.14724878009782225, 0.19091849590833485, -0.014293445220544487, 0.8929905972127234, 0.23673454505965344, -0.6615399831647614, 0.35485425954579014, -0.33956656070239744, 0.2077076774463895, -0.16880138435220382, -0.004517260191066032, -0.08106570189529673, -0.48348958951861554, 0.3108963832533923, 0.12350436247679555], [0.5053513508124526, -0.021627149023619792, 0.08310779219364797, 0.22608065246719303, -0.9840907095486502, -0.39447296176227503, -0.4618200394429868, -0.4822748117835937, 0.11782204811362651, -0.7490307223698232, -0.41747127986783045, -0.1461024659144679, -0.5521774193510977, 0.6533274188104021, -0.46483790906567435, 0.02460208181893863, 0.1433329619997676, -0.5768904398096736, -0.43609839613789825, 0.5829682490912652, -0.7125503599859201, -0.02570589391954582, -0.05346976826974388, 0.23015923512219708, 0.004820122174268361, -0.5121101554755817, -0.2804814627948159], [0.08690099715031488, -0.1279961087545654, -0.11744420717043454, -0.5417426679147657, -0.216070311131307, -0.8517582663120618, 0.13797001337115072, 0.29395672616977486, -0.2384410296451715, -0.6882927818408214, -0.1087669634622931, 0.14484960451783177, 0.6079807481988708, 0.21803169642793854, 0.30411853106157194, -0.4939259111423387, -0.09538328185748812, 0.6996012427646648, 0.3453792140940955, -0.16470212545729815, -0.9629974486693953, 0.16842798756296096, -0.7736766309088721, -0.0588894753500968, 0.8430037518703275, -0.12427242268694479, 0.9283897628361293], [-0.10614649862234825, 0.40924965983908196, 0.3941207631691898, -0.2848298323092256, 0.35602801105554244, -0.8653383450591209, 0.21315741391258913, -0.02452089227218277, 0.4356886031901685, 0.6146808937076409, 0.6186904200321109, -0.3960464846649879, 0.47391611003863926, 0.10745197301928189, -0.5329852945284155, 0.42362481377578937, 0.16342643028153542, -0.2585953788325852, 0.35353536337395997, 0.7390692209919127, -0.13073344287821811, 1.246364960766634, -1.0706868744827982, 0.14258839404716192, 0.14918694230755192, -0.00431524440342846, 0.24619792037865496], [1.1649374860053243, -0.21065693706011177, 0.7013321208602721, 0.09156998743702828, -0.5866315866175592, 0.08384682440945487, -0.14805223693598385, 0.2406147407957697, 0.930788050194582, -0.02829266433549349, -0.20941692326357975, 0.2911061153064035, -0.34771465812983665, -0.17566445170562806, -0.21122369822124784, 0.45216626986638536, -0.7064846188566584, -0.062498474059880654, -0.21127684875776329, 0.5364553644703337, 0.39657325428475093, -0.47125256478717936, -0.13327441075882174, -0.260357815600449, 0.050306902068436674, 0.6669108490798409, 0.2342156795559374], [-0.46084448213298623, 0.2445408390498964, -0.16765150699961984, -0.11297161941627844, 0.3120917673632544, -0.16804908088200232, 0.2812537998463776, 0.5547962727334642, 0.3504045014185679, -0.10561631610976416, 0.30018658702369666, 0.14604346816058114, -0.4010353342314854, -0.023757151082863567, 0.22999162992940853, 0.5953093060960408, 0.45149345394723783, -0.22891205178094975, 0.28362674426319334, 0.06015361548590757, 0.2652796912519488, 0.3792952212916053, -0.40340666519839974, 0.5852196272987493, 0.12422772132262264, -0.16434833901127724, 0.4229387807678536], [-0.6205958706641667, -0.33792577137595353, -0.8867103933740436, -0.6631783361139355, 0.6296902338760765, 0.7745846197276729, -0.23060966943476716, -0.587481118346063, -0.18918393333620592, -0.008111633104363972, -0.46708458228234506, -0.04848795464331019, -0.7769522753324687, -0.5950212865652442, 0.2026660938742093, 0.517203548229038, -0.21947926263481046, 0.42286831426218474, 0.09145644229975715, 0.20307440142639485, 0.3670540332070026, -0.06127548135264221, -0.37552174979863556, 0.17373451616200253, 0.5207567244900397, -0.8858664454500559, 0.31231397660493965], [-0.08097122943844938, 0.1356276675505499, 0.6418397403123552, -0.4935292671327467, -0.1860078857390229, 0.24147292934428768, -0.8662642081885913, -0.43619247583935655, -0.6991440518981639, -0.24194332290750684, 0.21643321311835495, 0.09362699444197156, 0.5285366180098086, 0.7448455840993266, -0.06264146013034709, -0.010373080920009776, -0.3658300135298797, -0.4253982607361499, -0.06178558509130957, 0.14251520923663585, -0.5733899221533633, -0.19419248547515575, 0.4066475321143108, -0.5426994438696267, -0.23518693498667792, 0.006035672412762001, -0.08085350649546602], [0.2161560205090518, 0.31745723461481223, -0.26685002371239536, -0.6015653386219568, -0.2968891947481622, -0.3445643632575982, -0.05048302558558938, -0.36378875074661365, -0.13455535023539392, 0.25213559368597827, 0.0901606198228038, 0.1648782661501531, -0.3624975659822076, 0.46015696561252717, -0.13573304389770957, -0.2088441471696662, -0.23814540909971482, 0.0710858402763108, 0.025995807391256728, -0.08945421231126953, -0.4201538374495341, 0.1974505216536477, -0.16782317030369026, -0.14160155178526357, 0.280958723210911, 0.005719912536323337, 0.2693316995828824], [-0.13687195716022035, 0.47876051782538076, -0.1807307389659783, -0.06604601281016598, -0.24635648227816784, -0.16577257407446971, -0.35399112148323597, -0.5588814329323103, -0.22513751891210182, -0.09131095582011742, 0.05131141131084204, -0.9711820511576189, -0.1547319064206103, -0.5495441043420488, -0.5537707338249175, 0.40644348057882207, -0.31639314116393696, -0.008163092585353568, 0.436437243170557, 0.2689725239443238, -0.1143865987016182, -0.20391157757570447, -0.3455799616558823, -0.7806446682861098, 0.4104485602178474, -0.22074750549376373, 0.8862119299670886], [0.2004463192559572, -0.3833711561315241, -0.06309732720359393, 0.7303482106602075, -0.31244533420367593, -0.11707807618217198, -0.006320604791609321, -0.16517632523453987, -0.20352966744635487, -0.3609104172709786, 0.6482608986121812, -0.2372536243711874, 0.40162215235935195, 0.0006024153591893291, 0.03860044889447274, 0.5164699662961876, 0.47248499859932414, -0.24402553511857247, 0.37551937683911946, -0.2866165718362227, -0.0026905722346385916, -0.3454953278472085, -0.6622656349093473, -0.379547465711943, -0.15137145650182182, -0.19054955711033564, -0.29803321622236406], [-0.17823958358532058, -0.44908492992723376, -0.11465576285635146, -0.6585968000884651, -0.5251181037343532, -0.1295064286760276, -0.20837783914844418, 0.22802428448860987, 0.23095411549379896, 0.07290754445583979, 0.4764687275993868, 0.09594221917202156, -0.44680967407655414, -0.06280692816147151, 0.23105682790498744, -0.5327254380953912, -0.3489236108357726, -0.2322936691019556, -0.291013772291883, -0.06477172981573481, 0.03342190526514716, -0.5714131799069685, 0.18896640645765014, -0.1920061151773777, -0.06900197146442857, 1.1843429767687208, 0.020378262805475358], [-0.3390891758599061, 0.5984304548584289, -0.3417986201303384, 0.21556137619550694, -0.39022280511542123, 0.4128603876154933, -0.2726874050419346, 0.5604705188033722, -0.5236299030332419, 0.8426768511071953, 0.27839179456012875, 0.46872540683410646, -0.473456842212062, -0.3706981269155524, 0.4293195327905884, -0.117263315360302, 0.03345597901338063, 0.34282107064476214, 0.7590807170084043, -0.00017276063909146914, 0.6286105787239008, 0.21312516467843517, -0.6706191123189312, -0.051141775235185864, -0.3324685951986154, 0.37010744203260115, 0.2265073690815338], [-0.4916808095020791, 0.6283971971396768, 0.5672946668399591, -0.500297920378841, 0.013532989719226576, 0.34514754431253913, -0.3044466408621476, 0.14957871851916818, -0.28274446531365727, 0.6362078617402374, 0.13947626359851256, -0.251422253518529, 0.09720032665261302, 0.1802680840914878, 0.23267386831084458, 0.6802766982382125, 0.2695972909666765, 0.7566768940569267, -0.5715168254357958, 0.5448612331149689, -0.5857029983166557, 0.41198149824983893, 0.815974892212025, -0.39923126343123944, 0.20251092920713956, -0.01525398166482278, 0.3200271894100926], [0.43264591184682966, 0.8463112979578978, 0.1377289008409008, 0.11625908770084213, -1.0477321228421397, -0.0865589007779235, -0.07624938550720455, 0.047115566279772245, -0.47258135382616573, 0.6039342002623506, -0.502719519281002, 0.2489561781629893, -0.0110457828773151, -0.13962023517197644, 0.029989158698121247, 0.2659955863451919, 0.16326324276441914, 0.8147218981578354, 0.15238023192166417, 0.24260446383027318, 0.013497238514314813, 0.9551042561427401, 0.04492135321346517, -0.26005557199683915, 0.07066593886146245, -0.12049578163883654, -0.17501952690454428], [-0.2777973062971506, -0.16976948028807304, -0.20855190280020502, -0.15579404248326778, -0.6698823827305858, 0.40322494953068744, 0.40822399537616466, 0.08227003057664418, -0.6563465056505828, 0.17725888062491985, -0.037340217923397014, -0.15073478084733988, 0.384703346362148, 0.12398360060325445, -0.09434840693761905, 0.18811706368295683, 0.05937434732142271, -0.040428686971120883, 0.5371257597292567, 0.17915084005895618, -0.009041565071441264, -0.23527571124618976, 0.15457494053884513, 0.15110336063789306, -0.3022192514316207, -0.3965581292876777, 0.15068451687215903]], "bias": [0.2956887263961203, -0.042176260510498914, -0.1422620407936055, 0.13856187735129774, 0.4304342512275872, 0.22969444189502777, -0.04356553719257235, -0.23135110435480022, 0.19516041658561697, -0.17998109268914647, 0.18563442021770157, 0.05300411096664455, 0.16626208071171053, 0.5518733648395072, 0.4739507485936132, 0.4548572076863195, -0.36131379248228773, 0.2189636507812176, -0.19525985775539845, 0.5970312452858624, 0.5571017504077367, -0.416766829242584, -0.2897913668581268, 0.15771814313499805, -0.11728599904942483, -0.23172259078735213, -0.010888321281875299]}, {"class_name": "NonLinearLayer", "non_linearity": "Tanh"}, {"class_name": "LinearLayer", "lay_in": 27, "lay_out": 1, "weights": [[0.04745815658984513, -0.053092088122205575, -0.18957212533584777, 0.3456549771113735, 0.26761986143129934, 0.15096905956804793, 0.12071654542876824, -0.11050965658288561, 0.05179598720271856, -0.19413984649872162, 0.19538512149488915, 0.401370594659637, 0.33066767580550216, 0.3074068182457259, 0.2338000561638869, 0.14623211928970356, -0.27111868512575327, 0.3660608040764011, -0.20014960745280766, 0.6185976726927929, 0.2760457509447211, -0.42951143414376763, -0.3435942760313624, 0.29813441671726876, -0.19794689097264279, -0.18967985799848958, -0.024964560764545982]], "bias": [0.30034524265187557]}, {"class_name": "NonLinearLayer", "non_linearity": "Tanh"}]}