{"class_name": "SequentialNetwork", "layers": [{"class_name": "LinearLayer", "lay_in": 27, "lay_out": 27, "weights": [[-0.2063904899039983, 0.531176460554918, -0.3841412989877275, -0.15079832543101038, 0.29084420228091307, 0.5222240852397612, 0.6292782400481485, 0.04751098690976203, 0.3783652976611979, -0.03886643842694157, -0.1660243047683365, -0.6208920552663578, 0.23414166886837523, 0.2127420817754582, 0.22429815899840952, -0.5509229015782329, -0.13664748473018173, -0.2767244192485334, 0.19963303931425475, 0.1625171684520124, -0.21181803385903064, -0.1920158567133618, -0.2228164442998713, 0.0211184784212912, -0.1458856667766028, -0.35945166571375214, 0.4614313536155111], [0.11991319767736085, -0.3189894355389049, 0.04877525045661882, -0.30748428703756053, 0.2314510227033601, -0.12352061095504235, -0.33077226270995114, -0.14774838139342178, -0.10683386752930787, 0.2806558286463169, 0.06550305153629528, -0.08323007497559053, 0.09850163343010854, 0.33654771145963597, 0.3682443879963548, 0.13117764198493745, -0.001104920850678906, -0.4528720266172972, 0.08051027663456842, 0.11460633202632017, 0.5435541735750556, -0.11770657843906876, 0.15090538777455662, -0.19976717851020737, -0.25698499193718577, 0.34034294248030206, 0.3141251823105232], [0.4110709898956677, 0.2501746667419401, -0.5007872875844789, 0.4931918920783011, -0.3450680744081141, -0.3164080411994245, 0.5312781678998998, -0.5323641592209655, -0.11665173338175132, -0.005375284093688688, -0.6352399287747529, -0.087932883087702, 0.036331053138182405, 0.1830552158217581, 0.3441538706547845, -0.1535003230192154, -0.185804060321455, -0.2076856977252924, 0.1374063983932558, 0.18601065997812347, 0.07354218586195987, -0.18581583297526993, 0.5988663451201154, -0.015196256413728418, 0.5333980261736276, -0.23044664993603012, -0.002437875445442014], [-0.3074341288476416, -0.18379990470726482, 0.07314974158971693, -0.0706312661267084, 0.017489250147365198, -0.2764126369307567, 0.11862198398052015, -0.5574940426626134, 0.38565769977000625, -0.35780447674040433, -0.41456615921364454, 0.39877353971855084, 0.09945554780090683, -0.09690761367131392, -0.19821961865204613, -0.15857830091986838, -0.5396220599522973, -0.5432180459312455, -0.2329389049045916, -0.35137005569970525, -0.020438042271980948, -0.14949793712738652, -0.2259387700564881, -0.15548788967554264, 0.3816832713228717, -0.5420410597841898, 0.22250717205757917], [-0.22985859862285155, -0.607496334076254, 0.25033871604267255, -0.043160786254322785, -0.2050125208045833, -0.2181796759867204, -0.06907564404421929, 0.4830027012480323, 0.09938896542977112, 0.47525234525448745, 0.1759454002649334, -0.4111466560829974, 0.2347302980355984, -0.12308219760210455, 0.5073832260744763, -0.114152491967956, -0.4163129391683495, -0.3771744133188631, 0.24637795651350922, -0.6443900940196929, -0.08934746197761416, 0.2575795382497163, 0.08745027463312405, 0.15810286419898203, -0.0012542843348620394, 0.5745483441056741, -0.07336151607701347], [0.3245031659548444, -0.34475437357411676, 0.1650534897645698, 0.054123911448008794, -0.017024918706179407, 0.07817181336433769, 0.1612497164885009, -0.34570029945347547, -0.5095934158508817, -0.30546226927270886, -0.6521845613336589, 0.24512291672468114, 0.08185558826038862, -0.014065476951578188, -0.07483264448730767, 0.09253364407966819, 0.14368235914602728, 0.47155441294724737, 0.1943887682696534, -0.12866797347434622, -0.3744539031391996, -0.07456102227369407, 0.38870653578917963, -0.33453687659215703, -0.2021412546822317, -0.08646971381376091, -0.5733336812410389], [-0.23777265117904653, -0.09810412155724531, -0.2512659400353768, -0.22934890188375381, 0.703515588828819, -0.2820523118253215, -0.19447318437058966, -0.24719930062887335, 0.531509518540136, -0.2589436432580704, -0.03295649173543632, -0.10419677261846452, -0.5365151564909229, 0.47477233347844616, 0.04499943292977544, 0.4425984413411326, -0.13114345037922057, -0.07891738977961303, -0.24970879595110101, 0.24234962368555807, 0.2744264297481798, 0.31479275058403583, -0.5831027581656222, -0.23004010447360887, 0.15072988983489333, -0.06422593588912051, 0.13332938627688226], [-0.24168841592098855, 0.333250469213922, -0.12860158831677437, -0.3380395957500244, 0.08343268650346675, 0.2438310418278021, -0.6864092137724664, -0.018516797549879265, -0.37004269381792104, -0.15208640985277505, -0.07701403432929764, -0.5110035249703085, 0.07472178547426347, -0.28410625686246005, -0.37674461490285344, -0.30900651203448637, -0.14491496370271983, -0.13920591084104653, -0.06353971931991531, -0.01884879710060402, -0.09999576849813888, -0.5216161103038849, -0.18286387684492925, 0.3894812403810872, 0.11950276717771721, 0.26361209496576804, 0.14229499460388037], [0.32329789177833745, -0.15589267868790915, -0.3079135197351247, 0.2777778659221364, 0.38979049690521683, -0.15200599412238225, -0.5256078825940704, 0.09677674472530771, -0.3767018762731077, 0.296105775634545, -0.32026096448463903, 0.1411260659344073, -0.03725100097281018, 0.02801329046140207, 0.11912846548013088, 0.2929811508980007, 0.08868201964903277, -0.421607179326842, -0.2507586407413836, 0.19117007785750018, -0.3103010904734356, -0.22279588179517157, 0.26651192449083577, -0.5027842817210016, 0.477626447631688, -0.21419679282707632, 0.39515574648129975], [0.24339226468591565, -0.05360528621243445, -0.029373969784661915, -0.3413827258216258, 0.3911999651595551, 0.031738795185793756, -0.6804099621650793, -0.6953468589439106, 0.06825124623845874, -0.6769493728608652, 0.0846115758219651, 0.14897682029568945, -0.017459612737276385, -0.18211635517918687, 0.24114720413005206, 0.197275154212671, 0.37613274635394917, 0.11888290433710663, 0.3725591957349057, 0.3753029500147005, -0.5777017389289475, 0.2087059654118931, -0.14071518253133117, -0.1366977582341999, -0.6559504754981423, 0.4723691602905341, -0.2441278073629419], [-0.028037629034555665, -0.1784488845160889, -0.348996505328657, 0.3270113507528802, -0.0948285130260099, -0.13993866337282512, 0.2067444169789362, -0.20660325811061167, 0.31457861861816255, -0.032050296630382544, -0.4685232671614923, -0.00907789805745939, -0.06927945948685042, 0.08644514177629102, 0.19612007974063098, -0.017481718307627635, 0.11903551075629752, 0.05149404123391899, -0.6899339853078483, 0.4731992797148718, -0.14163787350571722, 0.41030107857358145, 0.3212419299588355, -0.5526208903349127, -0.3451243775576777, 0.15973901436271157, -0.35138611915306445], [0.5492598329875974, 0.13178830643418024, -0.02808750189898164, -3.945119525481749e-05, 0.26800540810265294, -0.03768583636183171, -0.29724463187761185, -0.36033103165548797, 0.270464281220957, -0.1345473775970128, -0.27269883695601016, -0.31413569441687744, -0.5025702374113836, -0.025189333381452402, -0.15725532108632398, -0.0710303501638292, -0.7973782534936488, 0.10713108181101764, 0.05826651343212124, 0.18772708546202882, -0.6508643780331479, 0.43679440800551983, 0.46214299888671645, 0.2827049171574453, -0.0409122859963656, -0.19416479489038907, 0.09569082042641455], [-0.3001155080450231, -0.2205419206873073, -0.02712005789742929, 0.1083195759923287, -0.5657697958303242, -0.07242354400877449, 0.0705709297393425, -0.7625809860279181, -0.18394537824746787, 0.047539731581851354, -0.30020945386276643, -0.09744293267638086, -0.5026653176399295, 0.38764634910349893, 0.17979593691675563, 0.08059635926613373, 0.266150842156051, -0.014376740605796473, -0.004786621273824341, 0.9213554895849804, -0.3099559454551622, 0.5452444345053121, -0.36381323696930756, -0.7854582251279519, 0.1584701634788771, -0.016797131761526047, 0.9289255933574133], [-0.05818678604793761, -0.11876618664756455, 0.1347566734104488, 0.00024973569657184914, -0.41393083656340474, 0.5835086302351649, 0.29998187461274506, 0.10194665022510027, -0.8092226547705765, -0.7773318332520835, 0.2394415287895135, 0.07705779111573066, 0.3084332853202725, 0.1588909635899562, -0.3726886246414053, 0.29777424227674787, 0.07689060413037804, 0.11242994603551666, -0.31168983819700874, 0.20300953073884043, -0.0826410416073288, -0.4692647688064551, -0.01938266203676456, -0.003042836841913664, 0.361574518804569, -0.48520755155628387, -0.11785622054243289], [-0.21149536331423946, 0.08697636804144944, -0.0778053602975087, -0.1502081420808141, 0.05674531802792014, 0.12788650200006393, 0.05681444849384382, -0.1899445480397085, -0.6162469522407046, -0.09478784117673969, -0.2851160360373208, -0.19048388511692957, 0.03157558423866698, 0.5102419036711561, -0.4414436571559589, -0.306273662821461, -0.48417714629473757, 0.2589491478862677, 0.2224572880269195, 0.30852842229805616, -0.010172258331189475, 0.0031063362962340663, -0.16071708073826407, -0.10460180646202231, -0.8957811853915039, 0.10066049596909504, 0.2655876914410626], [0.6999468216037025, -0.2321249516738863, -0.029529599185935052, -0.3467330137292638, 0.15718472008251513, -0.653641631681471, -0.45106384014634066, 0.10207698055460263, -0.285327633257926, -0.19071611389308787, -0.3341447557224513, -0.1995534320339447, -0.12204769389821658, 0.16800258210016664, 0.36404071590629605, -0.2738231850291578, -0.17745920598551632, 0.07171650435310915, 0.31078807750988563, -0.44872555235195194, -0.30833605760540256, 0.165181616456193, -0.2895765401535941, -0.24217930246508929, -0.15949073800406482, -0.13175038273690018, -0.05983096213467186], [-0.41449541378830423, -0.11151293297043312, -0.5084289270466241, -0.019147077659038763, -0.27887562428709844, -0.4115805567852503, -0.2799406288916542, -0.3998512684282082, 0.08867568098635896, -0.17508096793792746, -0.3067983317861319, -0.7161860499248552, 0.3325744059348712, 0.015781518278105644, 0.15550879849690746, 0.44712373611767275, 0.24340929971361216, -0.40345070335278405, -0.17016575088037575, -0.1154112296053996, 0.40150024378640803, -0.46035747714199743, -0.031069091253105103, -0.2504167501377016, -0.11991945845128332, -0.6337533612780646, 0.4733137725490558], [0.37391292635242723, -0.07692414353940186, 0.3834105246476365, 0.08937348673853446, -0.615681713314989, 0.5082138477697676, -0.16413865139258557, 0.6922722252915766, -0.18030008243584547, -0.05742582285786338, 0.22199028443707416, 0.19366029425539735, 0.15223848550639305, -0.41877272205483396, -0.08463132203389634, -0.06311430441127892, 0.4117609088626686, 0.7448990861712651, 0.18453885358411296, -0.42465752306179505, 0.19186224289219422, -0.010185634085124582, -0.5708818504453645, 0.22034549148744456, -0.07775185793360677, 0.551938008825245, 0.5791481565622612], [-0.3563425856126886, -0.15552079740241864, 0.6771160231506207, -0.008725279787417682, 0.25053979548279975, 0.09305555582172836, -0.0024044949200820844, -0.16638066103724666, 0.4372365261671478, -0.34692737235789584, -0.04311878328150648, 0.04372655053303165, 0.3041613379804087, -0.4389723738847252, 0.17243882839608904, -0.08664154022949018, -0.15296254503849682, 0.013501981632354084, -0.8357802178825495, -0.2207679923076126, 0.076873767429581, 0.005424128647588131, 0.3996642550777034, -0.3446728689478326, -0.34381102657699686, 0.17478198568342065, -0.06806263481198838], [-0.20104619773080212, -0.433747829607257, 0.22836773586429654, -0.2225821623545555, -0.1427429846354653, 0.16872613294650632, -0.4376783591946983, 0.4295410099568217, -0.04011248346402, 0.5325511717711332, 0.24413915206726378, -0.35616897452422897, -0.5301809784893963, 0.20748753135518302, 0.854385540883635, -0.17034750945584481, -0.6878439974181892, -0.04801634955909343, 0.7708084918532588, -0.3147277991678717, -0.1521098667717956, -0.7116576592493233, 0.33104677544997435, 0.1811387695875417, -0.023691241621490337, -0.44468498217297364, 0.09414634071383048], [-0.22021857244567533, 0.059146996189305565, -0.15732889418997617, -0.40261970422354265, 0.13191225562665532, 0.2863520667680073, -0.5003530749858649, -0.4140799188952853, 0.17696180606725181, -0.4638023901387397, -0.2819296212526947, 0.027421560150677024, -0.2954613496197843, -0.7999241211622347, -0.015111262370602743, 0.3710918467177072, -0.21611685528348043, 0.25384322033119167, 0.01844136662659383, 0.13353899986816517, 0.5099489475485006, 0.38201994489787694, 0.0819312524520313, -0.2169776415247703, -0.6291654015841737, 0.5342704853598659, -0.05120139610825104], [0.24132360350977752, -0.24188933570620544, 0.44713783273139607, -0.13214785243822735, -0.05091014460175378, -0.29239636274949926, 0.0872837628597848, 0.46447050825786357, 0.43772031008680456, -0.17136607289087852, -0.2803899873509667, -0.05970736982448738, -0.11089463373119321, 0.24072497151670053, 0.03231911855311781, 0.08173927767382365, 0.14348185809339417, 0.25653842647171216, 0.2239962403944894, -0.5051196739185337, -0.41855249937115024, 0.02368334222227046, -0.27666673761479704, -0.5392429563644586, -0.07649520617180618, -0.17568148540260206, 0.1780976609168903], [0.4618716527351367, 0.02598083472512954, -0.7744792713503253, -0.38866062897331893, -0.02979638156180251, 0.11744385428166637, 0.06406235477011048, -0.09060994123968413, -0.056507900593717984, -0.527634485865068, -0.08547354919718254, 0.24349070880717055, -0.24263519792209592, 0.02119040364928453, -0.5346802702258883, 0.1570380515710104, -0.043347790176846486, 0.333207017153229, 0.37279134371220535, -0.33558440558041264, 0.3848679677795348, 0.24491931422712965, -0.7367505898047102, 0.8544696529000976, 0.2553518541341133, -0.5343298181054708, -0.5890850744773749], [0.6847791961382567, 0.009619016855929759, -0.28713528667003174, -0.061839727328514844, -0.41874745700965166, -0.0991365047917831, 0.1392491777149541, -0.12370786494764621, -0.10190161357601124, 0.026496322107586474, 0.5485669967819389, 0.4631693358144009, 0.05556628149597089, -0.40406110950632823, -0.0065567322461299975, 0.0452294874184293, -0.214117759154586, -0.5199915891975689, -0.5571618201021543, -0.3454144560053416, 0.6425861199302334, 0.0012789306673468472, 0.21243609163910776, -0.0004659581273466467, 0.028831167368386833, -0.06595356519939458, 0.3271115561892946], [0.053264972878776386, 0.0014846165956299664, -0.02700140888984224, 0.1532201297427205, -0.12187509914971571, 0.022828941740453183, 0.22049090929786966, 0.2741014713992475, -0.27563587387441674, 0.21363926810083295, 0.3769364287373628, 0.5556700645873637, 0.09048699871303455, 0.6215724480878676, 0.37887147835757795, 0.3198119930660719, 0.2982633365631599, 0.17874536462372342, 0.04454569491525481, -0.39393910560384165, 0.34869298714179797, -0.33198907324585425, -0.34621802183118816, 0.42868480965479605, -0.3418851017411469, 0.09675233877644608, -0.34973114878243955], [-0.1517786627897407, 0.48955094662188436, -0.11129544096284544, 0.22002473322444496, 0.06879755150301214, 0.03297386517922014, 0.16537316467622085, -0.4390621657227516, -0.13191321759719143, 0.2470594363419091, 0.20711145005182152, 0.07224315612826471, -0.17646713758335275, -0.1647265677233109, -0.07396735174096208, -0.8939944304818418, -0.034451692286943, 0.5704372892047562, -0.041086440592698614, 0.48884767590027833, -0.2862452729621854, 0.08209001589486853, -0.09734328552523785, 0.4173787910956179, -0.24231277089604564, -0.05452110229353818, -0.3444068697875811], [0.22329828663677914, 0.26459445999673903, -0.05356029989522789, 0.17134752157678465, -0.4315452355524931, -0.18904031840275093, 0.4199438617047494, 0.4572187134062701, -0.4136763569498516, -0.17295779154002044, 0.10485823257471709, -0.5323982680649851, -0.16218745569315784, -0.34467092921014664, 0.22445500016614084, 0.6311875064618109, -0.5799362525575231, -0.13843580958017185, 0.08193269056063114, 0.3419875248192082, 0.7655716479975554, 0.7708039723289866, 0.14454360083115997, -0.25535951686894615, 0.043547349667491415, 0.09880639638628717, 0.5668095885740247]], "bias": [0.14147882051489782, 0.09921070375985935, -0.07284783231955778, -0.06900675737488692, -0.05954244894596887, -0.1682952649288846, -0.02804174187441289, -0.07201577567932774, 0.16320371717115784, 0.06364334537710833, 0.011548160428490209, -0.05006809760501636, -0.10375090617191123, -0.027075150036501464, -0.07970762469980121, -0.11411508398795332, -0.12344282795752991, 0.15312032132908057, 0.1361595138365651, 0.03174746573178135, -0.030368298909982445, 0.037179851033850464, -0.05403002995168853, -0.10005820930585262, 0.13278002764728492, 0.0686257480324374, 0.0672772669003051]}, {"class_name": "NonLinearLayer", "non_linearity": "Tanh"}, {"class_name": "LinearLayer", "lay_in": 27, "lay_out": 27, "weights": [[-0.1996942713894395, 0.08831028498739733, 0.109762041743442, 0.10263116579590904, -0.5460776813864843, -0.46651563685341313, 0.44584630171914935, -0.10391461645361444, -0.3783334619156602, -0.05415265771061706, -0.04192891993219819, -0.5476463165873934, 0.07044170845576844, -0.04027205678661874, 0.055885680946980175, 0.004630472360053199, 0.04516558721872713, 0.022715446591652866, -0.0036477691242368057, 0.1690068344143225, -0.7205599205522272, -0.24813162920105475, -0.19819756957775778, -0.3093081642661573, 0.3260052254602355, 0.40547404460725905, 0.010820376558538885], [-0.26648220935497346, -0.3155942927762038, -0.13984313416842625, 0.2430719028892623, 0.43047188756576243, 0.14725188074472556, -0.0035524610937084813, 0.7195583937328552, -0.3218241718207665, -0.4197580945763515, -0.1810352823092569, -0.41379756509283155, 0.11490735179382564, -0.1422888074360538, -0.1944130273612559, -0.7284544998380955, -0.07847925706982399, -0.012483170095438551, 0.1685373445674156, 0.3467000608807651, 0.2495091583697301, -0.019471267998198923, -0.0014661522550996398, 0.0762728685981176, 0.10505630235842536, 0.11263364864374097, -0.16647362531301013], [-0.0745744885939872, -0.03277578706306886, 0.33017179339123204, 0.1354318107288672, -0.2653275791678057, -0.30236462807057674, 0.07321783428494824, -0.030915863471094745, 0.19992162016746515, 0.3310379597960859, 0.004923100337278335, -0.10433142664399853, 0.06004787177141927, -0.5825353992827109, -0.142265748630436, 0.31709901866437956, 0.6232460408675964, 0.05491126715286398, 0.2614531100528325, 0.36120297123352335, -0.0659591366051411, -0.34952388240373716, -0.2888509682734161, 0.30435682623895044, 0.15630460784413414, 0.14902902055137116, 0.38300135266745955], [-0.08590059540088148, 0.5687764257724381, 0.47865320351770974, 0.23479416138432296, -0.36160557225994566, -0.16588561145951905, 0.32752323436638325, -0.3302562367777001, 0.7495063304753632, 0.0629855820023234, 0.5022728184574353, 0.14824304825248033, -0.015743780786135583, 0.030447205367239237, -0.5541410045342614, -0.7984648999380769, -0.2443141717262525, -0.06425724081517463, 0.1232831733757709, -0.34228686604549213, -0.24829765090369374, 0.05524698858182585, -0.016449386697446264, 0.05264308956305387, 0.016338874830041296, 0.12744059995880283, -0.44236106799528646], [-0.21715876869986106, 0.03104563347026085, 0.27885067976960426, 0.30114214806754713, -0.11758518758704749, 0.5349647164061416, -0.3154135581288937, 0.057059889118903286, 0.06649558617112507, -0.059508615897432955, 0.11031317857707991, -0.3404572175701515, -0.09139901059541503, -0.22347848654864977, -0.30084428054362977, -0.47994342004072926, -0.13036606411618745, -0.017091642052940312, -0.3709605817923261, -0.5597408790585959, -0.10673287457733131, 0.14554582751010633, 0.48441876007670676, -0.36467834784107656, 0.08233261430096012, 0.5743662053120488, -0.5064155523501721], [0.10544275349178028, 0.1497304609584757, -0.030606115903786486, 0.21064123352874992, -0.3335530643760051, 0.09685894141222592, 0.01692083741381553, -0.41460840654561265, 0.24817456844151994, -0.22027013857266706, -0.04499313967856855, 0.190226526492085, -0.7913633433477828, -0.5167070761256721, 0.5482280642853353, -0.0034735160951380063, 0.01927216446990178, -0.1222988997612132, 0.1048952833769438, 0.19542226188332848, 0.48802647902434243, 0.08770727635522742, -0.5753185788919036, -0.6515425871809118, -0.20005556342872036, -0.15550442109620724, -0.22799609320806893], [-0.23149487902832996, -0.060001594903533656, -0.06184391769454544, 0.36252983861864, 0.46074686188564823, -0.3742608847638946, 0.22925795396038534, 0.22144618113612405, 0.03725991247802543, 0.10040484059670489, 0.5198918613078997, 0.39632797826262145, 0.07995096780852494, -0.11789439503237094, 0.14718004900227158, -0.1601653746761903, -0.16862798028323578, 0.19629331675222852, 0.28558814877212685, 0.3055448635235112, 0.0406574750819742, 0.09696705774215271, 0.47207892219854314, -0.08617695100777796, -0.14368634655087267, 0.07177988550367084, -0.6046962665268659], [0.3307503277821832, 0.4805330851508258, -0.24731045627027984, -0.3734375134921625, -0.15227089019264226, -0.20157138364501304, 0.11575295609643192, 0.37698133950039925, -0.26621053094580305, 0.27851051649302677, -0.03515446688429088, 0.22265588574589754, -0.01102068489321221, 0.1849003256080178, -0.8194094089495787, 0.742704559691129, -0.3754000120169155, -0.209031923230473, 0.13886329773828035, -0.13374469147730975, 0.04932592319267417, 0.2602099573351357, -0.055271733341974175, -0.42236042330467444, -0.14474025657103248, 0.9142927807457268, -0.8039826693686252], [0.47879000052306186, 0.16496594573191295, -0.09332997504835722, -0.11886576386966095, 0.2648680080468741, 0.13814285824464914, -0.012264264969734602, 0.07848678869730175, -0.38859479770308714, 0.36967705104119547, -0.36037670411023315, -0.35082204341901085, -0.0722611570728254, -0.055761104482644326, 0.41824137320499544, -0.006706895375856904, 0.17060701070989825, 0.49941154986531944, 0.49522494320050847, -0.21829830251245894, 0.2900058379746554, 0.2958578102770452, -0.018388296510799488, -0.4353842846840234, -0.23906853154189273, 0.1261613064348314, -0.2840185978976769], [0.05358769093959646, -0.23048066042706358, -0.5122188841764048, 0.4650812680304375, 0.5603529301039749, -0.14368150976842073, -0.2412913142224696, -0.23775196736821533, 0.15644978635399157, 0.4620506585523997, -0.22286866226557564, -0.22020422355514488, 0.04179019758069157, -0.31695012006039314, -0.37651554902182793, 0.29393507260080826, 0.03875963288018219, -0.4858547501217214, 0.6109260195714977, -0.10129974104307274, -0.8649070012686921, 0.6580990282690163, 0.028321763823406895, -0.476707612405053, 0.5213323844607199, 0.20024840442449784, -0.3801391693453073], [0.05969408007080631, 0.0050674893606020835, -0.17931177120467165, 0.04021085635914299, -0.06268681773418219, 0.1261341075348115, -0.22326012573975879, 0.6452066131664754, 0.12661994487708672, 0.08863349188317053, -0.10580123409965551, 0.3709722438843714, 0.08681565594209667, 0.22501972433109688, 0.40254971994732025, 0.19415146336135353, 0.5341670114572862, 0.12590549657705466, 0.13920494076923742, -0.11348495295892845, -0.2660466954756945, 0.10493847462645865, 0.11053788772813868, 0.25767603630420816, -0.1347143413962582, -0.032462274099377866, -0.0914836555709917], [0.06154874051391055, 0.0537812490040899, 0.15609801010249064, -0.2500453804508684, -0.3136654778454626, 0.4894179751492792, 0.08594816588946705, -0.11723213445328422, -0.2783398865955813, 0.06671193043988373, 0.28464142913150614, 0.1091791933863062, 0.1475796241974118, 0.19351468269580538, 0.08361346705437105, 0.40609062592063466, 0.30768904724620716, 0.04026750283791634, 0.3651741700815587, -0.09432068365006611, 0.11252306032599124, 0.1274948151353954, -0.01774480189970784, -0.12245246482854372, -0.3242711413077229, 0.1253620353688317, 0.14083912206630364], [0.34807951796076664, 0.04797202920264753, -0.03324971595898104, 0.11715067896248296, -0.9213640552202791, -0.21007131200405105, -0.34030217413467034, -0.4182235578459732, 0.09674316571894209, -0.38782626892425115, -0.5046154118827926, 0.07917090491879054, -0.48886711323979437, 0.4523641050473034, -0.14877671254826197, -0.00888185725252087, -0.23295883924937666, -0.5716163086761218, -0.3001204995909534, 0.4125109904282687, -0.5592580014156098, -0.12833592580598227, -0.016887618438335333, -0.027207339734436495, 0.13833286436650025, -0.25125772918566486, -0.12330773384906012], [-0.18085223346028184, -0.28731069401490084, -0.23713839141478996, -0.4974741548833061, 0.13907440781632607, -0.4260356854965169, 0.17466504010736303, 0.5143947165186407, 0.10945830989016632, -0.5929450416038651, -0.15848949004107094, 0.39489492959059463, 0.3562423776213134, 0.31701827965722, 0.24455292916878849, -0.1857502933953383, -0.30121311261665606, 0.017243981750284538, 0.3029032594119487, -0.022101511303831332, -0.6143360734742265, 0.19448682802815878, -0.4356388427488608, -0.003757510367863534, 0.2253805062974155, -0.2519564373846128, 0.586900239662786], [-0.1288574529408676, 0.34540308151015753, 0.22806416744008412, -0.018934343292241827, 0.3805568995752851, -0.34497745826732706, 0.22712877068533804, -0.1814332924879307, 0.5820196949221457, 0.49697315534435044, 0.05951947271462756, -0.1941859956555218, 0.18813789996577895, 0.5618230268393756, -0.2882572669816355, 0.11509407233462243, 0.17898262274672155, -0.1759680103368458, 0.4063676955295308, 0.6546191879957639, 0.0723196024260547, 0.8621661789614147, -0.7650752618964836, -0.09164416333672341, -0.01682083506748259, -0.1069832745549276, 0.013806145914345645], [0.5809431592022487, -0.178046429884944, 0.347549726581429, 0.18576592481974502, -0.1361835671389068, -0.13936992693166753, -0.1259036969655694, 0.3961889054252301, 0.5911002936144921, -0.09415481266415893, 0.03048580713149517, 0.165270691189373, -0.21377785358277004, -0.40470179762857694, -0.3623522196916854, 0.4891718242773018, -0.44579728632252585, 0.0032648965012494068, -0.16069407283282355, 0.5480448265868649, 0.4453951935485833, -0.385729743251783, -0.3592698129113687, -0.4570332337062375, -0.009215069944719951, 0.30427507751074917, -0.07882233279955728], [-0.2503176103029605, -0.0626053015087325, -0.13957547089674857, -0.16010318004068555, 0.226617044282972, -0.10955438944153821, 0.027304110301309775, 0.44855386732687313, 0.27625764939722564, -0.14494910691273272, 0.41832895181621, 0.13996070395775306, -0.3479652255732973, 0.04136720053391018, 0.10200307877864867, 0.24642879752117477, 0.24613714615895504, -0.28075295692684915, 0.16508306321584454, 0.017074221168488182, 0.27271670387974084, 0.03592374616077442, -0.2555551192330609, 0.40264734618100156, 0.06310910223243597, -0.17438585277029198, 0.2827600743805881], [-0.3409864728282677, -0.4266227413181178, -0.6364001389207317, -0.22745052912035826, 0.21355184591891335, 0.3367643654388051, -0.21529422428474154, -0.35371275375267236, -0.46729464654230163, -0.19155130320934746, -0.45072565506966017, -0.09334374381741536, -0.5643957691283897, -0.8847155922867512, 0.16496677864663808, 0.6234076639244166, -0.02874730793413248, 0.2803263172506125, 0.07794328995200288, -0.046313782747133145, 0.35772824609894144, -0.2930459536456381, -0.225094752760564, 0.10602073206530653, 0.3912138952178347, -0.5493012324370522, 0.49022137917605824], [-0.13659624622682848, -0.08817013577075396, 0.19664178090864082, -0.5601290577842045, -0.050883563342544146, 0.16580982072816752, -0.7187252121835453, -0.27962451807945055, -0.23992775084460183, -0.023877213292578886, 0.21071738550639074, 0.05471657798269841, 0.3204983592905357, 0.6640251987477949, 0.22241941430219486, -0.11968182317178801, -0.2425997698472515, -0.5187937417562128, 0.05233517357026428, 0.16844301186736865, -0.5204345079566847, -0.2773121392470438, 0.38266691059186453, -0.5002857003663645, -0.20593673672657284, -0.016945209524656814, -0.18401547126125561], [0.22741984898189616, 0.13006244098694755, -0.31465316965899576, -0.6286534686972144, -0.2731783804597649, -0.26809380975817726, 0.019031835758088325, -0.6093178870540938, -0.06711764393390114, 0.3567215581781125, 0.1890332079855291, 0.27758367182957544, -0.35020558826482673, 0.3623831928409984, -0.21800765920709872, 0.019520483710576724, -0.10547820136290605, -0.006039245018837485, 0.07080899250492559, -0.08816976100972816, -0.3239718887319166, 0.175823587502584, -0.06519912579819688, -0.22093508037601448, 0.19984711770890187, 0.20412134744498928, 0.0453166892633812], [-0.054540343157269106, 0.43278578694861297, -0.10169694060720892, 0.028471498861245576, -0.274714545734464, -0.1553955315531203, -0.2381556991526638, -0.3015952401085148, -0.022962235071295328, -0.09469399084136665, 0.05441879511743119, -0.5934598103271095, -0.25348740045740725, -0.49803183441779925, -0.6998126337930646, 0.37375195491378116, -0.21040526442570953, -0.06622779219255481, 0.25757953105127546, -0.16574310068670284, -0.10285455415047384, -0.2608774256609618, -0.286637870315967, -0.5517491443603514, 0.24392866770223226, -0.3060495683145986, 0.6780713378205451], [0.2625469434405187, -0.16458370978636477, -0.15426788782861867, 0.5916366339876479, -0.15162223269287295, -0.0507602851254842, -0.12218777202152457, -0.0888588617259159, -0.27981693859075163, -0.11232997275631904, 0.557085903439452, -0.27961475633073535, 0.3782110928053007, 0.1700779365585523, 0.28559455255238325, 0.35225969941389706, 0.3737317536951642, -0.27290091107990405, 0.39236033840621887, -0.2838488956981667, 0.06361086715598596, -0.2964252085584113, -0.7557180849247844, -0.49092872407457294, -0.1257609697727822, -0.3700899848651411, -0.32661401139954493], [-0.2487194029270754, -0.14628461990196734, -0.009587009417826003, -0.5137387400904099, -0.43613452321766916, -0.17655927885986278, -0.4520489741325448, 0.06311096194303425, -0.20306590367681532, 0.08504155049048258, 0.3419787153540415, -0.11038850891272302, -0.22900800980843758, -0.02108337502139107, 0.20819083562976556, -0.1474380314190879, -0.31287874602455407, -0.032107192587874006, -0.11773449943653691, -0.013463214283628167, -0.010619161685355726, -0.218124382339306, 0.13588908526472201, 0.13766729887186088, 0.03449584515084401, 0.5924502026870018, 0.09349537089203067], [-0.1888823495676743, 0.27736269537463737, -0.15745734877426518, 0.3752022009305339, -0.3011203566161593, 0.2311331719722751, -0.31004406895865183, 0.28056875787733787, -0.4703213988192154, 0.43736036273540685, 0.3341630703528619, 0.36017780081451567, -0.2968944118927925, -0.465674297427866, 0.21476992247678942, 0.030553397461818625, -0.14371718654406315, 0.3835638402973749, 0.39156877886170083, -0.0775554705866625, 0.37508473472515447, 0.30264387590137387, -0.4695537158315806, -0.34855901084833013, -0.19481308785074103, 0.6206828062691668, 0.38398407797969014], [-0.29985260473406733, 0.5146394535799748, 0.4465695761236605, -0.19651074609265054, 0.16845838880282063, 0.2458047689672267, -0.08281042918223694, 0.2413775999767748, -0.20031766522160602, 0.4846173873106525, 0.18447358917776527, -0.6747676505846679, 0.080192601867379, 0.17975471660637046, 0.3293563525704857, 0.33678749726940144, 0.12850834086626867, 0.26074673496202655, -0.3853374940327845, 0.6346742743895698, -0.4751060082434314, 0.34993408991183983, 0.6106323434078855, -0.3854198064094581, -0.009763467605213474, -0.15446687910533102, 0.12872514375969368], [0.4196717605713445, 0.39888880626877005, -0.0635967280500094, 0.12484780090059615, -0.739465498298385, -0.32921779559072745, 0.24720893764405052, 0.037347726105569475, -0.49473327056969785, 0.544153883005208, -0.2995665323176517, -0.08816268191031813, -0.1328899660068672, -0.050981971207650065, 0.1177356575231276, -0.25787193527462327, 0.04538723773438335, 0.48403864478183567, 0.2003693287653137, -0.18579332273088042, 0.21099646639611402, 0.4348140933418875, 0.10197714312540532, -0.32745567708059564, 0.16300266129525828, -0.0953671160166674, -0.08877681356605494], [-0.16044899263136794, -0.2975520732277047, 0.13038838302703282, -0.183926000321655, -0.6146180759618977, 0.3641994284348275, 0.0887423587083677, -0.03980752955152184, -1.0980102109659844, 0.06742141109789533, -0.05155745769946188, -0.42379399005596435, 0.4327008813208091, 0.253806013634284, -0.03522751530108807, -0.07551833772589497, -0.07125193059424123, 0.13383446232941673, 0.40712401393325826, 0.28037857062834787, 0.013647410337309627, -0.3400515683516918, 0.2568323651269786, 0.3181990219787042, -0.19933075067584693, -0.40564268869690007, 0.021932305930930485]], "bias": [0.12668212857818734, 0.04783258168558167, -0.08495834368158997, 0.1150989568587405, 0.10298702145976256, 0.08131464385266421, -0.031440285337885225, -0.022751140792641095, 0.09767422251632339, -0.047186209126660814, 0.04968187624198369, 0.04671418769086627, 0.07420177679496655, 0.18007097838944103, 0.03091171876777045, 0.04514827477039079, -0.12257095884361739, 0.048071668660472286, -0.05208458977349707, 0.14644231785640674, 0.08319283331781879, -0.11287038520973444, 0.014971173169626576, 0.08324576814328032, -0.10276058434506247, -0.06501200010977166, -0.040951912004196275]}, {"class_name": "NonLinearLayer", "non_linearity": "Tanh"}, {"class_name": "LinearLayer", "lay_in": 27, "lay_out": 1, "weights": [[0.05221293308814986, 0.00011118312578751245, -0.02333727859117127, 0.26550678864003174, 0.18704410418461997, 0.16042332746379334, 0.09567469404545448, -0.15624693870142076, 0.17609933935956992, -0.2440596282934673, 0.26818375345812573, 0.2796041663397308, 0.4066483859691903, 0.2279466799531359, 0.15399544258264858, 0.0578128218033838, -0.38046780995315194, 0.22875856599615282, -0.3537644706582663, 0.6138916236947705, 0.28803760874580664, -0.5158049793438704, -0.3805929267596263, 0.27672997499646873, -0.09912436719688054, -0.08208553994704978, -0.0040295551327882454]], "bias": [0.062296406725400856]}, {"class_name": "NonLinearLayer", "non_linearity": "Tanh"}]}