{"class_name": "SequentialNetwork", "layers": [{"class_name": "LinearLayer", "lay_in": 27, "lay_out": 27, "weights": [[-0.0387167135129241, 0.8034048424362569, -0.39479546364992507, -0.24401214343129107, 0.07237841037235104, 0.218415198582628, 0.9027901010300474, -0.237279698615508, 0.45817915814433074, -0.3288045908296492, -0.06180779733488031, -0.5093395698548578, -0.11084771917309193, -0.09874120502014605, -0.016204517446589215, -0.43049059638744075, 0.15700224145662578, -0.05529125356579675, -0.06384588291637958, 0.3538569932604949, -0.5948119765028127, -0.04626728315811672, -0.32456163493182955, 0.10311342700198907, -0.08947476033503861, -1.1179164780565785, 0.3542216252538137], [0.32037535256287997, 0.03988718864102037, 0.5201024128296705, -0.3133885990217247, -0.07920609004447499, -0.2766096672934617, -0.5333172606555752, -0.7581280108379198, 0.11481680645250149, 0.3071413477111802, 0.10243248523038727, -0.24610060221646182, 0.03687773892569991, 0.5815038602428924, 0.11970528260462414, -0.05741344188306898, -0.04390083007340072, -0.21495262514851943, 0.03596096133129195, 0.22015316184455277, 0.9530086114809362, -0.4670182929040723, -0.10122312743272831, -0.055296099150814175, -0.42614582053657235, 0.07501153381749438, 0.23566148308259038], [0.6281797226209569, 0.913236672628993, -0.47474018250234384, -0.033266619282183704, -0.34444912334420225, -0.29180343412390514, 0.9636665485668973, -1.1343610989882955, -0.2408624531789858, 0.09737254811961901, -0.300357785566895, -0.02649500843710396, 0.10263157783888557, -0.17134619299244996, 0.41711325384595244, 0.13041356856727512, -0.1839254438446992, 0.09893717165238575, 0.014650098183830425, 0.5645497869825038, -0.3331526172185796, -0.12658796824535656, 0.5911150914281744, 0.13587097699834916, 0.589892931308007, -0.7025785630365897, 0.2923605613989831], [-0.4201659791765066, -0.012467371117341428, -0.013650319407556412, -0.38078486120816085, -0.06912344328219935, -0.399480672781963, 0.4067817279179853, -0.9123680183155303, 0.5150378886122008, -0.18486727173229056, 0.15202144379331384, 0.06302452941169666, 0.17313566457966043, -0.09860395243534033, -0.07662722801629189, -0.10333277630273092, -0.2420834408984922, 0.26037282858289945, -0.56408416837094, -0.3682659127144654, 0.2645025040560871, -0.21038753031988336, -0.07100825125813592, 0.010095505747213069, 0.5842137468173421, -0.7495162805007359, 0.5038853542806322], [-0.09994545325352486, -1.0525191504279607, 0.2919589780710514, -0.33359544859650786, -0.40670215027930756, -0.6434399830974461, -0.23699769555740277, 0.3688308256223763, 0.025604148005977104, 0.24110203660778273, 0.1329063011302069, -0.17884169112614665, 0.11881490497477681, 0.035006760006216074, 0.3602014954738414, -0.218915057477359, -0.21674027793574033, -0.15273795420032932, 0.24319915994995825, -0.9375641217382364, -0.021207302442016754, 0.4109732268575801, 0.3547832467083591, 0.024574486747837923, 0.010841655003203544, 1.3026743049269567, -0.20318180509377257], [1.2774484467591005, -0.1703152711635546, 0.2954693934084241, -0.021450018226842952, 0.9383704633944865, -0.021262402465993327, 0.12089048824011098, -0.30948842585167236, -0.7820126538144361, 0.0982413928830941, -0.08652526149077892, 0.1441459322666817, 0.11080180005321284, -0.002583427876703059, 0.2078892371091687, -0.00773397280385516, 0.40912222272982346, 0.4548354452318444, 0.3999156809107714, -0.3373172241662621, -0.37244765459507706, -0.09560019410518696, 0.6339668038183921, -0.3089045846849843, -0.11842220260118973, -0.4286036664366041, -1.4323453351265512], [0.14814033820477787, -0.1532333736127695, -0.3905330375386958, -0.2918193998232391, 0.8864019845606899, -0.4947512970240424, -0.1038121757317841, -0.44299876553467293, 0.6631538138704419, -0.17419012420171187, -0.040828498402927973, -0.04213732256013883, -0.249196014214872, 0.2860533977675784, 0.1346527607006253, 0.04590884738710766, -0.13422585075580074, -0.0001258742586819154, -0.7416907536687175, -0.08904840455114035, 0.05603426437806751, 0.20133754476435684, 0.026103052940600648, -0.2829219048711008, 0.03161368960047318, 0.019019590155599377, 0.7460954183286557], [-0.24930937112772475, 0.5234962936650411, -0.10404469681073711, -0.5621503048461803, 0.16533262103732765, 0.26824277444815614, -0.8875298088744595, 0.018017762065707838, -0.5420163224703265, -0.02643163714882971, -0.08279829842504288, -0.15012121521594565, 0.12957900511650305, -0.08208820060153983, -0.16437728687609812, -0.134361178590002, -0.043077397130965915, 0.004554924517577098, -0.07481255439139285, -0.0023975797696263283, 0.044739067935454825, -0.5060020678150091, 0.1836241289564248, 0.6453141746298267, -0.027579852750976762, 0.6090577981439096, 0.396212452276553], [0.8836050515440835, -0.1428611920835156, -0.7239577976173872, 0.09738459819091076, 0.8441667443583849, -0.43586496917711504, -0.45677984491258494, 0.17814052432111485, -0.47763087421213235, -0.03599495027445516, -0.3144210462387955, 0.15170316408096016, 0.02339931412019416, 0.09538169657928575, 0.14653905587902039, -0.021839690053208752, 0.3569445261958546, -0.4074324709871293, -0.37742162220764736, -0.39088836231474167, -0.5464967607345592, -0.1339846838821667, -0.07056842513695626, -0.5038221597330566, 0.8385635494898981, -0.34966223060041846, 1.6158557240588634], [0.32916536258636203, 0.27870472938694085, 0.047376890923237734, -0.8942742149361684, 0.47725275416347124, 0.05105016586006511, -1.1789901823855102, -0.7147949421931223, 0.05881955142505019, -0.48393819539804683, -0.1378372996808026, -0.19729547722213497, 0.09410950549985407, 0.05534234805780085, 0.1878496342118327, 0.2700511214322384, 0.2285349170694611, -0.12569627972857403, 0.6835830357141401, 0.1262952067289452, -0.20567029829990302, 0.21339611165620168, -0.07492903849922741, 0.08110015746640561, -0.6467083055873097, 0.41525619464295593, -0.7543457371726023], [-0.42310497821099763, 0.20653692632517262, -0.6298067559363055, 0.4258474395953955, 0.20874955279932775, -0.07010826153151577, -0.23476736335370113, -0.5949467681125028, 0.43047304875051035, 0.10865344532143248, -0.10462381126428229, 0.3237257145808085, -0.1043692317568898, 0.1615744616986448, 0.19635206981811917, 0.019846893682091173, -0.03293590410194791, -0.22274161086792885, -1.3767162244604065, 0.5944300924370302, 0.0034246048564697067, 0.46065612394339905, 0.6553657815751914, -0.5903998285813709, -0.38652602223779425, 0.010630047627799717, -0.18426877576290937], [0.8432822564076237, 0.1952920976770196, 0.08442317190484921, -0.15127100187770462, 0.13782851105786503, 0.3679602514958151, -0.4204329783951974, -0.7176835861993781, 0.27994583781631194, -0.03260142114466585, -0.3917454339540135, -0.39078628627268686, -0.4016223889307179, -0.057281403935789024, -0.1200418119442079, -0.22561049179531115, -0.6408209378602686, -0.27907144156029795, -0.16550251043062614, 0.014470218580309991, -0.9179278671968147, 0.15525139445285496, 0.6628334339671788, 0.5245447199566767, -0.18221776276975132, -0.17008328190458294, 0.09447199544164689], [-0.8544676674878191, 0.04424367114884975, 0.120722466632064, 0.47177025157920255, -1.009438110918534, -0.07210475809910986, -0.04476640006091689, -1.2496714771365178, -0.19887811403856814, 0.33226904707034016, 0.06811112169614976, 0.0046845281468972655, -0.27732180506476695, 0.23185423964998014, 0.11240675268446987, -0.02078136797612986, 0.00989574738593193, 0.1764164849107601, -0.10072591254232502, 1.0429237012557406, -0.23579123553321021, 0.724192632718258, -0.31933755183609563, -0.7309987585346852, 0.28137063699890336, -0.09815714798963751, 1.2267701018394217], [0.024226225738864914, 0.08396924752267312, 0.08815882203472755, 0.06883999949877259, -0.769899506060186, 0.3757735002478114, 0.6357318156755024, 0.11243739995134147, -0.8323918228868925, -0.8226148146143429, 0.18893657213849813, 0.21774347195570007, 0.022461429847401813, -0.02431032696684314, -0.2001443693594462, 0.21052644744907167, -0.14387463867823894, 0.13644134741998643, -0.011969697855517849, 0.6676572361345494, -0.06037800809723041, -0.24180160432518327, -0.5658731720673206, -0.10218566627095337, 0.5558400351416302, -0.5190897490992656, -0.10195420299990675], [-0.2651732433002634, 0.0670038957803907, 0.11024894978574477, -0.28007510474191794, 0.6302037395253697, 0.2927072454013142, -0.19622968524796994, -0.33311195398758553, -0.9701222201367896, -0.09302022834779693, -0.19773611997556245, -0.16725345920459656, 0.018488338187737832, 0.5294984710629121, -0.04948019377270694, -0.09499649264321254, -0.15607900639060363, 0.33624273441999775, -0.09046987002595817, 0.3108985433318153, 0.24587541601668786, -0.0013018500820493068, 0.3913026997560964, 0.09553646246502824, -1.0991171921828693, 0.4968053952459252, 0.03589303694430277], [0.5956917224298499, -0.14162380830839813, 0.45337101990099254, 0.23953595949711928, 0.09296175803533038, -2.0794717772191222, -0.6622966997277567, 0.09054377916641021, -0.28223457105074023, -0.12164514252187769, -0.03716679374569863, 0.00906089837386298, -0.11671414551392556, 0.2379959806824878, 0.12707498224786107, -0.1001057405139883, 0.16338380341765066, 0.16040871617137373, 0.7085548212509994, -0.5864928274780798, 0.2091324345843912, 0.725622981191239, -0.3539118919568874, -1.0283919345268533, -0.35187866456573497, -0.4111331732081722, -0.178793472045938], [-0.12281079661621117, 0.28109345019668236, -0.3154555886926088, 0.09066654439576502, -0.48052939505990966, -0.9058546046959359, -0.7639403047056799, -0.6557029944645408, -0.0024835153747970085, -0.07333211945431493, 0.060563923531540484, -0.45552306871270193, 0.18246694812436876, 0.05615157428064594, 0.2128543144715631, 0.329546292637072, 0.3207975321266767, -0.2728667658035614, -0.4026199468718383, -0.2634585553977839, 0.571311015746845, -0.21367237561689292, 0.07841566847781123, -0.26030163075928686, -0.02770890115376371, -0.7442465151107134, 0.6163915028969544], [0.35787583473074086, -0.07275632322610473, 0.5405877647574591, 0.12411692469613841, -0.7544968377275783, 1.065786055517606, -0.5062787348200445, 0.8063049974412656, -0.2830426443356752, -0.08679349608045243, -0.06437535415864469, -0.19012775274970514, 0.0996496817375455, -0.3098971844432949, -0.2136510897246066, -0.15484971852729779, 0.2375616582488745, 0.4867200156392262, -0.2773198552655792, -0.5569148514188129, 0.8623265498949726, -0.10206679501435369, -0.6244269296194132, 0.6239417636952382, -0.15003730120222042, 0.5540844226363438, 0.4136820314356804], [-0.5145077674880032, -0.021001893453537653, 0.8507748527799774, 0.42546486403037187, 0.6091277093859427, -0.15115015991155584, -0.17391283013322897, -0.5067420479694548, 0.5494387321921549, -0.01575159133775781, 0.04309842999615823, 0.07763196326456089, 0.18627621236720723, -0.3533838832179, -0.1951419010850706, -0.11987149684064406, -0.19346652308247414, 0.21421625113856096, -0.9366881362631818, -0.2411650375401083, 0.7492868370341536, 0.04252418204265372, -0.03417211779471666, -0.8126256512162825, -0.7740684979857549, 0.07499109449593057, 0.03324754497425018], [0.05927432616491864, -0.3194727571740595, 0.24735788081955942, -0.5131910157228828, -0.6780646014905817, 0.20951612098630348, -0.3601720812286417, 0.7003803675519155, 0.0016655831004402856, 0.23109585371201957, 0.012111030652284836, -0.1015415075843291, -0.30109358300269606, 0.06602544882803275, 0.9869850437235591, -0.03023012717297094, -0.44465787936691153, 0.23899817122046213, 0.7598285182695782, -0.1385429182507806, 0.6873276684396941, -0.6341963259795184, 0.5707100463070388, 0.10410707080344087, 0.2134173327878583, -0.30019886618432146, 0.08375358156710602], [-0.3806003830069883, -0.40017253034560707, 0.13971687079038203, -0.2825674549977256, 0.5990588167534643, 0.5933069641629076, -0.6452406833640325, -0.5731971385887654, -0.1140999039357831, -0.2927975195864282, 0.1990471775883834, 0.015081505410383857, -0.12771887017899544, -0.3711973472957634, -0.004876175239043731, 0.04409650254980719, -0.08838555799265509, 0.2612371326582522, 0.15019649568598645, 0.28157535729904687, 0.6074973678308082, 0.6155507343659145, 0.9579876421541302, 0.02256032371000567, -1.2170496644759592, 0.6600557505487314, -0.23773181351795053], [0.3102893250910577, -0.04277121405595181, 0.8322166646917086, -0.5880464908145157, -0.08554076333084884, -0.49025705365958105, -0.47018845634963236, 0.28025439633601373, 0.6397547441161071, -0.09524641311672216, -0.20215551728297365, -0.09863032690688853, 0.04813913706990824, 0.15842443774460868, -0.21990939263758544, 0.1284250771372513, 0.07404295645100226, 0.049871055356721455, 0.1872458381608743, -0.5433327969700461, 0.0394600832293717, -0.49944977156802217, -0.7853506377164289, -0.4390980590069803, -0.2202723110273429, -0.03974462532007647, -0.06797251893583336], [0.659178275711464, -0.13280362034966614, -0.7610398479274646, -0.47032231409128905, -0.28067968145195454, 0.6385019264997445, 0.3309674113816821, 0.1984126816333343, -0.31668193668257894, -0.22779151836424183, -0.1507091442927222, 0.021138994210058888, -0.0586277313267813, 0.1400100575907486, -0.2557987423703666, -0.0801020291271609, -0.15229297397580085, 0.2873322614039077, 0.8839307516551663, -0.24874338159908754, 0.1453456344181382, 0.48889055835495054, -0.32613891590225663, 1.090179956545496, 0.625640352053399, 0.041989283752984816, -0.8923722735744568], [0.9088226452761381, 0.018912808182503384, -0.4676959794811078, -0.0051290282675703425, -0.5077877433532826, -0.16768533553972684, 0.17446668357889292, 0.15102479878990308, 0.0781894456056818, 0.2567675925049242, 0.38860354865309576, 0.5310781601165359, 0.10270295632898854, -0.277900342414979, 0.10167733429492912, -0.16791820075917332, -0.031957636248465364, -0.2895632368120348, -0.42970141166390463, -0.34457444333022025, 0.6114553757365452, -0.4881238246884582, 0.6609618481988838, -0.028024032510512317, -0.05287696868611867, 0.6720579465700867, 0.7627027747527667], [-0.11004183868735742, -0.23668889026706702, -0.06282140780194276, 0.28781743267689436, -0.5078113676444519, 0.09341849691998608, 0.011590364726316946, 0.9037995622941511, -0.0549520420193625, -0.0011524934942733305, 0.23134499180588058, 0.47369158132938055, 0.07388480631834103, 0.5790011088655891, 0.23962079441451054, 0.08655402368125019, 0.035569882042116696, 0.28341977221489867, -0.0239005012215162, -0.9144117153047493, 0.21657968785466716, 0.0009755498599452108, -1.1490560001583758, 0.23073585206377017, -0.33144742199384447, 0.8337500709679891, 0.007108377187304607], [-0.36769080504863805, 0.6387561131684824, -0.3601879055442239, 0.1810877763065696, 0.5442549179419135, 0.09567865201933852, -0.37576326203019256, -0.18578489312388094, -0.28998190163296483, 0.05180908335400849, 0.17134973070815093, 0.02406333561332536, -0.08448671273714002, -0.08885694480590092, 0.10847742826463748, 0.022043484884193148, -0.3555697247237063, 0.009515334730715126, -0.06807900706168307, 0.5531475078821488, -0.4347550273527778, 0.346353469353273, 0.3417667113284764, 0.8363481240567168, -0.4203117554588557, -0.23855948074570968, -0.4560717614275433], [0.3101657233273299, 0.5685696753156146, 0.0893981616489418, 0.33926501442723633, -0.2791633033588564, -0.23910779261290474, 0.27101916134029436, 0.8189657002727456, -0.6767199156475544, -0.19215353841450586, -0.2556425747693867, -0.2540009203198147, -0.3708563438683581, -0.29519946766749466, 0.1667094937899732, 0.11539424538764827, -0.2554893558734407, -0.4504881128811845, -0.09894774998847086, -0.08948571054055462, 1.1105800213739996, 1.4541139752776762, 0.07465424996709794, -0.3931588803725735, -0.2970332594571297, 0.4225415170003979, 0.7089226411822408]], "bias": [0.13090632495975196, 0.3631017231991068, -0.2832693153925886, -0.20370756358380435, 0.033524648967680766, -0.17849583270506897, -0.20626902486853982, -0.15819921147945792, 0.4080761567399571, 0.06840630815269812, -0.21234322264451236, -0.02191130828427796, -0.21709596200558498, 0.07307519881311965, -0.069308734141782, -0.0631806576609007, -0.19159610232001884, 0.23023147868031155, 0.05497507783071877, 0.2411433066809339, -0.09353613025486446, 0.19512867400300907, 0.1271351599217571, -0.07800976424778615, 0.2337152668900531, -0.1539298072592123, 0.27514920775246143]}, {"class_name": "NonLinearLayer", "non_linearity": "Tanh"}, {"class_name": "LinearLayer", "lay_in": 27, "lay_out": 27, "weights": [[-0.29242210717715295, -0.03698583584160115, 0.4171656798610227, 0.29468678531863024, -0.6843301826643378, -0.25299054989445435, 0.27900323939585275, 0.21128242709633926, -0.47184458347781816, 0.09708460357903877, 0.09267502166315227, -0.3917288330313586, -0.029052348452114508, -0.33244185075767957, -0.24943194765525323, 0.12242634099611445, 0.2737214632114962, 0.0827552196334323, 0.34586302963042675, 0.262768649061901, -0.796899686718655, -0.24252972219636873, -0.5482221438710566, -0.07865591218914693, 0.1880682430227837, 0.5847201189697109, -0.07874834360661329], [-0.2864115586748244, -0.0456924416472145, -0.03778878193699028, 0.22090304969722324, 0.4018913850312364, -0.22526647738927316, -0.04045988696693551, 0.6988107492613133, -0.5593247991772111, -0.45882259276847825, -0.11429974468089668, -0.43185645535299855, 0.3047281947319391, -0.18047630618828517, -0.46515335426398186, -0.8897082689200468, 0.08553176275050876, 0.3830824796630488, 0.2500788890051882, 0.3428947692975442, 0.0740242196756863, 0.21279179661987394, 0.058119697264798625, 0.22903495867291032, 0.2770948459517149, -0.18763227317130535, 0.0023086849848673475], [0.17926990676617469, -0.019315091464528908, 0.614836121838538, 0.25670762931675434, -0.5333141876626128, -0.4684279187321146, 0.09921765436727355, 0.08653637940674799, 0.29498892413051864, 0.2866538145652782, 0.08533592511048808, 0.12010627287194225, 0.22185473504903136, -0.678444868569617, -0.21746572138600362, 0.4606418111485459, 0.9067080177084853, 0.2342001864376053, 0.17390320222476136, 0.2825039544834811, -0.0698009065522314, -0.4899400910034162, -0.04057758939704965, 0.4081403013329782, -0.03929229120252616, 0.2262615209204735, 0.5455813706640142], [0.3456543155836536, 0.6449480822389078, 0.8283694228961267, 0.27978626811274104, -0.718883205172086, -0.09146333764601944, 0.5316288101751442, -0.455778286377614, 0.930256434830733, 0.12800153059896274, 0.7390912417966089, 0.3786530955557662, 0.2552099321398154, 0.24360674432003687, -0.4868855047546437, -0.9290187067965902, -0.12609560441227202, -0.256820681108839, 0.18377618087179984, -0.2953923244644059, -0.30674460963379113, -0.16075121940200682, -0.12227212589587502, 0.25973551866252165, -0.13507509640526022, 0.10000056212056534, -0.6873372467084117], [0.12733402562063648, -0.08759635688651653, 0.5926007245837718, 0.057634907758920884, -0.3090095314075726, 0.6181325405404025, -0.12782682645173582, 0.11815171366279344, 0.19022082716559535, 0.18776779236058236, 0.021458836166223853, 0.02916303764942356, -0.3738126019094421, -0.3359136730286042, -0.3974937433661575, -0.20262679932494063, -0.30461532352198284, -0.055993772702098626, -0.900740325397424, -0.49973537453591205, -0.40341331043999207, 0.28099552082469903, 0.7712810581713044, -0.26286171773371064, 0.11090052591899355, 0.8060854082168107, -0.41710665415720355], [0.18858756631708984, 0.10705279432714368, 0.14040376044405453, 0.26533830778648604, -0.664173078411506, 0.24990879473029043, 0.09943855283919524, -0.15236644058060717, 0.27833063253698853, 0.07278557036869404, -0.1738692279246814, 0.2884313356786981, -0.6905312932606318, -0.25512995949113826, 0.8573582281117793, -0.04237947017727452, 0.06566070616864149, -0.37965018268242257, 0.28648948314397343, 0.17917158076053502, 0.6559454787954433, -0.06136727405097057, -0.751956601862345, -0.7697487841348714, -0.46177549700813864, -0.012192388562665744, -0.26761121649609654], [-0.18353794238373183, -0.24515877756612822, -0.4029716058216765, 0.46863254523627285, 0.560970379846865, -0.4859625111592216, 0.43900463568444437, 0.4176143589344995, 0.07010306785238979, 0.16034261759587473, 0.5380691848994571, 0.27308386754243963, -0.14273847624731015, -0.25042115049129104, 0.28762588125369537, -0.5487357562625181, -0.26208265146211035, 0.08883607638784408, 0.3761389007806917, 0.24039528248397476, 0.1822362705337854, -0.0815719126719906, 0.4687794320703935, -0.09556960685553652, -0.23638068038552645, 0.10281886836011579, -0.9959113320591526], [0.29453841349936954, 0.500728116708402, -0.18249082531423716, -0.42611018692327, -0.29757805041218544, -0.10040350958425126, -0.1105362686278551, 0.21892149894981347, -0.29705864990742953, 0.37205529138644944, -0.050549172105655106, 0.48784438500984195, 0.24357327099160533, 0.1320854763620851, -0.960374682959613, 0.8532827581333694, -0.26913014015039194, -0.008998434380714432, 0.09107996687547724, 0.014313004932942517, -0.040981586541537496, 0.5814830351968955, -0.05879353479906473, -0.489377098010333, -0.15452337527869484, 0.9047044993597145, -1.03377250497236], [0.5017919851934056, 0.1266756701918133, -0.17869415617576415, -0.22199097058114128, 0.3663187878314044, 0.24547275875078428, 0.07722395781833316, 0.07106403552305214, -0.48174477612373195, 0.44567385951371336, -0.2802803697838739, -0.30667654768468844, -0.29832649901132935, 0.009465664598966389, 0.7102976646419032, -0.027761218944811795, 0.1901227179425792, 0.23670465940393765, 0.48967690010907355, -0.31469447154481894, 0.4329808161544745, 0.05555845632167925, -0.06452318629600204, -0.3669446009753753, -0.24134902083591353, 0.20620022181999753, -0.2851678468748727], [-0.05168658206676208, -0.26536529707681916, -0.6712757141316106, 0.5481037679995068, 0.6122471332514677, -0.0998061311019847, 0.1262885652258417, -0.3397326959298234, 0.23665444629951704, 0.41931406749068967, -0.3704394566972665, -0.1703748344925038, -0.04216757741780553, -0.5142629452056369, -0.6395395760158786, 0.2317505014404822, 0.053034341524250524, -0.6240971975577082, 0.5484686334149457, -0.14651570842360642, -0.7735607584570899, 0.7885866595985642, 0.2307977746088895, -0.6271732360509055, 0.528227369115508, 0.09666656593192051, -0.6167689970953635], [0.14727667091329674, -0.27226672973629085, -0.007665627246916755, 0.002693859605450476, -0.3014459980296728, 0.3400775871058573, -0.4422219810492867, 0.911901733852351, -0.20145071443742107, 0.32672070102773415, -0.09743620855667846, 0.5369239798635145, 0.06038391465306284, 0.3144013436722011, 0.562856269184765, 0.18751876570181533, 0.4830868658951421, 0.05946351888610173, 0.07744256000406752, -0.287765496469725, -0.21918822791676865, -0.32013142194326444, 0.24539860820723955, 0.04770097469261403, -0.21432387509774853, 0.47699628093294494, -0.12221128763175089], [0.10190095507782293, -0.13024147888675786, 0.24748095188930824, -0.2674392111481982, -0.5752125734448026, 1.012364090588891, 0.2496618344225267, -0.16530319525753998, -0.16034293329324703, 0.06849149819630038, 0.26645963629919706, 0.08738543302109028, -0.11847435362273699, 0.18255285341357622, 0.0639786755232265, 0.8296970740676608, 0.276166553619907, -0.6125725770774271, 0.38297523995996824, -0.2879866297217731, 0.27463486648435104, -0.18404289606345361, -0.04881474105521408, -0.11520571707163767, -0.5102428471198104, 0.21730981370990338, 0.1700523485272559], [0.42822379614328404, -0.00873179531119954, 0.03121086502872344, 0.1361397912137974, -0.9213501926781533, -0.4298428306771703, -0.5033592434848184, -0.45600758279109627, 0.05913284294139671, -0.7731589173720881, -0.49056312518938927, -0.15910628702741353, -0.6737350067845638, 0.5715987053288061, -0.4321783884642325, 0.007249368762446013, -0.01970622938888938, -0.5267730932795104, -0.40136120135534326, 0.6127345849737211, -0.7207937186722726, -0.021052915569383466, -0.04871813543530086, 0.23514087315646148, 0.07548510910269143, -0.469605628948848, -0.22352790520739343], [0.13280003156627382, -0.17391751365467542, -0.13882069398986868, -0.5544774599380029, -0.22189880897414113, -0.7731194791576729, 0.11256497160054083, 0.30559507263491076, -0.11673828263172695, -0.6746752497074312, -0.11990244844678931, 0.10978055084737876, 0.4966740967018718, 0.2255788584296706, 0.3818716585898268, -0.526259857247608, -0.16636201618669005, 0.5515218381770951, 0.4137656642041272, -0.1508460298826054, -0.8581907127524161, 0.09470412248962891, -0.7536503192832582, -0.09004944567204785, 0.7084399419165185, -0.1599502696278196, 1.0322013461804571], [-0.10992313361708103, 0.4211761358861032, 0.3779658044253614, -0.21627359445200703, 0.3854884950649695, -0.8430966131041482, 0.14523649905295735, 0.01769254381053355, 0.3687914975829599, 0.5926903236543737, 0.3770537863641229, -0.40345063826045297, 0.36948441370309654, 0.25638030332610384, -0.5079205125084822, 0.40232678508938624, 0.1495062035725273, -0.2167951532480345, 0.3342592514422519, 0.8401139567136116, -0.12838297827883852, 1.2118845878720503, -1.0640735424649443, 0.09106386837791192, 0.1386672568858172, -0.0254068788769778, 0.24204800604750987], [1.0368910767447201, -0.34881938688599823, 0.6460523796087347, 0.20426393046232205, -0.470281040776184, 0.17948738798449249, -0.18947344393195603, 0.26624033620993287, 0.9029783848985997, -0.06083477558247283, -0.2241974588320958, 0.27846919322390795, -0.3756232983708322, -0.05279230933549134, -0.23765254990826296, 0.5163749302298362, -0.5551631842222627, -0.11611853152358545, -0.18345547235048337, 0.5770144813441801, 0.5135818390381153, -0.5677483033557741, -0.14021239392585877, -0.2698527734522607, -0.07523128917084959, 0.5968073233795255, 0.12083485960853094], [-0.4616549204672325, 0.22797162779091626, -0.25877662118317035, -0.12795345943711828, 0.3424803115041648, -0.12687679802059182, 0.21272466662678652, 0.5441391959546373, 0.3662005072282919, -0.08415687705616039, 0.26007267495892283, 0.12322111591026842, -0.398075790478993, 0.06124099305065482, 0.32271461007160934, 0.5496077165523401, 0.42127119931307977, -0.2503854810237939, 0.3002084430388346, 0.05591851314759811, 0.3434389653563331, 0.30470733896734825, -0.41345074365008344, 0.5377580831220976, 0.13207163705207203, -0.15582694693604904, 0.3854087524400929], [-0.6281261414314027, -0.3511343270295094, -0.9015761592658567, -0.60035270871192, 0.5946976619064469, 0.7615654334629102, -0.25093239125154365, -0.5150621178714364, -0.24094474011700995, -0.019832727112776772, -0.38070212361089867, -0.06688733179201682, -0.7656744016280631, -0.6199101503982074, 0.2910241869687327, 0.5696557387266096, -0.23893406584370827, 0.4162371495427337, 0.1394583868652452, 0.21670991549041352, 0.39442101007345437, -0.10563354741883262, -0.32325167812118827, 0.1611906116080526, 0.5179879430260997, -0.8399179376607296, 0.31165145049637194], [-0.0478682438771155, 0.144218584122054, 0.5614779010737238, -0.5139450663483983, -0.17147951818840249, 0.2798376755180166, -0.8233011055337758, -0.4408981932670973, -0.6432570082080894, -0.1682941309901905, 0.2034592520728843, 0.12662770491028255, 0.5292224702947519, 0.7116108421143933, 0.0024929369067390713, -0.0021533572448639115, -0.3314748082663212, -0.4588125697970763, -0.0846156148863644, 0.208455274016063, -0.5612924698864021, -0.15846099738186012, 0.3852436582975365, -0.5856709854885659, -0.2352244037072975, 0.054468018703521234, -0.14271344292395263], [0.21772317322249563, 0.2858363052326835, -0.28923277577487005, -0.618679548429652, -0.2539939795124135, -0.3725402333894744, -0.023315795916077364, -0.41196663323450056, -0.11089530365190749, 0.24521390781672456, 0.059430174383362074, 0.1159602130779772, -0.3900371655788761, 0.4513810918018197, -0.11114232151520084, -0.16041762136369328, -0.28128642296465695, 0.04213520857957416, 0.06643988441183325, -0.040339434177591366, -0.4048768858194342, 0.16919886545503723, -0.1524511786600049, -0.1529888299684905, 0.2562448242626673, -0.02846822170418737, 0.29619095982266186], [-0.07446929657536228, 0.453144392119766, -0.14088922525040914, -0.01091769010092384, -0.2892265731426489, -0.22942793667296463, -0.2771999389761142, -0.5523591681091327, -0.1370645076588228, -0.10623283791274436, 0.0031597579736976945, -0.865908493731359, -0.15547442401711667, -0.5489757542203432, -0.5952318920538381, 0.39504501167613953, -0.300378504111767, -0.05592629164746132, 0.38222417705937695, 0.10059427180100625, -0.19397925781855124, -0.2403854509280902, -0.36397273185848034, -0.7488328883663921, 0.38604760874713323, -0.28659653845896405, 0.9045248302282621], [0.26700412103122584, -0.42090365680669484, -0.06029534370217864, 0.7661825649765976, -0.35879310825788224, -0.09062225668136334, -0.02012993308439, -0.08916481751946916, -0.2148386274407472, -0.2755510199046463, 0.6903594251551203, -0.1962341057387525, 0.37608980713959966, 0.06773539251156391, 0.12608105973544026, 0.4505189223324425, 0.51586286467783, -0.27700209888801985, 0.30678195023462373, -0.3767999821004612, 0.023016789082435676, -0.364253372459367, -0.6478458394611033, -0.40732391240277693, -0.15983706531437805, -0.1180294021997368, -0.3620404790648458], [-0.17368158309163825, -0.35371989733424264, -0.15006638535757771, -0.645294785528998, -0.4846387156508668, -0.16546938924364882, -0.24930941832202552, 0.14956979430463674, 0.15864430513422348, 0.033820799023944366, 0.4598709110459258, 0.04912156721061148, -0.34305642565544386, -0.029320170198918624, 0.19943276358767936, -0.5173642864510466, -0.34048197024152727, -0.17939426143883255, -0.2498996112106225, -0.04783786594221319, 0.005578147383856446, -0.5188750739865604, 0.1453780980988284, -0.20563644051684196, -0.018614237920437756, 1.1156896125703535, -0.016119189140375256], [-0.35079946660035016, 0.6229320759869823, -0.3014384416883705, 0.2136402877660508, -0.3882810643876752, 0.40412291546745144, -0.23879360752710008, 0.5553027571990578, -0.5415613458975751, 0.7592752678809039, 0.2817770227417265, 0.45166011932290895, -0.4816715814337428, -0.4333105702723019, 0.4325944136740609, -0.04936185795228541, 0.04572374022418575, 0.31217947462128304, 0.7734677387905804, 0.03141472592092828, 0.5701927270708289, 0.25528958669085217, -0.7077157396632241, -0.07246526820435141, -0.3029357247248165, 0.40172346429047817, 0.2687820292438661], [-0.4842880628929107, 0.6327074447372073, 0.57040234268156, -0.44912843128215146, -0.030211429593287892, 0.3074066592968973, -0.2883175360349926, 0.21722684416035168, -0.24737960545082835, 0.6534958423466505, 0.2670526491756454, -0.33637294077570146, 0.15007477028761462, 0.11695492396813947, 0.28136147187879834, 0.6112457597157324, 0.2915221842736913, 0.7279181666489782, -0.5363565720883468, 0.56899501291387, -0.5480668936290899, 0.4239886802206572, 0.6942132062291696, -0.4396573257535624, 0.18854214081077494, 0.06161854400750434, 0.30968666159511327], [0.43102325693123755, 0.8234394068382254, 0.08652263353746255, 0.047141836973910646, -0.9954578826836153, -0.11950334775846777, -0.03801342278082143, 0.011907163043665247, -0.45655916081910564, 0.6369439457797459, -0.4627884819735611, 0.16749233758535134, -0.0714536748577408, -0.13858806358374104, 0.017665065755870825, 0.1799616790256927, 0.11993508691984771, 0.814578021803505, 0.18231348089537788, 0.1512946483576654, 0.06397509444406463, 0.9733240540788376, 0.05274842741760151, -0.2536700287058524, 0.13606586238774304, -0.08105996190255177, -0.15198981052375982], [-0.28610214634207515, -0.09899404972270322, -0.26896466407751357, -0.2598570289447358, -0.676458022734241, 0.3218990109177599, 0.4291933157058398, 0.11967967243850482, -0.6812115836880099, 0.17316114756023562, -0.17817957196796907, -0.1616337744337636, 0.3063232984980837, 0.20192289226260315, -0.019615478315165885, 0.09999004636391612, -0.08167232802589797, 0.1498445615954403, 0.5023628032105324, 0.26326186948849084, -0.04085285633474944, -0.14377224314340614, 0.21421276982368126, 0.2120251194281592, -0.10059013068486948, -0.46588281999888687, 0.2449610108422133]], "bias": [0.22941080081633844, 0.05330388199581306, -0.1592950509432291, 0.1721604445460834, 0.34190491413926355, 0.16774206937249428, -0.015032177386285556, -0.22282032497707238, 0.1609052310987288, -0.16571174439424743, 0.1854992910633903, 0.0599657094863073, 0.22697906696917053, 0.5678796456722442, 0.41811851639032105, 0.27581597131487195, -0.3394180698796818, 0.18072196119544687, -0.1759624717384426, 0.5351782776657711, 0.5083233491820844, -0.40172374485077783, -0.2435263540262864, 0.14354831910383203, -0.08290324154444584, -0.15423858880973726, 0.10875069571879013]}, {"class_name": "NonLinearLayer", "non_linearity": "Tanh"}, {"class_name": "LinearLayer", "lay_in": 27, "lay_out": 1, "weights": [[0.02619479349923905, -0.054518141962290594, -0.14678422014889178, 0.29609839222898754, 0.2674308813706622, 0.1273836147611184, 0.11911589255565232, -0.07654270785777073, 0.02461416610535474, -0.22048036884418443, 0.17738229395672656, 0.3913521292575799, 0.3503384484394687, 0.2884576967482948, 0.18449844686237046, 0.13744959157207848, -0.3159470962608009, 0.36090341166852347, -0.19099776472766883, 0.5862109034135818, 0.2341752253811934, -0.46707453447962055, -0.33828822666361696, 0.3542326580921147, -0.2115639986614198, -0.1779383799393034, 0.006936795022839873]], "bias": [0.24563449423992453]}, {"class_name": "NonLinearLayer", "non_linearity": "Tanh"}]}