{"class_name": "SequentialNetwork", "layers": [{"class_name": "LinearLayer", "lay_in": 27, "lay_out": 27, "weights": [[-0.2005809270638985, 0.5081581067623807, -0.6826901450011877, -0.15971594124657798, 0.20043914240949645, 0.3489900956596327, 0.45735522717388605, 0.09822518748634546, 0.24740315694982667, -0.012160158757082748, -0.2405464853975679, -0.6506990608815646, 0.19803664398287982, 0.19478350498232525, 0.3142597022481689, -0.4977706073388424, -0.27375518535652316, -0.2882912597693921, 0.27421035586514003, 0.0411967479764844, -0.0411211897374234, -0.18671413550543509, -0.13949752976882535, -0.009387035476182371, -0.36561610636185027, -0.4159310572478185, 0.2929773454311476], [0.09080395779000693, -0.365216747465739, 0.06863088852844954, -0.25620836138197567, 0.048371704010134596, 0.0003418427211437727, -0.31374644102183374, -0.17913996600642693, -0.18833843672073508, 0.38770786823909553, 0.18445060689314066, -0.05674843428598746, 0.1116786865999862, 0.3674816089187141, 0.45375705340597344, 0.23514218612371646, 0.0005841322644061725, -0.416952459696088, 0.16645265389278782, 0.09288028799423935, 0.5042945823328625, -0.10713656638046243, 0.12609239893543994, -0.08925926006787466, -0.4520593927195464, 0.3541572300607281, 0.2838680447864675], [0.35668673926829025, 0.21481162428184453, -0.4348121600056172, 0.6144914131686852, -0.19666226709758375, -0.40855329175753885, 0.6188356110975058, -0.4868259105325084, -0.1432241231138182, -0.035636146360885725, -0.7392830816262408, -0.06066030239935579, -0.12764811619426852, 0.0909546241068022, 0.295039593257508, 0.04969733149747181, -0.13604288346110496, -0.19168182705308418, 0.030588775202252668, 0.11227647814519177, 0.12473700742577262, -0.08717382155027487, 0.3707679764022936, -0.08028839720235303, 0.42953170811247793, 0.06619126739556429, 0.002168111162074373], [-0.1706215573832014, 0.004570957505479967, -0.013114112248035187, 0.05644004901575194, -0.13604262809285583, -0.37925214308973715, -0.12164643107501584, -0.4462097646475848, 0.11828328288074465, -0.49507311502228235, -0.5747470984101468, 0.460262800245469, 0.0919237965168384, -0.10382846210457371, -0.2778898085482556, 0.013499043473524189, -0.5880728537201071, -0.5135462897994516, -0.0006497281320776658, -0.3888080528792874, -0.18909107895385902, -0.02608347093125199, -0.2144614528820393, -0.07583020840709502, 0.2643791084824719, -0.5121771462500044, 0.10545039097896715], [-0.14895213085171569, -0.5376255857060815, 0.05854118129057833, -0.17035190598204397, -0.15427648781048195, -0.259679123823883, 0.07581160499334112, 0.22686434050868995, 0.20977547189898355, 0.3168647290381795, -0.11622728463964811, -0.44879954581633635, 0.37141956475652843, -0.17553233440035876, 0.403211168131785, -0.4577458900981572, -0.3983372648550809, -0.5113486948389926, 0.04697899122289675, -0.552798723877421, -0.14943557157429915, 0.18917766282464768, 0.17626544105335445, 0.1687300402326336, -0.013420503772053212, 0.417672401322214, -0.043993879296436014], [0.2327634685614294, -0.3689000291592512, 0.1897579422240487, 0.15657552207423253, 0.03239498118000611, 0.12622132142242837, 0.28811945033620034, -0.05308221036792227, -0.3803020267603275, -0.3700492975040672, -0.5420239478415694, 0.40138763308048925, 0.08993020167497871, 0.02616979624649052, 0.11933117902909592, 0.03268156709031205, 0.11053523429301595, 0.25592957832406354, -0.05435744634350187, 0.06022630847775488, -0.1867934744430095, -0.08920588098636062, 0.4604404084220528, -0.5193118457139002, 0.017026124511245973, 0.19537419245241056, -0.5460468726751789], [-0.20258471140940323, -0.03517717795195139, -0.11822614901136484, -0.10348799746667552, 0.5022735143316551, -0.20114425040503667, -0.0915594225503213, -0.40090947591884246, 0.5788476633387314, -0.3621722907009036, 0.01942461834613938, 0.0030723277769445054, -0.46449242034314686, 0.5173253627604295, 0.18401479713525373, 0.5547687955955402, -0.035546931852184084, -0.014700239140637133, -0.15108963125052427, 0.3273029770274098, 0.21486597755783873, 0.27706228680397205, -0.3707854530098084, -0.04316717850347728, -0.0018871116673202936, -0.008677377211406491, 0.019390687205806775], [-0.30837807661495115, 0.3450425838742242, -0.27683185751065054, -0.40496954613547403, 0.0013938717172436122, 0.11751821102006829, -0.5646303529160077, 0.029021180471552836, -0.45694882767720363, -0.25162228464541464, -0.2436391119386917, -0.6507918549089003, 0.012842408522462817, -0.43677175486866626, -0.604457816070041, -0.4752696919403732, -0.2134436443608683, -0.18606712279615176, -0.08459161002248419, 0.057134544510253134, -0.33741766513416993, -0.4548322602209756, -0.37731219893950113, 0.1946246207237659, 0.24216194223735185, 0.233469108497731, 0.1538786873561461], [0.2839921877398147, -0.12621763254338444, -0.2564196498730161, 0.21736341288804312, 0.24065298361665735, -0.13321110956373286, -0.561299723537319, -0.11439048972932343, -0.5373556842776195, 0.24162840150034146, -0.40364424936188703, 0.10438702393061765, -0.03563702989460863, -0.08458344990122664, 0.1855978915165636, 0.3116387722912755, 0.16843127835884536, -0.40379655341440734, -0.31823549780519444, 0.19321646081295754, -0.28090481329972034, -0.2844142370409104, 0.26295217100613766, -0.341732860535057, 0.24338472528619984, -0.1922505970663654, 0.23015981493962012], [0.27824266009673265, -0.17358320997741825, -0.1115527497812902, -0.44190804561708047, 0.3787006696179227, 0.02106584201665877, -0.7574567985875702, -0.4507874591830103, -0.05097732776829171, -0.5920513789425076, 0.20578881798079326, 0.19545088773058192, -0.10042301468432167, -0.18088890257781476, 0.034254742680004245, 0.3585600713233069, 0.2920681244430071, 0.09679134277144749, 0.3682001366651011, 0.31598824790318625, -0.47101335198963934, -0.007302459521567654, -0.25468655476810864, 0.2854687082445114, -0.6612061264113123, 0.1450315242686908, -0.18831327336796727], [0.021715049527958424, -0.3814316252561633, -0.21102683664080693, 0.31862625714412074, -0.10296775996333535, -0.25589382084998663, 0.038359259323376645, -0.006962207788303566, 0.18876687884998386, -0.06653828627031522, -0.4651513675648156, -0.00694743231572614, -0.13167638137908755, 0.16363207520460896, -0.025065877702127277, -0.1300117333160374, 0.023864937334267436, 0.040418057472338516, -0.5131775717073775, 0.4287569661458638, -0.16213923016764129, 0.13106693695141067, 0.016045112918621117, -0.38691562749805175, -0.2992977117538741, -0.111108338209158, -0.34119505544360007], [0.47607608256554496, 0.1380264731611121, -0.05550685801510836, 0.04570120603099106, 0.3152464598502988, -0.05609077308752205, -0.41797226508452395, -0.1684362912272739, 0.3164769940189958, -0.18459163484133756, -0.15702170716412117, -0.06015968814195866, -0.5568835875050193, -0.05371871145971935, 0.040961988577592014, 0.07057485771243009, -0.9611364891588023, 0.18282018513831844, 0.10781639074594562, 0.34869037015687127, -0.5360093208246982, 0.4689286302147583, 0.545595363727993, 0.27137555728628276, 0.09620333918164108, -0.21683215912689013, 0.03266935720892691], [-0.20668920700943477, -0.3302376157582336, -0.16536592241738374, 0.12546011820685302, -0.3682717354249151, -0.09035777339707565, 0.07888462103276066, -0.6519485723926225, -0.2260638804276904, -0.05927390181099974, -0.3266370865535068, -0.1751935217841856, -0.6451516661537338, 0.2286655103434553, -0.057645424484857176, 0.20474258847688037, 0.27836542124412383, 0.05098897235936741, -0.020750643379766533, 0.8719324330504442, -0.267335068890195, 0.5347435804456179, -0.271130838019757, -0.7749587444136037, 0.031581975550986074, 0.06423085054179682, 0.9541305779036172], [-0.13354014228674474, -0.18373989275173125, 0.09962241255785349, -0.025600684673408775, -0.1802782218804962, 0.5472536052488605, 0.1817979388661662, 0.22838577510191352, -0.8051506934161086, -0.5423155107061, 0.19887354696710255, -0.0005817362800134017, 0.22365604589855456, 0.10071714690137393, -0.5032265259199398, 0.3751785027385813, 0.037545772049451906, 0.17773885547757257, -0.41339002475104303, 0.23037422571578056, 0.10203021071603792, -0.32536698436894973, -0.06909909941062876, -0.1891018034776481, 0.42696057573745155, -0.4721215773419641, -0.053136789708743], [-0.23588442353773498, 0.11873725640930168, -0.08788170373181511, -0.21191002334845446, 0.07369420482901423, -0.04237443218169347, 0.018542620970194258, -0.09454881686418386, -0.5364444609295119, -0.21502777000839013, -0.2132228273962848, -0.18160139211702422, -0.07457210093741799, 0.46794520661050065, -0.5963144685851177, -0.2228535620588442, -0.5853593991066554, 0.14885679876149066, 0.03969589709814669, 0.3424830488455502, 0.008972794476660346, -0.013440364251279825, -0.18526576196827008, -0.09489662476217148, -0.6493262757079029, 0.12218028733832444, 0.29691899581669334], [0.8656358076645467, -0.18621618263996345, -0.15013446600189842, -0.3431160048974523, 0.15707830862432345, -0.6818314888638115, -0.39646665077212134, 0.153083400835931, -0.1505872051628469, -0.23984876062002777, -0.4295036146344457, -0.1370980321665025, 0.05968691563160021, 0.22872033359417449, 0.24825276574135957, -0.4092578538802983, -0.18394916499539665, 0.017505976407671372, 0.11414010394379352, -0.32785137492346145, -0.3944841858727515, 0.1556203736017204, -0.2654043857035902, -0.25542589015429173, 0.036896157200774944, -0.22013398871464265, -0.040014213359527685], [-0.21612323889606408, -0.22468193986647994, -0.3480822093186977, 0.14148161743588747, -0.44459198660721894, -0.2587484061927106, -0.24138054771704093, -0.3868330465359667, 0.08752696916660553, -0.2417047337484486, -0.18397129684365415, -0.5218708319313679, 0.4132178797750257, -0.022699038158692935, -0.01813647699702104, 0.5114815638247106, 0.22385420733544859, -0.26630075978046464, -0.16274287223975994, -0.11916000347052304, 0.290794897730257, -0.30573403394195936, -0.0879120294074713, 0.05089336882273856, -0.11442322621064545, -0.6641501672002945, 0.417453265641717], [0.4195480281916477, 0.017700194598851235, 0.32848849460104346, 0.13452754466446168, -0.7654752179538139, 0.4890167322757813, -0.23153795135766225, 0.5636063129197064, -0.1921814430497006, -0.05552282490722423, 0.20805152728697987, 0.2630869677588834, 0.2111688787711205, -0.3249200534400902, 0.10894585906596364, -0.11147757443796408, 0.5692111831717087, 0.5671950054512455, 0.137193325403115, -0.34621504551764876, 0.023361133562040726, 0.012688379483844728, -0.4785004035943832, 0.25819282910398883, -0.04645708848408065, 0.29060035112078564, 0.7195828243363033], [-0.3397993753691319, -0.21875285591614987, 0.6170085399693008, 0.07281855813640073, 0.07992601848600389, 0.050644703188946934, -0.008071866819546412, -0.318832191009464, 0.3013959396629339, -0.3790402444201458, -0.0013622353427286554, -0.016608077862762863, 0.33742124836597737, -0.3957461500228907, 0.18875933995459873, -0.1728981122582572, -0.19267810591543127, -0.042769970463969624, -0.8076740256764601, -0.32978861773562007, -0.024656285174659807, -0.1330607263802199, 0.4251548902713075, -0.10092173241503807, -0.3154334336543737, 0.07185999468310396, -0.031675754311376675], [-0.09659502740807874, -0.3695446901260433, 0.20834217165417432, -0.18004227171842718, -0.15533102458165823, 0.16634911443932737, -0.39736683750754004, 0.27775610339286966, 0.002288065568673938, 0.8478033037906375, 0.15707129689606905, -0.2480021101956215, -0.5512352582324445, 0.17556165715909683, 0.7341263361493164, -0.07686314835025167, -0.6276389101814116, 0.09384757897320076, 0.495988746795065, -0.08939629125210113, -0.1228960558946104, -0.44868426688344965, 0.2196533938561618, 0.19595144587623983, 0.0756043075535983, -0.5551165654788264, 0.29160987567030955], [-0.11804863092973893, 0.07050684765112392, 0.057299928539615255, -0.41790789446529797, -0.0473385047215425, 0.32535640082683637, -0.3051160303384572, -0.43348695192300424, 0.1046042601007996, -0.7961037991548039, -0.24739717500363845, -0.0477903749461255, -0.15924403947967322, -0.8002320029871683, -0.03142202303730015, 0.2400120546536159, -0.18112870723297297, 0.22377698202777677, -0.18536908614531855, 0.10509656653081889, 0.3524296455119046, 0.28563840426890025, -0.04053343927526673, -0.14127223557789947, -0.18625814742347288, 0.21804555566787054, -0.07806081725577456], [0.3073203149179653, -0.15747795520942437, 0.4167239714485233, -0.03319790907847135, -0.0745658914839352, -0.3533474043815415, 0.1629784182405726, 0.4380624221102708, 0.4467208427825036, -0.1359645005241458, -0.1943081112504676, 0.12381370767195345, -0.02647577531007667, 0.2384647981722826, 0.09573263954501098, 0.13925807970144352, 0.285603365497138, 0.22060259532133059, 0.26801174108479825, -0.46782111646305996, -0.5327590317797688, -0.05963784597623261, -0.13827570006768453, -0.27380990287741586, -0.04853820898408461, -0.27558007733727496, 0.2630776316258653], [0.3571318375796538, 0.028699262642735486, -0.5946453162726887, -0.4675525879282818, 0.18212850595758298, 0.1341828008611524, 0.08954186544804672, 0.035506669947401606, 0.04321908658807202, -0.6019335806426469, -0.12944136432903228, 0.19925469085871597, -0.3411804622215771, -0.03850148609437136, -0.5458470107921528, 0.25064700685840097, 0.04865820803085178, 0.3829277052984873, 0.21806228402622224, -0.2528963595422719, 0.5381954773916353, 0.3151395926429855, -0.6893775779753589, 0.704502076894075, 0.35241608120739065, -0.41828409042542747, -0.542680772846731], [0.5961239368826263, 0.0366655984704569, -0.06298407633906887, -0.0069386367828317965, -0.3334340061927512, 0.04834490173176603, 0.2691590218989983, -0.1737170145856883, 0.017526722000869892, -0.16426460126241013, 0.4977516891079607, 0.42145454631381457, 0.12554150665770822, -0.4945081306151401, -0.09510696040501018, -0.12573844897277114, -0.13170518985144977, -0.5259261108311214, -0.6408830187928589, -0.2888595850594539, 0.596014083527588, 0.08895860886577382, 0.3020325959439268, -0.12834854841257576, 0.18852561572431603, -0.07350916620229056, 0.26370673398570044], [0.06724512369323193, 0.15050783189288364, 0.08317019339032286, -0.05601212696557164, -0.2593432085778889, 0.3403654285030077, 0.259166813292719, 0.03463340624697978, -0.4200016024466682, 0.3268017742898778, 0.18511013587710745, 0.353479896682775, 0.22753735959761373, 0.6709808131563326, 0.5326975545307941, 0.12423331406218617, 0.3633735913049163, 0.34859393981548376, -0.0758442121704904, -0.20374857107167005, 0.03669277899693801, -0.33923775621036967, -0.11425686065106516, 0.31114008149955624, -0.40898073995159184, 0.012702543963316755, -0.12274280385889988], [-0.33568738301871404, 0.5106986317938503, -0.006099855962173736, 0.2010507925817628, 0.06655818592147585, 0.14426324077706876, 0.27853548727665284, -0.3580477923613335, -0.11260556009294387, 0.2976512943721375, 0.195496151853026, -0.13497117673785286, -0.19535379234951994, -0.041580435117949115, 0.08273618751207513, -0.7869706122210688, -0.0745591381504159, 0.529386276320887, -0.20390212885805112, 0.5020022335815753, -0.028391313535888127, -0.0869082398027157, -0.13894313655483237, 0.27679289149965, -0.16346330833767553, 0.0013281488969323315, -0.2502190140079267], [0.18509070669581631, 0.30244358050812115, -0.018550287917078974, 0.22777471568432242, -0.4772890622431437, -0.09513452555344559, 0.5092290458297546, 0.31036292503614155, -0.3878777846595878, -0.08751611190816422, 0.30351726773151133, -0.4295485457540537, -0.2026838184940173, -0.3202118134477585, 0.261957641898873, 0.5775664804209095, -0.4793796440068536, -0.1186912536776976, 0.1316056169331571, 0.3949761268215496, 0.6624554628314018, 0.8063452987173023, 0.21080037279386107, -0.13825690424924245, 0.11631092181874687, 0.005635621229641132, 0.7606723649218574]], "bias": [0.031719876044658736, 0.05715015992488998, -0.04452934002409478, -0.0207387967097079, -0.05186929102721327, -0.05707184536333343, 0.027804094831486197, -0.06080440574299699, 0.04042810682242007, 0.04406443531583442, -0.05376911700535995, -0.048657334676507534, -0.05376086402702193, -0.038410744204338064, -0.07536609463957512, -0.03905011484477542, -0.02050758575975286, 0.07787420829464559, 0.034243402613172644, 0.05651062694091999, -0.053886779183509266, 0.047300845932306324, 0.04457214265300981, -0.023564090772978507, 0.023710265973372037, 0.01713576913390726, 0.03125053485018405]}, {"class_name": "NonLinearLayer", "non_linearity": "Tanh"}, {"class_name": "LinearLayer", "lay_in": 27, "lay_out": 27, "weights": [[-0.1906547148245835, 0.3603038999542178, 0.02700892399019985, 0.04179345299435253, -0.4686879578226322, -0.5397370215796649, 0.4035817116155314, -0.09022095823258038, -0.38877456617194234, 0.06339223443373565, 0.059925825922879934, -0.5123300947574135, 0.1407584253468443, -0.054909451400128546, 0.1802853747984733, 0.066228955231357, 0.12927038841823166, 0.07855962484994647, -0.03286588659763782, 0.23994448291224355, -0.647919779619804, -0.3248362170099549, -0.17388782239006165, -0.20281244611948454, 0.32387493575498594, 0.31668818492206063, 0.0689522111348863], [-0.16905123598415164, -0.32630436234767896, -0.04499717559996824, 0.18978240263812093, 0.45169716210691846, 0.16728690376477273, -0.18146476496228592, 0.6583606501901315, -0.4843882612499125, -0.3891070983280441, -0.10753118596741117, -0.4386675904831069, 0.32424426509523435, -0.11124234643192928, -0.20455725453947696, -0.8014026385588734, -0.0595752641039969, 0.019402388026027905, 0.1477731672594068, 0.35796857012275207, 0.1558812156882622, 0.0019811109993776413, -0.04747647259894998, 0.12070490695188116, 0.1443038428877172, 0.1678939027758489, -0.13103934638355372], [-0.05171675368747627, -0.185908984631107, 0.15271144740319753, -0.006756442428949667, -0.3022857388728367, -0.2934241913953108, -0.12409327780400974, -0.04109857429184508, 0.011389492698670779, 0.1926723248792245, -0.15038661074836376, -0.1201484513906208, -0.01825471138895689, -0.4362344476875155, -0.11421600867623853, 0.12309829729782516, 0.5501603327490836, 0.15590876580054025, 0.36378823719594594, 0.45511159845779997, -0.010970792470120803, -0.3983671086132441, -0.2733266760985027, 0.16938897454834007, 0.18507737224798687, 0.3730637082373174, 0.3368053406423344], [-0.0728068179618065, 0.6833922263977268, 0.2789434113555992, 0.23073053484694636, -0.2738224404589508, -0.18051670380824844, 0.23439880797540413, -0.25064693451135145, 0.6523650801864678, 0.25453582109494455, 0.39069439745529944, 0.13355000523493296, 0.017037029509746223, -0.009431396309341407, -0.414923795866661, -0.7849892375877289, -0.22911719168858036, -0.007240023080608353, 0.04701684361327992, -0.10248725359869773, -0.1978306620881627, 0.12280581333132598, -0.009393613923279481, -0.12967843247685146, 0.006455178469167964, 0.05743603057507142, -0.4716964586940535], [-0.21863664722727158, 0.18838645829639517, 0.1848923276178481, 0.24689492183460168, -0.004635065219626266, 0.5325139660954394, -0.43340664090956504, 0.11183703296096474, 0.025877095949816253, 0.025809293760614735, 0.12359821542716468, -0.40231745682003356, -0.009009182262895831, -0.26117475620853386, -0.21533270671615895, -0.5336322861962107, -0.14705223726327168, 0.07728110449857384, -0.29397027883857524, -0.48261061628057794, 0.0038732474876130075, 0.1698491785493778, 0.30731364840281644, -0.4409468432879639, 0.05062527738748626, 0.5815505724696404, -0.25662016168931184], [0.1373208826022318, 0.09938870364742666, -0.020746700724479858, 0.2429810639091582, -0.3181237060809767, 0.03234441030341906, -0.01686947918481539, -0.40987117446619437, 0.18645188089116282, -0.18329933451836822, -0.048806502557123085, 0.12367496275933201, -0.7996462971958491, -0.43670127295605066, 0.4536544856295793, -0.08885353523264798, 0.0033553008289926704, -0.029972942985968566, 0.05739906813592552, 0.25467137756631525, 0.43323089718314506, 0.1279365040623258, -0.5042966096300195, -0.6391963713335093, -0.17479237010890475, -0.14082942727842787, -0.26899880820289945], [-0.21916208738071824, -0.04178636023877206, 0.02104067595163975, 0.28628705947257915, 0.3489766137706638, -0.3518945038690131, 0.17729855387450644, 0.1375058760616119, -0.06325979023187761, 0.1447846844238436, 0.5124509069631933, 0.4563330608639789, 0.07809332209983395, -0.10845645859608066, 0.12123766132114316, -0.16652600088039768, -0.22907499765624162, 0.28804226985838494, 0.2990251452077892, 0.25651369373838695, 0.015444005889387066, 0.15944812034716083, 0.5344123566444798, -0.0341202469469614, -0.07967294529623475, 0.18172165384259129, -0.4999012402021809], [0.4350846409316419, 0.4673611591343627, -0.10174662822659392, -0.44240617491026973, -0.1356259712419234, -0.16198457995512966, 0.13058489235278825, 0.36067415802845393, -0.2701088750260892, 0.12568437696112306, 0.043194224793209474, 0.18101286170290545, -0.07629860317991694, 0.21995162267642174, -0.7498525892710355, 0.828845137013758, -0.3266987691044929, -0.2924549033654405, 0.012865308334394747, -0.18054771695309835, 0.018540899063625455, 0.1687629020491465, 0.02485416688387352, -0.3696412423541997, -0.0962507024709976, 0.914272605747399, -0.7341193874722984], [0.5709886538355686, 0.20563291663603578, 0.015567970128135222, -0.03861262063287115, 0.3217362214611689, 0.08832429696804915, -0.026612441179644078, 0.10963393265847221, -0.4105214671728557, 0.359511614847151, -0.28518676650978814, -0.4079606994490678, -0.03597753473579463, -0.09365776663081786, 0.3454780562372815, -0.03302195322188857, 0.21202649025600523, 0.48818200863486744, 0.4526674824404175, -0.19858255549922726, 0.2535497689052098, 0.2879952307718551, 0.05911707066445677, -0.3368831469174467, -0.23935971180942264, 0.027890643683644644, -0.3119447634103934], [0.13405606035886286, -0.33518013967970256, -0.434293466946973, 0.3545259289348785, 0.52527556613115, -0.11371129659660054, -0.40205144987251407, -0.14268134750018882, 0.1423176643711887, 0.34539586941275546, -0.34021614721607146, -0.23754356303623045, -0.032191614761083134, -0.07900225852650128, -0.18718763670513483, 0.40636196160845445, 0.07024495419314618, -0.38202257628417663, 0.44421789759680974, -0.10414594145466619, -0.941469926929208, 0.5328928336663064, 0.155372032382607, -0.4822665369881287, 0.5993262769079478, 0.27936254535630484, -0.2631923515803849], [0.04275293054030193, 0.049724409550257344, -0.29920337177846906, 0.015237630564139305, -0.006074736895788093, 0.08990268727494674, -0.2570684812365289, 0.6096463864778513, 0.013308053122175619, 0.17534448736756167, -0.16496085546620745, 0.35589858405939206, -0.006633108912467344, 0.19404976381446581, 0.3944995360584946, 0.04974827463682933, 0.49791717910552546, 0.18737306876277574, 0.17914921967263592, 0.00029036251628607326, -0.19051390158349094, 0.14376025264720846, 0.16265440059763658, 0.21662130968712576, -0.10355162353708416, -0.06406441295295427, -0.05035350089123211], [0.08656483643058364, 0.13035790214877022, 0.1356294891735102, -0.23936535043308899, -0.27422805759899554, 0.3540332354269832, 0.09411365978230747, -0.17048820440852128, -0.305925572837925, 0.09179820746964502, 0.4067511015152012, 0.08728980870937963, 0.2111872543523461, 0.0953805724711091, -0.02081400622253215, 0.2951772326023622, 0.2792078942962261, 0.053513951298872944, 0.34612006266123574, -0.05908027460179687, 0.06293253057969586, 0.15836130664004966, -0.0530673688050004, -0.09417813363846231, -0.2851087918553421, 0.09270881588910071, 0.06503611956760477], [0.28831962124123894, 0.15126434337280284, -0.1457929437792916, 0.06964367835533587, -0.9011243309948233, -0.2362479554495225, -0.3802924128071732, -0.3856441636325537, 0.12754298631384386, -0.3082328611496888, -0.412524191595669, 0.10629003334121051, -0.39914838820590226, 0.37673552767115753, -0.09812020675246906, -0.028286469534540424, -0.24703238567089056, -0.453644913763209, -0.24261699399837358, 0.3834786457433401, -0.40508548592668836, -0.1572678148876909, -0.08866633310481968, -0.002927845383669339, 0.10228619757708901, -0.29429699403003867, 0.016973614554530732], [-0.10859438185520301, -0.2578988737011295, -0.18727780482513062, -0.3514526789485533, 0.14877554059562115, -0.49283730862444286, 0.23510134047105463, 0.5782898110470067, 0.17442490128222626, -0.37670608087438306, 0.0018351712988344967, 0.5595396241887373, 0.47359855214161045, 0.13607475662937543, 0.21979612180065697, -0.13245529228320432, -0.2177488369267732, -0.13937667682689872, 0.20728326895123111, 0.030654691329026935, -0.5416071089568852, 0.15700409943188742, -0.39049585318142, 0.019844765669056116, 0.10567343923794775, -0.303584124647938, 0.48753792130013784], [-0.057722593613614835, 0.4289570836913321, 0.2699674015082104, -0.11213600923322328, 0.2739207053456174, -0.38139847808456556, 0.1878337142520028, -0.208138245373831, 0.5166751346611074, 0.596140088948944, 0.08806560130428988, -0.18537829178833987, 0.25077563771431793, 0.5701082074740618, -0.2462559305610705, 0.06725345902216583, 0.1498307660167757, -0.09103383545499903, 0.3652806958358564, 0.5690243491244413, 0.05448309658210128, 0.8188284818997943, -0.6427707515430742, -0.047893393320205306, 0.06172459136807374, 0.11954668723091295, 0.044058350506332306], [0.6018287931915139, -0.08457719249373594, 0.4403798481449924, 0.19741716254567765, -0.1708169131296933, -0.2064867806723489, -0.11002725077298926, 0.402535471666258, 0.48972499883003784, 0.00706760229534631, 0.14328005036682379, 0.15844782079474873, -0.15680498461534617, -0.48596147625697556, -0.349652638463899, 0.4497793689804576, -0.4505535885317786, 0.05384522429172017, -0.17599431027295864, 0.38996634901422206, 0.5037873439829205, -0.42749739515670887, -0.30037050965578965, -0.34741350471019034, 0.025681742934720055, 0.32970962123469844, -0.08059865239024451], [-0.27898893719310547, -0.3671312427792216, 0.04554669066832422, -0.21166942729117222, 0.12271101873936338, 0.013174379931832491, -0.05231379538045535, 0.46632731442851155, 0.2838977582245487, -0.33328561631842335, 0.3696586945266561, 0.11684961688421092, -0.346022637971764, 0.22170749326225778, 0.12768673862628455, 0.2963228890709121, 0.1786251464597208, -0.22538116516700327, 0.09101905933309937, -0.07158000858135531, 0.11699781891730392, 0.07932756014610322, -0.2361617935548827, 0.3977844553043662, 0.11720038186756865, -0.054547643910636545, 0.2978604472484201], [-0.08144281096683871, -0.3735554119209368, -0.45077521366994694, -0.11698407094088745, 0.09758074733553158, 0.20103886791777473, -0.08922354637278904, -0.3547531420894567, -0.42371586896675467, -0.2460156884152522, -0.32328829669244363, -0.06033786156188006, -0.4277067805564986, -0.889295901958896, 0.1094762779669067, 0.4997859552502618, -0.0194800587927135, 0.12785366438076246, 0.03499423907302775, -0.1615460764346488, 0.2564551220306375, -0.3632419209872908, -0.20577408538748043, 0.18755395998640173, 0.4187203100439486, -0.48093344303751917, 0.4159100275363077], [-0.14595868219101418, -0.11200219421610337, 0.18220935762279736, -0.5498302849434684, -0.027101615524177287, 0.14880364726440318, -0.5843581397498403, -0.2808361220535353, -0.21422547117623952, -0.12645135078190053, 0.21180945036101434, 0.021508531519354578, 0.27625224540802146, 0.5997641153188129, 0.25448654772859447, -0.10756141350844081, -0.2355845012157975, -0.6078822019514994, 0.045778881918589136, 0.11007739795741293, -0.5267057073684959, -0.29985770806399764, 0.4074775955304315, -0.5102219791249396, -0.20968530843779712, -0.048041402292255196, -0.21103588110974428], [0.22356536177152672, 0.3027983200104135, -0.3755293900486779, -0.49186861736424337, -0.343914531145203, -0.32408872161332747, 0.07797970266351217, -0.6729513662553567, -0.028792796430372684, 0.40632637241359004, 0.19711946716282505, 0.2538712956343472, -0.3151219852020146, 0.3349717983519034, -0.2004761870736388, -0.0006416357479592081, -0.002146806429208101, -0.05629421969683592, 0.044086741797631133, 0.04614866823233063, -0.2909380767186259, 0.20204567554777886, -0.09528917216389121, -0.2068054537453625, 0.15600346121288405, 0.13986602547654703, 0.012641227264629828], [0.05429614721400563, 0.4642181075496057, -0.0005102629368372204, 0.03124912460952924, -0.30747448260986704, -0.14863302398498196, -0.2833509306692773, -0.3265709273260668, -0.13752277945589472, -0.057121719383381356, 0.07217882162732023, -0.6493908838904958, -0.21459145305843558, -0.5321083777590985, -0.6879929061329653, 0.29277183288291353, -0.1939578597145339, -0.03107021258038913, 0.19455897570569977, -0.2075364330052842, -0.1265596884422812, -0.22161606957713212, -0.19975436355975223, -0.48599649614848767, 0.2714238747984591, -0.2889931567021163, 0.6393200669286626], [0.1482697093877718, -0.16782444942004635, -0.17216548587967748, 0.6284109677789929, -0.032906586580155786, -0.11056587094032476, -0.06629555151799406, -0.08176592561384767, -0.2624873535699926, 0.008498985250702815, 0.39684551821007075, -0.22125171186037018, 0.24252804664639194, 0.10675026918021915, 0.3503724957435735, 0.5940913721900167, 0.36434015401863556, -0.30987798981193687, 0.24247275517023148, -0.2067734149819933, 0.004077917143524948, -0.20471995181323172, -0.5734990385893157, -0.5395490972258791, -0.1026947625801456, -0.5116376128614091, -0.41502936776581584], [-0.21131081059524248, -0.1560484388178978, -0.11191252178693104, -0.44538242048780063, -0.3237269062285365, -0.21345843052027963, -0.3623996505412569, 0.13660576925425763, -0.259920939703442, -0.02656411005333356, 0.2351927239031891, -0.20324098412053204, -0.2196544462141068, -0.010143152399495623, 0.23966603639382839, -0.1660204216118532, -0.2665071600549242, -0.16545573323393045, -0.0007266498413844894, 0.03211974893943994, -0.04756708136272474, -0.22688531127392048, 0.03852084839082697, 0.017488879929722572, -0.024941141851570363, 0.5561338136225739, -0.044535450019045006], [-0.13017110359582465, 0.2566377463972538, -0.10950200264223614, 0.46355342720761106, -0.28887992607675794, 0.06987034390030276, -0.30815443638548945, 0.34341509761746575, -0.38027008399508244, 0.3715837310106641, 0.3349126038146583, 0.40760160956084374, -0.2511019880719312, -0.38149124781608584, 0.11083763834189742, 0.04097838687885627, -0.1328096902785367, 0.42912635351027956, 0.23472173314421224, 0.08036752167963575, 0.28266801230428507, 0.3199297314179894, -0.38349324609345675, -0.3194790585169127, -0.22191483825695454, 0.5048528380191555, 0.4391165310625437], [-0.40298998225087324, 0.4285822494811235, 0.35262930349604865, -0.2501195944424825, 0.041234789007059416, 0.31133376968305815, -0.0006789077842862397, 0.23438208722161494, 0.014539337476950302, 0.5100011073761637, 0.26741041314691194, -0.5725266981033028, 0.0023171987739041685, 0.12611985005437704, 0.2356883189225484, 0.39585950611585013, 0.1405837623661216, 0.12318357372955288, -0.27700499315750876, 0.4253728163093634, -0.34733375498089664, 0.20931611137124662, 0.6405686266237551, -0.25736425652690237, -0.06167126524415365, -0.15554815946845912, 0.2046863470470556], [0.38413216186980714, 0.17628428941562238, -0.10308803837819341, 0.049552847935029655, -0.5841853960843033, -0.308855320338529, 0.06390065639347381, 0.09989380840583705, -0.5990234283825236, 0.38403306555318245, -0.4789757735472247, -0.05358342225927873, -0.21068979890006373, 0.057197754601484525, 0.2277639245811578, -0.16835698176557154, 0.016418150014119573, 0.5626088911428453, 0.16166443497000313, -0.027113543782284002, 0.1461218145109896, 0.5049491817497357, 0.04063537317709603, -0.4671646531370005, 0.13458391244812593, -0.03182416614395082, 0.036398675919126426], [-0.20263589728819315, -0.29018337318718895, 0.04815464799602558, -0.2653444848369227, -0.6600849945804704, 0.4839962816518192, 0.1517804826698415, -0.11906494345271175, -1.0378979498926673, 0.05506610832375398, -0.047073795893233225, -0.3752355013372598, 0.37561558277642415, 0.19988342719424812, -0.07184425654655761, -0.053888167065375116, -0.1580534293543552, 0.07749797171116604, 0.4466417160953942, 0.20081932185997597, -0.07181776652913376, -0.3138752697877613, 0.1575446589452479, 0.22675308565104849, -0.12968973162980468, -0.3945690423536728, -0.12477643459408562]], "bias": [0.0394752402500207, 0.019402946939716035, -0.007038368796667158, 0.03781746424287945, 0.052325392805157106, 0.0179586118962462, 0.028194170262271473, -0.032373360143916945, 0.042257939817553714, -0.020332072197218016, 0.03363551622621047, 0.03729966658277957, 0.047924781589032, 0.04034281260455104, 0.05092063439797428, 0.030274956941510264, -0.041102702118825274, 0.0396392605046188, -0.04173724480510134, 0.05582618492180664, 0.03342825897147276, -0.06903098130636029, -0.022265860579026023, 0.04421887086409806, -0.061494553735036615, -0.0305280105729172, 0.04866499028713894]}, {"class_name": "NonLinearLayer", "non_linearity": "Tanh"}, {"class_name": "LinearLayer", "lay_in": 27, "lay_out": 1, "weights": [[0.09920169599421405, 0.053644783615918734, 0.02877759729313533, 0.21620757798676052, 0.1610005656859915, 0.1133320256897567, 0.1473870996656772, -0.16868867723961545, 0.2175264989993339, -0.20974235567271768, 0.323225994400712, 0.36503645851912475, 0.3644980240842662, 0.21500721082846763, 0.16187853638739144, 0.06095556692483703, -0.45410708970458086, 0.09108778373543751, -0.35927078058237066, 0.6627677852392349, 0.3246693024106357, -0.513700912196465, -0.35907217988246737, 0.28049912489846723, 0.0018108104701791668, -0.06867903088743436, 0.006329045493940303]], "bias": [0.040066974702520235]}, {"class_name": "NonLinearLayer", "non_linearity": "Tanh"}]}