{"class_name": "SequentialNetwork", "layers": [{"class_name": "LinearLayer", "lay_in": 27, "lay_out": 27, "weights": [[-0.3189523757563468, 0.6670689434145773, -0.4420976608210914, -0.17403366355592495, 0.32240558295807026, 0.42878761522520936, 0.7345073494384046, -0.1169290155228825, 0.5115977286968376, -0.18074744186296476, -0.12304356360534803, -0.4581286201648948, 0.18973751372510692, 0.09518399108384383, 0.1586193976007365, -0.41837252597539004, -0.20857402849550846, -0.022650665320898707, 0.009132235551703258, 0.07946751332305702, -0.38287856168058837, -0.1432386342060682, -0.3316340468075895, 0.1337467651516563, -0.20956165369039928, -0.8041784017323494, 0.44883232053059335], [0.2881491117269248, -0.13627848173341195, 0.2452676552585369, -0.22822953430391074, 0.13494752538160332, -0.1747505153777055, -0.3474696217298435, -0.48458359548871166, 0.01229189797875654, 0.2540406677103981, 0.2673113546193922, -0.11911697276153015, -0.046854818702978106, 0.3749980768234362, 0.4399580785857605, -0.007300440949972868, -0.057537412482809476, -0.30493404671700663, 0.10800990594547959, 0.16368351457174307, 0.6601707761349266, -0.3467260203285604, 0.012561634945389383, -0.15328856643933828, -0.4666993501272957, 0.16749380259138666, 0.360205586327802], [0.6755362732857702, 0.6658190512175557, -0.43888217397761015, -0.01377141293616682, -0.2999546403210631, -0.12917121059308764, 0.627132073072184, -0.9844770567522795, -0.14279958003401205, 0.10012965649743172, -0.5256529264773833, -0.10252969999268848, -0.023982009753754797, 0.0439405213882156, 0.6178166880868048, 0.042182584053301435, -0.2578112405956429, 0.2980885734306211, 0.047882217295666, 0.38661155862262964, -0.10522876692522475, -0.3625112467749551, 0.5678041070580535, 0.05304544021171441, 0.53842769845496, -0.47978683262015576, 0.299390596026198], [-0.4726795204166562, -0.04392779828812334, 0.07620363451946253, -0.2743077579357291, 0.08341047681982373, -0.4622991349696758, 0.3850680571817169, -0.8115933247448922, 0.5329805129088698, -0.1015195223674984, 0.06596003480383116, 0.28948680624709994, 0.11172763822378137, -0.08096966107195067, -0.09808782279924112, -0.08090326390169823, -0.37064059923354475, -0.02386132544895005, -0.5096300144239202, -0.48791295733851514, 0.07334006134663533, -0.2227288105933294, -0.20321747238095225, -0.058145836460404485, 0.44100303340605357, -0.6817767532419216, 0.47245383102958755], [-0.01559599757033303, -0.7246607095521469, 0.24109128360415094, -0.29415705564588107, -0.3686979840845798, -0.38981067452022267, -0.10534509389715493, 0.5652281291871157, -0.012966685146331258, 0.26103200813420446, 0.1525845457249151, -0.22626618916979016, 0.23960902077992155, -0.03277200544728493, 0.34480762041619606, -0.05490715089981296, -0.2727342973850274, -0.3522816162298851, 0.26707404680257796, -0.7253255888136702, -0.056836012881532484, 0.31018531985939907, 0.1604593875117434, 0.08840520021427031, 0.10882264943708375, 0.9469734993894053, -0.0789863492417649], [0.740069246826594, -0.0727530833527992, 0.36837000311959556, 0.01497038121210436, 0.6986991462250174, 0.0672116796595198, -0.0001829405097797637, -0.5090298621231608, -0.7193595094064086, -0.06371584479943156, -0.29835053792788047, 0.24792474373094492, 0.11007699840322213, -0.03780112117177908, 0.13318001560577514, 0.16046024633730047, 0.19439264526323927, 0.679313534038972, 0.3928365058904461, -0.27631956357257703, -0.18004986828751934, 0.11796054578952005, 0.6185279312906415, -0.3617107444195518, -0.168272744571433, -0.2641448093200143, -1.0086149678426546], [-0.26162812546679703, -0.11043285009560186, -0.38816818116414786, -0.5338157136547627, 0.9439348905981544, -0.2340837653947162, -0.09969085208217805, -0.49076803281036474, 0.6617607573299178, -0.20227689129468265, -0.031911445205798285, -0.054261441618669436, -0.3642963864081823, 0.3603883929860801, -0.03471938613484427, 0.14480680203293855, -0.04849348675540848, -0.18290660536598982, -0.5325315984027967, -0.054290646356771124, 0.197223895081662, 0.3121102361900442, -0.11666469939388292, -0.3509615805021169, 0.1165069594668943, -0.0779843293036696, 0.29795075578823654], [-0.1820018573252186, 0.3783744845137922, -0.1391643250903917, -0.4211349935405216, 0.12196712054040461, 0.34651003886626436, -0.6974975558852459, 0.1738752993051519, -0.5029867740843854, -0.10744307915030225, -0.0007616281915099997, -0.4848753421215259, 0.08660852365861191, -0.23649325147735709, -0.1599556464908383, -0.1927702208043395, 0.034113941176961884, -0.026207292977334377, -0.02216538112770812, -0.006450424190019032, -0.047792096255854954, -0.8267831344355472, 0.039622612636774274, 0.4706956672566126, 0.08299478325365739, 0.4867094410865, 0.181536397191945], [0.5087268098530288, -0.18857560867756692, -0.47344628068882505, -0.08325690445783848, 0.6382733234647369, -0.2506660123613031, -0.3974053914093905, 0.08284739642553043, -0.34948112580840707, 0.0774878106307695, -0.22189823411474602, 0.20855017214469007, -0.15179333917621335, 0.012714953236612127, 0.07032665455446548, 0.11276625503411625, 0.17861253544876773, -0.47519026897769734, -0.39677557739361613, -0.162496658354942, -0.3597786335611462, -0.29885117187116417, 0.10932562855635476, -0.4773421141801074, 0.7491016682008687, -0.4007649283734084, 1.0899586922311115], [0.18668747954573983, 0.3136249888519573, 0.17022692190320238, -0.6153330813869006, 0.3753374100533435, 0.05902370331557668, -1.1001996040695512, -0.7032936569479996, 0.07102136943067591, -0.5343836238598142, -0.02247671562658666, -0.07117609891791342, 0.0690811001765532, -0.08787090142931607, 0.2823472818801544, 0.49748779734587284, 0.3727447602478653, 0.13807334041683864, 0.5503360273608292, 0.28092514031054244, -0.2266871196081485, 0.3036018705802546, -0.2888669213028874, 0.09466570356083329, -0.6035385297080831, 0.6690008462125732, -0.44201225706758396], [-0.1921471065062003, -0.0033418530975519918, -0.6202339489215674, 0.3894923834611198, 0.09161420620556299, -0.11627063626535059, -0.05629483869051841, -0.48785457668862786, 0.3498736029696681, 0.07514169421384115, -0.46350401393402213, 0.009927674537524585, -0.14090344499738364, 0.11506168150761185, 0.17599911604223442, -0.11450390676656917, 0.16247754786983304, -0.1846270901573027, -1.1927824774125209, 0.5701958114276253, -0.10265701479995358, 0.4269526411928084, 0.4109370769376913, -0.49216148520873787, -0.4322630921868112, 0.08958224421907135, -0.2144872018710951], [0.6791833072735491, 0.2192167376291558, 0.017936862903505494, -0.08959724608320624, 0.33701912673946344, 0.2286892718804864, -0.2414552057818213, -0.677059932958259, 0.20656782642106858, -0.2280204705905177, -0.26318887246515404, -0.43286253106894346, -0.48775038617132094, -0.06940544638221471, -0.13679224569485834, -0.21263934021023811, -0.6775584273559921, -0.05419058105581328, -0.03018666025650419, -0.006233727615634599, -0.49065294100803414, 0.2543195343236378, 0.5519346521140472, 0.34174211215722833, -0.08515208057617044, -0.18652859926691923, 0.08308449530336773], [-0.4855601275344285, -0.07488180406172697, 0.011325041021407472, 0.32885852191830844, -0.9077853829587452, -0.05641241751170847, -0.11616048703526188, -0.8590660914904604, -0.16052037235783248, 0.3016308387344946, -0.09220495900801783, -0.10592837837915767, -0.40758330644819035, 0.3906721495111479, 0.0882744279621884, -0.015102995516665833, 0.1177293251397359, 0.020952737883430578, 0.09241116471743861, 0.9548008410994442, -0.3509441047361067, 0.5434274369572706, -0.40834386069247536, -0.8076244440294913, 0.2724758233666124, 0.007439755184662937, 0.9777466736446205], [0.055056521181915216, -0.01507018141712023, 0.04078589016278836, 0.09698649805779452, -0.6994745745209971, 0.4860297609104955, 0.3210639464866693, 0.024832989496685193, -0.8492188950242031, -0.9759094713577757, 0.23835580544479, 0.11205766209695753, 0.2156586666611869, 0.10357118184597935, -0.30544844052864956, 0.022805134276132465, -0.20059820196281097, 0.3148635091653365, -0.19976691949752662, 0.4395089322037065, -0.1911921730034892, -0.47374157596482247, -0.14631000390655088, -0.08093880870491527, 0.38697625559938764, -0.4485331164952479, -0.03271676581191885], [-0.16120501586944483, -0.03216892166499566, 0.11616869583567599, -0.06392630218095836, 0.3598481875651172, 0.22214529381776207, -0.004965282957922802, -0.34970249691349836, -1.0044519476274498, 0.051820119480004964, -0.327371037729801, -0.2726497965901267, 0.0075682961594218156, 0.3843843451805034, -0.12484089945110494, -0.3272672559800408, -0.1870887215794301, 0.4806166976708708, 0.12311641013594433, 0.38254046251939366, 0.1961770855810341, -0.23763359222544872, 0.14820038092638563, 0.01923373343192901, -0.9555556959754541, 0.33583641308221257, 0.0435178484076859], [0.5078714465558003, -0.01151522330534102, 0.2340861987602852, 0.19155735976755536, 0.04139769914444516, -1.4228933001446147, -0.6296800904136005, 0.09214244196081299, -0.26061818421898786, -0.08517725732249869, -0.2023409092038308, -0.09585440488526198, -0.1233307124277806, 0.21562394110368105, 0.2060052659596014, -0.14115131666015204, -0.06486971388706113, 0.1572191916716673, 0.6124223547831664, -0.6101346468197382, -0.017452906793083738, 0.46092823199713207, -0.5315100203435014, -0.6897856462864345, -0.08716397314913268, -0.26409557909823383, -0.03947511341551845], [-0.28017426982313837, 0.22870403332444864, -0.4827057192225232, 0.056706847282702554, -0.399006032531154, -0.6459784803758434, -0.3058560524757388, -0.58395906905401, -0.04234777860699981, -0.05906566332644587, -0.22966369652803814, -0.5856719330750257, 0.18802922395764898, 0.02059438149921541, 0.14264731778291614, 0.34994572575792515, 0.4116096787956447, -0.45398595588584323, -0.19611120913247165, -0.2353936864126588, 0.5088207724803934, -0.24797032724834292, -0.0024078677086426087, -0.2189378106669144, -0.10320972817636209, -0.8210839948305413, 0.5138240061560746], [0.4674580620174726, -0.020092552310010527, 0.4435481737667803, 0.2436488260588065, -0.47462597149329977, 0.9302497708709031, -0.25047516427375155, 0.756469965954356, -0.2802287485430945, 0.029945684624406617, 0.24031990107100823, 0.14368315859010777, 0.26465576607361896, -0.4219067468400943, -0.1184063540177913, -0.04298622657086627, 0.4590223361185383, 0.5029588262572257, -0.01252277267576649, -0.48013154876941205, 0.36957525922553464, -0.18269432473539982, -0.5282744483452553, 0.40797699699088924, -0.16465258679407302, 0.7838154707374575, 0.27456146072536297], [-0.3845146372948789, 0.01725177548711547, 0.6912017649601774, 0.13967814990573318, 0.5586179863359256, -0.07893362263725354, -0.14003516371435829, -0.4037571934334285, 0.4933079011917665, -0.27362396509586934, 0.13670094896722418, 0.1599217684564687, 0.33628560660411566, -0.44815804024579065, 0.010571860154531328, 0.07267595798371987, -0.19675770698677422, 0.041535451706730266, -0.861316661965684, -0.2588918975790696, 0.489510417848452, -0.007627467159410896, -0.005752242401072302, -0.5317321221744966, -0.5554704064976104, -0.11691525204292445, 0.07871175261137672], [-0.011510763207352857, -0.4304864418199225, 0.37693955900180237, -0.28978563387685097, -0.5360382317948688, 0.28529716697713403, -0.24816595333284847, 0.5854349494838139, -0.045617177445653426, 0.37417315080125807, -0.01092831850305012, -0.3358607306728648, -0.5838191177894949, 0.1699307358854538, 1.0785366305983322, -0.195519725433831, -0.5035887886978554, 0.19818206787546735, 0.8183779007916522, -0.21302324345924514, 0.26700744286811234, -0.8130041240266084, 0.6720303119030119, 0.0681207544328872, 0.1797488680047321, -0.3369366748359315, 0.08184398227854954], [-0.35135951965757006, -0.312539132172378, 0.03990429518095505, -0.5993788561981125, 0.44079429727660113, 0.4858597928243141, -0.21030677949607435, -0.5797040474424756, -0.09067533041494444, -0.24575813692116236, -0.13827066757377277, 0.08069285903612412, -0.1198903383544773, -0.7529619916813673, 0.10275064529005268, 0.3707795992173274, -0.07506281881361357, 0.1383979174861241, 0.09933043051941724, 0.12861569743372117, 0.6619901796246711, 0.4465796414492524, 0.5571553556790316, 0.10101848996547654, -1.1184984132592422, 0.4298695209281374, -0.23798446034550647], [0.37857885480197684, -0.0451564279485054, 0.7007478550384161, -0.4460911294265546, -0.12418337504136824, -0.4191573948274385, -0.16429447473782544, 0.33115347281661023, 0.5937635003285161, -0.22090220156916732, -0.2480311836907112, -0.06501140306106125, -0.05701755537401879, 0.1815679796484629, -0.04169818787712661, 0.08168330552699986, 0.12406670023775795, 0.33561810817883553, 0.24018484849564065, -0.5654166110915992, -0.22699084415579993, -0.2795958143531974, -0.6295481452153397, -0.6535876119067577, -0.18270135236400997, -0.16495157983413972, 0.03054523897613121], [0.5408741061279738, -0.08536350958501797, -0.8542716070649408, -0.5463564775650579, -0.28077612851109296, 0.5262123439233437, 0.20551139277537994, 0.10442916886804822, -0.22484824614793886, -0.36534205270919123, -0.1709782024846796, -0.04625330255082248, -0.20935266337167485, 0.10645795703531138, -0.34815950697922393, -0.058379769973642665, -0.0853550801948834, 0.12594884406105944, 0.6466029314269801, -0.20741385597587988, 0.1363413443293514, 0.46843582528201977, -0.5768406784384429, 0.9201784140226977, 0.5304289012093966, -0.1982762219569759, -0.8752779725355291], [0.8109443605934648, -0.08051806440984742, -0.40670923433686024, -0.2578392183077744, -0.19436075367442468, -0.018534612524012724, 0.20060028004982125, -0.008520395789444054, -0.10146408374104217, 0.1567678024312732, 0.5917492709912431, 0.5417408185806182, 0.13588472544972843, -0.4572745524630458, -0.09228441800141868, -0.023366925149459237, 0.04819518075339533, -0.7569017836094679, -0.5154139352537841, -0.2709125912334436, 0.6857816332398337, -0.26368228912406905, 0.3343293169491783, -0.019133617763739938, 0.07008954725198596, 0.3632234875078922, 0.5908238484509539], [-0.02924561575956897, -0.20744101032012194, -0.05214061700819345, 0.3062368829423344, -0.37682475461946563, -0.02446485842669152, -0.07490812728326147, 0.7896216025789239, -0.15083251832313418, -0.04971362143658067, 0.24610868377362496, 0.6005578881355214, 0.08170968172544746, 0.6467092536173831, 0.14887359924929217, 0.11587758268217377, 0.30123033536260896, 0.0471407357297009, 0.24302282431654648, -0.6085985326666026, 0.2111373443083224, 0.10248432847917877, -0.6398982313192824, 0.16568033572791846, -0.3844283243628484, 0.5832974105983315, -0.39514777329917067], [-0.3274254259689354, 0.6221167607608022, -0.351438628829666, 0.21034060229259113, 0.5215950569301173, 0.13975945729439462, -0.23748184945042658, -0.21825665346717985, -0.23239913457891523, 0.053711448707175875, 0.1345818696605949, 0.03054037983374602, -0.12495229391139027, -0.18837756073683512, 0.15688076046686378, -0.21510986336172863, -0.14880071773253387, 0.20657568623446712, -0.0824738888213845, 0.6246632193638698, -0.42845669600755804, 0.08771308553390662, 0.09795318438633165, 0.6984741251288044, -0.33301370813114545, -0.16227583060999148, -0.6000275444571106], [0.338397547445588, 0.43628549804271366, 0.006204039238096357, 0.39504338681736473, -0.4395637265769702, 0.030697059141221606, 0.4120850541869106, 0.6541859758996819, -0.5193749692415867, -0.1584973539109931, -0.0008814805790099944, -0.4801402648611964, -0.34690923285940284, -0.3410977643449411, 0.09233132232622208, 0.36995689380346763, -0.3228908238121293, -0.15583480484731024, 0.01805343255483967, 0.1377277069185442, 1.2436778691003125, 1.2244364423561502, 0.2502652602244739, -0.36345602265862725, -0.10756554637235023, 0.40206370657601065, 0.6615268946970327]], "bias": [0.09382996211103806, 0.17395214014200713, -0.1250930610467248, -0.1430255220020056, -0.022720979930088876, -0.15726739625183886, -0.10067997761005387, -0.1204284974107499, 0.23568097115199835, 0.10453480767847068, -0.047096671636985936, -0.022571707816847534, -0.08982616475257395, 0.035762561791856565, -0.12438017231710458, -0.07383909410055295, -0.12289691666388142, 0.1566260243280911, 0.1311166160619795, 0.17128546621095153, -0.13591464533639994, 0.0770874452526645, 0.05738293348643615, -0.13385543317346696, 0.1850616469079038, -0.010613337796057906, 0.17162836966108783]}, {"class_name": "NonLinearLayer", "non_linearity": "Tanh"}, {"class_name": "LinearLayer", "lay_in": 27, "lay_out": 27, "weights": [[-0.2967468568755881, 0.01456645076223325, 0.06326553042770601, 0.09618294098644296, -0.45557211571211287, -0.4383604079304064, 0.3327828956780734, -0.17816242162200907, -0.4470788526902093, 0.020687456219811155, 0.14558399300483932, -0.44665667619111776, 0.009493943818877271, -0.17004159477908132, -0.24498218516866196, -0.0525594349014369, -0.045611845979728914, 0.058446063825460984, 0.23359605353518986, 0.19308614585801656, -0.6820318150095347, -0.2334727455257601, -0.37994486129080646, -0.3004197826697454, 0.2293086249172276, 0.4704891257360011, -0.07221527136403758], [-0.3977321648618894, -0.10726976211088818, -0.19925521050142744, 0.22928768602815178, 0.4550977829400463, 0.007450662581461949, -0.0008968037153431873, 0.7694687093136596, -0.48638302910691006, -0.4434511423196588, -0.21075913128729148, -0.4126161730505819, 0.1345114601463796, -0.02723026022538295, -0.2703404392824557, -0.714684787911916, 0.05392026661265559, 0.08613028532198279, 0.1920388441899498, 0.4073357072959235, 0.22298294295700583, 0.05329189748188817, 0.0626201314692976, 0.18553683289119416, 0.19066858294364838, -0.022150459458445175, -0.0576334344790102], [-0.00657292697047755, 0.016389074013021806, 0.4596894357974091, 0.26845040111172497, -0.3601423963552921, -0.3711057481550606, 0.19102586382105832, 0.0541106740698453, 0.2764993558578274, 0.34381103091019255, 0.027412190032440803, -0.010933519987055856, 0.05591034742615644, -0.6297484200469927, -0.17173612437035976, 0.41774655442002884, 0.834236156257863, 0.09272763788087787, 0.23665223042006087, 0.24104782169018124, -0.03282448619155688, -0.3966101126168077, -0.17720620717570906, 0.5559555164755624, 0.039428317515735625, 0.1395594787340814, 0.48584167887250573], [0.14500710687555712, 0.722238138485626, 0.6140480514362795, 0.32282500615403775, -0.5740201628411715, -0.13557555621700113, 0.5614128598930301, -0.38165177040085585, 0.8866776486475336, 0.12382505647277232, 0.5833916505115246, 0.3299302656264404, 0.08045307743481314, 0.10926693825675202, -0.40300262817385807, -0.7667482460398595, -0.13668821080403026, -0.2615604722693774, 0.1625724334521748, -0.36775135899399636, -0.2277363579820405, 0.001506590915581242, -0.05253875731636104, 0.199125457717405, -0.1168477851080149, 0.0414119805124976, -0.5517592680166055], [-0.02505111845205811, 0.0019172525895245064, 0.4741058803700063, 0.1203650293606619, -0.2967121505623811, 0.600078759595228, -0.26044284247225025, 0.048843283689234504, 0.17611652718192514, 0.09897908410398477, 0.04229805379935573, -0.05785242162247282, -0.23420283608594214, -0.3103313469532303, -0.43191047552284945, -0.20063962389943915, -0.18398693702352636, -0.08034612537457196, -0.7167708295193741, -0.5021303647927183, -0.29545245516096963, 0.23042824929920702, 0.6742806883051814, -0.31198624207852443, 0.10547823011299563, 0.6397013048846236, -0.4493434386400125], [0.12771271227351266, 0.05845519292399215, 0.08472161796648181, 0.29862009897712494, -0.47849682964183704, 0.1930908030745789, 0.10576861797692841, -0.39304581426251445, 0.2961274270407816, -0.1087659525485514, -0.08657541435074566, 0.1225856587113607, -0.7106509537172259, -0.41545225637133504, 0.6527436780282886, -0.02722172702715035, -0.011833011967542042, -0.28883735776792613, 0.23017976813593632, 0.21154945664865005, 0.5354802098925427, 0.030733119056595152, -0.6515549166319407, -0.764346787362879, -0.335989919135684, -0.16091383286485753, -0.2856971230222931], [-0.1674484567899914, -0.15003396576937106, -0.26105554227574496, 0.3815427149491171, 0.565942806274183, -0.49582090497586434, 0.3316037202032441, 0.3165889836348386, 0.13252450417471726, 0.08281238761310902, 0.5276940470464121, 0.43070801989439433, -0.024735665009770022, -0.20912525947196145, 0.15474107152808916, -0.4416278958746305, -0.2639632661137994, 0.22960895464450562, 0.3629064763129001, 0.1987664719891083, 0.05599851098758392, -0.023169044301782606, 0.44285841584134295, -0.038465638935433887, -0.19496327661285823, 0.06825586305598824, -0.7757004075371833], [0.3257474878364482, 0.5084916234793552, -0.2826052416670374, -0.3695814636429996, -0.14657757319490095, -0.2850877137789764, 0.04324145196647561, 0.36226893026752255, -0.383559428730225, 0.34830577308445204, -0.05174981036183798, 0.29269954310354773, 0.09211592940802847, 0.19575425523978665, -0.8935997266773092, 0.8082062206886961, -0.27528326296551114, -0.2204664117461722, 0.11766757947347915, -8.816649967621059e-06, 0.05971906127235834, 0.3945468526371278, -0.049961293151082324, -0.43396328744722334, -0.1485530749555876, 0.9307418128404545, -0.9425986263831623], [0.47971531351555313, 0.197217637943395, -0.10575492648881898, -0.2776469817586566, 0.2673653956599533, 0.2389468937965998, -0.10065319514816935, 0.07904647059679693, -0.347616044211952, 0.40668311622184866, -0.38376984024826793, -0.4121452421741219, -0.1785159303945425, 0.015540474242761669, 0.6205752297964826, -0.06176730437449788, 0.0847155033826844, 0.508979553944072, 0.4350859034273757, -0.276851396045974, 0.2625521607777629, 0.23747875918358363, -0.023921182136885846, -0.4590525626079106, -0.21671504616490703, 0.11424744040639244, -0.2591698888667846], [0.010137455718081452, -0.26734709018177877, -0.6303030843623962, 0.6208790834003294, 0.5063082242616197, -0.15861266573513577, 0.03135453749583945, -0.2605601689205099, 0.20554266499580487, 0.49050643622372925, -0.377419524596884, -0.14880425268972483, -0.031153872629047282, -0.38781878039030104, -0.5465957316619534, 0.4141994105063927, 0.1303405332572189, -0.5546381828572419, 0.6643573167182396, -0.14293596090789137, -0.7819641160871772, 0.8068258279585675, 0.1668445671319179, -0.576949660359722, 0.4781577977731157, 0.16144697056870938, -0.44051179121593415], [0.01807424988888959, -0.09586334731717144, -0.09983329181488378, -0.015242915036014706, -0.14726761745055222, 0.21424080197975517, -0.3918118114936041, 0.7321743524391736, -0.008556974634172447, 0.22470449675151374, -0.08698395827846243, 0.4877034091113303, 0.06872750935702171, 0.15762235863295554, 0.3598728805742991, 0.24433955528604046, 0.48209073177182077, 0.1875476214720875, 0.17257750433955735, -0.21225701545858391, -0.3192043024096201, -0.06267344820083277, 0.10713170540850415, 0.23934753561463687, -0.11088674086060268, 0.18671427502275453, -0.12388900741982314], [0.11715371471422455, -0.0391057039358449, 0.2151533036140395, -0.20546169980876386, -0.5006192107969512, 0.7199473344746589, 0.22882594811203782, -0.17164178887652298, -0.19404911615186468, 0.18471367185301504, 0.307411695639244, 0.14587143541636333, 0.05511809069662828, 0.14241413623854088, 0.001419768082128474, 0.576717897217913, 0.2638272291259343, -0.24801921264940557, 0.40358675311011016, -0.14490494291092626, 0.19500524565362407, 0.019438999945429535, 0.01772853722336032, -0.2008084219442645, -0.4956915596748008, 0.18252052721368706, 0.13970516235000913], [0.4068846301591091, -0.05185761985729102, -0.02522343758695481, 0.12397627056360898, -0.976766178724228, -0.3374112485455911, -0.42516006195951017, -0.4638850301971277, 0.1327785866993475, -0.60068357786403, -0.4276547439466658, -0.07510560320797652, -0.5198438581862368, 0.522479785337304, -0.3552450002177592, 0.022642706354589228, -0.17795880752601562, -0.5051160390036512, -0.32290403821134905, 0.4882090838169179, -0.6938984765063344, -0.03809968252391591, -0.0495297472903233, 0.013043352946998219, 0.11044257185001147, -0.3803582487966367, -0.15335861841823692], [-0.05746365885121234, -0.2559783710419457, -0.15722588278737937, -0.6699763144967403, -0.09045700723850189, -0.5007143946375103, 0.16474315489177535, 0.37969251143850263, 0.15614755547753037, -0.623401565907971, -0.1079176483282522, 0.3323462805165592, 0.4246860150354025, 0.254442413055151, 0.34520553674032733, -0.34161936260360104, -0.28547019458489475, 0.3322113662364853, 0.32560684962697334, -0.058898933105881665, -0.7749349434851, 0.07972211744910677, -0.5588945043284393, 0.04786933592432539, 0.423370471911318, -0.11161534962300934, 0.7760009982448706], [-0.12318046831889838, 0.43958776314498726, 0.3778888670394026, -0.12375343912456484, 0.40326430807384156, -0.5220302848606206, 0.16809371365042597, -0.11821656353169009, 0.5303954779924559, 0.5054189641354863, 0.21128709992439018, -0.2333259679853183, 0.30486678765403624, 0.4085368297099634, -0.45776770531683364, 0.2684542307280866, 0.12038751082673625, -0.15554022379520102, 0.35062952618765336, 0.7330957459008057, -0.027030470257678033, 0.973886444572815, -1.033332772633755, 0.0176143424494559, 0.019833199809079573, -0.14131684150577523, 0.1287894752920018], [0.782813679644597, -0.2728639998411004, 0.5340761804234884, 0.1789705580525614, -0.33631924478180547, -0.04424849780421087, -0.11802923077805917, 0.374160331555402, 0.7420344106959574, -0.13638417992363053, -0.12012176321890697, 0.19431332391187622, -0.24876623005858184, -0.286824920606323, -0.3507902497218386, 0.5470096265180426, -0.4453773820597408, -0.04379489457051413, -0.18766717279385867, 0.6003199163196211, 0.42932815121917667, -0.4401542632018634, -0.2138402839134932, -0.35297049372823236, -0.04433383039866841, 0.3319298979954115, 0.025282987523835655], [-0.3001177360508458, 0.1077204521005637, -0.16886266722359244, -0.03480802604167405, 0.26746515768880996, -0.10626067187481969, 0.2010921445524768, 0.4440607331853965, 0.3389496019507815, -0.14113921410990138, 0.3586115803318234, 0.11455170417717737, -0.3371051192947081, 0.06423645311617583, 0.17015468654369367, 0.43339902183042267, 0.38619950229905636, -0.31968933405966354, 0.28164489152431754, -0.012874268056832183, 0.37507352753864054, 0.17576683987645758, -0.3150986481926109, 0.5441073520891634, 0.06725056575002465, -0.21073556847625183, 0.3960548838863467], [-0.5161446209445426, -0.36075360591654965, -0.6971518924695879, -0.49105366314438276, 0.4160968503639545, 0.6429229106086047, -0.22075715731365564, -0.5355657319140081, -0.37332988708992965, -0.11635232042723048, -0.39630771947503113, -0.11093469582601931, -0.5609789819552219, -0.8102564420457223, 0.26262602341370295, 0.7313621259666345, -0.11778571088975058, 0.34426795133663074, 0.1044220860663239, 0.052317897533317566, 0.338552098400774, -0.11126402552780465, -0.32274511509999604, 0.04416543429908285, 0.43607685687379705, -0.7849305865675924, 0.509203158689546], [-0.06897033996264793, 0.03712405563739071, 0.4120993801467716, -0.5814343211917449, -0.12338394141712239, 0.21526049139355133, -0.7870897500633544, -0.384028965140793, -0.42752078170880997, -0.034296336434899904, 0.13036919581703446, 0.15971911727737173, 0.45418117087101195, 0.7342466989602269, 0.11106276215197673, 0.06766845127824812, -0.2558481096621531, -0.42843383531907464, -0.14347617181340894, 0.23141908339855677, -0.578105072863421, -0.09696836375312481, 0.43747543278219697, -0.5275014623184695, -0.18760499201970898, -0.07544300733094625, -0.03438262500324727], [0.2233510091985556, 0.10348139628764376, -0.27100959661467666, -0.6911848279895786, -0.2529850284990201, -0.3450174136704656, -0.038647873665433666, -0.5712442675669037, -0.12582223163846074, 0.2983585525162482, 0.26481761492934547, 0.15961091219032986, -0.3214707890230312, 0.4185516122321847, -0.23250561448545312, -0.046263523801035655, -0.1198010276878289, 0.0184427237093799, 0.07835048225276274, -0.14262204237887027, -0.39358091502975, 0.17986281058621162, -0.08582172176228824, -0.200869948543945, 0.2314197123784641, 0.11867922001102711, 0.15652506988860884], [0.015844728791333137, 0.384892363106625, -0.1011088572525213, -0.025006127060267305, -0.27347821865619304, -0.19204252760206797, -0.2757452856003798, -0.4622653056839688, -0.05092151308020303, -0.1020562308199743, 0.11351916212558695, -0.5994767009421804, -0.10607695194209059, -0.5833904259732076, -0.6376404200165239, 0.4581640926097354, -0.23868122088391247, -0.02195392217948505, 0.3165893304841793, -0.11288440037976834, -0.20205492662425964, -0.2740222314509318, -0.41653942474558364, -0.6299977579865582, 0.30781467202034823, -0.2392536747780489, 0.8578856411217451], [0.2854036312042636, -0.20370624115732078, -0.09854540615109407, 0.7579422589662153, -0.3554472317727627, -0.1058442664797017, -0.032020043109893884, -0.1665893958222048, -0.3084279679061795, -0.17998404012675567, 0.6431776542685517, -0.2013246957544399, 0.3860834600830481, 0.10240307755285662, 0.25681157670887855, 0.4195463528188334, 0.5350074124553955, -0.35194255250700274, 0.45327266294614615, -0.3851237737644628, 0.06601424857068706, -0.4050326383474839, -0.769488318202486, -0.4006970249691091, -0.13213350061623103, -0.16590505095354866, -0.3249633749597643], [-0.21941156869997258, -0.25064874100186235, -0.2387907337758993, -0.5157133412513095, -0.4257731246125882, -0.17518918765754454, -0.24628273558910532, 0.090829978490658, 0.03430843318228075, 0.09579075603560581, 0.47841664284505553, 0.014881136440509408, -0.35003086993979105, -0.09724351684664036, 0.2050663033586559, -0.35766581035251904, -0.3655017577238388, -0.1418134856621318, -0.032955207443866194, -0.05563409820843672, 0.09310080082730486, -0.44139428753732884, 0.12513787374868787, -0.1287431313376227, -0.01153738912805258, 0.9699642906568321, 0.007979273731877552], [-0.29816191606163384, 0.46942104408450613, -0.19088256028215808, 0.22903083554768852, -0.35535650284486486, 0.360192155501664, -0.27796122330871853, 0.4882851710751037, -0.3591457460257226, 0.6037898402100559, 0.31791863153095634, 0.39313591904796286, -0.38154156065623784, -0.466606975406183, 0.3653430551701332, 0.040359424361472274, -0.046611309024965915, 0.38420216880189667, 0.5299895906245915, -0.03281737493284657, 0.48790017253095114, 0.2703848302230133, -0.6751948540221474, -0.23359796256182103, -0.29867622962899526, 0.5018152423702631, 0.37882499885303605], [-0.7077821318023542, 0.5716063694039777, 0.5183186089732497, -0.4724962843595631, 0.0643384028238016, 0.4456721783512664, -0.2980506102036901, 0.1938288600686641, -0.24423737347612784, 0.6566725242557874, 0.3120847630187708, -0.4305073889456238, 0.17679422552424695, 0.1425125755089268, 0.30882843519674363, 0.5363410631191945, 0.0847816243078789, 0.5957131633884504, -0.4397220904622036, 0.5974490571729679, -0.4281135745309184, 0.3523443001881073, 0.6092960641277194, -0.4138049351420007, 0.11614327254384488, 0.05680801064674726, 0.252350964242672], [0.4334327368708117, 0.6025010747403192, -0.017379995979779725, 0.15749702927711953, -0.8402595043580343, -0.2768617923613116, 0.31379270945617377, -0.08333948194626413, -0.5174290084921911, 0.6075694506308037, -0.3211777668777154, 0.08640165866051398, -0.07230242135782518, -0.1675653311919856, 0.0614950934201512, 0.01691102571797028, 0.1013512036225065, 0.5291172903560858, 0.19922219842914196, -0.11079016971667673, 0.22484986287862296, 0.6654104745807571, 0.10331277379938386, -0.27921397171389234, 0.1434214219231167, -0.1166519914884181, -0.045582855644525966], [-0.30352140898523516, -0.08899937390554946, 0.004591996862960396, -0.1964723318666786, -0.5535408063210134, 0.3192456067615486, 0.2445060202344954, -0.0070702955187912885, -0.9419767980116346, 0.0632856334998606, -0.31084464722241023, -0.4052837149325634, 0.3223693022225458, 0.20625678046680185, -0.031860671507848784, -0.0341917890170347, -0.14827013634559277, 0.16101433495052087, 0.43109327550894383, 0.30291436595039534, -0.02224958693615617, -0.19461715645286487, 0.25550012584597176, 0.3804851699597631, -0.1253253754367632, -0.5932642505961429, 0.20455175642308557]], "bias": [0.24804428583556531, -0.019744591328153694, -0.12770753777138183, 0.11588828496190885, 0.24033470593603895, 0.11798471865471599, 0.019105681173320267, -0.12860478199144731, 0.21121737170491164, -0.08770515630507097, 0.12214906597143282, 0.09037095505130788, 0.16843173677741072, 0.3830796942284812, 0.22807653344247758, 0.13189050120867854, -0.2620217188162258, 0.09564260549245601, -0.06780759539657781, 0.2782594442873985, 0.22842968163117963, -0.23445319415660343, -0.08400418811080211, 0.07668848074933866, -0.09580416309919443, -0.10804459019086429, 0.062186593497185194]}, {"class_name": "NonLinearLayer", "non_linearity": "Tanh"}, {"class_name": "LinearLayer", "lay_in": 27, "lay_out": 1, "weights": [[0.007326509979624057, -0.033303189442659566, -0.1350594432978138, 0.29750757530689864, 0.2700579015427522, 0.17097212077659205, 0.1023279786044954, -0.1563002795766316, 0.18220854724148156, -0.2742463997562094, 0.16755264274621584, 0.2891796487983875, 0.40904657094824887, 0.23328359378944602, 0.14038980610882146, 0.06683576775186088, -0.40966799997773384, 0.3317470328183344, -0.2933899376982338, 0.616383852816372, 0.27814050256244904, -0.5365733166076189, -0.36001488281628, 0.3627267307696465, -0.25689240018166126, -0.05103450851058532, 0.02427656793139871]], "bias": [0.1595752365898858]}, {"class_name": "NonLinearLayer", "non_linearity": "Tanh"}]}