{"class_name": "SequentialNetwork", "layers": [{"class_name": "LinearLayer", "lay_in": 27, "lay_out": 27, "weights": [[-0.20023723139759902, 0.728833194980838, -0.4159808200458731, -0.22461786456626778, 0.22203756171315692, 0.328052550296778, 0.9479112713395147, -0.2138690215148422, 0.46503495370098, -0.2479681928921977, -0.019379629783177744, -0.5718475961375014, -0.07758817343301341, -0.001500413288969347, 0.09295989485582493, -0.40668564127946344, -0.057550388896279614, 0.01110580730912674, 0.025390703609874943, 0.37252365869026743, -0.48127266621602066, -0.009200097100219518, -0.2967968163339188, 0.01702840091457715, -0.19755076317829223, -0.9304463676030075, 0.4760033321675749], [0.30442002800525114, -0.11068784641731583, 0.34311551473372465, -0.30427394395887, 0.0712881906756524, -0.1988672763090722, -0.4268753013374752, -0.6994994832951476, 0.17276441380938887, 0.16011669174802184, 0.35084326134058125, -0.14611362523185423, 0.0474486816151425, 0.5284390388364597, 0.3465630324606699, -0.04774494993580492, -0.10951851504512453, -0.33616798946156395, -0.02052641634085831, 0.27026063951979906, 0.9405158131588988, -0.4035123906447135, -0.05519398902049082, -0.025142497460779827, -0.4068219347245745, 0.14767070789249392, 0.2539162655247229], [0.6716197353475225, 0.7830827107553231, -0.5216949549368052, -0.0661309695209722, -0.32888679096774975, -0.1156006434968332, 0.8985331133309395, -1.144253353199102, -0.20739688507528556, 0.04104999901738048, -0.20186325200258565, 0.019778419851434612, 0.06804844892837972, -0.10521170224120972, 0.46659439913343753, 0.09030685895436977, -0.3096853641707596, 0.13510875974455758, 0.1030662182233829, 0.5078531579176617, -0.2259985392193067, -0.1421539301973388, 0.5093716968401655, 0.06515481681041534, 0.6285844999849113, -0.6012418784203485, 0.20104696660344162], [-0.4786012043378985, 0.009993458675433794, 0.07654788454417659, -0.3938703369955045, -0.026421602837028595, -0.47466651940596905, 0.3963010749102259, -1.0180348011364562, 0.5274361195265107, -0.14591119703284056, 0.10716441114178926, 0.267529189519177, 0.13329219198368417, -0.1128021497175024, -0.07854635343814516, -0.15856018322855484, -0.24309225983472812, 0.15002958242763328, -0.6563813320736711, -0.37524996392630083, 0.10398676811279453, -0.2079995132630468, -0.07854777431879541, -0.08168096296265787, 0.5394420502110219, -0.722419643169744, 0.417598159984557], [-0.012600001391171962, -0.9014229743194822, 0.31751185071179383, -0.3432103444914326, -0.398898506712958, -0.4656670786694023, -0.18495412555492288, 0.34254549595353234, 0.058114102057972614, 0.2515312262250407, 0.10568789941791201, -0.04160204498693829, 0.2391103475456405, 0.04028605589101422, 0.37006572375202573, -0.16312161684907953, -0.2120251064020464, -0.2033391141478263, 0.23428261786430638, -0.9598365198495868, -0.07844273014256746, 0.3993005467706989, 0.24192160443465344, 0.07533730990709869, -0.08263130669951847, 1.1897244606538515, -0.15834561325120663], [0.9321604498876291, -0.15628153054101532, 0.39830214052837115, 0.05275883047630077, 0.9465116689222001, -0.01991108372787712, 0.08745825753236279, -0.318357429423911, -0.8000195869050287, 0.10432876584582261, -0.14266659311088717, 0.2410997470842553, 0.17136833472822183, -0.02263380723026895, 0.10820089438694103, 0.17476736693111827, 0.40790419023625696, 0.5534788403832296, 0.44089444450355253, -0.363285812213296, -0.16994013798664892, 0.009438089247764068, 0.5796077734008367, -0.17798587528049295, -0.03492866293181829, -0.35457782927450127, -1.3052727566472169], [-0.12339270261682789, -0.12050044067774893, -0.4380218898031735, -0.40618880267808377, 0.8514723327820424, -0.3985626058919275, 0.008438152691103108, -0.5051858375545216, 0.669768704001238, -0.2613211272930203, -0.02877139489227472, -0.07106250097303028, -0.23930130826067314, 0.2454533590576566, 0.11129819934590895, 0.02002007898334449, -0.16770194690927354, -0.01900497871883421, -0.6688367187389916, -0.178010976565748, 0.0786887198502592, 0.2876379411123619, -0.016277507297522996, -0.35977734991017984, 0.03642744607388128, -0.02079204023110043, 0.5604986331327683], [-0.16202606651638268, 0.4862734010819371, -0.1142458538250741, -0.47146890569054095, 0.1449499642216396, 0.3270784793922819, -0.8564168747803113, -0.004703668052794331, -0.4488340682559859, -0.05938148417355088, -0.13281486222879316, -0.24941792684345165, 0.09924163963136053, -0.14665662632189783, -0.09022146609704011, -0.18531893025472101, -0.0077529931224622865, -0.03966261472667232, -0.18987329763105815, -0.09916079576574133, -0.1036539871577687, -0.7580045272518244, 0.10267461786015754, 0.5069696097040323, 0.07494573260690437, 0.6217185668319618, 0.27928225281137614], [0.6429459658289851, -0.13719888082248138, -0.6276477590805546, 0.08667811680196488, 0.7622984783861321, -0.33981086110881104, -0.5028080954974002, 0.10353680473826701, -0.4218640347657869, 0.05423358603429833, -0.1825560966924273, 0.13411790894128345, 0.03809697942863048, -0.0012525285864882732, 0.25115993565626354, 0.1383253748721589, 0.11173118186817903, -0.49581686591901736, -0.37286896470588177, -0.3257338765281711, -0.45216676999804845, -0.24886437468435835, -0.06503004999183787, -0.47338352213260587, 0.9513287440435716, -0.42617107580074676, 1.4737977609001371], [0.22920559598882828, 0.2929425292261536, 0.05225741065773721, -0.7577065239883463, 0.4758840130821714, 0.17777545650037216, -1.3766711814262704, -0.7437921173143377, 0.06348572243390521, -0.5534903552303528, -0.10052185769757241, -0.07142268151210238, 0.021187419419053437, 0.020355897266695244, 0.27182187970649974, 0.44341546311306795, 0.37425347337639375, -0.1316018528481859, 0.567249443749841, 0.03205774813566755, -0.19111341535947066, 0.36314564768840774, -0.1601141399815077, 0.13050930373400818, -0.5849823841686144, 0.5943475553301513, -0.6902574436179711], [-0.4042241493838455, 0.1675088541109968, -0.6301082566307383, 0.42108815885846, 0.20687207716773, -0.07735828835974608, -0.33049796732897446, -0.515028368561275, 0.43187054348800835, 0.1439964729816433, -0.2821892657063805, 0.24166453195065793, -0.09401893012677524, 0.20619429045630047, 0.20470820070842685, -0.09659639678364156, 0.03750708131338866, -0.1482299129897703, -1.4178294213559368, 0.6274022730377825, -0.16783340610117028, 0.37552233767247106, 0.6007776251045329, -0.5798096277606751, -0.3676487130989085, -0.018243301286514555, -0.22820538200595444], [0.6223796202243653, 0.23832655653969834, 0.009560623051418176, -0.11191447430714264, 0.27141157093231644, 0.2957960523414629, -0.3538494339574357, -0.7172534396615481, 0.2716558986268285, -0.2100873542566219, -0.26811338597135775, -0.46640231009098226, -0.42517576858853706, -0.08421438729589731, -0.138491807013453, -0.12144545893187782, -0.6789770838758211, -0.18452231130572108, -0.16530952408124258, -0.013243381545105236, -0.7479080790274816, 0.109192126277482, 0.6620612888642429, 0.5026382336360004, -0.09993843841372405, -0.1871194138877757, 0.1932871272648338], [-0.7228917403974113, 0.015528705135529798, 0.08592036733090558, 0.3646950208975495, -1.003967692103259, -0.023901068149858297, 0.02780172770563743, -1.2165287644950358, -0.12112432354398808, 0.33024866493647603, 0.022863291655907725, -0.0057737292875965785, -0.32250482702196853, 0.3260351979005543, 0.0821567659027388, -0.17828564760690818, 0.018635959825644255, 0.23515989469032086, 0.047311527387865884, 1.058032461085033, -0.43800390740121903, 0.6534193865933868, -0.32871631596923107, -0.8035908851867439, 0.2736611222321859, -0.02498658922232091, 1.074714134753186], [0.1703546104285437, 0.09290069542416912, 0.07373961825270184, 0.12255486654765445, -0.6870829282103308, 0.5122846727056218, 0.49879267313105546, 0.12082135938031209, -0.7113363566533971, -0.834114835066168, 0.27622686617560627, 0.1301450747414164, 0.12395451600944661, 0.02562017099629409, -0.04156264625384158, 0.20722632989814993, -0.2243882052657862, 0.33241333107695037, 0.06803270442238188, 0.6752943351503601, -0.19510375926119752, -0.32043464561590806, -0.43847764269045914, -0.024334765342089427, 0.5820180053088331, -0.4269814921381393, -0.07009946494532063], [-0.1984112207894633, 0.13772783078618855, 0.16579874130855496, -0.18979772746030446, 0.5129370528368508, 0.2680580227845621, -0.047422143335385414, -0.3403578854198183, -0.9525188403431774, -0.008741193961194455, -0.2704434572842578, -0.22596489018435598, 0.048629985511041696, 0.572816667458368, -0.08103333770112571, -0.10854517114077608, -0.14224438078408255, 0.3552420931765932, -0.060832757216566016, 0.2875331146174121, 0.23645040416108717, -0.02768537704142134, 0.24479864066419652, 0.09538538709293644, -1.0503734805771112, 0.4647376191848435, -0.023487911667863768], [0.563040520254847, -0.07103771358195254, 0.4815911329322793, 0.23915652198725684, 0.020599257193855167, -1.7942619872896621, -0.5309650655890366, 0.034963903036999915, -0.20885207648213608, -0.11034233618435962, -0.14071708027288848, 0.027022670544408347, -0.113767669682521, 0.2621553057745802, 0.21836193069643248, -0.12642271432304777, 0.11521497538084835, 0.21841118312191207, 0.6871279270103285, -0.5914836538485163, 0.07031212813696115, 0.6527057702362065, -0.3785399947458386, -0.8342865906863094, -0.38254634679377897, -0.2886235902575648, -0.2583338102056868], [-0.14717756940043394, 0.333291777790138, -0.3112385957247979, 0.08404980343291751, -0.5462551639823501, -0.7300732125225838, -0.5373815862862136, -0.7461485855806956, 0.03647954852926221, -0.07358453610817815, -0.08526526359218549, -0.5653597110814806, 0.1591701179120005, 0.0980675133719371, 0.24852217890221137, 0.2733440333453096, 0.38294037486523647, -0.34204792920163113, -0.3268043018371244, -0.25268158404025376, 0.4427997120537504, -0.16035038124203949, 0.0624371868079283, -0.2676266697851852, -0.1269894172950088, -0.7263410919677757, 0.4928070823281771], [0.5467922946632088, -0.0415102641390439, 0.4702793583181154, 0.17060801983652985, -0.6152243878745881, 0.9973520287027737, -0.22268069764750775, 0.6922537785550819, -0.32428363125583587, -0.03899120448881138, -0.04581662348681695, 0.01453816228005518, 0.1380026238428822, -0.3125770429701891, -0.2590579546908746, -0.11208914121823588, 0.37059706481757004, 0.35279580216058537, -0.24108087832263844, -0.6099970581983538, 0.5557623661143624, -0.12116658840942121, -0.6963260512728294, 0.6264373074274059, -0.15370455187659707, 0.7345133753026418, 0.32230044475823616], [-0.5340966532821004, 0.036547490707363475, 0.7374365788399257, 0.3115876494889364, 0.5881231724194774, -0.14277736175045888, -0.27383059274713234, -0.542122651120553, 0.6456566634718579, -0.10043444008088208, 0.027030287585596707, 0.14841625483587753, 0.13956330603445685, -0.3978641518517319, -0.08159219463935077, -0.18999877346640812, -0.19181023662374, 0.20502146942105665, -0.9302216766308435, -0.20071426917360763, 0.5763045390304076, 0.03019896684546459, 0.10670531175904131, -0.7643949481588712, -0.7532764684558025, -0.05961369592865106, 0.11376013687216523], [-0.012752941729913864, -0.4451394441415608, 0.27538317004913315, -0.42444490128306117, -0.5777020880054831, 0.25218560544904367, -0.36759109133327905, 0.6125693401649396, -0.008798656436990232, 0.211618766451855, -0.127833949520801, -0.18976171450049817, -0.274732758672599, 0.04205592648742674, 1.0906239133619158, -0.12329811372120385, -0.4132071964294296, 0.17690445653501907, 0.6941049273481966, -0.074440461699615, 0.5150063223812625, -0.7279487242097029, 0.5658860818190758, 0.19496181315377176, 0.21822837762607772, -0.3962157469690177, 0.1147135393459164], [-0.2420226380785958, -0.3691596750567112, 0.09668880751126918, -0.43403285099512007, 0.5182805352952229, 0.4369159139227048, -0.36029737113540816, -0.6474295285487943, -0.12221949704564555, -0.39019465487959504, 0.006252119620488529, 0.04525394181375503, -0.1435994056036544, -0.4935446161061346, 0.04200954155562517, 0.15497175535110697, -0.0320369240338559, 0.37761983652932607, 0.12755762549415758, 0.17351753456354652, 0.7278519006901178, 0.5010720524363858, 0.8180356833286868, 0.04348461010742074, -1.1803777185479016, 0.5362499355339663, -0.2523363201837182], [0.22538795352482832, -0.14704439895770816, 0.6602674593770846, -0.5357099716561433, -0.03009883767712263, -0.39723087872354024, -0.4478606368633086, 0.28257466473605375, 0.633772346140123, -0.19669441551014144, -0.22924526993959354, -0.010465437453846642, -0.056209365635249066, 0.09694424591849672, 0.00038608895987896427, -0.06904684318284397, 0.11410158381658234, 0.029357022846109734, 0.0785609667398579, -0.7259902284154077, -0.20751303588302097, -0.32347991279602983, -0.7737411887285487, -0.4481943801879967, -0.29868905734089546, -0.05265413194141831, 0.059076995532897844], [0.6867881607297135, -0.15632718335610324, -0.8099734578891237, -0.6329855721473149, -0.27275089463283647, 0.5529631514384392, 0.3059775377289469, 0.16446393595881206, -0.31078959850683185, -0.2268259298616716, -0.16970966249260072, -0.01224335879064569, -0.0077596342898212725, 0.09143030647037842, -0.36048377725804726, -0.015260973074539427, -0.08479626141586712, 0.32413878751341063, 0.7907338704609223, -0.11443987761561915, 0.11059152769997348, 0.4814060089624878, -0.5555966588490127, 1.0224989220941314, 0.6320274809007091, -0.07837693273906778, -0.9535633306734638], [0.9688693431324621, 0.002027611020323233, -0.442495968622554, -0.1067855356752362, -0.3179885184800807, -0.07554783212229137, 0.2113701247461133, 0.020652187883500962, 0.07841965186730934, 0.1892130821928579, 0.4748358435837949, 0.5505056724971398, 0.09529534631807957, -0.30743451030573604, 0.08789313261004357, -0.030426688177097195, -0.026885424050548768, -0.4217242221903163, -0.4377410644466871, -0.3530477551545915, 0.7783358962956305, -0.41879830500434484, 0.4350058496105693, -0.11334452024373878, -0.024569513949154183, 0.5077964522565653, 0.815084659135551], [-0.08928323018370209, -0.3177839477202831, -0.05628777954151777, 0.31075789674375026, -0.5410833995274171, -0.0013331276075502258, 0.07533570395788512, 0.9785383757004379, -0.11771818485267703, 0.005103187925191112, 0.11917423944220729, 0.47089842508677093, -0.009815207637937926, 0.5591852029407514, 0.1371001232504852, 0.009675618534393457, 0.11112259658008274, 0.20921101367453362, -0.0036494296356944355, -0.7684775672575198, 0.12959886357674577, 0.1326525281020635, -1.081385849180814, 0.26433754585058217, -0.4255888640546436, 0.7258682224204963, -0.18360268563612409], [-0.30987216604391443, 0.645742326090243, -0.4251075501642533, 0.13440334918666966, 0.5556076834425377, 0.22462092815422932, -0.3862997723955796, -0.13369324332692906, -0.34113620356966495, 0.06857458536381239, 0.1220651858845382, 0.07239235030195533, -0.18512570704788403, -0.15633057173483741, 0.1600305747424994, -0.09828274775020987, -0.22514781399054282, 0.016167462374332756, -0.1333995810451722, 0.5328236862468414, -0.5445354500934212, 0.23921342837067183, 0.2703685849202438, 0.7391724605748281, -0.35129910758917327, -0.2647601704943324, -0.3950111790269349], [0.4081619678500285, 0.682316041775435, 0.05589452205581061, 0.40218036145202196, -0.3561426390745852, -0.12378407673603642, 0.2662488980346797, 0.6565094318021826, -0.648899210474221, -0.20053781089284903, -0.09835358382249418, -0.31199978614171414, -0.4309217994932611, -0.24384393857127265, 0.15185199968395607, 0.15573862758234966, -0.3319689586864428, -0.41245998178078097, 0.004753399695112594, -0.16079393280362933, 1.2547987383848325, 1.3718380406286463, 0.1161215142263686, -0.37848440485808704, -0.25195394111516384, 0.4712233421134747, 0.7560086171832872]], "bias": [0.12777473275124418, 0.29858418913292534, -0.2222676898624525, -0.18479562710495306, 0.003849619917979834, -0.18902014419590274, -0.20139339141396104, -0.12225070644264019, 0.3518929831496039, 0.13934463989853452, -0.10711818456452936, -0.037944845314862495, -0.17587761160277554, 0.0900520070576259, -0.05367621467991366, -0.09728672454169295, -0.14966711187774603, 0.23965971303896128, 0.09182461144895813, 0.14807473997288345, -0.16280797196239133, 0.12641143290026444, 0.0611959589585258, -0.14059239662270712, 0.21242106948090317, -0.0892349916083358, 0.24174699608040245]}, {"class_name": "NonLinearLayer", "non_linearity": "Tanh"}, {"class_name": "LinearLayer", "lay_in": 27, "lay_out": 27, "weights": [[-0.2772630188903218, 0.12120808914041137, 0.220926748690551, 0.2010893695341602, -0.48430005030593437, -0.448869574280895, 0.1967495968529558, -0.04487325729136623, -0.5486745596308918, 0.0466856607342076, 0.10768493701528604, -0.5141212319803371, 0.10891377763945592, -0.2889414346960347, -0.25125480944104017, 0.1716325379430368, 0.06778833186645354, 0.050047777885707995, 0.35421494605142156, 0.2469311670734015, -0.7587309967228729, -0.15225276000456436, -0.6249843266867933, -0.19508720136365595, 0.21395188704980422, 0.41595750920728797, 0.020120495995953048], [-0.3600664672560068, -0.06248677398570681, -0.09421670893671141, 0.2363735150425598, 0.4497945755313426, -0.13820007769936998, 0.004529734627843829, 0.7139585110753488, -0.5504198174051687, -0.5014706060190747, -0.14695595485872937, -0.37125070643110575, 0.18670757064915083, -0.09064254147681419, -0.40675892148021603, -0.9211062042111637, 0.05721974377917986, 0.269431767716356, 0.21329283572857521, 0.4212396320147722, 0.14234493234068765, 0.1564484817947646, 0.11750609229312665, 0.19534515019909993, 0.24263118250552648, -0.14821034943837702, -0.04631529963539658], [0.18910749851313316, 0.013138638125512867, 0.6351929012255811, 0.2800065574445567, -0.48000452502123275, -0.4737552081520969, 0.14144831783518622, 0.054207705671099886, 0.26545742416129564, 0.2854723477648414, 0.10298618458802998, 0.08904171492246071, 0.16500099874471016, -0.6178376062072523, -0.16325516126403716, 0.42553336380698736, 0.9013713095567695, 0.14032291860254953, 0.14859077100787277, 0.30545965718111384, -0.07499641998760781, -0.4893227631756343, -0.04392115306362197, 0.4209068649297859, 0.013253602497895358, 0.2103455273611086, 0.5796639011027728], [0.29898734032347934, 0.6958583417833982, 0.671439854776301, 0.4149460102522467, -0.616541956837597, -0.1838592519901512, 0.584669945768765, -0.41006849995455874, 0.9155960103742246, 0.11626362123461531, 0.6770258963914576, 0.3717714961169863, 0.22437697519537417, 0.2119190854042436, -0.4703753662402243, -0.9027673076217854, -0.158625428463726, -0.3166466261155005, 0.18618443995836118, -0.2930591089115629, -0.24701240633735216, -0.11762443410926991, -0.11048668832167872, 0.22638648985642956, -0.19212264489427983, 0.03876444528586783, -0.7141520060662969], [-0.022370214957810768, -0.03386510318027906, 0.44282749205371724, 0.02351696159432758, -0.21053065385242314, 0.5994082429594605, -0.26011690937555537, 0.12049893723159533, 0.129254943222297, 0.18592850467619398, -0.07774235398138436, -0.06214499879071609, -0.30813553009352473, -0.3348839492015787, -0.38343964913813566, -0.14987904886454997, -0.325261181414355, 0.00806698466566077, -0.8927536824024855, -0.45430299916584105, -0.3528715132367675, 0.2408414421503488, 0.7603130484845984, -0.3026035515521952, 0.1065677226280289, 0.7321487538968984, -0.4123910221229125], [0.12267615914481463, 0.020755960163872433, 0.09197806205989512, 0.30673240877481933, -0.5640290792437055, 0.2335846642966271, 0.1031603112302329, -0.15262886232663683, 0.3408586182764066, 0.07838048291214147, -0.1219801655784966, 0.2699170450423839, -0.6602999043078274, -0.3859745069878048, 0.7729985459001009, 0.016753659099072164, 0.07082252090283585, -0.37568199457170953, 0.2713383724121788, 0.08765980012477383, 0.615616859772021, -0.03938603456141614, -0.7779742234373922, -0.7335493644969058, -0.4630778741622069, 0.006865894580224994, -0.2743671776489706], [-0.14111176429263553, -0.21431879564119416, -0.3489486149499255, 0.5057276592946711, 0.5825800501099161, -0.49546014122748766, 0.38096000321321, 0.39302100655605415, 0.10568010577815558, 0.15862165694148833, 0.5995063568642414, 0.35877185585025784, -0.08123731517343677, -0.35600105025011775, 0.19338983411572236, -0.48367440699729225, -0.24760966415672078, 0.06681301884112624, 0.3796736130009862, 0.23960798383497076, 0.1441883153105771, -0.1244166499306695, 0.38535799581025526, -0.032360713579147875, -0.33813345978338677, 0.08168085106864223, -1.0045962490075167], [0.2932810120726091, 0.564626761521709, -0.1978293228973745, -0.43509675855333035, -0.21871056752321877, -0.14999096423645555, -0.03440977709385273, 0.26351689913264115, -0.4008029812380974, 0.34254484096134025, -0.028168544906398408, 0.4415638215027416, 0.14103835277585425, 0.1386999518584206, -0.8861829562290228, 0.7912414450671288, -0.29876833176748524, -0.12092707442763735, 0.11361155022837961, 0.12086913195589137, 0.023329862016031398, 0.5829788414803134, -0.05720195301617634, -0.49530261145755683, -0.16374159018858392, 0.9151048618873027, -1.0132078946920136], [0.5194704343237194, 0.15642886204306067, -0.15603796237232867, -0.28058759289555407, 0.304470915088244, 0.2330005636786552, -0.0268728970723374, 0.04418737554988581, -0.4416762443658971, 0.46583621486041116, -0.3532969050846656, -0.4103456505523264, -0.22290219128747243, 0.005041653775071787, 0.6644774103963597, -0.010698180198764241, 0.1413394233546642, 0.3577029011462113, 0.44531228801323164, -0.3307839002164644, 0.33487521293330447, 0.08676122312583938, -0.005823946729084502, -0.39636930661768704, -0.20924255389985527, 0.12772101190391272, -0.26722467208668127], [-0.06859906168097092, -0.30980988317731967, -0.6884150467096395, 0.6101630433373433, 0.5255293745219299, -0.1186184328879793, 0.13539713731628042, -0.29282487185209194, 0.223911219366198, 0.4508749984407825, -0.31767604877175026, -0.1416741585335638, -0.06989371077940885, -0.4669111971724705, -0.6252844157278319, 0.2660452101997643, 0.09709416515466264, -0.6090151030984085, 0.6857162465312673, -0.11800669231985571, -0.7287977563692829, 0.7240931942313843, 0.15996330164379832, -0.6302910953325296, 0.45973174563057423, 0.2517381703008963, -0.5340330084661713], [0.08401033226466033, -0.21282457489333323, -0.006773695470674708, 0.04347956826098992, -0.20806471349058353, 0.2491708740226005, -0.43782965350669756, 0.8858410751496696, -0.0899940035999025, 0.2881890004484959, -0.05403276985227883, 0.6286935952775927, 0.13245047907015015, 0.18127096381776442, 0.4749597325582324, 0.24618843082279324, 0.4932125316697376, 0.11816329609860676, 0.15072148034888186, -0.3806946429163306, -0.24298941626853618, -0.24486306160043397, 0.13799999510594002, 0.1573362593941842, -0.19303438268140877, 0.34664002986930903, -0.09037646828814037], [0.07133749231528821, -0.1149081906882997, 0.19332065131675394, -0.21549975163116025, -0.5402048314887995, 0.9435800998306766, 0.24362083875373833, -0.1756274222594569, -0.10971565092165146, 0.1369146802638714, 0.22562309205542766, 0.07419944812480138, -0.0374897094555579, 0.16885791054445368, 0.026354686007145127, 0.8772324820900431, 0.35303220175352956, -0.4365897617307793, 0.42185108145108097, -0.2785421940427728, 0.24347657713617188, -0.06684985103690207, -0.044972205572100334, -0.13438511653268095, -0.523882011488887, 0.21239826339213164, 0.21896503666172892], [0.40157674075230027, -0.039642668395803514, 0.004991194450184972, 0.08333795247257526, -0.9479559801560876, -0.3641739921597047, -0.5127090656315055, -0.4556241963418359, 0.18131670050290566, -0.7412085750247546, -0.4857652715527134, -0.1857190929910519, -0.6229610418775826, 0.5428965686231872, -0.4568230653696117, 0.07177015190240163, -0.08804351458912742, -0.5432511102860442, -0.43589869964804917, 0.5851015658706021, -0.7301933026295804, -0.01952847498039385, -0.07340365237875099, 0.1425054379394326, 0.055009305087325856, -0.4291964871422159, -0.24340102137248917], [0.13061780800351616, -0.1564534771322123, -0.1311209774984863, -0.6204829735722421, -0.14899570931614123, -0.7546080225020355, 0.115021589347847, 0.36817011789054005, -0.1447255423346732, -0.5609977542760484, -0.05970974375957364, 0.2417896420339132, 0.5667509798394171, 0.20200834125257117, 0.39140588308062746, -0.43309434727387175, -0.22237349927806258, 0.47645110387331496, 0.3695848702911805, -0.12364036705175799, -0.856316669296519, 0.11417346602124681, -0.7201893609122326, -0.01121599085452444, 0.601383293716391, -0.07563375144650444, 0.9761512926154607], [-0.10192187829430265, 0.469563777834802, 0.3927154092708467, -0.21577055446385365, 0.47143612993221895, -0.8119522762123154, 0.1199356188976174, -0.068076733074456, 0.38906820154825883, 0.5648954168940307, 0.33651659388046495, -0.25931046511751626, 0.43745651585711515, 0.19912570833214274, -0.5471022016136007, 0.43064912372645725, 0.07285528372916467, -0.13746360461452287, 0.2879211199797959, 0.7806112034694069, -0.14519310974070435, 1.0756232839479498, -1.0794281674246162, 0.15175231344029602, 0.18907168193520346, -0.08982837117007089, 0.20835707259494288], [0.9827217260579718, -0.2901612655850974, 0.6175877374079725, 0.21487341995428058, -0.45818036666796214, 0.09039977273676741, -0.2316203104765332, 0.3302901457882832, 0.8220470997211246, -0.06768416913126547, -0.227605502334597, 0.2389296278990836, -0.24608075293934017, -0.14287000353600704, -0.2710573516421349, 0.5716039823666014, -0.47873085500611706, -0.08592848012657368, -0.1962034929672661, 0.5831256744435617, 0.455388154671855, -0.5235774034127263, -0.22462993519488536, -0.2937863210506877, -0.08116234914225182, 0.48880811786632455, 0.07099488372639386], [-0.37862295769515486, 0.22294350629413745, -0.20485729780626544, -0.06229186769835724, 0.2824481054701365, -0.08936707601328137, 0.17881619113743227, 0.44920054081176, 0.3424021859005275, -0.14121304802559173, 0.2914068877720237, 0.12256860384174337, -0.4224001051001315, 0.08267615836015116, 0.1925253981627201, 0.511471889938191, 0.43479237601307036, -0.2878462590301737, 0.38542814433918293, 0.08373234298384234, 0.3380990957785712, 0.28895406180210775, -0.41809752498259223, 0.5054388953307595, 0.09756753413294564, -0.1380071141337556, 0.34853909212402534], [-0.6468648682274791, -0.31809848641303856, -0.8661907874246066, -0.5805950407545013, 0.5549858230032207, 0.6949475485485741, -0.3003144440393612, -0.5328222303785537, -0.34357305140618805, -0.042823496047015464, -0.4635531689656417, -0.1495686195053314, -0.6508624972420742, -0.6070450391177451, 0.3478525442210412, 0.7007705399876119, -0.19792618618386415, 0.4209112204617068, 0.13906426862154622, 0.14094147023127976, 0.343672361739079, -0.0608957252392686, -0.3129131067958195, 0.09844613919387028, 0.49617685229850245, -0.8437281576149731, 0.40034389652979496], [-0.006897653878536057, 0.1393945059768438, 0.44976544331671936, -0.5591992375359495, -0.1968680580992821, 0.21460194295361718, -0.7498285833500613, -0.4439295463363757, -0.5119324363996487, -0.17371031094671066, 0.1327809741587681, 0.1301288472183732, 0.4405647196103757, 0.7513425960885767, -0.01519320574225603, -0.007802713806307249, -0.29692480027288454, -0.45608504230209695, -0.12247391466507133, 0.3124947982585098, -0.5784111523495424, -0.08108108344384815, 0.45630927472703353, -0.5957032246826023, -0.17786879948847656, 0.0019597731767547165, -0.1070970479006977], [0.20569615816244044, 0.18974401630917098, -0.3227915114354436, -0.7397490079508159, -0.24567597820446932, -0.35083642415183164, -0.06195912869540979, -0.4217118456038581, -0.1050897258875235, 0.3075707287500927, 0.12586709426760528, 0.11743056392090609, -0.3233401087288626, 0.41089014891110887, -0.13080281950529546, -0.13922045998300844, -0.30636409147473476, 0.11195454419896134, 0.03531004599527753, -0.11137037404031869, -0.39641116576497537, 0.10787840397391131, -0.15127126668470228, -0.1172013490093805, 0.2565497611918962, 0.017703465626882242, 0.27081371055227643], [-0.0762850400788938, 0.449231593325365, -0.15638835707259818, -0.047402103967303676, -0.22216289163289593, -0.20829200742969747, -0.32222429780267076, -0.5119696283222837, -0.12643183382883486, -0.1037950957828629, 0.09646866204115313, -0.6972718081315702, -0.08267153983818092, -0.681599640585932, -0.6571308622255997, 0.5007930933526763, -0.2800828343593273, 0.0006026570480729701, 0.4077924642091278, -0.03579283842506387, -0.1600850590848537, -0.21741421038838987, -0.4784504300866878, -0.6425826689653218, 0.3588676527928413, -0.3064392353200937, 0.9221832063431619], [0.2654903152607842, -0.2507879851918914, -0.0861944124284539, 0.7580724129586068, -0.31107102487083316, -0.13404109041674905, -0.04381535390535982, -0.16344845717226003, -0.33234281386350806, -0.26519927189682574, 0.7491567429481867, -0.17708416875020222, 0.37691560730861196, 0.018237140402574827, 0.16659725658834962, 0.44830217293507296, 0.5295647721456889, -0.31539719928710036, 0.42441866857195987, -0.31573805059522586, 0.03762196834876885, -0.34173580596903447, -0.725468631073248, -0.4658610553831402, -0.1581000178494699, -0.1224622231517713, -0.3442953378453039], [-0.1787949418605237, -0.32541373642427107, -0.16111703047855033, -0.5670852128955464, -0.5316126849535265, -0.13942380782969993, -0.24719058908493596, 0.13175442258050574, 0.15608332931341623, -0.013241678491137832, 0.5084423161257482, 0.03327587981482926, -0.4156476209112181, -0.020760759285816086, 0.19575588815448086, -0.5123548327114236, -0.3394883519762109, -0.169476763315358, -0.12828532728643002, -0.005131241951597903, 0.05840460211666285, -0.5424805348834998, 0.12734742275209743, -0.1872191061687547, -0.041376006794711345, 1.0944185940697457, 0.04041139433650801], [-0.3310153953913295, 0.5677721584476196, -0.24912890403475818, 0.25219568775957263, -0.3906385408965628, 0.3662012564031399, -0.18258906883755685, 0.5484207440862656, -0.3887299091189609, 0.7291127147071502, 0.3292564279739398, 0.4607484133459281, -0.4449955753169885, -0.44043250593551797, 0.37117467777729446, 0.016064222875135533, 0.01232109550623945, 0.2798667946735601, 0.6301973613541736, -0.05485400994239752, 0.529731619266548, 0.27061146706056555, -0.6583164865522699, -0.07926961418689195, -0.3287834904458379, 0.43710226070699726, 0.25538545452251754], [-0.5774157636359959, 0.6271020324788663, 0.527790535087758, -0.4563362720966224, -0.038750951795628145, 0.38595048697316225, -0.2952143285951742, 0.15686771067019664, -0.2531506120653582, 0.5970222198328111, 0.2969923115953446, -0.3803986118457425, 0.13403046440768843, 0.1643379388392629, 0.2794192457006823, 0.5748234581572826, 0.25209609377184344, 0.6691841507901571, -0.5131863772243568, 0.5598196635930239, -0.5032564305666147, 0.3564326234670599, 0.7376719632002374, -0.5494257649282026, 0.19339637900515394, 0.09328424065509829, 0.26543181493134377], [0.47753502934146735, 0.7517674627865266, 0.0915939870202041, 0.11493182015629731, -0.9717033931376491, -0.1666266148100217, 0.1113413450789242, -0.06553297903395049, -0.5202411980269338, 0.5672135699066123, -0.4156513712283748, 0.13344209653730627, -0.1197095135796165, -0.139577894589183, -0.015488625209666693, 0.09050766119333853, 0.13341211443233067, 0.628194937420174, 0.21841252515619197, 0.10472940046373384, 0.12358032038252881, 0.9095647174521675, 0.054977546422325524, -0.33481720237011653, 0.1301103842803232, -0.054475555629440925, -0.13929666365518423], [-0.2974981454151841, -0.09663019093612675, -0.1717902086115987, -0.17786146459270827, -0.6744615286961347, 0.3260586851075853, 0.3612994642916645, 0.11939756399266344, -0.7978517942258916, 0.21750486426009763, -0.2501066488365616, -0.19712465237364962, 0.24404757652907727, 0.2161462135671649, -0.001062004180036033, 0.0931570683021336, -0.04829743478173035, 0.08249954984269715, 0.40181975034009254, 0.1935653342231761, 0.030926260499334904, -0.12872733386798227, 0.3179244184958535, 0.3294008670144016, -0.12891722483686444, -0.5824257721420423, 0.17290041277406215]], "bias": [0.3133545158442618, 0.020537270032364944, -0.13382460474826163, 0.145323082067706, 0.34096091667625866, 0.1057535399626811, -0.018260564453381176, -0.15300130058370398, 0.22057255358891853, -0.14957396665321693, 0.16899568763286682, 0.040426847033377684, 0.19201556527732963, 0.5202033710198029, 0.3899415814677924, 0.22152935896157308, -0.3014140993633139, 0.14347929910454907, -0.10193102647713567, 0.4471622490387993, 0.3962634252270983, -0.2998064341297485, -0.18398103092625703, 0.11733482983407578, -0.1009962242857585, -0.13557723134230498, 0.03411295203005742]}, {"class_name": "NonLinearLayer", "non_linearity": "Tanh"}, {"class_name": "LinearLayer", "lay_in": 27, "lay_out": 1, "weights": [[0.039131960345353656, -0.08170044104481793, -0.1793817911873539, 0.32120364812527924, 0.2774527360387712, 0.1082344147274431, 0.14969777000232423, -0.08399971295368093, 0.07560986346862668, -0.23490601689325594, 0.15803700963596745, 0.34830503176007194, 0.3941743218008395, 0.28408779407816653, 0.1682927456406162, 0.09166264754971791, -0.3596755515720202, 0.35435178526674405, -0.23462828755630563, 0.5982132558830799, 0.26253807392144624, -0.5139476163444634, -0.38381407503203113, 0.33489969316865065, -0.2732504571546381, -0.14008161223916604, 0.00549217385564607]], "bias": [0.2081809422327408]}, {"class_name": "NonLinearLayer", "non_linearity": "Tanh"}]}