{"class_name": "SequentialNetwork", "layers": [{"class_name": "LinearLayer", "lay_in": 27, "lay_out": 27, "weights": [[-0.2367854600847128, 0.5085300051221686, -0.49470632278989923, -0.16744795979082738, 0.17753432582078973, 0.4442003972906584, 0.5479915894907496, 0.06437111970893286, 0.30549460742402346, 0.018872843325575643, -0.13631071944856085, -0.6816822385849771, 0.22931595404768312, 0.24366451668465455, 0.26788045976867847, -0.5854471109476086, -0.18290572297664756, -0.3264255551317635, 0.26349778264986107, 0.0904156387795361, -0.13382513406621138, -0.2021690175469062, -0.15610561031003534, -0.04609331700784542, -0.2665674130437945, -0.32992468394492713, 0.39644575330623427], [0.11062161468019692, -0.36365528380795376, 0.04865853236472478, -0.3031426718113477, 0.18919456896168246, -0.0270623835182075, -0.26498103318446037, -0.16318790062996597, -0.12264883316922007, 0.29156292692413976, 0.09073445145995161, -0.0752359226161341, 0.11114431817148622, 0.3464818982641416, 0.42270974421653873, 0.16059638078350336, 0.03834239770557708, -0.4388935436894095, 0.08700694254933934, 0.09828219014053909, 0.5543439668269909, -0.10166898913118236, 0.16564534079134424, -0.14790919300580432, -0.33824677135392217, 0.3547953378974573, 0.34574551024359357], [0.38955971314861615, 0.2763242523005446, -0.5479307788920048, 0.5127567538003784, -0.27992507902015074, -0.371615285967246, 0.5947250559341478, -0.5232819433230758, -0.17723610065373088, 0.0031402755284445512, -0.721904491877644, -0.06834564420684962, -0.08992068847347809, 0.11747558354979473, 0.37178286399399046, -0.13538912090461444, -0.13648221706196917, -0.22250469601950992, 0.14711504193797867, 0.05185749315843844, 0.09443364229696717, -0.11695389331362341, 0.4027234999778161, -0.06811337179517735, 0.4579302930081186, -0.10817242415260275, -0.012340613499316816], [-0.24029855175264192, -0.05906620661889536, 0.0637933118879696, 0.0036760257702885333, 0.01312920397205411, -0.3540271209231801, -0.1338711712073949, -0.40948438452969904, 0.2238451359989945, -0.5732924899198102, -0.5686425018638805, 0.47758933380296753, 0.1063849309155204, -0.10334307329662862, -0.05154169746961485, 0.01111948942446481, -0.5773122522780312, -0.5887395250326605, -0.026401585904583573, -0.4473002022224639, -0.13874050629855192, -0.05017612735442064, -0.14348003703778342, -0.13173804047710702, 0.3604086460549509, -0.47076245935007854, 0.0665265416673905], [-0.22865828713376782, -0.5879082228399045, 0.2342025406702958, -0.02991702175723177, -0.1556010170301184, -0.24966529768048906, -0.06943480743193786, 0.38840467271012663, 0.19811978358933707, 0.4277114462237858, 0.11417165251118956, -0.3300753997063066, 0.27677468896367796, -0.17490342764086086, 0.49665006009154117, -0.20470702350493886, -0.4592896890086996, -0.43401129710141123, 0.23589822297333726, -0.5923947569954177, -0.08958326257811622, 0.20979057360156103, 0.09137592914645445, 0.1529005092617074, 0.007378896158807836, 0.4860676843261983, -0.11959562213170329], [0.2661091216232454, -0.2946055844344266, 0.10681158752616393, 0.10465847455744443, -0.057174171152591845, 0.05933162024576566, 0.18408155924565361, -0.2840177978008619, -0.45287591632500374, -0.310460977453104, -0.6817098883585391, 0.3681613018467986, 0.09745468158914482, -0.005809029968378161, 0.0864233382422953, -0.0356937279965102, 0.07061092628463597, 0.2879984543361395, -0.031034479153208443, -0.1253550941547357, -0.0950016533167204, -0.12713433271728766, 0.3875654106826601, -0.3980252577925102, -0.05693971243902132, 0.0654719147660327, -0.5572413275085442], [-0.21586752347322277, -0.08209124021154973, -0.2459974674538912, -0.17522181029534425, 0.7182357705301542, -0.2071546671791132, -0.10573183659881456, -0.240017488428977, 0.5791215812317089, -0.393474759858489, -0.008939479837703485, -0.02360242551278328, -0.4926639589781845, 0.4829275475019269, 0.14864501134320746, 0.4994206352179398, -0.05677602509670652, -0.03379323160533169, -0.2032442162128255, 0.23145803179095162, 0.32486451625807394, 0.2954690634263314, -0.5075587974008077, -0.14436649243668173, 0.10179688172214243, -0.016927804380342183, 0.0694829308120905], [-0.2219893813018848, 0.35536317436277925, -0.10399080758033542, -0.3068934729556366, 0.0755925499543593, 0.1340547706980539, -0.649271580161191, -0.04531217621837217, -0.3414362224909302, -0.12896688454953253, -0.1529366530161129, -0.5470306322107428, 0.07505080996700883, -0.3411105699275651, -0.3641004069921149, -0.3229713814146174, -0.10831938901413656, -0.19051241188953244, -0.1757509324553469, 0.013254794669314632, -0.15860263577915348, -0.45278974488645973, -0.27327393253619797, 0.3423129892605238, 0.2070982057472552, 0.25558439071868955, 0.08754338945217056], [0.28937207494801265, -0.1449708519629154, -0.2919046584130691, 0.33734699649496297, 0.44166071890548236, -0.1234740841451631, -0.5251647257685601, 0.03900503501783254, -0.4192993940456096, 0.2713708425301665, -0.3756912077320709, 0.18225586017152198, -0.023306814368816604, -0.027524174455746814, 0.20283939338947624, 0.2705434142563007, 0.1759983870481502, -0.3792280829697282, -0.24197932896431645, 0.18891582311948008, -0.3433505230590989, -0.2418876802370834, 0.3097530037290667, -0.3654842527356724, 0.35471483423812006, -0.17865428514552636, 0.31394211598442257], [0.3212961668986182, -0.2029887199689463, -0.05934015535188937, -0.41705188673640986, 0.2750871038524204, 0.006607675170456872, -0.6627103480155551, -0.5599746532637092, 0.050285456999505096, -0.6849665098098832, 0.16162019379769493, 0.20654184278939233, -0.05244600956592331, -0.14229975477191675, 0.11592950358507889, 0.29800616572922534, 0.3769890763242151, 0.01727408820169776, 0.35481482100008027, 0.3902160990927167, -0.5958715736056057, -0.033710114116328814, -0.2009619813027512, 0.11980356492918859, -0.6387960463630292, 0.25744587434229466, -0.10872024094095745], [-0.04907218370892206, -0.3041513275973112, -0.3266642040818494, 0.23214687040932458, -0.10784875728794172, -0.15008825615426824, 0.11265957658557892, -0.05059875362889771, 0.2309924855895406, -0.07657381782429819, -0.48819326318178324, -0.0020217616054536555, -0.08630780053313035, 0.08554751026309075, 0.14324685270671222, 0.11268256628406569, 0.056288708379642206, -0.012246008205763806, -0.5657523475343845, 0.36093557688493966, -0.18965251226248125, 0.32829467111777466, 0.2395018750022925, -0.48749714659650284, -0.3293325627953706, -0.03763518226618819, -0.36478223693600303], [0.5320969481667956, 0.12553212281694182, -0.023641156183987325, -0.002230331992935668, 0.23308344401251185, -0.05055162020063746, -0.2830048044307552, -0.23848365425734872, 0.33593300370326734, -0.15392780779799226, -0.20839820428155106, -0.16031091592036378, -0.4859228279675386, -0.007804045432331645, -0.12550854465119132, -0.05238159685415516, -0.8592010427344725, 0.18136210084629195, 0.017497519013316306, 0.2746966011556332, -0.7178538989192669, 0.4761785774239806, 0.5500168226224453, 0.3578912942189091, -0.028552154413106875, -0.218561969430106, 0.09672060450306724], [-0.22789405561456413, -0.239564213098796, -0.06261700945777222, 0.1047386490477936, -0.6111886801519751, -0.09027616108754548, 0.04703739405552289, -0.6573954244795315, -0.24158272883060938, 0.018699062578794355, -0.2745524452388554, -0.15478074542887438, -0.5404188610254425, 0.35684668449802787, 0.0929960031106905, 0.24365431135981683, 0.24095362078195948, 0.003603071844292509, 0.037669423559903104, 0.8221860327087365, -0.3440552843758932, 0.49193050751543116, -0.3156660311546314, -0.8253149870830971, 0.11735914958531747, -0.049489734458704374, 0.9119576942889882], [-0.07161763998059792, -0.15988513462936518, 0.09624092701904505, -0.015494854298730652, -0.3471369232877418, 0.5415712179981751, 0.2600253403588228, 0.13885354946026413, -0.8381108338691566, -0.6323768610956031, 0.2842939574329151, 0.04958121778254252, 0.26760916322949513, 0.11583917137659414, -0.5647669166494156, 0.4016440902857762, 0.09786081769690129, 0.18141305712823635, -0.24047684337548, 0.22403259650865848, -0.08929587565267785, -0.4214142923159765, -0.07432273052424651, -0.11137454219984771, 0.3155819046700581, -0.5410204455553247, -0.05257911773231009], [-0.2053334249630882, 0.09742226083292445, -0.07960581627245972, -0.11713208640538933, -0.009439384759658997, -0.036508022768591386, -0.030402545773436932, -0.09344139136734224, -0.5854385597126622, -0.023514225615781738, -0.1533619348041782, -0.13949043436882297, -0.02266395974024707, 0.4840129095090812, -0.5963050763094159, -0.2303668894760393, -0.5475242273416581, 0.18309957081186248, 0.1633520936221254, 0.29292998075133403, 0.0008607173120062781, -0.013366049090206746, -0.18058128955616737, -0.1394268890960674, -0.7887205523864678, 0.07450422194260534, 0.2303317825682174], [0.7494483842330766, -0.2624416016428803, -0.08357104716069559, -0.35099162281363644, 0.16926860575280733, -0.7071345299954843, -0.4567984445883823, 0.09153803362887578, -0.2774651793607083, -0.20422272956190185, -0.30898144984881803, -0.17796559728687697, -0.07205635474303604, 0.1405366228013979, 0.35414094948254915, -0.3101760496761559, -0.21946718557656228, 0.020185265894656423, 0.31057869817868466, -0.38720050496054104, -0.39270802667783306, 0.1542130684187914, -0.31875100293812586, -0.2886654287672945, -0.1173468596755939, -0.12322868475517254, -0.08206874926228806], [-0.26800235424600544, -0.23743538243781184, -0.45494675274044083, 0.09652075952407117, -0.26382842857051, -0.3118950824516037, -0.3055832520602145, -0.3790527279345019, 0.055049119107364035, -0.30487877735888985, -0.2986960974554939, -0.6093514733788381, 0.37548619620646734, -0.04160541395669429, 0.17154325169900114, 0.51204431736655, 0.20888534155014177, -0.30139513861284506, -0.1736488849321711, -0.25454087763345346, 0.39702336440998814, -0.3769520287316999, -0.05253431907374817, -0.12113072580334142, -0.12638297190433323, -0.67162882767127, 0.39296398709162955], [0.44129051842604605, -0.0400084354765905, 0.4091449832312348, 0.1209573787984457, -0.5946551419895739, 0.44701272793675856, -0.1663997945845142, 0.7098778510448936, -0.11367339987267802, -0.1420191741770314, 0.18537352832950713, 0.2566317735177197, 0.19426104732068558, -0.3335391565219615, 0.0465938700575505, -0.10618563770623535, 0.5255887511214801, 0.6464804768981597, 0.15246139084751423, -0.3857829366410668, 0.17041516066267873, 0.00043906613065186395, -0.5052284180406775, 0.2505074902157652, -0.010161056738086562, 0.4473272736155844, 0.7482189577459426], [-0.3339844272173699, -0.17933728891888454, 0.7048703288915485, 0.06989500275132375, 0.18867752730718013, 0.06969995161412174, 0.02707336640145243, -0.1939621267922076, 0.4423456070686801, -0.3582414861210904, -0.07511387663599474, 0.016504591344213903, 0.3215774400829624, -0.3659252690442954, 0.24290149227560306, -0.1448532446384285, -0.16998438309372219, 0.05001697508859905, -0.8610393439521742, -0.2909867283531354, 0.0867160798838157, -0.012573956383804732, 0.47292372048840664, -0.20073444539896793, -0.28749638791036985, 0.19143425518935153, -0.07313934363023353], [-0.11563107582125529, -0.46909065347880446, 0.19581916702520644, -0.1539418328718085, -0.08193720394987761, 0.09001744617135196, -0.3662249436960935, 0.452610675634052, -0.07875000524492282, 0.7056714252663115, 0.28572424016107595, -0.28968165561971454, -0.540647659714708, 0.13035020086315446, 0.754265231538664, -0.04301706658698993, -0.5789426775434783, 0.04536403398015033, 0.5410298572312003, -0.08621786743742697, -0.25582802764195806, -0.5739411546982466, 0.20088884279177155, 0.1592659134239066, -0.03060397775356491, -0.5225747793495621, 0.23057121365602448], [-0.17237210554206892, 0.05787767428991728, 0.014721710626118512, -0.4083965633288957, 0.180090070763294, 0.22020884823429535, -0.3393578086079782, -0.4050593887179948, 0.185820436798996, -0.7943307519280284, -0.30438785220224773, 0.09710801932392983, -0.29437515443230206, -0.858861459491019, 0.11206029968479937, 0.35038828309033176, -0.2013104061911114, 0.2395200039940973, -0.09090938480144437, 0.0053979895347117815, 0.5544689525257988, 0.3359551411490478, -0.012485024888026388, -0.14338199909506044, -0.2704065993777808, 0.4368193667068948, -0.10958547160422197], [0.30723615863601006, -0.21039894553669525, 0.465196186957663, -0.07240943918515177, -0.045491077060427536, -0.37732575278297886, 0.17615341319918057, 0.5458388411371891, 0.46892917354951646, -0.17138880531185935, -0.2749875662826657, 0.057333544563536176, -0.0690205891404123, 0.2678470554599534, 0.05499352623038536, 0.060130712756518746, 0.2241583984560056, 0.2923742293392583, 0.2773316905316965, -0.4842411683770318, -0.4448635995028368, -0.013772187464838392, -0.18000305469873024, -0.3749460569030525, -0.12102391724334052, -0.18865664254060246, 0.27285287722298995], [0.3826319073384095, 0.05520811226311519, -0.7483936459044545, -0.47766554596500743, 0.012610602953949559, 0.10911138597033271, 0.05960099668816618, -0.06795253914265553, -0.07459253380883885, -0.5772126138180217, -0.052217841516040184, 0.18680172371128378, -0.32028583849015485, -0.049939970999355786, -0.7590391803253493, 0.21258441544698267, -0.020083036117460998, 0.3124854958792348, 0.2945984003180595, -0.25053248322265914, 0.39830069077234936, 0.19321295340288022, -0.778076457605467, 0.7011653482606641, 0.28259912632440515, -0.5589778800963685, -0.5312987549801905], [0.6402515256083068, 0.016523988016628518, -0.25813405132297906, -0.023805141088807567, -0.3321575257949771, -0.008635058581468135, 0.18649775674267233, -0.1859321280403672, -0.08378230677267529, -0.10012848223082219, 0.5544389361398493, 0.437103986901625, 0.06355047441048313, -0.5034949534591188, -0.1109754210790972, -0.02671903482010313, -0.1595334960112697, -0.5691160248316248, -0.5037060418202429, -0.33865623703090936, 0.5924144883892917, 0.022996536247539997, 0.20761987376883853, -0.021078526770111024, 0.02551093471655691, -0.1812763780223696, 0.23802981426425054], [0.1098877650592823, 0.06604647878982327, -0.04058319192100429, 0.061250690469286516, -0.07795044463341155, 0.31829561402994444, 0.2819608044791963, 0.19273071499455685, -0.25985065361913173, 0.2433830300292117, 0.2100978209882343, 0.4806210277453468, 0.18472424439171786, 0.7002093493364514, 0.3786669506446596, 0.2830854389817917, 0.4131907071950628, 0.3329670156671714, 0.033177323141912844, -0.09970532780308045, 0.12606619651267725, -0.28017705280626587, -0.2377793829624589, 0.408505483639243, -0.3653082101285815, 0.09023112005138534, -0.11452880271904764], [-0.2563801886950838, 0.5723634402410325, 0.024695722339488104, 0.11828714066340304, -0.03531192797797714, 0.12573942829997145, 0.29252323798793073, -0.40506350192641843, -0.1080392878667989, 0.3195812703878496, 0.21295715658516168, -0.0632557598443214, -0.20309008508221746, -0.04616071885998303, -0.05165420960491935, -0.8089734028018665, -0.05997836652732472, 0.5654621316445453, -0.16625017935439723, 0.5688474961347628, -0.12462275302437006, -0.0993393197089933, -0.13084230165956717, 0.3349185697041255, -0.15196678358263305, -0.04667767753440743, -0.3036463924780982], [0.20267715898293495, 0.2646412784027252, -0.0452204358150351, 0.1857637569282843, -0.34100644940954566, -0.12124417418261525, 0.4775334596973528, 0.4086688196987759, -0.3577791100759092, -0.178780711974825, 0.21309945649368597, -0.4582695825429742, -0.14847972337920298, -0.3551297051817764, 0.2069886258904045, 0.5750056513714247, -0.5138461930671013, -0.1056400751255697, 0.006938109269930217, 0.4212627152405414, 0.7116321855008002, 0.8254283969308017, 0.1962420056664745, -0.19022170299722085, 0.10626418260087962, 0.016462711037573567, 0.7245752916290118]], "bias": [0.04520386930445531, 0.08715810374538896, -0.09011271649277372, 0.010553763367186103, -0.04526679043220992, -0.14664798723977682, 0.020137609191344205, -0.049475245324526074, 0.1334465974944548, 0.04895714411739443, -0.06062225834963975, -0.05703661240890634, -0.1290576978801462, -0.04831465680791836, -0.10540356384740719, -0.09205342758357134, -0.0893463038553093, 0.19718424886245436, 0.15593347624112436, 0.023088719720129006, 0.04821209221782502, 0.09449197757382946, -0.08351249718031596, -0.07179074210194553, 0.18706896732928907, 0.07572132270541891, 0.0561545535976172]}, {"class_name": "NonLinearLayer", "non_linearity": "Tanh"}, {"class_name": "LinearLayer", "lay_in": 27, "lay_out": 27, "weights": [[-0.14502405181553035, 0.17987349325872232, 0.0954517736517914, 0.03981164653421382, -0.5281010839182213, -0.4482953481860332, 0.4502897867684074, -0.11171487491620069, -0.35296594051610236, -0.009473071129130217, 0.037360831635387164, -0.5306506689453876, 0.13842387763298758, 0.005892743487198829, 0.15160789367528804, 0.021031000982804558, 0.06017574990098165, 0.020229899340490635, -0.07122588975373974, 0.18626740016138277, -0.7451770954811234, -0.2710642201342578, -0.19920576734413536, -0.28665764918697684, 0.33750897310936345, 0.35625685862075657, 0.05480774155975402], [-0.28723131483969283, -0.36399014495852366, -0.12055677168210677, 0.2193175960739116, 0.456732268059208, 0.1700046052949254, -0.07959545336047556, 0.6902765503428576, -0.387837411599185, -0.4305781654445852, -0.10869131560248109, -0.43069100763299295, 0.24033490964490162, -0.10193920022618633, -0.22355053041001893, -0.749543642425474, -0.06025189831227287, 0.012229011847591478, 0.19669288325902082, 0.308013759958508, 0.21912772472041026, -0.00914053025347629, 0.002256026864175791, 0.10967146549316652, 0.11878620112038916, 0.08582064373626622, -0.10397507338446647], [-0.11007507638986516, -0.14749339584269103, 0.26933439662044456, 0.11013569949668402, -0.26323560780707006, -0.3018716109802309, 0.037237489107751306, 0.027329183592011665, 0.16257901079784667, 0.2965095310154166, -0.08539384290520997, -0.10374428086578744, 0.03405456462958295, -0.508364799413516, -0.11296347986232276, 0.28814764603768883, 0.6048319487610345, 0.052714364116461666, 0.24214018456357675, 0.4106069799164765, -0.019653305266881114, -0.40204396245744856, -0.23555651660722476, 0.2586582085476405, 0.14492744707861963, 0.2280534684864632, 0.36233651944075956], [-0.04126122259813012, 0.5905724050500679, 0.38546771907723826, 0.2528397531541457, -0.29886852151102505, -0.19193535338316725, 0.33378344999254156, -0.2747672133058399, 0.7078384272108373, 0.11639517558156036, 0.4377983285922278, 0.14111459273102028, -0.03745911095515049, 0.05494368572997849, -0.5159339665135584, -0.8087431940941404, -0.250987240637377, -0.05987610373767526, 0.11615331274045491, -0.27772454983744155, -0.25589520524965553, 0.08568921309787035, 0.02152605027482821, -0.05065703277559561, 0.004583581918438695, 0.08319556540187942, -0.49857241688305465], [-0.16399292765506718, 0.08907070773913348, 0.26406806886441375, 0.3141441483462706, -0.09913219006098571, 0.5235441171270093, -0.2990170351700679, 0.08471275987046521, 0.08216159728018217, -0.06621034114667153, 0.09315031149629911, -0.3858949218139356, -0.09788798633471905, -0.23476754305762618, -0.28329303371374526, -0.5293148965134153, -0.1568351369976137, 0.02604126934293679, -0.310895024661291, -0.5861403053821529, -0.09761164277220727, 0.1572857712604474, 0.43339153630359567, -0.3852605447193478, 0.0903961152944837, 0.5608956445767153, -0.4547698851933277], [0.0658552446385082, 0.11017882614126685, -0.05547663793457739, 0.23344306218209632, -0.3317780454721641, 0.09654393964270896, 0.040352025007334646, -0.42226608253393655, 0.21879923106922528, -0.23382759311412643, -0.03870069935900175, 0.1470802738605816, -0.8306562604979926, -0.4654871283713775, 0.4532416153925707, -0.0952909111792883, -0.019286036760427505, -0.07624797646749404, 0.1680506466752828, 0.16081252332540658, 0.44933757309366945, 0.1342848957278883, -0.5581799049579592, -0.6790995904341696, -0.1734935127362671, -0.17205894101216293, -0.2608036663485446], [-0.1943056551227817, -0.05132698097454656, -0.0548207681893612, 0.34552001893998474, 0.3953034663956748, -0.3628437007295363, 0.25876138072637683, 0.18629350138024794, 0.04203461115797764, 0.11071743867887693, 0.5212361589186774, 0.42681650142795613, 0.07121616834752413, -0.10084983807182567, 0.11807230380302675, -0.19100885528201672, -0.20248997528490487, 0.20291652832706064, 0.3374140742949707, 0.2494565192312958, 0.0010273160839010995, 0.12717070650007925, 0.4900272794600657, -0.11899341058180998, -0.11237483012146983, 0.08002145662837806, -0.5634935495217372], [0.3920477174972048, 0.48528502694442466, -0.16302494828835667, -0.4552636293273957, -0.12109113219844936, -0.18179671122158503, 0.09458284247717483, 0.33751161022770054, -0.3438692890394245, 0.21768214163290972, -0.012006743757852054, 0.20489663210865233, -0.038480186709358405, 0.14970052351747004, -0.73110977041329, 0.7807498692630515, -0.36015765558313984, -0.23561172671876265, 0.02306812299955649, -0.07839260395299913, 0.06001614793053654, 0.21900618808763386, -0.003937706549391583, -0.40579869100521054, -0.12721897459985046, 0.9647878962924796, -0.7295926708278581], [0.5356407777228738, 0.19558473056072864, -0.05593087157427044, -0.07277017894150907, 0.3018491765710184, 0.08815548635107757, 0.007515962211128268, 0.08912364234079559, -0.41045568741935645, 0.2886346746649888, -0.3257915959934915, -0.4392148587552099, -0.07093199838063001, -0.06189558521657217, 0.35276645094946923, -0.07580213546506617, 0.18614448976667222, 0.47647259146746374, 0.5364336248189662, -0.26389644581718763, 0.21425037850254275, 0.2985845359413764, -0.0066062293666662815, -0.4178779796349705, -0.2299276800957545, 0.05790833258647626, -0.30602822607938845], [-0.007539003637847018, -0.2943318928344392, -0.47728592539872583, 0.39382079107815243, 0.5808649972420037, -0.11593831856980406, -0.36751284270161827, -0.13534435511614823, 0.18512488246988024, 0.4608452057793425, -0.2590768945557062, -0.15910039582632374, 0.04897204111252547, -0.2346847959009692, -0.29699565387822396, 0.38316073732259914, 0.06559526517002019, -0.40625730036368934, 0.49764241483207405, -0.007005939632046688, -0.8694563962881324, 0.5871307750240249, 0.04449531208853983, -0.4797390378202342, 0.5267198494572108, 0.24225302630463502, -0.3487695416617249], [0.10450398801527856, 0.02822868040054542, -0.22051263939120597, 0.05908114724028328, -0.051601158984535114, 0.11004501079717152, -0.1855942540314604, 0.6387827164714739, 0.07736394900170224, 0.08030509002315087, -0.11981406363411892, 0.3644515081584897, 0.02625815453809999, 0.2520903018578883, 0.42161268454962675, 0.08149376299674269, 0.5185817520571042, 0.11857827581865704, 0.1962320415632169, -0.08233160455574713, -0.2505075041515293, 0.09946951928931949, 0.15382999226436653, 0.23265516824524782, -0.1282848555902412, -0.04110219185173671, -0.09734990249214524], [0.1321766230066165, 0.09639692969018904, 0.1880101529171475, -0.21832099432342647, -0.287498229140857, 0.3869716168882121, 0.10979718770588938, -0.14788712299315437, -0.2775062053391764, 0.018063097155722185, 0.37517541759448914, 0.08185185228449278, 0.16748300670372865, 0.13575468589838643, 0.023849847329637953, 0.3123750813139545, 0.2956183499907162, 0.0018673411215267902, 0.390172759289826, -0.15371518319958744, 0.04161048172906938, 0.12555302989595374, -0.03431924372975332, -0.08987003013837816, -0.28984650744081, 0.10155219534576844, 0.09317119065117703], [0.3938913021356509, 0.07442226931694172, -0.1015394727165949, 0.0540166597504938, -0.9065107534449396, -0.2223533181530444, -0.35709530134790823, -0.3950178047894343, 0.09405987435700347, -0.3555384672369785, -0.424801074915644, 0.09796668517413426, -0.39582872979122874, 0.4230527530124938, -0.0841954560852507, -0.05899459471365184, -0.2646127152256682, -0.5644505522586574, -0.2522401159026339, 0.3471123556786492, -0.5429040598591586, -0.1487763144811846, -0.092501499324256, -0.06990639813678035, 0.1378403783463058, -0.22743612181030584, -0.05467571103227076], [-0.15416696348173176, -0.28124405380889034, -0.2628301971763868, -0.4399963228457872, 0.13174055598334808, -0.4727961275734681, 0.2091548449468117, 0.4911322922995878, 0.1546653310908721, -0.5155977852991274, -0.063655400477177, 0.4970096814268079, 0.35507311926981083, 0.21265194588366018, 0.2065128257450066, -0.19173655535320863, -0.30453965817745354, -0.08740978683473327, 0.30301386593696755, -0.026552468007208417, -0.6528903157262039, 0.22512177753300772, -0.45910049719345053, -0.046436490031447744, 0.213887964150271, -0.25035327300978366, 0.4836118526812081], [-0.0760197981672499, 0.40841848187431634, 0.22633022726318422, -0.11588181632871886, 0.27864491097918026, -0.3474538414497129, 0.23971456986343734, -0.2681132222476852, 0.5218604657306679, 0.506007726780856, 0.04351481981264275, -0.2007428613075067, 0.18035724486194352, 0.5399976930347148, -0.272409035549941, 0.046403061162029115, 0.10391620941573465, -0.11049721562264592, 0.3783987927722951, 0.5717465157963917, -0.03288933193121491, 0.9199582458982314, -0.7055268196760968, -0.11636115555146816, 0.10560925405648887, -0.001547956049327001, 0.020358423582345343], [0.5777134029435315, -0.14210176482487588, 0.3670864269469063, 0.24419815647973836, -0.11134892992969002, -0.20555726653737424, -0.07601483750171546, 0.41117394633791277, 0.5997601542341456, -0.07391456085754415, 0.12106562417140176, 0.17636471338841167, -0.20710685892145325, -0.4655063363019968, -0.4482537378707072, 0.39990420539815597, -0.4620288268429913, -0.021768963295042996, -0.07288968026597768, 0.43733627638671435, 0.4256005256670228, -0.40365755526324454, -0.3901821914820259, -0.4427872422854837, 0.01451291428735411, 0.27189119485917834, -0.16832514307153973], [-0.2961342752947311, -0.189627361393511, -0.10717560135015554, -0.18889933378268212, 0.2038284392946384, -0.08502801155102481, -0.010854725191173064, 0.5126038787351404, 0.2696501878582251, -0.19392498183872145, 0.3865125960925768, 0.12926916847537528, -0.32060963372636403, 0.09313210067099852, 0.1303972804167481, 0.266417722874356, 0.255718037914159, -0.25354540711697116, 0.14003546231165068, 0.0072718364203640164, 0.286313820801966, 0.006387532901287312, -0.23870370667987212, 0.3842134378810671, 0.04263932873597516, -0.11213264474976888, 0.3113406463528761], [-0.17499220130572254, -0.34243758866987023, -0.5749310589338027, -0.1317723781495371, 0.11677227271859274, 0.2334765543229453, -0.051746174587887224, -0.3452014518691285, -0.42184680722515405, -0.26368773894864217, -0.37722401502617103, -0.07968264917769438, -0.4932948101183278, -0.8870812490095392, 0.13601338337263802, 0.48987717843013423, -0.041753657204830624, 0.13092364297176032, 0.11582267010021961, -0.14833523568757354, 0.27695423392515034, -0.33042381124739917, -0.24131257505190756, 0.04709002723271314, 0.4113124837144518, -0.5221163059129087, 0.4537285029491513], [-0.18270578978881663, -0.12635527611217048, 0.19201648912521965, -0.5762766907620426, -0.04765915114768271, 0.18090615492496062, -0.7385523377042831, -0.26502076907197136, -0.24882810882093706, -0.05374327778668269, 0.22534463791444712, 0.05110057543443148, 0.35215099381966, 0.6720435763441399, 0.3043899646512159, -0.08701567362261851, -0.2091788668704677, -0.5260261904493572, 0.0169529694782608, 0.17503301002872915, -0.48576152221619034, -0.30606628912604866, 0.37588211828962037, -0.4500653823195015, -0.23307302381906317, 0.022475449321878484, -0.1571762413543891], [0.28649847826138475, 0.18679174036275323, -0.28820124162697985, -0.5420970851540434, -0.3314327494708695, -0.267891610595252, 0.023471009498341574, -0.6556615499304401, -0.03654152217593322, 0.343622993931092, 0.22636451285156134, 0.23856867504006607, -0.3138916640498744, 0.4102150416243067, -0.18532589663916535, 0.0064127859712749865, -0.04537157040606585, -0.05008363336906569, 0.03120183175812005, -0.03496461478025886, -0.3773106758563191, 0.21557914700201075, -0.09520120114795562, -0.19142061727874535, 0.20454563980687515, 0.13525417176496143, 0.04386366143182875], [0.02483317142856362, 0.4542392899335866, -0.10197019063307355, 0.05599170493409677, -0.2989990305566106, -0.14478445713845398, -0.19986932074610478, -0.2907080676795279, -0.06501402509911543, -0.07580486348464854, 0.07914809818180037, -0.562928521471802, -0.23916379026739748, -0.4804627101947796, -0.6638088786116088, 0.3067017214250042, -0.19128642851144959, -0.09217838460582767, 0.2976974167918278, -0.21384358642792553, -0.09930441377368159, -0.2679333333748028, -0.25230025305410503, -0.5691461518677434, 0.23505903753877574, -0.31555946641301996, 0.6538994981668236], [0.1934076795854095, -0.1459843108811641, -0.1818401128774676, 0.6034923004217879, -0.03330079353899646, -0.04168451513169579, -0.14361226887573833, -0.07331629875361022, -0.27560264102101273, -0.04695781469497557, 0.45723285405815306, -0.2426040556384854, 0.3305693997704197, 0.1600428648103736, 0.31275987145055023, 0.5436595289461322, 0.39526439640653394, -0.27559434578601094, 0.3003393461287379, -0.167428042878315, 0.09813710812849587, -0.28073543655040095, -0.7010990367171014, -0.49255529397234515, -0.14603136741619538, -0.5235954933950385, -0.33493602408088813], [-0.26054221731458915, -0.1571915258173207, -0.05660209116847806, -0.47869430664092805, -0.3857023664812289, -0.17437338619124573, -0.4551517891313292, 0.1111497070587145, -0.24156095204379338, 0.03073765145347767, 0.2786360834403209, -0.14733108313346238, -0.1423993993576427, 0.03742560106693431, 0.2728303275952567, -0.11453085417716319, -0.28688762623808317, -0.07965759175779435, -0.09048315400832842, 0.054269426028148215, -0.010931218979621399, -0.2346127920550253, 0.05720275448277929, 0.10061381647367224, -0.02124729409025414, 0.5956505565978832, 0.060447985474468516], [-0.18387764545815546, 0.23685376916318465, -0.17675064171700008, 0.43170363587488536, -0.3103126850403356, 0.14124609086973228, -0.2569909467229763, 0.28465142163404844, -0.4004908595847216, 0.3393314470048659, 0.3203837941196428, 0.3703984886445702, -0.3109729069824747, -0.420436023201025, 0.09857257828911731, -0.04137791377586078, -0.19873612583162945, 0.40513174467427593, 0.4053433698534396, -0.049864866637176694, 0.2501322619933742, 0.3653110957875687, -0.4624283888236464, -0.3888608615842395, -0.16248148274862032, 0.5629157569069578, 0.3621399309016865], [-0.2889661643840533, 0.4541640090683146, 0.41064448239548207, -0.19167610418443773, 0.13102504865380885, 0.20147834377918755, -0.07142810237527297, 0.2784293488430657, -0.03923234086337495, 0.48485481026267985, 0.22235920993974728, -0.6596967975712741, 0.053018041505897666, 0.1585776008621893, 0.27888762876117856, 0.34284184859432426, 0.1893497844190885, 0.17914912327083285, -0.3730383308057621, 0.5989721205263078, -0.37545423025350855, 0.24714321514603518, 0.6120460244908392, -0.2826614400928422, -0.07052987367378391, -0.1452483267737058, 0.1957012488331977], [0.4005895537966044, 0.32630761092280536, -0.08361166696417069, 0.04598738854215583, -0.6775225252207059, -0.30752652420090504, 0.13669010477594204, 0.10232997810949389, -0.5416504683924342, 0.5516875348445351, -0.3775893300998669, -0.03376928063396419, -0.11821005721160266, -0.004068102996414928, 0.2208837988966439, -0.16386457336787058, 0.050339394838116384, 0.5405191830746923, 0.13873641132241388, -0.10793046507630158, 0.23670917208035935, 0.42946939433534587, 0.10346437309880692, -0.3496199464621016, 0.11626580577551775, -0.04310896924574825, -0.020134688344743912], [-0.160735299183643, -0.2723199507864688, 0.14096507147209636, -0.22280279998223138, -0.6395467330257525, 0.4257711588804717, 0.057888026477172456, -0.05351399669336686, -1.0929825243204243, 0.0813891285941838, -0.06287773000915549, -0.41290691346592895, 0.4559930925165389, 0.274859583062309, 0.018889261957259044, 0.0019311772110254446, -0.06952542652917269, 0.14061395906609883, 0.31648853813709155, 0.2922370924503296, 0.02595939487143731, -0.3358702051685553, 0.23717841595696657, 0.32815248587392204, -0.1952317938835925, -0.40771844222236975, 0.028151165925556706]], "bias": [0.0743116938023279, 0.009824901082265004, -0.07388307959832248, 0.08270916397213501, 0.09846139274093349, 0.05691146458245055, -0.012177945200888622, 0.0016916492534704353, 0.07699251366201579, -0.04482072958161191, 0.029034289615826596, 0.03484188133096253, 0.06188007382325496, 0.13389320938643584, 0.10341357717293784, 0.023004590320466922, -0.0969039418214944, 0.07357060065240521, -0.07490782858991012, 0.07971044646606502, 0.04477803350210762, -0.105878607834542, -0.007424373256209592, 0.11177056901035139, -0.1305955554516974, -0.04664185457777349, -0.019387539140344346]}, {"class_name": "NonLinearLayer", "non_linearity": "Tanh"}, {"class_name": "LinearLayer", "lay_in": 27, "lay_out": 1, "weights": [[0.08371847563780684, 0.010124625999851807, -0.05154691112149248, 0.2627196158734116, 0.19961871064590803, 0.12904422049892406, 0.1342678274795406, -0.1738778895488305, 0.19736312462317215, -0.2039247360085834, 0.2954464944238466, 0.3157366975887693, 0.3939299722070997, 0.2584153960968432, 0.14779959473953905, 0.053183302503294436, -0.40504546263221686, 0.10889819111165115, -0.38119082382903896, 0.6397624521011102, 0.2916233887113199, -0.5068480529802256, -0.39476081083638737, 0.2594368598392047, -0.06726100134188677, -0.08706326603675027, -0.018313327638319214]], "bias": [0.045112803546354614]}, {"class_name": "NonLinearLayer", "non_linearity": "Tanh"}]}