{"class_name": "SequentialNetwork", "layers": [{"class_name": "FullyConnectedLayer", "lay_in": 103, "lay_out": 100, "weights": [[0.6888918938814073, 0.02767993883808157, -0.02337148599303368, -0.539122928496623, -0.5206408784512152, 0.4492152271206824, -0.9932630776286533, 0.005137148525627854, -0.2604870235347994, 0.25460493065824435, 0.3087704160125437, 0.6898859955066511, -0.9993484026163506, 1.71720812901732, 0.5015583691224864, 0.32229664227345817, 1.449034916040002, 0.6281132824984125, -1.084935397116195, -0.14845970499928945, -0.49841302166404483, -0.034218696567478994, -1.2699026936573792, -3.071851602806732, 0.35374199634508613, -1.5546379558172532, -1.8184729733015685, -0.8086641507954624, -1.7470538454188476, 1.0371930251203763, -0.5752156373965358, 0.11392102611940289, -2.255713223820374, 1.3170239482807327, -0.005690990848379092, -0.7467153015747986, 0.9486877350728424, 1.9381408652765095, -0.8574633712028544, -1.7601804171920548, 0.21263011570632792, -1.1710811213763472, -0.9884724993255192, -1.061296538273484, -0.7955864954265173, 1.360042337996865, -0.836929027066272, -0.5363395127759677, -1.473547427304907, -0.2739286112367526, -0.33871109099883834, -0.1302728034448322, 0.22411738589924224, 2.8761269920869657, 0.4451368419685865, -1.0743171879137854, -0.015024653536279887, 0.1799095118996726, 0.011468578169592205, -0.7774944057302048, 0.5334075175697157, -0.36222258370930605, -1.6606902994266817, 0.46439285754774284, -0.2572321765217169, 0.08723572246562057, -1.0674688048518202, -1.3054898669639456, 0.6574281743849946, 0.5349871981087592, -1.2564417992724466, 0.16684262351766552, 0.47164245045320574, -0.8873979701811615, -0.1696131266967435, 0.5220197369971314, -0.5888737049527867, 2.8243142211526564, -0.7165016252488787, -1.967288917643187, 1.1865344348275586, -0.22347552669042653, 2.0871514927901207, -0.34533160933825846, -0.6041901211490168, 0.8282034034313525, -0.2216457784159211, 0.4774108790776987, -0.1959738321378854, -0.5654244952140816, -1.4710468017207443, 0.4948852220687658, 0.0380939988217604, -0.9034819848671846, -0.8466159794391992, 1.0026209748099115, -0.39826909175968317, 1.276747193270877, -1.284294758210759, -1.3989569673887579, 2.2916882488608095, -1.01421489486184, 2.724416110109417], [-0.41721173211545454, -0.13095467619951734, 0.41958099519513903, -1.2673247702667565, 1.2528499492362086, 0.7326175459821427, -0.9682697539969959, -1.7187940767891945, 0.6010036229814775, 0.4837777195168357, -0.6293161943470866, 1.121036747761766, -0.9930091960610498, -0.5305056803487372, 0.21542200601610856, 1.4582199923865748, 0.8950606219600742, -0.46550146523428315, -0.6324264521853803, -1.3160524956953064, -0.10781035593588296, -1.422332834700539, 2.8688389316451164, -0.7112748540830504, -1.4160096879542483, 1.7850420340924171, -1.862265582228402, 0.24205336608557407, 0.06276075538869696, -1.7488051823133817, -0.9116401160073274, 0.20630351365559046, -0.2940545548192557, 1.0987079909831805, 1.8435529659679397, -0.4208916333563996, -0.3997198381664316, -0.4986215143788378, 0.9342583913655487, -1.387232633128487, 1.07893785984814, 1.150300854343006, -0.6571274540410964, -0.47817210146870426, 0.29528730320033764, 0.515244588604992, 0.29946737319187355, 0.9193569050262526, -0.9040591330090662, 0.837798098330212, -0.9771902837585752, -1.1568400989009548, 1.7369247612565513, 1.6217662268950988, 0.6154927983592419, 0.6936726604029402, -1.9324074266507982, 0.31146902859509407, 0.7314400915866682, 0.6349439174914723, -0.8300092359621428, 1.60391695827918, 1.8336248675308844, -0.4062107435326972, -1.4872227970241323, -0.4882680951608832, 1.1766050451189793, -0.9010423943145597, 0.9378201392688071, 1.2207492960946047, -0.1338137045652862, 0.8899978370155918, 1.0812713248349497, 0.6577344110058497, -0.006124657227457355, -0.040328423345178895, 1.3998922346452227, -2.0665866018089956, 0.15616018236139462, 0.13356322894044945, 0.2503132720272548, 1.5817698472676285, 1.350520107910343, -0.5283886149855729, -0.30792842099683465, -0.354705813712669, -0.2860346437076617, -0.005710466647993499, -0.9272165109847279, -0.3792396078788627, 0.9345116030243005, -0.27211195021146645, 0.8783590844750451, -0.43844813713479214, -2.352978237490529, 0.23826741295731843, -0.27447080034831545, -0.3806900728849912, 1.0378408346099763, 0.6887206691268312, -1.4141179921766525, -0.7504919399395648, -0.8539986763965483], [-0.0746315296792638, -0.7542819363069238, -1.9524774212762308, 0.5653339409806367, 0.4423365789897544, 0.9872767203784264, 1.2711257725412386, 0.024371909066871814, -0.8020910573598304, -0.2729168623312436, -0.47278738652092306, -0.4773358411581449, -0.9810253967310667, 0.032313544594590723, 0.2705369723708016, 1.1327791131704892, -0.49986441575793183, -0.5841859407528628, 1.7921343777859537, 0.05405716150957337, 0.1842847096993973, 1.4046018056498593, 0.45658300711749233, -0.15815611883309902, 0.750950433585657, -0.4280530848005073, 0.0872376128097599, -0.9334681219983045, -0.8643238803558008, -0.3085385266726165, 0.8955692013682872, 1.3837578430143553, 1.3810991608057757, 0.6611788360202797, 1.3355841515449531, 0.717593433062488, 1.0500476562153627, -1.3456753711563296, -0.7456159557999342, -1.9183479301197053, -1.3533147765398104, 0.0903537664717005, 0.8400409437539649, -0.6902123376843721, 1.2167491016192635, -0.6197891750628572, 0.5216910200985563, -1.2554777265461856, 1.1228226061362234, 0.09784327193344021, 3.10692971183194, -0.6742611912244815, 0.6617730271125798, -1.2494578574386146, 0.8162674042855982, 0.21325962986497668, 1.5856831046995028, 0.9426736666663528, 0.7553556977247451, 0.5545888716626737, 1.017394804255768, 0.37122654783183456, 1.4203087903806473, 0.13538833691447832, -0.806472555414886, -1.600351050987909, -0.5434680571782089, -1.4481219200378583, 0.21814028887783152, -0.9872835442850446, 0.8942195478493632, 1.5376702213779427, -0.5567290992932938, 0.4113778260070317, -0.2775529111622403, 1.6603774735243717, 0.3111702686308439, -0.5497036978545737, 0.6219631185882186, -0.9784273380584838, -0.7165663655865544, 0.03393555794935671, 0.3780173824169287, 0.5968245319693025, 2.1022823356475975, 0.9908378277723535, 2.3535731870739376, 0.5028870502888518, 1.7793485757227807, 1.0176420727689448, -0.0754870782750749, 0.2007193349114123, 0.28252737312394505, -0.272758158270416, -0.2819778715854039, -1.5519810518682182, 1.2719372775858306, -0.8069948351649594, 1.2439100913214225, 0.5497179224737546, 0.23437860026175, -0.05297976522696575, -0.09341604237972138], [0.4589749662022337, -0.3056405462138343, -1.3229413959605896, -0.30403890309327525, -1.6960563633438086, -0.709173657644203, -0.4230279770932088, -0.6611739351121665, -1.8468691123077283, 0.705867335670622, 0.08686810359476256, 0.16849783006909164, -0.372516460543247, -0.6403437140544778, -1.6950179661315592, -0.2946076300557118, -0.7323556825082305, -0.2493705599755864, 2.4854708346027183, -0.31147495791419605, 0.7565053123812865, -0.3096356805582459, 0.5721750907259495, -0.4596644314686308, 1.1944407385320823, 1.7959468480318472, 0.8417027273079845, 0.40222321501528585, -1.3826931706940306, -0.12868274611247707, 0.27181513529453183, -1.2644343485184144, -2.912194790426161, -0.9690228823166208, -0.577724028704852, 0.14927931649513757, 0.2707052819900783, 0.7221334678082221, -0.8044781144897566, -0.7749666183489841, 0.664922332331173, 0.0007395167421099965, -2.7459081444368514, 0.5574785023020442, 0.778501334701618, -1.192104963487975, 0.7582238616437161, 1.2742031567053334, -0.9971429426168353, 1.778924661665129, -1.018274442032329, -0.6267834222886268, -0.7075477557464164, 1.4053091771691406, -0.5715174901842583, 0.9828301468564559, -1.034533479996743, -1.6912447706915843, -0.7170758256223164, 0.7369157051976319, -0.17337360936945426, 0.775399882778984, 0.39936880425509014, 1.5675857061859175, 0.6652677618679127, -0.8506144778753648, 0.6738052045923382, 0.6301582474210389, -0.46483530615893587, -0.18544356386005184, 0.566975052584797, 0.5547777589766046, 0.5671752398551455, 0.4031276323584494, -1.4137807528844353, 0.9534536746836653, 0.17711755562750436, 0.48363716644703975, 0.29354524689996503, -0.6615179942979175, 0.7781893290497666, -0.11809131076331807, 0.3405191315794703, -0.16119509466567986, -0.9549228066119319, -0.08323647641815936, 0.16947394324910864, -0.3907547483404461, 0.12335368637095386, -0.9616277525913329, 0.7539981693022966, 0.2229234604010732, -2.5506731881689526, 0.3011999488004964, -0.2219289264243097, -2.431608383567936, -0.22376286798891032, -0.06584049088606113, 1.7025751803752467, -0.6331303384585207, 0.08615057037572153, 0.7283861020784566, -0.7858767141309144], [1.1862291511611014, 0.6828567993521532, 0.7785667315895033, 0.5752733698365504, 0.011673959271785867, -1.108009967495289, 0.9913604158781719, 1.3926374758851228, -0.21433423547968777, 0.7225511320152088, 0.03904680854166012, 0.43991352651099996, 0.8048828915856298, -0.0841334889557366, -0.9093519693063962, -0.7951198351403812, -0.12141577611500284, 0.8053056003271855, -1.2210954621860326, 2.097211177744406, 0.32159715899411856, -0.7416753500260362, 2.828673984903867, -0.8594710532488015, 0.09056446542351514, 1.0700457043462142, 0.4674019217609537, 0.5497053903025139, 0.3406305098172564, -0.12906741920828227, 0.5079397435505909, -1.2888752631091263, -2.2414926989483517, -0.8561595693902487, -0.27010536413616204, 0.6200221422578761, 0.6362693777333456, 0.5636742229383046, 0.287977487013102, 0.14760401061694503, 0.9069448199512008, -0.11175521316221909, 0.6607789600774499, 0.6406854392202591, 0.15167254556856183, -1.7842869086323965, -0.6712518852897281, 0.12303363095039593, -0.29249552329509976, 2.418967215023574, -1.735367743725517, -0.29142946357212507, -0.5672906195515101, -0.01132905256532119, -0.6473252041077447, -2.306107867805275, -2.4570708353664363, -0.8465865917286671, 0.9502121035272697, 1.5519557237310746, 1.4896216251932832, -0.23461471721348937, -0.6390322431740193, -1.0176759535377513, -1.4648199875233299, 0.4903702383063681, -1.3906571039176698, -0.8313857602258998, -0.3240187694084683, -0.8550290367966901, 0.09636851683065421, 1.175525280341037, 0.9214950625142496, -0.6900750299080285, -0.1360001930058023, -0.5994569630886804, 0.2621687492231268, -1.263665721682005, 1.3866478392035786, 1.652611260812148, -0.4934703568286713, -0.9700589969533138, 0.2693527728143632, -0.25390969040211314, 1.229202410948147, 0.23436281952573718, 0.37565490588053224, 0.48507987418711257, -0.3848959073913351, 0.22906266781413487, 0.590022971183309, 1.5231113515819856, -0.4152167093637426, 1.166652554861033, 0.9843072361003552, 0.30784995710462126, -0.07123497164773908, -2.1016010364323403, -0.35500460652058125, 0.9851323909031187, -0.5072128705340446, 0.050629238021298706, -1.0392272155435387], [1.8676470534364364, 0.07360725040322241, 0.710239828036146, -0.17189780199136687, 0.864635070404134, -1.0030510256232266, -0.3110952415514348, 0.3992991751490183, -0.6052071784729961, 0.34247164681213543, -0.20789958054047772, -0.40380271895322917, 0.7983051825726057, -0.08159402467122871, -2.1291334714310675, -1.7572180633735395, 0.5326325786584726, -0.00812189879156053, -0.9574083526414895, -0.2719322642589979, -1.3241610747488959, -0.631282296287158, -1.7062935727130644, 0.07162279402065928, -1.6446367140594462, 1.0716674637321209, -0.46582671642509466, -0.31552505637247313, -1.0123368228402163, 0.9551451254935572, -0.40891499135989295, -0.10522848034765811, -1.7648566101757492, 0.13716354076563594, 0.8893923087629388, -1.3172320232685255, -2.317544033123126, 1.1733685084881709, 0.39140842509691254, -0.536189533673768, -1.0895384987718242, 2.2944614492390314, -1.0515231974267347, -1.0476218434284263, 0.7581883698944786, -1.5918093428480236, 0.25161410120609784, -0.7367055054480474, -0.12789150392064796, 0.2642025936982575, 0.49219146083864096, -0.025792936245434335, 1.8689775094846928, -0.6349996333432812, 1.0101514473853639, 0.6553280641514558, 0.39461518169163323, 0.24423512465369393, 1.0925175215705663, -0.4414973450369482, 0.7075871443206019, -1.2381634255938316, -1.4251344561873465, -0.29369144463583935, -1.4578237145419854, -0.9913430947150899, 0.5746105016712572, 0.02428291810508416, -0.16478062788724893, 0.2977252504988843, -2.628895949534176, -1.8487665856127604, 0.14977955671430146, -0.6909353344258257, -0.8086690990989643, 2.7407230807347363, -0.4513764925084496, -0.09553047993433368, -0.020828723192938846, 0.5588955848712592, 0.8168659759167315, -1.9750496786668554, 0.40512625752393855, 1.0449919299818278, 0.5093859791108922, 1.3138730369520397, 0.8214952411041713, -0.6765315408420381, -0.007237879925892405, 0.1871781659849326, 0.24322810861353145, 0.3135591547785677, 0.362461942208901, 0.3068103061741522, 1.0750612738328051, -0.9476712098631577, -0.7886341350973778, 0.16646155641003196, 2.2267881523546205, 0.17915940778958958, -1.2856851896974328, -0.4529660316679306, 0.7884699886803764], [-0.20159087613625046, 1.6107851196225744, 1.329671263814168, 2.540347425235456, -1.8382541309737137, 0.5196710740977442, 0.04398195918330699, 0.8279159075805771, -0.32640506054630186, -0.9104040951392292, 0.9300924382008314, -0.6504131378985907, 0.012756242861153151, 0.06479712568616496, 1.5396623632434614, -0.34085003171990036, -2.215167905820968, -0.7717417632637819, 0.44927111224374405, -1.7896523513910707, 0.35727517555457167, -0.7131652755417401, -0.5651698177387546, -0.7937653202820484, 1.0898615011084853, 0.7449168756587174, -1.5762407579714532, 0.2762040979204954, 1.5053665945178756, -1.0675186071292213, -0.6659290949811121, 0.7729551869373233, 1.6615222327813601, 0.3601867063950991, -0.2340597211721761, -0.07612469964902684, 2.679156776745534, -0.6173032682119048, -1.0171366182140886, 0.564083161102318, 1.1451340001061237, 1.34348300382513, -0.2266944140607131, -0.013127753295993807, -0.15620897663395364, 0.3940126582381252, -0.7110356361400452, -0.7314115270452366, -0.7900721119108114, -0.6255504624148233, 0.7689016729524601, 0.7824285047342403, 0.0742547875953464, 0.4641233961811156, 0.517719881399536, 0.12439613847405863, 0.6528056058403251, -0.45028790200116237, -0.735123152945605, 0.19741046414269645, -0.6431371531237422, 1.377793710778124, 2.7342277074059087, 0.6981917744423938, -1.7152588039631471, 0.3885977561979557, 0.43871970340795235, 0.009451314090933983, -1.269643084285428, 1.940312382128251, -0.5401206658459111, 1.483133068859474, -1.5432257853030174, 0.26321170139306094, 0.7746918904208739, 1.379520068961193, 2.499889231755503, 0.6170241525249986, 0.2081448219303848, -0.3156860146350147, -0.04357289915095231, 0.2016230534396387, -1.0695301060287523, -0.9560727471818369, 1.0843365228787105, 1.0633859023116559, 0.6313919162149196, 0.8949545204698008, 0.38707583059548945, 0.5724827190866266, -1.2852920559857466, 1.43268181383672, -0.26170817856037915, 1.1850925277131392, 0.2493370713446789, 0.3999017628918797, -0.5220006664122063, -0.8633188521966427, 1.3343722731428385, -0.5571074872246192, -2.441052058205025, 0.39143957200035634, 1.6369936233307383], [0.5320629382358573, -1.1759978229497432, 1.6076696080009885, -1.5815795326288677, 0.3669994650431044, 1.7911567521023002, -0.9866422305034277, 0.03847367137968309, 1.3874813020771177, -0.33040011532066693, 0.10352159442271977, -0.20138260653566364, 0.33409358814618345, -0.2949813415272647, -1.0824358177346134, 0.928887950710083, -0.2163257246298091, 0.23731046697387764, 0.28513528081793, 0.14062367194919118, -1.7451081496043055, 1.7903898153677817, 0.023980432377113645, 0.3927211759946217, -0.5738406749892465, -1.0795654120514575, 1.4821603044460183, -0.07722340105115413, 0.8114861785462611, -0.7169584315624886, -0.7809691361163816, 0.4154625530073134, -0.17186772326381874, -0.5332671450839782, 0.06343662091307649, -0.578740622808783, -1.6364128677534635, -0.532676467734328, 0.16589818496126657, -0.8994280566382243, 0.2835588191030124, 2.060718929615874, -1.938644999382605, -0.45709810903352777, 0.8376013923797061, 0.05901290814457608, -0.03263379435406824, 0.44016560983255715, -0.050797978697937056, -2.2154377310457933, 2.064188054616167, -1.5364262655240923, 0.1503411051353807, -1.3297203232160868, 1.2491221620723783, 1.4270548104601855, 0.2360175822604544, 2.8696173938771032, 0.7282574126838469, 0.8930978281955908, 1.3276776345472903, 1.620686115911685, -0.38419461422487655, -1.887935054598181, 0.06353403563002855, 1.0070079519906454, 0.9549008155516323, -0.9699645404515717, -0.2671913588082416, -0.24555146072528652, -0.053629945758554474, -0.6898985698585736, -0.6281097362510125, -0.47743898854063577, 1.0729766006331682, -0.1343385026175905, -0.5275474302571271, -0.5904899464771142, 1.050319553496915, -0.08312725281473793, -0.42885405023275935, -0.23165381243141162, 0.06695554894062059, 0.5147595295644481, 2.082849616982884, 1.0370068425290369, 0.11425244802297549, 1.0258472789209168, -0.7008855165120143, -0.8381786086517969, -0.4367270390318543, -1.2623628332870658, 0.2581620220495175, 1.4871459486345577, -0.041014768905009324, -0.006875858119594007, 0.42743771402971553, -0.42766808177299104, 0.6577521931938609, -0.61445999170743, 1.6249307235245118, -0.915508441125082, -0.48316843024778056], [-0.5593463989720281, -1.2973327972629043, 0.35719570210712587, 1.752713648117392, -0.26439779892490406, 1.5286969365920728, -1.0317003436218066, 0.013780358937390517, 1.3759886602290332, -0.0400876668399898, -0.028805394612093582, 3.051214393275389, -1.0544552556157414, -0.12832061682105714, -0.27253566668947715, 0.09908614358191473, 0.6827829911833928, -0.07535959128388907, 0.23376030012250576, 0.1405609354769579, -0.30439555897300896, 1.2223825078915473, 0.6005691822480597, -0.26654479815196347, -0.21459700828511244, 0.634925759505952, 0.49570045964890225, -2.158498883746913, 0.11967544114773351, -0.6017415961025965, -0.661289252727978, -1.6790504134124067, 1.3525396869766189, 0.6285621874642019, 2.5936535971163175, -1.2193128150991022, -1.4951641193722445, 0.05310660331216756, -0.6122991171771404, -0.6862447813903015, -0.5098850849675371, 0.5826965369056939, 0.7922422266700155, -1.7908369284986425, 0.6292970581666895, -0.9323377977467395, -0.48958079156364315, -0.9985190338556988, -0.8178254495024544, -0.6024659620843678, -0.45621095528298844, 0.15219759205222672, -0.06924872203110714, -0.9224159904813618, -2.4410495703004136, -0.3808200536517113, -1.1797145736392562, -0.5521534531587547, 1.556975962411872, 0.6735665272211743, 0.9083358115775878, 0.8922121918291864, 1.1908385897728464, 0.592907216811052, -0.03586344251343461, -0.5274325838782831, -0.9838753817170023, 0.6340650353083228, 0.8691416452972777, 0.0348985622453684, -0.2010665579269154, 1.152084968234591, -1.9297233243071137, -0.5673744844795466, 0.514204479910582, 0.42048271516163616, -1.9639106106064208, 0.40712584495116005, 1.473700126424667, -0.5938565282646479, -0.463431757975237, -1.6191364458463553, 0.050471877120774535, -0.39273964598152206, 0.43867179211975477, 0.9402599510697621, 0.014189671964961842, 1.5568542733211292, 1.1920924365335526, 0.0915979791887311, -0.47749378223168126, 2.0199661985389055, 0.8334794374885306, 0.4523560209327471, -1.3565627337537158, -0.6204915060782614, -0.6307828445638023, -0.3673506497247596, 0.6749252231458408, -0.14158489659321888, -0.8776299303007178, -0.5005781889576498, -0.472020042098742], [-0.5300751562907732, 0.04884657522710742, 1.1152850252882087, -0.9203941231701558, -1.43715815502274, -0.3212235414019607, 0.5332115088089759, 0.6678237729039695, -1.0996958813688555, 0.03347880764139336, -0.5297661242376339, -0.576636918724842, -0.30121110555242486, -1.4724466860848104, 0.024865585323131812, 0.6453737667300941, -0.07047722775881804, -0.2203556880195385, -0.6243761757620149, 1.1500881881876313, -1.2946337310652256, -1.41413713524081, 0.6753415480173987, -0.05965300552297048, -1.2804830902519548, 0.1336684111224356, -0.8478402704783605, 0.11215963318404298, -0.45326665084670636, 1.319432019758679, -0.17242439721599928, 0.6420463938892155, -0.7354665598190131, 0.08487466797417614, -0.29391811407559487, -0.335745708802977, -0.9966350255336137, -1.351848549729374, -1.1830109878070338, 0.09900415345489118, -0.6626363589027273, -0.345637015736331, 0.1923293873599084, 0.4084378764291931, 0.8573394809024065, -1.1540423859082125, -0.9368185505025883, 1.3295350105159118, 0.15648229693584279, 0.5029069472868866, 0.12371182852118193, -0.6550076310467712, 1.575712373792526, 0.7834987302303941, 0.7465565521911439, 0.9389128988306354, -0.11252022130422158, -1.0546771052128159, 2.0219794437897067, 1.175136133018796, -0.16137326327559687, -1.0136993393576392, 0.44006589500003507, 0.4769587040624379, 0.09668766435201545, -1.076540304636833, -0.3753485542206859, 0.4406870693475858, -1.5524380133353655, -0.16283381784510836, -0.7989556672416454, 0.36645812378115605, -0.3769510055363837, -0.00506948213611549, 0.4392823986874864, -0.7631781802389619, -0.12996260171407456, -0.04651080599119324, 0.12235970966224882, -0.8000590678970642, -0.7237999385983482, -1.4515429743622483, 0.7696766401257832, -0.4485749191997968, -1.8186191961447433, -0.05610584104995341, 0.31002745859271186, 1.2326334863576478, -0.7999636338190899, -1.4529501461300491, 0.7162626539506562, 0.2720932377579203, -0.7442965446802718, 0.7572686844286659, -0.7742916852956033, -0.9602467609543858, -0.4477195260635498, -1.2886392952839867, 1.4310871416380455, -1.5597213080975263, 1.70558702105742, 0.2871657453296738, 0.5724456006296245], [-1.0473138183944828, -0.09261685307505224, -1.0248924031712188, 1.2644414925192982, 2.2718176687319085, 0.41395011396177184, 1.1744768789130486, -0.526420584094408, 1.495664425765592, -0.3365877321931943, -1.1062122255617775, 0.5567878620817214, 0.1589286665289989, 1.363627236394819, -0.6331100424673585, -0.8333279838507777, -1.9435619910186732, 0.6404992116077353, 1.236019192726793, -0.24189963092149672, -1.1078490222189545, 0.11338529284417188, 1.5564438838763783, 0.812791999435839, -0.26230799264241644, -1.512385255712813, 0.8598653818603437, 0.10876353288554735, 0.7136850947344273, -0.4624807781990872, 1.2922625913662078, -1.448577632647348, -0.01852564180707636, -1.5113884160349558, -0.9200304558627551, 0.898711889316819, 0.5014669722563618, 0.998758038056783, -0.2861822092986597, 0.1071274215794348, 1.1574094671370672, -0.23418757920071473, -0.26775113038881265, 1.5117895722183534, -0.25568669353291795, -0.6707136908874587, -0.5476604294913208, -1.1866383817701898, -0.16691987804287783, -0.253991593235285, 0.32011401897225666, 0.18256026430452385, -2.8262192912209416, -1.168665947883946, 0.7607309622201203, 0.64330145060743, -0.5141965783144268, 0.46502472876775786, 0.4611771025698746, 0.6331812718776277, 1.7193310823097503, -0.060416040219592786, 1.3841788103617854, -2.134939174393883, 0.11025122338878986, 0.11038479101236812, -0.541556243160556, 0.23098463234923944, -0.2967420269657968, 0.8666368972581554, 1.7320779772586576, 1.6047170888987454, -0.18030314936269798, -1.8016281927624342, -1.5284591457410643, 0.7047764707872243, 0.3840771305313166, -1.0616850517099765, 2.3491739750772354, 1.857979385318219, 1.3425809276089937, -0.135019854992213, -0.6923406379930789, 0.43931420283891315, -1.4343529674332953, -0.13256777918181162, -0.01331364840133768, 0.6609160120375308, -0.6434851092602499, 0.9809492518945729, -0.7124161852175012, 0.2646077923043844, 1.5686736083768273, 0.2661088450800564, 0.43340573320507425, -1.0526660225930005, 0.9541806411318019, 0.3199457460891037, -0.14070847641896825, 0.1590380520990003, -0.6818965774487243, -0.012053467506813973, 1.444675989461246], [0.7129357428998405, 0.23983825676426204, -0.9660873253363825, 2.359903625784213, 1.791990487814458, 1.4369507189190054, -0.3544590361409323, 0.03486103838261284, 0.08735290592256646, 0.2031553833352119, -2.0467060884459443, -0.40357949118722025, 0.1903132963927542, -0.843252836950679, 1.0879152553110458, 0.7696952601530994, -0.8674982802281931, 0.9813089717763273, -0.34856567910725306, 2.750822184873182, 2.1635419013176946, 1.3336397673924807, -0.528133894418517, -2.775662131993877, -0.012902320568181967, -0.950902307316225, 0.09411577264792022, -0.7627944065701385, 1.469164945647785, 0.2391823183572478, -0.2594683572324065, 0.7718338067837321, -0.5979703098915626, -0.835861539653161, -0.5913966442108957, -1.0096361822752196, -0.17944048028734313, -0.25440958142036313, 0.5868999179766179, 0.5577162132027895, 0.4652824579155729, 0.45693490852928637, -0.6479004154491217, 0.7384018956872587, -0.41958444540806605, -0.25964354557705366, -0.20616049681694992, -1.761668686007669, -1.7757999798670605, -1.5308187228871721, -1.4732632245553499, -0.7712077021343782, -1.0298330419260635, -0.5612387825708016, 0.8227204630043188, -0.4339501477562121, -1.5512974854025832, 0.7820937052835018, -0.42488955778766946, 0.31475078365905573, -1.12623624512242, -0.2737798381632555, -0.5156138573576817, -0.32144395642955614, -0.5829503956540582, -0.2919742557888074, -0.10021733698649601, 0.1546677527419429, 0.8408278105809747, 1.6954581572471434, -0.006152169349808814, -0.10588248815451291, 0.8592639982211676, 2.0712614276773076, 0.4583032772828817, -2.451579286977585, 1.1023699597829177, -0.2402404191886362, -0.7138731859448052, 0.1620132038078377, 0.4108623038172107, -1.6242829226553532, -1.9823745384415843, 0.08958587556248938, -1.476852153814091, -0.7674090100427862, 0.2424242917548685, -2.1437318772539022, -0.6134669405114413, 0.017768162580177726, 0.33810322556765526, -2.296769766464122, 0.20285029962939505, 0.20141548019805391, 1.2184918039742438, 1.2893472945632065, -1.625587669123199, -0.032089710860870785, -0.35339301423084246, 0.22749517812366313, 2.3919789211555176, 1.4400480017710164, -1.7927037974200328], [-1.547378400736733, 0.3894253987715001, 0.006015838973998333, 0.016432016392109935, -0.735110392225374, -0.7652000390141084, 0.17238966821397655, 0.7449279891871201, 0.3873263973031173, -0.9843404356795438, 1.7513023290061605, 0.4029620246031288, 0.28378998218290713, -2.6155973387479103, -0.5197147561887602, -0.3399814630986105, -0.8965010855389827, 2.113554321058862, 0.6358196086793996, 0.2789421291727511, 0.005542333093824021, 0.19413647497238132, 0.05916444438593906, 1.8746304335011719, -0.34382450818900384, -1.8252395176012235, -0.7124280469291462, 1.2369170741539957, -0.03525118489509449, -0.2547657185421676, -0.9672725942323112, -1.1692095900772683, -0.6233966882453069, -1.857244529241052, -0.4034944149960303, 1.1637520903811533, 2.1179897266530143, 0.24505344594600242, 0.4565362180624303, 1.2596484162135613, 0.4899558546258214, -1.986203457400299, -1.822262100574848, 0.20195982386165334, -2.13645577958708, 0.1491596590562562, 1.1294216122695337, 2.1143058636327003, -0.12124617430074498, 1.268892392608426, 0.6562453971616322, -0.9865611932453212, -0.5205947471966386, -0.22067112648159265, -0.8105534087721985, 0.38118293062194303, 1.856523579723293, 0.6487298945981577, -2.285486425911108, -0.8680212341746699, -0.22292856302069805, -0.2507213796491459, 0.08369021419504535, 0.7649085437109008, -0.27312607922693716, 1.087174006550731, -0.9620975190810939, -1.99038572702227, 0.19411233145056117, 2.3098071627402836, -0.6471993584355109, 0.8013827704079093, -0.4580898498288906, 1.17267861311388, -0.07120825266514144, -0.7093561309734039, 2.4091785250691484, 0.3596734116642231, 0.5796727809007403, 0.7958623992717988, 0.6507836952401529, 0.7673286291414524, 1.269383262922999, -1.5850955339964503, -0.14304634863300839, -0.8699067355706187, 0.9803377112042743, -0.17583686947156563, 0.20676822114235066, 1.4428930113064582, -0.07260225055827119, 0.30550382981216107, -0.4920566637431618, 0.10702654847979803, -0.11718951021608238, -0.785279742820633, -0.6082220784761943, -1.211577897214265, -0.19043446766055455, 1.2148870354200425, -0.09896485091703833, -0.8943136580046195, -0.13856301252117378], [0.38576925887828184, -1.2142232856471011, 1.9018132046594203, -0.06116479678270329, -1.9025048992966427, -1.511809130260412, -0.5891442497585534, 0.3991203702201216, 1.635844883931692, 1.906218995930966, 0.7669544618095561, -0.8263969075739861, 0.4039707438062614, -0.3820060105250221, -1.3218981801967074, -1.6122874541524044, 1.3549941948224222, 0.0941594772723942, 1.8693806995476994, -1.319385966396309, 0.052249876199496156, 0.7270752771844236, -1.2859576058006867, 0.45083353439631285, 1.5487676787266842, 2.0826430611050726, -0.466225757779142, 0.13460293894104358, 2.1520339794175953, -0.5867386083205063, -1.463335881354117, -0.08883521313562845, -0.7997278627764016, -1.1120930311278194, -0.8724127210728851, 0.7822578143284487, 0.42354191116131157, 0.3150275690562492, 1.5245232537039557, -0.646738411632471, -0.21371462289820128, -1.1928595410587617, 0.04947379653489242, -1.4100220329857232, 0.05022945217615158, -0.047352169390403216, -0.05367200939272592, 0.22481095656117503, -0.12697599741500445, 0.2980486574987799, -0.6152245639965797, 0.04644943619870406, -0.18655099617475418, 0.699381830767016, -0.954985322964446, -0.3653708986460819, 1.4001449766905334, 0.6686338433942517, 1.3207057472256865, -0.42695479733761754, 0.8346100446324182, -0.5265929663953243, -0.8968893291431568, 0.12490588929859577, -1.5062255545452035, -1.073780373192363, 1.001467839487891, -0.6166219659038569, -0.6962395898726789, -0.5835756801571245, 0.23092865303989116, -0.2861257451418907, -0.2354099879191463, 0.13073670568702955, 1.3637628828194686, 0.530197844214502, 2.0405923712594527, -1.0286967129370108, 0.3478441617310646, 1.669270830439234, 0.7327158716977303, -1.6668011055162315, 0.9624365970571582, 0.1843325277297407, -0.5149748269186193, 0.07072933848561118, 1.5211652236300872, -0.12161036919085184, -0.48147018795133073, -0.7650505275490947, 0.5599007243311243, -0.08765490220811122, -0.4818871845262396, -0.9494704638572485, 0.6354258318211529, -0.6623156897488293, -0.45904484564734793, 1.366228976745373, -1.4236867614649578, -0.6164282917026984, 0.30020541051907085, 1.4716511736322624, -1.701368636900659], [0.4252881179629345, 1.0976811998879132, -0.0981654070674882, 0.05632873724808521, 0.13563082267806026, -1.211414782486481, -1.4617210761507198, 0.9899297207204952, 0.9221280250713619, -1.8325998744615675, 1.1205649353639466, -1.5059198020668958, 2.3447673192047604, 0.857070634074429, -0.6480138541217191, -0.3471024231875906, 0.7511238703986801, -0.6038443150176954, 0.45236827283339076, 0.38108724832897317, 1.2863007054835822, -0.8289071014373827, -0.8995051376814189, -0.4329254388344482, -0.06788826411635655, 0.7430398236036589, -0.7397308870808884, 0.037160403904878125, 0.5988436493075495, 0.0384434552992274, 0.7490241906656865, 0.0989918950447184, 0.1743229109845367, 0.055925055905649966, 0.3818836300225506, 1.8846379156309443, -0.06520059079821539, -0.04949375744078972, 1.6380272068636057, -0.7873824275210752, -0.7464220467296515, 0.06232449827061932, -0.10705508633001654, -1.6803054300988167, -0.35918738565179964, -0.12139352912575173, 0.17987551401115456, 0.5162717403201107, -1.03197420059587, 0.5340576650621223, 0.6612523540326509, 1.0610035471567487, -0.17704293649145572, -1.0299583748743901, -0.6253601540575405, 0.5876856630048706, 1.1733722814723722, 1.2111099226926714, 0.8238696967972006, -0.5273173366699071, -1.5703366439888242, 1.1541406094124764, 0.27205424783089044, -0.4050285565230182, -1.7630686857657833, 0.44956525577141454, -0.3639265676435401, 0.5132528436228825, -0.7561847207548399, -1.9804979540595964, 0.9252396364835649, 0.72450188090364, -1.2829360893965531, -0.6792413632870095, -1.6791201411947076, -0.01598059562309733, 0.2672691113638139, -0.5048624504676237, 0.9932348227444456, 0.8204696271107919, -0.16136824660454915, 0.16283454861191066, 0.5282788445434005, 0.6386198815182959, -0.7090353231486612, -1.0884902226288427, -1.0324025709960558, -1.2861813624221243, -0.05688881580708803, 0.12081237955081595, -0.8030897519224157, -0.5158019320475544, -1.436845810491923, -0.49481046604304607, -1.0982119744834917, 3.443577157012591, -0.6149555921731611, 2.1521086298099346, -0.1267279982481556, 0.7318594320609243, 0.432656256699174, -1.1230152145839407, 0.5221627362783711], [1.8711764397236352, 0.028364282957236232, -1.0209382160746092, 0.41325881324791675, 0.09419421222403188, -0.21965200238993884, -0.32315233780360464, 0.26979839203195255, 0.20097533554328426, -0.1222644539600773, 0.6942127491814177, 0.7257565442971713, -0.26089357904332505, 0.23482673044764502, -0.07371141036712801, 0.3670637366577008, -0.9420115166612966, 0.9901589956262696, 0.14275617835217627, 1.5183283427799903, 0.16557802756970125, -0.4263152392627163, 0.1698441943669612, 0.6466134069359915, 1.2634027750670325, -0.842219635589061, 0.41613553669488784, 0.13593872049309672, 0.3624290220998243, -1.5548298691437668, 0.21300678383298216, -1.9175315826515624, -0.450414889940688, 1.4834257405834883, -0.46852729784772507, -0.6088111802231823, -0.0946045314459252, -0.2754864991408403, 0.6114263623311176, -0.6664050423928285, 0.120905916510137, -0.39703334985823263, -2.7164192881050426, -0.5382896090965003, 0.025086801744976524, 0.41784802167106255, -1.9648933041231325, 0.47231981642166865, -1.4173152850918311, 1.3631976864372235, 0.1535574124482257, -1.88447599055636, -1.1939876632695519, -0.756271820673023, 0.07157869517794745, -0.6121868972468164, 0.9998982312657522, 0.7769121875936996, -0.9489997028370055, 1.8669664426372519, 0.03411309046817425, 1.4427373300923418, 0.6100974691625548, -2.652889229756291, 0.36039494932671495, 0.00463722222132452, -0.4048412067832197, -0.9155201133118498, -0.6115494999470584, 0.8158839006959662, -0.0744954507111049, -0.4735322838057696, -0.35156084395973203, -0.5855608648727815, -1.173670356078197, -0.2117942366938438, -1.2831202792481262, -0.49570637297088765, -0.32483822388568206, -1.015139078580543, 0.5810091558669803, 0.9980519164162547, -1.894632625853666, 0.2889271305440966, 0.48363477308129305, 0.4021922994876039, -0.6773454080021697, -1.731890603466953, 0.05291160189777995, 0.2246028495708659, -0.4080023285912428, 1.4790125378465253, -1.114194520123103, 0.3712489241060458, -2.1282271904755485, -0.7598306607547552, -0.9375031582919696, 0.32947213317505947, 1.8386591273083344, -0.0018191303536317367, -0.5237227441996736, -0.5738348324982264, -0.024548575991764392], [0.7914436788130995, -2.1410758578982243, 0.6122748517858849, -1.2672745685769613, 1.4842955637561241, -1.4157866618529371, 0.8805841902766118, 0.37905104777749893, -0.21499450669320935, -0.8946145222492397, -0.2615767590755496, -1.856037030427289, -0.2487355215606088, -0.7246975692886739, 0.9593443936076347, -0.6361978241150319, -1.5562948172302293, -1.047291606175876, -0.04432988509586961, 0.19098125530335971, 0.8592002508120969, -1.4608872966923492, -1.0846788664676812, 2.387921300920638, 1.404322812873161, -0.827063450758829, 0.9071871456810338, 0.5016844450975987, -1.9729129802459608, 0.8398460166488004, -0.8054876256546973, -0.1330783742067159, -0.10866772403064487, 1.0976111064173382, 0.9799763756841355, 0.812557894155389, 0.7573066528489211, 0.26552378729491105, 1.8455147780790406, -0.3684916344688086, -0.36082120263809114, 0.4489914858012097, 0.15746252970124314, -0.2526417763939517, 0.5085437627717638, -1.590970835060667, -0.8896634818989526, -0.23010276940045124, -0.013423480169181932, 0.707180404324973, 1.215173854033042, -0.045723256243265155, -0.6145447706399424, 0.28771925697633693, 0.29026731424103536, -1.3554753512493245, 0.8338294261892178, 1.22632865503352, 0.6625550745711867, -0.9506552044933968, -0.02043119429290368, -0.7809229110915551, -1.5128638542728228, 0.47628457292121623, -1.1240001980212764, -0.8365775164257468, -0.17906153064957406, 0.7193549034047798, 0.7839001162444087, -0.5180792698806869, 0.5728507024271913, 1.1091029476179337, 0.9389569746557872, -0.25086438266954436, 0.5800605334311232, 1.6819216092694154, 0.10236144675214784, 0.6917597287622415, 0.8950332388024433, 0.9814432324827312, 0.3609397801046038, -1.8949426510454483, -0.9460692542166058, -0.33673671902861574, 0.1722313108899307, 0.45544572139449996, 0.5498149881536345, 0.6007796873448912, 1.053151115311656, 0.5120768020448313, -0.46174577934323685, 0.05517699426565263, 0.3458296533103705, 0.3430311933017667, -0.3992724752467857, -0.9986131347702315, 0.8302210858393713, 0.2045522589834547, -0.6259943841743619, -0.5687310556434163, -0.5480833949548509, 1.8024708604765503, 0.1491617732213813], [-0.8512939124739968, 1.9444643295803767, -0.5350671079788224, 0.5767437057696396, -0.605131023558809, 0.6286599503221031, 0.07020797653118932, 2.3954957298052992, -0.8233285811668174, -1.4448525719976046, -0.6236560725687386, 0.31492732059853923, -1.9845624340852204, -0.1145500739653914, 0.9134086017954381, -0.14348789196435008, -1.455241442938212, 0.8542863679705655, -0.2535297023609766, -1.2683232664928716, 0.24100711605755937, 0.08728834696891702, -0.1821903457362681, 0.8118912883217126, 1.2397645027448816, 1.1692897790473296, -0.36951197367471245, -0.7673347329469709, -0.8612183687503285, 2.003864937975056, -0.7784662992031633, 0.4308833375866264, -0.4882710606099253, -1.7861831150436165, 0.020892973696981718, -0.2036562601853279, -0.5400856367698159, 0.7514882960888598, -0.756841610849977, -0.0835376398932791, 1.300265147764639, 0.603588516468136, 0.33349912027727396, 0.536530118317026, -0.38209182400241026, -0.830250105627598, 1.998314243658625, -0.17167794003701226, 0.4359336555374541, 0.17700069216265824, 1.3037763603940498, 0.025143940419893436, 0.08106920529959707, 0.5966566283388853, 1.334782635135962, 1.3654305422915858, -0.8790554424054488, -1.6002108078375172, 1.162065479315658, 0.24990368160907808, -0.35106883036437847, 0.9486559690790631, -1.2365714545910682, 1.0725529791334858, -1.291046422778994, -1.5025301199281018, -0.09633009508332652, 0.5828041962009057, 1.7397183562457856, 2.310187415250164, -1.3795171521113139, 0.11723660031698756, -0.4296732384569978, 0.5475720531459713, -0.5733942012738104, 0.3848554208480611, 0.9073699141487876, 0.42591804229440494, 0.17690240229370416, 1.208222341077926, 1.1649136142159155, 1.2985629013899767, 0.21653798830685228, 0.6769178164218046, -0.4588088326189767, -0.039410520502294065, 1.884708979889549, 2.4732913753285, 0.40637278262174426, -1.4898133124979605, 1.1086444276925345, -0.9489798407094269, -0.6002857133791978, 0.07455785393828553, 1.0262189303765923, 0.2539346948642033, -0.6634607350549863, 2.564577786479536, 0.5030030766139704, 0.731925075111613, -0.12205783738721673, -0.6737781403767384, 0.7950166381906727], [1.097760549109943, 0.28928973131682534, -1.4829797026933897, 0.09663975263821925, 0.47089557037084384, 0.4946477087059295, -0.12197955322544442, 1.2855606654869263, -0.5815289677727743, 0.6962237556875306, 0.35915155651830816, 1.3173597618747024, -0.6417478315836581, -0.008724331498796417, -1.6839508211902212, 0.9741801566774276, -0.920773263388609, -0.028023108713244517, -1.2162077299594403, 0.27534892905416325, 0.1629378534302058, 0.013745392783471748, 1.089656739134314, -1.94639112873644, -2.10783047691089, -1.2407427093485783, -0.17687893568348206, 1.6448741169994991, -0.6017688631041188, 0.7781925521718637, 0.021915090565741667, 0.5310759836328731, -0.3436833730418373, 1.0713204504594747, -1.003414142585248, 1.9119182034864686, 0.005002029590232719, -0.2689300611537375, 1.3219775382664076, -1.947995477616662, -1.0818825676070105, 2.08279392366371, 0.49809452113808733, -1.0325322114557005, 2.2125257737249804, 0.7675147433114736, 0.1995450590816452, 2.3619845038787073, -0.2769224881712341, 0.4216599412779874, -0.8914020519685991, -0.1036080818989144, -0.9792818191162865, -1.5474434990699655, -1.0353282700068103, -1.6757022474984, -0.7171656335253304, 1.8630576938930132, -0.36770471366773855, -1.9091763176234668, -0.4210092595845597, -0.07453714234757082, -1.6247202497321098, 0.7973874588344712, 0.27308489408587844, -0.32536096892170463, 0.5355449283283452, -0.33809435207436345, 0.5397040859606181, 2.174105517218092, 1.3917658894769367, 0.5271182665049883, 1.2166957899488533, 1.1445686854660233, 2.207757885536056, -0.37466127351902767, -0.9463216153851206, -0.783346674453966, -1.0313303667861857, 0.4829717535098568, 0.08068053863962465, 0.3851610550485355, 0.534426314122225, 0.23564631293372623, -1.798064624158009, 1.1081507017032641, -1.9720979833089018, -1.0147749572809748, -0.12658341090608707, 0.2841457431016134, -0.38653932525541373, -0.7668303256269253, 1.076478412780483, -1.080669365857079, -1.1825411650922464, -0.37556809051106266, -0.10355977250511614, -0.29883868157940235, 1.2790382220458043, -0.2673699004432637, -1.8420696925124789, 1.7926876502501166, 0.5299290265346982], [0.5133790401348608, 0.2619502200904746, 1.4303752092096735, 1.075369387839612, 0.8569464281154183, -1.1535443670788241, 1.4634870877339927, 0.6680593056517873, 0.5126439015339979, 0.23986468153116616, 0.8169166601367742, -1.0971746176551875, -1.6797464999584097, 1.978433988254884, 1.90955645534692, 1.0265625413708184, 1.418101729839992, 0.6804805844345901, -1.4013670846985202, -0.3962254911239336, -0.2473384563569979, -0.4253248237479475, 0.8941597873744649, 0.4085419356551882, 1.3882904319079596, -0.664236130849093, -1.6636568155923437, 0.9168291905083024, 0.07650720329711792, -0.564073023113419, 0.09336890017557882, 0.29798869408162554, -1.5747649556267271, 0.4962649580655321, 0.6154963517282466, -1.1997110002724778, 1.4524629766496129, -0.8891823782581992, 1.1979533662647732, -0.19129812035535942, 1.036764408480968, -0.3250003887364762, 0.6469544106701547, -1.4697342050352455, 2.1248236336408657, -0.5509949864488146, 1.7457868688231029, -0.9216389055611369, 0.8578439628723169, 0.15750551664445572, 0.3664418247714832, 1.5650286984931412, -0.8093203774758019, -0.7647943432276294, 1.6605104269043078, -0.22243200235220237, -0.10119079656646994, -0.05404084338238845, 0.654440339795823, 1.374402441343305, -0.2278586505580715, -0.700304287122288, -0.8629873790691968, -0.4546405332106395, 1.1158436856306113, 1.003037141861121, 0.4361236650009234, -0.34676021785580663, 0.9262671428290429, 0.39824136024378776, 1.6714560478224256, -1.8038110665374605, 0.926160803839215, 0.6001478604609966, -0.2406875047587605, -0.6058633559692607, 0.4927429285181766, 1.4801759435698534, -0.5332460206561356, -0.9406008011733408, 0.959454667779902, 0.10618678397714262, 1.0625559283433388, -0.7008945492021763, 0.22896721704586742, 0.035773261584925706, -0.41713074326780264, -2.088098978201478, 1.2026769927340282, 1.237310259270065, -0.3281352238509157, -0.8590727009977712, 0.6110838271356398, 2.37455622729386, 1.593122673580425, -1.5496651068885416, 0.5007088555831752, -1.2342429643997284, 0.314043040918067, 2.3204694070635643, -0.9807870501261523, 0.4325861184677076, 1.1239305866886116], [0.5859106819366158, 0.9654821778660678, -0.23287702931318816, -2.0545825082555043, -0.809701222915749, 1.526137030593786, 1.4244842744151833, 0.32844062090963827, 1.162029621062985, -0.9503702820917622, 0.36853463053389196, 1.065156910917354, 0.5197728781092307, -0.6142274351359942, -0.2885170351030603, -0.9981246013835039, -0.02959568708569873, 0.15173192042027078, -0.7960540985932263, 0.3442192681293713, -0.5632329225825067, -1.1574024461591232, -0.9820169886630417, -1.6878635433628828, 1.212582512352777, 0.4204598680963857, 0.06446527143151622, 1.9920860548354433, 1.210883518145043, -1.053771716432048, -0.8945782886935906, 0.8894616661498178, -1.326982941828144, 1.0458462983060024, -1.541503030822138, -1.1440317474366761, 1.4847982667907034, 1.3277823071803214, -1.0509430571694733, 1.3274939083853345, -0.40945175035104403, -0.21685288650312984, 0.3654161407005769, -0.991749111997955, -1.7471423726526973, -2.1016238376925966, 0.7712667740220457, 1.0122618090597242, 0.2391092432196876, -0.617663334459708, -0.08866633437371342, -1.3379782481346718, 0.29362366321738287, 0.9459626377725435, 0.8931463848793906, 1.0901351112865203, 1.6576538073151574, 0.46549696996290396, -0.6944063103069394, -1.0393652468137995, 1.1617310345041554, 0.12426457881421644, 0.7380954470759641, -0.47981334127234365, 1.7638522419371347, 1.9228095266885343, -0.5918032705280107, -0.04902013526532465, -1.1867421945205976, 0.3730671674235328, -0.14744445620681906, 0.06415950516756334, 0.4502575223675298, -1.0769753599576948, 0.9333319613270653, -1.5027607651189636, 0.859109768143489, -0.3082233690637523, -0.5638643327569892, 0.40051140965369303, 1.0357451647153977, 0.1644123008372133, -0.02947934766590535, 0.12967789324025372, 1.3453628287966408, -0.576518698219912, -1.8905883219408914, 1.1099169029100728, -0.9126064507114044, -1.1095945293372804, 0.695585706105277, -0.9099220954344165, 0.4345119320194136, -1.0419123533913668, 0.6952476621911436, 0.2059551637883586, -0.7107097550005064, -0.3934604627965555, 1.2079702465987505, 1.6689655890534194, 1.2567106342023295, -0.0742534898028405, -0.25669219324886783], [-0.9211874789136698, -0.9457443552981284, -0.2200435204749895, -0.8724563290502262, -2.4325743615113598, -0.001740651886120145, 0.6657901952198011, 0.4218401373174549, 0.09419387479257778, -0.9778820152436032, 0.7826016774745213, -1.46960050137947, 0.4451871120157326, 1.5996508889207641, -0.38449676035640834, -1.0281924382598258, 0.4562717693190661, 0.18969917680350465, 0.31514845670931135, 0.03026375987419617, 1.0271378702228768, 0.05905688361772035, 1.8754065182650699, -0.410972319646969, -1.3589489988732684, 1.4256838802232128, 1.0436436633172814, 1.0355202304000135, 0.3802478019862049, -0.13646426900134728, -0.21173206508559547, -0.8145360418069676, 0.9997244514641389, -0.7767649863551164, 0.6348777439187544, -0.11196188707741364, -0.8355720477517313, -1.2081665223601992, -1.0181468957207103, -0.6563051891596174, -0.17394700398175753, -0.25354336632141683, 1.284537828189634, -0.22043686772993046, -0.523010256434588, -0.2425116021236063, 0.7895501499955194, 0.3822144393546096, -1.068409213437883, 0.9080556761123665, -1.5433757289035992, 0.3171623780493024, -0.8411186829359228, -0.35544620018039585, -0.32790466596236095, 1.2561736927713043, 0.16717906423319828, 0.39123425160049613, 2.1789629996745496, -0.6637794198857988, 0.28817425473376956, 1.2703307372962034, -0.8612837349722177, 0.5109046294473977, -0.4263840868973195, -0.260930933669573, 0.7391114286148545, -2.2849695659350746, -0.7373325732892029, -0.024021811321579246, -0.13791520634115323, 1.9933960085503861, 0.2548030910894413, 1.8842928236782672, 0.4016506588010908, -1.724722365272693, -1.0784074056459614, -1.3276813760472956, -0.6637004923087779, 1.8409894945039653, 0.5723798579248338, 0.3861307111141267, 1.1397319654832916, -0.1652379359360417, -0.860193778884261, -0.7619621214743557, -0.34547861386399864, -0.5496407204162388, -0.1560655506796505, 1.1863999610397495, 0.6524967344149655, -0.5153435736275751, 0.9964381417155229, -0.5530409307763012, -0.013164266738869772, 0.2899672680716547, -0.22980910121113532, 0.7332138574908118, 1.0822550628164902, -0.7339628615787873, -1.8170449255310497, 0.49478774085719757, -0.9919631592420927], [0.3246273606036086, -0.5233026394528111, -3.064929048123747, 0.08754673449914001, -0.30143238229923636, -0.5080109987418043, -0.9777116937687436, -1.0721385827779797, 0.3411360905074854, -0.1602731591229674, -1.1726522447287173, -0.2987891039454269, -0.1598681680876345, 1.5284265941212143, 0.6451922922800716, -0.4545637563938392, 1.7666883859785678, 0.2983920314780972, -2.055973075972235, 0.40944677836865595, 1.3883832096130606, 0.6893067442619049, 0.511992036203057, -0.6316884393208609, 1.1958414692662551, 1.1017643796983303, -0.9678276524274052, -2.1942267839644995, -0.08461636950327732, 0.6489754755926019, -0.17850187246392954, 0.027141111398963746, 0.13105627048199534, -0.6925797014817242, 2.3291260679785815, -0.32605787145414594, 0.36765926565516044, -0.2064318140202958, 1.741422923844523, 1.3484876156083012, 0.8267660465009176, -0.9622090936232549, 0.4427517330865995, -1.5609085428278182, 0.3756169901930811, -0.5967263484347897, -1.5750082317761516, 0.23670789217951396, 1.7922825706412842, -0.6494327069179937, -0.9375524779981103, 1.2252431145656635, 0.7857931482628396, 0.13095486572498005, -0.5667962626597839, 1.6774733358700376, 2.27953764005673, 1.3465949224196114, 0.04961628541004584, 0.5689464324289879, -0.6808947609317441, 0.6604611526341124, -1.208036609827606, -1.6528651954589568, -0.018830908874917653, -0.3931625672017714, 0.8736589465295453, 1.9866435570569794, 0.04406443453804488, 0.21514400031790468, 1.1009420148274305, -1.9925007073982954, 0.35543033616230857, -0.6293483697924381, -0.24107899379068867, 0.0004841390983586861, 0.25195300861959563, 0.24543168186591843, 1.583062929007742, 0.04333653111150258, -1.3985745604833344, 0.9106857953300992, -0.562076614764451, 2.0535627225026714, 2.167478990685204, -0.2809188290922211, -0.4370772398099206, -0.9789081573409333, 0.20418134772614338, 0.7847243251924106, -1.4112032934310283, 0.6366384897942847, -0.04804421250703164, 1.082371614570376, -0.7058363222857764, 0.324287642410755, 0.0002894614672574326, 1.3730884554743117, -1.741222194457283, -0.2711682078377341, -0.623148930152472, 2.695506312632456, 0.26034473408622394], [-1.3617335174772696, 0.8906372547573127, 1.069339191300353, -0.7063219713648738, 0.43004860572364506, 1.3303696470226292, 0.9121512929473553, -0.062011852550388206, -1.7469084738625489, 1.3403486461981606, -0.0613507846403839, 1.8945747642977178, 0.7186125733826586, 1.4349910586639298, -0.7275317605350591, 0.666825027169703, 1.5771490399727437, -1.2020415965661861, -0.7552318975264972, -0.538928892672933, 0.35514759676423296, -1.867858337513964, 0.6510013632035334, 0.1991861268155002, -0.3802421523752985, -0.14920744113420156, -0.6049031926677972, 0.17016222506119225, 0.8042557511294774, 1.1842334791579798, 3.057315784712121, 1.1449980541914175, -0.5428056300262666, 1.3139490889855947, 0.5044044363814827, -0.7116747796111194, 0.44958317360649813, 0.17751957159468124, 0.930393951964783, -0.06335355698954058, 1.3977878438139393, 0.5527024328234177, 0.32860244002910977, -0.4921529012184238, -1.086988485789559, -0.7795618101151026, 0.2935733380991818, -0.00589563843527452, -0.956518157964129, 0.03497137902796133, -0.24530686437681834, -1.3205597599746004, 0.09644891521337352, 0.24960851989684568, 0.07846431194546809, 0.5810649833710397, -1.4822242625604183, -0.07896161353149965, -0.4193727518708812, -0.0058844165261938645, -0.6430010549265144, -0.013380098549657079, 0.6072039527328353, 0.4043794150390908, 0.12617494517406427, -0.4701134986393709, -0.3393200746080122, 0.7858845265704034, -1.130805837633561, -1.331009063966226, 0.019936372476873524, -1.090076188285595, -1.311993091868775, 0.34042008764197446, 0.9687404268366387, 1.6184891695386001, 1.1998675669177379, -2.9439650412255163, -1.0476470391333699, -0.16433410757007297, -0.5690294163224432, -0.8352568533873072, 0.929790612324948, -0.07531735995178775, 0.7245790311410617, 0.4895550899043379, -0.49750862486235475, 0.5162400006051373, -0.9465507836404745, -1.4225508193165488, -0.048467988639676995, 0.19803589205096972, 0.058444310816282055, 0.7669145052710371, -1.4026155676895438, -1.6927826111079158, -0.2331369094641018, 0.08679544615844405, 0.594022125133494, 0.7323776969868092, -1.2376188158524533, 0.6604048232087819, 1.3660319239918515], [-0.8416644116198675, -1.4153088089374868, 0.4906879987609773, 0.08473135837185948, 1.5206747697715397, 0.5753353967400701, -0.14560700752736258, 0.8756074430691468, 0.7903351645103734, -0.6336848425481528, -1.0483387925940157, -0.23322087292058102, -0.08457285157922242, 1.107849238164697, 0.3675676184665208, 1.2186181289932827, 1.2110602853023082, 0.9086416304234752, 0.21260447261455645, -0.5894227947435506, 1.067569340746053, -1.0567149764505155, -1.8114876933388993, -0.028833536697906947, 0.20842077257676378, 0.5574675178405409, -0.3104514846490549, -1.1476998928290332, 0.44398030128573346, -1.1474463002160464, -0.04004334455609819, 0.4416120276815324, -0.7830763428084905, -2.194801819275285, -0.25745536772920063, 1.1738205225647407, 0.8533490457735556, -0.566853122406727, -1.3802215227960843, -0.48695492272759405, 0.4349041080244484, -1.038625579374657, 1.1166220227046961, 0.2796476743256215, 0.8646681847979791, -0.358166466895486, 0.33148907735479904, 1.1936978804030915, -2.635457411766237, -0.19939418493893848, -0.2434437347848683, 0.3106551928547126, -0.10942018599794587, -2.24110525532237, -0.02684958884352902, 2.1873881468033, 0.4399273219345667, -0.15289775237539982, 0.6008248695526692, 0.22107256994732205, -0.10248283159455844, -0.15364402131083804, 0.9054346894774995, 2.8403751303590523, -0.4376810861160056, -0.7459798666869676, 2.3664505197375187, 1.295347562064424, 2.0740764553442266, 0.7629311689705848, 0.49745202760457585, -0.13535670041376832, 0.42925857119301325, 3.1508683860533107, 2.3828268918145374, 1.0317198307215496, 0.1126869916718963, -0.8339436297064527, 1.3523056917396534, 1.733577089861537, 0.7665767383513303, 1.2971141522501217, 0.3664707361472706, -0.9818325212160426, -1.303454506971147, -1.2172649085204115, -1.0755418098327512, 0.08689229653756501, -1.0645833127433293, 0.3416462386401544, -0.8562338601195366, 1.1614339402352514, -1.0336572923050724, 0.29034169210556315, 1.8528834928166418, -0.7586836702956224, -0.41832290481858225, -1.1382032962227369, -0.21132700532980203, -0.2882165078655368, -1.0841842948131237, 1.3682267300221245, 0.36958353043093234], [-1.2548910605253496, -0.6259935333642054, -0.1675698654442549, 1.1934812210765693, 0.34075543377811907, 0.08354827210370448, 0.4138265060519908, -0.15804548476889713, -1.5126784624238512, -0.453505933360553, 0.7384809417614316, -0.2966927407417325, -1.1757272830891583, -0.2485407473530862, 0.28622552132501444, -0.43978568974570786, 0.4828730348877145, 0.1663802077734513, 0.40022909019880887, 0.430999008611766, 0.32720039703394493, -0.018583671865920463, 1.1489923274236273, 0.6829572926934816, -1.8699714619054064, -0.42396272986800415, 1.4252402074893544, -1.0120076902157116, -2.3469720289372953, 0.31500532734998116, 0.3980943043979895, 0.4492330866057096, 1.3539239870113187, -0.3420812936829617, -2.1441647350838733, 0.9267891589639744, -0.05266673281110673, -0.4638269574900023, 0.5786354032563557, 1.1213913756354583, -1.0883001585215137, 1.1753510591053986, 1.7763292698447493, -0.6460554368763721, 0.3268756974457469, -0.7237411284536169, -0.7865065724865414, -1.8723618953326135, -0.09692408326735168, -0.11910873848440573, 0.45972533339148375, 0.008061885739002682, 0.21107843802636536, -0.3673605182511905, -1.9636539329350513, 0.6373479365907007, -0.8233142710620858, -0.24179922916194144, -0.6301019500764904, 0.7108623468207095, 0.3344854141542913, -0.5730232284082317, 2.056049499840623, -0.7501974099737988, -1.4098081714967257, 0.8457320394552534, -0.27061159961868336, -0.2300935276283999, 2.1403559619380563, -0.08352115713689572, -0.4440176937363009, 1.8311075231523837, -0.08860083943618742, 0.3665559993528177, 1.043327498054159, -1.6832063950826832, -0.8105838608962597, -0.6979656941257857, 1.3071923148585218, -1.291428983948406, -0.13107075465732926, -0.02644908218238452, -0.13165972804874868, 1.011301214772574, 1.2921363460359792, 1.6068650653411585, 1.131035747361672, -0.3331241283021434, 0.5957803902016998, 0.07280936053233998, -0.5988416399490404, -2.472646687209821, -0.2691934483699661, 0.9531490662628928, -0.9690298634013419, 0.352487580976747, 1.3464812163747706, 0.29301097186714575, 0.11424636653347335, 0.00949800301108178, 0.8060204662316988, -0.8405159604882274, 1.153339648773364], [0.6944063285658291, 0.5025799091600858, -0.7264289768715227, 1.2382106295229744, 0.22433334070658384, 0.4435851414299117, -0.056690786632139195, 0.4648139072736386, -1.8713680038663574, 0.6466704135989649, -1.0608218732066848, -0.15534859336696952, 0.037163820969287525, -1.0035070605268546, -0.9626239618284109, -0.5879951295994245, -1.485927679881908, 0.5739105376766281, -0.6933308932598657, 1.6918464082203137, 0.7611852048633097, -0.09979870039803007, -1.1659612379373965, -0.0798387811436941, -0.43033718582515423, -0.3757877463078813, 0.3923486792522284, -0.16993743080557747, -0.09937983311290506, 1.091218352011065, 1.4753579354776563, -1.001519094389781, 0.3864488655463226, 1.3259825701111754, 1.017677802330527, 1.1120198592921828, -1.5019702714544412, -0.5168126972849595, -0.774759334444698, 1.020397252422589, -2.5250569445340014, 0.39628797821174355, 1.7753974710208762, 0.8719328527278004, 0.30061471538578854, -0.5629261902492508, -0.025964698393229853, 0.2392360714882011, -0.8295436653796034, 0.3172511305903807, 0.5139913517687259, -0.14240556088591128, 0.7912980498817396, -0.7257657151966289, 1.968744385457157, 0.0975585369572304, 0.5132476350861225, 0.6459736765495726, -0.7181123644970612, -0.3303039541565612, -0.7853427776943545, -0.9202616828413097, 2.0152495672273347, -0.4131208118271046, 0.8170379587338531, 0.7914736664229788, 0.20364211549285427, 0.35829084214461143, -0.5489897901936168, 0.6860902376464408, 2.1388592752876274, 1.0116129019675901, 0.23461195473122393, -0.8732912165322481, -0.5990977661489184, 0.10813481565005939, 0.8650388997054624, 0.5309496101723817, -0.9724023081549094, 1.7847578638416481, -1.6338523356766657, 0.9713408819777768, -0.41248554285004824, 0.549219318678344, 1.1656186973658655, -0.37983235219444283, 0.14493223711260764, 0.2484095657451251, -1.7124924099548617, -0.8706274477575762, 0.38754660110676953, 0.6295280689495504, 0.6522011476009343, 0.657008522594083, -1.2116204867264533, 1.5462561180592649, -0.3064217533757943, 1.3499095823190745, 1.7425723076543194, 0.5317085107815773, 1.1194134753641405, -0.49264507548635744, 1.363259458239254], [0.9819160485265087, -0.04619368979914626, 0.6015106340642262, -0.3098149175118112, -0.1477358231912544, -0.7949480738017602, 0.8467262179019314, -0.28188967122284375, -0.15189664559383867, -0.4838644961800966, 0.9037813143374012, 0.6031889754656787, 1.210489542303857, -0.18617378280518662, -1.0334299613013125, -1.6269389527116702, 0.5101164488620864, -0.04383439374495593, 0.5645010982648475, 1.6055783367559244, -0.25302678984843396, 0.591078255592571, -0.8793172475689415, 0.4810810850138781, -0.7110636947294354, 0.5761746227581042, 0.47228906226076073, 0.9320461439829523, 0.14204837938766077, -0.011589634647770271, 0.9767072336090996, -1.7557001941505728, 0.8911440306065316, -0.43184436653982444, 0.8325194300446657, 0.20245330595498745, 1.0121052104629855, -1.6814441842247243, -0.0007249551440098935, -0.631231154524372, 1.276234759941887, -0.8358662479353843, -0.7909348597271291, 0.7941091749458414, 1.07404970704547, -1.0783570267024618, -1.7508538956419024, -1.5450195309246033, 1.145733894475389, -0.06302014080696466, 0.148500849025415, -0.5732930653981707, 1.5040137287177606, 0.6332150931232241, 0.17217691335376453, 0.4700473916211135, 0.7120563331078829, -0.08675513050026507, -1.4712317268899069, -0.35027780580327034, 0.10765018434851557, -0.1893424372724169, -0.18983340549954922, 0.15987047096142343, 0.652833092233592, -2.144227277465091, -0.7775564477191517, -0.4189063571285913, 0.6219429685368658, 1.3431493871555145, -0.5362161897891127, 0.36296974412533034, -0.24044218939713996, -0.7152087586797045, -2.3405174745493897, 2.117906025234683, 1.213674673625619, 0.09578474582056201, -0.8079575085467868, 0.23719668554826265, 0.8354645367720729, 1.0692682541440284, 0.7516321804271205, -1.5902517489355739, 0.6119826485234297, 0.13584772111158622, 0.6731636077517856, -0.7705167866813851, -0.15398644371810286, -0.08145691240366273, -0.7422705714410022, -1.3378336467120815, -0.9037406809131038, 2.292622458677591, -1.8221254341524658, 0.6153675809799906, -0.6215719598335236, 0.11012571030115231, -0.4095687906115714, 0.020342224353108836, -0.7900780316954472, -0.36764014610896556, 1.9554395682110655], [0.3972325551375128, 0.4327371259167535, -0.9541517959334802, -0.24907538330895782, -0.5932303488574728, 0.9180017673927893, 0.6559009757600219, 0.27161648390364923, 0.14863417637334372, -0.02987674301049741, 1.6057647975351315, 0.14545181345350966, 1.4648452636355662, -0.513900259801939, -0.9988073873982967, 0.46961560480830805, 0.17582295986482568, -1.2046025598403647, 0.17221076207092884, -0.13037021985954228, 1.8910640057859653, 0.9546371356698231, 0.6575515536498209, 0.5641903831860033, -1.2217595953409954, -0.5946781099116661, -0.5483719542876897, 2.0548796354553183, -0.7168763761826673, -0.0072886884003849845, -0.6331213161413191, 0.9802375668294658, 0.8229775761415196, -1.7162351537577647, 0.22120971820121843, 0.4961996436754873, 0.7458608095045716, 0.46908796481806586, -0.25127437206941433, -1.39716444888123, 2.1624364770974673, -1.5904009600863063, -0.10879561503934732, -0.6842120444942188, 0.11494403291585298, -0.5245179558645542, -1.232674092783395, 0.3062083551397517, -0.5731524515909479, 0.4423513147868807, -0.506880382689074, -1.360680724197292, 0.40726833385187966, -2.026807436380913, -0.2961691839965795, -0.7735792522018408, 1.5368853098388393, 0.6521014624255907, 0.8936763157036005, -0.7444111091773364, -0.7100929494738959, 2.0308519024270226, 0.03553890727076034, -0.8290253716336659, -1.2922118422149154, -1.052835174088933, 0.9684889525101074, 0.06624003659261679, -1.2827631177474066, -0.2594483518202408, 0.9263321550433199, 1.26617654230361, 0.195838129340506, -1.2864979677341168, -0.12666296149871728, -0.8036019552346075, 0.5323861237502376, -0.27264067733758435, 0.610149508232069, -0.7830867774003157, 1.0504056028577582, 0.10163229823298904, 1.783258564185983, 0.36213046844302876, 1.9440640089180292, 1.310031848925689, 0.5496047547927355, 1.891876503168513, 1.0414026594826133, -0.2637562894269602, 0.2764601719724868, -1.5958114536664147, 0.26630953601744234, -1.306560708368589, 1.6621714872661573, 0.929177992394763, -2.380876208712824, 0.40525624551790057, -0.6220798560310526, -1.1686164875039367, 0.4311408485379556, -0.3988986414387029, 0.13134364919776756], [0.9255085212460604, 2.3291047269254785, 0.8933712589293195, 0.9276102838313411, -1.0125571727850669, 0.07298030233158548, 0.22777776247895914, -0.49454239151709184, -1.8844715200008852, -1.3297225505901857, -0.01647064198702685, 0.2792772865320979, 0.7215966657564852, -1.0512206194922609, -0.6498728199902498, 0.39535366527644766, 1.7601553573703939, -0.7805068589269158, -0.4621634379831352, 0.1668195938299573, 1.486655658628298, 0.3737898767119436, -0.4917216620832178, -0.8561454382043007, 0.3593242323786795, 0.7418421965484276, -1.6316133839653209, 0.08330297925581664, -0.15462426647889582, -0.44983472475500186, 1.2032310487544569, -1.8870435751963586, -2.882920134273875, -0.7214157368762775, 0.34008696178603337, -0.7397643162579965, -0.045992426410550784, -1.0855142088534475, -1.761276156600379, -1.0371590284555483, 0.77327449398058, -0.6890953756934642, -2.207515626252789, 1.3298105204677653, 1.5829190083863025, -2.0517898822052905, 0.6308561990369297, 0.45991837241900274, -0.01001218906798196, 1.6820692171022211, 0.7958960435542936, -1.547739737585871, 0.7551116175638248, 0.09023923157494919, 0.6977700687312614, 0.08520068743134267, 0.049195720495212106, -0.2495540698131488, 1.3626964285746719, -0.953239888846818, 0.46838433810089714, -1.427053052364051, 0.04953224567307409, 0.43003518227254206, 1.2240965385553115, -0.9493684648327498, -1.4190627433913796, -1.741598746297408, -0.9518412024225209, -0.7122039353020032, -0.4174804872270394, 1.5240592508138078, -0.10812350431627224, 0.8779228701684477, 0.9196310582644717, -1.9243376440793085, 1.4806344612183382, -0.6386929847062119, -0.19037415256759777, 0.10339466360848408, -2.843378635509432, -0.19782439787463305, -0.7346954131105052, 1.9343670685821668, -0.35804144167365376, -0.6030034688891507, 0.5254497741585776, 0.959822925113013, 0.2211555683918827, 0.20641036915364605, -0.411938243846723, 0.31456438566133704, -1.5411856479176909, -0.4197826558004479, 0.8310385500710091, -0.4798757706188328, -1.7756381568987663, 0.8330860608775114, -1.581336958831419, 1.3680496061158303, 0.39545927786691515, -0.4182273999925971, -0.1308960689376196], [-1.730846346848492, -0.37535650631850465, 2.4451547600853005, 0.12302413552019892, 0.6746415864077714, -0.6308506149658574, 0.0662970384844139, -1.174936278986423, -0.40310618458996067, 0.06875777693460218, -0.8045015274045342, -0.17499900348707345, -1.48804664056577, 0.7793310413362634, 1.2993365191847852, 0.16184687852941976, -0.271718416303388, 0.2788347680461427, -0.19906722952422393, -1.8156182138128194, -1.5938802983074862, -1.058519258285287, -2.3217364744889535, 0.007029267818883387, 0.1619981374309808, 0.06452917534848122, -0.9760182239490611, -2.424031040733737, -0.1287897977385058, 0.4590478576926988, 0.4253412188467043, -0.70025498136329, -0.35500791417638716, 0.6197211918845488, -0.5732262249237975, 1.4810169720043451, -0.9273958368070226, -0.02514908763261729, -1.1274435359769477, 1.0424839600625444, -0.19201246878750458, -0.7393037394550029, -1.9503449166768374, -0.9987258528467957, 1.3739006477717828, -0.02622930224870987, -1.052545817752528, -1.1778333056110857, -0.1434536116409642, -0.346039616906207, -2.363024721881911, -1.1622249885356737, -0.42451177183224903, 0.8500546428376823, -0.9036767948952532, -0.6216904823636871, -1.7179252091751585, 0.6150091435750923, -1.0572389249950382, -0.3421613923773543, -1.3305093764677327, 1.650669081352353, 0.6061623697741878, 0.2349946224524514, -1.0289964995279308, -0.439036237431787, 0.768360700897613, 0.0014301210536116441, -1.6197334998594075, -0.6495362656617465, 0.04662868535362703, 0.4489855031498163, -0.9775652516122648, -0.5216797074020618, 1.1415471200996303, -0.17166818081300247, 0.2981431407333371, 1.378547959239821, 0.44774026810421946, -0.3128709906314597, -1.0953649411643838, -0.5038712242965749, -0.9812554347984651, -1.7674982137547672, 0.46052582295067557, -2.064713982999069, 1.096225421151061, -3.4130961666300035, 0.17746560487453433, -0.2223312930203708, 0.9913504187344798, -0.33801888917893597, -0.6020268962481902, 0.27775223738016014, -0.9645332858109832, -0.734241831161366, 0.2020524382321977, 0.451193787946206, 0.4422725864790126, 1.9323607486863044, -0.7134264848403785, -0.13307916115415208, 0.20335141724955977], [-1.9685665474624456, 0.6489368394382169, 1.497627217727602, 0.5036981727417578, -0.35226746228641626, -0.5693521694301673, -0.11334138415650259, -0.6425090740005152, -0.9669686825094035, -0.02390740764607488, -0.35243318654963846, 2.0530604846468647, 0.5636976076238028, -0.21403065403943383, -0.6536759808934727, -0.6134508063146553, 0.3878651705464609, -0.1631483088398655, 1.4437633610771101, -1.326064925731142, -0.06321024014740159, -0.19401253462152235, -0.28423023538782966, -0.8681719287128762, 0.7906460149930383, 0.6206293783786611, -1.280342285386968, -0.7874894449900918, -1.4182743392727355, 1.8269001216311849, 1.6280037112097705, 0.13810844781650383, 0.036604548539341863, 0.2199866174986799, 0.8873938621618693, 2.3343315395779936, -1.0392984597378154, -0.2097348470238387, 1.7693669265282208, 1.3822210336878313, -1.130621706775448, 0.1607432068969111, -0.1212891081185173, 0.17758160533818043, -0.5810871562248352, -0.16734084542891306, 1.4168781363511707, 0.9442482744710915, 2.094884558786834, 0.04806711369602153, -1.8098837785051536, -0.2383854867428778, 1.541378950609146, -0.1566916032363873, 0.42460154453322835, -0.3661818218439381, 0.39478347954379805, -0.629347182178299, 0.6702065920092225, -0.22804191687348052, 1.052298617156098, -0.8660593299715517, 0.4803435996365025, 0.37622965280033877, 0.5319542852747884, -0.004782981938700268, 0.374320566855087, 1.4631160860859072, 0.22821534237584382, 0.3613296604372354, -0.49460532148597763, 1.0460603021180854, 2.8339457509462718, 0.16239894466458968, -0.029864527381190265, -0.3130268427098187, -2.177172321839727, 0.4606920057640457, -0.6896538126004741, -0.5413557758034497, 0.09230732733917921, 0.17654492029963376, -0.960296185399167, -1.2285174912356844, -0.3771518668830821, -0.14700234321231845, 1.1697480992636322, -0.09203169023886701, -1.6482941992803102, 0.5360835957829742, -0.4541429998871886, 0.6677755754812923, -2.168344442286645, -1.295940941611579, -0.7160472348241034, -1.2788265103184564, 0.5292116113031939, -0.864266518429929, -0.47295252036411956, -3.479007588907667, 0.025691865168622933, -0.48224130253081904, -0.10430973665764554], [0.24121441654088374, 0.509140359757727, -0.8768360006809992, -0.20847651966766992, -0.41214123255366253, -0.9089185688033296, -0.9141785863994947, -0.9234768607533271, 1.2924600115147467, -1.6127320394416131, -2.5489109510864676, -1.070016487139485, -0.051588283513203784, -0.26822518632239833, 0.5104140716871917, -1.4281498507772548, 0.4526444736450962, 0.6725422650661592, -0.44566159680792505, 1.0137885738496188, 0.15635956523175343, -0.4677346902743704, 2.00257142145619, 0.9581568948307891, -0.2982422764583796, -1.0882042504915732, -0.01167560039751202, -2.563922601904878, 0.4608616853384478, 0.15221156414919193, 0.4638181845114642, -0.9863362007935568, 1.8630170402412551, 1.3650978871489587, 0.5899081359099391, -0.7242883394915052, -1.6549054034136634, -0.07089157221429569, -0.8410561258429854, 0.357788021550842, 0.8701260618301482, -0.6220137906017249, 0.24752933904422877, -0.44704132417719356, 0.617619238780025, -0.6379657663532573, -0.801979680101939, -1.036192432239471, -1.7945101478975958, 0.2865564670082848, -0.3095267277774579, -0.1415926792475676, 0.18513133320076353, -1.0745121131721462, -0.28794338215047155, -0.7092848612400618, -0.49974674898086463, -0.2238834664052101, -0.5278998506668079, 0.2819188134785941, 1.5121640825718794, 0.14964142368271718, 0.8953787531366427, 1.6931341736416288, -1.0605313876520934, -1.437629561085582, -0.774204822785838, -0.6478029637284299, -0.2260398886419402, 1.9110040810053108, 3.0038705215872654, 0.42907111449811985, 0.11215475892037849, 0.17032327713847067, 0.06568310752002135, 1.727405845210958, -2.1184047431691235, -1.035491676721343, 0.4330518338814312, -0.4505119692591681, 0.5229416122755003, -0.14995691233280914, -0.7328013273901189, 0.03924048630016239, 0.909992792829317, 0.10534378942112374, 1.190859803734666, 1.3622080667378191, 0.661339398256624, -1.6688417598863114, -1.0193087486658847, 0.25662110180508413, -1.7668011118723217, 1.416956211028047, -1.1844378341654294, 1.1749088818144726, 1.7055108331580262, -0.12444492053543195, -1.1861708290685293, 0.041113254348687615, 0.7854714819162475, -0.42078884135508743, -1.5241513317520523], [-0.2286126864800812, 0.7637724641629495, 0.8320564431294583, -1.1211748026836796, 0.16777705540005072, -2.503111032000158, -0.5971407472924071, 1.1770450689995038, -0.10312927988393017, -1.0844422123579953, 0.1697833091430494, 0.14247048486346156, -1.3160729017520276, -0.14939430307614923, 0.22907187244307756, -1.2803379306016358, -0.9012325839109485, -0.42022959864605075, -0.2938618357276988, 0.515139687368515, 0.4260182213947353, -0.3379004895806105, -0.08258452215762765, -1.183516316943287, 0.07332203663761379, 1.4773590810124182, 0.42034634912326735, 0.15402689812347867, -1.8559185574481494, -0.18330068928966753, -0.6288664311272156, -1.0281926846431295, 0.47169518814611094, -0.2585049189321089, -1.4354460891964826, 1.2887266439524991, 0.7736331731597849, -0.3732218960185062, -0.5631009675990541, -0.9585053655314654, -1.2285236056238105, -0.42689549684063527, 0.9174067243543965, 2.7469646975299225, 0.8405573151795899, 1.5967845828484637, -0.47975310267976884, 1.8781607162294094, -0.5667947081946639, 2.0129657950569104, 0.39641270338666046, 1.3479832790382085, 2.829619206183402, 1.3411784119640164, -0.3304782080664818, 0.15029788205116393, 0.3276669576213204, -0.4914839958725316, 0.5831504926163837, -0.3330858110632065, 0.39846622848455593, -0.6627191304888241, -0.07829119310351673, 1.7384050844463985, -0.3983005210442213, 0.5526121185078005, 0.9593442456489337, 0.47714191627593977, -0.61330080095208, -0.0006686013609407272, -1.0663286608384965, 0.8086573437827246, 0.6919165932240872, -0.2292785687065983, -0.5459844658958919, -1.4478327493258822, 0.32493741034865725, -0.5893940187732862, -1.546895848224417, 0.03547777044558212, -0.15875881030401026, 1.7497083304498797, -1.5801711868578296, -1.0030757540744362, 1.5010696688301715, 1.0411084704474338, 1.923968465802782, -0.5124907727101397, 0.4778173774556097, -0.808941811706895, -1.3851017063563267, -0.10317713059662352, 0.5900257608505811, 2.1223837148820532, -0.41742157317445394, 0.7745419953120984, -0.4509919744093052, 1.809778143033316, 0.32069811813333116, -0.11553587262330291, 1.132055232659978, 0.7913760947396455, -0.5575140402114248], [-2.013208489008258, -0.9421696680949232, -1.2038153001855532, 0.19359905525636764, -0.5864147370215335, -0.03199749520348757, -1.0089178215109404, -1.2866922271603958, -1.3630731066267532, -0.557620158550123, -0.8525439234677182, 1.0492086998846475, -1.2197047574249558, -0.7398850285364391, -0.1143378765693465, -1.6404126393266303, 0.9405617661265652, 0.7132588393551704, -0.6211783042938372, 1.5763599351387427, -0.616155463109802, -1.2255003465937804, 0.2619399303780176, -0.2820566758507972, 0.6260823949905058, 0.8588824052253511, -0.7512626247345905, 0.668370167737658, -0.25488711375793327, -1.1426764680291546, -1.2592066708932232, 1.5899209719960983, -1.8118602661835546, 1.2605515486511805, -1.2979018836185714, -0.7650590415205036, -2.048271242491252, -1.0852126561275468, 0.23418328690344678, 0.48577585128236117, 1.622465538824453, -0.47239880722520955, -0.8115624436108658, 1.2250840242045196, 0.7264352695271094, -1.6916318259891439, -0.47231727237795307, -1.7694007566213295, -0.23180871230658534, 0.06997307470153942, -0.9527542904430975, -1.394694866385443, 1.1728201542322054, 1.0175802400940492, -0.3966566262278743, 1.7140881369101557, 0.9252166471504841, 1.1150140787947531, -0.1503044532934835, 0.31361978486179853, 0.38356010099895216, 0.7482608421542738, -0.5583521300830014, 0.9533394611108128, 0.3413089525783963, -0.1692104230707357, -1.0453233841673832, -0.8965537258700912, -0.6619016546299438, -0.2385020647513544, -0.44131041362265777, 3.102741603843627, 0.7033305642177552, -1.459539663978738, 0.6895398812174454, -1.4464839311887874, 0.3252788859567275, -0.3413115994242757, -0.02473689916220333, 0.09159002976407361, -0.4463004432292604, 2.1659012639479505, 0.6847178058723525, 1.3181645511694366, 0.1396798040852222, 0.1797015570746625, 0.4914293132717606, -0.35990191002486915, -0.33636957655653715, 1.172987600806581, 2.1521005361506593, -0.529389651738967, 0.428665369414936, 0.5428963728536305, -0.3270183341590809, -1.4345869814853773, -0.8938389388297698, -0.596435588951034, 1.8908472773721188, 0.18892871924900279, 0.10771189858973984, 1.2322232024440434, 0.20480498432252633], [-0.854823418214771, 0.4138661440216893, 0.2472846428758716, -1.46663261096163, -0.3436673393771441, 2.546712298494137, -2.1981989722467694, 0.9169694857319435, -1.268030646923534, -0.7345603698736687, 0.7820970182396763, 0.2713304798071001, 0.3737607698616992, -0.08738883030040401, -0.8572752393342817, 0.022213461084072027, -1.5424176194923178, 0.5188282726477873, 0.19678626163156673, -2.2680162676917504, 0.19835750435380442, -0.21325982901088686, -1.5143385001315104, -1.1706736233086894, 0.9613985814428895, 1.3104170331401686, 0.30473851128888796, 0.13641146529782003, 0.8020655819487048, -0.1670651580249342, -1.7090342175116506, -0.946373783759175, 0.9255491280455671, -0.015718519334606607, 1.9382213435245874, 1.8794075165104756, -0.28565075689222885, -1.5831982281663621, 0.23444452036446653, 0.44870579539758654, 0.5097371349412088, -0.5827043092578068, -1.1321303193349188, 1.1222012376612742, 1.9223306542662828, -0.2583213696877005, -2.001609008080755, -1.9800824223417426, 1.074345350499646, -0.3803424495054605, 0.34195065541334735, 0.2264347541907035, 1.8836805950195807, 0.973961369022634, 0.40365658177437586, 0.4661621607714508, 0.274700487207479, -1.71670117675852, 1.178204884846134, -1.2335101515150229, 0.6556405830842356, 0.3565553800284596, -2.308423614266737, -0.22319603340960653, 1.2079495037283927, 0.5382052416385474, 0.9392251128801095, 0.5191546554160509, 0.7144526299410142, -1.3061145026659922, -0.13099762523969616, -0.5372798897345666, -0.04608401343741381, 0.677744996317335, 1.2709643607928296, -1.0004959195220577, -0.22930890146800534, -0.3391940645733334, 0.24215259669051775, 1.5371714990991905, 0.1238807174140818, -0.6786743190834977, -0.45837754878751535, -0.3192949404413857, 0.35791103586854117, 0.1356447641198485, 0.7208740519664673, -0.534333561345549, 0.2102020506372726, 0.1624287260206177, -1.7769968390476398, 2.1426893225793444, -0.698193346068784, 0.6102294864967971, 1.5749779919096776, -0.21740334232640565, 0.3371500655928427, -0.34590632177880737, 1.1913526175899352, 1.3358182911991623, 0.7410150497246623, -1.5087757722727033, -0.26772175824216615], [-0.4495015442696411, 1.247649178142038, -0.29756280275991814, 0.5510029835283623, 0.013236477207979188, 1.0680009926577632, 0.5723957735394227, 0.24974871299130721, -0.779916485372799, 0.7859593967822134, -2.007260590745973, -1.275582495849065, 2.2335635792725825, -0.558495831986548, -0.19111110985619176, -0.5184341330903356, 0.4964424830578707, 1.755063454741524, 1.5593170415626556, -1.5764337636371781, -0.7420475644156208, 1.5195454391610475, -0.38806392772764137, 0.3789533727568803, 0.5377317977502339, -1.4345340660206407, -0.6873024203634384, -0.9277666434780591, 0.33737924152802756, -1.6436582523100458, -1.5815897454102417, -1.9296667351208447, 1.2670920093475175, 0.7431529768734642, 0.2812991994980318, 0.2124020266482153, -1.2055512879262797, 0.39368701130571854, 0.29179919255367404, 0.026639959857132422, 1.9814545600086562, -0.9446281550186933, -0.45771339282310236, 0.9980648946921262, 1.2074279259380587, -1.7934709803273194, -1.2318396720080447, 1.3841831327705012, -1.893365531101969, 0.16925993491637537, -1.393489306005121, -1.8150535063179039, 2.082751043039877, -0.0877311091389416, 0.33182257138525906, 0.644311509092113, -0.8589296116927094, 0.05827111504820681, -0.7237940502052428, -0.8832485559066897, 0.8448040996181618, 0.8594591918832449, -0.06291428484969559, -1.8730947019013264, -0.3533494132750547, 0.4506042907939326, -1.1341733223650603, 1.3630992992769024, -0.6367355009671949, -1.3073904417677942, -0.575863269791923, 0.8636034266265415, -0.3117579772946819, -1.6730368589555193, 0.46297156758526936, -0.9095308490733314, 0.12423097703003663, -0.5919485703048818, 0.591609537986147, 2.5495855552493136, -0.2771703886128634, 0.1542828501524009, -0.4706906955083846, 0.3959708441305541, -1.3339605074922254, 0.679115055659316, 0.7587270848497697, -0.4666355796970333, 0.46197647604892034, 0.45516794082130024, 1.089168078491267, -0.08656704423818062, 1.415690201749074, 1.129071652572436, 0.8074637756567437, -0.6263010109807903, 0.30690866401256145, 0.3696023651258264, -0.15881055355240495, -0.8616543677386085, 0.5603231693984692, 1.1989767077474456, -0.7463402061098413], [-0.1917972254385409, -0.4404865882259596, 0.4966337629117576, 1.8241604249267374, 1.2692009832254059, 1.1013251354077755, 0.14716378586765197, -0.7276865763388183, 0.05885516897737006, -0.6462775176551554, 1.6962479021862018, 0.1727122979521321, -0.8877397214153271, -2.0504076816422576, -0.31733992475893347, 1.2998619659249349, 0.42566963239739675, 0.10781792317019066, 0.30169613806587164, 0.3091909742466151, -0.30138630598084465, -0.30032765032224557, -0.6462432758196327, 0.8472794330554231, -1.0328243816587348, -1.2066077162887936, 0.41811078180210764, 0.30528649305508676, 0.015286977793025699, 0.8159610444479315, 0.4983517978801403, -0.019943917796094144, 0.24930669843605358, 1.1863431218798997, 0.6494594937229963, -1.209989362905265, -1.0119684664800386, 0.7545419777557942, 2.079650968021889, 1.1900772660185275, 0.9941609295053674, 1.2794099368796181, -0.35445537992040427, 0.24294933509618644, 0.8989957337381799, -0.16247003020654982, 0.5816027721262222, 0.5703466789024648, -0.23272292041934697, 0.6931605060265732, -0.6807146372880537, -0.28442557110949795, -1.3766338757114327, 1.2673709513569358, -1.0263104643201026, -0.42503283012649706, 0.3925026216072277, -1.0675715554859488, -0.5321115895717762, -0.35003957948323133, 0.09941652983359027, 0.37117201887787904, -0.1721910760789603, 0.7238484853007451, 0.23452095168781864, -0.4053108490200314, -1.5978706765878263, -2.5245179921244763, -1.176301298270073, 0.1715482824455403, 0.8847124320791476, 0.20555488423964335, -0.6812356209274423, 0.6641362572904344, -0.1482092971221894, 0.172969820026961, -1.036453494445321, 1.0295688971423824, 0.7898732144272855, -0.0063367042477691085, 0.9937295304957959, 0.5790575002324627, -0.08515279941000653, -0.5760177445580521, -0.6611494255423228, -1.2102772900114187, 0.38577750753125545, 1.272108068561136, 0.6748272092220009, -0.3381808960313611, 0.5979244544356506, -0.7520552335807675, -2.155739380059427, -0.2424609544907463, 0.7972007067468221, 0.953942099372261, 0.7855396736262127, -0.37153431239948753, 0.23657419105574415, -1.3470359740325033, 0.5899912352936185, -0.4211090352226955, 0.3758991089847082], [0.2393337525584234, 0.979315067471003, -1.2664422377857103, 0.12846212000911622, 1.3618367898633226, 0.2574946412113662, -0.949694796670106, -0.9620353373905999, 0.5894835768807443, -0.6238518264236145, 0.011354274356428223, 0.14095624207899196, 0.07761231965490016, 1.532526632590009, 0.9756631383589591, -0.6074086386903407, -1.72020231421286, -0.4449877450915922, -0.2320725943963703, 0.946446680911979, 1.378609006806202, -0.4144420919577197, -0.42701133758814197, 0.9892710824960356, 1.0696104481728708, -0.8719183452010137, -0.4325899405601621, -1.1177665819270846, 0.05838597680883443, 1.7187196048361515, -0.370143405598191, 1.6194961113722877, -1.203302846146199, 1.510085276946761, -0.6240664417556135, 0.11804550894997654, -0.18817683071012228, -0.9597507772471805, 0.839743194761855, -2.3313959854801265, 0.1414972045330335, 0.788082798280526, -1.5110804388657966, 0.7714375133193362, -0.6061524035554962, 0.8479742377996075, -1.0543982726570793, -0.7441821138390791, -0.812627318762496, 0.3450677660156073, 0.7710862267707279, -0.506910248823884, 0.6694297602594791, 0.2538583951633924, -0.27867375744125183, 0.5125170454501454, -0.6912889706759779, 0.7232275654952884, -0.46486465228748913, 1.1103333132223885, 0.3423901884361384, -0.2691636476996111, 0.6697287448353562, -1.8054871331924438, 0.09065098680848666, -0.4533300173758091, 0.037625982366726894, -1.6541653324061814, 0.41231255504076075, 0.2872474548243654, 0.17881931960515376, 0.050331979024688625, 0.19150480887757598, -0.3801936289923143, -0.324774353726665, 0.48494963284861564, 0.24472153617034864, 0.6333931912476743, -0.35440059389636747, -0.05535190107101346, -1.3699449267522787, -1.5682609040108972, -2.4060449964859396, -0.7942523560689454, -1.0131173501114064, 0.11908392788473232, 1.6991100562991492, 0.4481983909216203, -1.1449153088264123, 0.18680737904899514, -1.7179997494251475, -0.5769304646974045, 0.34203484147624413, 0.21614186875441846, 0.3099381541661128, 0.7244896715004382, -1.095131806091743, 1.4340000450196133, -0.5776242465024934, -0.47937483537511405, -0.38848583820029764, -0.5100412374647504, -1.128287983114783], [0.7183627786415095, 0.4375045594922747, -1.0880774292124944, 1.6451708973645411, -0.7761634887155383, -0.21653055899603021, 0.06830850963494026, 0.25475914918322434, -0.3549754566425875, -1.175959025938518, -2.359125245876761, -0.28706861646401566, 0.501147362111137, -1.2339483620131835, 0.5249605107677946, 0.1479613148773347, 0.46926840346508525, -0.23582371591001935, 0.1721485418956018, -0.3746644874731507, 0.2324280596980352, 2.3151324525665915, -0.02479320470599227, -0.08720134747923948, -0.20641974690599416, 0.5539429979155253, -1.3051500377791299, 0.3736767911244212, -1.5601443186139412, -0.22654522352415957, -1.0049901810565947, 1.4283599124019692, -0.04425675161349419, 0.9835586090326341, -0.26702513159029684, 0.40115113369151956, 0.510981455322084, -1.3627290599770396, -0.3803386884960045, -0.0916571997314907, -0.5221617034556951, -1.2331022500062947, -1.2782544603022508, -0.046832524813783416, 1.4441368837953548, -1.6179390615769795, 0.11893767784296695, 0.3577179274555423, -0.20700880518456716, -0.14927529557004515, -1.7731746472127232, 0.5367979186181245, -0.12665316495265533, 1.4742541781822232, 1.7698899903638268, -0.05764158767779052, -0.24432998544699766, -0.6795103483117498, -0.9136679606184481, 0.28724980780307585, -0.6646285704331045, 0.8337131389845072, -0.7280937911588194, -0.5966839749736126, -0.9416576606809638, -0.6170694097356485, -0.07074849197195618, -0.08513079072850935, -0.3447056554346199, 0.9714206891068018, -0.22097279603732242, 1.858286239063967, 1.1892961187283055, 1.2494480306675932, -0.2813148978982398, 1.4593889887642761, -1.0119789865365092, 0.17827140495047628, -0.7388194708468818, -0.8814631286596973, 1.6029004581877482, -0.4013647678866534, 0.0546484753682746, 0.9235946660411194, 0.08323997935942269, 0.857282550811385, -0.13113415407637175, -0.6703649932391428, 0.8525264224993618, -0.8926360949924359, -0.49331684949100113, -0.7575454641263021, 0.08982242441251327, 0.6097981879228768, -0.047697155260735126, 1.8928410890458418, -0.43079390010915863, -0.6605815323160983, -0.17068854215313617, -0.5474638016298494, -1.4683081659935469, -0.6234110023125123, 0.5355143789192038], [0.6208009567640611, 0.3372313224098424, -0.12012366421337878, 1.0365226291501242, 0.03519482204523196, -0.10881274296428887, -0.06252960741484834, -0.9827477818466408, 0.13858269103351453, 0.16700608318193472, 1.1227778694579758, -1.6781616128629204, 0.6517087648159259, 0.0191054193457675, 1.5929522423895932, -1.347908268250492, -1.1341250108802352, -0.10593846617014685, 1.4301986331724414, -0.3084073033093602, 1.5657592033041396, 0.40658154002145397, -1.106016213754127, -0.09503936870350822, -0.16283335607911634, 1.3747765265710794, 0.8609338329655575, 1.3660608146850584, -0.7602728913867908, -1.4074750758420977, 0.5317927087924941, -0.8388565899020936, 1.0286117455147428, 0.45766049486035487, 0.06103681534795443, 1.196165772436118, -0.594047226005027, 1.044748730570999, 0.035369036347296885, -0.780629300669212, 0.7627381055681238, -2.242451421588499, 0.40560553336506655, 0.7238752812068163, -0.4586209080992757, 0.2410963574661283, -1.3531056158072174, 0.8010424207615418, 0.2806130884792323, 0.2759352598219247, 1.0120409682040397, -0.7690984682948606, -0.4900217685024168, -0.1992800733590472, 0.1636262927346453, -0.27771677716205245, 0.07426948836759935, 1.691211797337303, 0.4318759967284309, -2.4035376213023656, -0.8961640431216423, -0.5507005157617562, -0.3438936321883715, 0.41638073068899606, -0.465600827863125, -0.9855620836674959, 0.7685335790217561, -0.17344183714102487, -0.09331634579440952, -0.45085267857666733, -0.1133554198635182, -1.2035782647172653, 1.4212598268229395, 0.7277042809714458, 1.6457772119993423, -1.487861054832322, -2.3881388561001016, -0.5011930735585683, -1.4077041980478096, -1.584678366305617, 0.948305049400544, -1.7864946317769255, 1.1140367909396762, 0.17381903389263612, -0.7945918987830441, -1.238636715880533, -1.149819530070845, -1.3231543299743662, -0.804140554891807, -1.1983879768380308, 1.402393742587887, 0.7832358500532137, 0.20842441879852164, 0.27542970048418164, 1.0046737563074362, -0.20777571239055334, -0.7204737985232696, 1.4406160849162841, -1.0979674975461258, 2.7605206645033338, 0.5213158741444642, 0.3937999548416203, -0.0887204732081962], [-1.8307218337305557, 1.8824140142744026, 3.5282041123894348, -0.6229708631969075, 0.09166404029043222, -2.4491377082678105, 0.5371093186510909, -0.05191866417233664, 0.4828324181480873, 0.024310022975651498, -1.337398408929952, 1.3461148605260216, -0.009340810279447736, 0.31979701016366585, -0.417835460626902, -0.7191598538089315, -0.2037440776234754, -0.4967848880245893, -0.1621754435380778, -0.8849786460693182, 0.4658403135124703, -1.4029103649584296, 1.3824852141389403, -1.0444028315034903, -0.8964674279896594, -3.371840286049961, 1.6957309882151925, 0.4729441446334061, 0.09724522161938008, 1.0443535113755322, 0.7279351624591962, 0.07314346674952696, 1.2241626109523196, -0.46705800888118804, -0.7695495732520734, 0.9445949534448675, -0.42497533784581, 0.9270009247156186, 0.47314058541214815, -0.14469507537310067, -1.7004523752243064, 0.29722357279130673, 0.3556445755381225, -0.1551503533110011, -0.10660413288092317, -0.13974056499110576, 0.7055425430129932, -0.28590977909985643, 1.8303358179201998, -0.15555273071511036, 0.4888238457972067, 0.1477298156250195, 0.7866743145344538, 2.728599400155842, 0.8560012499546605, -0.495210934082254, -1.4686323180962941, 0.92277523475493, 0.42810210731483533, 1.343957474284395, -0.3125249495266743, -0.04385925182239153, 0.331750636100831, 0.7712728763821984, -1.0983435484912365, 1.302645685541475, -0.3250772764200078, -0.6345315770794383, 1.2378707066278938, 0.5827723855568686, 0.24060247030308646, 0.3614626241642321, 1.7376499537277805, -2.1250048546382683, 0.7511920132984289, 0.5267849988851809, -0.4175997535139069, -1.6652175076437166, 0.7864528949477262, 0.6948554459969792, 1.505572528068979, -0.46738384901904206, 0.5916751470096637, 2.25858350919476, 1.024193123337398, 0.01379140005836424, 0.3856253722744745, 0.2699004895592711, -1.3473019244777062, -1.2297430899600048, -0.14629247001145773, 0.8313444140297738, -2.4309088927377327, -0.053990855386941136, 0.871714807956657, -0.05035410375854868, -0.25084243697000813, 0.5567427722342759, -0.6998734282816763, -1.0950924477668855, 0.6323164908356186, 0.31233415856894997, 1.077751830190486], [0.176660645861874, -1.2569664817151247, -0.6993883496961194, 0.8590307153165296, 0.5195048891186627, 2.365225924309782, 0.037956515622787325, -0.03786750369060169, 1.5344969516332203, 0.05921846010548948, -1.2374052769362716, 0.02723325180214845, -1.0741829083876673, -1.3321505276161956, 0.2238577948894367, 0.12805984082139063, 1.7085471944669322, -0.9952297626804442, -0.9105408870242715, -0.08310984980028249, 0.6577458582087985, 0.7969919745667371, 1.4802382472187052, 0.6773067165794572, 0.019824424661786653, 0.3673088830856044, 0.4327510257159456, 0.9303625848465271, 0.7626091440033256, -0.5006649135662435, 0.8377203207355375, 0.9450711544636492, -2.543793428775878, 0.0423238740276654, 0.2596110304766344, 0.6479566711411285, -0.05314823589201154, -0.7197819965837193, 0.38878444559159764, 0.3416720213812488, -0.05555803426242793, 1.4093260299204402, 1.5961101307724495, -0.1097929952234147, 0.591669900550274, 0.5473375262291174, 1.4268700049208158, -0.1482889458473377, -0.33826267964670825, -0.857798982500999, 0.6622556373838248, -0.48436631818966197, 0.42023677043357066, 0.06590043115452422, -0.9613828526721139, 2.0900296803031746, -0.06319226409277974, -1.871898841077683, 0.19046530962889804, 0.2661082088464381, -0.9250591669558735, -1.2141705277733832, 1.311213712959567, -0.4925752862037504, -0.4935588367982242, 1.605802157455579, 1.8270032296349439, -0.6701954747759556, -0.7290019214377698, -1.6852242503909904, -0.8222248286198538, 0.1746350938240753, -0.5738061060636862, 0.058034873729656336, 0.4158754749977416, -0.6232788330320659, -0.08900922766620904, -0.04083681978769628, -0.5530898440435836, 0.8731748206150914, -0.5552606538926514, 0.37449642143197626, -0.3662631920659266, 0.4954047252115441, -1.2638998545957871, 0.8263676106666853, 0.2112577407421556, -1.077869153689068, 1.2374054395259197, 1.536824643843223, 0.09528244298394999, -1.799697674050648, -0.7709496325760565, 0.9657116911990284, -0.29602526969600235, -0.07126483561089694, 0.16029233908594562, -0.0682840490107623, -1.8203179807078669, 0.2558306346131414, 1.8126560259021338, -0.7970271994889553, 0.24359859979735055], [-1.618937793763005, -1.0289646836398194, -0.5394806647164229, 0.32097789254793896, -1.3577357552854925, 0.6435810202636403, -1.3146154742448775, -0.7611289425538618, 1.5102113825003012, 0.12950000096178946, -1.5201377484902479, -1.6508961434721936, 0.6613547872958296, 0.5467613743493983, 1.6615799845240824, 0.03231865269095671, 0.011229723291932826, 0.20756667288779018, 0.9333851762386837, 0.9881002222310917, -0.026403937414861942, -1.6592921338579207, -0.8635089079333045, -0.6159061767485458, -0.6620209969321558, -0.17452546912907355, -0.43143122535098366, 0.9165834610103456, 1.0017332862105757, 0.18543506268991536, -0.9736014828312851, -2.399801772639681, -0.6105310370845095, -1.4280122747009023, -0.3171162588273428, 0.013189520306154496, -0.7203182074141297, 0.289418243553482, 0.8432010453177339, -1.7151473932818988, -2.134695646889998, 2.005393513506761, -0.7478069362357044, 0.02688180892946603, 0.5500115761290932, 0.3404557761816166, -0.8241995923117362, 1.816884445349486, 0.4863006986814373, 0.5328034791171019, 0.6409879485311791, -0.20513810182744122, 0.9935858704759419, 0.3432944408530942, -1.5077052690954091, -1.2012189013580075, -1.2409517036103697, 0.5613764534172893, -1.2991915785846702, 0.5739528178524208, -0.2853328075074961, 1.4654156254480362, 1.4649056189427376, 0.6816455154955482, 0.243547941477438, -0.3074545945202023, -1.491595781840752, 1.3578862664008307, 0.48659863175550644, -0.5288060489205358, -0.2841133828328868, -0.522655583516161, -0.237490368346795, -0.4328444941735944, 0.7928405623309418, -0.9204699708720789, 1.804390339682598, -0.5480730365928358, -0.7489650721703472, -1.3433321248360413, 0.31258271762757456, -0.17852475724366673, -1.379473035640575, 0.3212918505256786, -0.8374125271539248, -1.1891296785392251, 0.9059781157257845, -1.288486404333639, -0.08777402198476336, 0.6919247920801423, -1.6272556556594604, -0.6563918622416208, -0.10318772093216916, -1.740729592284433, -1.0426372639976962, -0.8768578225505915, 0.3645152226682546, 2.4590374747996533, -1.0532413919677726, 0.19776976113225309, 1.5545503541235195, -0.29511536016397055, 1.0567699512968198], [1.665210760949002, 0.05994142586085306, 0.45576824796939946, -0.07438332804508442, 1.1627295340836206, 1.6588254719951534, 1.1713585155515895, 0.5216987945512485, -0.8574034995147867, 1.381354504582307, 0.545939678065492, 0.5681090722256598, 0.3655549982788038, -0.5007485997291601, 0.011378967227733301, 0.5423232711203233, 1.1688816627440064, 0.45170981704049173, 0.39739284636131095, -0.20289259348158672, 0.5278126747809966, -2.40230327597629, -1.902525362857107, 2.880250200022804, -0.49944242179164705, -0.7448309646668816, 0.2738225981580133, 0.44154734135295526, -1.1936778627048918, 0.8254752113982362, -0.33289403801305406, 0.20096990546474938, 0.8208760579788135, -0.07354382334967217, -0.40888017649982605, -2.928262156092594, -1.1527546428331537, 1.5440289595509618, 2.5739081641128547, -0.525677065383466, -1.2813238723956688, 1.5304668491542344, -0.4294899314008985, -1.121985492135271, -0.12178849125910249, 0.22144664215151133, 0.07306851838515563, -0.12127247170951512, -0.4685092400246573, 1.172501165092674, 0.46803505705410753, -1.1862580920443477, -1.1808175070357283, -0.8657944106341864, 0.06855604956661514, 0.43258442954697485, -0.4971478044297377, -0.04540771342217503, 0.7096934155126187, 0.7862906275833789, -1.0620051617975974, -1.2270616382878867, 0.727646505442846, -0.22683023693252247, 0.4766299868181153, 0.5131807280894444, -0.45509506078224965, -1.1140391359931023, 0.6486905341773003, -1.6916709265370917, -2.263517689392524, 0.22036719150787476, -0.26232729892234175, 0.5640084453632, -0.8089729200310181, -0.7886878991814826, 0.3576932177306145, 0.12694494715407498, -0.6514250388587435, 0.6200722126394632, 0.6089634008517383, 0.20801166287779352, -1.0179802014655097, -1.6189335106977525, 2.573133474437243, 0.7421923057947428, 0.7552357191269079, -1.0783089519843658, -0.7003144616817073, -0.4678430699018007, 0.3362249171039717, 1.9580910889880883, 0.35261389975524704, -0.04417642174699965, 0.17560280125973202, -0.6891830345458827, -0.6738992546920087, -0.346946103564629, 1.7253912227327588, 0.9773200923540801, 0.291686877009373, 2.239732184997196, 0.33582868902801827], [0.45136127949267046, 0.37381372697736387, -0.3672808156771071, -0.027887355150848597, -0.7216301954395058, -0.42023050533281353, -2.337003860288959, 0.3202316735077444, 1.4149414942115235, 1.2781420675150763, 1.1176226030086895, 0.7720366295597644, 0.1822965963172765, 0.25778283102024485, 0.7011486533893949, 0.05078593048801484, -0.0801090139975861, 0.011130850711492784, 0.28267256264795165, -0.008858744375276152, 1.9093446535863579, 1.6196041934789291, -0.11385312992873056, 0.3502846917395521, -0.46798597762682437, -0.5670882117849156, 0.5663662697053399, 1.1345897631523127, -0.38933188184221573, 0.8529443109358715, -1.20850153292573, -1.0340384124045363, -0.6809979002446158, -0.8909202449666755, 1.74336988752677, 0.6100017437699748, -1.024926334980273, -0.19373516660497342, 0.7390269984099614, 0.09730681467967102, 0.059448763831597785, -0.6656478738032434, -1.2692955136440969, 0.810793272893763, 1.2842975069381892, -0.6677118716587008, -0.4561673107278806, 1.3227744712886056, 2.0055958791593675, 0.4738339125724188, -0.5617602205710004, 0.3430279502115654, 0.051994462179058634, 1.8517536568061521, -2.304594718008997, 0.013643185134772556, -1.24265490035643, 0.8319982499283101, 1.474009216345951, 0.11011253341538477, 0.9183855862767593, 0.36949448804846163, -0.6352264459709059, -2.231016581834172, -0.7579843041489026, -1.739429287409669, -0.6951835179971667, 0.516143303075465, 0.28656482528942007, 0.522528266256182, 1.460698934345306, -0.814463076108207, -0.25325216581474347, -1.5926740828615902, -0.7590232898886329, 2.345146109013589, 3.3867147480492727, 0.31246894881708154, -0.24140610079129168, 1.073026587725584, -1.0177805379381004, 0.764265843733752, -0.41261040392285814, 0.409164368884951, 0.41689159308604046, 1.2122855731443745, -0.5037214030064433, -1.667769434523647, 1.1782152951547884, 1.7067893808389956, -0.21071941878921518, -0.8034901075417623, 0.19119989008103813, 1.0053282230781044, 1.058670304111471, 0.644047241423785, -0.9686328495314904, -0.051565120164102606, -1.608161634850939, -0.05437187783051092, 0.7555945922855325, 1.9330107759412993, 1.6470016768951892], [0.5288544294603378, -0.45213403551000286, 0.5377257745515418, 0.3554058409691329, 0.6988652858600516, -0.772153150702391, 0.5493447162294335, 0.014645883490527164, -0.2923685635979102, 0.5143621856143379, 1.0321775380925253, -0.8898433435562614, -1.837092240700862, 0.18839730995317774, -0.02055724860067283, -1.023770747549726, -0.8550847179631048, -2.716816325409076, -0.3511977893400462, 1.1640945247249777, -0.35613344826108156, 0.5847307139171757, -0.27744947373441514, -1.443889464481761, -0.12178604580567132, 0.6574445285720357, 0.7771468738872143, -0.19900377602794975, 0.8379912565818151, 0.011211224836414785, 0.4939631883656472, -1.0542943568244751, 1.6965260275982537, -0.3133229540105617, -0.021823339552214188, 0.15052513202431458, -0.3266465328606125, -0.15219416494528315, 0.447149481758739, 1.5749858099015637, 1.515920545762412, 1.3225865172084996, 1.9162154781984133, -0.39055817791024244, 2.019883066960143, 1.503993396303254, 0.5849994854266423, 0.3931218557164775, -2.0437379895930188, -1.8295199587095172, 1.1238223024314455, 0.4126524449354501, -1.0114278629610536, -0.404922094103282, 0.7396051910010748, -0.18623598425174528, -1.7368911046842153, 0.6238427589036242, -0.28523027311104787, -2.2201584146247857, -1.1778567534908282, -0.10282956477388934, 0.8260682378315943, -0.030962436530574, -1.281765170972916, -0.6218725216502564, 0.15247728901571794, 0.8641591533864841, 0.23154655246713124, -1.4913206528635794, -0.29670231960562016, 0.3265215026757737, 0.1013514964374887, -0.9168481812924155, -1.1043693187621768, -0.16499155148838063, 1.6043043130854313, -0.856416182367568, 0.3029635484288447, -0.035825384896966996, 0.42071875478084786, 2.2086883139259017, -0.8049356290326307, 0.3305172698657262, -0.9049002415582995, 1.336831807950124, -0.6242105203399217, -1.5722933962984804, 0.5164638421552984, 1.4921917861517602, 0.4420682227957077, 0.20019894506322541, 1.6381670371809927, 1.572790092282358, 0.5325248323697458, 0.923384203140524, 0.1944559153242186, 1.6330297515111671, -0.2637723089621677, -2.4991827296501685, 