{"class_name": "SequentialNetwork", "layers": [{"class_name": "SequentialNetwork", "layers": [{"class_name": "LinearLayer", "lay_in": 103, "lay_out": 100, "weights": [[0.4667247647418575, 0.37636859237395537, 0.021098173638635424, 0.06583793000580788, 0.02204243504483504, 0.05699207043137314, -0.03267924386817471, 0.29975724037809803, 0.8551610173404275, 0.4901054481340126, 0.018359289501457942, -0.35199799758936845, 0.18645377869995183, 0.4939264297996758, -0.38032781501210183, -0.1538451566668281, 0.007797228621772942, 0.007515452834927257, -0.03181905006467033, -0.19327453862959335, -0.6081600779409343, 0.5531364220930703, 0.050550947595559864, 0.17605533108653285, 0.14933603343269997, 0.034170089648682775, -0.19279187542839066, -0.006632522833915438, 0.43167363930725555, 0.43462057062446774, -0.2563217378261145, -0.10375818065567442, -0.890664829381014, -0.17205924615255427, -0.6554916326523702, -0.08477755504068092, 0.6065506404627977, 0.10775856837411689, 0.4229996594362988, -0.026056192264870045, -0.16967343300350868, 0.4557425079872039, -0.17776966581931183, 0.4021726600764576, 0.26961851477982657, 0.07688676064684626, 0.0721128476717746, -0.306717954157469, -0.3429030345943205, 0.18535998386969313, 0.5532797948980563, 0.41794191913533196, -0.2934569922168954, 0.24064093071145654, 0.0791806761502332, 0.44707836393415196, 0.11400388100805449, 0.2654460954890903, -0.10219391226063969, 0.35301390740340965, -0.24000027487843537, -0.3448367289735661, -0.34667758260987636, 0.07348846911053461, -0.4460196365413161, 0.36948589689202477, 0.283011737306299, -0.19290811010145528, 0.3083305060261285, 0.2992286215541027, -0.07436497267308265, 0.11141206911965665, 0.3040164954956362, -0.10430843623247438, 0.0034873820731340876, 0.021086082457257623, -0.41295700522859974, -0.015255149603099654, 0.07979117736463795, -0.09044954102055006, -0.14903336060676947, -0.18721974411187053, 0.4803252976721743, -0.07061890344952036, 0.2558180541321943, -0.24017098139609136, 0.07291191163980072, -0.1835520197848306, 0.16487896851547112, -0.04707858158479793, -0.4103941876666291, -0.07901118925407401, -0.13566606854761412, 0.36389252825420076, -0.015004328536421186, 0.031928729007358214, 0.4926743390981877, -0.607502918936134, 0.42735065595170224, 0.02135933721858848, -0.27150117627981346, 0.20007742339917248, 0.18399707468941348], [-0.6268849849276478, -0.2252273534680452, -0.4992274802925339, -0.14652587185828278, -0.18927220092351488, 0.27686291973532495, -0.05961255046678136, -0.4630175940843017, 0.6913746427535838, -0.097997721491242, -0.024317193670073806, 0.17090067604135545, 0.014161211342700718, -0.41880681642679013, -0.32635597988557835, 0.03799568708345481, -0.17564327798242352, 0.4715644057950192, 0.36477103830254054, 0.44746447715849386, -0.03863801640965021, 0.12544504913009707, 0.42060676971803573, -0.43884780021492936, -0.04327850168176993, -0.33831383970106577, 0.17006613970973392, 0.19941960381158852, -0.11557582075879375, -0.10128531390141493, -0.7558710436242666, 0.05515234150195337, 0.04535849088099259, -0.03537676938317488, -0.1990147170878541, 0.15112659381261653, 0.15072468082102972, -0.31429826289593293, 0.33970067767364925, -0.06317002525997888, 0.20080481116434323, -0.07936390770673782, -0.2663721371142657, 0.6150801343832452, 0.06699646851236925, -0.2224533007299615, -0.5381545405662569, -0.16310152331041128, -0.01924162548654604, -0.21489550510558075, 0.036943374611981175, -0.10719755386073002, -0.07235776578913618, 0.15659315273797636, 0.40306872715322384, 0.203832024766391, 0.05991346139636987, -0.23314423017455074, -0.06374235465475656, -0.32037141957437193, 0.20096585340099019, -0.058679629028672776, 0.5153418870318139, -0.37022366099200843, 0.3105765684553962, -0.04239433525645526, 0.13922683606968464, 0.21769635723689737, 0.05553095252793966, 0.26410764411886134, 0.39356561215607383, 0.4225373591940044, 0.045194386970734954, -0.7202613605131375, 0.00416186089508473, -0.32125816770220494, 0.23374879060653952, -0.054435683036947576, -0.4457746740144947, -0.3548901389836264, 0.08307460383042642, 0.12558037567766028, 0.4417559385229913, -0.05022458377320452, -0.3743265873916224, 0.4211950510928097, 0.014912621952591576, -0.09664221057701256, 0.48972817448077427, -0.2002158979344198, -0.08729829468172341, 0.046099938661983315, 0.025725985886756068, 0.4962650118600697, -0.396158391085409, 0.11470720863605902, 0.19664574741038277, -0.39489510652532367, -0.2719141475965611, -0.08060829756604845, 0.01942788762713363, -0.07866143421372064, -0.2604711176477428], [0.7632452764115536, -0.9032110927797964, -0.10313773534414758, -0.22112786223478584, -0.15772958702764986, -0.41894975464148276, -0.28552885789679633, 0.0582727287931374, -0.18104323001982353, 0.8168906885827116, 0.7371567282627441, -0.1462836289730352, 0.23599309656590692, 0.1379076734525529, -0.29960793826858323, 0.17164867015105417, 0.001752012846931134, 0.47732974891764013, -0.6678321533506265, 0.5061051168313981, 0.16337865292395143, 0.14258622190938905, -0.03083923109270428, -0.0683872084534435, -0.7527559364858233, -0.25462357498152555, -0.033876977849112665, -0.639117071230652, -0.14137435706582654, -0.3283010632975995, 0.15982330392713565, -0.30744568945958917, 0.10670052164020531, 0.3295192941041956, -0.3878420572573657, 0.23061181212203943, 0.09467032814346737, -0.03493246201588355, -0.3090816858138102, -0.253784153250604, 0.1415047101797386, 0.02307690055887315, 0.18970779187005243, 0.045561496463020476, 0.2744966777318646, 0.4265922219397318, 0.19160382168450146, 0.15066545148115157, 0.05720057567702808, 0.20234796670768643, -0.05255038326428822, -0.07508678121502593, -0.08882553892046188, -0.150353455286382, 0.12679188592466395, -0.3267569310479283, -0.38901518096577553, -0.1718396604835429, -0.38694079059137965, -0.19339175274362058, 0.2944784573157202, 0.436615659005014, 0.10341053490210238, -0.23190365306607127, 0.42066103016624423, 0.022874728153393004, 0.2569060932935706, -0.33270548776745024, 0.18237230831629975, -0.07492390627216879, 0.37671886079887273, -0.014569220625131345, -0.14561258598034774, -0.36818651978474864, -0.37734588065380104, 0.49427905474850287, -0.319165553477247, -0.22656046972270835, -0.603280677853455, 0.1222930912935109, -0.38603833900683837, -0.2571815637648955, -0.3502963339577472, 0.3477045251791744, -0.28470698865745087, 0.15529153998167716, 0.2236007241066996, -0.42140234128608783, -0.10613718297674606, -0.6162996717284995, -0.532188024142089, 0.19909493492394872, -0.3945165833569564, -0.0048947837095678565, -0.696207844946824, 0.19864798013415266, -0.4020890132225751, 0.33079485540455716, 0.038284893801901455, 0.060527575593515855, -0.3169515979692483, 0.057078131662618055, -0.1960506239222747], [0.0365396045108617, -0.46940146538504246, -0.13493197965060758, 0.19194960137984068, 0.3461376841880999, -0.14512448891024135, -0.41728426531188434, 0.41790744238649724, -0.5000659763800733, 0.26387147585788184, 0.092045749493332, -0.47622590397933867, -0.3604021440207394, 0.10651931154684532, 0.5683384743438752, 0.4515173406146298, 0.5096652729791562, -0.5228091125609208, -0.2284330175452433, -0.6125111270791697, -0.38545205181887887, -0.42463072083731734, 0.10475924153564715, 0.0934750728337333, 0.5235780424624078, -0.2992340381789515, -0.028320803772124762, -0.7414539108787429, 0.025052536852003284, -0.17951485400631217, 0.015974040440671394, -0.06825011817754519, -0.11218222903907638, -0.5335456561564135, 0.19784864756898485, -0.1195466425308427, -0.026694701659600882, -0.3472481552177909, -0.6693201019580503, -0.24462755208759107, -0.1399880619677668, -0.5362094011153855, -0.3472211755656254, -0.4148721369165636, 0.04274847647646856, -0.36561993215202215, 0.06402714385785174, -0.18952579137656309, 0.1853534849809729, -0.5722749908720248, -0.03187103399853413, -0.2557816737500063, 0.1980803766805309, -0.06594607615482692, 0.4429391500435727, 0.18734556422247822, 0.33791436992896917, 0.08525348599841107, -0.0867531218613197, 0.01870609022593876, -0.19896784578041393, -0.18685413061079217, 0.32273220674539765, 0.28133808854370856, -0.32890660360822693, -0.26271810717405353, 0.21579058830284165, -0.6053576993062803, 0.09296469112666356, -0.21821492605834644, 0.6266267099462164, 0.7584617510200122, 0.45598471516591454, 0.14730923254440328, -0.012776923776129058, 0.1066035915913601, 0.16982164879150746, -0.0021006053965416825, 0.3738821200409281, 0.1557523321281464, -0.5828529278039736, 0.059852716505958796, -0.31341002458377776, 0.2014449835416765, 0.14830733884438657, -0.6799076029997901, 0.10773693567770465, 0.31845844261629314, 0.3449119287146811, 0.22081165033551053, 0.5480157386569051, -0.0009583807880080116, -0.8290867834737824, 0.5757578964453334, 0.17522617688492562, -0.16499049233705831, -0.3374655059750087, 0.31399393458415303, 0.18329642202511817, 0.36008375584052904, -0.009175430100800469, -0.3721946292268946, -0.5146995959460428], [-0.3713925461127064, 0.23711006526344572, 0.22343533875938815, -0.3727861460453963, -0.2195119187702229, 0.5341917030292387, -0.01388150692521553, 0.08201926763194416, 0.0711392159478402, -0.257190783756647, -0.021233708989507324, -0.14709520550088576, 0.27915714028843536, 0.11944767842609848, 0.23984660506433716, 0.08478590978968283, 0.24352961490762148, 0.037919552183742766, 0.3284005359954402, -0.41168235645363627, -0.10978167513029759, -0.025599143877929074, 0.5319515386460545, -0.018992756794867664, 0.051384123159489085, 0.19776738728655574, 0.04394038581659113, -0.2058712839987984, -0.12076287346421691, 0.018266816188299805, -0.14759000305344133, 0.3228333914735382, -0.29286289318949665, -0.6527618022267266, -0.8465798014390843, -0.3490076163988784, 0.369836393005846, -0.30215535379184716, -0.41687678105549464, -0.07787532680328335, 0.20771699451896602, -0.13346811610202342, 0.33639931277619606, 0.0055439202292302935, 0.4551735382157987, 0.010815611796021337, -0.22041847667016914, -0.16156177712543573, -0.4805372279904414, 0.07271756711074959, 0.05336198923310611, 0.1745803809259467, 0.37023933488394334, 0.5081622838472032, 0.3306521341679536, -0.5483976475616897, 0.1793441096531703, -0.2011862345466314, 0.15045860530771235, 0.5052384626446088, 0.3892469137929759, 0.07066978490609258, -0.24717906205679946, -0.10621390528045992, -0.08173555427887026, -0.47835142738646125, 0.5381451936184442, 0.24995002344664732, -0.11122487832164647, -0.28961062871424886, 0.06470208080370933, 0.205452889678139, 0.4181935757940714, -0.04400920138921802, 0.34019680155672877, 0.3799165365679081, 0.270059608132891, 0.32164480230618814, -0.10031866765139746, 0.18527001589000747, 0.017865885297291644, 0.10073912908805213, 0.0745108011277137, 0.16008495940851988, -0.014254184752567437, 0.0552233485574, 0.30916281752595354, 0.18735122949430152, 0.38888612272468454, -0.12449511696848811, 0.17704479635060397, 0.4902083386559989, 0.2550752299206277, -0.14026347125308805, 0.8339965059434539, 0.32757814269878793, 0.2209636812857971, -0.2789819560428448, -0.03525388691953289, -0.36899805614939046, -0.003254977205034963, 0.15023315336098422, 0.5621412673210987], [0.21574488572742043, 0.09284417868414356, 0.15259185204650963, -0.09228926237879188, 0.12665172555932638, 0.004476334380612914, -0.39674636999002716, 0.38174773321292377, -0.08497135439616754, -0.07574481675358208, 0.1544852066171525, 0.4120544378434559, -0.25982043378362507, 0.1360606189686364, -0.37569113302756757, 0.3096946976842063, 0.6548713937763773, 0.23298995911850756, 0.29218905505185194, -0.2192886279026217, 0.09143317283536831, 0.0005215233226533396, -0.0641790898655808, -0.17923578376873084, 0.16283009903992696, -0.10902373367369625, 0.34097599493537767, 0.5578018072898359, -0.4401560951599854, -0.07073389452062277, -0.40783427551712853, 0.281195246051198, 0.1896600804898101, -0.35077811161131245, -0.10281080536590813, -0.2559149315496579, 0.048478687336462475, 0.004561092115376572, -0.29534489523836266, 0.7414488736715796, 0.18396660315477908, 0.04010442091036268, 0.062079696304002695, -0.18219646307512985, -0.6252010564667465, -0.04010572598277514, 0.34861053105472034, -0.0926064253959376, -0.2098388631669581, 0.23223190330815152, 1.0104820892732558, -0.15407936304393172, 0.3157419550520061, 0.031440616010346215, 0.21083394732435423, 0.6232621279155133, -0.055734853682061984, 0.21925790739996964, -0.01866438101253829, -0.17209081562957354, 0.2727013610624501, 0.09147719537988822, -0.208119188767937, -0.2701036713527837, 0.20462157530513975, -0.08663435530576469, -0.4610439608598338, 0.44611191810806067, 0.23196385639817627, 0.00030512276531652484, -0.09370848568345054, -0.1308058725782868, -0.5335433190041469, 0.28251224999201974, -0.4838048848337172, -0.11949265116796011, 0.1389365882452803, 0.5257003555797117, -0.03370213091015644, -0.1909046327261338, -0.06727831450179474, 0.015822688843474268, -0.019704497673411644, -0.6276432314047714, -0.03743581903255631, 0.033577152618011946, 0.13362408805168338, -0.2623027566409876, 0.2769805574247106, 0.7804015678809658, -0.5632313992771533, -0.36360817416864233, -0.3780770285856302, -0.1536174371945964, 0.15347820414577365, 0.22106221564846332, 0.14811013780885662, -0.26620585984488826, 0.3756555434160915, 0.19116383257146508, 0.09245125700293753, -0.018462924313641528, -0.22992609118088356], [-0.39582885294876696, -0.43849568994417243, 0.052095614614239484, -0.00510408050741513, -0.5473241243802872, -0.27097159654019876, 0.29098203150095875, -0.09172972139372201, -0.6466043891275607, -0.7741420247276084, 0.29550660196243356, -0.21250604183949728, 0.35875920941504824, -0.015949507362283757, 0.5236694728198861, 0.4024090592539881, -0.4834400604502377, -0.5828455217499926, 0.10954315486327182, -0.4306984786648775, 0.3841946230272374, 0.067226223247942, 0.056660626191955984, -0.14675859816993228, -0.20742527723888535, -0.5451982721329324, -0.21262932450680477, 0.22895557550214946, 0.19522108222352794, 0.28008458580941137, -0.1559962571623333, -0.09565825608029493, -0.013924131532756146, 0.025390547483983977, 0.2167905300546805, 0.11451996710167273, -0.7320056800896583, 0.2937596073451241, 0.43244757401344497, 0.19001247891469653, 0.11515703355810178, 0.22717188412835837, -0.0905321485461825, 0.11700779361282779, -0.4720545119137221, 0.5091594891101889, -0.08571481118761756, 0.24362238338011113, 0.18479986773874665, -0.6842489425406039, 0.11288487921215645, -0.19359060226961297, -1.4314654143335872, 0.002252995002330125, -0.18278443692267024, -0.25237705198758903, 0.13273494509812034, 0.31799091419507874, 0.15160519815651116, 0.32179569797858726, 0.3096028604744856, -0.04057324944301083, 0.32503845392126285, -0.20185984407135601, 0.34486788926278655, -0.5698326879662035, 0.15479475602844, -0.21296497761945468, 0.017558254026675657, -0.015358338283129823, 0.39552477462049374, 0.09315936535792996, -0.019213470901095143, -0.689654335648676, -0.011945969771954201, -0.1376631739836983, 0.23855761349752716, -0.40388096113018934, 0.920458477878022, 0.02347551969524518, -0.2060250511050823, -0.0635943635557975, -0.18980810618188637, 0.048767292461359336, -0.21250595083260276, 0.008407089786227381, -0.5737726297248119, 0.33662726963400774, -0.20685663182260838, 0.26791635219077087, 0.3039348017091894, 0.6000878631678612, -0.4989780539766978, -0.07174779412695462, -0.11559891003226067, 0.023833873593799453, 0.6148147381130559, -0.21671791496662368, 0.6432954616237964, -0.13115647872974473, -0.06383502703828361, 0.39408094237916697, -0.09746007516883964], [0.6347978923755223, -0.6681713986978253, 0.15837653438382157, 0.5187304828341553, -0.3939360266502694, 0.20095491293203155, 0.4915674318346972, 0.5232701871570619, -0.010286975451566796, 0.18141040553910387, 0.4794764809168021, -0.14255808844398518, -0.1284013586515102, -0.3762852749065997, -0.2579195836323597, -0.375771176996081, 0.22772404287380837, -0.16473780881484376, -0.17719517844970184, -0.4632681648989827, 0.41768559806889394, 0.12161984464352397, 0.22189161489081308, -0.04609242292901891, -0.13354875286950468, 0.149218959973809, -0.20453685043775827, -0.0685779542395851, -0.17978829606664373, 0.11060093293570777, 0.0855937226712119, -0.12431121174177634, 0.17055316680455715, -0.020785387646784517, -0.11901796782056848, 0.13935085175154394, -0.09083377547984844, -0.1426902103108376, 0.38203715156129747, 0.1987993418194852, 0.13479822573258363, 0.3105459030727605, 0.48105241267485976, 0.15847972736759658, 0.2645271830476592, -0.06791788558691902, 0.34296895389578025, 0.40058060304662296, 0.4596787875673833, 0.34958082046884636, 0.637170484268985, -0.22278031724644914, 0.18341494238732833, -0.3349118788019733, -0.07772383188587562, 0.17692477684004887, -0.3039033797385031, 0.15032567611221256, -0.07778550042564614, -0.03751100500172821, -0.1209150483730108, -0.2459482057331501, -0.5682358359569968, 0.06620947657005954, 0.2150718621476453, 0.3783142793149419, 0.0819025134744856, -0.10647995255852764, -0.12403246996433942, 0.05304740803348649, -0.08737868219383803, 0.07778639369484666, -0.3097627671292819, 0.10949791244426647, -0.08869997444207056, 0.49330627620665457, 0.0902684950170876, -0.3610018292151663, -0.4282408851228599, 0.23045594229543526, -0.3954325948515045, 0.5472997539799719, -0.5292947325364804, -0.36622560768848617, -0.1703364149902919, -0.022025662071759336, -0.030645702002145316, 0.19341674302260292, 0.0650423332780498, -0.3131151800246767, 0.01765816648066505, -0.22422689157663006, -0.44516826990362596, 0.3463876288478467, -0.10596399412787894, 0.0255967252592454, 0.12198753231874536, -0.15901213203853157, -0.16928210105638836, -0.6748648013990207, 0.453791347009255, 0.16097061001185398, -0.3886752931519159], [-0.7102616268890024, 0.20620578260158784, 0.2252606496659877, -0.6657595344673333, 0.04941802207963765, 0.09434520069960466, -0.24789717516265763, -0.559885914613345, 0.08550905832472057, -0.4037088496102646, 0.05238759693491148, -0.23385848852460592, 0.10571517063724888, -0.09382809598441649, 0.10051408080810834, -0.22726526087210952, -0.19401225488509713, 0.13476382322150554, 0.011445403228412457, -0.6174805082223466, -0.3645122815101389, -0.08803534507450697, -0.11694773876135958, 0.08046779049929681, 0.3991780100951184, 0.4407499186388331, -0.27256046063334655, -0.14780026798720552, 0.003284336142030222, -0.04156586432008602, 0.19935470950883125, -0.07142316204129627, -0.5597788211043171, -0.24871439159428474, 0.20182138214121773, 0.09061040628611808, -0.3558141630964798, -0.1514503038330557, -0.04402263788255722, -0.38873756929112396, 0.30593315738029914, -0.1572132229804155, 0.05407044271923931, 0.4460697458527232, -0.17965077514237085, -0.3243542107653704, 0.23989553401292302, -0.06326515517888683, 0.037981921330216335, -0.04964050401988423, -0.5303908584518554, -0.2405373316226959, -0.12098089830463592, -0.13944504141170577, 0.23704002471716062, 0.37851833279678204, 0.34305640607630733, -0.07399990398609403, -0.0759464904568137, 0.09174958305188936, 0.04485395186857867, 0.18042001886426132, -0.22302990471546202, -0.4466752600308156, -0.08645888097485106, 0.08792084599110742, 0.7375502071706551, -0.09210512983179037, -0.10123329664554027, -0.00818889437373612, 0.06669103707844698, -0.44865522715581363, -0.2740147498291314, 0.4102393627307567, -0.10803429726461825, -0.04039235376372384, -0.6992249283251196, 0.34730149878463457, 0.03931871806355989, -0.17243872020521886, -0.3163049475753147, -0.21920207969535296, 0.06884204571424724, 0.5898724203476834, -0.19840107952727842, -0.19109714040242173, -0.3456455393247376, -0.2663814043716757, 0.2634392310745859, -0.37056852193001805, -0.3273231188163101, -0.350304747727788, -0.2192685462022281, 0.08421815679946319, -0.2444498227820911, -0.612673903726605, 0.1443575344063526, 0.49922652169032705, 0.025967822303784208, 0.4545555087778207, 0.49186419391199704, -0.3411323391591328, -0.023608125211951], [-0.26834580940514663, 0.3039644072633176, -0.1096853967041605, -0.2946276651882037, 0.06817564246900021, 0.5537283707384244, 0.019271194877621856, -0.37690374724855485, 0.049549311987961864, -0.13115822126558427, -0.004510132685082547, 0.2170429834896297, -0.12256273065296033, -0.8398150358231888, -0.3481787168939306, -0.1019577414001885, 0.3324954264724155, 0.11166920506210436, 0.3328801996627545, 0.1673325620376691, 0.32625825576125866, -0.001380288059668278, 0.08682502590155504, 0.20607883681257788, -0.29286002826508595, 0.5327680198667745, 0.21045298522605516, 0.15948280903349055, 0.10815718397098141, 0.2075628429028632, -0.11406944324689125, -0.2598745883732173, -0.20451724369767524, 0.18741949916976147, -0.03351781689496664, -0.0630265015181249, 0.042798035256249124, -0.08704788982428517, -0.20656222403636976, 0.26224925324362475, -0.08489274298199924, -0.1732100122446005, -0.6856330248728962, -0.024171826642597906, -0.001979466151524445, -0.06473248541342437, 0.18010676676914966, 0.16939760793684608, -0.30935885284266573, -0.15900022730174004, -0.2629738033048246, -0.40335980022798434, 0.12285052212903694, -0.24709902975286502, -0.49312155542319414, 0.6604170129711877, -0.8926999035747978, 0.5822078923759834, -0.18851272891983578, -0.1111149724641578, 0.25094486107447483, -0.17598538101600833, 0.5543734281790074, -0.00016140556605857178, 0.3023652654516009, 0.21760031366493146, -0.04481004871609741, -0.23604763322332836, -0.23901882455937842, -0.023252231703325296, -0.13964495233311247, 0.22020192910291697, 0.40876893688973176, -0.35461381848535334, -0.07044063079611286, -0.3722987502133764, 0.1070776535894987, 0.5872145031834999, 0.1466162771965017, -0.009045773230896273, 0.11594002123748691, -0.02160821926292419, 0.19042939069049877, -0.4861556982766144, -0.02987801712700704, 0.14918904012120315, 0.03585707838044137, 0.1358715489524684, -0.34223711946527763, -0.6010570317254729, -0.5507168261139358, -0.3277479514247637, 0.4057915104162128, 0.021153923728317987, 0.3783751167648566, 0.046236030040551004, 0.16441506106017173, -0.21729373988360484, 1.0846440232259322, -0.14095228685403194, -0.4989566210923957, 0.537482230413043, 0.715658356001413], [-0.34132510971275154, 0.20523678292627073, -0.18039582924637249, 0.4097006436183145, 0.02668369417789145, -0.26545627301345376, -0.4814852841792813, -0.27798895899858317, -0.3286016736147315, -0.018673649173572806, -0.27444011315413924, 0.4162641047367517, 0.48750793301679524, -0.10396177164313379, 0.5318525420469726, 0.08678663967951289, -0.031785182458775346, -0.12850547394797368, 0.09280400052911675, 0.9294578106966574, -0.003587453299323038, 0.11946451391504764, 0.019288865916540932, -0.286477986508445, 0.2055703994202277, -0.24439243811091405, -0.15096321707751018, 0.29946555637865013, 0.21425838000138195, 0.295415782128911, 0.010634777690794324, 0.5622369793824192, -0.012884264421285829, 0.42600100833098337, -0.008186376446360092, 0.2778498347240504, 0.10593654524073677, -0.3180886233842313, 0.3080175246162694, -0.2328202455757842, -0.013166028564323352, 0.2937326586032782, -0.14127485904657272, 0.21710589938593464, -0.0017585154688923787, 0.19747701529005035, -0.3831615643199372, 0.2484577876456462, -0.6132222525738109, 0.04166497568384026, 0.41412143206065755, -0.37223737746385704, 0.027683087434687427, 0.488755903941871, 0.24542329435889393, -0.10752746699562803, -0.16569447026091316, 0.3490585966496337, 0.7850973720436983, -0.10820138315394155, 0.31281478308716154, -0.48468660926404983, 0.18579105277164365, 0.433361846042388, -0.25364176147543527, 0.6232942798763225, 0.024673653231975463, -0.022037224421034764, 0.2725789161835561, -0.3313784291089407, 0.37380934345812133, -0.29075242559776193, 0.022480432575400715, -0.06594536019341059, -0.5426164592123411, 0.4457509403751135, -0.33415090642514533, 0.37882816554060234, 0.723195837491094, -0.013394671903340798, 0.3129144238643745, -0.31672455573560315, 0.3928449243621517, -0.165137623634705, 0.5360688603208917, 0.05429373983031401, -0.0048791198715035155, 0.3898422294977954, -0.2277639150519006, 0.4409892138624013, 0.07977797970529128, 0.17646365706881453, -0.3714425741504291, 0.4866355286036931, -0.33159372534486437, 0.38279373732535715, -0.10205255190788594, 0.02594729051697383, -0.02298814154382862, 0.29957108176747976, 0.016320905268685647, -0.2905447982484916, 0.30862207292234], [0.225114106505118, 0.002093150451515942, -0.14507468549744784, -0.8395780098783004, -0.5382023637680018, -0.20128425470419, -0.5018457409037781, -0.33022205954466627, 0.12734245198802896, 0.32906986979099134, 0.4242579899371222, 0.006077476885564846, -0.6497028796086399, -0.4691511798940178, -0.6545856654170061, -0.42038496257297464, 0.18633446884877536, 0.31405859033089595, -0.3136299784265673, 0.35341003327595477, -0.05577978231211545, -0.3034811869155446, -0.1463323192571903, 0.16896576188695267, -0.5105895404331248, -0.11010416059839097, 0.142296902774561, 0.12963854763929503, 0.5797338610070966, 0.18262277175187258, 0.3901729143911933, 0.3896038966736259, -0.3132906168648618, -0.1014174021350903, -0.23187654159633916, -0.7079538214236647, -0.369354645333973, -0.12981214168751445, 0.23820953008454676, -0.0973616076211354, 0.14244586135200826, -0.004320953792724651, -0.14555265769857076, 0.017750676201625036, -0.2898127583760406, 0.06310796537713947, 0.31478641368604166, -0.7186450251706205, -0.0594532442497301, 0.24170817564560354, -0.47797876147023877, -0.06816090777799463, -0.6307999865254287, -0.24272800767860395, -0.3114653198627189, 0.7011409252232695, 0.4410135299303446, 0.21832899396290592, -0.5109545750483792, -0.0469971259246673, 0.11981179990224716, 0.096252020266127, 0.0021169112904932622, 0.25218468001630623, 0.08457666748431733, -0.3300857316521676, 0.19488357693830413, 0.4243318113686665, -0.24932928357670098, -0.037137204826270545, 0.38857371025141396, -0.23860578181721126, 0.4780996172780611, 0.6075870668412919, -0.012749303132595279, 0.13586974527381884, -0.5913660411449171, 0.10532611421567306, -0.07364160665954758, -0.24549146553703322, 0.0636140879785224, 0.2560186298010281, -0.05352934671888372, -0.5178846703495064, -0.29147368571804294, 0.19844545284302778, -0.2877346430969018, -0.16797837261782558, -0.2571199821930297, 0.1216330943142533, 0.4046867175552472, 0.32812326324935637, 0.11832816717949148, -0.23836865876334215, -0.6042831386088808, 0.3592728099284308, -0.0640933562805617, -0.24040397611962128, -0.15514382730305656, -0.5735479003075313, -0.6893306705783031, -0.5496154594570863, -0.1460484034589701], [-0.07411160683446268, 0.3586133343154941, -0.14386488685240026, 0.7787313310822466, 0.09843796121999007, -0.08569440765110897, 0.09702395119760682, 0.25437494393575955, 0.6085390170715064, -0.2918141724751901, 0.017558742081916854, 0.45868152318348815, -0.39503850779179084, 0.32708687789140417, -0.5030596438402616, -0.07069600302781012, 0.6652421611594853, 0.41387462303221517, -0.04670058106072305, 0.2186572479152599, -0.18216421170823044, 0.1690359091108153, 0.17502795315919384, -0.3242726405067962, -0.04549840428498592, -0.11769274086255406, 0.04396650612735192, 0.26771955609894643, 0.3854390126326504, 0.04303719934035031, -0.3811192734329559, 0.3607517061385315, 0.19783362930607531, 0.07722125897923873, 0.0014222902030464428, -0.12970186259044067, 0.2139993114180167, -0.1490912203763689, -0.4983901707200493, 0.24470729749844491, -0.18251333390398933, 0.3310188158670111, -0.06203646810727559, 0.09542962389665988, 0.11899423073089203, -0.2708443009904547, 0.4276029905666868, 0.2659985538432532, -0.19267382755561616, 0.37339685860357286, 0.1881154704749955, 0.10628368034270066, -0.010024064949853927, 0.2162460246704993, 0.6728798613545641, 0.15991475407969713, 0.4635353684437913, 0.30600927032225805, -0.05276370194578129, 0.11027792932421293, 0.24044777577523127, 0.07360086053004165, -0.01744407177698723, 0.2521116947997596, -0.1901329940714433, 0.19689716226714699, -0.08352300310178941, -0.27866019928545466, 0.13311400940976126, 0.062040204679031034, -0.20837956233546398, -0.41713654211396384, -0.6423853738302224, 0.3183786935522108, 0.7455729209521029, 0.5497980468023937, 0.8172022517020593, 0.08596848976130951, -0.31230566409783805, -0.15831519392144566, 0.1257613384404186, 0.12918626388072174, -0.020026983744376642, -0.39128551442864934, -0.16771322893036045, 0.0005768983742858773, -0.32509144185267386, 0.014560754535906337, 0.05888958115146795, -0.5325324166975236, -0.09002754121873832, 0.4211530366951161, -0.15480331779333417, -0.033379482834315216, -0.13740779084865193, 0.20123564251874476, 0.05305028785715448, -0.3035452271258814, -0.3919063319940504, -0.17027520938116922, -0.17708595652713388, 0.1796732963059615, 0.6933860827154891], [-0.21437802009196108, -0.19558159408382486, -0.09818802951184584, 0.44738041343921026, -0.38225565355585167, 0.16007323190190612, -0.2873263995459897, -0.3645759221627311, -0.10571334181004213, 0.11561222298945183, -0.33165384900824524, 0.07816785683409531, -0.5062857560018074, 0.7153353338441623, -0.18771096452854968, 0.17708871323016176, 0.32623630831947215, 0.23839100087345882, -0.007816750270807808, -0.1619652570750205, -0.2646415038229732, 0.0406636134027353, -0.7482514668056724, -0.9385135049217895, -0.5794724340392038, -0.25290873514260587, -0.1361087530264081, 0.31556515178060707, 0.28153544980896156, 0.0980644821918471, -0.47374884613566365, -0.4479600642947682, -0.16789090109061608, -0.004445748334822337, -0.1292783446548329, 0.35187498190931155, 0.03477483082190099, 0.09712246045245984, -0.15538893686608307, -0.27805590109195794, -0.5671862898326926, 0.15676677649893428, -0.2783310578090754, 0.17229640305157295, -0.0487072645454327, -0.2569606743723543, 0.12187276927047389, -0.3643575754117502, 0.23341422538638937, 0.23998216117834575, 0.16362568487522197, 0.14246793197097357, 0.1089586386224307, -0.5931494798408705, -0.6214778896051125, 0.6459164179962336, 0.06023251686740306, -0.009617445661239342, 0.18122212741391192, -0.055925066534076695, -0.08743098351154044, 0.3438262482418411, 0.09481193343306049, 0.3334062184236679, -0.5519182465897183, 0.21261685635171826, -0.17752404251455134, -0.04015604238987524, 0.15385963131099975, -0.12178117295674232, 0.08427458657840373, 0.08557517783478268, 0.006752812192221797, 0.1522891071510102, 0.6456139145584908, 0.446825524737891, 0.303786158004415, 0.09436449284802909, -0.5084641814844908, -0.021940220239727005, 0.3236073000127705, 0.18594288326725972, 0.37190945806872466, 0.002800165464462633, 0.22279448015280265, -0.06764807629352354, 0.4624184683113837, -0.11674798060818124, 0.6596500326913, 0.011821488079169253, 1.0021707702161484, 0.20383185129664003, 0.3014328696634056, 0.9775107822799427, -0.3658008216443375, -0.21145130289891878, 0.016545867320505923, -0.1768472079382485, -0.24415127823936814, -0.3311777980306779, -0.09685230279490621, 0.3865202263918475, 0.05412997152932878], [-0.5305819799804117, -0.14969630679954626, -0.06378171464084456, 0.058706480054255404, -0.24633029921435645, -0.08203138061837505, 0.23734666615245215, 0.25356657729587195, -0.4998608121830065, 0.3188482117720994, 0.5858781949204628, 0.6629648597110774, -0.01242808551677517, 0.5756775045308028, 0.08986138351866475, 0.2788250173278961, 0.06924121589239172, -0.06391361443527585, -0.07529557712876607, -0.37693316202098076, 0.27517028616799755, 0.32980430964092977, -0.20979669692855707, 0.14844552058717655, 0.08565700203776387, -0.15572941728066303, 0.3078094843756115, 0.14196677310300024, -0.028782903062545915, 0.029131471473530058, 0.31817889944501493, -0.15419714349493732, 0.10754329753375441, 0.012938247947861073, 0.07899249492386494, 0.34257862807985107, -0.17707127741125137, -0.0106846471618208, -0.2812982803708045, 0.21010537351527994, 0.2490099454559652, -0.2367886810810193, -0.32693058571095795, -0.2818766298355009, -0.16140443286454298, 0.2898588346300434, -0.10823333211814637, 0.6962386234661113, -0.13094532599870543, -0.1298135185802967, 0.3138183597432321, 0.28685589787891685, -0.5457118113427979, -0.12763379459145072, 0.4290551042093952, -0.3916285460868949, -0.11553378323552779, -0.05589332963592383, 0.12166174633049308, -0.2258051299956091, 0.37000755167972976, 0.7309971737379879, 0.012697726185975167, 0.13870387980678253, 0.29392569810718555, -0.11371465212735084, 0.32252693381703573, -0.5845385711128325, 0.21364371161945883, -0.11490497334261154, -0.38375183415301994, -0.5222747777902458, -0.24138107509997642, -0.24337594320792116, 0.5416345725656502, -0.18849527920571418, -0.39810736388973844, 0.2637744231260677, 1.0015260581053669, -0.2429360825430996, 0.3853352889951429, 0.06502111450850011, -0.03878097947664759, -0.15656259370128794, -0.09724897225652238, -0.19494361039713512, -0.12581496348815827, 0.08867086675077383, 0.04121747533167393, 0.4028362575298311, -0.2468665349482765, 0.5554074022975629, -0.037734099667298245, 0.4787591217800743, -0.2766792298907348, 0.442427621675085, -0.22089763447103844, 0.3891069273061238, 0.3734205111876804, 0.16273601594943285, 0.09837837607827846, -0.021658211635027257, -0.2739361143537133], [-0.4753918252973676, -0.46940403538179, -0.15633806914544704, -0.556568641454606, 0.0007587298294746223, 0.20844183604171462, -0.6599943924897849, 0.400462919395897, -0.09023441521891871, -0.3828391451043448, 0.04906056298789413, -0.3217633074107282, -0.47571574359941254, -0.20169295373002333, 0.2858010797416811, 0.8120927177515241, 0.4058479718905883, -0.5704859798825025, -0.5843446562032125, 0.018810308379915815, -0.4869732520143583, -0.13932653157352523, -0.37596877375163273, -0.04321604063904492, 0.12790654406883853, -0.035735746454534076, 0.17274152129692513, 0.17234433360343726, 0.27304072558016745, 0.08079563770935878, -0.328916283035566, -0.2970764985366867, -0.03425621637240241, -0.4617856035235504, -0.18777972678683968, -0.051089709795226125, 0.13552455001160396, -0.11539916828557209, 0.11656242566330909, 0.05658704793908959, -0.29305219311908653, 0.35252485075147666, -0.42041881312287877, 0.09555824490189765, -0.11121008655843362, -0.3581389247691688, 0.5528153646035082, -0.6753901160861, -0.03442819581413868, 0.12465947656727813, 0.15998087914132134, 0.03504259140418324, -0.35869107147802065, 0.04709237262614167, 0.13388864984130933, -0.02717875033003992, -0.0792204756163879, -0.6471452537498213, -0.27777224959810193, 0.04435079820221027, -0.1196530419481391, -0.22331874970854318, -0.2961522377016583, -0.28677850897706886, 0.6067182885777302, -0.3121840127323291, 0.0002578557670136028, 0.6217091069422301, -0.47740933178709694, -0.43203968039360496, -0.07858205958361636, -0.7333304490490572, -0.11680460197167698, -0.4766781173039062, 0.4900652480313992, -0.3642092692482117, -0.3602945452976577, 0.4753733773300512, -0.014438438588925998, -0.1980773945445162, 0.6344251346582166, 0.4513758955333354, -0.27557080778031134, 0.34786152168216405, 0.40954328458653166, 0.010108131827482473, 0.2855255376142131, -0.4500498500806654, -0.6254381214102059, -0.40811591418515164, -0.8193833900677455, 0.5034143941633165, -0.1481889890039498, 0.034793535128138146, -0.30798283697974366, -0.08746603066637451, 0.06646053136816517, -0.4947910338314809, 0.2315408734176667, -0.3414867966711368, -0.32770973810948933, 0.10688131925865588, 0.04732884391757962], [0.4450899521770044, -0.5350770542478072, -0.4280939610540861, 0.30675808379223085, -0.0064471757210373785, -0.3010733477583529, -0.32495871271193255, -0.10509067523388008, 0.1672495452362296, 0.008910420819183617, 0.0339417095106174, -0.28141159876258753, 0.43273553320285923, 0.2620624188755345, -0.2993781333849936, 0.22808754641602885, 0.21414820506474558, 0.6935266903411861, 0.09022124907829553, -0.30310798558638646, 0.4312128409197863, 0.1100845296660084, 0.443698848759292, -0.22323283745452752, -0.29855834104867174, -0.6854040077084206, 0.055713202763921034, 0.5752761067933558, -0.39311851764644634, -0.12494480408319941, -0.30387082030547524, -0.13272331897474537, -0.36615752814727337, -0.14922251527489513, 0.18955775115849496, -0.13453668070824742, -0.04115770806463302, -0.7760666658537115, -0.19441551060604456, 0.6067471653250869, 0.20851632529831335, -0.47504344890598965, -0.39015733865200614, -0.17010267628816794, 0.2624920283545635, 0.280365735689733, -0.3129669751978483, 0.3958017508944251, 0.06395221074637202, 0.04099046858269859, 0.015648444817921773, -0.15548381604852582, 1.077898892087915, -0.4454577154970413, 0.03402255491760752, -0.04403728071131251, -0.058568715132016204, 0.5372840403308488, 0.3565777041337818, -0.3157795629617039, -0.09247335824484192, -0.2609438171068979, -0.2947453306871362, 0.23379792852282327, -0.42775704533791076, 0.2983176697878883, -0.0008224422563459108, -0.015515268160135822, -0.8819899755862322, 0.38620717869439114, 0.22307018824114025, -0.35741656935247074, 0.15058691854706238, 0.29686656335018335, 0.7027610291108222, 0.2161596267168367, 0.6055511330020217, 0.3587968769185593, 0.51864531725508, 0.07776517266915953, -0.19494525546489494, -0.5269123682034473, 0.06586285491229175, 0.5653950263207773, -0.5360837077170612, 0.254915286134448, -0.04307370140598623, 0.21478602844528427, -0.39475933358245235, -0.0017398397277163292, 0.07946547225607022, 0.10317641011186202, -0.19696238302807145, 0.6430242998610695, -0.5109781653009312, 0.08477673307903286, 0.19753483518975787, 0.2990327232299269, -0.15647536585949157, -0.370704265218906, -0.4254486625897769, 0.39123233902126986, 0.09434189203896787], [-0.4633524078787579, -0.06574637330274916, 0.09582273771084213, -0.16286131103591997, -0.1222015476200628, -0.020771171333883932, -0.4601491349746203, -0.09337702511598589, -0.45554465237524777, -0.013336161510211535, -0.2700591359073243, -0.4372969381150783, -0.10283180014103693, 0.2516809516429056, 0.15591555257278608, -0.31080004506755554, -0.02426698615097488, 0.16404245776751644, 0.1600043457386722, -0.6048140833934742, 0.2441915898757494, 0.06736169921566533, 0.21806168778957133, 0.40102980755518997, 0.16285456597031753, -0.5413742676499168, -0.2909662091685885, -0.09520195870958928, -0.5273277455801558, 0.0932361194000138, -0.39057745922677034, -0.11282584413008484, 0.02478526980293818, -0.03542302061785637, -0.27031657768546835, -0.2672421765491135, -0.04058278798756285, -0.28866236555273517, -0.46490900854932204, 0.09114969609521181, 0.17093511472845407, -0.2691719003804375, 0.8200112129095248, -0.08805318632270501, 0.19706815992057763, -0.4938744546474908, -0.03272657209574872, 0.41982868835107484, 0.18208352184724758, -0.03350359464888122, -0.1502233025918177, -0.2873579368858137, -0.17279343026111854, -0.08792623133674897, 0.02934838493218683, -0.003340459629856439, 0.7068769781822488, 0.22014303566552945, -0.05659997918767561, -0.06752671928692225, -0.5686188232426976, 0.03687267953635395, -0.020330422420510204, -0.03468063248496789, -0.36564081449283836, -0.10758933092758272, -0.294393021688096, 0.5666965415048576, 0.04722031063134592, 0.23379128157982607, 0.4344664980894654, 0.344229622132979, -0.3896092531923435, 0.09207682124682014, 0.21481334008173367, 0.367125139978752, 0.07874959231979015, 0.365315990321279, 0.08417513570900098, -0.47952663640641946, -0.43420056862675793, -0.14734751005761584, -0.4994004816729076, -0.11127239544969919, 0.07650483822936589, -0.37076628433460423, 0.2591490854149491, 0.3954285652118052, 0.045010450354519914, -0.10576852258943527, -0.007442848329604404, 0.3760050879304016, 0.365324325107463, 0.12632330619860876, -0.4285999624976217, -0.0014756719183187145, 0.18698096269602307, -0.04539950058714592, 0.24384489324807954, 0.6127431649322337, -0.37745498576381264, -0.6754085268065195, 0.4146057651204114], [0.3843539279533199, -0.8458456984185715, -0.05356214043947893, -0.05484607073818072, -0.21020211736909758, 0.8804494089657507, 0.6366328073238758, -0.06664935048150564, 0.21353155477558922, 0.17505791746217586, 0.09769251993779031, -0.040136121315933894, 0.24190046016397604, 0.25695122805780285, 0.15791993284602837, -0.03351619349869044, 0.2571781533114776, 0.583146132712245, 0.32148527836205987, 0.5356738273893707, 0.2214969253187575, 0.542265049938849, -0.33871864785954164, -0.2980483193186795, -0.06628444095608689, 0.18795066167354577, -0.06720285904625545, 0.646808383868511, 0.4303269284878038, 0.4109440808433352, 0.21381528980201298, 0.6280770732375659, 0.18239617675887695, 0.5391451305285575, 0.6089790853076457, -0.07341099498423245, 0.293049617054048, 0.6194763342292866, -0.017840739389971626, 0.23627244581478535, 0.34922262437808527, -0.009604954047775323, -0.2875678892102952, 0.01956651209252642, -0.08064827195481336, 0.2902518681253808, 0.22608552249149, 0.8670807393810719, 0.05054303569776501, 0.11046309579306385, 0.3685227906288292, 0.27072077831838814, 0.2618018863221679, -0.0645261347015852, 0.003486178051638787, 0.08573287834929359, -0.32389481368777, -0.31622865083014756, 0.13542396233567572, 0.3374527234044612, -0.4670577315899506, -0.4922060618777767, 0.4253127275366657, 0.04565758191482713, -0.1236776356984305, -0.4190776931136363, 0.1541414866552204, -0.3574681002716113, 0.5282593358045342, 0.01627878178312524, -0.43778328857379634, -0.5485243196237939, -0.0821191265358067, -0.19900631865500065, 0.1840397298746575, 0.45050687927056543, 0.03575044824045627, -0.09061435465586254, 0.2336494503357761, -0.6540886713388325, 0.10837366573571595, -0.24426260319317017, -0.43634100305474793, 0.5757152530700691, -0.061249458579033474, -0.17470569742460293, -0.04133011495645203, -0.14070201593132617, -0.09919035374340038, -1.0669836626190663, -0.17178639063432755, 0.05013700622330826, -0.20122046500160998, -0.22253572059915594, 0.5849298622365577, 0.15821494627152166, 0.01613565145004957, -0.2508344120676357, 0.37044477400486814, -0.21780796791638463, 0.23825123389327052, -0.06163105447077904, 0.07341884852314973], [-0.4212696182924366, -0.5437816552408385, -0.3575891098520461, 0.33401806144245805, -0.12482853962308274, -0.6397516732718782, -0.22698442746021408, -0.24892262247750538, 0.39645266810195945, -0.7106010159877691, -0.21242284418418364, -0.072751397050236, 0.1454966869614261, -0.7324959637555996, -0.3631636355314418, 0.27108680269086444, -0.928024151376894, 0.12410594502949363, -0.332595485857605, -0.1677464439126422, -0.415589815533202, -0.33160982176642645, 0.37379346210359105, 0.11736737763831309, 0.08186960856586854, -0.7669739519195112, -0.05933943466402144, -0.007535326311233858, -0.508414232173519, 0.04564174991658115, -0.2610364276154289, -0.20763571864865482, -0.14521218556854618, -0.006924502066361153, -0.34933513429196295, -0.1546274264623363, 0.42207779316447575, -0.2872154836824622, 0.4787731290168096, -0.189438613046689, 0.10491091840039475, 0.37847759944303533, -0.16316401055894494, -0.3888666920165505, -0.2392208748705214, -0.9174237528298665, -0.46777637486360435, -0.7606933535469185, -0.4035090292601146, -0.30034274992522, -0.3007601987270015, -0.4318613835648659, -0.11015641057613075, 0.09789925282847309, -0.15002273801033172, -0.5922700807966702, -0.10009970690793611, -0.12272677278903808, 0.15228374044769663, -0.1130270805505067, 0.3123966619413132, 0.29000095738757214, -0.4183611279764, -0.7427765470133594, -0.16750410628310156, -0.19495103628353502, -0.45321660663707375, -0.20499418438081216, -0.14346999976733904, 0.09004570476932483, -0.51037360441623, 0.18581303622463585, 0.21629372272012723, -0.35395024106946993, -0.33991356857960864, -0.10967930766865581, 0.7003152130363224, -0.33480915499528946, -0.6329081696915003, 0.020651908604726408, -0.3246438867681493, -0.25300455037027986, 0.09925117844072154, -0.13297429160844657, -0.3089556311859223, 0.3758960702419131, -0.4707623621778206, 0.2632338749161196, -0.6688954367353087, 0.2700661151497899, -0.0877984593048951, -0.6876809519714605, 0.08603709806939414, 0.1464225045667647, -0.16727667291709183, 0.05437252088089266, -0.5879746041218993, 0.6015683910931169, 0.6103365845291004, 0.3901436956825288, -0.23042969029654786, 0.7489683923499778, -0.192206453303969], [-1.0954226159039935, 0.022141821454542212, 0.2934871140803734, 0.2361667054424747, -0.171577244915022, -0.3986766257307699, -0.24404472592218027, -0.05594689513652378, -0.5855788847009437, -0.24835364253638173, -0.5660779406218416, -0.3206509084802697, 0.18090018148181491, -0.0030152477340413537, 0.8501713920259192, -0.33903573627467876, 0.13378866388808472, -0.06477984320248435, -0.12826592283429697, 0.3911480400414247, 0.25697032914680495, -0.6985748552215234, 0.24031081976978522, 0.048226718178854495, -0.583401126560919, 0.1464292091346169, 0.2534944423602792, -0.303157043983624, 0.2575753450800096, -0.2432910593853416, -0.21523590684602267, -0.8454043401574209, -0.11167080569103426, 0.41634092702498005, -0.1520484637095525, 0.1756080014137474, -0.17336518501576242, 0.12175711132827748, -0.47897468756040706, -0.027925040983984035, 0.28471563992234594, 0.06304918318414245, 0.2656622479955782, 0.3549797129180856, -0.09437035300296846, 0.05367047344050874, 0.13781334128481407, -0.021168651187363427, -0.45491014380429706, -0.08228284125835388, 0.6009737746939667, -0.17416902378811355, -1.6366535398515107, -0.06773606316387987, -0.13410997856870274, 0.07795869881594693, 0.5521171408179597, 0.25332417813029345, -0.5294085718407986, 0.24497357633658046, 0.14346437551554525, -0.45929815023145476, 0.04660802235267566, -0.024846224452901616, -0.03908787669502112, -0.3838181140551586, -0.6363333494940623, -0.3099625326612729, -0.25293440297673686, 0.12665753618849265, 0.4732809312365139, 0.22681888259916685, 0.001835977138242202, 0.7236207662328735, -0.1880480219498199, -0.5838865923712662, -0.3252970001312342, -0.031342401924634465, -0.32266868433797663, 0.04582512780671097, -0.412171155143824, 0.09641380558809046, -0.27273586016891144, -0.6089471864580845, 0.43923855149335594, -0.48099190743719855, -0.08351122791376898, 0.030445755763706183, -0.15126122129059022, -0.11152507025896076, 0.24985218961208433, -0.13341082027169693, -0.20337070711912708, 0.11261872598659149, -0.33991319666151426, 0.22928422978660018, 0.10306737630240556, 0.17741734204005208, 0.14670205956144738, -0.11130256957276233, -0.3876357363481196, 0.16027554641586117, -0.6185148168012716], [-0.1288530375049551, 0.41954744522731746, 0.05182612581768307, 0.33049947616532127, -0.2120839148144669, -0.5833162659753328, -0.758928999576776, -0.4632529571543107, 0.09733928816792742, 0.11655622790739308, -0.21404777395363203, 0.13966076734132782, 0.5795045527929034, -0.0022711072736137793, 0.27457816955172165, 0.5792272760701381, -0.19882083047661203, -0.08597680814812649, -0.4842629599976186, 0.14629154756331708, 0.07970231332949965, -0.014480425664191313, -0.03456760612754179, 0.12761810094990797, -0.004938008276217635, 0.3044858097890679, 0.18813751896895872, -0.18385949873687388, -0.11391934661907033, -0.10075417595735471, -0.5033278239131864, 0.6045575073708988, -0.3167325800663349, -0.4997419589901216, -0.08982610571059547, 0.027614561447434776, -0.33918206020312847, 0.05846253361896346, 0.07448700461006678, 0.3882981640271351, -0.1583804622420298, -0.24908366089762032, -0.5423515514569385, -0.2213991240597446, -0.38774974233194154, -0.2082177399489959, -0.379280367529552, -0.17546212157266453, -0.46702554239574345, 0.3338169601179721, -0.31421528599265136, -0.2455772504623147, 0.5255455169724702, 0.11666122994756986, -0.09388997061052318, 0.35193198018367583, -0.01369756183167623, -0.2826013879084034, -0.5061382797523865, -0.04662238529430213, 0.5489149346990368, -0.5336387068189662, 0.47962607291546067, 0.15149949862522022, 0.31338967344643676, -0.40345354504616066, 0.05968923062179027, 0.3625010065367544, 0.02681146111584163, -0.19874521608883067, -0.08544119681418134, -0.3289314983248742, -0.38661091000945086, 0.03080452711009532, -0.14438958916678565, 0.4165232772640359, -0.9522856090058971, -0.214700484559945, 0.17476182406980115, -0.3857457636647051, -0.02972623099572315, -0.050226676285924775, -0.8903990698266648, -0.3175674040848923, 0.10234311441974486, -0.14808057674893335, 0.3788071698699321, 0.34628088194518053, 0.09461235591885903, 0.5871494223593673, -0.007306215399896211, -0.40505662481712845, -0.136015221893554, 0.3401270331607955, 0.14404675559732097, 0.3759207204173638, -0.3657127338969961, -0.011744265900977463, 0.03502892810548689, 0.05133724114911564, 0.7249743104466135, -0.04174059410039434, 0.245375396121429], [-0.07783599622844663, -0.5217593760553669, -0.22495268287103654, 0.1948742677755542, -0.07831889024614515, -0.31852499542832957, -0.33773638659620064, -0.15500532889395788, -0.28954379129761876, 0.37046058610866966, -0.2605319876925939, -0.050129755400612715, -0.12767687889885102, -0.19720924792496983, -0.2728331133368909, 0.0689988345621371, 0.11538086407504927, -0.36746399726049345, 0.23481778930667555, 0.15955365271508726, 0.19472845650951745, -0.4041157576203056, -0.4342281323141372, 0.05128820583350432, -0.25532249372627946, 0.27507993626164917, -0.23302972809713834, 0.24329664801474468, 0.025913909766975125, -0.42098800193373387, 0.375458217975665, 0.008208617825344952, -0.6401268856026395, 0.11627944791368307, 0.03587070001235595, 0.5790991512728029, 0.14307535744157124, 0.3192668904503458, 0.6020941905732925, -0.2590021269205496, 0.09833947465678797, -0.04607504124710519, 0.41190757831104025, -0.15846093460309757, 0.11008139166134165, -0.004751807570895586, 0.03615329899807614, 0.05935330542072501, -0.18225531904700193, 0.4080315503904992, 0.29243629607355687, -0.3889906318986804, 0.8744024946770617, 0.011823261652180216, -0.6100020342795355, -0.21321426216229303, 0.2235052184218469, -0.07487227196697867, 0.29004488051453825, -0.42560433182180485, -0.4698826182880885, -0.44409900822565035, -0.250707357136638, 0.024454562730187136, -0.1396550719317708, -0.14280026664274323, 0.011130362697618678, 0.2559592586080083, 0.16493423935541351, 0.048765296226363004, -0.29356587810808027, -0.0018705643234820206, -0.21790028996604643, -0.03818475897622216, 0.012954942335925873, 0.2595087602908085, 0.15061483969171954, 0.14827158609154947, -0.11072227253738033, -0.05708188288330763, -0.10810203597596976, -0.46419338519934733, -0.1260369700729623, 0.982162588875424, -0.4208072731681769, -0.15290276552215062, -0.25379939475565466, -0.6561717397643568, 0.3603853746143766, 0.12710049808753143, -0.2128874623931854, -0.2014798374082502, 0.026681416013766338, -0.033707910743833086, -0.02708043973915294, -0.20261727027244839, -0.05154268735841327, 0.2938314835267472, 0.10162493341254394, -0.22898705993939472, 0.26197390895730094, -0.019021659289069327, 0.2076511617441894], [1.0286978346405657, 0.1399562105608729, -0.09011138063244187, 0.04543899721700737, -0.25850245122692017, -0.200151229874592, -0.29765491934991634, -0.19292740692025637, 0.5482682855031346, -0.1135402372121715, -0.19040154566050158, -0.2832133526072288, -0.46129912466025297, 0.20313478529810494, 0.35227567355302036, 0.30334954943566017, 0.0759628998760881, -0.03886478131927691, -0.015595372843196061, 0.4757153341052257, -0.3531945702017843, -0.5530214800362633, -0.44989895071212627, 0.3872208489294125, -0.23854058298348735, -0.13250347305588112, 0.2073201961647486, 0.0559751022694348, -0.08613104502237759, 0.09826870684588271, 0.04044938280683594, -0.16819484745747107, 0.039075154848890487, 0.029437627130922468, -0.006429596959640511, 0.10392262085593702, 0.11063177653187282, -0.24829186357997995, -0.06369553606222055, -0.242460272276666, 0.05313499699350108, 0.2605153362532596, 0.3056464796803057, 0.06906815220247207, -0.4629651294163698, -0.0115913427739703, -0.02067697762701853, 0.008391578805193237, -0.6502307207981761, -0.09896209810402806, -0.1621012799648631, -0.3769099033553489, 1.468456196004957, -0.1612321020476215, -0.36863924788397856, -0.1705187752734333, 0.21164221084503984, 0.09422763057302984, -0.012327787556094462, 0.11964764877136783, -0.09205787666419427, -0.13523635153733532, -0.2677331281401672, -0.2202376012798269, -0.9197265715702667, -0.46887247087827777, -0.14502658663533233, -0.48080242498844195, -0.48286494381501555, -0.055123346999603015, 0.5731876414100857, -0.07911198648446624, 0.17515979409404034, 0.36335644823161395, -0.0775417107000045, -0.15851875544259514, 0.13946218358820453, -0.49868972622633834, -0.10766446974764059, 0.3315846432417491, 0.4332534490541103, 0.5152904195403375, 0.23683266294208666, -0.6293346343660053, 0.24596602137896173, 0.0070996460055969286, 0.35564452184253204, -0.4883450474044053, 0.21767294925727326, 0.2798776847451135, 0.5619410816198598, 0.11102270162379944, 0.4886276739905167, 0.08779287653773814, -0.21297390519474685, 0.29253640629555616, -0.5141556333987459, -0.25401177564752125, -0.21999716790668733, -0.1341147482890078, -0.37068191295228775, -0.06861162918467423, 0.10506908121964263], [-0.7163276153318245, -0.061598822279359984, -0.07850832157450802, 0.23076756923849465, -0.2895641424954326, -0.003907385150889222, 0.3571392285266974, -0.46925887092528085, -0.06886541976515163, -0.01912938090216733, 0.1130192250439514, -0.47548676513251315, -0.5006529023700438, -0.055757077582491855, 0.4963278771986568, 0.33677132866487125, 0.1387210090072913, 0.0643225659080508, 0.2940354817598516, 0.4560749255989505, -0.26516010775458937, 0.2956323089215893, 0.01223005571222028, -0.28269573343077364, 0.4956488456063676, -0.3450422818367786, 0.329671325076189, 0.0899524913453513, 0.20250221081495973, -0.19545321355450487, -0.14334372229173206, 0.1735972417280797, 0.08698942966283763, 0.1693647343303997, 0.1316319411351009, 0.05710301224672725, 0.47619767539704894, 0.1196130814072412, 0.03025419574486899, -0.07007992789069804, -0.2687570504682173, 0.13451135029886604, 0.1724204676812881, -0.24622587482281866, -0.31414555864380916, 0.29412675669909594, 0.10121858566418783, 0.6712714105878489, 0.11428484154646426, -0.10349736478889983, 0.05036088034374791, -0.40684337838474544, -0.3317077701982558, 0.2576809617146031, -0.0821586482509804, 0.0013504674232285463, 0.8050269010211267, -0.15641501841623942, -0.1349735746716539, -0.5373383767400077, -0.11831188424421858, 0.3162180504550006, -0.09573662370657275, 0.12335801209167375, -0.3349560449156734, 0.5732612392029833, 0.14509226986098986, 0.5904561720357384, -0.6119403608571882, 0.31113776938128385, 0.8421705364285804, -0.017814462772991976, 0.27669748500379093, -0.34436451245260963, -0.7600746224124658, -0.3560191027347228, -0.08083076483277213, 0.5661306754795113, 0.27903284482633883, -0.37127897987875796, 0.42610192484679676, 0.11692499715691343, 0.6084267819535151, -0.07689014500556245, -0.14864267015114901, 0.3372072204355076, 0.14066013718404335, -0.012580774234512905, -0.1601915119417701, -0.49864871059551896, -0.3134917472429408, 0.27646203059877505, -0.45370566306048077, -0.3452040276594762, 0.1569593836258681, 0.1888627850333561, -0.17507629993023754, 0.5245944061665531, 0.584970535960158, -0.24155881047130762, 0.2246763539985521, 0.19509187096288078, 0.20989647447975734], [-0.166566850140815, 0.219249625600079, 0.03075653591358741, 0.10695127986543707, 0.019347013349713626, 0.12898951926924923, 0.01889053741184631, 0.08576104503610893, -0.21913344713646388, -0.4878998638719617, -0.7126385965108193, -0.11771077664389336, 0.17147628614982696, 0.0886359261040529, 0.14526755123787297, -0.3148407677839173, -0.33903324109987415, -0.41797025194309506, 0.12172604940071277, -0.029558863539281964, -0.3350817496191027, 0.43086927519032103, 0.1323418757193158, 0.47705993539878055, -0.37767216237110834, 0.249875382935342, -0.4846936531160042, 0.2923295873659331, -0.07552301446304595, 0.002596850892421449, 0.4190792423747545, -0.02068694956515539, -0.0717108247050999, 0.06311935832085643, 0.6900118722847028, -0.47705909213320014, -0.4450683481275925, 0.06500034918823003, 0.21610053639191126, 0.1151291977450606, -0.2186729710910393, 0.2961387580304446, 0.00451786135186611, 0.6830745678118683, 0.36656102875836905, 0.5005165662600468, 0.22346794308408202, 0.18139240768837592, -0.2081697277232989, -0.2957880867267997, 0.2528985121337531, -0.5941891671046335, -0.230386016299746, 0.7463696183179088, -0.07243915563415997, -0.09870470239059327, 0.2491492299905339, -0.11232677662169004, 0.4905523763664756, 0.13876149556612877, 0.38373811494210275, -0.03280443060327284, 0.21976475414976435, 0.023639395972383553, 0.5565577035165298, -0.03193733587173472, -0.3617762325993947, -0.29716682313648546, -0.26536162425947085, -0.24864675927148405, 0.2911869263369159, -0.10161080232163003, -0.30628433780550174, 0.07420029598909475, 0.6735140984390375, -0.12241066287528286, 0.3845428590637034, 0.21318374541145071, 0.08276011123650574, 0.24628185645706366, -0.11661346215852797, 0.1354527669016897, -0.5575083860847126, -0.4110753915981109, 0.08671932736852435, -0.007161172716800921, 0.4164492675870439, -0.34327521458346705, 0.047536584197896754, 0.24115313724758664, 0.06230996917467059, -0.015822544994829747, 0.733759166240338, 0.38665909449713454, 0.07762007895367344, -0.42010083708783197, -0.23487259376905778, -0.028550529034116513, -0.21495062962247352, -0.2285837159122389, 0.004671038769808636, 0.13412580065973034, 0.033370141234326], [-0.18012050817078734, -0.1747656757168792, -0.08450013111953651, 0.1696858530136814, 0.1839118480356325, 0.2001807605674564, 0.0879829016859448, -0.17655964861803408, 0.29423275463429643, -0.5963498235020492, -0.07792163780006377, 0.16550954886123473, 0.36242685476011854, 0.18191736091176258, 0.059327564421884096, 0.2756295220806102, -0.16647839833282188, -0.3130338247569646, 0.45614512233443677, 0.06729462198941304, -0.35235059648836936, -0.13592752426927643, -0.06453055555797733, 0.5516091333963048, -0.2805285463284232, 0.09275607223445616, 0.31693954157378307, 0.31627469075459025, -0.03242155527923059, 0.3136122134411678, 0.02527473767404975, 0.23747494186571474, 0.3203819025252137, 0.05603021471538218, 0.04003797455766367, -0.2258471390745546, 0.1025745269326036, 0.2527986011661465, 0.01943341671553729, -0.389073792639344, 0.2904539944596757, 0.04405925856895925, -0.3637698115667953, -0.10205175320338578, -0.2884375482863763, -0.2930758954668646, 0.03155698266628144, -0.2059543347884086, -0.044021197313918556, 0.23016772346389627, -0.28910531983467674, 0.20454380136798161, 0.2188405184556643, 0.14111967668004796, -0.09732598558498319, -0.5667850194926841, -0.097246195366142, 0.2640507027541423, 0.37977917050279114, 0.12977277764665313, 0.1726894753568092, 0.4869868148703399, 0.27709707887704893, -0.13124441026949532, 0.07359640138676192, -0.395829774713716, 0.29154479026515284, 0.013372080030310011, -0.0016354595408598605, -0.32746303131808197, -0.047394677114453214, -0.12933381640316594, -0.44806814866963623, -0.3163821170403129, 0.39903102452197214, 0.10699806944295243, 0.383718285507147, 0.2186705114868706, 0.02983685646300255, -0.19302676882099654, 0.0183991786702712, -0.10496035510264674, -0.05532585296298498, -0.4477109171989977, 0.09754927046786112, 0.3353528419148234, 0.08584199401886489, 0.03777242883800583, -0.2634052629312927, 0.3555395824862839, 0.4860334991190559, 0.16822920060575922, 0.26517163950285494, -0.3426261767257705, -0.2321691121355585, 0.48782984174916544, -0.9657881008864658, -0.21337654991853983, 0.04462420753158019, -0.12073844291489977, 0.12311594175147067, -0.1628462256705612, 0.1962245080045162], [0.05012699384596106, -0.2539605621083274, -0.4153764742751322, -0.02521538837725889, -0.23887414727112402, 0.14410993783579096, 0.2367195983536941, -0.18484382490481932, -0.3507212754040217, -0.005389843866148156, 0.07920912637216951, 0.2299392309834708, -0.2794078591823661, 0.34235979801518823, 0.36002468927633413, -0.14463695158843087, 0.6299358598850471, 0.05594687683130233, 0.324683654883743, 0.12522351275031637, 0.7083147626951287, 0.2062005004108222, -0.7124197644161379, -0.685171712629648, -0.7826456078633909, -0.2765693762668255, 0.13718538462524876, 0.178073611481076, -0.1327654961179121, -0.27716167360730265, 0.04122126906332877, -0.3241752385374768, -0.3729553305675655, -0.4853382156269668, -0.3551259679006908, -0.35817119727973945, -0.29950639102874516, -0.1258240636740413, 0.04549574076832221, 0.5541896158603927, -0.17449327033920412, 0.16971972575991712, 0.046795967858517765, -0.2906430058162592, -0.22210923411602895, -0.4055066824224377, 0.22913529412513448, 0.17255822908489252, 0.08672995143991585, -0.1555427774355857, -0.3560865260275836, 0.19545579684438735, 0.1812152022008283, 0.22534154729890837, 0.10119898034568951, 0.23003797710445317, 0.18250224796594203, 0.2680277554815609, 0.21608936391985692, -0.22416153022719965, 0.01765033293304728, -0.3436591693383163, -0.3615441669251097, 0.2381316646804033, 0.10777134198191564, 0.26588005866489983, 0.16119906355247285, -0.3905698004314735, -0.49163054766075925, -0.2015841143876586, 0.13754852425133585, -0.2643339159248759, -0.11718920883995484, 0.6479700340422699, 0.4238149104269048, 0.4884106476180429, 0.1153210486146003, 0.21870305166656653, 0.6092754181984723, -0.6665521064394773, 0.13893849939580805, -0.18981043714999626, 0.6099210335796402, 0.19655589099506746, 0.2288654349601299, -0.04930900178109036, -0.06030295432649665, 0.46647612640561514, 0.41952807060884467, 0.25512957916366763, -0.11419376703378334, 0.4897729017715799, 0.11697248774144019, -0.059281302800980845, -0.23706621751665727, 0.2559524362238612, 0.8106128051413998, -0.29351693450609223, -0.8979120673506427, 0.9118812715239225, -0.3484440264433811, -0.08607459348022677, 0.4774236146595031], [0.0556308754564721, -0.46239464197638197, -0.12444309497905529, 0.5221419373884354, 0.5343722522675197, -0.07690882548995881, 0.0005553927184044302, 0.0002898649742967238, 0.23290844380981018, 0.09281541238691061, 0.020787775505471614, -0.3128683907696892, -0.6544604049754674, -0.4096258161266143, -0.03225574811901178, -0.6881775702344983, 0.11008533940215302, -0.48520467431891345, -0.032970379382799384, 0.21811424630119158, -0.23892814266577497, -0.4130563402674461, 0.01935321397369583, 0.9852142324437142, -0.03598936050281814, 0.18708422984824954, -0.544605995575294, -0.19614291075927698, -0.15012775835793601, -0.08340950640017898, -0.48734429030550486, -0.48377000629851125, 0.05983380421224468, -0.3961053395096403, -0.3148479287730497, 0.3015565067754146, -0.21290188083670827, -0.36037003961620656, 0.3538327726151821, -0.11494097348648052, -0.29080608617014087, -0.11056153702050271, -0.11206665784697503, -0.40161173821073637, 0.1263895619048853, -0.34518302324293776, 0.17450588378725143, 0.06754519810155232, -0.1048558140371827, -0.016295748249876646, -0.010551272559650623, 0.1383730216729217, -0.16579773603278644, -0.031394941538529, -0.01300092592970045, -0.2258164278548525, 0.10171105251011493, -0.3180481815512185, 0.24204768829670878, -0.4521828554609136, -0.004498753059096105, 0.09277706725793165, 0.3442396066277883, 0.5288268351911267, 0.43974471039607954, 0.16388120318073426, 0.3955236559739667, -0.3348132431431513, 0.09952975343842453, -0.09686672184632691, -0.20523254982825206, 0.35522914802564093, 0.13046753017096735, -0.0235978160968187, -1.1999778470236593, 0.3323377231123372, -0.2446440853770416, 0.36189489613188036, 0.2982286404691616, 0.25983679673649734, 0.17792147892041454, -0.13831957431328729, -0.2945778111619808, 0.2095936185892417, 0.4329596256988872, 0.6932894152794057, -0.5220997970024228, -0.08784993671781849, -0.5097170784126842, -0.23690304684741803, -0.7448599394562244, -0.10953055778103565, -0.31383851613102137, -0.20021425900113143, 0.20767085163388413, -0.45532185798716485, -0.24720694534953797, 0.9912059465978187, 0.31570317651679397, -0.2522749793657547, 0.29322047784472677, -0.8985670278151375, -0.08584255278197428], [0.3220857211235528, -0.1602502304563675, 0.014148230161093695, 0.1901679128299029, 0.27198616653340774, -0.17465470890640553, -0.19094064205556313, 0.2525672324574823, 0.7891150087006933, 0.19372559636065548, 0.48787552476696855, 0.4764562839564416, 0.5781384594518206, -0.4426673805892052, -0.18804583438198239, -0.5245387026238545, -0.4595347428617077, -0.06280679499874195, 0.054889893488532994, 0.6742957679073165, 0.27758136911273584, 0.01952062261016931, 0.7744169555302362, 0.09326665481000529, -0.19447716689584613, 0.5167208110160181, 0.10443709839974369, 0.2922421284371984, 0.11961163698839575, 0.31877738943825856, 0.292028452036099, -0.3014103721038013, 0.06506698904442954, 0.2642772567283448, -0.04565037651146056, -0.5083753932667069, 0.10833944049750004, 0.46993361622405866, -0.1720005875276747, -0.16411311313807297, -0.10655681212710394, 0.1405976520670163, -0.2037596175875158, 1.0227745766896081, -0.3452724311152206, 0.6504254061668522, 0.05179267420788028, 0.078389219259889, 0.07705791523444508, -0.017875401876500906, 0.22749223093718343, 0.3055021908606029, -0.0456473144772852, 0.23443059108713518, 0.5125816941391237, -0.18124824988654595, 0.03374290063436425, 0.33791825458395325, 0.01597221503299875, -0.1696183860657063, -0.33563249829934594, -0.5708157083339276, -0.15878830608743666, -0.4666951639899313, 0.5394458366530028, -0.12481270670668299, -0.02462915286352838, 0.52196616393202, 0.49629960363720954, -0.0031402261158871296, -5.607810284757261e-05, -0.014989550114524944, -0.07261247762640291, -0.29192013828369356, -0.016753183216367633, 0.04407657455243957, -0.32459962045984775, -0.15661627791794766, 0.01080139784395953, 0.3392029381571804, 0.07754878766870912, 0.24668927394955947, 0.513803688867407, 0.08614768702156084, -0.035632683576114675, 0.203822071688895, 0.6935233801624552, -0.3077732545308585, 0.11761161692905764, 0.06091325102987326, -0.15424712531350707, 0.14568224993719542, 0.11525074245495066, -0.5405577086463235, 0.16152739587679887, -0.05779508539500344, 0.156636858055261, -0.21680779564627733, 0.11438271058297407, -0.6703824045278077, 0.37492790740847165, 0.1410026355999769, 0.46347942865706465], [0.2093525143913932, 0.11156603324942409, 0.25336638568061004, -0.34273140082810644, -0.01550491190288909, -0.14314268200048055, 0.25190859825894757, 0.7164668979395232, -0.668420547489687, 0.09483981197021575, 0.11858582793941753, -0.0041036638345016375, 0.18614544502749522, 0.05488961923862996, 0.0436435866179827, 0.5397902460812042, 0.020958738403428174, -0.352177969315348, 0.056058334795530136, 0.043579868746431494, -0.10635817577868424, -0.26721065293945234, 0.02735036421532585, 0.1887032782148296, 0.06218219632231298, -0.21919832684298562, -0.22729772377577298, 0.037315229762920066, -0.15047422029530114, 0.19793536483935237, 0.16447831514345068, -0.1366414954084695, 0.22794951260341356, -0.21187907911099213, -0.2161084090216907, 0.1274928700829695, 0.2903880479975021, -0.02607391836250524, -0.018847010211369752, -0.2998415517323652, -0.14521706015387298, -0.11225317320562016, 0.5139385331798155, 0.2631893679634916, 0.051881002545982, -0.22177884239243303, -0.17363215747851454, 0.34517013268027863, 0.13905316578932106, -0.3803997651676213, 0.046074718658956314, 0.2486331193034331, 0.38679021728969165, -0.06322877832699661, 0.06782325304790328, -0.21523440517102746, 0.30856539166076535, -0.3857466051073698, -0.07869034638721044, 0.022498052340464127, -0.5816436898099073, -0.02469225896967586, 0.49091830145172616, 0.3683181103104781, -0.25486895069848026, -0.27070141945175746, 0.1302902304217464, -0.06674116127644018, 0.12830432000092715, 0.024363517794124104, 0.5905737657785998, -0.6058498108550424, 0.4031026989239131, 0.21354842195093382, 0.35131568834159743, 0.40306554364979263, 0.42983894164748093, -0.5359994579766827, -0.2988145473473508, 0.31786015775651877, -0.009911192328297137, 0.09481974476705285, -0.2666345228157137, 0.11849931562771272, -0.3104492127682946, 0.15507816284772902, -0.26726474210063256, -0.315008929736365, -0.05151304434778909, 0.3156332233713519, 0.877354152416489, -0.17180173831468215, -0.741640449369642, -0.37557284503225435, 0.39180887748300364, -0.010941393365714902, -0.32541470860482474, 0.10237589660361214, 0.20582804281409095, -0.019177593733858696, 0.1783194004190698, -0.2502567731591337, -0.007031674508949197], [-0.43140582016924567, -0.022397061709969326, 0.05440371294615466, 0.37383152418816173, -0.06981515814643367, 0.160798221237856, -0.12290408667674725, -0.18025311515020614, 0.15226364891036767, -0.23216400674232465, 0.2668811313399286, -0.305492688621019, 0.13890903449642883, -0.11154092947649902, 0.3333921675713835, 0.0654501588230794, -0.2552422923400839, -0.32256088697866553, -0.7778046181280941, -0.2574946343959177, 0.22338723641881197, -0.374950953021396, -0.2916644914645394, -0.23830651074348866, -0.05264657445156409, 0.260493764012583, 0.33414971533772875, 0.7382252212843848, 0.5285059634391622, 0.2818977910636156, -0.2171394416243354, -0.4267437811787792, 0.1973129090977398, -0.10884621071007068, -0.17377334885729273, -0.06758226584787018, -0.13762911156630414, 0.5536813887430475, -0.19821693218130468, -0.6352879877089307, 0.08623723512240765, -0.3905806330745603, 0.12010331079324121, 0.055469728506313244, -0.13333439086051802, 0.23848350031844587, -0.22839639815256085, 0.29221957802838955, -0.3152144900695652, -0.016644084575349456, 0.18571749142476704, 0.14896352531592724, -0.30629523320631724, -0.3689954922792674, -0.05395329268498839, -0.15917708463125954, 0.025389287524243267, 0.20596325728374643, 0.6327819520284932, 0.10895593652885881, 0.2158361718161364, 0.07461263615099831, 0.07730051514010321, -0.521179909312918, -0.3494017529296627, -0.09240307109444858, 0.07534110216464497, 1.0726004912887672, -0.009935759567256026, 0.5407874537816993, 0.3484958122194477, -0.009824064597902938, 0.032004234510683835, -0.30377221552724426, 0.044902988535841425, -0.13813671548326126, -0.2976669820342294, -0.40217031439671713, -0.19353192882723105, 0.14715335120047734, -0.14499868262927662, 0.07861708103813086, 0.07170714011140135, -0.35282041516435236, 0.45209252307387116, 0.34888367210798477, 0.3392101983480176, -0.3497906230868432, -0.1504843592317948, 0.4390842391693492, -0.060509892760787824, -0.7131225531081159, -0.2085426965362964, -0.4647737068542542, 0.18552029798145617, 0.23213297195795393, 0.038466129694006056, 0.16278313574765566, -0.1479294887880019, -0.19035852311799184, 0.09187244270925322, 0.24926786900554682, -0.27387098486360034], [0.3130891686565322, 0.06993628012831953, -0.05729835731722063, 0.30593319391406665, 0.07572886752856428, 0.17801568871877055, -0.18084623860213755, 0.3563618712948628, -0.18161574212752404, 0.17936857745941806, 0.11874474399269408, -0.10408866612309128, 0.4811917395222264, 0.020214428850148965, -0.3252076615777543, -0.27065454978265996, 0.4282983373316822, -0.31787417238590016, -0.03997961435297587, -0.16589135255639004, 0.29435231157966746, 0.9551112714823071, -0.3648803955445183, -0.42137507961835957, 0.6431398163033454, -0.415561104984102, -0.11331197055033165, 1.163781476875422, -0.031035693404950552, 0.2615860394232934, -0.07043822727725883, 0.2933721480721905, 0.2085306062975854, 0.30896509185659843, 0.36231389181699686, -0.26847888086963834, -0.2652029801704378, 0.36922531571605377, 0.13108811719333785, 0.007281163370373542, 0.4449656229178967, 0.2382905050831326, -0.35467550543776916, 0.3359591431853892, -0.09764176647816894, 0.4014177110632408, 0.4488195934881123, -0.5546484071496783, -0.14762232788296584, -0.09247671167967421, 0.02357432005812423, -0.3080876224352209, 0.3559032228369494, 0.14632546909689834, 0.4764352090040183, -0.1291223137326127, 0.027018072987910435, 0.31749333201319335, 0.18289873348138003, -0.41701537566662655, -0.24181415068864134, -0.20201442003365253, -0.3026730322274049, -0.31460490337639135, 0.09946853492047053, 0.2887143913086564, 1.2414368431214498, 0.3661024011717151, 0.783885182337942, 0.5330791109341046, -0.30548767414349737, -0.5585139515943582, -0.5724930799403996, 0.1986869918240202, 0.1715807157772582, -0.08108984121239458, 0.027069271644145194, 0.27710922992070963, -0.2750538548416082, -0.2787686589367712, -0.15473632360789302, -0.1334142031744962, 0.35002398631726955, -0.3244164011645804, -0.09295346781965518, -0.23285471407882616, -0.23163248643310844, 0.11575651931471574, -0.439209014849927, 0.20391814036714526, -0.159258552755811, 0.24845498217802417, -0.6094148448265844, -0.3368385233821798, -0.7471453905025085, -0.05814727439385851, 1.43529965506993, 0.29882456739802493, -0.12657840015024016, -0.03182379856157357, -0.5187916486287103, 0.07783786527247717, 0.3138509839904292], [-0.58191812134613, 0.06687112100930521, 0.049284057661042435, -0.09781649530282255, -0.14234168765527053, 0.35409480931551857, -0.4092603291936196, -0.5064746821047234, -0.42273910534014597, -0.47424826021957395, 0.07386955845566573, -0.3891007810675325, -0.24551670748444632, -0.24567813499753174, 0.7029971438894447, -0.10770114856251102, -0.08381904986795012, 0.6896761467059198, -0.016466006212880257, -0.029819805173965937, 0.09507987778653168, 0.2954837375417016, -0.2708307622192901, 0.3458943188604038, 0.1642467623012373, 0.3023022957290185, -0.04283312039213089, -0.17678933774534494, 0.15852551163800715, 0.0207679368626957, -0.6157130196851721, -0.1420496863567917, 0.017704711057341782, -0.3868916540196099, 0.08739998823423381, 0.006737503679871497, -0.3810172537284138, 0.21439078966701228, 0.18905112358132642, 0.04626319425045497, -0.13314989404586858, -0.22134812450482827, 0.055916442790152426, 0.03561397000216415, 0.24119110305090344, -0.36408118867621597, -0.2647255849844035, -0.16173234081357543, -0.18708614205377366, 0.38545986285747086, -0.25765378556526686, 0.03561168222830531, 0.2772869466615773, -0.15096925757106827, -0.23860102880152256, -0.5318174605607758, -0.25749851949026054, -0.27147136262376936, 0.3408877036811678, -0.1314192913168159, 0.5520029039027005, 0.21489219709446564, -0.4067603406045658, 0.5273386891642563, -0.04353949904438676, 0.36115178357964384, 0.6960268355653537, 0.01465407531498846, -0.3901735629910495, 0.6049890522960799, 0.08131673766244162, 0.3299810531711386, 0.36477517845255863, 0.15633376583374242, 0.2742950913212702, -0.7510771233321504, -0.27780769838041175, -0.34741497758875134, -0.28129923443198673, -0.3924596702701161, 0.7497989296031878, 0.11674826151892037, 0.16143298575415108, 0.27316328784452215, 0.20893784621764064, 0.038423341385273244, -0.2327522248303947, 0.6233742281254099, -0.8515669976601813, -0.39048921096728123, -0.6250966872953416, -0.3552383343406974, 0.12910434907739998, -0.18720529060916294, 0.19330962856032044, 0.41304848015057744, 0.30562788000688357, -0.571293168557175, 0.44763432062224673, 0.41336787269893205, -0.12225156796756781, -0.3807167219774991, 0.15576140601851116], [1.432057836980685, -0.13143217923817999, -0.26985763419767267, 0.12374651707373407, 0.1362337900385069, -0.27060230777528027, 0.11355172700428275, -0.26598735967532405, -0.41233688633357574, -0.2978490003808917, -0.09091806449382983, 0.2554761263098688, -0.5712350055900395, -0.0829107827302968, 0.48890468909083734, 0.11142252376892893, 0.27473363418753266, -0.24100306494022267, 0.10028461198742511, -0.7427119469657654, 0.2874701849334007, -0.26340189462629293, -0.5715696981655947, -0.32271590545367423, 0.15493465945099638, -0.1587874165922023, -0.17818636102256954, 0.020669231870911967, -0.11851042020881532, -0.2637783973122221, 0.10353625219352909, -0.16804350210457705, 0.809910084610143, -0.08702204377786116, 0.14132042213042037, 0.063790037947821, -0.42872832205826816, 0.1677348818623288, -0.16816602331403452, -0.151181115368472, 0.22579097054590938, 0.17843192529048887, -0.20723750870176064, -0.5162860499549558, -0.8576783654858448, -0.1417320164191962, -0.07590170646973216, 0.253193534396197, 0.12029622074848291, -0.010188036596360736, 0.36051051096767817, -0.018851185218407018, 0.6122457085070759, -0.5134859131381444, 0.3555842132831304, 0.14928827759734395, 0.3854017965154344, 0.11681230765687768, -0.3451141617794801, 0.533945998101856, 0.4761842134430357, 0.6869234568978548, -0.2952983753973864, 0.11379450563717816, -0.5095069844663751, 0.6803345311381771, -0.11619506397647988, 0.2985178141432708, 0.13282696449242448, 0.5371376474800752, 0.5351166137273368, -0.4207415876702737, -0.20561096032254092, 1.0832651861499214, 0.08267024067797729, 0.5330126415758019, 0.24221659171084015, -0.13333941967072147, -0.17445605611912765, -0.527140956637629, 0.05917371047461753, 0.12490799076027174, -0.6089216219366507, -0.29873263280430373, -0.18230856051341365, -0.3176850091060322, -0.13782786456327548, 0.12500522026329383, -0.11768249633497699, 0.24486292758229775, 0.18369682873254942, 0.5105194931341348, -0.12846102931150843, -0.05259317857646455, 0.1679093149929536, 0.2027971589648196, 0.39675795099146866, 0.1767606991309259, -0.5996755161259444, 0.26378805370500386, -0.3031037681247491, -0.4006261412062288, -0.3828637259857695], [-0.2053499097853752, 0.002095538706260399, -0.4394052801964461, 0.08094194406186465, 0.05406720557065682, 0.010343315169622402, 9.485085485987118e-06, -0.36368575477115406, -0.25890571447080135, -0.23576284102423434, -0.2245206408533354, -0.10784041836470042, -0.26085187281250205, 0.3923578253738377, 0.32213182330370227, 0.09058240544518294, 0.7724529764634078, 0.3018654912379195, -0.01781203732729844, 0.3112394139042953, -0.18558784736675357, 0.11475626101879972, 0.1893467021450815, -0.14899104416603845, 0.2963064448923781, 0.0625927183011347, -0.4090993589945229, -0.2642253611271958, 0.20551723976601027, -0.25025580363329514, 0.05523200803480374, 0.001283742485669769, -0.29104130497330305, 0.34615336435416577, -0.09563038015564616, 0.40068420695057105, -0.33467554396423743, -0.14356487336091886, -0.5774048895424417, 0.013073933633788042, -0.39627672601422126, -0.2910073444739493, 0.06354022475341972, 0.10619307663836504, -0.127246495128997, 0.7096362024875597, 0.6965992063928388, -0.144779206926221, -0.1256532467145823, 0.18726600269578197, -0.07191048587620173, 0.033780773874478615, -0.004724971728935923, -0.24868265091130456, -0.19007127295891418, 0.7649136151057045, -0.20133610441420766, -0.12376509121495934, 0.44264746818219286, -0.11569522365915794, -0.09178505613000033, -0.1921980893833818, 0.07266846201336771, -0.443285972639678, -0.1834090829519772, -0.42879341102117524, 0.00329830481499371, 0.7827532480769246, 0.10322964612034886, -0.16922377980152545, -0.045108271674852075, -0.6109591269311307, -0.2875566397922363, -0.11599414896889448, 0.19068953690239399, -0.13107870089523332, 0.3310862643217431, -0.1806778356528408, -0.20657124531503054, 0.17423922781663673, -0.23356716707342232, -0.08306990240712593, 0.2922121365773595, 0.272028762964694, -0.201371641842396, 0.1885763484557961, 0.22905145298444402, -0.13925196306746443, -0.264100127256493, -0.06413467002202042, 0.0659917351590556, 0.08421958063590469, 0.2758323295867484, 0.6095624223702969, -0.13412213819972374, -0.4211422935407359, 0.6778938437206633, -0.16817758748831546, 0.07759545174265685, 0.3241338424320926, 0.3224035396308851, 0.21534373439442714, 0.4357208319516421], [1.0569202623505203, 0.31020419592069287, 0.15683798013576197, -0.17071218929802243, 0.10556929493841888, -0.064486946187463, 0.005091014493648399, 0.16834880657266704, 0.029525210843647502, 0.2092371099833871, 0.09323137426354591, -0.4042310280343146, -0.25110608433892284, 0.012621143983492405, 0.5452400779980133, 0.6165177279597356, 0.508207983737117, 0.2264442691707675, 0.6919829086590298, 0.5922812498997617, -0.30012275730281074, -0.4012215251019449, 0.2852880245857593, -0.6251529354254151, -0.15581000446264104, 0.17545704997641984, -0.050571176176387955, -0.404639549738944, -0.0039648008289866555, 0.25184368585324773, -0.06564468514731339, -0.07264702189835184, 0.25005945812806135, 0.15550963845512006, 0.6462284245165378, -0.06752453845991195, 0.2776802111293881, 0.2236073009240328, 0.10807270114557142, 0.07033244505895637, 0.15174801332783755, -0.15574030089957316, 0.08190209279828407, 0.3852892785917534, 0.15612072733444257, -0.049248221658258796, 0.3174180801011956, 0.21914288965000223, 0.6292102439177341, 0.4550553171920557, -0.3675163198133596, 0.49490932345990196, 0.5282552578006984, 0.012294515941811668, 0.23578122917966096, 0.24505609856317923, 0.3272597757853965, 0.045957686377212384, 0.045858381701607664, 0.02061308334893006, -0.39906082667295373, 0.32128723954124916, 0.15178313700816046, 0.010558670660008096, -0.25253333070272616, -0.4799719104347952, -0.28685951425408074, -0.21204336694921494, 0.30642437702268205, -0.770211982562166, -0.40686024536878634, 0.064508642016594, 0.7348563165946991, 0.19224618766853585, 0.5312005290072864, 0.2808370881425353, -0.6224418610099758, 0.25943786642861466, 0.5181230196830137, -0.05106070218300348, -0.0015650713840999724, -0.2466231364027665, -0.2409981316869345, 0.09784391439192855, 0.07379832630490661, -0.12935902003379277, -0.02027394378065639, 0.089590884713549, 0.11090468234822118, 0.350442662003027, 0.5262642835062517, 0.5027379425807744, 0.025652779140265064, 0.5902460277962842, -0.17306333662083306, 0.25723181970766384, -0.23902339028160047, 0.5356371242089194, -0.08020221489252263, -0.2176322429704058, 0.22447947232591392, 0.25165034158005994, -0.08994613165641938], [0.9623275312696853, -0.37880142645509934, 0.2050388837467121, -0.15762310020583348, 0.05365514134936009, 0.4396396044057966, -0.5213706988858301, -0.11421618540489661, -0.07220085426872871, 0.6907674271330138, -0.06664449128193482, 0.545607957565372, -0.046026695369358446, -0.12409113180721425, -0.31722756317551204, 0.11514743650337374, -0.4190418960791337, 0.05900524592520576, 0.13596047179540802, -0.27492544438447303, 0.25274785873286504, 0.11384387017836427, -0.10312831893511122, -0.3605575493101495, 0.19684313217267818, 0.20630979765654847, -0.6220305937697006, -0.14133323995406982, -0.05770844134562515, 0.13407312701532964, -0.12906619599993477, -0.29603861951927557, -0.33501095675002845, -0.36010327932778013, -0.29393196010263806, -0.4958195827939588, 0.21229432609301108, -0.3676406001235244, 0.40530589062982414, -0.3906018544672169, -0.08053998932098015, -0.07479038816459573, -0.05508503029547943, 0.016065583890562566, 0.19192636505436347, -0.2768666839137806, -0.25724998097960183, 0.3525099244833627, -0.07764512640403401, 0.07805283269200944, 0.3317444418415935, 0.08154466387797599, 0.6425705258851135, -0.06462605313136914, 0.13457152232591496, 0.03625178293013112, -0.27702175642268373, -0.07536314665301355, -0.8158061035841455, 0.24063525711676215, 0.4719148374721087, 0.562436636759458, -0.4164841173601691, 0.3838772324582122, 0.38233427605555464, -0.20806573025760233, -0.0657521536445483, 0.005574480022809317, -0.045528158243858766, 0.07866900529150919, -0.2426615761461209, -0.1518728805680511, 0.11934022694823324, -0.17760035782331246, -0.9388990908323503, -0.4638445122770611, 0.2655705762091741, -0.41682577623941136, -0.3064286851686718, 0.2096617210050887, -0.30573186942327807, -0.5517231089182671, -0.31930694101907925, -0.08431499370452948, -0.22141567914308685, -0.1515109206810347, -0.2640116139255482, 0.5297406332039541, 0.0781874596617441, -0.02133867392841619, -0.16219810237120127, 0.5993802848735391, -0.066912289203559, -0.4508087155011256, -0.06997133712410054, -0.3224144720663604, 0.2684901458631739, -0.1482679991955991, -0.4245038021771143, -0.10806684352064294, 0.19141795835256548, -0.21143227525428182, 0.07656599795134887], [0.10046199445858922, 0.3139140688033488, -0.4729593529042093, 0.392076799161488, -0.5134569443147976, 0.3904499976722027, 0.3351260990265081, -0.1909676835732818, -0.140403571119739, 0.3945903208313174, -0.6095358294711608, -0.15842091695962862, -0.19705411908282205, -0.07058499219206914, 0.48300934785839533, 0.1498595125607726, 0.28138661380061936, 0.27613500406347113, -0.350333621979321, -0.23775331866822724, -0.02912898254965803, -0.008367727786133688, 0.74591273753427, 0.00272992473857464, -0.2805992964591204, 0.08200053722785527, 0.11532216745386521, 0.01914573774491815, -0.270755485149117, -0.25630657838873966, -0.2592342373229947, -0.07794701505280158, -0.060145121064787595, -0.24960003497117703, 0.05745332103299265, -0.4923658952304062, -0.36788259658304356, -0.22108651248860156, -0.21362569027064457, 0.3632490786155006, -0.38405034453782344, -0.45582292909908684, -0.48689321819302583, 0.03904964047022415, -0.41292047282263616, 0.11983160653042393, -0.20662785208976725, 0.06137690108560596, 0.24181655452591908, -0.581496020122462, -0.5512543349703042, 0.12152226099362586, 0.6615380680348227, 0.40173425701152615, -0.24512171853569675, 0.4905727465885848, 0.0650448866372454, 0.31656209117479117, 0.04204819118836923, 0.09794506198140415, -0.40656507117354557, -0.26240999948978355, 0.2933034531630738, -0.49068943417188254, 0.10486194479130763, -0.23070036395702492, -0.594003731235147, 0.20615631687718858, -0.08510728500805158, -0.03538762616508783, -0.04782991270999638, -0.16989643437894586, -0.19467879329498672, -0.5139847078485859, 0.10015412343479496, -0.1921065900763679, -0.09517787581315784, 0.3159857862534658, 0.35107382681874333, 0.6497857930664239, 0.036859412707896326, -0.04714047178839244, -0.17023653897252106, 0.2552819419347769, 0.04473333703840893, -0.4140950522411219, 0.40533102730040177, -0.1485527731910499, 0.3760141073139088, 0.617871016511667, 0.6433415816869795, 0.5729807444308848, -0.018215935997115275, 0.24610020497804724, 0.19055535722872052, 0.08314359539737727, -0.6933447491264463, -0.11710006827308071, 0.06134619902956475, -0.3213837788892433, -0.5859282856404795, 0.604131066705, 0.06302860858519786], [-0.38290486572776833, -0.017442711547792658, -0.04682634544263612, -0.07591936361409175, -0.2251379117724735, 0.2294600203643344, 0.36212155437032545, -0.2263997204440873, -0.18603813741113467, -0.7657751722376862, 0.19925218443001633, -0.25367423135743405, 0.14004312068048702, 0.09337751717354838, 0.15887815359304358, -0.20904034412009972, -0.3686090752185555, -0.6053320500207938, -0.636455176189329, 0.3352655564042012, -0.24881754448272336, 0.02756327300526145, -0.10428453827554399, -1.103833410001398, -0.39074625930648654, 0.16617510334450414, 0.38407091942871685, 0.3567150345444473, -0.5083035864177916, -0.27097501282253167, 0.14846745044327675, -0.16755941601575977, 0.07656180399776182, 0.23916013454823223, 0.07450568967311301, 0.039198487667842466, -0.35438496960089705, 0.12792181443991607, -0.04989934018702421, -0.27144188343509984, 0.050450823983593684, 0.2354508729501522, -0.1301256156085012, -0.11897796016246855, -0.7663589278644997, -0.7031507990056134, -0.12918147384968515, 0.06087434912500373, 0.26440788539560034, -0.13741844839713194, -0.1468985087620923, -0.7730224623740451, -0.1431731079719227, -0.31131868105898314, 0.48935440816256304, 0.24558275584642603, 0.14428186000212442, 0.2842961979020175, 0.3741205323000897, 0.4317926395551648, 0.675321199247914, -0.6511109508790811, 0.13099248097963176, -0.030132012527433995, -0.16007823507727081, -0.23159143351772718, 0.30850781579211606, -0.004052640877051028, -0.5864910275368953, 0.35687864611392, -0.6762440873395473, 0.31119791818672476, -0.07431854641216522, 0.08188352731728571, 0.5479143048436756, -0.15783585423000923, -0.3890756799250691, -0.9251733669059545, -0.5806627293565371, 0.23225532130922835, 0.25146272691561683, 0.3192123248778328, -0.5544713486068664, 0.27323811273674503, -0.2817123048731828, -0.23830545001410322, -0.0561753536462792, 0.2668565200458787, -0.01909966863759691, 0.3401250590126815, 0.0010841809562278555, -0.5937078992265714, 0.13923720994043523, -0.7144774252172935, -0.10080882560322371, 0.5317517631155363, 0.11021928717531058, -0.5527222871253262, -0.3327969816355226, -0.01574771191744811, -0.12777045954959537, 0.04002419584795958, 0.1473467228614644], [-0.20371796583040502, 0.09086376136157574, 0.09258354047937219, 0.47842911780595065, -0.059782010500773836, 0.3290045426243395, -0.19862906251416623, -0.3575896937551268, -0.382361466592478, -0.30043172195879153, 0.28019087324563124, 0.5813886479311638, -0.3915554424464292, -0.024682321170063554, -0.27970747089887416, 0.49210678447683226, 0.6766015841910745, -0.23590628689504736, 0.07509823505726462, -0.1884201540872863, 0.06125365406958917, -0.5656379051825459, -0.3749925684745371, -0.3616514309541067, 0.4098707895716254, -0.04679576306116716, -0.5584436379178599, 0.24586760927058193, 0.11121468584021792, -0.17685674585738168, 0.12313566966885223, 0.18249831726389978, 0.07154036555058921, -0.09978615172077997, -0.3061213450681039, -0.3560427192923036, -0.24015007159461438, 0.5166863918371309, 0.1725332440244018, -0.15097784380836635, 0.1530081167005871, -0.3601097463693195, -0.0731222485582977, 0.5935509737642604, -0.5440392238818389, 0.2400569361904184, -0.529440300384605, -0.41105431793137265, -0.0356130619037567, -0.1484525769084133, -0.4009849753531522, 0.10980016216878272, 0.07586554294919007, -0.08859640814961635, -0.6257197497598472, -0.0894017288666589, 0.09623825028842971, 0.04650030917102606, 0.025244346160396464, 0.26275419421635193, 0.15797149677995503, 0.225385024232591, -0.18630377346628593, 0.006609734159367905, 0.05041991219299263, 0.5180123460788422, -0.18403512262033284, 0.01074381848704796, -0.05377671343263817, -0.30281228579520597, -0.3956225403037776, 0.23257493541243596, 0.05877169665158397, -0.1257546632329277, -0.02990682205331674, -0.33312849815007206, 0.3235931219280749, 0.223645436266091, 0.17670232000026, -0.40480702716219474, -0.12327318291198804, 0.011367584881834451, 0.42537868872046103, 0.018125514018407736, -0.0400310472878029, 0.2422825994328248, 0.026494507720143976, -0.25760932257919067, -0.2632734779036541, 0.3074676494254775, 0.4905892335892388, -0.004689884485643232, 0.03886829717785756, -0.04216665581905156, -0.713517523995075, 0.044161464952313455, -0.8761362838683504, 0.5834519695195612, 0.2661609579194421, -0.45844659050557307, 0.15253403236378596, 0.22874292266015933, -0.42411539934092723], [0.0807117602253866, 0.31722219089214526, -0.2964346240711028, -0.28869326760658437, 0.5640851724132889, 0.575711675158201, 0.927718155352379, 0.06574902467691641, -0.5216482536513477, 0.5976541872758833, -0.2466075675549771, -0.6507846811737751, -0.20784319621442093, 0.5119624401444797, -0.34225785175336415, -0.35081546816939146, -0.11607455215830098, -0.3771359210501208, -0.35662489102266126, -0.40131142510008966, -0.11464609946213472, -0.3775114247399714, -0.508501191762736, -0.6033649006460801, -0.0626024082552818, -0.40061599510995044, 0.28520264268403633, -0.12352541276698213, 0.3283450688541029, 0.27007388158811413, 0.21139587909685678, 0.06827652492010973, -0.18068071537171504, -0.3036265404888324, 0.023354746463677366, 0.46383007115605, -0.3382556668879997, -0.10601089426745694, 0.003366396880274516, -0.3932410633655048, -0.055857190522454525, 0.2840739855576766, 0.02533637154388912, -0.19649967134137417, -0.4023151318919163, -0.04225540420552873, -0.5770538331740835, 0.1579057222534292, 0.2580276142041993, 0.03520799951889731, -0.02612356861377168, 0.3133858944541771, -0.17376679246815346, -0.025233611461769615, 0.45179486860759643, -0.3690244795843104, 0.1936312308301358, 0.03921010600912627, -0.000678343846560908, -0.8157044580866427, -0.2672034210191909, -0.14958332195011667, -0.24935928944957667, -0.0009190598090216219, 0.015126536196592336, 0.5288191650091744, -0.04090511773141176, 0.3721465147914998, 0.05942581723340369, -0.04631057299920767, -0.2962276318472524, -0.22306824514393891, -0.44791672433723745, -0.003924016256364548, -0.3225557153374254, -0.3006439775640294, -0.11177795327536569, 0.28649338421623866, 0.4697290008920696, 0.3495230573325581, -0.7927904904285076, 0.2952517156927775, -0.03527792017606139, 0.23733285349141603, 0.8688067236728766, -0.25480795150763824, 0.11865488414103086, 0.2877974316159326, -0.35318719588491476, -0.4732387895297519, 0.08518954279752779, -0.19816697814830725, 0.13195682481009383, 0.46845134998961674, 0.12531549858547766, -0.14351082253973396, -0.43824757808477266, 0.018417989829663663, -0.11660250563541862, -0.3430486517958301, -0.24735496639887777, -0.19855513412643425, -0.672610251007506], [0.44472586342099724, -0.08074988775343529, -0.14353156477124546, -0.18783388528409728, 0.3113883666384605, -0.35149983981062094, -0.23869712577965976, -0.5720090211284425, 0.2882231001966537, 0.21153639445243802, -0.348234142400145, -0.11470414377191546, -0.2215462496163872, -0.014107302291308655, 0.05489577261363092, 0.25855379082646757, 0.3379716026536868, 0.35888970427381145, -0.09992564238857456, -0.028170885211250794, 0.11280063427618703, -0.3124926479915411, 0.9508450361826848, -0.31068856203549605, 0.034005473870656465, -0.5295381971290268, -0.0033880230590637717, 0.738006659695723, 0.05750212300857014, 0.4657541614105481, -0.3893104908023812, 0.7783047570947955, -0.3116785538471491, 0.0675951841193186, -0.1912746810641741, -0.05882835021447708, 0.23927469952904898, 0.22786267664622786, 0.21332121229117218, 0.30222153729620227, -0.006169818445660619, 0.09255135172182179, 0.0064879556355535994, 0.5667231892482845, -0.18646620588957394, -0.0840411764832022, -0.03450775358010104, -0.16416897744901165, 0.14951966872565278, 0.1415208852114433, -0.30733664039509345, -0.07821255893152504, -0.28080127136685407, -0.17747703182519145, 0.05303744309970223, 0.03870874260335147, -0.24901058781482022, -0.4744938392741805, 0.28791360021338075, -0.1368176897768776, 0.007391841515442637, -0.028739764628102217, -0.014216867986493457, -0.3649286075017001, 0.3140113823661999, 0.24988534275153199, 0.8078467327302831, 0.10925780728205696, 0.12282565398998527, 0.05555424973550004, -0.11210211004184731, 0.5210087259508367, 0.3322380706606093, -0.5685767877323198, 0.016246860078299046, 0.07967719599817866, 0.22405244881992534, 0.6827017974139579, 0.3471953047537506, -0.14142169573433222, 0.252923467789675, -0.7064026538655884, 0.31859707964933764, 0.08110216955635875, 0.508150552287394, -0.1550010503824214, 0.28391077214092, -0.3171626350945165, 0.0036876384898716958, 0.5817531022868, 0.30476505754593336, -0.30055541175498063, -0.32634580316025874, 0.23999857908507052, 0.27157259016049934, 0.28520417500711687, 0.023385525731952503, -0.004351107222974625, 0.09299580700951643, 0.04682004993752061, 0.2489733027292108, -0.13667180931566295, -0.4635241229819443], [0.04693410659571517, 0.13828730144008014, 0.05370634131949093, 0.1628182127910557, -0.13999412157199267, -0.3460147822310887, -0.048591046698313434, -0.0054912706281808775, 0.0690740468496709, 1.032555447819582, -0.19249999115028646, 0.164807966061083, 0.318449318301134, 0.7605169594285852, -0.12180238332523195, 0.47420346178554884, 0.39115160266471094, -0.7140661698700872, -0.008934025040476353, 0.05472370650440182, -0.25971773170966683, -0.1144742072168574, 0.0820441737505405, 0.20530962684663348, -0.11250483271255157, -0.14649641858192425, -0.2964973901780772, -0.1045891917678415, 0.09175647049481007, -0.09114027686467367, 0.31126823618542243, 0.008331137586865997, -0.6092985606964049, -0.14117815122145555, -0.7497899680955771, 0.2931935100174847, 0.04801388052965583, 0.023614556776685898, -0.24040356039369085, 0.18437102571050656, 0.27727633381456773, 0.024393012117127116, -0.004319371757364018, -0.14429994686704412, 0.10831100001743402, 0.014780062672569589, 0.3953897377658387, 0.21770604081481415, 0.15227605485653584, -0.015976489845553242, 0.39949242214718444, 0.24564767224123307, 0.6806452512945593, 0.39969732457183005, -0.028385820992616297, 0.6861346766896453, 0.4723939174682928, 0.023689615069541765, -0.23471460111424522, 0.49662076979163716, -0.6015613244851263, 0.4846362774097513, 0.053233649371140355, 0.31657120432503855, -0.29540518291494633, -0.04437768337435656, -0.32316503239054806, -0.11230487537952404, -0.19537628224491235, 0.24167724961971698, 0.19503683992093995, 0.3201490099220481, 0.05266275340683844, 0.4221137133052551, 0.08303723416509416, -0.11098396641362729, 0.1335290270761008, 0.48937049693207246, -0.055595680765775146, 0.06132273161501542, -0.007747610875451779, -0.04726521805103595, 0.3370150946715664, 0.0020265122333438107, 0.5296791267435593, 0.8256952929831348, -0.5080585371231371, -0.14399845483144064, 0.696460130296265, 0.1655995456806372, 0.16775122499164571, 0.3953679427500279, -0.22222234785984152, 0.16186891216477925, -0.5250368105311335, -0.309077383981005, 0.10935885560660284, 0.1874235907332818, 0.24719289466652133, 0.3789979734065019, 0.28231238376966317, -0.025351923328738094, 0.2507686596019996], [0.14860931652690432, 0.13903294155330415, -0.4106544384344988, 0.08429798271813481, -0.42403936616207016, -0.28259974917439645, -0.08732092709044725, 0.10286044337410853, -0.26760142413602533, -0.005547082420333679, -0.05447239203410275, -0.0408103921504756, 0.6004153391380264, 0.4443723691041036, 0.36934399124142403, 0.19383418263803126, 0.4990518316610011, 0.04465211015087963, -0.04905237142063313, -0.31082869497287685, 0.14728889680591775, 0.23937746521977993, 0.46565080717449037, 0.5606927378545148, 0.24624539041245802, 0.38098054620499266, -0.028285254200360134, -0.14195963630311711, 0.4835904861749258, -0.13441880906594875, 0.24207394669375387, -0.23353377338163325, 0.3632825917096472, 0.483055258652761, -0.896810995608123, -0.0656519707263872, 0.13260006738644137, -0.2168519162727203, -0.14264616753573273, 0.24461897879654482, 0.04610583546228736, 0.27082102351131687, 0.3736188852646592, 0.19528454393680056, 0.23946406657039843, -0.16794415329176154, 0.3011429224070275, 0.19521263980537765, -0.00863990842481415, -0.11330572485489268, -0.21034028117370215, -0.5685219575654947, 0.6313911510235449, -0.04757182141166893, 0.3164379559934548, -0.26589389629522536, -0.6429961110523483, 0.1686307779959581, 0.07809616892544684, -0.21655446968389952, 0.14142639667011983, 0.5776319599623949, 0.13899519137104568, -0.29804678821918623, 0.2970171299026826, 0.11068665676544762, -0.41733876028413314, 0.7116192678457713, -0.4740507762266541, -0.10568870301373952, -0.6164888702548496, 0.03154723859547355, -0.24344924314774005, 0.19281122073559484, 0.010655990455426735, 0.07016674283590017, 0.3259230136707251, -0.24703966246082, -0.3957407021009673, -0.1361368793205104, -0.012467659077465538, -0.11184410632212641, -0.09668153781550815, -0.23330666857178703, 0.10137496658848263, -0.23585504216772624, 0.38714273319312137, -0.19940388200142814, -0.18619349013067765, 0.48448548328370517, 0.03507991752561062, 0.2903598735058924, 0.4365951789007945, 0.462378064367139, 0.5705908128929604, -0.34754778628349714, -0.2863869405628, -0.05741624144605099, -0.6375849865487532, -0.04154300827476576, 0.293893124545968, 0.21024637836271717, 0.33951217129682704], [0.11064964538559247, 0.19904146446309018, -0.32985502443334513, 0.02557220215994218, -0.020021752843270225, -0.11327705347169138, 0.05193535140298978, -0.03559644573316252, 0.05384296188596375, -0.021031148938567723, -0.023189697228268694, -0.26033844027466446, 0.018403305561387945, 0.008690608753532192, -0.23924260296459937, -0.5615279729814013, 0.3249205600287962, -0.02026353071290915, -0.3415136324174443, 0.12063470634643918, 0.055105685230644956, 0.1321603049455807, -0.2621429220379556, 0.17804724991890344, 0.6187690130731328, 0.25899411444332876, -0.3766212514547078, 0.14244805004347502, 0.2498015754192284, 0.17480463717797917, -0.11677979606928597, -0.21835352632743737, -0.5188946109921134, -0.4677935296220109, -0.3151021021428346, -0.29955844208733456, -0.20424877381463746, 0.13219517098751665, 0.20703267652837842, 0.5322061254732784, 0.0006447931238028688, -0.16057414606043474, 0.5516444320449635, -0.32451878698844216, 0.2536063044275603, 0.02040470122731272, -0.124576069199352, -0.4481833685144769, 0.047618749739302794, 0.3504220107208108, 0.05265363953096221, -0.05603134382637131, 0.9352177666250743, -0.35538123042090125, 0.04105867049961798, -0.3830746297396029, 0.08286085773966446, 0.006820434878578065, 0.8459200139234297, 0.03224734392489086, 0.20477984925219347, -0.31778579796444933, 0.12006016340502353, 0.22077543821216367, -0.236092846876345, 0.11394124348298118, 0.28278274622308197, 0.48159318536902124, 0.5944189101231478, -0.09598238146359776, -0.8058600731856551, -0.009511229854720813, -0.020609576020382714, -0.12020422186763524, -0.41017185909780235, 0.2681490286678713, 0.479223514587735, -0.27054402331627525, 0.2080449220107821, -0.48257386645681, 0.9613648597582513, 