{"class_name": "SequentialNetwork", "layers": [{"class_name": "SequentialNetwork", "layers": [{"class_name": "LinearLayer", "lay_in": 103, "lay_out": 100, "weights": [[0.4857904444687148, 0.3663519620562888, 0.021098173638635424, 0.05464168386231679, -0.010756266833960191, 0.05583878600824566, -0.004199398017801514, 0.30700293419471086, 0.8516457998552355, 0.50233873653075, 0.03334213079608882, -0.3453083544690556, 0.15801930468513523, 0.5008195237519506, -0.3486020030265675, -0.13802927489296554, 0.009224941732852576, -0.016818853353436983, -0.06322369648658657, -0.18898803967163139, -0.6160576694879321, 0.5730980242968383, 0.05239042415925393, 0.17216691661196962, 0.20130726399474214, 0.040329259604250094, -0.20371279880477872, 0.022355443784302393, 0.42662337701015723, 0.4371070357525491, -0.25818091839435015, -0.09999722918646727, -0.9203335881616262, -0.1881851709280766, -0.6501818721534689, -0.07210434576959775, 0.6315202901509845, 0.11895833283807293, 0.42565841174543284, -0.020222818239571207, -0.13681551330400127, 0.4426301122506956, -0.19271890238229464, 0.39810185376970103, 0.22551952847008402, 0.09521347778971385, 0.06143056230928873, -0.3228674608086284, -0.3612119824126446, 0.19158801465052636, 0.5480971884675152, 0.4090243448245321, -0.30349245178775996, 0.23084907916595573, 0.0791806761502332, 0.45799734161989736, 0.10823343614834426, 0.2756063049419988, -0.05894763856589933, 0.2912838594241893, -0.22762768234805167, -0.34994754875682815, -0.328149392753632, 0.0857418708198204, -0.42092141197716126, 0.36619022768032333, 0.334612000989844, -0.18247442957643115, 0.2927558899422602, 0.3136246985900428, -0.04203448877583246, 0.16277897541849565, 0.2788581685279836, -0.10631436007447807, 0.040755637065067206, 0.040575308425571346, -0.3833492043093453, 0.00933582148506519, 0.06306608113035383, -0.09135026278829014, -0.11459715843436143, -0.19249905459028682, 0.4407630961121004, -0.047373460509093406, 0.26308870571879334, -0.23573316953729512, 0.06823364575972315, -0.17871648133158596, 0.1884574701241699, -0.05378372066717899, -0.40041996625257165, -0.09854692129661026, -0.1472836286419041, 0.321087752689838, 0.03770064809029437, 0.02700277997423561, 0.5535349233479593, -0.5835781513909022, 0.4037091779134619, 0.028945654079907807, -0.2599099242430176, 0.20311832958848966, 0.2577306329930793], [-0.7068730604248427, -0.2382255926094816, -0.4992274802925339, -0.1278082804053738, -0.19464819641215236, 0.2576085581456075, -0.06410781282848432, -0.4278142890001333, 0.6611887905044591, -0.10534053099520624, -0.06682668588232644, 0.1465487477961722, 0.026889503488288002, -0.45399185729091895, -0.39012450273117966, -0.02589652318013887, -0.1657756975440605, 0.46875599405385987, 0.3417139121774431, 0.42822942469684017, -0.02110524147272277, 0.12630082869243575, 0.4113367048170505, -0.4199700991901035, -0.05752300208688216, -0.34629803360147937, 0.16430025139381024, 0.1875526545031316, -0.14340461478507052, -0.10125919864480329, -0.7664210348742786, 0.03791773087067123, 0.04906045681060887, -0.040290280134677676, -0.19881782224427316, 0.16006743921565586, 0.1335568606473715, -0.32274061023105544, 0.32903152225842025, -0.09937580875155448, 0.1916999114278925, -0.06665562961383056, -0.2417755188011349, 0.5868347690126563, 0.074999863892584, -0.23334450682576252, -0.5494383064652633, -0.18481270648650697, -0.03916002963231273, -0.24004209908891416, 0.042183438546505685, -0.14707033424127303, -0.11755907441154781, 0.14634094770747197, 0.40306872715322384, 0.21390004635831109, 0.05647550185838682, -0.2399214786576728, -0.08246515611505346, -0.36104577457701004, 0.19514345916126088, -0.07141450478535241, 0.5336590779932514, -0.3607949250682522, 0.34279203616423937, -0.008690360641925165, 0.14638316113186664, 0.18944229581645627, 0.038888200285620754, 0.25998860872768065, 0.376904291040675, 0.394082902474079, 0.02701541923424184, -0.735990123048745, -0.004231788877865038, -0.3489611410614563, 0.19876306576843383, -0.10122371250644846, -0.45169016530685097, -0.3260776998588161, 0.022967514311939448, 0.10946537236054331, 0.40882948448272033, -0.05784049297115681, -0.43126882030597813, 0.39702322163186043, -0.02984859317061111, -0.12195246573455885, 0.44317746939887687, -0.25052789335825415, -0.106328748682527, 0.045241272086198166, 0.04670897698572477, 0.49161036661415475, -0.41838956667098165, 0.13925761995115502, 0.19728352341393052, -0.38031036200107843, -0.26969744915063604, -0.06993838729028763, 0.03344164612951491, -0.08271607965942031, -0.29639167789757137], [0.8311023446338465, -0.9142258284816117, -0.10313773534414758, -0.2267734545705801, -0.1899195478162585, -0.38854867555211775, -0.2704235241069565, 0.05728223090860754, -0.13671786671134517, 0.827096124250101, 0.7553648828818291, -0.15921517703516427, 0.23130371966006902, 0.1506698312467425, -0.2750321579799644, 0.19266703465094767, 0.0004371989572408272, 0.4915765342679348, -0.6710374569980717, 0.5502006471047435, 0.12963273606657674, 0.11674854947564793, -0.05693080023768662, -0.086985081521773, -0.7033939819409449, -0.25224506177283146, -0.05636044724831457, -0.6641611029161782, -0.1399955136095016, -0.3105145419890468, 0.12392533233732256, -0.27775696336886324, 0.10535316188357023, 0.30044204793373913, -0.39439516234554284, 0.2538478104741761, 0.0882177382629995, -0.025302368085238964, -0.31484189701897713, -0.23484441292370664, 0.1442312120565723, -0.013065023764340801, 0.1894163123465007, 0.036973893666261734, 0.263733154331301, 0.41744088265016893, 0.19824751400649882, 0.14510340897330695, 0.04378057972814856, 0.2240162767159455, -0.03385219418887087, -0.08515760585827088, -0.044590436769733, -0.15896806303579644, 0.12679188592466395, -0.3154396186840855, -0.40281992723763455, -0.16450290186730326, -0.3407489231919326, -0.17595965888042728, 0.31305715992380384, 0.46919795393834995, 0.08936631229650344, -0.20023413197862786, 0.44036314043179475, 0.015580339820421599, 0.2770226322634373, -0.3038262069821496, 0.20940857191785742, -0.07410216189718413, 0.41774635752384964, 0.02850308748913563, -0.10780791012112644, -0.38157072311817547, -0.3740267711768058, 0.47137423292214164, -0.33457713630992886, -0.2119861679714011, -0.6549052422426362, 0.08587958283547716, -0.35289279074187363, -0.27661924663007065, -0.35237007143700644, 0.3629792093703372, -0.20281349011823152, 0.17976714592005985, 0.26887416468417785, -0.42647590133855634, -0.12118019891015905, -0.6421388071636582, -0.5109147140095589, 0.20547321238209468, -0.42943179427136113, 0.007686918061065833, -0.6551656066238493, 0.1883969349727217, -0.40178836936698253, 0.3756302211923034, 0.022633985295704526, 0.09116211799264345, -0.26552541476279257, 0.06467842535822775, -0.15122637792529312], [0.10492441657731957, -0.4644937286837782, -0.13493197965060758, 0.18546777879186732, 0.37656692563369165, -0.1802001535683765, -0.43776422428346107, 0.4105077224152089, -0.4894776099970943, 0.2381048066265954, 0.11969089841876705, -0.4748820569087541, -0.34824652615156165, 0.10255620300628732, 0.5773018469207463, 0.4650249810090416, 0.4670784784103773, -0.5400783917275886, -0.24302929318657418, -0.5815525505228911, -0.36140249287864606, -0.44619296546349885, 0.06278618072746883, 0.09793929950779105, 0.5272080546202665, -0.3348151547916381, -0.055926194064386224, -0.7787940526025585, 0.017443563528545074, -0.20219688570199348, 0.05116991598174617, -0.03333163198773974, -0.14621291274444498, -0.47145636714759454, 0.23022954534685505, -0.15668462857635126, -0.03130773012681583, -0.3195507271235233, -0.6410364425075912, -0.2140806048827923, -0.16188249694084333, -0.5122176922936224, -0.35848779038247386, -0.42660842750580386, 0.061611106814551606, -0.34887711200382965, 0.01911724116317148, -0.1902148535842288, 0.17445722063126168, -0.5199340343657004, -0.04878923805779737, -0.23864230515871085, 0.31509022646151785, -0.06677954752859111, 0.4429391500435727, 0.11997119388027051, 0.3244370824942898, 0.11433440517251342, -0.13198007070255585, -0.022393399644578278, -0.2544656545943435, -0.24449777553969568, 0.34486531520863145, 0.2555561077316378, -0.30729703511874257, -0.2807449046738839, 0.12135966696866166, -0.7082797179465046, 0.09511356471257294, -0.2520552059545645, 0.6142857669436663, 0.7235606366422521, 0.5078521990917577, 0.17140551002753088, -0.050092083299112335, 0.1025948715666577, 0.20425689027038643, 0.012997696198578018, 0.41756952150557036, 0.1808135957254888, -0.5800857444361006, 0.08234268922664086, -0.3206357018331962, 0.14497442523067156, 0.06849589698258651, -0.6494839641149849, 0.06702190845466356, 0.33303994602935044, 0.3275072915483596, 0.24288412659756392, 0.5373241934801516, -0.009216791599967756, -0.8423287534171503, 0.5598765196730111, 0.193350854936311, -0.1366176014023048, -0.3883690178565242, 0.29871166955424794, 0.1685453866577148, 0.38519612260538116, -0.09447269280840334, -0.35540124432068093, -0.553984792957862], [-0.32982694710659466, 0.2522964706963344, 0.22343533875938815, -0.40390496312049573, -0.231153020538939, 0.5010667949964158, -0.03475607180246921, 0.07258913285274873, 0.06886185333754617, -0.25762496498306164, -0.0027195786616538552, -0.15701880207409438, 0.2831215306720777, 0.11081632331575048, 0.22882805075263066, 0.07791486378798233, 0.21665913488638033, 0.023319983228478725, 0.31314980742516524, -0.41879406413469444, -0.08445832038519566, -0.03958542105096931, 0.5701165494360998, -0.003059688842824892, 0.06788818347141462, 0.22107128706930057, 0.07509969981905484, -0.24191581687790623, -0.10398375664434857, 0.0606822506230951, -0.10997484808898493, 0.33008839600413575, -0.26008992244254964, -0.6143846696539653, -0.8326824839108415, -0.3008875954717056, 0.3623407797845294, -0.28502150738447274, -0.4112374610309661, -0.07183759634083753, 0.2452059519587846, -0.0977903124481741, 0.35473240982921583, -0.03327586316111583, 0.524831237762792, 0.060478082489831136, -0.19710559116660117, -0.16889601078196864, -0.47750182080609677, 0.035773657287259356, 0.08664070664863611, 0.2000931960256985, 0.45647960907079616, 0.510312369754681, 0.3306521341679536, -0.5543076357309781, 0.20253715183163026, -0.22154194050696496, 0.1068185708462269, 0.49607470489960254, 0.3868019077252178, 0.07802438362812676, -0.27174189825785333, -0.10411399984725557, -0.0876697411766179, -0.46214830295892073, 0.5191861427029001, 0.24201514089135182, -0.12492475358871595, -0.28378078279412017, 0.04202388170131253, 0.1688564604264987, 0.4026772228724005, -0.016723511473363442, 0.3249166437053155, 0.3560744861188429, 0.22773574107920258, 0.31001509747560685, -0.10283060102477005, 0.19276400060807217, -0.0341836755225949, 0.11962116454877988, 0.1057451834013407, 0.15801466603791806, -0.04226128412720697, 0.05765941981542465, 0.2877180442983678, 0.16557191323014298, 0.35414228792142916, -0.11802998500741017, 0.13348995322381935, 0.48461488550736925, 0.2653736989545704, -0.12915435583116142, 0.8151178253037232, 0.34150379988898477, 0.1678039159711604, -0.27604330819071343, 0.022822073121510487, -0.3694472576283419, -0.006249069823564307, 0.11962522121966793, 0.5606107370799894], [0.3370075420068739, 0.09529773596918792, 0.15259185204650963, -0.09794517885719276, 0.16487523597031836, -0.002390834175754193, -0.4325784787025891, 0.38836905419511764, -0.07639582511943535, -0.06355914508277087, 0.15646522532531804, 0.3953455256675996, -0.22726145256876557, 0.13831801523139337, -0.4113272410540457, 0.2940224256928781, 0.6730653653705078, 0.21712328891274568, 0.2711833999829477, -0.21172087338966197, 0.136137669227027, -0.0010314682969339028, -0.046159541414768815, -0.17023163899538266, 0.16413492870649007, -0.12700014069305435, 0.36963142389905024, 0.5521496154684965, -0.43478822208229795, -0.049180407711760396, -0.37433075127917503, 0.27948821261866386, 0.2172665519185614, -0.3425844461074389, -0.08934159905293357, -0.24040540896123735, 0.033400282282893365, 0.006071362252917418, -0.29910645809789893, 0.7316785963634718, 0.19991219140435906, 0.08362365069361156, 0.08484144798387812, -0.1781292804710297, -0.5920146359363806, -0.037658550124117944, 0.36204820486936073, -0.08327658283012651, -0.19088452115315246, 0.21130349514766505, 1.0158950092404155, -0.12650505377389473, 0.4922137995131811, 0.02989259892065741, 0.21083394732435423, 0.6245734063640531, -0.0366799521882117, 0.2065492072601128, -0.05655442101795366, -0.16864822230093215, 0.26285801743540976, 0.07855716611203996, -0.207807889719096, -0.2874719062759127, 0.19503819519492244, -0.08784765236144045, -0.47204118464583106, 0.4802992766340361, 0.21900678875436896, -0.02333363301102652, -0.1337284574600673, -0.1708848334451083, -0.5419719765728037, 0.2578023055282916, -0.5060212312300921, -0.11809555425367359, 0.09939676938304128, 0.5183954108908504, -0.013160830202448619, -0.1824788710245569, -0.09633795776827535, 0.037752034370344065, 0.004960245819689298, -0.6430616184360886, -0.08328731017282182, 0.014900126738929056, 0.10504532513469153, -0.24653495555849364, 0.2822630544668344, 0.8313923734728226, -0.5690573208650559, -0.3996573695232881, -0.3661332404909678, -0.17239345095815534, 0.10736272734666327, 0.21673342531747739, 0.14274895806225735, -0.2783153585421284, 0.3867562524709367, 0.20582844498258593, 0.1068230719045476, -0.013383658385384403, -0.26538385250732827], [-0.6095673207612075, -0.444149831603379, 0.052095614614239484, -0.03144514571023835, -0.5650087926735724, -0.2991111858517435, 0.27917293973186436, -0.11900995058940962, -0.6723561372500474, -0.8054340805807105, 0.28331012353388724, -0.23869495083124537, 0.3428991294239833, -0.05167244662737418, 0.47913826358745365, 0.36897952900587494, -0.5024947579199478, -0.6143152230911456, 0.059733681786420446, -0.4969115585330905, 0.3886140130564206, 0.04587970971697891, 0.06257037504054755, -0.14429723454243318, -0.24119686865166554, -0.5774485545936241, -0.22272173278701085, 0.20575579344008327, 0.1589520113245612, 0.2411689277902126, -0.1666300021056312, -0.10415471159417025, -0.04168314129758756, 0.010531556615391464, 0.2127587297209326, 0.05445668151064886, -0.7842958369142486, 0.31014835933335655, 0.44526550016965777, 0.20018667514536345, 0.07457887625886962, 0.21440190405104917, -0.09826481077273601, 0.12363218947725824, -0.44963448177414755, 0.4701579186776392, -0.11277833519674232, 0.23471300659523006, 0.15908283324757547, -0.6851228597711138, 0.09300826422938663, -0.20349504387011563, -1.6112111432557261, -0.012001870805910343, -0.18278443692267024, -0.2526411851107237, 0.13511412561008498, 0.30425259963874235, 0.09513971666733646, 0.33822228888586053, 0.2535020441727326, -0.056484253064604244, 0.27802274410635347, -0.22326577161154973, 0.31667909972661296, -0.5797654127000589, 0.13679962997363593, -0.24458045013738322, 0.02433753938262423, -0.02207563333890484, 0.3714228252455412, 0.06544428044703336, -0.04845874350887356, -0.7598301107923918, -0.0536018828505367, -0.11594462684395128, 0.22500156416132694, -0.43865835412528353, 0.9358666139379868, 0.004686390309304863, -0.23284193161234934, -0.08588636374532178, -0.14578579022167296, 0.03253571237184493, -0.230180942496267, -0.002211141832824955, -0.6114443313279644, 0.33908707512033265, -0.19964485376868626, 0.2977911785147907, 0.2930778707849107, 0.6024365485976092, -0.5839070660327697, -0.11029639390213306, -0.23835759507839635, 0.026112796738243564, 0.5975236333903301, -0.22350412626868815, 0.6534718162427503, -0.13299081340407776, -0.04684038858821194, 0.39827945434976264, -0.1170927767167763], [0.5871438638712323, -0.6692218345887258, 0.15837653438382157, 0.5404304891673909, -0.35467958129981336, 0.19978076156368538, 0.5045600925057386, 0.5133212897253433, -0.014320854789057393, 0.19461782275229694, 0.4992108012414421, -0.14152774953022632, -0.1213835044340421, -0.3531530528876785, -0.21669751461240974, -0.3479751998712422, 0.24795692431357622, -0.15473439643993359, -0.1710077438474569, -0.4545420209753378, 0.4001049459614898, 0.11627726127169208, 0.23284110838515892, -0.044987496233095746, -0.08146711777352095, 0.13721960150415213, -0.24205145372983114, -0.06923263103079887, -0.19820386017234362, 0.1239460000150939, 0.08900676859579612, -0.12449460255939933, 0.17188887313015802, -0.001971035176083351, -0.10287718711585113, 0.14894520541472195, -0.06341066852750164, -0.14408092403679898, 0.37134016058916114, 0.21010231899543064, 0.1099488741960919, 0.3050913190791153, 0.47507729903721896, 0.14482465601839903, 0.24708132913096828, -0.0550518992164126, 0.3407199844361006, 0.39714734171843086, 0.45610119898333834, 0.3730904175135897, 0.6461411398194646, -0.20240378681118365, 0.10606060586105792, -0.32791012757604887, -0.07772383188587562, 0.18099122887417032, -0.30193694850497227, 0.1553399298040249, -0.0374714005221162, -0.02190464486099941, -0.09378365158417887, -0.224043693846731, -0.564561514868319, 0.08103204867137931, 0.22393655083894778, 0.3508205999558212, 0.0885092094736652, -0.060493462114493905, -0.1308947551658969, 0.045419267585572354, -0.1047133128696952, 0.1425879110788736, -0.3160980323309682, 0.1467471217398801, -0.07564128119525923, 0.49719017052039255, 0.08424283746326465, -0.32937949444775527, -0.4261603730001925, 0.2286354993677133, -0.36646075664936256, 0.5531801516275665, -0.5392972349702503, -0.35073096793062947, -0.11477575304764123, -0.00047504836760747543, -0.007962618668637194, 0.1956517518878581, 0.08629478267715517, -0.2840226399368573, 0.04540880972840748, -0.2286662792818116, -0.45097758545234107, 0.3697855418409767, -0.037390200870896645, -0.017101365390665157, 0.14714198547498727, -0.20988426799653953, -0.17787965609951195, -0.7068758488065707, 0.4810675085998377, 0.16063260676355237, -0.3639978077168187], [-0.7551303203563503, 0.20597836449198564, 0.2252606496659877, -0.6655383671931704, 0.05299100417745158, 0.11032106061060551, -0.25369169667511915, -0.5646348599778775, 0.10243821901543691, -0.4439758115006932, 0.04429509209338763, -0.23143984010672916, 0.09153432072927234, -0.09062384903540929, 0.059602747382831625, -0.2313467639811252, -0.1712069279606165, 0.12564965922939567, -0.017436144995254334, -0.6099609173410491, -0.35424510018587857, -0.0867435738982329, -0.1282827880705323, 0.08232583029630387, 0.38071880082043547, 0.44769062801847187, -0.2718325045052967, -0.1623614847921251, 0.03319682156186125, -0.03586264562413678, 0.19590422118504175, -0.08636340811159904, -0.5157690114297094, -0.2666247508609003, 0.2170095386000053, 0.07464317048602173, -0.3705310002434541, -0.14313381761724867, -0.04303454152177956, -0.4048098723672155, 0.2794374898144808, -0.16801344153401457, 0.061178703270029104, 0.44709404433514205, -0.14479118029620391, -0.3297084537231532, 0.24928457022745593, -0.03712239313860997, 0.06216711649399865, -0.04831492354419056, -0.5109327408403601, -0.2069541715393147, -0.12291343579614485, -0.14174787269726113, 0.23704002471716062, 0.4016403531191016, 0.33947867845039315, -0.09354042620402425, -0.1269793843417076, 0.1068126788012602, 0.009607224602058336, 0.15101144095304844, -0.22368951849024366, -0.44802614068574503, -0.12802045994064237, 0.10116574093546876, 0.7697585830263999, -0.08148036506891092, -0.09225701929694323, 0.01083934583003955, 0.08065228019358733, -0.4863979375562713, -0.31289806311185947, 0.38658566665821115, -0.13470046849175968, -0.07269825008950787, -0.7458992399275444, 0.310020369641892, 0.03362336609031264, -0.19295562111123774, -0.3653506620488726, -0.24677888280700888, 0.09339490471281695, 0.5898134390415899, -0.22138881301232508, -0.24470847891370132, -0.36694875188990084, -0.2617473498110013, 0.27403903977243993, -0.36115100005161094, -0.3782867487640886, -0.38269936549938355, -0.19826059284021033, 0.07001710712381365, -0.31451582143164214, -0.6151155564443979, 0.11886763654518108, 0.5073396969305465, 0.02899618392401987, 0.4546852950738035, 0.518073788141179, -0.33298210520406435, -0.029221861532666395], [-0.19197113696951693, 0.28912034982132995, -0.1096853967041605, -0.2832181067421372, 0.06067644358778789, 0.5426324580571513, 0.015112571814229618, -0.33667603854117817, 0.044371145183112456, -0.11531601482305402, -0.014000055366741504, 0.20169308675142833, -0.1176976719406976, -0.8742111605554678, -0.42003883348865384, -0.17582694704431429, 0.3475212288016979, 0.10877502943108319, 0.3350575138574872, 0.16804331941211412, 0.338347495102014, -0.025285447143857456, 0.09853905918328683, 0.21475434843388352, -0.28005902505109803, 0.5336703050830448, 0.219892013511774, 0.12131816775758442, 0.08259385153204181, 0.23244927556676173, -0.11971117725064502, -0.2543740461349021, -0.18446573839344746, 0.17118581686009962, -0.05216130509098395, -0.032980616619328995, 0.021719258678252886, -0.08459193383392839, -0.21216186795055775, 0.2419795099437474, -0.08124904913925231, -0.1519452280126727, -0.6615008780009538, -0.03557322377755787, 0.007285834731947733, -0.07049345142695485, 0.15705880919075893, 0.14628794322748462, -0.3192933253462874, -0.168499274123705, -0.25062949921340527, -0.4310333592196743, 0.2303235177092814, -0.2607497058906808, -0.49312155542319414, 0.6642526826435078, -0.9043122966826996, 0.5727383644888269, -0.2030989313258042, -0.1363845438553124, 0.2565356974917123, -0.1776384352530948, 0.5456583370689926, 0.0075308299228689516, 0.30713334952390836, 0.2730749922107725, -0.012856054609025683, -0.2677043107019798, -0.24068630525219722, -0.03149931089466911, -0.16918408530724105, 0.15877512543945257, 0.3934074124535127, -0.3702595220782926, -0.08149780429462779, -0.4174552432099108, 0.10440793381047991, 0.5296651189953948, 0.13122727197969963, 0.008752017780177212, 0.08168658114915672, -0.013221657555018855, 0.1693185321919266, -0.49096857446634923, -0.09088731639251414, 0.13151175353362904, -0.0005666415575933422, 0.11153449626418861, -0.431714999455581, -0.6862807157545897, -0.5613007676595427, -0.30701963739499005, 0.40566669823359597, 0.0203889456548385, 0.333546494717166, 0.06986009458037047, 0.15954071610380374, -0.19747164028369424, 1.0609167934139583, -0.1309173912348427, -0.4827602455921708, 0.5589323833446398, 0.7243458412970062], [-0.4229605223602009, 0.21305081416310434, -0.18039582924637249, 0.36696890904802987, -0.03295894140494038, -0.2758167386181102, -0.4923637498018318, -0.2604454843759844, -0.37421187712629406, -0.064210526228901, -0.30193202062209107, 0.41066747867715003, 0.48429379291279506, -0.12254196469059085, 0.49593171849642365, 0.049503288774529475, -0.06270632082695453, -0.12617655489699542, 0.0618237348749194, 0.9277413558747714, -0.005024289644297571, 0.11270224802999633, 0.010222320308219785, -0.2840409646146113, 0.19057510660849583, -0.24723861540379533, -0.15270266077995368, 0.3095145777022485, 0.22571245622526565, 0.2594021159216181, -0.003096458037922083, 0.555776874566079, 0.00965580934367115, 0.43176289762868636, -0.03148068685478297, 0.25504826701469185, 0.10032938255848631, -0.3233348238585867, 0.31621867094137873, -0.23632876116772625, -0.03661825108154165, 0.29215692164268403, -0.1435858250278182, 0.20935705217498266, 0.003938204181558343, 0.15355705622681795, -0.3886581269020991, 0.232916780574728, -0.610863760980935, 0.02602125204787792, 0.3936019716906921, -0.3685048893814403, -0.012539787041234297, 0.48502981439244264, 0.24542329435889393, -0.11098749780437865, -0.18195284582157012, 0.3160634670098216, 0.7432138710447682, -0.12885006466355697, 0.2670913419429796, -0.5286673997779975, 0.18591420665451122, 0.449644577403817, -0.25100089900020073, 0.6552964054884562, -0.0020571460716030322, -0.032572517592184644, 0.2870639279936275, -0.3286695216664376, 0.44547134349775747, -0.3347298407822931, 0.018254457499498288, -0.10621762936031673, -0.5846493410469282, 0.45917961002877616, -0.383047796701287, 0.33453766431360515, 0.727545006383654, -0.0008831708376869427, 0.27415000630566866, -0.33180444601879405, 0.41303514336374697, -0.18331992271303776, 0.4992812296381689, 0.0357324552457597, -0.036623318790191366, 0.4006661567778609, -0.2057505750093187, 0.43375689844517, 0.0471708028517527, 0.14197295124309398, -0.3967158013723713, 0.4701158693533689, -0.39513005527599054, 0.3954794748503421, -0.14129097669439, 0.06240791290967259, 0.0015451753187911861, 0.30603081109503966, 0.014313756445664062, -0.2860754968873482, 0.32567850328373144], [0.13690503123367773, 0.016890548229659998, -0.14507468549744784, -0.7856390737418509, -0.45709685866642386, -0.18727309358863087, -0.439337809929877, -0.36397864698077614, 0.11317450033058972, 0.318587031978291, 0.46941626723255736, -0.009866552571443196, -0.6479201263887288, -0.42897110977050074, -0.61862925014863, -0.38391272027156514, 0.18891903930170614, 0.30307939720830634, -0.30850400626897306, 0.415414190125802, -0.07668971061743707, -0.23219166699150384, -0.13744505056691003, 0.21267068106800016, -0.4673102347598558, -0.14422236167673186, 0.12339181737928649, 0.14145901285094672, 0.5662882458891839, 0.16193237156044055, 0.38688600860345856, 0.3734860247770256, -0.3276989531014634, -0.10492315406557107, -0.25596660659755943, -0.7438812168498417, -0.3216163665441237, -0.10018977168462552, 0.2590948747105379, -0.08489161126272614, 0.13659794967360894, -0.0026401664575202836, -0.15547453960245605, 0.014496607909047539, -0.29426939634487764, 0.06480507667640943, 0.2976445283165457, -0.7219173316571076, -0.07720187814872936, 0.27398352190163866, -0.4642040126892381, -0.017579730306600993, -0.7558271235071352, -0.21766712889601555, -0.3114653198627189, 0.6749072483638205, 0.453950292974916, 0.2540851302351596, -0.48160193171234217, -0.06366479928329831, 0.10778618730450394, 0.11888065342045755, 0.010936554522365572, 0.23739122313791253, 0.10040150383034789, -0.37889382789200593, 0.17864835532386364, 0.467363404471884, -0.22266803351990894, -0.038233620585814435, 0.4583048237425717, -0.19993283870220008, 0.4931052771927265, 0.6524704165673268, 0.039389857123524566, 0.15061234539835797, -0.5820197666834858, 0.1404368858043989, -0.025422902466496686, -0.2529873554629568, 0.1263970031854654, 0.23406217172022797, -0.07121281472578896, -0.5479551705579172, -0.2384747227517908, 0.21570403417040865, -0.3033371803035771, -0.15271196099162512, -0.21597045474040358, 0.16245485564881146, 0.4512600166935994, 0.3329809863072549, 0.10089614687607334, -0.2609416222958367, -0.5371948147542607, 0.342850445258769, -0.02110155686600704, -0.22900785512077104, -0.19336877660163998, -0.5413886349462826, -0.6519370301976857, -0.4877437744744457, -0.14343892932259708], [-0.20278014539109568, 0.36685817352572947, -0.14386488685240026, 0.7707912328920737, 0.10036294326928018, -0.07628849406379862, 0.10346136642179725, 0.226991466095995, 0.6130492002481854, -0.28256842451671177, -0.028066536875488834, 0.4286343988601995, -0.385735267398974, 0.3023076732580067, -0.4855559755664928, -0.07781745914372504, 0.7981063526999937, 0.44555788582794853, -0.0042756027006822335, 0.19982182977697213, -0.20934871463269702, 0.2221350514055419, 0.16396101395290424, -0.33596742775481764, -0.04817499591730779, -0.19171770855389406, 0.003320848681262498, 0.30354759797848535, 0.30234824966122315, 0.007244509459089584, -0.376142327408024, 0.3108127150643435, 0.17498891415065748, 0.0803427542531574, -0.04287042405390368, -0.11815914608336939, 0.21444992962670845, -0.1617174957107722, -0.5071801933116816, 0.21477610132061548, -0.1770388516494556, 0.28408318554426293, -0.056698980210772826, 0.0957083299552107, 0.05550555262261328, -0.2846729502785833, 0.4449841433426391, 0.24585697391511202, -0.20489366278711313, 0.35562376004957674, 0.18898068381543337, 0.0326434824974953, -0.1733940318161247, 0.22432061476660856, 0.6728798613545641, 0.1543791516121166, 0.4656099064250848, 0.31391291341148236, -0.04317915847581912, 0.06528327166829902, 0.2759686366003362, 0.15843035027125274, 0.0012443751560948161, 0.2749880129563731, -0.1763627556154912, 0.1823481131309412, -0.0680165048192929, -0.3022870098571264, 0.07994702449605018, 0.0977938253217586, -0.19345173265351331, -0.37516118021063793, -0.6350220370804287, 0.3388167077830156, 0.8031049114128986, 0.524153375187987, 0.855590685812676, 0.15151346642596994, -0.3341346978968458, -0.15041357610196973, 0.14754680372984044, 0.13155183463787556, -0.025089545970631545, -0.4062272466272464, -0.1352986025287095, 0.026543011325624314, -0.31764371419350457, 0.01697798998033029, 0.08030503866069989, -0.5640599772519346, -0.09684134518487413, 0.48068943246074447, -0.1053681778971818, -0.04528318319945989, -0.08530745786755572, 0.21643295671151014, 0.07934147204067848, -0.32153275232639106, -0.416012098131595, -0.17470689337840312, -0.18691758245399662, 0.1468327237744852, 0.7390470949983367], [-0.24099699908971112, -0.16691455901082736, -0.09818802951184584, 0.43064847438034837, -0.3591065634545849, 0.11697473413198031, -0.3086971033538126, -0.38301253002728713, -0.12672313304426236, 0.09262434925576664, -0.38419211620838145, 0.07169352105025092, -0.5195059678944153, 0.7066732110979381, -0.19089412481107135, 0.16742737856262518, 0.34511142131563544, 0.2642099847788625, 0.010176163505091299, -0.1627012339669461, -0.2995054297197437, 0.04263201724510917, -0.8093573108291868, -0.943840818333257, -0.6367021013516414, -0.3303342801196058, -0.19010478439998982, 0.2866681219125713, 0.21529900886127096, 0.07636322456627903, -0.4756470612216102, -0.4837203578879417, -0.19534913214170677, 0.024295966417873526, -0.1481479516333877, 0.3562982849120663, 0.038280497827179225, 0.07893104856814205, -0.13562761197421655, -0.29249755051816523, -0.5452550304034954, 0.1705272838391416, -0.29018619914955873, 0.14575237976164038, -0.012783575827069998, -0.24141809191244892, 0.12141390120808454, -0.36920923935464517, 0.23511859218165443, 0.2017261713058995, 0.17656648498841312, 0.09639030110544727, 0.1137599168182503, -0.5727750563499654, -0.6214778896051125, 0.5898685422945718, 0.05149554948321682, -0.002107300490004828, 0.12037264150031082, -0.09478048949113661, -0.1019391354071322, 0.3989275923985441, 0.11443743938507313, 0.29313368742272894, -0.5446187931201676, 0.15507977325856614, -0.21400232940834304, -0.06724950511269079, 0.0191400581678344, -0.11003644601507169, 0.075248573774467, 0.07769264752626305, 0.004805479358642909, 0.227229657363716, 0.6578837694125822, 0.4188116750227367, 0.28084807661868233, 0.17435167729438875, -0.5594229681601988, 0.011384574541776268, 0.3280822168650518, 0.1967237568745639, 0.3330863281985804, -0.03512693832695849, 0.14887322974942904, -0.04799027344341791, 0.39642423276913924, -0.12184938481815173, 0.6637438603964472, 0.04251975108797509, 0.9797739070139818, 0.22851350354540542, 0.3486283644789781, 0.9404933102548799, -0.2911033110175978, -0.17860918240769127, -0.01601550037799125, -0.2575041626293369, -0.2629975552060636, -0.4394655031706525, -0.11493789662302148, 0.30252026996562215, 0.046752411729379495], [-0.4774975332394487, -0.130574825064145, -0.06378171464084456, 0.0469445873904373, -0.23555031246436609, -0.10460158462583248, 0.20082224655407652, 0.2640581956153731, -0.515727959618656, 0.3253855165876854, 0.5930706624810278, 0.6573799386171687, -0.019136147075114674, 0.5885363312746617, 0.0576795722275961, 0.27348500968337186, 0.0778020102581663, -0.04001174016301775, -0.05954425771514044, -0.38548576805585655, 0.2843388633423101, 0.31037132505222165, -0.21234821745337965, 0.1599258644168072, 0.053248023651176674, -0.14482041970310913, 0.32799131180825275, 0.15375699405359464, -0.028660882345968943, 0.036675409124782093, 0.3052734234107698, -0.15406155900278262, 0.1257632717781899, 0.0008507708350683353, 0.07646448460048312, 0.3406451247567779, -0.1627846208406453, 0.0010182592883669203, -0.2635231814396931, 0.21675321985513105, 0.2341759547837197, -0.22704461081900154, -0.33331897252801607, -0.2732418211105764, -0.11534536580867838, 0.30422919806230514, -0.11847469688916223, 0.6939554000004948, -0.13023297137737105, -0.12626026280277167, 0.321472880368724, 0.30601736868966567, -0.4526101286186121, -0.11328589623450155, 0.4290551042093952, -0.4087199200652093, -0.10998714826511556, -0.07375907376315975, 0.07797732616361966, -0.269544239644228, 0.36170373021275354, 0.7756025007140305, 0.04663525874044017, 0.12644909810687976, 0.2924600231206324, -0.09811464852450567, 0.3566141441778471, -0.6138045335990452, 0.21171064959438074, -0.12096270849337507, -0.42874994644163644, -0.5676060232481949, -0.24905144971264226, -0.21294748088060686, 0.4934826249987454, -0.21010632011800975, -0.38388787676868374, 0.23192327806647903, 0.9915292862015034, -0.2628948261480707, 0.3238001829769487, 0.08192413901054874, -0.045913028654075635, -0.17799348608123355, -0.1521177366809821, -0.20875662278497895, -0.1707881046593498, 0.06291011242986594, -0.02504028169186044, 0.3863111007925251, -0.2683535848222263, 0.6108893469686089, -0.010953245780307557, 0.4840047912006918, -0.2685637514378512, 0.445841123824037, -0.24709966066491562, 0.38623462455430896, 0.3775586512429702, 0.1617028092271629, 0.08776686158129021, -0.01884250932589738, -0.29218272303280235], [-0.5004684074532344, -0.47256777480643947, -0.15633806914544704, -0.5537379288753732, 0.009730349795662757, 0.2263387481869568, -0.6396423951287845, 0.39175539013783933, -0.07679281076130348, -0.3631818029707647, 0.058308041668979335, -0.3015527058584101, -0.4369501295870389, -0.1752517189083786, 0.30846304811596836, 0.832047400914448, 0.4293427512596294, -0.5869817787324163, -0.5893141694745133, 0.01981481979327798, -0.4993873054437626, -0.1275943312734376, -0.3531661431827966, -0.05668084159058609, 0.1466582075666085, -0.042005830883876986, 0.2014610817848233, 0.1949061761612768, 0.28499376352640815, 0.08307399180637792, -0.3546399886129245, -0.2996910494428108, -0.025492345148079066, -0.46042223305420493, -0.15793634306217916, -0.0607601796756506, 0.12866655739658744, -0.12926459578715574, 0.11569677771763047, 0.07613630839775157, -0.2681173678845858, 0.3329471878127209, -0.37042045196380236, 0.07960736933243004, -0.13147635562482124, -0.35639619963955227, 0.5693384352960053, -0.6494162814209741, -0.03138155870864218, 0.11992490184751957, 0.15646032731795184, 0.05374759685873173, -0.43145557498552467, 0.04803795824255554, 0.13388864984130933, -0.002650294463355146, -0.08273133805551246, -0.633546165076521, -0.23730547262695445, 0.09672407331529405, -0.09192110419425566, -0.21796291055586406, -0.3240837241843417, -0.27280704030202707, 0.5910870447030183, -0.3164988978537169, 0.017141020181988362, 0.6863603735161806, -0.4523831567815944, -0.4645599691003696, -0.03120576386313693, -0.7409832468368246, -0.11258103404934326, -0.5219717478988654, 0.5044482164310982, -0.34300784121710026, -0.36287898959757736, 0.4736362543195488, 0.012868225023585138, -0.21112834004311629, 0.6425331512826051, 0.4566344806841758, -0.2360637988487097, 0.3616046980837641, 0.500360794013219, 0.024187632903467007, 0.349324357042885, -0.431689692741089, -0.5982025417092087, -0.44891113811124667, -0.8062641621454945, 0.5010430599772737, -0.14064480940103713, 0.05782055544670254, -0.33824136883643696, -0.12343606990489246, 0.09144283030445736, -0.47385064985777636, 0.23672012826454705, -0.31993026965954124, -0.2934987241045081, 0.11318137941575497, 0.03374723685382502], [0.4762910668120742, -0.5436306709320071, -0.4280939610540861, 0.27845690504382037, 0.02301555618160709, -0.3010839490535071, -0.3285503524500928, -0.0704215301489082, 0.1806867426610496, -0.006939960980476285, -0.02688793079917789, -0.28825778885747466, 0.43910539303968105, 0.22097632394584088, -0.3140835263230328, 0.16895597762541353, 0.2538163399819552, 0.7149751019042278, 0.07413348226138679, -0.25973996349283757, 0.445613515652431, 0.10276324363859521, 0.3946582620786744, -0.21119612203929766, -0.28464735473007935, -0.7809702808099123, 0.07420008384625305, 0.5592633907862177, -0.39478829034025964, -0.10645030162347968, -0.29150668184147444, -0.09821017513814691, -0.3164354712283538, -0.1256065696259062, 0.19117301381528606, -0.07513317450199726, -0.02713365910342738, -0.7703709860181145, -0.19054771809852833, 0.5592871312081161, 0.2528529190006203, -0.4527371222927757, -0.36577450031240044, -0.19048964946122598, 0.31938322773498634, 0.2798470002407183, -0.28789270151091906, 0.3600638119350583, 0.05979692115563044, 0.03276781441235181, 0.04354418408297589, -0.204329017444045, 1.2297133050014948, -0.46517168160384115, 0.03402255491760752, -0.025931454935447754, -0.06588030319853207, 0.5786558143958579, 0.34987482562463196, -0.37350056160106704, -0.09222223391713576, -0.2578021558703088, -0.2589266404835929, 0.21253013677486018, -0.39968577918140413, 0.35717035132505975, -0.001995187764165988, -0.0946348346655036, -0.9366180567363734, 0.3406248752460784, 0.24527967018181204, -0.41919541857507164, 0.1563132581685162, 0.3271566530204977, 0.6990527425386657, 0.18193138363794573, 0.598323626236717, 0.3669621824561089, 0.4895020555412989, 0.0872494516499972, -0.21246628042757448, -0.5024593634792232, 0.06741968007967543, 0.5527545838703231, -0.5911199476680714, 0.24851164566178185, -0.06362576863700324, 0.2237586787960912, -0.4097305488885309, -0.05517655686120265, 0.07566248802653028, 0.0769460212166656, -0.15591865736314733, 0.6456289031713067, -0.4797051588224376, 0.17102940279175113, 0.17766421386683107, 0.3291753057399868, -0.20613873546207093, -0.3978213351952608, -0.43475353018125784, 0.374889195762996, 0.09675981223389436], [-0.39583093741550057, -0.0709270420183871, 0.09582273771084213, -0.18796746243687365, -0.13879868889876437, -0.036494606782842574, -0.46767316718833724, -0.08383123085634499, -0.4580587655009294, -0.04670959666075143, -0.2781266471874245, -0.4453483813915688, -0.10443604967176592, 0.23797537052100298, 0.13149195664124885, -0.3294698152432037, -0.03561406029060355, 0.1428661039171211, 0.12488117927236814, -0.6325381800218257, 0.26032474231418345, 0.03239754584055747, 0.19421250945816887, 0.39378226273379113, 0.12501714964677554, -0.5521235473192834, -0.28607993013748445, -0.12853937186110773, -0.5360057306379238, 0.08977795439113186, -0.4061277613541925, -0.09488451218309353, 0.004731071028969641, -0.0615510771374436, -0.26723976028798085, -0.2859894038444531, -0.07956601664953548, -0.2836545661612469, -0.4708450815006804, 0.07157495150409318, 0.15282713380838522, -0.2579341349264064, 0.8093772655137601, -0.08406250451833498, 0.19592977846804685, -0.47625492786476437, -0.029574850899473665, 0.4294597196580914, 0.18794441440403264, -0.035589095931747826, -0.17312549894836898, -0.2741056048016014, -0.03947879087059686, -0.10192215037881806, 0.02934838493218683, -0.009713898312438279, 0.7112288049179031, 0.21723570794382419, -0.09421171473336844, -0.08027901817400487, -0.6306108460665918, 0.018050329394528122, -0.031995278222742105, -0.04390066823795973, -0.38217006057833114, -0.08070521349036947, -0.29395362830372795, 0.5372767135040292, 0.05905637355420277, 0.2364418711511436, 0.4165632347151819, 0.29477062231152834, -0.4019141086487766, 0.0787435929300001, 0.17590796608457746, 0.3521399796161012, 0.0915042052966863, 0.3286098892876191, 0.06648322432995127, -0.5032469477943496, -0.46192588408779023, -0.16180382132855098, -0.48286051274451053, -0.16749799507166305, 0.04376694134533479, -0.38663321708673326, 0.21715294024353188, 0.39423582619867237, 0.04063140112254453, -0.09844202565707066, -0.013529858443436108, 0.36979196182389, 0.3550072012700837, 0.08854206076123768, -0.47435490073430236, 0.03156265029998838, 0.17457069999876756, -0.04126309836584309, 0.2437446876971463, 0.6198151620890695, -0.42061806791266615, -0.6403628382039982, 0.39089363523416426], [0.44510444038726604, -0.8363587781208901, -0.05356214043947893, -0.04716445785126331, -0.18673032258279798, 0.9126179788402249, 0.688455977511685, -0.0357389868088145, 0.17383474305237182, 0.19845627415018446, 0.08126842235738833, -0.05085821505577253, 0.2664616483520328, 0.24453442645643633, 0.16252990964121686, -0.046990628287787696, 0.30437202130105473, 0.6026363523714692, 0.36149791107793827, 0.5735449224344967, 0.21866828086474982, 0.5983544125789311, -0.3096273163706317, -0.2733279722231705, -0.05090242578322837, 0.18755105414808484, -0.07805204184743755, 0.6922478287232964, 0.41892791725774703, 0.4261067290389634, 0.21966501020770293, 0.5784200551205508, 0.21673521467539997, 0.5283284291982406, 0.6050711419845435, -0.0011918141900618422, 0.319365851642384, 0.6033670454250138, -0.0014841314786533744, 0.24856101603289577, 0.4002579500425599, 0.0017837617844938046, -0.25576785481812897, 0.011856466051719505, -0.08714509914989158, 0.2644928446781267, 0.22052575775591812, 0.8310032759389845, 0.026875281060561616, 0.09208009214736876, 0.40871930334228956, 0.21849278044994475, 0.30621506661545284, -0.05320952633603017, 0.003486178051638787, 0.11105171935496347, -0.34143108164537966, -0.31260745525127165, 0.1981813024864638, 0.3049845047024847, -0.4067957403806832, -0.4243901090799922, 0.46801596160044834, 0.057193940314808615, -0.09199580032723, -0.41787938121035484, 0.18149125167491362, -0.3274614655557023, 0.4656336377159538, 0.033091719957165866, -0.4355919559941113, -0.5028563347579406, -0.0721887564210194, -0.15950123608755726, 0.2651429642436311, 0.4487041616694507, -0.00127276276609891, -0.023986470200090336, 0.2110806359245168, -0.6374843050524905, 0.14291639755862232, -0.2407135916539637, -0.4653391165045976, 0.6212501279361387, 0.005858620652358151, -0.13730100944696136, -0.06087778792313576, -0.16138553649222204, -0.09045921506484442, -1.0919469819807177, -0.14294993599076253, 0.06180789917142825, -0.13122819248784046, -0.18971699158207564, 0.6327576082275806, 0.1362428162165851, 0.06655575851389085, -0.24873050900465368, 0.39975233134040467, -0.22349050392442332, 0.2938393538180692, -0.11070463394908625, 0.07471985220910238], [-0.34826423820547125, -0.5762923983875041, -0.3575891098520461, 0.3417707160856667, -0.14284147041174144, -0.6453729098497981, -0.24701351847411654, -0.20306983461203298, 0.39967303609696214, -0.7034603004114166, -0.1762202718816213, -0.08202499060507129, 0.15773734348773202, -0.7197548963636089, -0.36803896888128734, 0.2516583134471803, -0.9307835462052865, 0.020707287526461064, -0.4110644386004147, -0.20742246497743097, -0.36381061964583067, -0.39380303844309184, 0.3799670733505108, 0.1306324684291356, 0.08696729483291372, -0.7965116085336016, -0.002692588714004676, -0.06258374354346964, -0.4751067846482872, 0.059063790844204045, -0.26387721818797827, -0.13136371746777792, -0.0987252943075647, -0.018999484235115677, -0.34836476753356116, -0.16328617783454666, 0.3662108467572093, -0.28355014418489355, 0.4532221773965232, -0.1972127086529594, 0.07456550848633955, 0.37309673619353356, -0.15913237691033208, -0.3314032431426138, -0.2267204208754839, -0.9171796567089789, -0.44770762776133116, -0.6995817231355748, -0.3922889463429493, -0.28982958934406355, -0.2890116856859485, -0.3218324299746516, -0.032973864520685146, 0.06877074089263117, -0.15002273801033172, -0.5498657260591844, -0.0865987258131188, -0.16406297106721332, 0.16308148755011725, -0.08491861746291506, 0.28000372204100754, 0.20716907147948618, -0.4805075019969891, -0.7179978142384196, -0.13507166769718576, -0.1421663713355254, -0.4670448721359115, -0.1718157126604696, -0.09518579985373495, 0.09796704369855765, -0.5168491244338816, 0.12541086407504604, 0.19078460725842725, -0.4386728541895154, -0.37317526643803056, -0.09880693623366318, 0.7242645563436327, -0.45002783282676767, -0.6442591305665388, 0.009378602872411608, -0.37347791055755575, -0.24161741247650098, 0.12071284014442091, -0.14328463359356183, -0.35253757627706056, 0.38266942292749445, -0.4386020533165355, 0.264867816179527, -0.7757717860120706, 0.20266143078118024, -0.0980575752819417, -0.7149546147740965, 0.05522664794674477, 0.15690046426393553, -0.2571651395435676, 0.08844708300555214, -0.6335612588015528, 0.6371639948040817, 0.5965549420507585, 0.3848028623211107, -0.23764054324882983, 0.7931678068822243, -0.18369948551054263], [-1.3006776843637045, 0.04548151351125452, 0.2934871140803734, 0.24053581538105448, -0.14750736999510708, -0.4328649053250776, -0.2743992044356703, -0.06754771088664421, -0.6205761018937361, -0.24563113948526563, -0.5263872342819912, -0.32672210666917734, 0.17014643996198564, 0.012026855266587476, 0.8541375921601841, -0.3220777680693911, 0.08164628119783922, -0.07946947545143315, -0.13986146088137527, 0.42215067770227666, 0.27555807769645413, -0.7194199407027747, 0.24029608768469235, 0.09309545055089623, -0.5860353107115263, 0.16448603204265014, 0.23739190219082165, -0.3461131873051531, 0.27856604851839767, -0.23211385469220674, -0.19310904990591946, -0.8185249549651328, -0.12973219320697513, 0.4250565720681041, -0.1417313960478926, 0.17104229296038173, -0.15400126822316615, 0.1463397123182606, -0.4218786557899145, 0.0149483297023073, 0.265271015491179, 0.1011012756027664, 0.25659343067837476, 0.3654412318840288, -0.03947093889583857, 0.05233292580627314, 0.10189182228946499, -0.009339556356615807, -0.45109540673092763, -0.06984109708848425, 0.6080326472475922, -0.140798444761532, -1.6556580277055626, -0.047872835827181937, -0.13410997856870274, 0.05638586156029179, 0.5443217388347288, 0.24160034498580266, -0.5634014474311725, 0.2520787513251825, 0.11788397102738023, -0.46588613394323625, 0.044318125993723104, -0.06595911523433413, -0.05706544119114809, -0.40616308692154224, -0.6834708939364939, -0.3461427224395816, -0.23262576537877183, 0.10555385535670787, 0.4689968406682782, 0.19895386843841603, 0.02639907028356379, 0.7550883870180088, -0.2290232335569946, -0.5613376129184904, -0.3208787459292579, -0.0384075925962434, -0.30435353427832423, 0.046956571020658526, -0.41987123297577655, 0.11611049879875822, -0.24289822640654762, -0.5978896800040859, 0.37514271774231733, -0.4235407010510169, -0.11873987886293351, 0.05809868555420391, -0.12926201590977923, -0.07149224218217472, 0.2669475615552641, -0.142225412069889, -0.2788174262656711, 0.07499208304488651, -0.3356452079071455, 0.22736658316667696, 0.06247655450849042, 0.163490352109661, 0.14286382338333878, -0.09886905111558689, -0.4246743675282344, 0.18179664158943046, -0.6447748869116877], [-0.04921533256148918, 0.40166055253215943, 0.05182612581768307, 0.3443985547287841, -0.23381229176665747, -0.5993656822331525, -0.7738843645313023, -0.4345152444833406, 0.07367131157043003, 0.13567172455629242, -0.18696553530236576, 0.14926991339539697, 0.583837403308977, 0.008780404496141132, 0.24428167331442904, 0.5798423366919573, -0.2788661164038426, -0.11592090381242627, -0.5095774392423928, 0.15534134358750393, 0.07738071112923069, -0.038047580721315234, -0.04155376373161955, 0.10193500092441693, -0.04775585977710534, 0.36000632481416606, 0.17790854334291822, -0.194721065393054, -0.07133764144856974, -0.11009055653676907, -0.4805120418133117, 0.5931181659650266, -0.2984356390734871, -0.47421782175110916, -0.07297428726444273, -0.00769132846187272, -0.33587142747754095, 0.06901995185212693, 0.09035697639036196, 0.4065846518010719, -0.1837823967087159, -0.24930881681781095, -0.542519328269965, -0.23087567885236993, -0.3412404978607755, -0.21070164012692538, -0.4119998466783887, -0.17623883775806606, -0.4608445154359124, 0.31144318143188826, -0.29866481076257667, -0.20375377295402564, 0.6601786531407018, 0.09983696462130122, -0.09388997061052318, 0.33815854647123544, 0.001175530433613094, -0.30263482446573375, -0.5168240559706341, -0.016506855532938767, 0.5334652172983486, -0.536224029260895, 0.4533203673108317, 0.12498094316607658, 0.3114732904452732, -0.4108725969382108, 0.024446566796548202, 0.37887399991578874, 0.0434295609063468, -0.18457264026141393, -0.11760834788901811, -0.36587768245026825, -0.4128607300910633, 0.03753406575886387, -0.1839020088468634, 0.41263245246694924, -1.0522989831877112, -0.2612593844645623, 0.17035786474696687, -0.3579119008004591, -0.06347345991978466, -0.021174083434002018, -0.8157748470837856, -0.2723042074006007, 0.05738749133011292, -0.1640730355468283, 0.3623201404751661, 0.3746104668864732, 0.09539048983905055, 0.6143041737816445, -0.019039606255703608, -0.4223444096227189, -0.1885759785608899, 0.3195757280968812, 0.10576507053019105, 0.36888266612003157, -0.4103787410380949, -0.05912402199923836, 0.044665036841532814, 0.020051194236769647, 0.7458908561280975, -0.030081172562430973, 0.23254818087313153], [-0.021249719602791674, -0.524227668755157, -0.22495268287103654, 0.22555700624858913, -0.07505684260901256, -0.278591407463713, -0.3061451419021754, -0.15855237599722105, -0.30467732846013723, 0.3846664324753663, -0.2540616156336563, -0.029952679776201932, -0.11329615103658622, -0.18910125363454602, -0.269557004196094, 0.0885481766734911, 0.1147622100755758, -0.38166546150302305, 0.2440356863909424, 0.1815233425083415, 0.18407822308475824, -0.391073858442794, -0.42793527251587643, 0.07464401061264218, -0.21794752440257187, 0.2917660338194624, -0.2502728375029119, 0.26982278627092643, 0.032760070538956826, -0.4235922874936957, 0.36670789051867797, 0.00637304130693604, -0.6538718131375193, 0.12928007179480488, 0.04096681150431303, 0.5764226224671398, 0.16910663401681947, 0.3220691962083385, 0.6093516396327353, -0.2451222307693542, 0.11389231776205956, -0.05484855210169256, 0.436279684302961, -0.15894516287374416, 0.08400012671462256, -0.017420604103065677, 0.038365719229691835, 0.06406045832976842, -0.179758393354391, 0.41497879753436234, 0.2794587297132576, -0.39368322616530743, 0.8979250895823803, 0.0194503249855464, -0.6100020342795355, -0.18956755152203, 0.2310090995927335, -0.06568052492212162, 0.3427706505295613, -0.4236360404121492, -0.45502253396025916, -0.45408306351777583, -0.230268877937183, 0.02377906968471585, -0.1417945321403581, -0.17279828006196896, 0.008385568736761988, 0.30040975219183125, 0.1751284013339024, 0.057206719851786214, -0.2491934930046044, 0.059527032105566376, -0.2448397073001794, -0.0905421055525852, 0.05239283008169587, 0.2870900675936842, 0.17194936367388897, 0.16286271440068414, -0.08160397618743166, -0.05558866075233386, -0.06704121606023512, -0.4707569492333178, -0.10433986141418655, 1.0158854163195095, -0.36112013575071067, -0.13371350715403524, -0.2445845463599066, -0.6300294481476252, 0.3834143640343974, 0.15015315701583, -0.22032600194857427, -0.2105161295654377, 0.04163592303421934, -0.03472119917183584, -0.04468859619894685, -0.22909198734822886, -0.015180095363666766, 0.3293304484414704, 0.07970474776793761, -0.22760240280435143, 0.29697128404338247, -0.01751382413161285, 0.2229928603910915], [1.1473215902282399, 0.1507334793678161, -0.09011138063244187, -0.0022653358746153093, -0.19879452062526193, -0.22836731797808052, -0.25747480276381246, -0.22659849363953374, 0.5660864259336935, -0.18422570076698444, -0.24834470272017586, -0.3039437189132206, -0.46722337421536514, 0.1563692021166955, 0.4221467720419304, 0.3283550525491758, 0.0526106493037365, -0.016934087776772046, -0.019652307624520284, 0.5184900996214631, -0.3886412823962005, -0.5632990684929222, -0.46782079775827684, 0.38952693936674115, -0.2276265469322132, -0.17754102046338618, 0.16417039267763378, 0.05652388684662155, -0.12166685150667372, 0.07259297065022453, 0.013490139517173155, -0.19701468751614595, 0.02387563386101612, 0.05178479546201278, -0.036668857399605875, 0.08039293353061885, 0.15406065158405732, -0.222775091929933, -0.03177650085833412, -0.23623517794902202, 0.07348591856464912, 0.2580962286285158, 0.2927064005135217, -0.008971962066810496, -0.47149565681717615, 0.006964543404765393, -0.08100418962906594, -0.00022684926460853443, -0.6726276881924559, -0.04868012062696466, -0.15282217777930343, -0.4082620953093061, 1.7868456332827085, -0.16444369718479637, -0.36863924788397856, -0.2510209407420826, 0.14457756044160514, 0.12004548451849431, -0.011384857650306557, 0.12150490341062635, -0.14744597273922758, -0.08945016210248277, -0.24501873471882402, -0.2506631627640968, -0.9157632740271563, -0.5169645770736764, -0.21652840623549416, -0.5114140837744765, -0.5072047935229673, -0.07849374992486602, 0.5662951817953625, -0.05520377038193806, 0.16833173435562762, 0.48110555044689096, -0.05300869975602473, -0.11027181576218957, 0.13870017640024607, -0.4070919972324971, -0.08434189527666264, 0.32397069112795, 0.49456336146836216, 0.4977948173314371, 0.16064527487967317, -0.6792127102155557, 0.30252747751333475, 0.03763537140480163, 0.3833653417088153, -0.5090188694647635, 0.2820878104350881, 0.3406776780903511, 0.4933492440991534, 0.07550507143927769, 0.49636786567046737, 0.09350504260943121, -0.0745683149122183, 0.3226216033013324, -0.4948520152307608, -0.28900982739932346, -0.2500777880652176, -0.17758149102376225, -0.34999014570354964, -0.11230324265139012, 0.0901805407207628], [-0.7211305052858744, -0.036026335061073396, -0.07850832157450802, 0.20416388913952183, -0.31211038038139416, -0.0002758333673464508, 0.3455703119308331, -0.4499057387097915, -0.060209379417944194, -0.03964033234668929, 0.10205680223046673, -0.483589694315681, -0.4759070710772383, -0.04020097795242502, 0.4848043253267092, 0.33135535162366386, 0.18179689234665367, 0.0617519221244776, 0.2966621598649725, 0.522753890862161, -0.22776221782043563, 0.2840339282539217, -0.008104086241425027, -0.26768044878282277, 0.5064382553929052, -0.37388870598959667, 0.3916859291682975, 0.05048199060027785, 0.1899527432596259, -0.1761063818844692, -0.13752137163909672, 0.1757894163889987, 0.12247774845050417, 0.1664880081425444, 0.1290155333000794, 0.0654977595675608, 0.4697482733627874, 0.1345716825003794, 0.05642899683925415, -0.07586894408350987, -0.22948164101186647, 0.14190553434955996, 0.2106452911177646, -0.22264406751157442, -0.2863333498000738, 0.2922676123993229, 0.10003873414600299, 0.6474287138585738, 0.11905351537068576, -0.1283947941042894, 0.041457122560384724, -0.4055997802632459, -0.3014718645898055, 0.2741715385643328, -0.0821586482509804, -0.005547411237802937, 0.783961390738584, -0.1403725032625565, -0.1629200625163218, -0.5402000647111758, -0.13869480363288952, 0.2961111177466409, -0.11751858674476806, 0.10538018766924123, -0.336470125293634, 0.6218539657819498, 0.16766240965188586, 0.6182147516862305, -0.6121241298868506, 0.3284554404936051, 0.8785353315628951, -0.07641955151536856, 0.31074719966302533, -0.34507642009686024, -0.7972872566541511, -0.346699255827294, -0.11786642390921027, 0.5483429320612234, 0.22885857374470678, -0.370011567358562, 0.38085654969815164, 0.11313747660797863, 0.5869281153515215, -0.08824424417836717, -0.2141722115780818, 0.31936368797928644, 0.14449143998327116, -0.05060038119042989, -0.21578307024888502, -0.5457144430547846, -0.30155347989653564, 0.2554158823877005, -0.4252932569949817, -0.3693325127976732, 0.1349246820627129, 0.2200745179572005, -0.20777726538375726, 0.5540503761704786, 0.6279992654506393, -0.2268969260175487, 0.2527757043895108, 0.21380005327666268, 0.2351421747832046], [-0.22460343661281396, 0.23200336279316908, 0.03075653591358741, 0.06354819968709206, 0.03275542340134664, 0.11651631452496501, -0.005154121337176773, 0.09995741040138675, -0.2192391562591219, -0.5005667960782935, -0.7256471118987124, -0.12541474535652658, 0.1369677480317122, 0.06581615857877804, 0.1014128159898816, -0.35853221986839195, -0.37047721192765076, -0.43020913038542635, 0.10350840915197107, -0.024252249964211454, -0.32948811073624273, 0.43367152951931814, 0.11088347895338456, 0.5038177908162573, -0.4192823693960494, 0.27354704429714555, -0.49411965404530445, 0.28486007826990845, -0.12719709415306749, 0.00281671947754211, 0.3773780042541284, -0.0335604393990385, -0.10111353587758248, 0.034248704174483766, 0.6598930225147601, -0.49220455446928113, -0.4858661960397958, 0.060283395924049084, 0.19858301695944955, 0.09827316796891843, -0.23028929897029343, 0.3406846661711421, 0.01110411632939158, 0.6808544633332417, 0.34020801081064295, 0.4936382784493509, 0.18014688501090903, 0.16999962841142793, -0.21835253143265218, -0.3154593753459532, 0.2442545439946374, -0.609234200198981, -0.2583307143413567, 0.7460912686303318, -0.07243915563415997, -0.13120321288877995, 0.2440327097292975, -0.13363845455363646, 0.4293225209629389, 0.1101841540450315, 0.3672420291708602, -0.04573345196949478, 0.2061120609076987, 0.018678734510229635, 0.5956709142169057, -0.022824065998929208, -0.3889989557131849, -0.33381127538197397, -0.27602536994868415, -0.26114108556583104, 0.25709559935321463, -0.1451343295582839, -0.28872267737087814, 0.09043322941851065, 0.6432000116253023, -0.17865341741424792, 0.3976576532425463, 0.18038684240917677, 0.14861466972941562, 0.278711415782117, -0.14965236817429303, 0.13336017406187178, -0.5442100415485299, -0.4471029091028385, 0.039265216184349555, -0.04942631003308409, 0.35506543555646414, -0.35659176512416707, 0.008796409568492659, 0.2347907195904739, 0.04175903792009078, -0.006108117852820887, 0.7393919814086333, 0.3851902036158473, 0.08591237911513522, -0.4106039815777818, -0.2750469173985365, -0.049764812507078114, -0.25286730283150366, -0.17810957992285614, -0.02383307639205226, 0.12477287352623766, -0.0327592259309598], [-0.2861940418298761, -0.15894124468322599, -0.08450013111953651, 0.16034946203189157, 0.2063871827926071, 0.17410206494517452, 0.060622479971215996, -0.18699790867932, 0.2860125017417771, -0.5944596896391817, -0.08185062362042758, 0.1594754830145996, 0.36245368533911143, 0.2024033992261573, 0.06404980848512329, 0.281988565777404, -0.18392252962549632, -0.3061915025206701, 0.44708700242836313, 0.08017096182746648, -0.3467147668805874, -0.14529424085398726, -0.09109685681640067, 0.562693785095525, -0.3094426278127955, 0.0831620870059629, 0.31496622465517904, 0.3031741607348664, -0.015118225602713125, 0.3236743690641895, 0.035626720487493546, 0.23084584823414678, 0.3117627327827491, 0.07772649006699033, 0.06195720891816971, -0.20669173561922904, 0.11407939489764789, 0.25430656607416535, 0.03572564052544604, -0.3841123980426106, 0.29722315355422974, 0.06683476609928314, -0.37002152229126484, -0.11600204362531916, -0.23712612862875865, -0.2743642064688407, 0.017379827113183817, -0.1988608479005302, -0.03808295298417737, 0.2321522423820866, -0.27178359118441103, 0.2069413534255722, 0.15663723896092788, 0.15021835869990577, -0.09732598558498319, -0.6100648337848666, -0.09598937976993402, 0.24274717274353153, 0.33069867687704907, 0.10923697077099931, 0.16143441539492256, 0.4916294791976676, 0.28463212133870197, -0.15804135275713702, 0.06001204186477052, -0.396821365460398, 0.2543756422926618, -0.015290463614276635, -0.019223647365319323, -0.3338944455854108, -0.06700880015769244, -0.1709472103211112, -0.430708626127573, -0.2838041442912347, 0.3885476603142101, 0.09157069928578133, 0.38306596353889355, 0.21586095287974744, 0.06009201959961179, -0.18997386059358196, -0.008958505102520378, -0.09283004935746114, -0.0660627403144651, -0.45872364253168846, 0.04966352568251828, 0.32565278834010025, 0.035433405443710674, 0.0394343226393535, -0.26360052223237784, 0.3832004207728855, 0.4666353464402092, 0.17400619858029695, 0.26529992069610353, -0.35523957045997406, -0.22319308290657894, 0.5149150200642699, -0.9897167998024581, -0.2433412526887189, 0.03461374101983589, -0.10527716852081892, 0.08235027867969286, -0.1762333338274702, 0.1557979539108605], [0.08992276003032025, -0.2615753344450479, -0.4153764742751322, -0.010125456538534658, -0.19580796527254504, 0.12257626457032558, 0.204836636595465, -0.1666800486558551, -0.35843899237485916, 0.007748566141461985, 0.033941736791930875, 0.23114117840358545, -0.30322552719146456, 0.3530943084239021, 0.3386424930978377, -0.15610959008727363, 0.6299128880331639, 0.03488653055390367, 0.3154294811138698, 0.16166273240683415, 0.7153329412123453, 0.20238119526973442, -0.7436020521192422, -0.6981497726713927, -0.7910934281450127, -0.2779206014516314, 0.14519974296034122, 0.14356512639828448, -0.1593011073603092, -0.26877875329004497, 0.03909594149162042, -0.3568128413994837, -0.35275801947115154, -0.480533972766298, -0.3806562647110432, -0.34934938072284133, -0.2812475551858724, -0.14218561032626068, 0.029958103349345917, 0.5139014968057652, -0.1858704644024044, 0.14316518943295295, 0.05556930432150665, -0.2978121629767294, -0.1907845229996734, -0.4020948026865336, 0.21400413882733102, 0.16898520157276284, 0.0778390220232204, -0.1606369133109568, -0.34416348079085013, 0.18169738014611284, 0.23325228165801618, 0.21818258059701393, 0.10119898034568951, 0.1779711329130274, 0.1797533050438179, 0.2520726971710033, 0.18697646491129352, -0.24321840992154023, 0.012370405438598738, -0.31947171591432744, -0.33906367946626037, 0.20837284986804303, 0.10246465394067669, 0.27306373162630443, 0.15048318841205396, -0.3963256790132323, -0.5594053117370664, -0.19225558558434686, 0.0377881435177789, -0.27728312383088854, -0.15544664790881008, 0.693450154395431, 0.3982462595051955, 0.5027502385114598, 0.0867364049824959, 0.21084859285254384, 0.5791609968167833, -0.6437868752940481, 0.10894396297317607, -0.18546120986434397, 0.5707125709625044, 0.16633311070674672, 0.15959726226998833, -0.03723399851039097, -0.10675731881952119, 0.478729822264284, 0.40105307458388467, 0.2974167259011916, -0.13675799323334198, 0.4745386396052441, 0.16093094657581203, -0.07697590095216071, -0.1993208428732645, 0.2566180367577506, 0.7830382029177967, -0.41229982340813487, -0.8957079713780783, 0.8729350859883921, -0.3536681909650778, -0.14068441561833547, 0.47672642899128137], [0.09172339930386891, -0.44195695777437455, -0.12444309497905529, 0.4802465164499998, 0.5148302115480292, -0.062322736215038706, -0.01752418697103401, 0.031147178378635957, 0.2816058466364481, 0.07389245969776671, 0.003325527506713531, -0.3492419763510819, -0.633483635815019, -0.40096188625308365, -0.048012367106087375, -0.6843749066422941, 0.1534699959778551, -0.45911057618704837, -0.009687296535427976, 0.22676690235788355, -0.20513885492182182, -0.4303824183901517, -0.0012121202501718528, 0.9537488385323111, -0.06657306508355118, 0.21570529006159248, -0.5265892268605573, -0.21729794981591186, -0.1501803537224372, -0.08813958216158582, -0.45164012703010864, -0.43506150873716787, 0.05167692007953998, -0.38878249126461667, -0.29062635002821124, 0.29968615024254863, -0.229491200353805, -0.3572999771914476, 0.33378737601198943, -0.13136607398325784, -0.32478956240681184, -0.1066913221519952, -0.15481889913392233, -0.3975829481182097, 0.1228499663801669, -0.3255366720870503, 0.1639258940100934, 0.08583802869740793, -0.056013923704437724, -0.006771299140514987, -0.010708159619820497, 0.1378757198466096, -0.09184696585561819, -0.02550537139039177, -0.01300092592970045, -0.2455661170558024, 0.12002888706129751, -0.3365671521456327, 0.2161192286386036, -0.4986455154238558, -0.030801877136442665, 0.07959906952311871, 0.34349073382549783, 0.5458209864909705, 0.4563402254623278, 0.20651127423954224, 0.40532916396517227, -0.3858155619985874, 0.08294546818365191, -0.11079819878806141, -0.2711205099251815, 0.31438243275720174, 0.16177682064983281, 0.017083690621122923, -1.2591767159786407, 0.29091258502593104, -0.2317771283832857, 0.36274465743570034, 0.2998350835049628, 0.27117549687995673, 0.14542297273306484, -0.13497675915684665, -0.29293474602262437, 0.1718494480331284, 0.3627158679938024, 0.6516247172289755, -0.5710684167228076, -0.10142169007646551, -0.621753920491161, -0.28046708537455484, -0.8039698144392116, -0.08318380983151373, -0.30221503283584483, -0.19575367525311224, 0.22112912601592963, -0.44368927169248074, -0.2925812524427981, 0.9631392970560906, 0.37907848366205404, -0.20073695195413674, 0.3140954181666737, -0.8911088826147596, -0.1188176077591382], [0.32525268551600167, -0.18512190120424693, 0.014148230161093695, 0.2328880471677825, 0.2623456905496459, -0.1586853378694729, -0.1775722559287321, 0.24855248216812795, 0.7910890926078488, 0.24041778294537927, 0.5384683151891202, 0.4927379326969645, 0.5888851222286602, -0.4200789074914509, -0.18002158961463066, -0.5009261856032482, -0.5039628257937773, -0.09086400569695909, 0.038651785403407544, 0.6721646944718102, 0.29061765895564384, 0.039006861088169954, 0.8388228268587444, 0.12354981235129686, -0.1611905666053035, 0.6259951274287382, 0.1600212068264431, 0.34436839065968156, 0.17468477802489038, 0.3407805791736237, 0.3054821775867011, -0.2947111743375922, 0.07367996723534392, 0.23546379114710447, -0.033764033805847075, -0.4708092060681488, 0.1253661338374335, 0.44400385518161867, -0.17783962496936395, -0.17466357870890423, -0.045568726730604255, 0.1474144197277172, -0.15844842169149967, 1.04249454828261, -0.3616100792561741, 0.6410888484706255, 0.07613042725267095, 0.08365431075313116, 0.08791783304889415, -0.0413379709694168, 0.21341079174087188, 0.32506825641905085, -0.06239930004869323, 0.22248619902226305, 0.5125816941391237, -0.1364002415875064, 0.057784840955685667, 0.34484539278962006, 0.07303190665261389, -0.12011702460771821, -0.2735495075742207, -0.6245209900429023, -0.1927848185695226, -0.44211826218628963, 0.538446792690554, -0.10086132838674212, 0.0506574553116401, 0.6637854892619977, 0.565286682445472, 0.011129591228903998, 0.032425407990687986, 0.006795679925364777, -0.0706874234164632, -0.34843389059261787, 0.016215282583982808, 0.06610290024052762, -0.34045273479436783, -0.19836197492118307, 0.012874864002231966, 0.3187621765978634, 0.08920388874421856, 0.25871377736575113, 0.5770376178502908, 0.1515808437086712, 0.03569700132599726, 0.18732164701296605, 0.7682708376328352, -0.284352302516061, 0.12107731850255882, 0.05609179614817089, -0.13071393553677366, 0.09599615914254883, 0.09084559573333817, -0.5116774673367528, 0.11706956366306577, -0.07317384122172914, 0.2056588068330878, -0.13896344535438077, 0.13774309357975062, -0.6527224262532174, 0.4658941284177542, 0.196515762552217, 0.49115548574195156], [0.17089703486675276, 0.11639655522145893, 0.25336638568061004, -0.35145601933241716, 0.005657440589714475, -0.12271892847254866, 0.2566024921869276, 0.7049338826921903, -0.6523395215693982, 0.1023352144010962, 0.15469382461891362, 0.022698338708561226, 0.17636985107869044, 0.09554797413719282, 0.10953425258350312, 0.6030507269350178, -0.0010439128694461786, -0.35894941029533933, 0.06117132123213809, 0.041435027842705134, -0.10958189989304312, -0.2783298652331483, 0.018383586374873334, 0.174832498668314, 0.06820151255845192, -0.20787703862055049, -0.22282472053375452, 0.050841443596015785, -0.1363821007961315, 0.1874748305294455, 0.170890681728072, -0.10924153022250259, 0.21652957744081716, -0.21197420166519335, -0.203117933670546, 0.10868833208374595, 0.3090692557504741, -0.02609673859392918, -0.01733082612487384, -0.2804788842239829, -0.1428556495354045, -0.10389901528269474, 0.4956917856607253, 0.2700610948864478, 0.026267248514690714, -0.20295718359991877, -0.15120691348795265, 0.3626401264202131, 0.14947814631141634, -0.3499082903436353, 0.035764978152001185, 0.2986014552197664, 0.31681290130448486, -0.05927095847735432, 0.06782325304790328, -0.2036485680260492, 0.31403162766876824, -0.3661941098962654, -0.04195324447534989, 0.03573446807544651, -0.5665509129842715, -0.04001070194211519, 0.4868171879078216, 0.3735884327693794, -0.24173374684694013, -0.2937439345769641, 0.11202428088571348, -0.04181691373060686, 0.1402556412081456, 0.0393746740695713, 0.5700358529088934, -0.5715640374367432, 0.4530992438927763, 0.21157259452166782, 0.3725836932947469, 0.4137347203789995, 0.4660831128647289, -0.5154101469793062, -0.2811427299077049, 0.29976918791067153, 0.023737128210824725, 0.0982355925452866, -0.2551139175075284, 0.1293511702733882, -0.260989070465095, 0.15956221508510535, -0.22759643714126535, -0.288793537545365, -0.027764606878001467, 0.3320612659566503, 0.936399023519259, -0.18215666848910753, -0.7405729162446308, -0.37383395506811257, 0.4261552318421589, -0.01876255232059712, -0.31707462548336096, 0.09197376983700263, 0.17594766688430277, -0.0008948519332433368, 0.16199957797702494, -0.24585092720893786, 0.008757255082677173], [-0.7358889509564898, -0.03051599228628396, 0.05440371294615466, 0.39900853211707876, -0.04327627125869188, 0.15745562751970846, -0.1481009712110659, -0.17723008631385814, 0.09977926181430981, -0.22282933344978714, 0.31823461012737764, -0.30874297876596324, 0.14547946663454442, -0.06416774276786386, 0.32807938388940844, 0.08731834298620628, -0.4948844352668067, -0.3851068426586432, -0.8560780888334782, -0.22964005967248582, 0.24516153224035908, -0.35488708253743206, -0.26535828224223956, -0.18656050578477018, -0.04874336435900327, 0.33178441153261873, 0.33745016976344094, 0.7513200296356808, 0.5959591341650128, 0.291343870699832, -0.19449826922318836, -0.4044018062407153, 0.23754388303259089, -0.07623655526475402, -0.13471701581485124, -0.0623731536425006, -0.08041405013524652, 0.5508708428247951, -0.13628168011041103, -0.5990076674565458, 0.0696721743510512, -0.35661072066627647, 0.12081284893489724, 0.06012882338863805, -0.038208303904583116, 0.21026383475487875, -0.25586756783412506, 0.29479133961388415, -0.3289282208697372, -0.03107300544546894, 0.1994507948238999, 0.2092135478152137, -0.5560842612731423, -0.37197179294490995, -0.05395329268498839, -0.16757486307561253, -0.008110180237990572, 0.17827453593274123, 0.6171040218314134, 0.1389567138297063, 0.20434225099425685, -0.021552653309537796, 0.031767080867609675, -0.5478759297301519, -0.37943327353147405, -0.09090833833137692, 0.06771945520877949, 1.0907628078376852, 0.04180419298179946, 0.6313532425502482, 0.343780120437908, -0.04576256123673095, 0.04657769280531737, -0.31495939522155497, 0.023539810605623088, -0.11129739301665308, -0.3905373241003096, -0.4713395145262399, -0.21667403570023577, 0.1292079950256634, -0.1548005252863959, 0.09153314848651121, 0.12545809058273782, -0.29364269893978256, 0.40074149715724966, 0.35672433350806104, 0.32802425665831103, -0.31308066529465595, -0.14275274789343045, 0.4628639036855158, -0.057070676844053335, -0.912998154723321, -0.3257532427971257, -0.48612714942443336, 0.10945756729503421, 0.25435295649157913, 0.0344206315128896, 0.1593496691374432, -0.12349137448387502, -0.22341639780038913, 0.13179562194475372, 0.27521953832681284, -0.21278075146569914], [0.40213386425970404, 0.06740042440747497, -0.05729835731722063, 0.30919096641942934, 0.0634433367912596, 0.18848319321377485, -0.16062971122119643, 0.349028523259794, -0.16264135280338224, 0.1852450122581607, 0.15988986424659093, -0.11258621497216265, 0.4607134295335949, 0.04103267000295638, -0.2834788526805561, -0.2522079731711538, 0.4318364111711834, -0.3169741074904652, -0.052259363959857676, -0.16997831559482304, 0.2721723472637365, 0.9929102853674572, -0.3202592633170146, -0.4094789893086037, 0.663598198229964, -0.40120008484500996, -0.0999360788434578, 1.1900098436496158, -0.011265799918573415, 0.27180514594067307, -0.06747430288842747, 0.2719562723988309, 0.25619669901886155, 0.272951075716463, 0.32284377823482574, -0.24200773287380772, -0.21406075300663255, 0.36988671957629804, 0.13846686064263233, -2.7857422824170825e-05, 0.4369102785610323, 0.17273984139782855, -0.3313379117455039, 0.35313286159734875, -0.10888916400192902, 0.4000686546906673, 0.4465248587438088, -0.5488361080838832, -0.15527750308556076, -0.07322968865216319, 0.019178900952733773, -0.302018278847466, 0.41036406773316936, 0.1473435196060838, 0.4764352090040183, -0.10102715448896074, 0.03963129333214403, 0.31495057261574655, 0.21638620293194868, -0.3745319547945187, -0.23778674125895208, -0.18996863985905948, -0.31208505255832614, -0.28541541564189593, 0.0947177611104737, 0.310113301115404, 1.3175015376934116, 0.3789948227036232, 0.8123109927895149, 0.6123455967582659, -0.28358692892722137, -0.5235701824262192, -0.6424974300325926, 0.19734354977030438, 0.21833660012603243, -0.07409694959633945, 0.05596937028213504, 0.2682063134839283, -0.33074282555169154, -0.302135857766036, -0.11213037269291022, -0.16672450020987079, 0.3199440917322375, -0.3234690310477425, -0.01574445672575553, -0.23557583904489973, -0.17236165761984829, 0.07698739279740968, -0.4057939933310587, 0.19071373127223282, -0.16287739465370688, 0.2550051308312768, -0.6295702981808368, -0.3111073159942821, -0.7275665010344907, -0.01330041343049251, 1.456280891179287, 0.3096204520357629, -0.12872900071142665, -0.09234653308982366, -0.4812019944047585, 0.10567437559948255, 0.446044517329418], [-0.5043667009686177, 0.04653195658565232, 0.049284057661042435, -0.08609031812518302, -0.21403686876930486, 0.38690704933718084, -0.4035877912332035, -0.48136410624241566, -0.44175196557470847, -0.46297112204646906, 0.13221137632359095, -0.35404649955704076, -0.24394128513945965, -0.23064896789428715, 0.7213566991460475, -0.09920530183743258, -0.07250489542882516, 0.692804870501978, -0.018186293255678287, -0.02812821809146715, 0.13208843713306512, 0.25902804883419484, -0.221089614242374, 0.32085913038033415, 0.1976625978546247, 0.3960909857288834, 0.03760057494100917, -0.15664068134672793, 0.20814745863007134, 0.05214548957478408, -0.5831193003944758, -0.10203243726422659, 0.03647747367223071, -0.4472543554790169, 0.09920982664206729, 0.07503567043085306, -0.3725717009902936, 0.2249794397544075, 0.17990906981824634, 0.05902919796746176, -0.07219957279576533, -0.25525472963444656, 0.06070286701962062, 0.030725951047958607, 0.2153344851299257, -0.34799410760453303, -0.24077137634076268, -0.15423125090082382, -0.17101137525713644, 0.3724159841646898, -0.26359591220315964, 0.040978851882254294, 0.30862128674762807, -0.1623454591382531, -0.23860102880152256, -0.4977340154985292, -0.2323128072632114, -0.2897059929876438, 0.40281910191316855, -0.08198390574295511, 0.5770000589274644, 0.16666451458048623, -0.4227154932123646, 0.5651540156393532, -0.027134005989823507, 0.397947547918492, 0.8248077260127635, 0.049810815615036065, -0.3480913682692444, 0.6522987661661512, 0.06960460816446026, 0.34586551232891954, 0.314959888412243, 0.11204910792586034, 0.28113930565140405, -0.7381829868012084, -0.25020144844958697, -0.38572399493375087, -0.3067265907257126, -0.456068673795643, 0.7764352469206892, 0.11311024931921168, 0.1546970507496166, 0.29331710326558535, 0.27011000101418237, 0.04207047815586677, -0.14814594120030206, 0.635579120294519, -0.868099019865511, -0.4250686806240756, -0.6113045877439327, -0.36060830751796397, 0.13296777747358549, -0.16782555728184256, 0.18314551609248378, 0.3920512098269696, 0.3798288606268716, -0.5082433227686729, 0.4751203186378132, 0.4430505260394417, -0.12668511278314562, -0.3654439434521708, 0.23851477877177027], [1.3618912471919513, -0.1232072521833651, -0.26985763419767267, 0.08167814308398819, 0.1355969904137352, -0.29690741715015423, 0.08607926612525933, -0.3073557172492818, -0.4412508019629876, -0.31934869414430156, -0.16950716293539464, 0.2376077351108528, -0.5924969240315179, -0.08997391270635044, 0.4646995240449316, 0.09789233917076295, 0.2670720957860241, -0.2293063309131551, 0.07529575404020247, -0.7847212282062739, 0.27174479255631123, -0.2663727734210719, -0.6349186922145503, -0.3478119556686394, 0.10275994962831435, -0.2712809325119928, -0.22084995828083528, -0.007276603701562564, -0.15381133859810794, -0.30988659139488167, 0.09265116378557899, -0.18138898521630703, 0.7736108532103134, -0.08701510891761116, 0.11975115417327253, 0.014680301772051157, -0.4514173131101711, 0.1474643345341946, -0.17406034577404686, -0.15840282014844057, 0.18271361077423678, 0.17745760332577248, -0.2186660162855199, -0.5318575661742481, -0.8373148551496555, -0.15060911790081571, -0.0878136685132734, 0.2540155914014841, 0.10085404609327835, -0.00790932516276233, 0.3301216020346441, -0.04252816075546047, 0.6106586363102681, -0.5190766195825088, 0.3555842132831304, 0.09067460657580109, 0.3739303001180233, 0.10918150744873638, -0.42414277157249447, 0.5109528243989575, 0.44515792340384686, 0.6926663171240681, -0.3161160234670032, 0.09577280514130003, -0.5202099121293632, 0.6627130011939859, -0.17924359604787662, 0.21797847166942633, 0.10823318547749927, 0.536877087707875, 0.5479486109071002, -0.45468178703870754, -0.19130159017950055, 1.083196141126277, 0.032784914473180535, 0.5266837682425904, 0.23706971523374631, -0.11632250400793795, -0.16727635898721632, -0.5156957715264399, 0.036544134300118276, 0.11710872471334748, -0.6325744818084145, -0.299186451563776, -0.1895609969638908, -0.3031460267272972, -0.20265013693963269, 0.11631583583716208, -0.12867182612373743, 0.26976457992004343, 0.1665926517773801, 0.509853039485755, -0.16443232368566724, -0.05901821977597337, 0.15363276930058828, 0.20458569821516198, 0.356330135741707, 0.15222510294716926, -0.5847568106302102, 0.25024255440745824, -0.36591593924857896, -0.44606519629748836, -0.39349559314799415], [-0.180347569052516, 0.01877227227385377, -0.4394052801964461, 0.04145283644920865, 0.07139195728943377, -0.000980859124748914, -0.02745438182956412, -0.31906403361273844, -0.28496006551380665, -0.22593458725019294, -0.26695695996995183, -0.1098036965074647, -0.27931059920965784, 0.4063075378783224, 0.3106734101348834, 0.07919074609911823, 0.8328724033662821, 0.3110971668080244, -0.029320293404372276, 0.2982257280741463, -0.16802074244522774, 0.09918449321377679, 0.1565448447930402, -0.1424682538071076, 0.26877661401562153, 0.027517716556652323, -0.3939439620793536, -0.28915929267225693, 0.16174343819633033, -0.25280181431969884, 0.054400833816332435, -0.00113586579278828, -0.2898884360084965, 0.30919792925872747, -0.11871808864096156, 0.42911998030701454, -0.33328345247398994, -0.15059382826351161, -0.5777106218739592, -0.0060715740263665675, -0.40159289087345384, -0.29559873519062474, 0.07480669050734663, 0.0798738961633659, -0.10226300864893632, 0.6928754054094958, 0.7403876499827295, -0.14450786985877043, -0.13368786249871775, 0.13771463765084146, -0.06020448073590278, 0.04573323862064042, 0.05507772953167929, -0.2439725158955777, -0.19007127295891418, 0.7645162273322595, -0.2211651151235724, -0.15525796675166237, 0.43869954811455586, -0.15607073437980187, -0.07771527365753654, -0.21774017855135014, 0.033182117413651485, -0.4435177073264999, -0.1899094819636103, -0.40741706755616436, 0.013590202088197424, 0.8620421523207592, 0.09714418384520394, -0.18282910553274817, -0.045220428349245084, -0.6568969014352146, -0.2819920964431203, -0.13337478891857477, 0.14955949667715798, -0.17515273986644245, 0.2836501564504885, -0.21818473301290767, -0.18873140366885033, 0.17452723980772664, -0.2812005781794487, -0.07990656966448537, 0.3053747892301591, 0.26163874627467104, -0.2882056154809651, 0.18560652113408554, 0.17550863020774005, -0.1588156027144959, -0.2990303957932294, -0.10408343348269328, 0.08083192682509074, 0.06735154344377818, 0.307675117034249, 0.6254813041020556, -0.17453150261090744, -0.4050950982261656, 0.6594582352959002, -0.15728589235854598, 0.08715669914662126, 0.3603454488591443, 0.36524591599614764, 0.19723389921696496, 0.4087447888279863], [1.1221034115080841, 0.3295011464645458, 0.15683798013576197, -0.18216539327908027, 0.1453225338454881, -0.06289079434888235, 0.014493159985798792, 0.13797741721927945, 0.02711266514129083, 0.23656647209318354, 0.05379509946536007, -0.40110844500447107, -0.2359305052668147, -0.02343816732508536, 0.5674136102658716, 0.6373019221396322, 0.529505396203389, 0.25529335142690485, 0.775380564975749, 0.6217385463467529, -0.31878332018438604, -0.39618256668908247, 0.2821854719755613, -0.6138563045935931, -0.1493856006262827, 0.18562091471778824, -0.10181046171883165, -0.38522856479623624, -0.044577194083934325, 0.23938496735296216, -0.04127645750311373, -0.08492287496965145, 0.17578279454768062, 0.17513851500925992, 0.6483547585993633, -0.04170504074951441, 0.3008506565719671, 0.23871660655169702, 0.12149002032202103, 0.10226371478100835, 0.18545828331307712, -0.12766839597740995, 0.08280096990665756, 0.3343770329284572, 0.13943005600124184, -0.029802092118277244, 0.3247393510301202, 0.18356648327312997, 0.61044510492, 0.42594982405555226, -0.3530783635640399, 0.4416281511105106, 0.5746230647207791, 0.02893224152364009, 0.23578122917966096, 0.2155209689428823, 0.3485463241237239, 0.07061049516469471, 0.0545119979847867, -0.016320472188071027, -0.3634358085643326, 0.36623536595824513, 0.246813191327093, -0.0060043074595200535, -0.23268303877759014, -0.5445591316841604, -0.35369183052431946, -0.21669279458151808, 0.2593618949583333, -0.8039867309511972, -0.42817776189409473, 0.13968184906450765, 0.7963781876917464, 0.21279611792013842, 0.55178605880782, 0.30155874849284736, -0.5896156986290453, 0.36881454925972224, 0.5472161907095364, -0.022218480660789394, 0.045733141484356934, -0.20772486671175924, -0.24083551450656887, 0.0822201971720006, 0.07506548404015188, -0.09388650261507978, -0.053263517202099785, 0.09161302393768288, 0.11446558144628324, 0.4224181949285966, 0.5615268299132938, 0.5672785808429833, 0.07192341838088719, 0.5867323462146995, -0.09082817460034717, 0.20164295283834222, -0.241123155196452, 0.510584021852342, -0.10512583194483328, -0.21223202243115402, 0.23179778856810201, 0.20793727819465757, -0.11777915025466469], [1.1414441753944058, -0.40258345552244995, 0.2050388837467121, -0.13627890136761558, 0.07486432656828163, 0.44696525437230383, -0.5276699978045033, -0.11962950018130676, -0.06391993210319873, 0.7084657178791863, -0.03393073643061213, 0.543976484921716, -0.028730996205138772, -0.15295222617275678, -0.31724644483008696, 0.11890716860562164, -0.4276908399165661, 0.04484932815838897, 0.16076081901166467, -0.3093852642935137, 0.26547766404412043, 0.13580070639688227, -0.09386241215533137, -0.35384995964355126, 0.22232328514944505, 0.19129446471581252, -0.626922308317944, -0.14270981741772285, -0.04897033481917778, 0.13888825291147427, -0.11195914798556321, -0.2645118334018791, -0.3131813173863494, -0.3619238402608547, -0.293845758918629, -0.4779592566113546, 0.2078020129011497, -0.3583571449705517, 0.4040567618828071, -0.3713243374206185, -0.06518986913940567, -0.048490889971815714, -0.06348785722193363, 0.026459832405161535, 0.13700815071645983, -0.2656730467849915, -0.2557828691188983, 0.326634758465207, -0.11114670603748505, 0.09260074078044549, 0.3057434777433769, 0.09680588039956346, 0.7668570488879956, -0.0790213435840576, 0.13457152232591496, 0.06181243345440232, -0.25816643937094735, -0.10286842500069984, -0.7655257218130601, 0.236203089830279, 0.5040708080131054, 0.5888424231100395, -0.3706164587273362, 0.38345704018264604, 0.3736657199532753, -0.21236692805882962, -0.06196493955443899, -0.04265700316168701, -0.03180367984228744, 0.08869138633377525, -0.25064049697377594, -0.09654214860747394, 0.12636452375172133, -0.18433787144655778, -0.9358091161867407, -0.43318717120131783, 0.29504996665516103, -0.41143253210493663, -0.32057758992238106, 0.17079388896384085, -0.29268852178326765, -0.5336062447014245, -0.31202366360197803, -0.0552825965347542, -0.15743020252107373, -0.1295124404205331, -0.24541310417187776, 0.5082104185792136, 0.06895742290897253, -0.023795332926492312, -0.18359885353901084, 0.6239256238068864, -0.05117014355084254, -0.4425962391765718, -0.06466787429797535, -0.3449720352299417, 0.28360498805971607, -0.1462081683035958, -0.38073183432142427, -0.12987762849868134, 0.14541660912103066, -0.21510761518433222, 0.08933285010924603], [0.22157470885361238, 0.2894270455624224, -0.4729593529042093, 0.4489124246482114, -0.5218894095371953, 0.41195789056412274, 0.33118079830474073, -0.1840381343532919, -0.1461136822154088, 0.4237778476112898, -0.6431682321136712, -0.14602319902006342, -0.20150115128482154, -0.06420663193014708, 0.47981940509473275, 0.16842027943484547, 0.214852476825108, 0.275757739588944, -0.3891565320525787, -0.18564971264090768, 0.02830769473027918, -0.013633438738528531, 0.7414701009064751, 0.02205851162814931, -0.32057272724293767, 0.15384558759812278, 0.1595271116559083, 0.03609845392027696, -0.19881697993928207, -0.2521532227097624, -0.24100497673053076, -0.046629655693929475, -0.018818873476121416, -0.22849009524953903, 0.07232606241620061, -0.49049077748802355, -0.34103628987993134, -0.18826200161461118, -0.19705231211133306, 0.3680389727737353, -0.34164331897000766, -0.4377029204082821, -0.4454555115757601, 0.015900093555471347, -0.3804781121820833, 0.1433724793668182, -0.1857723711153277, 0.08103888591060528, 0.26194252612714275, -0.6253802804784964, -0.5442494000500988, 0.12922904430064308, 0.8448457957494575, 0.392101505012086, -0.24512171853569675, 0.45508975802704316, 0.10267173978346388, 0.3070544917358282, 0.007628235330145636, 0.0932460220507144, -0.3862440548273909, -0.29483088138473135, 0.29447106287878716, -0.5131126953733055, 0.09144504419798019, -0.2116300796024033, -0.6269747774886888, 0.21159214469536497, -0.04075844038222626, -0.052460506417351664, -0.05507498995947853, -0.21633554209516845, -0.21584580935940506, -0.5226701340976763, 0.09431088397253017, -0.15804467273108339, -0.13306035998570728, 0.2700375031713642, 0.3686766590417865, 0.6419635300203462, 0.014821053600964704, -0.003249559759838158, -0.1497252559850936, 0.2996269596095079, 0.013121413692422285, -0.4238872364669682, 0.3954071721366339, -0.13530712596780717, 0.3570451473997056, 0.6171004522722715, 0.6555615952693962, 0.5233373783911415, -0.03521315128399932, 0.24354834080781984, 0.13487629931631015, 0.1243364926253659, -0.7169434574215908, -0.10148860208519227, 0.08536684091881565, -0.3264693767318779, -0.5778018642832148, 0.6431702283214025, 0.04774711769607018], [-0.5474271323316673, -0.028906229481869414, -0.04682634544263612, -0.05371426309268355, -0.2486488038256231, 0.20956700227104536, 0.32491534330103433, -0.261401518778389, -0.24834849263803285, -0.7632598175809702, 0.23187974879170123, -0.2628139265830474, 0.09789408305780842, 0.1063002201556824, 0.1294729200830661, -0.2155381050858851, -0.5033537933961827, -0.6147056472524536, -0.6903403683733901, 0.3335081774892879, -0.2805875278068332, 0.0340526918614047, -0.12862411735398097, -1.1115231545719888, -0.4326425685741963, 0.19807181584743302, 0.3552987110180032, 0.36503572997519296, -0.4495893528633973, -0.2494016974414883, 0.1554140362029094, -0.21426901580122523, 0.08144430688093522, 0.24066157119471487, 0.07119737446482213, 0.03420413690304112, -0.2971569366086069, 0.10473745426186848, -0.028573564002986503, -0.2683633432272275, 0.02877633279690191, 0.189172007740449, -0.12579911077661138, -0.13922544455625413, -0.6164463828602921, -0.685832306389735, -0.12881741718838066, 0.060908709063799554, 0.23356854028417257, -0.21052225522918894, -0.13037399526666205, -0.7182809341665203, -0.2842510152131457, -0.3209922225116489, 0.48935440816256304, 0.2193294697188124, 0.10426513598790962, 0.24128363698670385, 0.32932080982035444, 0.4382380371213426, 0.674547296866091, -0.654867914840484, 0.05051137392779815, -0.04298776031156603, -0.2238712637550991, -0.24009748842767975, 0.3086781595782586, 0.020314902065607262, -0.5522944349872545, 0.42568365571752836, -0.6832280469556014, 0.28203652342090607, -0.11879316686284788, 0.04900960928405584, 0.5556845507066105, -0.1578611107309542, -0.4576093169680765, -0.9734603816195128, -0.6393857697516988, 0.22339478589403303, 0.21452753640893824, 0.3227878886850841, -0.49702959914537004, 0.2997289877048524, -0.2830665662944653, -0.241185975614535, -0.0914923141485953, 0.26728185738948257, -0.016871960698042348, 0.36020852819034416, -0.029031671418454037, -0.6373403844374338, 0.09515516804670227, -0.6815149844766057, -0.19669835576408706, 0.5165864564367041, 0.09649471900473511, -0.5610689184288059, -0.35173357469407995, -0.10797733234541433, -0.1005446702577806, 0.03515232946108562, 0.17494090471463705], [-0.22458045110151187, 0.08741581134765457, 0.09258354047937219, 0.4605679894549951, -0.06816962030919706, 0.30039797342228874, -0.24443737476049696, -0.3414211074794222, -0.3953636017928103, -0.3258758428348666, 0.23817374800473462, 0.557832910519132, -0.4058148308844293, -0.06205612426535591, -0.31382754166699245, 0.4586354471957612, 0.6600940869486914, -0.23879819607965408, 0.056779367594046455, -0.20566155398207187, 0.07404190701612495, -0.6072129064844012, -0.3934693544057675, -0.3615722103295002, 0.38661265824991226, -0.093859158021624, -0.5561974088396837, 0.20311249247131516, 0.08826510208301164, -0.20762771222110016, 0.11372645051086937, 0.1804131460885257, 0.03473993272456588, -0.10261174690541768, -0.32439472577649864, -0.36795402831420015, -0.2907077118300495, 0.49981183475697266, 0.15221868669382296, -0.179915145603173, 0.15074687787529764, -0.3427015373328715, -0.08054086711193094, 0.572846828311586, -0.5581796539451767, 0.2441764054823659, -0.5401431456540814, -0.4079322716710334, -0.039784110093726156, -0.1509023154688861, -0.4328412808833423, 0.08745234538964891, 0.0848932361628009, -0.0995495087278779, -0.6257197497598472, -0.10558268924594123, 0.09553018268252572, 0.05138154500516646, -0.020215078762287196, 0.2612224585856653, 0.12362000550259546, 0.2122057395836602, -0.18626319188792512, -2.821040157845718e-06, 0.08243380999084401, 0.5402478263427262, -0.23783026294413706, -0.0451843979453401, -0.062074364934729925, -0.31608323135776106, -0.42593968875750543, 0.1927680657280583, 0.07407764151863977, -0.10269572856663263, -0.06616545058033109, -0.35635577803091095, 0.3163698625723762, 0.20970183427192432, 0.15030667966963498, -0.3766474956529017, -0.13753010740263222, -0.0007167443937256416, 0.3965161684084376, -0.019581238602423705, -0.0832677250050187, 0.2297485162449185, 0.007107174349963363, -0.27195048250531006, -0.28683589987005337, 0.3112832093897852, 0.48199902030447184, -0.011852755137523876, 0.04136858678752483, -0.05241659146257605, -0.7046236754760793, 0.06496077320111586, -0.9294870157994055, 0.5594342316995427, 0.24440221843724272, -0.4594155540939577, 0.10475737023175084, 0.22654413808180415, -0.4329526900120668], [0.009355718061107982, 0.29328485201046506, -0.2964346240711028, -0.2577856056957666, 0.5256376089281262, 0.574596516387034, 0.9305961547348195, 0.09810455486969107, -0.5614224615202866, 0.6213174036683072, -0.2563171979281633, -0.6385737534342043, -0.17703552028888062, 0.5139632861747435, -0.3380903242078372, -0.35520554617299605, -0.11196705555387128, -0.3976034322248837, -0.37395308526039023, -0.42783228413974195, -0.14857049523649152, -0.37916011170548103, -0.5033212290280858, -0.616295040434294, -0.061664087589384506, -0.3622091692346973, 0.2839217120027515, -0.07894515741200275, 0.32055514297561816, 0.22493285640180652, 0.19190332051870768, 0.035846741879500904, -0.17264087950778717, -0.2856842145935453, 0.0007804820732114603, 0.41810217564499264, -0.3329719145372514, -0.10355414183002723, 0.00011782976502141595, -0.397601162088802, -0.08962770765123104, 0.23520103015170493, 0.03716230206370039, -0.1920931746029219, -0.4491036577270803, -0.06286855023783473, -0.582306290558602, 0.13831908176643462, 0.2577425654888024, 0.05423338570641773, -0.02802689215169353, 0.28744453673304254, -0.312546574897581, -0.04102851311260732, 0.45179486860759643, -0.3207533141631986, 0.22467033916768814, 0.043312501731900925, 0.06444808983078311, -0.8063604054723339, -0.23762399194349418, -0.15043831819936848, -0.25822570072091106, 0.020895520207764286, 0.04455142761445144, 0.5161762306517356, -0.015327439578982808, 0.3928749479433427, 0.06854041877696193, -0.03724944169844593, -0.29729263927659516, -0.1952509373657144, -0.4955307607405641, -0.0370683831557975, -0.2940305797079879, -0.2875906379463695, -0.10567794719040452, 0.2960537212289438, 0.480484823213688, 0.3724016036691943, -0.7868258820431401, 0.3039874960882277, -0.03186463132300895, 0.24970722024391023, 0.924392768455363, -0.24200292048678584, 0.15718615890918336, 0.29045641456221805, -0.34319459989390083, -0.47910745694895013, 0.09245153377748651, -0.18002591248256997, 0.12034756272083838, 0.46771480268235893, 0.12594222192695548, -0.1728267348814487, -0.4185357000111201, -0.0030096818784983094, -0.09847450398257662, -0.3521496714680006, -0.21751987278021348, -0.1871970284028302, -0.6750536130717321], [0.49112964254535335, -0.09601729925724374, -0.14353156477124546, -0.16018637090849064, 0.30846856277246615, -0.3694777427445944, -0.27161247961207835, -0.5715717197501543, 0.26193205003544845, 0.1960738453790627, -0.38868673934311354, -0.11091098686602072, -0.22258983127839282, 0.003046152194631176, 0.03562386440076228, 0.25650282045176526, 0.3120496146809767, 0.37433657858837144, -0.15348118193366633, -0.03281635430411878, 0.1527861021049203, -0.29198659091729645, 0.9466376304320403, -0.3124367972914078, 0.0019711508195943005, -0.524545531990966, 0.03312179101606883, 0.7752088188137185, 0.06944248529280161, 0.41345880328561274, -0.3630020571169904, 0.734430751503454, -0.28441182516138996, 0.09332860061334364, -0.1987697443186553, -0.07087865384457626, 0.2602366233062576, 0.22378038254194144, 0.22096072781443943, 0.289826000239209, -0.004883460564913267, 0.08598535458950879, 0.015546824987694984, 0.5378818528050812, -0.16274187136359503, -0.08638511397689934, -0.02781709296552501, -0.1850001666075259, 0.14963776321784444, 0.07958909690307235, -0.3309093205115037, -0.08945127477715603, -0.193044971944529, -0.18443203130598335, 0.05303744309970223, 0.03481491438215328, -0.24855586561615084, -0.4763933158114254, 0.2513339751374083, -0.16982917401367637, -0.012685111609274748, -0.08159677052775591, -0.0403558542615803, -0.3920705794604002, 0.3227369756864478, 0.2743993283898988, 0.8230080194775032, 0.1486486918938482, 0.12374082760460706, 0.03818928792498006, -0.1506551872007984, 0.49292897069822855, 0.30631045002282853, -0.5823602311670332, 0.024218577008815533, 0.11117077600656859, 0.16980945356435062, 0.6562169001582031, 0.4190001200348482, -0.13742046853348847, 0.22257640812456092, -0.7086580170380214, 0.29520221063793295, 0.08509847228327588, 0.45519026913926663, -0.17387451310906613, 0.26023559252577666, -0.347463086790201, -0.05268007884119837, 0.5906547541349093, 0.2875585036949005, -0.35011144739183464, -0.33359833887665347, 0.26339417237931934, 0.26292470549677077, 0.3075883920722659, 0.0008651009449816516, -0.010569884433729637, 0.11689391614059641, 0.08152572499649828, 0.30348768499639794, -0.12122679265684978, -0.46023367066361764], [-0.026377365794389405, 0.1409138193109587, 0.05370634131949093, 0.16530365833610625, -0.1522502263647061, -0.33833364922871445, -0.029351498456234727, -0.031026243138527698, 0.105172534839908, 1.0377525618481511, -0.19299279324493426, 0.17734538313108822, 0.31997316931365377, 0.7690264383644342, -0.061387955617832654, 0.5062041608751178, 0.3792367646455454, -0.695515648741407, -0.011006833708397005, 0.04235442685060977, -0.2789276665037617, -0.09935572646715797, 0.09476793612837896, 0.20448711891288165, -0.07286717251054019, -0.1672430705165107, -0.32468071387057706, -0.08220173929465895, 0.11875209332270893, -0.12469156176392496, 0.3371314479585718, 0.005833115110388364, -0.633202167853582, -0.11196548033874763, -0.7185695768723284, 0.25219300092444535, 0.0735921446548882, 0.05302311996088148, -0.21673236621914976, 0.2087649099968873, 0.2706308814290068, 0.042427416159674936, -0.04135616384038572, -0.14194559939159504, 0.09926545243390612, 0.05785683660724854, 0.41444839615955475, 0.23845173434456973, 0.17303713906707807, 0.0340935980261086, 0.3837385531887657, 0.23864796530389792, 0.5618599134299141, 0.4054190880060706, -0.028385820992616297, 0.6858209828617507, 0.48826959306475226, 0.0457589502467315, -0.20902460000283998, 0.49204637170979065, -0.5917675699579431, 0.5078365873008728, 0.08212966416962163, 0.286891793037492, -0.28723573274716846, -0.06358223617080151, -0.36687495073831666, -0.15047560472264535, -0.19392500816900646, 0.23986215178143255, 0.18450863253706803, 0.3902067585938992, 0.09107506655559838, 0.454572266241827, 0.10936826626133617, -0.09360921248869512, 0.18592126373326953, 0.5762689285403888, -0.042758968755094905, 0.05923464447634816, 0.03382702414287816, -0.036106164667387974, 0.30808578961877475, -0.0039367861917069796, 0.541602825816394, 0.867133895645216, -0.48400844078191196, -0.12441010742533845, 0.7843903849024763, 0.23815718297720304, 0.17914499266870001, 0.40622610562476363, -0.2444312236351619, 0.16434567853622786, -0.4443584708519424, -0.3199389179286126, 0.08702286224248316, 0.1585603588860544, 0.24279461023645854, 0.38525414372374484, 0.2532076200500768, -0.03637658504457385, 0.2937347019837275], [0.09423063309520312, 0.14375958450749263, -0.4106544384344988, 0.0594039348421063, -0.4056825241910531, -0.3338258379818132, -0.1255240481429823, 0.09852652245031111, -0.28949954338364536, 0.004395631423858389, -0.0464505849901168, -0.03696437734626353, 0.5734043217118494, 0.4492051495531678, 0.36003234192664185, 0.16405003719778452, 0.5329177612143121, 0.03052952433806846, -0.06286924842046031, -0.3498298189391331, 0.18969165188879453, 0.22998340069978634, 0.47657697982157, 0.5731586623202246, 0.2363853008308812, 0.370539063733736, -0.008826798563301779, -0.17389669360995702, 0.4659259602761237, -0.09277297840655033, 0.24405864286528411, -0.21362395113886426, 0.36979100600000114, 0.4967229968734557, -0.8777123479463953, -0.017662322971022475, 0.1234132209920759, -0.2214349262106969, -0.16044443313030934, 0.24542030777746232, 0.04320265691615323, 0.30775149827481846, 0.38542751697845895, 0.15646786483242836, 0.2457437446120756, -0.15308074028050844, 0.2851125388805655, 0.1792616757334338, -0.00830861865616371, -0.13640976611770114, -0.20291931460474724, -0.5708225118404183, 0.5895953234803762, -0.049317448962258245, 0.3164379559934548, -0.3025475387673521, -0.669640013165227, 0.1322398292642072, 0.036370954255282924, -0.2542266065595582, 0.16873769593508012, 0.5562533214798681, 0.13352435020032888, -0.2804736686744349, 0.319776635704168, 0.12733234635658477, -0.4298146242297656, 0.7731630696529198, -0.49030910517359155, -0.1136185452571876, -0.64222464804026, 0.010075740483772416, -0.22095152042613833, 0.20717152010048615, -0.028364723076066786, 0.04516707597980944, 0.2938461121027668, -0.2757123788299644, -0.4084099597590956, -0.12897431081736355, -0.05361545830354337, -0.07913677469493846, -0.06743079145764241, -0.2479505127346124, 0.0456149821290171, -0.22698232581986172, 0.33314425619224985, -0.22029500524112627, -0.2355421029979183, 0.43199100410192753, 0.03849136698357217, 0.287427607759876, 0.4816938818440225, 0.49074272668201874, 0.5936461495162938, -0.35014798350285353, -0.32293523422631065, -0.070076494620671, -0.6292186452916552, -0.053259803966261794, 0.29075454231883996, 0.173096551492235, 0.30630053392704315], [0.07863772016940852, 0.20401808644187278, -0.32985502443334513, 0.024192098034503836, -0.005078606317560046, -0.11312831222052659, 0.030962919818029375, -0.038409200234696884, 0.05289561238584483, -0.024436353737876948, -0.03945708403408147, -0.2579391677250173, -0.0002408785416268115, 0.0007530759403309606, -0.26941889571541017, -0.5760443278651337, 0.34786594452278496, 0.015641919451336056, -0.3354261187545101, 0.13716777792726764, 0.09065366149743857, 0.12507556289907745, -0.27223734682498846, 0.17478081505177395, 0.6004543133437086, 0.29273975539218056, -0.3436139314466299, 0.1344630842262457, 0.24082769328164066, 0.18306308256750192, -0.10957178968198156, -0.19641245531302248, -0.4813250397482084, -0.491853184147073, -0.29834824762456397, -0.2759270982648724, -0.22155905427690809, 0.11191497225053576, 0.1667262477695542, 0.5054450950001212, -0.008903499392928687, -0.1580224609013885, 0.5508338639327225, -0.318623976075184, 0.2736152543519268, 0.035312770139035846, -0.12163191711770284, -0.44053548065016845, 0.059140071275932064, 0.3180861118999276, 0.03680395816118789, -0.03622391572589489, 0.9428415233641888, -0.35281064208576957, 0.04105867049961798, -0.3690221084083353, 0.09809942615537406, -0.005791941248698494, 0.7869269675529604, 0.025392045975305307, 0.1957376179645422, -0.3376979431366744, 0.12987483565867655, 0.2199772780248616, -0.2434186554049351, 0.1426893290172502, 0.28855955672332945, 0.48592139728444034, 0.5998187443955897, -0.1150818446477789, -0.83936622116745, -0.04796585506473987, -0.024215608568021206, -0.09542954000236553, -0.45569612286649397, 0.23381524660681172, 0.4794356403636332, -0.3098363136102381, 0.18749134696250191, -0.5022207889399055, 0.9309713090850826, 0.4003664227420329, 