{"class_name": "SequentialNetwork", "layers": [{"class_name": "SequentialNetwork", "layers": [{"class_name": "LinearLayer", "lay_in": 103, "lay_out": 100, "weights": [[0.39147479630992227, 0.3626378652685302, 0.021098173638635424, 0.042036471298189944, -0.03370642507498854, 0.06510537686437017, 0.006995940999118037, 0.2048182628940301, 0.7657881519458566, 0.3452503385931932, 0.030307541935116845, -0.2910324699861721, 0.17460075657017696, 0.522200360509041, -0.33994134939992404, -0.11749697416569461, -0.012117393270739702, -0.03142031508490029, -0.11700552094288681, -0.1934011597769618, -0.6394850494498461, 0.6555253366334246, 0.08869368025533451, 0.1723068587284936, 0.3479638147646241, 0.01635215469008563, -0.20936920552455912, 0.11563695755095232, 0.3464184363132038, 0.3982064350723076, -0.3235108661944, -0.11401788886667698, -0.9465848682035362, -0.24933198447649846, -0.6953222717994869, -0.15012179692254624, 0.5401953283220257, 0.1774539249330404, 0.4809989170852804, 0.015312708304622157, -0.12633403382154346, 0.3942252889024838, -0.19663836549534178, 0.3679214356456005, 0.17919374111366773, 0.07065217531096564, 0.00934986097975612, -0.32535373604624024, -0.38680945806888334, 0.14293155489681753, 0.4842012540587946, 0.3175357822442334, -0.36822445967161793, 0.2283863485581304, 0.0791806761502332, 0.5201426611889552, 0.029322860310655098, 0.2935659275003233, -0.06859749495858328, 0.1739307374462896, -0.22979427758537938, -0.31965824707233453, -0.22106695020778805, 0.10826567677966058, -0.3787458148260067, 0.38090495296568994, 0.44269647123273875, -0.05608108139441996, 0.18673309762116327, 0.45736623053627895, 0.028027860038913964, 0.25597802422112725, 0.20004288429793887, -0.14142543431669433, 0.11463288527771162, 0.04073525549797717, -0.21063497979559997, 0.07770247645305751, 0.16217775222259415, -0.07516253219721719, -0.12551722446112523, -0.22357105047086567, 0.4905578417727749, 0.07584332295863448, 0.23057549794856522, -0.2505009588634046, -0.005749299199516194, -0.20956315865294203, 0.28295774286093345, -0.051588110484842215, -0.43143986758649194, -0.10799093095921185, -0.16317465266192538, 0.27752868910614115, 0.05889317049387825, 0.012784644193170778, 0.7829640096868038, -0.4858182615961191, 0.3505034561367302, 0.14876120788169453, -0.17978062521208696, 0.16540214144917184, 0.3924769072301479], [-1.4315531439628875, -0.25736745548505546, -0.4992274802925339, 0.025565033054354314, -0.2531127354593349, 0.2521644445578264, 0.03130291919815608, -0.3799489391146811, 0.6877422248700331, -0.048478685378940296, -0.16969699982348146, 0.11034763477833891, 0.025186046005854418, -0.5756968898848001, -0.4199095259807952, -0.11766740974709033, -0.2001516076581746, 0.4065126410647334, 0.2508584698032065, 0.30416539050396235, -0.20779624163922958, 0.11520635001307575, 0.5028474894517034, -0.4966369740139652, 0.023291242584784443, -0.36597151874225264, 0.0328398576895225, 0.26658655417905264, -0.23803080901121026, -0.1944247535382138, -0.7677309902853159, 0.054187255539595774, -0.04999751091942095, -0.1452629002346687, -0.2060199276079641, 0.13205829852882287, -0.003689879802064076, -0.4533723715057319, 0.15189394139552115, -0.22199387520914443, 0.11863785010499865, -0.0829210840512444, -0.2456717980974815, 0.4618726441927856, 0.010395900024163823, -0.35896872158889337, -0.6193404404046207, -0.26816062174037164, -0.2123307510411445, -0.33554147906032755, 0.031434829440808956, -0.23812215530332348, -1.3822070034161298, 0.15306641703239826, 0.40306872715322384, 0.18330742867803526, -0.004430489455405014, -0.27658964046836615, -0.12079956681011637, -0.4239858633683397, 0.2221957375128743, -0.034422202982939555, 0.5066312321842907, -0.41229054667288206, 0.4543449773963458, -0.01703999689414999, 0.14425667737505887, 0.07098300682843905, -0.17307301005000894, 0.10251053323157316, 0.2676851517683588, 0.5610893563529807, -0.03064567112773283, -0.9643097506549582, 0.08328853029842856, -0.3914754158443278, 0.0935713287289796, -0.21102241739767047, -0.5269703342878634, -0.4345393244285203, -0.17997112842750912, 0.17115557277999055, 0.36501824623717977, -0.05505759457028952, -0.5087966505288797, 0.3404688190943734, -0.07732407492860133, -0.23509798163645812, 0.31955557333661905, -0.36752078501702323, -0.16122693777821193, 0.07574723254034892, 0.04718619599675357, 0.48495097926108227, -0.41094731816754554, 0.03588923299670341, 0.1694181129456374, -0.28749908803391283, -0.5246958794620449, -0.07128825710964456, 0.0044246433915407085, -0.286163553490067, -0.34984302385717186], [0.7324713840345927, -0.9592164533024249, -0.10313773534414758, -0.1659578273923133, -0.2360486049067829, -0.35004454963373427, -0.264393539268805, 0.04508911045407492, -0.10726452734989596, 0.7935503002793456, 0.6924963847658497, -0.19458024307691033, 0.2150925518690727, 0.17106039400583425, -0.2476493615437395, 0.20366659016258182, -0.07163965554028141, 0.48650833159222656, -0.7125668991782692, 0.5999564742377077, -0.018039681331147573, 0.08509972870989278, -0.06577681568235531, -0.06595781818411316, -0.5360822943223581, -0.30020085400155117, -0.16568986879778871, -0.6962641562124937, -0.1608146286370727, -0.29554795506524245, 0.054904708073573213, -0.25707633116983747, 0.12426243769420163, 0.2916325710160795, -0.32180769702325196, 0.22141436061043587, 0.09312015497208001, -0.03772097292499301, -0.31131980228545886, -0.20737214671982368, 0.09509540775603142, -0.08165176404316833, 0.13850841218067977, -0.008251438869604288, 0.25032104877656386, 0.3911023917310472, 0.11752864445656905, 0.12000998627186231, 0.04947255710864029, 0.1708740635518773, -0.033510529232700634, -0.10928170148399044, -0.020893210024303586, -0.18996833249766895, 0.12679188592466395, -0.25417475969340186, -0.42857785567982143, -0.14225703137804463, -0.2665417254632091, -0.0939528174992432, 0.44991495867247067, 0.5284130105505667, 0.1262530351152883, -0.055104403376675395, 0.5304873339987128, 0.05337528778512847, 0.3634992551858063, -0.2414766269980239, 0.2938506583826259, -0.03492580829721086, 0.5684327327325621, 0.12371473964145947, -0.0005209779157445485, -0.4170696506411605, -0.3796053172246114, 0.37286011527511653, -0.2796734803989898, -0.18171117682179602, -0.7248622806666568, 0.11973494852373778, -0.38692085192586556, -0.22957925170822965, -0.21509417983655998, 0.46693468386606496, -0.09401652412499224, 0.22420257809493865, 0.30906296076886997, -0.45516890739068167, -0.0594596834688875, -0.5955832290817279, -0.5235316841922143, 0.19887815632344463, -0.4690815049252852, 0.005562856856491894, -0.6816884865207448, 0.16788055723512058, -0.4193306077741971, 0.4422510868480059, 0.04560411868318514, 0.2604282900615935, -0.2130436189649107, 0.06826817884551703, -0.1050696210785845], [0.08881446099437529, -0.5114265381023226, -0.13493197965060758, 0.33264017984423594, 0.44101037678982713, -0.17408206033831652, -0.3832539210477297, 0.5232737740048071, -0.48674423463518435, 0.31653991743398546, 0.25111703499572174, -0.34564120155936057, -0.3585472367682932, 0.10245711479003045, 0.5825567355623512, 0.43575710335301593, 0.35917155425627717, -0.6463126947659916, -0.25271842836945296, -0.5664394934136494, -0.5041910069757357, -0.42593512087607266, 0.19022484774473583, -0.04921155772507396, 0.5774411514333659, -0.31509695798510806, -0.20169849069321377, -0.7167805007929955, 0.1096495012838356, -0.20923955749971151, -0.06983515923487443, 0.03038030832843426, -0.18392126751673832, -0.4679865091977417, 0.29135655640297264, -0.16598914311165247, -0.007771574193284203, -0.28852106666579735, -0.5836907253837443, -0.1635548922500452, -0.31468365204580495, -0.5012996733963654, -0.5054880776154201, -0.3887395685571816, -0.004186028483980462, -0.23022078965836504, -0.04375065243704227, -0.17235239608877106, 0.14955194324611043, -0.47883433108799495, -0.021173127518325414, -0.21295393533728574, 0.04850066032592092, -0.08811124872237394, 0.4429391500435727, -0.028614625606085593, 0.3242462484405122, 0.14559252761280253, -0.08728606065544364, -0.15952807971694088, -0.36347466867890454, -0.395565793576249, 0.28160443372054883, 0.1589118508461241, -0.2891634426002294, -0.5540146237874153, 0.04303655399300356, -0.636148115449482, 0.03755765687995775, -0.2603071260742845, 0.570093600413294, 0.7055368192894343, 0.615165441443818, -0.1245066104305614, 0.06536572168959745, -0.25437395942254015, 0.1991790832207885, 0.05270069766262478, 0.5179547997596725, 0.3098193204313382, -0.3948005331662758, 0.13068060043636698, -0.4306266684584508, -0.03311172828103364, -0.08684133086844331, -0.4304801645461872, 0.003513848851122301, 0.26098650960374864, 0.2438070207779381, 0.27612277774398897, 0.5446499961313024, -0.03645974164670457, -1.0111985802709602, 0.49530854190361084, 0.26167699312380893, -0.28763792973574426, -0.4234803898166192, 0.27004245686836487, -0.15144160975928136, 0.5454300379358125, -0.29029870418197634, -0.2654687047733516, -0.5462690616233138], [-0.2578405331543278, 0.25020531098156107, 0.22343533875938815, -0.386134637323618, -0.21894899031194046, 0.4068039357100575, -0.03076288363018733, 0.12873335684401163, 0.08781829596899926, -0.1857019455566885, 0.007935530481912477, -0.172970995510356, 0.2686946595779432, 0.05822374920092693, 0.1793747283997915, 0.05154892803120033, 0.1612075830087572, -0.05521640764582828, 0.24616323938102802, -0.4791257606406437, -0.036314111837508004, -0.032514911194789886, 0.5593071278988094, 0.05069579912514409, 0.0914368622843908, 0.19632517215017786, 0.12040897026696085, -0.25822380384464405, -0.1115572994474881, 0.07704879362964674, -0.03249474153548649, 0.3140510145288615, -0.22834405554833045, -0.5289023211542127, -0.7907579981226985, -0.24464546352493496, 0.3568482240831917, -0.190779609083295, -0.3895810726573932, -0.020728910993739972, 0.2966983266893715, -0.09855755049490439, 0.3622678425040323, 0.0005424608521480373, 0.554627025595154, 0.1045518560534447, -0.18590096965511232, -0.21928160734120603, -0.48427614394857366, 0.044066548855506815, 0.11007842778467812, 0.19354046458801463, 0.37530945854940667, 0.5062620294799469, 0.3306521341679536, -0.6150856146730801, 0.24005500921704745, -0.3320609955911028, 0.06956356756230808, 0.45673796559311636, 0.306299224958009, -0.04782627205288603, -0.36021947936976917, -0.11743321628035906, -0.20271212739551386, -0.4922911384031547, 0.435182858295533, 0.13934033106556, -0.21491927935416816, -0.3178402901367128, -0.04915202065618585, 0.14453651432287928, 0.41939159759077543, 0.10106686706877076, 0.29941335601570773, 0.315353124910126, 0.118183931742364, 0.29523376191133277, -0.17400647926330928, 0.13985959853793437, -0.09943269390145015, 0.00808253832327032, -0.0316989065780552, 0.10318263930849118, -0.03389570156903102, 0.06358310760591909, 0.31178294821203867, 0.1930967401666438, 0.2513007681421242, -0.1085358963602835, 0.08674503100358402, 0.4244055676214257, 0.2429547767792609, -0.14036382462279065, 0.8284004445595395, 0.3721905475597521, 0.08547554399090072, -0.376689002691988, 0.14064944607443938, -0.37684509212963896, -0.08934756239536079, 0.03432857493008963, 0.5614760252813096], [0.7599377195089395, 0.08575881386685358, 0.15259185204650963, -0.025868820031193954, 0.19262157564602134, 0.05284524317912531, -0.410890671173571, 0.38276777944156115, -0.0779944878938525, 0.03662576667489855, 0.14040321899674302, 0.31355079656374474, -0.2820161785669944, 0.11759070626466696, -0.47913516712424103, 0.2604725783618633, 0.7396446758869418, 0.18609448779361315, 0.27102212843753304, -0.2251232297943627, 0.12379262134644566, -0.04298817007664239, 0.04468780912887674, -0.22979902705169516, 0.13887840521732037, -0.09473380775033544, 0.3866595762814172, 0.5082375067422947, -0.36952840815248744, -0.03077935921539876, -0.3477938961357014, 0.28765656991069727, 0.1581913335345759, -0.29524310023941414, -0.04599990006118435, -0.15782671282906646, 0.02583524778675031, 0.027983209384660684, -0.2952654387374561, 0.7646536234412982, 0.1863768993254127, 0.06814617767996828, 0.07514637556573517, -0.18676181271409142, -0.5354267323475828, -0.05039041849422712, 0.38758143020119434, -0.07783773943952908, -0.15438864817530337, 0.203777804226269, 0.9889997751243345, -0.10297778754700561, 0.6520366908138303, 0.031021898475446848, 0.21083394732435423, 0.5406184150680524, -0.03130366906847159, 0.1477561385718207, -0.14123832388686455, -0.2717273467490545, 0.19158434904425745, 0.06878855997126307, -0.25481370778801965, -0.3319164364837091, 0.14830152990050718, -0.18438633351696973, -0.5368223368244626, 0.49893404591266927, 0.18695109432799636, -0.0712272770845171, -0.19562089256058776, -0.3048496024108253, -0.5716297277543352, 0.19841583744832778, -0.5556607717499872, -0.22464964825635758, -0.024345044952481555, 0.5511126669825447, 0.02119962595321139, -0.2762272384946299, -0.08649074173603967, 0.0678630651527554, -0.015883964545001295, -0.6302744544551023, -0.029066521292093767, -0.10269082330036469, -0.0002286510953005356, -0.2711250846645985, 0.25339422468386164, 0.7832746784770022, -0.5924057244585677, -0.4836353055795151, -0.3384173182059355, -0.19039354049587595, 0.13214852830364068, 0.16245816919982092, 0.1612232956812266, -0.24549831354432927, 0.29551168580891535, 0.2390991244057514, 0.05445145292790595, -0.0731210257532823, -0.35900464889287453], [-0.45114893703709197, -0.3926088466347184, 0.052095614614239484, -0.179026944544407, -0.5667020068163986, -0.2543738262066216, 0.2883576567572939, -0.019804717970131235, -0.6823434180551656, -0.8491036284310505, 0.29527832409159166, -0.21722381153355255, 0.31805595151643046, -0.07737623388401024, 0.4482860495487697, 0.3475687465115842, -0.48319477890557755, -0.6907886904989258, -0.01747459564871722, -0.5667454141761893, 0.3477904108512833, 0.01954633504024995, 0.022444562896045527, -0.09281076307770454, -0.27983894656095093, -0.7241165172298087, -0.2564910361964856, 0.1731448866481131, 0.025456807514771577, 0.161938628197526, -0.295731751833991, -0.18094739453801165, -0.28756782125552727, -0.11414734862086573, 0.06712842238440232, -0.08554283686505854, -0.9546471515741699, 0.33449878773592323, 0.46820782425740787, 0.24395580080093357, 0.010576598224761057, 0.15230864018447737, -0.17085370502182148, 0.06931960261559827, -0.441694399495512, 0.32119922193751366, -0.18041149169436663, 0.18048553764074526, 0.11000121583982841, -0.6614052245535145, 0.03918877853702193, -0.2800707059951006, -1.3450131877409075, 0.010351724690188401, -0.18278443692267024, -0.28838537695200717, 0.07915683107933831, 0.2524491466037736, 0.03670090494030201, 0.3490139541327618, 0.04475546730972593, -0.2590798178399675, 0.15433996818057483, -0.3181821767484608, 0.26477130692545764, -0.8003120255018685, -0.04833985217829658, -0.12741075134296526, 0.04346186269584662, 0.0004917972697216338, 0.3237194106214248, -0.08216218633887708, -0.21875763775562018, -0.8516465657678015, -0.24875799648719343, -0.07097679634702421, 0.26051022072685204, -0.48266471510310877, 0.9436512701223061, -0.06802970121158058, -0.26618714618769723, -0.2360330135825856, 0.006547075877165923, 0.004625088360253879, -0.24147130992769197, 0.057364578954533445, -0.6844114352593808, 0.279091017029192, -0.2160184677079589, 0.24039862307119375, 0.15597849110833298, 0.4920475601029013, -0.757932743513279, -0.1296168155143583, -0.3124051534214612, -0.03665667742701306, 0.6070096798313208, -0.20666772317673338, 0.6202121070865585, -0.12694441895338912, -0.22699234948058353, 0.3350952648784999, -0.1639554033538143], [0.9639594286389043, -0.6852769983039962, 0.15837653438382157, 0.5910866042021594, -0.32953050717913795, 0.18297263570739117, 0.5048319573982791, 0.6562943010833563, -0.019788998357480724, 0.15890302498376072, 0.45890684015812555, -0.16557807761859666, -0.07437699712627456, -0.33539683555474964, -0.20152978116421735, -0.37522727651451104, 0.19473903898273276, -0.10484594785309663, -0.20634385977388386, -0.48326223665413576, 0.40107328963186134, 0.1565506710832978, 0.30307271432991045, -0.02805119764544779, -0.009253500143523597, 0.10735504575619688, -0.23176632220791785, -0.09658635300734662, -0.320109061240526, 0.13463903511872252, 0.10063092796596587, -0.12696995191281138, 0.22305331075477328, -0.0643066945194019, -0.11417007159668205, 0.16343262313169774, -0.10041390668425913, -0.0674007170687501, 0.36766909394212005, 0.2472086848462099, 0.1350066163575765, 0.3420783638651574, 0.5031238940166484, 0.16427834957013712, 0.20245631300676706, -0.10093759329047634, 0.3870443868372073, 0.35430369798006006, 0.46196127191848335, 0.4089009398105437, 0.5995056412756995, -0.2452352032887199, 0.7195461066552926, -0.3328573984744748, -0.07772383188587562, 0.13563322116478863, -0.29931534611195176, 0.21775610826435277, 0.14807390994134154, 0.06293239752158426, 0.05605597337679654, -0.0975824020182347, -0.5638137232419198, 0.1292696669562602, 0.2525898279298397, 0.3855999564600253, 0.10452666703367051, 0.034239135048148635, -0.08570842964247592, 0.08098936217800702, -0.11145128100464571, 0.2538430737792426, -0.228177061715295, 0.19810015870028624, 0.0036974898494568486, 0.5879852340487303, 0.03564223544450526, -0.24972424667269122, -0.37358380734085517, 0.34578393704264854, -0.19324088661965924, 0.5349893287470028, -0.4977199238832755, -0.3919385640489559, -0.07106970925801188, 0.04840859305291825, -0.038040165791525714, 0.2534778369582855, 0.07663939914901606, -0.17254845978414574, 0.1770137153605769, -0.20457739779456194, -0.41800431771537666, 0.4507505608415194, 0.10075595455297437, -0.04706200822101407, 0.19080095222720322, -0.2353976702481158, -0.14635395172999527, -0.7000863336224141, 0.5008797121951245, 0.19050586806102077, -0.3034046433880543], [-1.2040187385157985, 0.23769150694580218, 0.2252606496659877, -0.7846765616632195, -0.004952989570617066, 0.16395309221854468, -0.15450432423116142, -0.6228549964531572, 0.10731669224219834, -0.5164264236319239, 0.08913721964598861, -0.14540273146590346, 0.0948340256514322, -0.10018457797588967, 0.01670575664488236, -0.2558178471000934, -0.15312920461975826, 0.1184665512043194, -0.06899203383270448, -0.6009964169387702, -0.45523740564086945, -0.0895168153431634, -0.1714774136689427, 0.04215658838160461, 0.34379032047109925, 0.49869399749880944, -0.41628945937440454, -0.12673873050077117, -0.0810631346624615, -0.10226962648276758, 0.05461414317576385, -0.11063602716499772, -0.5921120915650845, -0.3804962279492104, 0.08521337920089073, -0.0057930125887078856, -0.41520057273915195, -0.20104404659599473, -0.09090284865741087, -0.44996111565241265, 0.17925908387064957, -0.25340445560549774, -0.016743987403641768, 0.3055146687557911, -0.13392181461175737, -0.306893141600719, 0.1655968739138853, -0.05652615686862941, 0.025591960101715844, -0.13967361716129917, -0.4435595572762524, -0.21933015636619052, -0.925902278574261, -0.12735137903616012, 0.23704002471716062, 0.2957651417105336, 0.1797792890704396, -0.18043790294104806, -0.28421028638477636, 0.08962413814034573, -0.16151007990781416, 0.0495301169202565, -0.271442844510711, -0.5568159723107085, -0.14780189889511466, -0.08186839094253727, 0.6786831407635732, -0.1273391805489782, -0.1855529581542311, -0.04396149946962159, 0.06907165461128753, -0.5977327163247739, -0.42538828098345427, 0.3846133232001264, -0.04941814177045142, -0.20143485519661758, -0.9014091808628143, 0.24593213746675738, -0.019381646772424967, -0.32948686591711507, -0.49045326790027705, -0.3541685513874888, -0.05115141552616096, 0.6857484006400104, -0.33589398621196076, -0.328605543474193, -0.4080047480196945, -0.3380777052469217, 0.21276434192049676, -0.5125533760174898, -0.5323778631149142, -0.49220723674198263, -0.2039902251022252, 0.0436202449737534, -0.496891044022771, -0.7135735238079398, -0.020324068685245493, 0.5148236292197377, -0.02630392617196176, 0.42987681514246684, 0.6090894251810252, -0.40674929828635753, -0.06392076583870697], [-0.24062797796279806, 0.26725808347369256, -0.1096853967041605, -0.2143489358694802, 0.034361339141111454, 0.5638585785339191, 0.0028363899137586013, -0.2982857263666608, 0.0686041954935545, -0.047819630553257386, -0.07466910319429772, 0.14636038962706446, -0.14966234817231217, -0.9983170430595132, -0.5362557074539283, -0.2958151271687624, 0.3918959019873699, 0.03165099425468832, 0.29448546559372873, 0.1413468232196251, 0.2877216322043037, -0.1138090458036615, 0.0890123383323244, 0.19237372177172263, -0.2717843894980355, 0.45445847034259285, 0.15915704626741045, 0.05537102240750928, 0.07611050992120534, 0.19493722156650956, -0.06085426881551584, -0.2073622988738504, -0.16346216346627832, 0.12343148110229592, -0.07071989548266017, -0.0388998214050294, 0.006873752764966857, -0.11346166204376888, -0.23344792321801827, 0.20076432426927582, -0.16690505506925757, -0.21952957374028986, -0.6840404195971775, -0.11102232830402244, -0.03867187476978123, -0.11171875101859842, 0.06234425210724361, 0.07658943494563854, -0.3661005271224928, -0.23180772210982556, -0.248521738182201, -0.45945425490517866, 0.1567261681115152, -0.28326690315735314, -0.49312155542319414, 0.5361476640522304, -1.0156578276357722, 0.44214546041121205, -0.26725827090254267, -0.1408034027038639, 0.19656289797142962, -0.19164089386649405, 0.4976072824256379, -0.02940967251705844, 0.35871290758808283, 0.28784211866964365, -0.0019347639289750587, -0.4356061377827571, -0.31774674610887316, -0.16753011999620507, -0.2440751344489252, 0.1555410523113232, 0.38039355549409515, -0.34780581673873046, -0.1039454390910231, -0.5174837115148039, -0.010965627701589915, 0.36803156023416483, 0.06401980289629636, -0.08067116466808094, 0.014525710131649772, 0.0317198214296915, -0.01985698609083439, -0.45773898469925095, -0.09354806427312165, 0.046982605628466664, 0.04121575184069533, 0.07041204666994115, -0.7236614630044131, -0.884544653938602, -0.5441679742052833, -0.24134937121930353, 0.3935488512895951, 0.021532160453884196, 0.2755655284584964, 0.07888816276403147, -0.034808293228279136, -0.24946648374139505, 0.9753298233260761, -0.13553007452268792, -0.4137529904932806, 0.5119782595017994, 0.6769504120136631], [-0.23512171494245837, 0.24131903292302576, -0.18039582924637249, 0.3244414639253096, -0.06363781722808853, -0.28059715908339594, -0.46276459537260084, -0.21578023523712236, -0.4211863053023403, 0.08183789441858243, -0.31199359519629605, 0.39081644393345605, 0.49046699803162086, -0.18683225638153178, 0.5519911323514937, -0.014684993389547317, -0.06584513789782982, -0.16610945218630455, 0.013431898928791281, 0.9217984582751182, 0.03541347185318714, 0.1575903492832665, -0.0301308737418493, -0.2547783160429813, 0.1427241594217884, -0.25238552696468824, -0.1257886290811856, 0.3913472435408675, 0.2608703590923964, 0.20267221048648484, 0.04832550899976566, 0.5701460054746851, 0.09811851317379862, 0.3017991528547257, -0.029139348100107015, 0.2302573750505666, 0.15761254721426915, -0.31128424882223804, 0.37688938884433537, -0.22344309209978044, -0.015720650595082323, 0.3463487208640297, -0.13302112445426248, 0.3143099956104024, -0.040129573346797516, 0.07144776186143342, -0.39026765005329184, 0.20999198399365854, -0.5185904585833688, 0.09360747912730587, 0.34160431448532447, -0.3172540417614371, 0.04840156683114865, 0.5011543962581462, 0.24542329435889393, -0.15030564006901376, -0.2633937177401597, 0.12388296110837203, 0.6655766868793503, -0.22604513157604544, 0.23262567199396703, -0.6151760868326618, 0.16337422772343657, 0.47478428176597537, -0.3294394613498866, 0.75152110343598, -0.11572478051656121, -0.14412556811407135, 0.309137593045187, -0.40286192739973203, 0.5953826844232338, -0.4436262357587668, 0.01947568354247361, -0.13425707975619824, -0.6528208730885797, 0.4420474516131411, -0.5054240301018813, 0.28280021610721645, 0.6777160339235996, -0.08079900032842433, 0.16712190242671643, -0.36788437251405104, 0.3809263949824427, -0.21271644672291365, 0.3341153041276611, 0.03037556634951006, -0.037145828558463996, 0.4304187978517577, -0.1330088801544632, 0.3326935707351422, 0.023029783590189687, 0.06887488261952339, -0.41714456628617713, 0.43436356378725316, -0.5066562947592517, 0.5097077368742969, -0.19064538613916845, 0.08598351264169828, -0.02185159466446314, 0.2798104182473518, -0.024807561566716055, -0.31727027682477443, 0.2513956209046343], [0.04549875741465398, 0.0755150032746293, -0.14507468549744784, -0.7245196762891689, -0.3598199380146102, -0.07814774513714356, -0.3252872391701499, -0.37668715264388686, 0.11575137087565532, 0.2059007447759885, 0.5714162272636201, -0.033266758127473504, -0.5893469960740965, -0.3249081822743699, -0.5436994270447802, -0.3300232267115338, 0.1644964915558048, 0.3784660234439354, -0.22789932753219244, 0.5322197382261805, -0.13552562434820203, -0.03975471975816171, 0.013957862493265917, 0.22736648116602223, -0.43490618953394233, -0.11484916385056591, 0.1231480515222097, 0.2456313170135663, 0.47515086471447926, 0.15764829291383198, 0.353680890746159, 0.3539372156307445, -0.3994443953786679, -0.10004386133422505, -0.31675299294364195, -0.7026455361159896, -0.3402706994152011, -0.15764712705713987, 0.193025938271073, -0.11231228550744997, 0.0814313854552421, -0.042049332662960695, -0.1861186608467339, 0.02956521324184308, -0.2662421318577968, 0.032264217224021695, 0.2695345922823475, -0.6516168591216291, -0.16062189592995688, 0.22680457372465887, -0.37242945887001383, -0.013246445475874226, -0.9323953067122193, -0.14458243050757963, -0.3114653198627189, 0.6370362307163061, 0.5498396225558334, 0.3337928492685212, -0.35538313005198424, -0.013587898320798387, 0.1513198536175489, 0.21757692847386817, 0.0880345371468937, 0.15975490217587462, 0.1794978961023758, -0.4891862938038944, 0.209082705927047, 0.5886472157385374, -0.12870200240299062, 0.05131458793565508, 0.6161242601980236, -0.1635531687851203, 0.5293659527459422, 0.6773011745944842, 0.1562366071372131, 0.1892547464630884, -0.5859388715541334, 0.24983344155506462, 0.16117197737290387, -0.13102488329392856, 0.28166258514522535, 0.17784432749652276, -0.07204768697331392, -0.5308774272289585, -0.2621111901299522, 0.26440304699450673, -0.3252179097513838, -0.21060340231689756, -0.05149268991917191, 0.3182817506515652, 0.478280576983721, 0.35470463559578763, 0.09807455880991395, -0.2277186808393987, -0.42444712639612514, 0.21814944932898947, 0.1285370816782446, -0.17666108001658856, -0.25364322570135855, -0.4199497357987434, -0.5037939383884574, -0.4570169472014593, -0.08995517420211685], [-0.3371659408137902, 0.3753730455210247, -0.14386488685240026, 0.6505739585792203, 0.0928925528965156, -0.1785310024179086, 0.0962439493038804, 0.1599745781266904, 0.6316140271973046, -0.3737110642333374, -0.01545340090140346, 0.3496970448898778, -0.3481972820096198, 0.21396221317160022, -0.45091055610489866, -0.12352718542631615, 0.9501217792549154, 0.5691473317129224, 0.11008755935808787, 0.19297504568221902, -0.2914640407862441, 0.3082171835689403, 0.18814872299277866, -0.3844732772202774, -0.07902238021820243, -0.19436367248686662, -0.06680901964831751, 0.44261405282484334, 0.14389018379211257, -0.09973869290415928, -0.3472569281401931, 0.29382023035655647, 0.139600564471415, -0.002630430831538849, -0.13447634869796626, -0.15741520947657642, 0.1315906894690367, -0.2410829074629511, -0.5171479603106222, 0.1351896148619502, -0.22379996732242086, 0.22837360675675503, -0.07080627834621475, 0.0804406932961617, -0.0006932986349204295, -0.25764962960327664, 0.3739537743965205, 0.21175610525259933, -0.31687901208057434, 0.22674861651139575, 0.23613940527911495, -0.08323151626468529, -0.4628125838157391, 0.23247242575267082, 0.6728798613545641, 0.18017617582411818, 0.4578687755367013, 0.3235511707792816, 0.03490867038811903, 0.0766176774323777, 0.3507675997928622, 0.32232185078815273, 0.03416200648187706, 0.30294674861515875, -0.07907427952108273, 0.262120493316064, 0.10051663193488831, -0.3768148478541966, -0.024635766294973653, 0.13642746092191424, -0.16323898391496627, -0.28608886038464304, -0.6101305209781673, 0.4038486586110087, 0.9624776274144271, 0.620756041831551, 0.910873569356485, 0.26595910866415684, -0.35974761381872333, -0.10888678552322659, 0.07526900867981566, 0.13419305658690403, -0.043386047126899495, -0.35732865636158484, -0.1655293250540321, 0.12039836555042946, -0.20481481074608685, -0.033091540057873715, 0.10235982369423839, -0.5525755149063851, -0.14349088246473538, 0.6521541938737359, 0.061890538754145796, -0.004996038024567497, -0.12490172778454335, 0.21560553037396413, 0.18068664016171046, -0.2994786879238087, -0.40754624762645286, -0.1829418871965702, -0.12413167801801697, 0.05455021770253796, 0.92455192972661], [-0.11403434388912236, -0.13507557117829852, -0.09818802951184584, 0.44941986727526717, -0.2772602418034258, 0.002086814117745587, -0.2641618568632721, -0.4067659929964378, -0.09016316776612185, 0.032791921185394424, -0.29618733472888376, 0.0389778714989613, -0.4292072751441187, 0.6835125476005406, -0.14533722912680858, 0.14184875034290112, 0.3775009888859828, 0.3010504417525002, 0.03632446558875817, -0.23187792439587365, -0.4196861301699405, 0.08934274306021592, -0.7713083040380055, -1.1191126033384549, -0.9059372865516054, -0.3491741030600198, -0.3656779722707749, 0.3742029843292041, 0.09451371745843244, 0.019948262029138384, -0.45780700029999416, -0.49527798101238346, -0.1889726001841156, -0.07421471254528998, -0.2106834578382178, 0.29538165609189215, -0.02441094452198712, 0.06395765033405501, -0.10817533356481644, -0.3079720231595998, -0.5429192075468832, 0.18072785016780102, -0.26866074301514675, 0.1818005020490665, 0.004209393431490743, -0.21151225052910133, 0.06876685320451033, -0.3462672244532076, 0.17038592355117543, 0.13457878666678944, 0.22316859117724439, 0.04433137701033024, -0.07522103266069484, -0.5365297128418591, -0.6214778896051125, 0.4358974600320857, 0.017715372289171055, -0.07740392817218426, 0.10514390002007902, -0.18617425909108914, -0.25473559702186077, 0.39718987559004487, 0.11091281182206622, 0.19765818518630796, -0.6743049928075151, -0.03926912897153984, -0.24863499415620927, -0.2520896781060917, -0.34880764463249814, -0.20963842135400856, 0.03783199259265069, 0.13201759480487257, -0.012759481466026377, 0.2736072229526723, 0.7565246300978159, 0.47920380113179745, 0.10905851321549626, 0.33531560945078254, -0.6312026521417239, 0.04423736123335006, 0.31033765488068166, 0.12488256773378925, 0.14143371573299846, -0.12281293263482164, -0.012713059347473007, -0.0074493291399931145, 0.39109576512735394, -0.192370131430845, 0.6043818191531191, 0.07851908749883124, 0.9027124275247033, 0.2546433358893539, 0.4201185861947147, 0.9148980602060582, -0.42248211809169917, -0.34173140248012773, 0.04517620068830509, -0.44470824700966344, -0.3275119359022445, -0.5588765679251176, -0.07923901883182849, -0.014917867034170171, 0.1842900079988784], [-0.41198633395193895, -0.11795834315290905, -0.06378171464084456, 0.07188360687952633, -0.19821321002857353, -0.09242722250328855, 0.19355808476308606, 0.30026932027926645, -0.4964758422514837, 0.36637896929647495, 0.6363001159850629, 0.6275631045774741, -0.03474938339343175, 0.5803392082132842, 0.01854303855986089, 0.275218069629459, 0.07001340813434966, -0.07816847071690068, -0.08236259489984467, -0.4075281550176603, 0.27828526304409124, 0.25488482009904495, -0.25434272348909304, 0.17510327088042796, -0.06590115672206659, -0.1847627861781925, 0.30741891582931746, 0.2547234004554594, -0.0552100739340813, 0.032253739760589706, 0.24037656298164028, -0.20678426897544086, 0.09763350767249138, -0.0433469686789999, 0.11138954858555578, 0.2795676182988435, -0.19567590963052722, 0.004740201784738952, -0.2184516072464892, 0.2459108764910028, 0.26930616675299707, -0.19317838495320694, -0.3080852974676683, -0.22689091483471907, -0.12979667018964577, 0.25019377124655184, -0.14660334335987663, 0.6894945218615225, -0.12997284856590416, -0.054238743826671106, 0.31830170123759177, 0.26093229194828665, -0.4539452481117308, -0.10237065527573946, 0.4290551042093952, -0.4446042901146465, -0.18257227239702173, -0.12120159275278324, 0.014093615895294953, -0.3687116514489522, 0.24338672725246344, 0.8680072210013516, 0.10621685565198936, 0.11277214770453602, 0.3415391436904054, -0.18375957429399986, 0.35829839451128903, -0.7173691515432897, 0.16504202656296457, -0.19928409532263391, -0.5276961596379123, -0.6134514427443531, -0.25848131733606267, -0.2732076655411254, 0.4753600727007331, -0.29309272715516327, -0.4660040845616237, 0.17405999590688023, 0.9420680788516171, -0.2599833514893486, 0.20564815327933758, 0.10732112778349864, -0.09627106556630795, -0.1889605599083536, -0.18969617869077765, -0.25060297201613957, -0.2154480234465655, 0.008292943522110347, -0.14247494311796377, 0.33196089915907223, -0.2899691879009345, 0.6750895593375015, 0.0007001305871719094, 0.3985633571686312, -0.241327318122652, 0.40912942906018407, -0.28331831539530106, 0.36334376641676774, 0.32133139258542986, 0.18385641554630636, -0.006116639384332441, -0.033185951793532856, -0.3040885213770348], [-0.6590373019000146, -0.4876002412937065, -0.15633806914544704, -0.5100590043249112, 0.029086919944235064, 0.28685006575849625, -0.5559125551358959, 0.413704446783362, -0.0439067024804847, -0.44750453630645176, 0.015278286801587692, -0.25861039329811625, -0.38104706848652264, -0.11247473043610094, 0.2826203191416355, 0.8330626507418318, 0.43943990874633176, -0.5122404671289688, -0.5387168678914452, 0.061885281879618316, -0.5252986060909787, -0.1848551632562412, -0.42908622652214634, -0.04532927316542944, 0.20902293545120595, -0.03178711769519999, 0.22115860584991429, 0.12052153818847387, 0.2091086646283925, 0.07286277133186107, -0.31462098349209516, -0.31780246707348553, -0.029947824567467, -0.33727180467053736, -0.09400009073770425, -0.043733832065958586, 0.10634066120923612, -0.16985287669964866, 0.029118064237473987, 0.03432597867092863, -0.2622866585010194, 0.3154533405246811, -0.40100786604280797, 0.04899266561984319, -0.1110397150257247, -0.28698861243828633, 0.5901808133502814, -0.6304527677825952, -0.0320392488607951, 0.1443975809117971, 0.1456116801297359, 0.12273433942084044, -0.3274975183249353, 0.04015719826433669, 0.13388864984130933, 0.05744258220930199, 0.03301596116294979, -0.6376868231426948, -0.1584538383059368, 0.17621678029405566, -0.003481555095744092, -0.2209830315001572, -0.27813863230088276, -0.2600046282863496, 0.6201623627750327, -0.22617238082465624, 0.09485738201216867, 0.8857773702768473, -0.38669629764364805, -0.4464005862843406, 0.09559277087751993, -0.7643937368192236, -0.09410333659823214, -0.6017643756663638, 0.5847289634608477, -0.2603966744559251, -0.3064816084649732, 0.5052293232205348, 0.062128368884846547, -0.20543820714227393, 0.6176229081684306, 0.4298175790974016, -0.19177830694200002, 0.37578237438212697, 0.5989421626215957, 0.034404696525856704, 0.3075966120251686, -0.4350416598039612, -0.5365921232268783, -0.3681745110871174, -0.8408443607482408, 0.47324075573064783, -0.08394400371125535, 0.11410033484317109, -0.41444107138965813, -0.0749643419669406, 0.11529806856015326, -0.4143510483308576, 0.2952660319526857, -0.3706795730188588, -0.2260243517429576, 0.21102213386427635, 0.06579614364688585], [0.9196538502019204, -0.639848699931951, -0.4280939610540861, 0.2176063240043216, 0.06781235997272024, -0.3601480580284682, -0.34242991089132496, -0.201427080375138, 0.16166345775530924, -0.08940870466619641, -0.1721381091694866, -0.38614826455474577, 0.35051308305878165, 0.0864389709524673, -0.3464900045178477, 0.11997057798573378, 0.3078199853103856, 0.6380486427798928, 0.0038166751299550665, -0.32834419305037366, 0.3392698384805806, 0.04865316899439587, 0.266209100371075, -0.3621578527127088, -0.3254862967710091, -0.8486747439016951, 0.04983146898199821, 0.4040522088204626, -0.2137882206631209, -0.17425567372498704, -0.24197370011693875, -0.010860902370771018, -0.10811145899337594, 0.08895323894956514, 0.3236773452269127, -0.041534624224495144, 0.07603520070627981, -0.8467384398743711, -0.22740277100300635, 0.3554819032713319, 0.2576003377237751, -0.41058300763354943, -0.42296297833187996, -0.3005315853099277, 0.3392898335463763, 0.3921723679467421, -0.3029775971430721, 0.4107735058933431, 0.11971693609117671, -0.05832453525334913, -0.003039565551265308, -0.18512060407592196, 1.8179274018940708, -0.5675833472434625, 0.03402255491760752, 0.1263060550659391, -0.06367133506359707, 0.5333816458625107, 0.26924399822357514, -0.5344117445598491, -0.24889596243517567, -0.3123977835027075, -0.24661995914970314, 0.1290563367454171, -0.42384067180951973, 0.4625925402831713, -0.04125816008419551, -0.3475309011621478, -1.1660400783293836, 0.11199305715420511, 0.33217718276964875, -0.2323057176391879, 0.30485503794827196, 0.26165266988933006, 0.5230242940729529, 0.07269496302584161, 0.5385314398012462, 0.39630561077339965, 0.3667129997601794, 0.1699520522144939, -0.1361811523525484, -0.3883968694410218, -0.1544484709936684, 0.4189796251063873, -0.670026869999723, 0.24402846404248527, 0.11096908984286383, 0.17227735186468981, -0.22217912480635188, -0.1017894066992152, 0.14248409399275969, 0.0431399350833641, -0.07446037112550387, 0.6191630116000468, -0.6176876122166987, 0.2889049739764111, 0.024664888553315084, 0.19259285295515077, -0.31387474505910606, -0.5137795479861963, -0.4964513989563489, 0.23292962242399382, 0.16154488751986645], [-0.5245725213774979, -0.06604565205372594, 0.09582273771084213, -0.29657595714804136, -0.17124708248632606, 0.006924228392503235, -0.40485479587431256, -6.985573072940917e-05, -0.438396403141562, -0.14962054486884352, -0.30654523426218516, -0.4010281281002428, -0.13499676860161702, 0.17346048287007837, 0.10710150674235218, -0.40048023670079647, -0.07043081725275707, 0.07201506180381413, -0.00649837898247321, -0.7157724904260248, 0.20433165801042216, -0.0003676946354428227, 0.1880382205565267, 0.3850439516494233, 0.11332343304152259, -0.6188213068422007, -0.3547922994829675, -0.0905611704234431, -0.49874971433763804, 0.08482259441556189, -0.41687482202423315, -0.11689486282261681, -0.021917613366219436, -0.15888612180555214, -0.31202273549386617, -0.3347398553215247, -0.18281240533147217, -0.2702696445337766, -0.4625369553500413, 0.07769043740028211, 0.15017125713429735, -0.27013306778394336, 0.7526248081471564, -0.09990523916084153, 0.17215318154988182, -0.399139854737005, 0.004642315392839629, 0.40277491604129595, 0.11828815369594854, -0.0634055037780306, -0.1567522442937927, -0.1970645405009387, -0.12559763374871433, -0.12204022597857694, 0.02934838493218683, -0.037912265669745676, 0.707830470450346, 0.1905615965555244, -0.1940017096555622, -0.08875965353362554, -0.9062857031968947, -0.09444168664716311, -0.05878248237995275, -0.10639081554364874, -0.3318341942354758, -0.1099929797464396, -0.37098862666737287, 0.5510420607867869, -0.011132891492643907, 0.22199960753318312, 0.3840231954864819, 0.19329437522081452, -0.4918558069309936, -0.09323113962022524, 0.056240917809077196, 0.23190547942045356, 0.10332686024320693, 0.21481673223558106, 0.009839780509315485, -0.47454993765484804, -0.460327858192597, -0.20886485011053194, -0.4801194039851107, -0.28329514462099464, -0.017000945532116694, -0.32173618708855295, 0.17528483863757796, 0.2769949197363518, 0.04760237078659107, -0.18290713588200644, -0.10119666616130445, 0.30435121503744117, 0.3063796506630543, 0.004653673469929963, -0.6295967784166259, 0.022500768302575535, 0.13948585200058933, -0.046618295544883406, 0.1513513521127245, 0.6844173215953349, -0.5719558020370707, -0.6308928374860848, 0.31460799336371925], [0.8329804459115646, -0.8184388446020975, -0.05356214043947893, 0.14377728325464284, -0.1363009546881789, 0.9053601879045032, 0.7231907794640071, -0.07781759846694676, 0.1321004102334597, 0.2006676841603716, 0.13832831837521742, -0.05710566920493404, 0.36378603708927576, 0.2713441681401689, 0.26885904864314175, 0.0159855478566798, 0.33465421600036027, 0.6642009833803648, 0.4871102812008701, 0.6317608113363572, 0.23156360464962306, 0.7322006482343432, -0.26073220845209966, -0.20688394311485733, -0.025825765800986656, 0.33849000944557195, -0.0264343864277892, 0.773767886468844, 0.4583040633189738, 0.39649757949070225, 0.3489916639156695, 0.6721832394395348, 0.36373312722711937, 0.6389028122867483, 0.6716992919999122, 0.22043002433171927, 0.4832456307892558, 0.6034898417819681, 0.03289512229042386, 0.2723035622607658, 0.46682331040228287, 0.07867026627040428, -0.11301259132953798, 0.03339580979233402, 0.009103445258249927, 0.3143761862437052, 0.2747136418947623, 0.8661809333804374, 0.075542588577084, 0.10096428525386089, 0.45318248586255644, 0.21183828526387127, 0.6317115992389968, -0.010916760691860037, 0.003486178051638787, 0.14702691111417415, -0.31750039612325803, -0.26934397492636486, 0.2943121192530499, 0.2953801795529501, -0.23452850056386518, -0.21604419390085136, 0.6284739732771529, 0.1343737917557467, -0.05303255398816555, -0.3752989760974724, 0.36204907032931566, -0.4366199806119315, 0.39496575570600656, 0.03883171235392627, -0.3585841206967836, -0.33108006943884993, 0.020183022118031278, 0.06257374970301847, 0.3835403509069267, 0.6664947149066721, -0.06248570631181469, 0.13387195211363528, 0.18696405953362688, -0.6222918873807518, 0.15271177759344126, -0.22289171443708206, -0.6203296440222547, 0.5812778006039948, 0.021612188857619997, -0.17604363277203533, -0.13079344489004122, -0.14216221707747173, -0.021136040025487697, -0.9820047259536867, -0.03649712915104139, 0.11681589604155462, 0.1075702170315455, -0.09839888273701157, 0.6948168016759806, 0.053334643212264, 0.2815094475991959, -0.20079031874190245, 0.5271653862952755, -0.19418774853425494, 0.51537417087768, -0.1891919344361447, 0.19650535475721592], [-0.35697559864926437, -0.5677444587873636, -0.3575891098520461, 0.41248323371533563, -0.13677421199520517, -0.5349164595187722, -0.2495019773932942, -0.15925357520645608, 0.3966278579926095, -0.7582813915956531, -0.21052368984639003, -0.07228595267549388, 0.11115268415878432, -0.7053544754608972, -0.4493283341444229, 0.27059724158948906, -0.8652468278273983, -0.16919049500245487, -0.45113246734558415, -0.1179634434576008, -0.23652927927898712, -0.5108899393180648, 0.3771309231096904, 0.18353095419618928, 0.09409868497414767, -0.8723467553744761, 0.07806415210134904, -0.1112431629937791, -0.3524015867812534, 0.11804668166730527, -0.20960045423644103, -0.13327780596953517, -0.04621898435575854, 0.06996899972823588, -0.18573975985985536, -0.1095014387941854, 0.45526997980512696, -0.23742398545856172, 0.4469158611846878, -0.17839010221716559, 0.02810235356439964, 0.29243017911120156, -0.20675546785476176, -0.3147599547312875, -0.25768491350255196, -0.8467987717225176, -0.241514093302126, -0.7244599574947762, -0.3056970191900439, -0.20908812999989315, -0.27929607468525186, -0.17442017964523396, 0.16166848013383645, 0.07466284566549553, -0.15002273801033172, -0.48414491616784383, -0.04502026536414509, -0.20279973626379363, 0.07742961787802735, -0.1511811513880881, 0.09123155398567638, 0.07577175094632417, -0.5187056066918526, -0.6968382968599776, -0.08166213906770864, -0.10785417449154829, -0.6516879402443999, 0.005817986441912171, 0.024905527816638687, 0.1537757514939191, -0.5875004956788478, -0.06014363332235692, 0.1626388961599793, -0.6049837642259663, -0.5600439299514286, -0.25852710480837954, 0.7685055706645293, -0.681666033215468, -0.6683626837884098, 0.13981097828406727, -0.18706134651256703, -0.18051097183857348, 0.18826298606095257, -0.07280700769713992, -0.35326608152399847, 0.4038611361323617, -0.29081669989901054, 0.23820301044080475, -0.8955766184294789, 0.028828849582394147, -0.10759552503166266, -0.7273645523191957, -0.033075451272258555, 0.1283550371774705, -0.2354484244663356, 0.1692121124957905, -0.8020594308527652, 0.6318541575585158, 0.5296032276553547, 0.3766839866877989, -0.47491517362262775, 0.86062114269366, -0.25517628471053844], [-0.8116532343995438, 0.03898759806010802, 0.2934871140803734, 0.2431371049760521, -0.11798576383158077, -0.4436115434272649, -0.2614315276126997, -0.028358685852550764, -0.6745357088235888, -0.17380154916724339, -0.4425225248903748, -0.30616605653366685, 0.07531163868885844, 0.03002157581528377, 0.8918091180259651, -0.2813943970030258, 0.051836318262818724, -0.1446910765953035, -0.13482194637948305, 0.41173468141392683, 0.25880597659483484, -0.771662386357818, 0.22150986938954065, 0.09338532259451675, -0.6388452170624394, 0.14613130416724993, 0.18053405080523574, -0.5148517375969363, 0.3386168592857114, -0.1609851342514197, -0.2081419586473008, -0.8313856169706131, -0.17215932008631593, 0.3864027585798178, -0.16002753818968218, 0.2100704498391464, -0.15908676151878992, 0.13509650842645454, -0.39638505611539565, 0.04189719158626224, 0.30405293413040874, 0.14381963983814616, 0.2542671876241852, 0.4134057195240077, 0.0021303285756651765, -0.06044098301991163, 0.0970617296424843, 0.0031849339525925734, -0.43968238836634044, 0.03501764009665607, 0.5720742983027572, -0.10038366219003407, -1.3002342462906358, -0.05396293889336329, -0.13410997856870274, 0.0016867257005973373, 0.45975150249439983, 0.18155243146071462, -0.586613458345958, 0.20131127396532325, -0.00021011331608162244, -0.4614608280272235, -0.02084062168530896, -0.12800262723220004, -0.2590272021661375, -0.5019671803222142, -0.8077547368007202, -0.38827711602156084, -0.18524976202082738, -0.035730584634933386, 0.46886863480237073, 0.17263437979155852, -0.00826579181732382, 0.688897443869739, -0.3860677735488235, -0.5285814913157061, -0.3843319518391714, -0.041300581100934916, -0.31340404002949046, -0.028718278204150984, -0.4150847845230347, 0.12486522044847546, -0.22451493649823712, -0.678166727067831, 0.3620987035395477, -0.3437051414022459, -0.179085251982033, 0.05697571811098253, -0.07434493345973754, -0.13992496263149293, 0.22473155535451542, -0.1728875506283311, -0.30565694017704514, 0.03810433548639477, -0.3950133491623111, 0.16534725054406746, 0.06847951728325889, 0.10968449736081853, 0.10304325790404471, -0.08092661036449195, -0.5302784228417815, 0.16141494565763195, -0.7073101935627083], [0.08518556763964534, 0.35710601694353317, 0.05182612581768307, 0.41725847346512884, -0.2960757766998789, -0.6392095894661708, -0.8005442554485325, -0.17649022598136582, 0.04763890932254396, 0.22522588453206238, -0.09833310083324974, 0.14121659631139344, 0.5011637009301111, 0.041129524046155524, 0.20794813354758243, 0.570526346323848, -0.37950779989446426, -0.20026861078025765, -0.5517835145756286, 0.16876325268882986, 0.07661121878256864, -0.10435182780428302, -0.16146884130438996, 0.04921159535017368, -0.19874759615664336, 0.3933601984996637, 0.11823105616163883, -0.2209120473814945, -0.19890541506579063, -0.14299352540880797, -0.6121208455657597, 0.5632322176413047, -0.4178332856689542, -0.5433706010363366, -0.24268046296961884, -0.13648403883332794, -0.3611411732187319, 0.03546281890731547, 0.04954617877901954, 0.39182414822160455, -0.22579633768294083, -0.33312591622110876, -0.620604362443153, -0.2846952940998772, -0.3945213965229218, -0.33663208138484846, -0.47601842546103856, -0.2671110587756171, -0.5396861719149565, 0.2430894545391229, -0.2747519255612165, -0.29429980531551575, 0.9525167409949309, 0.05943004125942406, -0.09388997061052318, 0.20968222104728196, -0.04107768492035075, -0.30796791010022195, -0.5486840739895127, 0.008602616721944456, 0.4209671554935903, -0.6617191760658955, 0.3162506077505137, 0.04840558184869315, 0.22617565713105156, -0.5737197737296968, -0.09984913158186036, 0.39019578451154985, 0.029927202199022885, -0.1410162167134729, -0.2620328503937562, -0.5506743304027127, -0.5179620661095569, 0.0761582117261825, -0.24308474143881428, 0.40838703567620194, -1.2771802184250711, -0.3812317021884749, 0.10093934650879072, -0.4604162884781592, 0.007586028285742719, -0.06111740511837098, -0.7615688280898788, -0.3676753845271507, 0.09860257174023362, -0.0858322058467749, 0.3242026881348642, 0.3733870358563176, -0.03539321045300302, 0.5077953099176788, -0.06603956004434901, -0.523842054434459, -0.3223092763303808, 0.2626777886393193, 0.11951643385347527, 0.3026580052915868, -0.4031293756626159, -0.1088934897509728, 0.03317488769156089, -0.09366490583336003, 0.7767030345134178, -0.0720819624610506, 0.18727743735318686], [0.26636275422942274, -0.571336663526226, -0.22495268287103654, 0.34745098197571916, -0.08703210499575251, -0.2416955065835322, -0.3410535679163021, -0.1486243810746981, -0.33488522382432956, 0.4874673864420617, -0.2521251584428598, -0.019944661201946726, -0.10746992063668336, -0.14402461728863236, -0.29502629456387985, 0.1030896894254704, 0.07817947102454521, -0.3702843406601685, 0.2986586593523283, 0.2335435730546624, 0.18669329101309212, -0.3749566975039553, -0.3425876491267399, 0.06099522412377285, -0.13080921068907664, 0.3880444105878036, -0.27483330347940405, 0.2495163946132795, 0.08460987006385455, -0.3696280659530773, 0.4136130543784093, 0.021824270301527064, -0.6212306270085708, 0.2005625762656714, 0.11743830298627474, 0.619235411431295, 0.2733390373176532, 0.324483258999786, 0.597717035089449, -0.1879663203552694, 0.0844765059120247, -0.07304287885095513, 0.4668532963466199, -0.11009858874769572, 0.10715407513706081, -0.009886593027610392, 0.04296380892544421, 0.07249954397655259, -0.143133534887063, 0.43167136519102817, 0.25660633491182566, -0.42760963192922197, 1.044586724700242, -0.002784659158797743, -0.6100020342795355, -0.11203376460961538, 0.3364629015981562, -0.014917036069772082, 0.47507811714255826, -0.35958068533547577, -0.25983146295548615, -0.38618445953052943, -0.1488864347113842, 0.0681136180286657, -0.17554026648668858, -0.22463672285663272, 0.0750193367966658, 0.4438884424192884, 0.16575610803650653, 0.15781213530780988, -0.17672678377078152, 0.1555416993761989, -0.25052020663521474, -0.18917267826535614, 0.2803188752173632, 0.3520031604550219, 0.19468553326028687, 0.27231513109369476, 0.06797409848824103, -0.11978991499214099, 0.1550452612121348, -0.4214825755855197, -0.05814526885195467, 1.06951750400388, -0.3497868256976587, -0.01966717380608925, -0.26267791023204345, -0.5876549317302013, 0.4435446866056246, 0.2948219210289313, -0.18797021508617837, -0.18744542688091773, 0.09607227495803972, 0.0022642851511745074, 0.06584846618315786, -0.3540896141827791, 0.07070440294526475, 0.43983360236282726, 0.018033941058758694, -0.16751263485122558, 0.41912912697113497, -0.05696575665526459, 0.3395912429437145], [1.6873496846028284, 0.16454755453678158, -0.09011138063244187, -0.13669853619150238, -0.09792631397280922, -0.22296798325488082, -0.24773334575447978, -0.17785655849661017, 0.5722294516406432, -0.3050085358560829, -0.23109790750472445, -0.2884462093801911, -0.3492633178129864, 0.08591352369095835, 0.4416121779154906, 0.3654967603481307, -0.03175187285125121, 0.0541559854824734, -0.011615655505729836, 0.5254922649806738, -0.299994323920592, -0.4716501944467661, -0.5178531364425687, 0.4858828134087291, -0.2180017701737784, -0.21336348713977907, 0.21090763838900714, 0.0773454779476919, -0.14081617479335062, 0.0036912138928777735, 0.0074630570335574575, -0.2587939626730413, -0.022505430362103344, 0.07559906725194, -0.112792988757694, 0.10555075292288885, 0.09815747770028745, -0.13958168890255046, 0.07463009321227614, -0.20003178927433857, 0.13792925355895883, 0.25313757368372625, 0.3057674421246764, 0.039154135134129534, -0.4443539716960887, 0.025973130323239103, -0.10538937186851392, 0.0411085673260792, -0.6456993032256457, 0.07401641786047874, -0.21083209515307907, -0.3581741218970726, 2.858552112696997, -0.166969798930143, -0.36863924788397856, -0.3062654408898047, 0.044660405365894267, 0.0624260700891694, 0.08928957803095151, 0.13098539413895935, -0.14888412058034556, -0.09934171134805171, -0.3543822816420646, -0.3056496764268866, -0.9302590524149305, -0.5842338547240545, -0.24865649391290787, -0.4307698274480611, -0.4031463287418596, -0.1068673540923886, 0.5800206169576704, -0.07980757521846775, 0.18009352704777642, 0.6497168362560518, -0.004456904167840366, 0.07585620983429518, 0.2274092076137472, -0.19017239719793227, 0.07468108407028269, 0.4933119238843556, 0.638035141430869, 0.4561958847844064, 0.12507667023517144, -0.7196529011349314, 0.1933588591875626, 0.16696866778350805, 0.46261582943836566, -0.44953677264672576, 0.3047283018455845, 0.44968230373192897, 0.22070789636240257, 0.010780541169039952, 0.4328600270808202, 0.11293413613130324, 0.01278167944267582, 0.4661330149400999, -0.35173951905050876, -0.38734192580614246, -0.16135673169881867, -0.1749142821276485, -0.28313494502469666, 0.11374755466318723, 0.12786171509022734], [-0.6908466377495056, 0.0033824661232835867, -0.07850832157450802, 0.14487407754656118, -0.3513562957817075, -0.0012218667698842914, 0.30993483225608565, -0.5111689619833792, -0.1115612868629651, -0.04655491638397813, 0.12826710993501295, -0.4503279850300897, -0.4316544926983747, -0.07853143085690156, 0.5396372494850364, 0.28969500437241563, 0.23348824140160665, -0.025359473724134305, 0.29399835138235303, 0.578262750485193, -0.20660294912044327, 0.21920526101482254, -0.04907841218751979, -0.29102824158959634, 0.5091911087947568, -0.44033087995805287, 0.5083971228528396, -0.0413495174418005, 0.221636256352051, -0.11190342118384636, -0.13095734824399793, 0.15820495997550263, 0.2317934405195192, 0.21950265847963654, 0.08495930277940021, -0.012017455431186047, 0.3965220396017257, 0.17165491275088093, 0.13529094676735393, -0.0581390363313601, -0.12042255031903666, 0.18793403481107931, 0.2559051530473541, -0.1671911134193473, -0.2976250979416818, 0.23861001434438345, 0.11172981287143784, 0.6760703751322493, 0.1147496761312965, -0.11277225013260021, 0.039411080264001606, -0.3515734396372258, -0.2487762080104087, 0.2966812417134589, -0.0821586482509804, -0.0169863329801588, 0.7290205491144511, -0.16536231374873217, -0.301592052984832, -0.6314182491909617, -0.264835810763701, 0.1961090870868564, -0.27142072539209094, 0.05152191126483506, -0.4046159401831329, 0.6591612491306759, 0.13642037270566096, 0.6134788861036299, -0.5961773946727927, 0.31896056386294963, 0.932664400482679, -0.13766865106333806, 0.36958579650199425, -0.3633984696441469, -0.9184390456527248, -0.40581610020704156, -0.2300225923626975, 0.5339936557676083, 0.10127962870520703, -0.37835099569168246, 0.19375285931276673, 0.11196566116642362, 0.5129619837350164, -0.13107946602722967, -0.20904177270924226, 0.11475231784440416, 0.10427091054033309, -0.03801332771438819, -0.257505047180831, -0.6857047875765269, -0.2973257788920055, 0.17325678969953975, -0.431004570344916, -0.44412138978496407, 0.052844733307303195, 0.29952824688527535, -0.26831903311696376, 0.5303366352581208, 0.700896753690636, -0.2462231336901348, 0.26136922639552, 0.2422254912226796, 0.19474980326893335], [-0.428435388746423, 0.2566877995596311, 0.03075653591358741, 0.03904601137396297, 0.03453471169297366, 0.1241799523780416, 0.05845890979564138, 0.11675245614352381, -0.210894177370356, -0.48437571969320936, -0.654374963573581, -0.1035709031354392, 0.10482897709161393, 0.06436231138370185, 0.07548924924090615, -0.3758846264383634, -0.3911505825469285, -0.4545847736847054, 0.0724901614907436, -0.015315464349280708, -0.32211004346327166, 0.47295983850354234, 0.01362845168494509, 0.5730468868616574, -0.5840159624296251, 0.29037072066338, -0.5265729378323567, 0.36858767037939344, -0.19400919074320935, -0.031003601743914533, 0.3075770241739998, -0.09902706076551544, -0.23237778186430225, -0.10594238386768552, 0.5490592706983987, -0.509583172320929, -0.5194227291714564, -0.03552121269971962, 0.10107086604424996, -0.013741677084359681, -0.27279963138067786, 0.3066529445927979, -0.01837136801851293, 0.5927155219620717, 0.26060465349747036, 0.48485506583403587, 0.14207046063033021, 0.1167073568103938, -0.28568733583103184, -0.34056219692212164, 0.2531777251695975, -0.5720946146377934, -0.5765026173823469, 0.7596534782644889, -0.07243915563415997, -0.23749620897497284, 0.1983199766982375, -0.21438479654224643, 0.35336451943802305, 0.016209769074025274, 0.24797378995882866, -0.0923246732538845, 0.10479322813240753, -0.11197281039736837, 0.620612217338598, -0.043190183436164716, -0.4815462894455315, -0.42526842376068325, -0.3214315084382016, -0.3525925688980806, 0.17600836872727157, -0.2483542468232209, -0.2714954375815455, 0.13743853767459407, 0.653584313418138, -0.24744188778356133, 0.3091258949138063, 0.03591668099208804, 0.14617583707429221, 0.25284654684691554, -0.25856407918916996, 0.0790467108074789, -0.5187796049447099, -0.5113542752173384, 0.004221866537431365, -0.08131512367497122, 0.2510194132678932, -0.4150522603926472, -0.09847057548142296, 0.15614613066969987, -0.022005045556075874, 0.0029048647914241706, 0.6363060338973862, 0.3347962298945189, 0.026554241067285125, -0.34944186691732143, -0.372703529873092, -0.13612063925209225, -0.31322642497530273, -0.12256240571968975, -0.07016182518194707, 0.12296830938296094, -0.14554640793680032], [-0.08445255771574034, -0.1368997537508625, -0.08450013111953651, 0.1373727493837916, 0.28758380757716673, 0.14887635897711152, 0.0722638762315309, -0.23360470819248577, 0.3374406368584219, -0.5039913173597812, 0.016145221645587515, 0.16910246485374067, 0.37552246594512084, 0.2136309813427898, 0.0782120569325952, 0.2711383846462712, -0.15615825783353066, -0.3319800219966468, 0.42404134232714435, 0.06508075993991558, -0.3628726044445883, -0.10851156324429563, -0.10244208891081796, 0.6110214401229415, -0.3385458733235544, 0.07652218361879101, 0.2752142538204248, 0.29458823955888336, 0.009332205182749584, 0.3834981064078765, 0.061074593388137116, 0.24449155150033397, 0.2863969881320578, 0.1351146146017678, 0.04452269371307857, -0.1436574199048809, 0.12309261696734607, 0.32772062046162864, 0.10805310989081056, -0.31797867953466474, 0.3654985155163821, 0.14086219589073062, -0.31907411325150675, -0.022227970035463233, -0.14968791144308688, -0.27833459168123353, 0.006758759835290808, -0.1705151901622458, -0.03780253755237829, 0.36060862934589827, -0.219694526938781, 0.2418743496116028, 0.2344634310813403, 0.16833962097692926, -0.09732598558498319, -0.6748389564721908, -0.12420253511878099, 0.15603818357993626, 0.22510310188647323, 0.06356336232510076, 0.09415666683523864, 0.4759049351010984, 0.22147399551106514, -0.174062788446996, -0.06708586462821244, -0.5496239139196589, 0.19432320280247378, -0.09838006900042798, -0.051262232988383685, -0.41578860162874376, -0.12511884722499741, -0.22113419234080503, -0.4249673540735276, -0.3191479213201025, 0.38001903458491787, 0.061526917216165926, 0.3237788297682749, 0.25860691384453666, 0.10680683624363808, -0.2625720036234254, -0.034003696926742835, -0.08256784061798132, -0.18443717150070807, -0.5411374711900468, -0.015175409046612279, 0.28280596286119425, 0.036826165275352415, 0.03640525235201472, -0.3026782781323342, 0.3611162240799834, 0.41410549484209136, 0.17332187073845481, 0.27158564812934405, -0.35456042409181027, -0.2928336494578707, 0.47152504052361804, -0.9382058700619138, -0.2963054774512893, -0.05936176818338109, -0.046843077959103405, 0.018142548290054215, -0.17882663865456308, 0.12062117135349439], [0.006429883667357555, -0.29255473626946965, -0.4153764742751322, 0.03359571896988526, -0.17911003702721565, 0.005578491771441562, 0.14104262561147396, -0.11068103131617196, -0.3361956838424121, 0.12514512579085885, 0.0645288890646813, 0.16837043283791386, -0.29590445934490134, 0.27379526631073847, 0.28523880192462964, -0.21373301365788003, 0.5689206889727283, -0.03494831364304167, 0.2701124587533451, 0.19099052802371932, 0.73906897343704, 0.08970057948649332, -0.9777997607446585, -0.6648440198668026, -0.9173335581617869, -0.16580696018378116, 0.18698335925255904, 0.07537554112428621, -0.2733435161882407, -0.2964002848784584, -0.015087981479527262, -0.36370025225895064, -0.3773852223723532, -0.5494335984149505, -0.4893010417751036, -0.4083110153057707, -0.317592187699553, -0.1588795366142202, -0.05549198239266441, 0.41325397657291774, -0.14113043905894168, 0.12779766305333565, 0.03797700788922217, -0.2931890535360727, -0.17957633102680667, -0.36930359337270036, 0.18968938895473225, 0.07361979649001271, 0.03246089884106017, -0.21552503323632224, -0.3568017570122143, 0.1846209012332199, 0.005701503864869681, 0.1923201703995797, 0.10119898034568951, 0.08496811624405681, 0.08419082022390265, 0.22872050459252455, 0.1598934440572942, -0.31980481997458904, -0.022134811145969237, -0.39454307061287686, -0.3113482895383938, 0.1113795804078385, 0.08769409972419362, 0.2423166805088614, 0.11601959969700508, -0.5911304490088164, -0.6093704700292044, -0.2545689113514239, -0.11589801512079735, -0.35821538821598736, -0.3021535584174355, 0.8049493457070254, 0.3625753666021872, 0.5835235602237357, -0.11677586743295226, 0.128642217020065, 0.4437750615893862, -0.5988645768275072, 0.010277463990051534, -0.23063208804628726, 0.4478143356467554, 0.17895965467623165, 0.1479014329355544, -0.0398101820802683, -0.17233957345334228, 0.5037506942058051, 0.32584087664379946, 0.25559064688514754, -0.19284498702083125, 0.41821031658082003, 0.1867412301600888, -0.13050326215690303, -0.29244068691851294, 0.2861578793959905, 0.7191923603141497, -0.7232208857493462, -0.729350576575394, 0.5762486349358961, -0.3808930304515887, -0.19154498705907744, 0.4255900599473903], [-0.18767519143306524, -0.408737361197876, -0.12444309497905529, 0.5196658999456928, 0.48238482416299244, -0.09220367735409356, 0.025150940632328526, 0.01612715811807177, 0.327359045022174, 0.0932803791784821, -0.04451012365670105, -0.41472515203600646, -0.6640323455290985, -0.5405389047233495, -0.06728605169443, -0.7028403648531413, 0.20499158252040525, -0.47530826568974177, 0.013590071721532636, 0.24666452754163307, -0.17314901330561583, -0.4398294285890381, -0.03440799605607566, 0.9102795500078181, -0.11773484218923841, 0.23448964829690166, -0.4705070105814998, -0.12282399460441906, -0.20691281744474066, -0.12174893196294054, -0.4505511101427154, -0.348570536366564, 0.0639762009929216, -0.4195499173473667, -0.25122094089626595, 0.21343879218509615, -0.1892827179021105, -0.3773009299961119, 0.3118928653069097, -0.14406708312153552, -0.3772653768035796, -0.09526961750206304, -0.24671646519482546, -0.4016292114474012, 0.01623651536240168, -0.22610076090500253, 0.09717548228552787, 0.06371729509798973, -0.04872714554924557, -0.16194062076521246, -0.014596581177248295, 0.030781059854228243, -0.5571825030563077, 0.004073948977597505, -0.01300092592970045, -0.32985872273434824, 0.06020384679550488, -0.4937900573683795, 0.13075760214484058, -0.6163502548550855, -0.13875801472631752, 0.05077531934379792, 0.3302808462133882, 0.5164153270452989, 0.5278211296494304, 0.1371017175107115, 0.4586204613046256, -0.5249222661976308, -0.04737950438910346, -0.19794614086106707, -0.37781199061135956, 0.30343094284488387, 0.17973027975474967, 0.07567469224625788, -1.1450271612378569, 0.1801333086597089, -0.33454593109520253, 0.24669104258800456, 0.2147474761792162, 0.22009451629107082, -0.011786638397832899, -0.1103028148582003, -0.3814576768817454, 0.13112288575347597, 0.40617627815832297, 0.5773065428503196, -0.5618398201165339, -0.16140289267673963, -0.8673866138885457, -0.40748376962364147, -0.892198951044756, -0.046678460344841764, -0.3313584460393015, -0.24674094077654607, 0.2963629891125907, -0.46156724980717045, -0.3823339620239735, 0.8759060349329227, 0.37806889676699834, -0.2039289918869735, 0.30877209244749, -0.8325822888626342, -0.16201300894502096], [0.6483932283917984, -0.2003797718882973, 0.014148230161093695, 0.2761460487834802, 0.275539144038777, -0.11482124676901265, -0.2618664695906657, 0.21445996892455185, 0.7583761692265383, 0.3600363633735421, 0.5256117841894486, 0.5440876016672433, 0.5292729555654663, -0.31082746732144007, -0.12896291837086263, -0.3997481830161543, -0.5220842946580132, -0.0961009566890456, 0.0542948622778898, 0.7059361773849449, 0.3228287939938506, -0.007155001980014919, 0.918917184009525, 0.2595016716039622, -0.043498524321329536, 0.7186717529665984, 0.2836905660575321, 0.2697215075946453, 0.2695868566745885, 0.42207779904912057, 0.42624390505670856, -0.2663853398203205, 0.16697879166978183, 0.35966531756932746, 0.0867131513809554, -0.3574355750145255, 0.26056202603925555, 0.4207354201728738, -0.1821012194022007, -0.12784604328463414, 0.07801712167355788, 0.23436994144245463, -0.05320759201745046, 1.0495208820538333, -0.2858502357514341, 0.5731754433177353, 0.11127039303675602, 0.09644246642965813, 0.17653019593433866, 0.05968493251911748, 0.20846098341675665, 0.32534062537788405, 0.45200475260332956, 0.21785880323340773, 0.5125816941391237, -0.011248314628656905, 0.2530319516144791, 0.4318486735770224, 0.11804163765455837, -0.010359573730591723, -0.022809239685637236, -0.6202967469188169, -0.21308650359902515, -0.3437496863436981, 0.4814510736148509, 0.12846254995597126, 0.15376822686959019, 0.8614359117278096, 0.8721194770255243, 0.11491447105514203, 0.0847691331528177, 0.04213895329343711, -0.014831674370290022, -0.367522191844423, 0.06450402218928432, 0.08200574394339169, -0.26846832430076045, -0.2671339358272782, 0.11126334960549837, 0.1345471973588016, 0.09178355067435605, 0.3680202079269316, 0.6830743457106533, 0.3175688607327702, 0.22070950497841807, 0.01878573475051256, 0.7470437058426374, -0.15122537089296786, 0.2133854198380874, 0.13073041543060895, -0.018982931816392153, 0.06746122375595093, 0.0621994173811259, -0.4620806412018607, 0.21564909625702738, -0.02122753696745205, 0.2299239912480041, 0.20290381095202048, 0.17569667656876822, -0.5257398235309272, 0.5070079347741699, 0.35956075703744605, 0.46491502602409973], [0.60906150380098, 0.11066708885083469, 0.25336638568061004, -0.319820444758998, 0.06978335188685307, -0.08693645654829504, 0.2645142450321953, 0.6544774143297248, -0.6377038297127768, 0.05358530195980217, 0.21854578478844247, 0.08468924650597778, 0.20650377301614783, 0.15621836233628922, 0.18532372606907466, 0.6783711753123645, -0.06255708268297801, -0.34715350418769064, 0.04565138800686845, 0.04740723302035709, -0.11422213195357764, -0.27889495175605344, 0.1109436323341686, 0.16668637879280887, 0.14851867031351237, -0.19214349169915948, -0.18432799293933594, 0.11832363725488111, -0.12014729040656606, 0.18262844596886665, 0.14865144386708198, -0.09612539569089, 0.11716894636819254, -0.1651831292443293, -0.17665409492411538, 0.08479893373261334, 0.2576258974199012, -0.021728237330622072, -0.014484185212430894, -0.24694917367144892, -0.14837874135765564, -0.07099079052936391, 0.4916925057419816, 0.27853675693794144, 0.05774292753653307, -0.16436859833181114, -0.06635424396898153, 0.410876646473777, 0.18798727949612642, -0.31430366048937264, 0.04689793389889323, 0.3496629939121547, 0.7948775593131029, -0.05440679342814712, 0.06782325304790328, -0.12526687653995217, 0.4069330782177222, -0.19025199703682888, 0.014459697862187676, 0.09263045396191905, -0.4707405443115295, -0.0487717455711625, 0.4888696597214062, 0.398595821260572, -0.16656068677579935, -0.1789169392792876, 0.10529088915781849, 0.1470493965620494, 0.2081095634692542, 0.20845063932441796, 0.5395115663375096, -0.5710793438618122, 0.5409424260701607, 0.1879063992782079, 0.4357694115482906, 0.37058968236663636, 0.5748913974258579, -0.4390859228657536, -0.21523527628218647, 0.39454287672778054, 0.17108377841844388, 0.14147713975315662, -0.1149011719483019, 0.11617110822154651, -0.22886429254013232, 0.1919168032497768, -0.18239385036333575, -0.2301480185858198, 0.0483648062873775, 0.38524717398052327, 1.1114842561248004, -0.21579055472844394, -0.707331481547811, -0.38591861382484094, 0.5334193862122485, 0.029058232147933523, -0.2965029883016173, 0.12748564518555333, 0.16805758454073025, 0.0739089593671433, 0.15712299707829083, -0.1936390566939134, 0.035706250311697024], [-0.06685640354495215, -0.05047728546985944, 0.05440371294615466, 0.4179897459343952, 0.010213793832286612, 0.17364967664709605, -0.22358977728137702, -0.14632296638740536, 0.009140399832747646, -0.11553204063745855, 0.35960756388351667, -0.2801502268284268, 0.07078133934285873, 0.025929354629746007, 0.295980701719821, 0.13671089031117775, -0.6558710554427096, -0.44569772412616243, -0.8991286955827209, -0.22256610259246964, 0.3025522559716366, -0.3732765425899391, -0.3073693933769712, -0.09670484103070509, -0.08619549015522444, 0.3425129763825921, 0.347751839804689, 0.6540231595476883, 0.6058606143301885, 0.31056179668145306, -0.19959782243693044, -0.37967243606675627, 0.21535908859796016, 0.038413269078084754, -0.10233380134243601, -0.007392083730792022, 0.0529151425866973, 0.5456031653129977, -0.047494827536047, -0.46386396469255775, 0.06437117603192828, -0.3547799602081114, 0.09218496727674365, 0.07451997679859869, 0.03743666191247666, 0.042132282653382966, -0.2580800004208868, 0.2522749186786079, -0.23565205756813562, 0.08869491867300587, 0.1026574983824681, 0.20984823350311407, 0.12402797968221844, -0.39286276899036054, -0.05395329268498839, -0.1979588008780017, -0.0011821897820856783, 0.13231531724250695, 0.5514404924147827, 0.11302535502608757, 0.14570574843827314, -0.28270870222494954, 0.0018292254102541968, -0.5810327762514865, -0.6081257388344744, -0.24094927785793, -0.14205795539539337, 1.057516937427575, 0.1863116878978981, 0.6777285224690235, 0.27505374990491743, -0.19544542963113587, 0.013347437428820092, -0.2946290161277886, -0.09505365420103275, -0.1402494055094805, -0.4308353142096443, -0.47956373972837657, -0.32740288611208135, 0.08900521658668194, -0.09542926074502976, 0.05450561391542179, 0.06577043031067438, -0.2003552845140841, 0.3414598147867056, 0.3130239231069586, 0.28510834344580227, -0.27320245600378007, -0.1430387327380379, 0.4013810595569574, -0.0720913879879454, -1.2919485867039946, -0.467208032954178, -0.6166003728414127, 0.12679445950983648, 0.21116476513486854, 0.013954638378694303, 0.16858086058835034, -0.08566594926682453, -0.3344539327015342, 0.11123263180952697, 0.30164396050796816, -0.24191738079602443], [0.580452835082002, 0.08944895635108112, -0.05729835731722063, 0.2699711071040382, 0.06491415713571361, 0.22390558589828452, -0.13929675183833162, 0.3527358074827149, -0.10485248313289695, 0.11566752718789537, 0.18198679048903996, -0.09885598852659831, 0.41547172703972146, 0.12921474393319082, -0.18512413788392257, -0.17958364369276159, 0.4610559332122748, -0.2831051499280934, -0.04431377127088555, -0.1533891944803365, 0.20382383401763668, 1.1121454682556606, -0.3185641836620897, -0.3347103797780079, 0.6201068995752187, -0.4139340868441949, -0.051922554372729905, 1.1559250368565726, -0.03400633155003401, 0.253465160517076, -0.06252323414819806, 0.2526709273783436, 0.2725183839506076, 0.2852263907266003, 0.2673239000984976, -0.21498960620280688, -0.14082935753947806, 0.41122370178255807, 0.19178522390783237, 0.02200398150123196, 0.42338485991354236, 0.12615327470924048, -0.2982475012382148, 0.29075584461856274, -0.08567977418121103, 0.394291949202258, 0.4672269690787714, -0.4859907361362563, -0.11925796630247555, -0.013028462807709477, -0.0050412896453494935, -0.21537676678706813, 0.9441223057803073, 0.16477705015055405, 0.4764352090040183, -0.07984944224965322, 0.08819375316710659, 0.3887141587302529, 0.27880023782867874, -0.3209921337635621, -0.15150985443670364, -0.17883955961147535, -0.245271483424455, -0.2397340234438769, 0.15468910947102188, 0.4462201914011557, 1.3814928700413425, 0.4645074274177949, 0.9604005861364185, 0.9025327284672195, -0.243194285939099, -0.477004052754434, -0.7288310060655747, 0.26231062344638234, 0.15419634480353353, -0.02833341392657314, 0.18372062572354242, 0.2800389069360867, -0.34902615713577084, -0.23954765079339277, -0.046656722725752206, -0.16685687497860346, 0.24698457771272972, -0.2853047151162114, 0.004916313565621744, -0.2465049715101773, -0.11605930626346204, 0.11519140110172618, -0.34604553766562224, 0.24260819648556087, -0.11570133567052322, 0.30022391096332174, -0.6095969099305448, -0.26507648525902033, -0.6123849461548215, 0.049382676324688665, 1.3690489618380288, 0.23169837134853408, 0.03559079974049895, -0.13773725361716602, -0.44401021447964867, 0.21251578824511827, 0.6182472586489479], [-0.8407802920470193, 0.02321854737407717, 0.049284057661042435, -0.08849332432832692, -0.2292921680275765, 0.38284258568905094, -0.4998642987994486, -0.5582927701955367, -0.5095826831061218, -0.6570923854843139, -0.010608261431457197, -0.29861546200310934, -0.31293307470240916, -0.22314759774856882, 0.6988984565802311, -0.08165440032186383, -0.07849484834884518, 0.6154822270216432, -0.07214988602909238, -0.07014858882807834, 0.25449507127008014, 0.12610365255494763, -0.2475641181778171, 0.4695542052899887, 0.43218814795209165, 0.27441819235384923, 0.24091036129479854, -0.33233088137996103, 0.2075691219259639, 0.11134300207216026, -0.4331172020535913, -0.07849669340334578, 0.1413654247596203, -0.42497897953783437, 0.2270270530088772, 0.07619934312731488, -0.3536970657533153, 0.2926872998794406, 0.27899125138671277, 0.009332228946933762, 0.04144857996053722, -0.24147524022679415, 0.12673916411286315, -0.019568018107645236, 0.061564531105355196, -0.343229361744572, -0.2212670016811331, -0.1648844738669793, -0.11471253704102088, 0.33087418826818754, -0.30940292001527153, 0.05556070444594513, 0.33547146295634445, -0.1875215214428287, -0.23860102880152256, -0.40444804615197755, -0.12242390129349853, -0.3121902204905228, 0.32173646161810665, -0.046079530034482646, 0.5049781380281382, 0.09431359969224865, -0.3551361872387192, 0.6779673174531514, 0.2559859546925879, 0.7983038708148856, 0.9065455489706415, 0.15134144401916666, -0.30557742872322824, 0.8544342689145314, 0.10021592180626517, 0.3379063408085564, 0.2555626356726504, 0.25144363422954313, 0.19509874278747977, -0.7450356644317971, -0.11058973098758, -0.5554594065800373, -0.4599331742457621, -0.3676623853607518, 0.6361642010297797, 0.10201208434904997, 0.1722962752296169, 0.29495357966877883, 0.40022220102488815, -0.11814360967164093, -0.0821262921542949, 0.6690445858194722, -0.8087520921950795, -0.4202741518682447, -0.5706807480119924, -0.35481614194224725, 0.17365146353735375, -0.19011761214758524, 0.27170660982906164, 0.6785298757353297, 0.2382385460908503, -0.5644277095358877, 0.6323487831445485, 0.4132592907767516, -0.05629881243948708, -0.2272458854247546, 0.3424215159269994], [1.5343176518195776, -0.0638700043571142, -0.26985763419767267, -0.11940374660722432, 0.14184775582056053, -0.31839267673413296, 0.0847587819547084, 0.048574449258738765, -0.560974169050689, -0.38955968478684877, -0.15746433288243802, 0.267112872746547, -0.46857046659146634, -0.1332153196733341, 0.3816041105351625, 0.01727043833812384, 0.26980429082719803, -0.19857630380689198, 0.06407402186689157, -0.8605339256679218, 0.368890064934396, -0.20846875535849252, -0.9119122988377656, -0.23083863227559098, -0.11163718385432342, -0.43454870403150914, -0.19548195636029916, 0.06363382441154639, -0.3255594023809721, -0.4480002090587278, -0.01649615283654125, -0.25038666855315916, 0.554268129492029, -0.3398011122376333, -0.10827192378128256, -0.1478382470701898, -0.6606024182276311, 0.1554373013904667, -0.09674023760396364, -0.10263318871094773, 0.09565937928063042, 0.12359956820305318, -0.25223489597138016, -0.4278332423017781, -0.9012584999017692, -0.1927513061288051, -0.1767184593328499, 0.18357218006113823, -0.01116736591576848, 0.0017774887214841819, 0.25687335811223905, -0.16758841057886248, 0.813768876393547, -0.4862470736963352, 0.3555842132831304, -0.07155076940614025, 0.2522125918853865, -0.022762914745130522, -0.48339688755603, 0.4004513051267669, 0.21173003358121212, 0.5308101058652681, -0.42959037836829417, 0.01497061929658125, -0.4365445351205765, 0.4152322709317969, -0.2831296044920138, 0.20693861884846954, -0.0888925574676228, 0.5459690801261494, 0.5569056620304773, -0.6040962322746632, -0.3171903540031245, 1.0535394490656014, -0.1400941931202771, 0.5720636833712494, 0.28907975004514413, -0.08859609288966445, -0.2432893577169597, -0.4078726456363016, 0.012092660053213324, -0.16136854742880352, -0.9276513832029452, -0.2928898450090152, -0.5026538718942496, 0.03163672281901704, -0.11797433984643847, 0.07689562337367331, -0.24877967558228148, 0.24787446516942474, -0.009148150658653178, 0.4378327462257654, -0.21477776330358062, -0.10717569314068184, -0.051099168144914456, 0.17946506521413005, 0.32503136151697937, 0.0346526621120914, -0.39732502518299617, 0.07315005142750343, -0.47460950787779743, -0.4957057580592163, -0.36235406005967696], [-0.18199455346963758, 0.05223166456004139, -0.4394052801964461, 0.11581213230689559, 0.11544927610899229, 0.027660786368627715, 0.0370533089763682, -0.32367231066015145, -0.27760690459694204, -0.19118521161341567, -0.2896678894188458, -0.08462984406034314, -0.2632069344795865, 0.4376312165985863, 0.3581931028198392, 0.054490753415198157, 0.9174043993600818, 0.2748827675373131, -0.07307427267389795, 0.26640531357247765, -0.2732024344121272, 0.14920441049412658, 0.22825813291183872, -0.20088018803077606, 0.2978903440595771, 0.0529621443583028, -0.4372030486978681, -0.2385281140704475, 0.14808743722656842, -0.3145311612121959, 0.04337834215167746, 0.055493841743828196, -0.3129943037267024, 0.17629578702348825, -0.08990874538561268, 0.38846926592821424, -0.34585260058677664, -0.17425415936706873, -0.586674905608669, -0.031997603768549314, -0.40059619531952634, -0.2877034267595212, 0.045564941059995256, -0.02578558391318678, -0.05809638125002996, 0.6424819610547656, 0.7051456774197421, -0.16285690201176353, -0.19885086649242317, 0.044786706988815164, -0.00878711950820536, 0.04649641031128641, -0.05748092305152656, -0.2072338136636584, -0.19007127295891418, 0.7827801068596317, -0.32992572449345536, -0.24670238413975326, 0.33153402347060623, -0.1902651041425854, -0.17348590452900525, -0.33182312564344796, -0.07769727104299405, -0.46402359301979573, -0.17238867217735282, -0.5339714940006914, -0.057168345260825516, 0.8943074031437126, 0.031901805064407526, -0.2592520957138946, -0.04739743669609782, -0.6185074474342097, -0.2997690157402241, -0.2604364161195973, 0.13239905575367386, -0.40795817261011946, 0.2554580665526991, -0.27354031534835904, -0.11777682677932384, 0.037409713837048164, -0.36573965596121427, -0.09491241289158775, 0.22575857779417197, 0.16956698055104413, -0.3438495555076589, 0.12021203556439142, 0.16327565238739739, -0.20799221322194494, -0.3016142503462662, -0.20601116558789234, 0.019791390394447415, 0.022660063092218023, 0.26306779455453017, 0.6092673616663137, -0.12878061177002195, -0.580934802107099, 0.5917298193695313, -0.10803489781642242, -0.1370064827628361, 0.5300048604871647, 0.38284245830819125, 0.1017057303263418, 0.3730347687473665], [1.64002027417197, 0.3156075003329305, 0.15683798013576197, -0.03709423499416128, 0.2024782626534438, -0.06953752180342483, 0.08426275441265882, 0.19325362216937836, 0.036615032040819354, 0.33853258492968197, 0.09493667511973002, -0.3593247653454181, -0.10683262078437855, -0.04621926016618782, 0.7144921438244263, 0.6292618129181066, 0.43271599357184776, 0.3427001913544404, 0.9315246005833254, 0.6508926149531508, -0.2797227971058126, -0.34638643767152083, 0.41864111756419603, -0.6613571956859993, -0.11998865435644727, 0.373013375646137, -0.12003433823437606, -0.2806641352400215, -0.06370641227662308, 0.24363680910362343, -0.02335158359664036, -0.059571635163812135, 0.06767876652622808, 0.03420345222158256, 0.6973304979333899, -0.009121178745493395, 0.1822676396771708, 0.25101700838349505, 0.11357380557881487, 0.11491375887298305, 0.29088698922952255, -0.00955378679505782, 0.21284487935535504, 0.44830808020872664, 0.13227460709620828, -0.03186715808781081, 0.24038192833106276, 0.10866626171804257, 0.41909323901991474, 0.41725002158716495, -0.2917354402312706, 0.3235511209698622, 0.8829149761170129, 0.049300016712008676, 0.23578122917966096, 0.2346646359595138, 0.3819109186231119, 0.16443158034624294, 0.17902746451530016, 0.035091455518666895, -0.17669683091874538, 0.522176195164157, 0.37526498245899953, 0.04729573651976451, -0.15746227051075307, -0.5868709319381112, -0.32106212390436295, -0.2788706408216603, 0.16909168213619427, -0.8415836621362225, -0.42117385550915604, 0.39636732551072607, 0.9213220584319779, 0.2093339636631928, 0.9100416565293039, 0.47904694956059385, -0.5960001908436181, 0.5961849358726413, 0.6037447787919991, -0.07107370335902853, 0.14784650653084677, -0.14792675342240946, -0.20133078038469954, 0.0365686883594013, 0.0666495830977064, 0.019081062205603194, -0.12682560028688786, 0.14069288509620775, 0.07156955216368198, 0.5534511591577722, 0.6840507642988631, 0.6629269201724491, 0.09658111301444254, 0.5913978811579015, 0.08114667364150974, 0.06732222227507181, -0.027020882276379957, 0.596494432404238, -0.1471521409449132, -0.1546602040570752, 0.4489459258374892, 0.16460920570150656, -0.024041036932028553], [1.1718286909746713, -0.4225193198631676, 0.2050388837467121, -0.1005931202444222, 0.06696518121920304, 0.4417321176108719, -0.5235143317543287, -0.03427708739885236, -0.1246005495301462, 0.6149000523054128, -0.02352407710508263, 0.5199644370460579, 0.0358759996178814, -0.14420795027559152, -0.3691570114762401, 0.1200608707444267, -0.47571947094756023, 0.08529635161433882, 0.20387063469516986, -0.268830127973073, 0.41325717894058167, 0.15120722462966338, -0.18042569042767148, -0.36313711617885647, 0.2226119392308543, 0.2582716655466792, -0.5378408298405083, -0.17659023516365224, -0.06785204924067882, 0.13182309802266312, -0.11559815342381807, -0.24003778356513286, -0.27357868562406995, -0.3757113617457964, -0.22239789348910793, -0.4334303223403077, 0.1805474330585274, -0.3477586758943084, 0.3955790682487358, -0.36092192770169934, -0.07223680921837451, -0.018073189872467445, -0.047791909998629326, 0.01638570304788534, 0.05493242958582606, -0.11977019092842034, -0.19021309920188287, 0.3032076611973, -0.08837414983807569, 0.0639019210854547, 0.20208084512929017, 0.11004718466088834, 1.1526631986734248, -0.0889626149682353, 0.13457152232591496, 0.08917617092235411, -0.1456128559629798, -0.11740360356442239, -0.6117965537128914, 0.22638291839779226, 0.5509545960973932, 0.5975710430603333, -0.16367662626744023, 0.4026708836554464, 0.42234931340606724, -0.135848767504836, 0.015287634782048915, -0.0449280902211247, 0.03906025635840351, 0.1743013993680213, -0.2861090312220138, -0.038424737572800224, 0.17061552138216293, -0.1283199697546436, -0.9441172848903592, -0.2601275853446353, 0.41361604831860904, -0.43489481439538785, -0.3915053461254665, 0.2794533734645018, -0.32561469508180724, -0.5500982895108159, -0.2388859492321479, -0.014979227172474718, -0.19924438156095478, -0.03913281158783218, -0.2434401903264122, 0.4990303990855238, 0.02710695280274142, 0.10614800009751825, -0.17103024416407334, 0.6757834095155469, 0.02540581151799625, -0.45878673598185743, -0.0709182417253337, -0.2897349825038296, 0.3182573438134485, -0.09399774407710604, -0.18181687381928244, -0.23351247245762444, 0.10301250206601216, -0.24698405116836097, 0.13163983634514814], [0.8040885198281488, 0.23725734164644385, -0.4729593529042093, 0.5345429171977581, -0.5743646717739591, 0.2971970884926747, 0.24675781158351298, -0.09197411231608049, -0.27854257624843465, 0.5119326318619015, -0.6527170261154478, -0.19211361043002806, -0.29086452471062424, 0.00830862785662887, 0.5326704405639875, 0.18577850866601353, 0.18090958978392538, 0.2569314436608377, -0.344395124200496, -0.14863784060815727, 0.10852770315373021, -0.0030402822956558167, 0.6518615465368185, -0.011670502040881112, -0.6070806576906981, 0.24632056470125838, 0.20298261978281382, -0.010188882151569732, -0.0741055272556969, -0.20689827120006551, -0.20895045382877442, 0.024276075942211216, 0.13870883190243072, -0.11005141118679952, 0.09240660736390525, -0.5952665890545543, -0.12526053636611037, -0.15687069452288885, -0.2181401344322454, 0.36456330252084507, -0.2696445830853971, -0.3985085633651479, -0.4326828968597035, 0.11208556346737843, -0.33826978074671027, 0.20114969084677028, -0.20363032209555842, 0.14168661590439569, 0.3635044776759952, -0.6133623947656037, -0.562091869711434, 0.08388930475956652, 1.3702036272949287, 0.3584683032904171, -0.24512171853569675, 0.39149701264675885, 0.09963685884397286, 0.18475971634529614, -0.019562774414791987, 0.027048334627143893, -0.44551835074862073, -0.44113801235635075, 0.14474811746880684, -0.49760153958685505, -0.015773734470172114, -0.40774033025911677, -0.6019905164751546, 0.1538778251757428, 0.08583525483391312, -0.14389656633647532, -0.092140398903497, -0.3812565316683583, -0.28967192309817175, -0.4459044168793181, 0.13730556892078571, -0.10865038602551431, -0.3451005084128445, 0.20518102823697715, 0.39205217475631815, 0.6735991377927772, 0.05518159984041881, 0.0020550910547798007, -0.3390206982554438, 0.22445464502303075, 0.054699363503561436, -0.3765305775535148, 0.5799771478894629, -0.07213127901562896, 0.29707705050624594, 0.5422852514557671, 0.6310270788283291, 0.3271772222126511, -0.21524374954563108, 0.25775049293559066, 0.12330456877548665, 0.02995310013585121, -0.6456087948901887, -0.06623978123124893, 0.0678624332694513, -0.4551985126562435, -0.5123248334943861, 0.7048634303435242, 0.005337271466028472], [-0.8612602134149955, -0.01998592990550951, -0.04682634544263612, 0.040751747885704515, -0.21178791674669306, 0.20232225817042904, 0.2709113100634621, -0.05679275392807195, -0.3361065666640124, -0.8110987526541852, 0.236288484050996, -0.30386834164165927, 0.011529904754583362, 0.15654196304538284, 0.1279418413886845, -0.19879104410367052, -0.602396634597721, -0.5668068772908702, -0.6942748699510067, 0.38828051018206644, -0.3516446362730196, -0.016805064968073134, -0.29908147533782864, -1.103141374219197, -0.5894645871618633, 0.22262638724358244, 0.2335537766219685, 0.3722317844974489, -0.48542945651794267, -0.3061525476911934, 0.1035772215593205, -0.25291547680701953, -0.023061019784403065, 0.05805350475147434, -0.04075639849813332, -0.08815907530902414, -0.2210696658083593, 0.1119372632356942, -0.03100841824252433, -0.17506339090175915, -0.06317577091287484, 0.09172714473681595, -0.16736540204361328, -0.2899749175784882, -0.5797418377156277, -0.6280666961110524, -0.19353445829362184, -0.0276642508921541, 0.05646287153525219, -0.3000704886657946, -0.20881911265688335, -0.7208685811910843, -0.5997414194868194, -0.3043158116063537, 0.48935440816256304, 0.09873587879132231, -0.10949735173386653, 0.0857540101871788, 0.46386339302417995, 0.4654825986790787, 0.5430368515025418, -0.9663363305536109, -0.07414154405475806, -0.1372189361503484, -0.39833332392120946, -0.4570521493505451, 0.19194457146868907, 0.10582541404704797, -0.5834902545084105, 0.5103686188408143, -0.6839376170755125, 0.11322034015670655, -0.3091569482553333, 0.011780832342995538, 0.6410562757153311, -0.036495415838970334, -0.4920511733805493, -1.013105529348976, -0.933242491874652, 0.12432436176696585, 0.164557762815878, 0.16109724483774895, -0.4557190532290817, 0.36281329932737405, -0.2576388826956328, -0.09547422174450942, -0.15398051254732625, 0.2402524890778467, -0.01976345562907419, 0.28110540538113854, -0.14812339720090786, -0.8277067940401314, -0.11740869180304592, -0.7604113755162378, -0.16298480451498176, 0.3563064542210962, 0.11495322768550377, -0.37551605123628923, -0.39178119784178367, -0.45298086947211974, -0.09999835351189922, -0.17126353403685465, 0.20849848441218344], [-0.5744671981720794, 0.09884440822189236, 0.09258354047937219, 0.36372256073951126, -0.09356718067531113, 0.29509624227704717, -0.22752493386594194, -0.3704096678389646, -0.42197153090468315, -0.3432445309108793, 0.2835473454735534, 0.5226405828165592, -0.3790137935773187, -0.20747438899984327, -0.4127344867107246, 0.3636207436187948, 0.6381755811225608, -0.27077247107540325, -0.012772773455068593, -0.2494281299564649, 0.05746708013479279, -0.6986156618363926, -0.40572582193171597, -0.38191784227173564, 0.3421208044285756, -0.1828302435876445, -0.5643040369506449, 0.2821594470367398, -0.05379373951277946, -0.3579589026025191, 0.03787007102656449, 0.08052192781092658, -0.10019043292133353, -0.27302450716992466, -0.45762230256697817, -0.4177881162223219, -0.4693974517634554, 0.41340669651537276, 0.10825984315129636, -0.2622516277754716, 0.10766171748790812, -0.3387667743454654, -0.12217083642478048, 0.5023436613947094, -0.6304180327056272, 0.1389436025782805, -0.5701984714200065, -0.4959258923778328, -0.17787539203459538, -0.2554651854377704, -0.4761555579679779, 0.045856996355877505, -0.2779356509444793, -0.10668843652519838, -0.6257197497598472, -0.178925594049064, -0.03714704337806989, 0.038851371072112416, -0.22707553588449797, 0.2533753175855585, -0.06225160148589147, 0.12593496893513786, -0.3557554078670297, -0.038846281923131686, 0.09959800178884222, 0.4066006361127658, -0.33536297017770555, -0.18138992269506427, -0.1383784645313411, -0.4515993036148917, -0.5008962321483792, 0.13555400749468613, 0.08697548297263936, -0.04176310676118739, -0.12514931555985342, -0.5435905913634965, 0.24939284857904978, 0.1536723958318967, 0.08767796834780821, -0.4073975370053301, -0.14776872399738522, -0.05357900206282636, 0.3512729457988866, -0.09102421639696684, -0.18217450675257107, 0.23417827644382627, -0.029784442834913098, -0.3455889648247836, -0.37714589079337907, 0.17966097941386636, 0.38392663069609423, -0.028400886286613948, -0.06587550952284522, -0.05805323154618888, -0.80418926062929, 0.025828045284942522, -1.1325882834003116, 0.4696874299303419, 0.15780345090677989, -0.3884607729457396, 0.10322336681299142, 0.18354678388203, -0.46553348479567125], [-0.41991278466798115, 0.2798169402839942, -0.2964346240711028, -0.16699585255983554, 0.4407296604719205, 0.5789021601789752, 0.8699496179545801, 0.1846412710467429, -0.575583944781893, 0.5800830478395524, -0.2598160106330708, -0.5380434050290831, -0.1253939210164975, 0.5642149476158722, -0.2716378196415802, -0.350662528291998, -0.08341709647568035, -0.34246311493305964, -0.37325886654267204, -0.3797832464113817, -0.2218037647951493, -0.40821589875670705, -0.47008799774576254, -0.6353441593699383, -0.0024234467237711026, -0.28709090685736155, 0.27772425741064544, 0.02950207975594553, 0.2417441935357537, 0.18340108738643865, 0.21935526874916267, 0.01720481246527632, -0.1734612149667954, -0.26516815205105343, 0.0044557291329717875, 0.3118667194994134, -0.2801567052405982, -0.07646967493561621, 0.01495264670693053, -0.3779393777836605, -0.11916895092036973, 0.18825581723570295, 0.036154879765746696, -0.23661097984168147, -0.426992532870929, -0.09084785449045285, -0.48263766899458493, 0.1161438676767447, 0.2540729053974226, 0.03287086956718752, 0.03198180057321864, 0.20993344699371408, -0.4924335636561655, -0.036766647191643916, 0.45179486860759643, -0.21493476982357218, 0.37235118078867446, 0.14261455215861132, 0.18405868290692745, -0.772969543774846, -0.10251505121781929, -0.10609838048532311, -0.2316408352751721, 0.05439317343242376, 0.09567954585897935, 0.5729077399336256, 0.095141481646476, 0.5042268724733787, 0.07619667704158009, 0.08910334414918943, -0.35105744140347933, -0.11065542964901623, -0.5214381908283569, -0.04922684918413747, -0.263435281884309, -0.2125251472122123, -0.06077119975322712, 0.3476066013050521, 0.5177902207629248, 0.4344533451921334, -0.8443683508272872, 0.36332185667790673, -0.011871937736347538, 0.233672785335639, 0.9181322939026008, -0.22399564360241378, 0.17191328975373113, 0.3014087617761265, -0.38524910818513247, -0.3648116101749221, 0.17162149585225492, -0.11549673989362967, 0.14776561780185557, 0.4499090845759601, 0.14400275967022522, -0.21020179804728426, -0.36433221356046713, 0.03698141285702633, -0.03951284541218173, -0.32056993744604906, -0.06028643605810689, -0.19858785223034597, -0.5383393805748328], [0.5682870974327812, -0.08615756578953152, -0.14353156477124546, -0.2029935125132624, 0.2785004811560993, -0.4248773948865952, -0.33762608717179543, -0.6336870198310341, 0.1537615119587062, 0.3623291581772959, -0.4254921628217721, -0.1312670375841767, -0.21483445741389567, 0.0805552745331768, 0.009991082860855304, 0.3039889249984537, 0.32514959755373835, 0.303020386697054, -0.2307179572027803, -0.1148160654827426, 0.27478435010137997, -0.16351614974587889, 0.9550205918604958, -0.3632868848748418, -0.1302140588046901, -0.5213318582237125, 0.15005506384501016, 0.8849712527006016, 0.16477346381308203, 0.3472800039344193, -0.2618768049189867, 0.8447147035462323, -0.11774020028018028, 0.36785886324225686, -0.01687477171523373, -0.09798573546938195, 0.38463561626396925, 0.23785967433531188, 0.2888734261369619, 0.34702402555154177, 0.04102033293757847, 0.18555364066399074, 0.09336709721692812, 0.6410031284271269, -0.11235796785874777, -0.12744722229553543, -0.017298016410688517, -0.07804593974597082, 0.2976656771641113, 0.18824770825425277, -0.3632306375676194, -0.10218275861138884, -0.34038504080868065, -0.18771746297832206, 0.05303744309970223, 0.12913536061831546, -0.24735392632017023, -0.5642004690005851, 0.14709106718704915, -0.3358907270415102, -0.001629927913089229, -0.122511253484469, -0.19294355292685758, -0.35977798175265835, 0.16754815946139426, 0.1696371069367179, 0.7812452893879135, 0.0898551620945436, 0.15962774302282673, -0.03798242925837641, -0.17357521599999348, 0.46844447466961503, 0.33674424778487294, -0.6990861301434518, 0.0342953265497603, 0.06702441153336046, 0.0642992638010803, 0.5963848357746153, 0.662606717642666, -0.17197776969236042, 0.17184483447861737, -0.6583780160984058, 0.2499401739622693, 0.0668976172169856, 0.4382627851923405, -0.22789759634867307, 0.18957443802171, -0.3068308875461561, -0.07301510062880763, 0.552218325365967, 0.3486669172732219, -0.31112982742418044, -0.45783395756705086, 0.25384988056700236, 0.2773254369329186, 0.22211369012578738, 0.014867188535298318, 0.005385630133054385, 0.01906409785116885, 0.18135885656169742, 0.19983551708837988, -0.06791020622848835, -0.4813243030668731], [0.21187777311586836, 0.1266571047139041, 0.05370634131949093, 0.058986100000003074, -0.12657797113487387, -0.30221811449501, -0.040083049343580826, -0.11479655083364966, 0.16677077872077692, 1.0122985360084942, -0.1223657691177703, 0.30197171324312944, 0.4456958120348047, 0.8797274902195406, 0.09509158907524003, 0.5568835307715251, 0.31118823982174293, -0.6490786320571653, -0.04118842600685856, 0.024145667559647397, -0.31205162624736343, -0.004734081398307381, 0.220028881448245, 0.2119809889922671, 0.16960479508608403, -0.16482616404464112, -0.38046748922131113, 0.04612660518762817, 0.13403840361948702, -0.14488781237438014, 0.31132437413726405, 0.04165635284567227, -0.5415876808342663, 0.02120779404960863, -0.6095734817596408, 0.246763351965994, 0.06630991010314613, 0.18326875356957617, -0.043058617299001595, 0.3328710696486579, 0.24458121338943872, 0.09205877976231733, -0.021590427667918334, 0.020809642020120946, 0.15833672193353351, 0.18322756302130014, 0.4027792717949953, 0.30082679028669446, 0.1879360314559315, 0.12956789562510856, 0.4250755500864802, 0.2317472274294307, 0.6982482198984734, 0.3834960809132483, -0.028385820992616297, 0.7093240342201701, 0.4970424245359761, 0.13182918218706066, -0.14561371090963837, 0.48394709683545584, -0.5099895838826465, 0.6810069919806829, 0.09301340627068348, 0.2712149433134868, -0.4356940484668864, -0.06154199746259708, -0.3762485448654579, -0.03583102806318128, -0.14652049179655058, 0.32212324288385524, 0.20931249827656254, 0.5519174661933319, 0.2774209971459332, 0.38197249627641044, 0.1812391967337298, -0.10872163393737572, 0.3206633605128026, 0.7906865013726433, 0.08477686398850144, 0.22526242672849808, 0.1784905800333824, -0.005504940234670711, 0.3087286092143341, -0.0027470860800183736, 0.4117904567908201, 0.8997680969081138, -0.4346260789613147, -0.07812928068665069, 1.012637286454888, 0.4772688324530154, 0.31326149547693377, 0.4469774431636239, -0.2574600637187246, 0.16580987794318588, -0.4099388760280642, -0.3504875829662165, 0.141258653039314, 0.13940854284204887, 0.1955547985928313, 0.4865390887546509, 0.2904501991302906, 0.026775001625900963, 0.42638276365120437], [0.22085101513957905, 0.13132871935655646, -0.4106544384344988, 0.09386704719535859, -0.35754162869094175, -0.4158457655025843, -0.1265794070451679, -0.03971956043780359, -0.3162970992550212, 0.06202070237599532, -0.09342391904079538, -0.04550029028216889, 0.5068137367298936, 0.46826460142410986, 0.30415407782768694, 0.10682120055840755, 0.5472527342201159, -0.07199437660631877, -0.11699910020935761, -0.4539057761288771, 0.252855856479305, 0.22262530055248486, 0.43492426033886755, 0.5954191209346412, 0.15146015827572412, 0.3210529779157394, 0.009726769124592038, -0.197187582224214, 0.3541038264021001, -0.09078461002380471, 0.26407395603818057, -0.18707401358341275, 0.2694798578416667, 0.48273699281133486, -0.7331478959236437, 0.016505298669658938, 0.13133454733192348, -0.22246704021176542, -0.16983261534803856, 0.2527712351657497, 0.037061547846607285, 0.32314849947111535, 0.36704763564693976, 0.12388698342681792, 0.22306091236819217, -0.20092338171772833, 0.20894780971454638, 0.12920487124829422, 0.02193005530830401, -0.10095755383344286, -0.22762234075779159, -0.59654448824367, 0.41476394664533006, -0.05838523710237707, 0.3164379559934548, -0.3491778713869763, -0.7148914209110797, 0.014780442316302577, -0.10962446961227629, -0.35011065413454273, 0.11609277557159073, 0.4188742043922728, 0.021876349802338386, -0.22169930724771808, 0.18349546802999858, 0.051617889071735465, -0.4593276820109504, 0.6897053789176665, -0.597792199488816, -0.1999118682159843, -0.715365395631638, 0.029449685311478634, -0.17692483398695158, 0.28102742712894624, -0.009630418530285345, 0.024615291763777858, 0.23139095098981885, -0.33672080960256323, -0.5108137546436392, -0.2309144998438235, -0.16148374185000433, -0.06662002034946815, -0.1639979468335903, -0.28361935115099257, 0.026052576720441763, -0.35957135898010184, 0.25617030447520406, -0.27094174920807224, -0.28599296820548964, 0.3856653266670229, 0.02682133306832104, 0.2388756577922023, 0.5030553287211555, 0.5079787797346837, 0.6201719863505073, -0.40765808096489237, -0.3559030009436993, -0.08710533998414687, -0.6882411101739752, -0.0632247688502365, 0.19736048535937883, 0.07705143814494354, 0.236895511563773], [0.271075023672635, 0.24066976082143202, -0.32985502443334513, 0.027476418157605556, 0.008953975225676522, -0.11421608321316762, 0.01933240866490893, -0.02747254583451732, 0.03990362688148064, 0.09565864399721555, -0.07767860808438769, -0.266785323886995, -0.028527764067939488, -0.0864765496191119, -0.31406251638493876, -0.5554204772718019, 0.42520651113374913, 0.03781857186314344, -0.32431576121046823, 0.13848510600895805, 0.14345988497702147, 0.03340196188355199, -0.3481443564886368, 0.20750459085644346, 0.5887657629337096, 0.3458862845567212, -0.2907087013364201, 0.09946564508153265, 0.26006054111997, 0.2016788288280726, -0.07550759794799483, -0.17590349877847472, -0.42006857221335187, -0.4615351985812905, -0.2372039390947152, -0.26584693057851927, -0.2087823600080856, 0.07748327686961962, 0.09410415017054115, 0.4509474715355295, 0.008769310494404254, -0.15545464815639481, 0.5421002025547789, -0.3722983957005725, 0.25103289408973906, 0.0961793818744646, -0.11277732328788391, -0.43249512549801244, 0.07114356122521233, 0.2601774509465593, 0.018522096598577235, 0.04116248684002115, 0.957478849383011, -0.3209910670202375, 0.04105867049961798, -0.29711167949349254, 0.05323835882445282, -0.0981088500407112, 0.693141946472641, -0.020520514985910926, 0.15454840270463005, -0.3714606835046619, 0.08328988465987049, 0.23098906125136387, -0.24920384122628975, 0.14899439529253994, 0.23708776881070878, 0.36758974445627834, 0.5965293933208017, -0.26549682965666616, -0.898008118514264, -0.1248196836240935, -0.02216158241186419, -0.04666287846821255, -0.4855337341311198, 0.1718569380139044, 0.405865104919701, -0.4919628683415745, 0.10262373605458222, -0.5529160633687344, 0.8208333394485045, 0.42516360088654687, -0.09787956661661601, -0.3123318042674944, 0.039152251480821285, -0.026526963169193524, -0.1315455304425145, 