{"class_name": "SequentialNetwork", "layers": [{"class_name": "SequentialNetwork", "layers": [{"class_name": "LinearLayer", "lay_in": 103, "lay_out": 100, "weights": [[0.3978550320633949, 0.3647054879756487, 0.021098173638635424, 0.02030516110875913, -0.045504979801212264, 0.04637272144681152, -0.006836136937116387, 0.2010899545140082, 0.7810926497488473, 0.3771584101776438, 0.033887763122897596, -0.29888400798585485, 0.16012175604904277, 0.520578528464538, -0.34452404386935276, -0.12313228438800809, -0.00784128905830416, -0.031198009621786944, -0.11324405286642102, -0.18849203427664935, -0.6404070153640449, 0.638516655029908, 0.08337664097315531, 0.16275662503323252, 0.3364308254585151, 0.01418842894845435, -0.20710648077884522, 0.07507269062111004, 0.3719566096655349, 0.40393478425650603, -0.32053041812708843, -0.11328645795080203, -0.9353268281947903, -0.23415840118601383, -0.6837461239737287, -0.13661166903384223, 0.5506374526187641, 0.1611669024311566, 0.4652795592978579, 0.012369113203067567, -0.12463305287598411, 0.43289435551149014, -0.1984370748114735, 0.4144428299781443, 0.16484551100216452, 0.07716345370648905, 0.020885907905624695, -0.32540931526825323, -0.3845888775933728, 0.17770351630275716, 0.5012267537750584, 0.30381872533059456, -0.32502098969375665, 0.22551883347056254, 0.0791806761502332, 0.5102617916910881, 0.05470043721467059, 0.2977030080389925, -0.040273478251014516, 0.17074150679690953, -0.24420445056822654, -0.31312160707293607, -0.2469448915357833, 0.1279977397551826, -0.3811885067482682, 0.3704302986257273, 0.43557336498626986, -0.06489026399602436, 0.2014820258239979, 0.43572725900964815, 0.02680951851448857, 0.24048293653870026, 0.20985261317788034, -0.13590348560730808, 0.10662732778011468, 0.03530685633411057, -0.23710698099408614, 0.07358774775625199, 0.1446473947354105, -0.07220223628580946, -0.1263553624267875, -0.21853464003030382, 0.45247997724979855, 0.04371335908054238, 0.22607551523056904, -0.256550127378323, 0.030823614568294667, -0.1877446718280153, 0.2793665645761736, -0.04576343155319912, -0.42872930819445226, -0.11161443084109315, -0.17252502965528568, 0.2874507607090534, 0.08319644345471525, 0.015328020240148376, 0.7570297112188034, -0.4829470395042514, 0.34518590703260155, 0.1315285765349461, -0.1959084641301413, 0.17082606636322495, 0.3474393312372837], [-1.3957467929411076, -0.2582487507275922, -0.4992274802925339, -0.0012577152317492716, -0.23286010057580153, 0.24304983863573887, 0.02167031386641577, -0.37668112742057014, 0.6927508828828667, -0.05030652919980668, -0.1419537820434357, 0.09366486201751723, -0.0013082857239480165, -0.5754637853570178, -0.4444794532203682, -0.11946330504285822, -0.18250504628997669, 0.4271592861380502, 0.2741692051420232, 0.3242981916822968, -0.15232505600809315, 0.11387473038503697, 0.4815703526507883, -0.4751663777839869, -0.005356586008471542, -0.3618030103947213, 0.050559249737423984, 0.21491831531560807, -0.23183093015359954, -0.16778641974823344, -0.7604286993749656, 0.04712779952159994, -0.031334504593246805, -0.1271058632859826, -0.18913235430300673, 0.14763466180086057, 0.0355222668623536, -0.4504461618716227, 0.18824498415051766, -0.2091892780683206, 0.13985171810380811, -0.06285380061310031, -0.22009066396364527, 0.5154757466105502, 0.014835529999355767, -0.32390001888679865, -0.6033181506981047, -0.2698652215020364, -0.18991113361555356, -0.2900696732085718, 0.01595892387586736, -0.20516453815787036, -1.1126265942975369, 0.1489209740378252, 0.40306872715322384, 0.19602660364207117, -0.009069922684979834, -0.2672605859909353, -0.14937011566915595, -0.40203517070555356, 0.21741583995972577, -0.05297954613929493, 0.5192553698168533, -0.36756367287418634, 0.43339176396892903, -0.01771387837479751, 0.16127043341944772, 0.05132023026908431, -0.1444947497901482, 0.12399839184384535, 0.25570654167576895, 0.5452636723984619, -0.03428849658998139, -0.9162659353520799, 0.06280879189318338, -0.35406522113390243, 0.1107068972132935, -0.17584652940443996, -0.5087092045226593, -0.39752516920188014, -0.1452627750841114, 0.1267593127596087, 0.3183517327895243, -0.03858553612056041, -0.45473162945884626, 0.3237552885111459, -0.09483509309289347, -0.2050127554231786, 0.3102397481669373, -0.3646748184823375, -0.1341670636840916, 0.07570720604459305, 0.06830509490222395, 0.5030747990902653, -0.424277465932592, 0.07517578129706995, 0.19472551218778197, -0.29512794582751656, -0.46971813369422966, -0.08355846909421666, -0.004355573850232043, -0.24989174685337473, -0.345988955310965], [0.7914378934807498, -0.9509233588313201, -0.10313773534414758, -0.19114115184228692, -0.22991926215660782, -0.3858499229390762, -0.27702623454430475, 0.019156447827597817, -0.11453113688867762, 0.8030996883058628, 0.6932046581630801, -0.17541228363197517, 0.20330873911506767, 0.16867730526641142, -0.24829999543938394, 0.20554440799744003, -0.06470820724932135, 0.49081989746934196, -0.7119859981624538, 0.6029085789102547, 0.014466701841466577, 0.09355352559512638, -0.059714010768570955, -0.07485548232330023, -0.5659092045865065, -0.30038491149805424, -0.14624207713752008, -0.7367912194845084, -0.16433942543898794, -0.28821430842010143, 0.06004655611087337, -0.24969907319134094, 0.12413720071942615, 0.29828187885201773, -0.333276232302576, 0.24192965149393045, 0.09650360034690518, -0.056229784986346065, -0.3199403475106853, -0.20629198586472944, 0.11080830080336819, -0.059398868857743696, 0.14848324998002677, 0.008986848286415137, 0.252907469825049, 0.4003077385179096, 0.11556409733646153, 0.12293756951305204, 0.04155162728910273, 0.17713009523478448, -0.028456254314532345, -0.12016655083252803, 0.017151224718975032, -0.1847037736492579, 0.12679188592466395, -0.2635080708009771, -0.42526657812114677, -0.14122304359409513, -0.24376157075761937, -0.11389920016671043, 0.4130866921730715, 0.5415922654381857, 0.13468794754542754, -0.04842869784840288, 0.5133965366111809, 0.034047460258243095, 0.33743277768075025, -0.25684344380602436, 0.2715095571233282, -0.020551450336631576, 0.5462234555327876, 0.09226457950257416, -0.03244307423123613, -0.38233314225243153, -0.38272455319576487, 0.3993083135863941, -0.2916220794108157, -0.18874005836933314, -0.7134475870059059, 0.12325979859668112, -0.41300207593998894, -0.23450739000848292, -0.25242004172967836, 0.42673378495255104, -0.15150755952588899, 0.21533472077838373, 0.33359143151290777, -0.4412829745368387, -0.06815141419563149, -0.6022571180539295, -0.524232319250864, 0.20475843902137536, -0.47746743299382927, 0.009133864680519606, -0.6529095941018765, 0.18040038722800883, -0.4163696933163852, 0.4364352317436612, 0.048350989682433516, 0.22001158861553738, -0.22441100183918175, 0.06044484725647242, -0.11398823269206311], [0.12092708865052072, -0.5144447807866463, -0.13493197965060758, 0.31902820830480033, 0.3886358559614595, -0.20232113742406788, -0.3944994834744108, 0.5295433384881879, -0.46058639465950907, 0.32758360391827535, 0.23347225354646822, -0.4048655064880207, -0.3932497358856062, 0.09337143252967245, 0.584336049040886, 0.44140911948387807, 0.3790731049985579, -0.6273293943468432, -0.2470278302351381, -0.600228955052853, -0.4854851458858444, -0.41598450326202047, 0.15515685571348475, -0.042035569508949, 0.5440045355213808, -0.3151056476417356, -0.21605359758111292, -0.7408071510691107, 0.08162483639191191, -0.21030992683842525, -0.035805333678637696, 0.008185345862084203, -0.2018899488443061, -0.45763285780765384, 0.2736887867720764, -0.17375625371343498, -0.029019647039094515, -0.29749961342950065, -0.5803630509560387, -0.1873657982298114, -0.3013305615155573, -0.5114951290069076, -0.4803929675579529, -0.36852751494430885, -0.01037662569204266, -0.2726237132908893, -0.04719322946684303, -0.17708968368694672, 0.1512231065926111, -0.46498370583991955, -0.022893965020618537, -0.2099789817338824, 0.12494411773240265, -0.09285477232301047, 0.4429391500435727, -0.007237959992761382, 0.30639337468177286, 0.15038978815217952, -0.09797651940563598, -0.1451476734115238, -0.3168202944890574, -0.38889319182568544, 0.2973812753001309, 0.17803856013279687, -0.2823672571727249, -0.5587516791987449, 0.054461583847734925, -0.6681201167065136, 0.07634525644100021, -0.26991335314841014, 0.560108318153756, 0.7127771776970276, 0.6056321379326361, -0.0755533233781805, 0.06582617904311339, -0.19795411962329193, 0.1995369639390221, 0.050635332084216424, 0.5169828036597778, 0.2977022372117609, -0.36362299721117775, 0.17031496683126143, -0.396208405976748, 0.034926231339877746, 0.02715017251890084, -0.4771864702578876, -0.020397133851645523, 0.2918383179011551, 0.24793281651791, 0.2597120646846998, 0.5471901752479406, -0.03925735341278168, -0.9621536366477798, 0.501533029139296, 0.2558411379413272, -0.27333037408124156, -0.3958629542172573, 0.2868276649271303, -0.12356679229587698, 0.5197541594510329, -0.22186461691283435, -0.24104464497495176, -0.5793651606355311], [-0.2563037817391772, 0.2486205468040756, 0.22343533875938815, -0.3907692775060724, -0.22258487698894094, 0.4224532810707207, -0.04503108706973134, 0.1135967889552526, 0.08734384711532052, -0.2118324692270398, 0.0001171630785769872, -0.18487495374062507, 0.26892020919170395, 0.06179037603493899, 0.19153573986188124, 0.05809666585102844, 0.16370656818828502, -0.0534680608124976, 0.2546961692012294, -0.487358230977901, -0.03930841899233196, -0.033147268453810094, 0.5580872003246542, 0.03817709910483153, 0.07369896580021501, 0.2026357543411478, 0.11026887167738106, -0.24773888793569146, -0.12299921706628518, 0.07285068356580421, -0.039458096505077304, 0.29471261092416745, -0.2308835681109107, -0.5409359333703474, -0.79354594190964, -0.2680156703663902, 0.3451450937685422, -0.2030701392986913, -0.3983672438885264, -0.030896746675632265, 0.29449681245876796, -0.10267710099608872, 0.3754134335215018, -0.031093366184980504, 0.5556374011973787, 0.09758286917690051, -0.19052295035389058, -0.2129318292330789, -0.48238921501121207, 0.031949161994968285, 0.1030965180172188, 0.2199141179223865, 0.3815291209351435, 0.5044967045274684, 0.3306521341679536, -0.5972214869201891, 0.2094729997031966, -0.3204299611119763, 0.028388807340468742, 0.48088709992659, 0.3309134549336878, -0.02802261219158911, -0.34055245561580455, -0.11323995550054824, -0.18609366389810872, -0.47505580986960994, 0.45104300362798816, 0.1300645351057463, -0.19424534909151372, -0.31256685026052144, -0.045797349058904736, 0.14736008812130494, 0.40406936737840227, 0.0646224431881856, 0.3060357475248692, 0.30463213439464093, 0.13764878985005416, 0.2968742422168381, -0.1635630622565361, 0.1273431366605126, -0.0756755342107535, 0.035903755650850015, 0.014938492070116386, 0.14270512523799567, -0.02427812046141599, 0.045833803849969504, 0.29397683088890825, 0.15865684127082225, 0.2692483099227169, -0.12314743389143011, 0.09185414741348014, 0.4427273070066669, 0.2526320968079303, -0.12978041426009984, 0.7875915081951037, 0.3750985185426725, 0.09265270828169535, -0.3523858344532083, 0.1263402765961466, -0.3784114650682269, -0.08181732018526655, 0.03760415711282617, 0.5323267789071631], [0.6978949905569193, 0.0759691472907157, 0.15259185204650963, -0.03518504616975466, 0.18673425779785996, 0.05730203480486736, -0.4179627426855308, 0.41443090353996853, -0.07344830136646485, 0.024184895495461937, 0.14629372909109295, 0.3147486750277861, -0.2768179953403149, 0.10952455059140079, -0.4842366733143089, 0.25613353813371376, 0.7350748438049661, 0.18414448903761327, 0.2713905027726804, -0.23520143499192203, 0.12255096566297156, -0.03961196309018119, 0.03300464476185511, -0.23382997825441668, 0.13701124172830406, -0.10138437934489117, 0.3843030020098879, 0.5149492876406023, -0.39800610446496537, -0.02917183988276298, -0.35734087610275556, 0.281044081073874, 0.15253061813461777, -0.2984743621640534, -0.04500042829859748, -0.1858575164209077, 0.019579154175908397, 0.017026816851554605, -0.30169543692460826, 0.7465033645043455, 0.1861616332977084, 0.05172553000948409, 0.08601536120740814, -0.200392452687099, -0.5452789947143234, -0.05909840541866675, 0.3880279913257906, -0.08489881581432485, -0.15954713317117517, 0.20314890116033377, 0.9853440049838118, -0.08805167869490474, 0.619191807189912, 0.020299493030772303, 0.21083394732435423, 0.5565804324159924, -0.0606349087548406, 0.14043438923588694, -0.15147049002703458, -0.2568940585372144, 0.21959578720083409, 0.061500325103724766, -0.22506252629322446, -0.34526016464142784, 0.15825439079476206, -0.16744172123707066, -0.5089831467850428, 0.49180471696551054, 0.20248334527041265, -0.06852544293313091, -0.19547490249822236, -0.2684412340594008, -0.5606881233416966, 0.18537722046829783, -0.5572291885431475, -0.2257981518269569, -0.013652304351456519, 0.5462312075740555, 0.021915362417773462, -0.27806835420524545, -0.07631110835157669, 0.05018295701356154, -0.013510899001046732, -0.6122203107766199, -0.025353812403953447, -0.062210539454483973, -0.02181890394276904, -0.25803313590561305, 0.24910904105000087, 0.7820810420808006, -0.5720555149198601, -0.47768187132737144, -0.32660642899117687, -0.1811882668161928, 0.10114304986357261, 0.15812811144933536, 0.15514577491231019, -0.2544990246297853, 0.296401500137338, 0.24277209440723033, 0.06650943733472904, -0.060840927518956846, -0.3548009401369926], [-0.44572763762344775, -0.3946192646971717, 0.052095614614239484, -0.18890683207857117, -0.5558361927274611, -0.2583245478655564, 0.2836890580683642, -0.012712079389627595, -0.6688829866587683, -0.8631902268555701, 0.28032506663658374, -0.23493754760590038, 0.32714976937883233, -0.079507523952027, 0.45707417743148715, 0.3563177349702958, -0.48252553516777436, -0.675641217392492, -0.013603468340265648, -0.5625097835367685, 0.3546605639502192, 0.006072592480352337, 0.016252316072702604, -0.10587192504330978, -0.28442881141382914, -0.7035404368967647, -0.2649117280744573, 0.1762048490624618, 0.06798799103447307, 0.17302291333748104, -0.28206893164297175, -0.192097926296137, -0.2638368425993171, -0.08285281870812129, 0.09345193324877817, -0.07527498977195012, -0.9350492749647028, 0.34825810918669686, 0.4709313045142515, 0.23895596096446187, 0.014612602469867448, 0.16980429555805807, -0.13925143723749878, 0.08035768135295386, -0.45005888700766267, 0.3245807166559413, -0.15445597995098964, 0.19369167813770893, 0.1497225105118299, -0.6295344132787172, 0.06113205646195414, -0.2513313694211347, -1.3376599573570955, 0.008279212782125392, -0.18278443692267024, -0.27989049874135435, 0.07257638223231067, 0.2538574458148799, 0.02375830519513761, 0.3477508071688586, 0.08583297207490743, -0.222593515504928, 0.17606500823737123, -0.31245406899241424, 0.2871979353345299, -0.7585074977373264, -0.015070979229237903, -0.17659429489721182, 0.05447410180097249, 0.0014344030906932315, 0.3349571277851608, -0.026133166187486102, -0.1911147952508757, -0.8464358315712688, -0.21325836284142416, -0.0978878597710497, 0.22783988999083066, -0.48593088807396495, 0.9612742310082137, -0.0631296462237061, -0.26487922404280345, -0.22800873884478054, -0.023585987287558344, -0.021565087613778365, -0.2358488520662204, 0.043126078544844064, -0.6961364907070147, 0.2893421497917073, -0.21977582060360387, 0.26535183213570673, 0.19310656015417532, 0.5157070625600437, -0.7226748826083348, -0.09700167300791118, -0.342859937677572, -0.05338666621687366, 0.5788220938572503, -0.195455025564857, 0.6302211820507778, -0.12389700985373683, -0.23579830399590557, 0.3416588932901362, -0.16393918428583956], [0.8518229935152454, -0.6954879901075715, 0.15837653438382157, 0.5838768242160911, -0.3469679795676134, 0.17676759241689555, 0.5022711494970457, 0.5925539500023943, -0.020234263994880337, 0.14401878781776808, 0.4562161076622403, -0.14884978069368945, -0.08949678141473304, -0.3403712320988607, -0.20399789546395836, -0.3778951233677349, 0.19339890795604933, -0.13188978332704737, -0.2166658352736226, -0.473081854263776, 0.3878932711671381, 0.1481309155310335, 0.29328346046403764, -0.04666350830264362, -0.02205916164460207, 0.11582105435622066, -0.25384463209749936, -0.0896281678625815, -0.3301016899020527, 0.12800032885524018, 0.09117994106407813, -0.11343901094365601, 0.21679749626919795, -0.049074000324447774, -0.10612261507010504, 0.14688379458996223, -0.11386132754019634, -0.0932471666202451, 0.34165000946914365, 0.23206524302438858, 0.11260730423635594, 0.327309850879545, 0.4752025166499042, 0.14100701471319035, 0.20390255973120286, -0.10631995956008236, 0.3553906419944299, 0.3424221981704014, 0.4378223155586048, 0.37689770141718104, 0.5924644244587569, -0.265914048004811, 0.538494214484212, -0.3431068345641364, -0.07772383188587562, 0.1323653312221871, -0.2935143981977206, 0.22686877861446025, 0.15192639819395018, 0.04422057418227534, -0.006798175795351213, -0.11461701477478899, -0.5495390252407654, 0.12489178804808071, 0.24445644324639182, 0.3759263058278564, 0.10631186571762083, 0.04014299853089908, -0.09741758564019047, 0.07730031943842756, -0.10392634403978433, 0.2178841187726161, -0.2525137476582684, 0.17578969254154495, 0.009780184118305323, 0.5546342132373375, 0.049442102227934374, -0.26405669023388195, -0.38645789242837947, 0.3271176293373502, -0.23413798624497156, 0.5295476113604775, -0.522854649829812, -0.38901688380973604, -0.07651494396902554, 0.048351250603115944, -0.03135971937529667, 0.2305446132733048, 0.0772842274674485, -0.18187793438719702, 0.14185878496771376, -0.22391442077599102, -0.4353378672382021, 0.42790695031666903, 0.08248453043105883, -0.04494975936123876, 0.17656907207450265, -0.23135252930108471, -0.15395388865674356, -0.7128661741327439, 0.5036686127251773, 0.19058110692904498, -0.30969410134651026], [-1.1828202128180303, 0.23172769085196127, 0.2252606496659877, -0.8206297375235135, -0.010910125150394858, 0.1515787060283257, -0.18363679745527653, -0.5738068278003187, 0.11596954255985827, -0.48933921584199913, 0.07082787385034427, -0.1715295747433846, 0.07675671489218135, -0.1054203368331331, 0.020628740885501685, -0.24823487894825907, -0.1398114632291041, 0.12780795444889348, -0.057082112992857495, -0.6142701537621642, -0.4276462364926243, -0.0952458612371815, -0.1845207817837032, 0.04664819282170034, 0.33983620855337804, 0.47535621017141094, -0.4080143926314911, -0.17409113794714057, -0.03247296472611076, -0.07181592110584417, 0.09523533853746488, -0.11584118151202034, -0.6019109485624007, -0.33536915058461403, 0.10420563515064939, 0.017763557447702343, -0.3695468737957741, -0.18666167354076368, -0.07098191199041813, -0.4437112846650338, 0.19614170046118384, -0.23473541721643085, 0.008195747532748926, 0.34316710984203314, -0.1386875258507811, -0.30327198964838353, 0.1974000231703982, -0.04438859697665822, 0.06945084774470066, -0.06592849650821934, -0.4585297190613611, -0.1850486747786945, -0.7824321018744201, -0.13455997557422053, 0.23704002471716062, 0.3127078161113527, 0.1901593695700008, -0.17221564821436203, -0.28017899861700807, 0.07713737713537885, -0.12409402339074453, 0.05069411163130221, -0.2586650096617463, -0.5143668883660006, -0.1388732860228827, -0.06626053484758422, 0.6894059407857792, -0.154038202543637, -0.1384748051331299, -0.024982831641986503, 0.06695736983615132, -0.5484951501144885, -0.43076197727136756, 0.3759004167305419, -0.06754527532604582, -0.1666966906706811, -0.8863481987574007, 0.2610290054440781, -0.006162315430254216, -0.2925922430739725, -0.4665368053547497, -0.353092145688752, -0.024525382046675533, 0.6794678557275081, -0.261940591632879, -0.34078085920318785, -0.42703688663754064, -0.33248019944938945, 0.21608982389515008, -0.4663414012248025, -0.5035714277169907, -0.48836401248707967, -0.18994917398995995, 0.06502710069588231, -0.4894504404353639, -0.7057737116610271, 0.005806901222630596, 0.5155887406835078, -0.00972068222434374, 0.42507120104738766, 0.5729352320980237, -0.3761761841484682, -0.06417647014271415], [-0.23304660703414487, 0.2676689094665638, -0.1096853967041605, -0.24914228512966, 0.04252227134279074, 0.5594652810641035, 0.00625703306657107, -0.30620161450385996, 0.07066399163918581, -0.06848601393553666, -0.06032097330931492, 0.14192273251844192, -0.1535935068138551, -0.9898391701393424, -0.5233852473813856, -0.28197285520073395, 0.38364937327259074, 0.04388111162778904, 0.30861435570858364, 0.14583203284234467, 0.3000803268070521, -0.08970897260991342, 0.08643812419751888, 0.19350909109559208, -0.286722569510544, 0.4655021319337896, 0.1725920610518031, 0.03952170501452036, 0.07684327439813625, 0.20873202448478967, -0.07405693646226834, -0.2132650934227317, -0.17202051606333937, 0.11713181880495052, -0.060406735456309354, -0.0392959870826642, 0.019241896172353327, -0.12309778403703063, -0.22765974055229152, 0.19544043267389596, -0.12733785787422283, -0.2149268239202974, -0.656608186137511, -0.1302193328543386, -0.021928592010982444, -0.10473224819776712, 0.07352530212884498, 0.07737577497659887, -0.3724123705823166, -0.23544892677371387, -0.25501196248549046, -0.4385037239805779, 0.14300225303430675, -0.2857960585607291, -0.49312155542319414, 0.559373985248489, -1.0210718403802967, 0.44912835087675373, -0.3040214670305002, -0.1298174352745949, 0.19807559643117242, -0.21972329724745338, 0.5108719197724867, -0.014728095595959313, 0.34454317419484537, 0.29546696057058586, 0.005737098013826044, -0.4260881397270021, -0.30899457716613904, -0.14643415613441946, -0.25156746123648166, 0.16300707746707085, 0.3574173389698136, -0.36033416413951586, -0.10256806362682709, -0.48754569741296966, 0.018732589603356446, 0.39571128453721943, 0.07409719626666501, -0.06716134836975032, 0.017563581776123775, 0.02161952834755506, 0.029377797793431616, -0.4473295595556614, -0.09679561320387546, 0.051117882514250264, 0.016760696876476563, 0.0452777525963372, -0.6846047845231477, -0.8786696171779173, -0.5328032421432489, -0.2497804657738229, 0.4018029686509047, 0.0262550601973845, 0.258101874267188, 0.07984794791510733, 0.01791909355258912, -0.23527132976232235, 0.9883309793806984, -0.14369634903104553, -0.43854237759100706, 0.5187334059194436, 0.6803500277830462], [-0.24510044741340048, 0.24146558118543227, -0.18039582924637249, 0.33744230423525345, -0.06403936050875779, -0.2781179086333888, -0.459918710901876, -0.2033590299202723, -0.42293309862263045, 0.04584180398845812, -0.2921519186486717, 0.3864427217081521, 0.4926911279621208, -0.18470306426652763, 0.5613934004994166, 0.003184466562502282, -0.06197921771164654, -0.15081070260854118, 0.03421674275918328, 0.9312974533502131, 0.025640123308488406, 0.13071105878830624, -0.018105180649768612, -0.25325322691561974, 0.1524796596107871, -0.2413414959581975, -0.13276584939811117, 0.37438822052477266, 0.25827127654809307, 0.21930473844720003, 0.036671691160259166, 0.5623630175771458, 0.07687912881172347, 0.34749412464059887, -0.04031854646501925, 0.2576912414200688, 0.16574704605951313, -0.31955492646872935, 0.3749049949837989, -0.23523798666201592, -0.007799432308227645, 0.3203292823768318, -0.11892875060570854, 0.2711061903007691, -0.02014079481303085, 0.11357722592926452, -0.38097664951194804, 0.223330411441254, -0.526532708639739, 0.06298878852224943, 0.3652437691804098, -0.30754705456844134, 0.015454331857464813, 0.504312300933315, 0.24542329435889393, -0.13378836359363755, -0.2556833768243404, 0.1600434843136488, 0.6504029320198794, -0.2072241351560944, 0.2467982304076081, -0.6150620751536359, 0.18180086491550893, 0.4654575498958409, -0.3281824011882578, 0.7410323601197805, -0.09628477256873486, -0.1421341753661059, 0.29900802545451416, -0.38946668524868777, 0.5682449610884049, -0.42097253582757105, 0.010287567853905142, -0.1310633908105424, -0.6401855246884656, 0.44194519632859897, -0.47825501882647653, 0.28607125936751393, 0.694807980607202, -0.06449631432779816, 0.17594955235934678, -0.3673963459742049, 0.40076402726150007, -0.19337870705940438, 0.3873931342146978, 0.028056727821251324, -0.0692139441217003, 0.42006333932643874, -0.14178222307662328, 0.33518659817376767, 0.03088091555151582, 0.09118018466773603, -0.4032599381320165, 0.4390532985435893, -0.5060763797920157, 0.4846584534534606, -0.18494990810189577, 0.09284244492561829, -0.016814865748812795, 0.2823506547998757, -0.024580425938429754, -0.3175619692242509, 0.25690130597539956], [0.1171162020985855, 0.060588046333266976, -0.14507468549744784, -0.7271952014730894, -0.38075037113212507, -0.11837262776402144, -0.34831550399466915, -0.3890298964958994, 0.11759191411936681, 0.23976591233504554, 0.5551701549009906, -0.03445700769983224, -0.6099856790427588, -0.3392971961135485, -0.5617016052822348, -0.3361104224198789, 0.16780433008190015, 0.37231422239558964, -0.2520420016214575, 0.527493438999076, -0.1265479174556034, -0.08452197147231082, -0.009339550067836605, 0.21678628386638016, -0.43679142378140745, -0.11072063249095186, 0.11335720104940643, 0.22253452812379754, 0.48609048352025364, 0.16964640189114746, 0.35722512988136934, 0.3631665618501927, -0.3967029437318652, -0.08341617122047691, -0.30538506694059686, -0.7079999820451639, -0.3207717143763356, -0.14560922536274806, 0.19181181248765247, -0.1106267674008819, 0.07365862692987055, -0.02262512125453468, -0.19653174001907597, 0.032443396077677704, -0.2970130758571342, 0.032137907549550246, 0.2666851351486293, -0.6644315006496563, -0.1440202221330132, 0.2337881287478525, -0.39553290830625104, -0.024655225286971717, -0.7808960935423597, -0.16065256483133766, -0.3114653198627189, 0.6358866975436095, 0.536949417665359, 0.3524596485145438, -0.3391641243578971, -0.028076623620855175, 0.14146401680952606, 0.2084941828969918, 0.06981160285601519, 0.18949235408407913, 0.1534996509858584, -0.4842909755570062, 0.19109065062383795, 0.5712694816064255, -0.13406451090310614, 0.031184321163493456, 0.6096456680102076, -0.15977916057647085, 0.5296158894808365, 0.6836688954658775, 0.15488024084604668, 0.16729003803197626, -0.6099174220257297, 0.23949438976307247, 0.12587002580281703, -0.1310043620435801, 0.2779969101772366, 0.20290352312957913, -0.09797969260860993, -0.5286911325872863, -0.24822907797711288, 0.22841667981926744, -0.3196166263302625, -0.17996843671987411, -0.06050937081321819, 0.2943337510153936, 0.4639682739293893, 0.3423700306758065, 0.08747019324509132, -0.2324979274647357, -0.4224840913135994, 0.23342928019967155, 0.10081121164374307, -0.17520188303676543, -0.24766405712986764, -0.4409953314560793, -0.5009494213404809, -0.4396194738848613, -0.11193246334657168], [-0.28871516344215864, 0.36627990835029073, -0.14386488685240026, 0.7182216449611982, 0.08960692534504232, -0.17698927440732895, 0.1023539689979923, 0.15769256588705108, 0.6202925957433627, -0.3381975418479116, -0.00580558730989014, 0.3531136905887547, -0.35852389079701474, 0.22796749957743098, -0.4672908666954288, -0.12869337905305167, 0.9587969325395894, 0.5659156876994812, 0.09471839270532392, 0.21766428486252545, -0.28518400914394837, 0.2757839163777242, 0.17705544953928257, -0.3854467567264479, -0.07037531939181349, -0.18893371922117555, -0.06513785880531996, 0.424051024307208, 0.18601269539922252, -0.07801440094448811, -0.35925821115722, 0.2814247302659203, 0.15424281691597863, -0.0025197782584257646, -0.14023372848695315, -0.14996094104982718, 0.15615417805691145, -0.23690987239761332, -0.5211405505128559, 0.1523092476026785, -0.23831553337752148, 0.2411251885430119, -0.08206312228544184, 0.0921912412472713, -0.006055330196490126, -0.25100740838857577, 0.3917923431656977, 0.21724234869153594, -0.30656110771315587, 0.23477432930875014, 0.23357548222407534, -0.07235637873245755, -0.36332853317762, 0.22828761480984505, 0.6728798613545641, 0.16943240420061556, 0.48454078599195205, 0.32343629597699275, 0.05184885626166744, 0.07449416783910104, 0.3466771135207767, 0.3111319824566237, -0.00924742870266292, 0.31177397296752374, -0.09634674295401471, 0.23286452121389656, 0.08377755432971828, -0.3453980011379264, -0.008762023718394322, 0.11624571237496627, -0.16103261501912086, -0.3181822221530227, -0.6039236820954431, 0.400084014804015, 0.935477293909058, 0.6114002154877145, 0.9209337013419795, 0.2598712395755801, -0.3782095398975774, -0.1023249543689673, 0.10781372104145455, 0.153295041073503, -0.0770912414183406, -0.36375578222299376, -0.16742755641967588, 0.07254819929478613, -0.17967823644032127, -0.017745053047647296, 0.10721344229971017, -0.5474659026478161, -0.15837763519027143, 0.6637819412974845, 0.01574649280045079, -0.011436515848788213, -0.08654888151648915, 0.21763135200159556, 0.17997499999542788, -0.3106252399991708, -0.41611464472820314, -0.1863072662961078, -0.12811023035815883, 0.060614193457181345, 0.8840100659154633], [-0.09358736994531247, -0.1353039259172136, -0.09818802951184584, 0.47620508932129735, -0.30726119846317235, 0.033165276716905084, -0.2657435539816226, -0.3889775135754077, -0.11543757801823326, 0.05903599264304567, -0.28816446893394304, 0.019921027534049226, -0.44664895729185833, 0.6854840057493009, -0.14711976508449223, 0.15175676964038387, 0.39021200470424855, 0.30578808549166286, 0.04562923656573049, -0.22764259085320765, -0.4359076339958444, 0.06543142237939593, -0.7858955362682566, -1.1254909965856787, -0.8531682656760935, -0.33565622832638525, -0.3652540654077098, 0.39601487631266047, 0.12780322043227815, 0.03940096393113511, -0.46621869502913865, -0.5201474661439445, -0.21282302537611408, -0.05608534133618961, -0.22062292195327643, 0.3062019633619855, -0.01637603203359956, 0.058681690843594356, -0.12649957561518782, -0.30483112917591443, -0.5665262571233123, 0.1741261551500384, -0.2830918445017755, 0.15209787830077182, 0.011879795561952903, -0.21316263469918187, 0.09373907214229096, -0.3356411341079388, 0.18928310750603744, 0.1389403145854698, 0.22650709774761232, 0.06087981269514274, 0.025341885764964614, -0.5350437782371029, -0.6214778896051125, 0.45861246676647976, 0.010697968840359931, -0.06746320146888636, 0.06500345501695455, -0.15064994852565175, -0.20332662248489625, 0.39858118450367963, 0.0856798505692052, 0.20692711230158795, -0.6479304628648046, -0.035902047318376595, -0.21853044037188352, -0.21288171448630397, -0.2745979485502279, -0.20901229916534964, 0.04439929289586569, 0.1135145332426672, 0.027167453577095678, 0.2653691069322181, 0.7421636715078324, 0.48245013248303353, 0.13389965648708688, 0.3313986943721273, -0.6323550788434342, 0.039299954377552335, 0.34610398752435645, 0.1845848510323408, 0.18627838263146793, -0.0643361166276517, 0.043025055347348816, -0.028839667353827578, 0.4127810688505389, -0.1746990096438613, 0.6137867012438043, 0.07141393442422293, 0.919167081847096, 0.2641844429707344, 0.4144644461205067, 0.929014665930363, -0.39940443283675664, -0.32334906280544656, 0.05566407152063851, -0.429312483585816, -0.30934147455904754, -0.5838775404147623, -0.06877052664355474, -0.008278936661819001, 0.14982024266936775], [-0.43075081901976364, -0.12417332548314318, -0.06378171464084456, 0.05440205208960667, -0.2086704684475078, -0.09754875927591045, 0.18967481739647363, 0.312491427613355, -0.5033020553701113, 0.3392887981379737, 0.6273250801263414, 0.6182162368126962, -0.03918687698501902, 0.5647235861508473, 0.008297101922591471, 0.2664791494619214, 0.07018338608226962, -0.06882064853179175, -0.07542251105131213, -0.423838111473376, 0.2743626003019109, 0.24865930159299726, -0.2560575161148164, 0.17378290004056554, -0.06120786321459733, -0.17999404796383808, 0.3019250869610668, 0.23229946423363712, -0.05768822518778849, 0.022295827006222534, 0.23213664242934345, -0.21766031871015523, 0.08891106473019071, -0.05005630089889184, 0.10670601978068957, 0.28024618123272177, -0.19849497663292756, -0.00034120326202853867, -0.2190604568339825, 0.238391344029605, 0.26561643177512856, -0.21447837197858702, -0.3077660423367955, -0.25941816869372125, -0.11604917227189428, 0.23281498938203854, -0.158347482786097, 0.6803986137039963, -0.1396568542008215, -0.07339067604067681, 0.31818154969286006, 0.2600782609177945, -0.470876233383346, -0.10985519370539931, 0.4290551042093952, -0.43378144026424786, -0.1964497468737026, -0.12948931438494996, -0.0069449022511800015, -0.35045292632224617, 0.2585683442688831, 0.8267362447794869, 0.10806200887332718, 0.11040347000551164, 0.3315436333332326, -0.176384345056259, 0.371246052046335, -0.7202574472311252, 0.16473394163268618, -0.18061771266654378, -0.5207621260931437, -0.6011288835346558, -0.26507200981548673, -0.27784516740954046, 0.4723941298530228, -0.2825989539084524, -0.4516421596786633, 0.18488853196480354, 0.9534123472331696, -0.2767039481992854, 0.21611874707340772, 0.09680773744156633, -0.06374922721094094, -0.17893809157589854, -0.18241515158090874, -0.2351346059559085, -0.23601516042901152, -0.009709623074447305, -0.13095045048093554, 0.32178437789797304, -0.27605305601516233, 0.6736826565192926, 0.013955045323909109, 0.40397333781421696, -0.2605313952169864, 0.40452091444041915, -0.2751785237663959, 0.37236604374923465, 0.32987211849885545, 0.17825761297830853, 0.0021251646835920165, -0.03858055896309479, -0.30835601002947155], [-0.6874685391213585, -0.4844436358165126, -0.15633806914544704, -0.5182523479035951, 0.05121067885244308, 0.268192016541293, -0.5828126772207767, 0.3829187265847833, -0.0454943138846516, -0.4448108828571415, 0.015849127593797262, -0.25973104694995863, -0.3786116225716788, -0.12018051312294997, 0.2804931634999211, 0.8262151437088245, 0.43089108453814084, -0.5381491291857554, -0.5588495513645308, 0.05848134222933942, -0.5049598384887726, -0.16565643040407976, -0.403482259903963, -0.03554650684989198, 0.21262840360399698, -0.043362833405320586, 0.24188978022392982, 0.1352527269909984, 0.21244694255796942, 0.08042921002101168, -0.3060330073670346, -0.3108957140710808, -0.0172956055433602, -0.34473401794218733, -0.09946859145412593, -0.03915093348458861, 0.11115648120107215, -0.15356417022294286, 0.0381308253115373, 0.048708535371294985, -0.27571449852201213, 0.3311774701862018, -0.39502426275163777, 0.06728254003683373, -0.11342912114888723, -0.33188096500454417, 0.5715947590554876, -0.6449516228005275, -0.032921990765341524, 0.1410585585116763, 0.1458925300080812, 0.11142206267504032, -0.42884083414209495, 0.04337968712449033, 0.13388864984130933, 0.0503613215010847, 0.02309722239112795, -0.6322965618530799, -0.14337696966887772, 0.14856240381722705, -0.044195891634732996, -0.20586728436228974, -0.2824253451996464, -0.25430712364940555, 0.6160103596853149, -0.24725969908510237, 0.061509272162830975, 0.8673801199607136, -0.39370677040476293, -0.4551583154217711, 0.10010732444401858, -0.7710178079913201, -0.08526370886106402, -0.5779018916740258, 0.5720130608555473, -0.2705174927984955, -0.32946430285986356, 0.5043865152129304, 0.05028245490579216, -0.20404328463148763, 0.5911770733529411, 0.42177119819408626, -0.20544161738667344, 0.3574449380392876, 0.5727993590787235, 0.02323225088385515, 0.2997615615560893, -0.44756473855699896, -0.5369318577962829, -0.38676625178266594, -0.8548608025178455, 0.4707755164505848, -0.09710898420931195, 0.09759924467436126, -0.3799102660841209, -0.08053852437722799, 0.09906696706041938, -0.4203950835072148, 0.2902910293241477, -0.36059583336517115, -0.22750676726719526, 0.2219444012256857, 0.06965510809464293], [0.8235638800389852, -0.6295342343506132, -0.4280939610540861, 0.2606152134201613, 0.08070519692625255, -0.329237836073612, -0.34217965655882, -0.16861095562113107, 0.17049115650113067, -0.06373803365231777, -0.12279544308093242, -0.384572147363059, 0.35809973972243625, 0.10193397951460195, -0.35299460661938953, 0.12327428130390759, 0.313898073939142, 0.6586303893370353, 0.030229773154165935, -0.31472489158756933, 0.3582992484538384, 0.0542208879012704, 0.28339217177041476, -0.3390868680775085, -0.32375352911587013, -0.8016208932791968, 0.07607570022364349, 0.4319289424434347, -0.24928641890038278, -0.16600997693882086, -0.2457535555416689, -0.04629399376764229, -0.13573866995226452, 0.034007858758719305, 0.29849668303643184, -0.07222688832206703, 0.06349298093896058, -0.8634847463900489, -0.21938447876553943, 0.37063799100517913, 0.2692904392374309, -0.4403079749365899, -0.39863212519519553, -0.31849265376153196, 0.35886385735947746, 0.39380882060115835, -0.2868456388436776, 0.41445699905170547, 0.1024330666878122, -0.09350377914083796, 0.015834022119619633, -0.1780935550434912, 1.5936022365273972, -0.5490100220315431, 0.03402255491760752, 0.10351110526299794, -0.05827396743475422, 0.5165390358641422, 0.2369622601923695, -0.48382485211655407, -0.21067248750911438, -0.31256790150077185, -0.2654339412551264, 0.13785114263919737, -0.42458504249237883, 0.45993159275791334, 0.004434427263533791, -0.3124971941517285, -1.1079073200981668, 0.13521078873124032, 0.2937832687015391, -0.2881524837036114, 0.2820343976693048, 0.2859516814942121, 0.5366188205947136, 0.08935385529718295, 0.5666136606538498, 0.3881979763146871, 0.3807322273036923, 0.1287660997282061, -0.15290639027517744, -0.3403415832431069, -0.09621800327084357, 0.48468207847605954, -0.6075588619394997, 0.22672939422516353, 0.08566270159149184, 0.15623890640756338, -0.26511471408776505, -0.09162347696026395, 0.13495519403815867, 0.0662498551511425, -0.10232739728206082, 0.6289101437368638, -0.583060354112221, 0.29264576622850996, 0.07105400874018025, 0.2103381288376163, -0.30392723946699274, -0.5175869106377993, -0.46488797981852464, 0.25985778201619103, 0.1453354806341596], [-0.3925401276269694, -0.0621161066034972, 0.09582273771084213, -0.3036210397790155, -0.1595118998358462, -0.00481093384067136, -0.41608073994018746, 0.028331487873430844, -0.4215606392964315, -0.12358371968801447, -0.29495714517981825, -0.42304476945835295, -0.13675334753116067, 0.17968794349047348, 0.11464470588666235, -0.38524071903030255, -0.05754056003970505, 0.08851985157575702, 0.025400301772330013, -0.7106716174293549, 0.22535829270777707, 0.00465317658054103, 0.18531350533776386, 0.3882513399219272, 0.09918249571035224, -0.6138803220509423, -0.3435007110768507, -0.11748651820958057, -0.4853313084394252, 0.09460653475541816, -0.4083174713978534, -0.12719976997638702, -0.018393406969790877, -0.13957069808453615, -0.3045636732070937, -0.323080077007371, -0.15814961811951675, -0.2695863579748775, -0.4447686760881586, 0.07684668721290015, 0.1634117830741095, -0.2629279880458865, 0.7890561815411946, -0.08872306296563452, 0.16246628650554565, -0.41960462310194485, 0.012137388169751429, 0.4217353974509012, 0.1647343260294735, -0.03200270286087089, -0.15626003070965255, -0.1939139273609098, 0.012378533183925428, -0.11810142750118056, 0.02934838493218683, -0.02707566137848844, 0.6902108002190007, 0.19196219442477064, -0.18056094039917883, -0.08084119342156874, -0.8409567255136472, -0.08345951743004663, -0.05384796653576274, -0.09500895600096777, -0.3369441235454188, -0.11528932623049237, -0.34978953152109354, 0.5249068126286683, 0.008563580662433347, 0.2303434477843855, 0.385503402791731, 0.23903415242946144, -0.4990483928648984, -0.05804260661377788, 0.06436369190097294, 0.2595760276291229, 0.08598724117241845, 0.23804716418485072, 0.021814261366980635, -0.47899077120798206, -0.4735182204770757, -0.20502448691578748, -0.47266951169096233, -0.26920482560634684, 0.03423714767569722, -0.3098582144428144, 0.16087352282724746, 0.29944803582124724, 0.04721199669219688, -0.16762028885448674, -0.07128992654806997, 0.30871846961980853, 0.33488448718515834, 0.029763837699371593, -0.6175525067434111, 0.015866023720291448, 0.14467326792132, -0.0323016394302068, 0.1581121883021059, 0.6752180475632387, -0.5576243570665347, -0.6274222099890693, 0.32865611548207674], [0.8969173038886517, -0.8244969522262953, -0.05356214043947893, 0.09536333845638818, -0.15297916497257197, 0.912701344881527, 0.7217873413252802, -0.1024228320449947, 0.10102212630200348, 0.19507521691918714, 0.14127405242548383, -0.05316003591856905, 0.34718146964540525, 0.2624018136750351, 0.24433479730057564, -0.010418899232626351, 0.330524173578482, 0.6583967231866963, 0.461877090905829, 0.63002442812059, 0.22927038800738328, 0.6920540896691076, -0.2713196138039974, -0.21436647484056442, -0.03992478183153447, 0.32897376443651627, -0.025179766894392063, 0.7945993376896973, 0.4283945704089143, 0.3805599815308118, 0.3225886630738321, 0.6734079211681385, 0.32275014543332353, 0.6152287194091909, 0.663291186671294, 0.17242686978364283, 0.45699900831694845, 0.5866041735836861, 0.017575330931965723, 0.2754346716821821, 0.446431187121606, 0.05529893886053732, -0.15824134530735354, 0.01666119307291999, 0.004767484642012358, 0.3274142193498149, 0.25666865377022513, 0.8391024085013558, 0.0332601167556935, 0.07215608835077895, 0.4410520063960454, 0.18507563864225737, 0.7292089488930419, -0.020053500923821417, 0.003486178051638787, 0.14470339689208278, -0.2989983543323527, -0.27984590638056345, 0.2732091186705172, 0.30850440083830394, -0.282886858755737, -0.22499175883831415, 0.5815644287310082, 0.1448918864108257, -0.08096265976819528, -0.389768116442042, 0.3416703227878892, -0.4111005549177639, 0.37990098248736826, 0.020329613809686137, -0.37140554282171273, -0.40543117402348533, 0.015218345874683712, 0.031720456137165766, 0.38374914982226943, 0.6663872849069071, -0.03797219828660305, 0.12320039301425482, 0.17723375949599973, -0.6174518888518362, 0.19327540536110077, -0.19579081203820056, -0.6126697268946696, 0.6293764632696957, -0.012945774855940378, -0.20923184885071996, -0.09296176511495496, -0.15935726412620854, -0.02427156544099643, -1.016018128263638, -0.06493640134126914, 0.12473274368949357, 0.03793555470556723, -0.11607039054262032, 0.7069346957786081, 0.07301942821325454, 0.2551679337696669, -0.217712184588014, 0.5318099924065558, -0.2034300121149049, 0.4872822148009804, -0.185193080949474, 0.16228399915289934], [-0.38565298560954353, -0.5713803343376468, -0.3575891098520461, 0.37922835239344377, -0.12206827486518963, -0.5495004202262139, -0.24754506339791252, -0.15077470231112294, 0.4154692713489399, -0.7637217379332071, -0.20016045436682367, -0.08279762225131933, 0.12138863638640611, -0.7018454054135653, -0.4256051887785578, 0.27731504546526753, -0.8925236156605361, -0.13651593841913165, -0.4331916892601275, -0.1337256423310432, -0.23401368645446965, -0.4718113220874558, 0.3762555350479849, 0.18098406563121547, 0.08587727015749735, -0.8737137608672768, 0.0793193752687858, -0.12803351317936423, -0.3796113056875782, 0.09106596600324236, -0.21657257805962493, -0.13244634157824883, -0.03313126657918248, 0.048977181137269336, -0.18405285543428163, -0.11927859554919204, 0.45797343450363925, -0.24358334484796607, 0.45983996858229353, -0.19313209776362888, 0.06440876759245885, 0.3040700179937128, -0.17426707712369766, -0.33952498061617, -0.25626402291091666, -0.875558401084252, -0.3036187874045666, -0.7210236929181966, -0.28685755434169874, -0.20943690407856957, -0.27173496623541077, -0.1700549619865618, 0.08112364831814979, 0.06860758115001854, -0.15002273801033172, -0.4899745859422269, -0.08155846622534568, -0.21236148058857335, 0.0907834484314745, -0.15704126860106746, 0.1197599056899073, 0.07867097355290148, -0.4855787238479511, -0.7207208290252461, -0.06880993886003745, -0.08019520508528628, -0.6449291554990733, -0.02314021002448817, 0.03614271993730045, 0.15369746067529472, -0.5831918432258869, 0.009207463515944387, 0.1434263710608001, -0.5795197628932658, -0.5437483923587402, -0.25647122724416016, 0.7476845571060229, -0.6606996422817277, -0.6579376423487797, 0.11512554542403823, -0.3210283734883335, -0.18801836478261147, 0.22230204634501124, -0.11934740683656979, -0.3373696630812866, 0.4483793414232032, -0.30978194559909644, 0.23119944648803992, -0.9076718861157391, 0.06352281520019692, -0.09344106311015203, -0.7508185190469616, 0.011973137922409493, 0.1246252811716386, -0.25518723351629174, 0.16403721918022568, -0.8251632207565176, 0.6358334096578748, 0.5332857138560015, 0.37257202194133476, -0.4355602958751249, 0.8663166926824332, -0.23481365848125396], [-0.8538435800151455, 0.044153974017504455, 0.2934871140803734, 0.252385539459946, -0.12118589020935772, -0.4342544262956931, -0.2537024300591068, -0.007627172277700273, -0.6728202155527575, -0.1785231596342079, -0.4482151897027387, -0.2983140969869044, 0.09593401679474588, 0.028754500595257197, 0.8984347575697674, -0.27916375310796804, 0.05516868946616944, -0.13503476801261013, -0.13240792545799276, 0.4074367113276097, 0.2528393370746981, -0.7663112173128023, 0.22626446586697077, 0.09943308692087657, -0.6293808604023731, 0.16487789001393, 0.17842050617731064, -0.4671821204356644, 0.3328441498424627, -0.1544747734653637, -0.22591022976716268, -0.8323976653976021, -0.18042525590632183, 0.39008476296343997, -0.1699049826290712, 0.21448181519039303, -0.15158429272110602, 0.15548884496925594, -0.3966460267726101, 0.03268747229367965, 0.3004670358539687, 0.13291349982670003, 0.2662630475130692, 0.40251763091066395, 8.176837525939198e-05, -0.035208293116359084, 0.1095988687175921, 0.007935192081206792, -0.43835320890022716, 0.02670633538458734, 0.601251318331819, -0.0778051133845547, -1.3110320703115048, -0.04752150491216858, -0.13410997856870274, 0.015938915449812217, 0.46429541732195856, 0.1901730110589319, -0.6090329080174247, 0.21091932306151576, 0.04426751451652134, -0.47117206396995154, 0.002455325601060776, -0.13379473050450272, -0.2371773918665355, -0.47361942900495707, -0.7790026153965371, -0.39323118984139693, -0.19253714392191304, -0.022606092180410015, 0.4708484470448323, 0.18771597886233538, 0.013949014037526583, 0.6923416738883613, -0.3660451022836466, -0.5453425531176663, -0.3862749408121326, -0.043816144448474204, -0.30476238911572706, -0.029194864086421204, -0.39462662435633306, 0.10786333134397222, -0.224078404575001, -0.6470768845157893, 0.35669606450875296, -0.3309541968142176, -0.19427340246169142, 0.06584451338304988, -0.08423629820687982, -0.12332941670357124, 0.2510735362232703, -0.17213464779964957, -0.30051937940167694, 0.06197875769209751, -0.416972264967375, 0.16692461255667254, 0.05819332884535302, 0.13044166845453603, 0.11209091378071319, -0.06729124452171509, -0.5223920266029597, 0.14631318168139798, -0.7033480226827789], [0.061059215433961284, 0.3571256823120304, 0.05182612581768307, 0.3947750252199603, -0.2895046090491402, -0.6144496286750201, -0.8024872402896704, -0.21522018061801748, 0.054208366926124504, 0.19454350178742694, -0.12864397936377953, 0.14101154995843576, 0.5114975897982078, 0.029015757277947703, 0.2179832345959048, 0.572817292222488, -0.3649964634346188, -0.19018971003000387, -0.5528837775976702, 0.15226600628456188, 0.07761028215965914, -0.10052743365626582, -0.15448053537471734, 0.059119480645123706, -0.18575748958368837, 0.3841991963725185, 0.11275387861545338, -0.21471426431295654, -0.15425625525091238, -0.12854756318448277, -0.5779911735390779, 0.5595446252449348, -0.40513672894299724, -0.5134084156341565, -0.20056481268265028, -0.1059898578257992, -0.3549533813168722, 0.0562416876708685, 0.06513930460406896, 0.39791196366293174, -0.22906655264786957, -0.33041045202659214, -0.6050436692489336, -0.279112003378148, -0.38757366997713477, -0.32683122114880514, -0.46275746943698554, -0.2577339326554367, -0.5021977884678818, 0.27642877867163423, -0.28766137909134043, -0.2623118764946802, 0.8709045374194108, 0.05776768428826599, -0.09388997061052318, 0.22470268787301106, -0.047900096469203186, -0.3077320285688452, -0.5519742208513405, 0.007610581800584554, 0.4544979912212147, -0.6590710646953146, 0.35002673504729553, 0.05188828928048786, 0.23523861151119652, -0.527811124217976, -0.11185832309928044, 0.36827285260352544, 0.048677531075297424, -0.14334159822101836, -0.24686863113529003, -0.4918517697366437, -0.5035684475969902, 0.053444563925485855, -0.23411687754210583, 0.3979458341566468, -1.2504094369200414, -0.35701298172441565, 0.12257928907087934, -0.44237898388170466, 0.003012346263585737, -0.07675000316149143, -0.754777941155162, -0.3673609764769536, 0.09360657242239878, -0.06465389014577891, 0.30105164746396124, 0.3637508994451745, -0.022308686219902295, 0.5392166294096182, -0.04585325013859376, -0.52828297617709, -0.2783237804917163, 0.29249709158627407, 0.07891391105996828, 0.3027111799281337, -0.42117085837405394, -0.10405344756144566, 0.03507174825506381, -0.06985811858871649, 0.7458254943775418, -0.06156714544137679, 0.1914550566947548], [0.2573331420958339, -0.5641188053642293, -0.22495268287103654, 0.33605435011035073, -0.09717404370331818, -0.24594026205189587, -0.32999721900194123, -0.18600687597375715, -0.33852827387771944, 0.4773481351904606, -0.24415325526264856, -0.005070235130061047, -0.11299282449489281, -0.13909462100283965, -0.28879513134361356, 0.10978316776534919, 0.08493716622158143, -0.3763190422460346, 0.2899469790940609, 0.23743594083950662, 0.1878584591591853, -0.3706089931958187, -0.3561509994465002, 0.07006351174822717, -0.13781048678124683, 0.377436389935825, -0.2676880895542793, 0.2617411259124154, 0.07410038231591852, -0.3733207232885379, 0.41993575788611553, 0.03836708950061589, -0.6189137759108316, 0.1961572296199382, 0.10883231074565489, 0.6213971713173762, 0.2688983411967875, 0.3110526603733911, 0.592193523813821, -0.19869127667576245, 0.07050153298045567, -0.07662157866050362, 0.43751333897891803, -0.10552656663161199, 0.12034833532839458, 0.007392931077483916, 0.03583885156455479, 0.06696212847154819, -0.15593405610405964, 0.4145541330008151, 0.2615596696819504, -0.41307171653443603, 1.0872301584738644, 0.003386038325172249, -0.6100020342795355, -0.12448960781065849, 0.336927927662118, -0.004719695991272344, 0.47091241913249865, -0.37362547863791046, -0.298041319684211, -0.38448105236371405, -0.15896341148700657, 0.059190578650416235, -0.17971121602855095, -0.23464176932699918, 0.0464835928453708, 0.44195758810718494, 0.1714173257766731, 0.13738211175843015, -0.18232920381427664, 0.12114631295650129, -0.2455562302531636, -0.16197189303806303, 0.26203907664031545, 0.33992667465013593, 0.207446314006956, 0.2519858783554354, 0.05053689448622865, -0.10734701286383767, 0.12007681076272933, -0.4284298629206204, -0.06839779869609107, 1.078022819288064, -0.3407971007537196, -0.03850609737759499, -0.2702243605197062, -0.5677226832800036, 0.4447439466702132, 0.2710413718915903, -0.2207688543712835, -0.19273453431483245, 0.07745937314442058, -0.017554929606913468, 0.054389706335836355, -0.32933144915877877, 0.05580039309133411, 0.42432031322066427, 0.03273596456787247, -0.17153704925101487, 0.4025007414368445, -0.03350616591107069, 0.3134565664442415], [1.6559054411454985, 0.15373178347877584, -0.09011138063244187, -0.10168723108202236, -0.11607126496797567, -0.22431164489787064, -0.24889275886183174, -0.22172000631402308, 0.5616101624045798, -0.28146747492390606, -0.2213420348296396, -0.28727586457641835, -0.35922029374740344, 0.08551067599531624, 0.4477683898361889, 0.36392155072723825, -0.05677699741861978, 0.02713781918501229, -0.03222646196814244, 0.5274871484092756, -0.3482295858464326, -0.49979982159780206, -0.508851620510638, 0.443341367120532, -0.20089343233362092, -0.1986782082133687, 0.18462876140423207, 0.10554902209735477, -0.12811092912943875, 0.0270546706802865, -0.007184435427741058, -0.2575986947669772, -0.011834248858987486, 0.07023811058233984, -0.13261416996168487, 0.09033789844763028, 0.07579464670830292, -0.15271856293699296, 0.038311981486599, -0.21401424924416346, 0.10907655128568966, 0.2712690744957964, 0.29062589633119673, 0.026781849300945834, -0.4733238941738773, 0.0016353687367759294, -0.08455031341893213, 0.06211026413860769, -0.6785568263176611, 0.029552471988678726, -0.19105883697997267, -0.4067821428244718, 2.70623804828647, -0.17277163706373488, -0.36863924788397856, -0.31782242353698636, 0.06409521134127727, 0.09087671429168577, 0.10006202058384753, 0.13093612073423833, -0.1495660746792325, -0.051042617548038884, -0.3953353710053874, -0.3074112231018324, -0.9184706876856435, -0.5638603922791349, -0.22237724618189622, -0.4311236356710038, -0.4282997333390015, -0.10988261019990651, 0.6065689823958139, -0.03383773032858587, 0.2061374615138345, 0.5955920385908708, 0.002564892086218733, -0.008668283030977142, 0.18461502286778064, -0.223414854049491, 0.04754666877827488, 0.45965977639145567, 0.6154255665437917, 0.49964058801006117, 0.11865175293883401, -0.6909079633751057, 0.22489562321526577, 0.11902868681466713, 0.47386202236560404, -0.47674391527301996, 0.3122016255745738, 0.46892744295668315, 0.27640050832599766, 0.02619076114731128, 0.40622683501583395, 0.1221756416698431, 0.0032705118353260824, 0.3970668277190459, -0.3703007648988186, -0.36714895377193674, -0.19479160600917922, -0.1843694702299714, -0.27062264223749777, 0.04337966827436799, 0.11528408976215318], [-0.6624150424031165, 0.000393881253430539, -0.07850832157450802, 0.15263467972370007, -0.3442603000744601, -0.0017127688246461165, 0.30357635809598393, -0.4819905937667024, -0.1016168460642796, -0.06073413451298865, 0.11988674723703116, -0.46071440573698397, -0.438081419378049, -0.08882020867972125, 0.5449756748692292, 0.30423391866306576, 0.22939569757131034, -0.005479350823216929, 0.31687213381681967, 0.5720955005005981, -0.1951103823189672, 0.23115761515290342, -0.035490062092852194, -0.2744489258129826, 0.5035155583406027, -0.4356623738516472, 0.523132337957696, -0.037585246055841445, 0.23210285282817703, -0.126935505662125, -0.1358297537290611, 0.16480272521888742, 0.20498953951001803, 0.20995756807614271, 0.09259121042909893, 0.0012035115384375961, 0.4096647097228441, 0.1700517512090133, 0.1379321072707496, -0.06994613666446207, -0.10624174499446966, 0.18100237449807932, 0.2735798253582598, -0.18897280850163392, -0.297295062656556, 0.23966519003210493, 0.10806943783134278, 0.6832369882566512, 0.12832209514654355, -0.11134958882787326, 0.025629638224076913, -0.35622037088609254, -0.2478257190326495, 0.29605452145353667, -0.0821586482509804, 0.0013434330056618894, 0.7260530755697074, -0.1755988855531076, -0.2952337667446036, -0.6107374291286853, -0.25248655525271135, 0.18148160696264137, -0.2452153999965026, 0.049548443381721985, -0.3845715452692989, 0.6723527599816433, 0.14786259061964452, 0.595352161295756, -0.5925331228609798, 0.3306684187982972, 0.9350497150192095, -0.10264323893789257, 0.3474747783723334, -0.36105516456048026, -0.9111720823579882, -0.3878695926285414, -0.219306749699715, 0.5174290365850259, 0.12447429013548357, -0.377849073206612, 0.23037208759283798, 0.1106704971663434, 0.5716411249640968, -0.12725350980161693, -0.2084561280693712, 0.16075880430550588, 0.10047402062669226, -0.05839657090902611, -0.23562807304127112, -0.6759511517957312, -0.2935016075517776, 0.18493901002918997, -0.43163862522091534, -0.4348213585511943, 0.05820985287087051, 0.2853804580978003, -0.2653496301941571, 0.5337036487888439, 0.6972221350200642, -0.24307606474136853, 0.2569711596123686, 0.2438710499802455, 0.2257155578240207], [-0.4576540981534809, 0.2609452339141324, 0.03075653591358741, 0.029269575667705702, 0.03851905549086227, 0.12324960970833164, 0.05373133817121675, 0.144104136798728, -0.21656768735817572, -0.5047310258307967, -0.6659440011030621, -0.09915231254413132, 0.11152661962428151, 0.054830179036956035, 0.06937303115897071, -0.3804430455090124, -0.391023186505191, -0.4490525675213927, 0.07560281069102417, -0.03135908651677744, -0.3120124597696696, 0.4542831627427523, 0.03407529889640411, 0.5688839780045895, -0.5512186237944495, 0.28606512852986477, -0.5321102190202033, 0.34763227958401977, -0.19004091525018965, -0.014805857910540196, 0.31737715224830826, -0.10226622204550033, -0.2239959989445663, -0.08418579186223385, 0.5752658094299874, -0.5120137099648785, -0.5185453315136831, -0.007865351976655952, 0.1251207869388089, 0.012588469019941149, -0.25850620012013825, 0.315957145053393, 0.014121784057041946, 0.6016987170595366, 0.24874105260061655, 0.46212972363515575, 0.148307957342987, 0.11964992846272214, -0.26979427446591514, -0.31093317697418216, 0.24817866855827134, -0.5713347507020703, -0.5968473220870281, 0.7633586939784887, -0.07243915563415997, -0.2257511658176143, 0.18107068568408338, -0.20586894532021172, 0.3398115098963333, 0.020605494560091607, 0.27310357132988383, -0.10241290792969626, 0.11690716035218866, -0.0919414241741513, 0.6089262665754912, -0.021932041934336052, -0.46271179829441544, -0.43584024609620686, -0.3172264912860876, -0.33724410523743814, 0.18352794116595106, -0.21959776703580075, -0.26154355778292, 0.11384405911289128, 0.6527467721842705, -0.24067919217633527, 0.31882039699819, 0.06765503520903099, 0.15451713573592482, 0.2701676884301419, -0.23539720809162165, 0.05912593567221401, -0.5115380831716259, -0.5008700347912765, 0.014855847316728376, -0.09106330587630714, 0.23050439939184994, -0.4186682330553864, -0.09620397426739095, 0.17668839561372807, 0.006242385087705339, -0.0029193667524869426, 0.6726653182321798, 0.3533156513324816, 0.0009144823345193653, -0.3514659387167251, -0.3744709514670782, -0.10746245798753991, -0.3064519451815463, -0.1250119692586294, -0.08699814174355443, 0.11620970549047971, -0.12541784051767005], [-0.10255252606551067, -0.15039909317906106, -0.08450013111953651, 0.14747395870871136, 0.2697107542086447, 0.1659638183201426, 0.06711137748639283, -0.20943015291435801, 0.33186537660766774, -0.5061713364457074, 0.012715857383346473, 0.15216775655785866, 0.3707184317445904, 0.2035156860997829, 0.07076207006354841, 0.2669440111207523, -0.16357448170961833, -0.32554277919402885, 0.4318822474736247, 0.04512745810476895, -0.3803170710059622, -0.12379161761831102, -0.11499554055948467, 0.5919604357892253, -0.3471452516622632, 0.08071871748129765, 0.2586194947446849, 0.30662543051535346, 0.008540004678457273, 0.3730873954949593, 0.04685128169480046, 0.22153408047545306, 0.27534577029964347, 0.1199348494205581, 0.04047347541401461, -0.15710807977122454, 0.1146147341689763, 0.3095283627072617, 0.08903113363594002, -0.3398789657192065, 0.34332078641475344, 0.10900303329186624, -0.33096341805301566, -0.0579951133841847, -0.15045499330824882, -0.2821392116561442, 0.016038389595390782, -0.17335838680428883, -0.04048362732749372, 0.318483497800579, -0.21865274418410977, 0.24864929150393486, 0.23558891031730197, 0.1561346474889225, -0.09732598558498319, -0.660148904100163, -0.11856265041835985, 0.16451526631450808, 0.2035523994021631, 0.08445063595723139, 0.13173860270939564, 0.4702607204411261, 0.2220058518590957, -0.1803066853475796, -0.053579497109554924, -0.5324628855015111, 0.22250782484991163, -0.09277729408317852, -0.04663588440473971, -0.403767433444949, -0.12067194381359027, -0.21023714408833155, -0.4204876276157375, -0.3125612135136151, 0.36299669130558426, 0.04498551596739731, 0.3286070127438108, 0.2548370328728001, 0.09650000094841556, -0.2641804098908467, -0.01175537278038843, -0.07379521385550415, -0.14839352463959304, -0.4996650957041219, 0.005332926996441723, 0.28697717711734777, 0.012544817447667273, 0.03377824657024591, -0.2978863150126185, 0.3606009643723383, 0.43573607530408237, 0.18266043441769253, 0.2737931206670569, -0.3437835778851681, -0.2985391392491115, 0.45944578059729985, -0.9575681477978216, -0.30074211752204044, -0.03348771360590523, -0.05993640050177225, 0.027752038371761583, -0.19030212556940226, 0.11073150628669604], [0.05472839359589324, -0.27792512166451605, -0.4153764742751322, 0.04499062629046262, -0.1561907695019489, 0.04769768483056966, 0.16914435254708748, -0.11101059277369703, -0.35408567219390985, 0.10859633259953451, 0.07791398373929478, 0.18716789473275008, -0.28001672439771874, 0.2868311012703697, 0.30078219602163003, -0.19723053550721417, 0.5929389784804276, -0.0190514735677617, 0.2894867684233818, 0.196942291817415, 0.7406498241099277, 0.11287378260293221, -0.9325418482400509, -0.6673312899749619, -0.8785269082729747, -0.15930705254797084, 0.1790229879226753, 0.12791170268673344, -0.233994720464678, -0.27469664879694533, 0.00462258578284324, -0.3774347677358261, -0.3872756470962721, -0.5411417192743698, -0.459371920731114, -0.3857330566758097, -0.31057939231294557, -0.13522562355461692, -0.048846108724185835, 0.44078474645632404, -0.152069571375378, 0.13780429186531162, 0.05641918386610786, -0.30210290438736404, -0.1676104128915264, -0.3695841665692889, 0.20939811939717617, 0.0940656043160846, 0.04703774508574327, -0.19217995610419877, -0.343644457584109, 0.18907028932956677, 0.06502463867349004, 0.20837919229967913, 0.10119898034568951, 0.09599231210414352, 0.0918118396970262, 0.22799464996345967, 0.12105126172053171, -0.30018750720613796, 0.004879691311396796, -0.39628818247188824, -0.3318238802392867, 0.10939300519254423, 0.09245977232007117, 0.26603009014122886, 0.13476869848586587, -0.561141888820855, -0.6161322849073942, -0.24621303055383711, -0.08844904640972015, -0.33930326545967104, -0.25085677840654186, 0.778661420120877, 0.3693607385015621, 0.5908084916697083, -0.08676952438362656, 0.13229360857448152, 0.47433591434759775, -0.6128062637180468, 0.04951754250156976, -0.21022536322279461, 0.4867585415741519, 0.195910162226607, 0.1411318002437962, -0.05565500874877031, -0.17100108199743033, 0.4860398630224522, 0.33600274634780364, 0.2703694452152836, -0.16729246298885309, 0.4271622574894285, 0.18339994530828635, -0.11685316790528873, -0.300027467197365, 0.2747939405250449, 0.7389587866829765, -0.6902934030651346, -0.7402108657885651, 0.6366787163892655, -0.38025576554894097, -0.22556008367724148, 0.43491473079910953], [-0.14156458344133643, -0.41000909167124505, -0.12444309497905529, 0.47883844343317966, 0.477756181745925, -0.08984095693778599, 0.011518639585883856, 0.03644969863908456, 0.3421909600026252, 0.07754788494240712, -0.05131073391875617, -0.4275886661807217, -0.6762828576660268, -0.5288874821279366, -0.07372370918735088, -0.7042534350547431, 0.2182371121082628, -0.4526860015017024, 0.028783279164712416, 0.23477681952235246, -0.1681958028565324, -0.43130737734354085, -0.03057129425399118, 0.9121337811617513, -0.11964513224290532, 0.2251804963819096, -0.4724941470037354, -0.15637311862057712, -0.19353076703097283, -0.13632029982127558, -0.4488167082882901, -0.3545072742324269, 0.0625745693859875, -0.41616197423134865, -0.23492616746232195, 0.2210498769052812, -0.1916389404164293, -0.3784275319144624, 0.3187638874114635, -0.13784705213713186, -0.3519087756104911, -0.11084332768902391, -0.21274882750955296, -0.4303475290610145, 0.023728658001747883, -0.22501137959396347, 0.10510332094170269, 0.06346131932145638, -0.04889291166334135, -0.13378479680752792, -0.029175133611432605, 0.058170729349182736, -0.47934714183276195, -0.0015444661949643628, -0.01300092592970045, -0.3170895117461788, 0.04526349870269329, -0.46453485076490414, 0.09921573402290544, -0.6193165715330056, -0.1147006705810317, 0.03544987769065021, 0.34983959273635723, 0.5298067432174535, 0.5157163975744573, 0.14223855367857471, 0.454683521262409, -0.5107622455977684, -0.02262884197747076, -0.18592974653637245, -0.3783120434681606, 0.31394292605697216, 0.15749756604289256, 0.050110008066944156, -1.1525760814300965, 0.23008521814030966, -0.2999160956425864, 0.2720222658564063, 0.22299637999069516, 0.22207412810271665, -0.0013170285775790179, -0.12589265079473766, -0.36562297955430945, 0.1569946605829169, 0.42327103676868083, 0.5740790797260965, -0.6115803379983414, -0.17052372925282586, -0.8307339876463319, -0.3892153376510648, -0.8558917748603025, -0.041033832501837, -0.31287851878347733, -0.23745184561558835, 0.26519834287972804, -0.46674006322953826, -0.35058798874920477, 0.8945171088602264, 0.37316172319919905, -0.20787264418760715, 0.30181843675519404, -0.8269257352895805, -0.1586624757747955], [0.5780928359104902, -0.20188413095340343, 0.014148230161093695, 0.29116276917684286, 0.29502794485274086, -0.12567656587466855, -0.25538254076021794, 0.19454393899306258, 0.7508768216174504, 0.3336060455508717, 0.5095933104165462, 0.5764401238727224, 0.5509505308968332, -0.3113563446320606, -0.13605104051981803, -0.4143229475602412, -0.5256774571069686, -0.09294087665130137, 0.045684428089673, 0.7104311063007748, 0.35106308331136027, 0.011806561552680369, 0.8982053180913095, 0.26969124052265914, -0.08203198619949219, 0.6979710004320755, 0.3038784729055364, 0.2753206259085853, 0.25513515718354596, 0.4008874034698984, 0.4338000544612252, -0.2466411299670715, 0.18846375091706502, 0.34112510129094786, 0.08881361232670557, -0.3589431814017347, 0.2642256700244758, 0.41868663997902256, -0.17097779398505897, -0.13901841670175757, 0.08216018702389, 0.20801543515888724, -0.07112361304504922, 1.0522119480936325, -0.2876139868607733, 0.6103806633846016, 0.10253627227313558, 0.08732371759133453, 0.1595506118457782, 0.02960226345766807, 0.19141898940229693, 0.3504415267519927, 0.33491165292392144, 0.21729779104911554, 0.5125816941391237, -0.02923750872297154, 0.24691835755954164, 0.4164830481789421, 0.12386402511096659, -0.03444664005154728, -0.08072282986464241, -0.6298003099611282, -0.1681225260560006, -0.3581185429494386, 0.47495818066135115, 0.12692631414966452, 0.12385485942057677, 0.8762826476290204, 0.8410295795239767, 0.10572438100229554, 0.07601265570440192, 0.021411029824762496, -0.044591486339063686, -0.3482191182851136, 0.039974848054667764, 0.08407370441532008, -0.2665023673287575, -0.2719593297546994, 0.10305373352349141, 0.1476470260603862, 0.050828414385971785, 0.31002471785049446, 0.6504795836264963, 0.2711431675758058, 0.13883760560512917, 0.09567763267667509, 0.7462048010997818, -0.18684904510553424, 0.2001954827192702, 0.1184031965122223, -0.048168777796529574, 0.06892984032885341, 0.06514230453948129, -0.4810223027060499, 0.19277751400829565, 0.00907586986731593, 0.22191358891456575, 0.11201618525761427, 0.17773802935880625, -0.5303343800957664, 0.5053536811445243, 0.3976068120831917, 0.46981183800040727], [0.5185916900403051, 0.11154511606472362, 0.25336638568061004, -0.33927240406846754, 0.04603929418458409, -0.10725163046920029, 0.26572260926714286, 0.6439977658651668, -0.6405752791404657, 0.06886383091813844, 0.19594719234218044, 0.07412104946204777, 0.1959475794462515, 0.16046339996704576, 0.17971752490619977, 0.668249990244589, -0.05634151216025866, -0.35012058797183027, 0.039051959712980804, 0.04611636114747161, -0.11143692806808006, -0.2675912031520575, 0.09221095968910321, 0.16187526337920663, 0.1382986651391855, -0.1940088057248953, -0.19869071289516857, 0.10036459642505495, -0.1384897259306356, 0.17120997702797033, 0.13848015572742664, -0.08957127588830743, 0.1453631161326073, -0.17177977572941938, -0.1772834688942882, 0.0879724136735846, 0.2626561456465758, -0.02434583392248493, -0.016818856287470624, -0.2521572316387565, -0.15442990323931022, -0.06702633566941624, 0.47698499321168114, 0.3046734450854919, 0.04211263421765235, -0.17415311062922428, -0.08368675539102481, 0.40948138190940275, 0.1882747572454219, -0.30644408490789943, 0.046935104694250274, 0.33502709923130464, 0.7296922746693204, -0.05713608485534266, 0.06782325304790328, -0.13745182721086285, 0.419001845805744, -0.20711697409283586, 0.05224383742997107, 0.06926353736361572, -0.4903640689241115, -0.027704288839537794, 0.48849313431398395, 0.3907258909322967, -0.18257983367307065, -0.20284797949541855, 0.09191970095440304, 0.12893181590901326, 0.19893592153907552, 0.17896436522410666, 0.5584655843069205, -0.5671395173520855, 0.5640181369147048, 0.19594983847112726, 0.43244497728119796, 0.37253334444098457, 0.5363066683443528, -0.45027323655214424, -0.2300382424177989, 0.3967792209041545, 0.1409516116117652, 0.14377101623183985, -0.15823548173524943, 0.10887808806766387, -0.23267687253283684, 0.1997421095267694, -0.1668762795509514, -0.21840396673603624, 0.038721759444322774, 0.3914128788946726, 1.0973821576247604, -0.21864711948104854, -0.7150169356989916, -0.38901746850964386, 0.539720812393775, 0.02667985218087174, -0.31450806014779137, 0.11477866117605375, 0.15028165413700725, 0.06380244009294249, 0.1714220733270109, -0.19176828011863822, 0.02845763567644855], [-0.12661665199060604, -0.05194335377769659, 0.05440371294615466, 0.4271457648943649, 0.006758604684970218, 0.19608527961918512, -0.21285283639821304, -0.1435412176226618, -0.0038515667568587756, -0.13905144986299625, 0.358388890253958, -0.2582767664816036, 0.09885301061769328, 0.024088113525904457, 0.3146339628814423, 0.1414905823165328, -0.6570450660328568, -0.44205495574240916, -0.9021467611090646, -0.22962652299346378, 0.29764072908720096, -0.36851632069094603, -0.3080807650036775, -0.10677502095831648, -0.09670619706413588, 0.35071225435427344, 0.3470966215804962, 0.687370762571082, 0.6148383195921243, 0.3133525866528585, -0.18113602536831222, -0.37051619025063515, 0.21338698936575062, 0.03654878739430456, -0.09690364787051979, -0.0067510402254312915, 0.04856567466289566, 0.5409924090186791, -0.06716938186237803, -0.49898068159915204, 0.06259551258437375, -0.371040005421638, 0.10034532791269422, 0.05424456982227564, 0.052137757378559225, 0.08470189531521045, -0.23625830176376866, 0.26594917491421743, -0.23713965929802316, 0.06684635813512892, 0.12560845976891744, 0.23800242602437066, 0.03668756603418804, -0.39197405098297305, -0.05395329268498839, -0.18747612932306995, 0.0033974751704233474, 0.13912632481661086, 0.5183260999895761, 0.12531553157439748, 0.17400755229301665, -0.26086902401169615, 0.05122704249540758, -0.6108848590875028, -0.5934301814184992, -0.19055448653303664, -0.10691770416353508, 1.0650367720494132, 0.1798201537595289, 0.6840107573666915, 0.281235796962914, -0.14634138996749604, 0.015154025431010704, -0.3077375047246628, -0.07631515754305988, -0.1583066068020447, -0.432884465894602, -0.4925093112478907, -0.29414443015316954, 0.08309539159349458, -0.09948059256181518, 0.05248080819223418, 0.08767410283339352, -0.1911832024862216, 0.35429105188561844, 0.329839332984202, 0.26949873463292, -0.2686710414344265, -0.14658313553874214, 0.42046341203394777, -0.05690109699370036, -1.2481798228613161, -0.43358687702614296, -0.5862323239116662, 0.08183991122560043, 0.2103130039940435, 0.002181330865754606, 0.1703631933330882, -0.07749540118795782, -0.32716179819073393, 0.1113898878363705, 0.3004906100523245, -0.24667331665624695], [0.5353851127456742, 0.09013156582294482, -0.05729835731722063, 0.25600578459296, 0.08035448726997264, 0.21920796244923696, -0.1619866533660815, 0.3178696068518738, -0.1402751922901367, 0.10823454808322373, 0.1852648642306493, -0.08358529734718283, 0.44350198010320563, 0.12755486403432043, -0.1943927778439947, -0.1969148518591672, 0.45133542619340583, -0.2826637870344926, -0.05490061591626616, -0.15296379415437278, 0.22185056533161393, 1.0519558320226283, -0.3270999466714041, -0.3380735700756119, 0.6325449127529987, -0.4244568016754481, -0.05132600477544642, 1.1652939521311163, -0.03528481232511732, 0.24223938268102033, -0.06721118119490688, 0.2602505768261082, 0.2854399809679606, 0.27706212975701033, 0.27265137839355624, -0.22753946371869396, -0.14407440105739805, 0.39309782948127237, 0.1820328699535064, 0.02087100503648366, 0.41804065235271537, 0.1350931800714858, -0.31590436671562827, 0.3036073865409375, -0.08849691274911009, 0.39848369556101415, 0.4652747613373135, -0.4896565333094609, -0.12441530567305865, -0.015788545392784462, 0.0010149964220267265, -0.2487899594766198, 0.83967935632646, 0.1639170840867888, 0.4764352090040183, -0.0815007290692523, 0.08709915148376612, 0.37658738870794833, 0.30250857530145653, -0.33858412143090594, -0.19879415355456664, -0.16523638372850227, -0.25858602650365314, -0.23637786158323737, 0.14059774160851632, 0.43612839475835374, 1.380632486422583, 0.4542664666152328, 0.9294852417943513, 0.8596137942724614, -0.23257696205967668, -0.48623365190806384, -0.7447596139952759, 0.2706095211131861, 0.15626933458634867, -0.02435863280172373, 0.16184920203100517, 0.2587418355736739, -0.35141828152642973, -0.24143224994939097, -0.08004490269518075, -0.1781710954909444, 0.25663382310199245, -0.30899000854209085, -0.037754486516913384, -0.2332889244922875, -0.08969034343325966, 0.0981325044102778, -0.34240052798723347, 0.23494634125783712, -0.14086296937535606, 0.2986932800522606, -0.6299627364265095, -0.2841837688852533, -0.6122500440464823, 0.05551935554967354, 1.3752777995104248, 0.2426600446934176, 0.02131666645564481, -0.14131253559631002, -0.4429535157099132, 0.20629834948529951, 0.5759221504032351], [-0.8233001845827148, 0.025951473436132397, 0.049284057661042435, -0.11607834522536165, -0.19884584396357746, 0.3851119958230413, -0.48796587836387245, -0.5682194729562505, -0.4988885341480976, -0.681288792533604, -0.013684986580288787, -0.29655559650158275, -0.30163773902874846, -0.22347507744292738, 0.6977701548296522, -0.08716163597509845, -0.08783786074801639, 0.6276340006713407, -0.06559746639424811, -0.05547952392411577, 0.2667200972854821, 0.1463579466929888, -0.2289518117728392, 0.439693290263584, 0.39404538621378477, 0.27846871751919605, 0.23705378713520445, -0.3497941114081324, 0.19049659584540216, 0.08394006923407595, -0.4671478325563496, -0.07088128175056817, 0.14804922926961803, -0.4412262177137499, 0.23180895027366466, 0.07900722148515754, -0.3562042992115878, 0.24768283108006323, 0.2702681131286467, 0.015106707861726121, 0.04993058232375807, -0.2302112599878925, 0.12710920487595548, -0.020942967585930873, 0.059213325898696725, -0.35549399606086557, -0.24089289511363107, -0.17071746087879006, -0.13173505914655131, 0.32231047889816106, -0.31941638872327444, 0.02938786769069759, 0.2686062808528914, -0.1876329062952881, -0.23860102880152256, -0.41581848694751355, -0.11980845206993292, -0.31402905886497234, 0.32556305877351405, -0.055747032122882276, 0.4543944118404791, 0.11298693468438085, -0.37211322424097293, 0.6737335913468585, 0.22614333276452722, 0.762208688008617, 0.8668145709064728, 0.13218346366200853, -0.3529373482170873, 0.849356591664968, 0.1080342336522785, 0.334590193096412, 0.2206700004317465, 0.21947382816888128, 0.18673679899126588, -0.7208851463845488, -0.11700974128306145, -0.5540930123068458, -0.4475658716653075, -0.395033984000649, 0.6107516928388945, 0.025266739190951952, 0.16858029736614397, 0.24110048149022062, 0.31007879397556715, -0.10412367115916851, -0.08396512534289614, 0.6317565965526878, -0.8058244652370417, -0.4271193466554403, -0.5851192876236017, -0.3574503433631393, 0.15572957652907507, -0.2080903981060881, 0.2784641070900845, 0.6571976199876242, 0.2592931279182341, -0.5489565341325147, 0.5837764551663444, 0.43095967570475174, -0.08722452769868408, -0.24234275146851456, 0.34124296397146875], [1.514123766557713, -0.07039380293426706, -0.26985763419767267, -0.06872128540609392, 0.14793879377205238, -0.30651101864099445, 0.10042445584972588, -0.06807511449226836, -0.5574372728280304, -0.4017158879492274, -0.1733383398787318, 0.2374412469848292, -0.483397770942625, -0.12045162663774046, 0.4050063664685878, 0.04394451995045569, 0.27597191477669725, -0.20333599567881558, 0.06739393671073343, -0.862375314787431, 0.32486129057154334, -0.23218496935801633, -0.8972641969816131, -0.2896015252198955, -0.07213536304672735, -0.4220892242713231, -0.24073822810247275, 0.07735086590109032, -0.2692988362339142, -0.4150336587989922, 0.0043392073421357385, -0.26303398703445885, 0.5782518837289993, -0.291609165112575, -0.07329729135738526, -0.12027070354461829, -0.6300276915999399, 0.17002107157132862, -0.12243573980220039, -0.10704529801120516, 0.07841446154460988, 0.14585686145799542, -0.24557168235119964, -0.4850407034054628, -0.9069997684654638, -0.20952728967068024, -0.14627841128007277, 0.20988200943355084, 0.029082283437323074, 0.027980160693955564, 0.28143463468460744, -0.1446451668558352, 0.775351619257601, -0.4882083526352102, 0.3555842132831304, -0.0522855564123473, 0.24184610553053604, 0.0013645607840478623, -0.47766643298376726, 0.4123603079123197, 0.25163330486248503, 0.5723000208686397, -0.4355600937435755, 0.016216550762452823, -0.44655087229424784, 0.4399319050684012, -0.27027583880348716, 0.16374196146864922, -0.05838330076058202, 0.5428607625881047, 0.5703470941357153, -0.5426931427786124, -0.2645997162836222, 1.0339707536789111, -0.09498900136760635, 0.5424669434291199, 0.2524063562838594, -0.07982733947496187, -0.234508907854151, -0.42348679725083616, -0.028369706462578678, -0.07032270675402173, -0.7834593447956278, -0.32094009720318906, -0.3796635264696214, -0.056280805456768834, -0.16877653475860127, 0.04751856652368692, -0.23133595043723146, 0.2624890659691565, 0.036405914782964406, 0.45239867825859614, -0.19740956233286355, -0.08502251013879401, -0.03657919593400551, 0.13857482638696825, 0.3242255763336946, 0.10277054146806923, -0.4158584997788634, 0.07322626985071529, -0.44889931635181657, -0.5384631507244416, -0.3915670054227064], [-0.14740707095246602, 0.03682211797666976, -0.4394052801964461, 0.09509897664684083, 0.09643522171501173, 0.01176934668111044, 0.010782547628703894, -0.3015220281069022, -0.2791357383317358, -0.1991726208613146, -0.2862666868191976, -0.11953279052860247, -0.29638733932376354, 0.42464097627605524, 0.3508885315811318, 0.05430175307809986, 0.9103090788849431, 0.2856206017663749, -0.05977430523765461, 0.25524492282824074, -0.2639284509364285, 0.13031654234666842, 0.19957731736274778, -0.20158153274390758, 0.2681905582627815, 0.03815638844446718, -0.44300477389175974, -0.27114184066231706, 0.14304491276010592, -0.3033094695041191, 0.049897980000731396, 0.0385609727362006, -0.32213067355500136, 0.19099562790983313, -0.09570624104975632, 0.39043262583472715, -0.3502881466823497, -0.18989646563428078, -0.5878775135349837, -0.03915264037522521, -0.39428775346700584, -0.3069280650429636, 0.048524047381711954, -0.01702619820910217, -0.060862130949927665, 0.6455682489424087, 0.7154516582340965, -0.1652662689670533, -0.1776438541447003, 0.06709229456361017, -0.01995659645525658, 0.058041445452321795, -0.03571385680569065, -0.22408267624121372, -0.19007127295891418, 0.7925178003629678, -0.3366620708212278, -0.243023455494195, 0.32350424544715983, -0.16545277361407126, -0.14027439641617295, -0.31391190061177554, -0.04997447698809905, -0.4479822727142886, -0.18164667203292542, -0.5388546607817184, -0.04069991178050463, 0.8660280671485459, 0.023800787679246874, -0.24010072675421576, -0.059013709235785035, -0.6220930356812512, -0.30616154874467866, -0.2534374980394313, 0.12242888540928902, -0.36799094735129756, 0.2632698513391363, -0.25383976109059203, -0.12570426671857035, 0.07394905263167827, -0.33267374394543603, -0.10250530575416553, 0.24859570135132764, 0.20687526768534456, -0.3285367060905823, 0.11182974076072659, 0.13456669232176766, -0.21647792733185373, -0.3091849471016307, -0.21227314111935672, 0.05065318742799672, 0.03691291013507932, 0.29117706037677543, 0.6203341894830239, -0.15557705424203405, -0.547172235389947, 0.5887895301138741, -0.11822687981157629, -0.10907828725124062, 0.5010198967481116, 0.37239889182306707, 0.10326523977461255, 0.38451680921666076], [1.5072836566180157, 0.3252689922568434, 0.15683798013576197, -0.0479279980158024, 0.16553478700318183, -0.07294450488343278, 0.10025529567683414, 0.17495088703151426, 0.03228215470472552, 0.354020546452599, 0.09115550245703975, -0.36871971736856274, -0.13676031415621592, -0.024095829966841065, 0.7213296640130199, 0.6489687487308616, 0.4655230270537341, 0.3309984359487745, 0.9082482945635673, 0.6627458043652211, -0.3071627027517305, -0.35744913130460937, 0.4047510449399328, -0.6531139588404317, -0.1157842654752625, 0.34267006326813204, -0.14148383464196979, -0.2840957117115761, -0.058220462749955286, 0.26826455142327316, -0.03183920355322533, -0.0716710349715831, 0.0716684877614357, 0.05181979426948375, 0.6793124235263177, 0.012277958595089405, 0.16818427974854552, 0.25436590186655506, 0.10109886598667141, 0.11797582090288342, 0.24624461077544618, -0.02243665449588929, 0.17265461837644078, 0.4510712089815091, 0.14410609071259312, -0.013321247944309892, 0.2630878382391617, 0.12214458737036171, 0.45426222240161673, 0.4004951106114609, -0.2911486618398304, 0.35173463389176196, 0.8253129555784449, 0.057021070117288485, 0.23578122917966096, 0.23257521846713228, 0.3984490648426384, 0.16192511483290506, 0.17266530619205672, 0.026247896107909677, -0.17678240207240903, 0.5033689497801502, 0.33612518273415465, 0.04930032977096504, -0.18055211100811305, -0.6009382118601228, -0.3192409471911036, -0.25142074530344094, 0.1482904299401199, -0.8346653836054777, -0.4275912562285636, 0.30411510474117776, 0.9501647846635732, 0.20379407597400645, 0.8434800667501159, 0.444597518174781, -0.5789370559421434, 0.5868050579837788, 0.5932032013282745, -0.055205216588872015, 0.17979376021410007, -0.13407415166283324, -0.23793554038093723, 0.06245111248446871, 0.07442643558834285, -0.03304082077643197, -0.1134932299068568, 0.14265207016889123, 0.08260485272829751, 0.5450066057078385, 0.658818155735939, 0.6726767760023359, 0.07714741406785428, 0.5739993895772801, 0.0657252313981508, 0.08732946581143226, -0.07166516895956938, 0.5679019704138241, -0.13710990810024956, -0.14510505151107797, 0.4237360151587457, 0.15907291731240605, -0.043601154732048404], [1.1730871306453752, -0.4246653437905567, 0.2050388837467121, -0.0877925714998306, 0.06499187011796251, 0.4349442775204001, -0.5123665855614706, -0.059713928352994744, -0.12226187644365208, 0.6276078462731988, -0.02936012340754964, 0.5357799115319171, 0.03867082159144331, -0.14656372495777117, -0.3593011824617035, 0.12523378761273973, -0.47949982838033484, 0.06360828179270708, 0.18826827041511232, -0.2552695431308135, 0.396994427736976, 0.16174593861214195, -0.1639273692212772, -0.3609694141907284, 0.22378300760857123, 0.24734068491117636, -0.5517409053699682, -0.16895354886998756, -0.06640982825631082, 0.14137993622562028, -0.12530077911094464, -0.24198670892591082, -0.2731486612446379, -0.3643389503540874, -0.22772708921807747, -0.4422639692644784, 0.18267342151745083, -0.3464407216524159, 0.38340211693965287, -0.3664600485977058, -0.04940917551217419, -0.003222499070075736, -0.049201991319050266, 0.030691578542479597, 0.04592580638199108, -0.16713665158345578, -0.22983689002084923, 0.2970514977953154, -0.08981013893061743, 0.07449727432025237, 0.20974388495858293, 0.0865387622260802, 1.0801969258912332, -0.0897752432011748, 0.13457152232591496, 0.08130126708959175, -0.15832883928624766, -0.11970763351458014, -0.5925472787182585, 0.21213577092516533, 0.5254863964374928, 0.6101288672703721, -0.1960393507265407, 0.4054661961952536, 0.42230735322504803, -0.15794264103444872, -0.016334180729857352, -0.03878349003761387, 0.009216538058348633, 0.15042843840444803, -0.27972488657206585, -0.06001381000608017, 0.1636073702310006, -0.12187191724093292, -0.9279711216325472, -0.2749077881890318, 0.39682660101046674, -0.42669707418192937, -0.37905231848557264, 0.27861166804707743, -0.3380300825909611, -0.5430886682133084, -0.25966860352196897, -0.043876026062806044, -0.20859929103278024, -0.07690362764116404, -0.2346630320198614, 0.49815495807872573, 0.03140465047609781, 0.0825458908478676, -0.1903369573331155, 0.6686230132868921, 0.01044557585056029, -0.4692496560910391, -0.041657046807114406, -0.3077342472394043, 0.32350800305254557, -0.11023624716921213, -0.17984889761327658, -0.21951332620290648, 0.11437570968825897, -0.25860146546683055, 0.12504411833161327], [0.7510545111572934, 0.24516858016984977, -0.4729593529042093, 0.5070088351276101, -0.5411568319823183, 0.38536498803162345, 0.2543662907912642, -0.1319609275789852, -0.25640089015250694, 0.4819877300158379, -0.6612288593930269, -0.19481451954851073, -0.26171687010186095, 0.001204853432341751, 0.537869042038121, 0.19083272074208213, 0.21335069573022244, 0.2639789885015863, -0.35604351603490886, -0.1795134179155811, 0.09490867409780515, -0.04201065788232188, 0.6469018557353344, 0.012210381669975399, -0.5218995509653861, 0.21060660262379327, 0.1945212122737619, 0.05948534633710387, -0.08321211419057678, -0.21145624700761614, -0.1643816780282934, 0.027695452722176234, 0.1046781152284881, -0.09257741969363852, 0.10190262789968059, -0.5620041178186, -0.16242702760125932, -0.14052240698125834, -0.2050686714027543, 0.3700997283367943, -0.32538572897089946, -0.4600508914100919, -0.4508714598433963, 0.0301042980422788, -0.3153236105618019, 0.23671369352507926, -0.1915115160028021, 0.1484625072232459, 0.35333204740196755, -0.6383759033074589, -0.5522246905751509, 0.11021933681003077, 1.2776095940850836, 0.3630640931589785, -0.24512171853569675, 0.40161761755446307, 0.08805964052447299, 0.215272121088205, -0.07393391721443356, 0.07134567920441309, -0.4244037517365619, -0.4597205650638503, 0.1744069222296904, -0.5037892905321303, -0.018975525736996582, -0.36320437818155504, -0.6731235267441946, 0.16157485363872914, 0.08943768481638813, -0.13110849461274032, -0.08406534910709576, -0.3217723602933047, -0.2389508192049112, -0.45120847501724065, 0.1340061062414834, -0.13833808334471748, -0.28104041463590357, 0.20422338834733875, 0.39041444893952937, 0.6359619626336782, 0.048202176814988784, 0.019618274327962745, -0.27429510323708234, 0.2815342869223944, 0.067351382161864, -0.371876835619682, 0.5042745468559279, -0.10092475876009938, 0.32146641279067434, 0.5491729634553753, 0.6332426711056545, 0.35797556387853496, -0.16712176945828155, 0.24763701219515954, 0.10398356813357854, 0.017850808989447783, -0.6889779332613808, -0.08430399814811675, 0.08085103284666245, -0.39989087147864444, -0.5346060870345299, 0.7162232647220935, -0.017200729577308137], [-0.7072590694569628, -0.034071735308863975, -0.04682634544263612, -0.0008690661495383605, -0.22203126742359774, 0.2183309701060314, 0.26977873953674825, -0.09876110841672683, -0.36723178304191373, -0.8250737437928893, 0.2275892669080241, -0.30730718035780924, 0.03002823136033266, 0.14288005494134573, 0.13019772915823688, -0.20359026525610882, -0.6141961616930436, -0.5963046886770037, -0.7248658654993602, 0.35940499668300335, -0.3350478865856471, -0.036428286270132705, -0.3171787805615593, -1.0918639160943826, -0.5927058811431659, 0.20679945146112255, 0.24505066558738017, 0.38707033140800823, -0.4513798302660761, -0.297218741780752, 0.1205349729479311, -0.2603523525497983, -0.012616040069266669, 0.10173101930694424, -0.029375261637837356, -0.07140711318181094, -0.22857389659111285, 0.12024543048308978, -0.04734795530078198, -0.2023588412894761, -0.07687856659937832, 0.09734659453212188, -0.1688066222559369, -0.2866132861953444, -0.5758799042945201, -0.6880928983751015, -0.1808462651385535, -0.017305402498782374, 0.12208332126736944, -0.2648329777172142, -0.21336852967250824, -0.7262591290434016, -0.47336941079567646, -0.3212479116880997, 0.48935440816256304, 0.11681435899911626, -0.10326045830993595, 0.10955033940075187, 0.39917328272217545, 0.4622660473953389, 0.5635560757083812, -0.9222091759377063, -0.04227615641410234, -0.14793814669737188, -0.38740473701430295, -0.424828884125189, 0.18157132288745015, 0.07038598926891063, -0.5779774643723035, 0.4929302280817982, -0.6702871506180386, 0.1536844156676174, -0.2601643557300562, 0.012925169945844623, 0.6247037825133742, -0.06637901518394364, -0.49548327613024157, -1.0072899361632062, -0.8875353573629164, 0.13179842407848089, 0.16699181689324713, 0.14725885567023525, -0.4639981671627077, 0.3394948373354766, -0.2738741968874961, -0.1517111580662268, -0.14614966009640573, 0.24666160669372644, -0.015302124912351353, 0.2987125940402151, -0.10776592050643438, -0.7924026611127, -0.07708152365579364, -0.7172393484610039, -0.2231903016680584, 0.37798531966471877, 0.08989797665276474, -0.41409058400712306, -0.36457812442626386, -0.4344057902675491, -0.12289009954322927, -0.14619716996370866, 0.17858583806871228], [-0.4850554334545, 0.10364633077910083, 0.09258354047937219, 0.374807929284691, -0.09418996753210941, 0.29040454852481234, -0.21933008565034834, -0.32704509636453927, -0.3996482296894679, -0.342710323523499, 0.27170831330567746, 0.505560335571868, -0.3995700315322298, -0.1830968096008551, -0.3978314816475366, 0.3920903337734913, 0.6475281935310822, -0.25650383181447367, 0.009832289914259091, -0.24280224856860066, 0.06305603461790094, -0.6839037019198393, -0.411221375566435, -0.3878662717176723, 0.33982038203808573, -0.1704705326464015, -0.5671826845924945, 0.24432454895591532, -0.030972612825724884, -0.313742135904375, 0.03870501369351723, 0.0830933427247707, -0.07851574763244501, -0.24343827050644282, -0.44461210233895815, -0.4149220198623258, -0.4528394511600576, 0.4335338420438578, 0.12279628164293242, -0.24780925454052197, 0.13326471016517502, -0.32744276285554025, -0.09573824744910787, 0.5119112361909193, -0.6377748036075804, 0.12834919920276358, -0.5526694060238109, -0.4655671899342182, -0.1485849926216702, -0.2210815109424001, -0.47126044355719715, 0.07477427183195257, -0.19510340434706094, -0.10028821104054964, -0.6257197497598472, -0.1834604426627505, -0.03912075281912364, 0.028271759895755005, -0.2023979227572404, 0.24657809948043238, -0.014401902587105513, 0.13717050328148656, -0.3295917937420131, -0.015287600442569842, 0.10651242595450953, 0.4264324462764815, -0.315402802875174, -0.18366191715757804, -0.13089660251902807, -0.42202346881842123, -0.48581904890838745, 0.1725779179826934, 0.08577120511611866, -0.06031660772877368, -0.12444733750947146, -0.4917075117846202, 0.2502215194110575, 0.17154469707148357, 0.09910871264576006, -0.3834922150695957, -0.14685619546405043, -0.04738520810131198, 0.36318342665315156, -0.09386878146944512, -0.12463212636821097, 0.22243638280238498, -0.022588426250612977, -0.3542496838906519, -0.38934819601228254, 0.21615457846363564, 0.42086329342845, -0.024618944305562808, -0.03776059028508594, -0.038680709407248756, -0.8140668837458277, 0.03207214022225101, -1.0775620154775725, 0.4944966639588858, 0.1636898038934648, -0.40695814622708487, 0.09061853133711464, 0.17894424689097504, -0.4487248497867635], [-0.4315928081968339, 0.28301990243081404, -0.2964346240711028, -0.18411499715003976, 0.45756911420756446, 0.5614876498389628, 0.8794533621123267, 0.14824659809144342, -0.5622612639973744, 0.58654519852555, -0.2659945355736519, -0.5452370442233355, -0.14224256811326313, 0.566990883088097, -0.27334089835333275, -0.35067180739688525, -0.08170237422028605, -0.3455009427983218, -0.3755033780494667, -0.37799721301200895, -0.21584957436102395, -0.38911072922765205, -0.4719929964386597, -0.6337539056689825, -0.015369734726877663, -0.3032614874906576, 0.27662382811263303, 0.0033220902444300107, 0.2511234424239518, 0.17811328413570526, 0.22389499301562257, 0.0422190603929134, -0.16188260780032526, -0.2667227714762712, 0.014870196292763063, 0.32737325671472634, -0.2766061630428313, -0.07906849930048154, 0.020904942317800556, -0.37096420966220395, -0.1202045412739972, 0.21298873503750693, 0.026834827082986793, -0.2138847462395035, -0.4328710938294727, -0.08403305707324296, -0.5078352083827719, 0.12155327048180602, 0.26320703451197963, 0.045796778868385665, 0.022019971217072692, 0.21090593899413565, -0.5208615658652851, -0.035399877506849, 0.45179486860759643, -0.23599384530120882, 0.3641786167473018, 0.13612711390302906, 0.18709689478478395, -0.768896009651676, -0.13553910362842692, -0.11367762401307255, -0.24551221314377777, 0.0614096623360559, 0.08778383434115399, 0.5531110656609153, 0.07721673912190818, 0.4987834716278781, 0.07241266922523217, 0.07340762257447857, -0.3394104429275325, -0.11998487627313298, -0.5304980169679252, -0.04812127511273854, -0.2578992072910974, -0.2233312400047187, -0.062441366448608246, 0.34675204821909283, 0.5196577651128674, 0.43905278882696874, -0.8303654658778902, 0.36996677054114174, -0.028148510731121592, 0.2238561016408906, 0.9157354705931229, -0.24276290124110664, 0.19045041248598865, 0.3047524791920446, -0.3788001117264331, -0.3739943555255333, 0.15000148934380395, -0.13492183762158974, 0.14114855947803284, 0.44950936618213766, 0.16448773471617725, -0.21050472233898235, -0.37448768821364437, 0.03397075963032546, -0.05654022038322372, -0.3186449159707022, -0.07762859958019946, -0.19190688739455516, -0.5538410961269699], [0.5977959979048383, -0.08910816130157671, -0.14353156477124546, -0.18483958800435635, 0.2826003380057485, -0.39305605631638874, -0.3299652343799752, -0.5994219200688069, 0.16703088664877694, 0.35347842525724144, -0.40629696544942906, -0.13773529900561216, -0.22341005422026386, 0.0681825041140584, 0.004299393884547439, 0.29934309296292533, 0.3374826403813693, 0.31242677058941487, -0.20261409910366712, -0.10274231238267943, 0.2655653066278106, -0.21215140854857967, 0.9555467574825033, -0.3372964105994132, -0.09299763538489528, -0.5216803766019682, 0.17101493296331818, 0.8718531526657642, 0.15558522953810258, 0.3314642932809063, -0.2844178667476619, 0.8253448170022717, -0.12574057791249058, 0.3335959834377592, -0.04092444306871278, -0.09949259724837825, 0.3860070212618757, 0.22139510648704547, 0.29378572793969876, 0.328167872711986, 0.0421831397946103, 0.12949245354638395, 0.07735888376776504, 0.5817158178479884, -0.08126795040610696, -0.1083857887470397, 0.005003044027248548, -0.09840791027812228, 0.2559922593845351, 0.1337563450078024, -0.3584294646099579, -0.09385705866570017, -0.2772900041585193, -0.18707269893666695, 0.05303744309970223, 0.12430168082062071, -0.23402955177716228, -0.5593680121123484, 0.14170838586650067, -0.3101870665822581, 0.01943508695984728, -0.1490211609227622, -0.17154459995074847, -0.38096353111010234, 0.18690643542129282, 0.18735238783512334, 0.7995884432746818, 0.10993612312035252, 0.19679919477623067, -0.011608618087456472, -0.1965905135912821, 0.48059771983099625, 0.31413069988895304, -0.6853498515687938, 0.03568688278235663, 0.08078890792520842, 0.10238356690417462, 0.5902520770944852, 0.6273105896401528, -0.16819324412926984, 0.2059190581286001, -0.6271898953260516, 0.2844357481708148, 0.10520009032259646, 0.4685837875099629, -0.2014158102949694, 0.19011310953439398, -0.30453734066636406, -0.0754217001955717, 0.5695949230624301, 0.33291328525208036, -0.3062159608596052, -0.4371703510788242, 0.223849433417742, 0.2664474513392827, 0.23678799659959168, 0.01787872936537965, -0.0003402106225241876, 0.03229377523938981, 0.1543082104657522, 0.22827829847036635, -0.04116568964884864, -0.4800334556684614], [0.06946604795261863, 0.12599306640123684, 0.05370634131949093, 0.07515620726337283, -0.16708892631981312, -0.3340383310576492, -0.046664022895396465, -0.11259237576338563, 0.17742202568988705, 1.0548493944286956, -0.13007842395471436, 0.2699221703990301, 0.38924209962031997, 0.8840452216857664, 0.09596283193752858, 0.5603619156589085, 0.31774929059814516, -0.665811541349047, -0.04115660398947259, 0.02785427196377747, -0.3087058095732147, -0.014691692425583006, 0.1849917506973183, 0.20523994499884335, 0.12204724999105512, -0.16751761140989105, -0.37043166098475844, 0.017444773564374027, 0.14754121446958476, -0.1319940880087558, 0.33197401131165083, 0.03147325657514025, -0.5522413783674828, 0.01175782264714478, -0.6333124178190478, 0.23876478192490277, 0.06651266054355615, 0.15631363569374926, -0.06676580832880187, 0.31714169285045685, 0.24005965602516474, 0.10471059618866915, -0.03418993241132648, 0.032385321931053326, 0.14770351962997552, 0.1712706929799409, 0.427120889986574, 0.31494822939518474, 0.19034502653754717, 0.13551270792043393, 0.43175508485341124, 0.2310235174113918, 0.5813923296514367, 0.3846668840485579, -0.028385820992616297, 0.7148170018309606, 0.5299324655774632, 0.1221322674223573, -0.1436203166265196, 0.4798791617944943, -0.5077606361104424, 0.6751428787199588, 0.0718687244352635, 0.2762673415144115, -0.40214631808456497, -0.07680322573264341, -0.3759282430416628, -0.024181014931164393, -0.1578154390780376, 0.3070606017360164, 0.21306957252150158, 0.5233359395452407, 0.2601911906357945, 0.3993757893786011, 0.17097736867783214, -0.09746388949606234, 0.2814177511800604, 0.7544734223644153, 0.07913430705321564, 0.20473449492779586, 0.1904028691043379, 0.04688120896967243, 0.29632023514078937, 0.005401462798511931, 0.4322766728785661, 0.8956752428093429, -0.4213423195991216, -0.05449139806427379, 0.9992417683671628, 0.44189810249837896, 0.28228662320343595, 0.434084287620699, -0.2675571988274529, 0.16701456258252267, -0.3747187987268226, -0.34352941510939616, 0.13378539463269645, 0.13300708448171464, 0.18797321152755195, 0.4666940652099682, 0.3007453953978675, 0.026947527049700243, 0.3856387536789896], [0.2789903384310206, 0.13234720059470054, -0.4106544384344988, 0.1005796831049755, -0.3674006022684142, -0.38282115647233583, -0.12466865556182516, 0.007621858212808942, -0.30603536560858424, 0.07054642585170343, -0.08612291332358776, -0.05154108949540036, 0.51393860086588, 0.4568705165516855, 0.30618939178909493, 0.10895299786943846, 0.5575202721289466, -0.04936321704459748, -0.09359020496572, -0.4529563074009964, 0.25570240499416946, 0.21552201514428976, 0.4296119450078513, 0.5986364901600069, 0.1470184703189896, 0.3383785452919465, 0.0070269362547174885, -0.18652115849816772, 0.38705828383956165, -0.11585902835558051, 0.2589526135770484, -0.19977768738199933, 0.2917353817526377, 0.4882593685672357, -0.7517051854170029, 0.030183351303671998, 0.13679430081698254, -0.22585492774054303, -0.16485459851359813, 0.2498922252224159, 0.03390487155754844, 0.2966971428598806, 0.3770729786278433, 0.11989755640158617, 0.24505177342625817, -0.17780820134726188, 0.23249327176261436, 0.1276564759640417, 0.009162137944563803, -0.12818574401451033, -0.22188796400576594, -0.5826395888799846, 0.5334461476404153, -0.057091674553724193, 0.3164379559934548, -0.3377385692355838, -0.708526185996533, 0.02225666663599706, -0.1183302448816633, -0.32369070159383684, 0.15662908987667895, 0.4350763825022233, 0.04973502224865993, -0.22665971476372868, 0.20789086725211142, 0.07727490556783344, -0.43844152298437294, 0.7056968405048427, -0.566380406123683, -0.185861351414213, -0.7221469743998656, 0.021551312443041655, -0.19031323286357504, 0.24971219125706784, -0.01682662798676931, 0.024199988233287232, 0.254288842376459, -0.3343445940875961, -0.5045842036920412, -0.20853961507139548, -0.11165661277763218, -0.061612252315593745, -0.14625100142248046, -0.25210539548754174, 0.020409332247484934, -0.33837097226461155, 0.24755240025106065, -0.26085440341320787, -0.28042532632861483, 0.3914674213220217, 0.0455196860352582, 0.26415846323543196, 0.5053227686726381, 0.5128499396370166, 0.5726288441341287, -0.40218349080403015, -0.3552918397745944, -0.09565355740233672, -0.6746398818186083, -0.07162638082858916, 0.21555533823125733, 0.0953648859290234, 0.24988470365222867], [0.28608044217367506, 0.23692080409405467, -0.32985502443334513, 0.0360305254704692, 0.019049489537630335, -0.10301322379619346, 0.023905509030657662, -0.003366955913324584, 0.050486886147244066, 0.0628699178247943, -0.06958004982906349, -0.26718783746457275, -0.016929045232442267, -0.07543141790896213, -0.31906223170827236, -0.5549835924227936, 0.42485680952820276, 0.05150716023799958, -0.30703646782327026, 0.13562420208558457, 0.15282355973248624, 0.06053558415124453, -0.33492023112481484, 0.21073313708755645, 0.5804314523635223, 0.3495107550935147, -0.28278714676858735, 0.089890467562765, 0.28941400168793063, 0.21177110721661693, -0.06510173716295782, -0.17701887150965018, -0.4175272763981734, -0.47336724991740403, -0.23350145348750817, -0.2372569521379598, -0.19501146584776255, 0.08425414685551363, 0.1060888139306116, 0.4535374637548306, 0.024808555304492528, -0.15663793831061312, 0.5621793804851496, -0.3573452168379189, 0.26383761321959703, 0.08594992684936915, -0.10728306182267641, -0.43130012032979387, 0.0720208774368094, 0.27661352861600463, 0.007764947973457234, 0.048428526866706116, 1.006123864323734, -0.3239874624223173, 0.04105867049961798, -0.30447818798934645, 0.05583400768174952, -0.10086478540314363, 0.6875975354181572, -0.006008330825251476, 0.16093818916526847, -0.3971550486266763, 0.10343968202289784, 0.2308560533219776, -0.2450808270091936, 0.16154649253789252, 0.2606386684015115, 0.37700303167922755, 0.6021685840249155, -0.2403793672464881, -0.9035086491225601, -0.09948571582416225, -0.03903029269535661, -0.06317549031952457, -0.4899173140465775, 0.1848325464034572, 0.4244105437929947, -0.46589644350045206, 0.118621143654424, -0.5538998040562367, 0.8490890911032501, 0.4130642503932124, -0.07620379795066644, -0.30318203984511044, 0.03138078927976276, 