{"class_name": "SequentialNetwork", "layers": [{"class_name": "SequentialNetwork", "layers": [{"class_name": "FullyConnectedLayer", "lay_in": 103, "lay_out": 100, "weights": [[-0.04062652265502771, -0.5125035280087937, -1.4447512699072598, -0.6260572737102702, 0.3351449360116145, 0.03550890044221929, 2.397702236406606, 0.7546227811175543, -1.3632248838523322, -0.5442851351094322, 0.5542400788518677, 0.726197494091389, -0.1997169618272222, -0.9925476098888878, -0.8654735932770855, -0.8119704309499647, -0.779728496492297, -0.1375573855696858, 0.7166271976863313, -0.8649674022357434, 0.3439579699949179, 0.4235202266842865, 1.5403162842240545, -0.5318893542876135, 0.556916923415694, -1.7222865280460151, -1.8238033235970825, 1.946535359873789, 0.44697374444858584, -0.3234178307093648, 0.3213214485628133, 0.8948338721944887, 0.8620684503126983, 0.6963945542667679, -0.1010488864884089, 0.9849206454832037, -0.43613859919269904, -0.8992144764098484, -0.6686298321122885, 0.5174937444899962, 2.3357409941042295, -0.7307798230206366, 0.06924358742586928, 0.567294668090282, 0.23390726218826577, 0.05459539154884513, -1.6953358174622615, 0.7236766307820575, -0.02466287201662196, 0.953356931584389, -0.7374901465331033, 0.22923838735155092, -2.655209953748772, -0.3410675850050517, 0.3570969267913695, -0.07198478419807902, 1.5358051319959722, 2.2888890172172878, -0.7377026280691179, -0.3642145855568935, 0.4417737193406197, -1.1803557145517531, 0.7925210082312985, -0.9423165625095619, 1.6232451019139191, -1.6524115944296773, 0.5596493190277777, 1.4583893694297536, -0.056412556791581324, 1.0123142911416971, -1.5239993080553242, -1.1648514599070507, -0.08465249732979752, 3.110609712614717, 0.6612207531614318, -0.6869879049389072, -2.47311844117109, -0.1346308794062604, 0.7600607548241741, -0.04188296092131138, 0.7240539486414413, -0.1950835302163627, -1.7997938185692512, 1.0655614877459312, 0.0006408138313866059, 0.02134019970458913, -0.10093886839468119, -1.4486943652525737, 0.3552324644666712, 0.6435184122956518, 1.3296461253126848, -0.2431441004743208, 0.5402129210050489, -0.2524443754480748, 1.3656023490676727, 0.5526118093892658, 0.28610554445469594, 0.16996892437245562, 1.2656393143872091, 0.17830585512060704, 0.8798397333305963, -1.5024433876062624, 1.7631313932499468], [-0.9248455800014157, -0.7986466281515587, -0.8968646218077772, 0.280235770520565, -1.4289617971500554, 1.1865259403148443, 0.5425301699861979, -2.2867044989500402, -0.45112612217452164, 0.19892015812434888, 0.023929478547083056, -0.576605053034295, -0.7237435130891615, 0.06805937791468589, 0.0554453283764567, 0.7188651989762976, 0.23832800454588224, 0.18920627027751374, -0.49094667070984, 1.000090903212325, -0.6795999356933558, 0.5344721705110855, -0.4283809553171063, -1.1744491470202976, -0.7573724162452337, -0.312900855943685, 0.6289440895667883, -0.18963611531340843, -0.6045825670515604, -1.600870915200013, 0.33743228468573777, -0.11433055316300392, -1.4991376154539844, 0.6522874984092876, -0.39682416609314664, -0.18320985237279516, 1.7464407211810078, -0.20911548021592902, -0.3334494669103193, -1.1960245164547154, -1.306851456623942, 0.15834211180159835, -0.20051135201239864, -0.17787282281266845, -1.2090816160534879, 0.3510151663814456, -1.5349196918566073, 0.10332027340046916, -0.4070429530269663, 0.388371456473318, -0.3573054893532547, -0.3764843718898878, 0.2513383607709482, 1.4173655387321704, 1.333344883451699, 0.6469099607985094, 0.4446344497619466, -0.30223148591492977, -1.5459917180340086, 0.25923733912938396, -0.5835475569350274, -0.44142017816591067, -1.047848681811485, 0.575034648941861, 0.0010959837242282434, 1.2562964950447006, -1.699227468697902, 1.2043411686015761, 0.5632829790706854, -1.6476547850048735, 0.05367621950497227, 0.5171734999771712, -1.5258099753126253, -0.1828674154555513, 0.7728648867939215, -0.4461024355047294, 3.127646187954512, 0.32865692457539175, -1.6048783256219348, -0.26388895996557754, 0.9892895864399301, 0.7550615620962673, -1.1501211016235697, 1.6058237785967537, -1.0216113379802367, -0.33895184639996334, 0.4927395851814922, 0.6365775434280889, -0.5874411830923071, -0.4041002217138461, -0.8160252878632642, 0.40181523729165725, 0.15941950457548704, 0.6382743643423289, 0.03442047271957827, 0.3029951076527249, -1.503627658727553, 0.1812486370280721, 0.7584560740025519, 0.08025833757349549, 1.8176889041950497, 0.20901664891935284, 0.18673047291881392], [-0.7384753419498771, -0.8988685984723978, 1.4904531866647581, 1.788723326094514, -1.7088976210013667, 0.32854245033772467, -1.1715808784057848, 0.2345868558130625, 0.2729587657009859, -0.5514427067572044, -0.23622545905553846, -0.10930999348587128, 0.07997780182891157, 0.5931945290558513, -0.5731743699341522, 0.28428328685605975, -0.5063501875379643, -0.17427913191046993, 0.674485882312604, -0.3337751418443213, -0.7739105193365943, -2.2916489855008573, 0.7812560003956265, -0.7661545103645673, 0.8144556728848434, 0.37332053893529976, -0.9699548264080612, 0.07755077239677234, -0.8783820990154297, 0.02160658084125499, -0.5984659278537984, 1.3870842223219233, 0.5452485917042746, -0.29653223177914206, -0.7821446655569823, 0.9652708211876045, 0.16246674433332606, 0.45649482522002954, -0.3711353288044491, 0.0890717181114333, 1.1043438961185696, -0.4641341465663571, 0.4037226100812445, 1.4895777203043303, 0.13781009804928562, -0.4883158547047284, 1.8209219751163488, -2.6158804783707676, -2.185550016991418, -0.46998300888753464, 1.1137284253884114, -0.7868337949609688, -0.9818462515855455, 1.974034151846711, -1.745657633741028, 1.36007049509788, -0.793279242094366, -1.3364928194305123, 0.822757923703703, 0.20931277586991553, -0.9838564407038269, 1.883763698810444, -0.043750641404509655, 1.756300384704252, 0.42346419205855645, -0.6469026386365411, -0.9970902604578451, -0.703239915426489, -0.7970927396069114, -0.35863352120133857, 0.06488033102058238, 0.6788475564906398, 0.899066821718134, 1.9592758348373118, -0.5225083513119835, -0.26450174399372756, 0.5112381432332548, 0.6380683522052372, 0.23743661983216122, 1.0567288794777883, -0.4053371415312551, -1.1105024548708928, -0.45334175932807147, -0.04727674744746341, -1.247740216532322, -0.43814322855087284, 0.7489710707307692, 0.22935007441830257, 2.189762254751474, -0.7214634285651511, 1.3928836325691536, 0.13388784084855676, 1.0074044504634752, 0.6929220538989748, 2.0775445002628605, -0.7677423701513868, 2.0185729749311125, 0.023074917766531658, -0.8305407375403998, -0.4276157632839526, 0.31577833463807337, -1.8801518533212516, 2.379652292382019], [-0.1157081097869297, 2.3889011370717776, 0.36590675995451666, -0.4678632218613942, -0.33049525692650833, 0.34412711657353834, -1.354024510328166, 0.31218084994127904, 0.4093004834765452, -0.653487125147252, 0.7273732543237708, 0.15981461332091537, -0.6095615102425895, -1.0408919507544823, -1.1190808390172993, -0.501924848575971, -0.704863486119214, 0.3116939009103132, 0.18484193393880807, 0.5347737712103147, 0.8908017704059538, -0.032185450977772145, 1.3609118154115967, -1.3995394236225929, 1.1268651544817743, -0.7042892076714699, 0.09201123948316743, 0.5183495020667817, -1.8318547427209717, -0.75059044784073, -2.9688661113170505, -1.9514731892426977, 1.4077001501650401, -0.12895165100058537, 0.6751142275634898, -2.1393361707386713, 0.6549520845215314, -0.7992894385911008, 1.2675670906675038, 0.9943219577736248, -0.7605721016246485, -1.14935742309022, -0.4887401689344817, -0.2605111303549438, 1.9924895825052478, 0.05451833280868653, 1.5487633795856566, -0.9650728718309179, -1.5455211137202183, 1.6964506463481404, 0.26109817484809794, -0.2462798287955923, -1.0293961717795033, -0.3255760115529368, 0.23557083472542648, 0.8552819170855999, 0.8499774116842966, 0.31973435223656427, 0.7288380689266449, -0.3444553552745304, 1.3502029909040993, 0.4638861739415779, -0.3263455672297157, -0.29747622636247933, -0.748264377424842, -1.4034087513735727, -0.8196216350535923, 0.9814390133357455, 1.5626409651942972, -1.2948408047903466, 0.23346582327981516, -0.4571487445116102, 0.07907095613301557, 0.7729926393633881, -1.4530986565506792, 0.10789655645873632, -1.1828140250116794, 0.15596138909619564, 0.2973356238034989, -2.655721704570499, 0.407267625082883, 0.7495746497714828, -0.37162695763494996, 0.07772696108100541, 0.06387678455193946, -0.8672579115562252, 2.073616707119211, -0.8424556339016707, 0.6097653162475972, -2.338973686697563, -0.8414370175380674, 0.6589867941752804, 1.2292889646940184, -0.18894417449955228, -1.0311299530933238, 0.047654752586269215, 1.0614620740980265, -1.0220162212096235, 1.5347691686672957, 0.00616267375556589, -0.4648166626485807, -0.10334882409261684, 1.3511392936078326], [0.663740262199448, 1.5933659567778913, 1.212880145156543, -0.24950930882968955, 1.9136603666830572, 1.0959121848440636, 1.7313537507694161, -0.7315859685886877, -0.2689856517309879, -0.057135842128567885, -0.9779999439134355, 1.0664888759727913, -0.7402578911485267, -0.5386266977067267, 0.6779194832102854, 1.5065253500100246, 1.2194316134366179, -0.3002104030056065, -1.4657592597872702, 0.7532470379890908, -0.6817536270358833, -0.8857134717437432, -0.33953550193714016, 0.07350165466751149, -1.0503556987931606, 0.1254916860484463, -2.8778080874083036, 0.3789440586111108, 1.800809125174684, 0.060249593890776776, 0.02243978744342642, -1.268755340407658, -1.2822522116652926, 0.8592412613711446, -0.343671385318246, 0.6575287287769385, 1.6205846858906388, 1.2400152960458726, 0.9006878854488707, -0.14397579101252422, -0.18424327602427867, 1.7211748192129461, 0.28291283669186795, -0.3185485374336814, 0.8826550572247532, 0.44908820626789775, 0.5443311741775608, -0.10031573852008377, -0.3305277458189057, 1.3682901936763714, 0.6677811080676506, 1.2104566515474915, 0.3384154765568039, 0.9777702007797787, 0.5040414257487382, 0.028734213484341135, 0.16932379986751794, 0.2767958314057416, 0.4582580901129891, 0.9826594334770424, -0.30644596792307705, 0.8574498418518922, -1.4359642965568031, 1.3164893481232902, -0.4974659812695493, -1.1651291208050052, -0.6899141423241442, 2.3813411480570865, 2.9378278070633828, 0.19666865186364674, -0.5827398671236522, -0.9025722562418048, 1.5533920489474018, -0.3140166743380369, -1.707175543121033, 0.21335315182579837, -0.8658555678589244, 0.31867824844276027, 2.8930140146894967, 0.4598202513020429, 0.16470121012872116, 0.3821683342885886, 0.2990986988112589, 0.34658966948629427, 0.2920706781422406, -1.861389401403589, 0.8069986208568385, -0.4706336445191209, -1.6021668695508724, -1.460342726329156, -1.7036907930242804, -0.5301892434729965, 0.5919345100961538, -1.1182001184511499, 0.1608337457668132, -0.11925631855546147, -0.2842412367575285, 0.4341375398568438, 1.435382920110408, 1.8954170846415055, -1.5317330430735185, -0.33905410498963623, 0.5039205248596969], [0.6640980494806613, 0.0817027961301534, -0.549363242015989, -0.37150906796061406, 0.41798652419034876, 1.2637425279624903, -2.5602569291037702, -0.17979425394418552, -0.3803605497229238, 0.760315576912352, -0.5725696870988277, 1.399757778418101, 1.1256856639165966, 0.9561192862129083, 0.8447701196300824, 0.9979518682705972, -1.6256424537397718, -0.7732374453355626, -0.43748963166149446, -0.28280468996504715, 0.4202858261309024, -0.34397997249407397, 4.08715950967729, -0.7328250512615079, 0.4003000014097747, 0.235569797036835, -0.6288972525746004, 1.3486197926548658, 0.991436439509344, 1.4954814013213604, -2.579039968441426, 0.7976217948078805, -1.7251349358204262, 1.0412900806972343, 0.6815337420651563, -1.656511561827474, -1.8595826232693466, 0.16529504119544608, 1.362227327608495, -0.44435094880312836, -0.329853271279075, 0.151645061590068, -1.0094211777701398, 0.04555840107287538, -0.3484727468835147, 0.5436635078473419, -0.7850113727408571, -0.39281496228448193, 1.3644982319653298, -0.9379381003867946, 0.09285231665730243, 1.089328303501662, -0.10902826170272065, -0.5761284776668901, -1.7076103579409305, 0.37013385791571907, 0.25983563527599757, -0.49124155808184394, -0.4997919616702091, -0.37516551190651937, 0.7828147337284747, 0.09934857452697088, -0.4174886562735757, 0.9020978993843751, -0.22091417456532234, 0.5803851708167229, 0.6740598804500707, -1.0682045381473098, -0.6346733720568479, 0.31910355785347283, 0.811116888832626, -0.556495422398251, -0.27041480414981156, -0.03353352970465631, 0.27088658260260423, -0.687685700430039, 0.35118021299172286, 0.8564605466580408, -0.5345640468907966, 0.9320175247079725, -2.363621567624802, -0.182659157024641, -1.5448066893546875, 1.6971248361210105, 1.9567380753001609, -0.75379898065539, 0.2532024244305991, -0.036963169442091284, 1.3985916334317219, -0.342800184537113, 2.3637971793809287, 1.7560996897966066, 0.9554397379914522, -1.3967158775566142, -1.7043000847470695, -1.516451860900304, -1.446764629016393, -0.7694404631670805, 0.08595422688442615, 0.00804725296803359, -2.443211383424438, 0.6131985733782298, -1.2544134927758488], [0.8291277125540789, -0.175159193441757, 0.6831416306281696, -0.8498340553111522, 1.0418948473672178, 1.4789074330339445, -2.5281324987863747, 1.106554531600127, 0.6574843853569009, -1.3670322180063779, -1.4897653210093047, -0.7998927621836088, -1.3588560578675184, -0.48403804170305403, -1.0877980559784097, 0.11395765973608245, 1.2928730449815429, 0.011723090776257175, -0.9480138049776439, 0.3255383852447176, 0.19959739323841164, 0.13771221534220177, -0.4952980758974396, -1.7760594538860142, -1.0249979549190267, -0.29919200534326296, -1.3865951315606835, -0.3313038555105237, -1.5353613649323052, 0.948883441323919, -1.3861646890377934, 1.3877671098876094, -0.9267265843279334, 0.7840518372166503, 0.03295868286365287, -1.1367520847651864, -0.91342556967885, 0.20353733585147835, -1.3056947953612124, -1.139178501227852, -1.2339593525989503, 0.6499920299032025, -0.4847816465113073, 0.7758254917093114, -0.09748456507975972, -1.2756117544486196, -0.8268458959971515, 0.82413444001951, -0.3223530341600927, 1.0871811681933092, -2.4668328996199445, 0.537338454673959, -1.6954583136644479, -0.6296549484196142, -1.476382573959794, -1.8920883222263063, 0.20100942632299523, 0.7347499739062843, -0.4653551794764373, 0.35021108947617896, -0.43996280777241015, 2.4239726305949407, 0.01100563920660339, 0.7775869553352757, -0.261902072889267, 0.30562085101886893, 0.8513018101856664, -0.1548531604367237, -1.8032007876996465, -0.5119200258737289, -0.23942267951707064, 0.8864219399552062, 0.9693713008233505, -0.7812288873907276, -0.03373014645180486, -1.3268769708147243, -0.6355234778143756, 0.5520847544115636, -0.45144297881050666, 0.19173443655061534, -0.11205671034724847, -0.06991348326947912, -0.47365478070950906, 0.10340793683085868, 1.131849362823459, 0.9081523221936129, 1.1666113089091494, -1.7890775848299227, -0.5619939033493276, -0.8473872897775079, -0.13369662989296088, -0.44530359802278846, -1.0950362354169543, -0.8752946259054164, -1.1116754406429297, -1.260858283560056, -0.13552970433311298, 1.8348005162442742, 1.2769063136852206, 0.04513947272161175, 1.0854687918185077, -0.11137135956542372, -0.4029967793406594], [0.14453242278726405, 1.4860287932441798, 0.47111570358127564, 0.7762022335156025, -0.49325646317578964, 0.6131508990934127, -0.21212371849817982, 0.32622997046085267, 0.1061068691216836, 1.8413190560311268, -1.0648435174677313, -0.1442386949139203, -0.3162446240801225, -1.2436285210154014, 0.2861823415668448, 1.3135028214850366, 0.2685641361073162, 0.21422354488144474, -0.18963873799634934, 0.26834143002409927, 0.27922300274417894, 0.326871126065767, -1.5220768205011022, -0.6612182885297275, 1.092597757428988, -0.012539082506999385, 1.1125692816967323, 0.5050186466509372, -1.3173999664483558, -1.0052176177613468, 1.5465688146758279, 0.44567748583189587, -0.870863776754346, 1.7300447861051145, 0.004636151654340997, 0.22384962780548362, 0.09580099232165487, 0.6467754792827995, -0.8766323086692549, 2.0955589651055124, -0.6097756252430544, 0.6019478068749495, -0.5709012862774712, -1.3695029351470616, 0.3239955206140346, -0.6023228368325388, -0.9101964265964467, -2.0953714406576998, -1.732438981285043, 1.6252713294387957, 0.8952996916777818, -0.6450049440396944, 0.17184375502674926, 0.9038971029984226, -0.0238212729639729, 1.8986707684954691, 0.009620224377572094, 0.1742645391694156, -0.09870336159877348, -1.0076628291616154, -0.4789487953479299, -1.5536013578799404, 0.5201235210892027, 2.017514704218858, 0.2161210557129736, 0.2651129998614416, -0.5610591639173778, 0.8891703971632119, 1.4601094423768528, 2.6841739052738034, 0.3926381052447219, -1.4260251720819166, -0.9816067953521334, -1.4704992195673283, -0.9375769952324073, -0.9201295368431345, -1.1958601652097585, -1.334173400038511, -1.8542699482656195, 0.651911299236159, 1.5285456948993248, 1.3314445463110807, 0.8447685443468491, -0.6075917540318991, 0.13796916847716365, 0.38566073996725825, 2.173297937250133, -1.5457601458226444, -0.5935398379198927, -0.4348878615109089, -1.2031018141362992, -0.6491960284241504, -0.8272363905774842, 0.03340135186669917, 0.36162658659602503, -0.18848512079477484, 1.320798860295307, 0.31121269466478807, -0.5197911149396892, 0.5406796083816621, 0.7906219408813376, 0.5524697151741269, -0.13094293961006295], [0.7723436347416335, 0.014870844403991416, -0.5779732514905938, 0.09640626291443265, 0.03756437274991203, -0.9123168058134299, 0.03859316843887489, -0.5742485723313261, -1.761700721877164, 1.442410357793949, 1.1423443332070249, 0.5920793469853719, -0.9626724822549042, 0.41590377465272144, -0.6539550300488353, 0.10940559444071574, 0.26196418760816026, 0.11903380877393457, -0.4040375069081298, -0.08405725077225731, -0.15327603202289342, 2.0094967737339413, 0.4193841594644262, 0.08338929179705704, 0.02191576173376587, 0.09233433841648712, 3.0166040018929197, 0.3174533828571899, -1.1502443160229312, 0.1212700171319885, -0.6745163867248641, -0.29310696549881887, -0.376914956072017, 0.1373550869995131, -1.0622841243825922, -1.0455576513290263, 1.3004491820184994, 0.10509067281626228, 0.9172784453231695, 1.1769457044282963, 2.6620717619262875, 1.7182510629813628, -0.8850141677524744, -1.6935415731706387, -0.02183863128753588, -0.7915814083661529, 0.0364594629578146, 0.6604453994137008, -0.9035862590208005, -0.8524086327612896, 0.2616345811077226, -0.9541143249801173, 0.17330923441568746, -0.2855294711675076, 0.4203757109432661, -1.1808426691367786, 0.6441489548436957, 0.6435596593233176, -0.08426982260451459, -0.6192145948732016, -0.7261050843904515, 0.13117727066881088, 0.9248264422438908, -1.986628644812596, -0.8192634985019106, -0.1323853139898463, 1.1972774258033783, -0.5387890078934771, 0.1778517111571412, 1.3405292371819408, -0.6713562767245967, 0.9294984644542205, 0.693997587260112, -0.09637859160699716, 0.6933500739320363, 1.4893133279367192, 1.33741100988633, -0.36107447093283435, 1.1329184690808816, 2.443644123301198, 0.04426626092667039, 0.024545164435200727, -0.4941042340780754, -1.0558189980069936, 0.20773214900365308, -1.3191483992810304, -0.580202410013081, -0.4235657614922897, -0.18188704197561634, 0.38298406108151317, -0.25922041533915213, -0.640009149215377, 0.524307026319855, -0.5187258973251876, -0.08716991654104836, -0.039490656978717474, -1.7399118643980156, 0.38107639795924675, 0.5952618611979529, -0.9172872983136817, 1.6960779890843376, -0.20456433409586877, 0.11824983250848752], [0.19749216593474384, -0.9763292929113554, -0.28820639776111207, -0.9616128980657525, -0.729532139564735, -0.1767083958637297, -0.45978510403637474, -1.029021751070306, 0.3045190251948788, 0.9880667210586142, 0.39743625850168807, 0.44795204932439103, 1.6723616830737593, 0.08058756413573955, -0.02486465637069491, -2.338260528138133, -0.2224422696653036, 0.5001146179504438, 0.4979337466045748, 1.6109015309948744, -0.13926075703236507, 1.6985290847426258, 1.3157782602850312, 1.166744545550087, 0.3409302070135127, 2.263262908938122, -0.5550868914253148, 0.012974185293763313, -0.1788505069266209, 0.7647562722235205, -0.01574833620182953, 0.25157616290060825, -0.508842950367368, 0.31635905018940863, -0.004225076963689155, -0.7230678948236428, -1.3934405713716167, -1.1205026234083413, -1.381222187037923, -0.21593288494446586, -0.037095517514762685, 0.8029602449465069, -0.7417416903352925, -1.0267808961915106, -1.3667228719288946, -1.30421069603828, -0.6845255507061696, 0.9871341599421294, -0.7646577554548449, -0.2044499237803391, 0.06225232004694798, 0.8557764906098421, -1.7459858193044762, 1.5051813515020447, -1.3638969026866625, 1.319300159098208, 0.20267348739021693, 0.6093358162445118, -0.1248400256936974, -1.0728454410414296, 1.8085990292399396, -1.0572258173885976, -0.14007660468509517, 0.22722017716164808, 2.506295978995513, -1.6375953902857414, -2.949806932085014, -0.976334020473065, 0.2303646097690417, 0.5493949086742458, 1.4042203700570406, 2.397137492276744, -1.4247184090025131, -0.676261258360666, -0.518566993053416, 0.4603540108306824, -1.4467226445359993, 1.5332772032142705, 0.6788208836040589, 0.001139934964045252, -1.8787079376007596, -1.6270082964023618, -0.0028383052274938082, 1.027293771787589, -1.3467728460856334, -1.7775144988580713, 0.2513670316455438, -0.2821323686629689, 0.4350370274268481, -2.5299157147597784, 0.6479837415003752, -1.26720551721212, -0.3027894243986827, -0.3872600723072353, -0.7892495619042047, 0.6673368770624677, -1.3197956971716345, 1.9005924843008364, 0.9315365085967949, -0.5214815242100376, 0.049629665165744116, 0.07303205203448558, -0.6677381892328232], [-0.008356205782864048, 0.2018687745613955, -0.5761175577334822, 0.13958612943411747, 0.1310099190484789, 0.8111416068626778, 0.8510471125828828, -0.37222213545183547, 1.5234063886524487, -0.04920859936878245, 1.7198881944820885, -0.8955666145951189, 0.2490414621304395, -1.295637684510295, 1.150532592584243, -0.33602229511617115, -0.056144022135034256, -0.4722994791243178, -2.2524412100354105, -0.4836461354657438, 0.22212422203372575, -1.7219270947533052, -0.030057665700355195, -1.3079066532371735, -0.7587509992193316, 0.3890476976567771, -0.7064013617345266, -0.8324710946103996, -0.9506239750531207, 1.176564398999041, 0.6983851335025583, -0.7486377553264428, 0.9455533295583256, 0.359752379689066, -1.3615023066326755, -0.36783113365794584, -1.3195301850554386, 0.03550351272064494, -0.28131590120029704, 0.02556275372673647, -0.751918227651478, 0.1736086656916537, -1.3793323411915612, 0.9070931311673381, 0.6301737107809343, 1.218821419439037, -0.8684622406274334, 0.13258383789788727, 0.47181234219045515, 1.0132806934218614, -0.2853570296601469, -0.5420055668788919, -0.49269076567338, 0.9349103074020084, 0.14655835982704313, 0.9675348257904474, -1.4061803183637889, -0.07828146722872975, -2.8849398996493827, -0.29599519617264164, 1.483180850500302, -0.18588357892286062, -1.19258921769909, -0.6789268347082548, -0.8437944863119696, -0.5283285763140877, -0.3439986340392514, 0.3902665515097175, 0.32645805556484564, -0.909111555010193, 0.03911850345757944, 2.1412701808341117, -0.949342669707928, 0.47888095296423805, 0.7839707026867468, -1.0451724849731303, -0.9471969135806734, 0.07535153481478843, -0.6213685697435306, -0.2213032189827001, 0.44771200124914834, 0.36683283563972996, -0.4004390170461572, -0.3270087068002958, 1.633928478726653, 1.889078390154327, -0.9394080115863062, 1.7470941311295263, -0.09829926551258224, -0.5129557691113454, 0.8637273473202436, 1.0080889974964165, -0.749805571232045, 0.030944759786545057, 0.7382357921645165, -1.2174576654178986, -0.6564961470334388, -2.3947051858729558, 0.7226964466534422, -0.17117433052979644, 2.3209688589078814, 0.6651993764792642, -0.85667420542738], [-1.1062039429765498, -0.5294168625683489, 0.4517307864796572, -1.2629186588716437, -2.6098954177504035, 1.0824322029607891, -0.5151825667862505, 0.2165363024832405, -1.7085373360306035, -0.4100243672029362, 0.4442181601357423, 0.4108841226029865, -0.695273065751158, -0.4772672866753342, -0.23230613988488547, -0.4950568447675778, 0.5198274298683561, 1.9480664939013592, 0.24564647449648203, -0.5653258031014187, -2.576930076822037, 2.0228168589175435, -0.6394483605705757, -1.1787140632546989, -0.4565362161002437, -0.667083679497635, -0.1164484739446868, 0.8565405743004536, -0.5244633540855902, 1.0975889725990784, 1.2890923680239728, -0.6422581749118939, 1.2291425602893815, 0.10024321292948826, 1.1681121995492705, -1.1253678458231153, -0.10727646226443693, 1.1683873146368304, -0.045878811703829014, -0.31962593032563635, 0.5014364826523959, -0.5118188864464148, 0.07560191419024903, -1.167718760642467, -0.10204374478023912, -1.2493989535627628, -1.6346459362778079, 0.4768305129634645, -0.5179761330745013, -0.40905967359796996, 0.2899605403539739, -1.564847496917778, -0.8726786261957608, 0.3222441713757227, -0.7890475383035206, 1.0030203631548527, -0.5477172605883445, -1.0522762385979902, -0.8892075608252851, 0.4381347633994457, -1.9197851046085013, -0.2247466688797887, -1.2732650901672284, -0.5520019051971397, 0.2544636126325267, 0.7507096608780294, 0.19671559578164186, 0.186010420034343, -1.2823117997036013, -0.3556348547438981, -0.3679018050859368, 0.08311413670215312, 0.4702738473341937, -1.163548554400529, -1.1684958946549007, -0.7025955238747993, 1.064881428925821, -0.3868766158946703, -0.12819114699553913, 0.5021376230484152, 1.8438320917486837, -1.1913497792679617, 1.947842832657198, 3.3697525780409077, 0.3776906524138097, -1.1227368543039462, 0.7089110682440003, -1.6343832157520883, 0.6986059966074871, 0.302236661483632, -1.9992475328760717, 0.06206691979057665, -0.6588912435025571, 0.3146198761352565, -1.4595739880840752, -0.5042672849282578, 0.6995644614353971, 1.153109432381388, -0.17144642382392972, 1.351578982445779, -0.7890370504022095, -0.3917245306062667, -1.5020161180704998], [-1.7015052455802773, -2.1642174550993794, -0.2443043312349754, -1.5034900843169663, 0.7790270509487066, 1.0546335861308325, -0.9658502526226016, -0.41730724376219414, 0.06802177130826983, -0.9393388842987442, -0.5074430348947707, 0.24554678704997482, 2.3398097262672644, 0.9916860257856452, -0.47525317357915325, 0.9575906613779209, 0.5919921297691138, -0.42039795892154874, -0.6314457279723915, 0.4550945538203007, 1.2985573655728884, 0.9946284007666509, 0.7719273542949394, -1.1173955827974502, -0.08050733058604032, 0.43508119303415466, 1.3193569691912994, -0.4016990024390995, -1.6958460620676812, -0.5708362622463227, 1.2913178670156755, -1.0344024728146382, 1.5345020132339957, -1.1989558863764411, -0.3903596350188815, 1.7241730514447366, -0.15825816031724324, 0.47697037378436075, -0.7442420026320132, -1.07782672443709, 0.09881121426853581, -1.3806744537850841, 1.1453372460167166, 1.1681483722195525, -0.50716772865172, -0.13936712769515822, 0.7593046964252587, -0.19916945315104884, 0.3962537530407662, 0.5993341281496725, -0.9880945184276388, 1.449470617494496, 1.0685115050700238, -1.0742862214025926, 0.7684789349142008, -0.6078882504974906, -0.46049920309368214, 0.2426308093260133, -1.9516678120472826, -0.4098271811866973, -1.0810073249854466, 0.8504760116947728, -0.8160158126389556, -1.2590485388387205, -0.6225243729307389, -0.18810163604059174, -0.42754997115067217, 1.2424814346717061, 1.2858400406645587, 0.44940451140418547, 0.7234779932921365, 0.47170364935175474, -0.6168518356544449, 1.099082322160928, 0.583772630309186, -0.46946110496681975, 0.0462397421742771, -0.2599308084344221, -0.48297847731127697, 0.5905486835705731, -1.1318746624978382, -1.2600480791488637, -0.2584345007644079, 0.5380288947998674, -1.316080290618268, -1.0019779732922551, -0.5016438858074083, -0.46861688196581736, -0.45969650375337934, 0.7776995770165231, 1.5943053264465714, -0.5695622412562299, 0.0014221061369765987, -0.8513748893986325, 0.7825685260699937, -0.45739163744221273, -1.1868317795533938, 0.018582907103029414, -0.12804194944883673, -0.1345342298733844, 0.29818698067857174, 0.2215963897980776, 0.7840227050614603], [2.7644813098977177, 0.842684523859459, -0.9809660457019806, -0.08344762570524433, 1.0582805158584159, 0.39569829034346043, 0.6173391232142323, -0.3036284039479944, -0.500216191273271, 0.86414342076607, -1.1402057678988315, 1.4475135851831311, -0.20227234998620636, -1.252170775705267, 1.115364153430139, -0.07308012372900702, -0.9562511197718381, -0.3642010341928276, -0.38014459983888915, -0.529106189124418, 0.7284169349481384, 2.27133093597337, -2.712322777445425, -0.35418487933843307, 0.7297854705858087, 0.3587287973980434, 0.9539531562829845, 0.10578657744005346, 0.7296306733577953, -1.8452395213560615, -0.047705983343120574, -1.8127378742804425, 0.7768988091128094, 0.1937110786391641, 1.4943393241123022, 0.5444615781432399, -0.9078288968034706, 1.5258032939113102, -0.9165398602418865, -1.9419555054776265, 0.707308874726754, 1.1616922960011606, 0.6143170599827391, -1.1874974621892647, -0.7432879509410341, -1.3975409782613417, -0.16494649166661313, -0.6222291912258848, 1.2644569991405161, 1.4053226916412793, 0.13355332191738867, -0.8970920375297067, 0.9994307056376044, -0.6971913054580866, -1.1439959436283813, -1.7837237245169326, 0.033673665372187314, 2.1765681726581576, -1.5161129654514318, 0.015088299990320004, 0.31739140540654076, -1.4628768537635737, -0.345245326937656, -0.6520331250934709, 1.0082532118526806, 0.9368403213941555, 1.0014035435723951, 1.0468403374210113, -0.10824338010884689, -1.6680195488860974, -0.19640859063188515, -1.3305793503546643, -1.2543513525975523, -1.486222554100179, 0.8464293819300783, -1.3113360316816418, -0.522139284849516, -0.8597583240960547, -1.984334027772755, 0.5043980461307481, 0.599074855450164, 0.3215415514775988, -2.0560854087123257, 0.35373388569142133, -1.7269740393873418, -2.0851583189819376, -1.1405014919808922, 0.7295627147651514, 0.6732643299747216, -1.34429070525038, -1.5448977933062797, 1.0206188331204302, 0.7435101703584125, 0.4083188008396613, 0.8351570952051756, -0.5595983628692378, -0.058222884821212316, -1.3416401976184245, 0.6159603952957268, 1.8194652049779485, 0.08457206153397034, -0.31511657975946183, 0.6083820684730521], [-1.2270553906798125, -1.0200439824652134, -0.9635418802856327, -0.21574462796863378, 0.023901231626166617, 1.3835228726372633, 0.23069614212863085, 1.9330134450815786, -3.345430906639373, 0.1546313826988589, 0.8758584449217919, 1.5479209499203597, -1.7486266104440944, 1.2293800096897132, -0.4664340050409675, -1.1787952719195276, -2.4584930678075114, -0.2928203585989524, 0.5023351223492805, -1.2042738585906099, 0.7335960643536107, 1.8260307650490528, 0.2334481849468997, 0.13747141540839716, -0.27009643999302935, 0.0865800904842443, 0.25178275386819626, -0.43701861446525314, 0.8135306374212551, 0.3058738507827581, 0.33587146706083487, 0.22722369314773774, -1.9239883412635879, -0.5324195126196399, -0.1790087170247534, -1.5839544187205559, 1.1688136357852599, -0.46668278896913606, 1.6013284127243148, -0.8171395433622666, -0.11521166882039197, 0.3883727254425469, -1.0261483455042082, -1.1183514735596236, -0.4826466549103823, 1.2781200292793187, 0.967339685622587, -0.3781704228907485, 0.23996675996596273, 1.9161583008816596, -1.367900961591707, -0.10565578412576686, 1.1222510587742065, 0.22015441696194601, 0.23494058532858875, -0.8275428319648309, -1.7986483402886169, 1.37777999160223, 1.7170956621520457, 0.40085623246810037, 0.1613823884166683, 1.0254855865687658, -0.16930443915024387, -1.8362672206625599, -2.283980161304422, -0.1428161339128024, -1.1380392136940416, -0.7363750073703363, -1.1266403123407, 2.8479231783127448, 0.2949698516192767, 2.244986467721984, -1.0345352067456055, 0.32579517215333337, 0.7138601193829646, 1.5254629641556239, 0.6751928767551294, -0.613665572573228, 0.10651847698338776, -0.7230410705167755, -0.15295126821266103, 0.7226999295454777, 0.9113209879355193, 0.7073229205762243, 1.092186069550414, -0.8537418160490292, -0.9495941388127538, 0.3463598206660262, -0.6458620548823995, -0.1739863265226672, -0.818136566337883, 0.6176600210793535, 0.14079465952924647, 0.2800480574848946, 1.2531107492018505, 0.7370770104515679, -0.460888146242167, 0.6694920518020389, -0.17489514856146193, -1.4180027905678847, -0.5568615275799332, 0.6264759498323818, 0.33633686403272245], [-0.9780195697351155, -0.07067472536775822, -0.07531664647670924, -0.3946121612291894, 1.2294729146460122, 0.5611089270439291, 0.2839285346064852, 0.9767132377515699, -0.09582367873462809, -0.1754739817839063, -0.32655015026215606, 0.5083988279012561, -1.5857280913667668, -1.715563661909745, -0.44546424394128514, -0.8295291518675453, 0.9016735231393483, -1.15959418531669, -1.6776843651085085, 0.7699236470800461, -1.2047526173992185, 0.6787891017942386, -1.015320471403317, -0.8388505597706838, 0.5685087264208714, 2.1899510344807998, 0.3978035958554138, -0.5367564666448756, -1.8673016186090698, 0.6922445098886, -1.1142366135828796, -1.4901247434307257, -0.628369777482139, 0.6514567775643542, -0.06674710158172306, -1.7181243280887786, -0.1303318384304309, -0.5426638734306509, -0.6314917870519057, -1.590536167852044, 1.0541593011220505, -1.6595597787072427, -0.7110610921175095, -0.8891661805528922, -0.5212343841647662, 0.48326362847330656, 1.3739157789490035, -0.9988978467996876, -1.7981389113432775, 0.3720513451974791, 0.47925712316954117, -0.08485689734339982, -1.2454806738654138, -0.4318727765548265, 0.7235696986057775, -0.22259526206983576, 1.7329637562907285, 0.6255285407023797, -0.3098509472268113, 1.3215943727136994, -0.7908108489539414, 1.1390819906120724, 0.13248339404313497, 0.26270705768950625, -0.2790889871288395, 2.3412586656427163, -0.010010276220585127, 1.3272988785786213, 0.9896657958059548, 0.0029379208951923483, -0.6692264285366066, 0.061379419843838115, 1.0614234939006622, -0.5726731659857419, 0.1125893240198565, 1.693123275430194, -0.2316030483720364, -0.036706460412750025, -0.7836879419877298, -2.4591888653356606, -0.5953384275879319, -0.4205568439181841, -2.3597059903690254, 1.438370697310832, 0.933607867010115, -1.3818328442191778, 0.15575693807897525, -0.040762464787662316, 0.9325017171371466, 3.0776636302185496, -1.7255948893432098, -0.5983050685703819, -0.8972407280889004, 0.16823993054723504, -0.23831757856031688, 0.020152331438229965, 1.513406006499152, 0.03460044044497679, 1.450905425537542, 0.7496073439427916, 1.2219880446184737, 1.5172909005675856, 0.9534584578254036], [0.35640377615306135, 1.0497196988728117, 2.073071670947159, -0.27081520286836847, 0.3355843321454701, -1.3626958971748027, -0.05389457624943773, -1.0285218587314993, -0.583410481054629, 1.7008638761508281, -0.15211501791172252, -1.2821546837805464, -1.1727926850828174, -0.920401755375326, -0.4845319273313193, 0.3762129143130105, -0.2622131426989554, -1.5426509155173642, -2.455815231689223, -0.9174567991231898, 0.27007975510818, -0.646485141317861, -1.9434934793110437, -0.7884039888539371, 0.02596193933825946, 2.645304767111616, -1.4873272860758102, 0.3850952271935613, -0.2585892784515712, 0.34189381107431316, 1.3870205968068245, 0.04381911782638904, 0.9618183790626489, 0.5439230791206033, 1.6241865749793782, -1.5084390136042392, 0.19537305242137765, -0.9644885296892544, -2.6327868243523564, 0.4105575217175394, -1.1028882792380028, 0.84736922298197, 0.6849997682972804, 2.6862161740171366, 0.5214503711947991, 0.3134802457925188, -1.7934761612332186, -0.4278403726744633, -0.4867266118224632, -1.6297409907486053, 0.21700715339644908, 1.265612307414811, -0.3333021702740862, -0.10838401813954811, -0.5493210943995134, 0.3375265171123128, -1.2753380056404924, -0.7929144502719246, 0.7396246973129468, -1.9683086880272036, 0.7703200391811335, 0.16670520825480575, 0.22238119298792364, 0.7063688071120777, -0.8134471772724184, 0.42354538969786143, -0.9613685017686131, -0.885329995872817, 0.5992019640735365, -0.0029612366799035626, 2.538392536039523, 0.36685768805136687, -0.4484989814038017, -0.0027092736456312836, -1.2602733747978596, 1.2093111802483023, -0.08821547951768274, -1.6806975419133041, -1.8653544252933996, -1.0741283589823813, -1.5915064372687868, -0.23082401507539912, -0.9101936905098899, 0.511155930828998, -1.6547996105023197, 1.0527014193125284, -0.12967389591857656, -0.3163034554272088, 1.0727366313063147, 0.42609388081447, 0.6173663433800027, 0.7433164793508191, 0.25151262169185135, -0.43630305817762327, -1.1192202249078707, 0.09106904270950246, 1.9044749627684336, -0.5542640886594633, 0.7831054691432809, -0.4592396982971762, 1.1182520198671857, -0.8343857665547469, 0.23269907563483], [-0.09885776252915887, -0.03304748375562244, -0.3356866536518366, -1.8065931957985042, 0.16751768955911647, 1.0648919439658127, 0.2000174585519809, -1.2579739610742953, -0.4810578010094193, -1.4699985681001886, 1.2455624350188055, -0.0798232153345925, 0.4050058416376174, 0.21747693131293183, -1.5902280644662523, -0.35943600179771396, -0.07624024629654039, -1.225114926401011, -0.47847708376088804, -0.06604609577573564, -1.1731957660982493, -0.6540063684430067, -1.005820637802598, 0.3834569221592106, 0.6078900269671637, 0.14638552206926397, 0.6455711785959678, -1.588428281594493, -0.17085774755976882, 1.7401913640376072, -1.8181784220813533, -0.02759894807257056, -0.5497523922646022, -3.1697857446148525, -0.08333048425650083, 0.7848081724628998, -2.3999894332640928, -0.6294446917157569, -1.3899954385836633, -0.3120117116635084, 1.3893305706382364, 1.1924355458756786, 1.3523483425568923, 0.9857596481081305, -0.9235231300641483, -0.9720772856108871, -0.5309556973630155, 0.27559917170202525, 1.1167196857785704, 1.8039816919038298, 0.8019906292892625, -1.3510993999201537, 1.0372799395381944, -1.0292581177846845, 0.8596757168170861, -0.2455518930721773, 2.4393459054720577, -1.6926426341910192, -0.5975101918983281, -1.088118212750043, -0.5448442972126868, 0.8568452172321238, 0.010152800648366087, 0.2807348881248585, -0.09773574740722446, 1.2386103909891097, -1.934378850492012, -0.11018407803902228, -0.44793626078807747, 1.2689072688317098, 0.9007027135082917, -1.2817567093799391, 0.6553703957041028, -0.2115436868359075, -0.6524526877454417, -0.8239171863986365, 1.8802474686750952, 1.2916436374403764, 1.1436920916582347, 0.7974573475010145, 0.10237268310068637, 0.006641731873042456, -1.4037290886434726, 0.6888416652472541, 2.3943265015536817, -1.5243379844770069, 1.3066817497720886, 1.8426662897292938, 1.9827512692782365, 0.9606906896889325, 2.785412168858216, -0.8895821925478028, 1.2022280021984795, 0.31572349949755973, -0.9817689313681004, -1.0824309564172074, 0.5783994547184986, 0.2254454348284052, -0.6540980457654824, 0.6726822171935499, -1.9436809118555887, 0.6570850279160646, -1.2482343061244827], [0.4596190144323355, -0.430753371857143, -0.6246943758787734, 0.39936400887072665, -0.08455356508193206, 0.39531446855223706, -0.5092296177529547, -0.23809627198666866, -1.4731251238514242, -1.2639130641587732, 0.43149690341890473, -0.867006599207515, 0.8729792034764733, -1.8806293282495938, 0.04302137100897622, 0.3256861573742317, 0.8590918802831745, -0.6813983792776116, -0.04283109526867253, -0.5930205231587773, -0.6155802524533985, -0.7307099956740624, 0.43630779329016217, -0.9691946249852997, 1.6608452381277525, 0.08142526146132743, 1.4518356229788858, -0.6178642377258391, 0.13282419405622625, 0.5373496166107217, -0.9471841820035112, -0.6360121855860502, -1.0111091712949074, -0.4972788691137769, 0.3862800116925818, -0.13080191496112492, 1.1388327134356289, -0.2753250174788737, 0.5351929275906882, -0.8148425183405023, -0.7648964686095234, 0.8655581477464109, -1.103103825448782, 0.8137115243588556, -0.09338561111195702, -0.9361093783601894, -0.07063757178566704, 1.0947879774917029, 1.3065124974547353, 0.49304232139099263, -1.345025211131908, -2.4966173606544295, 0.8713083004148156, 0.5410221326539737, 0.10177956555766898, -1.5721342277269272, -0.5229515751350776, 1.0258582642880307, 1.5775647231603724, -0.4411643546964371, -0.33983468124064226, 2.272935392051509, -1.6893491865213246, 0.35504339469563184, -2.153931326906421, 1.3582617312691985, 1.2116212068545253, 0.7496996002741191, 0.4094908070005999, -0.008421856792464467, -0.7014485094040569, 1.2090471344277252, -0.22619165348139567, 0.17836868611761764, 1.062217668416499, 1.146614757531986, 0.8017585272907684, 1.1747661553027617, -1.170502298444124, -0.07252054157400942, 0.25070255169816325, 1.0423838498496036, -0.6061546559584486, -0.5661188394339728, 0.9270824192638205, -0.23244531131244653, 1.5681994250631286, 1.472193856839098, -0.32265585307450045, -0.9805811392169249, -0.2552885709620167, -0.7775953631567928, -2.282583551793342, -0.05237961468964291, 0.7811075805752357, 0.6785964831185967, -1.9887642406314041, -0.1761528819661452, 1.7470724669554965, 0.1868225998094606, -0.5978475257853563, 0.6700972837592976, 0.5166642318593071], [-0.8938343516645954, 1.185516885194667, 0.5047662063387589, -0.35556049661714106, -1.3497309938363513, -0.8577752841542554, -0.05119328515612018, 0.9967277190763232, -1.4167135390510357, -0.05041514167551374, 0.13067760167042522, -0.33268225088969244, 0.8424762096424303, -0.002766657780514187, -0.044031552084741826, 0.32891558934935106, -1.3610111169360681, -1.7445775944591513, 0.18558388990890726, 0.08060671065421667, -0.09455319772410668, -0.9449029957272312, -1.5119156188140057, 0.24476096792538737, 2.0880658558831597, 2.0324016492670265, 0.059289299309903405, -0.9065461234972704, -0.7656791680472173, -1.0957258965495178, 1.5413791109353965, 0.9692733238642613, 0.5181216177248759, -2.204218640176493, 1.3739126353914008, -0.8407344538764613, 0.28337861810260156, -0.6916434850065206, -0.5375092727856361, -0.8462123117088419, -1.5574869152654547, 1.4789137812479138, -0.007893357997331608, -1.204922123006285, -0.5026637457667849, 0.5911493216082638, 0.3477494743466871, -1.1297635788394211, -0.8836705218213806, 0.6465725550244941, -1.648809704430612, 0.26308486254556385, 0.9340048071987439, -0.9133575649154302, -0.9935603959146884, -0.42348880698526653, 1.310891501856646, -1.070411103312362, -0.9541298707386775, -0.11127788462439904, -0.7865381134930532, -1.1054690151598485, 1.2008494631918707, -0.20813723562453762, 0.05146029556251228, 0.22900857551524914, 1.965716335778692, -3.078350783969104, 1.6408564613246321, -0.49318245467951866, 0.6946740959973342, -0.3887733668280569, -0.32077059161680016, 2.321706258193831, -0.32630693848641495, -0.35791626829079076, 0.23917821306099366, 1.3725649473499941, -1.7639948430780579, 0.008741628563998953, 0.35957856248458336, -0.008875663795820691, -1.096803302090555, -0.4264531674605225, 0.1906305222169533, -1.679254591107333, -1.1360770257068495, -0.5231140440362139, 0.14723227904010375, 1.0855416690431632, 0.25167136736537987, -0.5247528274137484, 1.125693103190198, 0.06178487673960337, -0.734623426567636, -0.9268681382373624, 0.6988021065178899, -0.17312007452607797, -0.47557456764539974, 0.20801407961347093, -0.5142351785264996, -0.32270919887394883, -1.326933220308897], [0.3323215096388319, 0.32768495351503646, -0.38056944717132246, 3.2076498793461767, 1.3073596828489848, -0.9328605940494248, 1.3086912723629085, -0.7645591503036872, 2.077879699565522, -1.6052805001667592, -0.1530231167290053, -1.45837259607975, -0.10110164319558596, 1.1979431385758552, 0.2789578187064655, -0.7995475223961787, 0.29123579042151443, -0.07607030592251769, -0.22247641817203376, -0.4324647722621318, -0.8091498884614736, -0.6431162852536719, -1.15375208253581, -0.5171304256379671, 0.21695078091896017, 1.8637080435566487, 0.06971972768177082, -0.02224603816492139, -1.375983451638453, 0.6518170759965772, -1.337542382379865, 2.3679245494545134, -1.0976007564549757, 0.40459030496048315, 0.6101373062080478, -2.1022281984440094, 0.12530214787452254, 1.3574266248882196, 0.4059784725395096, 0.9951241011538328, -1.6863223852470346, 0.3282576841266995, 0.9386559280322787, -0.11150048764045754, 2.27630660765493, 0.7911050177406027, -2.0540758895207563, 0.04856665571736913, 1.0772107686085748, 0.5287213264018126, -1.0387399369082098, 0.8182136184597494, 1.6274085401941554, 0.18152680353919332, 1.3638617558878143, -0.5516230633749549, -0.26967767824939926, 1.8304801179095855, -1.7706471679495566, 0.16152336042970736, 1.8468353223903746, -0.45294509664711113, 2.329390550534753, -0.5359279180161282, -0.006359402808875052, 0.36300935570671095, -0.9474633095052415, 1.1878215060323556, 0.15262927361725337, -0.23444166406655848, -0.29761617418565633, -0.4103721768859431, 1.3052825890756137, -0.4141541924668753, -0.4775465201685935, 1.4575792511196395, -0.7844354374281866, 0.054021685763082326, -0.8393122262892924, 3.237390969500491, -0.7321139783525696, -1.0282267845388688, 0.270824988161373, 0.5450693035715283, -0.13280865957214136, -0.24706787123490032, 1.0354971615265691, -1.1427998029741278, -1.185114175529554, -0.014754322929403041, 0.6294909313958386, -3.021046184584039, 1.0490735533237132, -0.6741177865668783, 1.3726734410364485, 0.12047700912191883, 0.9154369330201216, -0.19613246217560004, -1.588452987996055, -0.5451579477678931, -1.1621001482818836, -1.2604356148635862, 0.7348266676266874], [-1.849842111606144, -1.2193148734215464, -0.9824246836828422, 0.2848034158895429, 1.2884813145373444, 1.188326767314263, -0.5738751745032664, 0.20283963579522257, 0.3602089738519158, 1.1855592147810634, 0.4158386062030018, -1.0080564121632314, -0.17216035528696808, 0.523172419919896, 2.91149537367106, -0.8678852812153044, 0.5224679466555218, -0.9743235865729096, 1.2398149110197856, 0.8271523483818464, -1.0910665135571824, -1.0032538889354141, -0.18408612544111877, -1.5948674066550343, 0.05029171212568186, -0.08348038781667162, -0.7057015300797527, 0.1690066078962387, 0.9241235564737643, -0.22462083253922105, 0.1593635138582907, -3.248974309212916, 0.6041339772552162, 0.536632252551584, -0.7280073522805297, 0.46422573871533407, 0.5157280436825433, -0.7983520959459843, 1.3728278165052856, -0.5864875111141347, -0.6273440512324199, -0.1369517685796625, -0.5733172630458309, -0.4292759790569574, 0.8852529443106592, 0.7125692970737301, 1.7709402366986335, -0.3997531560857423, -0.6883713869494139, 0.029286882997390313, -1.780331009432591, 0.9361881055040042, -1.5967970984254796, 2.5017285349501, 0.39615857089558437, -0.8495819017928806, -1.6060551756957384, -0.8755701901698143, 0.9334799286331958, -0.5370256909823297, 0.836220300008596, -1.0926218192073458, -0.2871179546533, -0.6884391634310567, 0.018798914035783765, -0.39274540026692156, 1.1612550114685094, -0.9859219702619512, -0.18190443275019377, -0.8890036977605339, -0.7670208873915586, -1.0281392109547667, -1.1967800289435921, 0.7163519954121591, -1.3018342867548307, 0.429642075885309, 0.16857682047297823, 0.14353738461388388, -0.8023369235665632, -1.9073702192379651, 0.1637633108047812, -0.3198145161588344, 0.03634019377186193, -0.6461737944826197, 0.14208332349100852, -1.281780864095245, 0.14207580594261304, 2.2866492137970513, -1.3533108098648454, 0.12406948676042943, -0.6406796007879344, 0.5422092872975613, 0.37594697542352273, -0.9638446631009978, 0.157962335839729, 1.1244699125795343, 0.2095747448795751, 0.3442088632212335, 0.51819197823933, 0.07649808100259971, 0.2877498968070169, -0.7482160210773517, -0.04828710219697145], [-1.6434626434933064, 0.6057991331153323, -0.10232962562581795, 2.579960087576496, -0.43733592951057876, -1.4824217721442545, 0.05064709156928823, 1.3207250219989004, -0.6172050122090953, -0.40712030798315557, -0.1993379947766537, 1.8938381846506613, -0.29355094670220416, 0.6483414117685307, -0.6861880169028816, 0.1521366487917707, -0.9777325502956473, 0.08212481319182342, 0.335945106167029, 1.1577128154040934, -1.1101345250420203, 1.779307833918912, 1.460352338330209, -0.43143452964368245, 0.2671239800440989, 0.7774381474607059, 1.3411690540834973, 1.0400517507153426, -0.3073481553991662, 0.0872750877001931, 1.576149348079151, -1.1420811412869605, -1.121666444431651, -0.6749198388619101, -0.6695484380113813, -0.7979530320668984, 1.61733755900189, 1.4883672864425297, -1.9157577171283684, -1.3593289368263475, 0.7594839782995082, 1.0808423245829875, -0.4219371431902113, 0.19628477130406893, -0.2532018387688664, 1.151230975630468, -0.6719048282276134, -1.0826580446000602, 1.0444031269361007, 0.6556429425060182, 0.3821860372430199, 1.938068786070401, 0.31413201622037334, 0.5381516843117756, 0.8763588785747635, 1.1324446765472298, -0.04476183154183304, -1.7738498509282201, 3.432663348878014, -0.2087166961604873, -0.8872412456580316, -0.19251395343990474, -1.4372736299644382, 0.8000410464680215, -0.16937680409103303, 0.7643712002459225, 0.14038899582809605, -0.5698895184934161, 2.3847248428585557, -0.7532236548309293, -0.7987539439105793, 1.1725734943826966, 0.014379334800275964, 0.2354370568939653, -1.8154961743971119, 1.6094195200387178, -0.11593276926693426, 0.2496613328466926, 1.2514269592280454, 0.10431586397740769, 1.117287046455241, 0.5125737749363476, -0.9054362077621936, -0.053953597257126056, 0.6991842141669877, 0.5238495096418015, -1.4722024525244193, -0.9289520690720762, 0.5650730326743195, 1.7991801622739834, -0.2715202781492903, 0.22401288342870515, -1.6837385225220087, 0.3979572511009278, 1.230801362385843, 0.14932616604489812, -0.06820264080858346, -0.8293571875142101, 1.6698713318622351, 0.7644644434470154, -2.146501035638774, 0.20998825999706774, 1.153990986116706], [0.3308198383612522, -0.05096614537352988, 0.5580176347565725, -0.5399275066788953, -1.923284023828294, 1.2511888638948303, 0.01166941068528579, -1.344650637613621, 0.08838116961727202, 0.7416390694242476, 0.8362144805709544, -0.90613764248844, -0.5505313664630919, 0.6585245224796309, -0.6503454234850827, 3.5679350870104196, -0.7256328249770356, 1.6863681915289634, 0.7072199271577674, 0.28123900277949454, -0.2991125441584189, 2.1212981032813443, 0.8278423557112075, 1.0529445360034957, -0.2749686500383461, 0.3281698700311309, -0.5505220260303954, -0.19280725188434103, -0.29085667816483357, 0.6995836141160651, -0.738735776683628, -1.348243916354821, -0.28909314163816663, -0.8863746002466353, 0.5386203286330616, -0.13772649872434706, 1.4143639917290038, 0.8392470213924108, -1.1508168851066891, -0.33620266282809674, -0.1490280395318865, -0.7784454290810228, -0.8785866133557337, -0.9178380616450569, -1.9786850704660865, -0.15545490959560918, 0.9302856636033429, 0.3633080515111292, -1.2173752439033145, 0.4625134317808497, -0.5010887457791782, -1.433384034126246, -0.7226124185815854, 0.10026349507349538, 0.491541934830829, 1.2750068639888454, -0.5452522800060603, -2.485076263370579, 0.10221595052785307, 0.21430886283559716, -0.613987517198647, 0.9284749438166495, -0.8600637853544473, 0.08778972333268437, 0.6838755176114697, 0.36262315910885184, 0.803855318044274, -1.1036992676451707, -0.12237891042671387, 0.8044953035870821, -0.9558070100072812, 0.07754064365638642, 1.0046468175947356, 0.036135101994887675, -1.1143071270817415, -3.8748137095168387, 2.893636265415913, -0.9403376815683576, -1.1328479398037778, 0.3166182462061216, -1.4719320701826277, 0.21526874461384327, 0.2171535224324517, 0.5370745589050516, -0.49435599808329606, 2.3325318838208804, 0.38345229255953805, 0.5868406552848872, -0.4984001965363041, 1.090605849636739, 0.8127222964692064, 0.5603079631747736, 0.11611428876265188, -1.2654895749597384, -1.576207381985288, -1.1962110333075227, -0.45087526979894144, -0.8615670025502691, 0.8730437338087551, -0.13751042588137374, 1.2259217214744957, -0.6429774415904025, 1.1626723977679712], [-0.6275802722226205, -0.5417706272203018, 1.4015018415737472, 0.8673244442505534, -0.3312884315162524, 1.306820529362361, 0.5454671330093982, 1.4049356206910104, 1.4242267354210347, -0.34154864452220096, 0.5148434727506622, -0.5370212698682126, 1.2238146351226877, 0.0864516952751876, 0.33289815425074093, -0.9515342383138706, 0.944243897454071, -2.0838387893230816, -1.3848165212063634, 0.37731752745400127, -0.9293018333409546, 0.38910692054563145, 0.5463656286444287, 1.176338912461088, 0.2577984720887844, 0.5939046610824931, 0.02602220318547093, -1.4703766766835884, 0.357888532461403, 0.7742506852045042, -0.15855418072898889, -2.783800603557501, -0.9574868782208201, 0.3577302390731357, 1.3677515243430693, -0.957868905812982, 0.038632211942742405, -1.5207147647656498, -0.15572997666002966, -0.7878384885212899, -0.5318093576308855, 0.550926831500398, -1.1758976516760637, 0.8425376542562522, 0.1925445319664092, 0.3116944671839757, -1.3306319290030437, -0.8029822104074383, -0.3620095537933503, 0.32192049428225256, -0.322071189942713, 0.45917724082396694, -0.5274343484213686, -0.5375415268846783, 0.1036674658431181, 1.031412859505267, 1.2256387395298707, 1.4714703183956208, 1.0795048473660143, -0.24856511730453335, -0.2706082850619568, 1.4479766465678094, -0.2687842950836817, 0.5029645144791435, 1.0883451411827378, -1.2410658798183523, 0.9090026941631867, 0.23932935051315088, -0.7826355990005673, -1.705433050155248, -0.8596840167445791, -1.1033576975388615, 0.643537326845801, 0.9391757429555871, 0.6483961637141036, -0.7241580877020241, 1.1934402898277396, 1.0868763842985616, -1.5971931455605588, 1.2080385467419625, 0.7625391501949925, -1.6525518536756472, -0.5571252419094456, -0.36935137515237754, 0.6494866414762714, 0.5950749369104232, 1.0538095674668997, -0.47818432852782294, -0.5646094590381766, -0.15574488473520814, -0.015398391171580579, 0.25823647999940846, 0.4468558495299586, -0.5107011378149794, -1.1970509925710175, 0.015807288681336684, 0.06768357543248311, 0.031664637124861665, 0.3480883412963567, -0.27487226847684443, 0.7578269356118245, -0.4005517192751032, 0.1487628948076636], [-0.13929470843553418, 0.755461177180307, 2.4315879329410763, -0.3049135297463076, 1.677290759112875, 1.2681008346523033, -0.7200241466196992, 0.7418920890650258, 0.9128487145959853, 0.269646721971536, 0.18128634278904646, -1.122592174858091, -0.8600877725290125, -0.13475936662042498, 0.8015711554029799, 1.1104726936431133, 0.895111242562329, -0.7803547191970199, -0.1884247047726258, -0.4182552841361113, -0.08354877955497927, 0.07853159919016017, 1.3631034793046282, -0.2370748814528937, -1.4739654371930875, -0.2425557318108929, 0.7646143781654097, -1.3167125479608113, 0.7499092479198921, -1.3705743374480346, 1.1506632684605032, -0.35397363158735956, -0.3412334059948922, 0.10939299105942213, 0.125878429022815, -0.13827289454226668, 0.5785421390986906, 0.007828423492098247, -0.7818447533036504, 1.7549357900497, -0.6061266960989037, -0.6363568634258735, 0.7967633865114055, -1.3589796171537014, -0.8030597102752356, -0.6219244559304521, 0.22786078528677878, 0.24033835705513512, 0.218721071899597, -0.9842713291154647, -0.9033843367495815, -0.6883156537805296, -2.5999842709325884, -1.6501147263936888, 0.2578827584463364, 1.1120682827436215, 0.6368964068136498, -0.09139560741066867, 0.08811923962116558, 1.7580609509889933, -2.143454549382247, 1.12974068741554, 0.12277471907696587, -0.6896939247636134, 0.8722870106349768, -2.262707412483729, -0.5202280931341264, -0.5309137933589289, -0.22498069418185757, -1.8122376529479038, 1.461883445217892, -1.3362149007589355, -0.5269962243909554, -2.2488546451550757, 0.03581780630286125, 1.4387878595326935, 0.5440335689428036, 0.17720753981139928, 0.4329681027652474, -1.607260243444927, 0.9721472109122168, 0.5719375625644758, 0.21375934382023437, -0.8952868332870279, -1.0589745289643102, 1.4471252050711756, 0.6646133714615948, 0.371784208555779, 0.3163477775311753, -2.980481401203924, 0.23406324490410485, 2.3857462076043543, -0.4971757638112022, -1.2372899842098573, -0.8343744882353604, 0.16007303221548919, 0.8185522425125402, 0.6448177015751823, -0.4781800914285917, -1.534971036350133, -0.14425740683653215, -1.3695347695361328, 0.4315927938200865], [1.2227010849332176, -0.3735120288607192, -0.7239610446088168, -0.5905143863681752, 1.858449998227574, 0.654100848858344, 0.5868466150038268, 0.5342623097327337, 0.07487359038714654, -0.4440082651481592, -0.2972274159494486, 0.7623932385343721, 0.42416441009407846, 0.07569967041538299, 1.5985530069941345, -0.6801514688494871, 1.4519321741015045, -0.4455348767409019, -0.5358888945141419, 2.033345878294863, -1.7669661185229406, -0.37716118438656543, -0.026083198739833304, -1.1328493388728254, 0.2923059804768394, 1.026826747702381, -0.3967518023609078, -0.27371720830034757, 0.6930474591255374, -1.1418268105962228, 0.11370076662491264, -0.21579108756747487, -1.1332081370184264, -0.9278713126725975, 2.2627460562560735, 0.9372195034995149, -0.3645447690858972, -0.02746678053375438, -2.5600422757942822, -0.777375215162419, 2.0173669808303316, -0.22317469594810327, -0.7482982131696747, -0.16290795071705816, 0.36983405703522143, 1.3543767117363887, -0.36838480559535863, -0.1381108475806728, 0.10815537216967673, -1.000384982718962, 0.14972829255524187, 0.4740672943552897, -0.8137873224340023, -0.8218872288116809, 0.5954470260443282, -0.08223156869164709, -1.7345653521699602, -2.417900446264792, 0.1270142343364434, 0.3963002342228114, 1.4409767020652504, -0.3815029466643176, -0.7172037241522852, 0.21810561079998975, -2.1410100107319763, -0.22057544807945076, -0.28755381503437166, 0.24674243438017485, -0.006664075296560317, -0.9132849210466107, 0.3477979905044005, -0.8035079593582424, -0.028345043193061126, 0.49853883265946225, -2.011512235030562, -1.1673325834328208, -0.4239526351389444, 0.019392278200960688, 0.8311404520662763, 0.09964185011899072, -0.5922320592725763, 1.0834315938036474, 1.967567293159012, 0.5647268938805242, -0.38949186424507193, 0.7712797923910273, 0.5920113254897172, -1.3765640612529237, -0.03881309739471431, -1.819970139174932, 0.17380800757226267, 1.0475583142267129, 1.0322484383338202, -1.3851583723594947, 0.42208684552580045, -0.500792010604475, 0.9226152949867843, -0.5493623125909051, 1.1428073021334, 1.8833366398194147, 0.0660936875822131, -0.08192150689984487, -0.429807463163788], [1.7272318886556428, -0.5109550899026152, 1.4578322293265615, 1.5218554774939912, -0.41744552452690803, -1.6958485577402418, 0.48934658907391043, -0.5668786009085325, 0.3699279441111289, 0.7038365079529549, -0.9114527553682874, -0.15958718471827915, -2.90908699864633, -2.1463800376163604, -0.07612154849674821, -0.050772346205228774, 0.37187592281261045, 0.04712846015398325, -1.0310647647533169, -0.09164147685527468, -1.1332880709458282, -1.1069128010585079, 1.2033133975579309, -0.555111199125288, -1.0696833053426784, -0.9811750883950986, -0.4719551521154043, -0.021016158103404386, 0.6702249089241484, 0.36741017091417333, 1.8159846049080954, -2.7416182537488223, -2.7222149316545097, -0.08991066216983241, 0.917635586518833, 0.9762414777080627, 1.4782455804281769, -2.9291114822436377, 0.10911182155521436, 0.46623281961606017, -0.6735408307192198, -0.5095516387881748, -0.9712291284712194, 1.683071654268636, -1.2790505702868187, 1.279452130582214, -2.3506207840719777, -0.8410355880487925, -0.3853147580518096, 0.28899532006793527, -0.4225831069082015, 0.6285767242199962, -0.4528481948544444, 2.0146500633041193, 1.019094650492937, -0.15579594904092997, 0.9622208728340647, -1.4132841016732498, 0.4237413199391246, -1.1299044595027887, 1.6060370018779406, -0.26889581835587634, 1.5643504722161463, 1.4996711509703549, -0.6536764811878734, 0.9034794489666124, -0.519201996475561, 0.8733689047909758, 0.5262862011151759, -0.313224015474554, -0.5482059286010954, -0.37745267625443696, 0.2597722579883469, -0.7302704811282307, -1.4781625367956988, -0.1837118467113477, 0.08323590666610571, 0.831733055437047, 0.12575380323548854, -0.16369531486357614, 0.5831402172481562, 0.6231161143907074, 0.20815418425029653, -0.5167886718511161, 0.2354059272702117, -0.8662292834697387, -0.0625183687862574, -0.2992127894342946, 0.6548604335434791, 1.298060822177307, 0.46159990896697867, -0.32814209153498847, 0.44695530379067416, 1.5957627628125157, 0.14335783898683951, -0.7529848251766226, 0.05381058804522919, 0.3031868811404837, -0.5380507635486699, -1.166911701843756, -0.6180291685880958, -0.6710160024305428, -0.38724419746723826], [1.9842204216702888, -0.2896556770023216, 2.0558100977559515, 0.7770139649919984, -0.2960604750639794, 0.9696661317479273, 0.3527426350631166, 1.2738578377448888, -0.22511786562755107, -0.11670565831347444, 0.7885077227117971, 0.40692570568910685, -1.1143195612044667, -0.7483796920505049, -0.9012594529463657, -0.0756046217445021, -1.1271928622033218, -0.5883459073056159, -0.18392840005317715, -0.640514770022977, -1.5238416157845454, -0.802928698332376, -0.30792503278014843, 1.790516568685776, -1.9979452436886627, 0.7286899751233072, 1.086149884689944, 0.6248377793779754, 2.556064330192527, 1.6566892900861858, -2.310441976366974, 1.8236542768773851, 1.8393405267115337, 1.601101673454493, -1.7816211776822843, 0.8226003823930651, 1.7878734355590034, -0.22192119298296703, 0.9375954569126531, 0.05324719125675934, 1.0003109777142536, 0.7804122476678839, -0.7411116413716612, -0.6638572888272467, 0.5543869082480717, -0.4227210183268972, -0.31436961698560273, -0.3597915143596307, -1.08199748241157, -0.8190031281653646, -0.2209716293613723, -0.2632095053020457, -0.1534582124336872, -0.1791471653006687, -0.29930769982204897, -0.11454269339988767, 1.3691075735976885, 0.7724065304067297, -0.1003329347065943, -1.061219364564116, 1.4914506674692305, -0.1263364475228589, -0.0952275055160837, -0.2930818314488433, -0.1545697631378573, -0.7161085536374261, -0.8227196514137436, 0.7557138376876344, -0.43700859934574415, 0.3071515189233487, 0.8633529973163315, -0.6961632668263619, -0.00464373007821998, -0.9041004531216981, -1.0127608289418923, 0.33175697995807363, -0.18970133504796513, 0.5333191989907927, -1.6684363230244685, 0.032635635274051375, 0.4333791705060955, 1.2455726744319886, -0.7873210307218318, 0.07219618395800233, -0.48109078776355946, -0.22553577147174628, 0.14253318366520604, -1.9973562800925861, 0.06377364017933669, -0.3573691273379183, -0.1688593865478189, 0.7011278325128621, -0.8842860062875553, 1.2261940770812672, -0.9963440208860523, -0.055631374765121235, -0.8097283929987645, 1.5532460160806438, 0.034958013460746055, -0.5694318775629871, 2.3865811430093236, 0.10630797270630479, -0.5215030356850561], [-0.6572607088995487, -1.2577389701927622, 0.792811773518173, 1.0362377921468058, 2.3834694951938333, 0.36930106715002825, 0.05626462361032051, 0.8608421556441017, 0.7507987045223047, 0.5240631422390598, -1.3630332643580865, 0.7929070353410657, 1.0481041009982883, -0.5748339482538736, 0.2951800135969281, 1.4019293891836786, -2.0321042050131917, 0.7592660055546004, -1.3345406895339647, -1.3947521074676394, 1.1919169129936622, 0.8197336001977527, 0.20526521216848698, -1.0483907691083816, 0.14636888478081048, -0.27188859409606697, 0.06284654969224836, -0.03946476741681472, 0.3106002844653387, 1.4184795465725435, 0.5694077765398037, -0.8252275650011484, 0.14810729374821263, 0.0385853105259483, -2.410525758696166, -1.0128693895658845, -1.0607143761406816, 0.06922811351437526, 0.7052623092584224, -0.7606211683421907, -0.7270357759230667, -0.009387978265520958, 1.195000147185509, -1.7367088307791712, 0.37541010232973576, 1.1173269999994047, 1.7879158917598201, -0.7805800178019399, 0.28594953922477256, -2.5929311409895326, 0.6880454111561328, 0.659786754446251, -0.9912871567865907, -2.9345367044578126, 0.5932311628900646, 1.5665232143046819, 0.8985370852851774, -0.5125988052907497, -0.2729040240378956, -0.5916395460197175, -0.2504708621397122, 0.7547021489917608, 0.7090628006045963, 0.10615669843150784, -0.5432313599268721, 0.04261858951629146, -0.10706746141560598, -0.754970063327681, 1.6933415227844149, -0.5255548354789179, -1.9627147528610513, 0.6987876189472128, 0.07904288762842476, 0.43804379016104555, 0.3938097820971283, -0.4023659867580165, 0.7590120862101915, 0.6928334247276663, 0.1774250430435712, 0.07197495858647142, -0.05396035760607699, -0.019481559698604597, 0.009169026969262403, -1.0988682173110862, 0.792819004724683, 1.6196777271431215, -0.10259030488052566, -0.6935190364775395, -0.29291446972838636, 0.1358853995975692, -1.2511461881621138, -1.1791740323120707, 0.9574210217797727, -1.631460981699075, -0.5603538771360334, -0.21484803673154998, 0.2882047342501264, 0.6495369889236852, -0.030802517748077463, 0.9424094197698233, 1.1192295448937908, -0.48749306100928147, -0.686006444795871], [-1.0434845308827463, 0.5097165611507699, -0.05795212888094304, 1.2072881912398021, 0.6745888932102201, -1.216094831855654, 0.003587284603415779, -1.9760910286937627, -0.954051268670198, 0.5080567033884242, -1.1584045006219772, -2.0426204745866032, -1.1677368519171734, -0.13013989764668138, -0.8223420005274834, 0.11030049341521338, 0.24514014845445156, -1.864280563872584, 0.9485388639438399, 0.9477110687510201, 0.028809177929624674, 1.2326424731902625, -0.2210859057989057, 0.5500149637498634, 0.18625785726202584, 1.5536962548707136, -0.4410902982062798, 2.537795441774295, -0.06487458170401195, -0.048546093957975364, -0.13695548201070804, 1.1777066308010622, -0.497655165850622, 0.31613466206121715, -1.9460103086169043, -0.405469624912586, -0.8005276340968488, -1.6610525367216193, -0.6303393999140758, -0.14584886824089768, -1.162893085985539, 0.1930444574068054, -0.8958694774783256, -1.049702763208414, 1.9816694445093221, -0.45328269547487876, 2.219880386092565, -0.9757866112054387, -2.0516058214076938, 1.1180628153955068, 0.26705208951142784, -0.15009201080268067, -0.1228654427679185, 1.994621623902811, -1.4153302178203833, 0.3290726586366103, -0.9542179729462773, -0.7529184581632985, -1.6597815670500333, -0.34704756665118813, -0.3248493772658917, 1.026322634358772, -0.1323116447816303, 0.3034877181595954, -1.4156202326908958, 1.2239725631819656, 0.8963085910267798, -2.198256812792236, 0.8183321161132003, 1.3690351048443974, 0.8908789038497302, 1.1647038782988024, 0.06570291943569245, -1.324551920067996, -1.1741512214652723, -1.4608118843148283, -0.47936961439458614, -1.2071727909381995, -0.036802910640532906, -0.9682180260051054, 0.9675037071071981, -0.5802241397831615, 0.060841848633023075, -0.7031121749924817, -0.812158927441949, -1.380818117165639, 0.3457779879182686, 0.21805078392154972, 1.0625545078862353, 0.3088699543039456, -0.817180702580026, -0.1093084974507616, -0.06916959887598362, 0.46434372266662827, -0.5277167307053582, -0.3290796294363916, -1.341861571039672, -0.254996885355691, -0.7907207402871828, -1.3341891708290121, 0.21160635546248982, -0.9215336626296785, -0.19737315587607526], [0.1589666772290071, 0.07982858996950226, -0.1322834813559008, -1.1794375349599033, -1.5016562161231977, -1.1352632558524243, 1.0626148620040778, 0.12980571447549102, -1.8576724450088995, -0.29267791779587937, 0.17180148773511295, 0.05108216906757787, -0.05138586298673145, -1.353263528486571, 0.4985521164922357, -1.065860671554999, 1.3274455089164028, 0.5263569312013877, 0.025436571636384096, 0.43102474333950014, 0.025897716340175802, 0.32015430967585395, -1.0538165406993225, -0.22493484920091736, -1.393059592874647, 0.03444380042594069, 0.763803036380213, 0.07684210156937508, 0.21457481049817678, -1.5193311976886341, -0.513631150426951, 0.8096123707249875, 0.56189639819549, 2.7529141822398424, 0.7736084331210119, 1.9212618052244808, -1.0343044699105366, 2.2061015257859684, 0.532115803715039, 0.6844600398274646, 0.6194702450483139, 0.5297560221617497, -0.9031590780295349, -0.46124458805800855, 0.6739372163584918, 0.8942956293883233, -2.048220453112582, -1.3120129216754268, 0.24268239582075, -0.45512488282280666, 0.15041943292726428, 0.31680638939959305, -0.1587762427804514, 0.038761625317188964, 1.2523125873134897, 0.4376282063974016, -0.5931724713641102, 0.4114488053309773, 1.2641039397725284, -0.9455530854925003, -0.5817598142069388, 1.3426228250453711, -0.695433785212839, -0.317656491717269, 0.9292120301548786, 1.0696121643575254, 0.7700904456358695, -0.5520723997517758, 0.0206602362055834, -2.2360532163479037, -1.4237097896587156, 0.696349193899306, -1.1171333390371259, -0.598306476260451, -0.32519669910657817, -0.8848203934350276, -0.416551276723452, -0.3067816063137343, 0.8990958789052282, -0.5537756258100968, 0.6344230766505218, 1.687068894456084, -1.084866105802836, -0.08358230236251399, 0.46343166941326, -1.648941855615805, 0.4832496424507635, 0.09024361558184793, -2.220645502808261, -1.0819872685040235, -0.3617128708436143, 0.08028655697968884, 1.3661237158896042, 0.1206358977220858, 2.3685231304526866, 0.4483315310118469, -1.4421875490136862, 0.24658131509242395, -1.0922686420839005, -0.7896395936692495, -0.3513539210785163, -1.0204376957274979, 2.121883253421701], [0.6168501715301007, -0.25397660017144486, 0.5364063225763015, 0.16703510445725936, -1.6449734139100836, -1.328800580234224, -0.14614883051105898, -0.16498565704189272, -0.5378144249086108, 0.07967051234822596, 0.32810174738817294, -0.7169871613072943, -0.5682294575018317, -0.06639533775028239, -1.1518624466943146, 0.15303944246836626, -0.7155495744939577, 0.7350906783412854, 0.2376609445622139, -1.5546892814875244, 0.903225076010192, 1.1335027649338, -0.39184948105800627, 0.652580603103785, 0.21337313356393744, -0.2465804866066987, 1.0822468751950483, -0.9875372627140255, 0.3861377737630683, 1.2602482897746383, 2.8195639870871485, -0.6429207157419522, -2.349916654356949, 0.20938725784806936, 1.989578175592221, 0.06763574510678125, -1.2755000609974168, 0.14132397390986795, 1.3883275419083208, 0.7132628582291158, 0.9226022395945067, -1.612401997011804, -0.8359178843616007, 0.771382770224811, 1.1461705508995277, 1.9501775283995877, -1.2353935693183267, 0.7107663809154154, 0.4026587611263028, -0.07427107393165508, -0.6997597280964057, -0.3766201596642871, 1.243353105113888, 0.10494538659931418, 0.6433720036564337, 0.7385304587822287, 0.9930262214901463, -1.3239162184515842, -0.7468881551465046, 1.0319409459544333, 0.8211544816555342, 0.6619545631970993, 0.7498950393126251, 0.7300628007067355, 0.6006196916000336, 0.7734217650289669, 0.8933019899169511, -0.27858982199493976, -2.6848780169024513, 0.07186881593863083, 0.21296988539832878, 1.7516295262632708, -0.4378648626344792, 0.14061053263008125, 0.667475226909477, 0.14766007733010605, -0.5961841724395687, 0.09913339572202802, 0.5166789450393847, -1.9029865280938631, -1.0900605230922973, -0.062570666398458, -0.724678778026476, -0.3401600987500239, -0.04301425813168217, -0.8898825480240201, -1.4272511693671424, 0.5513387472181382, -0.4169250277962493, 0.3915060642021725, -1.9334759960754326, 1.3475535413215791, 0.03479187041525432, -0.504719602535079, -1.2182854961879521, 1.184499971608445, 0.35081227184149383, -0.46041674506250757, -2.729564260714146, 1.0883896673347433, -0.24914817247192478, -0.26162854946292863, -1.3373011456091266], [0.15582089533454993, 2.408210824380852, 1.013167157224797, 0.6304800412911774, -0.39376588024159725, 0.27274047136482793, 0.3028930868386667, -0.4377017657633889, 2.1677823729279853, 0.5697052840169764, 0.18111475852848832, 0.6781802175547735, 0.17719508925111788, 1.9264492016869115, 0.10206491034015777, 1.6361150554534398, -1.2317349475411095, 1.2048373520883104, 1.3631407880188653, 0.48832546611895783, -1.3701760644505732, 0.40786709042377084, -0.7530787402835577, 1.389308392693251, 1.4634934370852508, 0.37710256267144593, 0.2167443046786374, 0.6194417370764471, -0.8840238898289203, 0.5423308870379057, 1.6140000032163224, -1.2976893648328622, -0.5565189601455943, -0.03330817122482988, -0.5388599208639502, 0.06268122949289495, 1.469588702246113, -0.427077520685195, -1.306434523459834, -0.7863725641463264, -1.727832128376843, 0.5349444906874409, 0.3576481323207304, -0.6357105949832139, 2.069471350112648, 1.851914951643836, 0.22274621202852726, 0.5436933900899911, -0.8459370501025206, 1.492313256938315, 0.8017377239785447, 0.44313988203658694, 0.9531814737697868, -0.6952429782958635, -0.0024686172096897497, 0.3804841408013869, -1.3566170218219529, -0.8312867381632105, 0.12802446845486185, 1.8241592007395073, 0.33158509036688893, 1.8129804201253084, -0.9999308513643859, 0.381945648961507, -0.7580940868302617, -0.011786591659163966, 0.06908409532878115, -1.5723654237723186, -0.25272555918414336, 1.1497793989012928, 1.7337091825813344, -0.14773847102538504, 0.45023892417271044, 0.20828459016641504, 1.920843041434982, -0.02914942049763586, 0.5400838889839854, 0.6556119863318761, 0.7758942107973886, -0.11217473535511427, -1.3164936544213144, -1.408070421467845, 0.02712445757568069, 0.14382153665900207, -0.7151249738728651, 0.794533715940522, -0.01284841552494958, -0.8664744373984394, -0.6496844881891988, -0.9250776572964283, 1.1410214208047371, -1.0118350329412804, 0.34029997944646606, 0.23078747996894733, -2.2964772178075425, -0.3517314290012825, -1.0835217960102626, -1.3932836111449727, -0.8750388558995162, -0.49465104405653776, 0.10594600210448188, 0.7895088110069195, 0.1234963464921594], [-0.5208929791651005, 1.0886695702519391, 0.9405331750670032, 0.9399761419657395, 1.4689531144795647, -3.0194664491865137, -2.5747524049064117, 1.0097468299893677, 0.48715185079468326, 0.13209666960645575, 2.449752347329085, -0.17169723660158479, -0.8331642413799127, 0.5713841734202002, 0.7960134592462526, 0.7210395535825544, -0.20783006757998823, -1.62700250027679, 0.48783603696518885, 1.4872170711750068, -0.20438674430270495, -1.5624234085840698, -1.8155489777588887, -0.4172706236558463, -0.6531977429245918, 0.1651136679278344, 1.3516806267557655, 0.38296070923934017, 0.9464230865570238, 0.9436735412063986, -0.8990272400383007, 0.7747204920323113, 0.6908787052599891, -0.5600344278267099, -0.7573580942233199, 1.6850773546683742, -0.18576926362983165, 0.25701677433016606, 0.2287310910762055, 1.8206815469910067, 0.09336439561075649, -0.1363169734233471, 0.38438241476002394, -0.9763859403499583, -0.5717920708654304, -1.082801032779922, -1.0325071539295663, 0.172718000958956, -0.6376914394970917, 0.9563119189880508, 0.2672757423773709, 0.45196595829529984, -2.103749847253641, -0.1430569952516807, 0.6512973046960254, 2.0224290468588806, -2.126905303797178, 0.8224505631374828, 0.8840371471181553, -1.6460608181622924, -0.49703531594412936, 0.9641958758766715, 0.6304656924680838, -1.4097294893897505, 0.0690453883858891, -0.054851341102749245, 1.2449577600049406, 2.277196932201067, 2.8098226172606147, 1.1911743968055235, 1.0524675240298924, -0.8087568487299555, -0.7411922952159066, 1.0432095015653013, -0.596707949303811, 0.8565452056849078, -0.7954239358631162, 0.6199578517647817, 1.80192200411578, 0.6493615918329316, -0.8603350178280518, 1.5181717976796834, -0.20533009320471518, -0.6801086644003287, -1.181943087747669, 0.21025755288726491, 1.3044573209878814, 1.9867097021012914, -1.3953232185529523, 0.31874441180130003, -1.1418100112535197, 0.5765148508008701, -0.3120443967228396, 0.42626510807522805, 0.23232140258103953, -0.3501358339813758, 1.133631684764128, 0.47434649463380946, -1.523152038310516, 0.9752824357310124, 0.027353460228407223, 0.6726205190967047, -0.5061204256268701], [1.4631011728955077, 0.9254984782618253, -0.5367807363993653, -0.20458150067541597, -1.556015113233134, 1.752929522707761, -0.14666409682010093, -0.2891637588773081, -2.7386611848624596, 0.5120856256299305, 1.469214536837471, -0.5751239316074235, 0.2792112084818974, -0.518990768470537, -0.2073153452361812, 1.3559131859009135, 0.635444620043185, -0.23071755923955012, -1.6812347450662617, 0.22009407152172708, 0.6000104212502153, -1.160891683219752, -0.7703420776766322, 1.3395328118761671, -0.8464522752791583, 0.619590010947488, -0.12073921316088759, 0.11516158342211626, 1.6039242441943176, 0.4897722569181055, 0.47165590061976037, -0.870712582602394, -0.5451639374975823, -0.8461571361556994, 2.081767609377507, -1.0302757570485563, -0.32999279608619103, -0.6826822289974299, 0.456772635607852, 0.2079945294542511, 0.20587882982316968, -0.27431998137792146, 0.8967539202218076, -0.8615302527266591, -0.8867410380282443, -0.5548143230038393, -0.6623643124675052, 0.9341817991724015, -1.312531174105607, 1.0766521765684576, -0.0556755296936458, -0.7072396019895439, 1.997815943838491, -0.674927897226359, 1.005227709423821, 1.7493629036070686, -1.051033767486825, 0.72181828568812, -0.6359356037792464, -0.7563643418296191, 0.30418974892110884, 0.6683947720943406, -0.12143475928935152, -1.1166136345919306, -0.380698681501239, -0.7864225838872005, 0.5331602611120442, -0.36457389075151897, 0.14427924492379854, -1.1738582305293033, -0.2619704803681391, 1.4056550144604365, -0.2852000185322759, 1.3298851262909352, 0.6261970969690979, -0.8368546859144638, 1.339441203092093, 0.4082022882329084, 0.07340423037072352, -0.5508818064084219, 0.5459559163404795, 0.9710855346281879, 0.48456825704154777, 0.6636837972211576, 0.47690050247194243, -0.5947159904314944, 0.47211437704145087, 0.2568757053607567, 0.5234172692942086, -2.1299360283532325, 0.31616641117702843, 0.29082787958943285, -1.1106920065508534, 1.1832767387882872, -0.6537029439223292, 0.42874356604366465, -0.40904258889856054, 0.2801952433979412, -0.7828456165690663, 0.5949565167996123, 0.32123046762863916, -0.36175745989880287, -1.960872036633063], [0.5540373172645965, -0.5429300523521112, -0.131354236899048, -1.394582470504786, -0.7480664814177665, 0.2128322090707649, 1.0103090463831501, 1.2221591510620304, -1.2971130053260584, -0.07303728497215399, -0.8128351661392785, -1.1079145226620164, 0.9092535229447847, 1.073996740109037, 0.48705687086424415, -2.4578341021953887, 0.3121383593163228, -1.9566632209003714, 1.1582728312470527, -0.3446235181348209, 0.004815416962119478, -0.775099995781071, -0.21346163958569817, 1.5858170696718834, 1.3283670631136235, 1.4895169217467379, -1.8128413314676153, 1.078120712726637, 1.6139760167111754, 1.4041649308960094, 0.7152675008231113, 0.5081000136811893, 0.6829529152067303, 0.12908109034543566, 1.330567035672369, -0.060506462363330446, 0.10820098144490474, -0.14362803456774337, 1.2524376413735707, 1.5350687621035548, -1.1768546197962337, -1.0698246544132464, 0.7163732423695421, -1.6448216078853624, -0.7344366958420095, -1.7366539996143742, -1.14654380623548, 1.1891633601874139, -0.1639821522478782, -0.06305480866655566, -2.117597900166941, 0.3181667823418547, 2.8750460778278506, -0.8127452627070811, 0.24019949040632593, 1.8022028529401595, -0.40273260630703456, -0.42246708976431935, -1.928991144869183, -0.19051881353777522, -0.07038840757087408, -0.4065793618594615, -0.5769361142694901, -0.9053098375468727, 0.6038016384461992, -0.7113927941863396, -0.44667467104833525, 0.5231348371206448, 0.15593699898729219, -0.007906452557766957, -0.31931312929113226, 2.6131623355308866, 0.09233334153954545, 0.41626371192681066, 0.6839389427896101, -0.006211991925820763, -0.5016927681030903, 0.45716601721417927, -0.5086278915762946, -1.2614906242513364, -1.4905676937293526, 0.4694457365502064, 0.950666298839637, -1.1145775571711976, -0.7204871692219376, 1.9442110516391182, -0.03037477787435014, 0.9155920471016127, 0.6552232536507789, -0.4461326695307676, -1.4272262821817046, 1.6189165162633437, -1.6011147897413653, 1.0904490048709623, 0.18168862232837704, 1.8822318865200507, -0.2697220512639503, 0.8507441625965063, -0.05919854944177864, -0.31677953338247467, 0.7305304279614543, 0.01921101342964733, 0.1241244937635024], [-0.19057427633233903, -1.383676014848349, 0.6187305063502809, 0.5055279657860083, -0.7743760270175594, 0.6459525182080946, -1.2475888482780768, -0.20088137806372725, 0.9952099160490377, 1.522010276719787, 2.062420633987813, -0.7238333814293012, -1.425291932803257, 0.4135728840955071, 1.512386548094976, 0.4455240972897264, -0.10786751344335953, 0.6458320190080187, -0.01929226346864616, 1.8513693070537753, -0.1954546371657442, 0.49960197697384834, 1.0891806919254319, -1.2358883300120693, 1.0401087216451457, 0.1923258516348045, -0.7629216812400847, 0.8781590511667655, 0.2823597812421937, 0.38577304905926496, -0.5105303377892153, 0.30738143862260414, -0.4009295826093179, -0.8743966096354847, 1.9255616267851905, 0.2799875943024985, 1.3806540883997194, -0.14364420349244836, -1.2255458340479548, -1.3654512916188768, -0.3229736737426596, 2.607218393779852, -0.8498976584995522, -1.0761159458007674, -0.49536959178799983, 0.5133045230592391, -2.0431683325709713, 1.2566622827953668, -0.46931222701822195, 0.14438987719817425, 0.8177380080957896, -1.1100203539902616, 0.44001491690372807, 1.0792743258089947, -0.5677559811862439, -0.012570024514459637, 0.9616790990320642, -1.616549521497112, -0.7735642521009666, -0.16447506145881102, -0.5689114042856108, 0.18186108096590484, -1.2703837657827857, -0.980779479294836, 0.46272906579699846, 0.28132609792699564, -0.049715836487595026, 2.3631379497725753, -0.37627627953623266, 0.14427198456239967, 0.2224723751505011, 1.8829382448374092, -3.396004016806534, 1.0076973612479596, -0.20152785365189244, 0.7543962960980487, -0.4832959346233467, -1.5957175189151012, 0.1940239706961023, 0.7919431292537481, -0.42397706056733797, 1.2079878983233199, 1.406283986012081, 0.3720087494790201, -0.3511826596053377, 0.44895288161211677, 3.066820523298342, -0.6734145044623331, -0.22633708954139423, 1.1742775934714191, -0.5600209034082084, -1.040112375675147, 0.8311715720296261, 2.523866863181597, 0.6187499580314507, 0.26812077559903685, 1.1870879407812238, -0.837623618930457, 1.3003877274863542, -1.1895807931120064, 0.2115334604888258, 0.4128209351472524, 0.6585320610011353], [-0.34012140062531987, 0.045176028410029885, 1.3451748901801681, 1.166095493666607, 1.5776632658196628, -0.5023509936390481, -0.7111154886777689, 1.8942931309555973, -0.26931686492578255, 1.2973441585013932, 0.9186490457530208, -0.34725770774970205, 1.4282910346929758, -3.0595859356908144, -0.6386942775923189, -0.30375935004976007, -0.5194220346803275, 0.17139640889260835, 2.413487285109071, -0.5185318353543481, -0.06722273063301612, -0.6881701662339615, 0.7212318639580921, -0.5368126665008591, -0.835846467048019, 0.4391978670742283, 0.9546301602165934, -0.8060999216477202, 1.2989428071148748, -2.480337240551871, 1.4634771247949667, 1.5301785467086084, -0.6751363725326894, -1.4885710364743179, 0.7724401145534526, -2.4712900688360424, 0.9594004424977458, -0.7342701898250323, 1.6234146556364089, 1.579294874616435, 0.9872788481867236, -1.4905918197556969, -0.7218251067904319, -0.5431348437035634, -0.9735527937254123, 0.08428431102228492, 0.07765351310659711, 2.2753190383016237, -0.9883515442569697, 0.7084046679077117, -0.16489764455513098, -0.4766234996539486, 2.213858068180004, 1.5303377415579025, -0.20431906354309332, 1.4178375380834505, 0.809671701173608, -0.971675219153025, 2.5203736452072705, -1.7977618571581613, 0.8871842679126183, -1.0501251509474223, -0.26002452018967254, -0.21308446973902084, 0.724680265569472, 0.0032519328741390458, 0.6324360788414588, 1.3385301827963971, -0.42184352230642574, -0.5636542228676775, 0.1521974211218458, -0.2672397174710044, 0.2974208217626288, 1.606260964127692, -0.07581673412649444, -0.24531870501334513, -1.2271530450576797, -0.5252990178541733, -0.07872800160616426, -0.10816036339953664, 0.9212807069201104, 0.12198068385762366, 1.129592222734829, -1.576997537811592, 0.08267106548263185, 0.2755510866680106, 0.029683051477242185, -0.1959679648457902, -0.5208187963569174, 0.7375443887343319, -1.3502434301553674, -1.4202119548495156, -1.2049575685718834, -0.5185214707304936, 0.6169123654879706, 0.002380793093589014, -0.41039387055811943, 0.9705905443096131, 0.27721523807878434, -0.09644531579211321, 0.12877353845084671, -0.1556083871987932, -0.8256401783598144], [0.5600432456131029, -0.4978125965933464, -1.514992692706165, 0.47410441920357504, 0.7990396444110096, -0.058736495186881385, -1.002549160875881, -1.3079956709700502, 0.742901025064476, 0.08660692512003623, -0.14090921448729957, -3.4500575344752193, 1.3154772463281117, -0.7724276438417671, -2.1662470189275798, -0.8112970642646864, -0.06413234061912354, 0.2780032553200682, -0.9351608128629654, -0.6418978319115378, 1.3836879970982139, -0.3231513814180531, -2.105301136318299, -0.7842594150891639, 0.9314714454288899, -0.748846008230773, 1.2934647337608212, -0.9806646760430539, -1.3475901389679827, 0.031257053668811444, 0.3455334138244635, 2.2255138589277688, 1.2379086954397582, 0.26277336694670933, 0.3164952894447061, -0.22549159041851266, -0.3834664764042068, 1.7178857343790606, 1.732545473070013, 0.6409360833752256, 1.3426286993326098, -0.082237927587736, 0.04079572386462089, -1.2586989232421515, -0.22112682009016785, -1.3183176523884301, -0.09268211738659862, 0.5345458412493374, -0.41109164806999515, 0.21369888847034457, 0.8287692171733028, 1.2328390259326911, -0.8881931425992324, -0.031038728797655422, 0.4617444652922664, 0.3056416216314853, 0.8324151023413753, -0.4183386263829355, 0.283532123979774, -0.22794595857126418, -0.2828469376992448, 0.25895849074175903, 0.7923231547363679, -0.1070239050995444, -1.192433007261029, 0.6321927970288705, -0.20350619132091471, -0.11478986526942131, 0.5010753175352799, -0.8346269287717493, -0.7284870348095633, 2.6454138805685563, 0.2164599497656321, -0.5027239962152144, 1.2372828165278262, 0.6715004421206916, 1.748340937756954, 0.7856781806931724, 0.4173461859928429, 0.7725410737657216, -0.5821115023805672, 1.7935900820239477, 1.1771060818967072, -0.06955252531859758, 0.7041234334159674, -0.08582553814530268, -1.149423799934416, 0.12433628214730028, 2.7588143872392576, -1.3047057024887616, 0.7023385778045078, 0.5773090010931684, 1.8663813028394465, -0.46525630963573483, -1.4657925644477456, 1.182626026168613, -2.172937775628248, -0.27201000109104745, 1.3909676697428335, -0.11941386257806563, -0.24127339593432798, 1.2392291873515762, 0.4778625442457281], [1.201921805258268, 0.6913794640082661, -0.654761641791311, 1.8302232187407832, -1.121711038586733, -0.5327869167336609, -0.4229251937128857, -1.1768150201604168, 0.8453416896397962, 0.15419097545668398, 1.3379296352525971, -0.49030998296524725, 2.605093433730562, -1.309567399519762, -2.5333468302071678, -0.02443648940058465, 0.9321416029427451, 0.22669977155788462, -1.8642888105654003, 0.03681876082316174, -0.5168782548349669, 1.425434776743769, 0.5330376303459796, -1.6289247785282033, 2.9407192975109417, 0.4202824277888725, 1.7822568342988978, -0.11995251894308355, 1.8997629047963775, -2.1038755917931504, -0.2227155928216355, -1.382967041762584, -0.9240050605415673, -1.0076749451882687, 1.238281476875633, 2.5029093660839328, 0.3204703192179673, -0.13283898912704806, -0.7439422649606693, -1.698736178445901, 1.659443162378535, 0.7892392325467572, -0.22254013774943196, 1.8049550184198684, -0.06468138211028644, -0.517974004780275, 1.393208538492853, 0.1881887720442536, 0.38212978184735485, -0.5531056735057646, -0.9366562809422463, 0.7720704050537368, 1.0337419996677328, -0.7158783810538933, -1.6116208543730437, 0.2814036700130777, -1.0555471950492255, -0.3285710281883743, 0.9856438282386345, 1.2493519514291251, -1.4176521059534215, -0.46604061925852164, -0.2972316535870334, 1.129739367942646, 0.850698100783564, 1.423899436925057, -1.2103682845307682, -0.6362155709553123, 0.26304819252464384, -0.710173822211089, 0.13739182576467918, -1.2962591891537634, 1.7653770594590903, -0.1470595345957947, 1.0743838091209978, 0.5587921455533221, 3.1023278331475184, -0.16358067658780837, 0.3417895253395278, 0.36399289590131156, -0.945672674289158, -0.9907105035859831, -0.08254822711753722, 0.1471139101160232, -0.011910652058686532, -0.14714979197584777, -0.6440108973264653, -0.46154167236531557, 0.6478950242131596, 1.4851588456512437, -1.1966637854007305, 0.5499547155184207, 0.044309626094324484, -1.0325306732727935, -0.7203634008794111, 0.06283680646535164, -0.5656917824408517, 0.1300330092832988, -0.5339055949714177, 1.2103186023566368, -0.47255316376276085, 1.3122556587850447, -0.5063306051964134], [-0.5777353234008107, 0.4992370998340732, -0.523009321639403, 1.1387598551487752, 0.02976368167572964, 1.8496481450361137, -0.8765218473020714, 1.0776187053323207, 0.8062232253951738, 0.3852658488828319, 0.6736777441973062, 0.907443272568312, -0.34858046012038074, -0.42438598173868186, 0.9333284858306689, 0.6267553697211461, -0.5472749619167846, 0.006066117374734756, 1.1105952050089027, 0.8789057522808064, 0.5017204151173984, 2.2068753576168394, -0.5376617245441919, 0.4868657936123147, -0.6163793591490143, -0.3513980094477835, -1.3681977154331832, 1.4717386960187528, 0.7409000449458784, -0.14229160851759298, 1.448116821812921, -0.4199069830366008, 0.8757823205575777, 1.2711105332261459, -0.3775009597054725, 0.3730638734307306, 0.4518041192826057, 0.6292365473636251, 0.8388124180359267, -2.0762494968922067, -0.024191995144909488, -0.10189642062698125, 0.8894202832524769, 0.8197195171171905, 2.129802782342803, 0.0424016015971734, 0.39613417765952713, -1.022677299629811, 1.0659386053783908, 0.5853029667051037, 1.1904537945642102, -0.9266723734015669, 0.7786431408102045, -0.20002094318229074, -1.241270392280988, 1.1841649632356226, 0.12372442288985323, 1.0062569564612722, -1.3540280730096452, 0.09139094454548304, 0.25997663135005517, 0.5786629939121009, 0.4608483278177704, -0.5180096630811285, 1.7858706515248144, 0.8621779184999898, 0.5068959456700174, -1.9016181055739152, 1.6859568491431578, 0.7147502911997452, -1.677855714936097, 1.587856333397084, -1.394220982633496, -0.7694224784049868, 1.01394158735206, -0.2731005674378439, 0.06458701631064356, -0.16511478631572052, -1.1844259007731612, 0.760611651134157, -0.29859608144144945, 0.20444947823385543, -0.40753659270031717, 0.4746989772993358, 0.9195859017184619, -0.2407110254570879, -0.8859956640646595, 0.8324237769442717, 1.435190211618241, -0.48983730478264265, -1.3626404643943724, -0.2358934130271254, 0.5881221638623674, -0.19008453167649966, 0.9809131401290532, -1.292774693192695, 0.9470774159886594, 0.7534358925871827, 0.6553325738768505, 0.2728872867539702, 1.3883261054332305, -1.3651434681866481, 2.2058282315995648], [-0.906144597441447, -1.0776657771701248, 0.468963557764772, -1.040112224009639, -0.3252541035746011, 1.4172595969990185, 0.16982379260337838, 0.4718300247455883, -0.9088921247910973, -0.9248888702024259, 0.6911389071886049, -0.9495064346934885, -0.30274211208844526, 0.5528507068456815, -0.10417159998705837, 1.3691848158953086, 0.4438121790318846, 0.3344534798993556, 0.6079201416945946, 0.4603289636878914, 0.150613535287321, -0.5578388325203191, -0.8568846386300495, 1.65708135420718, 1.7894064524675426, -0.5171316394840607, 0.3353079525152451, -0.9011776002690155, 0.5378851823930528, -1.1495235138971216, -0.2521827776558025, -0.9553851338825, -1.8650132999023283, 1.0593083075277618, 0.3556922114881869, 0.3344438876839921, 0.4512565732527022, 0.7568380401809127, -0.9602415320982628, -1.0913974038912246, -0.8857388704439407, -0.7461370781840279, -0.55510896629109, -1.8459414276319688, 1.0764816387036902, 0.27757591482416455, 0.17336043045988284, -0.682320703911864, -1.0155208922277708, 0.5908860550690563, -0.2050962654455975, 0.5835791230360979, -1.6498877132761864, -0.4298063172530925, -0.3567664685027184, 2.1394105280673, -0.06237940892890345, 0.9240060220655276, 0.5994528974063154, -0.40780086358444784, -1.839378959807451, -1.9851993921519602, -1.2710486154644767, -0.6659331092047275, 1.7038544162049785, -1.5242793981587839, -0.4004360668714467, -1.2553470836283724, 0.2384431487503852, 1.11033859457094, -0.5325240843725515, 1.2099320045765594, 1.292100790753815, -0.5479173782001929, -0.07139131524365878, 0.08381697566110013, -1.96448268850552, -0.943583399649627, 1.5185310813530533, 2.1156514829399082, -0.5902203882221225, 0.8655317454367331, 0.6384235021544575, 0.5557625525891765, -1.2078465310901088, -0.5223812194704455, 0.1971314545030977, 0.4104283706064117, 0.22337592329061323, -1.4538230525409366, -0.30127196214964486, 0.9660822084847515, -0.15718506336655946, 0.8825202507731206, -0.8840259521669823, 0.3556499161493862, 0.5104554289882806, -0.9264507804636452, 1.7072867849372964, -0.2426118551190353, 1.889002630590933, 0.7946804545504889, 2.486447164983542], [-0.3992576390680834, -0.05921797468946293, -1.1438493442763316, 1.152852079451927, -0.3642675975106164, 1.023338156586427, -1.2608603687716677, 0.7614442026223041, -0.04751559561417476, 0.4355826012835325, 0.3560867927148567, 0.43262544455090346, -1.0229702256864635, 2.1368469202582485, -2.2459620027053897, -0.7231436385730999, -0.19903171240659598, 1.2892685581371117, -1.3598719525486649, 1.3936000327329905, -2.0694152201601144, -1.3424312484721874, -0.8527955796637597, -0.8588440680586639, -0.16710529152459005, 1.6171307010398952, -0.8704507986796605, 0.5918945677636305, -0.6918843838441565, 1.3800457603720238, 0.02214060443738322, 0.867343885440222, 1.1057253214477605, 0.660603661306225, -0.6147962412169965, 1.3028083328727187, 0.1793017623216799, 0.43892034019766935, -0.24021175018589452, 0.28482350715778654, 0.5431581816801347, -1.6452147171393003, 2.470536662388867, -1.3944776991036685, 0.30191740648457815, -0.5408557436887457, 0.1914999322992174, 0.5873950942388734, 1.1204414318440128, 1.7810805709742803, 0.17378374488135825, -0.7176907366825961, 0.037921155113237036, -0.23624055156198243, 0.050497381304693376, 0.8224924062421491, 1.5731265932730611, -1.5823781478581833, -0.3971602508417192, 0.22976863795688016, -1.2170551721521856, 0.0982992376468608, -0.9765472764492807, 0.10609740339599098, 1.4215692095837766, 1.7476084792932334, 0.17707481489198798, -0.3260404343510408, 0.47772247438600024, -1.1648481575321272, 0.30611102518977845, -0.28429513552919533, -0.2938033159420548, 0.26313163139525664, 0.4563188313833104, 1.4166208678045877, 0.588513132825828, 0.13988311675863202, 1.2881469377668489, 0.4794734114366298, -1.1263829625913255, 0.9263249880005011, 0.14632542299076792, 2.0954727581677512, 0.18154403015158316, -1.2599931115718794, -0.9950871477189444, -0.6124975751301379, 1.7864382216553831, 0.008819615612217611, 0.16167873657333579, 0.7549782728401325, -2.474697502672888, -0.2769012811431037, 1.059816156112245, -0.9870583358230796, 0.03741863629205727, -1.5958695487207164, 0.953325496908337, -0.589582043903631, -0.785405369641308, 1.1061648339519432, 1.7836927968006961], [1.9617531115096103, 1.4123045637118483, -1.0782299051751019, 0.17402241160318407, -0.6033795647886693, 0.20857310658703368, 0.39799122283182126, 0.1663189808154365, 0.2023895629240489, 1.1355666707287273, 1.4596374419453482, -2.0114547339673803, 2.2543688246296556, 1.2579524489152252, -0.004921409018337286, 0.5857290019706104, -0.24558209097413075, 0.050812533113411246, 0.3288825865867306, -1.780225407198041, 1.5323209762326904, 1.0393308834904866, -1.4360483510562494, -0.857434091452479, 1.5214239751292011, 1.3404542849347991, -0.4232821417339311, 0.5901052031103847, 1.6090575678117618, -0.2528941007832762, 1.1162839230964727, -0.4491392975881952, 0.6409305552674682, -0.11941650679965915, -0.5944110291525032, -0.37990538359104686, 1.3634992547634321, 0.4642144798870492, 0.1142304836097727, 0.9112892670529974, 0.8990409081262826, -0.5497878914300198, -0.7689040477634965, 0.17523503489223288, 0.7233947009111396, 0.5590819281229004, 0.1443023848463455, 0.9979018701792307, -1.5139029106339699, 0.7856277813092668, 0.3419745852254567, -0.45036654129912, 1.9104084245929362, 1.5187162908515628, -0.2694074574613249, 0.27251111316776777, 0.49214863723365604, -0.8092916581936548, -0.8221572686712233, 0.8044199368358552, 1.4011775538107931, 1.0256083411089403, 0.4625255352021393, -0.31138517840488505, 0.2737105531966839, 1.6896037729951172, 0.26665739042994585, -0.3622526285853573, 0.5098311446775985, -0.49587245427184146, 0.6050804108261545, -0.038160517493716566, -1.0611186621571986, -1.145780903356661, 0.8365059893816793, -0.39388414341574157, -0.9584726671918341, -1.1752587509972865, -1.9470638937837224, 1.0776021737582673, -0.45533756671005365, 1.114360713293113, 0.1441680000285918, -0.15062337196265493, 0.5132531607549813, 0.11793161754085936, -1.1817165704094166, 0.4378146058768527, 1.0612024941293776, -0.427867620190531, 0.3689170219850063, 0.006932924144777358, 0.18289596307072223, -0.5312949630794721, 0.25272454490102, 1.7101956071968907, -2.2892352148707467, 0.699790010633323, 0.3615144933225548, -0.10500674334050263, -0.9881482832156926, 0.680343311842912, -0.7807361919745269], [0.3798462929915758, -0.16388449175714195, -0.1083426446707759, -1.9908388062317235, 1.3326355317077836, 0.30806121585447904, 0.8052238663213601, 0.9008124333585003, 1.3472452853154704, 1.7270228755616288, -0.19348854167935242, 1.2292351145601361, -0.6583311296409285, -1.1840471404960968, 0.761725107190802, 0.25681182349926823, -1.6865005357393525, 0.02704859907714008, -0.1928188841666929, 0.8986503619487493, -0.015566948494223517, 0.924529384768886, 0.6264618097560828, 0.19811881893605193, -0.5373680827816854, 0.6051405546846068, 0.3260347312844007, -1.4743582489601554, 1.2073378265290506, -0.31484947435669314, 1.7640115475466605, 0.8413974077185792, 1.507891051349404, 0.2459550087098048, -0.09495445182073438, -0.5792453970995518, -0.14758115259869514, 0.3666698224510666, 0.49887706042648317, 0.88978088116148, -0.8451106077310073, 0.02422861779703979, -0.6396539377013415, 1.7482586547384862, 1.4939311881681931, -0.09275408806407749, 0.7027371698728753, -1.3377959196970037, 0.17554344208767222, -1.2676609964606596, -0.9219436792700411, -0.6735997933528837, 1.3654211408975605, 0.0428093240489758, -0.361579900777798, 0.4149832351379239, 1.730650566268106, -1.418556859639348, 1.0487221479604982, 1.356836441185717, 0.14965567235773533, -0.6307344455180018, 0.9315126113560074, 0.7501018900402425, 0.6953061472933239, -0.524661169029779, 0.3831879927946728, 0.6262443713399926, 0.848573780655392, 0.38813587156864576, -0.7658853307675118, -0.12632457609419165, 0.1824859741792784, 1.0680254280370747, 0.9613605735531661, -0.4693632489699663, -2.1249148664186785, 0.8939055855322592, -1.2158953185142645, -0.9936017987345991, -1.2350455213918812, -0.21392389601532324, -1.3676593532120214, -1.8141518549399034, -1.1725953587582136, -0.7731732153100375, 0.6212571216386347, 0.9580993573923986, -1.6337722013433327, -0.3582537797684543, 0.11069087785316091, -0.1380600151083296, -0.4794862936089962, 0.9214493490344441, 0.20913775321573305, -1.1946852395386571, -1.3770192471312916, -0.4478933523673066, -0.0020787119514430684, 0.04011931641658066, -0.7891728387316408, -0.19152299880939863, 0.4167706731548284], [0.24888645196006512, -0.17585322335537446, 0.7434896255940463, -0.5914310135816369, 0.40432129550025253, -0.8042596370160295, -0.6740254399063473, 0.361331833869038, -1.2452302648243907, -0.03541879671326066, 0.3478240207128258, 0.1699354024924123, 1.519286873418133, -1.588394049719235, 0.11860746427659444, 1.3440012257189797, -0.8057782232822646, 0.32179177115510477, 1.2536646548788482, -1.0536128343571223, 1.5041275278231858, -0.031828452516089206, -1.0207806912864508, -0.6277751988298091, 0.43451631539502655, 0.9469162872956415, -0.3548221206235616, 0.07431768187482424, -0.7839120342404126, 0.9711049561156314, -0.019620618179108103, -0.49974689430990793, 1.68458708899977, 0.06560667967724727, -0.4637682182899086, 0.42431377298528866, -1.375749877984683, -0.48417268302898153, -0.0324506105338123, -2.0294015096578537, 2.6668545790224356, 0.08992344969574324, 2.259258946595719, -0.5439314337335999, -1.109586430945957, -2.275034120164381, 0.42202201468492584, 0.5369055084123588, 0.5129843111992693, -1.4071544695369032, 0.05949041341013914, 1.648640706935732, -0.3050950938048801, 0.2001128175602067, -0.7716855265380912, 0.8512028092659698, 0.23174169701882502, -1.069081935241038, -0.5201465554501519, -0.4370972543253475, -0.6860980738894737, -1.008743776511403, 0.8759843170065202, 1.7242349845571112, -0.5739583735386248, 0.4835061376168285, -0.9679687380372801, 0.12772295713472856, -0.03380056481354645, -0.6408345111177239, -0.31119566997379283, 0.4420266376866639, 0.6731653132667711, 1.1878656354344408, 0.07104211496517752, 0.02897228643249447, 0.1763405744068914, 0.6661758408045793, -1.4548204503971398, 0.4656038034081656, -1.4518405401133685, 0.14924571545376494, 1.1580783670498793, 1.2207971558486737, -0.0048367634261218045, 0.447990441158733, -0.47849827551015695, -1.5367502627906147, 2.0840370971102766, -1.093129720204743, -0.008039197141121418, -0.3239099896592873, -0.028647232256221747, -0.8560565982617881, -0.6091780185328358, -0.520412922363995, 0.3398624863517301, 1.44488195470475, 0.011249283403928365, 